-4.219106435775756836e-01 -1.266495347023010254e+00 3.356923758983612061e-01 -2.218316197395324707e-01 9.724102169275283813e-02 -9.247004985809326172e-01 -2.542058229446411133e-01 2.335233986377716064e-02 1.613611727952957153e-01 1.617309600114822388e-01 1.868715137243270874e-01 -8.691017329692840576e-02 -1.881752349436283112e-02 3.812707588076591492e-02 1.501650363206863403e-01 -8.829710632562637329e-02 1.112191528081893921e-01 2.948591113090515137e-01 -3.821541368961334229e-01 1.115023732185363770e+00 4.975389316678047180e-02 -2.105305492877960205e-01 -1.585602574050426483e-02 1.916206359863281250e+00 7.142792344093322754e-01 1.955704689025878906e+00 -9.953131675720214844e-01 -1.831162907183170319e-02 -1.077267825603485107e-01 3.970323130488395691e-03 8.937329649925231934e-01 -1.202495455741882324e+00 1.210221573710441589e-01 -5.094672739505767822e-02 -1.851328134536743164e+00 -2.359191477298736572e-01 6.977115869522094727e-01 7.582459449768066406e-01 -4.587714970111846924e-01 1.218833208084106445e+00 -1.751183420419692993e-01 2.084037661552429199e-01 5.996987223625183105e-01 -5.279188230633735657e-02 -7.211349010467529297e-01 9.887631051242351532e-03 -8.754439651966094971e-02 4.332860708236694336e-01 -4.743920564651489258e-01 -4.877494573593139648e-01 -1.629152148962020874e-01 1.475257635116577148e+00 1.454057455062866211e+00 -2.056720733642578125e+00 6.947685778141021729e-02 6.469734311103820801e-01 8.714883923530578613e-01 6.681565940380096436e-02 2.005990594625473022e-03 2.862384319305419922e-01 -2.180299162864685059e-01 4.678932428359985352e-01 2.337297797203063965e-02 7.643650174140930176e-01 4.794081300497055054e-02 -5.283723771572113037e-02 -1.554873734712600708e-01 5.350875258445739746e-01 -5.325313806533813477e-01 2.108329441398382187e-03 1.001739740371704102e+00 4.627323448657989502e-01 1.898888200521469116e-01 7.375562191009521484e-01 -1.293490886688232422e+00 1.436283998191356659e-02 1.420108824968338013e-01 3.460447117686271667e-02 2.393650263547897339e-01 1.349102854728698730e+00 1.730542629957199097e-02 3.245967030525207520e-01 5.597776174545288086e-01 -5.490041375160217285e-01 3.223376274108886719e-01 3.828883171081542969e-02 1.402818560600280762e-01 1.211755633354187012e+00 -1.522681117057800293e-01 -2.542896270751953125e-01 7.344377785921096802e-02 2.483908459544181824e-02 -3.145536482334136963e-01 4.385927692055702209e-03 -1.795515567064285278e-01 5.709987282752990723e-01 -1.031458616256713867e+00 2.684478759765625000e+00 1.630874276161193848e-01 -8.913806080818176270e-01 1.629462391138076782e-01 -1.626918077468872070e+00 4.966044425964355469e-02 5.119162559509277344e+00 -1.488259881734848022e-01 1.218876317143440247e-01 1.431532204151153564e-01 -1.636272966861724854e-01 1.984602659940719604e-01 5.673293471336364746e-01 1.071601584553718567e-01 1.667169034481048584e-01 -6.084340065717697144e-02 3.575636446475982666e-01 -7.002267241477966309e-02 -3.005164384841918945e+00 3.234172761440277100e-01 -1.165601834654808044e-01 1.813416630029678345e-01 -1.669099479913711548e-01 -2.586619555950164795e-01 6.869618296623229980e-01 -9.820434451103210449e-02 1.893183439970016479e-01 -2.911188900470733643e-01 1.588791251182556152e+00 8.078832626342773438e-01 3.287357464432716370e-02
-2.421334385871887207e-01 2.137156203389167786e-03 -2.405755072832107544e-01 -5.351449549198150635e-02 7.428485900163650513e-02 2.819602005183696747e-02 1.926104538142681122e-02 3.486745655536651611e-01 1.021058708429336548e-01 1.815733015537261963e-01 8.968487381935119629e-02 -5.318316221237182617e-01 -4.206879064440727234e-02 1.826465725898742676e-01 8.309127688407897949e-01 -4.326372444629669189e-01 1.010953709483146667e-01 2.125142365694046021e-01 1.408337652683258057e-01 4.090251326560974121e-01 2.608168423175811768e-01 -2.095669880509376526e-02 -8.375883917324244976e-04 -2.419915050268173218e-01 -1.537756621837615967e-01 6.735336780548095703e+00 1.216630190610885620e-01 6.784730404615402222e-02 -4.504152536392211914e-01 -2.921191044151782990e-02 -1.730549335479736328e-02 2.591292858123779297e-01 2.153015583753585815e-01 -3.694217801094055176e-01 -1.165999332442879677e-03 -1.152908802032470703e+00 -2.982657253742218018e-01 6.190410628914833069e-02 -3.586341440677642822e-01 4.631045460700988770e-02 -1.122267171740531921e-01 8.474249243736267090e-01 -1.306524872779846191e+00 -1.463268846273422241e-01 -5.627545118331909180e-01 9.323294274508953094e-03 6.517342329025268555e-01 4.579145312309265137e-01 2.668409347534179688e-01 -5.433426052331924438e-02 1.859392784535884857e-02 7.361066818237304688e+00 -1.456391066312789917e-01 2.820057570934295654e-01 -6.680263876914978027e-01 3.541979789733886719e-01 5.196161866188049316e-01 1.375741600990295410e+00 4.969936013221740723e-01 1.400834619998931885e-01 -2.110324800014495850e-01 -1.918552070856094360e-01 1.215676590800285339e-01 -2.018712460994720459e-01 5.210682749748229980e-01 7.259709294885396957e-03 7.835522890090942383e-01 -1.416751276701688766e-02 -2.969421213492751122e-03 9.710832498967647552e-03 -1.886778473854064941e-01 8.653447777032852173e-02 1.321470379829406738e+00 8.969701081514358521e-02 4.994998127222061157e-02 1.507100183516740799e-02 -9.360259026288986206e-02 -6.202507019042968750e-01 7.703261077404022217e-02 -6.887992471456527710e-02 -5.085674673318862915e-02 -4.866142868995666504e-01 2.096094787120819092e-01 8.366089314222335815e-02 1.275835931301116943e-02 -4.045321047306060791e-01 -7.327671647071838379e-01 -1.120635680854320526e-02 -6.729645729064941406e-01 -1.426739811897277832e+00 -8.993341028690338135e-02 -2.635900862514972687e-02 3.513013944029808044e-02 -7.686872780323028564e-02 1.538863778114318848e-01 -6.560984253883361816e-01 7.773157209157943726e-02 -4.954881668090820312e+00 -9.598048031330108643e-02 1.861011087894439697e-01 -2.893542945384979248e-01 -1.557822823524475098e-01 -1.060770899057388306e-01 -3.561713695526123047e+00 9.118335843086242676e-01 -1.877238154411315918e-01 2.642951011657714844e-01 5.313018560409545898e-01 -2.198512665927410126e-03 1.422012411057949066e-02 1.902205348014831543e-01 -8.089531958103179932e-02 -2.079486846923828125e-01 1.026596784591674805e+00 1.431749910116195679e-01 -5.425015449523925781e+00 8.963495492935180664e-03 -1.039226129651069641e-01 -2.256756182760000229e-03 6.395261883735656738e-01 5.406348109245300293e-01 3.911083698272705078e+00 1.566696524620056152e+00 4.894219934940338135e-01 2.211871147155761719e-01 9.799902141094207764e-02 -1.782451421022415161e-01 -4.012225568294525146e-01
-1.222916096448898315e-01 -5.898346751928329468e-02 -2.381127625703811646e-01 -5.359333157539367676e-01 -8.013532496988773346e-04 -1.046259794384241104e-02 2.626632712781429291e-02 6.221646070480346680e-01 4.867771565914154053e-01 2.010221481323242188e-01 3.020067512989044189e-01 4.433052986860275269e-02 3.972308039665222168e-01 -1.132024526596069336e-01 -1.062412336468696594e-01 1.837702989578247070e-01 1.865999400615692139e-01 -5.925652384757995605e-01 2.098115161061286926e-03 3.756757974624633789e-01 7.452751696109771729e-02 -5.629659816622734070e-02 2.738515734672546387e-01 5.918635725975036621e-01 8.950086236000061035e-01 3.110875844955444336e+00 -1.582101136445999146e-01 3.840875327587127686e-01 3.703095614910125732e-01 -9.374156594276428223e-02 4.392307758331298828e+00 8.524493128061294556e-02 1.264522224664688110e-01 -3.315967619419097900e-01 7.283765077590942383e-01 -1.387331038713455200e-01 1.326885342597961426e+00 -2.212932109832763672e-01 -1.312560796737670898e+00 4.688937962055206299e-02 9.784980416297912598e-01 -2.574171721935272217e-01 -3.669413328170776367e-01 4.857535958290100098e-01 -9.224185347557067871e-01 2.349893003702163696e-01 -1.390241503715515137e+00 2.338390052318572998e-01 4.815816283226013184e-01 -4.101161956787109375e-01 2.089202404022216797e-01 2.379749536514282227e+00 6.314574480056762695e-01 -4.607415676116943359e+00 -1.676180660724639893e-01 1.433425068855285645e+00 -7.619927525520324707e-01 3.415737301111221313e-02 -8.618123829364776611e-02 4.844177365303039551e-01 6.330109238624572754e-01 -3.833001106977462769e-02 -1.407755136489868164e+00 -5.185068845748901367e-01 2.813610136508941650e-01 7.495763897895812988e-01 2.168388366699218750e-01 6.895143389701843262e-01 -6.065066456794738770e-01 -6.012197732925415039e-01 4.928294941782951355e-02 -5.706126093864440918e-01 -3.876973390579223633e-01 5.854656696319580078e-01 -2.457613795995712280e-01 5.539137721061706543e-01 1.362696886062622070e-01 1.895143091678619385e-01 8.008826375007629395e-01 6.769721955060958862e-02 6.419364809989929199e-01 -7.311178445816040039e-01 5.124042034149169922e-01 1.543773114681243896e-01 3.951310813426971436e-01 5.504575967788696289e-01 -1.964222267270088196e-02 -5.079355090856552124e-02 -4.224932491779327393e-01 -6.954345107078552246e-01 2.767924666404724121e-01 6.563452482223510742e-01 -2.803982496261596680e-01 6.799491047859191895e-01 -5.869810581207275391e-01 9.390023946762084961e-01 -9.002575278282165527e-02 2.025191497802734375e+01 -1.294981241226196289e+00 -2.192086577415466309e-01 -1.205852776765823364e-01 -1.865237951278686523e-01 4.544372558593750000e-01 -4.471082687377929688e+00 6.743302196264266968e-02 2.093930244445800781e-01 -1.818138211965560913e-01 5.091486126184463501e-02 7.427521347999572754e-01 2.948906421661376953e-01 1.999756246805191040e-01 2.818680703639984131e-01 3.903328627347946167e-02 -1.352136969566345215e+00 -3.748910427093505859e-01 -3.649085044860839844e+00 -2.009478509426116943e-01 1.851869225502014160e-01 6.459969878196716309e-01 1.520870625972747803e-01 -1.111016631126403809e+00 -2.465247631072998047e+00 2.572069168090820312e-01 6.210790276527404785e-01 6.100162863731384277e-01 -4.744757115840911865e-01 -3.001434803009033203e-01 -3.524966239929199219e-01
-3.496702313423156738e-01 -1.064409017562866211e-01 -1.067202448844909668e+00 5.727820396423339844e-01 -6.005317845847457647e-05 -1.178638041019439697e-01 2.498948574066162109e-02 8.522492051124572754e-01 4.748486578464508057e-01 1.816872954368591309e-01 -4.164827167987823486e-01 3.948487807065248489e-03 -1.111200571060180664e+00 -2.141548693180084229e-01 8.593850731849670410e-01 -2.237818837165832520e-01 1.250102877616882324e+00 -3.087200522422790527e-01 -3.462755978107452393e-01 -2.291792631149291992e-01 2.632315754890441895e-01 3.463274538516998291e-01 -9.611265063285827637e-01 4.683437049388885498e-01 1.330177336931228638e-01 5.726600289344787598e-01 -1.403860449790954590e-01 -1.267380714416503906e-01 -2.066602259874343872e-01 3.650692999362945557e-01 2.559568881988525391e+00 -4.741276800632476807e-02 2.053197622299194336e-01 -2.459821701049804688e-01 1.885630637407302856e-01 9.133438467979431152e-01 -9.419754892587661743e-02 1.077243387699127197e-01 -1.080611705780029297e+00 4.125954583287239075e-02 2.600423991680145264e-01 8.486768603324890137e-01 3.357715010643005371e-01 -2.873662412166595459e-01 4.655493795871734619e-01 2.079429030418395996e-01 2.155114337801933289e-02 3.574194014072418213e-01 2.138652503490447998e-01 4.852973818778991699e-01 4.600171744823455811e-01 1.218111634254455566e+00 2.052261829376220703e-01 -2.659523248672485352e+00 9.952527284622192383e-01 1.226441502571105957e+00 -3.401533961296081543e-01 -1.117123849689960480e-02 4.525400996208190918e-01 1.976679265499114990e-01 -6.333607435226440430e-01 9.588207602500915527e-01 -1.760994195938110352e+00 3.402683511376380920e-02 4.910318851470947266e-01 -8.884983658790588379e-01 4.567695260047912598e-01 -2.799878716468811035e-01 3.703696429729461670e-01 9.561021924018859863e-01 -4.876601323485374451e-02 -8.789021521806716919e-03 5.283511877059936523e-01 1.467934101819992065e-01 1.431626528501510620e-01 1.043123364448547363e+00 -5.313138961791992188e-01 -6.202881783246994019e-02 9.018442034721374512e-02 1.924748159945011139e-02 6.149327754974365234e-01 -3.506687581539154053e-01 -1.835289448499679565e-01 2.706610970199108124e-02 3.396315276622772217e-01 -9.736176133155822754e-01 1.935078501701354980e-01 -1.690079271793365479e-02 -1.104084014892578125e+00 2.917191088199615479e-01 -5.542952567338943481e-02 -2.035345435142517090e-01 1.494281440973281860e-01 4.947391152381896973e-01 -1.836053848266601562e+00 2.483241558074951172e-01 -2.136436849832534790e-01 1.029049491882324219e+01 -8.152716755867004395e-01 2.748365700244903564e-01 -5.198052525520324707e-01 -4.989140108227729797e-02 -1.338501811027526855e+00 -2.529191255569458008e+00 -5.030075833201408386e-02 -1.680872291326522827e-01 -1.694689750671386719e+00 3.700042888522148132e-02 -4.463550150394439697e-01 -4.539398849010467529e-01 -1.574502944946289062e+00 6.184158325195312500e-01 -9.919780492782592773e-01 2.057982206344604492e+00 -6.923645734786987305e-02 -2.472436666488647461e+00 -3.836926072835922241e-02 -9.129554033279418945e-01 -2.051433324813842773e-01 -2.151372730731964111e-01 -2.187367230653762817e-01 -1.921292424201965332e+00 2.558390796184539795e-01 3.344959020614624023e-01 4.506699442863464355e-01 3.835015296936035156e-01 3.636326408013701439e-03 -3.366892337799072266e-01
-6.926986575126647949e-02 1.598945558071136475e-01 1.202491044998168945e+00 2.642297446727752686e-01 3.835430741310119629e-02 2.873147726058959961e-01 -7.440744433552026749e-03 2.331428974866867065e-01 -1.120971962809562683e-01 3.479472398757934570e-01 8.802289962768554688e-01 1.449574250727891922e-02 4.242419004440307617e-01 3.746835142374038696e-02 5.130032300949096680e-01 -5.331301093101501465e-01 -2.990167737007141113e-01 3.410271406173706055e-01 -1.189023107290267944e-01 1.478450745344161987e-01 -5.130830407142639160e-02 -2.317257970571517944e-01 9.388741850852966309e-01 6.828545928001403809e-01 -1.089686155319213867e-01 2.133503913879394531e+00 6.963838636875152588e-02 -1.160212084650993347e-01 8.934054523706436157e-02 -6.319394111633300781e-01 1.688472151756286621e+00 1.751821190118789673e-01 4.343539103865623474e-02 4.468059539794921875e-02 6.547892093658447266e-01 -1.698656380176544189e-01 -5.150541663169860840e-01 3.034780919551849365e-01 1.004344075918197632e-01 -1.229665279388427734e-01 1.365944445133209229e-01 -4.974029064178466797e-01 -1.029868245124816895e+00 2.378566414117813110e-01 -6.196283698081970215e-01 -9.972265958786010742e-01 2.217136919498443604e-01 -7.837467826902866364e-03 -2.594833672046661377e-01 6.416257023811340332e-01 -2.005545377731323242e+00 1.035728259012103081e-03 -2.067011594772338867e-01 -1.705236434936523438e+00 -1.458427906036376953e-01 -9.417725801467895508e-01 2.350789010524749756e-01 5.671715736389160156e-02 -3.432717919349670410e-01 1.247806668281555176e+00 4.132629036903381348e-01 2.258752137422561646e-01 -7.362610101699829102e-02 -7.319387793540954590e-01 5.627457499504089355e-01 9.679399132728576660e-01 1.297863274812698364e-01 2.465885132551193237e-01 -6.466567516326904297e-01 -6.395342350006103516e-01 -2.387501746416091919e-01 -7.377293705940246582e-02 4.589590132236480713e-01 3.959237933158874512e-01 5.414068698883056641e-02 -2.986449897289276123e-01 8.474355340003967285e-01 3.834319710731506348e-01 7.210564613342285156e-02 -1.143699064850807190e-01 -5.905270576477050781e-01 -7.045891135931015015e-02 -3.673107549548149109e-02 4.463559985160827637e-01 1.776486784219741821e-01 1.655654162168502808e-01 -6.114527583122253418e-02 -7.124414294958114624e-02 -8.185158371925354004e-01 1.145095586776733398e+00 4.389914572238922119e-01 -1.737893074750900269e-01 -6.645762920379638672e-02 1.432129293680191040e-01 -6.331411600112915039e-01 -3.968365788459777832e-01 1.123715788125991821e-01 2.684019804000854492e+00 -9.403059482574462891e-01 -2.191771417856216431e-01 -7.301213592290878296e-02 2.112583667039871216e-01 7.469856739044189453e-01 -3.183689117431640625e-01 -1.067769154906272888e-01 -1.131720691919326782e-01 -8.218020796775817871e-01 -1.817773878574371338e-01 4.284853339195251465e-01 -2.411226332187652588e-01 -1.894735217094421387e+00 -1.996629387140274048e-01 3.384319543838500977e-01 1.183956861495971680e+00 1.779929637908935547e+00 -2.386788874864578247e-01 -4.930200427770614624e-02 3.874387145042419434e-01 1.441406011581420898e-01 -1.160398423671722412e-01 2.851380407810211182e-02 -9.570037722587585449e-01 2.903807349503040314e-02 2.949393391609191895e-01 3.233029246330261230e-01 -1.235575228929519653e-01 5.062459111213684082e-01 2.081275284290313721e-01
-1.033842802047729492e+00 -7.647056877613067627e-02 3.346119225025177002e-01 1.245970129966735840e-01 -2.540296614170074463e-01 -1.281931251287460327e-01 -2.392294630408287048e-02 -1.817176789045333862e-01 -8.366446942090988159e-03 3.559497296810150146e-01 -2.517136335372924805e-01 1.181077837944030762e+00 -2.941744402050971985e-02 -5.186092257499694824e-01 -1.729792952537536621e-01 -2.350731752812862396e-02 1.777914464473724365e-01 2.888166606426239014e-01 -1.421903609298169613e-03 -4.543996751308441162e-01 -2.149608284235000610e-01 -2.534429728984832764e-01 1.540687531232833862e-01 -3.135652244091033936e-01 -5.960781872272491455e-02 2.484684228897094727e+00 7.592121511697769165e-02 5.521094202995300293e-01 1.949135303497314453e+00 1.217162087559700012e-01 -3.651889264583587646e-01 2.520667575299739838e-02 6.580467820167541504e-01 3.974469602108001709e-01 -5.910421013832092285e-01 -5.538040399551391602e-01 -7.084727287292480469e-02 -8.453984856605529785e-01 9.334820508956909180e-02 -1.292924880981445312e-01 9.510679543018341064e-02 5.513083934783935547e-02 -9.263968467712402344e-01 -9.465734660625457764e-02 -1.195088401436805725e-01 7.148351869545876980e-04 -2.606952786445617676e-01 3.454709351062774658e-01 -1.431351061910390854e-03 8.829990029335021973e-01 -1.955596804618835449e-01 3.405571222305297852e+00 -3.408914208412170410e-01 2.953965067863464355e-01 -2.823292613029479980e-01 -9.850702434778213501e-02 2.753743529319763184e-02 3.135692477226257324e-01 3.679547309875488281e-01 2.461573481559753418e-01 -1.881908625364303589e-01 -9.147929400205612183e-02 -2.166560888290405273e-01 3.693347275257110596e-01 1.893413662910461426e-01 -3.973889946937561035e-01 1.206891164183616638e-01 -7.564114779233932495e-02 -1.849868297576904297e-01 8.122546598315238953e-03 -1.492445077747106552e-02 4.343912601470947266e-01 -3.223518133163452148e-01 -1.108445078134536743e-01 -8.103741705417633057e-02 -3.330344855785369873e-01 -2.070295661687850952e-01 -1.318010389804840088e-01 2.755635231733322144e-02 -3.180384170264005661e-03 -3.527500331401824951e-01 -1.875092536211013794e-01 4.851052165031433105e-02 -4.875515028834342957e-02 -2.209898233413696289e-01 -5.128222703933715820e-01 5.005152225494384766e-01 -3.745309263467788696e-02 -6.556910872459411621e-01 4.980132281780242920e-01 -5.101019144058227539e-02 1.562521606683731079e-02 1.092468351125717163e-01 2.022061496973037720e-01 -3.553943037986755371e-01 -9.360538721084594727e-01 -4.536358267068862915e-02 -1.080042600631713867e+00 -9.551206231117248535e-02 -9.177640080451965332e-02 4.305872321128845215e-02 1.126380190253257751e-01 -1.244632229208946228e-01 -7.554978728294372559e-01 -3.170766830444335938e+00 9.759757667779922485e-02 1.940761357545852661e-01 -1.338305950164794922e+00 -1.595052480697631836e-01 -2.012903690338134766e-01 -3.149855434894561768e-01 1.017309352755546570e-01 -1.072751134634017944e-01 -1.782443001866340637e-02 -9.148820042610168457e-01 -2.841973781585693359e+00 8.957703411579132080e-02 9.206024557352066040e-02 -1.569817028939723969e-02 -1.821680665016174316e+00 -8.675776422023773193e-02 -4.399993717670440674e-01 5.115915536880493164e-01 1.631205230951309204e-01 -1.894554793834686279e-01 -1.515612192451953888e-02 1.769586950540542603e-01 2.957240641117095947e-01
