3.868665397167205811e-01
4.489183723926544189e-01
4.701850712299346924e-01
3.647886216640472412e-01
-8.300469070672988892e-02
6.215511262416839600e-02
-3.376401364803314209e-01
-1.263236347585916519e-02
2.441641986370086670e-01
4.598452895879745483e-02
1.576262861490249634e-01
2.104897424578666687e-02
-1.138847023248672485e-01
1.640721112489700317e-01
1.209859490394592285e+00
-2.478676587343215942e-01
3.519334197044372559e-01
-3.410714911296963692e-03
-5.088146328926086426e-01
-4.867078363895416260e-02
1.675427109003067017e-01
-4.320875704288482666e-01
-1.322264671325683594e-01
-3.788302540779113770e-01
2.602629363536834717e-01
1.768765002489089966e-01
4.364564418792724609e-01
-1.351334005594253540e-01
-1.081133112311363220e-01
-4.056738615036010742e-01
-2.839185297489166260e-01
9.105695039033889771e-02
1.959063410758972168e-01
-3.988967537879943848e-01
1.289002895355224609e-01
-5.141335129737854004e-01
2.864235937595367432e-01
5.291802287101745605e-01
-1.565709561109542847e-01
-2.561299502849578857e-01
6.851682811975479126e-02
-2.351591587066650391e-01
4.491123557090759277e-02
-2.708239853382110596e-01
6.038386821746826172e-01
2.048564404249191284e-01
-1.255234330892562866e-01
1.058713942766189575e-01
9.372127801179885864e-02
5.458396077156066895e-01
1.561902165412902832e-01
3.546513915061950684e-01
9.242918342351913452e-02
-2.180915139615535736e-02
1.388718485832214355e-01
6.361953020095825195e-01
5.313260555267333984e-01
-2.231103777885437012e-01
-1.997489184141159058e-01
2.038371413946151733e-01
-7.589912973344326019e-03
3.021602928638458252e-01
-3.827283158898353577e-02
4.097076952457427979e-01
6.394924223423004150e-02
3.629059493541717529e-01
-9.264218062162399292e-02
2.611092329025268555e-01
2.152882069349288940e-01
1.450260281562805176e-01
6.460555791854858398e-01
-3.119158744812011719e-01
3.766175210475921631e-01
-8.059675246477127075e-02
2.547058463096618652e-01
-6.722941994667053223e-01
4.429475367069244385e-01
5.923978611826896667e-02
-4.910483360290527344e-01
1.236553639173507690e-01
-1.847145855426788330e-01
-2.245808243751525879e-01
-1.756247598677873611e-03
-2.275443524122238159e-01
-7.418646812438964844e-01
-3.782132863998413086e-01
3.373907506465911865e-01
8.236273527145385742e-01
-3.171153664588928223e-01
-1.447729319334030151e-01
1.316918879747390747e-01
5.052973702549934387e-02
3.674175357446074486e-03
1.889558322727680206e-02
6.603039503097534180e-01
-1.340942084789276123e-01
-2.876743972301483154e-01
5.479165911674499512e-02
-1.506929397583007812e-01
4.745138883590698242e-01
-1.365146487951278687e-01
-7.999338954687118530e-02
-9.365013986825942993e-02
1.077538877725601196e-01
-3.185066282749176025e-01
5.152624249458312988e-01
5.561684444546699524e-02
-5.101030692458152771e-02
2.735470235347747803e-01
4.491900801658630371e-01
-1.293757706880569458e-01
-1.539929024875164032e-02
8.632915616035461426e-01
6.472280621528625488e-01
-5.476512014865875244e-02
-2.598218023777008057e-01
-3.179110586643218994e-01
9.903278946876525879e-02
-1.797035336494445801e-01
-7.992215454578399658e-02
1.864073574542999268e-01
-2.125000655651092529e-01
3.863093554973602295e-01
-7.018021494150161743e-02
2.066088840365409851e-02
-3.787193298339843750e-01
1.285192966461181641e-01
-1.532423794269561768e-01
5.975942015647888184e-01
2.498538047075271606e-01
4.539198055863380432e-02
2.833351194858551025e-01
3.291665017604827881e-02
1.270177662372589111e-01
-2.867792844772338867e-01
-5.249048471450805664e-01
2.371265292167663574e-01
3.879506886005401611e-01
3.338526189327239990e-01
-2.231857925653457642e-02
4.106918275356292725e-01
2.159686982631683350e-01
-6.321820020675659180e-01
9.919159114360809326e-02
3.369454145431518555e-01
2.534181773662567139e-01
4.325126111507415771e-01
-5.153319239616394043e-01
2.991832047700881958e-02
2.613230347633361816e-01
-2.041519433259963989e-01
5.834349989891052246e-01
3.011360168457031250e-01
1.070347651839256287e-01
-1.691573858261108398e-02
2.165672183036804199e-01
-1.933322101831436157e-01
4.810588359832763672e-01
4.234073162078857422e-01
-3.977658748626708984e-01
-1.467629820108413696e-01
4.191166162490844727e-01
8.289256691932678223e-02
4.206800162792205811e-01
2.810983359813690186e-01
4.237416088581085205e-01
2.939316332340240479e-01
2.947228848934173584e-01
3.538420796394348145e-01
4.336717724800109863e-01
1.179083958268165588e-01
3.565658628940582275e-01
1.524330377578735352e-01
-3.981438279151916504e-01
4.539429545402526855e-01
3.428230881690979004e-01
1.093749105930328369e-01
3.877572119235992432e-01
1.348409242928028107e-02
3.208564817905426025e-01
-3.979740142822265625e-01
4.589052498340606689e-01
-1.826680898666381836e-01
-4.409818351268768311e-01
-3.602920174598693848e-01
9.631288796663284302e-02
-6.015535816550254822e-02
-4.143588989973068237e-02
-6.876213848590850830e-02
5.402892231941223145e-01
1.617531627416610718e-01
-9.744217991828918457e-02
3.806563913822174072e-01
-9.574069827795028687e-02
-1.440048031508922577e-02
-3.901758193969726562e-01
-1.138348481617867947e-03
4.411125183105468750e-02
6.335247755050659180e-01
4.338302314281463623e-01
2.583990097045898438e-01
3.383190929889678955e-01
-3.845802247524261475e-01
3.440253734588623047e-01
3.530438840389251709e-01
2.086908072233200073e-01
5.270853638648986816e-01
-9.896290488541126251e-03
4.184143245220184326e-01
2.731566131114959717e-01
1.166733503341674805e-01
3.466836512088775635e-01
4.812234342098236084e-01
-6.155804265290498734e-03
1.222187802195549011e-01
-5.010752677917480469e-01
3.501643538475036621e-01
2.543697059154510498e-01
-4.403442144393920898e-02
-2.275680154561996460e-01
2.058174014091491699e-01
2.906081676483154297e-01
-1.803082227706909180e-01
6.199526190757751465e-01
-2.965704202651977539e-01
4.164855778217315674e-01
3.936987817287445068e-01
6.326953880488872528e-03
4.623818993568420410e-01
2.297536879777908325e-01
4.518218040466308594e-01
3.251595199108123779e-01
5.841861367225646973e-01
-2.560988664627075195e-01
-2.744298279285430908e-01
-1.911899596452713013e-01
1.146897450089454651e-01
-3.039229474961757660e-02
-2.628988921642303467e-01
1.834452301263809204e-01
-6.983248591423034668e-01
-6.170453503727912903e-02
5.931589007377624512e-02
2.413160651922225952e-01
4.793036878108978271e-01
2.113854289054870605e-01
4.362376332283020020e-01
3.349936306476593018e-01
-1.972593218088150024e-01
2.567349672317504883e-01
-1.467984616756439209e-01
-4.715554416179656982e-02
1.523947864770889282e-01
2.865239679813385010e-01
1.001029536128044128e-01
2.932063639163970947e-01
-1.034873872995376587e-01
1.549306064844131470e-01
-1.356445550918579102e-01
-1.534927636384963989e-01
-1.890269368886947632e-01
3.645496964454650879e-01
3.368251398205757141e-02
3.615795820951461792e-02
-4.148307442665100098e-02
1.724014133214950562e-01
-3.207173645496368408e-01
-2.493215911090373993e-02
-2.306696958839893341e-02
4.431684613227844238e-01
5.164768546819686890e-02
-2.408980876207351685e-01
3.417860865592956543e-01
-1.880020648241043091e-01
1.851726509630680084e-02
-1.683590188622474670e-02
-6.440051645040512085e-02
-4.037309437990188599e-02
8.934213779866695404e-03
-1.067012846469879150e-01
-1.962941139936447144e-01
1.392205953598022461e-01
-1.579569838941097260e-02
1.140397191047668457e-01
-1.630939096212387085e-01
3.836001455783843994e-02
4.821822978556156158e-03
-2.173985540866851807e-01
1.013846471905708313e-01
-7.097552716732025146e-02
-4.135948792099952698e-02
-2.565229870378971100e-02
-2.636606991291046143e-01
-3.943989276885986328e-01
-1.374884992837905884e-01
2.747542560100555420e-01
8.896300569176673889e-03
2.767187915742397308e-02
3.727964684367179871e-02
-4.533614590764045715e-02
1.392641812562942505e-01
-1.794704794883728027e-01
-4.088141322135925293e-01
-1.204568147659301758e-01
-3.706545382738113403e-02
3.086984157562255859e-01
3.158198595046997070e-01
3.744989931583404541e-01
6.323303282260894775e-02
-4.162517189979553223e-02
7.572974264621734619e-02
1.062355786561965942e-01
1.599408239126205444e-01
1.664684712886810303e-02
-1.580713093280792236e-01
4.282107949256896973e-02
2.453483827412128448e-02
-3.025892674922943115e-01
-1.016946062445640564e-01
-2.117444723844528198e-01
2.389664202928543091e-01
2.092975229024887085e-01
-1.227978095412254333e-01
-4.311915636062622070e-01
-7.302310317754745483e-02
2.729447484016418457e-01
-2.909419685602188110e-02
2.284400612115859985e-01
-3.014044463634490967e-02
-1.560926437377929688e-01
-4.179419577121734619e-01
-5.194266512989997864e-02
3.000634014606475830e-01
7.991372793912887573e-02
7.982872426509857178e-02
-2.266444563865661621e-01
7.139363884925842285e-02
-3.489044308662414551e-01
4.262914955615997314e-01
-1.281388252973556519e-01
-7.471218705177307129e-02
-3.502361476421356201e-02
-4.512354433536529541e-01
-8.732271939516067505e-02
-3.227000124752521515e-04
1.641453616321086884e-02
1.390653401613235474e-01
-9.737679362297058105e-02
2.697367966175079346e-01
-3.307848870754241943e-01
2.365360558032989502e-01
-7.190814614295959473e-02
-7.541735470294952393e-02
2.208482176065444946e-01
-1.404231786727905273e-01
1.432713717222213745e-01
1.484321802854537964e-01
1.632965356111526489e-01
1.641098707914352417e-01
8.494231104850769043e-02
-4.739470779895782471e-03
2.841433286666870117e-01
8.809084445238113403e-02
-4.487628862261772156e-02
1.340050846338272095e-01
1.803280264139175415e-01
3.802684843540191650e-01
-1.917849630117416382e-01
7.900357991456985474e-02
2.580742537975311279e-01
1.687083840370178223e-01
3.364882469177246094e-01
-7.069575041532516479e-02
-2.043734490871429443e-01
1.155404001474380493e-01
-1.268469691276550293e-01
1.458032280206680298e-01
-6.376999616622924805e-02
2.467552274465560913e-01
-2.557588741183280945e-02
1.870317617431282997e-03
-1.335179619491100311e-02
-1.231473758816719055e-01
-4.184215664863586426e-01
8.950133621692657471e-02
6.249389052391052246e-01
6.621331572532653809e-01
4.487739205360412598e-01
2.753464281558990479e-01
1.946387887001037598e-01
5.230541229248046875e-01
6.886653900146484375e-01
3.742967545986175537e-01
7.436870038509368896e-02
2.560474872589111328e-01
1.517644673585891724e-01
3.361776769161224365e-01
1.093220859766006470e-01
5.569734573364257812e-01
3.004972040653228760e-01
2.622593343257904053e-01
3.362848758697509766e-01
4.407192766666412354e-01
-4.886430501937866211e-02
8.233593106269836426e-01
-1.103475391864776611e-01
-3.604767322540283203e-01
4.244350790977478027e-01
5.770080089569091797e-01
3.892905414104461670e-01
-1.780340671539306641e-01
2.868704795837402344e-01
5.829015374183654785e-02
2.663340568542480469e-01
9.544921666383743286e-02
9.902772307395935059e-01
2.302963137626647949e-01
4.872348904609680176e-01
5.220675468444824219e-01
7.463377714157104492e-01
2.397488355636596680e-01
4.409147500991821289e-01
1.453973054885864258e-01
3.770455121994018555e-01
2.409957498311996460e-01
3.222619295120239258e-01
7.936454564332962036e-02
1.375482231378555298e-01
5.811765193939208984e-01
5.489914417266845703e-01
5.980209112167358398e-01
4.802155792713165283e-01
3.635757565498352051e-01
6.111572980880737305e-01
2.230734676122665405e-01
4.194924235343933105e-01
1.334974020719528198e-01
4.678909480571746826e-01
-5.101654678583145142e-02
7.892861366271972656e-01
2.428397983312606812e-01
4.393182396888732910e-01
1.638947874307632446e-01
4.866070449352264404e-01
1.871284469962120056e-02
2.537617385387420654e-01
1.367738936096429825e-02
6.194545626640319824e-01
7.394834607839584351e-02
4.243890345096588135e-01
-2.361782826483249664e-02
3.689486980438232422e-01
4.150151833891868591e-02
8.522772789001464844e-01
5.810641646385192871e-01
5.561526417732238770e-01
3.481206297874450684e-01
2.258058935403823853e-01
5.272244811058044434e-01
3.260218501091003418e-01
3.505758345127105713e-01
1.688924878835678101e-01
6.538931727409362793e-01
1.220262125134468079e-01
2.299047857522964478e-01
4.577721357345581055e-01
2.509908676147460938e-01
2.034609615802764893e-01
7.386940121650695801e-01
6.887005269527435303e-02
2.087250947952270508e-01
7.295991778373718262e-01
6.162565946578979492e-01
3.587729334831237793e-01
4.046621918678283691e-01
1.373953223228454590e-01
1.115616634488105774e-01
5.397247076034545898e-01
6.044351458549499512e-01
4.412339627742767334e-01
-1.209874227643013000e-01
1.101015135645866394e-01
2.098275721073150635e-01
6.920022964477539062e-01
6.528265774250030518e-02
1.493525654077529907e-01
9.913731366395950317e-02
3.789345622062683105e-01
3.072818219661712646e-01
6.850756406784057617e-01
9.582557529211044312e-02
3.180363476276397705e-01
3.464057147502899170e-01
5.959116816520690918e-01
5.278165936470031738e-01
4.186495244503021240e-01
3.954642117023468018e-01
9.812533259391784668e-01
4.574844539165496826e-01
5.568959936499595642e-02
7.965952754020690918e-01
2.602729499340057373e-01
4.008231163024902344e-01
1.002201810479164124e-01
2.300151437520980835e-01
2.268146276473999023e-01
8.535367250442504883e-01
2.486869692802429199e-01
2.345675975084304810e-01
6.630900502204895020e-02
1.284171342849731445e-01
3.485738635063171387e-01
