1.299574136734008789e+00 -1.436813712120056152e+00 -8.581319451332092285e-01 -7.498143911361694336e-01 -1.001357555389404297e+00 -4.153774678707122803e-01 -7.375845909118652344e-01 1.748211741447448730e+00 9.696851372718811035e-01 -2.057178974151611328e+00 1.504108667373657227e+00 1.874841928482055664e+00 7.649435400962829590e-01 -1.190674662590026855e+00 -1.093958735466003418e+00 1.356575727462768555e+00 2.098579883575439453e+00 -1.398589491844177246e+00 -7.208446264266967773e-01 1.976316608488559723e-02
-1.034452080726623535e+00 1.092401146888732910e+00 1.122880101203918457e+00 6.190577149391174316e-01 1.330207586288452148e+00 7.730881571769714355e-01 8.181374669075012207e-01 -1.942578792572021484e+00 -1.057323217391967773e+00 2.036675930023193359e+00 -1.367802739143371582e+00 -1.748430609703063965e+00 -1.017735600471496582e+00 7.855585813522338867e-01 1.022294878959655762e+00 -1.445058584213256836e+00 -2.190112829208374023e+00 1.501782298088073730e+00 8.976656198501586914e-01 -1.757806837558746338e-01
