1.716164797544479370e-01 9.978620707988739014e-02 -1.988428235054016113e-01 -4.722203612327575684e-01 -3.690600097179412842e-01 -3.091596961021423340e-01 9.443376660346984863e-01 -1.058222278952598572e-01 -1.467765271663665771e-01 1.994665712118148804e-01 -2.774357199668884277e-01 -3.060094416141510010e-01 -6.000985577702522278e-02 -2.295177429914474487e-01 2.396421730518341064e-01 2.540673017501831055e-01 -1.520285308361053467e-01 6.773424148559570312e-02 5.058572888374328613e-01 7.137345522642135620e-02 3.578532338142395020e-01 6.857593059539794922e-01 -6.258047223091125488e-01 -1.598025858402252197e-02 5.617964863777160645e-01 -3.503046929836273193e-01 -7.067597657442092896e-02 -1.015243157744407654e-01 2.922551929950714111e-01 -4.430551826953887939e-01 1.673613190650939941e-01 -9.253255277872085571e-02 -2.455387562513351440e-01 2.103666663169860840e-01 3.877051472663879395e-01 1.399154029786586761e-02 4.122435748577117920e-01 3.335254192352294922e-01 -7.450394034385681152e-01 -9.806229174137115479e-02
7.668822258710861206e-02 -2.205778211355209351e-01 -2.490465790033340454e-01 -3.669627606868743896e-01 2.138424217700958252e-01 8.011362552642822266e-01 -3.765684366226196289e-01 5.258523225784301758e-01 4.285622537136077881e-01 1.730251759290695190e-01 1.170107275247573853e-01 1.993812173604965210e-01 4.597137123346328735e-02 -2.158084958791732788e-01 -2.457633316516876221e-01 7.501726150512695312e-01 2.987063229084014893e-01 -3.824019134044647217e-01 -3.406132459640502930e-01 -6.587948650121688843e-02 3.844023942947387695e-01 -1.622598916292190552e-01 5.559710785746574402e-02 -8.534606099128723145e-01 -3.488082587718963623e-01 -3.325068056583404541e-01 2.174416184425354004e-01 4.226349294185638428e-01 4.799847900867462158e-01 -2.597127258777618408e-01 3.613497614860534668e-01 -3.045495450496673584e-01 4.060161113739013672e-01 -4.524672329425811768e-01 -1.528477370738983154e-01 4.492198303341865540e-02 3.817979246377944946e-02 2.694906592369079590e-01 -2.483987435698509216e-02 2.802782952785491943e-01
-2.829017043113708496e-01 7.179029583930969238e-01 -3.402449563145637512e-02 -2.716437578201293945e-01 -5.448392629623413086e-01 -4.181857779622077942e-02 -2.016984485089778900e-02 4.821472242474555969e-02 -5.309495702385902405e-02 4.266597926616668701e-01 7.166132330894470215e-01 8.920100331306457520e-01 2.807992100715637207e-01 -4.709436893463134766e-01 -2.984062070026993752e-03 1.182952988892793655e-02 5.242453813552856445e-01 -4.091456830501556396e-01 3.511362150311470032e-02 1.665999144315719604e-01 2.080519497394561768e-01 1.630356907844543457e-01 -9.711945801973342896e-02 -2.441641688346862793e-01 -5.735754370689392090e-01 -5.942140221595764160e-01 2.035788148641586304e-01 4.463445246219635010e-01 -2.681761384010314941e-01 -2.613440155982971191e-01 -3.156358003616333008e-01 -1.375570893287658691e-01 -4.282742738723754883e-02 -2.903380095958709717e-01 2.599000036716461182e-01 3.184233307838439941e-01 1.605456322431564331e-01 3.383083045482635498e-01 4.307500720024108887e-01 2.086645364761352539e-01
2.911584079265594482e-01 1.134181693196296692e-01 -1.542305052280426025e-01 -4.471854567527770996e-01 -6.182999163866043091e-02 -1.688362509012222290e-01 -5.103368163108825684e-01 4.252767860889434814e-01 4.463878571987152100e-01 2.452815175056457520e-01 2.184820622205734253e-01 -4.093568399548530579e-02 -1.524733453989028931e-01 -1.264487504959106445e-01 1.372709274291992188e-01 3.155459165573120117e-01 6.006047129631042480e-02 -1.349557638168334961e-01 -7.655151188373565674e-02 8.535708487033843994e-02 1.297101676464080811e-01 -1.418724060058593750e-01 -4.895871505141258240e-02 -2.359863817691802979e-01 -5.719471722841262817e-02 4.311945289373397827e-02 3.228687644004821777e-01 3.588938415050506592e-01 1.032979339361190796e-01 1.229519024491310120e-02 -4.146383702754974365e-01 -2.157544642686843872e-01 9.820730239152908325e-02 -1.289373729377985001e-03 2.328013181686401367e-01 1.000018566846847534e-01 -4.058893918991088867e-01 -3.271473348140716553e-01 -2.088474929332733154e-01 -2.009794488549232483e-02
2.651991248130798340e-01 2.594851255416870117e-01 -1.145938783884048462e-01 -6.220260858535766602e-01 -6.274436414241790771e-02 -5.358695983886718750e-02 -9.402607679367065430e-01 -6.488236039876937866e-02 3.188503533601760864e-02 -5.528883263468742371e-02 5.984582901000976562e-01 3.485155105590820312e-02 -1.675286516547203064e-02 3.301763162016868591e-02 -1.474889367818832397e-01 2.011515200138092041e-01 -2.841597199440002441e-01 -1.196914017200469971e-01 2.910029292106628418e-01 -3.087160289287567139e-01 7.979477196931838989e-02 2.253509908914566040e-01 6.322126388549804688e-01 -1.759448796510696411e-01 -2.180789262056350708e-01 1.352203488349914551e-01 2.656391263008117676e-01 2.182346880435943604e-01 -1.511024087667465210e-01 6.945008039474487305e-01 -7.374137639999389648e-02 -2.690653204917907715e-01 -1.175159573554992676e+00 -1.272682845592498779e-01 -4.289593547582626343e-02 -3.601587414741516113e-01 -3.295707106590270996e-01 -3.514890372753143311e-01 2.401610910892486572e-01 -1.157621815800666809e-01
8.909589052200317383e-02 2.633073553442955017e-02 1.383692175149917603e-01 8.707432448863983154e-02 -7.511378824710845947e-02 9.898342192173004150e-02 -5.807700753211975098e-02 4.298430681228637695e-01 -2.499613910913467407e-01 3.009350299835205078e-01 3.528475165367126465e-01 -9.699913114309310913e-02 2.054568566381931305e-02 3.290936052799224854e-01 -2.878525853157043457e-01 3.827327862381935120e-02 1.214741542935371399e-01 1.835163384675979614e-01 1.054509952664375305e-01 2.082907855510711670e-01 3.189137279987335205e-01 1.441889405250549316e-01 -1.890754997730255127e-01 3.188850581645965576e-01 -8.291096240282058716e-02 -1.192703992128372192e-01 1.050874292850494385e-01 1.227706074714660645e-01 -1.546587198972702026e-01 8.930863812565803528e-03 3.179113864898681641e-01 -2.236952036619186401e-01 1.475916206836700439e-01 -1.893544644117355347e-01 -1.211388316005468369e-02 -2.931401729583740234e-01 -7.526133209466934204e-02 1.941832453012466431e-01 5.248785763978958130e-02 1.094313859939575195e-01
4.969099760055541992e-01 1.461412757635116577e-01 4.895756840705871582e-01 -1.927151829004287720e-01 2.741422653198242188e-01 -1.973603665828704834e-01 -5.845686197280883789e-01 -5.129954218864440918e-02 4.551151394844055176e-01 3.355127274990081787e-01 -2.892415039241313934e-03 9.596406668424606323e-02 -9.606578201055526733e-02 4.571152925491333008e-01 2.430611103773117065e-01 2.904370985925197601e-02 8.990590274333953857e-02 -3.085638582706451416e-01 9.865424782037734985e-02 -9.064241498708724976e-02 -2.950917482376098633e-01 1.634714752435684204e-01 4.678290486335754395e-01 -3.447543382644653320e-01 -5.166269540786743164e-01 5.190105438232421875e-01 -3.173747360706329346e-01 3.360244929790496826e-01 1.375766992568969727e-01 3.207075595855712891e-01 -1.569685637950897217e-01 1.170465908944606781e-02 9.560186415910720825e-02 -1.320283710956573486e-01 -5.028150081634521484e-01 -1.439004540443420410e-01 -5.704612731933593750e-01 4.011573493480682373e-01 2.179405987262725830e-01 -8.952712267637252808e-02
-6.434611678123474121e-01 2.619542181491851807e-01 -3.878335952758789062e-01 -3.336234390735626221e-02 -2.064019739627838135e-01 -3.522060811519622803e-02 6.832951903343200684e-01 -6.887832880020141602e-01 -5.849355086684226990e-02 -3.863938748836517334e-01 2.011635303497314453e-01 3.109963834285736084e-01 1.984827369451522827e-01 -7.392663359642028809e-01 -1.011706590652465820e+00 -5.369569063186645508e-01 7.794568538665771484e-01 4.564139842987060547e-01 -1.411912292242050171e-01 1.621937453746795654e-01 -3.632690608501434326e-01 8.245256543159484863e-01 9.337584376335144043e-01 2.830205857753753662e-01 4.572308659553527832e-01 -5.176621675491333008e-01 5.072770118713378906e-01 -6.373443007469177246e-01 8.872317075729370117e-01 -5.901873111724853516e-01 5.608590245246887207e-01 4.790850579738616943e-01 -1.566506028175354004e-01 5.724446177482604980e-01 -2.943599596619606018e-02 1.369169056415557861e-01 -1.260760705918073654e-02 9.063571691513061523e-01 -6.858850717544555664e-01 8.556833490729331970e-03
-3.103260099887847900e-01 2.929218411445617676e-01 -1.536692027002573013e-02 1.263636723160743713e-02 1.019602641463279724e-01 5.554224252700805664e-01 -2.346547842025756836e-01 -1.588769257068634033e-01 -7.834154963493347168e-01 7.968170940876007080e-02 -1.042846068739891052e-01 -2.414059489965438843e-01 -5.867205262184143066e-01 -6.157221198081970215e-01 -4.460521042346954346e-02 -7.043726444244384766e-01 -3.948878645896911621e-01 -6.093432307243347168e-01 -2.435574829578399658e-01 -1.975920796394348145e-01 3.211891055107116699e-01 -4.074929356575012207e-01 -2.892146706581115723e-01 1.541601568460464478e-01 -5.831459537148475647e-02 2.558219730854034424e-01 6.007747650146484375e-01 -5.027279853820800781e-01 2.122993171215057373e-01 -5.770062804222106934e-01 1.803764104843139648e-01 -4.222536981105804443e-01 -1.546990126371383667e-01 1.617512404918670654e-01 7.393294572830200195e-01 -3.932398557662963867e-01 2.641947269439697266e-01 -3.769740834832191467e-02 -2.439546883106231689e-01 3.069071471691131592e-01
5.189037919044494629e-01 8.525063395500183105e-01 2.884684801101684570e-01 3.840066790580749512e-01 6.398016810417175293e-01 -4.265915155410766602e-01 5.424837023019790649e-02 -3.033343255519866943e-01 2.221267521381378174e-01 -5.732234120368957520e-01 1.023578286170959473e+00 6.150179505348205566e-01 3.010603785514831543e-01 -1.797629706561565399e-02 6.135432124137878418e-01 3.228870630264282227e-01 5.406948179006576538e-02 -5.612665414810180664e-01 4.745217263698577881e-01 1.286289691925048828e-01 -1.839307881891727448e-02 6.261318922042846680e-02 -6.475554108619689941e-01 -1.929199546575546265e-01 -5.355111360549926758e-01 3.140648603439331055e-01 -6.112076714634895325e-02 2.377851754426956177e-01 1.103537008166313171e-01 9.031388163566589355e-02 -5.734740197658538818e-02 8.359388709068298340e-01 -8.742915838956832886e-02 -3.433665260672569275e-02 -3.901061713695526123e-01 -5.852346420288085938e-01 6.745038032531738281e-01 -6.027685999870300293e-01 2.465949058532714844e-01 2.742789089679718018e-01
4.391003251075744629e-01 -3.213729858398437500e-01 -6.590333580970764160e-01 -2.154121361672878265e-02 -8.946882188320159912e-02 3.016406595706939697e-01 -2.692545056343078613e-01 -6.474457979202270508e-01 -4.424932003021240234e-01 5.170445442199707031e-01 -3.871191143989562988e-01 -5.368275642395019531e-01 -1.566819101572036743e-01 -5.385770797729492188e-01 2.842799425125122070e-01 2.147412896156311035e-01 -4.614700376987457275e-01 -3.177919387817382812e-01 4.619086682796478271e-01 -4.123741686344146729e-01 -2.600476443767547607e-01 8.881133049726486206e-03 4.347315132617950439e-01 -4.946570694446563721e-01 6.961097121238708496e-01 -6.942378282546997070e-01 -4.169626832008361816e-01 4.973662793636322021e-01 8.348758220672607422e-01 6.264935433864593506e-02 3.467533290386199951e-01 -3.738436400890350342e-01 -2.539991736412048340e-01 5.703297853469848633e-01 -2.125927656888961792e-01 9.515553116798400879e-01 -7.425585389137268066e-02 -5.012621730566024780e-02 8.531757593154907227e-01 -1.795390620827674866e-02
-6.535068750381469727e-01 1.004148721694946289e+00 -4.261311888694763184e-01 -6.713764667510986328e-01 -4.500697255134582520e-01 3.749747574329376221e-02 -6.561686992645263672e-01 2.875905930995941162e-01 -3.813154697418212891e-01 5.039063692092895508e-01 7.752217054367065430e-01 4.380459785461425781e-01 -1.510983407497406006e-01 -4.707850217819213867e-01 -1.149092093110084534e-01 -3.165256679058074951e-01 3.741554915904998779e-01 1.532503664493560791e-01 -1.283835321664810181e-01 -4.135206639766693115e-01 -6.837535500526428223e-01 3.915739357471466064e-01 -2.249023169279098511e-01 -3.496225476264953613e-01 6.370804905891418457e-01 -8.218798041343688965e-01 -1.811251044273376465e-02 -5.280017852783203125e-01 6.813569068908691406e-01 -8.537691831588745117e-01 9.938278049230575562e-02 8.496297597885131836e-01 -1.866342574357986450e-01 -3.134311437606811523e-01 -9.452359676361083984e-01 -4.260041713714599609e-01 -5.548127293586730957e-01 -4.905405640602111816e-01 -1.000498011708259583e-01 -3.746854364871978760e-01
-5.877244099974632263e-02 8.359333872795104980e-02 4.901517927646636963e-01 -1.412354130297899246e-02 -2.858036383986473083e-02 7.699473500251770020e-01 -4.153196886181831360e-02 2.147572487592697144e-02 -2.930506169795989990e-01 -3.820203244686126709e-01 -7.581104040145874023e-01 -5.781168937683105469e-01 -3.961155116558074951e-01 2.438516318798065186e-01 -2.253441512584686279e-01 -5.839468836784362793e-01 -2.040406018495559692e-01 -1.937332153320312500e-01 1.659325510263442993e-01 -4.506109654903411865e-01 -3.878027498722076416e-01 1.767549216747283936e-01 -7.889029383659362793e-02 -4.535175263881683350e-01 3.192043006420135498e-01 -4.200167488306760788e-03 4.857735242694616318e-03 -3.761211335659027100e-01 -5.524867773056030273e-01 -3.169955685734748840e-02 -1.277444511651992798e-01 -3.545177876949310303e-01 2.859142422676086426e-01 -2.004590481519699097e-01 4.188519418239593506e-01 3.423716425895690918e-01 3.903000652790069580e-01 2.320699542760848999e-01 -2.785991504788398743e-02 4.929648041725158691e-01
3.498538583517074585e-02 6.551562547683715820e-01 -1.509093642234802246e-01 -3.086496293544769287e-01 8.905097246170043945e-01 4.949619621038436890e-02 9.427640587091445923e-02 -3.964128494262695312e-01 9.751731902360916138e-02 3.329667747020721436e-01 3.572556674480438232e-01 2.927890121936798096e-01 -3.156251311302185059e-01 -1.521585136651992798e-02 3.232743740081787109e-01 3.972021043300628662e-01 5.001267790794372559e-01 -3.077687025070190430e-01 3.797409236431121826e-01 2.281596213579177856e-01 2.316973805427551270e-01 -3.049898147583007812e-01 -3.175138682126998901e-02 -2.598742246627807617e-01 -7.635704427957534790e-02 -5.633653998374938965e-01 -3.863071650266647339e-02 4.027214348316192627e-01 -2.000903934240341187e-01 1.467750221490859985e-01 1.810658276081085205e-01 5.386852622032165527e-01 5.368643626570701599e-02 2.280611693859100342e-01 -1.932671964168548584e-01 -8.084448426961898804e-02 3.716912120580673218e-02 2.163717597723007202e-01 6.920501589775085449e-01 5.185446515679359436e-02
5.553703904151916504e-01 4.842080771923065186e-01 6.258919835090637207e-02 -5.308263301849365234e-01 3.098788112401962280e-02 2.605938017368316650e-01 -2.142921835184097290e-01 2.574375867843627930e-01 1.515453159809112549e-01 -3.052209317684173584e-01 -4.107540473341941833e-02 5.243927612900733948e-02 -1.855293959379196167e-01 -5.789735913276672363e-02 2.213172316551208496e-01 -2.778011262416839600e-01 2.064090520143508911e-01 -1.924457550048828125e-01 -8.712026756256818771e-04 4.257950484752655029e-01 -1.162488162517547607e-01 -2.789921164512634277e-01 2.743576467037200928e-01 8.700531721115112305e-02 1.076292339712381363e-02 -1.589365452527999878e-01 -6.401703953742980957e-01 -3.086635768413543701e-01 4.963186383247375488e-02 -1.830911785364151001e-01 -1.589908897876739502e-01 -6.098329424858093262e-01 -1.919474601745605469e-01 2.520941793918609619e-01 -1.018353104591369629e+00 -2.601656019687652588e-01 -8.812928199768066406e-02 -5.411796569824218750e-01 7.333450317382812500e-01 2.654866278171539307e-01
1.356691122055053711e-01 1.741166859865188599e-01 5.237207189202308655e-02 5.982197523117065430e-01 6.376183778047561646e-02 -5.472899079322814941e-01 -1.349703073501586914e-01 1.923776231706142426e-03 -2.484273165464401245e-01 -8.240714073181152344e-01 -1.844618618488311768e-01 -3.015610575675964355e-01 -9.754950404167175293e-01 -9.371513128280639648e-02 -3.690294325351715088e-01 4.805921763181686401e-02 -7.787141799926757812e-01 -5.984239652752876282e-02 -3.466711938381195068e-01 -1.337687373161315918e-01 -7.487597465515136719e-01 -3.375201718881726265e-03 -3.567503988742828369e-01 -2.743690833449363708e-02 1.349656581878662109e-01 7.245280742645263672e-01 -2.655800580978393555e-01 -8.648028969764709473e-01 2.121083205565810204e-03 -3.233448266983032227e-01 1.047941669821739197e-01 -7.241412997245788574e-02 -7.389749288558959961e-01 -1.114815771579742432e-01 3.907799720764160156e-01 2.456111907958984375e-01 8.664647936820983887e-01 2.478599101305007935e-01 -3.124437630176544189e-01 -6.761678457260131836e-01
-3.442090153694152832e-01 8.249887079000473022e-02 -3.722015619277954102e-01 5.193133950233459473e-01 -4.052498936653137207e-02 9.280880093574523926e-01 1.226810887455940247e-01 -5.394124984741210938e-01 -1.903378218412399292e-01 6.913118958473205566e-01 1.875169277191162109e-01 5.167904496192932129e-01 5.101362466812133789e-01 7.027972489595413208e-02 -8.950363397598266602e-01 -4.252467155456542969e-01 5.869431495666503906e-01 2.132623344659805298e-01 -7.296111583709716797e-01 -7.291964292526245117e-01 -1.069713234901428223e+00 4.983915388584136963e-01 1.237055510282516479e-01 7.013548612594604492e-01 1.151181697845458984e+00 6.987854093313217163e-02 1.620363295078277588e-01 -1.000844359397888184e+00 6.030363440513610840e-01 -9.859586954116821289e-01 8.503677845001220703e-01 -1.461266875267028809e-01 -3.695558011531829834e-01 4.433653652667999268e-01 -6.854841709136962891e-01 2.538404762744903564e-01 -4.694821238517761230e-01 1.469940990209579468e-01 -2.884600162506103516e-01 -5.861672163009643555e-01
5.548663903027772903e-03 1.584217101335525513e-01 6.336224079132080078e-01 6.584344804286956787e-02 5.657008886337280273e-01 -1.913960874080657959e-01 -5.489309430122375488e-01 3.509101271629333496e-01 4.108416736125946045e-01 4.347394704818725586e-01 -2.061035335063934326e-01 -1.350048333406448364e-01 4.295236766338348389e-01 8.314924687147140503e-02 -1.419998854398727417e-01 4.017495512962341309e-01 1.164688706398010254e+00 -4.348806738853454590e-01 5.162276029586791992e-01 8.440100401639938354e-02 2.200732082128524780e-01 -7.395523190498352051e-01 -1.237999722361564636e-01 -2.747212946414947510e-01 6.113734841346740723e-01 -3.934334516525268555e-01 -8.709635734558105469e-01 3.421475291252136230e-01 1.032542288303375244e-01 5.103068947792053223e-01 -3.719171136617660522e-02 -3.778834640979766846e-01 -4.531957507133483887e-01 7.396693229675292969e-01 -2.984545528888702393e-01 -1.034806892275810242e-01 -5.228523015975952148e-01 -8.708651065826416016e-01 3.127329945564270020e-01 5.521569252014160156e-01
-4.197926521301269531e-01 -3.673473000526428223e-01 6.798063516616821289e-01 2.289752513170242310e-01 -7.688662502914667130e-03 1.963363587856292725e-01 -8.291472494602203369e-02 -6.567749381065368652e-02 -2.032448798418045044e-01 -2.543568611145019531e-01 3.753583729267120361e-01 -4.738930612802505493e-02 -2.027456611394882202e-01 4.948424696922302246e-01 1.898790746927261353e-01 6.136738061904907227e-01 1.502429842948913574e-01 2.058390378952026367e-01 2.601228356361389160e-01 3.728935495018959045e-02 5.693442374467849731e-02 1.187639832496643066e-01 -2.281691133975982666e-01 2.037979215383529663e-01 -4.853071644902229309e-02 -3.362505882978439331e-02 -7.427946329116821289e-01 5.970279499888420105e-02 -3.502910137176513672e-01 2.760358527302742004e-02 -5.224895477294921875e-01 8.642715215682983398e-02 1.523891389369964600e-01 5.023053288459777832e-01 1.871213167905807495e-01 3.641848862171173096e-01 -3.546178042888641357e-01 -8.180379122495651245e-02 5.087116360664367676e-01 -1.688402593135833740e-01
1.329589039087295532e-01 -5.512800812721252441e-02 4.641098529100418091e-02 1.509177088737487793e-01 -7.017636299133300781e-02 -4.913372546434402466e-02 -1.467162370681762695e-01 1.479671895503997803e-01 -3.653159737586975098e-02 1.025779470801353455e-01 -1.385901570320129395e-01 -7.576902955770492554e-02 1.878252923488616943e-01 6.764849275350570679e-02 6.519185006618499756e-02 -1.588123589754104614e-01 -3.719048202037811279e-02 -2.951224520802497864e-02 9.570840001106262207e-02 -2.013508416712284088e-02 -8.226010203361511230e-02 6.021036952733993530e-02 -2.116410247981548309e-02 9.235299378633499146e-02 -2.372779138386249542e-02 6.856156140565872192e-02 -1.228507757186889648e-01 -1.061688140034675598e-01 -6.989704817533493042e-02 -2.330515068024396896e-03 -1.230363622307777405e-01 1.410664916038513184e-01 -1.030050739645957947e-01 7.878524065017700195e-02 -1.065508723258972168e-01 1.011671349406242371e-01 1.036203801631927490e-01 5.402852315455675125e-03 -4.070004448294639587e-02 4.022052511572837830e-03
