-1.023056656122207642e-01
-4.294544756412506104e-01
3.189460337162017822e-01
2.195680290460586548e-01
-2.708901166915893555e-01
1.552640050649642944e-01
-2.055866122245788574e-01
3.327186584472656250e+00
-1.953866779804229736e-01
-5.954404473304748535e-01
-1.013560652732849121e+00
-1.697982475161552429e-02
-2.709767818450927734e-01
1.243274211883544922e+00
-3.419230282306671143e-01
6.107370257377624512e-01
8.333638310432434082e-01
1.671960651874542236e-01
-2.974770963191986084e-02
-1.876230478286743164e+00
6.428810358047485352e-01
5.182077288627624512e-01
-2.883091270923614502e-01
-2.471865415573120117e-01
-3.171995282173156738e-02
1.326741874217987061e-01
9.614818692207336426e-01
-1.950275421142578125e+00
-5.078899860382080078e-01
-5.226748585700988770e-01
3.669151365756988525e-01
1.335095465183258057e-01
-9.429324418306350708e-02
-7.744297981262207031e-01
-5.799355506896972656e-01
-1.277709007263183594e+00
-4.972347021102905273e-01
1.149259731173515320e-01
5.118337273597717285e-01
-6.719950437545776367e-01
1.743886917829513550e-01
-5.685279965400695801e-01
-1.893920183181762695e+00
5.341497659683227539e-01
-3.485847711563110352e-01
1.367579698562622070e+00
3.911789953708648682e-01
4.195182323455810547e-01
-8.264245390892028809e-01
-1.111468672752380371e+00
2.230271995067596436e-01
-3.824510872364044189e-01
6.483221799135208130e-02
-3.410869836807250977e-01
3.189575076103210449e-01
-3.762056827545166016e-01
-3.177317976951599121e-01
-1.744051277637481689e-01
-4.861681461334228516e-01
-7.654048204421997070e-01
