8.239499330520629883e-01
2.175585776567459106e-01
-2.759414911270141602e+00
1.088795900344848633e+00
-1.350126862525939941e+00
4.994527339935302734e+00
-3.308874845504760742e+00
-1.581896901130676270e+00
-4.842936098575592041e-01
7.240670919418334961e-01
-2.714135050773620605e-01
4.023602306842803955e-01
-1.754744410514831543e+00
-4.454588294029235840e-01
-7.931842207908630371e-01
-1.640783071517944336e+00
1.999666839838027954e-01
-7.625400424003601074e-01
1.399477243423461914e+00
6.753614544868469238e-01
1.618351340293884277e-01
-3.679133355617523193e-01
-1.051993668079376221e-01
2.027613639831542969e+00
-6.109298467636108398e-01
1.111823558807373047e+00
-6.288508892059326172e+00
-1.872272640466690063e-01
1.276057839393615723e+00
-7.811486124992370605e-01
-1.096309065818786621e+00
-3.204825878143310547e+00
1.041698217391967773e+00
4.816488921642303467e-01
-2.150926113128662109e+00
-6.832445859909057617e-01
4.308634996414184570e-02
3.597440004348754883e+00
-3.337899148464202881e-01
1.359630096703767776e-02
-1.688904762268066406e-01
7.921747565269470215e-01
-3.057861328125000000e-01
-1.259097576141357422e+00
3.394734621047973633e+00
-5.995303988456726074e-01
-6.180172562599182129e-01
-2.803364515304565430e+00
1.023624181747436523e+00
-8.709580302238464355e-01
1.225951194763183594e+00
5.981652736663818359e-01
-1.334360003471374512e+00
-4.358069226145744324e-02
1.897578716278076172e+00
-3.663250803947448730e-01
-5.924608707427978516e+00
-9.522101283073425293e-01
-1.065171480178833008e+00
2.649411678314208984e+00
-6.987851262092590332e-01
-3.636684715747833252e-01
-2.018197625875473022e-02
1.837773799896240234e+00
1.945715188980102539e+00
-1.410195678472518921e-01
2.203485012054443359e+00
-3.292351245880126953e+00
-6.840751767158508301e-01
1.468202024698257446e-01
-2.109024763107299805e+00
2.797911643981933594e+00
1.242937088012695312e+00
7.646907567977905273e-01
4.402208626270294189e-01
-1.638281941413879395e-01
5.641610622406005859e+00
-3.883812129497528076e-01
-2.570284605026245117e-01
-5.714840292930603027e-01
-1.958802580833435059e+00
9.971341490745544434e-01
-1.467544555664062500e+00
4.284506663680076599e-02
-1.536991298198699951e-01
-5.205175876617431641e-01
9.926340579986572266e-01
2.060619592666625977e+00
1.353164196014404297e+00
-1.611818432807922363e+00
5.693275332450866699e-01
7.104890942573547363e-01
5.579863190650939941e-01
1.294859051704406738e+00
-7.148064374923706055e-01
-7.503826618194580078e-01
-9.992017745971679688e+00
1.110751271247863770e+00
-4.311720728874206543e-01
6.539538502693176270e-02
-8.622137904167175293e-01
1.598642580211162567e-02
7.924717068672180176e-01
-5.646719455718994141e+00
6.880267262458801270e-01
-1.160905599594116211e+00
1.861707925796508789e+00
-2.526541054248809814e-01
3.770440816879272461e-01
4.272912442684173584e-01
8.605564117431640625e+00
2.289924144744873047e+00
-4.199203550815582275e-01
1.634090542793273926e+00
4.708285033702850342e-01
8.166339397430419922e-01
1.075055122375488281e+00
-3.050526380538940430e-01
-2.938750505447387695e+00
-7.598322629928588867e-01
