2.390945889055728912e-02 -5.959575653076171875e+00 -3.578770458698272705e-01 2.196737974882125854e-01 -9.934395551681518555e-02 -5.664793968200683594e+00 9.516813606023788452e-02 4.486964046955108643e-01 -1.513761162757873535e+00 7.149124890565872192e-02 -3.050518512725830078e+00 2.899188920855522156e-02 -3.103395998477935791e-01 1.355882287025451660e-01 4.490408599376678467e-01 1.526597142219543457e+00 -5.542771425098180771e-03 1.519837528467178345e-01 2.186253517866134644e-01 6.437065005302429199e-01 -3.727443218231201172e-01 -1.551186889410018921e-01 2.074891090393066406e+00 -1.133079379796981812e-01 9.974150918424129486e-03 -6.371997296810150146e-02 3.582777380943298340e-01 -2.788650617003440857e-02 -4.008469581604003906e-01 -2.558570727705955505e-02 -3.299052715301513672e-01 -4.996249824762344360e-02 1.218235641717910767e-01 2.199020050466060638e-02 5.128880962729454041e-02 1.188736319541931152e+00 -1.883741095662117004e-02 7.410318851470947266e-01 1.458250284194946289e-01 -1.629574596881866455e-01 -5.034206509590148926e-01 -1.276963800191879272e-01 7.979232072830200195e-01 -3.962681442499160767e-02 9.612427949905395508e-01 8.447378128767013550e-02 2.565500736236572266e+00 -3.793648183345794678e-01 -2.407604902982711792e-01 -7.709900736808776855e-01 -7.249184884130954742e-03 -1.324126869440078735e-02 6.660607457160949707e-02 3.836227208375930786e-02 2.985417604446411133e+00 -8.408575505018234253e-02 3.170782029628753662e-01 -1.324812173843383789e-01 5.800691246986389160e-02 7.725280523300170898e-02 1.222032308578491211e-01 -5.508718490600585938e-01 2.536930739879608154e-01 -1.085109338164329529e-01 -4.255664348602294922e-02 1.118075489997863770e+00 9.052957594394683838e-02 1.474177539348602295e-01 -2.072519995272159576e-02 4.226931557059288025e-02 -1.237149089574813843e-01 -1.774780303239822388e-01 4.035152867436408997e-02 -3.451885581016540527e-01 -6.675067543983459473e-01 1.433758288621902466e-01 1.110222861170768738e-01 -3.539600849151611328e+00 -9.400575608015060425e-02 -1.119133114814758301e+00 9.172533154487609863e-01 -5.611912161111831665e-02 6.143579483032226562e-01 9.616946429014205933e-02 5.472098290920257568e-02 1.545186877250671387e+00 9.393570572137832642e-02 -7.166534662246704102e-02 -3.570731356739997864e-02 -4.034055024385452271e-02 1.956133544445037842e-01 1.826390326023101807e-01 1.082677021622657776e-01 -1.137479394674301147e-01 6.391537189483642578e+00 2.162300795316696167e-01 3.254841640591621399e-02 -8.707555942237377167e-03 -4.223000109195709229e-01 1.104806065559387207e-01 -1.471191942691802979e-01 6.081847101449966431e-02 -9.668871760368347168e-02 6.219328194856643677e-02 5.033322796225547791e-02 -2.244531661272048950e-01 -5.048995837569236755e-02 -9.260345458984375000e+00 7.185392379760742188e-01 4.919356852769851685e-02 -2.781244367361068726e-02 -9.542743861675262451e-02 -1.212537735700607300e-01 1.029343083500862122e-01 1.460494548082351685e-01 1.207707524299621582e-01 5.195139348506927490e-02 -5.679332092404365540e-02 -3.015801683068275452e-02 2.953536249697208405e-02 -3.231621533632278442e-02 5.786252394318580627e-02 4.334303736686706543e-02 -1.616284437477588654e-02 -1.159535627812147141e-02 -3.927108645439147949e-01 -2.505446225404739380e-02 -4.449169337749481201e-02 2.104421108961105347e-01 -3.444430232048034668e-02 1.095524281263351440e-01 -2.134632915258407593e-01 -1.405308395624160767e-01 5.814923048019409180e-01 -6.535399556159973145e-01 -4.598671793937683105e-01 6.324664503335952759e-02 2.065125480294227600e-02 -2.002969942986965179e-02 -1.169652700424194336e+00 -1.537657529115676880e-01 -4.479984194040298462e-02 -3.928118385374546051e-03 1.178692504763603210e-01 3.113936632871627808e-02 -8.130125999450683594e-01 -6.799213588237762451e-02 9.660714119672775269e-02 -2.635247707366943359e-01 7.966492652893066406e+00
3.391653299331665039e-02 -9.859889000654220581e-02 -4.550579190254211426e-02 -3.958979155868291855e-03 6.982853263616561890e-02 -4.912098124623298645e-02 -1.100221835076808929e-02 1.228872966021299362e-02 8.101608604192733765e-02 -5.364672839641571045e-02 -1.267746556550264359e-02 4.142992570996284485e-02 8.013448119163513184e-02 1.378824263811111450e-01 -3.300527855753898621e-02 2.795861102640628815e-02 5.252533033490180969e-02 3.527848457451909781e-04 5.338910967111587524e-02 -3.448194637894630432e-02 -3.873026464134454727e-03 4.843201488256454468e-02 -1.137570291757583618e-01 1.095289131626486778e-03 3.598465770483016968e-02 -5.475668609142303467e-02 -3.155826032161712646e-02 2.637017518281936646e-02 2.607856504619121552e-02 3.409245982766151428e-02 1.792866364121437073e-02 3.223823383450508118e-02 -1.258708834648132324e-01 5.956739932298660278e-02 5.800270941108465195e-03 2.661929428577423096e-01 -6.497111171483993530e-02 8.544573187828063965e-02 -6.565916538238525391e-02 5.969041585922241211e-02 2.899530157446861267e-02 -4.810602590441703796e-02 -8.540162444114685059e-02 -7.117947190999984741e-02 2.404255270957946777e-01 -4.354158416390419006e-02 2.077727206051349640e-02 -1.353075075894594193e-02 6.935266405344009399e-02 1.009914577007293701e-01 -2.637122571468353271e-02 3.832592815160751343e-02 -2.399026602506637573e-02 5.817481502890586853e-02 2.427405491471290588e-02 5.618916079401969910e-02 9.171127527952194214e-02 -7.885003089904785156e-02 7.949004322290420532e-02 4.338221624493598938e-03 -5.002307891845703125e-02 -1.688010757789015770e-03 -1.156954839825630188e-01 -2.496386505663394928e-02 1.786090142559260130e-04 -2.488455362617969513e-02 1.295499969273805618e-02 -1.133768074214458466e-02 6.676250603049993515e-03 -1.253299321979284286e-02 1.065899133682250977e-01 -9.714777581393718719e-03 3.311869502067565918e-02 5.717056617140769958e-02 1.550061106681823730e-01 -3.832760266959667206e-03 6.309261918067932129e-02 4.676815494894981384e-02 -3.374987281858921051e-03 -9.924668818712234497e-03 6.068548560142517090e-02 -6.212127860635519028e-03 1.879262551665306091e-02 -1.692682388238608837e-03 -3.665770404040813446e-03 6.766480393707752228e-03 -8.215743303298950195e-02 4.254543408751487732e-02 6.111611798405647278e-02 -1.739465817809104919e-02 -5.658433213829994202e-02 -1.914569921791553497e-02 2.874003350734710693e-02 4.172093793749809265e-02 -2.889340370893478394e-02 5.641188472509384155e-03 3.661363944411277771e-02 6.952731311321258545e-02 -1.366163510829210281e-02 3.050753846764564514e-02 6.969495862722396851e-02 5.600472539663314819e-02 8.014711737632751465e-02 2.148113213479518890e-02 -4.714278038591146469e-03 -1.982831396162509918e-02 1.380323804914951324e-02 4.687196388840675354e-02 -1.125340312719345093e-01 1.916578412055969238e-02 -4.398312792181968689e-02 -2.377836406230926514e-02 -2.682705037295818329e-02 7.313833385705947876e-02 -3.596183657646179199e-02 -8.432114869356155396e-02 -5.154702346771955490e-03 -7.488464470952749252e-03 2.295270562171936035e-02 -5.676861107349395752e-02 6.371644325554370880e-03 -3.463589353486895561e-03 1.357732061296701431e-02 3.546969220042228699e-02 -5.765727907419204712e-02 -2.219716459512710571e-01 3.642154112458229065e-02 1.563956961035728455e-02 -8.316098898649215698e-02 2.525093220174312592e-02 -1.277218945324420929e-02 -1.389148924499750137e-02 -4.116116836667060852e-02 5.956083908677101135e-02 6.284227967262268066e-02 -7.287280634045600891e-03 2.446462772786617279e-02 7.510173134505748749e-03 -8.725722879171371460e-02 2.584183402359485626e-02 1.481616403907537460e-02 1.871627382934093475e-02 5.201507732272148132e-02 5.195521935820579529e-02 3.442978952080011368e-03 2.628588117659091949e-02 6.295583397150039673e-02 -1.014702618122100830e-01 4.481935873627662659e-02 -9.298291057348251343e-02
-6.707804650068283081e-02 -2.220830414444208145e-03 5.435807257890701294e-02 6.524614524096250534e-03 -6.333585828542709351e-02 7.383923511952161789e-04 -1.200346043333411217e-03 2.982082543894648552e-03 4.807486198842525482e-03 -5.142497271299362183e-02 9.186674724332988262e-04 2.561620203778147697e-03 -1.492894371040165424e-03 -1.703086076304316521e-03 -3.500273684039711952e-03 -1.478413469158113003e-03 3.181085735559463501e-02 1.584405195899307728e-03 1.710917451418936253e-03 5.739564076066017151e-03 4.576301435008645058e-04 3.828932344913482666e-02 -3.083098912611603737e-03 5.998921394348144531e-02 -5.311962962150573730e-02 5.944391340017318726e-02 -1.116406358778476715e-02 4.756928235292434692e-02 -5.144337192177772522e-04 -7.215294986963272095e-02 -1.411208766512572765e-03 -5.419655144214630127e-02 -1.850372995249927044e-03 5.484927818179130554e-02 5.493359267711639404e-02 -1.310111489146947861e-03 -3.572000935673713684e-02 -7.264434359967708588e-03 6.269727647304534912e-02 -5.806995555758476257e-02 5.771259311586618423e-03 -1.518006343394517899e-02 3.903261851519346237e-03 -6.482464075088500977e-02 8.091910276561975479e-04 -4.143589735031127930e-02 5.481592845171689987e-03 -6.412417441606521606e-02 -4.926054179668426514e-02 1.238212571479380131e-03 1.436574477702379227e-02 4.920043051242828369e-03 -1.063770148903131485e-03 -4.410684853792190552e-02 -6.348713766783475876e-03 -7.061177748255431652e-04 -3.552922047674655914e-03 2.487074118107557297e-03 6.736973673105239868e-02 2.170898206532001495e-02 6.692779809236526489e-02 -1.017969567328691483e-02 1.276149298064410686e-03 -2.741467952728271484e-02 -4.693915322422981262e-02 -4.348731090431101620e-05 6.120882555842399597e-02 1.274884492158889771e-02 2.515199407935142517e-02 4.605557397007942200e-02 -6.028003990650177002e-03 -2.821409888565540314e-02 -8.701275102794170380e-03 3.692069556564092636e-03 5.084243457531556487e-05 -3.987106308341026306e-02 6.150731444358825684e-02 -2.852590987458825111e-03 3.140390664339065552e-02 2.298478269949555397e-03 -3.265895182266831398e-03 -5.369057878851890564e-02 2.518117427825927734e-03 -7.886061072349548340e-02 -2.692152932286262512e-02 -1.674205414019525051e-03 -3.868605569005012512e-02 -4.955603554844856262e-02 -4.400977492332458496e-02 -4.016213119029998779e-02 1.520371716469526291e-02 -4.346854239702224731e-02 1.192865893244743347e-02 4.378297366201877594e-03 5.338287446647882462e-04 -4.243287548888474703e-04 3.484040871262550354e-02 -1.922876574099063873e-02 6.356688681989908218e-04 -7.505450397729873657e-02 -2.088512759655714035e-03 7.371971756219863892e-02 7.948497659526765347e-04 -9.836132638156414032e-03 1.341058220714330673e-02 6.000114372000098228e-04 7.947242818772792816e-03 -2.261285902932286263e-03 3.536922624334692955e-03 5.850707367062568665e-02 -4.485432989895343781e-03 -4.566845670342445374e-02 5.193370208144187927e-02 -3.780097141861915588e-02 3.763125836849212646e-02 2.554609067738056183e-02 7.750123739242553711e-02 -1.250010356307029724e-02 -5.995377898216247559e-02 -9.179933927953243256e-03 4.123021848499774933e-03 -5.387165397405624390e-02 -5.208602920174598694e-02 6.182581186294555664e-02 5.338080599904060364e-02 1.740087056532502174e-03 6.552612036466598511e-02 1.078160386532545090e-02 6.220821291208267212e-02 2.723145671188831329e-02 -8.272298728115856647e-04 -1.762875122949481010e-03 -7.209896575659513474e-03 1.019994262605905533e-02 9.293141774833202362e-04 -2.365743857808411121e-04 -5.637918040156364441e-02 -1.003653160296380520e-03 7.504210621118545532e-02 -6.069977767765522003e-03 2.121867798268795013e-02 -6.869623064994812012e-02 6.433031708002090454e-02 6.404510140419006348e-02 -4.173669032752513885e-03 3.625250887125730515e-03 -3.121652174741029739e-03 -2.430439181625843048e-02 1.948075485415756702e-03 -2.262039808556437492e-03
-4.245160892605781555e-02 2.178631544113159180e+00 -1.347730606794357300e-01 -1.539863198995590210e-01 -3.411141782999038696e-02 -2.182551175355911255e-01 -5.045093595981597900e-02 -2.091272175312042236e-01 -1.036296486854553223e+00 -2.560546249151229858e-02 3.547155484557151794e-02 1.063795387744903564e-01 -1.535212993621826172e-01 -6.985822319984436035e-02 6.251738667488098145e-01 4.628252685070037842e-01 -8.725774288177490234e-02 2.482880055904388428e-01 -2.179443389177322388e-01 2.080541476607322693e-02 1.353067066520452499e-02 -5.334614217281341553e-02 2.370963990688323975e-01 2.685945853590965271e-02 5.811928957700729370e-02 5.382316559553146362e-02 -1.228107288479804993e-01 -6.578759849071502686e-02 -3.002372384071350098e-01 7.633405178785324097e-02 -3.783402144908905029e-01 6.177302077412605286e-02 2.658027410507202148e-01 9.575323015451431274e-02 3.595222532749176025e-02 3.295806050300598145e-02 -6.170033290982246399e-02 2.785867452621459961e-01 1.205183714628219604e-01 -9.263124316930770874e-02 -3.995607793331146240e-01 2.428742796182632446e-01 5.741289258003234863e-01 4.370471462607383728e-02 9.345782548189163208e-02 4.422744363546371460e-02 3.779420852661132812e-01 -3.612014651298522949e-02 -1.453706026077270508e-01 -3.980735838413238525e-01 -5.221141874790191650e-02 -4.220287203788757324e-01 3.312496840953826904e-01 -3.058263799175620079e-03 1.176769360899925232e-01 2.228336222469806671e-02 -4.035934805870056152e-01 -1.854361534118652344e+00 1.000240817666053772e-01 7.398469373583793640e-03 -5.077883601188659668e-02 2.486414611339569092e-01 1.121309027075767517e-01 -1.096515879034996033e-01 4.604962840676307678e-02 -5.399741977453231812e-02 -3.060953319072723389e-02 1.541917175054550171e-01 -3.663773648440837860e-03 2.089196443557739258e-01 -1.286726444959640503e-01 -8.955121785402297974e-02 1.011102050542831421e-01 1.434363238513469696e-02 -3.624551370739936829e-02 -1.587378978729248047e-02 -4.253107681870460510e-02 4.993037879467010498e-02 2.642893195152282715e-01 7.742971181869506836e-01 -4.443542957305908203e-01 2.902225963771343231e-02 3.400278091430664062e-01 2.424807846546173096e-02 4.745803773403167725e-02 -2.905382812023162842e-01 -7.779528386890888214e-03 -9.075761586427688599e-02 -1.771841011941432953e-02 -1.287033502012491226e-02 6.123052164912223816e-02 -7.567659020423889160e-02 2.759284526109695435e-02 -3.082134723663330078e-01 -8.448762446641921997e-02 -2.155162841081619263e-01 -1.237285360693931580e-01 -4.401193186640739441e-02 1.478367447853088379e-01 8.193780481815338135e-02 -1.044559717178344727e+00 3.684189170598983765e-03 7.323936559259891510e-03 9.369587153196334839e-02 3.695502877235412598e-02 1.310960054397583008e-01 3.467693552374839783e-02 -1.588564515113830566e+00 2.977309823036193848e-01 -4.735821112990379333e-02 1.774970144033432007e-01 -5.539403483271598816e-02 -7.702119648456573486e-02 -2.462753467261791229e-02 8.806648850440979004e-02 2.601810544729232788e-02 -5.068073980510234833e-03 2.440694347023963928e-02 -9.472651407122612000e-03 4.286913946270942688e-02 6.851087510585784912e-02 -4.601820558309555054e-02 -3.399586305022239685e-02 -6.917450577020645142e-02 -3.143069148063659668e-02 -6.759608536958694458e-02 5.822300538420677185e-02 2.666927501559257507e-02 -3.111564787104725838e-03 -1.138802692294120789e-01 1.520908717066049576e-02 -3.511380404233932495e-02 2.208433896303176880e-01 -6.242974400520324707e-01 7.321735620498657227e-01 6.994555145502090454e-02 1.185715571045875549e-02 -2.979330159723758698e-02 2.496792562305927277e-02 -1.266241073608398438e-01 -1.341221630573272705e-01 -1.404470670968294144e-02 -3.912124782800674438e-03 1.441089250147342682e-02 -5.394912511110305786e-02 -2.206665277481079102e-01 -1.685255467891693115e-01 -3.568306565284729004e-02 4.732548259198665619e-03 -3.396657109260559082e-01
8.471298962831497192e-02 -1.398641616106033325e-01 4.402361810207366943e-02 -1.117852106690406799e-01 -5.375631898641586304e-02 2.729315124452114105e-02 -2.062917314469814301e-02 5.079677700996398926e-02 -2.383454442024230957e-01 2.513701841235160828e-02 -1.859605908393859863e-01 -8.731124922633171082e-03 1.779865706339478493e-04 -5.616416782140731812e-02 -6.658329814672470093e-02 -1.683836430311203003e-01 1.265265978872776031e-02 7.456857711076736450e-02 -3.463285788893699646e-02 2.005189843475818634e-02 1.458995603024959564e-02 -8.227342367172241211e-02 1.066172942519187927e-01 -5.079135671257972717e-02 5.717324092984199524e-02 -8.346810191869735718e-02 -7.016723603010177612e-02 -7.555709220468997955e-03 3.398432210087776184e-02 -4.594076797366142273e-02 -1.149805262684822083e-01 -6.471084058284759521e-02 -1.310911327600479126e-01 5.330378189682960510e-02 -6.464755628257989883e-03 -1.337124966084957123e-02 -2.594609558582305908e-02 -3.621486201882362366e-02 7.496478408575057983e-02 1.524985954165458679e-02 6.969700008630752563e-02 9.571151435375213623e-02 -7.181899249553680420e-02 -2.472299896180629730e-02 1.017626002430915833e-02 2.687141858041286469e-02 8.036559820175170898e-01 -9.338267892599105835e-02 -1.118852347135543823e-01 -3.347706794738769531e-02 3.038686513900756836e-02 2.628846850711852312e-04 -5.059398710727691650e-02 -3.958197683095932007e-02 -4.425449371337890625e-01 -7.113973051309585571e-02 1.329593211412429810e-01 3.504093885421752930e-01 8.387155085802078247e-02 -6.278509646654129028e-02 -4.960439354181289673e-02 3.749372065067291260e-02 -6.069765426218509674e-03 -3.321236371994018555e-02 3.213511779904365540e-02 2.546927519142627716e-02 -5.967096984386444092e-02 3.268430009484291077e-02 3.231079084798693657e-03 -3.425175696611404419e-02 -1.505846809595823288e-02 -5.116691812872886658e-02 -5.279100313782691956e-02 -3.597848862409591675e-02 9.200380742549896240e-02 3.796409815549850464e-02 -5.308640375733375549e-02 -4.889577999711036682e-02 4.113550782203674316e-01 4.951190948486328125e-01 -2.240364253520965576e-02 1.540255732834339142e-02 -1.132313609123229980e-01 -7.490828633308410645e-02 9.572400152683258057e-02 -1.059113144874572754e-01 7.410220801830291748e-02 -5.383153259754180908e-02 8.581472188234329224e-02 1.040759612806141376e-03 -1.368574798107147217e-01 2.686343155801296234e-02 -5.903301760554313660e-02 1.018339861184358597e-02 5.437276512384414673e-02 9.092432446777820587e-03 -4.163512960076332092e-03 1.314657647162675858e-02 -2.188409492373466492e-02 -5.543132126331329346e-02 -1.010917648673057556e-01 3.190963715314865112e-02 -9.075355716049671173e-03 1.257879775948822498e-04 -2.879783511161804199e-02 -2.175712734460830688e-01 7.005210220813751221e-02 1.863857209682464600e-01 6.107765808701515198e-02 -4.585274681448936462e-02 -6.225704029202461243e-02 3.362101316452026367e-02 2.308684773743152618e-02 -7.325955666601657867e-03 7.648914121091365814e-03 4.478636384010314941e-02 -4.396413266658782959e-02 1.183497607707977295e-01 4.531224071979522705e-02 -8.236660063266754150e-02 -7.419561594724655151e-02 -5.820080172270536423e-03 -3.994955122470855713e-02 -6.242872774600982666e-02 -5.641437694430351257e-02 6.380789913237094879e-03 -1.638457924127578735e-02 -4.080248624086380005e-02 -3.632207959890365601e-02 -5.862496793270111084e-03 -1.412521954625844955e-02 -1.100053712725639343e-01 3.559902682900428772e-02 -3.187222778797149658e-01 3.158496618270874023e-01 -4.028052464127540588e-02 -6.994035094976425171e-02 -2.170985192060470581e-01 6.277437508106231689e-02 2.487030439078807831e-02 -1.676004528999328613e-01 7.883983850479125977e-02 -2.802402526140213013e-02 -6.396355479955673218e-02 -2.009156905114650726e-02 -3.786400705575942993e-02 -2.231269888579845428e-02 2.127683535218238831e-02 -4.931351542472839355e-02 -2.532327175140380859e-01
2.975417114794254303e-02 2.461699724197387695e+00 4.242831096053123474e-02 5.058984458446502686e-02 1.004224121570587158e-01 -9.484669566154479980e-02 -1.077381521463394165e-01 -1.176950633525848389e-01 5.496015548706054688e-01 -3.307576477527618408e-02 -1.286752708256244659e-02 -4.038681834936141968e-02 1.344029158353805542e-01 6.059456989169120789e-02 -2.651097774505615234e-01 4.382277131080627441e-01 5.881176516413688660e-02 -3.232781589031219482e-01 1.207865308970212936e-02 5.932890623807907104e-02 2.960164286196231842e-02 7.586199045181274414e-02 3.129064738750457764e-01 6.863188743591308594e-02 5.132237821817398071e-02 -1.900752447545528412e-02 -4.889005050063133240e-02 -2.091802423819899559e-03 -3.062918782234191895e-01 -4.892649129033088684e-02 6.613329797983169556e-02 -3.142813593149185181e-02 2.476378977298736572e-01 -4.569194093346595764e-02 -8.767729252576828003e-02 3.358926251530647278e-02 -4.418443515896797180e-02 -3.324830234050750732e-01 1.104869693517684937e-01 -6.239372491836547852e-02 -2.312689870595932007e-01 1.158317476511001587e-01 4.279287755489349365e-01 -6.068550795316696167e-02 4.588916152715682983e-02 6.544970721006393433e-02 2.364372462034225464e-01 1.247586160898208618e-01 1.953273825347423553e-02 -2.920183837413787842e-01 7.690841704607009888e-02 -1.128514930605888367e-01 1.888414770364761353e-01 -2.878396213054656982e-02 -6.822369247674942017e-02 -1.702903062105178833e-01 -8.415629714727401733e-02 1.991193294525146484e+00 5.571547523140907288e-02 1.518140435218811035e-01 -1.127026453614234924e-01 1.102413982152938843e-01 -2.063123285770416260e-01 2.042698413133621216e-01 -4.777117818593978882e-02 -5.952097848057746887e-02 1.036935299634933472e-01 1.189227402210235596e-01 -4.132090508937835693e-02 2.386227808892726898e-02 2.262506075203418732e-02 2.426792494952678680e-02 -6.516512483358383179e-02 5.839328467845916748e-02 2.575285732746124268e-01 9.469637647271156311e-03 6.277695298194885254e-02 5.108415614813566208e-03 -1.381641328334808350e-01 9.716653227806091309e-01 -8.540686219930648804e-02 -5.179297178983688354e-02 9.342073649168014526e-02 2.068183571100234985e-02 5.256908759474754333e-02 -4.115893244743347168e-01 2.732816711068153381e-02 4.797324165701866150e-02 5.148745607584714890e-03 6.151211261749267578e-02 1.259593814611434937e-01 4.519402608275413513e-02 -8.278206735849380493e-02 -4.257672131061553955e-01 -7.685369998216629028e-02 1.879523508250713348e-03 -1.208381429314613342e-01 -7.041198760271072388e-02 3.136366978287696838e-02 2.173185534775257111e-02 -7.799569368362426758e-01 5.730368569493293762e-02 1.367003377526998520e-02 -4.925703629851341248e-02 5.146880075335502625e-02 2.292917668819427490e-01 -1.199521496891975403e-01 2.302350252866744995e-01 6.431192904710769653e-02 -8.260183036327362061e-02 1.107879541814327240e-02 -8.063405007123947144e-02 -7.630161941051483154e-02 8.549491874873638153e-03 2.368280664086341858e-02 6.977871060371398926e-02 9.094484848901629448e-04 2.062080986797809601e-02 -7.705765217542648315e-02 -1.143815517425537109e-01 3.521291539072990417e-02 1.048954948782920837e-01 5.447838455438613892e-02 -4.697778075933456421e-02 1.454938761889934540e-02 -1.083561182022094727e-01 -4.653857275843620300e-02 -4.870393872261047363e-02 1.378578692674636841e-02 8.517685346305370331e-03 1.489876359701156616e-01 1.304360926151275635e-01 4.167180135846138000e-02 8.383431434631347656e-01 7.266484498977661133e-01 3.900063633918762207e-01 -1.716697029769420624e-02 5.791488289833068848e-01 -5.079878494143486023e-02 9.550648927688598633e-01 3.137517273426055908e-01 3.170388936996459961e-02 -3.293709456920623779e-02 -3.160269930958747864e-02 1.120399311184883118e-01 -1.263857483863830566e-01 -1.946367621421813965e-01 -2.849618531763553619e-02 2.887647412717342377e-02 2.232594728469848633e+00
3.261829018592834473e-01 2.449498325586318970e-01 -6.927551031112670898e-01 3.291313946247100830e-01 2.569571137428283691e-01 3.609590232372283936e-01 2.346934080123901367e-01 -1.108088731765747070e+00 4.912811815738677979e-01 -2.417972981929779053e-01 -1.132706761360168457e+00 5.130704864859580994e-02 -5.287206768989562988e-01 9.292743802070617676e-01 5.212831497192382812e-01 1.944726109504699707e+00 3.480917811393737793e-01 -3.322865813970565796e-02 5.913423001766204834e-02 1.210186958312988281e+00 -2.438785582780838013e-01 3.583308458328247070e-01 4.892997443675994873e-01 -2.166176587343215942e-01 3.076242208480834961e-01 2.614166438579559326e-01 -1.353907585144042969e+00 2.222247421741485596e-01 4.485214948654174805e-01 3.699013292789459229e-01 6.059414744377136230e-01 2.962323129177093506e-01 -3.055671453475952148e-01 -2.076918631792068481e-01 -2.810575366020202637e-01 -8.560214042663574219e-01 3.018475174903869629e-01 1.098168611526489258e+00 -2.137388586997985840e-01 1.505452841520309448e-01 8.236940205097198486e-02 -1.385328173637390137e+00 -3.687269240617752075e-02 5.504882428795099258e-03 1.182762026786804199e+00 -2.684156298637390137e-01 4.600777924060821533e-01 2.079034298658370972e-01 -1.148515567183494568e-01 -1.552200436592102051e+00 7.134619355201721191e-01 -3.898419439792633057e-01 -4.324292242527008057e-01 -1.310855150222778320e-01 -1.521655917167663574e+00 -5.886219739913940430e-01 -4.073316156864166260e-01 -1.123449951410293579e-01 -6.203498225659132004e-03 2.358072996139526367e-01 -1.764451563358306885e-01 -2.334375530481338501e-01 -1.677388787269592285e+00 5.361164808273315430e-01 3.283952474594116211e-01 1.101751089096069336e+00 -2.535126209259033203e-01 -8.285388350486755371e-01 2.683724761009216309e-01 5.784473381936550140e-03 -3.719947338104248047e-01 -3.060802221298217773e-01 1.500924676656723022e-01 -4.911805987358093262e-01 -1.248513340950012207e+00 -1.710604131221771240e-01 -2.957149147987365723e-01 -5.737032368779182434e-02 7.693560123443603516e-01 -1.409398436546325684e+00 4.707413315773010254e-01 -1.811749041080474854e-01 4.824102818965911865e-01 -3.046919703483581543e-01 -1.772227138280868530e-01 7.468846440315246582e-01 2.009354233741760254e-01 2.537828683853149414e-01 -2.243651598691940308e-01 3.373394906520843506e-01 -2.463301718235015869e-01 3.242810070514678955e-01 1.273918002843856812e-01 3.580081164836883545e-01 -1.421489477157592773e+00 6.888096034526824951e-02 2.287680059671401978e-01 -7.422106713056564331e-02 -1.217784404754638672e+00 -2.842906415462493896e-01 -5.928469300270080566e-01 -2.284269928932189941e-01 1.101012706756591797e+00 -7.616715133190155029e-02 2.262505516409873962e-02 8.718379735946655273e-01 -1.201625704765319824e+00 -7.233950495719909668e-02 -1.165242433547973633e+00 2.646628916263580322e-01 3.116808533668518066e-01 2.971161305904388428e-01 -2.012934684753417969e-01 -2.608259320259094238e-01 -1.879487037658691406e-01 -1.597918570041656494e-02 2.522868514060974121e-01 4.758624136447906494e-01 3.552012443542480469e-01 2.984271347522735596e-01 -4.704605638980865479e-01 -2.953713834285736084e-01 -2.528437972068786621e-01 3.263070881366729736e-01 -3.058833479881286621e-01 1.180881738662719727e+00 1.740585863590240479e-01 7.907820492982864380e-02 8.416782133281230927e-03 2.488967329263687134e-01 -1.455429494380950928e-01 3.736811280250549316e-01 8.202746510505676270e-01 5.221727490425109863e-01 -4.872244894504547119e-01 -1.603904247283935547e+00 -2.652309536933898926e-01 -1.537207961082458496e-01 3.738951981067657471e-01 6.398568749427795410e-01 -5.829310417175292969e-01 -1.191233992576599121e-01 -1.187029257416725159e-01 -3.415085077285766602e-01 4.162802696228027344e-01 7.735799551010131836e-01 -1.374238431453704834e-01 4.369635283946990967e-01 7.496321201324462891e-02 -1.243788078427314758e-01
-3.019585832953453064e-02 -9.761205315589904785e-02 -1.109523028135299683e-01 3.976551592350006104e-01 -4.375784844160079956e-02 4.645094871520996094e-01 5.903494358062744141e-01 -1.088674068450927734e+00 -1.355344504117965698e-01 5.680079385638237000e-02 -1.873741974122822285e-03 -2.190185934305191040e-01 -1.378649771213531494e-01 -8.382348716259002686e-02 1.759772300720214844e+00 8.855189681053161621e-01 -6.834882497787475586e-02 -4.258267283439636230e-01 5.862960815429687500e-01 -2.542963027954101562e-01 -7.628467679023742676e-01 -1.243453100323677063e-01 8.333239555358886719e-01 3.220917284488677979e-02 -3.317915648221969604e-02 2.291569113731384277e-02 -4.963813424110412598e-01 -3.427175804972648621e-02 -4.049516469240188599e-02 1.008064951747655869e-02 -8.331011533737182617e-01 4.053923487663269043e-02 -1.822395175695419312e-01 5.825036391615867615e-02 5.654973909258842468e-02 -1.725152581930160522e-01 -7.441626489162445068e-02 5.701328516006469727e-01 1.208923012018203735e-01 -1.916217431426048279e-02 7.168766856193542480e-02 -1.939182281494140625e-01 -2.111341655254364014e-01 -1.318269371986389160e-01 3.102658092975616455e-01 3.147991746664047241e-02 1.833304613828659058e-01 1.077844426035881042e-01 6.335772108286619186e-03 -1.104128122329711914e+00 4.013308882713317871e-02 -1.982694417238235474e-01 -1.088833212852478027e-01 8.917471021413803101e-02 -1.913283020257949829e-01 -6.092724204063415527e-02 4.366055503487586975e-02 3.113722614943981171e-02 -9.951063990592956543e-02 -1.454845517873764038e-01 -2.782191149890422821e-02 5.866896510124206543e-01 -5.539835691452026367e-01 4.983050525188446045e-01 -2.219311706721782684e-02 6.241390109062194824e-01 -1.004882808774709702e-02 -8.492300659418106079e-02 -1.307244151830673218e-01 1.261665523052215576e-01 -1.313015222549438477e-01 -5.591028183698654175e-02 -1.737097501754760742e-01 -1.465370804071426392e-01 -2.524177730083465576e-01 -3.107782080769538879e-02 -3.090355778113007545e-03 3.444038927555084229e-01 -5.182033777236938477e-01 -1.503517180681228638e-01 -8.940622210502624512e-01 1.884832680225372314e-01 -4.643426537513732910e-01 4.415276646614074707e-02 9.025606513023376465e-02 -1.560129374265670776e-01 -1.301010251045227051e-01 -1.541741341352462769e-01 1.086498126387596130e-01 -1.105848029255867004e-01 -3.533483743667602539e-01 -8.175268024206161499e-02 -1.482398957014083862e-01 7.587459683418273926e-01 2.868169844150543213e-01 1.383544206619262695e-01 3.354302048683166504e-01 -1.461747102439403534e-02 -5.520092248916625977e-01 5.296342819929122925e-02 -5.520207881927490234e-01 1.118846908211708069e-01 1.978825032711029053e-01 -1.028066277503967285e-01 -1.962884962558746338e-01 -8.613498508930206299e-02 -4.657679200172424316e-01 5.375163555145263672e-01 -4.159374833106994629e-01 -7.735627889633178711e-02 9.635625779628753662e-02 3.105792403221130371e-02 -9.269857406616210938e-02 1.157691404223442078e-01 8.806490898132324219e-02 1.926509779877960682e-03 6.356301251798868179e-03 5.489579215645790100e-02 -3.013040684163570404e-02 4.514839500188827515e-02 1.972613781690597534e-01 6.495585292577743530e-02 -1.949700643308460712e-03 -1.210806965827941895e-01 -1.112206466495990753e-02 2.180327922105789185e-01 -7.765275985002517700e-02 -7.066261768341064453e-02 -4.380897805094718933e-02 2.151099592447280884e-02 -9.443742036819458008e-02 7.193147540092468262e-01 2.188160717487335205e-01 -6.747725605964660645e-01 -2.490063458681106567e-01 -5.601282119750976562e-01 6.528790295124053955e-02 -1.433929800987243652e-01 -5.399092659354209900e-02 5.339939594268798828e-01 -7.507873177528381348e-01 4.314660653471946716e-02 1.635691821575164795e-01 1.269729286432266235e-01 1.017466709017753601e-01 5.425091832876205444e-02 -4.634200930595397949e-01 3.936192989349365234e-01 -1.719113290309906006e-01 5.292624980211257935e-02
-4.611301422119140625e-02 2.766466438770294189e-01 -1.620360314846038818e-01 -1.146630644798278809e-01 -1.365365386009216309e-01 -6.509760767221450806e-02 1.721882224082946777e-01 -5.469115376472473145e-01 2.567758224904537201e-02 2.381761074066162109e-01 -5.250427126884460449e-01 1.671672016382217407e-01 -2.295947223901748657e-01 1.103029772639274597e-01 1.952820420265197754e+00 2.615346908569335938e-01 -2.040233761072158813e-01 -6.450528502464294434e-01 2.568842470645904541e-01 -4.964303672313690186e-01 -1.481804370880126953e+00 -2.487492412328720093e-01 6.240270137786865234e-01 5.259152874350547791e-02 -1.036328971385955811e-01 -1.258360892534255981e-01 -1.699047803878784180e+00 -1.972105354070663452e-01 -5.186698213219642639e-02 -2.003826498985290527e-01 9.227369427680969238e-01 -1.904399245977401733e-01 3.028458356857299805e-01 5.297284573316574097e-02 1.834950000047683716e-01 8.669966459274291992e-02 -9.135416150093078613e-02 7.426742315292358398e-01 1.797874271869659424e-01 -1.418704986572265625e-01 -9.923389554023742676e-01 1.276882141828536987e-01 -6.233454346656799316e-01 -1.217961125075817108e-02 3.257593512535095215e-01 8.170307427644729614e-02 7.179576158523559570e-01 -2.524836361408233643e-01 1.207518875598907471e-01 -1.843840479850769043e+00 -9.267873167991638184e-01 2.554422914981842041e-01 3.586320281028747559e-01 3.491748869419097900e-02 2.952995598316192627e-01 4.347425401210784912e-01 1.946055293083190918e-01 7.539715170860290527e-01 -8.472079783678054810e-02 -2.161465585231781006e-01 2.026699185371398926e-01 4.034611880779266357e-01 -7.516569495201110840e-01 4.102752208709716797e-01 -2.229944765567779541e-01 -1.555046141147613525e-01 1.727440804243087769e-01 1.611156612634658813e-01 -5.917548388242721558e-02 1.158667951822280884e-01 -2.006353884935379028e-01 -8.247307538986206055e-01 -1.643580049276351929e-01 -7.913982272148132324e-01 -3.235417008399963379e-01 2.097191512584686279e-01 7.678695023059844971e-02 -3.506448566913604736e-01 -6.804145574569702148e-01 -4.653068780899047852e-01 -6.200131773948669434e-01 1.234478056430816650e-01 -1.475179642438888550e-01 7.329364866018295288e-02 1.877066791057586670e-01 5.219720005989074707e-01 -1.791129857301712036e-01 -1.694122254848480225e-01 2.564652636647224426e-02 -1.073589697480201721e-01 -4.169747531414031982e-01 1.135871186852455139e-01 -1.968753151595592499e-02 1.139878273010253906e+00 -3.563820719718933105e-01 -2.837179228663444519e-02 -2.160562202334403992e-03 -1.619733422994613647e-01 -3.117544412612915039e+00 1.232334896922111511e-01 -2.811464369297027588e-01 1.959029138088226318e-01 -2.634542621672153473e-02 1.676865816116333008e-01 6.564171910285949707e-01 1.614985108375549316e+00 -1.786259055137634277e+00 6.243048310279846191e-01 4.984074234962463379e-01 -1.294071078300476074e-01 -7.586067318916320801e-01 -1.185304224491119385e-01 -1.941387206315994263e-01 1.550085097551345825e-01 4.313737619668245316e-03 8.468674868345260620e-02 -1.230883821845054626e-01 -4.452602863311767578e-01 -9.735408425331115723e-02 -8.267318457365036011e-02 3.527081012725830078e-02 1.571960449218750000e-01 2.075995504856109619e-01 -1.101143509149551392e-01 1.140178814530372620e-01 1.603445708751678467e-01 -1.187928915023803711e-01 7.035881280899047852e-01 -1.203864142298698425e-01 -1.962243318557739258e-01 -3.460160493850708008e-01 6.146838068962097168e-01 8.356986194849014282e-02 -2.084079831838607788e-01 -5.727631449699401855e-01 -1.465008616447448730e+00 1.645001471042633057e-01 -1.275692717172205448e-03 -1.978242695331573486e-01 2.378974437713623047e+00 -8.638556003570556641e-01 1.279218047857284546e-01 1.524614393711090088e-01 1.026795804500579834e-01 -5.933183804154396057e-02 -1.088702440261840820e+00 4.610451161861419678e-01 8.979606628417968750e-02 -2.595735192298889160e-01 -4.933385550975799561e-01
-3.277594223618507385e-02 -2.004180401563644409e-01 -1.125405654311180115e-01 3.220371305942535400e-01 9.741865843534469604e-02 4.711617529392242432e-02 6.111570596694946289e-01 -1.158085227012634277e+00 8.617358654737472534e-02 6.765171885490417480e-02 -8.047927916049957275e-02 -3.118097484111785889e-01 2.292581200599670410e-01 4.110951721668243408e-02 1.842644691467285156e+00 7.626262903213500977e-01 2.901011146605014801e-02 -3.646833598613739014e-01 2.992574274539947510e-01 -1.341241002082824707e-01 -9.001001715660095215e-01 3.505017980933189392e-02 1.049834847450256348e+00 6.168881431221961975e-02 -2.811348764225840569e-03 1.105159148573875427e-01 -5.138154625892639160e-01 -1.703632622957229614e-02 1.335913389921188354e-01 -3.994588181376457214e-02 -8.047646880149841309e-01 -3.240035101771354675e-02 -3.126782476902008057e-01 -4.950996860861778259e-02 -6.579551100730895996e-02 -1.322970837354660034e-01 1.017895862460136414e-01 9.505736827850341797e-01 3.429982811212539673e-02 3.631426766514778137e-02 -1.898547559976577759e-01 -5.995909124612808228e-02 -4.385507702827453613e-01 -1.391810327768325806e-01 1.990170031785964966e-01 -8.903691917657852173e-02 2.607217431068420410e-01 1.067552492022514343e-01 7.753295451402664185e-02 -9.849105477333068848e-01 -2.004831284284591675e-01 -3.446625471115112305e-01 -2.822639346122741699e-01 -4.504334926605224609e-02 -5.296921730041503906e-01 -2.584286406636238098e-02 8.541493117809295654e-02 1.882073730230331421e-01 1.028925552964210510e-01 3.500455245375633240e-02 -5.883029475808143616e-02 3.978424966335296631e-01 -1.163568735122680664e+00 2.431406080722808838e-01 2.896615117788314819e-02 7.254512608051300049e-02 6.086048670113086700e-03 -8.851967006921768188e-02 -2.084241248667240143e-03 -1.201003789901733398e-02 8.335571736097335815e-03 4.074090719223022461e-02 -2.008606940507888794e-01 -3.894816040992736816e-01 -3.756464421749114990e-01 -5.349954590201377869e-02 -5.620019510388374329e-02 1.891059726476669312e-01 -6.272795200347900391e-01 -2.029761523008346558e-01 -8.366895914077758789e-01 1.436235904693603516e-01 -3.277150094509124756e-01 -4.094608128070831299e-02 5.418017879128456116e-02 -1.838123649358749390e-01 -1.267835795879364014e-01 7.443739473819732666e-02 5.867452360689640045e-03 -2.503853663802146912e-02 -2.432837784290313721e-01 1.200623735785484314e-01 1.894796616397798061e-03 7.963505983352661133e-01 -2.052646316587924957e-02 3.051837682723999023e-01 1.072566136717796326e-01 1.445863209664821625e-02 -4.746771454811096191e-01 -4.310362040996551514e-02 -4.452708959579467773e-01 6.086307018995285034e-02 2.808827459812164307e-01 1.221719104796648026e-02 5.813245102763175964e-02 4.913946613669395447e-02 -3.510634899139404297e-01 4.259796738624572754e-01 -2.994604706764221191e-01 -6.359115941449999809e-04 -9.396900981664657593e-02 1.392553094774484634e-02 -1.033047065138816833e-01 1.191217228770256042e-01 7.237007468938827515e-02 9.484873712062835693e-02 -6.845170259475708008e-02 3.222765624523162842e-01 7.175503671169281006e-02 1.661836802959442139e-01 3.190183937549591064e-01 4.085840657353401184e-02 2.969768643379211426e-01 1.435580663383007050e-03 -8.042085915803909302e-02 1.363204866647720337e-01 4.842721670866012573e-02 -2.231641709804534912e-01 -1.336105167865753174e-01 3.729259967803955078e-02 1.046959981322288513e-01 1.149190425872802734e+00 2.866155505180358887e-01 -5.988685488700866699e-01 -5.366080403327941895e-01 -5.389674305915832520e-01 1.376526951789855957e-01 -2.056523859500885010e-01 1.343506621196866035e-03 9.164322614669799805e-01 -6.789097189903259277e-01 -1.750756986439228058e-02 2.125169150531291962e-03 4.300000611692667007e-03 -1.960110217332839966e-01 4.674152135848999023e-01 -2.998285591602325439e-01 5.525143817067146301e-02 -2.589592039585113525e-01 2.366493940353393555e-01
-9.342495352029800415e-02 3.818152844905853271e-01 -1.999760568141937256e-01 1.249019503593444824e-01 -9.570194780826568604e-02 6.963812559843063354e-02 3.084380626678466797e-01 -7.594864368438720703e-01 -1.413634121417999268e-01 -5.747875943779945374e-02 -2.490915060043334961e-01 4.702831208705902100e-01 -2.228690385818481445e-01 4.433165863156318665e-02 6.926249861717224121e-01 2.601603865623474121e-01 -3.740921989083290100e-02 -2.771998047828674316e-01 4.550545662641525269e-02 8.073179721832275391e-01 -3.602770864963531494e-01 -8.613225817680358887e-02 7.470396757125854492e-01 7.752425223588943481e-02 -1.114743128418922424e-01 -6.057613715529441833e-02 -8.338973522186279297e-01 -5.177326127886772156e-02 3.447758257389068604e-01 -7.226477563381195068e-02 5.369023680686950684e-01 -3.305856138467788696e-02 -3.126341104507446289e-02 1.666119135916233063e-02 -5.791943520307540894e-03 -2.555347420275211334e-02 2.932808920741081238e-02 4.624871611595153809e-01 -1.958559500053524971e-03 -9.849617630243301392e-02 -1.040148083120584488e-02 1.965440809726715088e-02 2.008392810821533203e-01 -9.374228864908218384e-02 2.472130805253982544e-01 3.899343777447938919e-03 2.993337512016296387e-01 8.763144724071025848e-03 1.915155947208404541e-01 -9.709101915359497070e-01 1.780188232660293579e-01 -2.328658401966094971e-01 -1.253674328327178955e-01 -2.528288587927818298e-02 -7.262521982192993164e-01 -2.236052304506301880e-01 -2.573454976081848145e-01 7.672642171382904053e-02 -1.402723602950572968e-02 -4.299921914935112000e-02 5.873377993702888489e-02 -1.080407947301864624e-01 -7.507777810096740723e-01 9.993930906057357788e-02 4.831076040863990784e-02 -2.752800583839416504e-01 2.364799380302429199e-02 2.446579486131668091e-01 -5.047227814793586731e-02 -1.975079439580440521e-02 -1.646370887756347656e-01 -7.618279010057449341e-02 -1.876373589038848877e-01 -2.752705216407775879e-01 -5.503386855125427246e-01 6.339789927005767822e-02 6.330405175685882568e-02 -3.587583601474761963e-01 2.431233599781990051e-02 -7.727550864219665527e-01 4.151000082492828369e-01 4.006563127040863037e-02 -1.130601093173027039e-01 8.871840685606002808e-02 1.443700790405273438e-01 5.512728691101074219e-01 7.081881910562515259e-02 -4.030760377645492554e-02 2.819132208824157715e-01 -3.450608626008033752e-02 -2.613897919654846191e-01 2.487328499555587769e-01 -4.439289867877960205e-02 3.230701386928558350e-01 1.019338518381118774e-01 2.280094921588897705e-01 5.022078007459640503e-02 9.631758183240890503e-02 -1.437858700752258301e+00 2.461203187704086304e-02 -2.376583814620971680e-01 6.285867094993591309e-02 8.223354071378707886e-02 2.555023506283760071e-02 1.856559514999389648e-01 6.246662735939025879e-01 -1.069851636886596680e+00 -2.963563892990350723e-03 -5.184537172317504883e-01 -1.588071510195732117e-02 -5.190086737275123596e-02 -4.640305042266845703e-02 -1.358278244733810425e-01 5.358072742819786072e-02 -2.949052490293979645e-02 1.128929853439331055e-01 6.037533655762672424e-02 3.373761847615242004e-02 -4.255782440304756165e-02 -5.509946867823600769e-02 -5.220991969108581543e-01 1.612617224454879761e-01 -3.763281553983688354e-02 -9.919824451208114624e-02 1.620669364929199219e-01 2.910135388374328613e-01 -1.053371652960777283e-01 -2.457903027534484863e-01 -2.535044848918914795e-01 6.610392779111862183e-02 -1.841779053211212158e-01 -1.099786013364791870e-01 -7.413398474454879761e-02 4.349153861403465271e-02 -9.778596460819244385e-02 -1.044409275054931641e+00 -6.359448283910751343e-02 -1.696968376636505127e-01 6.973805278539657593e-02 5.131008625030517578e-01 5.650154128670692444e-02 4.385989159345626831e-02 1.466502100229263306e-01 4.823536425828933716e-02 3.115580976009368896e-01 5.352031588554382324e-01 1.796168684959411621e-01 2.954987436532974243e-02 1.105186343193054199e-01 -4.079284369945526123e-01
4.980992898344993591e-02 4.230992496013641357e-01 -1.712546944618225098e-01 2.694431245326995850e-01 1.148949563503265381e-01 6.141011789441108704e-02 3.169793486595153809e-01 -9.320034384727478027e-01 7.957436144351959229e-03 1.967227831482887268e-02 -3.056560410186648369e-03 -7.519192993640899658e-03 -8.228903263807296753e-02 -1.615769229829311371e-02 9.885153174400329590e-01 8.780089020729064941e-01 2.839543670415878296e-02 -1.908792406320571899e-01 3.253671526908874512e-01 3.956093490123748779e-01 -5.366052389144897461e-01 -3.884588927030563354e-02 6.717925071716308594e-01 -2.622862346470355988e-02 8.018670231103897095e-02 5.500656366348266602e-02 -8.696015477180480957e-01 -3.499079123139381409e-02 8.191621303558349609e-02 -1.049600839614868164e-01 -2.279422013089060783e-03 6.211296468973159790e-02 -3.232828900218009949e-02 1.912435330450534821e-02 -5.361037328839302063e-02 -7.752204686403274536e-02 1.584567725658416748e-01 6.493552327156066895e-01 -1.185456011444330215e-02 -8.220883458852767944e-02 -8.827841281890869141e-02 -4.004705250263214111e-01 -2.096544057130813599e-01 -8.282283693552017212e-02 1.320831626653671265e-01 5.189498886466026306e-02 6.010990142822265625e-01 -6.780401617288589478e-02 8.801789581775665283e-02 -8.944631218910217285e-01 -2.748575527220964432e-03 -2.470015138387680054e-01 -2.128439247608184814e-01 -6.552927196025848389e-02 -6.653615832328796387e-01 -2.756485939025878906e-01 -1.714151650667190552e-01 2.290701419115066528e-01 -6.066504865884780884e-02 1.124852970242500305e-01 -4.774535074830055237e-02 9.392486512660980225e-02 -9.201012849807739258e-01 -2.561713755130767822e-02 6.860488653182983398e-02 -5.030005052685737610e-02 -9.900670498609542847e-02 4.387318342924118042e-02 3.788034617900848389e-02 2.123583257198333740e-01 -3.171170353889465332e-01 -3.846018016338348389e-02 3.766797482967376709e-02 -2.019540965557098389e-01 -5.075781941413879395e-01 -1.091827377676963806e-01 1.760914921760559082e-02 -1.082283854484558105e-01 -2.639672458171844482e-01 -9.964573979377746582e-01 -2.383037060499191284e-01 1.078096777200698853e-02 -6.654296517372131348e-01 -2.649291604757308960e-02 -1.049407273530960083e-01 2.103968560695648193e-01 9.913776069879531860e-02 7.638225704431533813e-02 1.357312500476837158e-01 1.074620429426431656e-02 -2.890475392341613770e-01 4.886529147624969482e-01 -6.292280275374650955e-03 1.018897652626037598e+00 2.049182076007127762e-03 1.009189561009407043e-01 7.308741658926010132e-02 9.877821803092956543e-02 -1.380111217498779297e+00 -1.457594335079193115e-02 -2.499043792486190796e-01 -2.174240536987781525e-02 2.574492096900939941e-01 8.650814741849899292e-02 -2.136522531509399414e-01 8.870522975921630859e-01 -9.409373998641967773e-01 2.807205319404602051e-01 -1.903744228184223175e-02 5.018407851457595825e-02 -6.853107479400932789e-04 1.859225519001483917e-02 -1.328240185976028442e-01 -2.589748473837971687e-03 9.741849452257156372e-02 6.684572249650955200e-02 3.793320432305335999e-02 3.772258460521697998e-01 4.078585281968116760e-02 -2.368192821741104126e-01 -2.482574135065078735e-01 -1.844445802271366119e-02 1.178120896220207214e-01 5.254808068275451660e-02 -1.364019662141799927e-01 2.494676411151885986e-02 -3.498505428433418274e-02 -2.390653491020202637e-01 -1.886399835348129272e-01 1.153796240687370300e-01 -2.740017175674438477e-01 4.274030327796936035e-01 3.913811594247817993e-02 9.284907579421997070e-02 -1.261793524026870728e-01 -8.458335995674133301e-01 -6.799692288041114807e-03 -5.530672669410705566e-01 2.006472460925579071e-02 5.997175574302673340e-01 -2.319637835025787354e-01 3.627517446875572205e-02 -6.281643174588680267e-03 -5.259174108505249023e-02 2.313339114189147949e-01 4.629085958003997803e-01 -2.544901669025421143e-01 1.030054837465286255e-01 1.085355430841445923e-01 -7.426812499761581421e-02
