3.473396077424695250e-07
-1.934479740839378792e-07
-5.527743383026972879e-07
-5.943592213952797465e-07
1.234406425965062226e-07
-4.721864002021902706e-07
-4.474291017686482519e-07
1.314487235504202545e-06
1.833975318277225597e-07
-4.637034578536258778e-07
6.459714541051653214e-07
3.194357987013063394e-07
1.462385512240871321e-06
-3.361135441082296893e-07
6.019200782247935422e-07
-6.070836207072716206e-07
-3.886017339027603157e-07
1.952459882659240975e-08
2.514224206606741063e-07
-5.942670000536054431e-08
7.402289270430628676e-07
-3.383725868388864910e-07
3.471552076916850638e-07
8.144546654875739478e-07
-3.681320492887607543e-08
-6.136071988294133916e-07
2.521831277135788696e-08
5.878125985958604360e-09
-2.136871657398842217e-08
-1.894370171839909744e-07
-2.690798623916634824e-07
-3.695151349347725045e-07
4.542062299606186571e-07
3.259478376094193663e-08
-3.201388665274862433e-07
1.331222563294431893e-07
-2.709931266053899890e-07
2.547187882839807571e-08
-1.285119708427373553e-07
-1.744535467196328682e-07
7.608830401295563206e-07
1.552516692981953383e-08
-5.799059294986363966e-07
7.349731845351925585e-07
-1.177469286517407454e-07
1.720562039508877206e-07
8.849921755427203607e-07
1.679760828210419277e-07
5.827412508097040700e-08
2.821730902269337093e-07
-1.661550186327076517e-07
5.052882912082168332e-08
-6.613007030864537228e-07
-4.336443168995174346e-07
3.578741427645582007e-07
-1.787872321301620104e-07
-4.007060453295707703e-02
-7.727775823695992585e-07
3.205797156624612398e-07
3.743559418012409878e-08
-1.498668552812887356e-06
-1.047597265824151691e-06
-3.750935775315156206e-07
-3.621501889483624836e-07
3.644437924776866566e-07
-6.526333322653954383e-07
1.055757479662133846e-06
7.586701258333050646e-07
-2.413028141745598987e-07
-5.774855367235431913e-07
4.194964731141226366e-07
1.426701828677323647e-06
-2.035906163655454293e-07
1.609283499419689178e-02
6.627759603361482732e-07
1.935862741220262251e-07
-2.114511659101481200e-07
1.781878893325483659e-07
1.189686571478887345e-07
4.229945460565431858e-08
-9.653957278032976319e-08
-5.238678113528294489e-07
-8.388200853914895561e-07
-1.298259064697049325e-07
9.838368697501209681e-08
8.975321748039277736e-07
-7.630037544004153460e-07
-6.191626056306631654e-08
1.597467189640155993e-07
-4.936703703606326599e-07
-9.838369123826851137e-07
-6.834761734353378415e-08
-1.167326644235799904e-07
-5.544340524465951603e-07
2.497627065167762339e-07
4.064435756845341530e-07
1.040658759166035452e-07
-6.306883193474277505e-08
3.125779812762630172e-08
-1.620288117010204587e-07
-3.044177674382808618e-07
1.072077907338098157e-06
2.725260515035188291e-07
-4.853718564845621586e-07
-1.008086996989732143e-06
-2.721918122006172780e-07
-3.677632207654824015e-07
-4.355114811005478259e-07
8.218772222789993975e-07
-8.440988494839984924e-07
-1.346667062307460583e-07
-8.372295496883452870e-07
6.878559588585630991e-08
4.122525467664672760e-07
-1.997179737145415857e-07
2.147705799870891497e-07
2.669360732454606477e-08
-1.978162202931343927e-07
-6.166268917695560958e-08
-5.398655034127841645e-08
-4.610294865869946079e-07
9.220589625158481795e-09
-4.848416210734285414e-07
2.284862148371757939e-07
2.680886268535687122e-07
5.583066808867442887e-07
7.519390976540307747e-08
1.401529647893084984e-08
-9.542157641817539115e-08
-4.826229655918723438e-07
3.092124813974805875e-07
-1.192314471154531930e-06
4.948837682604789734e-02
-6.681917584501206875e-04
3.875874767800269183e-07
1.314533392360317521e-06
-6.545004680447163992e-07
-8.833324471879677731e-08
4.186147606333179283e-08
-7.174079428295954131e-07
1.939551026453045779e-07
5.870288077858276665e-07
-7.337283847164144390e-08
-1.130905289414840809e-07
-1.348718683402694296e-06
2.008474950798699865e-07
-8.368606927433575038e-07
6.033953923179069534e-07
-2.817581616909592412e-07
3.016976961589534767e-07
-3.642132924142060801e-07
2.764793691767408745e-07
-1.278342551813693717e-06
1.229565640414875816e-07
-4.693049504567170516e-07
2.726067407365917461e-07
-2.025763450319573167e-07
2.921543682532501407e-07
-5.021532842874876224e-07
4.066280041570280446e-07
2.184818725936565897e-07
-1.211354998531533056e-07
1.114907604460313451e-06
-9.963307547877775505e-07
-1.381705345693262643e-07
-2.259044435959367547e-07
3.468324791811028263e-07
-3.785974058700958267e-07
-1.783031535751433694e-07
4.574334582230221713e-07
-4.810381710740330163e-07
-6.897001014749548631e-08
4.252996887998961029e-08
-4.833432853956765030e-07
4.769349857269844506e-07
-1.766388322721468285e-06
-1.777176407813385595e-06
6.497749609479797073e-07
-1.045614865802235727e-07
-1.103474005503812805e-06
2.676091753528453410e-06
-4.458616160718520405e-07
4.648099150017515058e-07
-6.396783902573588421e-08
2.468444108671974391e-06
-1.463307512494793627e-06
-1.826368247748177964e-07
-2.292930076919219573e-07
-2.480338601174025825e-08
-4.296794742231213604e-08
7.839806244192004669e-07
-2.171448869603409548e-07
1.696264371275901794e-02
-4.099474040231143590e-07
-6.412458901650097687e-07
-3.107799670942767989e-07
7.878993812937551411e-08
-6.429653614759445190e-02
-3.383956368452345487e-07
2.474806137797713745e-07
1.565249636769294739e-02
2.996058948338031769e-02
1.451090270165877882e-06
-1.885584555566310883e-02
1.724250253687387158e-08
8.850693702697753906e-02
2.071128847092040814e-06
-9.514726571069331840e-07
-4.605454080319759669e-07
-5.206140223890542984e-03
-1.853799460604932392e-07
2.054758928716182709e-02
-9.531110525131225586e-02
1.127153448760509491e-02
-2.796143689920427278e-07
-1.498383004218339920e-03
-1.557265363771875855e-06
5.081466838419146370e-07
-5.434384888758359011e-07
1.999945880015729927e-07
2.231382723039132543e-08
-3.689166530966758728e-02
3.214095486328005791e-03
-1.747301752175189904e-07
7.312617730349302292e-03
8.365379500219205511e-08
4.017410901724360883e-07
2.159462013651136658e-07
-5.920820985920727253e-04
-1.204670070364954881e-07
-2.149088942360322108e-07
-3.560078889131546021e-02
5.913624931963568088e-07
-1.332248416474612895e-06
3.810747992247343063e-03
-6.032455530657898635e-07
7.595460260745312553e-08
-3.977762332851852989e-07
-6.453271955251693726e-02
4.864067584276199341e-02
-2.119582944715148187e-07
1.935419859364628792e-03
-4.149265375730237793e-09
-2.123418636620044708e-02
-7.689971681656970759e-08
-8.446060206779293367e-08
9.001391939818859100e-03
4.483511588659894187e-07
1.711371913552284241e-02
2.418791211766802007e-07
-1.731025986373424530e-02
-7.247383564390474930e-07
-1.412594343719320023e-07
6.061615636099304538e-07
-4.240313917398452759e-02
-4.693730175495147705e-02
-5.588599378825165331e-07
-1.170528214424848557e-02
-6.778516308258986101e-07
1.666233316063880920e-02
6.415225328737506061e-08
4.338287453720113263e-07
-1.580200158059597015e-02
-9.416065722689381801e-07
-1.010232698172330856e-02
-4.713565431302413344e-07
4.272821172435214976e-07
-1.701198755199584411e-07
-4.469219732072815532e-07
-3.599718070290691685e-07
-2.080697193741798401e-02
-6.981830438235192560e-07
-1.901516100133449072e-07
5.885538086295127869e-02
7.265363706210337114e-07
-4.685903718382178340e-07
-4.477491602301597595e-02
2.986894571677112253e-07
-2.106396295130252838e-02
1.204670070364954881e-06
-4.577103070914745331e-03
9.216231293976306915e-03
-6.009519211147562601e-07
-2.054808305729238782e-07
-4.360877881026681280e-07
-3.882098553731339052e-07
4.067179979756474495e-04
-3.411618081372580491e-07
3.669333636935334653e-07
7.036845386028289795e-02
1.782019250094890594e-02
-5.081927838546107523e-07
-1.818069677028688602e-07
9.629983424019883387e-07
-4.274665172943059588e-07
-4.026631472697772551e-07
-2.106259216816397384e-06
-1.774788834154605865e-02
3.135000525844588992e-08
1.049867819347127806e-06
-1.224033212565700524e-07
2.109022736549377441e-01
1.612408831715583801e-02
-7.382101844996213913e-03
-1.742691466688484070e-07
-3.169692774918075884e-07
-1.546062406987402937e-07
2.753268120159191312e-07
9.992813829740043730e-07
-5.502386670741543639e-07
6.596032530069351196e-02
3.499213789837085642e-07
2.245599776506423950e-02
-2.883333014324307442e-03
3.256073594093322754e-02
-6.708395481109619141e-02
1.682502776384353638e-02
2.281386964023113251e-02
-2.427135827019810677e-03
1.034135266309021972e-06
2.649997554726724047e-07
-3.853405639529228210e-02
2.469982393085956573e-02
9.447646220905880909e-08
5.640371702611446381e-03
1.125641399994492531e-03
-3.395943224404618377e-07
-2.426721900701522827e-02
-1.563720591366291046e-02
2.776854485273361206e-02
-1.888598874211311340e-02
-7.042225433906423859e-07
3.634756353676493745e-07
-8.141780654113972560e-07
-7.749905535092693754e-07
2.126417867839336395e-02
4.598308009917673189e-07
-1.298812208005983848e-06
-6.314259621831297409e-07
-1.031322938160883496e-07
-1.228174660354852676e-02
7.731933612376451492e-03
6.516190751426620409e-07
1.430769357830286026e-02
6.581503432244062424e-03
-5.040434984948660713e-07
-2.856137417256832123e-02
5.971253926873032469e-07
-2.380756143338658148e-07
3.520194673910737038e-03
-8.336565429090114776e-07
4.488099366426467896e-02
2.232174854725599289e-03
-2.530005574226379395e-02
-1.473739650100469589e-02
-3.746325489828450372e-07
1.273910887539386749e-02
-2.279790720649543800e-07
2.198005467653274536e-02
-2.016542879346161499e-07
-2.994962855495941767e-08
3.791577881202101707e-03
5.997993639539345168e-07
-2.649075270255707437e-07
3.409762680530548096e-02
-5.732901442456750374e-08
-2.573466417743475176e-07
2.231382723039132543e-08
-1.061935336110764183e-06
3.786896058954880573e-07
5.794679509563138708e-07
3.521112716953211930e-07
2.599782496690750122e-02
2.360470858775443048e-07
-1.166174072864123445e-07
3.038810566067695618e-02
2.983321678584616166e-07
2.327276860114579904e-07
1.161425416285055690e-06
-1.083664479665458202e-03
-2.418904937803745270e-02
3.793647885322570801e-02
-7.687666681022164994e-08
1.378708702759467997e-07
6.096653919485106599e-07
1.927597261965274811e-02
2.353555395018247509e-08
9.958236546481202822e-08
-2.740877960150100989e-07
2.602511415261687944e-07
1.674459042533271713e-07
-1.248870627023279667e-03
1.196832499772426672e-07
-1.828587800264358521e-02
1.796170892021109466e-07
5.528183653950691223e-03
5.388051249610725790e-07
-6.723653882545477245e-07
1.093551609665155411e-02
4.176290333271026611e-02
-7.488835602998733521e-02
-4.462605342268943787e-02
2.523673325777053833e-02
1.594797521829605103e-02
7.514733355492353439e-03
-3.905436489731073380e-03
-2.390119433403015137e-02
1.791954599320888519e-02
1.297667715698480606e-02
-1.566896447911858559e-03
-7.546903565526008606e-03
-1.066933106631040573e-02
3.489425778388977051e-02
-5.206534988246858120e-04
2.344751730561256409e-03
2.740220725536346436e-02
5.103600677102804184e-03
3.862590715289115906e-02
-9.103694558143615723e-02
1.417518407106399536e-02
3.196274861693382263e-02
1.222053728997707367e-02
1.072443788871169090e-03
4.685056861490011215e-03
-4.492952674627304077e-02
1.535452716052532196e-02
-1.640610210597515106e-02
4.916068911552429199e-02
8.331770077347755432e-03
-8.530990779399871826e-02
1.451600790023803711e-01
-1.877799816429615021e-02
2.045214176177978516e-02
3.083090484142303467e-02
-7.162941154092550278e-03
-6.550793349742889404e-02
-6.375083327293395996e-02
1.826704293489456177e-02
2.672280929982662201e-02
5.608347430825233459e-02
1.367800235748291016e-01
-2.817307598888874054e-02
1.629488170146942139e-02
-7.708951830863952637e-02
-2.831228077411651611e-01
9.945185482501983643e-02
1.730862632393836975e-02
-5.223667249083518982e-02
1.487430091947317123e-02
5.183705687522888184e-02
5.249522253870964050e-02
6.859814375638961792e-02
1.125936582684516907e-01
5.047653242945671082e-02
-1.064093969762325287e-02
1.027836278080940247e-01
1.104411948472261429e-02
-1.106522325426340103e-02
-6.790702464058995247e-04
-4.522135108709335327e-02
3.953400999307632446e-02
6.088135018944740295e-02
3.084612078964710236e-02
3.637178242206573486e-02
-5.687631294131278992e-02
2.318806760013103485e-02
-1.168196126818656921e-01
2.014810033142566681e-02
8.736486732959747314e-02
-1.122189238667488098e-01
-1.687384955585002899e-02
-6.563206762075424194e-02
-5.207949876785278320e-02
-4.532388877123594284e-03
-9.173748642206192017e-02
7.304225116968154907e-03
-1.908588781952857971e-02
2.567698992788791656e-02
-4.420075193047523499e-02
-1.904937028884887695e-01
-1.272632041946053505e-03
4.728151485323905945e-02
-1.163060218095779419e-01
1.125021930783987045e-02
-3.219362348318099976e-02
-3.241927176713943481e-02
9.349308675155043602e-04
6.276554614305496216e-02
-7.416611164808273315e-02
7.396349310874938965e-02
-1.230199411511421204e-01
3.679489716887474060e-02
-7.611971348524093628e-03
-4.745688289403915405e-02
-5.070542450994253159e-03
9.408484399318695068e-02
-3.543118387460708618e-02
-2.767260372638702393e-02
1.790196262300014496e-02
-1.657874695956707001e-02
3.239940106868743896e-02
-2.453906387090682983e-01
3.386002965271472931e-03
3.284911811351776123e-02
-5.499491840600967407e-02
1.280860602855682373e-01
-2.599444054067134857e-02
-4.695259779691696167e-02
-1.576497405767440796e-02
1.080213561654090881e-01
-6.693482398986816406e-02
-4.438649490475654602e-02
-1.813127100467681885e-02
1.124274805188179016e-01
-1.422954257577657700e-02
8.327995240688323975e-02
1.165215950459241867e-02
-7.290978729724884033e-02
-3.317179903388023376e-02
-3.972456604242324829e-02
-4.950885474681854248e-02
2.095031365752220154e-02
7.386307232081890106e-03
2.450408786535263062e-02
-2.306708507239818573e-02
-8.546636998653411865e-02
-9.415630251169204712e-02
1.478336192667484283e-02
-1.730865985155105591e-02
-1.275882311165332794e-02
-1.318561583757400513e-01
-1.032755002379417419e-01
2.044517546892166138e-03
6.703499704599380493e-03
1.093217730522155762e-01
5.322383344173431396e-02
-3.492588177323341370e-02
-8.401934802532196045e-02
-9.963021427392959595e-02
-1.290324032306671143e-01
-4.809198528528213501e-02
-9.480023384094238281e-02
-5.087649915367364883e-03
-8.179982192814350128e-03
-1.452483888715505600e-02
-6.704283505678176880e-02
4.604181274771690369e-02
-9.963914752006530762e-03
-2.631092444062232971e-02
3.764143586158752441e-02
-1.088498085737228394e-01
3.111100569367408752e-02
-1.701197028160095215e-02
6.841242313385009766e-02
7.873002439737319946e-02
6.253229826688766479e-02
-5.282273516058921814e-02
3.067265450954437256e-02
1.407443173229694366e-02
-7.471528649330139160e-02
3.169397637248039246e-02
8.275254070758819580e-02
-2.090578153729438782e-02
4.178281500935554504e-02
2.798965573310852051e-02
-1.080578044056892395e-01
-1.917838677763938904e-02
-4.412355273962020874e-02
6.259427964687347412e-02
3.290193155407905579e-02
-6.024603173136711121e-02
-1.979284361004829407e-02
4.146855324506759644e-02
-3.720372542738914490e-02
8.476872742176055908e-02
6.111411005258560181e-02
-2.102902531623840332e-01
-9.429796785116195679e-02
-8.169687539339065552e-02
1.370440125465393066e-01
-6.804139818996191025e-03
5.039565265178680420e-02
1.598819904029369354e-02
-1.203110069036483765e-01
-7.844850420951843262e-02
-5.906207952648401260e-03
1.857532188296318054e-02
-2.794798929244279861e-03
1.863722503185272217e-02
2.746355347335338593e-02
3.710946440696716309e-02
4.373816773295402527e-02
3.540706634521484375e-02
-9.780806303024291992e-02
-1.689551398158073425e-02
3.457384184002876282e-02
1.577196829020977020e-02
7.433339022099971771e-03
7.239168882369995117e-02
-1.420802325010299683e-01
