-1.111354976892471313e-01 6.153773982077836990e-03 -3.748132288455963135e-02 -9.258541278541088104e-03 2.094949129968881607e-03 1.499633044004440308e-01 -1.879581362009048462e-01 2.126703858375549316e-01 1.539224386215209961e-01 1.635233610868453979e-01 7.328537851572036743e-02 2.276596985757350922e-02 -1.997208222746849060e-02 -3.711568657308816910e-03 9.020202606916427612e-02 -9.876657277345657349e-02 4.081386625766754150e-01 -1.304779648780822754e-01 1.991229653358459473e-01 9.764052927494049072e-03 -1.239552511833608150e-03 -5.526096560060977936e-03
4.895122349262237549e-02 -3.108809236437082291e-03 4.576623067259788513e-02 7.450234889984130859e-02 3.689666977152228355e-03 2.695963382720947266e-01 -4.121718108654022217e-01 6.745943427085876465e-01 -1.094271421432495117e+00 -1.428024768829345703e-01 2.612639404833316803e-02 -1.505474895238876343e-01 2.338968589901924133e-02 2.101241350173950195e-01 3.346399366855621338e-01 -5.343996882438659668e-01 7.996285557746887207e-01 -3.905110061168670654e-02 -1.519258916378021240e-01 -3.638176247477531433e-02 -1.235161721706390381e-02 2.636668644845485687e-02
-2.904631569981575012e-02 3.733083233237266541e-02 -1.159866228699684143e-01 6.617590785026550293e-02 1.040041595697402954e-01 -2.155873626470565796e-01 2.125708311796188354e-01 3.079795241355895996e-01 2.771112918853759766e-01 -2.927163615822792053e-02 2.986734174191951752e-02 -2.677750075235962868e-03 -8.111705631017684937e-02 -5.625415593385696411e-02 2.143651843070983887e-01 -2.387302368879318237e-01 -1.754868626594543457e-01 -9.823619574308395386e-02 -4.573616757988929749e-02 8.457473479211330414e-03 9.894865797832608223e-04 -1.238966709934175014e-03
-1.582549512386322021e-01 2.002597041428089142e-02 -1.092279776930809021e-01 -4.009060095995664597e-03 2.796941809356212616e-02 3.994655609130859375e-02 2.228719443082809448e-01 -1.291083097457885742e-01 1.360319405794143677e-01 -3.022467531263828278e-02 7.450006902217864990e-02 6.574364751577377319e-02 2.580529823899269104e-02 7.627409696578979492e-02 1.672996431589126587e-01 -7.532161474227905273e-02 -3.786365687847137451e-01 -7.148369401693344116e-02 -1.584659367799758911e-01 -2.157288603484630585e-02 -3.380068019032478333e-02 -4.539790097624063492e-03
5.917146429419517517e-02 -9.203998744487762451e-02 2.334079295396804810e-01 -2.344057895243167877e-02 -1.182912439107894897e-01 1.207395642995834351e-01 -2.018368244171142578e-01 7.159548997879028320e-02 3.275587856769561768e-01 -3.092742264270782471e-01 1.153006926178932190e-01 7.056394219398498535e-02 -5.436928942799568176e-02 2.155420035123825073e-01 2.156154960393905640e-01 1.309111863374710083e-01 1.467475295066833496e-01 -5.464031919836997986e-02 2.823832258582115173e-02 6.106831505894660950e-02 -2.600574679672718048e-02 -7.459464017301797867e-03
-8.985398709774017334e-02 3.016584925353527069e-02 -5.624563433229923248e-03 -7.267367094755172729e-02 2.998672425746917725e-02 -9.959691017866134644e-02 3.221550583839416504e-01 -2.484970986843109131e-01 -1.911773085594177246e-01 3.089214563369750977e-01 -5.675518140196800232e-02 1.103612780570983887e-01 -2.478476427495479584e-02 9.574346244335174561e-02 8.286699885502457619e-04 -2.055178880691528320e-01 -1.637514531612396240e-01 -2.018163911998271942e-02 2.786958813667297363e-01 -3.332270309329032898e-02 -1.467281766235828400e-02 5.664946511387825012e-03
-1.285668611526489258e-01 -3.252267092466354370e-02 -1.635948270559310913e-01 3.433151915669441223e-02 6.069042719900608063e-03 3.200679123401641846e-01 7.414945214986801147e-02 -9.358520619571208954e-03 -5.120218545198440552e-02 -1.190324947237968445e-01 1.143587194383144379e-02 -1.984330564737319946e-01 1.155087724328041077e-01 -2.264764904975891113e-01 1.186067223548889160e+00 -3.184095621109008789e-01 5.926312878727912903e-02 5.180980563163757324e-01 2.542791366577148438e-01 4.716735333204269409e-03 -4.971821606159210205e-02 2.008640021085739136e-02
-5.424410849809646606e-02 1.860999269410967827e-03 -4.565111175179481506e-02 -4.502134397625923157e-03 2.201527915894985199e-02 4.396255910396575928e-01 2.597947418689727783e-02 3.708510994911193848e-01 3.404702842235565186e-01 -2.145662009716033936e-01 -4.576646536588668823e-02 3.202246129512786865e-02 -2.629276551306247711e-02 -2.712447009980678558e-02 -8.779231458902359009e-03 -1.742761954665184021e-02 -1.131584942340850830e-01 -6.645593792200088501e-02 3.365534543991088867e-01 -5.186288035474717617e-04 -7.903548539616167545e-04 -1.268121320754289627e-02
1.993944197893142700e-01 -1.434915978461503983e-02 1.492110937833786011e-01 -6.511185783892869949e-03 -1.600405126810073853e-01 -3.241665065288543701e-01 -1.779267378151416779e-02 -2.955000661313533783e-02 1.780067831277847290e-01 2.578757405281066895e-01 -7.747368514537811279e-02 2.123451605439186096e-02 5.005012080073356628e-02 8.056487888097763062e-02 -1.086383089423179626e-01 -5.544901639223098755e-02 -2.551998496055603027e-01 -1.989741325378417969e-01 -4.071148633956909180e-01 1.624489203095436096e-02 8.672145195305347443e-03 -2.757769450545310974e-02
-9.247326105833053589e-02 2.234347164630889893e-02 -3.683222457766532898e-02 2.601266605779528618e-03 2.622768282890319824e-01 -1.429843753576278687e-01 4.532404839992523193e-01 1.093882843852043152e-01 -6.010916829109191895e-01 9.679903090000152588e-02 -1.342429779469966888e-03 -1.226040273904800415e-01 -4.521740972995758057e-02 7.752959430217742920e-02 -1.354452222585678101e-01 5.071223247796297073e-03 -7.795021533966064453e-01 -6.661624908447265625e-01 -1.835430562496185303e-01 -7.251988351345062256e-02 5.716174468398094177e-02 -1.752030104398727417e-02
-1.280373632907867432e-01 3.275331482291221619e-02 -3.912166133522987366e-02 -5.152103304862976074e-02 2.201843308284878731e-03 -7.363583147525787354e-02 3.513659834861755371e-01 3.103010952472686768e-01 8.613380789756774902e-02 8.659094572067260742e-03 1.860418729484081268e-02 4.905334860086441040e-02 -3.503561392426490784e-02 9.128375351428985596e-02 3.952995315194129944e-02 -1.103704199194908142e-01 2.599022984504699707e-01 3.391877114772796631e-01 1.852762103080749512e-01 1.176837831735610962e-02 8.694974705576896667e-03 -1.703134505078196526e-03
-2.677611261606216431e-02 3.691378235816955566e-02 -4.711486399173736572e-02 -2.506590448319911957e-02 1.122920066118240356e-01 -1.380977034568786621e-01 -1.669416278600692749e-01 -1.330144852399826050e-01 -7.018313556909561157e-02 -3.243151307106018066e-01 9.464341402053833008e-02 1.148960292339324951e-01 -3.109283000230789185e-02 -1.999409310519695282e-02 2.871793508529663086e-01 -1.458358317613601685e-01 -3.270430266857147217e-01 -3.491855785250663757e-02 4.405714869499206543e-01 -1.881749555468559265e-02 1.595065370202064514e-02 5.056025460362434387e-03
-6.940484046936035156e-01 6.946252584457397461e-01 8.655692338943481445e-01 -1.589154750108718872e-01 6.336092948913574219e-02 -5.806710124015808105e-01 1.064785644412040710e-01 -2.353478968143463135e-01 1.081662029027938843e-01 -9.205897897481918335e-02 8.080483227968215942e-02 -1.431899070739746094e-01 -3.887596726417541504e-02 1.038720160722732544e-01 4.598763585090637207e-01 -5.808254703879356384e-02 2.522020600736141205e-02 5.578479915857315063e-02 1.331325471401214600e-01 -4.775338619947433472e-02 -2.111849002540111542e-02 8.315183222293853760e-03
6.158420071005821228e-02 -3.926229104399681091e-02 -9.627055376768112183e-02 1.225949302315711975e-01 1.701090484857559204e-02 -1.972178667783737183e-01 -5.890352129936218262e-01 2.771529555320739746e-01 5.445557236671447754e-01 -1.209229901432991028e-01 1.150509715080261230e-01 9.833674877882003784e-02 -1.637107320129871368e-02 1.030054464936256409e-01 1.739853620529174805e-01 -2.793629653751850128e-02 -3.399580717086791992e-02 -1.642330437898635864e-01 1.599862799048423767e-02 -2.320912666618824005e-02 -1.580111682415008545e-02 4.548827931284904480e-02
-8.382187783718109131e-02 -2.811450883746147156e-02 2.611525356769561768e-01 -1.352596729993820190e-01 2.962431609630584717e-01 3.859455585479736328e-01 1.372526735067367554e-01 4.062108099460601807e-01 -7.707245647907257080e-03 -6.376639604568481445e-01 4.462791681289672852e-01 2.053696662187576294e-01 -1.051327958703041077e-01 -9.719277918338775635e-02 -3.973824679851531982e-01 -1.643946580588817596e-02 1.514499187469482422e+00 2.458683967590332031e+00 -1.340186595916748047e+00 -2.460608445107936859e-02 8.846116065979003906e-02 -4.522774368524551392e-02
-1.415576934814453125e-01 2.402422484010457993e-03 -1.745574921369552612e-01 2.245137095451354980e-02 4.821529239416122437e-02 1.863856464624404907e-01 -7.851430564187467098e-04 -2.126094698905944824e-01 -3.246770799160003662e-02 -1.199584007263183594e-01 -3.665212541818618774e-02 -5.011822655797004700e-02 -4.078734293580055237e-02 2.154114842414855957e-01 1.115709468722343445e-01 -3.261353448033332825e-02 2.922517955303192139e-01 2.295927107334136963e-01 3.612370416522026062e-02 -4.562579840421676636e-02 3.971740975975990295e-02 3.572244942188262939e-02
5.362154450267553329e-03 7.829285226762294769e-03 2.352291904389858246e-02 -1.354882586747407913e-02 -4.442832991480827332e-02 -1.444300860166549683e-01 1.935532432980835438e-03 1.566466242074966431e-01 1.256935000419616699e-01 -1.305670142173767090e-01 -1.028514653444290161e-02 5.129687115550041199e-02 8.995844982564449310e-03 3.350595384836196899e-02 6.631383299827575684e-02 4.232643172144889832e-02 1.193934977054595947e-01 6.714229285717010498e-02 -1.551629602909088135e-01 6.228584330528974533e-03 -7.746326737105846405e-04 6.278055254369974136e-03
1.058587953448295593e-01 8.005470037460327148e-03 1.945146769285202026e-01 -6.333956867456436157e-02 1.438630819320678711e-01 -1.203071232885122299e-02 -2.641496658325195312e-01 -1.061888635158538818e-01 -1.275276243686676025e-01 6.058538332581520081e-02 -2.721488475799560547e-01 -2.419661134481430054e-01 1.038701385259628296e-01 -4.602802544832229614e-02 -4.567065238952636719e-01 -5.193904042243957520e-01 -6.184074878692626953e-01 -3.944990336894989014e-01 3.279485702514648438e-01 -6.092717498540878296e-02 -3.393687307834625244e-02 1.619073562324047089e-02
4.800701886415481567e-02 -1.357050985097885132e-02 -4.720320925116539001e-02 3.136404231190681458e-02 4.611901193857192993e-02 -9.325042366981506348e-02 5.221973173320293427e-03 -1.471716910600662231e-01 1.222799569368362427e-01 1.436187028884887695e-01 -1.269971951842308044e-02 3.456689789891242981e-02 -8.170095086097717285e-02 -6.677597016096115112e-02 -3.002398610115051270e-01 1.263979077339172363e-01 -2.962155826389789581e-02 1.745513826608657837e-01 1.643441021442413330e-01 -4.112154711037874222e-03 -8.205154910683631897e-03 1.441714167594909668e-02
1.880717091262340546e-02 8.741443976759910583e-03 -2.262747660279273987e-02 -7.170375436544418335e-02 -3.735882043838500977e-01 -2.502267062664031982e-01 -1.868811547756195068e-01 -1.022076755762100220e-01 -1.157444119453430176e-01 3.389846384525299072e-01 -1.447668075561523438e-01 -9.827540069818496704e-02 6.457135826349258423e-02 -6.818407773971557617e-02 -1.304764598608016968e-01 2.217591553926467896e-01 -1.216070055961608887e-01 -4.184834659099578857e-01 -1.201272825710475445e-03 -1.363189518451690674e-01 7.123728841543197632e-02 4.542354866862297058e-02
4.555615782737731934e-01 -1.021187379956245422e-02 4.173446893692016602e-01 -4.978854674845933914e-03 -2.107288315892219543e-02 2.335471510887145996e-01 5.560730025172233582e-02 6.504272222518920898e-01 3.161324262619018555e-01 1.468821167945861816e-01 -1.419624239206314087e-01 1.846887618303298950e-01 5.017557367682456970e-02 -2.867124974727630615e-01 -7.558072209358215332e-01 -2.539811134338378906e-01 1.651788204908370972e-01 1.979100406169891357e-01 -4.847237169742584229e-01 4.285968840122222900e-02 2.608327753841876984e-02 -1.971315965056419373e-02
1.989804953336715698e-01 -5.357869667932391167e-04 2.762342393398284912e-01 1.597292721271514893e-01 -3.591951429843902588e-01 -9.551467746496200562e-02 -6.479094624519348145e-01 3.558791279792785645e-01 -5.289867147803306580e-02 -3.878916054964065552e-02 2.634139545261859894e-02 -3.108816780149936676e-02 4.242435842752456665e-02 -2.715951763093471527e-02 9.088282287120819092e-02 6.049465388059616089e-02 1.898452453315258026e-02 1.199891939759254456e-01 -2.985045127570629120e-02 -1.021109595894813538e-01 9.148986078798770905e-03 5.829386413097381592e-02
-6.801714748144149780e-02 -2.125180326402187347e-04 1.367273181676864624e-01 6.397455930709838867e-02 -1.025061830878257751e-01 2.183045297861099243e-01 -7.146494835615158081e-02 2.803366072475910187e-02 1.967014819383621216e-01 -3.416281640529632568e-01 -7.484082877635955811e-02 -3.976199030876159668e-02 -1.919620297849178314e-02 -6.352798640727996826e-02 -4.251179695129394531e-01 3.212350606918334961e-01 2.791737616062164307e-01 5.034450888633728027e-01 2.530754208564758301e-01 -3.056157380342483521e-02 9.507608599960803986e-03 4.231045313645154238e-04
6.385946273803710938e-02 1.356575638055801392e-02 -2.126175165176391602e-02 1.472679618746042252e-02 -9.660160169005393982e-03 1.595036387443542480e-01 1.090993522666394711e-03 1.613218784332275391e-01 -4.229163229465484619e-01 5.961004644632339478e-02 -2.399563230574131012e-02 3.904184093698859215e-03 5.764613673090934753e-02 -4.321307316422462463e-02 2.255852334201335907e-02 1.792409121990203857e-01 1.946570128202438354e-01 -1.862058192491531372e-01 1.100584566593170166e-01 5.831241142004728317e-03 2.889330685138702393e-02 5.515784956514835358e-03
-1.833651959896087646e-02 -1.202823687344789505e-02 1.059230789542198181e-01 1.147382147610187531e-02 2.676520263776183128e-03 1.214261427521705627e-01 3.318186402320861816e-01 -8.254048228263854980e-02 -8.518274128437042236e-02 -1.364401876926422119e-01 -2.087882719933986664e-02 -8.542315103113651276e-03 1.691332831978797913e-02 -1.653977781534194946e-01 8.345992863178253174e-02 -2.118179649114608765e-01 8.741567283868789673e-02 -3.710460662841796875e-02 1.519854515790939331e-01 2.631662227213382721e-02 -2.456073462963104248e-02 4.763434641063213348e-03
8.182173222303390503e-02 2.132823504507541656e-02 8.996067941188812256e-02 -5.238130316138267517e-02 -1.072531566023826599e-01 -3.381434381008148193e-01 9.121181368827819824e-01 3.185794949531555176e-01 1.723544150590896606e-01 1.415381580591201782e-02 1.457412689924240112e-01 -5.402280017733573914e-02 2.069122344255447388e-02 -1.440999656915664673e-01 -3.385161757469177246e-01 5.992470774799585342e-03 4.468930363655090332e-01 4.463536143302917480e-01 -9.335413575172424316e-02 1.527879945933818817e-02 -2.724112011492252350e-02 1.257545780390501022e-02
-1.344473063945770264e-01 -2.016286179423332214e-02 -3.021876513957977295e-02 -2.574131637811660767e-02 -1.735222786664962769e-01 1.859452277421951294e-01 2.545016109943389893e-01 9.195148944854736328e-03 -1.260400563478469849e-01 -3.341561555862426758e-01 7.252757996320724487e-02 2.796274721622467041e-01 9.287533164024353027e-02 -2.896919250488281250e-01 2.916066646575927734e-01 -4.381626546382904053e-01 -5.081318616867065430e-01 8.229044079780578613e-02 2.208988070487976074e-01 4.424334503710269928e-03 -2.832723548635840416e-03 8.982728235423564911e-03
2.444122359156608582e-02 7.624818384647369385e-02 7.986991107463836670e-02 -5.686311423778533936e-02 -9.765289723873138428e-02 -2.326057255268096924e-01 -1.803253889083862305e-01 1.653417944908142090e-01 -7.621432840824127197e-02 9.940249845385551453e-03 -5.163803696632385254e-02 -2.379593998193740845e-02 3.171933069825172424e-02 1.194758713245391846e-01 -1.477034240961074829e-01 4.677922725677490234e-01 -5.740841031074523926e-01 -6.386305689811706543e-01 -9.323608875274658203e-02 -6.446094065904617310e-02 -9.338192641735076904e-03 2.759849093854427338e-02
8.817400038242340088e-02 5.073925014585256577e-03 3.827309980988502502e-02 -4.558937996625900269e-02 -2.346903271973133087e-02 2.279928922653198242e-01 1.970170624554157257e-02 5.021836981177330017e-02 -7.532858848571777344e-02 1.553901284933090210e-01 -9.520225226879119873e-03 -1.514012459665536880e-02 -2.227341942489147186e-02 2.772355452179908752e-02 -1.395341306924819946e-01 -1.974967420101165771e-01 -1.959034204483032227e-01 -1.920675784349441528e-01 1.595151871442794800e-01 1.911594346165657043e-02 -7.562816608697175980e-03 -9.135729633271694183e-04
-1.618667505681514740e-02 1.236992236226797104e-02 3.642575070261955261e-02 2.750889398157596588e-02 -3.146297112107276917e-02 -2.397234141826629639e-01 -2.526215650141239166e-02 -4.165353253483772278e-02 2.590731251984834671e-03 2.417352795600891113e-01 -1.621849648654460907e-02 1.712206900119781494e-01 9.438475221395492554e-02 3.311990574002265930e-02 -2.101968824863433838e-01 -3.359248638153076172e-01 -4.323079586029052734e-01 -1.842758953571319580e-01 -2.358521521091461182e-01 1.401265989989042282e-02 3.289331495761871338e-02 -1.133286673575639725e-02
-1.371991932392120361e-01 5.854343995451927185e-02 2.201502770185470581e-02 -1.592273823916912079e-02 5.776897072792053223e-02 -2.577194869518280029e-01 -4.482079744338989258e-01 -8.695199154317378998e-03 -6.130188703536987305e-02 -3.536795973777770996e-01 1.203747764229774475e-01 1.218444183468818665e-01 -6.238519400358200073e-02 -6.219989061355590820e-02 -2.968854606151580811e-01 -2.245709598064422607e-01 -2.232630252838134766e-01 7.619554549455642700e-02 -2.416349202394485474e-01 -2.433155104517936707e-02 -1.011980976909399033e-02 -1.015008706599473953e-02
-6.061811000108718872e-02 6.105295382440090179e-03 -6.536462157964706421e-02 -1.045400276780128479e-02 4.288098588585853577e-02 -4.749574139714241028e-02 -2.015078812837600708e-01 -7.131891846656799316e-01 3.796398341655731201e-01 1.733599901199340820e-01 -9.274473786354064941e-02 -8.578200638294219971e-02 2.413243055343627930e-02 -1.162872016429901123e-01 1.651129126548767090e-01 -4.081951081752777100e-02 -9.167922288179397583e-02 6.266183406114578247e-02 -1.794503033161163330e-01 -1.708558201789855957e-02 -7.607004605233669281e-03 -8.253926411271095276e-03
-6.567278760485351086e-04 -3.285883739590644836e-02 -3.730646893382072449e-02 -6.888162344694137573e-03 7.511529140174388885e-03 3.141043484210968018e-01 1.139236465096473694e-01 2.757585048675537109e-02 -5.450540781021118164e-02 -6.242002546787261963e-02 -4.473117645829916000e-03 4.448411986231803894e-02 3.920587524771690369e-02 -5.313500016927719116e-02 -2.833839692175388336e-02 3.101640343666076660e-01 3.122968077659606934e-01 1.968210190534591675e-01 -2.311060875654220581e-01 -3.888404171448200941e-05 -1.163570582866668701e-02 2.770568616688251495e-02
-1.610953733325004578e-02 -1.336999703198671341e-02 -6.160411611199378967e-02 -1.752835884690284729e-02 -1.430410332977771759e-02 7.681649923324584961e-02 -1.898551881313323975e-01 -2.694137394428253174e-01 -2.356857620179653168e-02 1.215747669339179993e-01 -1.635445654392242432e-01 -6.161914765834808350e-02 3.095358051359653473e-02 6.292869895696640015e-02 -1.674101501703262329e-02 -8.764489740133285522e-02 3.219430148601531982e-02 1.013795137405395508e-01 -2.611447125673294067e-02 -2.746839821338653564e-02 -2.551727928221225739e-02 -1.491532288491725922e-02
-6.831745803356170654e-02 -7.687673717737197876e-02 8.181018382310867310e-02 9.265222586691379547e-03 1.406490337103605270e-02 -3.633652031421661377e-01 1.005339100956916809e-01 -2.456239014863967896e-01 -4.680016338825225830e-01 6.603303551673889160e-01 7.311039417982101440e-02 7.141575962305068970e-02 1.754217036068439484e-02 5.873049423098564148e-02 4.266851246356964111e-01 -2.628098130226135254e-01 4.755876660346984863e-01 -4.663358442485332489e-03 5.329024195671081543e-01 -5.042099580168724060e-02 7.025330513715744019e-02 -1.942435838282108307e-02
1.294351518154144287e-01 -4.190682619810104370e-02 1.031061112880706787e-01 5.692547187209129333e-02 3.663923218846321106e-02 -2.234731465578079224e-01 -2.058783173561096191e-01 3.038299679756164551e-01 -6.770455092191696167e-02 -1.395115256309509277e-01 -6.489579379558563232e-02 -4.758941009640693665e-02 -1.127782389521598816e-01 1.705550216138362885e-02 2.055595070123672485e-01 -1.121165081858634949e-01 -4.618998616933822632e-02 -3.268792331218719482e-01 1.020086407661437988e-01 1.282251719385385513e-02 1.048855111002922058e-02 5.120499432086944580e-02
-4.047395661473274231e-02 2.043845504522323608e-02 -9.851530194282531738e-03 3.210165351629257202e-02 -8.972778916358947754e-02 -5.134538188576698303e-02 1.892835348844528198e-01 4.285949096083641052e-02 1.797903031110763550e-01 1.830111294984817505e-01 -5.578104034066200256e-02 -9.142534434795379639e-02 5.246461555361747742e-02 -2.077385969460010529e-02 -1.227321177721023560e-01 -6.860245764255523682e-02 -4.428483545780181885e-01 -3.411976993083953857e-01 -1.200290694832801819e-01 2.748885005712509155e-02 -1.271554734557867050e-02 1.883092150092124939e-02
5.338666960597038269e-03 8.266059681773185730e-03 -1.816019974648952484e-02 3.776983171701431274e-02 -5.021703615784645081e-02 1.697127223014831543e-01 3.066872991621494293e-02 -2.952645123004913330e-01 -8.054530620574951172e-02 3.068138360977172852e-01 -2.289233170449733734e-02 8.133822120726108551e-03 3.448561951518058777e-02 -3.259484469890594482e-02 7.646371424198150635e-02 -1.440054178237915039e-02 3.308185935020446777e-02 7.144971936941146851e-02 5.990546196699142456e-02 -1.825685799121856689e-02 -5.543675273656845093e-03 -6.049286574125289917e-03
6.015562452375888824e-03 -1.605534739792346954e-02 2.869958244264125824e-02 -5.037102475762367249e-02 -4.130882769823074341e-02 -2.349194288253784180e-01 3.237368166446685791e-01 -3.517919778823852539e-01 2.775438129901885986e-01 7.889673858880996704e-02 -5.423650145530700684e-02 -1.651090979576110840e-01 1.503275823779404163e-03 4.379499331116676331e-02 1.890038549900054932e-01 -8.691392093896865845e-02 -2.775605320930480957e-01 -4.048592150211334229e-01 9.864176064729690552e-02 3.568955510854721069e-02 -2.923986315727233887e-02 -6.369201466441154480e-03
-2.253642864525318146e-02 4.563667997717857361e-02 -4.384183138608932495e-02 2.617665007710456848e-02 2.481931820511817932e-02 4.980582371354103088e-02 3.902032077312469482e-01 5.222073793411254883e-01 7.487847656011581421e-02 8.821813017129898071e-02 3.358642384409904480e-02 8.598924614489078522e-03 -5.461922660470008850e-02 2.574428021907806396e-01 -8.939721584320068359e-01 2.186731249094009399e-01 -5.822243094444274902e-01 -2.046636044979095459e-01 -2.931521534919738770e-01 1.911002025008201599e-02 -4.110805317759513855e-02 -1.546802930533885956e-02
-1.650340855121612549e-01 -6.174186617136001587e-02 -2.868831343948841095e-02 5.389903113245964050e-02 -7.523904740810394287e-02 -7.934247702360153198e-02 -3.219627737998962402e-01 6.167096085846424103e-03 2.995708882808685303e-01 8.992856144905090332e-01 -6.957970559597015381e-02 3.715144097805023193e-01 1.279221922159194946e-01 -1.050577163696289062e-01 1.576362848281860352e-01 -2.419553995132446289e-01 -8.274285495281219482e-02 8.547343313694000244e-02 1.712324321269989014e-01 -2.036091499030590057e-02 1.437405589967966080e-02 -1.049759611487388611e-02
2.052177190780639648e-01 6.109210103750228882e-02 2.077116966247558594e-01 5.639593675732612610e-02 -1.559945493936538696e-01 -3.306527137756347656e-01 1.884555965662002563e-01 3.919361904263496399e-02 2.545215561985969543e-02 8.738022297620773315e-02 -8.852434903383255005e-02 1.523304581642150879e-01 2.303453385829925537e-01 2.601500749588012695e-01 -3.358438611030578613e-01 -1.110639274120330811e-01 -3.660399317741394043e-01 -8.442586660385131836e-02 -2.332398146390914917e-01 1.665187417529523373e-03 -2.868278697133064270e-02 1.244697812944650650e-02
4.681239277124404907e-02 3.079051151871681213e-02 -1.312214764766395092e-03 3.753896453417837620e-04 1.519980579614639282e-01 -2.208868116140365601e-01 -4.770638346672058105e-01 -5.928599461913108826e-02 9.688429534435272217e-02 6.520131230354309082e-01 -2.835285104811191559e-02 -1.142434924840927124e-01 -9.107199311256408691e-02 1.766201853752136230e-01 2.134262323379516602e-01 -4.461264014244079590e-01 1.890630647540092468e-02 -8.934358954429626465e-01 -3.183308839797973633e-01 -2.922268025577068329e-02 1.463159266859292984e-02 2.702377736568450928e-02
1.381002925336360931e-02 2.182451076805591583e-02 8.736757934093475342e-02 -3.482969105243682861e-02 -6.868571788072586060e-02 -2.097729295492172241e-01 3.031638860702514648e-01 2.676117792725563049e-02 -8.843133226037025452e-03 -1.060716807842254639e-01 -2.007521688938140869e-02 2.205459773540496826e-02 2.594849653542041779e-02 -1.673504710197448730e-02 4.369902610778808594e-02 2.139246091246604919e-02 -1.417218893766403198e-01 -1.054253280162811279e-01 2.555667757987976074e-01 9.627488441765308380e-03 5.816701427102088928e-02 -1.644816063344478607e-02
-2.428599447011947632e-01 -2.308402210474014282e-02 -1.029082611203193665e-01 2.074814587831497192e-02 1.426282078027725220e-01 -4.200963973999023438e-01 -3.462132513523101807e-01 1.300731748342514038e-01 -3.183390572667121887e-02 -4.770655930042266846e-01 2.144324630498886108e-01 -3.706765547394752502e-02 -2.894749306142330170e-02 1.832298934459686279e-01 -3.798125982284545898e-01 -2.263594120740890503e-01 4.255258738994598389e-01 3.361322283744812012e-01 3.465152680873870850e-01 -1.944274827837944031e-02 -1.361438259482383728e-02 -1.215724740177392960e-02
-1.913065314292907715e-01 3.919016197323799133e-02 -1.895537972450256348e-01 4.945652559399604797e-02 -9.622360765933990479e-02 -2.716391682624816895e-01 -3.216388225555419922e-01 -5.935626626014709473e-01 -4.952547550201416016e-01 7.571427822113037109e-01 2.646918036043643951e-02 -3.770036995410919189e-02 -4.628885909914970398e-02 2.443520426750183105e-01 -2.954972684383392334e-01 -5.746316313743591309e-01 1.195817291736602783e-01 -1.126545965671539307e-01 -3.346158266067504883e-01 4.906398057937622070e-02 -4.851145297288894653e-02 -1.546673290431499481e-02
-2.801188081502914429e-02 -1.337511115707457066e-03 7.522685080766677856e-02 -3.136200457811355591e-02 1.429369673132896423e-02 4.693195968866348267e-02 -3.134177252650260925e-02 -1.393498480319976807e-01 9.030542522668838501e-02 -7.127343863248825073e-02 -2.313633263111114502e-02 3.261027485132217407e-02 -3.111740574240684509e-02 2.186071127653121948e-02 3.931499551981687546e-03 -1.239372324198484421e-02 7.818668335676193237e-02 2.805122174322605133e-02 3.290377929806709290e-02 2.963425824418663979e-03 -1.795346289873123169e-02 -6.808292586356401443e-03
6.048833578824996948e-02 1.132938824594020844e-02 -1.296998001635074615e-02 8.522006124258041382e-02 1.423535943031311035e-01 -2.319163084030151367e-01 -4.490891396999359131e-01 9.333019703626632690e-02 3.136647641658782959e-01 1.884032338857650757e-01 -1.003248915076255798e-01 -9.062262251973152161e-03 4.842492192983627319e-02 1.056350842118263245e-01 -6.200003996491432190e-02 -2.304642088711261749e-02 -3.135506212711334229e-01 4.526650309562683105e-01 -3.820702731609344482e-01 1.796422153711318970e-02 4.524174332618713379e-02 -1.343667041510343552e-02
-2.943411096930503845e-02 -9.600603953003883362e-03 -4.443237185478210449e-02 7.296797633171081543e-02 2.525927871465682983e-02 -2.056155586615204811e-03 -7.899568229913711548e-02 6.797436624765396118e-02 2.166201323270797729e-01 -2.925664186477661133e-01 -7.637445628643035889e-02 9.986303746700286865e-02 7.156526669859886169e-03 1.806507073342800140e-02 -9.272204339504241943e-02 -5.708286073058843613e-03 -1.017446219921112061e-01 2.110587991774082184e-02 1.614061370491981506e-02 -2.671609818935394287e-02 2.981585264205932617e-02 3.529393870849162340e-04
-6.673503667116165161e-03 2.054658689303323627e-04 -2.092561870813369751e-02 9.481780230998992920e-03 4.800425097346305847e-02 5.022294819355010986e-03 -7.216700911521911621e-02 5.885459780693054199e-01 2.950981259346008301e-01 1.620462983846664429e-01 2.241993993520736694e-01 1.072168424725532532e-01 -4.047514125704765320e-02 9.023010730743408203e-02 -4.802090302109718323e-02 -1.443729102611541748e-01 -4.441545009613037109e-01 -1.743831783533096313e-01 -1.422267109155654907e-01 -7.030162494629621506e-03 -1.034542731940746307e-02 1.124569587409496307e-02
6.063707917928695679e-02 -4.852258786559104919e-02 4.146309196949005127e-02 1.108304560184478760e-01 -6.793622672557830811e-02 -3.394430577754974365e-01 -2.310731858015060425e-01 -2.037467807531356812e-01 2.870568633079528809e-02 3.732582628726959229e-01 -2.173033915460109711e-02 1.818302460014820099e-02 -1.557337027043104172e-02 -1.177684664726257324e-01 1.264964416623115540e-02 -3.623139858245849609e-01 4.991030991077423096e-01 3.525741994380950928e-01 3.589897155761718750e-01 -1.827883161604404449e-02 7.744677830487489700e-03 4.548374190926551819e-02
1.287363022565841675e-01 4.371132701635360718e-02 1.365017890930175781e-01 -5.211265757679939270e-02 -6.809995323419570923e-02 -4.984233528375625610e-02 -2.576714456081390381e-01 4.298151433467864990e-01 1.323084831237792969e-01 3.545532822608947754e-01 2.021388858556747437e-01 -8.986615389585494995e-02 -6.971779465675354004e-02 -1.357264369726181030e-01 2.780416309833526611e-01 -4.276835918426513672e-01 -1.082720160484313965e+00 -4.829049706459045410e-01 -3.934956192970275879e-01 1.609181985259056091e-02 7.906978949904441833e-03 -1.878629991551861167e-04
-6.587792932987213135e-02 2.521357499063014984e-02 -6.753572076559066772e-02 3.879333287477493286e-02 -2.773833572864532471e-01 6.270939707756042480e-01 7.408417761325836182e-02 5.158356949687004089e-02 7.692370563745498657e-02 -6.453330814838409424e-02 5.297996569424867630e-03 -1.243974361568689346e-02 9.517688304185867310e-02 1.849849671125411987e-01 3.087841570377349854e-01 -7.701852917671203613e-02 -1.056954339146614075e-01 -2.450691610574722290e-01 -5.455954000353813171e-02 2.928584441542625427e-02 2.770694531500339508e-02 -6.864340044558048248e-03
3.490059403702616692e-03 2.092561498284339905e-02 -2.267839573323726654e-02 -6.539997179061174393e-03 -3.449534252285957336e-02 -2.415387779474258423e-01 -1.969506591558456421e-01 -2.081093341112136841e-01 -5.270566418766975403e-02 -3.407496213912963867e-01 -2.533969655632972717e-02 -1.530360151082277298e-02 -5.067124031484127045e-03 6.198001280426979065e-02 -1.381358206272125244e-01 -1.245563328266143799e-01 -1.804991811513900757e-02 3.024446032941341400e-02 1.026062592864036560e-01 9.901845827698707581e-03 -2.924402710050344467e-03 -5.237828940153121948e-03
8.841828443109989166e-03 5.379762500524520874e-02 4.103390127420425415e-02 -5.511119589209556580e-02 1.197484433650970459e-01 -1.861553639173507690e-01 1.701062917709350586e-01 8.336281776428222656e-02 1.508543789386749268e-01 6.845679879188537598e-01 -2.228921977803111076e-03 1.208252534270286560e-01 1.286609172821044922e-01 -1.627599000930786133e-01 5.089631080627441406e-01 -4.677559137344360352e-01 -4.579800367355346680e-01 -3.159570991992950439e-01 3.949879705905914307e-01 -4.631726816296577454e-02 1.443452667444944382e-02 3.639368340373039246e-02
-1.677816212177276611e-01 1.236688066273927689e-02 -2.092123925685882568e-01 -6.420560646802186966e-03 9.546722471714019775e-02 -9.291831403970718384e-02 1.603323370218276978e-01 -2.182553410530090332e-01 -4.099715352058410645e-01 -6.541655957698822021e-02 3.187005594372749329e-02 1.076888293027877808e-01 -4.345120117068290710e-02 -1.871033012866973877e-01 8.950714021921157837e-02 -2.825310528278350830e-01 -9.194580912590026855e-01 -3.830000758171081543e-01 5.886089056730270386e-02 -5.354814231395721436e-02 3.303502127528190613e-02 8.631307864561676979e-04
-2.607519924640655518e-02 1.572770997881889343e-02 1.103916317224502563e-01 -6.607972830533981323e-02 3.789856135845184326e-01 -1.319464147090911865e-01 -1.105437204241752625e-01 -2.109332382678985596e-01 1.272018402814865112e-01 -2.147996425628662109e-01 2.833745442330837250e-02 8.844553679227828979e-02 -2.631595544517040253e-02 -1.366795003414154053e-01 7.435420528054237366e-03 -3.128883242607116699e-02 -3.438991680741310120e-02 1.366164535284042358e-01 1.583074778318405151e-01 -6.036952510476112366e-02 1.476024929434061050e-02 -5.648196861147880554e-02
-2.812339179217815399e-02 -1.686815172433853149e-02 2.240816690027713776e-02 -2.640315517783164978e-02 3.043336421251296997e-02 3.721708059310913086e-01 3.540625795722007751e-02 -2.035157233476638794e-01 -2.536132931709289551e-01 -5.373224616050720215e-02 1.671264506876468658e-02 2.969415858387947083e-02 -3.024402819573879242e-02 -8.288982510566711426e-02 -1.735071837902069092e-01 -8.283536136150360107e-02 -7.380547374486923218e-02 4.634556174278259277e-02 -1.465745866298675537e-01 1.313498523086309433e-02 2.064875559881329536e-03 -7.633707020431756973e-03
-5.889694094657897949e-01 5.579283926635980606e-03 -6.517796516418457031e-01 6.926730275154113770e-02 5.563612654805183411e-02 -3.995934128761291504e-01 -1.181778833270072937e-01 2.495879828929901123e-01 -3.865293860435485840e-01 1.790935099124908447e-01 5.058711394667625427e-02 5.409703776240348816e-02 1.513715535402297974e-01 -1.791916489601135254e-01 5.375180393457412720e-02 1.199754029512405396e-01 1.688919425010681152e+00 1.335026741027832031e+00 -3.010855615139007568e-01 6.349679827690124512e-02 -2.632423490285873413e-02 5.109037086367607117e-02
1.570854894816875458e-02 -2.322982437908649445e-02 -6.913763284683227539e-02 5.780050158500671387e-02 6.386490911245346069e-02 -3.514475002884864807e-02 -1.072445362806320190e-01 -1.362334787845611572e-01 -2.940398752689361572e-01 -2.791473865509033203e-01 -1.313676536083221436e-01 -1.318513415753841400e-02 6.182802096009254456e-02 1.170804630964994431e-02 -6.549254655838012695e-01 4.751145839691162109e-01 -1.195253878831863403e-01 -7.934506535530090332e-01 3.063130564987659454e-02 9.295115247368812561e-03 -1.724566705524921417e-02 1.941078901290893555e-02
3.350849077105522156e-02 1.883995602838695049e-03 1.111019849777221680e-01 -5.853193625807762146e-02 1.117719784379005432e-01 -1.110916435718536377e-01 5.524452030658721924e-02 -1.401178091764450073e-01 -2.095960266888141632e-02 -2.290141284465789795e-01 1.100419610738754272e-01 -9.640179574489593506e-02 3.310008347034454346e-02 1.257184296846389771e-01 3.663588166236877441e-01 3.678089007735252380e-02 -3.337405323982238770e-01 1.522873640060424805e-01 4.072372615337371826e-01 1.218782365322113037e-02 6.955235265195369720e-03 -4.637028556317090988e-03
-1.490244120359420776e-01 4.560688138008117676e-02 -4.021535068750381470e-02 -2.906539477407932281e-02 6.078561022877693176e-02 -1.991469040513038635e-02 -5.084450840950012207e-01 4.700458347797393799e-01 -1.431120187044143677e-02 1.932179331779479980e-01 -3.368781879544258118e-02 2.851732075214385986e-02 -4.836330190300941467e-02 6.750538200139999390e-02 1.443057209253311157e-01 7.996235042810440063e-02 2.351722270250320435e-01 1.087792664766311646e-01 -1.884127557277679443e-01 -4.068758338689804077e-02 2.841060340870171785e-04 -4.953407496213912964e-02
-2.520856857299804688e-01 2.462345873937010765e-03 -2.065752744674682617e-01 -7.056907285004854202e-03 2.046057879924774170e-01 -2.055411338806152344e-01 -3.645003736019134521e-01 -3.409062325954437256e-01 -2.719226181507110596e-01 -2.742166519165039062e-01 3.835290670394897461e-02 4.825843498110771179e-02 -5.788031965494155884e-02 1.742955297231674194e-01 1.542264074087142944e-01 -3.834270685911178589e-02 -4.732894152402877808e-02 -3.058185279369354248e-01 -2.395531088113784790e-01 4.368039313703775406e-03 -1.465716771781444550e-02 -6.258878391236066818e-03
-3.645527958869934082e-01 9.267334640026092529e-02 -2.186557650566101074e-01 5.836601182818412781e-02 -5.753761529922485352e-02 -4.511413723230361938e-02 -2.086274623870849609e-01 -1.204647064208984375e+00 1.041058078408241272e-01 1.397407352924346924e-01 2.105969190597534180e-02 -1.395868416875600815e-02 -9.032294154167175293e-02 1.889669150114059448e-02 -3.125631511211395264e-01 5.883624032139778137e-02 -7.191023230552673340e-02 -2.201415002346038818e-01 -2.319745421409606934e-01 -3.808489069342613220e-02 2.417330630123615265e-02 -2.807921543717384338e-02
5.095355212688446045e-02 -2.890988811850547791e-02 -1.202402729541063309e-02 4.861248657107353210e-02 5.207166820764541626e-02 4.001246094703674316e-01 2.364784479141235352e-01 5.177859961986541748e-02 8.114960789680480957e-02 2.047619521617889404e-01 8.923432230949401855e-02 1.349920220673084259e-02 -5.185087770223617554e-02 -3.415160253643989563e-02 1.745251417160034180e-01 -2.445349842309951782e-01 -2.074495106935501099e-01 -1.138034164905548096e-01 -1.036975998431444168e-02 2.194084972143173218e-02 -1.684089563786983490e-02 1.704949326813220978e-02
3.911293670535087585e-02 -1.145564485341310501e-03 1.359845846891403198e-01 4.005221708212047815e-04 2.036581933498382568e-02 -2.017949819564819336e-01 9.346059709787368774e-02 -2.428492307662963867e-01 6.243947893381118774e-02 -4.858044534921646118e-02 8.304352313280105591e-02 1.925152540206909180e-02 -6.449531018733978271e-02 -2.043638378381729126e-01 2.069732919335365295e-02 -4.325688779354095459e-01 3.572913706302642822e-01 1.889379508793354034e-02 -3.209806978702545166e-02 1.172549370676279068e-02 2.532529830932617188e-02 7.071595173329114914e-03
1.116250157356262207e-01 -3.838832490146160126e-03 1.308164093643426895e-02 3.023470984771847725e-03 -4.340234398841857910e-02 5.097973346710205078e-01 2.402717024087905884e-01 4.975887537002563477e-01 1.978958249092102051e-01 1.654767245054244995e-01 -3.067099861800670624e-02 7.637499365955591202e-04 -4.984559863805770874e-02 -2.074798755347728729e-02 -1.189302653074264526e-01 2.476252317428588867e-01 2.299579232931137085e-01 -1.728349179029464722e-01 6.942731887102127075e-02 8.573602885007858276e-03 4.550728772301226854e-04 -9.120512753725051880e-03
1.403278261423110962e-01 1.165803056210279465e-02 9.278798103332519531e-02 -6.678949296474456787e-02 2.787769772112369537e-02 9.305460005998611450e-02 -1.153351068496704102e-01 1.263845264911651611e-01 3.956550732254981995e-02 -3.489586710929870605e-01 -6.066814064979553223e-03 5.127231404185295105e-02 6.676051020622253418e-02 2.910251729190349579e-02 -3.348101675510406494e-01 -1.306110471487045288e-01 4.566850885748863220e-02 6.023658066987991333e-02 -6.380766630172729492e-01 7.492895238101482391e-03 4.037684947252273560e-02 -5.314756650477647781e-03
3.816834092140197754e-02 8.753655105829238892e-02 7.937061786651611328e-02 -3.805134212598204613e-03 1.596159487962722778e-01 -1.686546206474304199e-01 9.636940807104110718e-02 -4.612662270665168762e-02 -1.213440895080566406e-01 -7.443246990442276001e-02 6.705681327730417252e-03 -8.802117407321929932e-02 1.701895147562026978e-02 -5.907492712140083313e-02 1.660126447677612305e-01 8.839558064937591553e-02 1.715487837791442871e-01 1.008140072226524353e-01 -1.735164225101470947e-01 -3.732903674244880676e-02 8.951383084058761597e-02 -1.843416504561901093e-02
-6.897200644016265869e-02 7.967676967382431030e-03 -6.902143359184265137e-02 1.689675264060497284e-02 7.489727810025215149e-03 1.613412201404571533e-01 -2.024852037429809570e-01 -4.930709674954414368e-02 -2.386999428272247314e-01 1.177660822868347168e-01 6.453959643840789795e-02 -4.168355092406272888e-02 -1.933741942048072815e-02 1.590663567185401917e-02 1.581157743930816650e-01 1.411656439304351807e-01 9.215665608644485474e-02 -2.953568473458290100e-02 -1.264321524649858475e-02 1.675816252827644348e-02 1.696744933724403381e-02 -1.201111008413136005e-03
-2.226212806999683380e-02 -1.439262833446264267e-02 -2.244061790406703949e-02 -1.326189190149307251e-01 -2.540488913655281067e-02 1.733516007661819458e-01 9.941443055868148804e-02 -1.559426039457321167e-01 -2.782744821161031723e-03 2.685493528842926025e-01 -9.802972525358200073e-02 6.379427015781402588e-02 3.657453134655952454e-02 -1.848599463701248169e-01 2.672127783298492432e-01 -1.211262643337249756e-01 -1.894278451800346375e-02 3.712126612663269043e-01 8.208001852035522461e-01 -7.294358685612678528e-03 2.792570181190967560e-02 -1.967374421656131744e-02
-1.478369627147912979e-02 2.003742568194866180e-02 1.338803675025701523e-02 5.350682477001100779e-05 -2.628841437399387360e-02 -8.780024945735931396e-02 4.376067221164703369e-02 2.000505477190017700e-01 3.569184243679046631e-01 -1.686411537230014801e-02 -4.458358138799667358e-02 -4.303228110074996948e-02 -3.391725942492485046e-02 1.240283101797103882e-01 2.034613937139511108e-01 1.263460367918014526e-01 5.981010571122169495e-02 1.261200308799743652e-01 2.967806719243526459e-02 1.168448012322187424e-02 -6.732581648975610733e-03 -3.966523800045251846e-03
-2.815841436386108398e-01 2.064168825745582581e-02 -1.995708346366882324e-01 -4.152367357164621353e-03 1.205593533813953400e-02 2.232226282358169556e-01 -2.294800132513046265e-01 5.849235132336616516e-02 1.949529200792312622e-01 -3.520460724830627441e-01 -4.405698180198669434e-02 1.949085481464862823e-02 2.754166349768638611e-02 3.146314248442649841e-02 6.734025478363037109e-02 9.853216260671615601e-02 -5.936963111162185669e-02 2.337145656347274780e-01 -1.378277540206909180e-01 2.516618929803371429e-02 -6.149401515722274780e-02 7.014663890004158020e-03
-7.982198148965835571e-03 4.918065969832241535e-04 -2.035718038678169250e-02 3.397862985730171204e-02 6.178522016853094101e-03 5.957762524485588074e-02 1.043925955891609192e-01 2.755255997180938721e-02 -2.975330054759979248e-01 2.054158598184585571e-01 5.406371876597404480e-02 7.915564626455307007e-02 2.500584162771701813e-02 6.070715561509132385e-02 -7.049586623907089233e-02 -6.181433796882629395e-03 -3.248386383056640625e-01 -1.244949549436569214e-01 -1.482008844614028931e-01 2.212444378528743982e-04 1.221920084208250046e-02 -2.369645750150084496e-03
1.691346913576126099e-01 -7.341028656810522079e-03 5.196920782327651978e-02 5.815399438142776489e-02 -2.398080890998244286e-03 1.897716820240020752e-01 -4.232416749000549316e-01 -9.924571961164474487e-02 -7.964893430471420288e-02 -4.217219948768615723e-01 -3.042281232774257660e-02 -1.451660227030515671e-02 1.496993377804756165e-02 2.594934776425361633e-02 -4.561373591423034668e-02 1.277680993080139160e-01 -7.596051692962646484e-02 -4.751358926296234131e-02 -2.121509909629821777e-01 -2.236655447632074356e-03 -3.999741747975349426e-03 -3.211005358025431633e-03
-3.895200788974761963e-02 -1.400943472981452942e-02 5.951713025569915771e-02 9.524918277747929096e-04 -4.791847616434097290e-02 -8.731464296579360962e-02 -2.903272509574890137e-01 -2.793267369270324707e-01 -4.227243736386299133e-02 -2.694392800331115723e-01 1.006018295884132385e-01 9.720382280647754669e-03 -1.315545588731765747e-01 2.436755038797855377e-02 4.175707399845123291e-01 1.721190474927425385e-02 -6.149416044354438782e-02 1.130406185984611511e-01 1.545028090476989746e-01 3.236326575279235840e-02 -2.679762803018093109e-02 -1.025482080876827240e-03
5.034476518630981445e-01 -9.124226123094558716e-02 -1.274509280920028687e-01 1.522579312324523926e+00 -9.641475230455398560e-02 -6.312730312347412109e-01 -1.328603923320770264e-01 1.982011348009109497e-01 2.346466779708862305e-01 -1.635863184928894043e-01 2.407235205173492432e-01 5.237996578216552734e-01 1.256464514881372452e-02 -6.337201595306396484e-02 5.428882241249084473e-01 -2.885802090167999268e-02 -1.423476487398147583e-01 4.603982903063297272e-03 -9.663900732994079590e-02 3.990808874368667603e-02 1.143153198063373566e-02 -3.049627877771854401e-02
-1.443924307823181152e-01 1.353779993951320648e-02 -3.568674996495246887e-02 -8.750762790441513062e-02 4.048507194966077805e-03 4.237435292452573776e-03 3.113790452480316162e-01 1.805771701037883759e-02 -2.759369909763336182e-01 1.218412443995475769e-02 -3.294033929705619812e-02 -2.270586602389812469e-02 8.916797488927841187e-02 3.633974492549896240e-01 -1.219317391514778137e-01 -7.761136442422866821e-02 5.196564644575119019e-02 9.792584180831909180e-02 3.017787821590900421e-02 -3.485675528645515442e-02 -1.768036186695098877e-02 -9.701078757643699646e-03
6.665059924125671387e-02 -2.204133197665214539e-02 5.779154971241950989e-02 4.020012170076370239e-02 4.778971150517463684e-02 -2.389579862356185913e-01 2.999127805233001709e-01 5.377859473228454590e-01 2.318938374519348145e-01 -1.995109319686889648e-01 3.343079388141632080e-01 -1.787932962179183960e-01 -1.578172594308853149e-01 -4.901914857327938080e-03 -1.291251331567764282e-01 2.250906974077224731e-01 1.872997730970382690e-01 2.492868900299072266e-01 -6.839725375175476074e-02 -8.472938090562820435e-03 9.111148305237293243e-03 -6.729697342962026596e-03
1.272292584180831909e-01 2.573254751041531563e-04 1.542031764984130859e-01 -2.395624294877052307e-02 1.141050383448600769e-01 7.225996255874633789e-02 -3.557718992233276367e-01 -7.123554497957229614e-02 -5.585918948054313660e-02 1.500677019357681274e-01 5.986770987510681152e-02 7.404054701328277588e-02 1.356278639286756516e-02 -1.723071336746215820e-01 1.501089800149202347e-02 -8.260391652584075928e-03 2.062370069324970245e-02 -5.251231486909091473e-04 -7.265110313892364502e-02 1.471467688679695129e-02 -5.925471195951104164e-04 -3.616712614893913269e-02
-3.239918500185012817e-02 -2.390337904216721654e-04 -7.005261629819869995e-02 -4.537958279252052307e-02 6.349579989910125732e-02 -1.619469076395034790e-01 3.509222343564033508e-02 -2.503524720668792725e-01 -1.236276701092720032e-01 4.484582692384719849e-03 5.406362190842628479e-02 -6.829040497541427612e-02 -5.359286442399024963e-02 -8.147279731929302216e-03 1.408921927213668823e-01 -7.601165026426315308e-02 -1.766550727188587189e-02 4.829125478863716125e-03 1.159069221466779709e-02 -3.968753665685653687e-02 -6.441568024456501007e-03 1.143025979399681091e-02
3.495071455836296082e-02 -3.368517756462097168e-02 -2.079447358846664429e-02 8.974893018603324890e-03 -4.483637213706970215e-02 1.537683457136154175e-01 1.450099498033523560e-01 -3.217140436172485352e-01 -3.564131855964660645e-01 -3.480507135391235352e-01 -2.092763781547546387e-02 -5.839844048023223877e-02 -4.586457088589668274e-02 -4.267458990216255188e-02 6.607324630022048950e-02 -1.409752368927001953e-01 3.987452946603298187e-03 -1.961409151554107666e-01 -1.558154523372650146e-01 4.643182456493377686e-02 -5.833057221025228500e-03 -1.829933258704841137e-03
-5.718593671917915344e-02 1.248457189649343491e-02 2.064596302807331085e-02 -1.948215067386627197e-02 -4.143479838967323303e-02 9.561718441545963287e-03 -2.823609709739685059e-01 -7.835478521883487701e-03 -2.618815600872039795e-01 1.390076521784067154e-02 -9.047874063253402710e-02 -2.632207423448562622e-02 5.205537751317024231e-02 4.934894293546676636e-02 -9.962215274572372437e-02 6.032241508364677429e-02 1.427324265241622925e-01 1.454894393682479858e-01 -2.339359521865844727e-01 -2.416187431663274765e-03 2.379571087658405304e-02 -1.158118620514869690e-02
-1.018740236759185791e-02 -1.585824211360886693e-04 -1.764911711215972900e-01 4.966028407216072083e-02 -3.256580233573913574e-02 1.686311662197113037e-01 1.230928674340248108e-01 -2.657817304134368896e-01 -2.953520510345697403e-03 -1.349418163299560547e-01 -9.696609526872634888e-02 -1.361216455698013306e-01 2.438143454492092133e-02 3.774993419647216797e-01 -1.932606995105743408e-01 3.484791144728660583e-03 3.231370449066162109e-01 2.717445492744445801e-01 2.158461883664131165e-02 1.351911276578903198e-01 -7.511397358030080795e-03 -8.176193572580814362e-03
-7.051901519298553467e-02 -2.548497170209884644e-02 1.722946614027023315e-01 -2.067634277045726776e-02 -1.667813360691070557e-01 2.389934509992599487e-01 -1.920278966426849365e-01 -2.006360739469528198e-01 1.621276736259460449e+00 -3.084597587585449219e-01 -1.611898243427276611e-01 -1.852057576179504395e-01 -8.267743140459060669e-02 -2.778944373130798340e-01 -5.556138753890991211e-01 -7.896493077278137207e-01 -6.323868632316589355e-01 -1.394139379262924194e-01 -4.996491223573684692e-02 -3.375146910548210144e-02 5.253389850258827209e-02 9.621123783290386200e-03
-1.709937900304794312e-01 -1.022018585354089737e-02 -1.589004397392272949e-01 -1.163156405091285706e-01 1.375349164009094238e-01 -9.282596409320831299e-02 -2.919295243918895721e-02 -4.665168821811676025e-01 1.132085546851158142e-01 -2.101301699876785278e-01 2.046221308410167694e-02 1.111439466476440430e-01 2.411693334579467773e-02 -1.281536519527435303e-01 3.826196864247322083e-02 3.377055749297142029e-02 4.498331546783447266e-01 1.237547099590301514e-01 1.466513276100158691e-01 1.660821028053760529e-03 -2.971843630075454712e-02 -3.775322064757347107e-02
8.934658020734786987e-03 -2.623983286321163177e-02 -7.446472346782684326e-02 -4.013745114207267761e-02 -2.653976529836654663e-02 -4.354898352175951004e-03 2.371722310781478882e-01 6.091985106468200684e-02 -2.078584283590316772e-01 -4.688107594847679138e-02 1.065012589097023010e-01 2.799004875123500824e-02 7.611863315105438232e-02 6.165232509374618530e-02 -2.459996566176414490e-02 -1.152650266885757446e-01 4.257759153842926025e-01 4.886659607291221619e-02 -5.361832976341247559e-01 2.824234217405319214e-02 -4.090061038732528687e-02 -3.903888165950775146e-03
2.147748880088329315e-02 1.165884919464588165e-02 1.267138868570327759e-01 -6.344824563711881638e-03 4.307420179247856140e-02 -3.634421899914741516e-02 2.231733500957489014e-02 -3.920154869556427002e-01 2.159492075443267822e-01 -6.548921018838882446e-02 1.218995377421379089e-01 -3.527948260307312012e-02 -4.692194983363151550e-02 7.105825096368789673e-02 3.784340247511863708e-02 -2.435740828514099121e-02 -1.500328779220581055e-01 -5.394920334219932556e-02 2.564412727952003479e-02 -4.937260970473289490e-02 -2.710692025721073151e-02 -1.949225668795406818e-03
5.205455236136913300e-03 -7.339104544371366501e-03 -5.516393855214118958e-02 2.101207617670297623e-03 -1.689589768648147583e-02 -1.106244921684265137e-01 -2.544972002506256104e-01 -6.425735354423522949e-02 3.871413320302963257e-02 1.077759489417076111e-01 -9.671973437070846558e-02 -7.682593911886215210e-02 8.601396344602108002e-03 1.534413397312164307e-01 1.108381971716880798e-01 2.600855827331542969e-01 1.726964265108108521e-01 -4.045749083161354065e-02 2.183750122785568237e-01 -3.065216727554798126e-02 7.275534328073263168e-03 -2.963037416338920593e-02
1.752235144376754761e-01 -4.426863044500350952e-02 6.464635580778121948e-02 7.734855171293020248e-03 -8.857531845569610596e-02 -2.232270836830139160e-01 5.981475114822387695e-01 1.211394444108009338e-01 1.556144803762435913e-01 -3.222131431102752686e-01 -1.440874207764863968e-02 1.196245383471250534e-02 -2.575051598250865936e-02 -1.332952529191970825e-01 1.943560987710952759e-01 -1.394394636154174805e-01 6.100994721055030823e-02 3.211851716041564941e-01 2.720208838582038879e-02 -8.167278952896595001e-03 6.470507383346557617e-02 -4.400847014039754868e-03
1.467261090874671936e-02 2.029616571962833405e-02 -3.501729667186737061e-02 3.831494832411408424e-03 2.207209914922714233e-02 -1.611852943897247314e-01 -1.183962374925613403e-01 4.028213620185852051e-01 2.527637779712677002e-01 1.869386285543441772e-01 4.377658292651176453e-02 2.345187775790691376e-02 7.171472907066345215e-02 -6.393989920616149902e-02 3.538284301757812500e-01 -7.335153222084045410e-02 -5.803095698356628418e-01 -2.894051969051361084e-01 -1.265082694590091705e-02 -8.688781410455703735e-03 1.794616319239139557e-02 -1.876371353864669800e-02
-3.450972214341163635e-02 -2.660725824534893036e-02 -7.575949281454086304e-02 4.119700938463211060e-02 6.427968852221965790e-03 -1.272350549697875977e-01 -1.343761086463928223e-01 -2.011419981718063354e-01 1.087195128202438354e-01 -1.878463774919509888e-01 1.340685933828353882e-01 1.334979757666587830e-02 -1.090633720159530640e-01 3.041025064885616302e-02 -4.824217781424522400e-02 -4.388643205165863037e-01 -4.273516684770584106e-02 -3.483280241489410400e-01 -3.172557950019836426e-01 5.299567431211471558e-02 -1.850294135510921478e-02 -8.901716209948062897e-03
3.337024152278900146e-02 9.465956129133701324e-03 -5.703606642782688141e-03 5.465561896562576294e-02 4.073712602257728577e-02 -4.555261135101318359e-01 -1.340755969285964966e-01 -5.901762247085571289e-01 -3.198218643665313721e-01 9.020582586526870728e-02 9.710574895143508911e-02 -1.388841122388839722e-02 3.450954565778374672e-03 6.819114089012145996e-02 3.075907528400421143e-01 6.831416487693786621e-02 1.036573350429534912e-01 2.146426141262054443e-01 -4.822985827922821045e-02 -3.211895469576120377e-03 -9.115261491388082504e-04 1.619332656264305115e-02
1.743319444358348846e-02 2.716899476945400238e-02 -5.728464573621749878e-02 1.026441529393196106e-02 8.677758276462554932e-02 3.241464793682098389e-01 -2.882737517356872559e-01 -4.896667972207069397e-02 3.216622173786163330e-01 -1.662124991416931152e-01 -7.887465506792068481e-02 -1.027548313140869141e-01 -4.002420604228973389e-02 -1.985645443201065063e-01 -2.335747927427291870e-01 1.205443441867828369e-01 1.422281414270401001e-01 2.844780310988426208e-02 -1.220785453915596008e-01 6.799052935093641281e-03 -1.834700629115104675e-02 1.795657351613044739e-02
-9.127724170684814453e-02 -2.575213089585304260e-02 -1.307293325662612915e-01 3.497813642024993896e-02 6.658211350440979004e-02 -4.280846938490867615e-02 -4.749890267848968506e-01 -1.640394628047943115e-01 2.092454582452774048e-01 -4.130079448223114014e-01 -1.934867911040782928e-02 -3.497187048196792603e-02 6.945741921663284302e-02 -4.170509427785873413e-02 -1.747620850801467896e-01 2.152178287506103516e-01 1.615861505270004272e-01 3.812797367572784424e-01 -1.463683843612670898e-01 1.905150339007377625e-02 -1.159232761710882187e-02 1.865876652300357819e-02
-1.251846402883529663e-01 6.105538457632064819e-03 -9.762846678495407104e-02 -4.114965349435806274e-02 -1.382880378514528275e-02 -2.382905930280685425e-01 -4.292376041412353516e-01 -1.221129670739173889e-01 -3.539863228797912598e-01 4.196910187602043152e-02 -5.079276487231254578e-02 2.541992999613285065e-02 1.772251562215387821e-03 1.519873142242431641e-01 -1.981332451105117798e-01 -7.106211036443710327e-02 1.461033057421445847e-02 -4.929673741571605206e-04 -6.911666691303253174e-02 2.663085982203483582e-02 -1.438239868730306625e-02 -9.350442327558994293e-03
-5.964370816946029663e-02 3.095392137765884399e-02 4.820240661501884460e-02 1.116066984832286835e-02 -8.702706545591354370e-02 5.292631313204765320e-02 -4.669467806816101074e-01 -2.743858993053436279e-01 4.083482921123504639e-02 2.771727442741394043e-01 -1.043371763080358505e-02 -3.442552639171481133e-03 -1.603953540325164795e-02 1.000987887382507324e+00 -1.500565279275178909e-02 3.034741990268230438e-02 4.520126283168792725e-01 3.260306715965270996e-01 -1.164368316531181335e-01 -4.565158858895301819e-03 2.862113527953624725e-02 -4.929956793785095215e-02
-1.452426910400390625e-01 2.813366008922457695e-03 -1.091014817357063293e-01 3.798031061887741089e-02 -5.444871634244918823e-02 1.609930098056793213e-01 -7.915378548204898834e-03 1.961618848145008087e-02 -1.739419251680374146e-01 9.335917979478836060e-02 1.138087064027786255e-01 -5.910439416766166687e-02 4.412056412547826767e-03 1.121210400015115738e-02 -8.562707901000976562e-02 1.016059443354606628e-01 -1.881304085254669189e-01 -2.626560330390930176e-01 -2.523532807826995850e-01 2.551886811852455139e-02 5.138955544680356979e-03 1.514857355505228043e-02
-3.525893390178680420e-02 2.817182429134845734e-02 -5.104667693376541138e-02 -8.195966482162475586e-02 -1.183258220553398132e-01 3.328621983528137207e-01 3.285423517227172852e-01 -4.625113606452941895e-01 -9.075916558504104614e-02 -4.961892068386077881e-01 -4.440838843584060669e-02 2.505544200539588928e-02 -9.563864208757877350e-03 -1.731436252593994141e-01 -4.699128270149230957e-01 7.832933217287063599e-02 5.366756319999694824e-01 3.086798489093780518e-01 -4.032575488090515137e-01 1.912797056138515472e-02 -2.214086055755615234e-02 -3.976229112595319748e-03
-3.451218083500862122e-02 9.694376029074192047e-03 2.395290136337280273e-02 -2.208350226283073425e-02 -9.474278986454010010e-02 -4.750830586999654770e-03 -1.272194832563400269e-01 1.476167291402816772e-01 -2.342377603054046631e-02 -1.671988368034362793e-01 1.855620443820953369e-01 -1.293809525668621063e-02 -7.583894580602645874e-02 -2.533301338553428650e-02 2.252483963966369629e-01 -1.147001422941684723e-02 1.042875200510025024e-01 4.153129756450653076e-01 1.737613044679164886e-02 -5.212986096739768982e-02 -2.143125981092453003e-02 -1.702534407377243042e-02
1.325292289257049561e-01 -1.232406962662935257e-02 1.281703114509582520e-01 1.781672611832618713e-02 3.978698328137397766e-02 9.982994943857192993e-02 -2.898895740509033203e-01 -3.985247313976287842e-01 -2.247201204299926758e-01 -2.249061502516269684e-02 -1.188748702406883240e-01 4.395110066980123520e-03 2.713649161159992218e-02 9.304194152355194092e-02 -4.292486011981964111e-01 2.510940097272396088e-02 -1.494549661874771118e-01 -1.960640996694564819e-01 -1.965403705835342407e-01 6.450781971216201782e-02 2.437806222587823868e-03 -4.572120960801839828e-03
-2.256072685122489929e-02 -2.889330126345157623e-02 -1.249930914491415024e-02 5.195895209908485413e-02 -5.467050895094871521e-02 -3.376755118370056152e-02 -3.200756758451461792e-02 -2.939181625843048096e-01 -1.488058120012283325e-01 4.730011150240898132e-02 -5.025714635848999023e-02 -2.578444033861160278e-02 2.937592193484306335e-02 9.765446931123733521e-02 1.048184745013713837e-02 8.200301975011825562e-02 1.199926063418388367e-02 -1.303220242261886597e-01 2.578945755958557129e-01 2.027798816561698914e-02 -1.127302832901477814e-02 -2.217960311099886894e-03
3.302499279379844666e-02 -1.719998009502887726e-02 -2.545566530898213387e-03 -1.341739110648632050e-02 4.547914117574691772e-02 -1.292005330324172974e-01 5.903915315866470337e-02 7.817745953798294067e-02 -1.371838301420211792e-01 7.386717945337295532e-02 5.645772442221641541e-02 6.584682315587997437e-02 7.375829666852951050e-02 1.075618937611579895e-01 2.304316312074661255e-01 7.372289896011352539e-02 3.249664604663848877e-01 5.133541673421859741e-02 -1.535409390926361084e-01 -2.982793375849723816e-02 1.430469751358032227e-02 3.951366990804672241e-03
7.535193860530853271e-02 -2.881559915840625763e-02 2.308000065386295319e-02 2.404000237584114075e-02 8.301072567701339722e-02 -1.331963539123535156e-01 2.041606158018112183e-01 7.187255471944808960e-02 2.690912783145904541e-01 2.592406868934631348e-01 -1.344681717455387115e-03 1.145197264850139618e-02 -6.752046942710876465e-02 -4.768362268805503845e-02 1.246720552444458008e-01 -3.467146679759025574e-02 -1.817066222429275513e-01 -5.971412062644958496e-01 2.891930341720581055e-01 -3.620151802897453308e-02 1.346629858016967773e-02 -1.062613353133201599e-02
1.511779576539993286e-01 1.072243414819240570e-02 1.020575538277626038e-01 -2.615277841687202454e-02 5.380757525563240051e-02 5.751745104789733887e-01 -3.464314043521881104e-01 -8.827915787696838379e-02 3.200494125485420227e-02 -1.486395113170146942e-02 -1.324766874313354492e-01 1.237107515335083008e-01 3.314251825213432312e-02 1.777613162994384766e-02 3.509911522269248962e-02 -5.820862203836441040e-02 1.163333877921104431e-01 -1.413374673575162888e-02 -1.767957508563995361e-01 -4.329497925937175751e-03 9.080047719180583954e-03 5.976877175271511078e-03
1.523617208003997803e-01 -3.453344851732254028e-02 1.300002541393041611e-02 1.547360047698020935e-02 1.667211055755615234e-01 1.246514692902565002e-01 5.798719823360443115e-02 1.259068399667739868e-01 3.290669992566108704e-02 5.236584693193435669e-02 -3.756852820515632629e-02 -1.636251509189605713e-01 6.967538595199584961e-02 3.506118059158325195e-01 1.140775680541992188e-01 7.743126153945922852e-02 3.188584446907043457e-01 1.304987519979476929e-01 -2.764427959918975830e-01 -5.870538577437400818e-02 4.317416623234748840e-02 -9.402179159224033356e-03
5.621868651360273361e-03 -2.067800052464008331e-02 2.501527220010757446e-02 -1.392774470150470734e-02 2.468236349523067474e-02 3.273876607418060303e-01 -5.398439988493919373e-02 -1.897765547037124634e-01 -2.554176151752471924e-01 2.378779649734497070e-02 5.640947259962558746e-03 -1.444820314645767212e-02 -1.049062935635447502e-03 6.524236407130956650e-03 -1.321634650230407715e-01 -2.646939754486083984e-01 -6.397788878530263901e-03 1.711849868297576904e-01 -3.094225423410534859e-03 1.820946112275123596e-02 -1.201188657432794571e-02 -3.031352162361145020e-02
4.128522425889968872e-02 -6.227354053407907486e-03 -1.493574399501085281e-02 1.170846074819564819e-02 -8.743927814066410065e-03 -5.511971190571784973e-02 -6.824871059507131577e-03 1.808836460113525391e-01 2.251814305782318115e-01 -9.017657488584518433e-03 4.381294548511505127e-02 -9.275944530963897705e-02 1.388601493090391159e-02 -1.413475815206766129e-02 9.669157117605209351e-02 -9.636487066745758057e-02 -1.035089418292045593e-01 -3.989204391837120056e-02 9.112566709518432617e-02 -1.234985422343015671e-02 3.007641248404979706e-02 8.694233838468790054e-04
1.944767870008945465e-02 -1.178402826189994812e-02 -4.092612117528915405e-02 3.990850818809121847e-04 -2.898694574832916260e-02 -3.563136756420135498e-01 3.340108669362962246e-04 -3.794391453266143799e-02 -1.122626960277557373e-01 -1.332657933235168457e-01 -1.731872707605361938e-01 1.251690182834863663e-02 -7.111194729804992676e-02 -1.746270246803760529e-02 -3.679949343204498291e-01 -1.965489238500595093e-01 -1.563332378864288330e-01 -1.097282990813255310e-01 5.121381878852844238e-01 2.903183735907077789e-02 -4.453523457050323486e-02 3.818951547145843506e-02
6.024292856454849243e-02 -2.680436242371797562e-03 2.053563669323921204e-02 3.883963450789451599e-02 4.054425656795501709e-02 -1.058296188712120056e-01 -5.808663964271545410e-01 -1.936617642641067505e-01 -2.074695676565170288e-01 2.539988160133361816e-01 -3.538828575983643532e-03 2.278763242065906525e-02 -1.242743059992790222e-02 1.908092200756072998e-01 1.314225643873214722e-01 6.698857247829437256e-02 -2.369378954172134399e-01 3.247101604938507080e-02 1.155454367399215698e-01 -7.518680393695831299e-02 6.339806318283081055e-02 1.944717392325401306e-02
2.128335535526275635e-01 -4.954091738909482956e-03 4.890318214893341064e-02 -3.411897271871566772e-02 -6.860821694135665894e-02 5.700471624732017517e-02 -3.415909707546234131e-01 -2.663343399763107300e-02 -8.571445941925048828e-02 -1.309785246849060059e-01 -4.445356875658035278e-02 4.476666450500488281e-02 4.019661247730255127e-02 -1.303754001855850220e-01 1.226177737116813660e-01 -2.290262281894683838e-01 -4.693832099437713623e-01 -2.322833798825740814e-02 1.063217520713806152e-01 -3.637695312500000000e-02 4.428545758128166199e-02 -5.435001105070114136e-02
-5.943993479013442993e-02 -1.102442503906786442e-03 6.437142193317413330e-02 2.382666617631912231e-02 -1.313606351613998413e-01 -3.165869116783142090e-01 8.314622938632965088e-02 1.465922147035598755e-01 1.966921687126159668e-01 2.162756472826004028e-01 6.604567170143127441e-02 -4.034611955285072327e-02 -7.342603523284196854e-03 -7.128858566284179688e-02 4.035595431923866272e-02 2.814144492149353027e-01 2.783629298210144043e-01 1.152785941958427429e-01 1.383141335099935532e-02 -2.038488723337650299e-02 -5.464882776141166687e-02 2.281224820762872696e-03
-4.363626614212989807e-02 -1.435524225234985352e-02 -5.054398253560066223e-02 -5.321092903614044189e-03 3.730718418955802917e-02 -1.829076409339904785e-01 -1.349694579839706421e-01 -1.912004053592681885e-01 -7.932401448488235474e-02 -9.640438109636306763e-02 -2.914630249142646790e-02 3.006285429000854492e-02 -1.204813364893198013e-03 6.018334627151489258e-02 -8.191660791635513306e-02 -1.368694901466369629e-01 -3.677799701690673828e-01 -1.647689491510391235e-01 -1.456598192453384399e-01 -2.553479559719562531e-02 -1.872348249889910221e-03 -5.419225897639989853e-03
-7.285147905349731445e-02 -1.036609173752367496e-03 -2.696577459573745728e-02 -6.463330984115600586e-02 -1.542450487613677979e-01 1.307781189680099487e-01 6.742097735404968262e-01 3.196087479591369629e-01 1.019249632954597473e-01 2.549683749675750732e-01 9.453719481825828552e-03 -1.213895902037620544e-01 -2.127253450453281403e-02 3.287728428840637207e-01 1.040717288851737976e-01 -6.894859671592712402e-02 3.599070385098457336e-02 -5.112236365675926208e-02 -7.925343513488769531e-02 3.872348740696907043e-02 -1.020394358783960342e-02 -1.898433268070220947e-02
2.928591147065162659e-02 -1.625207997858524323e-02 5.100825801491737366e-02 -2.976574562489986420e-02 -7.434590160846710205e-02 1.077248454093933105e-01 -2.427528649568557739e-01 3.050340898334980011e-02 -3.974144905805587769e-02 -4.057270586490631104e-01 -3.877639770507812500e-02 4.153276607394218445e-02 4.104880616068840027e-02 6.167885661125183105e-02 -9.183706343173980713e-02 3.028563559055328369e-01 2.826377749443054199e-01 1.220634654164314270e-01 -8.833505213260650635e-02 2.591416984796524048e-02 4.577665776014328003e-02 -2.260398678481578827e-02
-4.134053015150129795e-04 -3.293326357379555702e-03 -6.825006566941738129e-03 2.997714653611183167e-02 -5.363405868411064148e-02 -1.212138980627059937e-01 2.459782548248767853e-02 1.654714196920394897e-01 3.421401977539062500e-02 1.530653834342956543e-01 1.284565925598144531e-01 3.498585894703865051e-02 -1.206772215664386749e-02 -6.543124467134475708e-02 1.937030255794525146e-01 6.575405597686767578e-02 2.454447597265243530e-01 1.781990081071853638e-01 -1.928774267435073853e-01 -6.034908816218376160e-03 -3.256390243768692017e-02 1.064719073474407196e-02
8.084468543529510498e-02 -8.362976461648941040e-02 6.556535512208938599e-02 -2.716067060828208923e-02 3.566603660583496094e-01 2.782063484191894531e-01 -2.233334816992282867e-02 -1.579476743936538696e-01 -4.398781061172485352e-01 1.562692690640687943e-03 1.092930510640144348e-01 5.082822404801845551e-03 -2.229007426649332047e-03 -4.186752438545227051e-01 6.173223853111267090e-01 4.026386439800262451e-01 -2.145162671804428101e-01 1.962533220648765564e-02 1.540739089250564575e-01 8.081251755356788635e-03 8.962173946201801300e-03 -9.634735994040966034e-03
-5.084664374589920044e-02 -1.472826767712831497e-02 4.490040708333253860e-03 4.921948537230491638e-02 -8.569319546222686768e-02 -5.376487970352172852e-02 -1.413111984729766846e-01 -3.311896622180938721e-01 -2.875477969646453857e-01 -1.889827400445938110e-01 -4.401186108589172363e-02 -1.421915180981159210e-02 -9.947711974382400513e-02 -2.500241063535213470e-02 -3.804458975791931152e-01 -1.764138340950012207e-01 -2.650232315063476562e-01 -1.509353984147310257e-02 -4.666588306427001953e-01 -4.275727551430463791e-03 2.619990147650241852e-02 2.974279224872589111e-03
-1.475259959697723389e-01 -5.086135119199752808e-02 -5.824085697531700134e-02 5.426701530814170837e-02 -4.160771891474723816e-02 3.061045110225677490e-01 -3.079215586185455322e-01 4.165772348642349243e-02 1.301090866327285767e-01 1.181960105895996094e-01 -1.880641840398311615e-02 -2.420398034155368805e-02 -3.063393011689186096e-02 3.498767614364624023e-01 2.042490541934967041e-01 2.847256362438201904e-01 1.542236804962158203e-01 -2.126550674438476562e-02 6.096584349870681763e-02 -6.665944587439298630e-03 -2.404376119375228882e-02 -3.075813502073287964e-02
5.026317387819290161e-02 4.118170123547315598e-03 -1.631579548120498657e-02 -1.544003468006849289e-02 1.289752870798110962e-01 1.235326081514358521e-01 -5.152885802090167999e-03 -3.251258283853530884e-02 2.871970832347869873e-01 -1.606915742158889771e-01 -2.573242411017417908e-02 -9.383636713027954102e-02 3.259669989347457886e-03 4.224300384521484375e-02 -2.452726066112518311e-01 4.419530034065246582e-01 4.115400016307830811e-01 9.027311205863952637e-02 1.219405531883239746e-01 3.211430087685585022e-02 5.666691064834594727e-02 -3.292364254593849182e-02
-1.697023957967758179e-01 -1.621311996132135391e-03 -2.011789530515670776e-01 3.474043309688568115e-02 -5.788644552230834961e-01 1.483663618564605713e-01 -2.273060381412506104e-01 2.008701562881469727e-01 -2.135119289159774780e-01 -6.451942771673202515e-02 -4.498425871133804321e-02 4.558065533638000488e-02 9.645628742873668671e-03 7.480634450912475586e-01 -2.629756033420562744e-01 5.514540895819664001e-02 5.594578385353088379e-01 3.218750357627868652e-01 6.009189784526824951e-02 6.973769515752792358e-02 5.932172760367393494e-03 2.589829452335834503e-02
3.030584007501602173e-02 -2.773481607437133789e-02 -7.439760956913232803e-04 1.435591094195842743e-02 1.283896900713443756e-02 3.965311050415039062e-01 1.258857399225234985e-01 2.295414954423904419e-01 -5.068604275584220886e-02 1.637542992830276489e-01 -8.563610166311264038e-02 4.912533238530158997e-02 2.590277604758739471e-02 -1.406770199537277222e-01 2.108911126852035522e-01 1.581286787986755371e-01 2.731341123580932617e-01 2.522448003292083740e-01 -2.575433067977428436e-02 -1.882161712273955345e-03 -4.799798596650362015e-03 4.949378315359354019e-03
-6.274982541799545288e-02 -1.724059693515300751e-02 -2.413916401565074921e-02 2.007227391004562378e-02 -1.160053387284278870e-01 -6.755889952182769775e-02 2.544692158699035645e-01 5.065413117408752441e-01 3.387484550476074219e-01 -1.604400575160980225e-01 -1.864296644926071167e-01 1.353200376033782959e-01 6.930090487003326416e-02 3.383446484804153442e-02 -1.533173769712448120e-01 -8.287235349416732788e-02 -2.189115583896636963e-01 -3.074204325675964355e-01 1.207834705710411072e-01 5.499097518622875214e-03 -6.734170950949192047e-03 1.928639132529497147e-03
1.354143023490905762e-01 -9.431876242160797119e-03 2.037709020078182220e-02 9.212889708578586578e-03 -1.304522622376680374e-02 1.512318253517150879e-01 -1.909938305616378784e-01 -2.428034394979476929e-01 -1.124670356512069702e-01 -1.476149559020996094e-01 4.934045299887657166e-02 4.879003763198852539e-02 -2.226005308330059052e-02 -2.358175069093704224e-02 -1.590978354215621948e-01 1.823130398988723755e-01 -1.061435192823410034e-01 -5.692616105079650879e-01 -6.530467420816421509e-02 -8.223186247050762177e-03 3.118983656167984009e-02 -3.686506673693656921e-02
-1.361614167690277100e-01 2.759608067572116852e-02 -1.391117572784423828e-01 7.192224729806184769e-03 6.905468180775642395e-03 -2.331324368715286255e-01 -1.968378126621246338e-01 3.198657929897308350e-02 1.597333699464797974e-01 1.024461444467306137e-02 4.927006736397743225e-02 -1.879248321056365967e-01 8.595233783125877380e-03 2.996373362839221954e-02 5.300089716911315918e-01 3.058435954153537750e-02 -2.272767424583435059e-01 -7.077424973249435425e-02 -1.451145708560943604e-01 -1.789387129247188568e-02 7.916865870356559753e-04 3.114634379744529724e-02
2.024680227041244507e-01 -2.011341974139213562e-02 8.255211263895034790e-02 1.973881945013999939e-02 -2.000056765973567963e-02 1.760095953941345215e-01 2.431877404451370239e-01 -9.215105324983596802e-02 -2.767064869403839111e-01 6.211981177330017090e-02 6.600874476134777069e-03 1.284638419747352600e-02 1.159784290939569473e-02 2.914497070014476776e-02 -1.343084871768951416e-01 -4.118190705776214600e-02 -1.812563714338466525e-04 1.613980159163475037e-02 -1.216356679797172546e-01 7.490503042936325073e-02 8.917208760976791382e-03 2.121800556778907776e-02
3.497816324234008789e-01 2.021981170400977135e-03 1.952586024999618530e-01 1.867619715631008148e-02 5.178651958703994751e-02 1.043595448136329651e-01 -1.889532208442687988e-01 1.860726773738861084e-01 -8.371280878782272339e-02 -2.932941317558288574e-01 -8.524573594331741333e-02 -2.303112763911485672e-03 -4.188443720340728760e-02 2.157433424144983292e-03 1.649405658245086670e-01 -6.258143186569213867e-01 -3.886425495147705078e-01 6.110113859176635742e-02 2.810877561569213867e-01 6.549388635903596878e-03 3.563030064105987549e-02 1.177270617336034775e-02
3.690431714057922363e-01 -9.116166085004806519e-02 2.383978813886642456e-01 -1.014077961444854736e-01 -2.249851524829864502e-01 1.783033162355422974e-01 5.380394458770751953e-01 9.364895224571228027e-01 -2.329097539186477661e-01 1.388026028871536255e-01 -1.377006620168685913e-01 3.187966346740722656e-01 1.122376471757888794e-01 5.636287853121757507e-03 -4.377815425395965576e-01 -2.372367680072784424e-01 -4.747033417224884033e-01 2.884074747562408447e-01 1.128852590918540955e-01 3.268542513251304626e-02 -4.097138345241546631e-02 4.875865206122398376e-02
-1.039387099444866180e-02 1.411486510187387466e-02 3.189001604914665222e-02 3.453295212239027023e-03 1.092141866683959961e-02 1.688951551914215088e-01 -6.434646784327924252e-04 9.342461824417114258e-02 1.257869042456150055e-02 3.188264667987823486e-01 -2.458039671182632446e-02 -2.873715013265609741e-02 1.370659377425909042e-02 2.452257461845874786e-02 3.634144961833953857e-01 5.032010376453399658e-02 1.784477233886718750e-01 -1.105049178004264832e-01 2.716390490531921387e-01 -5.691550322808325291e-04 1.014543604105710983e-02 2.462211996316909790e-03
-2.316638268530368805e-02 -9.136203676462173462e-03 -1.197205577045679092e-02 9.765144204720854759e-04 -4.597518593072891235e-02 1.424220390617847443e-02 9.560644626617431641e-02 8.758275955915451050e-02 1.977989077568054199e-01 5.887398496270179749e-02 -7.140334695577621460e-02 -4.992952570319175720e-02 1.672976464033126831e-02 1.353348419070243835e-02 3.308729231357574463e-01 -1.105959713459014893e-01 -2.903979718685150146e-01 -5.594567954540252686e-02 2.009225636720657349e-01 -4.338104277849197388e-03 3.136061364784836769e-03 1.298438059166073799e-03
2.693480066955089569e-02 -3.982982598245143890e-03 -1.995946466922760010e-02 1.425348687916994095e-02 3.715296089649200439e-02 1.038028970360755920e-01 9.946021437644958496e-02 1.588523387908935547e-01 1.127822101116180420e-01 8.958193659782409668e-02 7.540304213762283325e-03 3.639512881636619568e-02 -4.019335657358169556e-02 2.849309705197811127e-02 -5.039439797401428223e-01 -1.462588161230087280e-01 4.574687778949737549e-02 -1.310810595750808716e-01 -1.395087391138076782e-01 2.028835704550147057e-03 -5.321815842762589455e-04 -7.978790090419352055e-04
6.742835044860839844e-02 -1.078082155436277390e-02 -4.969936329871416092e-03 5.502565298229455948e-03 7.249915599822998047e-02 -2.325365552678704262e-03 -8.275111764669418335e-02 4.577051848173141479e-03 1.809383556246757507e-02 -3.504289984703063965e-01 1.493132859468460083e-01 2.011881023645401001e-02 -3.275339305400848389e-02 -1.088898861780762672e-03 4.434326589107513428e-01 1.345735937356948853e-01 -1.524125784635543823e-02 7.197413593530654907e-03 -6.083621382713317871e-01 9.057814604602754116e-04 -2.900065446738153696e-04 -1.917100045830011368e-03
3.046661242842674255e-02 -5.457624420523643494e-02 1.369855552911758423e-01 1.741216890513896942e-02 -5.522760003805160522e-02 -7.900963723659515381e-02 1.744011193513870239e-01 -2.878438830375671387e-01 -2.258338592946529388e-02 -2.564559876918792725e-01 7.455784361809492111e-03 4.905217792838811874e-04 -3.830691054463386536e-02 6.875091046094894409e-02 -1.229270547628402710e-02 3.382326336577534676e-03 1.231540963053703308e-01 4.538800939917564392e-02 -3.531076014041900635e-02 8.432972431182861328e-02 2.813403494656085968e-02 -2.344119735062122345e-02
-5.534935742616653442e-02 -4.871699493378400803e-03 -2.719216421246528625e-02 -1.621342077851295471e-02 -1.968147419393062592e-02 -1.773228645324707031e-01 -3.515128493309020996e-01 -1.647251658141613007e-02 -1.945841014385223389e-01 -1.038279384374618530e-01 1.023668944835662842e-01 9.914482384920120239e-02 -2.871175110340118408e-02 7.032189518213272095e-02 3.892337977886199951e-01 5.747484788298606873e-02 8.637118339538574219e-02 2.450202256441116333e-01 1.230419203639030457e-01 2.015113830566406250e-02 -2.535535581409931183e-02 7.348190061748027802e-03
-8.305642008781433105e-02 1.017430238425731659e-02 -1.608764380216598511e-02 1.985055627301335335e-03 -4.651379585266113281e-02 -4.983472526073455811e-01 4.865323379635810852e-02 2.613232433795928955e-01 3.090657889842987061e-01 -4.074260890483856201e-01 -7.248304039239883423e-02 -1.676003448665142059e-02 5.318754911422729492e-02 6.389869004487991333e-02 2.772252261638641357e-01 -7.207122445106506348e-02 -8.448851108551025391e-02 -1.142830029129981995e-01 -2.016280964016914368e-02 -7.643174612894654274e-04 2.252715174108743668e-03 2.030009491136297584e-04
-7.927825674414634705e-03 -8.995436131954193115e-03 -2.043452300131320953e-02 1.272022537887096405e-02 1.918265712447464466e-03 -2.248176932334899902e-01 8.204316347837448120e-02 2.140724807977676392e-01 8.020754903554916382e-02 -1.375318914651870728e-01 -1.919646747410297394e-02 -2.008253149688243866e-02 -2.334439568221569061e-02 1.890593953430652618e-02 9.175232797861099243e-02 -2.537117600440979004e-01 -2.395147532224655151e-01 3.538166359066963196e-02 -8.233246207237243652e-02 -8.234873414039611816e-03 -2.360706916078925133e-03 -6.520110182464122772e-03
6.151931732892990112e-02 9.155178442597389221e-03 4.724348336458206177e-02 1.371592562645673752e-02 -2.368405833840370178e-02 4.213582724332809448e-02 -1.232884973287582397e-01 -4.035345837473869324e-02 2.441678009927272797e-02 -3.718573367223143578e-03 -5.416972562670707703e-02 6.269752047955989838e-03 -2.111659385263919830e-02 3.289755061268806458e-02 -4.707955420017242432e-01 2.313560843467712402e-01 2.285118401050567627e-01 2.253350168466567993e-01 4.409423843026161194e-02 1.009723823517560959e-02 -9.062746539711952209e-03 3.700058441609144211e-03
6.844534073024988174e-03 5.887273233383893967e-03 1.129728648811578751e-02 -3.321165277156978846e-04 9.860116988420486450e-03 -6.759709864854812622e-02 -1.024829372763633728e-01 -2.141013741493225098e-01 -6.425487995147705078e-02 -2.526781708002090454e-02 7.547153625637292862e-03 1.968381553888320923e-02 1.252176612615585327e-02 1.764306612312793732e-02 1.756343245506286621e-01 -7.596407830715179443e-02 1.690234094858169556e-01 -1.608006507158279419e-01 2.012618929147720337e-01 -5.704913288354873657e-03 -1.062122453004121780e-02 5.166617687791585922e-03
2.886652573943138123e-02 1.003807038068771362e-02 4.215326905250549316e-02 1.560573466122150421e-02 4.654839262366294861e-02 -1.925589293241500854e-01 -1.492550224065780640e-01 -3.302653133869171143e-01 9.542454965412616730e-03 1.202270463109016418e-01 -5.578087642788887024e-03 -8.198502659797668457e-02 -5.265463842079043388e-04 1.084042191505432129e-01 3.993600234389305115e-02 -2.050504535436630249e-01 3.563425689935684204e-02 -1.845759600400924683e-01 -1.181246042251586914e-01 -5.219770595431327820e-03 5.812864983454346657e-04 2.280027838423848152e-03
-7.675006985664367676e-02 -4.624382406473159790e-02 -1.333760172128677368e-01 -1.851640269160270691e-02 -2.128283865749835968e-02 2.402824908494949341e-01 -2.532970607280731201e-01 -9.468742460012435913e-02 -1.234922334551811218e-01 3.420193493366241455e-01 2.038475498557090759e-02 3.053623810410499573e-02 4.053511843085289001e-02 8.857846260070800781e-02 1.137719079852104187e-01 1.598586328327655792e-03 1.532218307256698608e-01 -7.983837276697158813e-02 1.255241930484771729e-01 -1.653979904949665070e-02 -1.245835516601800919e-02 6.491230451501905918e-04
-9.319975376129150391e-01 1.870966553688049316e-01 5.559252947568893433e-02 -7.333484292030334473e-02 -9.131113998591899872e-03 -2.006676346063613892e-01 9.725333191454410553e-03 1.297952085733413696e-01 -1.292145904153585434e-02 -4.381268322467803955e-01 -2.697360515594482422e-02 6.487568467855453491e-02 -1.703353971242904663e-02 -5.062619457021355629e-04 -2.144421041011810303e-01 1.614150591194629669e-02 5.978986248373985291e-02 7.645782548934221268e-03 -1.112102251499891281e-02 4.460040014237165451e-03 1.953068887814879417e-03 1.700146705843508244e-03
4.483580216765403748e-02 -7.355096749961376190e-03 8.980000391602516174e-03 1.614275388419628143e-02 4.191409051418304443e-02 2.443696260452270508e-01 2.126584947109222412e-02 2.115628272294998169e-01 3.043845482170581818e-02 9.742343425750732422e-02 -6.999114155769348145e-02 7.493921089917421341e-03 4.042471945285797119e-02 1.258183574676513672e+01 -1.222686469554901123e-01 1.167149841785430908e-01 -9.117282181978225708e-02 -1.078671514987945557e-01 1.875211596488952637e-01 1.042688265442848206e-03 1.989424787461757660e-02 4.496139008551836014e-03
3.439176594838500023e-03 -8.412273600697517395e-03 -9.764514863491058350e-03 -3.393519297242164612e-02 -1.034410949796438217e-02 7.727477699518203735e-02 1.645575612783432007e-01 1.720130592584609985e-01 4.174930974841117859e-02 3.721212968230247498e-02 -1.352469716221094131e-02 5.357135087251663208e-03 5.051461234688758850e-02 -2.631823159754276276e-02 -2.640890479087829590e-01 -2.922213077545166016e-01 -5.058015584945678711e-01 -9.626850485801696777e-03 -4.388570785522460938e-02 8.513564825989305973e-04 1.459393242839723825e-04 4.498314228840172291e-04
-2.136919461190700531e-02 -4.728053318103775382e-05 -8.361360989511013031e-03 -1.704743690788745880e-02 -4.051676392555236816e-02 1.355175375938415527e-01 -1.229957863688468933e-01 -1.976932287216186523e-01 1.490977965295314789e-02 8.658048510551452637e-02 -4.077127948403358459e-02 -8.913560956716537476e-02 2.775002643465995789e-02 -8.343309909105300903e-02 -9.598198533058166504e-02 2.849827408790588379e-01 5.321178957819938660e-02 -1.254094541072845459e-01 1.397766172885894775e-01 -1.219491939991712570e-02 7.941686548292636871e-03 7.411352824419736862e-03
-2.684787102043628693e-02 2.595084952190518379e-03 -2.217909786850214005e-03 -1.677452772855758667e-02 -2.257245779037475586e-02 -4.449612647294998169e-02 -7.634864747524261475e-02 -2.309968322515487671e-01 -4.994988441467285156e-02 2.349851876497268677e-01 -2.380069717764854431e-02 6.846019625663757324e-02 5.119762197136878967e-02 -1.165996398776769638e-02 1.883562654256820679e-03 -3.211623290553689003e-03 4.506852105259895325e-02 2.379450947046279907e-03 5.966789275407791138e-02 -1.856712438166141510e-02 -5.996214691549539566e-03 -4.739824216812849045e-03
-2.737952861934900284e-03 -8.613194338977336884e-03 1.385874208062887192e-02 -1.804289408028125763e-02 8.320110850036144257e-03 -1.107603386044502258e-01 1.951179653406143188e-02 -8.859204500913619995e-02 -1.005124598741531372e-01 -8.869440294802188873e-03 3.181408345699310303e-02 -4.465462267398834229e-02 -1.455579511821269989e-02 -1.409581303596496582e-02 1.331416666507720947e-01 -2.061672657728195190e-01 -1.310760825872421265e-01 2.458310127258300781e-01 7.396109402179718018e-02 -2.021958818659186363e-03 -5.247408989816904068e-04 -1.053551211953163147e-03
2.726453356444835663e-02 5.896569695323705673e-03 -9.630901739001274109e-03 7.622500415891408920e-03 -4.939625039696693420e-02 -1.006344556808471680e+00 -1.301721930503845215e-01 1.044266968965530396e-01 -1.137994676828384399e-01 -8.757401108741760254e-01 -1.584878377616405487e-02 3.855487331748008728e-02 6.544724106788635254e-03 3.410974517464637756e-02 -1.095879450440406799e-01 1.575867980718612671e-01 1.990870833396911621e-01 -2.655169367790222168e-02 -1.001948639750480652e-01 -9.173257276415824890e-04 -2.418563701212406158e-03 -3.119816072285175323e-03
1.455979943275451660e-01 1.403097156435251236e-02 3.621610626578330994e-02 -2.700398862361907959e-02 4.144964739680290222e-03 4.253371059894561768e-02 4.784322381019592285e-01 1.669171731919050217e-03 2.759131789207458496e-01 1.036865487694740295e-01 -1.446230802685022354e-02 9.177549928426742554e-02 4.721650853753089905e-02 -1.082639172673225403e-01 -1.087049115449190140e-02 7.793151587247848511e-02 -2.700313553214073181e-02 -1.030084118247032166e-01 6.631204392760992050e-03 -1.789746433496475220e-02 1.121112052351236343e-02 -5.446470808237791061e-03
2.434079349040985107e-02 -1.966460142284631729e-03 1.280274149030447006e-02 -1.428509969264268875e-02 7.167097646743059158e-03 1.624397933483123779e-02 6.406418979167938232e-02 -9.407591074705123901e-03 -5.794799327850341797e-02 -8.954859524965286255e-02 -2.859585173428058624e-02 -2.840168215334415436e-02 -2.246250584721565247e-02 -6.829383969306945801e-02 -1.347247511148452759e-01 -3.495637476444244385e-01 1.794145256280899048e-01 1.266268193721771240e-01 5.585069884546101093e-04 -3.889741608873009682e-03 2.362853847444057465e-03 1.084901508875191212e-03
-9.095039218664169312e-02 -2.468249993398785591e-03 -4.805115982890129089e-02 1.130828633904457092e-02 1.627567922696471214e-03 8.734095841646194458e-03 5.188304558396339417e-02 5.551057681441307068e-02 1.354233771562576294e-01 1.090936362743377686e-01 -1.189808733761310577e-02 -4.827348887920379639e-02 1.850019209086894989e-02 4.466941207647323608e-02 -9.573589265346527100e-02 -1.333612650632858276e-01 -4.678300321102142334e-01 -1.565997004508972168e-01 3.315924704074859619e-01 9.153972379863262177e-03 -6.978707388043403625e-03 2.745265839621424675e-03
-1.433625910431146622e-02 -2.002663444727659225e-03 -2.536981552839279175e-02 1.102736126631498337e-02 -7.040151208639144897e-02 1.312624365091323853e-01 -1.809256672859191895e-01 -2.936417758464813232e-01 -1.443522572517395020e-01 2.164409160614013672e-01 -1.162097416818141937e-02 -4.519160836935043335e-02 -3.183863358572125435e-03 2.593119570519775152e-04 -9.138949960470199585e-02 5.526961013674736023e-02 -1.379700098186731339e-02 -4.088248610496520996e-01 9.056093543767929077e-02 2.113105496391654015e-03 1.238437835127115250e-04 2.966290106996893883e-03
-1.671032048761844635e-02 -1.300506573170423508e-02 9.018800221383571625e-03 -1.752226054668426514e-02 7.980109192430973053e-03 -1.169887259602546692e-01 3.139935731887817383e-01 2.810203433036804199e-01 2.123219966888427734e-01 -1.475647687911987305e-01 4.840173199772834778e-02 1.003733463585376740e-02 2.680955268442630768e-02 -1.382449828088283539e-02 8.751880377531051636e-02 6.238159537315368652e-02 -2.498730570077896118e-01 -4.369725883007049561e-01 -8.802225440740585327e-02 3.170766634866595268e-03 -1.416161842644214630e-02 3.705508774146437645e-03
3.687834367156028748e-02 -8.285231306217610836e-04 6.549590732902288437e-03 -1.151835196651518345e-03 5.715112760663032532e-02 3.201009035110473633e-01 2.578681160230189562e-04 2.037132531404495239e-01 1.331486999988555908e-01 -2.154512405395507812e-01 4.489169642329216003e-02 2.719593234360218048e-02 -4.317560791969299316e-02 -4.823191091418266296e-02 1.363976206630468369e-02 -3.153607249259948730e-01 7.841613888740539551e-02 -1.260850727558135986e-01 -5.416635423898696899e-03 -8.096451871097087860e-03 1.778035424649715424e-02 -2.025839639827609062e-03
-4.453573375940322876e-02 -4.234278108924627304e-03 -5.923885107040405273e-02 1.660429500043392181e-02 2.475483343005180359e-02 -4.176929891109466553e-01 6.559321773238480091e-04 2.695371806621551514e-01 2.136172726750373840e-02 -3.384396731853485107e-01 4.615664016455411911e-03 -3.866684436798095703e-02 3.525510663166642189e-03 7.210737466812133789e-02 2.356848493218421936e-02 1.502932459115982056e-01 1.032815054059028625e-01 -5.383779481053352356e-02 -1.488119512796401978e-01 -3.923983778804540634e-03 8.461840450763702393e-03 2.065216889604926109e-03
7.076767832040786743e-02 -8.577504195272922516e-03 1.588471792638301849e-02 2.662177197635173798e-02 1.833557337522506714e-02 -4.788386076688766479e-02 -1.932691931724548340e-01 -1.083557754755020142e-01 -2.703374624252319336e-02 1.868254840373992920e-01 1.028532460331916809e-01 6.655643135309219360e-02 -3.511021286249160767e-02 -6.177542358636856079e-02 -1.452597230672836304e-01 6.658404469490051270e-01 5.153501033782958984e-01 1.079054251313209534e-01 -8.662755787372589111e-02 -3.447714960202574730e-03 -9.647733531892299652e-04 1.289855455979704857e-03
-2.418389730155467987e-02 -2.653637668117880821e-03 3.866795217618346214e-03 -2.374699898064136505e-02 -9.663194417953491211e-03 2.546191811561584473e-01 7.538531720638275146e-02 -8.357068896293640137e-02 2.143117487430572510e-01 -1.162410899996757507e-01 1.955736055970191956e-02 -4.596468061208724976e-02 -3.633083403110504150e-02 -1.033437401056289673e-01 -7.865379750728607178e-02 3.511660173535346985e-02 -1.710641980171203613e-01 -7.610152661800384521e-02 6.510457396507263184e-02 -3.058993443846702576e-02 1.511612907052040100e-02 1.046479307115077972e-02
6.043110508471727371e-03 -1.787870278349146247e-04 1.061331201344728470e-02 2.293111756443977356e-02 -4.313759878277778625e-02 6.723964959383010864e-02 -2.178149968385696411e-01 -4.629667401313781738e-01 -2.339206933975219727e-01 2.619335055351257324e-01 6.715011596679687500e-02 2.544842474162578583e-02 5.143933370709419250e-02 -8.349388092756271362e-02 8.116628229618072510e-02 3.454148173332214355e-01 3.324651718139648438e-01 -3.959903866052627563e-02 -1.340517401695251465e-01 -2.459604060277342796e-03 -5.170497577637434006e-03 -1.563681871630251408e-03
-1.248862594366073608e-02 1.381943654268980026e-02 3.574741305783390999e-03 8.532844483852386475e-03 6.940698251128196716e-03 8.971977233886718750e-02 -1.353296786546707153e-01 -4.856636375188827515e-02 6.153059657663106918e-03 -1.342843053862452507e-03 3.770290687680244446e-02 -9.348441846668720245e-03 -5.857172422111034393e-03 -9.372392669320106506e-03 1.933730691671371460e-01 -5.499093607068061829e-02 -4.249553978443145752e-01 -3.367474973201751709e-01 -2.651752158999443054e-02 5.086192861199378967e-03 -4.880737047642469406e-03 3.412105841562151909e-03
1.537078153342008591e-02 -1.189134269952774048e-02 -1.675557345151901245e-02 -3.132347774226218462e-04 -4.594507068395614624e-02 -2.545431554317474365e-01 2.736548185348510742e-01 -6.321700662374496460e-02 -2.110370546579360962e-01 -1.095276605337858200e-02 -2.549631707370281219e-02 2.785530686378479004e-02 4.666339978575706482e-02 -4.711374640464782715e-02 5.100912973284721375e-02 -1.070507094264030457e-01 1.215119287371635437e-01 4.688362777233123779e-01 4.201288148760795593e-02 3.786210203543305397e-03 -2.396948169916868210e-03 1.856555929407477379e-03
-6.861379742622375488e-02 1.684928662143647671e-03 -5.801144614815711975e-02 8.879870292730629444e-04 6.853403057903051376e-03 2.217595130205154419e-01 -5.309273488819599152e-03 -5.800338834524154663e-02 8.196657523512840271e-03 4.178521409630775452e-02 -3.824920207262039185e-02 4.187831655144691467e-02 -1.297265104949474335e-02 7.289500534534454346e-02 -1.829503178596496582e-01 -3.115040063858032227e-02 -1.668140105903148651e-02 2.569952905178070068e-01 -1.202722731977701187e-02 7.648372091352939606e-03 8.221668191254138947e-03 -2.348668873310089111e-03
3.712665662169456482e-02 -1.192487962543964386e-02 1.430633664131164551e-02 1.462896168231964111e-02 -8.728555589914321899e-02 -1.335362493991851807e-01 3.033618330955505371e-01 5.339406728744506836e-01 2.158482521772384644e-01 -2.400933206081390381e-01 2.552688494324684143e-02 -3.147792071104049683e-02 -2.214478701353073120e-02 3.689309120178222656e+00 -2.301996797323226929e-01 1.424173451960086823e-02 9.617243707180023193e-02 1.816815580241382122e-03 -2.060537785291671753e-01 2.365925116464495659e-03 5.167606752365827560e-03 3.028134582564234734e-03
4.094256088137626648e-02 -5.776500795036554337e-03 2.332796901464462280e-02 7.624230813235044479e-03 -2.028124779462814331e-02 3.096671029925346375e-02 1.282394230365753174e-01 7.448527216911315918e-02 4.064168781042098999e-02 7.698833942413330078e-02 3.971428796648979187e-02 2.405235171318054199e-02 3.036371432244777679e-02 2.287467196583747864e-02 4.042735397815704346e-01 -8.548989146947860718e-02 2.875056862831115723e-02 -6.237731873989105225e-02 6.812283396720886230e-02 9.274763986468315125e-03 -1.605403982102870941e-02 6.015785504132509232e-03
-2.402866259217262268e-02 -1.355251390486955643e-02 4.997835494577884674e-03 -1.815238781273365021e-02 1.616239175200462341e-02 5.022509396076202393e-02 1.742716580629348755e-01 1.597148776054382324e-01 6.087078526616096497e-02 -1.198819950222969055e-01 -6.826019287109375000e-02 1.929831691086292267e-02 8.639207482337951660e-02 -1.039161011576652527e-01 -1.181543688289821148e-03 -4.120492935180664062e-01 -2.667412459850311279e-01 4.839267581701278687e-03 -3.483361750841140747e-02 3.931858576834201813e-03 1.247878390131518245e-04 1.639951136894524097e-03
-6.647740304470062256e-02 7.733069360256195068e-03 -3.306928649544715881e-02 -1.224142033606767654e-02 -2.134054154157638550e-02 1.515078395605087280e-01 -1.103331297636032104e-01 -2.578132152557373047e-01 -1.518043428659439087e-01 6.145068258047103882e-02 -6.142921373248100281e-02 -9.038645774126052856e-03 3.338757157325744629e-02 -6.983966380357742310e-02 7.757947444915771484e-01 1.027974039316177368e-01 1.682390868663787842e-01 1.257349550724029541e-01 4.996627867221832275e-01 -2.857198566198348999e-02 -5.856551695615053177e-03 -5.203864071518182755e-03
-1.475022733211517334e-02 -3.733295714482665062e-03 -3.723222762346267700e-02 -1.808224333217367530e-04 -3.559091314673423767e-02 2.969591133296489716e-02 -2.579602897167205811e-01 -4.234108626842498779e-01 -2.234340757131576538e-01 -1.308580208569765091e-02 -1.763144135475158691e-02 2.162246778607368469e-02 5.078332964330911636e-03 -2.545586787164211273e-02 1.018565073609352112e-01 -1.415680646896362305e-01 -2.549854516983032227e-01 -3.875410258769989014e-01 4.162462949752807617e-01 2.684736857190728188e-03 2.157958922907710075e-03 1.065023709088563919e-03
-7.735243998467922211e-03 -5.298089701682329178e-03 -3.650913387537002563e-02 9.297451935708522797e-03 -3.349617868661880493e-02 1.020310521125793457e-01 1.066831946372985840e-01 -2.557746693491935730e-02 -5.719438940286636353e-02 1.975422948598861694e-01 -7.352957874536514282e-02 5.168668925762176514e-02 2.525657415390014648e-02 -8.740869909524917603e-02 -7.417815178632736206e-02 1.425646827556192875e-03 9.733045846223831177e-02 -6.857042014598846436e-02 1.882433891296386719e-01 -2.160624368116259575e-03 2.281692577525973320e-03 -9.612544090487062931e-04
1.164147406816482544e-01 -1.482058200053870678e-03 8.422006666660308838e-02 9.952651336789131165e-03 -1.022509578615427017e-02 -1.508280634880065918e-01 -2.770087718963623047e-01 1.411178149282932281e-02 -7.098212093114852905e-02 2.424605935811996460e-01 2.669578604400157928e-02 2.422917867079377174e-03 2.292392589151859283e-02 4.940465837717056274e-02 9.856680780649185181e-02 6.518041342496871948e-02 3.020929396152496338e-01 1.934406310319900513e-01 -2.001836597919464111e-01 -3.006580751389265060e-03 3.517751756589859724e-04 9.870856069028377533e-03
7.572503387928009033e-02 7.933325134217739105e-03 3.774382546544075012e-02 1.511429902166128159e-03 -4.593242704868316650e-02 1.453998535871505737e-01 1.926950737833976746e-02 4.294387251138687134e-02 6.628282368183135986e-02 1.554517447948455811e-01 -1.209788694977760315e-01 -1.692218892276287079e-02 1.819978095591068268e-02 3.307816758751869202e-02 5.174079418182373047e+00 -4.654356837272644043e-02 5.818610638380050659e-02 -1.508083101361989975e-02 -4.152049541473388672e+00 1.426936779171228409e-02 1.046598888933658600e-02 1.737389340996742249e-02
7.595194131135940552e-02 -1.992479199543595314e-03 1.690131053328514099e-02 1.616758480668067932e-02 -4.326926544308662415e-02 -1.463592946529388428e-01 -1.671413704752922058e-02 -1.821653842926025391e-01 -1.393052637577056885e-01 -1.864078491926193237e-01 4.966145008802413940e-02 3.982147201895713806e-02 -2.642649784684181213e-02 -6.825106590986251831e-02 -2.470470208209007978e-04 3.501586914062500000e-01 5.045812726020812988e-01 -9.090480953454971313e-02 -3.667822480201721191e-02 -4.033792763948440552e-03 1.794929150491952896e-03 5.530335474759340286e-04
-1.065575890243053436e-02 3.246964886784553528e-03 2.488281577825546265e-02 -5.302738863974809647e-03 -1.787075996398925781e-01 -2.022081986069679260e-02 -5.826557055115699768e-02 -4.565205797553062439e-02 2.996211871504783630e-03 1.602491438388824463e-01 5.178470164537429810e-02 4.669689759612083435e-02 2.650577761232852936e-02 1.951308250427246094e+01 8.455634117126464844e-02 -5.124517530202865601e-02 3.165245801210403442e-02 4.510617256164550781e-02 -1.052859425544738770e-01 3.807974513620138168e-03 -1.786724105477333069e-02 -3.063558135181665421e-03
-8.247318863868713379e-02 1.486680586822330952e-03 -7.178556919097900391e-02 -3.930699452757835388e-02 -2.692202106118202209e-02 3.537153303623199463e-01 -1.799323707818984985e-01 -6.369008123874664307e-02 -1.989853382110595703e-01 -7.295054942369461060e-02 1.772239990532398224e-02 1.581195928156375885e-02 -3.279533237218856812e-02 -1.914252899587154388e-02 2.379366755485534668e-02 2.286505997180938721e-01 -3.394761085510253906e-01 3.542695939540863037e-01 4.486594349145889282e-02 -8.159461431205272675e-03 -2.301756758242845535e-03 3.437499748542904854e-03
-3.458973718807101250e-03 8.507121354341506958e-03 -5.102085415273904800e-04 -2.118408866226673126e-02 -3.308780118823051453e-02 -1.641924828290939331e-01 1.240400150418281555e-01 7.596288621425628662e-02 -1.703532189130783081e-01 9.331985563039779663e-02 5.502881109714508057e-02 -7.493278384208679199e-02 4.761749878525733948e-02 2.907141484320163727e-02 -2.297320403158664703e-02 -2.055873870849609375e-01 -2.814175188541412354e-01 2.415675297379493713e-02 -1.447860896587371826e-02 1.702986471354961395e-02 -1.759957894682884216e-02 5.784058477729558945e-03
-4.415701329708099365e-02 -3.544276114553213120e-03 -2.251049876213073730e-02 4.669728688895702362e-03 2.268847450613975525e-02 -2.049683332443237305e-01 -1.326979398727416992e-01 -7.375590503215789795e-02 -5.320370569825172424e-02 -1.218294650316238403e-01 1.102254018187522888e-01 -8.369380235671997070e-02 1.098834350705146790e-02 3.451798693276941776e-04 -1.481038518249988556e-02 -1.093639433383941650e-01 1.010826379060745239e-01 -3.647812176495790482e-03 -1.715201735496520996e+00 -1.599586755037307739e-02 -4.425016231834888458e-04 -5.990815698169171810e-04
-7.496140152215957642e-02 7.119155954569578171e-03 -4.656907171010971069e-02 -3.004102222621440887e-02 2.884879941120743752e-03 1.890214532613754272e-01 5.518887639045715332e-01 4.267835617065429688e-01 1.013316437602043152e-01 -3.891794979572296143e-01 -3.808760643005371094e-02 -6.833598017692565918e-02 1.024002954363822937e-02 -1.372955366969108582e-02 1.498625874519348145e-01 1.432255208492279053e-01 4.643912240862846375e-02 2.778170630335807800e-02 2.397232502698898315e-02 -1.783507643267512321e-03 1.014751847833395004e-02 -7.391277700662612915e-03
4.546426609158515930e-02 -1.333401910960674286e-02 3.442567959427833557e-02 8.848722092807292938e-03 1.969570107758045197e-02 1.507712155580520630e-01 4.357621446251869202e-02 4.820224270224571228e-02 -3.376149013638496399e-02 3.605108335614204407e-02 -3.913511335849761963e-02 -8.526161313056945801e-02 -4.782905429601669312e-02 -2.808679826557636261e-02 8.270747959613800049e-02 -7.372805476188659668e-02 -1.680621802806854248e-01 -4.652116447687149048e-02 5.512553080916404724e-02 1.722197420895099640e-02 -2.091605775058269501e-02 -2.315580844879150391e-03
-4.280720278620719910e-02 -6.435650400817394257e-03 -5.756626836955547333e-03 3.988875076174736023e-03 2.462352067232131958e-02 1.360012888908386230e-01 -1.256232857704162598e-01 -1.376964449882507324e-01 -4.756132513284683228e-02 1.063452810049057007e-01 8.400562405586242676e-02 -6.025337800383567810e-02 2.217324363300576806e-04 4.253302759025245905e-04 4.000566899776458740e-01 1.029236689209938049e-01 2.659788727760314941e-01 -4.228133708238601685e-02 -3.233652710914611816e-01 -3.883650060743093491e-03 8.922454901039600372e-03 5.825114902108907700e-03
-2.550204982981085777e-03 7.293426897376775742e-03 -6.309348624199628830e-03 -9.872466325759887695e-03 1.111085247248411179e-02 1.231867074966430664e-02 -2.188930213451385498e-01 -6.367175281047821045e-02 -2.544461563229560852e-02 -1.773979812860488892e-01 -2.821806818246841431e-02 1.047699376940727234e-01 -3.586841374635696411e-02 5.686018243432044983e-02 -5.991330370306968689e-02 -1.446165293455123901e-01 -2.317014187574386597e-01 -1.443861275911331177e-01 1.293381862342357635e-02 -1.877791248261928558e-03 2.902728447224944830e-04 -4.990876652300357819e-03
-7.344935834407806396e-02 -3.619475988671183586e-03 -5.489711463451385498e-02 -2.880546450614929199e-02 -5.818593874573707581e-02 4.177875816822052002e-02 -1.912106573581695557e-01 -3.147441148757934570e-02 9.161539375782012939e-02 2.319249324500560760e-02 -4.449059441685676575e-02 3.476348146796226501e-02 3.011014871299266815e-02 -4.685828685760498047e-01 -1.225668042898178101e-01 1.169485822319984436e-01 -4.979070276021957397e-02 6.126656755805015564e-02 3.343673888593912125e-03 -3.270809073001146317e-03 -5.176991224288940430e-03 9.747358853928744793e-04
