3.011298365890979767e-02 -9.510187432169914246e-03 -1.275742352008819580e-01 -2.989258244633674622e-02 3.640891984105110168e-02 -2.012451142072677612e-01 2.710226058959960938e+00 -3.121126675978302956e-03 -3.704703121911734343e-04 2.581394463777542114e-02 -3.534204363822937012e-01 -5.928182508796453476e-03 -1.057034358382225037e-02 -2.052445895969867706e-02 -3.182595968246459961e-02 8.936721086502075195e-02 -1.012317929416894913e-02 -1.500571250915527344e+00 -1.204433757811784744e-02 -1.820146292448043823e-02 -4.591385647654533386e-02 3.991272300481796265e-02 -1.813262328505516052e-02 -5.509115010499954224e-02 3.867414966225624084e-02 -1.650091633200645447e-02 1.488897763192653656e-02 -3.182098269462585449e-02 1.067351818084716797e+00 -1.160732749849557877e-02 -3.568208590149879456e-02 1.867062784731388092e-02 -1.552976250648498535e+00 -4.682072997093200684e-02 1.064135809428989887e-03 5.878373980522155762e-03 3.114225715398788452e-02 -1.559698879718780518e-01 -3.781639337539672852e-01 1.053582653403282166e-01 -2.797999978065490723e-02 -7.658693939447402954e-02 8.161649107933044434e-02 -2.526147477328777313e-02 -2.119211293756961823e-02 -2.908968627452850342e-01 -3.293450921773910522e-02 -3.962122276425361633e-02 9.128770232200622559e-01 9.737033396959304810e-03 1.556577682495117188e-01 -4.624208211898803711e-01 1.883490569889545441e-02 -1.133688376285135746e-03 4.346942901611328125e-02 6.490319222211837769e-02 4.141757264733314514e-02 7.004579901695251465e-02 -1.307167410850524902e-01 1.468463093042373657e-01 -8.822720646858215332e-01 2.457089489325881004e-03 9.151572585105895996e-01 -2.241622097790241241e-02 -9.099571965634822845e-03 1.996457934379577637e+00 -2.343490486964583397e-03 1.126737236976623535e+00 -3.405941426753997803e-01 5.030369758605957031e-01 -1.261601876467466354e-02 1.544204726815223694e-02 -6.825103759765625000e-01 -4.686445929110050201e-03 -1.009171362966299057e-02 1.266709156334400177e-02 1.006547454744577408e-02 1.372714191675186157e-01 -3.025236725807189941e-02 6.827122569084167480e-01 -3.620307892560958862e-02 2.281703710556030273e+00 1.936566382646560669e-01 3.914545178413391113e-01 -1.397180408239364624e-01 -1.695390790700912476e-01 -1.416861359030008316e-02 -9.602593258023262024e-03 3.004233352839946747e-02 -4.769307374954223633e-02 -7.586960196495056152e-01 -9.014922380447387695e-01 7.724002934992313385e-03 -3.073743311688303947e-03 -1.165942847728729248e-02 -2.866024896502494812e-02 1.409240663051605225e-01 -1.534309703856706619e-02 -8.053031750023365021e-03 6.286114454269409180e-02 -8.562647551298141479e-02 -5.428424477577209473e-02 -2.212870866060256958e-02 1.933808234753087163e-04 5.228804051876068115e-02 -1.185497152619063854e-03 -1.197289109230041504e+00 9.474779367446899414e-01 -2.983379960060119629e-01 9.566958993673324585e-02 6.141485646367073059e-03 -1.748957112431526184e-02 1.248515956103801727e-02 -4.653242649510502815e-04 -2.108804695308208466e-02 -2.935545444488525391e-01 1.518496125936508179e-01 2.704981155693531036e-02 -3.089762628078460693e-01 -1.075169667601585388e-01 7.468056399375200272e-03 -4.991478845477104187e-02 5.101152695715427399e-03 -3.883762955665588379e-01 -1.602420508861541748e-01 1.941298097372055054e-01 -4.747513309121131897e-02 -3.586579114198684692e-03
1.075140461325645447e-01 -4.536407813429832458e-02 -5.051502585411071777e-01 -2.721697837114334106e-02 -5.199987441301345825e-02 -6.903675943613052368e-02 4.100504815578460693e-01 7.441624999046325684e-02 -3.265804797410964966e-02 -1.698200777173042297e-02 1.360249053686857224e-02 1.803491450846195221e-02 7.819742895662784576e-03 -7.970833219587802887e-03 3.891730215400457382e-03 -2.563462965190410614e-02 -2.072243206202983856e-02 2.947493195533752441e-01 -6.299795117229223251e-03 -1.805937662720680237e-02 1.141810696572065353e-02 6.623119115829467773e-02 -5.890266597270965576e-02 3.727812767028808594e-01 5.429298803210258484e-02 5.646646767854690552e-02 -5.358324199914932251e-02 4.340162035077810287e-03 -1.555791050195693970e-01 -2.144631929695606232e-02 8.995540440082550049e-03 3.529818262904882431e-03 3.699733018875122070e-01 2.303993888199329376e-02 -8.031315356492996216e-02 -2.838499378412961960e-03 -1.491258107125759125e-02 -5.007874220609664917e-02 1.981497853994369507e-01 -5.971655845642089844e-01 2.686073444783687592e-02 -1.516788363456726074e+00 -2.126894891262054443e-02 -4.328121896833181381e-03 -1.010716985911130905e-02 1.421055346727371216e-01 1.934868656098842621e-02 1.236607413738965988e-02 -2.436236105859279633e-02 -3.059579432010650635e-02 5.406249687075614929e-02 1.847869157791137695e-01 -8.592465892434120178e-03 -7.126194890588521957e-03 1.390696386806666851e-03 1.025201752781867981e-01 3.604693803936243057e-03 1.283729523420333862e-01 2.227572947740554810e-01 -1.080857157707214355e+00 -7.506494969129562378e-02 -1.043870858848094940e-02 1.344968914985656738e+00 -1.324828527867794037e-02 6.849461048841476440e-02 6.650590151548385620e-02 9.752914309501647949e-02 6.570722460746765137e-01 9.269562959671020508e-01 2.215775549411773682e-01 9.487791918218135834e-03 -1.338732149451971054e-02 1.627838253974914551e+00 1.077817752957344055e-02 -3.799435123801231384e-02 4.176139533519744873e-01 1.429390977136790752e-03 -1.891264617443084717e-01 -2.267976291477680206e-02 -1.133951917290687561e-02 1.372533384710550308e-02 -3.409739434719085693e-01 -2.510137856006622314e-01 -2.512954548001289368e-02 2.753074094653129578e-02 -1.472634077072143555e+00 -4.023943841457366943e-02 -1.684051752090454102e-02 -3.631294518709182739e-02 1.130038425326347351e-01 6.328504681587219238e-01 3.089718520641326904e-02 -2.177446521818637848e-02 2.540837824344635010e-01 -1.152660995721817017e-01 -2.904539555311203003e-02 7.861549407243728638e-02 -6.379877030849456787e-02 -9.327376261353492737e-03 8.889205753803253174e-02 -3.793542981147766113e-01 -6.458355486392974854e-02 -1.386355143040418625e-02 4.051692783832550049e-02 9.565035253763198853e-02 -1.587266474962234497e-02 -2.755905687808990479e-01 -2.063031792640686035e-01 8.227655291557312012e-01 -3.305702507495880127e-01 -6.358677148818969727e-02 3.804922476410865784e-02 -1.075170747935771942e-02 2.253472059965133667e-02 6.823693402111530304e-03 -9.159234352409839630e-03 -1.446966640651226044e-02 8.964616805315017700e-03 3.006224632263183594e-01 -8.368697017431259155e-02 4.143191874027252197e-02 -1.234021857380867004e-01 -4.747226834297180176e-02 9.797980636358261108e-02 4.013871774077415466e-02 1.043217480182647705e-01 1.047417614609003067e-02 -3.718248009681701660e-02
2.567918300628662109e-01 -1.962586073204874992e-03 -3.148944303393363953e-02 6.402665749192237854e-03 -1.159463450312614441e-02 -2.593472003936767578e-01 2.181795984506607056e-01 7.909001782536506653e-03 -1.530098356306552887e-02 1.076149847358465195e-02 -1.073919087648391724e-01 7.274603471159934998e-03 1.518706441856920719e-03 -6.588488817214965820e-03 -7.245029509067535400e-02 2.527640201151371002e-02 1.815173774957656860e-03 3.653935790061950684e-01 -1.389591372571885586e-03 1.502117607742547989e-02 -1.688166754320263863e-03 8.459807373583316803e-03 -4.439619928598403931e-02 2.357780560851097107e-02 -1.238923578057438135e-04 -3.140546381473541260e-02 5.179044324904680252e-03 -1.505099330097436905e-02 -2.437806576490402222e-01 -2.585307694971561432e-02 2.219248563051223755e-02 -1.368776545859873295e-03 -8.980391547083854675e-03 8.111082017421722412e-02 1.666200719773769379e-02 -4.347363952547311783e-03 -2.196484245359897614e-02 -5.676146224141120911e-02 1.309675574302673340e-01 -5.370043963193893433e-02 4.884469136595726013e-02 -1.784417927265167236e-01 -1.037010699510574341e-01 -2.951911464333534241e-02 2.250930294394493103e-03 1.560934185981750488e-01 -4.370178095996379852e-03 1.773127540946006775e-02 -7.945951819419860840e-02 2.233558893203735352e-02 2.367118448019027710e-01 -2.223959416151046753e-01 1.028276979923248291e-02 -1.056152861565351486e-02 3.882741089910268784e-03 3.655653446912765503e-02 -2.196195349097251892e-02 3.069279715418815613e-02 1.253234744071960449e-01 2.360109053552150726e-02 7.095984369516372681e-02 -7.550650276243686676e-03 -8.626480400562286377e-02 -1.664733700454235077e-02 6.183871533721685410e-03 6.995714269578456879e-03 9.573739953339099884e-04 7.565358281135559082e-02 7.601268589496612549e-03 -3.098840126767754555e-03 -1.256562862545251846e-02 -6.153788045048713684e-02 4.411137476563453674e-02 -1.645793020725250244e-02 -5.533378571271896362e-03 -6.493838131427764893e-02 1.977292122319340706e-03 1.246470957994461060e-01 7.206983398646116257e-03 1.004209965467453003e-01 -3.929969854652881622e-03 -3.184564411640167236e-02 9.566444903612136841e-03 1.080073714256286621e-01 -2.885104855522513390e-03 1.363408267498016357e-01 1.548340823501348495e-02 6.962940096855163574e-03 2.762216608971357346e-03 -2.585582733154296875e-01 -1.148157045245170593e-01 -4.089723806828260422e-03 3.469576826319098473e-03 1.325918287038803101e-01 6.722141988575458527e-03 -9.451139718294143677e-03 -2.619481831789016724e-02 -8.955169469118118286e-03 8.492816239595413208e-03 1.601304486393928528e-02 5.800064653158187866e-02 -5.148573219776153564e-02 -6.330871954560279846e-03 -7.831525988876819611e-03 -9.941006451845169067e-02 1.083628926426172256e-02 1.493923068046569824e+00 2.737236618995666504e-01 -1.499891281127929688e-02 -8.497324585914611816e-02 1.513255573809146881e-02 1.422946806997060776e-02 -1.496985089033842087e-02 1.655069552361965179e-02 2.556909061968326569e-02 8.048810064792633057e-02 7.206539809703826904e-02 -3.472758224233984947e-03 1.109099537134170532e-01 5.535412207245826721e-02 -1.438796613365411758e-02 -4.344896972179412842e-02 -4.469329956918954849e-03 2.185384333133697510e-01 -1.632444709539413452e-01 -2.705923318862915039e-01 2.470736205577850342e-02 -3.207655251026153564e-02
3.154189586639404297e-01 -1.740568503737449646e-02 -2.338397651910781860e-01 2.248928649351000786e-03 2.146075712516903877e-03 1.106388587504625320e-02 1.619410812854766846e-01 -1.300685293972492218e-02 -3.379867179319262505e-03 1.449287496507167816e-02 -5.773358419537544250e-02 -1.928666792809963226e-02 3.001094097271561623e-03 -7.795405574142932892e-03 -8.113580942153930664e-02 -1.336841378360986710e-03 6.218493799678981304e-04 5.631613135337829590e-01 4.143150988966226578e-03 9.847230277955532074e-03 1.060262415558099747e-02 8.752262219786643982e-03 8.006485179066658020e-03 9.958074241876602173e-02 -1.983791589736938477e-04 -1.935973763465881348e-02 -2.199832350015640259e-02 8.576551452279090881e-03 -1.576920747756958008e-01 -2.303293161094188690e-02 6.866483949124813080e-03 -1.009513437747955322e-02 -3.177809715270996094e-02 1.164117678999900818e-01 -5.898141534999012947e-04 -1.829747483134269714e-02 -8.819919079542160034e-03 1.321779005229473114e-02 -2.911695241928100586e-01 -1.159191802144050598e-01 3.582420572638511658e-02 4.354488477110862732e-02 1.243821531534194946e-01 -1.009966526180505753e-02 1.014694478362798691e-02 -9.907698631286621094e-02 3.719279775395989418e-03 3.905664663761854172e-03 7.966980338096618652e-01 -2.311598695814609528e-02 2.131778001785278320e-01 9.834540635347366333e-02 1.222257222980260849e-02 -1.007240638136863708e-02 -6.284723058342933655e-03 1.126230787485837936e-02 6.878816522657871246e-03 -4.998511075973510742e-02 2.771409228444099426e-02 -7.034761309623718262e-01 3.918952494859695435e-02 -4.433563444763422012e-03 -1.555466502904891968e-01 -5.174327641725540161e-03 -4.046451766043901443e-03 -7.681891787797212601e-03 -4.210875928401947021e-02 8.914503455162048340e-02 -1.669950317591428757e-03 -6.595367193222045898e-02 -5.649793427437543869e-03 1.019659545272588730e-02 3.080609440803527832e-01 -1.694447244517505169e-03 -3.718971493071876466e-05 -1.564193814992904663e-01 2.556092571467161179e-03 -1.765282452106475830e-01 2.652543364092707634e-03 -1.517910230904817581e-02 -1.336395158432424068e-03 -6.930467486381530762e-02 -4.224119335412979126e-02 -1.367225199937820435e-01 4.066722933202981949e-03 2.279976308345794678e-01 7.799985818564891815e-03 7.895757444202899933e-03 2.094627730548381805e-02 -1.599489152431488037e-01 4.058611020445823669e-02 -5.020784586668014526e-02 2.274071797728538513e-03 5.404525995254516602e-02 2.887254022061824799e-02 1.195380184799432755e-02 -1.574501395225524902e-03 1.054648892022669315e-03 -3.589866915717720985e-03 4.565514624118804932e-02 4.117525741457939148e-02 5.055767484009265900e-03 8.689264766871929169e-03 8.214011788368225098e-03 -1.251518353819847107e-02 -4.553548526018857956e-03 1.155560016632080078e+00 5.034269094467163086e-01 -1.233646348118782043e-01 -7.350504398345947266e-02 -3.291167551651597023e-03 -9.074506349861621857e-03 4.797751829028129578e-02 4.165340680629014969e-03 -1.452296134084463120e-02 4.618185013532638550e-02 4.809701815247535706e-02 -8.309053257107734680e-03 1.927101761102676392e-01 7.911942154169082642e-02 -1.463877782225608826e-02 2.024361165240406990e-03 2.571712806820869446e-02 2.385845333337783813e-01 -2.016521096229553223e-01 -1.973062753677368164e-01 1.760735735297203064e-02 -7.668341509997844696e-03
3.893330097198486328e-01 -4.136066511273384094e-02 -1.344337016344070435e-01 -1.004299148917198181e-02 3.412088146433234215e-03 2.016173601150512695e-01 1.207415536046028137e-01 -2.386623062193393707e-02 -1.515972311608493328e-03 -2.477733651176095009e-03 2.737409807741641998e-02 1.707666367292404175e-02 -2.931569330394268036e-02 -7.663487922400236130e-03 -2.904644235968589783e-02 5.459334701299667358e-03 -4.278964363038539886e-03 -4.835961461067199707e-01 4.978166893124580383e-03 5.386302247643470764e-03 1.224258169531822205e-02 -3.132322430610656738e-01 1.986322458833456039e-03 1.211427450180053711e-01 -1.099086645990610123e-02 -3.733900561928749084e-02 -1.641481555998325348e-02 6.094851996749639511e-04 -9.161383658647537231e-02 -1.308108679950237274e-02 1.367176417261362076e-02 -2.183620817959308624e-03 -6.618517637252807617e-02 -7.767777889966964722e-03 1.211896724998950958e-02 -2.861397154629230499e-02 8.429197594523429871e-03 -5.565391108393669128e-02 -7.079440355300903320e-01 1.427665911614894867e-02 2.150291576981544495e-02 6.246811747550964355e-01 -1.931270956993103027e-01 -1.398330088704824448e-02 5.685890093445777893e-03 2.108239196240901947e-02 -3.741998691111803055e-03 -2.061502775177359581e-03 -9.796366095542907715e-01 1.284376438707113266e-02 4.111115038394927979e-01 -3.635796308517456055e-01 -1.186215318739414215e-02 -1.287416461855173111e-02 -2.945604268461465836e-03 1.941325142979621887e-02 -1.427034195512533188e-02 -1.182978786528110504e-02 8.096093311905860901e-03 3.076874613761901855e-01 6.517814844846725464e-02 -5.278002936393022537e-03 6.804172396659851074e-01 4.221026320010423660e-03 9.901722893118858337e-03 -7.887034118175506592e-02 -3.740115836262702942e-02 2.791455090045928955e-01 2.348474562168121338e-01 5.760178714990615845e-02 1.112699508666992188e-02 -3.875955194234848022e-02 3.515664935111999512e-01 -1.131243258714675903e-02 -1.126513909548521042e-02 -2.126749791204929352e-02 1.258542295545339584e-02 8.552406430244445801e-01 -2.269532706122845411e-04 -1.293246984481811523e+00 -2.846619812771677971e-03 -5.616015940904617310e-02 6.866986155509948730e-01 -6.856880784034729004e-01 5.721657071262598038e-03 1.933337748050689697e-02 1.031103078275918961e-02 5.847154185175895691e-03 -1.576003804802894592e-02 -3.090719282627105713e-01 5.729703307151794434e-01 -4.465401289053261280e-04 -3.928368445485830307e-03 1.163518577814102173e-01 5.668281391263008118e-02 6.762618198990821838e-03 8.153752237558364868e-02 -2.393528819084167480e-02 -1.448573730885982513e-02 1.904040127992630005e-01 3.994768857955932617e-02 -5.432139150798320770e-03 -6.664878223091363907e-03 -1.020416244864463806e-02 -1.883401907980442047e-02 -4.626781679689884186e-03 1.338726878166198730e+00 2.124095261096954346e-01 2.372268587350845337e-01 -6.273634731769561768e-02 -4.036207497119903564e-02 -2.403041906654834747e-02 8.287604898214340210e-02 -5.397959612309932709e-03 -1.096313912421464920e-02 5.406887456774711609e-02 -3.976323176175355911e-03 1.533640921115875244e-02 4.274974465370178223e-01 -5.721253156661987305e-02 -1.749888435006141663e-02 6.117421668022871017e-03 -3.054658137261867523e-02 3.304243981838226318e-01 -1.853314787149429321e-01 -1.815052628517150879e-01 9.955350309610366821e-03 -2.781202085316181183e-02
-1.432761922478675842e-02 2.288076793774962425e-03 -6.202964186668395996e-01 -8.385838009417057037e-03 -1.049630343914031982e-02 5.490497499704360962e-02 1.354644596576690674e-01 -3.341090381145477295e-01 2.204405143857002258e-03 -3.430061740800738335e-03 3.541636839509010315e-02 -2.951595466583967209e-03 4.566311836242675781e-03 4.230645950883626938e-03 1.311897188425064087e-01 7.800774648785591125e-03 -1.814569346606731415e-03 1.050450131297111511e-01 -2.879094332456588745e-03 1.296922564506530762e-02 1.598331145942211151e-03 9.973398409783840179e-03 -2.775687025859951973e-03 3.623044118285179138e-02 3.421233734115958214e-03 1.014775596559047699e-03 1.702093333005905151e-02 2.588543575257062912e-03 -7.392410188913345337e-02 -7.793412078171968460e-03 6.210139021277427673e-03 -7.196189253591001034e-04 1.129004806280136108e-01 -1.394896022975444794e-02 -7.754590827971696854e-03 1.639287360012531281e-02 -3.849940141662955284e-03 -3.773623332381248474e-02 7.539156824350357056e-02 -1.046832919120788574e+00 8.754931390285491943e-03 -1.337051391601562500e-02 -1.868306696414947510e-01 4.593149293214082718e-03 9.804903529584407806e-03 6.389994639903306961e-03 4.702362697571516037e-03 5.611252505332231522e-03 -4.859593212604522705e-01 -3.113320283591747284e-02 4.231807217001914978e-02 -3.237989172339439392e-02 -1.501137297600507736e-02 2.700107404962182045e-03 -2.291767857968807220e-03 -3.190432325936853886e-04 7.138138636946678162e-03 -3.151283562183380127e-01 9.826264977455139160e-01 -4.217823222279548645e-02 2.819393202662467957e-02 3.010766580700874329e-03 8.324559777975082397e-02 4.614336416125297546e-03 6.988057866692543030e-03 -2.720335498452186584e-02 2.256646379828453064e-02 5.895475149154663086e-01 4.447210133075714111e-01 5.946850776672363281e-02 2.509186742827296257e-04 -1.767300069332122803e-02 9.315876364707946777e-01 -2.408662810921669006e-03 -7.399698370136320591e-04 1.338591612875461578e-02 -1.178695075213909149e-02 -3.758156299591064453e-02 1.252559479326009750e-03 -1.362967789173126221e-01 -4.308409988880157471e-03 -5.427768081426620483e-02 -1.176885515451431274e-01 4.703498631715774536e-02 1.022197399288415909e-02 -9.330303072929382324e-01 -7.573819253593683243e-03 1.353461015969514847e-02 2.214222215116024017e-03 6.623352319002151489e-02 3.636512160301208496e-02 3.057855181396007538e-02 3.699047118425369263e-02 2.690621614456176758e-01 1.651566922664642334e-01 2.663982799276709557e-03 -5.301703885197639465e-02 1.707382686436176300e-02 1.380985509604215622e-02 4.379872605204582214e-02 -4.040555283427238464e-02 -1.336524635553359985e-02 2.142972545698285103e-03 5.649409256875514984e-03 -2.095988485962152481e-03 -5.381617229431867599e-03 -1.025050804018974304e-01 -1.017178893089294434e-01 -1.356670498847961426e+00 -1.421747207641601562e-01 1.575623080134391785e-02 -1.389563176780939102e-02 -5.711068958044052124e-02 8.623513393104076385e-03 -5.145348142832517624e-03 1.331978887319564819e-01 5.279843229800462723e-03 -4.570889286696910858e-03 -2.266565263271331787e-01 -3.154703602194786072e-02 7.793386466801166534e-03 3.689523320645093918e-03 8.482603356242179871e-03 -5.503917858004570007e-02 -1.700573228299617767e-02 1.616962999105453491e-02 -8.202211931347846985e-03 -1.856557093560695648e-02
1.559444963932037354e-01 -1.534734219312667847e-01 -6.763163208961486816e-01 5.021997094154357910e-01 -1.339682936668395996e+00 1.411021828651428223e+00 -2.555950164794921875e+00 2.123252600431442261e-01 -8.140648603439331055e-01 -2.576250731945037842e-01 -4.781864643096923828e+00 -1.552384972572326660e+00 6.672152280807495117e-01 7.209359407424926758e-01 -3.324476182460784912e-01 2.245331525802612305e+00 3.601688444614410400e-01 1.301812827587127686e-01 -1.612404286861419678e-01 -1.071794390678405762e+00 -1.088044404983520508e+00 1.157307922840118408e-01 -1.864758253097534180e+00 -9.434466361999511719e-01 -1.625119447708129883e-01 -1.434026598930358887e+00 1.559439450502395630e-01 -1.180380940437316895e+00 1.430325746536254883e+00 1.402207493782043457e+00 -1.210103869438171387e+00 1.599505990743637085e-01 -7.658897042274475098e-01 1.848728895187377930e+00 3.062383532524108887e-01 -1.031762838363647461e+00 1.038704752922058105e+00 2.859837770462036133e+00 1.926724433898925781e+00 1.389029860496520996e+00 -1.430188775062561035e+00 -1.532189488410949707e+00 -1.682111620903015137e+00 -2.041229724884033203e+00 2.369016110897064209e-01 -9.026544094085693359e-01 -2.164207845926284790e-01 -1.743036359548568726e-01 -6.198716163635253906e-01 -1.092815399169921875e+00 -2.101476669311523438e+00 9.124281406402587891e-01 -5.523843169212341309e-01 -3.162867128849029541e-01 -2.592272281646728516e+00 -1.032930135726928711e+00 -1.221707463264465332e+00 -4.405840933322906494e-01 -8.263157010078430176e-01 -9.916556477546691895e-01 -2.525224924087524414e+00 -1.038097620010375977e+00 1.753810167312622070e+00 -8.982025384902954102e-01 -1.565538167953491211e+00 -1.042765378952026367e+00 4.246381223201751709e-01 -1.095928788185119629e+00 1.627583742141723633e+00 -4.936675727367401123e-01 -8.794856667518615723e-01 1.141312956809997559e+00 6.642443686723709106e-02 5.708294510841369629e-01 1.350062727928161621e+00 -1.231330394744873047e+00 -1.107119202613830566e+00 1.066264271736145020e+00 -2.895736396312713623e-01 -1.033319950103759766e+00 -8.183894157409667969e-01 1.815709352493286133e+00 1.294312238693237305e+00 1.636506915092468262e-01 4.751141369342803955e-02 -8.255518078804016113e-01 -8.733272552490234375e-04 -5.076057910919189453e-01 1.043544173240661621e+00 3.865280747413635254e-01 1.301082037389278412e-02 6.223065257072448730e-01 -2.586819827556610107e-01 8.824515342712402344e-01 3.665687516331672668e-02 -7.643843293190002441e-01 1.393263220787048340e+00 1.438351750373840332e+00 1.383327990770339966e-01 6.801081299781799316e-01 -1.752980828285217285e+00 8.591808378696441650e-02 4.167357087135314941e-01 3.321337401866912842e-01 -2.159196615219116211e+00 3.726555779576301575e-02 1.164696693420410156e+00 -1.672700405120849609e+00 -1.432500123977661133e+00 -3.935947716236114502e-01 -7.454509139060974121e-01 6.282881498336791992e-01 1.628172844648361206e-01 7.334311008453369141e-01 5.046924352645874023e-01 -9.269503951072692871e-01 1.044990539550781250e+00 6.077145338058471680e-01 -5.809874534606933594e-01 2.650629758834838867e+00 5.742796063423156738e-01 -1.351464509963989258e+00 2.249086856842041016e+00 -9.216317534446716309e-01 -2.554620265960693359e+00 1.162105083465576172e+00 -1.003560900688171387e+00 1.042254447937011719e+00
-2.028934471309185028e-02 -4.557601511478424072e-01 -1.287601351737976074e+00 3.607558906078338623e-01 -1.234101891517639160e+00 1.089947223663330078e+00 -1.091783046722412109e+00 4.641395509243011475e-01 -4.647412598133087158e-01 -3.464642465114593506e-01 -4.661724567413330078e+00 -1.500136256217956543e+00 5.297091603279113770e-01 7.020393013954162598e-01 -9.716331362724304199e-01 1.881821990013122559e+00 1.362981498241424561e-01 -3.213096857070922852e-01 6.641510874032974243e-02 -8.646752834320068359e-01 -1.375600695610046387e+00 2.530816495418548584e-01 -1.503127932548522949e+00 -7.949947714805603027e-01 1.671872474253177643e-02 -1.277773737907409668e+00 -3.344513475894927979e-02 -9.505240321159362793e-01 1.261280298233032227e+00 1.278795719146728516e+00 -1.059806466102600098e+00 3.935352861881256104e-01 -1.161866307258605957e+00 1.485169529914855957e+00 6.633583903312683105e-01 -1.006453871726989746e+00 1.219132304191589355e+00 1.870700836181640625e+00 1.733089089393615723e+00 1.458657503128051758e+00 -9.064648747444152832e-01 -1.198267817497253418e+00 -1.467095971107482910e+00 -1.608068346977233887e+00 5.865583419799804688e-01 -1.228168487548828125e+00 -1.697961427271366119e-02 -3.722374439239501953e-01 -8.603729605674743652e-01 -7.669074535369873047e-01 -1.242433428764343262e+00 5.947194099426269531e-01 -2.994073927402496338e-01 -1.829824149608612061e-01 -2.461453437805175781e+00 -1.068378210067749023e+00 -1.276311874389648438e+00 2.000148221850395203e-02 -4.733051657676696777e-01 -5.273649096488952637e-01 -7.189843058586120605e-02 -1.083851099014282227e+00 9.488130807876586914e-01 -7.413475513458251953e-01 -1.330720901489257812e+00 -4.649187028408050537e-01 6.798675656318664551e-01 -1.024316906929016113e+00 2.152580738067626953e+00 -5.890961885452270508e-01 -8.107865452766418457e-01 1.468722581863403320e+00 3.442215919494628906e-01 5.438950061798095703e-01 1.003065705299377441e+00 -7.942398190498352051e-01 -9.520648717880249023e-01 1.398674845695495605e+00 -3.997297883033752441e-01 -1.133495807647705078e+00 -6.376751065254211426e-01 1.144954204559326172e+00 1.276720762252807617e+00 2.640235051512718201e-02 6.110955774784088135e-02 -4.546822309494018555e-01 1.830278895795345306e-02 -5.115046501159667969e-01 6.107111573219299316e-01 7.505547404289245605e-01 1.271414607763290405e-01 6.342405676841735840e-01 -1.595081388950347900e-01 2.608953714370727539e-01 6.615889817476272583e-02 -8.017246723175048828e-01 1.577804088592529297e+00 1.217987060546875000e+00 1.105093881487846375e-01 6.378386020660400391e-01 -1.586815834045410156e+00 -9.935935586690902710e-02 3.217541873455047607e-01 3.270733058452606201e-01 -1.895155668258666992e+00 3.821187615394592285e-01 4.851157665252685547e-01 -7.466771602630615234e-01 -7.375839948654174805e-01 -2.018264770507812500e+00 -6.363381147384643555e-01 3.205423951148986816e-01 6.352127194404602051e-01 6.702425479888916016e-01 5.369347929954528809e-01 2.491015475243330002e-03 7.892680168151855469e-01 3.775715231895446777e-01 -1.572013139724731445e+00 2.732785701751708984e+00 7.487497925758361816e-01 -1.209001660346984863e+00 2.037512302398681641e+00 -3.848692476749420166e-01 -1.934043407440185547e+00 7.242414951324462891e-01 -1.066582679748535156e+00 1.019687056541442871e+00
4.220788478851318359e-01 -2.340523153543472290e-01 -1.058334350585937500e+00 4.549852609634399414e-01 -1.711992502212524414e+00 1.717666864395141602e+00 -1.509730219841003418e+00 3.773268759250640869e-01 -6.912985444068908691e-01 -3.504534661769866943e-01 -6.094606399536132812e+00 -1.713812708854675293e+00 7.010156512260437012e-01 8.100131154060363770e-01 -1.106276988983154297e+00 2.242286682128906250e+00 2.021100372076034546e-01 -6.274211406707763672e-02 -7.556407898664474487e-02 -1.251275539398193359e+00 -1.529153585433959961e+00 1.293499320745468140e-01 -2.109745025634765625e+00 -1.059084892272949219e+00 1.484469622373580933e-01 -1.570671319961547852e+00 1.969980221474543214e-04 -1.224823713302612305e+00 1.202858209609985352e+00 1.674241542816162109e+00 -1.259701848030090332e+00 5.890754461288452148e-01 -1.544606089591979980e+00 2.460422754287719727e+00 9.179425239562988281e-01 -1.447906851768493652e+00 1.483277320861816406e+00 2.765214681625366211e+00 1.984434127807617188e+00 1.139888286590576172e+00 -1.711008429527282715e+00 -1.206849217414855957e+00 -1.686005353927612305e+00 -2.239835500717163086e+00 4.092914164066314697e-01 -1.128737449645996094e+00 -2.385184019804000854e-01 -2.579243481159210205e-01 -4.875256121158599854e-01 -1.281129956245422363e+00 -1.699147820472717285e+00 8.472514748573303223e-01 -1.765837520360946655e-01 -2.291930615901947021e-01 -2.614293575286865234e+00 -1.555703997611999512e+00 -1.287048935890197754e+00 -4.625360369682312012e-01 -1.054782509803771973e+00 -8.543847203254699707e-01 -1.688236594200134277e-01 -1.176119685173034668e+00 1.361934661865234375e+00 -1.004372239112854004e+00 -1.670945763587951660e+00 -8.646105527877807617e-01 9.291605353355407715e-01 -1.590782284736633301e+00 1.918078303337097168e+00 1.361793875694274902e-01 -9.704895615577697754e-01 1.565811514854431152e+00 5.515227317810058594e-01 7.926232814788818359e-01 1.420126676559448242e+00 -6.522474884986877441e-01 -1.221467614173889160e+00 9.961155056953430176e-01 -2.447341829538345337e-01 -1.288289666175842285e+00 -8.392564654350280762e-01 1.700108408927917480e+00 9.409418702125549316e-01 9.596348404884338379e-01 1.014725193381309509e-01 -1.037344455718994141e+00 -1.694880127906799316e-01 -4.305021762847900391e-01 1.178828001022338867e+00 3.693433701992034912e-01 -3.779698312282562256e-01 6.275458335876464844e-01 -3.278394341468811035e-01 1.007346272468566895e+00 1.883167922496795654e-01 -8.972940444946289062e-01 1.634081959724426270e+00 1.603590488433837891e+00 1.682310104370117188e-01 6.472927927970886230e-01 -1.797652721405029297e+00 -3.980954363942146301e-02 3.665727078914642334e-01 4.553093612194061279e-01 -2.532984018325805664e+00 1.083628907799720764e-01 7.396975159645080566e-01 -1.362086296081542969e+00 -1.094678759574890137e+00 3.231870830059051514e-01 -5.833081007003784180e-01 5.408511757850646973e-01 2.958833575248718262e-01 8.600601553916931152e-01 5.708530545234680176e-01 -1.320515155792236328e+00 1.211218714714050293e+00 5.126219987869262695e-01 -7.480071783065795898e-01 3.086653947830200195e+00 9.724550247192382812e-01 -1.317469358444213867e+00 1.941938877105712891e+00 -1.036003112792968750e+00 -2.419601440429687500e+00 9.599272608757019043e-01 -1.481484889984130859e+00 1.075613260269165039e+00
4.202806651592254639e-01 -2.431173175573348999e-01 -1.010587930679321289e+00 4.564746320247650146e-01 -1.540476918220520020e+00 1.549101591110229492e+00 -1.438750982284545898e+00 3.724709749221801758e-01 -6.224889755249023438e-01 -3.262802958488464355e-01 -5.433382987976074219e+00 -1.580279469490051270e+00 6.857125759124755859e-01 7.533454895019531250e-01 -1.067927002906799316e+00 2.002185821533203125e+00 1.859244704246520996e-01 -3.428712487220764160e-01 -7.877705991268157959e-02 -1.142823457717895508e+00 -1.382419705390930176e+00 1.503729075193405151e-01 -1.919528365135192871e+00 -9.202334880828857422e-01 1.207656115293502808e-01 -1.431994795799255371e+00 -1.527023501694202423e-02 -1.101501941680908203e+00 1.196465253829956055e+00 1.515619158744812012e+00 -1.144724726676940918e+00 5.585796236991882324e-01 -1.215559005737304688e+00 2.302142620086669922e+00 8.877030611038208008e-01 -1.383668780326843262e+00 1.413994073867797852e+00 2.468096971511840820e+00 1.755763769149780273e+00 9.802350997924804688e-01 -1.627448797225952148e+00 -9.264040589332580566e-01 -1.487256169319152832e+00 -2.099936485290527344e+00 3.863134384155273438e-01 -1.049212217330932617e+00 -2.453683167695999146e-01 -2.342725098133087158e-01 -5.731185078620910645e-01 -1.122869372367858887e+00 -1.567682147026062012e+00 6.486123800277709961e-01 -2.061240971088409424e-01 -2.413124144077301025e-01 -2.416795253753662109e+00 -1.472534298896789551e+00 -1.254969596862792969e+00 -3.843629956245422363e-01 -9.168753027915954590e-01 -7.049864530563354492e-01 -1.292741149663925171e-01 -1.096644997596740723e+00 1.136793017387390137e+00 -9.234604835510253906e-01 -1.563042163848876953e+00 -6.820193529129028320e-01 7.958938479423522949e-01 -1.423245191574096680e+00 1.788568496704101562e+00 1.509084105491638184e-01 -8.906360864639282227e-01 1.609764218330383301e+00 5.957627296447753906e-01 7.181362509727478027e-01 1.353055357933044434e+00 -6.203646659851074219e-01 -1.120840072631835938e+00 9.038829803466796875e-01 -2.803641557693481445e-01 -1.076920151710510254e+00 -7.823225855827331543e-01 1.485666394233703613e+00 7.033731937408447266e-01 8.030660748481750488e-01 1.179159134626388550e-01 -7.070929408073425293e-01 -1.499919593334197998e-01 -4.039839208126068115e-01 1.059651851654052734e+00 2.600708603858947754e-01 -1.957454830408096313e-01 6.201990246772766113e-01 -3.078735172748565674e-01 7.279504537582397461e-01 2.359699308872222900e-01 -8.095668554306030273e-01 1.467772006988525391e+00 1.461165785789489746e+00 1.511185616254806519e-01 5.327915549278259277e-01 -1.721147298812866211e+00 -4.249937087297439575e-02 3.381362557411193848e-01 4.114502668380737305e-01 -2.301343441009521484e+00 6.878801435232162476e-02 6.425439119338989258e-01 -1.278739094734191895e+00 -1.011840343475341797e+00 3.914098739624023438e-01 -4.751693606376647949e-01 5.031645298004150391e-01 2.198742777109146118e-01 7.838624119758605957e-01 5.228824615478515625e-01 -1.212601304054260254e+00 1.069264411926269531e+00 4.637461304664611816e-01 -5.714811682701110840e-01 2.967143535614013672e+00 9.281359910964965820e-01 -1.264355182647705078e+00 1.801162123680114746e+00 -9.901164770126342773e-01 -2.259718894958496094e+00 9.604330062866210938e-01 -1.368908882141113281e+00 1.023447275161743164e+00
1.515777409076690674e-01 -6.519123166799545288e-02 -7.500420212745666504e-01 3.961251974105834961e-01 -1.173033475875854492e+00 1.247301578521728516e+00 -1.058656454086303711e+00 3.239266574382781982e-02 -4.351641535758972168e-01 -2.572018206119537354e-01 -4.242830753326416016e+00 -1.301391839981079102e+00 9.352253675460815430e-01 6.301276683807373047e-01 -9.608721137046813965e-01 1.464267134666442871e+00 1.422870010137557983e-01 -6.014125347137451172e-01 1.484791934490203857e-02 -6.705375313758850098e-01 -1.046976566314697266e+00 3.410824015736579895e-02 -1.727686405181884766e+00 -4.588625729084014893e-01 3.693970292806625366e-02 -1.122935891151428223e+00 -6.049486249685287476e-02 -8.258791565895080566e-01 1.007218003273010254e+00 1.135344505310058594e+00 -7.991583347320556641e-01 3.352863788604736328e-01 -6.175058484077453613e-01 2.124155759811401367e+00 6.109150052070617676e-01 -1.054712057113647461e+00 1.145948648452758789e+00 1.874556422233581543e+00 1.849856972694396973e+00 9.100331664085388184e-01 -1.331005215644836426e+00 1.826657354831695557e-02 -1.042765498161315918e+00 -1.782114863395690918e+00 2.447437345981597900e-01 -7.884816527366638184e-01 -1.513915061950683594e-01 -1.571878641843795776e-01 -9.018165469169616699e-01 -7.892848849296569824e-01 -1.508160829544067383e+00 5.699399709701538086e-01 -2.381622940301895142e-01 -3.944942951202392578e-01 -1.818215608596801758e+00 -1.066172361373901367e+00 -1.143250107765197754e+00 -2.163623124361038208e-01 -6.839063167572021484e-01 -3.307961523532867432e-01 -1.420040726661682129e-01 -8.401849865913391113e-01 1.118704319000244141e+00 -6.927382349967956543e-01 -1.253173470497131348e+00 -2.831821441650390625e-01 6.392992138862609863e-01 -1.097425103187561035e+00 1.341910362243652344e+00 -8.976387791335582733e-03 -6.284880638122558594e-01 1.423121571540832520e+00 5.478056073188781738e-01 5.774061679840087891e-01 1.079414963722229004e+00 -3.588180840015411377e-01 -8.922889232635498047e-01 5.041544437408447266e-01 -2.937435507774353027e-01 -1.216414213180541992e+00 -6.396439075469970703e-01 1.247161507606506348e+00 -6.149415373802185059e-01 2.600712180137634277e-01 7.087513059377670288e-02 -2.975292205810546875e-01 -4.928734526038169861e-02 -4.170643687248229980e-01 8.743736147880554199e-01 5.993074923753738403e-02 -2.653661966323852539e-01 6.298099160194396973e-01 -2.415510714054107666e-01 1.401367634534835815e-01 2.587838768959045410e-01 -5.773239135742187500e-01 3.963268995285034180e-01 1.118460893630981445e+00 2.506652090232819319e-04 2.720119357109069824e-01 -1.306739211082458496e+00 -1.538339555263519287e-01 2.502070069313049316e-01 2.672528624534606934e-01 -1.933526873588562012e+00 5.553230643272399902e-02 6.538462638854980469e-01 -8.333168029785156250e-01 -8.517708778381347656e-01 1.093864142894744873e-01 -2.512125670909881592e-01 3.050588369369506836e-01 1.280357241630554199e-01 7.827815413475036621e-01 3.943696022033691406e-01 -7.497163414955139160e-01 8.176192045211791992e-01 2.456945925951004028e-01 -1.069844961166381836e-01 2.391036748886108398e+00 7.250370979309082031e-01 -1.320653915405273438e+00 1.418850660324096680e+00 -6.553161740303039551e-01 -1.652432441711425781e+00 7.605375051498413086e-01 -1.156283140182495117e+00 7.028836011886596680e-01
-3.369224667549133301e-01 -3.682622909545898438e-01 -1.009457826614379883e+00 2.462387233972549438e-01 -7.274622917175292969e-01 8.148922920227050781e-01 -7.234398722648620605e-01 3.630240559577941895e-01 -3.645454645156860352e-01 -1.775382608175277710e-01 -2.662831544876098633e+00 -9.595252871513366699e-01 3.816338777542114258e-01 4.849099516868591309e-01 -1.018411993980407715e+00 1.041795372962951660e+00 1.060246154665946960e-01 -3.742983639240264893e-01 3.757917135953903198e-02 -5.764088034629821777e-01 -8.444456458091735840e-01 2.024777233600616455e-01 -1.022611618041992188e+00 -6.126325130462646484e-01 -7.302092015743255615e-02 -8.921114802360534668e-01 -3.578393533825874329e-02 -5.479223728179931641e-01 7.732095718383789062e-01 7.612487077713012695e-01 -6.069200038909912109e-01 2.737645506858825684e-01 -6.004849076271057129e-01 9.966637492179870605e-01 2.134709060192108154e-01 -6.457164883613586426e-01 8.155649900436401367e-01 1.112733960151672363e+00 1.263161182403564453e+00 5.742386579513549805e-01 -6.501048207283020020e-01 -3.280605077743530273e-01 -7.708531618118286133e-01 -9.583119153976440430e-01 3.846936821937561035e-01 -7.748103141784667969e-01 2.371834218502044678e-02 -1.715878695249557495e-01 -8.000531792640686035e-01 -5.474089980125427246e-01 -6.844764351844787598e-01 3.551415801048278809e-01 -2.605517804622650146e-01 -1.704435646533966064e-01 -1.370756268501281738e+00 -6.828339099884033203e-01 -8.552356958389282227e-01 5.105811357498168945e-01 -4.345963001251220703e-01 2.334672659635543823e-01 8.152027428150177002e-02 -7.682742476463317871e-01 3.387260437011718750e-01 -3.528272211551666260e-01 -9.268783926963806152e-01 8.677984029054641724e-02 3.002477884292602539e-01 -2.221855521202087402e-01 1.598642587661743164e+00 -4.040533006191253662e-01 -5.244472622871398926e-01 1.122948527336120605e+00 2.663042843341827393e-01 3.052515685558319092e-01 6.596109867095947266e-01 -4.089862406253814697e-01 -5.645827651023864746e-01 6.805280447006225586e-01 -2.205429673194885254e-01 -1.043810963630676270e+00 -4.955786764621734619e-01 7.493432760238647461e-01 1.635216474533081055e-01 -1.137482747435569763e-02 4.368123039603233337e-02 6.025740504264831543e-01 -5.312978848814964294e-02 -5.141136646270751953e-01 4.423846304416656494e-01 -1.899503730237483978e-02 4.387419819831848145e-01 5.175366997718811035e-01 -1.248817890882492065e-01 -5.863350033760070801e-01 2.458097338676452637e-01 -4.609476625919342041e-01 9.124149084091186523e-01 6.102185845375061035e-01 2.219995856285095215e-02 7.221512496471405029e-02 -1.143881082534790039e+00 -1.406387090682983398e-01 2.071092724800109863e-01 1.801927983760833740e-01 -1.259818673133850098e+00 1.569873839616775513e-01 4.457349777221679688e-01 -6.884661316871643066e-01 -1.253603816032409668e+00 -9.869845509529113770e-01 -2.649810910224914551e-01 1.494133919477462769e-01 2.734062075614929199e-01 4.577779471874237061e-01 3.105762600898742676e-01 -1.419133692979812622e-02 4.137889444828033447e-01 2.028568238019943237e-01 -4.103372991085052490e-01 1.864297866821289062e+00 4.408574700355529785e-01 -1.100285053253173828e+00 1.410359501838684082e+00 -6.170150637626647949e-01 -1.134711265563964844e+00 4.319382309913635254e-01 -6.424631476402282715e-01 6.123947501182556152e-01
