-1.783237559720873833e-03
-1.156876981258392334e-02
-7.141856258385814726e-06
-1.400307701260317117e-05
-6.302618089648603927e-07
8.302208967506885529e-03
1.132671348750591278e-02
3.257107688114047050e-03
-8.939622901380062103e-03
-1.101058387575903907e-05
2.202096581459045410e-02
-1.700530759990215302e-02
-5.528872407012386248e-06
1.622269675135612488e-02
1.001676730811595917e-02
2.312660217285156250e-02
2.646527066826820374e-02
2.705181017518043518e-02
3.140113130211830139e-02
3.828732175747973088e-08
-9.246276319026947021e-02
1.185224158689379692e-03
-6.846382748335599899e-04
4.236447066068649292e-02
1.427393499761819839e-02
4.119183123111724854e-02
1.302318833040772006e-05
-1.127150189131498337e-02
1.487731118686497211e-03
5.922443699091672897e-03
8.100092411041259766e-03
-1.575050526298582554e-03
-1.057677902281284332e-02
-6.917987484484910965e-03
1.957221189513802528e-03
-3.975151106715202332e-02
1.960952952504158020e-02
1.268402021378278732e-02
2.154977759346365929e-03
-5.835048109292984009e-02
6.376776127581251785e-06
2.208068035542964935e-02
-7.414878346025943756e-04
1.778413541615009308e-02
-7.073543965816497803e-04
1.164767763839336112e-05
-1.595688797533512115e-02
3.554455237463116646e-03
-1.563435034768190235e-05
6.814569700509309769e-03
5.702352609660010785e-06
3.017013892531394958e-02
-5.476972460746765137e-02
1.066150609403848648e-02
-3.234702348709106445e-02
-8.661849796772003174e-02
1.818003319203853607e-02
2.733010053634643555e-02
5.379389505833387375e-03
3.321802988648414612e-02
2.423959784209728241e-02
6.659590639173984528e-03
1.436160597950220108e-02
1.653105206787586212e-02
1.333770528435707092e-02
-2.588852112239692360e-06
-1.042266283184289932e-02
1.206304750667186454e-05
-6.576453149318695068e-02
-3.159214742481708527e-03
7.517179008573293686e-03
-6.831179559230804443e-02
3.165682777762413025e-03
-2.593068405985832214e-02
2.270055701956152916e-04
3.134841099381446838e-02
9.533517993986606598e-03
1.424137037247419357e-03
-2.138771489262580872e-02
2.051614411175251007e-02
-2.205874584615230560e-02
2.889721281826496124e-02
-2.476006373763084412e-02
-1.834999187849462032e-03
1.186277859233086929e-05
7.074570166878402233e-04
-3.958134129788959399e-06
-2.290073325639241375e-06
-5.329968407750129700e-04
-5.968739060335792601e-06
-3.484536707401275635e-02
2.022290369495749474e-03
-1.286726538091897964e-02
-1.165116652846336365e-01
-1.160628255456686020e-02
-8.000758498383220285e-06
-7.828346453607082367e-03
-7.126691343728452921e-06
8.124578016577288508e-06
-3.931020386517047882e-03
4.807732626795768738e-02
-3.622583579272031784e-03
-2.997687784954905510e-03
2.948798425495624542e-02
-4.024254158139228821e-03
8.879933506250381470e-02
3.432610355957876891e-06
-8.066734671592712402e-02
2.420591954432893544e-05
-2.067985245957970619e-03
2.253077582281548530e-06
-5.661680549383163452e-02
7.915937900543212891e-02
-1.753680990077555180e-04
-1.235153600573539734e-01
9.231491014361381531e-03
1.070900075137615204e-02
-3.132977894892974291e-07
1.340589551546145231e-05
5.002542398869991302e-03
2.151827141642570496e-02
-1.298705954104661942e-02
7.018036740191746503e-06
-5.619362468678446021e-07
4.084092564880847931e-03
1.231853589415550232e-01
-1.107552461326122284e-02
9.974836371839046478e-03
1.269903033971786499e-02
1.637047535041347146e-05
-5.348291713744401932e-03
7.293105870485305786e-02
-1.977483861992368475e-06
-1.333820726722478867e-02
6.402798742055892944e-02
-1.043633837252855301e-02
-2.196305617690086365e-02
2.524713409002288245e-06
1.336192041635513306e-01
-2.610342344269156456e-03
2.134756743907928467e-02
1.851364868343807757e-05
-3.346953462823876180e-06
-1.121604698710143566e-03
-6.771559361368417740e-03
-1.798170956135436427e-06
-2.581214066594839096e-03
-7.538985926657915115e-03
-1.209709327667951584e-03
-2.378095500171184540e-02
2.038560342043638229e-05
1.090509522327920422e-05
-2.131431363523006439e-03
-6.100242957472801208e-03
4.784320946782827377e-03
1.461484096944332123e-02
2.598557807505130768e-02
2.942866012745071203e-05
-1.467734482139348984e-02
4.980422928929328918e-02
-9.316343814134597778e-03
-3.851485438644886017e-03
3.080233727814629674e-05
-2.852870151400566101e-02
6.572254278580658138e-06
-1.755520515143871307e-02
5.633857846260070801e-02
6.111105903983116150e-02
1.206929664476774633e-05
4.801174625754356384e-02
4.052979871630668640e-03
-4.213213920593261719e-03
-4.166771471500396729e-02
9.340820834040641785e-03
-3.779634425882250071e-04
9.248555637896060944e-03
3.719383478164672852e-02
-1.118556428991723806e-05
-1.019291952252388000e-02
8.191153710868093185e-07
-1.136258561018621549e-05
4.668574314564466476e-03
-1.355046033859252930e-02
-2.168254013668047264e-06
8.985861204564571381e-03
6.637741811573505402e-03
1.269825547933578491e-01
-1.503320061601698399e-03
2.545519173145294189e-02
-2.964459592476487160e-03
1.612696913070976734e-03
5.933826741966186091e-06
-9.816708974540233612e-03
-2.432762831449508667e-02
5.960039794445037842e-03
2.714911941438913345e-03
-8.633229881525039673e-03
2.368200570344924927e-03
2.063899040222167969e-01
-1.330034621059894562e-02
2.133722044527530670e-02
-9.923936799168586731e-03
-4.214030195726081729e-05
9.005380794405937195e-03
-2.681122347712516785e-02
1.682530343532562256e-02
1.585640385746955872e-02
-2.527044899761676788e-02
-1.591278798878192902e-02
-7.060365533106960356e-06
-9.399168193340301514e-03
-7.053535431623458862e-03
8.037985302507877350e-03
6.328614894300699234e-03
1.787098124623298645e-02
6.146736070513725281e-02
1.724027469754219055e-02
5.985973984934389591e-04
1.078119128942489624e-02
-2.619702601805329323e-03
-1.011551873375537980e-07
-2.427071100100874901e-03
5.059737339615821838e-02
-3.954551175411324948e-07
7.304476108402013779e-03
2.657019766047596931e-03
-2.493300371497753076e-06
8.371852338314056396e-02
2.082876674830913544e-02
-4.363747313618659973e-03
-1.414519455283880234e-02
-9.407887235283851624e-03
2.782586030662059784e-02
-1.348126772791147232e-02
-2.931554429233074188e-02
-2.704225713387131691e-03
8.084028959274291992e-03
-7.504712324589490891e-03
-6.728918757289648056e-03
-4.705792758613824844e-03
-9.571913324180059135e-06
2.089733071625232697e-02
-6.073490250855684280e-03
8.895178325474262238e-03
4.930162336677312851e-03
-1.104241346183698624e-05
-2.463640412315726280e-03
-1.089143846184015274e-02
6.677865236997604370e-02
1.929183490574359894e-02
-7.402493338304338977e-06
2.707482082769274712e-03
1.559256452310364693e-05
1.369743258692324162e-03
-4.419498509378172457e-06
-2.515406580641865730e-03
-2.002088585868477821e-04
-2.077541546896100044e-03
2.208562655141577125e-04
-1.477884408086538315e-02
3.608287125825881958e-02
-2.188968099653720856e-02
-2.728831896092742682e-05
2.329250052571296692e-02
1.747167296707630157e-02
-1.488430518656969070e-02
1.473343744874000549e-02
3.885079175233840942e-02
-3.923618700355291367e-03
2.386791165918111801e-03
7.685970515012741089e-03
-5.092593375593423843e-03
-1.708553731441497803e-02
-1.279114803764969110e-04
-8.511146530508995056e-03
1.406681444495916367e-02
2.205434441566467285e-02
1.538193691521883011e-02
-3.273452399298548698e-03
6.192950531840324402e-02
4.598947241902351379e-02
1.105150557123124599e-03
7.023536018095910549e-04
-1.992744021117687225e-02
-1.159485054813558236e-05
2.285140193998813629e-02
2.251974865794181824e-02
-2.738855755524127744e-06
2.249246090650558472e-02
1.168326195329427719e-02
9.149294783128425479e-06
1.731624081730842590e-02
3.875658439937978983e-04
-8.650450035929679871e-03
1.990874670445919037e-02
-2.601643465459346771e-02
-8.911520242691040039e-03
-4.010336473584175110e-02
1.174225355498492718e-03
-2.506231656298041344e-03
5.250917165540158749e-04
7.008289918303489685e-03
-1.044698525220155716e-02
3.193245455622673035e-02
-5.003877449780702591e-03
3.333938540890812874e-03
1.247079670429229736e-01
-9.758475698617985472e-07
6.395440777851035818e-06
-1.732724905014038086e-02
-2.799265530484262854e-06
-7.984542287886142731e-03
4.714398458600044250e-02
-5.064434185624122620e-02
-2.046461013378575444e-04
2.343566529452800751e-02
1.305852457880973816e-02
4.539333283901214600e-02
2.338234708076925017e-06
-8.563228882849216461e-03
-1.395147386938333511e-02
8.459412492811679840e-03
1.830625535603758181e-07
5.537704964808654040e-06
1.858766563236713409e-02
-8.418839424848556519e-03
-1.689342223107814789e-02
1.343288365751504898e-02
6.489986926317214966e-02
-5.973405222903238609e-06
2.197750518462271430e-06
3.743908337128232233e-06
7.251688092947006226e-02
1.100865774787962437e-03
8.471496585116256028e-06
-2.777111530303955078e-02
-1.500358246266841888e-02
-1.389113185723545030e-05
-2.913002617788151838e-06
1.759128272533416748e-02
6.900510936975479126e-02
-8.549779522581957281e-06
3.256030322518199682e-05
-6.307368166744709015e-03
-1.271058456040918827e-03
-8.336720384249929339e-06
2.083496004343032837e-02
-9.390166029334068298e-03
-4.003196489065885544e-03
1.967117935419082642e-02
5.937612149864435196e-03
1.905261725187301636e-02
2.022189088165760040e-02
-1.900154538452625275e-02
-6.089366972446441650e-03
2.902957145124673843e-03
2.016841992735862732e-02
-2.996993089254829101e-06
8.105628192424774170e-03
6.087833084166049957e-03
4.003978893160820007e-02
9.611731395125389099e-03
1.812948659062385559e-02
2.607825025916099548e-02
-1.472166241001104936e-05
1.230168156325817108e-02
-1.319431583397090435e-03
-3.842473961412906647e-04
2.926834440586389974e-06
-4.150067456066608429e-03
1.247206889092922211e-02
-1.897543109953403473e-02
-2.801609458401799202e-03
7.618866860866546631e-02
3.989275172352790833e-02
1.067844033241271973e-02
-4.098241683095693588e-03
-8.407045970670878887e-04
1.249784836545586586e-03
2.599885687232017517e-02
-6.910882461852452252e-07
2.513569593429565430e-02
-1.199306570924818516e-03
6.872803169244434685e-06
1.298287697136402130e-02
6.056783348321914673e-02
1.677443622611463070e-03
-2.582283632364124060e-04
1.761800035637861583e-06
7.954986765980720520e-03
-4.243249073624610901e-03
7.725854963064193726e-02
3.593816189095377922e-03
2.846905961632728577e-02
1.721666380763053894e-02
2.421537414193153381e-02
2.815405838191509247e-02
1.004411024041473866e-05
-4.986100634596368764e-07
1.881699822843074799e-02
4.809929989278316498e-03
-2.953840978443622589e-02
-4.168323054909706116e-02
-5.372265353798866272e-02
1.913310401141643524e-02
5.065848585218191147e-03
-1.026329956948757172e-02
1.042253449559211731e-01
1.224956940859556198e-03
2.541883476078510284e-02
-1.919701881706714630e-02
7.930681109428405762e-03
3.653542604297399521e-03
2.678778022527694702e-02
1.252590562216937542e-03
-1.387402229011058807e-02
2.197188697755336761e-02
2.870771568268537521e-03
-3.586119785904884338e-02
3.083758987486362457e-02
1.920363493263721466e-02
-7.150057237595319748e-03
-3.439553081989288330e-02
9.388805367052555084e-03
-9.940578602254390717e-04
-5.296715069562196732e-03
1.180473417043685913e-01
1.146732643246650696e-02
-2.577728219330310822e-02
1.320082228630781174e-03
-2.885805629193782806e-02
1.286609936505556107e-02
4.651328083127737045e-03
-1.749689504504203796e-02
3.215305041521787643e-04
-1.184931956231594086e-02
1.923954114317893982e-02
4.806895274668931961e-03
4.484197869896888733e-02
6.184585019946098328e-02
1.225825697183609009e-01
2.503887005150318146e-02
-1.231002435088157654e-02
-5.723434686660766602e-02
-2.171991392970085144e-03
-4.323574528098106384e-02
-1.803478039801120758e-02
6.841203570365905762e-02
-6.034573167562484741e-02
-7.196189835667610168e-03
9.376004338264465332e-02
-1.757411286234855652e-02
1.884322427213191986e-02
1.167005114257335663e-02
-6.295997649431228638e-02
-1.110641378909349442e-02
9.483947604894638062e-02
-2.215691283345222473e-02
4.705127328634262085e-03
-4.124471172690391541e-02
5.732235684990882874e-02
-1.285794377326965332e-02
7.444079220294952393e-02
-6.550120655447244644e-03
3.312166035175323486e-02
-1.218841746449470520e-01
7.093331776559352875e-03
1.047073863446712494e-03
-8.951054885983467102e-03
5.102242343127727509e-03
9.701057337224483490e-03
-3.619076684117317200e-02
2.738889120519161224e-02
-1.503163669258356094e-02
-9.502731263637542725e-03
7.338508497923612595e-03
3.937155380845069885e-02
-6.922724843025207520e-02
-9.800882637500762939e-02
5.171382799744606018e-02
5.580734089016914368e-02
-1.060901656746864319e-01
5.336542427539825439e-02
2.196394465863704681e-02
8.048968017101287842e-02
-3.437809878960251808e-03
-1.479230262339115143e-02
1.216158047318458557e-01
1.277579553425312042e-02
-3.026882559061050415e-02
-4.636854678392410278e-02
-3.176087141036987305e-02
-3.004079312086105347e-02
8.003934286534786224e-03
7.106852252036333084e-03
-5.050490796566009521e-02
-5.029613152146339417e-03
-3.734323428943753242e-03
-1.248110644519329071e-02
1.248241309076547623e-02
-1.750097051262855530e-02
2.698629628866910934e-03
3.808304667472839355e-02
-5.214384291321039200e-03
-1.453779544681310654e-02
2.199264615774154663e-02
-1.905481144785881042e-02
1.308432873338460922e-02
-1.829194873571395874e-01
-4.412293806672096252e-02
5.556426942348480225e-02
8.954479359090328217e-03
2.368229813873767853e-02
-7.252483628690242767e-03
-1.747516542673110962e-02
-3.411184996366500854e-02
-3.424555761739611626e-03
-4.065167531371116638e-02
1.245278418064117432e-01
-1.081170048564672470e-02
7.573807146400213242e-03
8.894084952771663666e-03
-6.173272849991917610e-04
-1.082954406738281250e-01
-1.730742119252681732e-02
-1.899213343858718872e-02
3.261873871088027954e-02
8.638263680040836334e-03
-2.117157541215419769e-02
-1.151139363646507263e-01
1.369207538664340973e-02
3.178150951862335205e-02
-3.041736036539077759e-02
-3.424098715186119080e-03
-1.633568666875362396e-02
1.701543852686882019e-02
-1.745067304000258446e-03
-1.686499565839767456e-01
-3.359596803784370422e-02
1.587675884366035461e-02
6.525325588881969452e-03
3.156121447682380676e-02
-7.194236665964126587e-02
2.316009998321533203e-02
5.836025811731815338e-03
7.195292413234710693e-02
-1.038242189679294825e-04
-9.670053608715534210e-03
-2.876560389995574951e-02
5.976628162898123264e-04
3.037993423640727997e-02
6.566118914633989334e-03
1.026502065360546112e-02
1.901834853924810886e-03
2.785568591207265854e-03
2.026837505400180817e-02
8.695706492289900780e-04
-3.232919052243232727e-02
5.456067621707916260e-03
-3.137409687042236328e-02
-2.427543140947818756e-02
3.694776818156242371e-02
-2.849283628165721893e-02
3.219727799296379089e-02
-6.816177070140838623e-02
-7.864861749112606049e-03
-1.625937782227993011e-02
6.513308733701705933e-03
1.541625112295150757e-01
7.345846388489007950e-03
-4.447702690958976746e-02
-3.969599027186632156e-03
5.121070891618728638e-02
-1.156884152442216873e-02
7.177216559648513794e-02
1.911139674484729767e-02
5.162145942449569702e-03
5.683152750134468079e-02
-1.197596918791532516e-02
-3.663465753197669983e-02
-9.070160239934921265e-02
-8.861527894623577595e-04
1.190017908811569214e-01
-1.518413871526718140e-01
-1.221735216677188873e-02
-2.254761755466461182e-02
1.332989893853664398e-02
-6.559225916862487793e-02
-3.445569798350334167e-02
-4.529190957546234131e-01
-6.588786374777555466e-03
5.035179853439331055e-02
1.566341705620288849e-02
2.896603010594844818e-02
4.624233394861221313e-02
1.390167418867349625e-02
-1.787673123180866241e-02
-9.688645601272583008e-02
-3.441049903631210327e-02
-1.889589801430702209e-02
