5.270914733409881592e-02 -1.204974293708801270e+00 -8.513007164001464844e-01 1.241263985633850098e+00 3.003535866737365723e-01 -2.804817557334899902e-01 -3.453471064567565918e-01 2.937306463718414307e-02 2.657825469970703125e+00 -1.675476133823394775e-02 -3.397169336676597595e-02 -3.671921789646148682e-01 -1.232106924057006836e+00 -1.122893691062927246e-01 3.409361839294433594e-02 -1.220326423645019531e-01 -1.380431354045867920e-01 -6.164509057998657227e-01 6.624546367675065994e-03 3.357639908790588379e-02 -3.924218565225601196e-02 1.032681614160537720e-01 1.177221015095710754e-01 6.920601427555084229e-02 -5.516545772552490234e-01 -5.693702772259712219e-02 -1.586194932460784912e-01 -4.805297553539276123e-01 -1.156925410032272339e-01 -5.370538309216499329e-02 -1.759628653526306152e-01 3.036930859088897705e-01 9.571485966444015503e-02 -4.913059473037719727e-01 6.349553912878036499e-02 -2.306095510721206665e-01 3.516513705253601074e-01 2.269333899021148682e-01 3.828171873465180397e-03 -6.254168227314949036e-03 -4.845933988690376282e-02 7.247665524482727051e-02 4.047423717565834522e-04 6.324510574340820312e-01 -5.042385458946228027e-01 -5.307627320289611816e-01 -2.626520581543445587e-02 -1.336320638656616211e+00 7.979331165552139282e-02 3.345509469509124756e-01 -1.542136073112487793e-01 -1.304383993148803711e+00 2.426823228597640991e-01 -2.438694536685943604e-01 -3.810944259166717529e-01 1.088909655809402466e-01 9.042350947856903076e-02 3.366038203239440918e-02 -1.726470112800598145e+00 -1.117683127522468567e-01 -7.139121741056442261e-02 -1.009322851896286011e-01 -2.577464580535888672e-01 -7.975358515977859497e-02 -3.060649037361145020e-01 -7.329217195510864258e-01 1.126045361161231995e-01 2.342375814914703369e-01 -1.203927919268608093e-01 2.021362781524658203e-01 -3.511922433972358704e-02 -1.999242603778839111e-01 -8.913391083478927612e-02 2.628727257251739502e-01 2.502887487411499023e+00 2.310137152671813965e-01 5.426012873649597168e-01 5.759944394230842590e-02 -2.141279280185699463e-01 -8.423719555139541626e-02 1.411068588495254517e-01 -3.401702642440795898e-01 2.598281502723693848e-01 -3.286029398441314697e-02 2.624387741088867188e-01 9.696701914072036743e-02 2.355598658323287964e-01 -2.464565753936767578e+00 2.125764340162277222e-01 -2.330379560589790344e-02 -7.603226900100708008e-01 2.780048549175262451e-01 -5.656702816486358643e-02 1.309081465005874634e-01 2.268736995756626129e-02 -9.796649813652038574e-01 -5.639113113284111023e-02 8.689112961292266846e-02 5.778466463088989258e-01 1.512621790170669556e-01 -9.591931104660034180e-02 -5.116361007094383240e-02 1.769100278615951538e-01 -7.508748024702072144e-02 1.870056986808776855e+00 7.832195609807968140e-02 1.234169900417327881e-01 -3.015874028205871582e-01 6.048665642738342285e-01 5.090491175651550293e-01 1.217755153775215149e-01 6.544210910797119141e-01 3.443756327033042908e-02 8.586017042398452759e-02 3.736798763275146484e-01 4.616711735725402832e-01 4.069193452596664429e-02 1.060292348265647888e-01 -7.552804052829742432e-02 7.308409810066223145e-01 2.718466892838478088e-02 -2.067662626504898071e-01 -2.232789695262908936e-01 -3.090725839138031006e-01 -8.235101103782653809e-01 2.146696001291275024e-01 -9.194420278072357178e-02 1.878063008189201355e-02 3.694221749901771545e-02 -2.659137845039367676e-01 -1.310668438673019409e-01 -9.210132360458374023e-01 -1.684255152940750122e-01 3.361260592937469482e-01 1.983320415019989014e-01 1.990881562232971191e-02 -5.624628663063049316e-01 1.946787089109420776e-01 -1.973839551210403442e-01 5.491452291607856750e-02 -2.191776931285858154e-01 -5.932063609361648560e-02 -2.154813408851623535e-01 -4.184295535087585449e-01 -7.852074503898620605e-02 1.663056015968322754e-01 1.150028482079505920e-01 7.073016464710235596e-02 -7.209277898073196411e-02 -8.773945271968841553e-02
-6.591612845659255981e-02 5.711987614631652832e-01 1.865324527025222778e-01 -3.428093492984771729e-01 -1.563781052827835083e-01 1.071462407708168030e-01 1.569684445858001709e-01 6.953842937946319580e-03 -4.115149974822998047e-01 8.619292080402374268e-02 1.400601565837860107e-01 -1.217612743377685547e+00 2.420544475317001343e-01 4.729883745312690735e-02 -1.230899710208177567e-02 -9.293089061975479126e-02 1.309219151735305786e-01 -3.139303624629974365e-02 -1.366626173257827759e-01 2.845043875277042389e-02 8.220031857490539551e-02 -1.019406616687774658e-01 -2.066224068403244019e-02 -1.250530332326889038e-01 -3.619440793991088867e-01 -8.435039781033992767e-03 3.849389404058456421e-02 -4.056576490402221680e-01 -5.601449012756347656e-01 -2.351883202791213989e-01 -4.285138845443725586e-02 -3.482647985219955444e-02 -1.936710625886917114e-02 -4.614114388823509216e-02 3.762195706367492676e-01 -1.375724375247955322e-01 1.520403176546096802e-01 -2.733625657856464386e-02 -6.949577480554580688e-03 -1.918896916322410107e-03 1.312064677476882935e-01 -6.356088072061538696e-02 -5.767291411757469177e-03 2.686696946620941162e-01 -7.513327989727258682e-03 -6.750090122222900391e-01 3.097804263234138489e-02 4.914122074842453003e-02 -3.265013098716735840e-01 -3.315722346305847168e-01 8.493873476982116699e-02 -4.830324053764343262e-01 -1.667778193950653076e-01 1.712534278631210327e-01 -3.267636895179748535e-01 1.933476924896240234e-01 8.614759892225265503e-02 5.313707515597343445e-02 8.202009797096252441e-01 1.484759151935577393e-02 -1.214970424771308899e-01 -2.576098032295703888e-02 1.298361122608184814e-01 1.856982409954071045e-01 9.742615371942520142e-02 2.555081248283386230e-01 -5.318198353052139282e-02 -3.139298856258392334e-01 4.575257897377014160e-01 9.723498485982418060e-03 6.066742818802595139e-03 4.731367230415344238e-01 -3.463941812515258789e-01 -8.869268000125885010e-02 -3.071654736995697021e-01 8.768980205059051514e-02 -1.042084023356437683e-01 -1.082123741507530212e-01 9.409981220960617065e-02 1.605142802000045776e-01 6.694423407316207886e-02 2.051798701286315918e-01 -2.672538161277770996e-01 -7.174661755561828613e-02 -2.093124985694885254e-01 1.877604401670396328e-03 6.553606688976287842e-02 -3.482744395732879639e-01 -1.814637631177902222e-01 1.915426552295684814e-01 -1.377833724021911621e+00 -6.139077544212341309e-01 2.917629182338714600e-01 -7.455751299858093262e-02 -1.011334359645843506e-01 -1.511643171310424805e+00 -1.242707893252372742e-01 -3.527325391769409180e-01 -3.288450650870800018e-03 -6.383962929248809814e-02 2.150051295757293701e-02 -1.962804608047008514e-02 -8.753293752670288086e-02 -1.295837461948394775e-01 5.590096712112426758e-01 -5.373020470142364502e-02 -5.658897757530212402e-01 1.226181015372276306e-01 1.222886815667152405e-01 3.110340237617492676e-01 -1.786744594573974609e-01 3.303862214088439941e-01 -1.076478958129882812e-01 1.987871527671813965e-01 7.379463315010070801e-01 -2.966976724565029144e-02 1.521945446729660034e-01 1.089406907558441162e-01 2.857531188055872917e-03 -8.720334768295288086e-01 -1.039434447884559631e-01 -8.638028800487518311e-02 -6.625450253486633301e-01 4.554030597209930420e-01 -2.695591188967227936e-02 -2.739020287990570068e-01 4.262419417500495911e-02 4.599642753601074219e-02 -1.179634928703308105e-01 -2.769753932952880859e-01 3.885787352919578552e-02 -5.722096562385559082e-02 6.630772948265075684e-01 3.197141587734222412e-01 3.314726948738098145e-01 2.877912819385528564e-01 -3.601483106613159180e-01 -1.425737291574478149e-01 3.094620704650878906e-01 -7.581539452075958252e-03 -4.564120993018150330e-02 1.404394805431365967e-01 2.785896956920623779e-01 -1.203065887093544006e-01 -1.285934448242187500e-02 -8.633018285036087036e-02 6.839646399021148682e-02 -2.312882095575332642e-01 3.822359815239906311e-02 2.459903806447982788e-02
1.137282922863960266e-01 5.579039454460144043e-03 -3.078016936779022217e-01 4.335672855377197266e-01 -3.305515050888061523e-01 7.368900179862976074e-01 8.397813141345977783e-02 -6.665465980768203735e-02 -9.206511974334716797e-01 -5.920633673667907715e-02 -8.654372766613960266e-03 -4.165225327014923096e-01 -4.205401614308357239e-02 -4.535772651433944702e-02 2.697575651109218597e-02 -3.013085946440696716e-02 -5.394451320171356201e-02 -1.985035687685012817e-01 1.569876968860626221e-01 -2.240509726107120514e-03 1.967379450798034668e-01 2.767223119735717773e-01 4.369844198226928711e-01 -1.196293979883193970e-01 2.741959318518638611e-02 3.697835654020309448e-02 -4.175594449043273926e-02 3.320252001285552979e-01 4.362052083015441895e-01 -1.185392886400222778e-01 7.649538666009902954e-02 -2.883069515228271484e-01 -3.950509708374738693e-03 5.586549043655395508e-01 -2.203850984573364258e+00 -1.877525150775909424e-01 5.388142466545104980e-01 1.458695381879806519e-01 3.284231293946504593e-03 1.536210160702466965e-02 4.292018115520477295e-01 -8.358613848686218262e-01 -7.369052036665380001e-04 3.202420845627784729e-02 -1.666108369827270508e-01 -1.961754560470581055e-01 -2.075639069080352783e-01 -9.327388405799865723e-01 -5.389825701713562012e-01 -1.502755284309387207e-01 -2.309037446975708008e-01 4.185746312141418457e-01 1.311560869216918945e-01 -1.324431747198104858e-01 -2.175115197896957397e-01 -8.561999350786209106e-02 1.138788759708404541e-01 1.613744795322418213e-01 8.248335123062133789e-01 1.837286949157714844e-01 3.817382827401161194e-02 6.179496049880981445e-01 -2.521217465400695801e-01 8.945138007402420044e-02 9.941192343831062317e-03 -8.978921771049499512e-01 3.918554484844207764e-01 -1.088349223136901855e-01 5.191457271575927734e-01 -1.528101116418838501e-01 -1.821702271699905396e-01 -3.398958742618560791e-01 -2.430101186037063599e-01 -3.460624814033508301e-02 1.989898383617401123e-01 -1.377349793910980225e-01 8.874290585517883301e-01 1.021643579006195068e-01 4.023263752460479736e-01 -6.079325824975967407e-02 3.956187888979911804e-02 -1.487072557210922241e-02 -1.374938130378723145e+00 2.554121315479278564e-01 2.650408744812011719e-01 -5.969731882214546204e-02 7.711149007081985474e-02 -4.453135654330253601e-02 5.782591104507446289e-01 -2.610081434249877930e-01 -1.439950585365295410e+00 5.744755268096923828e-01 4.005942046642303467e-01 5.224427953362464905e-02 -7.880657166242599487e-02 -8.196615576744079590e-01 -2.351744920015335083e-01 4.993429034948348999e-02 3.110120296478271484e-01 -3.211232125759124756e-01 -1.548211425542831421e-01 3.910779207944869995e-02 9.659934043884277344e-02 -1.399828642606735229e-01 3.374403119087219238e-01 2.532026171684265137e-01 5.116827487945556641e-01 2.497492581605911255e-01 6.515838205814361572e-02 2.424964457750320435e-01 -5.370113253593444824e-01 -4.446155130863189697e-01 -1.233664080500602722e-01 -2.528464496135711670e-01 -1.143255904316902161e-01 -9.686298668384552002e-03 -8.665973693132400513e-02 1.933651566505432129e-01 3.324782592244446278e-04 1.503428816795349121e+00 4.952460527420043945e-02 -3.573762476444244385e-01 2.752508521080017090e-01 2.011083438992500305e-02 -1.687632054090499878e-01 -1.817548573017120361e-01 -1.341285556554794312e-01 -2.117591649293899536e-01 -1.326196044683456421e-01 -3.442145884037017822e-02 -2.674045562744140625e-01 -5.316916108131408691e-01 -8.628634810447692871e-01 1.495635211467742920e-01 -2.460331767797470093e-01 -6.234986186027526855e-01 4.756570458412170410e-01 -5.524746179580688477e-01 1.571171432733535767e-01 1.002257838845252991e-01 -1.516714692115783691e-01 -4.516656994819641113e-01 -2.577338218688964844e-01 5.845984816551208496e-01 -5.806544423103332520e-01 -1.626043617725372314e-01 8.392747044563293457e-01 -3.243594169616699219e-01 -1.530120521783828735e-01 2.103143632411956787e-01
-6.610606610774993896e-02 2.458468452095985413e-02 4.618098214268684387e-02 -3.310268744826316833e-02 -2.809959650039672852e-01 -6.276196241378784180e-01 -3.811737149953842163e-02 -2.083527110517024994e-02 -3.591712713241577148e-01 6.048952788114547729e-02 1.026872470974922180e-01 -5.987386703491210938e-01 -9.701010584831237793e-02 4.649067819118499756e-01 1.447756886482238770e-01 2.766921520233154297e-01 -3.537126779556274414e-01 -4.915054887533187866e-03 3.684696555137634277e-01 1.478735823184251785e-02 -1.031747907400131226e-01 -5.265825614333152771e-02 1.205968558788299561e-01 4.033576250076293945e-01 -7.935042679309844971e-02 -6.965414434671401978e-02 -2.329861558973789215e-02 1.942448318004608154e-01 -2.403580695390701294e-01 -8.605634421110153198e-02 -5.846512913703918457e-01 -1.401156187057495117e-01 -7.157883793115615845e-02 -2.727925479412078857e-01 -6.551989912986755371e-01 -2.716959416866302490e-01 6.769156455993652344e-01 -2.261559516191482544e-01 -9.210663847625255585e-03 1.784635148942470551e-02 -3.216396868228912354e-01 -4.166851341724395752e-01 3.001924604177474976e-03 -1.254775077104568481e-01 3.946736454963684082e-01 -1.711550951004028320e-01 9.391913563013076782e-02 -3.992559611797332764e-01 -4.274403452873229980e-01 2.915413975715637207e-01 -5.093891620635986328e-01 3.246626257896423340e-01 -3.444722592830657959e-01 -2.455238997936248779e-01 1.033973619341850281e-01 1.896843872964382172e-02 -7.711921632289886475e-02 -8.387572318315505981e-02 2.180157601833343506e-01 5.179522559046745300e-02 -8.631157875061035156e-02 4.347746074199676514e-02 8.723007887601852417e-02 -1.511639058589935303e-01 -1.621132157742977142e-02 -2.562748789787292480e-01 -3.105008900165557861e-01 -6.224578246474266052e-02 2.250302284955978394e-01 -3.774465918540954590e-01 -2.341713309288024902e-01 -2.915775775909423828e-01 -1.498349104076623917e-02 9.491102397441864014e-02 7.694537192583084106e-02 1.308747529983520508e-01 3.030309975147247314e-01 2.260804325342178345e-01 -2.022358179092407227e-01 1.468668878078460693e-01 -1.039243414998054504e-01 4.295183718204498291e-01 -1.132581114768981934e+00 -3.710728287696838379e-01 2.584787905216217041e-01 9.493367373943328857e-02 -3.526593744754791260e-01 1.870687119662761688e-02 5.430199503898620605e-01 -1.897297650575637817e-01 -3.316904604434967041e-01 -1.165736541152000427e-01 2.417819052934646606e-01 3.555939793586730957e-01 -4.339383170008659363e-02 -3.342889845371246338e-01 1.766466498374938965e-01 -3.121283091604709625e-02 4.345506429672241211e-02 5.345414876937866211e-01 -2.372112870216369629e-01 -1.296902000904083252e-01 -1.694103479385375977e-01 3.826943412423133850e-02 1.504347771406173706e-01 -2.871232479810714722e-02 2.059126347303390503e-01 3.115330822765827179e-02 -6.896424889564514160e-01 5.178655683994293213e-02 5.687878131866455078e-01 -1.866125464439392090e-01 2.494016438722610474e-01 -2.523397207260131836e-01 1.289750039577484131e-01 2.709161639213562012e-01 1.048169657588005066e-01 2.418147586286067963e-02 6.207167170941829681e-03 7.353829145431518555e-01 1.028323471546173096e-01 -3.038121201097965240e-02 -5.069659650325775146e-02 -2.689357474446296692e-02 2.359022013843059540e-02 4.261146485805511475e-01 9.708673506975173950e-02 9.687530249357223511e-02 1.772926934063434601e-02 -1.329111158847808838e-01 -4.042950272560119629e-01 3.292429149150848389e-01 -4.930430948734283447e-01 -1.851854287087917328e-02 6.755998730659484863e-02 -3.370068073272705078e-01 -3.417365252971649170e-01 -5.511185526847839355e-02 -5.397599190473556519e-02 -8.673414587974548340e-02 -3.430799841880798340e-01 1.022419482469558716e-01 1.237839236855506897e-01 1.089111939072608948e-01 -2.284357696771621704e-01 -4.613859951496124268e-02 3.727360665798187256e-01 -5.073231458663940430e-01 2.805738896131515503e-02 -2.567097246646881104e-01
4.641642794013023376e-03 1.367129832506179810e-01 -6.889797747135162354e-02 -5.708644166588783264e-02 -3.409990668296813965e-01 -1.377671360969543457e+00 -1.286987513303756714e-01 -5.085833743214607239e-02 -1.446064468473196030e-02 -3.202967718243598938e-02 -1.464840918779373169e-01 -1.720526069402694702e-01 -5.556821450591087341e-02 -1.830006949603557587e-02 2.709293924272060394e-02 1.520135700702667236e-01 1.000753119587898254e-01 1.169940084218978882e-01 -7.123424410820007324e-01 -7.688331883400678635e-03 1.675672978162765503e-01 9.987947344779968262e-02 -3.041954636573791504e-01 -7.491268962621688843e-02 5.046421429142355919e-04 -3.717294428497552872e-03 -6.871823966503143311e-02 -1.927162520587444305e-02 -1.621411591768264771e-01 1.106754988431930542e-01 -5.267009735107421875e-01 -1.157287210226058960e-01 -1.373967677354812622e-01 -2.373522669076919556e-01 -5.719834566116333008e-01 1.546731293201446533e-01 -3.440993726253509521e-01 1.518653482198715210e-01 -3.578385338187217712e-02 1.343324631452560425e-01 2.960399985313415527e-01 -1.988748311996459961e-01 -3.280436620116233826e-03 2.593092061579227448e-02 -3.566173911094665527e-01 2.071571722626686096e-02 -5.039807036519050598e-02 -3.842034935951232910e-02 2.211566269397735596e-01 -2.940637767314910889e-01 -4.220319539308547974e-02 1.609735377132892609e-02 -9.208881258964538574e-01 -2.440707683563232422e-01 -6.708314642310142517e-03 1.777079887688159943e-02 2.173407375812530518e-01 -3.239036723971366882e-02 1.417376697063446045e-01 -5.318536981940269470e-02 2.235982008278369904e-02 4.313043132424354553e-02 3.202571570873260498e-01 1.331195086240768433e-01 -7.039283961057662964e-02 7.862586528062820435e-02 -1.072041969746351242e-02 8.172228932380676270e-02 -2.751599550247192383e-01 1.254097670316696167e-01 -1.439653337001800537e-01 -4.185562208294868469e-02 -1.983421854674816132e-02 1.557908058166503906e-01 3.386155515909194946e-02 -1.806232482194900513e-01 2.431498020887374878e-01 3.068576566874980927e-02 1.371943652629852295e-01 1.943957507610321045e-01 -7.865584641695022583e-02 -2.727342955768108368e-02 -2.930485904216766357e-01 8.112772367894649506e-03 2.412862144410610199e-02 1.054495945572853088e-01 4.750707149505615234e-01 -8.617485314607620239e-02 -7.449022680521011353e-02 3.247499763965606689e-01 -2.155243605375289917e-02 6.666986346244812012e-01 -4.872071146965026855e-01 9.075962752103805542e-02 -1.044563855975866318e-02 -8.220043033361434937e-02 -5.031888186931610107e-02 -8.527009189128875732e-02 3.345990926027297974e-02 3.232645615935325623e-02 -1.351592838764190674e-01 2.846677228808403015e-02 -2.477490752935409546e-01 -8.667651563882827759e-03 1.282511949539184570e-01 7.399196922779083252e-02 6.241725292056798935e-03 -1.829345822334289551e-01 4.791664481163024902e-01 -4.124247655272483826e-02 -2.388103306293487549e-02 5.631659924983978271e-02 1.888128072023391724e-01 -2.966006398200988770e-01 -1.916335523128509521e-02 -1.579973697662353516e-01 -9.164232015609741211e-02 2.236831374466419220e-02 2.264963695779442787e-03 -7.729493081569671631e-02 1.399519890546798706e-01 -1.371895521879196167e-01 2.139177769422531128e-01 -4.623027518391609192e-02 1.882788091897964478e-01 1.100763902068138123e-01 6.415733098983764648e-01 3.772217035293579102e-01 7.192893326282501221e-02 2.061657607555389404e-01 1.726781763136386871e-02 -3.428288996219635010e-01 -2.367850691080093384e-01 4.734319821000099182e-02 -1.798997074365615845e-01 -4.313847050070762634e-02 -2.399433106184005737e-01 -2.517530322074890137e-01 -7.712257653474807739e-02 1.078570559620857239e-01 2.586745917797088623e-01 -1.753654927015304565e-01 5.979678034782409668e-01 1.855615228414535522e-01 1.299213767051696777e-01 1.465041469782590866e-02 7.570750266313552856e-02 3.885370194911956787e-01 1.086192205548286438e-02 -9.325098246335983276e-02
-9.607177227735519409e-02 3.501999750733375549e-02 3.169879317283630371e-02 -1.025470811873674393e-02 -6.749053020030260086e-03 -1.396181713789701462e-02 -5.347778275609016418e-02 -7.666898518800735474e-02 -4.593172669410705566e-02 8.084367960691452026e-02 8.905392885208129883e-02 -3.953633364289999008e-03 6.886705756187438965e-02 -3.646700978279113770e-01 -8.227041363716125488e-02 1.940464787185192108e-02 6.919640302658081055e-02 -1.068848073482513428e-01 -8.732254058122634888e-02 5.292638204991817474e-03 5.971263721585273743e-02 -3.774343058466911316e-03 8.357590436935424805e-02 4.649101197719573975e-02 -3.523876518011093140e-02 2.421713024377822876e-01 -2.716308832168579102e-01 -5.935392528772354126e-02 7.954485416412353516e-01 -1.408409625291824341e-01 1.836178638041019440e-02 3.651974350214004517e-02 1.926103681325912476e-01 -3.854694962501525879e-02 1.262866109609603882e-01 -7.101041078567504883e-02 -4.007534682750701904e-02 -2.104854770004749298e-02 -6.734327413141727448e-03 -1.177858095616102219e-03 3.657859265804290771e-01 3.189473226666450500e-02 -5.860786139965057373e-02 -4.454806074500083923e-02 1.127614676952362061e-01 -1.176009401679039001e-01 2.429340183734893799e-01 9.257952868938446045e-02 1.553668826818466187e-01 6.456818580627441406e-01 -1.834748685359954834e-01 -1.960257142782211304e-01 2.178210318088531494e-01 -7.069690525531768799e-02 1.051549427211284637e-02 -6.158081069588661194e-02 1.389773041009902954e-01 2.110763080418109894e-02 2.166053205728530884e-01 9.700149297714233398e-03 -4.639829695224761963e-02 2.139326781034469604e-01 -1.784749142825603485e-02 -3.265753984451293945e-01 1.062347888946533203e-01 1.113528832793235779e-01 -1.690296456217765808e-02 2.345715910196304321e-01 1.154192388057708740e-01 3.779067099094390869e-01 -1.278972625732421875e-01 5.917818844318389893e-02 4.367845505475997925e-02 3.026169911026954651e-02 -2.198405005037784576e-02 9.805997461080551147e-02 1.812196969985961914e-01 -1.566231250762939453e-02 2.055726796388626099e-01 -4.272227641195058823e-03 -1.000063028186559677e-02 -2.220556586980819702e-01 -2.289633005857467651e-01 1.018220782279968262e-01 -2.987898187711834908e-03 1.945271044969558716e-01 2.177998609840869904e-02 -8.298622071743011475e-02 -1.359382122755050659e-01 -4.349230527877807617e-01 -2.333346009254455566e-01 -1.664236932992935181e-01 -7.135072946548461914e-01 1.677392283454537392e-03 -3.658830188214778900e-03 -2.537517547607421875e-01 6.146042943000793457e-01 -7.787247188389301300e-03 -4.396089818328619003e-03 2.024545371532440186e-01 -7.482824474573135376e-02 -6.132789701223373413e-02 3.008496463298797607e-01 -9.989793598651885986e-02 1.760588139295578003e-01 2.898262999951839447e-02 -8.310852199792861938e-02 1.749482303857803345e-01 -4.573909640312194824e-01 1.042579039931297302e-01 2.932040765881538391e-02 5.697199702262878418e-02 -2.146037667989730835e-02 1.078647226095199585e-01 -6.607262045145034790e-02 -6.822121329605579376e-03 3.114484250545501709e-02 -6.515633314847946167e-02 7.493032608181238174e-03 4.867360368371009827e-02 -1.760459877550601959e-02 4.776750132441520691e-02 1.223465353250503540e-01 1.316170692443847656e-01 -6.666113436222076416e-02 -1.267369836568832397e-01 6.326872855424880981e-03 1.610243767499923706e-01 -3.441334119997918606e-04 -3.000496514141559601e-02 -4.088999330997467041e-02 1.896499693393707275e-01 3.531713187694549561e-01 -2.802183628082275391e-01 -3.837415203452110291e-02 1.036816742271184921e-03 9.994157403707504272e-02 -1.397815719246864319e-02 3.255230188369750977e-02 -1.164272055029869080e-02 -1.303498633205890656e-03 9.938915073871612549e-02 2.979203760623931885e-01 3.578770533204078674e-02 1.969576179981231689e-01 -4.583069980144500732e-01 2.790680341422557831e-02 2.142367362976074219e-01 3.853825107216835022e-02 -2.941080927848815918e-01
6.626918911933898926e-03 -2.239379733800888062e-01 -8.077941834926605225e-02 7.827563881874084473e-01 -3.084372878074645996e-01 1.055972501635551453e-01 -1.038488626480102539e+00 -4.881338030099868774e-02 1.721205115318298340e-01 3.373260796070098877e-02 -3.305102512240409851e-02 -1.065380454063415527e+00 -8.261904716491699219e-01 1.785985529422760010e-01 3.142713606357574463e-01 -2.347598373889923096e-01 1.766017228364944458e-01 -7.654361128807067871e-01 -3.223159909248352051e-02 1.898629903793334961e+00 3.667801320552825928e-01 -3.243360519409179688e-01 -2.730601131916046143e-01 -3.563846647739410400e-02 5.683268308639526367e-01 -4.917340278625488281e-01 2.640301287174224854e-01 -6.931853294372558594e-01 1.713744848966598511e-01 2.522498071193695068e-01 -2.681094408035278320e-01 4.099979400634765625e-01 -8.478123694658279419e-02 4.281679391860961914e-01 2.430644333362579346e-01 -1.719790161587297916e-03 1.247885301709175110e-01 -1.698958873748779297e-01 1.624943733215332031e+00 2.373750321567058563e-02 -1.262878626585006714e-01 -6.746376305818557739e-02 2.146079950034618378e-02 5.583916902542114258e-01 -2.340715378522872925e-01 -1.367406249046325684e-01 -1.481305658817291260e-01 -1.999202519655227661e-01 -7.927743792533874512e-01 -8.122205734252929688e-01 -5.497762560844421387e-01 7.379850149154663086e-01 3.115422725677490234e-01 4.951426684856414795e-01 1.047094225883483887e+00 -1.957708895206451416e-01 2.390414029359817505e-01 -2.284549772739410400e-01 -5.752646327018737793e-01 2.794050276279449463e-01 -1.016162186861038208e-01 -5.187644362449645996e-01 2.145574837923049927e-01 -3.630185425281524658e-01 4.226491153240203857e-01 5.523092150688171387e-01 -8.359940350055694580e-02 1.111052185297012329e-01 -2.721055783331394196e-02 -3.319774568080902100e-01 4.572442546486854553e-02 -1.084345221519470215e+00 6.464826464653015137e-01 3.729168325662612915e-02 -5.156750679016113281e-01 -7.459201663732528687e-02 -4.020880460739135742e-01 3.469765186309814453e-01 -2.287139296531677246e-01 -4.945302307605743408e-01 3.519681096076965332e-01 -1.108195818960666656e-02 5.812827870249748230e-02 2.630219161510467529e-01 8.163176476955413818e-02 -1.852611452341079712e-01 -5.399484932422637939e-02 -5.085262060165405273e-01 8.144041523337364197e-03 -2.606858909130096436e-01 -1.012977242469787598e+00 -1.157198697328567505e-01 8.691232651472091675e-02 1.928409375250339508e-02 4.177125692367553711e-01 6.734323501586914062e-02 1.676268428564071655e-01 -4.551524668931961060e-02 -6.677016615867614746e-01 4.411558806896209717e-01 -2.353679984807968140e-01 4.210895672440528870e-02 -1.181077212095260620e-01 -4.950728714466094971e-01 4.690532982349395752e-01 -5.747300386428833008e-01 -5.715808868408203125e-01 5.976611375808715820e-01 -1.114234209060668945e+00 -5.125591754913330078e-01 -2.541742287576198578e-02 6.508004665374755859e-01 3.502131402492523193e-01 -8.493867516517639160e-01 -3.106365799903869629e-01 -1.191475167870521545e-01 4.611943662166595459e-02 2.975565791130065918e-01 1.871359050273895264e-01 -1.103043437004089355e+00 3.430509567260742188e-02 -3.711890876293182373e-01 9.046617150306701660e-01 1.988485455513000488e-01 -5.105119198560714722e-02 -4.094437956809997559e-01 3.341988921165466309e-01 -7.976109534502029419e-02 -3.482356071472167969e-01 3.338304460048675537e-01 1.206991169601678848e-02 3.788122236728668213e-01 -1.179629042744636536e-01 8.729167580604553223e-01 -1.105382800102233887e+00 -2.136067599058151245e-01 1.163142085075378418e+00 4.468576312065124512e-01 -2.004439570009708405e-02 4.352781176567077637e-01 1.396172195672988892e-01 -5.354179143905639648e-01 -3.247439265251159668e-01 2.687049806118011475e-01 -3.598286807537078857e-01 -3.265637159347534180e-01 -1.196797713637351990e-01 -2.731058299541473389e-01 -1.313896656036376953e+00 -5.745962634682655334e-02
-1.636187881231307983e-01 1.688483208417892456e-01 1.796837896108627319e-01 3.482815027236938477e-01 -2.160278111696243286e-01 -2.208978682756423950e-01 -1.418174505233764648e-01 1.265046745538711548e-01 -1.067665126174688339e-02 9.083316326141357422e-01 -1.090561319142580032e-02 -6.167104244232177734e-01 -3.278581202030181885e-01 8.089939355850219727e-01 4.509255662560462952e-02 -9.615394473075866699e-02 8.133020401000976562e-01 -2.659458294510841370e-02 -4.678353071212768555e-01 2.017160892486572266e+00 -2.851132452487945557e-01 4.071059823036193848e-01 -8.671828359365463257e-02 -7.628809213638305664e-01 3.039627373218536377e-01 4.725371301174163818e-01 -1.331787649542093277e-02 -1.246015429496765137e-01 -1.160403490066528320e+00 -2.316584587097167969e-01 1.745925992727279663e-01 2.420689314603805542e-01 8.032125234603881836e-01 8.945006132125854492e-02 5.796983242034912109e-01 -6.632804870605468750e-02 3.498494923114776611e-01 -8.417512178421020508e-01 1.731978416442871094e+00 -6.424346566200256348e-02 5.646212100982666016e-01 2.022052258253097534e-01 -4.286520183086395264e-02 3.472583889961242676e-01 -2.378782927989959717e-01 6.088854745030403137e-03 -5.100825056433677673e-02 -1.121004298329353333e-01 -2.578261792659759521e-01 5.117349028587341309e-01 -2.049745470285415649e-01 2.747265854850411415e-03 -6.716833710670471191e-01 -3.712554648518562317e-02 6.026457548141479492e-01 4.524674415588378906e-01 7.204198241233825684e-01 8.388406038284301758e-02 6.763225793838500977e-01 1.791494190692901611e-01 -1.796243935823440552e-01 -1.522169262170791626e-01 4.391183331608772278e-02 2.425408810377120972e-01 7.929944247007369995e-02 2.227052003145217896e-01 -3.585380613803863525e-01 7.663667947053909302e-02 -1.053132712841033936e-01 -5.655627846717834473e-01 3.115220367908477783e-02 -1.303727984428405762e+00 8.218649029731750488e-02 -2.521389164030551910e-02 2.240323424339294434e-01 -8.738680183887481689e-02 4.829550627619028091e-03 -4.592743217945098877e-01 -3.756878674030303955e-01 1.744782328605651855e-01 1.258311152458190918e+00 8.624027669429779053e-02 5.835322141647338867e-01 1.002062708139419556e-01 1.881603598594665527e-01 -4.807895794510841370e-02 4.571408927440643311e-01 -4.434776306152343750e-01 2.646845579147338867e-01 -2.214217483997344971e-01 -3.220838904380798340e-01 1.003314927220344543e-01 -4.819032251834869385e-01 -8.419691771268844604e-02 5.913420319557189941e-01 4.516254365444183350e-01 -2.762491255998611450e-02 -3.030287921428680420e-01 -3.875742256641387939e-01 3.095057420432567596e-02 3.868796825408935547e-01 -8.865252137184143066e-01 -2.483617812395095825e-01 4.161969721317291260e-01 1.511463969945907593e-01 -4.390513300895690918e-01 -1.567765474319458008e-01 2.369158118963241577e-01 -3.713217675685882568e-01 -6.164523959159851074e-02 1.044080972671508789e+00 9.085234403610229492e-01 5.354779958724975586e-01 -5.923262238502502441e-01 -4.362161457538604736e-01 -5.899544954299926758e-01 -1.494912058115005493e-01 8.195016384124755859e-01 8.809611201286315918e-02 -5.440273284912109375e-01 6.865417212247848511e-02 2.758852839469909668e-01 7.449328303337097168e-01 -5.116232633590698242e-01 6.618980765342712402e-01 -6.119930744171142578e-01 -3.249330818653106689e-01 -4.083951413631439209e-01 -7.227032184600830078e-01 -3.501795828342437744e-01 -1.339957565069198608e-01 -1.905224621295928955e-01 1.340163946151733398e-01 1.278887271881103516e+00 -7.700932025909423828e-01 -6.155923008918762207e-01 1.648078441619873047e+00 2.845720201730728149e-02 -7.917465567588806152e-01 3.623664677143096924e-01 -6.792015582323074341e-02 7.834220677614212036e-02 -1.996277570724487305e-01 4.614242911338806152e-01 9.653413295745849609e-02 -2.029913850128650665e-02 -6.904309242963790894e-02 -2.642121165990829468e-02 -6.693832278251647949e-01 9.899923205375671387e-02
3.151536583900451660e-01 5.719223022460937500e-01 6.135078072547912598e-01 8.663969635963439941e-01 -1.358392182737588882e-02 -2.518330514430999756e-01 -2.938039787113666534e-02 4.003928974270820618e-02 -1.380681097507476807e-01 2.871634066104888916e-01 2.126549780368804932e-01 -8.987073898315429688e-01 -4.512395262718200684e-01 -3.450810313224792480e-01 -8.463909476995468140e-02 7.352794706821441650e-02 4.152268171310424805e-02 9.022098034620285034e-02 1.498711407184600830e-01 1.346063017845153809e+00 -1.080331206321716309e-01 -6.612505912780761719e-01 5.306717380881309509e-02 -5.691471099853515625e-01 -1.003976762294769287e-01 -1.213185116648674011e-01 1.875424981117248535e-01 1.402088403701782227e-01 -1.942829601466655731e-02 -8.487708866596221924e-02 -1.553780399262905121e-02 -1.313803903758525848e-02 -1.361071467399597168e-01 2.456237971782684326e-01 1.327072232961654663e-01 1.312264204025268555e-01 3.551302552223205566e-01 -4.983581006526947021e-01 1.482187509536743164e+00 -4.536411166191101074e-02 -1.405072808265686035e-01 -1.975289732217788696e-02 4.550362750887870789e-02 2.341634184122085571e-01 -2.582287490367889404e-01 -4.176591988652944565e-03 2.371470481157302856e-01 1.814793944358825684e-01 -5.111325383186340332e-01 -4.921645522117614746e-01 -5.229296088218688965e-01 4.208208061754703522e-03 7.872799783945083618e-02 1.693247109651565552e-01 3.863558471202850342e-01 -1.506575942039489746e-01 1.528833210468292236e-01 -1.492487043142318726e-01 -1.620531529188156128e-01 2.621324658393859863e-01 -1.840344071388244629e-01 1.454156339168548584e-01 2.053739316761493683e-02 -3.311914205551147461e-01 1.580599546432495117e-01 1.019436419010162354e-01 -1.354561895132064819e-01 8.036100119352340698e-02 -1.989278644323348999e-01 -6.361657977104187012e-01 4.581262767314910889e-01 -6.927789449691772461e-01 2.034491002559661865e-01 2.769459225237369537e-02 3.362011909484863281e-01 -6.916825473308563232e-02 -3.637302815914154053e-01 -1.435488164424896240e-01 -1.553434878587722778e-01 2.822974920272827148e-01 7.453514933586120605e-01 1.542766839265823364e-01 5.982862710952758789e-01 1.716677248477935791e-01 2.091443091630935669e-01 -8.354741334915161133e-02 3.601933121681213379e-01 -5.917793884873390198e-02 6.955363601446151733e-02 -2.526792883872985840e-01 -2.179083824157714844e-01 2.169785350561141968e-01 -3.046030104160308838e-01 7.914341986179351807e-02 7.105036973953247070e-01 -2.687749862670898438e-01 -6.638509780168533325e-02 -1.654047071933746338e-01 -1.549706310033798218e-01 2.984285652637481689e-01 -4.895397424697875977e-01 -1.384646892547607422e+00 -2.094905823469161987e-01 -6.388132274150848389e-02 1.413424313068389893e-01 -8.068594336509704590e-02 -4.916842877864837646e-01 2.745337784290313721e-01 -1.234704628586769104e-01 -3.038285970687866211e-01 8.591759204864501953e-02 9.285361766815185547e-01 5.054662823677062988e-01 -4.855886697769165039e-01 -8.342642784118652344e-01 -7.132653594017028809e-01 7.334815710783004761e-02 2.556759119033813477e-01 9.734462015330791473e-03 -7.559324502944946289e-01 -9.001839160919189453e-02 -6.046390533447265625e-01 6.630324125289916992e-01 -1.831116527318954468e-01 2.415229678153991699e-01 3.896423056721687317e-02 -6.919773817062377930e-01 -5.975943803787231445e-01 -9.691290259361267090e-01 1.043626368045806885e-01 -1.433738917112350464e-01 1.156101226806640625e-01 5.689030140638351440e-02 9.515135288238525391e-01 -6.909907460212707520e-01 -1.515713632106781006e-01 6.772545576095581055e-01 9.154806137084960938e-01 -5.335215479135513306e-03 9.602922201156616211e-01 3.569967150688171387e-01 -9.541926383972167969e-01 1.127296015620231628e-01 2.440331727266311646e-01 -2.227509617805480957e-01 -6.966113299131393433e-02 -5.998626351356506348e-01 -1.901155859231948853e-01 -8.305863142013549805e-01 2.462908066809177399e-02
2.521948814392089844e-01 4.631459712982177734e-01 4.222500324249267578e-01 7.578740119934082031e-01 2.308009415864944458e-01 -4.939425885677337646e-01 -4.525103420019149780e-02 -1.062465831637382507e-01 -4.241027683019638062e-02 2.135139256715774536e-01 3.566442430019378662e-01 -7.375905513763427734e-01 -4.450401365756988525e-01 -3.130171000957489014e-01 -2.561234235763549805e-01 3.975280523300170898e-01 4.758937060832977295e-01 -4.800580739974975586e-01 2.167072705924510956e-02 1.319335818290710449e+00 3.189205527305603027e-01 -6.345813870429992676e-01 -2.267764210700988770e-01 -4.835968017578125000e-01 1.542087793350219727e-01 -2.586857676506042480e-01 1.234247311949729919e-01 1.347105503082275391e-01 3.366221487522125244e-01 7.441695034503936768e-02 3.495179116725921631e-01 3.960569202899932861e-01 7.751734554767608643e-02 -4.671573638916015625e-02 2.800156176090240479e-01 -4.560561776161193848e-01 1.308097243309020996e+00 -3.907957673072814941e-01 1.183981299400329590e+00 2.826434560120105743e-03 5.087541937828063965e-01 -3.173280954360961914e-01 4.760851338505744934e-02 6.423276662826538086e-02 -6.411210447549819946e-02 1.032891720533370972e-01 -3.585088625550270081e-02 -1.902557909488677979e-01 -3.953379988670349121e-01 -3.014947772026062012e-01 -2.806847393512725830e-01 4.360567033290863037e-01 1.596245169639587402e-01 3.428467512130737305e-01 4.637178480625152588e-01 -5.766054987907409668e-01 2.535650432109832764e-01 -3.296697139739990234e-01 4.719047620892524719e-02 1.800758838653564453e-01 -7.688733935356140137e-02 7.386390864849090576e-02 3.343972191214561462e-02 -3.550270497798919678e-01 3.866043686866760254e-01 -2.449568212032318115e-01 -4.110232889652252197e-01 -4.911323077976703644e-03 -3.700018227100372314e-01 -4.262200891971588135e-01 2.868874371051788330e-01 -5.821450948715209961e-01 6.559948921203613281e-01 4.707635194063186646e-02 4.270714148879051208e-02 -3.797039017081260681e-02 -4.928860664367675781e-01 -4.567324221134185791e-01 -4.206163287162780762e-01 -2.976625859737396240e-01 5.574900507926940918e-01 1.593846082687377930e-01 5.652982592582702637e-01 -5.018657445907592773e-02 -7.299808412790298462e-02 -1.588407307863235474e-01 2.965117394924163818e-01 -1.763753890991210938e-01 4.686477035284042358e-02 -4.395745694637298584e-02 1.136644557118415833e-01 -1.340732127428054810e-01 -2.349032014608383179e-01 6.306777894496917725e-02 5.227033495903015137e-01 1.712893694639205933e-01 -2.299013137817382812e-01 -6.909864395856857300e-02 -2.851408720016479492e-01 2.727338075637817383e-01 -6.436818838119506836e-01 -1.235018610954284668e+00 1.005196273326873779e-01 1.083109825849533081e-01 9.041047096252441406e-02 -2.326722592115402222e-01 -5.104833841323852539e-01 1.024462133646011353e-01 -1.445897519588470459e-01 -2.001903504133224487e-01 4.071482717990875244e-01 8.269998431205749512e-01 3.731800913810729980e-01 -8.874694705009460449e-01 -4.557309448719024658e-01 -2.815922498703002930e-01 2.207563817501068115e-01 3.190970420837402344e-01 2.120465226471424103e-02 -1.151555180549621582e+00 -6.983701139688491821e-02 -7.070730924606323242e-01 8.111876249313354492e-01 7.567343860864639282e-02 2.543897330760955811e-01 -2.249357998371124268e-01 -1.350779533386230469e-01 -2.593754231929779053e-01 -9.300025105476379395e-01 6.606038808822631836e-01 7.568623870611190796e-02 3.198917806148529053e-01 -1.790962666273117065e-01 1.127023935317993164e+00 -7.128912806510925293e-01 -3.991625010967254639e-01 5.208899974822998047e-01 2.443355917930603027e-01 -3.387813270092010498e-02 1.144331336021423340e+00 3.991509377956390381e-01 -4.985078275203704834e-01 -3.126338496804237366e-02 2.124849110841751099e-01 -7.283076047897338867e-01 -2.720167040824890137e-01 5.252992361783981323e-02 2.125115096569061279e-01 -7.223975658416748047e-01 1.461822241544723511e-01
-1.793336421251296997e-01 1.801801174879074097e-01 9.536515176296234131e-02 2.908775210380554199e-01 2.475099861621856689e-01 -4.885124266147613525e-01 -1.587299071252346039e-02 -1.415803879499435425e-01 -1.614346057176589966e-01 3.396788612008094788e-02 -2.067994475364685059e-01 -9.118164181709289551e-01 -4.452679753303527832e-01 -4.263231903314590454e-02 -3.306270539760589600e-01 5.796529725193977356e-02 4.688186105340719223e-03 3.603134751319885254e-01 -2.031667530536651611e-01 1.737448930740356445e+00 -5.122547596693038940e-02 -8.260802030563354492e-01 -9.956282377243041992e-01 -1.104881986975669861e-01 2.810908257961273193e-01 -4.536220133304595947e-01 6.363661587238311768e-02 1.792256683111190796e-01 1.721850335597991943e-01 -3.500280529260635376e-02 -5.197752639651298523e-02 -4.346698895096778870e-02 -9.804116189479827881e-02 -5.525845289230346680e-01 6.487060338258743286e-02 -7.305977344512939453e-01 -1.112289652228355408e-01 -3.468715250492095947e-01 1.681817054748535156e+00 3.307229653000831604e-02 -1.695066988468170166e-01 2.226587086915969849e-01 -3.355088829994201660e-02 3.166230618953704834e-01 3.216265439987182617e-01 2.374741584062576294e-01 -2.306606918573379517e-01 -1.816338859498500824e-02 -8.654378056526184082e-01 -2.991161122918128967e-02 -2.528696656227111816e-01 -7.349391281604766846e-02 2.146807163953781128e-01 3.562394082546234131e-01 1.118935227394104004e+00 -4.982349649071693420e-02 -1.447863459587097168e+00 -1.547474563121795654e-01 6.568609923124313354e-02 -7.284848093986511230e-01 -3.019108623266220093e-02 2.444921992719173431e-02 2.681272625923156738e-01 -1.782336086034774780e-01 -1.097178384661674500e-01 7.052447199821472168e-01 -1.873534917831420898e-01 7.312916219234466553e-02 2.221931070089340210e-01 -4.765694141387939453e-01 2.096682935953140259e-01 -7.350947856903076172e-01 1.025918006896972656e+00 -6.783572584390640259e-02 4.958135485649108887e-01 1.739065349102020264e-02 -1.141700595617294312e-01 2.319165021181106567e-01 -2.412827461957931519e-01 -7.391896843910217285e-01 4.526563584804534912e-01 -2.340612411499023438e-01 5.452494025230407715e-01 -7.372496649622917175e-03 1.250407099723815918e-01 -2.206456065177917480e-01 2.470477223396301270e-01 -2.373102456331253052e-01 -1.126604557037353516e+00 2.430747002363204956e-01 -3.456259369850158691e-01 -2.148866802453994751e-01 -1.237749978899955750e-01 -1.288332343101501465e-01 6.583042740821838379e-01 7.486854493618011475e-02 -1.679768264293670654e-01 -1.145409606397151947e-02 1.478790789842605591e-01 1.459416747093200684e+00 -4.987481236457824707e-01 -6.652284264564514160e-01 1.756826043128967285e-02 4.182366654276847839e-02 -4.780583549290895462e-03 -7.681332528591156006e-02 -5.776752233505249023e-01 9.281428903341293335e-02 -3.713068664073944092e-01 -4.575197696685791016e-01 4.924082756042480469e-01 1.222058892250061035e+00 2.224774211645126343e-01 -1.520286798477172852e+00 1.925348863005638123e-02 -4.935135543346405029e-01 -2.910896576941013336e-02 6.072001457214355469e-01 7.776167243719100952e-02 -1.262334346771240234e+00 1.928510367870330811e-01 -7.008115202188491821e-02 -1.351181417703628540e-01 2.836279943585395813e-02 -3.555859923362731934e-01 2.639230526983737946e-02 -1.878198742866516113e+00 -1.178269833326339722e-01 -1.302274227142333984e+00 2.716512680053710938e-01 7.376746833324432373e-02 -1.095289885997772217e-01 -6.892204880714416504e-01 5.297389030456542969e-01 -8.985844254493713379e-01 -2.420000582933425903e-01 1.164585113525390625e+00 1.468225717544555664e-01 -1.777964532375335693e-01 5.350441336631774902e-01 7.327098250389099121e-01 -9.248258918523788452e-02 1.909760385751724243e-01 8.104681372642517090e-01 -5.262180566787719727e-01 -4.018611013889312744e-01 -6.502625346183776855e-02 -4.668551981449127197e-01 -1.227873682975769043e+00 -1.019975841045379639e-01
-1.305051594972610474e-01 1.029414907097816467e-01 6.558534502983093262e-01 3.063972890377044678e-01 -4.845793545246124268e-01 1.222260016947984695e-02 -2.280908823013305664e-02 -2.091363258659839630e-02 -4.603743925690650940e-02 1.120382070541381836e+00 2.335160225629806519e-01 -1.987795084714889526e-01 -2.425347119569778442e-01 1.043806195259094238e+00 8.493505418300628662e-02 1.976281963288784027e-02 1.624937504529953003e-01 3.073567450046539307e-01 -2.725429236888885498e-01 2.536110401153564453e+00 -2.100322842597961426e-01 -6.518846750259399414e-02 -5.297421813011169434e-01 -2.046316266059875488e-01 1.180258095264434814e-01 6.760497689247131348e-01 -3.127726316452026367e-01 -1.766086965799331665e-01 1.713229417800903320e-01 5.028070211410522461e-01 6.248522549867630005e-02 4.489850997924804688e-01 2.123455524444580078e+00 6.756063550710678101e-02 1.161656342446804047e-03 -2.730492651462554932e-01 2.747254669666290283e-01 -1.664665043354034424e-01 1.799326300621032715e+00 1.831682771444320679e-02 4.405938982963562012e-01 1.429619342088699341e-01 -2.298906445503234863e-03 4.251874387264251709e-01 3.875374495983123779e-01 1.794601976871490479e-01 1.384142190217971802e-01 7.835012674331665039e-01 -3.765407204627990723e-01 5.462407469749450684e-01 -2.984863817691802979e-01 3.695597648620605469e-01 -4.428655803203582764e-01 -3.426557481288909912e-01 5.808740258216857910e-01 1.907441467046737671e-01 5.576102137565612793e-01 8.523438870906829834e-02 5.889210104942321777e-01 2.597105205059051514e-01 -4.843081533908843994e-02 -1.118551418185234070e-01 1.536860316991806030e-01 5.591011419892311096e-02 4.956917166709899902e-01 8.089853525161743164e-01 -1.022538065910339355e+00 4.657524526119232178e-01 3.384652733802795410e-01 -1.127916812896728516e+00 -3.547874391078948975e-01 -1.284552335739135742e+00 8.131068944931030273e-01 4.512737989425659180e-01 1.408848017454147339e-01 -2.195669561624526978e-01 -1.061159819364547729e-01 -8.015486598014831543e-02 -6.200723648071289062e-01 -8.016280531883239746e-01 1.107173681259155273e+00 -1.043940111994743347e-01 2.847809493541717529e-01 -2.536348402500152588e-01 8.008347451686859131e-02 3.565068840980529785e-01 6.291973590850830078e-01 2.397481054067611694e-01 5.468291640281677246e-01 5.477677583694458008e-01 -2.971633076667785645e-01 3.706264197826385498e-01 9.274623543024063110e-02 -1.489703804254531860e-01 1.002167463302612305e+00 3.134937882423400879e-01 -2.064348936080932617e+00 -1.023854687809944153e-01 -1.908020488917827606e-02 5.186444893479347229e-02 -2.827198207378387451e-01 -3.730609416961669922e-01 2.666195929050445557e-01 3.490671142935752869e-02 4.946738779544830322e-01 -4.166249930858612061e-01 2.437503188848495483e-01 2.627130597829818726e-02 -1.038144752383232117e-01 -3.879997879266738892e-02 4.313222169876098633e-01 1.310918688774108887e+00 3.890080153942108154e-01 -1.007013440132141113e+00 -1.064768061041831970e-01 -2.516323328018188477e-01 -2.988839149475097656e-01 3.825863897800445557e-01 9.786005318164825439e-02 -7.699336409568786621e-01 -1.732122302055358887e-01 5.878802537918090820e-01 2.715927660465240479e-01 3.132407963275909424e-01 2.898758351802825928e-01 -3.748198449611663818e-01 -1.463924050331115723e-01 -6.561210006475448608e-02 -4.500176310539245605e-01 3.594922125339508057e-01 4.327395930886268616e-02 9.647748619318008423e-02 -5.523424595594406128e-02 1.123834729194641113e+00 -2.554191946983337402e-01 -7.357110977172851562e-01 7.738873362541198730e-01 2.347404882311820984e-02 -2.986859716475009918e-02 2.098170518875122070e-01 3.947228193283081055e-02 1.291694194078445435e-01 -1.143365502357482910e+00 -1.583688333630561829e-02 8.670585155487060547e-01 -5.109368637204170227e-02 2.647345066070556641e-01 2.990741729736328125e-01 -1.127661347389221191e+00 5.718623995780944824e-01
