6.434576958417892456e-02 -4.477959871292114258e-02 -6.074988469481468201e-02 -3.486817330121994019e-02 -7.950844615697860718e-02 5.845903232693672180e-02 -1.497859228402376175e-02 7.095025479793548584e-02 2.165485918521881104e-02 -2.807948179543018341e-02 -1.890418231487274170e-01 2.397195249795913696e-01 -8.055629730224609375e+00 1.508983224630355835e-01 1.240166351199150085e-01 -9.194037318229675293e-02 1.071156859397888184e-01 2.092626988887786865e-01 -1.466704010963439941e-01 1.926085352897644043e-01 1.949467658996582031e-01 1.712541468441486359e-02 3.120994940400123596e-02 3.437083959579467773e-02
9.827800095081329346e-04 -9.329963475465774536e-02 -1.599864065647125244e-01 -4.391063749790191650e-02 -8.597774803638458252e-02 1.951435208320617676e-02 -3.242712840437889099e-02 1.150909215211868286e-01 -1.351345330476760864e-01 -8.588773757219314575e-02 -7.601675391197204590e-02 3.343613073229789734e-02 -1.112827211618423462e-01 3.702893108129501343e-02 -4.798854887485504150e-02 -1.459449380636215210e-01 2.329665273427963257e-01 7.714156806468963623e-02 -2.490642964839935303e-01 7.431156933307647705e-02 8.744058609008789062e-01 -3.366636112332344055e-02 -3.218934684991836548e-02 2.488822303712368011e-02
7.973631471395492554e-02 9.161833673715591431e-03 -7.526494562625885010e-03 1.989559829235076904e-01 -3.026532232761383057e-01 3.816765919327735901e-02 2.876894474029541016e-01 1.633096039295196533e-01 -2.798981592059135437e-02 -7.861704379320144653e-02 6.438618153333663940e-02 1.431473195552825928e-01 3.429896011948585510e-02 -6.580706220120191574e-03 -2.220408767461776733e-01 7.651581615209579468e-02 -5.500032007694244385e-02 2.709340453147888184e-01 1.470513641834259033e-01 -2.030268758535385132e-01 2.082400768995285034e-01 1.255225837230682373e-01 7.519029080867767334e-02 1.842212118208408356e-02
6.653039157390594482e-02 4.812684655189514160e-02 3.132436424493789673e-02 2.617093920707702637e-02 3.185880184173583984e-02 1.018920242786407471e-01 -2.526041353121399879e-03 -9.229379706084728241e-03 -2.340759849175810814e-03 6.693704426288604736e-02 -4.929929226636886597e-02 -2.482923120260238647e-02 1.606439799070358276e-01 -1.022035032510757446e-01 5.900166183710098267e-02 -3.468424081802368164e-02 4.974539577960968018e-02 1.987179219722747803e-01 1.667549759149551392e-01 -4.002039507031440735e-02 -3.021015040576457977e-02 1.643111743032932281e-02 -1.464789174497127533e-02 1.154408976435661316e-02
2.398350089788436890e-02 -6.154990568757057190e-02 9.471020847558975220e-02 -1.500652283430099487e-01 1.878329515457153320e-01 9.600248187780380249e-02 1.052773669362068176e-01 4.649083688855171204e-02 1.474747955799102783e-01 7.986463606357574463e-02 -2.021084725856781006e-01 -1.601632982492446899e-01 1.013768389821052551e-01 -9.836328774690628052e-02 1.021076664328575134e-01 1.786942034959793091e-01 2.877846956253051758e-01 -2.964546717703342438e-02 1.517209311714395881e-04 2.880811989307403564e-01 1.542798895388841629e-02 -1.691555976867675781e-02 9.602839499711990356e-02 8.664610236883163452e-02
2.104039676487445831e-02 3.354370966553688049e-02 -8.664009720087051392e-02 2.137410491704940796e-01 -1.529709249734878540e-01 3.646574914455413818e-03 7.990297861397266388e-03 -4.151155799627304077e-02 -7.469709217548370361e-02 -5.098999664187431335e-02 -1.342230197042226791e-02 -8.942593634128570557e-02 -4.691992700099945068e-02 -5.802195519208908081e-04 -8.057505637407302856e-02 -1.282432824373245239e-01 3.972100093960762024e-02 -9.131354093551635742e-02 -2.175455391407012939e-01 5.181229207664728165e-03 5.744458436965942383e-01 2.819985523819923401e-02 -9.188100695610046387e-03 5.385123658925294876e-03
-6.834801286458969116e-02 -1.707063242793083191e-02 4.511297494173049927e-02 -5.186750367283821106e-02 1.198511794209480286e-01 -8.517207950353622437e-02 -2.782378531992435455e-02 -1.336517035961151123e-01 1.214044615626335144e-01 -3.697703825309872627e-03 1.463462412357330322e-01 1.253780424594879150e-01 -8.714060485363006592e-02 -2.738438360393047333e-02 5.678199231624603271e-02 3.481079638004302979e-02 -2.172130346298217773e-01 -4.175271838903427124e-02 3.760551288723945618e-02 8.437982201576232910e-02 -1.855950802564620972e-01 8.926651626825332642e-02 -2.604996226727962494e-02 -3.098045848309993744e-02
6.935555487871170044e-02 1.757710576057434082e-01 -1.718408912420272827e-01 -1.312409248203039169e-02 -4.499541595578193665e-02 5.067897960543632507e-02 -5.821088328957557678e-02 5.868335813283920288e-02 -2.872972749173641205e-02 -4.471055045723915100e-02 1.200980097055435181e-01 1.017609685659408569e-01 -5.861572176218032837e-02 -1.150959264487028122e-02 -3.884208574891090393e-02 -1.253484785556793213e-01 1.622663997113704681e-02 2.041305899620056152e-01 -1.025313436985015869e-01 7.003103941679000854e-02 2.084842175245285034e-01 -4.060596227645874023e-02 -1.956719532608985901e-02 5.417795851826667786e-02
-5.978832393884658813e-02 1.774955987930297852e-01 -7.673262804746627808e-02 3.433489706367254257e-03 4.382510483264923096e-02 -9.830764494836330414e-03 -2.976675331592559814e-02 9.010861814022064209e-02 -1.320457365363836288e-02 3.301435336470603943e-02 -6.836269795894622803e-02 3.566839545965194702e-02 -2.671440131962299347e-02 9.114585071802139282e-02 1.460585147142410278e-01 -4.450877755880355835e-02 -8.925104141235351562e-02 -1.460176408290863037e-01 -2.852580845355987549e-01 2.176515758037567139e-01 -3.383434712886810303e-01 2.125450782477855682e-02 -1.765123941004276276e-02 2.309971302747726440e-02
2.049650996923446655e-01 1.713181138038635254e-01 4.430585801601409912e-01 1.713355481624603271e-01 2.478885650634765625e-02 -1.881278753280639648e-01 3.499729335308074951e-01 1.956974528729915619e-02 -8.112885802984237671e-02 6.347927451133728027e-02 1.177657395601272583e-01 -8.255308866500854492e-02 -3.313214778900146484e-01 -7.455789018422365189e-03 -1.812296360731124878e-01 1.184068992733955383e-01 6.822796165943145752e-02 -1.875639408826828003e-01 1.294279545545578003e-01 -7.433718442916870117e-02 -1.780276149511337280e-01 -9.858943521976470947e-02 -1.354878097772598267e-01 1.550511568784713745e-01
2.708896622061729431e-02 -1.899495869874954224e-01 6.740973889827728271e-02 -2.009990066289901733e-01 3.432839214801788330e-01 9.590507298707962036e-02 -7.944982498884201050e-03 -2.220697514712810516e-02 2.427517622709274292e-02 -1.826566830277442932e-02 1.775168254971504211e-02 -9.252190589904785156e-02 6.798099726438522339e-02 1.070123631507158279e-02 1.240832582116127014e-01 -2.291454002261161804e-02 2.743750214576721191e-01 9.312539547681808472e-02 -7.095396518707275391e-02 -1.384701579809188843e-01 -3.646453022956848145e-01 5.578096583485603333e-02 1.897259354591369629e-01 9.002758562564849854e-02
-2.624633256345987320e-03 7.640121132135391235e-02 3.481543064117431641e-01 3.024138510227203369e-01 -2.215117067098617554e-01 9.024680405855178833e-02 5.950881913304328918e-02 3.399688750505447388e-02 -6.161042675375938416e-02 -1.918863058090209961e-01 3.718440607190132141e-02 -3.971997648477554321e-03 -3.782076537609100342e-01 -6.962541341781616211e-01 3.472260832786560059e-01 -2.405756711959838867e-01 2.462509274482727051e-01 6.479148566722869873e-02 -1.334809958934783936e-01 3.431478142738342285e-02 3.574017807841300964e-02 4.726186767220497131e-02 8.464121818542480469e-02 5.773548036813735962e-03
2.828207425773143768e-02 6.040374189615249634e-02 1.380288451910018921e-01 -1.838802099227905273e-01 -2.996036037802696228e-02 -1.697554588317871094e-01 1.130838412791490555e-03 4.860483482480049133e-02 1.804467588663101196e-01 1.949504390358924866e-02 7.141377776861190796e-02 1.731170713901519775e-01 -3.472338244318962097e-02 -4.030849933624267578e-01 -2.438148707151412964e-01 1.190241575241088867e-01 1.684242039918899536e-01 -1.005632206797599792e-01 -5.337752774357795715e-02 -2.210584282875061035e-02 -1.969868093729019165e-01 -6.403583684004843235e-04 2.929684147238731384e-02 8.603633614256978035e-04
-7.567133009433746338e-02 1.167422607541084290e-01 -2.021011412143707275e-01 2.716863751411437988e-01 4.347621463239192963e-03 2.700066938996315002e-02 2.380816638469696045e-01 -1.294413208961486816e-01 -8.676581829786300659e-02 1.432031691074371338e-01 2.687625885009765625e-01 -2.438876628875732422e-01 3.016861975193023682e-01 2.144261151552200317e-01 -1.879549920558929443e-01 -7.668515294790267944e-02 1.241107508540153503e-01 -2.931596040725708008e-01 -1.538668107241392136e-02 1.006124988198280334e-01 -3.319701552391052246e-01 7.797833532094955444e-02 3.728906065225601196e-02 3.238460794091224670e-02
6.161556113511323929e-03 -1.137730255722999573e-01 3.845247998833656311e-02 -1.299759298563003540e-01 3.170768022537231445e-01 5.819775164127349854e-02 6.279010325670242310e-02 8.811922371387481689e-02 -9.826398454606533051e-03 -9.996672719717025757e-02 5.823626741766929626e-02 6.182115525007247925e-02 -1.461856663227081299e-01 4.240390658378601074e-01 -7.825483568012714386e-03 1.842578202486038208e-01 -2.051625549793243408e-01 6.274373084306716919e-02 3.059976175427436829e-02 -2.986901998519897461e-01 1.926058083772659302e-01 4.621004685759544373e-02 -9.371051192283630371e-02 -5.451524630188941956e-02
-4.939613491296768188e-02 4.793931916356086731e-02 1.802837289869785309e-02 -9.226403385400772095e-02 8.895851671695709229e-03 -4.818822070956230164e-02 1.089563369750976562e-01 -1.004284843802452087e-01 1.729586534202098846e-02 -2.901838123798370361e-01 1.017724256962537766e-02 -1.437170505523681641e-01 -4.894506186246871948e-02 5.597375333309173584e-02 2.562988735735416412e-02 -8.649945259094238281e-02 -1.324487477540969849e-01 -1.975614577531814575e-01 -5.865494161844253540e-02 2.382812201976776123e-01 -6.488455086946487427e-02 4.369124770164489746e-02 5.624395329505205154e-03 1.751488447189331055e-02
1.611089683137834072e-03 9.212032705545425415e-02 -1.235086694359779358e-01 2.894129455089569092e-01 -4.924883693456649780e-02 -5.574281141161918640e-02 9.278281778097152710e-02 -7.556862384080886841e-02 -3.494026139378547668e-02 7.725286483764648438e-02 4.984391480684280396e-02 -5.240543186664581299e-02 7.670742925256490707e-04 -1.323297023773193359e-01 8.040644973516464233e-02 -1.745575815439224243e-01 1.044114828109741211e-01 -8.134914934635162354e-02 1.409608423709869385e-01 -6.058881059288978577e-02 2.837289273738861084e-01 8.146300679072737694e-04 8.229974657297134399e-03 2.576879784464836121e-02
2.498431690037250519e-02 -1.051454767584800720e-01 -1.247061565518379211e-01 1.347829550504684448e-01 -1.049275025725364685e-01 6.089842692017555237e-02 3.647159785032272339e-02 8.254042267799377441e-02 3.926763602066785097e-04 -4.936415702104568481e-02 2.076003467664122581e-03 -2.081247046589851379e-02 -9.788778424263000488e-02 -1.553479302674531937e-02 6.292831152677536011e-02 4.037293046712875366e-02 1.575023084878921509e-01 2.932617068290710449e-01 -1.839128322899341583e-02 8.530821651220321655e-02 -4.113085269927978516e-01 -3.926168009638786316e-02 6.586879491806030273e-02 1.927039027214050293e-02
-4.530080407857894897e-02 -1.165195740759372711e-02 -3.649886697530746460e-02 -7.290655374526977539e-02 -3.767894804477691650e-01 3.876494243741035461e-02 -1.632398553192615509e-02 1.380779035389423370e-02 2.811859548091888428e-02 -1.444514691829681396e-01 1.286617815494537354e-01 1.617586910724639893e-01 2.202980034053325653e-02 1.332377046346664429e-01 -9.551562368869781494e-02 3.585066199302673340e-01 -9.948722273111343384e-02 -1.159424036741256714e-01 -1.127183660864830017e-01 -9.070380032062530518e-02 -1.191080361604690552e-02 2.182716690003871918e-02 4.172436520457267761e-02 -1.712160743772983551e-02
-5.221765860915184021e-02 -1.328712701797485352e-01 1.693183779716491699e-01 -2.112900316715240479e-01 -1.271272599697113037e-01 3.695005550980567932e-02 -3.304457291960716248e-02 -4.028223827481269836e-02 3.331064013764262199e-03 -1.237176135182380676e-01 6.272603571414947510e-02 1.156989187002182007e-01 -1.781303882598876953e-01 8.349268883466720581e-02 -1.580336689949035645e-02 -1.015094071626663208e-01 -1.940553784370422363e-01 3.046260401606559753e-02 -5.712119489908218384e-02 4.554429352283477783e-01 4.373012781143188477e-01 5.947646219283342361e-03 -1.851289533078670502e-02 -1.147675886750221252e-02
8.793019503355026245e-02 1.562504321336746216e-01 -7.144987583160400391e-02 -1.078822538256645203e-01 -1.822039633989334106e-01 1.808016933500766754e-02 3.118385933339595795e-02 -9.494674392044544220e-03 -8.614314347505569458e-02 -6.825147569179534912e-02 1.092536076903343201e-01 1.699312217533588409e-02 -8.656763285398483276e-02 -1.203451454639434814e-01 1.214627176523208618e-02 -8.639226108789443970e-02 -2.293618768453598022e-01 -1.206411644816398621e-01 -1.491975933313369751e-01 -4.190867021679878235e-02 3.047005534172058105e-01 -2.326904609799385071e-02 -1.205763779580593109e-02 4.056152421981096268e-03
1.259688194841146469e-02 8.456015959382057190e-03 1.852082312107086182e-01 -2.405147254467010498e-02 -2.292708754539489746e-01 1.365978866815567017e-01 7.942980527877807617e-02 3.020863048732280731e-02 3.480993583798408508e-02 -1.589804440736770630e-01 -2.657151222229003906e-01 4.700285568833351135e-02 4.865124225616455078e-01 -5.283540487289428711e-01 1.326793879270553589e-01 -6.418436765670776367e-02 -2.791462242603302002e-01 1.817805133759975433e-02 1.268114298582077026e-01 -3.998620808124542236e-02 3.529917076230049133e-02 -7.559734862297773361e-03 -2.529176510870456696e-02 1.872159354388713837e-02
-7.022046297788619995e-02 7.054750621318817139e-02 1.635103970766067505e-01 1.342439353466033936e-01 -4.322652518749237061e-01 1.016508191823959351e-01 9.767308086156845093e-02 -3.823562711477279663e-02 9.192697703838348389e-02 2.024273127317428589e-01 4.155875742435455322e-01 2.471058862283825874e-03 -4.155908524990081787e-01 -5.564329400658607483e-02 1.905543655157089233e-01 -6.069202348589897156e-02 -1.834386885166168213e-01 2.453685104846954346e-01 1.788145601749420166e-01 7.555804681032896042e-03 -3.019568622112274170e-01 -1.639992697164416313e-03 1.108772773295640945e-02 7.348307222127914429e-02
3.008846659213304520e-03 -3.885383158922195435e-02 2.392897307872772217e-01 2.969314754009246826e-01 -3.635676503181457520e-01 9.095891565084457397e-02 1.408052258193492889e-02 -6.589628010988235474e-02 4.098701849579811096e-02 -7.621303945779800415e-02 -2.322387509047985077e-02 6.820960436016321182e-03 1.642969436943531036e-02 8.915078639984130859e-02 -9.422982484102249146e-02 2.011513411998748779e-01 1.004536449909210205e-01 3.065313100814819336e-01 -1.787109524011611938e-01 -4.738357663154602051e-01 1.638228148221969604e-01 -6.287456024438142776e-03 -1.208915859460830688e-01 -4.306716844439506531e-02
-5.528220161795616150e-02 -8.404281735420227051e-02 -7.538118958473205566e-02 6.326118111610412598e-02 -4.429343622177839279e-03 5.118403583765029907e-02 1.091132014989852905e-01 -8.373616635799407959e-02 1.017895154654979706e-02 5.721283704042434692e-02 -4.221189301460981369e-04 -2.518182620406150818e-02 3.120461404323577881e-01 -6.281698495149612427e-02 2.898189239203929901e-02 -7.115667313337326050e-02 3.686236217617988586e-02 -4.449806362390518188e-02 -5.466269850730895996e-01 -3.299001976847648621e-02 3.604511171579360962e-02 8.113494515419006348e-02 -2.707554772496223450e-02 -5.781544744968414307e-02
-1.260588318109512329e-02 -4.244986921548843384e-02 -1.136887352913618088e-02 2.622984349727630615e-01 -1.456075459718704224e-01 -2.741258963942527771e-02 -9.542459249496459961e-02 5.207790061831474304e-02 1.943322480656206608e-03 8.726581186056137085e-02 3.396948054432868958e-02 -1.026059165596961975e-01 -1.474636346101760864e-01 3.103151619434356689e-01 8.470618724822998047e-02 -5.833857506513595581e-02 -1.612463593482971191e-01 -6.089084222912788391e-02 9.213556349277496338e-02 2.283310741186141968e-01 1.821009814739227295e-01 2.861708030104637146e-02 2.548438869416713715e-02 -1.753948815166950226e-02
4.267460852861404419e-02 -1.188673195429146290e-03 5.692868959158658981e-03 2.624678909778594971e-01 -6.744518410414457321e-03 8.034420199692249298e-03 -3.672728314995765686e-02 3.761733695864677429e-02 -1.661946251988410950e-02 -1.286361925303936005e-02 -8.006751537322998047e-02 1.205865759402513504e-02 -1.835718154907226562e-01 -2.640044130384922028e-02 -1.649887412786483765e-01 4.585589841008186340e-02 -6.475480645895004272e-02 -1.017173454165458679e-01 -2.032810598611831665e-01 1.089506670832633972e-01 -3.907038271427154541e-01 -2.382012270390987396e-02 -3.573030233383178711e-02 1.219661789946258068e-03
1.215051161125302315e-03 1.569622196257114410e-03 2.092637680470943451e-02 9.406384080648422241e-02 -2.056060172617435455e-02 1.815066300332546234e-02 -4.527020826935768127e-02 1.363660953938961029e-02 5.773755908012390137e-02 -1.818768866360187531e-02 -6.222330033779144287e-02 -2.075921930372714996e-02 2.364659868180751801e-02 2.596998959779739380e-02 1.373813003301620483e-01 1.142467856407165527e-01 -2.612139582633972168e-01 2.924517989158630371e-01 1.206052377820014954e-01 -1.868690252304077148e-01 -3.734277486801147461e-01 1.005912721157073975e-01 -5.999290943145751953e-02 9.933489374816417694e-03
2.194779552519321442e-02 -1.196747943758964539e-01 -7.459822297096252441e-02 9.813322871923446655e-02 9.316387772560119629e-02 -8.971646428108215332e-03 -6.341516971588134766e-02 -5.408712103962898254e-02 -1.871675066649913788e-02 1.104957908391952515e-01 -1.861164867877960205e-01 -4.255218207836151123e-01 -2.760899662971496582e-01 -6.245407834649085999e-02 5.478525906801223755e-02 4.749794676899909973e-02 1.429919600486755371e-01 2.885336577892303467e-01 -1.169689446687698364e-01 -3.946051746606826782e-02 -4.543275013566017151e-02 1.200482919812202454e-01 3.282489627599716187e-02 -9.825775632634758949e-04
-8.930263668298721313e-02 -9.185107052326202393e-02 4.014549553394317627e-01 -4.773058295249938965e-01 -1.269526872783899307e-02 -1.591520458459854126e-01 3.794211521744728088e-02 -1.617650240659713745e-01 1.369547005742788315e-02 -6.467486172914505005e-02 9.252128005027770996e-02 -1.256353408098220825e-01 -1.194567307829856873e-01 -1.598705188371241093e-03 1.233471184968948364e-02 5.079016461968421936e-02 1.130523607134819031e-01 4.529811143875122070e-01 -1.314965933561325073e-01 -1.766018918715417385e-03 -1.194427013397216797e-01 -8.608388155698776245e-02 -2.046246267855167389e-02 -7.170800119638442993e-02
1.248765662312507629e-01 -6.005082279443740845e-03 -1.078376844525337219e-01 1.158188804984092712e-01 1.421062499284744263e-01 5.617712158709764481e-03 1.656601577997207642e-01 -9.361950680613517761e-03 5.716476589441299438e-02 -2.093160748481750488e-01 7.263971865177154541e-02 8.679869025945663452e-02 9.570462256669998169e-02 3.179371729493141174e-02 -2.582894265651702881e-02 2.875910103321075439e-01 3.265660628676414490e-02 -1.419052183628082275e-01 -3.064151704311370850e-01 1.440115123987197876e-01 1.767407059669494629e-01 7.418762892484664917e-02 9.110311977565288544e-03 -5.658848211169242859e-02
4.468114301562309265e-02 2.158957533538341522e-02 -3.516952693462371826e-02 -3.559969365596771240e-02 1.788871735334396362e-01 -8.342379331588745117e-02 -4.895837977528572083e-02 4.019975289702415466e-02 2.959659788757562637e-03 1.665524020791053772e-02 3.573848679661750793e-02 6.623919308185577393e-02 1.447730138897895813e-02 -1.728343963623046875e-02 -2.770254909992218018e-01 -6.123524904251098633e-02 3.735492825508117676e-01 2.704782783985137939e-01 -4.964549839496612549e-01 -1.276922374963760376e-01 3.557222485542297363e-01 -2.172508090734481812e-02 6.351416930556297302e-03 2.798348292708396912e-02
-4.263779520988464355e-02 -1.217326149344444275e-01 7.469410449266433716e-02 -5.854459106922149658e-02 -4.941705241799354553e-02 -1.185730621218681335e-01 -1.014140173792839050e-01 -4.515267163515090942e-02 -2.980844303965568542e-02 1.163890026509761810e-02 -4.895182698965072632e-02 -5.595563724637031555e-02 5.230090767145156860e-02 -7.632276043295860291e-03 1.253186911344528198e-01 -1.720829010009765625e-01 6.688591837882995605e-01 -5.614242330193519592e-02 -3.815709426999092102e-02 3.606619685888290405e-02 4.331242740154266357e-01 -3.366734134033322334e-03 2.704176865518093109e-02 -2.390263602137565613e-03
5.499634891748428345e-02 5.288975313305854797e-02 -1.485628038644790649e-01 1.294463276863098145e-01 -2.617900446057319641e-02 6.610946357250213623e-02 -9.818474762141704559e-03 -3.043967857956886292e-02 -2.377676591277122498e-02 -8.369177579879760742e-02 -1.449469104409217834e-02 -1.731218844652175903e-01 4.973509907722473145e-02 8.682854473590850830e-03 2.530071735382080078e-01 2.496240846812725067e-02 4.036295413970947266e-01 -1.288776993751525879e-01 7.694379240274429321e-02 -4.629071801900863647e-02 3.162261247634887695e-01 -5.493329372256994247e-03 7.282332517206668854e-04 2.751726191490888596e-03
-1.678319834172725677e-02 -1.321226060390472412e-01 1.069480180740356445e-01 5.207088589668273926e-02 -5.600176006555557251e-02 6.198975816369056702e-02 4.909932240843772888e-02 -2.010812982916831970e-02 2.795100212097167969e-02 -4.498847573995590210e-02 -7.623175531625747681e-02 -7.357084006071090698e-02 8.217682689428329468e-02 -6.504038348793983459e-03 -3.790798783302307129e-02 -1.099438443779945374e-01 3.334378600120544434e-01 2.863416671752929688e-01 1.528073195368051529e-02 1.220085565000772476e-02 -5.198147296905517578e-01 -1.320893410593271255e-03 -6.880018860101699829e-02 -2.374454773962497711e-02
-1.636163890361785889e-01 7.845970243215560913e-02 -7.751309871673583984e-01 5.359216332435607910e-01 6.197646725922822952e-03 5.546118319034576416e-02 -9.971522539854049683e-02 -4.076020419597625732e-02 4.597754776477813721e-02 3.135495260357856750e-02 5.036259442567825317e-02 1.777201592922210693e-01 -3.337618708610534668e-01 1.192627400159835815e-01 -1.137863248586654663e-01 -2.198050320148468018e-01 -1.302261203527450562e-01 -6.947964429855346680e-02 8.039459586143493652e-02 -6.915769726037979126e-02 -1.158248167484998703e-02 -2.624554559588432312e-02 -4.147442802786827087e-02 3.588767349720001221e-02
1.545321941375732422e-01 -6.478873640298843384e-02 9.474799782037734985e-02 -4.977832734584808350e-02 1.666714251041412354e-01 -1.633394807577133179e-01 8.352723717689514160e-02 3.494451567530632019e-02 7.902256399393081665e-02 7.590457051992416382e-02 1.274942047894001007e-02 1.216801553964614868e-01 6.153225526213645935e-02 2.485090047121047974e-01 1.099529564380645752e-01 -2.414029277861118317e-02 2.476577162742614746e-01 2.231532707810401917e-03 1.103559955954551697e-01 -2.262666821479797363e-01 -7.466483712196350098e-01 2.009191550314426422e-02 1.243183109909296036e-02 1.253702044486999512e-01
-7.848453707993030548e-03 1.563971862196922302e-02 8.687259256839752197e-02 2.932942509651184082e-01 1.839136183261871338e-01 1.131453271955251694e-02 -1.246868669986724854e-01 6.153326481580734253e-02 1.586316712200641632e-02 6.655403971672058105e-02 1.992954164743423462e-01 -1.348951607942581177e-01 -1.435662358999252319e-01 2.204537689685821533e-01 -2.053813077509403229e-03 -3.686534166336059570e-01 4.189214482903480530e-02 3.121484220027923584e-01 -3.047070465981960297e-02 -1.285151392221450806e-01 -1.287428587675094604e-01 -3.855464980006217957e-02 -1.441755052655935287e-02 -1.589427143335342407e-02
4.525498673319816589e-02 7.066120207309722900e-02 -6.574922800064086914e-02 -4.649065807461738586e-02 -3.605061024427413940e-02 2.229957878589630127e-01 1.468756347894668579e-01 6.945203989744186401e-02 1.003669574856758118e-02 1.077780872583389282e-02 -8.263723552227020264e-02 2.869818210601806641e-01 -6.238249689340591431e-02 -6.457916647195816040e-02 -4.225580021739006042e-02 2.769260108470916748e-01 -3.122795224189758301e-01 -2.769021689891815186e-01 9.578344970941543579e-02 -1.477437168359756470e-01 1.327811479568481445e-01 -3.648554533720016479e-02 -1.990340277552604675e-02 -4.085726290941238403e-02
-1.926469383761286736e-03 6.755811627954244614e-03 -8.024945110082626343e-02 1.475670486688613892e-01 9.074223786592483521e-02 -6.107122823596000671e-02 5.563792586326599121e-02 4.900924116373062134e-02 7.305095344781875610e-02 1.017524823546409607e-01 -8.610775694251060486e-03 1.379325091838836670e-01 -1.217537149786949158e-01 2.379432469606399536e-01 2.085101008415222168e-01 -9.497044235467910767e-02 2.585274279117584229e-01 -1.445971876382827759e-01 -9.829890727996826172e-02 -2.690389752388000488e-02 -1.835234016180038452e-01 1.356100110569968820e-04 5.108596757054328918e-02 -6.087492685765028000e-03
-1.096647530794143677e-01 -1.768090128898620605e-01 -3.628875315189361572e-02 -9.189359098672866821e-02 3.286211192607879639e-02 -1.155975237488746643e-01 1.278103142976760864e-01 -2.927815541625022888e-02 1.138573139905929565e-01 5.611287057399749756e-02 6.093483418226242065e-02 -2.373446077108383179e-01 1.270054187625646591e-02 -1.288004368543624878e-01 -9.698562324047088623e-02 1.618831790983676910e-02 1.578071713447570801e-01 -6.304709613323211670e-02 2.255151718854904175e-01 3.217301517724990845e-02 -2.211332768201828003e-01 -2.728987671434879303e-02 1.971088647842407227e-01 -3.819858282804489136e-02
5.176529660820960999e-02 -6.037002429366111755e-02 4.968967661261558533e-02 -3.992901742458343506e-02 -9.762316942214965820e-02 2.320493757724761963e-02 8.046028763055801392e-02 -8.194692432880401611e-02 -3.893440961837768555e-02 -9.423547238111495972e-02 2.206829609349370003e-03 1.906240172684192657e-02 2.045528590679168701e-01 4.464745894074440002e-02 2.617735415697097778e-02 2.610134184360504150e-01 1.368668675422668457e-01 -2.171443253755569458e-01 4.103039682377129793e-04 5.792813375592231750e-03 -1.404272466897964478e-01 3.101952746510505676e-02 -7.075215876102447510e-02 -2.431765198707580566e-02
-1.081582275219261646e-03 9.192428551614284515e-03 -6.118055060505867004e-02 6.962044537067413330e-02 -1.201963722705841064e-01 -4.956776648759841919e-02 1.294851005077362061e-01 -1.624706238508224487e-01 4.247981682419776917e-02 -4.363301768898963928e-02 9.397009015083312988e-02 -3.247792646288871765e-02 2.880565822124481201e-02 6.871850788593292236e-02 1.765390671789646149e-02 1.497094184160232544e-01 5.891181230545043945e-01 -2.642639726400375366e-02 2.201718240976333618e-01 5.968365445733070374e-02 8.392686396837234497e-02 3.539818525314331055e-02 2.790712192654609680e-02 7.493666559457778931e-02
-4.659529030323028564e-02 1.703729629516601562e-01 -1.094833761453628540e-01 -3.095880150794982910e-02 1.580570042133331299e-01 -2.913352102041244507e-03 1.672612503170967102e-02 -6.264109164476394653e-02 -1.741208322346210480e-02 -1.374009903520345688e-02 1.439787298440933228e-01 3.424802422523498535e-02 -2.286799810826778412e-02 7.885258528403937817e-04 8.632050454616546631e-02 1.236328482627868652e-01 7.634256966412067413e-03 -1.542307585477828979e-01 -8.465456217527389526e-02 7.949267327785491943e-02 -3.216624557971954346e-01 -4.195207357406616211e-02 -1.187750790268182755e-02 3.632917627692222595e-02
-1.757290959358215332e-02 2.205940186977386475e-01 1.390280127525329590e-01 8.013977855443954468e-02 1.623421907424926758e-01 2.076175063848495483e-02 6.200365722179412842e-02 6.144966930150985718e-02 -7.105609029531478882e-02 -4.867487028241157532e-02 -4.955260455608367920e-02 -3.125887364149093628e-02 2.792370133101940155e-02 1.463105827569961548e-01 -4.051388055086135864e-02 -1.163225024938583374e-01 -1.861059516668319702e-01 -1.693084090948104858e-01 -1.395070999860763550e-01 -2.338559329509735107e-01 -1.831207573413848877e-01 -6.233043223619461060e-02 -9.655828028917312622e-02 1.999923586845397949e-02
-1.094217449426651001e-01 -3.108895123004913330e-01 1.475516408681869507e-01 3.158960044384002686e-01 -4.503517746925354004e-01 -2.769827842712402344e-01 -3.589108213782310486e-02 1.229183301329612732e-01 2.259100601077079773e-02 2.042552083730697632e-01 2.538697123527526855e-01 -4.973123315721750259e-03 4.469386339187622070e-01 -1.801454573869705200e-01 -1.210727095603942871e-01 1.334621310234069824e-01 -1.320381835103034973e-02 1.656551361083984375e-01 1.321007013320922852e-01 -2.152389734983444214e-01 2.892918419092893600e-04 -1.181704476475715637e-01 -3.334109187126159668e-01 1.692707650363445282e-02
2.724649198353290558e-02 3.770602121949195862e-02 1.108351573348045349e-01 5.682824924588203430e-02 -7.130438089370727539e-02 -1.559052895754575729e-02 -4.309513792395591736e-02 1.833463273942470551e-02 -5.084352940320968628e-02 -6.028457731008529663e-02 -1.091045215725898743e-01 -3.651538118720054626e-02 2.286971919238567352e-02 -1.478326171636581421e-01 3.421000204980373383e-03 1.463290024548768997e-02 -1.223380342125892639e-01 -1.510930955410003662e-01 2.095963656902313232e-01 1.405950915068387985e-02 -4.646557942032814026e-02 2.246526628732681274e-02 2.779726684093475342e-02 2.669122070074081421e-03
4.069525003433227539e-02 2.377254515886306763e-02 3.591000139713287354e-01 8.307798206806182861e-02 -4.208497703075408936e-02 9.797527641057968140e-02 -1.709217131137847900e-01 2.630106918513774872e-02 -3.593057859688997269e-03 1.185138970613479614e-01 8.134178817272186279e-02 5.936179310083389282e-02 -1.456559728831052780e-02 5.359425395727157593e-02 -1.724914275109767914e-02 -1.091893240809440613e-01 3.275587782263755798e-02 1.431761980056762695e-01 7.108975201845169067e-02 8.921015262603759766e-02 6.695584058761596680e-01 -2.633183728903532028e-03 -1.698580011725425720e-02 -2.584414929151535034e-02
-6.520614959299564362e-03 -6.905733793973922729e-02 -6.870188564062118530e-02 -9.491886198520660400e-02 5.734995380043983459e-02 -1.289648376405239105e-02 1.321478635072708130e-01 -7.606424391269683838e-02 -5.830719321966171265e-02 5.134338140487670898e-02 -4.724203050136566162e-02 1.538024395704269409e-01 7.575083523988723755e-02 3.280186280608177185e-02 7.263074629008769989e-03 2.824156358838081360e-02 -9.330103173851966858e-03 -1.561489701271057129e-02 2.460246533155441284e-01 -1.759707927703857422e-01 1.500637382268905640e-01 -4.109803587198257446e-02 -1.010029986500740051e-01 -7.721099257469177246e-02
-9.588117152452468872e-02 1.820644885301589966e-01 -2.495780959725379944e-02 1.609745621681213379e-01 -1.581054925918579102e-01 -1.728618144989013672e-01 8.656099438667297363e-02 -9.717812761664390564e-03 1.314319372177124023e-01 -5.286753922700881958e-02 -1.401589214801788330e-01 -1.028454974293708801e-01 -3.528653383255004883e-01 1.074001938104629517e-01 -9.889439679682254791e-03 8.435767889022827148e-02 2.564391493797302246e-01 1.684990827925503254e-03 3.881023228168487549e-01 -5.143458247184753418e-01 9.003621339797973633e-02 5.035652965307235718e-02 2.207811027765274048e-01 5.512177199125289917e-02
-1.037078443914651871e-02 -3.334879502654075623e-02 7.075858116149902344e-02 -2.105097286403179169e-02 -3.662221878767013550e-02 8.937464654445648193e-02 -6.553021073341369629e-02 2.761205472052097321e-02 3.594436869025230408e-02 1.461483389139175415e-01 -9.357948601245880127e-02 1.487505435943603516e-01 3.210438191890716553e-01 6.351502418518066406e+00 -1.405807957053184509e-02 -6.557825952768325806e-02 -1.940667815506458282e-02 -1.058909520506858826e-01 -1.978085786104202271e-01 -5.821293964982032776e-02 9.660866111516952515e-02 -1.368467416614294052e-02 -1.284467726945877075e-01 -2.606167085468769073e-02
-9.511884301900863647e-02 -1.107725873589515686e-01 1.759272515773773193e-01 -1.429994255304336548e-01 -9.250845760107040405e-02 -1.400395762175321579e-02 -1.579535193741321564e-02 -7.995665818452835083e-02 8.834372274577617645e-03 -2.111903727054595947e-01 -1.677610576152801514e-01 -4.728857427835464478e-03 3.385679051280021667e-02 6.229266989976167679e-03 3.292704746127128601e-02 1.073632165789604187e-01 -1.775334328413009644e-01 -9.301672875881195068e-02 5.955838039517402649e-02 -1.241480484604835510e-01 2.581616044044494629e-01 5.363823473453521729e-02 1.732391566038131714e-01 3.805518150329589844e-02
-1.805919408798217773e-02 -6.011824309825897217e-02 -5.144435167312622070e-02 -1.967902630567550659e-01 7.214964367449283600e-03 -5.017414316534996033e-02 -8.579923957586288452e-02 1.905592903494834900e-02 -2.289254069328308105e-01 7.928891479969024658e-02 -1.965928077697753906e-01 1.128701269626617432e-01 -2.909359037876129150e-01 1.845110505819320679e-01 -1.223102398216724396e-02 -1.781080383807420731e-03 -1.497752368450164795e-01 -2.670327723026275635e-01 7.673865184187889099e-03 3.377949446439743042e-02 4.657052159309387207e-01 6.204536184668540955e-02 -5.954363197088241577e-02 2.081700600683689117e-02
1.412840783596038818e-01 -1.138105764985084534e-01 -9.488573670387268066e-02 1.090227290987968445e-01 -1.562827527523040771e-01 1.706381887197494507e-01 2.428680062294006348e-01 5.275380797684192657e-03 1.486368328332901001e-01 -9.274320676922798157e-03 -1.679801791906356812e-01 1.187379807233810425e-01 -3.284667059779167175e-02 -5.841430742293596268e-03 1.225208342075347900e-01 1.447678059339523315e-01 2.231814712285995483e-01 1.071998570114374161e-02 2.957315184175968170e-02 1.903079897165298462e-01 -3.728061020374298096e-01 3.823450580239295959e-02 -1.561568467877805233e-03 1.821550540626049042e-02
-5.828192830085754395e-02 1.514212191104888916e-01 -2.645429372787475586e-01 -4.179969802498817444e-02 6.948573142290115356e-02 -1.641416549682617188e-01 -5.826435610651969910e-02 1.466562151908874512e-01 -6.492011249065399170e-02 -1.361111272126436234e-02 -3.053826838731765747e-02 4.432808235287666321e-02 -2.432960085570812225e-02 5.462651327252388000e-02 -4.887335747480392456e-02 -5.564637854695320129e-02 -2.143839141353964806e-03 4.684775322675704956e-02 -2.812108397483825684e-01 -1.562979444861412048e-02 -5.604748725891113281e-01 -1.203518453985452652e-02 -1.420546621084213257e-01 -3.391008824110031128e-02
-1.224553808569908142e-01 2.100292406976222992e-02 -3.461007475852966309e-01 1.875425130128860474e-02 -1.115670800209045410e-01 -8.248939365148544312e-02 1.580506861209869385e-01 7.659487426280975342e-02 -2.720176242291927338e-03 4.817190021276473999e-02 3.013385832309722900e-01 1.143605560064315796e-01 -1.018681526184082031e-01 -1.800620704889297485e-01 -3.919891640543937683e-02 4.294098913669586182e-02 4.518107324838638306e-02 -1.719530224800109863e-01 2.208873443305492401e-02 7.579027116298675537e-02 1.871248148381710052e-02 1.394323771819472313e-03 -4.445656761527061462e-02 -1.502773165702819824e-02
3.386920690536499023e-02 3.835409507155418396e-02 1.398597061634063721e-01 4.665782451629638672e-01 9.756951779127120972e-02 -3.234586417675018311e-01 -2.308929115533828735e-01 -6.180215626955032349e-02 1.707878150045871735e-02 -4.073205590248107910e-02 1.544294834136962891e+00 1.353569678030908108e-03 1.344598084688186646e-02 -2.535832114517688751e-02 -3.785595893859863281e-01 9.444897621870040894e-02 2.517461478710174561e-01 3.919799029827117920e-01 8.153863996267318726e-02 -2.790177799761295319e-02 -2.659529447555541992e-01 8.725221268832683563e-03 4.072775598615407944e-03 -1.121121123433113098e-01
-9.676156565546989441e-03 1.237892359495162964e-01 -5.753193423151969910e-02 1.840553283691406250e-01 3.589919954538345337e-02 3.153855353593826294e-02 -8.154644817113876343e-02 1.470833737403154373e-02 -1.233604922890663147e-01 -1.903964132070541382e-01 -1.352952420711517334e-01 1.286443769931793213e-01 5.082424357533454895e-02 1.318285465240478516e-01 -3.304828703403472900e-01 -1.083996519446372986e-01 -8.936341851949691772e-02 -1.215648129582405090e-01 1.136413495987653732e-02 1.330296546220779419e-01 7.394039034843444824e-01 3.989740833640098572e-02 -1.495656836777925491e-02 2.376393228769302368e-02
7.568648084998130798e-03 -1.476682871580123901e-01 1.767818816006183624e-02 -6.403174996376037598e-02 -1.375856399536132812e-01 2.740932814776897430e-02 -2.502784132957458496e-01 2.983565255999565125e-02 -1.292013823986053467e-01 -1.282217632979154587e-02 -1.462071575224399567e-02 1.460492163896560669e-01 3.974065557122230530e-02 -7.681380212306976318e-02 1.638617664575576782e-01 -7.173091918230056763e-02 -1.398805379867553711e-01 2.223753482103347778e-01 -2.842759788036346436e-01 1.851270645856857300e-01 -1.838342398405075073e-01 -9.744347073137760162e-03 -5.509994458407163620e-03 -1.089334785938262939e-01
-4.445862025022506714e-02 -4.535920917987823486e-02 3.340040892362594604e-02 2.036983845755457878e-03 1.300273537635803223e-01 2.537762187421321869e-02 1.089172903448343277e-02 -1.065719127655029297e-01 1.114839985966682434e-01 4.798014834523200989e-02 -8.577946573495864868e-02 -1.201874110847711563e-02 -3.164198249578475952e-02 -1.050875261425971985e-01 -1.814455986022949219e-01 2.123021185398101807e-01 4.661959409713745117e-02 -1.173474639654159546e-01 -1.297576166689395905e-02 1.058653444051742554e-01 4.300651550292968750e-01 2.018284238874912262e-02 -3.126535192131996155e-02 2.101561520248651505e-03
2.524765767157077789e-02 -9.045977890491485596e-02 -2.910236120223999023e-01 1.500667333602905273e-01 7.462160289287567139e-02 -8.208494633436203003e-03 7.066868990659713745e-02 1.017629280686378479e-01 3.800102323293685913e-02 -9.042095392942428589e-02 2.054488807916641235e-01 3.961329162120819092e-01 1.750985383987426758e-01 -5.233944207429885864e-02 2.036634832620620728e-01 3.684294596314430237e-02 1.230765692889690399e-02 1.156559288501739502e-01 -7.542388513684272766e-03 1.219998151063919067e-01 2.613980770111083984e-01 -2.832456259056925774e-03 -2.466818131506443024e-02 8.731216192245483398e-03
9.604670107364654541e-03 -2.014136500656604767e-02 1.059576719999313354e-01 8.851343393325805664e-02 9.091824293136596680e-02 -8.236908912658691406e-02 -2.602412551641464233e-02 1.204623747617006302e-02 -4.263546317815780640e-02 4.882545210421085358e-03 -1.111860498785972595e-01 8.615061640739440918e-02 1.242869049310684204e-01 3.230430558323860168e-02 -5.417910590767860413e-02 1.133151003159582615e-03 -1.106931939721107483e-01 2.493747472763061523e-01 3.358940780162811279e-02 1.131804063916206360e-01 -1.454007327556610107e-01 -4.522864241153001785e-03 -5.744058266282081604e-02 -8.199643343687057495e-02
1.121225282549858093e-01 3.379919230937957764e-01 -6.062087789177894592e-02 -7.056816667318344116e-02 -1.209954172372817993e-01 -1.384217441082000732e-01 4.274740070104598999e-02 1.574450731277465820e-01 4.995634034276008606e-02 6.095631048083305359e-02 6.156054511666297913e-02 5.510363355278968811e-02 1.710788346827030182e-02 1.553102582693099976e-01 5.662469193339347839e-02 -1.943912953138351440e-01 4.135315418243408203e-01 -9.524584561586380005e-02 -4.657600447535514832e-02 -1.448155660182237625e-02 -5.463200807571411133e-02 -5.213472992181777954e-02 1.198670119047164917e-01 6.947109359316527843e-04
2.532059326767921448e-02 2.173731848597526550e-02 2.019901871681213379e-01 7.619752734899520874e-02 -1.487554162740707397e-01 3.551931120455265045e-03 9.500827640295028687e-03 4.214778915047645569e-02 4.104223474860191345e-02 1.626390516757965088e-01 -1.378980427980422974e-01 5.196579149924218655e-04 -1.669469475746154785e-01 -6.392930448055267334e-02 2.663258230313658714e-03 -1.852115243673324585e-01 4.061029478907585144e-02 9.631109982728958130e-02 5.221977457404136658e-02 1.440146267414093018e-01 2.045359015464782715e-01 -1.170292217284440994e-02 -2.650646865367889404e-02 8.202972821891307831e-05
-4.720713198184967041e-02 -7.684326916933059692e-02 -3.376706242561340332e-01 -4.569908231496810913e-02 -5.040540173649787903e-02 -1.637703925371170044e-02 -1.203967705368995667e-01 6.883663684129714966e-02 1.084847152233123779e-01 1.112416908144950867e-01 -6.144628301262855530e-02 -4.057608172297477722e-02 -1.171755120158195496e-01 2.181848883628845215e-02 3.376949951052665710e-02 -2.504789829254150391e-01 1.933271624147891998e-02 2.328485846519470215e-01 -2.426700443029403687e-01 -3.568244725465774536e-02 2.694218456745147705e-01 1.734010316431522369e-02 -8.489625900983810425e-02 -4.782695905305445194e-04
7.036069780588150024e-02 1.727146804332733154e-01 4.288787767291069031e-02 -9.487497806549072266e-02 -1.011831387877464294e-01 -2.019158601760864258e-01 -7.108284044079482555e-04 -7.754009217023849487e-02 -3.049920499324798584e-02 2.202927470207214355e-01 2.352952584624290466e-02 8.564189076423645020e-02 6.801702976226806641e-01 3.376018404960632324e-01 -5.645021051168441772e-02 -2.354650571942329407e-02 -5.463498830795288086e-02 2.746504843235015869e-01 -9.945551306009292603e-02 -1.433047559112310410e-02 6.600844860076904297e-02 -1.660102419555187225e-02 -6.762234028428792953e-03 -1.596174575388431549e-02
1.152461767196655273e-02 -8.889735490083694458e-02 3.393116593360900879e-02 -6.808955967426300049e-02 6.563826650381088257e-02 7.188634574413299561e-02 5.129495635628700256e-02 -2.499821037054061890e-02 8.406452834606170654e-02 3.165915906429290771e-01 7.139591872692108154e-02 2.674888446927070618e-02 1.429292261600494385e-01 -1.444814056158065796e-01 2.301909178495407104e-01 -3.664678707718849182e-02 -9.879657626152038574e-02 2.705087698996067047e-02 -1.334120929241180420e-01 1.930597051978111267e-02 9.482846409082412720e-02 1.629404723644256592e-02 -1.451193727552890778e-02 -3.526902291923761368e-03
8.619158715009689331e-02 -3.525183349847793579e-02 -1.906492561101913452e-01 3.116936087608337402e-01 7.633848581463098526e-03 4.959103465080261230e-02 9.618393331766128540e-02 -1.157821416854858398e-01 2.654333785176277161e-02 3.031646460294723511e-02 1.536328047513961792e-01 -3.267807513475418091e-02 -8.111605793237686157e-02 -3.009732067584991455e-02 -7.265459001064300537e-02 4.563760459423065186e-01 9.855395555496215820e-02 5.329905822873115540e-02 -2.965635433793067932e-02 -2.658041119575500488e-01 -1.523629575967788696e-01 6.291318219155073166e-03 2.923915907740592957e-02 1.060182321816682816e-02
1.121800858527421951e-02 -5.871092434972524643e-03 -7.867920398712158203e-02 1.634234935045242310e-01 -6.801000237464904785e-02 2.249461039900779724e-02 2.793626161292195320e-03 2.531006559729576111e-02 -1.416832804679870605e-01 -1.382025480270385742e-01 -1.413197964429855347e-01 -2.395844459533691406e-01 -2.127100974321365356e-01 -3.782806172966957092e-02 -1.158607657998800278e-02 -2.842657081782817841e-02 -1.379842907190322876e-01 -1.300014182925224304e-02 -2.071859389543533325e-01 1.443194895982742310e-01 -6.960008293390274048e-02 7.567823398858308792e-03 5.129283666610717773e-02 -3.122041001915931702e-02
4.721846058964729309e-02 1.278122514486312866e-01 3.091062791645526886e-02 2.254836857318878174e-01 -1.887290626764297485e-01 -4.088669270277023315e-02 1.757883094251155853e-02 1.147211715579032898e-02 -1.746274679899215698e-01 1.333287172019481659e-02 -1.069682687520980835e-01 -1.490900386124849319e-02 4.172533750534057617e-01 8.781213760375976562e-01 1.325761079788208008e-01 -4.815093055367469788e-02 1.214512623846530914e-02 -4.440873116254806519e-02 1.057522892951965332e-01 -2.296419441699981689e-01 -2.013970017433166504e-01 -5.795301985926926136e-04 1.084104552865028381e-02 -2.395734889432787895e-03
1.691907644271850586e-02 1.903908252716064453e-01 -1.511481851339340210e-01 9.277075529098510742e-02 -1.309741102159023285e-02 7.205072790384292603e-02 1.403150558471679688e-01 8.536870777606964111e-02 8.910608291625976562e-02 2.780207097530364990e-01 -1.755560636520385742e-01 -3.016297221183776855e-01 3.312467783689498901e-02 1.253595855087041855e-02 6.193072348833084106e-02 -6.191856786608695984e-02 2.606293559074401855e-01 3.053430281579494476e-02 7.646356523036956787e-02 1.313048135489225388e-02 5.850225314497947693e-02 -3.657161723822355270e-03 5.412282887846231461e-03 -1.607444323599338531e-02
-3.674224391579627991e-02 2.093509435653686523e-01 -1.511202659457921982e-02 9.083428233861923218e-02 -3.190968558192253113e-02 4.146228730678558350e-02 -4.185060411691665649e-02 2.573650330305099487e-02 4.646313935518264771e-02 8.436913602054119110e-03 1.048003286123275757e-01 -8.193524926900863647e-02 -2.048949599266052246e-01 -3.809596002101898193e-01 -2.487092316150665283e-01 -2.008420675992965698e-01 9.945084899663925171e-02 6.797470897436141968e-02 -2.658222913742065430e-01 1.253208816051483154e-01 2.360049039125442505e-01 -6.351134181022644043e-02 -8.226745575666427612e-02 2.203066833317279816e-02
-1.768896938301622868e-03 -3.361697494983673096e-01 3.957102820277214050e-02 -1.099448129534721375e-01 -1.257604807615280151e-01 5.315233021974563599e-02 -1.836145520210266113e-01 -1.674517095088958740e-01 2.540375590324401855e-01 -1.770806312561035156e-02 2.978589236736297607e-01 -1.570098102092742920e-01 -2.841478586196899414e-01 3.255047500133514404e-01 6.567950546741485596e-02 1.873843073844909668e-01 -2.219184041023254395e-01 3.529212176799774170e-01 -3.688608482480049133e-02 3.336887061595916748e-02 5.016055703163146973e-02 6.712338887155056000e-03 -1.750640012323856354e-02 7.907296717166900635e-02
-4.545050486922264099e-02 2.264788345200940967e-04 2.714649587869644165e-02 -3.561978694051504135e-03 -4.553277418017387390e-02 5.096592009067535400e-02 -4.782692342996597290e-02 -8.381112664937973022e-02 1.842475682497024536e-02 -4.886230081319808960e-02 1.537704616785049438e-01 -8.629774302244186401e-02 -2.204329222440719604e-01 2.438069432973861694e-01 -3.091106712818145752e-01 2.346573956310749054e-02 7.222881168127059937e-02 1.503060907125473022e-01 -2.728738188743591309e-01 -2.030430138111114502e-01 9.732940793037414551e-01 -5.826597567647695541e-03 5.703253671526908875e-02 -1.019190028309822083e-01
2.587650716304779053e-02 -4.330312088131904602e-02 2.304711490869522095e-01 1.174590736627578735e-02 9.687588363885879517e-02 1.101106777787208557e-01 -6.862272042781114578e-03 -1.464756131172180176e-01 -2.737615071237087250e-02 4.349486902356147766e-03 -2.730760723352432251e-02 1.471345871686935425e-01 -1.075014024972915649e-01 -2.232612222433090210e-01 -7.826143503189086914e-02 1.618116535246372223e-02 2.692802846431732178e-01 -2.488148212432861328e-01 1.347334384918212891e-01 3.542920202016830444e-02 -2.636711578816175461e-03 8.741401880979537964e-02 5.410487204790115356e-02 4.506029188632965088e-02
2.489052945747971535e-03 -1.508680433034896851e-01 -8.966471254825592041e-02 3.240163326263427734e-01 6.920685619115829468e-02 -4.977506771683692932e-02 -7.198797911405563354e-02 1.109332144260406494e-01 6.405465304851531982e-02 1.913214623928070068e-01 -1.269871443510055542e-01 2.541371881961822510e-01 -4.891984537243843079e-02 -3.151542544364929199e-01 1.055240482091903687e-01 -1.135713607072830200e-01 -1.408132314682006836e-01 -2.187785208225250244e-01 -2.164923399686813354e-01 -8.372620493173599243e-02 -2.317820303142070770e-02 2.893358096480369568e-02 6.135258823633193970e-02 -2.882500924170017242e-02
1.109304577112197876e-01 3.692178055644035339e-02 5.418886616826057434e-02 -6.859057396650314331e-02 -1.150185838341712952e-01 -3.403073921799659729e-02 2.136453613638877869e-02 4.424384981393814087e-02 -2.830488234758377075e-02 -1.988830417394638062e-01 1.111484766006469727e-01 7.383691519498825073e-02 -5.160596221685409546e-02 1.822672411799430847e-02 3.343436866998672485e-02 3.657768964767456055e-01 -2.566562592983245850e-01 3.078178130090236664e-02 -1.339085698127746582e-01 -1.032288223505020142e-01 1.434516012668609619e-01 -6.751357018947601318e-02 4.873924423009157181e-03 -7.165572606027126312e-03
1.681422232650220394e-03 1.627632230520248413e-01 -1.379889696836471558e-01 3.569525778293609619e-01 -1.156458184123039246e-01 5.107070133090019226e-02 5.624355399049818516e-04 8.760362863540649414e-02 -3.749876469373703003e-02 2.360496222972869873e-01 2.687778696417808533e-02 2.271341830492019653e-01 -2.175808250904083252e-01 1.620868407189846039e-02 -5.260941386222839355e-01 -2.434180080890655518e-01 4.708490893244743347e-02 -1.425776183605194092e-01 -1.794351786375045776e-01 -1.511422395706176758e-01 1.755071997642517090e+00 2.334037423133850098e-02 1.971836015582084656e-02 7.325385377043858171e-05
-9.037218242883682251e-02 2.021912112832069397e-02 -1.251409500837326050e-01 3.013798035681247711e-02 2.577084116637706757e-02 -5.449495092034339905e-02 4.643948283046483994e-03 -5.646441876888275146e-02 -6.144108623266220093e-02 -3.937462810426950455e-03 7.201348245143890381e-02 -3.554047644138336182e-01 -3.523616120219230652e-02 4.711759835481643677e-02 -1.283286511898040771e-01 -5.535070970654487610e-02 1.782395690679550171e-01 4.818924516439437866e-02 -6.993883848190307617e-02 -1.450965702533721924e-01 -1.231971457600593567e-01 -2.612885273993015289e-02 -7.394248992204666138e-02 -1.682935096323490143e-02
-2.416264265775680542e-02 -5.270266160368919373e-02 8.649327605962753296e-02 -1.466756165027618408e-01 3.022013790905475616e-02 1.199033260345458984e-01 6.327747553586959839e-02 5.374540388584136963e-02 -3.685329481959342957e-02 -7.583850622177124023e-02 6.117734313011169434e-02 4.131161049008369446e-02 2.150022387504577637e-01 2.403671666979789734e-02 3.722668588161468506e-01 -7.378419395536184311e-03 4.506156966090202332e-02 2.459324300289154053e-01 -1.887537986040115356e-01 1.031569018959999084e-01 -2.105647027492523193e-01 5.581892654299736023e-02 1.088225003331899643e-02 1.538537256419658661e-02
-4.839770868420600891e-02 -1.623109579086303711e-01 -3.768799826502799988e-02 6.154827773571014404e-02 3.620186448097229004e-02 2.277940958738327026e-01 6.696204841136932373e-02 -1.414952576160430908e-01 -9.474609047174453735e-02 3.068060874938964844e-01 -1.034457087516784668e-01 -3.975482285022735596e-02 -1.359485834836959839e-01 1.875681579113006592e-01 1.644384413957595825e-01 -2.716059684753417969e-01 -1.159624382853507996e-01 3.187879025936126709e-01 -3.419977128505706787e-01 -1.449084430932998657e-01 2.565792500972747803e-01 3.321896493434906006e-02 7.942169904708862305e-02 -1.834226568462327123e-04
-3.055847622454166412e-02 2.633754629641771317e-03 -1.274133771657943726e-01 -3.102224692702293396e-02 1.163540780544281006e-01 -6.923805177211761475e-02 4.966929927468299866e-02 -1.184862758964300156e-02 1.244872435927391052e-02 -1.107595711946487427e-01 9.830097109079360962e-02 2.255234122276306152e-01 -1.521484851837158203e-01 -3.627600669860839844e-01 -8.896993100643157959e-02 3.956899046897888184e-02 1.607366651296615601e-01 1.615727692842483521e-01 -1.189947593957185745e-02 -1.012432575225830078e-02 -2.347405105829238892e-01 -1.535897259600460529e-03 -1.734821870923042297e-02 -5.683663301169872284e-03
4.249532148241996765e-02 8.744982630014419556e-02 -1.783543080091476440e-01 -1.014066189527511597e-01 -1.447486877441406250e-01 -6.147036328911781311e-02 4.590636491775512695e-02 3.694809973239898682e-02 8.936496078968048096e-02 4.715872183442115784e-02 -1.979537867009639740e-02 1.599026620388031006e-01 -7.089406996965408325e-02 -1.641225665807723999e-01 -1.446831524372100830e-01 3.101433441042900085e-02 -9.808523952960968018e-02 -2.617709636688232422e-01 -1.945512592792510986e-01 -1.654261201620101929e-01 2.546662092208862305e-01 -1.765096932649612427e-02 -1.678655482828617096e-02 7.563452702015638351e-03
7.635463774204254150e-02 -8.931333571672439575e-02 -4.611829668283462524e-02 9.454419463872909546e-02 2.788270264863967896e-02 3.731437027454376221e-02 5.139115080237388611e-02 3.530847281217575073e-02 -9.990366548299789429e-02 2.727157622575759888e-02 -1.963318884372711182e-01 -1.474299132823944092e-01 1.435749828815460205e-01 -2.522559836506843567e-02 4.185510054230690002e-02 -6.932444870471954346e-02 -9.260175377130508423e-02 6.939557939767837524e-02 -2.008643150329589844e-01 -1.684475094079971313e-01 7.357066124677658081e-02 -2.286174101755023003e-03 -1.624865829944610596e-02 7.639788091182708740e-03
1.309861093759536743e-01 7.055445574223995209e-03 -5.708513855934143066e-01 -9.346722811460494995e-02 -3.741704672574996948e-02 -1.546708196401596069e-01 -1.019844859838485718e-01 -6.382479518651962280e-02 1.917929053306579590e-01 1.421210821717977524e-02 -1.468892693519592285e-01 6.615018099546432495e-02 -7.172532379627227783e-02 -1.410082355141639709e-02 7.212238013744354248e-02 -7.017630338668823242e-02 -3.201113641262054443e-02 -1.028005108237266541e-01 1.253845989704132080e-01 1.396442800760269165e-01 -9.547960758209228516e-02 1.496346946805715561e-02 -7.720772922039031982e-02 -7.305607199668884277e-02
7.929264754056930542e-02 7.512175291776657104e-02 8.994963020086288452e-02 1.095149368047714233e-01 -2.561035566031932831e-02 3.254454955458641052e-02 6.287471204996109009e-02 8.139549940824508667e-02 4.653265327215194702e-02 1.514274328947067261e-01 3.935726359486579895e-02 -1.156793087720870972e-01 -2.101559191942214966e-01 -1.262586414813995361e-01 1.274343580007553101e-01 -2.247629165649414062e-01 4.674475491046905518e-01 2.456115484237670898e-01 1.238065809011459351e-01 4.177864640951156616e-02 -1.889694780111312866e-01 1.436435151845216751e-02 -4.722398146986961365e-02 -1.561334822326898575e-02
-2.130444534122943878e-02 -3.397224470973014832e-02 1.496486179530620575e-02 1.233932673931121826e-01 -2.460581250488758087e-02 -5.478350445628166199e-03 -6.337581574916839600e-02 1.508402731269598007e-02 4.875158146023750305e-02 1.243829354643821716e-01 -4.533520434051752090e-03 3.830977901816368103e-02 -2.139894217252731323e-01 -3.274820148944854736e-01 -4.475141763687133789e-01 -3.822536766529083252e-02 -6.953288614749908447e-02 1.026557683944702148e-01 -1.630904823541641235e-01 -2.260305136442184448e-01 3.193917274475097656e-01 -4.483178257942199707e-03 2.132929116487503052e-02 -1.295470912009477615e-02
5.856876075267791748e-02 -6.641616113483905792e-03 -5.045820027589797974e-02 8.354101330041885376e-02 1.543291956186294556e-01 -1.893279887735843658e-02 7.806126028299331665e-02 1.676483266055583954e-02 2.395584434270858765e-02 1.215023249387741089e-01 -1.270271986722946167e-01 -2.360143959522247314e-01 2.253625094890594482e-01 -1.013077050447463989e-01 -2.330119349062442780e-02 8.150873333215713501e-02 -1.419523078948259354e-02 2.046657502651214600e-01 -1.320682018995285034e-01 1.455234140157699585e-01 -8.919411897659301758e-02 2.723950194194912910e-03 6.047505885362625122e-04 -1.785094290971755981e-02
-1.107947230339050293e-01 -1.608254611492156982e-01 -2.817116975784301758e-01 -1.295818388462066650e-01 1.339764595031738281e-01 8.274866268038749695e-03 3.074604570865631104e-01 6.321477144956588745e-02 1.956883817911148071e-01 1.052609011530876160e-01 -2.733343094587326050e-02 -1.301364302635192871e-01 -6.916604470461606979e-03 -1.040725875645875931e-02 1.661857515573501587e-01 -4.801901057362556458e-03 -8.919411897659301758e-02 -1.846891269087791443e-02 -2.567725628614425659e-02 -9.802846610546112061e-02 -6.007691621780395508e-01 8.825322613120079041e-03 2.512358687818050385e-02 -1.945185847580432892e-02
7.612559199333190918e-02 1.094616875052452087e-01 -2.860344201326370239e-02 -2.532930374145507812e-01 1.651117652654647827e-01 1.959035545587539673e-01 -2.388207428157329559e-02 -1.283237487077713013e-01 -4.367705062031745911e-02 -2.927021384239196777e-01 1.686555445194244385e-01 -1.220125705003738403e-01 -1.853701919317245483e-01 -1.470806151628494263e-01 3.742820024490356445e-01 -2.221013605594635010e-02 -6.835420429706573486e-02 1.688367873430252075e-02 -9.039331972599029541e-02 8.943590521812438965e-02 -5.045258402824401855e-01 -2.760928310453891754e-02 -5.104051157832145691e-02 9.062958881258964539e-03
-2.887740172445774078e-02 -3.243333101272583008e-02 -3.780741244554519653e-02 1.914764195680618286e-02 -8.565532974898815155e-03 2.885068021714687347e-02 -1.132487598806619644e-02 3.433255106210708618e-02 -9.094847738742828369e-02 -4.398619532585144043e-01 5.249429028481245041e-03 1.359584778547286987e-01 2.799533009529113770e-01 2.621770836412906647e-03 1.019300669431686401e-01 -2.063290327787399292e-01 1.696449965238571167e-01 1.948504596948623657e-01 6.265510618686676025e-02 -7.320773601531982422e-02 6.628499925136566162e-02 -5.521166138350963593e-03 -1.304933149367570877e-02 3.200508281588554382e-02
8.507103659212589264e-03 8.360274136066436768e-02 9.196945279836654663e-02 -4.605579748749732971e-02 -1.319909188896417618e-02 -2.487083710730075836e-02 2.507909201085567474e-02 2.772600017488002777e-02 -7.229243963956832886e-02 -5.315202474594116211e-02 1.765591502189636230e-01 -4.924785345792770386e-03 -7.030735164880752563e-02 -3.709179535508155823e-02 7.760511636734008789e-01 1.229245290160179138e-01 1.335982531309127808e-01 3.426387906074523926e-02 -1.972444951534271240e-01 1.546545624732971191e-01 -5.248913764953613281e-01 -9.755238890647888184e-03 3.368493868038058281e-03 -1.043314933776855469e-01
-4.682860150933265686e-02 -5.643428489565849304e-02 1.077164784073829651e-01 8.993694186210632324e-02 -1.242568716406822205e-01 1.120839044451713562e-01 8.564090728759765625e-02 -6.973597686737775803e-03 -3.091587498784065247e-02 7.873351685702800751e-03 -3.222095966339111328e-02 6.180371344089508057e-02 9.848956763744354248e-02 -8.754778536967933178e-05 -2.992518246173858643e-01 -2.868593670427799225e-02 2.785323560237884521e-01 1.407781690359115601e-01 -2.568524144589900970e-02 -4.052705317735671997e-02 -4.533837782219052315e-04 1.880502142012119293e-02 -1.068019587546586990e-02 -3.221149370074272156e-02
-2.924666181206703186e-02 4.359025880694389343e-02 8.008751273155212402e-02 6.656608730554580688e-02 3.373134136199951172e-02 -5.467492341995239258e-02 5.145243927836418152e-02 -2.593334391713142395e-02 -1.982812136411666870e-01 6.315366923809051514e-02 -2.884722128510475159e-02 -9.730190970003604889e-03 -2.906349301338195801e-02 2.416789904236793518e-02 -6.805598735809326172e-02 9.210376441478729248e-02 1.461192965507507324e-01 1.736063659191131592e-01 3.457050770521163940e-02 6.316876411437988281e-02 2.749221920967102051e-01 1.397179439663887024e-02 -4.525109007954597473e-02 2.675397787243127823e-03
-2.138666436076164246e-02 7.852387428283691406e-02 -1.159908547997474670e-01 5.164285656064748764e-03 -1.512913554906845093e-01 1.431876271963119507e-01 6.167703773826360703e-03 1.637283563613891602e-01 -1.684114485979080200e-01 8.020103722810745239e-02 2.841104054823517799e-03 3.540962934494018555e-02 -9.975907206535339355e-02 2.480117604136466980e-02 1.451394427567720413e-02 -1.003614589571952820e-01 4.044226109981536865e-01 -1.277284622192382812e-01 3.083599209785461426e-01 -7.594948261976242065e-02 1.034111827611923218e-01 5.415744706988334656e-02 -1.210823580622673035e-01 -4.895325377583503723e-02
5.452041979879140854e-03 9.853078424930572510e-02 7.132292538881301880e-02 2.073571532964706421e-01 -2.170222252607345581e-02 1.351326853036880493e-01 -1.327414959669113159e-01 -1.331413723528385162e-02 7.989640533924102783e-02 6.531298160552978516e-02 -1.118495613336563110e-01 1.412242650985717773e-02 -1.326917707920074463e-01 -1.000694483518600464e-01 2.752288579940795898e-01 5.223773419857025146e-02 1.418717503547668457e-01 1.358172893524169922e-01 -6.696738768368959427e-03 4.999691620469093323e-02 -1.360703587532043457e+00 -3.711197525262832642e-02 -7.276237756013870239e-02 -5.829502642154693604e-02
-3.295020759105682373e-02 -6.516789644956588745e-02 -7.050957530736923218e-02 5.491477996110916138e-02 -1.537862140685319901e-02 1.111073698848485947e-02 6.701697409152984619e-02 -2.697727829217910767e-02 1.773879677057266235e-02 3.732348605990409851e-02 7.112350314855575562e-02 -1.050334330648183823e-02 7.469842582941055298e-02 -1.377997100353240967e-01 1.421089839935302734e+01 -3.499705716967582703e-02 -2.463875561952590942e-01 -8.423129469156265259e-02 4.083402454853057861e-03 2.913771942257881165e-02 -1.578083932399749756e-01 2.604574896395206451e-02 -2.268359297886490822e-03 4.105293483007699251e-04
-6.892935931682586670e-02 -3.032178580760955811e-01 -5.622998997569084167e-02 2.334273606538772583e-01 -1.210700049996376038e-01 3.048789314925670624e-02 -4.011327028274536133e-02 -3.814019635319709778e-02 -4.045083373785018921e-02 -7.896460592746734619e-02 -1.116126552224159241e-01 1.288728117942810059e-01 8.557789959013462067e-03 8.595172315835952759e-02 -1.173946037888526917e-01 2.836226858198642731e-02 1.599013656377792358e-01 7.646156102418899536e-02 -1.519329398870468140e-01 6.051084026694297791e-02 1.544916629791259766e-01 1.562933321110904217e-03 -3.031284548342227936e-02 -5.966581031680107117e-02
-1.135654398240149021e-03 -3.358424082398414612e-02 2.201920002698898315e-01 1.586138606071472168e-01 -2.150656431913375854e-01 1.466298103332519531e-01 1.041143089532852173e-01 -5.364430695772171021e-02 1.205335333943367004e-01 1.382234245538711548e-01 1.329435259103775024e-01 1.579055003821849823e-02 1.559499204158782959e-01 -1.264721155166625977e-01 2.133990526199340820e-01 -1.093761846423149109e-01 2.346660196781158447e-01 -1.504740864038467407e-01 8.883517235517501831e-02 5.522347614169120789e-02 3.746412396430969238e-01 1.864777319133281708e-02 3.709119185805320740e-02 4.611085355281829834e-02
4.411771427839994431e-03 -1.605010926723480225e-01 -8.047795295715332031e-02 1.760676130652427673e-02 -5.663516744971275330e-02 1.276585012674331665e-01 1.276610326021909714e-02 -1.450033485889434814e-02 6.936281174421310425e-02 -8.618591725826263428e-02 1.121513843536376953e-01 -4.392202198505401611e-02 -2.176724933087825775e-02 8.274227380752563477e-02 -4.443770647048950195e-01 -1.223160177469253540e-01 5.116168260574340820e-01 -9.270934015512466431e-02 -5.233868956565856934e-02 -2.541352063417434692e-02 -1.369153410196304321e-01 -2.350339898839592934e-03 -2.204678580164909363e-02 -5.234042182564735413e-03
7.451041787862777710e-02 -1.598585583269596100e-02 2.741222679615020752e-01 3.646558523178100586e-01 8.597514033317565918e-02 1.886468231678009033e-01 2.163758426904678345e-01 -2.408628351986408234e-02 -1.661636680364608765e-01 -9.248608350753784180e-02 -2.692379355430603027e-01 6.473428755998611450e-02 -2.358084768056869507e-01 6.840859353542327881e-02 1.692934185266494751e-01 -4.839820787310600281e-02 8.156242966651916504e-02 3.605797886848449707e-02 1.671292930841445923e-01 -1.894141137599945068e-01 2.120900750160217285e-01 -5.255265161395072937e-02 3.111070394515991211e-02 -2.574319252744317055e-03
2.076970040798187256e-02 -1.623615920543670654e-01 -1.773516535758972168e-01 -2.029965072870254517e-02 -2.416789764538407326e-03 -3.496049344539642334e-02 -4.156285151839256287e-02 -1.497599668800830841e-02 1.056678313761949539e-02 -9.051481634378433228e-02 -2.369855493307113647e-01 4.340297356247901917e-02 2.823078073561191559e-02 -1.372846662998199463e-01 8.720702677965164185e-02 5.564698949456214905e-02 2.434850782155990601e-01 -9.305579587817192078e-03 -6.563098728656768799e-02 -1.028111111372709274e-02 -9.541360735893249512e-01 -3.048985265195369720e-02 1.924118772149085999e-02 -1.760579086840152740e-02
-1.408518105745315552e-01 -2.440149337053298950e-01 3.515291213989257812e-01 -1.800905168056488037e-01 -2.870331406593322754e-01 -3.087042458355426788e-02 1.175187602639198303e-01 -4.814346879720687866e-02 9.751866012811660767e-02 -1.193031072616577148e-01 -1.110017951577901840e-02 1.173947821371257305e-03 -8.929086476564407349e-02 4.716238006949424744e-02 -9.719880670309066772e-02 -7.327721267938613892e-02 2.123940289020538330e-01 9.534639306366443634e-03 3.911128640174865723e-02 5.128293111920356750e-02 9.346992522478103638e-02 4.729335010051727295e-02 2.794123589992523193e-01 -4.546330869197845459e-02
9.009004384279251099e-02 2.512102425098419189e-01 1.978642195463180542e-01 1.959082782268524170e-01 -3.239366784691810608e-02 -2.868989408016204834e-01 -1.542979013174772263e-02 1.215274706482887268e-01 7.567365467548370361e-02 -1.317198425531387329e-01 1.026582494378089905e-01 1.336494982242584229e-01 -1.937233954668045044e-01 -3.208121284842491150e-02 1.896274974569678307e-03 4.136549308896064758e-02 -1.859457939863204956e-01 -1.246395111083984375e-01 1.428107265383005142e-02 -1.286755651235580444e-01 2.140599489212036133e-01 5.412144586443901062e-02 4.378516227006912231e-02 4.640812426805496216e-02
2.507292106747627258e-02 -8.539751917123794556e-02 -1.368059962987899780e-01 -3.507056832313537598e-02 -1.231408268213272095e-01 4.491659626364707947e-02 1.835544556379318237e-01 1.096836104989051819e-02 8.207074552774429321e-02 2.190355956554412842e-01 6.114800646901130676e-02 1.356690824031829834e-01 -1.274320036172866821e-01 -7.116560637950897217e-02 -4.765901342034339905e-02 -3.699984401464462280e-02 2.727069556713104248e-01 6.992435455322265625e-02 -1.978799141943454742e-02 -1.211118251085281372e-01 4.020115360617637634e-02 1.220726966857910156e-02 4.736832156777381897e-02 7.251605391502380371e-02
-4.304055124521255493e-03 2.990476228296756744e-02 -2.446849346160888672e-01 -1.141168549656867981e-01 1.524653937667608261e-02 -6.143787130713462830e-02 -3.516825963743031025e-04 3.095523081719875336e-02 -2.938444726169109344e-02 -6.152560561895370483e-02 -2.541081607341766357e-02 1.634088903665542603e-01 1.094288937747478485e-02 5.397884175181388855e-02 -1.041739732027053833e-01 3.328320384025573730e-02 3.128868639469146729e-01 4.304936528205871582e-02 -2.626830711960792542e-02 2.957545593380928040e-02 -1.395687162876129150e-01 -2.064375393092632294e-02 1.653107814490795135e-02 -1.745276525616645813e-02
-2.080186456441879272e-02 -1.020797118544578552e-01 -1.044143736362457275e-01 -1.036024745553731918e-02 -1.163956243544816971e-02 9.945909678936004639e-02 -7.631146162748336792e-02 5.892983451485633850e-02 5.154757574200630188e-02 -5.628094542771577835e-03 1.587224379181861877e-02 2.640268532559275627e-03 -1.797196716070175171e-01 1.507410407066345215e-01 1.210495233535766602e-01 -6.137239933013916016e-02 2.083497494459152222e-01 -1.826629638671875000e-01 -5.045608878135681152e-01 -1.521191000938415527e-01 1.019140472635626793e-03 -7.372667640447616577e-02 3.767443448305130005e-02 -4.201547801494598389e-02
5.273454263806343079e-02 1.010182127356529236e-01 -6.099945306777954102e-02 1.686377637088298798e-02 1.375022828578948975e-01 -6.110889092087745667e-02 1.716654561460018158e-02 -1.177795324474573135e-02 1.067025586962699890e-02 3.134714365005493164e-01 -2.310163341462612152e-02 -1.141758859157562256e-01 -1.082334518432617188e-01 2.058626711368560791e-01 -9.083058685064315796e-02 -9.263937175273895264e-02 -4.284619092941284180e-01 4.399430379271507263e-02 -1.477130949497222900e-01 4.935355857014656067e-03 1.542902290821075439e-01 3.661989048123359680e-02 1.576034724712371826e-02 4.113700240850448608e-02
-1.683698035776615143e-02 1.464113444089889526e-01 1.857465803623199463e-01 -1.677241325378417969e-01 -6.548140943050384521e-02 -5.496534705162048340e-02 1.978693455457687378e-01 8.873001486063003540e-02 -1.494023799896240234e-01 -1.505713760852813721e-01 4.729172959923744202e-02 -1.498495191335678101e-01 -4.049492478370666504e-01 -7.319026626646518707e-03 2.638828158378601074e-01 7.359259575605392456e-02 4.774690419435501099e-02 -1.938523799180984497e-01 -5.095588043332099915e-02 -8.085818961262702942e-03 1.266966760158538818e-01 -6.047674454748630524e-03 -5.058416281826794147e-04 1.079013720154762268e-01
-5.597435310482978821e-02 -8.268181979656219482e-02 1.248866766691207886e-01 -1.336876302957534790e-01 -2.575820982456207275e-01 2.878808416426181793e-02 1.536743044853210449e-01 -1.156264101155102253e-03 2.047589607536792755e-02 -1.136908903717994690e-01 1.497098803520202637e-01 5.676689743995666504e-02 1.902441978454589844e-01 -7.274017482995986938e-02 1.102714240550994873e-01 2.684226036071777344e-01 3.160797953605651855e-01 2.441743016242980957e-01 -9.222799539566040039e-02 2.359429150819778442e-01 1.725449562072753906e-01 -5.689318850636482239e-02 6.820061802864074707e-02 5.252812057733535767e-03
3.851033374667167664e-02 -6.360585242509841919e-02 9.407065808773040771e-02 7.457046769559383392e-03 -1.529672462493181229e-02 6.334272027015686035e-02 -9.443107247352600098e-02 1.034893915057182312e-01 -4.314738139510154724e-02 1.373863965272903442e-01 -9.361724555492401123e-02 9.801374375820159912e-02 -6.181239336729049683e-02 8.090132474899291992e-02 -7.781672477722167969e-02 -1.039145514369010925e-02 -1.183398142457008362e-01 -3.335057199001312256e-02 -3.155294954776763916e-01 -4.505473375320434570e-02 2.655802965164184570e-01 2.331099845468997955e-02 -5.473596975207328796e-02 -3.252435848116874695e-02
4.537523165345191956e-02 1.434722989797592163e-01 -2.110339701175689697e-02 6.483005881309509277e-01 -2.171553820371627808e-01 3.468270227313041687e-02 2.071798592805862427e-02 -6.594832241535186768e-02 -1.184091448783874512e+00 9.296174645423889160e-01 -1.095149591565132141e-01 -2.519160695374011993e-02 8.646381646394729614e-02 -6.828625500202178955e-02 -1.286041140556335449e-01 5.074657797813415527e-01 -3.623173385858535767e-02 1.430301368236541748e-01 8.847336471080780029e-02 1.024632006883621216e-01 -1.228319630026817322e-01 1.802564598619937897e-02 -3.191078826785087585e-02 9.984632022678852081e-03
4.309783875942230225e-02 3.896524012088775635e-02 -4.755558073520660400e-02 6.463705748319625854e-02 6.892769783735275269e-02 5.930935963988304138e-02 -8.453850448131561279e-02 5.676436051726341248e-02 8.390273898839950562e-02 -9.211794286966323853e-02 -1.511065755039453506e-02 -1.376467794179916382e-01 2.973894216120243073e-02 -2.813998162746429443e-01 8.514109253883361816e-02 -4.496498778462409973e-02 8.874767273664474487e-02 -2.049088478088378906e-01 -7.992303371429443359e-02 -8.255279064178466797e-02 -2.988161742687225342e-01 -7.144135236740112305e-02 5.246919021010398865e-02 3.049510531127452850e-02
-3.215932101011276245e-02 5.272575095295906067e-02 -8.206698298454284668e-02 1.530335545539855957e-01 2.442019525915384293e-03 2.566031925380229950e-02 1.947593390941619873e-01 -2.144167721271514893e-01 9.605311602354049683e-02 6.131599657237529755e-03 5.219884961843490601e-02 -4.381118714809417725e-02 -5.376875028014183044e-02 1.253600418567657471e-01 1.073091849684715271e-01 8.418077230453491211e-02 1.642619669437408447e-01 -2.223028838634490967e-01 4.381494522094726562e-01 -8.227863349020481110e-03 -5.946914851665496826e-02 -7.074365764856338501e-02 -2.127974107861518860e-02 -1.560679357498884201e-02
-7.501982618123292923e-03 7.159619778394699097e-02 1.688974909484386444e-02 2.085944078862667084e-02 -6.812263280153274536e-02 -8.298058062791824341e-02 3.201436949893832207e-03 -4.328685998916625977e-02 -2.851592376828193665e-02 4.239066690206527710e-02 3.631136787589639425e-04 -1.754615753889083862e-01 -1.049990728497505188e-01 -2.048564702272415161e-01 -3.169960156083106995e-02 -5.074018612504005432e-02 1.413562446832656860e-01 -2.411492727696895599e-02 2.671979553997516632e-02 1.370172649621963501e-01 -1.105453297495841980e-01 -1.848154701292514801e-03 -1.984316855669021606e-02 -1.253258902579545975e-03
1.257609226740896702e-03 1.846045106649398804e-01 -2.912401035428047180e-02 6.361282616853713989e-02 -6.083690747618675232e-02 2.507183887064456940e-02 -3.214836120605468750e-03 -6.653859745711088181e-03 -6.440096348524093628e-02 -2.233811020851135254e-01 8.179080486297607422e-02 -1.212929636240005493e-01 1.424400657415390015e-01 -2.151248604059219360e-02 5.128690600395202637e-01 1.728648506104946136e-02 3.163246437907218933e-03 -3.373604640364646912e-02 -2.883692830801010132e-02 2.203450724482536316e-02 -3.143813014030456543e-01 -1.378720067441463470e-02 -2.344946190714836121e-02 1.702491939067840576e-02
9.070052951574325562e-02 -2.308413153514266014e-03 4.886215180158615112e-02 1.521298438310623169e-01 1.307076215744018555e-01 1.284941136837005615e-01 1.239026524126529694e-02 7.942566298879683018e-04 4.521935433149337769e-02 -1.842668838798999786e-02 7.518173009157180786e-02 -1.137451007962226868e-01 1.069158837199211121e-01 6.501673161983489990e-02 4.598074778914451599e-02 1.474219709634780884e-01 -7.141621410846710205e-02 5.973448045551776886e-03 -9.762252867221832275e-02 2.458373308181762695e-01 1.358901113271713257e-01 -3.267706558108329773e-02 2.385851740837097168e-02 -1.565110497176647186e-02
2.595103532075881958e-02 -1.213740408420562744e-01 5.868931114673614502e-02 2.207823470234870911e-02 -6.139238178730010986e-02 -1.274000108242034912e-01 -3.611349314451217651e-02 -1.946670701727271080e-03 -4.280221834778785706e-02 -3.197862952947616577e-02 -8.031139150261878967e-03 -9.587226435542106628e-03 -1.254527717828750610e-01 -2.227282710373401642e-02 1.551020704209804535e-02 1.518675033003091812e-02 -3.114459849894046783e-02 7.732396572828292847e-02 -3.764093667268753052e-02 -4.306322708725929260e-02 5.030705332756042480e-01 -1.116005424410104752e-02 -2.099381387233734131e-02 6.411422509700059891e-03
4.207843169569969177e-02 3.676234483718872070e-01 -3.222506493330001831e-02 2.900825738906860352e-01 -1.210427433252334595e-01 -1.433499064296483994e-02 -1.544869393110275269e-01 1.081290543079376221e-01 -8.364993333816528320e-02 -2.151175886392593384e-01 -7.012756168842315674e-02 4.805796742439270020e-01 -8.053641021251678467e-02 -3.905869126319885254e-01 -1.420022547245025635e-01 -4.646779969334602356e-02 2.531313300132751465e-01 -5.959371104836463928e-02 1.941767930984497070e-01 7.216634601354598999e-02 2.827791310846805573e-02 2.333483658730983734e-02 3.367671370506286621e-02 -4.423769132699817419e-04
1.857625879347324371e-02 -3.591613844037055969e-02 -1.829896494746208191e-02 -1.845337003469467163e-01 -2.427476644515991211e-02 3.133437409996986389e-02 1.027314364910125732e-01 -1.186464056372642517e-01 -5.868371576070785522e-03 3.700298070907592773e-02 1.666242182254791260e-01 -6.399623304605484009e-02 -2.711293473839759827e-02 3.774176537990570068e-02 1.201773807406425476e-01 1.138207092881202698e-01 -3.740925490856170654e-01 1.039372533559799194e-01 4.807275161147117615e-02 -8.775311708450317383e-02 -2.885142564773559570e-01 6.934158969670534134e-03 -7.035626471042633057e-02 -3.372271358966827393e-02
-3.695115819573402405e-02 -1.270712167024612427e-01 3.629152104258537292e-02 -2.831130921840667725e-01 -1.262878999114036560e-02 -8.094385266304016113e-02 -8.669560775160789490e-03 6.462945789098739624e-02 6.631052494049072266e-02 4.959421232342720032e-02 1.288681570440530777e-02 -2.165550887584686279e-01 -2.189958691596984863e-01 6.649100035429000854e-02 -7.483413070440292358e-02 1.000140085816383362e-01 1.153218150138854980e-01 5.658502876758575439e-02 1.069993823766708374e-01 1.598401069641113281e-01 -7.836778461933135986e-02 1.219713687896728516e-02 3.587703779339790344e-02 4.919635877013206482e-02
8.809773623943328857e-02 1.017663851380348206e-01 1.562838405370712280e-01 1.601657457649707794e-02 5.721178837120532990e-03 -8.884710073471069336e-02 -8.884647861123085022e-03 1.591303572058677673e-02 -2.021830342710018158e-02 4.417129606008529663e-02 1.098230201750993729e-02 -3.279616311192512512e-02 -7.850861549377441406e-02 1.270278692245483398e-01 -1.203797906637191772e-01 6.251733750104904175e-02 -7.711114734411239624e-02 1.353549063205718994e-01 -2.105533378198742867e-03 5.030901730060577393e-02 4.678466022014617920e-01 8.617037534713745117e-02 1.765137910842895508e-02 3.918508067727088928e-02
2.624434046447277069e-02 -1.523684561252593994e-01 3.045595884323120117e-01 2.489949390292167664e-02 2.651520632207393646e-02 -9.122515469789505005e-02 -1.116451695561408997e-01 3.700461238622665405e-02 -5.673666670918464661e-02 -1.738184317946434021e-02 2.985544800758361816e-01 1.078351810574531555e-01 4.887057468295097351e-02 1.678212136030197144e-01 -6.225072741508483887e-01 4.856276512145996094e-02 2.293352633714675903e-01 -1.559183187782764435e-02 6.755026057362556458e-03 7.066364400088787079e-03 -5.112935304641723633e-01 -4.993960727006196976e-03 -1.299971807748079300e-02 -5.846915766596794128e-03
6.390814483165740967e-02 9.937387704849243164e-02 2.165453433990478516e-01 -1.333586424589157104e-01 -3.101965785026550293e-01 -4.457500949501991272e-02 1.254507005214691162e-01 7.339031994342803955e-02 3.756196424365043640e-02 -2.790519297122955322e-01 5.826992541551589966e-02 3.331397846341133118e-02 -2.029618062078952789e-02 -2.222520560026168823e-01 2.514077126979827881e-01 1.104895249009132385e-01 -2.186363935470581055e-02 -2.283618897199630737e-01 6.596739590167999268e-02 -1.014236211776733398e-01 1.536554694175720215e-01 -3.870450332760810852e-02 -1.237765401601791382e-01 -8.528306335210800171e-02
-7.327457517385482788e-02 -1.152317374944686890e-01 -1.484313458204269409e-01 6.849370896816253662e-03 1.073831841349601746e-01 -1.456803269684314728e-02 1.134055331349372864e-01 -4.775689169764518738e-02 3.105375356972217560e-02 8.192329108715057373e-02 1.303112655878067017e-01 1.371692866086959839e-01 7.633325457572937012e-02 -2.417986653745174408e-02 -1.630870550870895386e-01 3.064765036106109619e-02 -2.260074913501739502e-01 2.854242324829101562e-01 -1.510646641254425049e-01 2.931508719921112061e-01 1.110647618770599365e-01 -1.772264018654823303e-03 9.145765751600265503e-02 5.450294166803359985e-02
1.274683177471160889e-01 -3.769687116146087646e-01 -3.794753253459930420e-01 5.931099504232406616e-02 2.513996660709381104e-01 2.484765201807022095e-01 -7.246896275319159031e-04 1.346580535173416138e-01 1.350691169500350952e-02 9.472940862178802490e-02 -8.533328771591186523e-02 -4.078202415257692337e-03 1.097740978002548218e-02 1.698881983757019043e-01 7.890322059392929077e-02 -3.159420490264892578e-01 2.994324564933776855e-01 -2.932353317737579346e-01 8.602000772953033447e-02 1.566128283739089966e-01 -4.082650244235992432e-01 -4.077181220054626465e-03 3.641972690820693970e-02 4.091187939047813416e-02
-5.801012273877859116e-03 -2.242021448910236359e-02 4.948524758219718933e-02 6.175155937671661377e-02 -2.051143348217010498e-02 1.292666047811508179e-01 -2.427409775555133820e-02 -1.587237231433391571e-02 1.016529928892850876e-02 9.461079724133014679e-03 -1.633899062871932983e-01 -1.007351279258728027e-01 -2.742785774171352386e-02 3.458086401224136353e-02 -1.871158033609390259e-01 -1.202142909169197083e-01 -1.166418641805648804e-01 -4.879174381494522095e-02 -2.000181078910827637e-01 1.140534579753875732e-01 3.207891583442687988e-01 4.850700870156288147e-02 6.847598403692245483e-02 6.247682496905326843e-03
4.914620518684387207e-02 7.584699988365173340e-02 -5.975569039583206177e-02 -5.661335960030555725e-02 2.815884351730346680e-01 1.900176890194416046e-02 7.633673399686813354e-02 1.014076024293899536e-01 -3.461717814207077026e-02 1.738903671503067017e-01 1.125498935580253601e-01 -2.427081912755966187e-01 -1.611992269754409790e-01 2.617488205432891846e-01 -4.060081019997596741e-02 -1.305814832448959351e-01 1.568431593477725983e-02 -1.846990734338760376e-01 2.644418776035308838e-01 1.088967770338058472e-01 1.126661077141761780e-01 6.091056391596794128e-02 3.389164805412292480e-02 -2.604136057198047638e-02
-1.364003308117389679e-02 -1.688904017210006714e-01 -4.169573634862899780e-02 2.887137420475482941e-02 9.335028380155563354e-02 2.884864248335361481e-02 -6.977095734328031540e-03 2.501968294382095337e-03 -1.798457093536853790e-02 3.791467100381851196e-02 3.033989295363426208e-02 -7.225567847490310669e-02 9.543751180171966553e-02 2.387331053614616394e-02 2.273985184729099274e-02 -1.227604225277900696e-02 -1.800895929336547852e-01 7.581069134175777435e-03 2.521346509456634521e-01 -7.676447927951812744e-02 -3.795103728771209717e-02 4.645583033561706543e-02 5.750007927417755127e-02 1.046714838594198227e-03
1.000901777297258377e-02 8.606833964586257935e-02 1.982854679226875305e-02 -1.871698647737503052e-01 -1.093679200857877731e-02 -5.946327373385429382e-02 2.799716591835021973e-02 -2.711508609354496002e-02 -5.548796802759170532e-02 -1.114458441734313965e-01 -1.252546440809965134e-02 -9.119129739701747894e-03 -3.893760591745376587e-02 -1.515409797430038452e-01 3.136673271656036377e-01 1.099790558218955994e-01 -5.662807077169418335e-02 -7.117132097482681274e-02 -1.769749261438846588e-02 1.751821022480726242e-03 6.840149164199829102e-01 -3.642692789435386658e-02 7.057223469018936157e-02 9.858841076493263245e-03
-2.962498925626277924e-02 -4.765937849879264832e-02 -2.318414151668548584e-01 2.220160365104675293e-01 -1.357690095901489258e-01 1.788179278373718262e-01 6.904309988021850586e-02 -4.495115578174591064e-02 1.208517793565988541e-02 -8.975633978843688965e-02 7.445122301578521729e-02 7.672922313213348389e-02 -5.825586616992950439e-02 8.040924370288848877e-02 1.455536857247352600e-02 -3.203021883964538574e-01 -2.667937241494655609e-02 -5.274931713938713074e-02 3.418746637180447578e-03 1.855979561805725098e-01 -2.362869828939437866e-01 -2.030669152736663818e-02 -7.278352975845336914e-02 -1.127315405756235123e-02
2.755025215446949005e-02 -3.744617849588394165e-02 1.555394008755683899e-02 -9.693428874015808105e-02 7.549264281988143921e-02 1.675197295844554901e-02 -1.040811836719512939e-02 7.832515984773635864e-02 -9.093493968248367310e-02 -1.310010254383087158e-01 -2.987202070653438568e-02 7.198624312877655029e-02 1.926290616393089294e-02 -6.686250865459442139e-02 6.723537296056747437e-02 -1.754506230354309082e-01 8.084975183010101318e-02 1.516472548246383667e-03 7.087698578834533691e-02 6.538817286491394043e-02 5.658275485038757324e-01 3.466880694031715393e-02 -6.024017930030822754e-02 9.867655113339424133e-03
-5.750678107142448425e-02 3.828087076544761658e-02 -6.336550693958997726e-03 2.865113504230976105e-02 -1.179527491331100464e-01 1.369378268718719482e-01 4.162790626287460327e-02 5.366108939051628113e-02 1.174202635884284973e-01 1.172208338975906372e-01 1.029309704899787903e-01 8.159237354993820190e-02 1.721306890249252319e-02 -1.189483255147933960e-01 -2.867639362812042236e-01 2.440988421440124512e-01 -5.710420608520507812e-01 1.889740973711013794e-01 -1.791947782039642334e-01 3.478411436080932617e-01 1.152913808822631836e+00 5.645890161395072937e-02 -1.981900334358215332e-01 -1.290379744023084641e-02
2.307439036667346954e-02 1.580179333686828613e-01 -2.851216793060302734e-01 1.161057651042938232e-01 5.141916126012802124e-02 7.222460210323333740e-02 2.058420516550540924e-02 -2.439241670072078705e-02 9.532722085714340210e-02 9.168072044849395752e-02 -2.356478273868560791e-01 -3.818773105740547180e-02 3.740368410944938660e-02 -3.098073005676269531e-01 3.664429783821105957e-01 2.842827327549457550e-02 -3.025587834417819977e-02 1.967315524816513062e-01 4.814144223928451538e-02 6.127348914742469788e-02 -9.102927148342132568e-02 3.478349745273590088e-02 9.861155413091182709e-03 -6.382602732628583908e-03
-5.598306283354759216e-02 -7.908985018730163574e-02 -3.761097192764282227e-01 2.433716654777526855e-01 -1.312410086393356323e-01 -3.691957145929336548e-02 -2.590988576412200928e-01 7.928020507097244263e-02 2.453223168849945068e-01 1.618089079856872559e-01 -1.354130059480667114e-01 -9.837049990892410278e-02 -2.382885217666625977e-01 -2.463191896677017212e-01 -7.489319890737533569e-02 5.544637516140937805e-02 -9.998252242803573608e-02 -6.542330235242843628e-02 -1.284928061068058014e-02 8.563888818025588989e-02 -1.958638578653335571e-01 7.678858190774917603e-02 9.624754078686237335e-03 6.719303131103515625e-02
-4.787084460258483887e-02 1.164986193180084229e-01 1.138278320431709290e-01 -1.780159473419189453e-01 1.851946413516998291e-01 -1.467440426349639893e-01 -7.428512722253799438e-02 1.458692252635955811e-01 6.221012026071548462e-02 6.524566560983657837e-02 -1.841515153646469116e-01 1.119771134108304977e-02 7.701475173234939575e-02 -2.585624530911445618e-02 -3.736645355820655823e-02 -5.645291134715080261e-02 -1.947852410376071930e-02 -1.892438083887100220e-01 1.708157360553741455e-01 -1.130022108554840088e-01 1.467830985784530640e-01 -2.686749584972858429e-02 3.616889566183090210e-02 -1.187905785627663136e-03
-9.057275205850601196e-02 4.302497208118438721e-02 5.625012144446372986e-02 6.945059448480606079e-02 -1.158975437283515930e-01 -5.300525575876235962e-02 -4.724450781941413879e-02 3.216474130749702454e-02 8.675223588943481445e-02 3.738665208220481873e-02 -3.996953368186950684e-02 8.822854608297348022e-02 2.426388207823038101e-03 3.484180942177772522e-02 8.930111303925514221e-03 1.519337892532348633e-01 2.545804083347320557e-01 -1.293105911463499069e-02 -4.311966598033905029e-01 1.843488514423370361e-01 -1.402837783098220825e-01 1.825420744717121124e-02 3.685876727104187012e-02 1.033593788743019104e-01
-9.948253631591796875e-03 1.756678074598312378e-01 4.872557893395423889e-02 -5.031378939747810364e-02 3.544441238045692444e-02 -1.382342427968978882e-01 1.323407515883445740e-02 -7.943618111312389374e-03 1.211580121889710426e-03 5.854794755578041077e-02 -1.624432206153869629e-01 1.644386947154998779e-01 1.629548966884613037e-01 -1.883397251367568970e-01 1.669758930802345276e-02 -1.002915110439062119e-02 1.432222425937652588e-01 2.965580485761165619e-02 -3.013257086277008057e-01 3.158283531665802002e-01 -1.802295893430709839e-01 -7.261949032545089722e-02 -3.124850615859031677e-02 -7.109912484884262085e-02
3.666072338819503784e-02 5.463180132210254669e-03 3.632174730300903320e-01 -4.054455459117889404e-02 -8.659398555755615234e-02 5.522994324564933777e-02 -2.894577570259571075e-02 5.318209901452064514e-02 -3.040945343673229218e-02 -7.889840751886367798e-02 -5.243587866425514221e-02 6.886269152164459229e-02 8.797985315322875977e-02 -6.679689139127731323e-02 -6.391816586256027222e-02 -1.657686084508895874e-01 9.068528562784194946e-02 2.136213518679141998e-02 -9.465022385120391846e-02 1.459660530090332031e-01 -3.712162375450134277e-01 1.648240536451339722e-02 -4.742663353681564331e-02 1.416904665529727936e-02
8.696310967206954956e-02 -2.282716147601604462e-02 1.695781201124191284e-01 1.309056431055068970e-01 -5.547703802585601807e-02 -1.871254593133926392e-01 -8.393664844334125519e-03 4.894402995705604553e-02 -7.390797883272171021e-02 -2.093989960849285126e-02 -9.154503047466278076e-02 6.288978457450866699e-02 2.053733170032501221e-01 -2.162907421588897705e-01 6.998518854379653931e-02 1.030203849077224731e-01 1.696944534778594971e-01 1.126190945506095886e-01 -1.884215772151947021e-01 -3.276932612061500549e-02 4.093040227890014648e-01 2.581596560776233673e-02 1.906868219375610352e-01 -2.053714990615844727e-01
-8.770718239247798920e-03 5.596558563411235809e-03 1.993650645017623901e-01 -1.190884932875633240e-01 2.211903780698776245e-02 -2.189430445432662964e-01 -6.327003240585327148e-02 -3.668580204248428345e-02 2.713505644351243973e-03 -5.978896468877792358e-02 -4.217063486576080322e-01 8.446314185857772827e-02 -8.066630922257900238e-03 1.295522600412368774e-01 5.896315574645996094e-01 -1.135143861174583435e-01 2.691040933132171631e-02 -8.222108334302902222e-02 2.963703882414847612e-04 3.793149441480636597e-02 2.022789120674133301e-01 3.370575979351997375e-02 -3.717801719903945923e-02 -3.446427406743168831e-03
9.955274313688278198e-02 4.438136145472526550e-02 1.021816432476043701e-01 5.809971131384372711e-03 5.789973307400941849e-03 1.405892428010702133e-02 7.344448566436767578e-02 2.355195768177509308e-02 1.746256798505783081e-01 2.193281352519989014e-01 7.497593760490417480e-02 4.700676351785659790e-02 -1.340294443070888519e-02 1.731396019458770752e-01 7.128871511667966843e-03 -1.416623443365097046e-01 2.660982310771942139e-01 7.076038420200347900e-02 -1.568588465452194214e-01 -2.453096769750118256e-02 8.580950647592544556e-02 -5.702654365450143814e-03 1.619198173284530640e-02 -1.567758247256278992e-02
5.449160933494567871e-02 -2.450166828930377960e-02 -8.545783162117004395e-02 -5.592688173055648804e-02 3.128156810998916626e-02 -1.222252622246742249e-01 -7.230112701654434204e-02 6.387114524841308594e-02 1.609556376934051514e-01 -1.463123504072427750e-02 -1.420601308345794678e-01 2.573538422584533691e-01 4.287638515233993530e-02 -2.448818534612655640e-01 -1.411597728729248047e-01 4.426611959934234619e-02 4.022055119276046753e-02 2.210326939821243286e-01 -1.304239034652709961e-01 2.382592111825942993e-02 1.719049960374832153e-01 1.231419015675783157e-02 2.301450818777084351e-02 -4.019685089588165283e-03
1.331048309803009033e-01 9.654553979635238647e-02 7.368794828653335571e-02 5.350626073777675629e-03 -5.996555835008621216e-02 -3.313520923256874084e-02 6.413211673498153687e-02 -3.009225055575370789e-02 -2.127130180597305298e-01 -1.098046079277992249e-01 1.460926607251167297e-02 -1.559078842401504517e-01 -1.452035456895828247e-01 6.051542237401008606e-02 1.124117374420166016e-01 -2.445242106914520264e-01 8.198249340057373047e-02 2.053896337747573853e-01 -2.423200057819485664e-03 1.544957607984542847e-01 -5.221821069717407227e-01 1.708350144326686859e-02 2.389844693243503571e-02 -2.261134237051010132e-02
-4.148865491151809692e-02 -5.815001949667930603e-02 2.619748413562774658e-01 -1.228787302970886230e-01 1.226076185703277588e-01 -1.006180047988891602e-02 2.246913872659206390e-02 2.207244187593460083e-02 1.964642405509948730e-01 6.362887565046548843e-03 4.491837695240974426e-02 -3.694516047835350037e-02 -9.677993506193161011e-02 -1.149058863520622253e-01 3.922520279884338379e-01 8.075793273746967316e-03 -4.731886684894561768e-01 9.862790256738662720e-02 -1.467416733503341675e-01 -9.016986936330795288e-02 -4.921594560146331787e-01 -1.577742397785186768e-02 6.349098868668079376e-03 -6.037352606654167175e-03
-8.804087340831756592e-02 4.753419384360313416e-02 -3.913437575101852417e-02 3.829878941178321838e-02 -7.340806722640991211e-02 -7.262816280126571655e-02 1.653323769569396973e-01 4.985211417078971863e-03 9.277258068323135376e-02 2.778134308755397797e-02 -1.209807991981506348e+00 3.302713483572006226e-02 -1.126986816525459290e-01 -2.466096915304660797e-02 2.008537761867046356e-02 -3.670081123709678650e-02 1.130468770861625671e-02 1.390574872493743896e-01 -1.096163615584373474e-01 5.765814334154129028e-02 -2.394795715808868408e-01 5.725852679461240768e-03 -7.175006903707981110e-03 -1.931160502135753632e-02
-7.619938999414443970e-02 -4.774044826626777649e-02 -6.580646336078643799e-02 -1.090238150209188461e-02 9.666705876588821411e-02 1.606873273849487305e-01 5.974613502621650696e-02 -3.672539442777633667e-02 2.039517275989055634e-02 -6.194839999079704285e-02 -4.914914444088935852e-02 -2.935416251420974731e-02 -3.319988399744033813e-02 1.676042564213275909e-02 -4.951995983719825745e-02 1.313329488039016724e-01 -6.920734643936157227e-01 -4.004932567477226257e-02 -2.675160765647888184e-03 8.227101713418960571e-02 -1.880553215742111206e-01 4.648122005164623260e-03 1.795701533555984497e-01 -2.487560175359249115e-02
7.045061141252517700e-02 9.396537393331527710e-02 -2.768199890851974487e-02 5.029661655426025391e-01 -9.581463783979415894e-02 1.598349958658218384e-01 -2.131220996379852295e-01 -2.062191963195800781e-01 7.579454779624938965e-02 -8.714411407709121704e-02 -2.422978170216083527e-03 -2.707227170467376709e-01 -9.067978858947753906e-01 -1.915259510278701782e-01 1.186578646302223206e-01 -2.318849228322505951e-02 -1.855378001928329468e-01 -1.119689717888832092e-01 1.609452068805694580e-01 -1.298733055591583252e-02 -3.775765746831893921e-02 -4.901791736483573914e-02 1.745180413126945496e-02 7.160761952400207520e-02
6.014292128384113312e-03 -7.832452654838562012e-03 -4.703617095947265625e-02 9.490169584751129150e-02 -5.049310624599456787e-02 1.583352498710155487e-02 -3.769696690142154694e-03 -1.321926116943359375e-01 -3.677872568368911743e-02 -9.565366804599761963e-02 -4.639523848891258240e-02 -1.530743688344955444e-01 1.189991906285285950e-01 -7.718889415264129639e-02 3.241212293505668640e-02 5.721717327833175659e-02 -1.129363253712654114e-01 -1.112260520458221436e-01 -3.155916631221771240e-01 -2.185078263282775879e-01 -1.200881674885749817e-01 1.145349964499473572e-01 -1.976415663957595825e-01 -1.309482567012310028e-02
-9.293432347476482391e-03 1.606612056493759155e-01 1.898679137229919434e-02 -2.043513953685760498e-02 -2.210909277200698853e-01 1.285347789525985718e-01 -6.821162533015012741e-03 1.440202146768569946e-01 -1.003513112664222717e-01 -1.641522347927093506e-01 -7.706295698881149292e-02 1.745147556066513062e-01 1.163386628031730652e-01 -1.512953341007232666e-01 2.260953560471534729e-02 5.117637291550636292e-02 1.217227280139923096e-01 1.466720700263977051e-01 -2.949504181742668152e-02 1.582610905170440674e-01 -2.558331489562988281e-01 5.711909383535385132e-02 -1.458684913814067841e-02 -1.856508851051330566e-02
-1.506484858691692352e-02 6.601437181234359741e-02 7.695626467466354370e-02 8.573497086763381958e-02 -1.208737399429082870e-02 -1.300923675298690796e-01 2.013511583209037781e-02 1.708701997995376587e-02 1.978097856044769287e-02 -6.837931275367736816e-02 -1.848116330802440643e-02 -1.566569693386554718e-02 -7.392127066850662231e-02 1.386605352163314819e-01 5.804874002933502197e-02 2.096814662218093872e-02 -3.313899040222167969e-01 -6.824408471584320068e-02 4.405172914266586304e-02 -8.624732494354248047e-02 3.746154159307479858e-02 -1.060166954994201660e-01 1.805410087108612061e-01 -9.323574602603912354e-03
-9.477925300598144531e-02 6.514263898134231567e-02 -5.715240538120269775e-02 -1.007763594388961792e-01 1.127101257443428040e-01 -1.163604483008384705e-01 3.341146558523178101e-02 -1.138518471270799637e-02 3.197900578379631042e-02 -1.210186444222927094e-02 -4.519515857100486755e-02 1.060695853084325790e-02 8.062572032213211060e-02 1.868609338998794556e-02 2.387990616261959076e-02 1.106466799974441528e-01 -3.356521427631378174e-01 3.188808858394622803e-01 -2.449530176818370819e-02 -1.552057731896638870e-02 -2.729130685329437256e-01 -2.428921172395348549e-03 -7.654368132352828979e-02 4.979416262358427048e-03
2.418191358447074890e-02 -1.166342645883560181e-01 -5.961615219712257385e-02 1.026156730949878693e-02 2.472018599510192871e-01 1.531995087862014771e-01 1.526084262877702713e-02 2.150728702545166016e-01 -7.323714345693588257e-02 -1.981442049145698547e-02 1.537692546844482422e-01 -1.049691513180732727e-01 -2.088801264762878418e-01 -1.387887727469205856e-02 6.107435747981071472e-02 -1.008390560746192932e-01 1.058203577995300293e-01 -6.576900929212570190e-02 -7.294595986604690552e-02 -9.936378151178359985e-02 -1.103609278798103333e-01 1.622682623565196991e-02 4.751107469201087952e-02 2.873326651751995087e-02
-3.050648570060729980e-01 -1.005642637610435486e-01 1.683117002248764038e-01 -3.456853926181793213e-01 1.583524048328399658e-01 -7.483176887035369873e-02 -1.180604100227355957e-01 -1.285718679428100586e-01 8.233074098825454712e-02 5.410476401448249817e-02 1.038030460476875305e-01 4.164360463619232178e-02 -1.790081262588500977e-01 1.820227801799774170e-01 -1.931345611810684204e-01 -3.238561451435089111e-01 1.944205909967422485e-01 -7.684590667486190796e-02 6.235966086387634277e-02 -4.962946102023124695e-02 1.062402799725532532e-01 -4.364940151572227478e-02 1.547899693250656128e-01 -2.124228887259960175e-02
-1.746063306927680969e-02 -2.237275429069995880e-02 1.232209522277116776e-02 -5.272800847887992859e-02 -3.945382777601480484e-03 -6.254009157419204712e-02 4.301889240741729736e-02 -4.177277162671089172e-02 -6.518664956092834473e-02 -6.377942115068435669e-02 -1.034296527504920959e-01 2.135404646396636963e-01 -4.204359054565429688e-01 2.122322656214237213e-02 -8.627633005380630493e-02 8.788242936134338379e-02 2.317818552255630493e-01 1.523879915475845337e-01 -2.912803292274475098e-01 -1.490614004433155060e-02 2.932748757302761078e-02 -2.101772651076316833e-02 1.722500920295715332e-01 5.388806387782096863e-02
-2.939562546089291573e-03 -3.458282649517059326e-01 3.117265403270721436e-01 -1.890962012112140656e-02 -6.030259281396865845e-02 2.493058145046234131e-01 -3.018987178802490234e-01 -3.013043403625488281e-01 3.235194981098175049e-01 2.498082369565963745e-01 2.513946890830993652e-01 1.294757127761840820e-01 -1.020756959915161133e+00 2.478030771017074585e-01 -1.055155619978904724e-01 -1.598516106605529785e-01 1.076248809695243835e-01 -4.035848975181579590e-01 -1.497846841812133789e-01 1.701247096061706543e-01 9.248439967632293701e-02 -7.571081817150115967e-02 1.054600812494754791e-02 -1.447567939758300781e-01
6.572965532541275024e-02 -3.598966076970100403e-02 -8.456116169691085815e-02 -4.630110785365104675e-02 3.267152234911918640e-02 3.847061470150947571e-02 2.197191305458545685e-02 2.676208689808845520e-02 -8.420857042074203491e-02 -1.627962738275527954e-01 1.195917725563049316e-01 7.181529700756072998e-02 9.555700421333312988e-02 4.559218883514404297e-02 1.529295444488525391e-01 2.008593976497650146e-01 -1.096566021442413330e-01 6.043435260653495789e-02 8.111286908388137817e-02 7.990264333784580231e-03 -2.156300693750381470e-01 7.697377353906631470e-02 4.856916144490242004e-02 -4.516395926475524902e-02
3.050403669476509094e-02 1.061384305357933044e-01 3.063324466347694397e-02 4.816449712961912155e-03 -1.169097702950239182e-02 -5.006547272205352783e-02 -3.410355187952518463e-03 -8.026044815778732300e-02 1.104279085993766785e-01 -1.022088304162025452e-01 6.159548833966255188e-02 2.151483297348022461e-02 -1.795636489987373352e-03 2.877943683415651321e-03 -9.326371550559997559e-02 -6.909599155187606812e-02 -2.142641246318817139e-01 1.658954918384552002e-01 -2.122701406478881836e-01 3.151644766330718994e-02 2.252922505140304565e-01 -8.192533627152442932e-03 3.339879587292671204e-02 2.096608839929103851e-02
-5.427574366331100464e-02 -1.151743829250335693e-01 8.647183328866958618e-02 -6.758754700422286987e-02 -5.990933254361152649e-02 -8.234922587871551514e-02 -1.380371302366256714e-02 -2.329656481742858887e-02 -7.465907186269760132e-02 1.526144593954086304e-01 1.363161057233810425e-01 8.957966929301619530e-04 2.570845745503902435e-02 -4.852799698710441589e-02 1.230726912617683411e-01 -1.733372956514358521e-01 1.913773566484451294e-01 3.334127664566040039e-01 1.873791813850402832e-01 6.595425307750701904e-02 -9.302132129669189453e-01 6.266145408153533936e-02 1.073647215962409973e-01 -5.427806824445724487e-02
-4.747476428747177124e-02 5.887314304709434509e-02 -1.966291666030883789e-01 -1.346773058176040649e-01 -5.461967736482620239e-02 2.010629326105117798e-02 5.437780916690826416e-02 -3.031634166836738586e-02 -3.657287731766700745e-02 7.249491661787033081e-02 -3.813564404845237732e-02 1.274186279624700546e-02 4.449075460433959961e-02 1.045501381158828735e-01 -2.192817442119121552e-02 -1.032417416572570801e-01 3.013717383146286011e-02 7.219181209802627563e-02 -5.074891960248351097e-04 1.310974657535552979e-01 5.534545332193374634e-02 2.685230039060115814e-02 1.620788499712944031e-02 -6.469106674194335938e-02
1.589985042810440063e-01 -3.054569475352764130e-02 -1.827194243669509888e-01 -6.970429420471191406e-02 9.648580849170684814e-02 6.642734259366989136e-02 1.352981477975845337e-01 -2.381470054388046265e-02 7.931979000568389893e-02 1.092852428555488586e-01 2.608898468315601349e-02 -2.264122851192951202e-02 1.256159693002700806e-01 3.280663862824440002e-02 -1.139084622263908386e-01 -2.390688285231590271e-02 -1.046902835369110107e-01 1.115778833627700806e-01 2.166258245706558228e-01 -7.145574688911437988e-02 1.041156768798828125e+00 3.560942038893699646e-02 -1.010070219635963440e-01 4.268627241253852844e-02
4.475130885839462280e-02 1.498844623565673828e-01 1.090203449130058289e-01 -4.490654468536376953e-01 6.563104987144470215e-01 -1.272922605276107788e-01 3.872871100902557373e-01 -2.537686228752136230e-01 -4.686055239289999008e-03 -1.760583370923995972e-01 1.773026585578918457e-01 -7.762803137302398682e-02 1.877058297395706177e-01 5.890987515449523926e-01 -2.080030292272567749e-01 -1.129277865402400494e-03 -1.742043197154998779e-01 3.447573184967041016e-01 2.211006730794906616e-02 -2.525120079517364502e-01 1.080520823597908020e-02 -3.574150055646896362e-02 3.440331667661666870e-02 -1.516179740428924561e-02
-2.066284045577049255e-02 2.722061574459075928e-01 2.121243625879287720e-01 6.843597441911697388e-02 -2.535532973706722260e-02 1.526133809238672256e-02 1.456979755312204361e-02 2.362267300486564636e-02 3.858805075287818909e-02 6.450805068016052246e-02 7.301222998648881912e-03 1.244198679924011230e-01 -1.448113024234771729e-01 1.444247215986251831e-01 -1.641884446144104004e-01 1.024511009454727173e-01 -3.309494554996490479e-01 3.411716520786285400e-01 -2.111431658267974854e-01 2.125546336174011230e-01 4.370058178901672363e-01 1.502457424066960812e-03 5.471036210656166077e-02 1.925710774958133698e-02
