-2.272657491266727448e-02
5.034431070089340210e-02
9.914105385541915894e-02
2.426233887672424316e-01
-3.497620299458503723e-02
7.347275316715240479e-02
-2.744379825890064240e-02
1.353050172328948975e-01
1.440224237740039825e-02
8.637240529060363770e-02
1.209893226623535156e-01
8.987165987491607666e-02
-2.678484283387660980e-02
1.214354485273361206e-02
8.219163119792938232e-02
8.968912065029144287e-02
6.385510414838790894e-02
1.352830380201339722e-01
-5.895115900784730911e-03
1.197278127074241638e-02
2.525106072425842285e-01
-3.278326988220214844e-02
1.712168753147125244e-02
6.222694367170333862e-02
-1.329366117715835571e-03
1.151128709316253662e-01
3.679818287491798401e-02
6.275275349617004395e-02
6.344635784626007080e-02
5.917821079492568970e-02
9.421838819980621338e-02
-1.527615357190370560e-02
3.322548046708106995e-02
1.325261443853378296e-01
1.318468302488327026e-01
-2.946942113339900970e-03
-4.629896953701972961e-02
1.064432933926582336e-01
1.930790692567825317e-01
1.481797993183135986e-01
5.775764584541320801e-02
6.869706511497497559e-02
7.176232337951660156e-02
-5.692919250577688217e-03
-3.018623590469360352e-02
1.925643980503082275e-01
3.937267512083053589e-02
2.510975347831845284e-03
-3.981088474392890930e-02
5.438807979226112366e-02
2.492313832044601440e-02
6.058521568775177002e-02
9.812327474355697632e-02
-1.483932603150606155e-02
-1.068815123289823532e-02
-1.109614297747612000e-01
6.149481050670146942e-03
7.496710866689682007e-03
9.010171517729759216e-03
3.447920456528663635e-02
1.287569254636764526e-01
6.595328450202941895e-02
1.172976568341255188e-02
1.053851321339607239e-01
7.523757219314575195e-02
5.984778329730033875e-02
6.161958724260330200e-02
2.734712138772010803e-02
1.241488307714462280e-01
8.766066282987594604e-02
2.278743125498294830e-02
1.598719656467437744e-01
5.826045945286750793e-02
-1.708019524812698364e-02
-1.667124032974243164e-02
2.366997674107551575e-02
4.201778024435043335e-02
2.440887875854969025e-02
-1.249538362026214600e-02
1.459242552518844604e-01
-2.151311561465263367e-02
1.343318447470664978e-02
8.572297543287277222e-02
1.014023646712303162e-01
8.652046322822570801e-02
1.127223521471023560e-01
1.917657256126403809e-01
-2.189997211098670959e-02
-2.405382879078388214e-02
1.573121696710586548e-01
-7.146136369556188583e-03
7.305911928415298462e-02
-3.758281469345092773e-02
-2.757048793137073517e-02
9.636862576007843018e-02
8.640392869710922241e-02
-9.103640168905258179e-02
4.651936143636703491e-02
5.276972800493240356e-02
6.498972326517105103e-02
-1.007761433720588684e-01
2.086879909038543701e-01
-6.667249370366334915e-03
2.018420845270156860e-01
1.171295419335365295e-01
1.777514517307281494e-01
4.440879821777343750e-02
2.596499398350715637e-02
7.869388908147811890e-02
1.405567377805709839e-01
6.890270859003067017e-02
2.486218363046646118e-01
7.893906533718109131e-02
-2.567141875624656677e-02
2.557088136672973633e-01
5.098919570446014404e-02
6.874503940343856812e-02
-7.574921101331710815e-02
2.500160336494445801e-01
-4.938655346632003784e-02
2.544980682432651520e-02
7.710381597280502319e-02
7.744313776493072510e-02
4.462078958749771118e-02
7.259069383144378662e-02
6.306120753288269043e-02
7.193391770124435425e-02
-5.702870711684226990e-02
2.967710420489311218e-02
-2.026335522532463074e-02
-3.060241602361202240e-02
4.260451346635818481e-02
7.954094558954238892e-02
2.238986454904079437e-02
6.112979352474212646e-02
9.678865969181060791e-02
-1.153152063488960266e-01
1.414115577936172485e-01
7.728446274995803833e-02
1.057104393839836121e-01
1.953420788049697876e-02
7.646121084690093994e-02
5.666364356875419617e-02
1.080683991312980652e-01
-3.679830953478813171e-02
4.032348282635211945e-03
-6.249200925230979919e-02
1.708454191684722900e-01
1.713669747114181519e-01
3.222864121198654175e-02
-1.911920160055160522e-01
-1.169187277555465698e-01
-1.605451107025146484e-01
-3.800323307514190674e-01
-1.107415482401847839e-01
-2.232118099927902222e-01
4.473838210105895996e-02
6.752743571996688843e-02
-1.219176724553108215e-01
1.511188298463821411e-01
6.986418366432189941e-02
-2.909265756607055664e-01
-2.130234986543655396e-01
-8.800192922353744507e-02
1.073224991559982300e-01
-1.892813295125961304e-02
-2.081528753042221069e-01
1.919230446219444275e-02
9.758929372765123844e-04
-1.969616860151290894e-01
-1.078084707260131836e-01
-1.504805386066436768e-01
-2.310145497322082520e-01
-7.944311946630477905e-02
-8.744002878665924072e-02
6.332182139158248901e-02
-1.337375342845916748e-01
6.109711155295372009e-02
-9.801895916461944580e-02
-2.521720249205827713e-03
8.515585213899612427e-03
-4.387614130973815918e-02
-1.135975122451782227e-01
-5.611170530319213867e-01
8.621323853731155396e-02
-3.094590269029140472e-02
1.291098594665527344e-01
-3.307255208492279053e-01
7.804565131664276123e-02
-3.749999776482582092e-02
1.161774769425392151e-01
1.537395268678665161e-01
3.417217405512928963e-03
3.824946284294128418e-02
-2.270541898906230927e-02
1.687428802251815796e-01
4.720329120755195618e-02
-3.761675059795379639e-01
1.464047096669673920e-02
-2.846266627311706543e-01
-2.103187590837478638e-01
3.118108771741390228e-02
2.941815182566642761e-02
-1.136672645807266235e-01
-1.199079602956771851e-01
-1.588820964097976685e-01
1.777829747879877687e-04
-1.846133619546890259e-01
-1.053421348333358765e-01
-3.303350135684013367e-02
-2.433438748121261597e-01
7.400812953710556030e-02
1.766134984791278839e-02
-1.258097290992736816e-01
-8.993320167064666748e-02
-6.665789335966110229e-02
-3.310461640357971191e-01
-1.501000225543975830e-01
-4.355608820915222168e-01
-2.293880283832550049e-01
-5.822162330150604248e-02
-1.244126260280609131e-01
-2.800132788252085447e-04
-2.075174450874328613e-01
9.550471603870391846e-02
-2.415534555912017822e-01
-7.111024856567382812e-02
-6.744119524955749512e-02
-1.377306133508682251e-01
-1.892264336347579956e-01
2.364828251302242279e-02
-3.078888058662414551e-01
-7.045486569404602051e-02
-3.061903715133666992e-01
1.753825694322586060e-02
1.158408746123313904e-01
-2.389370501041412354e-01
-2.348366528749465942e-01
1.049406751990318298e-01
8.742473274469375610e-02
-2.192780934274196625e-02
-1.360326409339904785e-01
-3.212597966194152832e-02
-1.790815964341163635e-02
3.486131876707077026e-02
7.000654190778732300e-02
-3.557002842426300049e-01
2.766378782689571381e-02
-1.129001751542091370e-01
-3.809175193309783936e-01
-4.310274496674537659e-02
-5.260328650474548340e-01
1.400518864393234253e-01
-1.475119143724441528e-01
4.969496652483940125e-02
-1.211201921105384827e-01
1.225408241152763367e-01
-1.331824387307278812e-05
-1.264729499816894531e-01
-2.748088836669921875e-01
-1.519021391868591309e-01
-3.451207578182220459e-01
1.217743977904319763e-01
8.704585954546928406e-03
-4.707937836647033691e-01
-2.997782528400421143e-01
-2.342185080051422119e-01
2.893469110131263733e-02
-1.308706849813461304e-01
4.505961015820503235e-02
-2.650572359561920166e-01
-1.040140837430953979e-01
-1.061257869005203247e-01
-3.078589960932731628e-02
-4.373392462730407715e-02
9.880919009447097778e-02
-5.314291641116142273e-02
-6.964667141437530518e-02
1.870633214712142944e-01
-1.927303224802017212e-01
2.153826691210269928e-02
-6.667476892471313477e-02
3.077552840113639832e-02
2.496673166751861572e-02
-3.376761451363563538e-02
4.955842625349760056e-03
-1.061195060610771179e-01
1.216361373662948608e-01
8.117721229791641235e-02
-1.133359298110008240e-01
-3.999100998044013977e-02
-2.399542927742004395e-02
-1.123125925660133362e-01
-2.301096618175506592e-01
-1.442373148165643215e-03
9.541202336549758911e-02
1.407068073749542236e-01
1.152435839176177979e-01
9.958118945360183716e-02
2.361300587654113770e-02
-1.860291361808776855e-01
-1.588516235351562500e-01
1.131328120827674866e-01
1.434980928897857666e-01
8.401928842067718506e-02
-6.769288331270217896e-02
-3.468414023518562317e-02
2.107583172619342804e-02
-2.022645622491836548e-02
9.687421470880508423e-02
1.599023789167404175e-01
8.711770176887512207e-02
-7.096771895885467529e-02
-2.528575947508215904e-03
-1.092350035905838013e-01
4.175974801182746887e-02
1.899109780788421631e-02
7.244096696376800537e-02
4.818184673786163330e-02
-1.254795026034116745e-02
-6.399757228791713715e-03
-3.222591802477836609e-02
6.882088631391525269e-02
1.317478269338607788e-01
2.066239155828952789e-02
-3.202911466360092163e-02
5.330125987529754639e-02
1.099839285016059875e-01
8.095622062683105469e-02
4.158866778016090393e-02
6.457366794347763062e-02
-8.701630681753158569e-02
2.259035035967826843e-02
3.365869075059890747e-02
-1.514043509960174561e-01
1.254393309354782104e-01
9.706555306911468506e-02
4.611328616738319397e-02
-3.587636351585388184e-02
-1.168128550052642822e-01
3.206200525164604187e-02
-1.311790943145751953e-01
-2.577151730656623840e-02
-6.820877082645893097e-03
8.099897205829620361e-02
-8.732335269451141357e-02
1.009926665574312210e-02
8.592880330979824066e-03
-4.981968179345130920e-02
-5.835441872477531433e-02
9.358658641576766968e-02
-1.414754092693328857e-01
-7.559301704168319702e-02
4.524491354823112488e-02
-6.146696954965591431e-02
-3.432553634047508240e-02
9.956553578376770020e-02
-1.137695163488388062e-01
1.488849818706512451e-01
6.360635161399841309e-02
-6.403206288814544678e-02
4.086737707257270813e-02
4.837603308260440826e-03
8.613833785057067871e-02
-6.808536499738693237e-02
-7.853314280509948730e-02
2.065819129347801208e-02
-1.595428772270679474e-02
-1.093649417161941528e-01
-1.109783872961997986e-01
-5.054302886128425598e-02
1.040432825684547424e-01
-4.399862512946128845e-02
2.722678147256374359e-02
-5.743009224534034729e-02
6.520488299429416656e-03
-4.263709764927625656e-03
-6.541272997856140137e-02
7.850112393498420715e-03
-2.145318314433097839e-02
9.285501390695571899e-02
4.050176125019788742e-03
-6.393601745367050171e-02
9.409609436988830566e-02
3.505664318799972534e-02
-5.851136520504951477e-04
7.292617112398147583e-02
4.544205963611602783e-02
9.590417891740798950e-02
7.619088888168334961e-02
-1.159553378820419312e-01
-3.013133257627487183e-02
-3.463618457317352295e-02
-1.383454352617263794e-01
-6.575173139572143555e-02
-3.866254910826683044e-02
1.776543557643890381e-01
4.272023215889930725e-03
3.923529386520385742e-02
1.962620392441749573e-02
-5.725874751806259155e-02
-6.467347592115402222e-02
-1.060588881373405457e-01
1.078175306320190430e-01
-1.234689280390739441e-01
-5.614259862340986729e-04
1.196622326970100403e-01
-1.184640079736709595e-02
3.777064755558967590e-02
-1.271839141845703125e-01
-1.626431941986083984e-01
-1.557895541191101074e-01
3.600962832570075989e-02
-2.765998011454939842e-03
4.129099845886230469e-02
2.634931355714797974e-02
7.797352224588394165e-02
9.226635843515396118e-02
1.608297824859619141e-01
-2.986361086368560791e-02
1.182161830365657806e-02
1.265478972345590591e-02
7.856962829828262329e-02
-7.789433002471923828e-02
1.153402328491210938e-01
5.554994940757751465e-02
-5.712087824940681458e-02
1.233254093676805496e-02
9.566597640514373779e-02
-1.816082447767257690e-01
-4.649509862065315247e-02
-1.796529814600944519e-02
-5.757268518209457397e-02
2.875214908272027969e-03
1.058628410100936890e-02
1.089599356055259705e-02
8.385438704863190651e-04
-6.740892678499221802e-02
-4.853402206208556890e-04
1.088614463806152344e-01
7.067032158374786377e-02
4.695207998156547546e-02
-1.289235055446624756e-01
-1.087932102382183075e-02
-4.868404939770698547e-02
-8.930446952581405640e-02
6.327237933874130249e-02
7.489605247974395752e-02
-3.994381800293922424e-02
-1.093023642897605896e-02
