-1.722920835018157959e-01
-9.596574306488037109e-02
-7.098717689514160156e-01
-3.501796126365661621e-01
-3.630324602127075195e-01
1.385207325220108032e-01
-5.693450570106506348e-01
-3.776386380195617676e-01
-2.337599098682403564e-01
-2.106756716966629028e-01
5.616011098027229309e-03
-1.866288483142852783e-03
-1.123645827174186707e-01
-1.175340414047241211e-01
-4.429352879524230957e-01
-2.056835144758224487e-01
4.034008085727691650e-02
-2.958575189113616943e-01
6.557248830795288086e-01
-2.612643837928771973e-01
-2.574961185455322266e-01
-3.549140691757202148e-01
-3.586616516113281250e-01
-3.080574572086334229e-01
-1.376284509897232056e-01
-3.031629920005798340e-01
-2.385795414447784424e-01
-4.408755600452423096e-01
-1.440538465976715088e-01
1.384445279836654663e-01
2.683887481689453125e-01
-6.941990554332733154e-02
1.942343562841415405e-01
-8.635932207107543945e-02
-4.663946330547332764e-01
-1.853948086500167847e-01
-6.601964682340621948e-02
-7.150879502296447754e-01
-3.643426895141601562e-01
-4.996733665466308594e-01
-2.599101960659027100e-01
-4.343380928039550781e-01
-1.977170854806900024e-01
-3.412116765975952148e-01
1.400175690650939941e-01
-1.060412824153900146e-01
4.012007415294647217e-01
-2.489246428012847900e-01
-8.090200833976268768e-03
-4.449464976787567139e-01
4.258935153484344482e-01
-5.462607145309448242e-01
7.209531962871551514e-02
-1.897173970937728882e-01
-2.905150353908538818e-01
-1.975039392709732056e-01
1.675660759210586548e-01
-2.781336009502410889e-01
-3.710421919822692871e-01
-1.109405308961868286e-01
-5.723839998245239258e-01
-2.246422618627548218e-01
-1.504271775484085083e-01
-1.247880421578884125e-02
-2.019036859273910522e-01
-3.689317405223846436e-01
-2.007962465286254883e-01
1.195166632533073425e-01
-5.696873366832733154e-02
-2.288777530193328857e-01
-2.221725583076477051e-01
-2.051129639148712158e-01
-2.725059688091278076e-01
2.694157361984252930e-01
1.923241019248962402e-01
-2.261249907314777374e-02
-3.601252138614654541e-01
-4.562622308731079102e-02
-2.146307080984115601e-01
-1.872568875551223755e-01
-6.259632706642150879e-01
1.083883881568908691e+00
-3.486150205135345459e-01
-1.139436196535825729e-02
-4.653311371803283691e-01
-3.332351893186569214e-02
-1.425611972808837891e-01
1.203922331333160400e-01
-6.447330117225646973e-01
-2.278648018836975098e-01
-1.094998940825462341e-01
-4.357838332653045654e-01
-4.493850767612457275e-01
-1.926011741161346436e-01
-3.189825117588043213e-01
-3.917470872402191162e-01
-2.101541012525558472e-01
6.576770544052124023e-02
-7.456710338592529297e-01
4.015081748366355896e-02
-2.875783145427703857e-01
-9.187717735767364502e-02
-1.631327122449874878e-01
-2.043901709839701653e-03
-2.009099163115024567e-02
-4.024957716464996338e-01
-4.669535160064697266e-01
-3.388372957706451416e-01
-3.666053414344787598e-01
-1.984446644783020020e-01
-1.279589980840682983e-01
-5.416498780250549316e-01
-1.429844945669174194e-01
-1.106939017772674561e-01
-3.009083569049835205e-01
-1.461508870124816895e-01
-3.140887618064880371e-01
-2.817935347557067871e-01
-1.012412831187248230e-02
-4.408356845378875732e-01
-3.862127959728240967e-01
-1.748404949903488159e-01
-2.824640274047851562e-01
-2.248310297727584839e-01
-1.976039409637451172e-01
-4.676262736320495605e-01
2.491688132286071777e-01
-1.903408169746398926e-01
3.331855237483978271e-01
3.430535495281219482e-01
3.756658732891082764e-01
5.734087824821472168e-01
3.658389300107955933e-02
8.669327199459075928e-02
1.189744919538497925e-01
3.895388245582580566e-01
2.542496025562286377e-01
-2.893783617764711380e-03
1.461339592933654785e-01
-1.884512044489383698e-02
-4.847034066915512085e-02
1.454199105501174927e-01
-8.148552477359771729e-02
-3.187182918190956116e-02
-1.513061523437500000e-01
4.401102662086486816e-01
-1.797115653753280640e-01
2.722559571266174316e-01
-4.082689881324768066e-01
-7.278549671173095703e-02
3.034639060497283936e-01
6.589835882186889648e-02
2.549466118216514587e-02
3.565521538257598877e-01
1.098760217428207397e-01
7.331142574548721313e-02
3.722106218338012695e-01
1.588428169488906860e-01
2.640231847763061523e-01
-3.946783542633056641e-01
1.049992293119430542e-01
-4.296621680259704590e-02
6.055855005979537964e-02
-9.435141086578369141e-02
6.995476037263870239e-02
-2.517060339450836182e-01
5.412061512470245361e-02
6.569908559322357178e-02
1.719868481159210205e-01
2.754213213920593262e-01
2.783794999122619629e-01
1.403263807296752930e-01
8.301707357168197632e-02
2.218441665172576904e-01
3.962207958102226257e-02
2.517447173595428467e-01
3.540153801441192627e-01
1.505763232707977295e-01
1.847384274005889893e-01
3.871583044528961182e-01
1.178938522934913635e-01
-2.129398882389068604e-01
-3.754862546920776367e-01
3.953962624073028564e-01
1.861076951026916504e-01
2.768366932868957520e-01
4.020426049828529358e-02
-9.948525577783584595e-02
4.030755162239074707e-02
-1.800095289945602417e-02
5.397827178239822388e-02
2.986804246902465820e-01
1.216987818479537964e-01
-3.455465659499168396e-02
4.561285078525543213e-01
1.835474669933319092e-01
-3.794290591031312943e-03
-1.788309775292873383e-02
1.523854560218751431e-03
-2.620540857315063477e-01
-4.906807467341423035e-02
1.888594925403594971e-01
6.898731738328933716e-02
-2.766489051282405853e-02
1.409683972597122192e-01
-1.788119226694107056e-01
3.792891204357147217e-01
2.478443533182144165e-01
5.956454575061798096e-02
-3.963831365108489990e-01
1.198602095246315002e-01
-8.910460025072097778e-02
-4.217336419969797134e-03
2.441256046295166016e-01
1.693768203258514404e-01
-3.644249215722084045e-02
1.673448979854583740e-01
-2.336010783910751343e-01
6.608142256736755371e-01
3.138881027698516846e-01
-6.527682393789291382e-02
-1.608839072287082672e-02
5.240957438945770264e-02
1.865956783294677734e-01
4.005169868469238281e-02
-1.980793476104736328e-01
5.005421489477157593e-02
-2.785885334014892578e-01
-8.673295378684997559e-02
1.328073740005493164e-01
5.035849660634994507e-02
1.166680753231048584e-01
1.990255713462829590e-01
4.524657726287841797e-01
-5.877910554409027100e-02
-1.207682117819786072e-02
3.201819956302642822e-01
1.083777993917465210e-01
5.277734398841857910e-01
-1.052012816071510315e-01
9.612412750720977783e-02
3.818092644214630127e-01
1.536037176847457886e-01
1.067726314067840576e-01
-4.890965297818183899e-02
1.505001187324523926e-01
2.502048313617706299e-01
2.011874504387378693e-02
1.325216442346572876e-01
1.890744268894195557e-01
3.880915790796279907e-02
-2.086259424686431885e-02
1.339204609394073486e-01
1.869715051725506783e-03
5.286984443664550781e-01
-4.797280579805374146e-02
1.208429560065269470e-01
2.813954055309295654e-01
1.440687477588653564e-01
-1.482163220643997192e-01
1.768532544374465942e-01
-3.814230263233184814e-01
-2.022018469870090485e-02
1.274187490344047546e-02
1.027943100780248642e-02
-2.729782834649085999e-02
1.697216033935546875e-01
-1.787081360816955566e-01
-1.193863824009895325e-01
-1.614616252481937408e-02
1.306004077196121216e-01
-2.759539783000946045e-01
3.471063673496246338e-01
-2.142152190208435059e-01
2.181384265422821045e-01
-1.320707798004150391e-01
2.846805751323699951e-01
-2.461370527744293213e-01
-9.203290194272994995e-02
-9.792841970920562744e-02
3.424431756138801575e-02
3.897200152277946472e-02
6.197629868984222412e-02
1.005232334136962891e-01
3.454580307006835938e-01
-5.101769044995307922e-02
-2.983345687389373779e-01
-1.410913914442062378e-01
2.356468737125396729e-01
-2.319288551807403564e-01
6.352048367261886597e-02
-7.711103558540344238e-02
-2.338337153196334839e-01
-2.300655543804168701e-01
2.349981069564819336e-01
1.113346293568611145e-01
-2.387519367039203644e-02
-1.920875348150730133e-02
-8.610524982213973999e-02
3.823793306946754456e-02
-3.083156049251556396e-01
2.724336273968219757e-02
-5.600982531905174255e-02
1.540043205022811890e-01
2.908707857131958008e-01
6.144732236862182617e-03
1.118064448237419128e-01
2.025624364614486694e-01
1.738797277212142944e-01
-1.795526593923568726e-01
-1.150773465633392334e-01
1.898435316979885101e-02
1.767880022525787354e-01
-1.079337671399116516e-01
6.369370222091674805e-02
-1.490566581487655640e-01
5.103716161102056503e-03
-1.287341713905334473e-01
2.262742817401885986e-01
-1.099351271986961365e-01
2.845844812691211700e-02
3.470000326633453369e-01
1.058403328061103821e-01
-1.013071984052658081e-01
-6.373382173478603363e-03
-2.961865067481994629e-01
7.642363756895065308e-02
-1.064504962414503098e-02
2.916880846023559570e-01
7.059386968612670898e-01
-1.149711757898330688e-01
-1.826660893857479095e-02
1.116646677255630493e-01
-2.669300734996795654e-01
4.522763937711715698e-02
-2.400312200188636780e-02
-1.633372753858566284e-01
1.608635783195495605e-01
-1.633634977042675018e-02
-1.824604570865631104e-01
1.291991621255874634e-01
9.220775961875915527e-02
-1.228820830583572388e-01
-5.202828324399888515e-04
-1.852065138518810272e-02
3.359452635049819946e-02
-5.690930038690567017e-02
-2.986852526664733887e-01
-9.202869236469268799e-02
-4.639925807714462280e-02
-1.247466802597045898e-01
-1.577924787998199463e-01
-6.865569949150085449e-02
4.529956579208374023e-01
-1.040343046188354492e-01
-1.881683319807052612e-01
-4.689571633934974670e-02
2.348593920469284058e-01
-2.058408856391906738e-01
2.898534536361694336e-01
1.172499135136604309e-01
-1.977600902318954468e-01
1.403348147869110107e-01
-3.668180406093597412e-01
3.418468404561281204e-03
2.629600763320922852e-01
-1.418726593255996704e-01
-1.295083761215209961e-01
-2.981888130307197571e-03
2.802390456199645996e-01
-1.271378099918365479e-01
1.687294989824295044e-02
-1.291801482439041138e-01
-1.936206370592117310e-01
5.587228015065193176e-02
1.816618591547012329e-01
-4.672141803894191980e-04
-1.149817109107971191e-01
-3.467132104560732841e-03
-1.370301470160484314e-02
2.756817340850830078e-01
2.710031159222126007e-02
1.440098583698272705e-01
1.813126951456069946e-01
4.720626175403594971e-01
9.632152318954467773e-02
-1.569845676422119141e-01
1.498380154371261597e-01
-1.013333648443222046e-01
-1.392884850502014160e-01
-2.369285374879837036e-01
1.384524852037429810e-01
3.745953738689422607e-01
2.520135939121246338e-01
-1.288918107748031616e-01
1.664723008871078491e-01
-2.535489201545715332e-01
1.898623257875442505e-01
4.834139645099639893e-01
4.803833365440368652e-01
5.696952939033508301e-01
-4.704279359430074692e-03
7.903508096933364868e-02
-1.035904064774513245e-01
-4.600080102682113647e-02
-8.568279445171356201e-02
-7.537942845374345779e-03
1.940840780735015869e-01
2.041237056255340576e-01
3.113521039485931396e-01
6.329260021448135376e-02
-2.993856966495513916e-01
-1.165039315819740295e-01
2.022185623645782471e-01
3.183683454990386963e-01
3.637489080429077148e-01
1.669748276472091675e-01
8.146163821220397949e-02
-9.053428173065185547e-01
-5.690840631723403931e-02
2.770694792270660400e-01
-1.528618037700653076e-01
2.961629536002874374e-03
-1.859996318817138672e-01
-7.305161096155643463e-03
-6.629967689514160156e-02
-1.391774863004684448e-01
-3.293105661869049072e-01
4.588694870471954346e-01
3.318376839160919189e-01
1.183823496103286743e-01
1.156902164220809937e-01
3.612508177757263184e-01
-3.993678390979766846e-01
3.376286327838897705e-01
1.858090609312057495e-01
-2.114534378051757812e-01
9.305099397897720337e-02
1.831997334957122803e-01
6.990688294172286987e-02
1.515691280364990234e-01
-2.428986877202987671e-01
2.642264962196350098e-01
-8.937232941389083862e-02
-1.547526121139526367e-01
-1.455801427364349365e-01
1.918818056583404541e-01
7.729816716164350510e-03
2.305266112089157104e-01
9.311783313751220703e-02
3.411853015422821045e-01
9.919557720422744751e-02
7.034321129322052002e-02
-1.187198460102081299e-01
3.398895962163805962e-03
-1.560687422752380371e-01
-2.997725605964660645e-01
-3.100291788578033447e-01
1.108857840299606323e-01
3.032240569591522217e-01
3.305378258228302002e-01
2.558696568012237549e-01
2.671754956245422363e-01
4.427125155925750732e-01
-4.490799009799957275e-01
4.206296503543853760e-01
7.917049527168273926e-02
2.283041775226593018e-01
-2.452764511108398438e-01
-2.782387435436248779e-01
7.139819674193859100e-03
2.511357069015502930e-01
-3.652873635292053223e-01
1.932718008756637573e-01
4.959921538829803467e-01
1.814128607511520386e-01
-4.649606347084045410e-01
1.601808220148086548e-01
-2.005576044321060181e-01
4.101124405860900879e-01
5.386690050363540649e-02
2.623063325881958008e-01
9.272341430187225342e-02
2.047563344240188599e-01
3.366079628467559814e-01
-2.843570522964000702e-02
2.574895322322845459e-01
2.452001422643661499e-01
5.128679275512695312e-01
-4.478594288229942322e-03
-3.717112913727760315e-02
9.500266169197857380e-04
-4.969522356986999512e-02
8.932173252105712891e-02
2.637398838996887207e-01
-2.781836986541748047e-01
-1.076531261205673218e-01
-7.383083552122116089e-02
1.112896427512168884e-01
3.419735729694366455e-01
8.570986986160278320e-02
-2.690884172916412354e-01
2.361181080341339111e-01
-2.267163544893264771e-01
-2.684289589524269104e-02
-3.342678546905517578e-01
4.717607051134109497e-02
6.891267746686935425e-02
5.877864733338356018e-02
-4.560654759407043457e-01
4.954450130462646484e-01
3.185738921165466309e-01
