6.961935758590698242e-01
-2.105840593576431274e-01
5.511781945824623108e-02
-3.037480115890502930e-01
2.726021409034729004e-01
-2.141942232847213745e-01
-6.682871580123901367e-01
-4.787376523017883301e-01
-1.939779967069625854e-01
-5.090916901826858521e-02
2.608602285385131836e+00
-4.167303442955017090e-01
1.400519013404846191e-01
-4.296594113111495972e-02
-1.738478302955627441e+00
-1.924594342708587646e-01
5.067071318626403809e-01
8.393304795026779175e-02
2.451874256134033203e+00
-2.318296730518341064e-01
-3.220178484916687012e-01
-5.707476735115051270e-01
1.605331599712371826e-01
1.254589557647705078e-01
1.684855461120605469e+00
-3.122198879718780518e-01
-5.424879789352416992e-01
8.246453851461410522e-02
-3.247710168361663818e-01
3.035649359226226807e-01
1.103259563446044922e+00
-1.394975185394287109e+00
2.648147940635681152e-01
2.662381827831268311e-01
-2.844524085521697998e-01
-3.429649770259857178e-01
1.768564879894256592e-01
1.189839541912078857e-01
-9.043070673942565918e-02
-1.552309095859527588e-01
2.264252901077270508e+00
-3.290058374404907227e-01
-9.153194725513458252e-02
-3.673759400844573975e-01
-2.812950909137725830e-01
-1.196425482630729675e-01
2.737638652324676514e-01
-2.110111266374588013e-01
-2.020725905895233154e-01
-6.256464985199272633e-04
-2.873336970806121826e-01
5.797852873802185059e-01
5.183393359184265137e-01
-3.098607063293457031e-01
-2.866286635398864746e-01
-3.051519989967346191e-01
-3.709165155887603760e-01
-1.145214676856994629e+00
-2.971579730510711670e-01
-1.529571861028671265e-01
2.889590263366699219e-01
3.595215082168579102e-01
-4.245103299617767334e-01
6.233983039855957031e-01
-7.154783606529235840e-01
2.696087062358856201e-01
3.285174965858459473e-01
1.962147355079650879e-01
1.293099224567413330e-01
4.354823827743530273e-01
-2.380299270153045654e-01
1.454913467168807983e-01
4.787059426307678223e-01
3.310540020465850830e-01
-8.515299111604690552e-02
-7.733206748962402344e-01
-1.147350907325744629e+00
3.118139505386352539e-01
-2.707082964479923248e-02
2.178393676877021790e-02
-8.350540399551391602e-01
3.861834704875946045e-01
-1.236224293708801270e+00
-1.328183058649301529e-02
5.705162882804870605e-01
1.680313497781753540e-01
2.876161932945251465e-01
1.838250160217285156e-01
3.655994683504104614e-02
3.086000978946685791e-01
5.102103948593139648e-02
-2.110649511450901628e-04
2.897173464298248291e-01
5.270867049694061279e-02
-1.994052410125732422e+00
2.830547094345092773e-01
3.394954800605773926e-01
4.071863293647766113e-01
-5.214447155594825745e-03
-1.486822366714477539e-01
6.000197529792785645e-01
-2.758101793006062508e-03
1.208933740854263306e-01
-4.405831173062324524e-02
6.383367627859115601e-02
2.174039185047149658e-01
1.571520864963531494e-01
-5.483300611376762390e-02
4.007765352725982666e-01
2.763872146606445312e-01
-2.857488989830017090e-01
-9.831155836582183838e-02
5.364555120468139648e-01
2.699307501316070557e-01
-2.222938463091850281e-02
4.206480085849761963e-01
-2.017214149236679077e-01
-2.636145800352096558e-02
1.390671432018280029e-01
1.874597221612930298e-01
1.268650442361831665e-01
-6.333227157592773438e-01
5.338494181632995605e-01
-2.803306281566619873e-01
-5.054586887359619141e+00
4.001733958721160889e-01
-3.270436450839042664e-02
2.240123301744461060e-01
-1.569302380084991455e-01
-3.872746974229812622e-02
1.225697994232177734e-01
7.678458839654922485e-02
-8.739713579416275024e-03
2.092173099517822266e-01
1.006972908973693848e+00
-1.783131659030914307e-01
-2.100920528173446655e-01
1.306717563420534134e-02
2.539165019989013672e-01
1.135251000523567200e-01
-8.562804013490676880e-02
-2.777476012706756592e-01
2.315132766962051392e-01
-1.139064207673072815e-01
-1.037346959114074707e+00
6.045391038060188293e-02
1.344864666461944580e-01
-1.374780535697937012e-01
-3.072172775864601135e-02
-1.048756539821624756e-01
-1.226238161325454712e-01
2.303243279457092285e-01
-1.381677091121673584e-01
4.150626435875892639e-02
-1.317266672849655151e-01
1.985778957605361938e-01
-2.898598648607730865e-02
2.291772961616516113e-01
-3.405444025993347168e-01
-1.073074191808700562e-01
2.697213888168334961e-01
1.917100399732589722e-01
-2.036827057600021362e-01
-2.228959351778030396e-01
-4.503512755036354065e-02
-6.961517781019210815e-02
-4.417211934924125671e-02
-1.520609762519598007e-02
1.334927417337894440e-02
2.374129891395568848e-01
-1.117266342043876648e-01
2.219055891036987305e-01
-1.290472000837326050e-01
-1.904269307851791382e-01
-2.802916169166564941e-01
-6.852079927921295166e-02
3.522341251373291016e-01
-9.781448543071746826e-02
1.215210929512977600e-01
-2.677758038043975830e-01
-1.654075682163238525e-01
9.953217208385467529e-02
9.005343914031982422e-02
-4.965922981500625610e-02
1.704157888889312744e-01
-5.441622808575630188e-02
1.568671502172946930e-02
-4.520065709948539734e-02
-8.314733952283859253e-02
6.699970960617065430e-01
-1.607448011636734009e-01
9.783353656530380249e-03
2.280771732330322266e+00
3.148311614990234375e+00
-2.508248090744018555e-01
-2.924995422363281250e-01
6.414500623941421509e-02
3.573053479194641113e-01
-3.106923401355743408e-01
-1.983982175588607788e-01
4.261020943522453308e-02
1.481150984764099121e-01
5.684896469116210938e+00
-7.177371382713317871e-01
3.976066589355468750e+00
-1.032357811927795410e-01
-2.507584989070892334e-01
8.149929344654083252e-02
-1.949711143970489502e-01
9.493857026100158691e-01
1.385127604007720947e-01
8.278058171272277832e-01
1.360237896442413330e-01
-5.586463585495948792e-02
2.080680131912231445e+00
5.765835642814636230e-01
-4.988099038600921631e-01
-2.599795758724212646e-01
-1.655453741550445557e-01
-4.055607318878173828e-01
5.495536923408508301e-01
3.126577854156494141e+00
-7.695727348327636719e-01
-4.499442577362060547e-01
1.235689520835876465e-01
2.173007965087890625e+00
7.718496322631835938e-01
4.349759578704833984e+00
2.465184330940246582e-01
2.847117781639099121e-01
6.207200139760971069e-02
-3.823424503207206726e-02
4.079302847385406494e-01
5.850234031677246094e-01
-7.445959746837615967e-02
3.569431304931640625e+00
2.254811823368072510e-01
1.088572517037391663e-01
-2.709734737873077393e-01
6.851850152015686035e-01
3.205309510231018066e-01
2.404603958129882812e-01
-5.401786565780639648e-01
5.584291219711303711e-01
4.213286876678466797e+00
4.724701404571533203e+00
1.372647732496261597e-01
-1.408386975526809692e-03
-5.427847504615783691e-01
3.590244054794311523e+00
1.906813085079193115e-01
9.989243000745773315e-02
-1.263004899024963379e+00
9.226499199867248535e-01
2.891811132431030273e+00
4.621400535106658936e-01
