-3.273947299931023736e-07
-1.654718602139837458e-07
3.859531361172230390e-08
1.045567046276119072e-06
1.276246166526107118e-05
2.131614849076868268e-07
1.183079530164832249e-05
9.388823514200339559e-07
2.317049847988528199e-06
-3.635944722191197798e-06
-4.574875731577776605e-07
1.198672862301464193e-06
-8.366200177079008427e-07
-4.904266575067595113e-07
-4.641419195650087204e-07
-2.518455221434123814e-05
-4.520531717844278319e-07
2.087252397586780717e-07
6.959910933801438659e-06
-9.098291229747701436e-06
-6.166377630734132254e-08
6.272847485888632946e-07
2.286467406520387158e-07
3.344372885294433217e-07
3.114242588253546273e-07
5.424859864433528855e-06
-5.061753540758218151e-07
8.695479664311278611e-06
9.691860213933978230e-06
-4.462860658804856939e-07
9.313892519458022434e-07
1.213367909258522559e-06
1.246584361069835722e-06
-4.507222968186397338e-07
6.981093974900431931e-06
-4.669145781122097105e-08
-1.393778893543640152e-05
4.078016502262471477e-07
-3.909661245415918529e-06
7.971928539518557955e-07
2.785960759865702130e-07
9.614081500330939889e-05
3.726444219864788465e-07
1.255900428986933548e-06
-9.605131708667613566e-06
-5.507152309291996062e-06
-4.221085418976144865e-07
4.553914550342597067e-06
2.533094800583057804e-07
-5.966747096408653306e-08
5.288778083922807127e-06
1.499450092978804605e-07
6.716915777360554785e-06
-1.230613861480378546e-06
1.115626400860492140e-05
-1.313127995672402903e-06
-3.873061814374523237e-06
1.888952283479738981e-06
-8.830342039800598286e-07
-4.274320417607668787e-06
1.262111197775084293e-07
-1.410725303685467225e-06
-9.894929462461732328e-06
-4.040086423628963530e-06
1.282185166928684339e-06
1.138162497227312997e-05
4.545152933133067563e-06
3.795649490712094121e-06
1.503442831563006621e-06
1.453978711651870981e-06
4.060382343595847487e-05
-1.362780585623113438e-05
-7.084680078150995541e-07
1.308691753365565091e-05
4.021951172035187483e-04
1.242092594111454673e-06
-6.341609264381986577e-07
-9.698736676000407897e-07
1.856567735103453742e-07
3.014427250036533223e-07
-1.561557496643217746e-07
1.912553125293925405e-05
1.056934934240416624e-06
-2.446477083140052855e-06
-2.288879613843164407e-06
1.438895469618728384e-05
9.326757208327762783e-06
5.512864049705967773e-07
5.722753471104624623e-08
-3.782784460781840608e-06
-1.273889392905402929e-05
2.190395065326811164e-07
-1.747214355418691412e-06
1.011463382383226417e-06
4.441123110154876485e-06
-1.672463668001000769e-06
5.546413035517616663e-07
4.690522928285645321e-06
1.783591528692340944e-06
-1.601927351657650433e-06
-1.161186631293276150e-07
-4.663600634557951707e-07
2.122742216670303605e-06
6.259538736230751965e-07
1.696419303698348813e-06
4.441788405529223382e-06
-8.411116709794441704e-07
-1.294229514314793050e-05
-3.426997864153236151e-06
8.482096518491744064e-07
-1.233275611411954742e-06
-1.406288987482184893e-07
1.634888576518278569e-05
-3.324409760807611747e-07
5.229221500258063315e-08
-1.234606429534323979e-06
1.702408241044395254e-07
-1.278081640521122608e-06
1.003012403089087456e-05
1.283382971450919285e-05
7.084680078150995541e-07
2.694574050110531971e-06
-5.171550583327189088e-07
-4.650069968192838132e-06
-4.318682726989209186e-07
2.134365240635816008e-05
5.793733635073294863e-07
1.034176966641098261e-05
-1.161630279966630042e-06
-3.792577626882120967e-05
-4.931328021484659985e-06
-1.783369754093655501e-07
-1.246584361069835722e-06
3.438088480578471717e-09
-9.726462621983955614e-07
7.093552767400979064e-07
-1.502999111835379153e-06
7.940874979794898536e-08
-1.602382144483271986e-05
2.794833108055172488e-06
-1.331760131506598555e-06
1.046509737534506712e-06
8.446606898360187188e-07
-2.459896677464712411e-07
7.657398782612290233e-06
-2.417752398287120741e-07
-8.207049972952518146e-07
8.305201504299475346e-07
-5.219239938014652580e-07
-1.785587784297604230e-07
-1.366042438894510269e-02
-9.602870792150497437e-03
3.584484318253089441e-07
-2.979602686536964029e-05
-9.800839237868785858e-03
-1.976568000827683136e-06
-1.718445331789553165e-03
1.838379148466628976e-06
6.128669838290079497e-07
1.289743580855429173e-03
-4.909812219011655543e-07
-5.549653898924589157e-03
4.843268470722250640e-07
-4.276538447811617516e-07
8.483206102027907036e-07
8.020727477742184419e-07
1.137149520218372345e-02
7.514995559176895767e-07
-1.611469872295856476e-02
3.171005845069885254e-02
2.017724094912409782e-03
3.085875418037176132e-03
-1.655094139277935028e-02
-1.456195302307605743e-02
-4.568838980048894882e-03
1.517195187261677347e-07
4.356463439762592316e-03
4.182611592113971710e-03
6.220167279025190510e-07
-5.460699554532766342e-03
1.625883101041836198e-06
7.681354645683313720e-07
-1.612440333701670170e-03
-1.292721208301372826e-06
-9.660053066909313202e-03
1.226088897965382785e-05
3.315575420856475830e-03
8.151353336870670319e-03
1.064698338382186193e-07
-1.700396649539470673e-02
4.036981238186854171e-08
2.052596391877159476e-04
-9.671380743384361267e-03
-6.262866349970863666e-07
-2.177363447844982147e-02
-7.916475510683085304e-07
-7.885809056460857391e-03
1.109060759896252080e-10
5.006300511922745500e-07
5.651773449244501535e-07
3.637719316884613363e-07
5.159350848771282472e-07
-1.122192043112590909e-05
2.491802209988236427e-03
1.471340376883745193e-02
1.433793727301235776e-06
-1.064789108932018280e-02
1.247260347008705139e-02
5.013421550393104553e-02
-1.048173317030887119e-06
-1.396196580571995582e-06
-4.374276846647262573e-03
1.422874722629785538e-02
3.446960761266382178e-07
-8.546410128474235535e-03
4.566003326544887386e-07
1.025881246619064768e-07
-4.324227802499081008e-07
3.255315277783665806e-06
1.024541631340980530e-02
-2.985591720516822534e-07
5.859722591594618279e-07
4.493188485503196716e-02
-1.502479426562786102e-02
-1.224111206829547882e-02
2.040877752006053925e-02
7.341376971453428268e-03
-1.234451156051363796e-05
-1.331542804837226868e-02
1.473114825785160065e-03
3.216993808746337891e-02
-7.098482456058263779e-03
-4.201122294489323394e-07
-1.154300849884748459e-02
2.675586983968969434e-05
-8.471206761896610260e-03
7.437361659867747221e-07
1.880944910226389766e-05
3.133096697638393380e-07
4.933102104587305803e-07
-5.885785299142298754e-07
2.375996245973510668e-06
-2.384427748620510101e-02
9.771297685801982880e-03
-1.155641371042293031e-06
-9.364301338791847229e-03
-4.607220180332660675e-03
-6.260925147216767073e-07
4.558683485811343417e-06
7.836783188395202160e-04
-4.269163589924573898e-03
-1.220470760017633438e-02
-6.035239435732364655e-03
3.899840172380208969e-03
-9.359700605273246765e-03
5.308079998940229416e-03
-5.597651579591911286e-06
1.996309428875520098e-08
1.022110382109531201e-06
-6.429819855839014053e-03
2.959085122711258009e-06
-1.138176396489143372e-02
1.555790504426113330e-06
5.231107024883385748e-06
-1.246152445673942566e-02
1.649806858040392399e-03
6.373772407641808968e-07
-8.939029783050500555e-08
-1.659869216382503510e-02
-1.123579405248165131e-02
1.638859089325706009e-06
3.239788384234998375e-06
-3.138642057365359506e-07
-1.454200514672265854e-06
9.558877907693386078e-03
-7.144569735828554258e-07
-4.378128323878627270e-06
-9.617219679057598114e-03
-3.903893741608044365e-08
-1.436233674212417100e-06
5.232379306107759476e-03
9.806037724047200754e-07
-1.449566520750522614e-02
1.472278199798893183e-06
-1.475771682635240722e-06
-2.332232706248760223e-02
1.119070127606391907e-02
2.448551094857975841e-05
-1.303027383983135223e-02
-2.134387386831804179e-07
-4.720162678495398723e-07
1.250576929123781156e-06
-8.536403067409992218e-03
-2.383179590106010437e-02
-8.410570211708545685e-03
5.429070908576250076e-03
4.416280035002273507e-07
8.482096518491744064e-07
4.935320703225443140e-07
1.422318536788225174e-02
1.476583033800125122e-01
3.471494466066360474e-02
-6.835254281759262085e-02
1.140498742461204529e-01
-2.507713623344898224e-02
-1.204565074294805527e-02
4.019678384065628052e-02
1.009988505393266678e-02
2.376406341791152954e-01
-1.816906221210956573e-02
-8.094859123229980469e-02
-6.238717585802078247e-02
6.671819090843200684e-02
1.183627173304557800e-02
-2.899792976677417755e-02
8.985593914985656738e-02
5.259905010461807251e-02
-2.908847108483314514e-02
-8.556776493787765503e-02
5.312104895710945129e-02
-1.191741693764925003e-02
2.138993330299854279e-02
1.333555299788713455e-02
-2.764097228646278381e-02
-6.635337322950363159e-02
5.744070187211036682e-02
7.844279520213603973e-03
8.205274492502212524e-02
7.205648720264434814e-02
-5.402561277151107788e-02
9.293791651725769043e-02
8.052918314933776855e-02
9.125893563032150269e-02
-6.216650828719139099e-02
-4.815360903739929199e-02
1.318544673267751932e-04
2.379585616290569305e-02
7.133291661739349365e-02
9.880467504262924194e-02
-9.749631583690643311e-02
-7.744373381137847900e-02
7.009370718151330948e-03
1.072601303458213806e-01
7.320802658796310425e-02
1.672962680459022522e-02
-8.597451262176036835e-03
-1.278928108513355255e-02
-4.059887304902076721e-02
2.665750980377197266e-01
1.150359883904457092e-01
6.978103774599730968e-04
-1.085803508758544922e-01
-9.830098599195480347e-02
1.563966274261474609e-02
5.841509625315666199e-02
5.515506491065025330e-02
4.443921148777008057e-02
4.157835245132446289e-02
5.178547278046607971e-02
8.482428640127182007e-02
-2.017188966274261475e-01
1.150696650147438049e-01
9.606874734163284302e-02
7.654889672994613647e-02
1.005539763718843460e-02
-1.979303956031799316e-01
7.610110193490982056e-02
1.857993155717849731e-01
-8.760842680931091309e-02
1.499892398715019226e-02
-6.807304173707962036e-02
3.014720231294631958e-02
-8.325600624084472656e-02
-4.837131872773170471e-02
-9.208427369594573975e-02
1.223271712660789490e-02
-1.976557821035385132e-02
-1.244842186570167542e-01
-5.787024274468421936e-02
2.529920637607574463e-02
-5.522014573216438293e-02
5.527351424098014832e-02
-1.970838904380798340e-01
-5.056079104542732239e-02
5.913802236318588257e-02
-4.420069605112075806e-02
-4.047777876257896423e-02
-6.631592661142349243e-02
-1.490085572004318237e-01
-2.856552600860595703e-02
-3.747831284999847412e-02
-7.178619503974914551e-02
1.232753042131662369e-03
1.108123804442584515e-03
-9.234447032213211060e-02
-5.245706066489219666e-02
-2.017193473875522614e-02
-2.635838650166988373e-02
-7.879519835114479065e-03
2.596876770257949829e-02
-7.332815974950790405e-02
1.013831347227096558e-01
5.707520619034767151e-02
6.579453498125076294e-02
2.200020663440227509e-02
9.113143198192119598e-03
1.315409243106842041e-01
8.229605853557586670e-02
-5.589028447866439819e-02
-1.079443991184234619e-01
7.951678335666656494e-02
-6.480467505753040314e-03
-1.547461654990911484e-02
6.036548689007759094e-02
4.311687499284744263e-02
1.646521314978599548e-02
2.504386305809020996e-01
-9.052648395299911499e-02
7.066284120082855225e-02
1.793012395501136780e-02
1.352323032915592194e-02
1.780003309249877930e-01
-7.185294479131698608e-02
-1.694105863571166992e-01
-1.002894639968872070e-01
-6.918410956859588623e-02
-2.096238732337951660e-02
1.591983623802661896e-02
-2.998951822519302368e-02
1.440895795822143555e-01
7.304324302822351456e-03
1.170996502041816711e-01
-4.397060349583625793e-02
1.393632963299751282e-02
-1.959561556577682495e-02
-1.005645617842674255e-01
4.590004682540893555e-02
3.675198182463645935e-02
-4.694445058703422546e-02
-5.982320010662078857e-02
-5.879343301057815552e-02
-2.824578993022441864e-02
8.341400884091854095e-03
1.671400107443332672e-02
-5.719028878957033157e-03
-3.711947798728942871e-02
1.146079450845718384e-01
-8.013606071472167969e-02
-1.678357087075710297e-02
6.019308231770992279e-03
