1.128431782126426697e-01
7.802800834178924561e-02
-7.691683620214462280e-02
1.367304623126983643e-01
-4.450791329145431519e-02
-6.123840808868408203e-02
4.560279101133346558e-02
1.188140269368886948e-02
1.463278681039810181e-01
-2.862663194537162781e-02
-3.434699028730392456e-02
-1.119739189743995667e-01
2.373532950878143311e-02
5.180249363183975220e-02
6.031490862369537354e-03
1.006781682372093201e-01
8.236231654882431030e-02
-8.267414569854736328e-02
-7.933048903942108154e-02
1.247420161962509155e-01
5.428398028016090393e-03
2.657192014157772064e-02
-3.077656775712966919e-02
-4.019608348608016968e-02
-7.527014613151550293e-02
1.630553230643272400e-02
3.033700771629810333e-02
1.657973825931549072e-01
9.309515357017517090e-02
-2.845552808139473200e-04
1.117459610104560852e-01
1.065394058823585510e-01
7.958626002073287964e-02
-8.834720402956008911e-02
-5.229010805487632751e-02
1.506234519183635712e-02
1.089727971702814102e-02
8.060747385025024414e-02
8.737929910421371460e-02
-1.166849061846733093e-01
-9.126638621091842651e-02
5.527558922767639160e-02
8.824646472930908203e-02
6.912087649106979370e-02
1.825679466128349304e-02
-3.378881514072418213e-02
3.736389335244894028e-03
-1.938127540051937103e-02
2.147250026464462280e-01
1.112325415015220642e-01
5.987204145640134811e-03
-6.643816828727722168e-02
-1.090263500809669495e-01
4.247824475169181824e-02
2.953788451850414276e-02
9.246168285608291626e-02
3.099934011697769165e-02
8.249251544475555420e-02
-9.791420772671699524e-03
7.360205799341201782e-02
-2.398362010717391968e-01
1.292693614959716797e-01
6.866849958896636963e-02
5.182481184601783752e-02
-7.287807296961545944e-03
-1.989976167678833008e-01
4.846609383821487427e-02
1.102012917399406433e-01
-5.604406073689460754e-02
2.925848774611949921e-02
-5.687812715768814087e-02
5.451803281903266907e-02
-9.034068137407302856e-02
-4.463041201233863831e-02
-1.290295571088790894e-01
1.347351726144552231e-02
-7.593026757240295410e-02
-1.317727714776992798e-01
-8.490969240665435791e-02
3.057683259248733521e-02
-8.226414769887924194e-02
3.153437003493309021e-02
-1.766519844532012939e-01
-1.912023685872554779e-02
6.248300895094871521e-02
-1.137524843215942383e-01
7.346191443502902985e-03
-1.353424042463302612e-01
-8.206023275852203369e-02
-5.759921297430992126e-02
-8.507304638624191284e-02
4.936952609568834305e-03
7.857233867980539799e-04
-6.511210463941097260e-03
-8.544223010540008545e-02
-5.766645073890686035e-02
-1.912861317396163940e-02
-4.213652759790420532e-02
-3.731309622526168823e-02
9.345486015081405640e-02
-7.395661622285842896e-02
6.843017786741256714e-02
5.067287385463714600e-02
8.077503740787506104e-02
-6.487505882978439331e-02
-5.354321183403953910e-05
1.475835740566253662e-01
5.363129824399948120e-02
-3.043598122894763947e-02
-8.650611340999603271e-02
7.062355428934097290e-02
3.658293187618255615e-02
-4.548057913780212402e-03
5.376587808132171631e-02
4.919509217143058777e-02
-2.661313861608505249e-03
2.043632715940475464e-01
-7.599251717329025269e-02
8.728298544883728027e-02
4.073068127036094666e-02
-3.533623740077018738e-02
1.612141877412796021e-01
-8.647017925977706909e-02
-1.848287433385848999e-01
-1.097057312726974487e-01
-2.378532476723194122e-02
-3.969797864556312561e-02
2.602598443627357483e-02
-8.484893478453159332e-03
1.536681056022644043e-01
1.518166717141866684e-02
8.898612111806869507e-02
-3.299320116639137268e-02
8.797252550721168518e-03
-5.631392821669578552e-02
-9.290515631437301636e-02
6.922899931669235229e-02
6.297626346349716187e-02
-1.097450256347656250e-01
-8.266028016805648804e-03
-1.920508779585361481e-02
-2.210279554128646851e-02
1.632738672196865082e-02
1.058549433946609497e-01
-7.153019309043884277e-02
-1.187605410814285278e-02
9.518808126449584961e-02
-3.352177143096923828e-02
-4.782657325267791748e-02
4.558387212455272675e-03
