7.808151841163635254e-01 -5.622302889823913574e-01 -7.752698659896850586e-01 4.706552028656005859e-01 4.508134722709655762e-01 6.529504060745239258e-02 4.423544108867645264e-01 3.095337189733982086e-02 -2.639155089855194092e-01 -1.783993095159530640e-02 -3.613949120044708252e-01 -8.159973025321960449e-01 -2.173518389463424683e-01 -1.706567853689193726e-01 1.530506461858749390e-01 -8.795148730278015137e-01 2.196245640516281128e-01 -4.225213825702667236e-01 -8.071781694889068604e-02 3.557040691375732422e-01 -1.285419985651969910e-02 -4.695666581392288208e-02 6.073978543281555176e-01 -2.850476205348968506e-01 -6.967937946319580078e-01 -6.812477111816406250e-01 2.105148881673812866e-01 -4.393214881420135498e-01 8.154231309890747070e-01 2.020418494939804077e-01 3.590950071811676025e-01 7.389895915985107422e-01 -4.170012846589088440e-02 -5.451733469963073730e-01 5.563301444053649902e-01 -2.032112628221511841e-01 8.282057195901870728e-02 3.311764001846313477e-01 5.141646862030029297e-01 2.865380942821502686e-01
2.842282354831695557e-01 6.546578556299209595e-02 2.083803415298461914e-01 2.337199598550796509e-01 1.966876685619354248e-01 3.160129189491271973e-01 -1.419885158538818359e-01 2.585560828447341919e-02 -3.297101259231567383e-01 -2.005753070116043091e-01 -7.078997045755386353e-02 2.961875498294830322e-01 -3.519545793533325195e-01 -1.453671753406524658e-01 7.386539131402969360e-02 1.383928507566452026e-01 2.184740453958511353e-02 -3.418396785855293274e-02 -1.560184657573699951e-01 4.047572314739227295e-01 2.638718783855438232e-01 7.052375078201293945e-01 -4.822978004813194275e-02 1.968136616051197052e-02 -4.270991310477256775e-02 -4.537626802921295166e-01 1.342082768678665161e-01 4.640265107154846191e-01 -7.379016838967800140e-03 4.749643802642822266e-01 -4.338513687252998352e-02 -2.542088627815246582e-01 -1.401093788444995880e-02 7.678615301847457886e-02 2.353131584823131561e-02 -1.950417011976242065e-01 -7.216732203960418701e-02 6.292869150638580322e-02 -4.128272533416748047e-01 1.442266106605529785e-01
-4.647107794880867004e-02 -4.297734498977661133e-01 -2.430928200483322144e-01 -3.413385450839996338e-01 -2.027478814125061035e-01 -2.568152546882629395e-01 3.339260816574096680e-02 4.281905591487884521e-01 5.850247740745544434e-01 2.551836371421813965e-01 1.471746433526277542e-02 7.703976705670356750e-03 -4.921029210090637207e-01 5.244274139404296875e-01 2.481572926044464111e-01 -1.940015852451324463e-01 -2.545656077563762665e-02 8.645107746124267578e-01 1.208517551422119141e-01 -4.271752238273620605e-01 -3.148993849754333496e-01 4.056777432560920715e-02 -2.567299008369445801e-01 1.904286146163940430e-01 7.261318564414978027e-01 2.978680655360221863e-02 3.287234902381896973e-02 -4.737154766917228699e-02 1.922220140695571899e-01 -6.125005707144737244e-02 -4.402988124638795853e-03 -1.081815809011459351e-01 2.085451036691665649e-01 2.637209594249725342e-01 3.799449503421783447e-01 -2.036246210336685181e-01 -6.947322487831115723e-01 -5.885014683008193970e-02 2.164260149002075195e-01 -8.132935035973787308e-04
-8.819963335990905762e-01 -1.882277280092239380e-01 -3.560818359255790710e-02 -3.099393248558044434e-01 -5.316289663314819336e-01 -2.193381190299987793e-01 6.740169599652290344e-03 4.861870706081390381e-01 -2.096654921770095825e-01 2.167659066617488861e-02 6.585816740989685059e-01 1.883360743522644043e-01 -4.829913005232810974e-02 -6.650874614715576172e-01 1.729228943586349487e-01 6.180915236473083496e-02 4.408836364746093750e-01 -2.249092459678649902e-01 2.487769573926925659e-01 -1.849500089883804321e-01 -4.119966924190521240e-01 -2.501433193683624268e-01 6.147281825542449951e-02 4.674721360206604004e-01 2.683892846107482910e-01 1.833406835794448853e-01 3.472471237182617188e-01 -2.246070653200149536e-01 -3.139339089393615723e-01 -2.901254594326019287e-01 -8.383308053016662598e-01 -7.332050204277038574e-01 -7.224389314651489258e-01 -1.945304870605468750e-01 -3.265188634395599365e-01 3.698194026947021484e-01 -4.619646072387695312e-01 1.115039661526679993e-01 7.373659610748291016e-01 -6.273721456527709961e-01
2.876588404178619385e-01 1.706422716379165649e-01 1.521547138690948486e-01 3.531426489353179932e-01 1.047706604003906250e-01 4.086147546768188477e-01 -4.863022565841674805e-01 7.092636823654174805e-02 2.820050120353698730e-01 -4.964367449283599854e-01 -3.812571167945861816e-01 1.204020082950592041e-01 -3.629265129566192627e-01 -2.174948304891586304e-01 -5.570155382156372070e-01 9.996231794357299805e-01 -2.543813884258270264e-01 1.750114262104034424e-01 -2.111646384000778198e-01 -4.472642764449119568e-02 1.645887345075607300e-01 -4.044982418417930603e-02 -2.435572892427444458e-01 2.292422503232955933e-01 -5.417764186859130859e-01 4.107762277126312256e-01 -3.078498542308807373e-01 -8.648607879877090454e-02 4.186691939830780029e-01 2.340631633996963501e-01 1.666030846536159515e-02 -2.779681980609893799e-01 4.623349905014038086e-01 2.597812414169311523e-01 -7.103908807039260864e-02 4.455667436122894287e-01 -4.378789365291595459e-01 2.929179966449737549e-01 5.616963654756546021e-02 2.427022904157638550e-01
-6.242485251277685165e-03 -6.341223120689392090e-01 8.636948466300964355e-02 -2.119922190904617310e-01 5.318388938903808594e-01 -5.636386871337890625e-01 2.894815206527709961e-01 7.560886144638061523e-01 2.432334125041961670e-01 -6.204842776060104370e-02 5.563461780548095703e-02 -2.004102468490600586e-01 7.532942891120910645e-01 2.214353233575820923e-01 -3.109647333621978760e-01 2.169646173715591431e-01 7.086893916130065918e-01 1.786409765481948853e-01 1.172712147235870361e-01 -2.299377918243408203e-01 6.773983836174011230e-01 1.852293685078620911e-02 -4.947914779186248779e-01 2.892312705516815186e-01 -7.755648344755172729e-02 -1.141450703144073486e-01 5.733647197484970093e-02 -3.076657652854919434e-01 -1.714012920856475830e-01 1.264439988881349564e-02 5.089706182479858398e-02 4.066148102283477783e-01 3.026666343212127686e-01 -7.814971804618835449e-01 6.257585287094116211e-01 -4.227087274193763733e-02 -2.919934988021850586e-01 -1.499207913875579834e-01 1.897215992212295532e-01 -4.822419956326484680e-02
7.122196555137634277e-01 -5.398056507110595703e-01 -1.505545824766159058e-01 5.519385337829589844e-01 8.035168647766113281e-01 -7.008338719606399536e-02 -6.941472738981246948e-02 -1.903403997421264648e-01 -6.865266561508178711e-01 3.656177818775177002e-01 7.216482758522033691e-01 -4.566063284873962402e-01 -6.527076959609985352e-01 -4.408893585205078125e-01 3.542564213275909424e-01 -5.084943026304244995e-03 -3.688613176345825195e-01 7.057893872261047363e-01 -1.886655539274215698e-01 -4.637511372566223145e-01 5.761018395423889160e-01 -1.638973653316497803e-01 6.156569123268127441e-01 -3.177767395973205566e-01 -4.459040462970733643e-01 3.247587755322456360e-02 -8.676005601882934570e-01 -1.348359975963830948e-02 5.594276189804077148e-01 9.151007235050201416e-02 9.606761932373046875e-01 6.832532286643981934e-01 9.271284937858581543e-02 8.206314444541931152e-01 2.591380178928375244e-01 -1.781646907329559326e-01 5.802792906761169434e-01 -3.816009759902954102e-01 4.527317583560943604e-01 -9.070367366075515747e-02
4.201005399227142334e-01 -2.552062273025512695e-01 -6.083907485008239746e-01 3.319232910871505737e-02 4.314975142478942871e-01 5.594421178102493286e-02 3.626960813999176025e-01 6.596573591232299805e-01 -1.026614546775817871e+00 9.233722686767578125e-01 -9.611557722091674805e-01 5.303948521614074707e-01 -3.113196790218353271e-01 -8.594729006290435791e-02 -3.738396763801574707e-01 -8.239322155714035034e-02 -4.289045035839080811e-01 4.458461999893188477e-01 -1.006993558257818222e-02 -3.802895918488502502e-02 -9.743694216012954712e-02 -3.264056146144866943e-01 9.032811969518661499e-02 -4.882208704948425293e-01 -8.553735613822937012e-01 -2.530271410942077637e-01 -2.186940014362335205e-01 8.167962431907653809e-01 6.310837715864181519e-02 2.639678120613098145e-01 4.308744147419929504e-02 -8.464996516704559326e-02 -1.835494115948677063e-02 4.088492989540100098e-01 -5.259663984179496765e-02 3.095416910946369171e-02 1.586265116930007935e-01 5.217574834823608398e-01 -1.101064905524253845e-01 1.841184794902801514e-01
-4.393457174301147461e-01 6.229172945022583008e-01 -1.610488593578338623e-01 1.485165357589721680e-01 2.286797612905502319e-01 -7.426090240478515625e-01 2.188774198293685913e-01 2.525272369384765625e-01 2.093906551599502563e-01 -1.092863455414772034e-01 2.339487522840499878e-01 -3.774080798029899597e-02 9.494902193546295166e-02 1.679367125034332275e-01 -4.334988594055175781e-01 1.132758259773254395e+00 3.495231270790100098e-02 -1.897285729646682739e-01 1.439163386821746826e-01 3.556914329528808594e-01 -5.260540246963500977e-01 -2.070993930101394653e-01 5.472639799118041992e-01 8.056951314210891724e-02 3.275330960750579834e-01 -1.002656966447830200e-01 -9.487960487604141235e-02 -1.198562830686569214e-01 -4.717032015323638916e-01 3.744294047355651855e-01 7.085365653038024902e-01 2.016734033823013306e-01 -4.893758520483970642e-02 3.097772598266601562e-01 -5.378043651580810547e-01 4.667524248361587524e-02 1.659887582063674927e-01 8.738047629594802856e-02 1.729469299316406250e-01 -1.865058541297912598e-01
4.531641006469726562e-01 8.103913068771362305e-02 -4.904910027980804443e-01 -4.762194752693176270e-01 8.897446095943450928e-02 -3.413056433200836182e-01 2.088270783424377441e-01 3.261801004409790039e-01 1.254843026399612427e-01 8.000528812408447266e-01 -6.513391435146331787e-02 -2.071285098791122437e-01 -4.755231142044067383e-01 4.196473062038421631e-01 -3.857026994228363037e-01 -2.318373024463653564e-01 2.688167802989482880e-02 2.655333578586578369e-01 -3.898621350526809692e-02 -4.970060288906097412e-01 -3.190996348857879639e-01 -2.528235912322998047e-01 -2.781756594777107239e-02 -1.174762770533561707e-01 4.605856239795684814e-01 -2.889719307422637939e-01 2.266229987144470215e-01 2.868818491697311401e-02 -4.186582863330841064e-01 5.403005704283714294e-02 -1.859058253467082977e-02 1.391230672597885132e-01 2.251590192317962646e-01 1.085158661007881165e-01 -4.990329742431640625e-01 9.398145601153373718e-03 6.780487298965454102e-01 -1.626403629779815674e-01 4.333395659923553467e-01 1.800272166728973389e-01
-1.785662919282913208e-01 2.295406609773635864e-01 -5.093109607696533203e-01 1.274379622191190720e-02 -3.162904977798461914e-01 -3.992893695831298828e-01 9.286099672317504883e-01 4.348515272140502930e-01 2.915407419204711914e-01 -8.843484334647655487e-03 2.926847338676452637e-01 -3.427490890026092529e-01 7.767004966735839844e-01 5.881266593933105469e-01 7.860149741172790527e-01 3.237345218658447266e-01 -1.225680634379386902e-01 -1.289322227239608765e-01 6.684446334838867188e-01 -2.061076909303665161e-01 3.257787823677062988e-01 -5.167713761329650879e-01 -6.735058128833770752e-02 4.235909283161163330e-01 -2.397316843271255493e-01 -2.634307444095611572e-01 -1.991040073335170746e-02 -6.939000636339187622e-02 -1.005898267030715942e-01 -5.726042389869689941e-01 -8.233860880136489868e-02 -3.555309772491455078e-01 1.141291856765747070e-01 -2.315258085727691650e-01 2.454960532486438751e-02 -6.380379796028137207e-01 -2.075659632682800293e-01 -1.257922500371932983e-01 6.156368851661682129e-01 -4.400360882282257080e-01
1.688561290502548218e-01 -4.174392819404602051e-01 -1.403293013572692871e-01 1.565577685832977295e-01 8.824484348297119141e-01 1.218233839608728886e-03 -3.102625608444213867e-01 -3.832421898841857910e-01 -6.050990223884582520e-01 -6.841653585433959961e-01 5.216007828712463379e-01 -3.621016442775726318e-02 7.011708021163940430e-01 8.887792378664016724e-02 -2.336969822645187378e-01 -3.281820565462112427e-02 -3.047685921192169189e-01 5.566074848175048828e-01 -4.276131987571716309e-01 -8.960588835179805756e-03 -4.879741668701171875e-01 -4.161973893642425537e-01 8.634322881698608398e-02 9.816414862871170044e-02 -8.708974719047546387e-02 2.328117340803146362e-01 -2.728387415409088135e-01 1.080334708094596863e-01 -3.105290532112121582e-01 -6.943747401237487793e-03 -2.295310348272323608e-01 -5.335525274276733398e-01 9.251324832439422607e-02 5.295548960566520691e-02 4.021866023540496826e-01 2.118141762912273407e-02 -2.334642708301544189e-01 2.817799150943756104e-01 8.198905587196350098e-01 -2.216023653745651245e-01
-5.802400112152099609e-01 -1.601895689964294434e-01 5.025334358215332031e-01 -6.994296908378601074e-01 -1.481373012065887451e-01 -1.998658031225204468e-01 1.018861215561628342e-02 -1.149837151169776917e-01 -7.491986155509948730e-01 -3.307026326656341553e-01 -5.373760461807250977e-01 2.258004993200302124e-01 -1.292947977781295776e-01 -5.741265416145324707e-01 -5.666234493255615234e-01 3.957575857639312744e-01 -2.184173166751861572e-01 4.298293590545654297e-01 3.557592034339904785e-01 2.269126772880554199e-01 -1.053375303745269775e-01 3.267788141965866089e-02 2.220550924539566040e-01 3.641531616449356079e-02 -1.022314876317977905e-01 -6.076880693435668945e-01 -4.484739005565643311e-01 1.050106808543205261e-01 3.668263852596282959e-01 3.259730339050292969e-01 2.613709568977355957e-01 -2.217247188091278076e-01 -4.282693564891815186e-01 3.933613598346710205e-01 -1.821718066930770874e-01 4.905663728713989258e-01 2.952814102172851562e-01 3.193182647228240967e-01 -3.347537815570831299e-01 1.641441322863101959e-02
-1.819661557674407959e-01 -4.701606333255767822e-01 8.209202885627746582e-01 -2.755681276321411133e-01 -4.664356634020805359e-02 -4.129931032657623291e-01 1.096807494759559631e-01 -1.692656576633453369e-01 -2.275121361017227173e-01 -7.135359197854995728e-02 8.432098031044006348e-01 2.436729371547698975e-01 1.345676928758621216e-01 2.492659538984298706e-01 -1.543271541595458984e-01 -2.603794038295745850e-01 5.838128924369812012e-02 5.328397825360298157e-02 3.490309715270996094e-01 -1.239932999014854431e-01 9.046693891286849976e-02 -3.096495568752288818e-01 -3.951163291931152344e-01 -4.703757539391517639e-02 1.641183942556381226e-01 7.407314330339431763e-02 2.488215416669845581e-01 3.713921457529067993e-02 -9.846558421850204468e-02 1.602378487586975098e-01 -2.805033326148986816e-01 -1.656165719032287598e-01 -5.916753411293029785e-01 -1.655347049236297607e-01 -3.865876197814941406e-01 -3.065720386803150177e-02 3.705035150051116943e-01 1.906207501888275146e-01 -4.655504226684570312e-01 -3.920942842960357666e-01
4.558866322040557861e-01 -2.332588285207748413e-01 -1.511217951774597168e-01 -2.006642371416091919e-01 -6.989977359771728516e-01 4.068520963191986084e-01 5.343651175498962402e-01 1.370232999324798584e-01 8.535778522491455078e-01 3.483909964561462402e-01 1.061443611979484558e-02 -3.794308304786682129e-01 4.794422984123229980e-01 -2.884302735328674316e-01 3.265561163425445557e-01 2.248186171054840088e-01 4.675015434622764587e-02 1.745611280202865601e-01 -4.659246206283569336e-01 -3.150286376476287842e-01 5.136531591415405273e-01 3.427825272083282471e-01 2.040407359600067139e-01 1.104114428162574768e-01 1.248388588428497314e-01 4.486161470413208008e-01 -1.779886148869991302e-02 3.262795209884643555e-01 -3.828304111957550049e-01 1.902669854462146759e-02 -1.012165173888206482e-01 -3.819023668766021729e-01 3.507643342018127441e-01 -7.790164649486541748e-02 3.127892017364501953e-01 -8.158795237541198730e-01 -6.635662168264389038e-02 1.222839727997779846e-01 2.566425204277038574e-01 -1.540887951850891113e-01
5.466119572520256042e-02 6.140029430389404297e-01 -1.923433318734169006e-02 2.334787547588348389e-01 8.298422098159790039e-01 -3.950076699256896973e-01 -1.304137557744979858e-01 1.409046053886413574e-01 8.543596416711807251e-02 -6.531600840389728546e-03 -3.953692018985748291e-01 4.661650955677032471e-01 1.319100558757781982e-01 -8.382347226142883301e-01 -1.779661625623703003e-01 1.048919081687927246e+00 -5.498730540275573730e-01 -4.487834870815277100e-01 -9.958987683057785034e-02 3.992935121059417725e-01 1.009462997317314148e-01 5.246394500136375427e-02 -1.255325078964233398e-01 8.718977123498916626e-02 1.477426439523696899e-01 -8.618333339691162109e-01 -5.206058621406555176e-01 -2.482135146856307983e-01 1.342058330774307251e-01 -3.319720551371574402e-02 4.872592687606811523e-01 2.884074747562408447e-01 -2.934327721595764160e-01 1.309654861688613892e-01 -8.716554939746856689e-02 4.167137742042541504e-01 2.500996887683868408e-01 8.102953433990478516e-02 3.111821711063385010e-01 2.420756965875625610e-01
5.249974504113197327e-02 -4.193060100078582764e-01 1.343872398138046265e-01 -4.885568050667643547e-04 -9.972465783357620239e-02 1.268569286912679672e-02 5.496949553489685059e-01 7.013553977012634277e-01 -1.210025474429130554e-01 6.337437778711318970e-02 -2.394967228174209595e-01 -3.325880467891693115e-01 -1.002793982625007629e-01 2.853144407272338867e-01 -4.539138376712799072e-01 2.345756739377975464e-01 -4.339661598205566406e-01 3.981480598449707031e-01 6.430985778570175171e-02 7.188601493835449219e-01 2.701347768306732178e-01 -3.482005000114440918e-01 6.337226033210754395e-01 7.719756960868835449e-01 4.524591565132141113e-01 7.310004904866218567e-03 5.451260209083557129e-01 -4.071883857250213623e-01 -4.367519915103912354e-01 -4.706737995147705078e-01 1.230624783784151077e-02 3.204612731933593750e-01 3.708001077175140381e-01 3.594076037406921387e-01 4.205673336982727051e-01 -3.603945374488830566e-01 -1.733718663454055786e-01 2.896517515182495117e-01 -2.199558727443218231e-02 2.048980295658111572e-01
1.705975830554962158e-02 -2.437187284231185913e-01 -3.370866775512695312e-01 8.371387608349323273e-03 3.541943803429603577e-02 -2.558161690831184387e-02 -2.604845762252807617e-01 -4.177524447441101074e-01 -5.510814860463142395e-02 -1.193867251276969910e-01 2.550724446773529053e-01 -2.320527583360671997e-01 8.179781585931777954e-02 1.713240891695022583e-01 -2.377819269895553589e-02 -2.235269546508789062e-02 -1.828433424234390259e-01 -3.521013855934143066e-01 1.447402238845825195e-01 1.991496384143829346e-01 -4.403586983680725098e-01 -1.993687450885772705e-01 -9.259629249572753906e-02 -9.766886830329895020e-01 -2.457277476787567139e-01 -3.807661235332489014e-01 -3.403087556362152100e-01 1.550775915384292603e-01 2.039861530065536499e-01 3.502845168113708496e-01 6.508643180131912231e-02 4.472288116812705994e-02 4.327893257141113281e-01 9.733555465936660767e-02 1.340564489364624023e-01 -2.764016687870025635e-01 4.394338726997375488e-01 -9.200312197208404541e-02 2.248101085424423218e-01 1.228742226958274841e-01
-1.141249537467956543e+00 2.477447837591171265e-01 3.678830265998840332e-01 -7.121708989143371582e-01 -7.510926723480224609e-01 -3.768148422241210938e-01 2.779131829738616943e-01 2.626274526119232178e-01 1.649042814970016479e-01 -1.480951309204101562e-01 6.287976503372192383e-01 -1.000789366662502289e-02 -1.343391984701156616e-01 1.325084447860717773e+00 -5.965618416666984558e-02 2.576605789363384247e-02 4.278667867183685303e-01 2.068921774625778198e-01 6.473017334938049316e-01 -3.469171226024627686e-01 4.729588031768798828e-01 -6.147038936614990234e-01 -7.250215411186218262e-01 7.197285890579223633e-01 1.840724498033523560e-01 3.642105162143707275e-01 6.090632081031799316e-01 -4.744178652763366699e-01 -3.015112280845642090e-01 -1.424797654151916504e+00 -1.306879520416259766e+00 -6.227310299873352051e-01 -7.335534095764160156e-01 -5.764514803886413574e-01 -7.706335186958312988e-01 -7.270529270172119141e-01 -2.178255915641784668e-01 -6.049874424934387207e-01 8.045738935470581055e-02 -5.076175928115844727e-01
4.776049256324768066e-01 -3.714750409126281738e-01 -7.379247546195983887e-01 2.275542467832565308e-01 -8.682257682085037231e-02 -5.891249179840087891e-01 1.825832724571228027e-01 1.019343256950378418e+00 6.254642009735107422e-01 -3.113926947116851807e-01 -4.304860234260559082e-01 7.993764877319335938e-01 -1.578409671783447266e-01 6.290621310472488403e-02 6.312830448150634766e-01 -3.087852001190185547e-01 4.189459383487701416e-01 -4.287963360548019409e-02 6.513609886169433594e-01 3.329627215862274170e-01 4.032676815986633301e-01 -7.831138968467712402e-01 -1.269004195928573608e-01 -4.490880668163299561e-01 3.463599830865859985e-03 -2.175056487321853638e-01 3.316521346569061279e-01 -5.649530887603759766e-01 -3.143956959247589111e-01 6.579177081584930420e-02 -4.685562252998352051e-01 -1.259645633399486542e-02 -2.002220898866653442e-01 4.086814820766448975e-01 -1.315155625343322754e-02 -3.589460551738739014e-01 4.893156886100769043e-01 -3.275729119777679443e-01 2.197035998106002808e-01 -4.901232421398162842e-01
