8.674986660480499268e-02
8.605121076107025146e-02
9.214399009943008423e-02
-3.926107287406921387e-02
6.756161898374557495e-02
3.412228822708129883e-01
1.606037169694900513e-01
-8.302038162946701050e-02
8.889029920101165771e-02
-4.574741423130035400e-02
2.204592898488044739e-02
9.880144149065017700e-02
6.333389878273010254e-02
6.056836992502212524e-02
1.114610135555267334e-01
2.265982702374458313e-02
1.042865738272666931e-01
2.481123059988021851e-01
1.795557737350463867e-01
-5.767480283975601196e-02
6.347618997097015381e-02
1.440095603466033936e-01
1.610286384820938110e-01
-8.908034116029739380e-02
-1.218279972672462463e-01
9.181138873100280762e-02
2.587333023548126221e-01
1.105891913175582886e-01
1.652839779853820801e-01
9.316320717334747314e-02
1.176368966698646545e-01
-2.160303294658660889e-01
-3.410321101546287537e-02
-1.696473173797130585e-02
-8.219800889492034912e-02
1.262001544237136841e-01
3.159900605678558350e-01
7.497309893369674683e-02
1.177411898970603943e-01
4.345646798610687256e-01
1.468195617198944092e-01
-2.265754789113998413e-01
9.475295245647430420e-02
1.382364034652709961e-01
-5.841075628995895386e-02
1.088077500462532043e-01
1.346549242734909058e-01
1.667313724756240845e-01
2.080498039722442627e-01
2.754647433757781982e-01
3.889509439468383789e-01
3.836329281330108643e-02
1.102796420454978943e-01
8.830659091472625732e-02
7.324840873479843140e-02
-1.048932597041130066e-02
2.173212766647338867e-01
2.254603058099746704e-01
1.583621799945831299e-01
-3.563671931624412537e-02
-3.017295897006988525e-02
-6.446378305554389954e-03
-1.050014272332191467e-01
1.109637692570686340e-02
6.720498949289321899e-02
6.684412807226181030e-02
-8.972322195768356323e-02
1.733768358826637268e-02
7.403060793876647949e-02
1.231643632054328918e-01
8.075720816850662231e-02
-5.327096953988075256e-02
-1.213577296584844589e-02
2.472881972789764404e-02
1.157136335968971252e-01
6.755927950143814087e-02
1.423425078392028809e-01
1.862320490181446075e-02
5.395304411649703979e-02
1.455517709255218506e-01
-1.141526475548744202e-01
1.545987129211425781e-01
9.706983715295791626e-02
3.999757766723632812e-02
1.069640293717384338e-01
2.169919759035110474e-02
5.922384932637214661e-02
1.403455585241317749e-01
8.773487806320190430e-02
4.691006615757942200e-02
-1.198919303715229034e-02
-7.737089693546295166e-02
-1.232189536094665527e-01
2.869495656341314316e-03
-6.347492337226867676e-03
1.826069653034210205e-01
-1.235651224851608276e-01
-2.289219200611114502e-01
-3.834691271185874939e-02
7.997956126928329468e-02
2.144029885530471802e-01
2.518350780010223389e-01
7.034485042095184326e-02
1.573149114847183228e-02
1.804620921611785889e-01
1.518738921731710434e-02
1.593846976757049561e-01
1.297130584716796875e-01
8.663310110569000244e-02
8.618107438087463379e-02
4.162900149822235107e-02
-1.797357797622680664e-01
-7.375339418649673462e-02
3.684820979833602905e-02
1.149126365780830383e-01
1.202275976538658142e-01
1.213857671245932579e-03
-3.715661354362964630e-03
-3.575368225574493408e-02
2.672114968299865723e-01
1.159415394067764282e-01
-2.529383823275566101e-02
6.962556391954421997e-02
-2.269624359905719757e-02
-9.537085145711898804e-02
2.435152232646942139e-01
1.722292602062225342e-01
1.849794089794158936e-01
1.314769238233566284e-01
1.837805062532424927e-01
-6.043058261275291443e-02
4.388861358165740967e-02
-4.719671327620744705e-03
1.944287866353988647e-02
1.516439616680145264e-01
6.686615943908691406e-02
-3.835192183032631874e-03
-1.299012731760740280e-02
-3.578819334506988525e-02
9.039017558097839355e-02
6.744777411222457886e-02
1.440805494785308838e-01
1.063226014375686646e-01
5.869816988706588745e-02
-1.847991161048412323e-02
7.489417493343353271e-02
-3.508755192160606384e-02
8.818425238132476807e-02
-9.012977033853530884e-02
8.943881839513778687e-02
-1.028842106461524963e-01
-2.695628702640533447e-01
3.391277790069580078e-02
2.618142031133174896e-02
1.120563447475433350e-01
-2.920509576797485352e-01
-6.796575784683227539e-01
4.403027892112731934e-01
-3.902047276496887207e-01
3.078088164329528809e-01
3.817748129367828369e-01
2.573552727699279785e-02
5.329927802085876465e-01
7.238666713237762451e-02
-8.252353221178054810e-02
6.194471847265958786e-03
3.990430533885955811e-01
2.261528968811035156e-01
1.215641666203737259e-02
-5.079825967550277710e-02
-1.381484121084213257e-01
5.330217480659484863e-01
-3.896336555480957031e-01
5.066220164299011230e-01
3.331410884857177734e-01
4.868451878428459167e-02
-3.074183762073516846e-01
-4.552366435527801514e-01
-1.057956516742706299e-01
-3.773611485958099365e-01
3.145264089107513428e-01
-3.011068701744079590e-01
7.019944489002227783e-02
5.297316908836364746e-01
1.368006914854049683e-01
1.161071360111236572e-01
9.567098319530487061e-02
-3.770128637552261353e-02
1.421313434839248657e-01
3.067634999752044678e-01
2.726641297340393066e-01
1.556270569562911987e-01
1.655510254204273224e-02
-4.795187339186668396e-02
-4.580652713775634766e-02
6.865888833999633789e-02
-2.606800198554992676e-01
-3.173172846436500549e-02
-7.677000761032104492e-01
-2.430069744586944580e-01
3.878350555896759033e-02
2.176330685615539551e-01
2.089038342237472534e-01
-4.270622730255126953e-01
2.572034299373626709e-01
5.570107698440551758e-01
4.092725813388824463e-01
-7.212750315666198730e-01
-3.681072592735290527e-01
4.120315611362457275e-01
2.487715519964694977e-02
8.927226811647415161e-02
-8.904457092285156250e-02
-1.985063552856445312e-01
-2.228278294205665588e-02
5.035755783319473267e-02
9.086759388446807861e-02
2.919420227408409119e-02
-1.365534812211990356e-01
-1.187370121479034424e-01
2.693938650190830231e-02
3.058301657438278198e-02
-1.716790497303009033e-01
-3.151829242706298828e-01
4.470219463109970093e-02
3.773680925369262695e-01
1.505948603153228760e-01
-7.778172940015792847e-02
1.964180767536163330e-01
2.428107112646102905e-01
2.907412350177764893e-01
2.314165085554122925e-01
-4.294660687446594238e-01
-3.125806450843811035e-01
1.006835699081420898e-01
6.709035485982894897e-02
-3.528406471014022827e-02
1.960286051034927368e-01
5.941522717475891113e-01
2.870012819766998291e-01
-2.592645585536956787e-01
2.928256988525390625e-01
4.543494284152984619e-01
-1.160152480006217957e-01
1.564932912588119507e-01
1.974965333938598633e-01
3.362042605876922607e-01
2.809009850025177002e-01
4.588859379291534424e-01
-3.689611256122589111e-01
5.816932022571563721e-02
1.677443832159042358e-01
-2.580235898494720459e-02
3.155364692211151123e-01
1.169549971818923950e-01
3.872899413108825684e-01
-1.081091687083244324e-01
3.271600604057312012e-01
1.617443859577178955e-01
-3.844732418656349182e-02
7.269592583179473877e-02
-4.099241495132446289e-01
2.101955413818359375e-01
2.413636744022369385e-01
5.202395375818014145e-03
-1.761014908552169800e-01
1.370580792427062988e-01
2.435497790575027466e-01
-2.501504123210906982e-01
-1.184074878692626953e-01
2.514448761940002441e-01
1.181814149022102356e-01
-2.621899843215942383e-01
2.640405297279357910e-01
-1.260582506656646729e-01
3.373448550701141357e-01
1.533628106117248535e-01
-1.364858746528625488e-01
-2.640886418521404266e-02
1.557034403085708618e-01
-1.462098360061645508e-01
1.604710966348648071e-01
6.580047309398651123e-02
-4.779182076454162598e-01
1.827690750360488892e-01
-4.086309969425201416e-01
6.019138172268867493e-02
3.187763988971710205e-01
2.934219837188720703e-01
4.597103297710418701e-01
-2.980460524559020996e-01
1.934854686260223389e-01
5.391622781753540039e-01
6.492278575897216797e-01
-1.794075407087802887e-02
-1.480871438980102539e-01
-6.012676358222961426e-01
1.078627854585647583e-01
1.858083158731460571e-02
8.920127525925636292e-03
8.564070612192153931e-02
1.883538961410522461e-01
-4.453260824084281921e-02
-5.085103586316108704e-02
-3.511813655495643616e-02
-1.894512958824634552e-02
-1.186659112572669983e-01
2.478182874619960785e-02
2.159592062234878540e-01
-1.932782530784606934e-01
1.712090373039245605e-01
1.134184151887893677e-01
-7.021201774477958679e-03
1.334935724735260010e-01
-1.418903470039367676e-01
1.654658317565917969e-01
4.257814958691596985e-02
-2.145517915487289429e-01
-1.245819851756095886e-01
2.122229933738708496e-01
2.986219823360443115e-01
2.281588502228260040e-02
-1.238484755158424377e-01
2.375511080026626587e-02
-8.436813950538635254e-02
-7.672344148159027100e-02
-4.590693116188049316e-01
1.778225041925907135e-02
-3.704952299594879150e-01
1.830407828092575073e-01
-1.280951201915740967e-01
-8.733565360307693481e-02
-1.196996122598648071e-01
-1.965107582509517670e-02
3.460593521595001221e-02
-1.546634640544652939e-02
-3.885788023471832275e-01
1.593787106685340405e-03
-6.994053721427917480e-02
7.282628417015075684e-01
1.265205591917037964e-01
-6.801793724298477173e-02
1.100687682628631592e-01
-1.686963438987731934e-01
-4.791048541665077209e-02
4.504496604204177856e-02
3.811379373073577881e-01
1.878033578395843506e-01
-4.227631911635398865e-02
-1.364081650972366333e-01
-3.713976219296455383e-02
7.222304493188858032e-02
-1.246263384819030762e-01
-2.726846374571323395e-02
-3.506537899374961853e-02
5.571024864912033081e-02
-3.780749067664146423e-02
-2.624001801013946533e-01
-3.316753543913364410e-03
-9.549663960933685303e-02
-5.457411333918571472e-02
1.267051100730895996e-01
9.649206697940826416e-02
-2.322348020970821381e-02
-6.989578157663345337e-02
-8.300501853227615356e-02
-4.511306062340736389e-02
2.353741079568862915e-01
-1.467720717191696167e-01
8.508588373661041260e-02
-1.728271991014480591e-01
-6.233419850468635559e-02
-7.363354414701461792e-02
-9.307952970266342163e-02
-2.536387927830219269e-02
6.110817193984985352e-02
8.623706549406051636e-02
-1.369912326335906982e-01
1.030214354395866394e-01
-1.522115916013717651e-01
9.405653178691864014e-02
-4.610986635088920593e-02
1.788043677806854248e-01
-2.784695327281951904e-01
8.941092342138290405e-02
7.621192187070846558e-02
-1.087544672191143036e-02
1.139125525951385498e-01
9.421104192733764648e-02
-1.263461168855428696e-02
-1.548493355512619019e-01
-1.455347146838903427e-02
-1.238031312823295593e-01
-4.291555285453796387e-02
5.749081261456012726e-03
-2.146997749805450439e-01
8.867006003856658936e-02
1.091549023985862732e-01
5.518815666437149048e-02
4.074485506862401962e-03
1.771224103868007660e-02
-3.937264978885650635e-01
1.028812080621719360e-01
-4.321272298693656921e-02
1.638455432839691639e-03
-4.576420783996582031e-02
7.884690165519714355e-02
1.064886376261711121e-01
3.102284856140613556e-02
-2.486118525266647339e-01
-7.575894892215728760e-02
-1.414768844842910767e-01
9.748597443103790283e-02
4.935435205698013306e-02
5.366623029112815857e-02
-1.990267485380172729e-01
-6.299359351396560669e-02
9.606901556253433228e-02
4.393366351723670959e-02
-1.158308908343315125e-01
-7.835371047258377075e-02
-1.655588746070861816e-01
-2.034706026315689087e-01
-8.310567587614059448e-02
-9.033346548676490784e-03
-3.152549862861633301e-01
-7.726524025201797485e-02
2.754052728414535522e-02
8.189201354980468750e-02
1.877933740615844727e-01
1.393578648567199707e-01
9.098605066537857056e-02
1.625756770372390747e-01
5.357902124524116516e-02
1.537614315748214722e-01
2.016696706414222717e-02
-1.113756597042083740e-01
-2.156667225062847137e-02
3.890769928693771362e-02
-1.045860466547310352e-03
7.681244611740112305e-02
7.387728989124298096e-02
-2.367129549384117126e-02
3.529061749577522278e-02
-1.673140525817871094e-01
-6.523764133453369141e-02
-7.814906239509582520e-01
1.244299188256263733e-01
9.972730651497840881e-03
7.885225862264633179e-02
