-1.335432659834623337e-02
1.774070318788290024e-03
9.496805071830749512e-02
-5.570789799094200134e-02
1.506251841783523560e-01
2.769806087017059326e-01
1.735314875841140747e-01
5.396055057644844055e-03
1.870817989110946655e-01
3.756002336740493774e-02
3.700393065810203552e-02
7.466416060924530029e-02
6.986009329557418823e-02
3.865431994199752808e-02
2.492862753570079803e-02
-9.127858094871044159e-03
3.203616291284561157e-02
1.690166741609573364e-01
2.479130774736404419e-01
-1.118283718824386597e-01
1.066335290670394897e-01
8.838856965303421021e-02
3.821273148059844971e-02
-6.888343393802642822e-02
-4.513143002986907959e-02
6.323874741792678833e-02
1.175556629896163940e-01
5.216180905699729919e-02
2.387139052152633667e-01
1.249386370182037354e-01
5.287312343716621399e-02
-1.661342382431030273e-01
-5.049377679824829102e-02
-5.705309659242630005e-02
-5.161676183342933655e-02
1.837847940623760223e-02
2.902747690677642822e-01
8.436164259910583496e-02
1.673363149166107178e-01
3.924769461154937744e-01
1.995446383953094482e-01
-1.445851624011993408e-01
1.007208898663520813e-01
1.118310168385505676e-01
-8.427407592535018921e-02
3.984787687659263611e-02
1.357431262731552124e-01
7.656779885292053223e-02
8.112037181854248047e-02
1.755423694849014282e-01
4.329508244991302490e-01
-3.918404132127761841e-02
1.258637011051177979e-01
1.575239300727844238e-01
9.252753108739852905e-02
-6.552917184308171272e-04
1.078784093260765076e-01
2.322791516780853271e-01
1.644285619258880615e-01
2.831601724028587341e-02
-2.231260575354099274e-02
9.278386831283569336e-02
-1.504221111536026001e-01
5.538140237331390381e-02
-1.469900645315647125e-02
3.456313163042068481e-02
4.887159913778305054e-02
-9.731006808578968048e-03
1.614289283752441406e-01
9.543400257825851440e-02
-2.677385322749614716e-02
-2.588297240436077118e-02
-3.389657661318778992e-02
7.999484986066818237e-02
4.015218466520309448e-02
-5.801536608487367630e-03
6.708072125911712646e-02
-3.694952279329299927e-02
-2.072857134044170380e-02
1.621390581130981445e-01
-6.977453827857971191e-02
1.349435746669769287e-01
-1.156255230307579041e-02
4.043381661176681519e-02
8.002808690071105957e-02
8.016987144947052002e-02
-2.050550654530525208e-02
7.132688909769058228e-02
9.628560394048690796e-02
8.088335394859313965e-02
-7.270467281341552734e-02
-6.924177706241607666e-02
-1.330748051404953003e-01
5.130789428949356079e-02
-3.006788343191146851e-02
1.840635836124420166e-01
-1.528843194246292114e-01
-3.197368681430816650e-01
-7.005781400948762894e-03
1.061101704835891724e-01
1.977569162845611572e-01
2.075681984424591064e-01
6.865368783473968506e-02
-6.112350150942802429e-02
1.832831054925918579e-01
3.408919274806976318e-02
1.369671374559402466e-01
-1.125446520745754242e-02
6.341531127691268921e-02
3.241499885916709900e-02
-2.112851478159427643e-02
-1.607953757047653198e-01
-6.054798141121864319e-02
8.925584703683853149e-02
1.313289701938629150e-01
1.913465932011604309e-02
-1.324169635772705078e-01
-5.062875151634216309e-02
-3.693541139364242554e-02
1.611173003911972046e-01
8.448646217584609985e-02
-3.003342635929584503e-02
8.237097412347793579e-02
-4.463601857423782349e-02
-7.978705316781997681e-02
2.279439121484756470e-01
5.995805189013481140e-02
1.167965605854988098e-01
8.162638545036315918e-02
2.866806983947753906e-01
-7.594882044941186905e-03
1.447985880076885223e-02
-4.924821853637695312e-02
1.063190326094627380e-01
1.579880416393280029e-01
-4.527584463357925415e-02
-1.362255122512578964e-02
2.777945622801780701e-02
6.211651861667633057e-02
5.219997838139533997e-02
1.138203218579292297e-01
4.642654955387115479e-02
4.707198217511177063e-02
-6.167478486895561218e-02
3.537186607718467712e-02
2.270403653383255005e-01
6.745128333568572998e-02
8.029551059007644653e-02
-1.157196611166000366e-01
1.511771231889724731e-01
-8.500155061483383179e-02
-3.037230670452117920e-01
5.426464485935866833e-04
6.333623081445693970e-02
1.486418247222900391e-01
-3.758431375026702881e-01
-7.325947880744934082e-01
4.315491914749145508e-01
-4.285820424556732178e-01
3.282360732555389404e-01
2.518070340156555176e-01
3.535026311874389648e-02
5.020811557769775391e-01
8.153457194566726685e-02
-1.175456568598747253e-01
-6.137360818684101105e-03
3.392294943332672119e-01
2.938752472400665283e-01
1.565293371677398682e-01
-7.121811062097549438e-02
-1.035523712635040283e-01
4.808472990989685059e-01
-4.322579801082611084e-01
3.804672360420227051e-01
3.293244540691375732e-01
1.062705814838409424e-01
-4.478620290756225586e-01
-4.383842051029205322e-01
-7.679343968629837036e-02
-2.735961079597473145e-01
2.476626485586166382e-01
-3.922602236270904541e-01
5.872183945029973984e-03
4.050420224666595459e-01
1.061046123504638672e-01
8.289660513401031494e-02
9.213094413280487061e-02
-5.626111105084419250e-02
1.243363395333290100e-01
2.889482975006103516e-01
2.924048006534576416e-01
3.688793256878852844e-02
-5.823672562837600708e-02
-2.530049905180931091e-02
-9.521774947643280029e-02
6.889723986387252808e-02
-2.491692453622817993e-01
3.585223108530044556e-02
-8.000427484512329102e-01
-2.487033456563949585e-01
-8.695495873689651489e-02
3.137774765491485596e-01
1.560270041227340698e-01
-3.770630657672882080e-01
2.837953269481658936e-01
5.905417203903198242e-01
4.748329520225524902e-01
-8.163847923278808594e-01
-3.054402470588684082e-01
4.462744891643524170e-01
7.251451164484024048e-02
2.408532053232192993e-01
-8.555003255605697632e-02
-1.443345248699188232e-01
-4.090707516297698021e-04
7.011634111404418945e-02
1.116723120212554932e-01
8.367534726858139038e-02
-6.332918256521224976e-02
-1.637994796037673950e-01
-2.446234785020351410e-02
-8.192572742700576782e-02
-2.004418969154357910e-01
-3.631111085414886475e-01
4.106755927205085754e-02
4.128713309764862061e-01
1.752087026834487915e-01
-5.856833979487419128e-02
1.948758214712142944e-01
1.821175068616867065e-01
2.453702092170715332e-01
2.730986773967742920e-01
-4.310556650161743164e-01
-3.542884290218353271e-01
3.374213725328445435e-02
8.593042939901351929e-02
6.305494904518127441e-02
1.636347025632858276e-01
5.790050625801086426e-01
3.558647632598876953e-01
-2.033599615097045898e-01
3.262869715690612793e-01
4.232526719570159912e-01
-1.439790874719619751e-01
1.269055455923080444e-01
1.767687350511550903e-01
3.619455993175506592e-01
3.594935536384582520e-01
4.752471446990966797e-01
-3.222544491291046143e-01
1.551154628396034241e-02
4.717682674527168274e-02
-7.802105974406003952e-03
3.271599113941192627e-01
1.166515052318572998e-01
3.569011390209197998e-01
-1.222693920135498047e-01
3.208044171333312988e-01
9.895762801170349121e-02
-8.449940383434295654e-02
7.973258197307586670e-02
-2.985176444053649902e-01
3.020370900630950928e-01
2.286810725927352905e-01
-5.537639930844306946e-02
-1.262792199850082397e-01
2.798989117145538330e-01
1.596465110778808594e-01
-2.603453099727630615e-01
-1.136829555034637451e-01
2.234342694282531738e-01
1.593957692384719849e-01
-3.136173486709594727e-01
2.664893269538879395e-01
-9.681548923254013062e-02
3.275670707225799561e-01
1.640136986970901489e-01
-1.487136632204055786e-01
-2.559107914566993713e-02
1.270038038492202759e-01
-1.030610352754592896e-01
1.751790791749954224e-01
7.208124548196792603e-02
-4.584822654724121094e-01
1.878568977117538452e-01
-3.960734009742736816e-01
1.314641982316970825e-01
2.925600707530975342e-01
2.535944581031799316e-01
3.637507855892181396e-01
-2.438156008720397949e-01
2.417165488004684448e-01
5.239744186401367188e-01
6.251407861709594727e-01
1.187395025044679642e-02
-1.552041321992874146e-01
-6.098862886428833008e-01
6.378460675477981567e-03
7.719920575618743896e-02
-5.556343123316764832e-03
-1.053008884191513062e-01
1.183185428380966187e-01
3.088160790503025055e-02
-1.493276804685592651e-01
-4.160899668931961060e-02
1.385709345340728760e-01
-2.697860300540924072e-01
4.861806333065032959e-02
4.328265786170959473e-01
-1.156219094991683960e-01
4.628748632967472076e-03
1.351641416549682617e-01
1.017907187342643738e-01
3.997130319476127625e-02
-8.209681510925292969e-02
-1.909931562840938568e-02
-2.262093126773834229e-01
-1.748294942080974579e-02
-5.142362043261528015e-02
2.854326963424682617e-01
1.355685442686080933e-01
9.490039944648742676e-02
8.260065317153930664e-02
1.880892366170883179e-02
-1.413244754076004028e-01
-1.284447163343429565e-01
-3.181813657283782959e-01
9.536140412092208862e-02
-2.412034422159194946e-01
1.948835700750350952e-01
-1.421763151884078979e-01
-9.436733275651931763e-02
-2.851600348949432373e-01
9.425608068704605103e-02
2.174017131328582764e-01
6.919800490140914917e-02
-3.226228654384613037e-01
-7.681097835302352905e-02
-1.167333424091339111e-01
-7.021000981330871582e-01
2.672734558582305908e-01
-4.568982496857643127e-02
1.228158362209796906e-02
6.891185045242309570e-02
-3.993960842490196228e-02
3.735842183232307434e-02
2.560961842536926270e-01
6.861478090286254883e-02
-8.631607890129089355e-02
-8.098747581243515015e-02
-9.528183192014694214e-02
1.321419626474380493e-01
-3.139334172010421753e-02
2.638944089412689209e-01
3.325521200895309448e-02
-4.120710492134094238e-02
5.976381301879882812e-01
-3.137550354003906250e-01
-1.456819623708724976e-01
3.562828153371810913e-02
-3.571541607379913330e-02
1.904750615358352661e-01
7.645025849342346191e-02
1.472352892160415649e-01
5.352444946765899658e-02
-9.659033268690109253e-02
-2.155041247606277466e-01
3.849865794181823730e-01
-9.427222609519958496e-02
9.346407651901245117e-02
-6.921641528606414795e-02
7.565872371196746826e-02
-7.049408555030822754e-02
3.113237954676151276e-02
-1.002497971057891846e-01
7.145290076732635498e-02
3.334192931652069092e-02
8.779837936162948608e-02
1.332393735647201538e-01
-1.577887982130050659e-01
-2.103232592344284058e-02
-3.471094183623790741e-03
-4.678148031234741211e-02
-8.100310713052749634e-02
1.002595946192741394e-01
1.180449649691581726e-01
1.423005312681198120e-01
1.218322142958641052e-01
-3.426862135529518127e-02
-1.027639955282211304e-02
2.555450797080993652e-02
5.393194034695625305e-03
-2.633940055966377258e-02
-1.708608865737915039e-01
8.503551781177520752e-02
-1.035546436905860901e-01
-1.780921593308448792e-02
1.785580068826675415e-01
-7.007262110710144043e-02
2.260528951883316040e-01
2.790794670581817627e-01
-4.436210393905639648e-01
-8.947098255157470703e-02
-4.502115771174430847e-02
3.302659839391708374e-03
-7.638389617204666138e-02
-1.778621375560760498e-01
1.038689017295837402e-01
1.640693284571170807e-02
-1.949617117643356323e-01
-8.983545005321502686e-02
4.970106109976768494e-02
8.413530886173248291e-02
-8.104859292507171631e-02
-5.966942906379699707e-01
-1.775612309575080872e-02
-1.109867691993713379e-01
2.165802121162414551e-01
-2.119992673397064209e-01
-1.078819781541824341e-01
2.635842189192771912e-02
-7.673513144254684448e-02
-4.793484881520271301e-02
6.268660724163055420e-02
-2.390673011541366577e-02
-3.416396975517272949e-01
7.462998479604721069e-02
-6.343707442283630371e-02
-1.460566967725753784e-01
1.272886693477630615e-01
3.609386682510375977e-01
2.002246826887130737e-01
1.033887043595314026e-01
-8.799543604254722595e-03
1.204393729567527771e-01
9.314189851284027100e-02
-8.281505852937698364e-02
2.087613567709922791e-02
1.288445666432380676e-03
-6.877619773149490356e-02
1.770728230476379395e-01
1.147303581237792969e-01
6.903164833784103394e-02
3.569648787379264832e-02
-3.199993073940277100e-01
-1.002628654241561890e-01
2.384396046400070190e-01
8.903556317090988159e-02
-3.559675812721252441e-02
1.394685655832290649e-01
