4.788810014724731445e-02
1.049523353576660156e-01
1.036031693220138550e-01
6.203804910182952881e-02
1.682516559958457947e-02
2.467362284660339355e-01
7.643752545118331909e-02
4.517248645424842834e-02
1.411813031882047653e-02
1.009089648723602295e-01
3.901709243655204773e-02
2.667765319347381592e-02
5.910709034651517868e-03
1.489472240209579468e-01
6.492774933576583862e-02
3.245114535093307495e-02
1.567635089159011841e-01
7.549119740724563599e-02
1.450242251157760620e-01
1.391732133924961090e-02
-1.426966767758131027e-02
8.655949681997299194e-02
1.811959147453308105e-01
1.043920218944549561e-01
9.814506769180297852e-02
-4.892448335886001587e-02
1.008381024003028870e-01
-2.241814695298671722e-02
7.502952218055725098e-02
-1.284754462540149689e-02
1.165088042616844177e-01
-4.067641124129295349e-02
7.774015516042709351e-02
-7.630536332726478577e-03
-5.007952079176902771e-02
5.198360607028007507e-02
2.358423769474029541e-01
9.165773540735244751e-02
5.905043333768844604e-02
9.958285093307495117e-02
7.959344983100891113e-02
2.586367726325988770e-01
6.937748938798904419e-02
-3.571890294551849365e-02
3.814096152782440186e-01
4.946086183190345764e-02
2.199447527527809143e-02
4.064523801207542419e-02
1.301705390214920044e-01
1.907599344849586487e-02
7.476472761482000351e-03
2.201973833143711090e-02
2.334726899862289429e-01
1.027860864996910095e-01
5.605404265224933624e-03
2.962187677621841431e-02
5.519259721040725708e-02
2.585681974887847900e-01
2.370273321866989136e-02
2.192256413400173187e-02
-4.173727706074714661e-03
1.498618423938751221e-01
2.949192002415657043e-02
1.178200915455818176e-01
9.078441560268402100e-02
1.271262466907501221e-01
4.767061024904251099e-02
3.238480910658836365e-02
3.946138545870780945e-02
9.874849580228328705e-03
2.418051511049270630e-01
-9.514784067869186401e-02
9.950036555528640747e-02
-7.802171166986227036e-03
2.115562558174133301e-01
1.834921985864639282e-01
-1.276985928416252136e-02
1.365458667278289795e-01
1.212334483861923218e-01
8.859127759933471680e-02
5.213266611099243164e-02
5.951918661594390869e-02
2.529109828174114227e-02
7.378195226192474365e-02
-1.960061956197023392e-03
1.020476873964071274e-02
7.833484560251235962e-02
1.051607280969619751e-01
8.159480243921279907e-02
-1.910628005862236023e-02
5.921911448240280151e-02
1.345091015100479126e-01
4.009675607085227966e-02
2.055863291025161743e-02
1.394147276878356934e-01
1.216053664684295654e-01
9.866958111524581909e-02
1.101556867361068726e-01
7.972377934493124485e-04
1.204640492796897888e-01
1.416672319173812866e-01
2.988626016303896904e-03
-1.159644685685634613e-02
9.763933718204498291e-02
1.070107221603393555e-01
1.681177020072937012e-01
3.935180604457855225e-02
4.134060442447662354e-02
4.150645062327384949e-02
3.396637365221977234e-02
1.636648364365100861e-02
7.087415456771850586e-02
4.491949453949928284e-02
5.154133960604667664e-02
1.098033413290977478e-01
2.546718418598175049e-01
1.298408955335617065e-01
3.336670994758605957e-02
9.646810591220855713e-03
1.459544599056243896e-01
5.776565149426460266e-02
-2.908954229496885091e-05
1.740448772907257080e-01
1.229849755764007568e-01
-1.463992241770029068e-02
1.448420621454715729e-02
1.166869178414344788e-01
6.360945850610733032e-02
-2.759403316304087639e-03
1.771500259637832642e-01
1.104126796126365662e-01
1.856029182672500610e-01
1.516227703541517258e-02
1.321436911821365356e-01
1.393309682607650757e-01
3.101430647075176239e-02
5.085999518632888794e-02
-2.648469060659408569e-02
1.848270744085311890e-01
3.400145098567008972e-02
7.708658277988433838e-02
5.916790687479078770e-04
-2.086719684302806854e-02
-8.526026271283626556e-03
6.349484622478485107e-02
9.587363898754119873e-02
1.553607359528541565e-02
-4.846433922648429871e-02
5.489775538444519043e-02
2.020167857408523560e-01
-3.544288873672485352e-02
1.898012757301330566e-01
1.543820798397064209e-01
-2.895988896489143372e-02
2.377189137041568756e-02
2.248929813504219055e-02
3.757926523685455322e-01
-8.595517277717590332e-02
2.818028628826141357e-01
2.128721922636032104e-01
-1.327437162399291992e-01
1.834180355072021484e-01
-2.407598681747913361e-02
1.439747065305709839e-01
2.030374109745025635e-01
4.559468850493431091e-02
-1.556943356990814209e-01
-6.855940073728561401e-02
2.201686054468154907e-01
-1.062492355704307556e-01
-2.434522658586502075e-01
3.213260471820831299e-01
-1.117569655179977417e-01
1.061886474490165710e-01
1.380704939365386963e-01
1.287738382816314697e-01
1.983635574579238892e-01
2.653661966323852539e-01
2.171063274145126343e-01
-9.759956598281860352e-02
2.811532914638519287e-01
1.396438339725136757e-03
7.290140539407730103e-02
1.459992676973342896e-01
3.296595066785812378e-02
1.673412472009658813e-01
4.472313523292541504e-01
1.099579110741615295e-01
2.527982592582702637e-01
2.605624794960021973e-01
1.042359620332717896e-01
-2.500510215759277344e-01
2.358521893620491028e-02
1.475941091775894165e-01
-5.281765013933181763e-02
8.071193844079971313e-02
3.248019218444824219e-01
6.251301616430282593e-02
1.836061626672744751e-01
1.177624762058258057e-01
2.292826473712921143e-01
5.355434492230415344e-02
7.477861642837524414e-02
1.330219209194183350e-01
1.461389064788818359e-01
1.058556064963340759e-01
2.852240502834320068e-01
1.088513713330030441e-02
8.840338885784149170e-02
2.509967684745788574e-01
-1.792073249816894531e-01
3.013347741216421127e-03
1.630340367555618286e-01
3.129559457302093506e-01
-9.202397428452968597e-03
-4.765894263982772827e-02
-1.499124467372894287e-01
3.175588250160217285e-01
1.633614599704742432e-01
-7.093488425016403198e-02
-2.008419930934906006e-01
3.336163461208343506e-01
1.384246349334716797e-01
2.689800858497619629e-01
-7.596278935670852661e-02
1.159206405282020569e-02
1.123115792870521545e-02
-8.660894632339477539e-02
2.410104572772979736e-01
2.435170412063598633e-01
2.591879665851593018e-01
-6.318551301956176758e-02
1.256667971611022949e-01
-4.731547832489013672e-02
1.280886977910995483e-01
1.384196877479553223e-01
2.499577850103378296e-01
7.368756085634231567e-02
-1.604150384664535522e-01
1.856731921434402466e-01
-1.885554790496826172e-01
-1.874234527349472046e-02
2.057009041309356689e-01
1.609097123146057129e-01
-1.551248785108327866e-02
4.078836366534233093e-02
-3.255576789379119873e-01
2.047468721866607666e-01
-1.058540865778923035e-01
2.373740226030349731e-01
2.545082271099090576e-01
1.718281805515289307e-01
1.828437596559524536e-01
-7.389959692955017090e-02
1.364911496639251709e-01
1.584401130676269531e-01
1.398830413818359375e-01
7.194264978170394897e-02
-7.254467904567718506e-02
2.067859768867492676e-01
2.027346044778823853e-01
1.141687948256731033e-02
2.968511879444122314e-01
3.062108457088470459e-01
-1.437109261751174927e-01
-2.161372154951095581e-01
1.662418991327285767e-01
-1.256108004599809647e-02
2.251857668161392212e-01
1.749219894409179688e-01
2.591216266155242920e-01
1.942212432622909546e-01
8.236090093851089478e-02
6.785316765308380127e-02
-4.172126576304435730e-02
1.304918229579925537e-01
1.279255002737045288e-01
1.402362287044525146e-01
1.725313663482666016e-01
1.526748090982437134e-01
2.049116492271423340e-01
5.151503533124923706e-02
1.999813616275787354e-01
-9.326491504907608032e-02
8.457577787339687347e-03
2.124429941177368164e-01
-1.186767816543579102e-01
-1.950531899929046631e-01
9.252985566854476929e-02
1.856644749641418457e-01
1.246070787310600281e-01
2.714428305625915527e-01
1.715278029441833496e-01
1.631473302841186523e-01
-4.118235781788825989e-02
9.339227527379989624e-02
3.386366069316864014e-01
2.403596192598342896e-01
4.497163742780685425e-02
2.262041568756103516e-01
2.191532589495182037e-02
-9.378022700548171997e-02
2.286897152662277222e-01
1.332680732011795044e-01
6.678465753793716431e-02
-3.571301465854048729e-03
-9.993932396173477173e-02
-7.474581152200698853e-02
-1.172180324792861938e-01
3.989000618457794189e-02
2.143984287977218628e-01
7.050175964832305908e-02
-2.197142541408538818e-01
5.616295337677001953e-02
7.821828126907348633e-02
5.804409086704254150e-02
-1.830308232456445694e-03
1.881254613399505615e-01
-1.260393112897872925e-01
7.832066155970096588e-03
-2.623531967401504517e-02
-9.652344137430191040e-02
-2.662843465805053711e-01
9.582359343767166138e-02
-7.301943004131317139e-02
-9.605296701192855835e-02
1.054975669831037521e-02
6.814394891262054443e-02
-5.678401794284582138e-03
-4.103345870971679688e-01
6.506634503602981567e-02
8.532094210386276245e-02
3.525003045797348022e-02
-1.472635269165039062e-01
-7.981111109256744385e-02
-6.774052977561950684e-02
-9.671626985073089600e-02
-1.344880759716033936e-01
7.561706751585006714e-02
2.692053653299808502e-02
-1.583651900291442871e-01
1.397766470909118652e-01
-3.053562901914119720e-02
-3.296900168061256409e-02
-1.907898113131523132e-02
-2.469808608293533325e-01
4.051800072193145752e-02
-1.788299530744552612e-01
1.199297532439231873e-01
2.514695748686790466e-02
6.092453002929687500e-02
-7.867190986871719360e-02
2.151013165712356567e-01
5.798932537436485291e-02
-2.459659725427627563e-01
5.590422078967094421e-02
-1.433204114437103271e-02
-3.409079974517226219e-03
-5.357768386602401733e-04
5.471362173557281494e-02
4.723490029573440552e-02
5.792544409632682800e-02
6.742430850863456726e-03
1.253112871199846268e-02
9.332538396120071411e-02
3.815917763859033585e-03
-8.989044278860092163e-02
3.591233864426612854e-02
-3.578857332468032837e-02
-7.553516328334808350e-02
-4.013072699308395386e-02
3.406161442399024963e-02
-8.546020835638046265e-02
-2.248458191752433777e-02
5.131634324789047241e-02
1.569733768701553345e-02
1.266325265169143677e-01
-3.231621533632278442e-02
1.193612255156040192e-02
-1.459451764822006226e-02
4.566643014550209045e-02
-5.418281629681587219e-02
6.135147437453269958e-02
1.612614654004573822e-02
2.155078388750553131e-02
8.596839755773544312e-02
5.101868882775306702e-02
9.765747934579849243e-02
-1.767171174287796021e-01
-9.043776243925094604e-02
1.511084139347076416e-01
1.233229413628578186e-01
1.689700409770011902e-02
-5.665187165141105652e-02
8.828721195459365845e-02
4.204931855201721191e-02
1.450080275535583496e-01
-8.222830295562744141e-02
-1.148251742124557495e-01
1.109798178076744080e-01
-1.296793222427368164e-01
4.497094452381134033e-02
1.760675609111785889e-01
1.550035029649734497e-01
-2.193439751863479614e-02
8.559848368167877197e-02
1.358647793531417847e-01
-2.967068925499916077e-02
5.862585268914699554e-03
4.362550750374794006e-02
-1.074634119868278503e-01
2.570858784019947052e-02
-1.908306479454040527e-01
7.175192981958389282e-02
-2.288554422557353973e-02
-9.332906454801559448e-02
-3.747051116079092026e-03
2.429340034723281860e-01
2.810526639223098755e-02
-5.622633174061775208e-02
-7.330337166786193848e-02
-4.940709471702575684e-02
-7.429534941911697388e-02
-7.186505943536758423e-03
5.888327956199645996e-02
-3.147417306900024414e-02
-5.888453125953674316e-02
1.198103353381156921e-01
-1.237586792558431625e-02
-5.971847847104072571e-02
-6.774160265922546387e-02
-6.053545698523521423e-02
-3.676484897732734680e-02
-5.189550295472145081e-02
1.193893775343894958e-01
-7.719472795724868774e-02
-6.213407590985298157e-02
5.212003365159034729e-02
1.862493902444839478e-01
-5.262868851423263550e-02
1.005279645323753357e-01
-3.941150382161140442e-02
1.390659958124160767e-01
-7.806197553873062134e-02
-7.414746284484863281e-02
-2.224353142082691193e-02
9.971424005925655365e-03
-6.553849577903747559e-02
-1.863067746162414551e-01
2.722921967506408691e-01
