-4.900071769952774048e-02
4.816816374659538269e-02
4.160214588046073914e-02
-4.917420446872711182e-02
-4.189025238156318665e-02
-3.654188290238380432e-02
3.154999762773513794e-02
4.702282324433326721e-02
-5.363177973777055740e-03
4.728489369153976440e-02
9.185914881527423859e-03
-4.854578524827957153e-02
-4.063852876424789429e-02
4.423153772950172424e-02
4.691026359796524048e-02
4.607876390218734741e-02
4.778237640857696533e-02
4.797784984111785889e-02
4.759204760193824768e-02
4.790588095784187317e-02
1.712243258953094482e-02
3.043196722865104675e-02
4.550123959779739380e-02
4.863788560032844543e-02
4.792951419949531555e-02
-1.824521692469716072e-03
-1.096138823777437210e-02
-4.568690061569213867e-02
-2.160785021260380745e-03
-4.942052811384201050e-02
4.890237376093864441e-02
1.028367225080728531e-02
-4.607445746660232544e-02
9.710637852549552917e-03
-4.197855014353990555e-03
-3.710050880908966064e-02
-1.964318566024303436e-02
4.352604970335960388e-02
-4.973511397838592529e-02
-4.697027802467346191e-02
3.126234933733940125e-02
3.969107940793037415e-02
4.094008356332778931e-02
-4.822879657149314880e-02
4.297854751348495483e-02
4.891410842537879944e-02
1.097829733043909073e-02
4.594740271568298340e-02
4.408650472760200500e-02
-3.740230575203895569e-02
-4.437112435698509216e-02
4.883482307195663452e-02
-4.976833239197731018e-03
4.816675931215286255e-02
4.981490597128868103e-02
-8.545254357159137726e-03
4.865381866693496704e-02
3.403626382350921631e-02
4.679417982697486877e-02
4.281061235815286636e-03
-4.874916002154350281e-02
4.858913272619247437e-02
4.810948669910430908e-02
4.824130609631538391e-02
-4.430559277534484863e-02
-4.541662335395812988e-02
4.413775354623794556e-02
4.012353345751762390e-02
-4.861290752887725830e-02
-2.288153627887368202e-03
4.298080876469612122e-02
4.812290519475936890e-02
2.712535299360752106e-02
-3.634839877486228943e-02
4.600385949015617371e-02
-3.807475790381431580e-02
4.821307212114334106e-02
4.905474558472633362e-02
-4.622374475002288818e-02
4.814490303397178650e-02
-5.829466506838798523e-03
-4.699581488966941833e-02
9.972069412469863892e-03
-4.371692612767219543e-02
2.705456689000129700e-03
-5.556783289648592472e-04
-4.257430136203765869e-02
-4.098332673311233521e-02
-4.812538996338844299e-02
2.787227369844913483e-02
-4.761017858982086182e-02
-3.497623279690742493e-02
1.401270832866430283e-02
-2.410041633993387222e-03
-4.740568995475769043e-02
4.444639384746551514e-02
4.909444972872734070e-02
-4.206301644444465637e-02
2.953688614070415497e-02
1.024169009178876877e-02
-3.601776435971260071e-02
4.527144506573677063e-02
-4.647810012102127075e-02
-4.863300919532775879e-02
4.960426688194274902e-02
1.255873590707778931e-02
3.122261259704828262e-03
-8.529625833034515381e-03
3.853592276573181152e-02
3.005369380116462708e-02
-1.389105990529060364e-02
3.679016977548599243e-02
-4.946469515562057495e-02
-4.830516502261161804e-02
-4.909556731581687927e-02
4.191110376268625259e-03
4.881131649017333984e-02
4.217440634965896606e-02
4.722262918949127197e-02
2.121837437152862549e-02
-4.651260003447532654e-02
4.908755421638488770e-02
-4.339804127812385559e-02
-4.829052090644836426e-02
2.555572800338268280e-02
-4.635201022028923035e-02
4.787779599428176880e-02
4.554505273699760437e-02
-4.786333814263343811e-02
4.879231005907058716e-02
4.474672302603721619e-02
4.689672961831092834e-02
-4.635507985949516296e-02
-4.181552305817604065e-02
-5.396468099206686020e-03
-4.927637428045272827e-02
-4.793160036206245422e-02
4.798972606658935547e-02
-4.877403005957603455e-02
4.474798589944839478e-02
4.880147427320480347e-02
-4.816731065511703491e-02
4.903431236743927002e-02
-4.778077453374862671e-02
3.857420012354850769e-02
-4.851488769054412842e-02
-4.321099817752838135e-02
4.828267171978950500e-02
4.890958964824676514e-02
3.120891982689499855e-03
-4.896928742527961731e-02
4.786615073680877686e-02
4.621730744838714600e-02
4.310187697410583496e-02
4.223933815956115723e-02
4.992477968335151672e-02
4.797513782978057861e-02
-4.790771007537841797e-02
-4.131812229752540588e-02
3.347623394802212715e-03
4.811082407832145691e-02
-1.666578836739063263e-02
-3.779576718807220459e-02
8.480062708258628845e-03
4.252330958843231201e-02
-4.113188385963439941e-02
1.233242172747850418e-02
4.815109074115753174e-02
1.929383538663387299e-02
4.732286930084228516e-02
-4.675768688321113586e-02
3.716537356376647949e-02
4.842360317707061768e-02
3.025107085704803467e-03
-4.508013278245925903e-02
3.873008070513606071e-03
1.216730289161205292e-02
4.367278888821601868e-02
-4.460020363330841064e-02
4.527467116713523865e-02
2.872397936880588531e-02
4.810899123549461365e-02
-3.367556026205420494e-03
5.195743590593338013e-02
-4.014536365866661072e-02
-6.151944398880004883e-03
4.694828018546104431e-02
3.053178638219833374e-02
-3.513903543353080750e-02
-4.653825983405113220e-02
-3.885667398571968079e-02
4.352946206927299500e-02
-4.693304747343063354e-02
2.945865131914615631e-02
-3.745473176240921021e-02
4.141148552298545837e-02
1.256933342665433884e-02
4.902456328272819519e-02
-1.966189220547676086e-02
1.408960670232772827e-02
-1.731159351766109467e-02
4.347751662135124207e-02
-2.792700566351413727e-02
-2.356897108256816864e-02
5.294089019298553467e-02
4.952846094965934753e-02
5.206446722149848938e-02
4.123659804463386536e-02
5.946815386414527893e-02
-2.176337689161300659e-02
-3.546584025025367737e-02
6.707373261451721191e-02
4.165873304009437561e-02
6.467689573764801025e-02
4.913238808512687683e-02
-3.412105143070220947e-02
4.238736629486083984e-02
3.680377453565597534e-02
4.995283856987953186e-02
4.960545152425765991e-02
4.969719052314758301e-02
5.252498760819435120e-02
5.044262111186981201e-02
4.881235584616661072e-02
6.702359765768051147e-02
2.585051394999027252e-02
4.455676302313804626e-02
5.272371694445610046e-02
6.581722758710384369e-03
-2.848153375089168549e-02
5.791357904672622681e-02
-1.006757142022252083e-03
4.618979990482330322e-02
4.329806938767433167e-02
4.199730232357978821e-03
1.086695212870836258e-02
4.449091479182243347e-02
5.183616653084754944e-02
-1.202458632178604603e-03
4.731371998786926270e-02
5.067682638764381409e-02
-1.143520511686801910e-02
4.870390146970748901e-02
4.363331943750381470e-02
3.064304403960704803e-02
5.307066068053245544e-02
4.967680945992469788e-02
4.342774301767349243e-02
4.840633273124694824e-02
3.006033413112163544e-02
-3.188900649547576904e-02
5.093753710389137268e-02
-2.787137217819690704e-02
5.271316692233085632e-02
-2.503551542758941650e-02
-5.410396307706832886e-02
4.920306056737899780e-02
3.592436388134956360e-02
5.370900407433509827e-02
1.995844021439552307e-02
-5.003329366445541382e-03
5.664234235882759094e-02
4.984565824270248413e-02
5.001568794250488281e-02
5.314324423670768738e-02
5.175866931676864624e-02
6.162783876061439514e-02
4.865887016057968140e-02
5.644718185067176819e-02
3.423092141747474670e-02
4.649200290441513062e-02
-1.511226408183574677e-02
2.536505647003650665e-02
5.228208005428314209e-02
5.493525788187980652e-02
-3.373442217707633972e-02
-4.230450466275215149e-02
4.100771620869636536e-02
4.994926974177360535e-02
4.878897592425346375e-02
-1.870072097517549992e-03
2.984101139008998871e-02
4.193033650517463684e-02
4.999740421772003174e-02
1.960840891115367413e-04
-3.600515797734260559e-02
4.866751283407211304e-02
4.527301713824272156e-02
5.149009823799133301e-02
5.899487808346748352e-02
-3.205290809273719788e-02
3.858472406864166260e-02
4.182799905538558960e-02
-1.754241180606186390e-03
4.659294709563255310e-02
4.632288217544555664e-02
4.650182649493217468e-02
5.410074442625045776e-02
4.365777969360351562e-02
2.609714679419994354e-02
4.751518368721008301e-02
-1.351698767393827438e-02
4.943501949310302734e-02
4.939151182770729065e-02
3.530143573880195618e-02
5.162170529365539551e-02
-2.064346894621849060e-02
4.809301719069480896e-02
3.027489408850669861e-02
5.084550753235816956e-02
1.623732969164848328e-03
4.825099930167198181e-02
5.117693170905113220e-02
4.732837900519371033e-02
-3.164322301745414734e-02
1.229205168783664703e-02
5.383361130952835083e-02
4.930837079882621765e-02
3.389200940728187561e-02
5.132210254669189453e-02
-4.278412461280822754e-02
4.491231217980384827e-02
8.315009623765945435e-02
3.136176243424415588e-02
4.706425592303276062e-02
-3.537926450371742249e-02
5.975768342614173889e-02
5.360362678766250610e-02
5.121089890599250793e-02
5.079610273241996765e-02
-2.463640458881855011e-02
4.188307374715805054e-02
-2.354732714593410492e-02
3.088023141026496887e-02
1.108294073492288589e-02
5.155680328607559204e-02
5.202906951308250427e-02
5.194257572293281555e-02
5.035222321748733521e-02
5.111482366919517517e-02
5.259526893496513367e-02
6.405322998762130737e-02
5.351460352540016174e-02
4.659517109394073486e-02
2.007522154599428177e-03
1.978900283575057983e-02
-2.942672371864318848e-02
4.012356698513031006e-02
5.015413463115692139e-02
1.732524111866950989e-02
-4.795389994978904724e-02
5.264006927609443665e-02
2.425247803330421448e-02
5.290256440639495850e-02
4.803212359547615051e-02
5.286817997694015503e-02
3.160855174064636230e-02
4.806098341941833496e-02
4.732683300971984863e-02
-1.635177031857892871e-04
5.363422632217407227e-02
4.869100823998451233e-02
9.762939997017383575e-03
3.736108168959617615e-02
2.570412121713161469e-02
2.472130768001079559e-02
3.989938274025917053e-02
3.759765625000000000e-02
2.377699129283428192e-02
5.450081080198287964e-02
-6.602489948272705078e-02
5.194981396198272705e-02
6.069866195321083069e-02
5.248994566500186920e-03
5.514971166849136353e-02
2.274483256042003632e-02
4.967447370290756226e-02
4.689901694655418396e-02
4.627947881817817688e-02
-3.502459079027175903e-02
3.512234985828399658e-02
4.471726715564727783e-02
5.359996855258941650e-02
1.154533773660659790e-02
5.005661398172378540e-02
-1.824217662215232849e-02
-2.245596051216125488e-02
4.796764627099037170e-02
4.623225331306457520e-02
5.044300854206085205e-02
-3.303200379014015198e-02
6.364330649375915527e-02
4.377060011029243469e-02
7.417822722345590591e-03
3.797208145260810852e-02
-2.627092599868774414e-02
3.467873111367225647e-02
4.964473098516464233e-02
5.257875844836235046e-02
5.171537399291992188e-02
-4.693838953971862793e-02
5.161507055163383484e-02
-3.615797311067581177e-02
-4.276461526751518250e-02
-4.823635518550872803e-02
3.430837392807006836e-02
2.307592704892158508e-02
4.215234890580177307e-02
-2.073990367352962494e-02
4.408748447895050049e-02
4.618987068533897400e-02
-5.020485073328018188e-02
-3.628260269761085510e-02
-5.091273039579391479e-02
-5.347774550318717957e-02
-3.948350623250007629e-02
5.398421734571456909e-02
4.867671057581901550e-02
4.765355214476585388e-02
-5.198922380805015564e-02
-1.519646868109703064e-02
-2.060197293758392334e-02
-5.207676067948341370e-02
3.067253716289997101e-02
-5.313606932759284973e-02
1.656170119531452656e-03
-1.081892196089029312e-02
3.977331891655921936e-02
4.777828697115182877e-03
-4.628869146108627319e-02
-4.901145771145820618e-02
-3.908037906512618065e-04
-7.606400642544031143e-03
-2.772850915789604187e-02
-1.367333531379699707e-02
4.499050602316856384e-02
8.867415599524974823e-03
-4.513459652662277222e-02
-2.627467364072799683e-02
-5.307786539196968079e-02
-2.310006320476531982e-02
-3.755172342061996460e-02
-5.315924808382987976e-02
-4.896455258131027222e-02
2.863259427249431610e-02
4.837105423212051392e-02
1.982579007744789124e-02
3.127469494938850403e-02
-3.477074205875396729e-02
5.250872299075126648e-02
1.322925742715597153e-02
-5.395753681659698486e-02
1.793954707682132721e-02
-3.532090410590171814e-02
-4.224722832441329956e-02
5.933097004890441895e-02
4.894286766648292542e-02
-2.279917709529399872e-03
2.057146094739437103e-02
-9.828722104430198669e-03
2.819583378732204437e-02
-5.681006610393524170e-02
4.436184465885162354e-02
-5.473595857620239258e-02
4.541875049471855164e-02
-5.289825797080993652e-02
-3.275990858674049377e-02
3.657669574022293091e-02
1.276860293000936508e-02
-2.043592976406216621e-04
2.379255741834640503e-02
4.780620709061622620e-02
-2.018075808882713318e-02
4.331580176949501038e-02
5.318590626120567322e-02
1.293590292334556580e-02
-4.951385408639907837e-02
-5.253399908542633057e-02
4.543299227952957153e-02
4.231845214962959290e-02
-6.860165856778621674e-03
-4.924141615629196167e-02
1.525219529867172241e-02
4.268519207835197449e-02
5.344748497009277344e-03
-3.435080498456954956e-02
3.800090402364730835e-02
-4.593925178050994873e-02
-5.121049284934997559e-02
-3.938386216759681702e-02
5.152187496423721313e-02
-3.958372771739959717e-02
-1.575617864727973938e-02
4.447881132364273071e-03
-4.311871156096458435e-02
-4.332173243165016174e-02
-5.278469622135162354e-02
-4.720545932650566101e-02
3.025941550731658936e-02
4.151142202317714691e-03
4.310470074415206909e-02
2.748864330351352692e-02
2.415487915277481079e-02
5.159103870391845703e-02
4.661701619625091553e-02
2.825900539755821228e-02
-5.641249663312919438e-05
1.322393771260976791e-02
4.032833874225616455e-02
-3.689514100551605225e-02
-1.085580606013536453e-02
2.608341351151466370e-02
8.509869687259197235e-03
5.324003845453262329e-02
4.531062394380569458e-02
6.976157601457089186e-05
-5.037750303745269775e-02
3.580027818679809570e-02
-4.710190743207931519e-02
-9.354168287245556712e-05
-3.371211886405944824e-02
6.025109440088272095e-02
4.399682953953742981e-02
-5.238083377480506897e-02
-2.687828987836837769e-02
5.632787570357322693e-02
-5.541954934597015381e-02
5.183512344956398010e-02
-2.093499992042779922e-03
5.037581548094749451e-02
2.059229835867881775e-02
-5.083198100328445435e-02
3.446779400110244751e-02
3.615884110331535339e-02
2.755975583568215370e-03
-2.189136296510696411e-02
5.413600057363510132e-02
4.423879459500312805e-02
-3.893410786986351013e-02
4.497703537344932556e-02
-5.216053873300552368e-02
5.897266417741775513e-02
-5.339770764112472534e-02
-4.378030449151992798e-02
-4.192389606032520533e-04
-5.608925223350524902e-02
-3.923040628433227539e-02
-6.142922118306159973e-02
5.672882869839668274e-02
-5.714513827115297318e-03
5.117565765976905823e-02
5.244347453117370605e-02
-5.166495591402053833e-02
5.267126113176345825e-02
-3.894184157252311707e-02
5.163827911019325256e-02
-5.826742574572563171e-02
2.113428153097629547e-02
4.602412879467010498e-02
-5.083556752651929855e-03
-4.978709295392036438e-02
1.131194178014993668e-02
-3.549681231379508972e-02
-5.380297545343637466e-03
5.719145014882087708e-02
-4.790487140417098999e-02
-1.202889438718557358e-02
4.577595740556716919e-02
4.159169271588325500e-03
5.259304866194725037e-02
-4.934025928378105164e-02
8.320395718328654766e-04
5.291068553924560547e-02
-4.685259610414505005e-02
4.731376469135284424e-02
1.021905615925788879e-02
4.084226675331592560e-03
5.304543301463127136e-02
2.852180600166320801e-02
-4.289824515581130981e-02
7.368415128439664841e-03
-4.886356741189956665e-02
2.864262496586889029e-04
-3.162756189703941345e-02
3.120674192905426025e-02
-2.456795191392302513e-03
-5.830804258584976196e-02
8.696546778082847595e-03
1.430771593004465103e-02
-4.493220150470733643e-02
-3.835647366940975189e-03
4.916271194815635681e-02
-5.204682424664497375e-02
-1.409800257533788681e-02
3.455904871225357056e-02
3.873213380575180054e-02
2.967296913266181946e-02
5.342473462224006653e-02
1.925958506762981415e-02
2.004802227020263672e-02
