2.742816286627203226e-05
-3.065630517085082829e-05
2.441239543259143829e-03
-3.496630597510375082e-05
8.337105100508779287e-05
3.148321702610701323e-04
-1.616912923054769635e-04
1.462020882172510028e-04
-4.973500035703182220e-03
-2.873426456062588841e-05
-5.291553679853677750e-04
-2.873684206861071289e-05
-4.757938440889120102e-04
4.079316568095237017e-06
1.859199255704879761e-05
8.368667913600802422e-04
-2.099421726597938687e-05
-8.838232474772667047e-07
1.402146881446242332e-04
-2.310742092959117144e-05
-2.334543038159608841e-03
-1.411973382346332073e-03
-1.148897240454971325e-06
4.927763438900001347e-05
-1.205726675834739581e-05
-6.784549448639154434e-03
-2.892758511006832123e-02
1.794864874682389200e-05
1.977977808564901352e-03
3.011786429851781577e-05
1.178087359221535735e-06
-9.112838655710220337e-03
-3.922862379113212228e-05
7.071902975440025330e-03
4.574153106659650803e-03
2.110075365635566413e-05
-1.918922364711761475e-02
-3.123172209598124027e-04
-4.916074612992815673e-05
-6.476086582551943138e-06
-2.087780012516304851e-05
9.714065527077764273e-06
1.404219688083685469e-06
-4.301977605791762471e-05
-6.866792318760417402e-06
2.327908077859319746e-05
-2.344693522900342941e-03
-2.325279092474374920e-05
2.665886495378799736e-05
-2.546737596276216209e-05
-2.098401891998946667e-04
-8.294380677398294210e-06
-4.206395521759986877e-02
1.416196391801349819e-05
2.555844730522949249e-05
5.144991911947727203e-03
-2.094816591124981642e-05
-1.869646948762238026e-03
-2.109851993736810982e-05
-2.639806084334850311e-02
-7.775390404276549816e-04
2.072667302854824811e-05
2.706748455238994211e-05
1.212866391142597422e-05
2.814566832967102528e-04
-2.144433437933912501e-06
-9.666296136856544763e-06
-1.285551752516767010e-05
2.362163104407954961e-05
-1.263838959857821465e-03
1.192328854813240469e-04
6.750083412043750286e-05
-2.433465269859880209e-04
-1.957016793312504888e-04
1.024812263494823128e-05
-2.562855479482095689e-05
-1.726495975162833929e-04
-2.002714063564781100e-05
-1.024061348289251328e-04
-7.738604472251608968e-05
5.375674366950988770e-02
5.000602686777710915e-04
1.208984293043613434e-02
-1.986716524697840214e-04
-2.102164318785071373e-03
-1.463796244934201241e-03
6.339773535728454590e-04
-6.663479143753647804e-04
7.712889055255800486e-05
-3.509231028147041798e-04
3.904424738720990717e-05
-4.786962817888706923e-04
5.074745509773492813e-03
1.006658934056758881e-02
2.142637822544202209e-05
-8.389425347559154034e-04
-3.488296715659089386e-05
2.450889041938353330e-05
-5.119920242577791214e-04
-2.328533679246902466e-02
3.178715414833277464e-04
1.618497190065681934e-04
3.196420948370359838e-05
6.149561158963479102e-06
2.541410685807932168e-05
6.047521904110908508e-02
3.748482093214988708e-03
-1.074280939064919949e-03
-7.881435449235141277e-04
1.877082511782646179e-03
3.091409243643283844e-02
2.655346470419317484e-04
-1.276780036278069019e-03
-3.042097887373529375e-05
-4.305620677769184113e-06
-6.442882120609283447e-03
3.056067725992761552e-05
-7.811873729224316776e-06
3.423807720537297428e-05
6.415300886146724224e-04
2.210013553849421442e-05
6.606378974538529292e-06
6.103509804233908653e-07
-4.643341162591241300e-05
3.088290803134441376e-03
4.796246685145888478e-06
-5.324384255800396204e-05
9.487245733907911927e-06
-6.413496521417982876e-06
3.530155299813486636e-05
1.357713063043775037e-05
3.451060547376982868e-05
1.311515688939834945e-06
2.431520115351304412e-04
-2.255967073142528534e-02
3.260909943492151797e-05
-7.766509952489286661e-06
2.303679684700910002e-05
-3.132000983896432444e-06
-5.749636693508364260e-05
-6.822742579970508814e-05
-8.643708861200138927e-05
-2.888118251576088369e-05
-9.390331797476392239e-06
4.407431788422400132e-06
4.006974904768867418e-06
-6.217606824066024274e-06
-1.401500339852645993e-04
5.249671175988623872e-06
7.276548445224761963e-02
-2.936111286544473842e-06
-1.459343638998689130e-05
1.159615294454852119e-06
6.420370027626631781e-06
2.455494599416851997e-03
2.389802466495893896e-05
-1.024898210744140670e-05
-1.756391429807990789e-05
-9.192309807986021042e-04
-1.893547922372817993e-02
-1.869509105745237321e-05
3.075168933719396591e-04
-1.771186362020671368e-05
-1.570114167407155037e-03
1.896074536489322782e-05
-3.962968185078352690e-05
8.064977009780704975e-04
3.802345599979162216e-04
-1.307049579918384552e-02
7.957588422868866473e-06
-9.466883784625679255e-05
-1.932157552801072598e-03
-7.450646080542355776e-05
2.161589683964848518e-03
-8.677104779053479433e-05
6.891238968819379807e-03
-3.200236475095152855e-03
-5.469445909511705395e-07
7.424355862895026803e-05
-3.472187472652876750e-06
-5.820809747092425823e-04
-3.395025851204991341e-05
-2.196374349296092987e-02
-2.051686533377505839e-05
7.789948140271008015e-04
-6.833095103502273560e-03
5.522971605387283489e-06
-1.521409740234958008e-05
2.157690323656424880e-05
-4.149106462136842310e-05
2.028235176112502813e-04
-5.289020919008180499e-06
1.913575761136598885e-05
5.152430967427790165e-04
-1.127602765336632729e-03
-2.558731466706376523e-05
-7.684770971536636353e-03
-1.807932858355343342e-05
-2.146884053945541382e-02
1.189743448048830032e-02
2.488180180080235004e-04
-8.418496145168319345e-05
7.916525751352310181e-02
-4.369113012216985226e-04
-1.124501250160392374e-05
-2.604505280032753944e-04
5.338371556717902422e-05
-4.845691728405654430e-05
1.818735909182578325e-04
-5.079274997115135193e-04
-1.608340098755434155e-04
-5.192657044972293079e-05
-1.195301418192684650e-03
-1.357663329690694809e-02
1.175872384919784963e-04
-1.490850991103798151e-04
1.434105215594172478e-03
1.612808438949286938e-03
-5.092959690955467522e-05
9.807336755329743028e-05
9.676004992797970772e-06
-6.516269786516204476e-05
1.641486778680700809e-05
-2.688362292246893048e-05
-7.699494744883850217e-06
-1.057536806911230087e-03
5.740478081861510873e-05
8.856790373101830482e-06
-4.531271770247258246e-05
3.516885265707969666e-02
-1.802975384634919465e-05
-4.601783119142055511e-03
1.878925650089513510e-05
1.888273254735395312e-05
1.348737068474292755e-02
-2.525849558878690004e-04
8.121860446408390999e-05
1.084783725673332810e-04
-2.017910033464431763e-02
-1.232835056725889444e-04
5.373339445213787258e-05
-4.871531203389167786e-02
-3.335021574457641691e-06
-7.438652573910076171e-06
8.899542444851249456e-05
5.993536547066469211e-07
-1.672764665272552520e-05
-4.800217866431921721e-04
1.005085869110189378e-05
8.788527920842170715e-03
9.209481067955493927e-04
6.493742603197460994e-06
2.503259565855842084e-05
-6.083096013753674924e-05
5.594904650934040546e-04
-1.096795778721570969e-02
4.295473991078324616e-05
-1.212261486216448247e-04
-3.081825707340613008e-05
-1.500298385508358479e-03
5.208420753479003906e-02
2.341362778679467738e-05
-1.429472176823765039e-04
3.949926394852809608e-06
5.564104139921255410e-05
-7.016286872385535389e-06
1.223155204206705093e-02
1.617576162971090525e-05
-3.078732697758823633e-05
1.361003614874789491e-05
3.609799750847741961e-05
1.393573591485619545e-03
-1.498455996625125408e-03
6.222589945537038147e-06
-7.288298320418107323e-07
1.313732354901731014e-04
-1.316693425178527832e-02
-3.902273310814052820e-04
5.540498750633560121e-05
3.968552846345119178e-05
2.979869209229946136e-02
-1.476267119869589806e-03
8.257987065007910132e-05
-2.859669621102511883e-04
2.016199578065425158e-04
-1.706770434975624084e-02
-7.746800838503986597e-05
4.811768594663590193e-04
8.114299816952552646e-06
-4.311882075853645802e-04
6.513284984976053238e-03
-3.001617442350834608e-04
-7.316651317523792386e-05
3.055739402770996094e-02
2.163618628401309252e-04
6.172002176754176617e-04
-3.422408190090209246e-04
-1.151274555013515055e-04
-5.475538782775402069e-04
8.423399995081126690e-04
4.185236175544559956e-04
3.034031577408313751e-02
-3.727340663317590952e-04
1.048487611114978790e-03
9.019894897937774658e-02
6.030446456861682236e-05
5.425885319709777832e-03
-1.832211390137672424e-03
1.498513389378786087e-03
2.869577474484685808e-05
3.086345503106713295e-03
-1.446935639251023531e-04
3.546542138792574406e-04
1.956011168658733368e-03
4.014793012174777687e-05
8.521755784749984741e-02
-1.821103796828538179e-05
6.104764179326593876e-05
3.384224255569279194e-04
2.624852822918910533e-05
-4.889110568910837173e-04
4.942055966239422560e-05
2.552450448274612427e-02
-1.095832907594740391e-03
3.174615630996413529e-05
1.393256679875776172e-04
-1.237060405401280150e-05
-3.681454109027981758e-05
1.534640978206880391e-05
-7.319142605410888791e-05
-1.213318388909101486e-02
2.769948650893638842e-06
1.722873654216527939e-03
2.096889540553092957e-03
2.640428487211465836e-03
7.722486043348908424e-05
1.575794885866343975e-05
6.808678153902292252e-05
2.886382753786165267e-05
2.570278593339025974e-05
5.214789052843116224e-05
-2.210185339208692312e-04
9.432345109416928608e-07
1.940407491929363459e-05
3.034953214228153229e-02
2.111704379785805941e-04
1.467584806960076094e-04
-1.164201530627906322e-04
6.114936695666983724e-05
2.907581860199570656e-03
-9.027486084960401058e-04
2.627980211400426924e-05
3.611799911595880985e-04
7.106602424755692482e-05
8.182181045413017273e-04
-2.949754707515239716e-05
8.839751826599240303e-04
-2.025481990131083876e-05
2.288530959049239755e-04
-6.098077166825532913e-03
-2.326164030819199979e-05
-6.959925667615607381e-05
6.526528159156441689e-05
-3.522402257658541203e-04
-4.377798736095428467e-02
-1.501391238889482338e-06
6.557397864526137710e-05
7.063472003210335970e-05
-3.540843259543180466e-03
3.829539855360053480e-05
1.565267099067568779e-03
-1.416668965248391032e-05
1.216646705870516598e-05
-8.084373548626899719e-04
2.512508399377111346e-05
-4.305929905967786908e-05
4.476422418520087376e-06
-2.074055810226127505e-04
6.158496148600534070e-07
-7.700663409195840359e-04
-1.523941173218190670e-03
2.503848008927889168e-05
4.589694799506105483e-05
8.347412198781967163e-02
-2.273000573040917516e-04
4.438715428113937378e-02
-1.755173876881599426e-02
6.485597987193614244e-05
2.892891643568873405e-04
-2.264080831082537770e-05
1.447875547455623746e-04
-8.627737315691774711e-07
1.029898521665018052e-05
2.093626856803894043e-01
4.332770186010748148e-04
3.887468192260712385e-04
8.209949010051786900e-04
-6.071265306673012674e-05
-8.562457514926791191e-05
-3.362944335094653070e-05
3.991131598013453186e-05
1.364148192806169391e-04
5.271160043776035309e-03
-2.450897591188549995e-05
-6.904801557539030910e-05
-8.831428131088614464e-04
-4.532869905233383179e-02
5.360057111829519272e-04
-4.786691279150545597e-04
-2.010446564781886991e-07
-9.674330940470099449e-04
4.356105273473076522e-05
-1.300439325859770179e-04
1.808010165404994041e-05
-7.002196525718318298e-06
-3.835959651041775942e-04
-8.227022590290289372e-06
2.500988775864243507e-04
4.129801163799129426e-05
-1.699802960501983762e-04
2.868010401725769043e-01
-7.163678528741002083e-04
-3.911882231477648020e-05
-8.221438292821403593e-06
-1.796686319721629843e-06
1.543314158916473389e-01
7.070687599480152130e-03
-3.157466562697663903e-05
-1.495153701398521662e-04
2.985695318784564734e-04
2.216302527813240886e-05
-6.727978470735251904e-04
2.041322737932205200e-01
1.223849249072372913e-03
-1.967675052583217621e-03
-4.828336841455893591e-06
6.302261259406805038e-03
-1.604432618478313088e-04
-3.066058969125151634e-03
-1.203621741296956316e-05
3.757789381779730320e-04
1.550926594063639641e-03
5.031085759401321411e-02
-9.444631359656341374e-06
-4.917735233902931213e-03
-1.546473358757793903e-04
-2.725115716457366943e-01
-3.908102007699199021e-05
-4.021490167360752821e-05
-5.287921521812677383e-05
-1.121690049767494202e-01
3.539881072356365621e-05
2.164573967456817627e-01
7.088112852215999737e-06
-5.605932892649434507e-05
1.960705732926726341e-03
2.402054087724536657e-05
-2.073571644723415375e-02
1.570038511999882758e-05
8.644427172839641571e-03
8.902249101083725691e-05
-4.824728421226609498e-06
3.539100871421396732e-04
-2.364422613254646421e-07
-1.439631014363840222e-04
1.672949292697012424e-05
-3.179667328367941082e-05
-1.116727143526077271e-01
3.156806633342057467e-04
-1.338980859145522118e-03
-8.890641765901818871e-05
-7.449666736647486687e-05
2.312579303979873657e-01
-3.135472070425748825e-05
2.376107295276597142e-05
-2.222974551841616631e-03
-7.442776404786854982e-05
-7.525256478402297944e-06
7.702416041865944862e-06
1.067126984708011150e-03
2.689106017351150513e-02
2.737515897024422884e-04
1.248885964741930366e-04
1.445647794753313065e-04
-7.556517608463764191e-03
1.116469386033713818e-03
1.342440838925540447e-03
-1.282572193304076791e-04
1.341002280241809785e-05
3.004559257533401251e-04
7.785463094478473067e-05
-4.048077098559588194e-04
1.521802973002195358e-03
-3.254177048802375793e-03
2.677732845768332481e-04
1.497403951361775398e-03
6.158427277114242315e-05
2.304968438693322241e-05
-1.584742218255996704e-01
-1.237256452441215515e-02
-1.085469307327002753e-06
-2.039166167378425598e-03
-1.117606298066675663e-03
2.939204205176793039e-05
5.183996836422011256e-05
7.244956679642200470e-03
2.560077235102653503e-03
1.644491683691740036e-03
-6.819727132096886635e-04
-8.295511943288147449e-04
2.271732874214649200e-02
-2.230752492323517799e-03
-2.683048546314239502e-01
5.352599146135617048e-06
4.500994691625237465e-06
-4.720536991953849792e-03
1.884406992758158594e-05
-2.154769897460937500e-01
9.074197150766849518e-04
-2.157988995313644409e-01
1.140009611845016479e-01
-1.750806859490694478e-06
-1.519846045994199812e-05
1.176197201857576147e-05
8.905439754016697407e-04
3.320862742839381099e-05
-8.810224244371056557e-06
-8.482349221594631672e-05
2.696889340877532959e-01
-2.212711297033820301e-05
2.043060521828010678e-05
-4.485632962314411998e-05
-1.010499075055122375e-01
-1.163505585282109678e-04
1.175634935498237610e-02
-6.474105757661163807e-04
-2.738623516052030027e-05
-1.387379961670376360e-05
1.351398183032870293e-03
2.787613084365148097e-05
-4.012645149487070739e-06
3.920869130524806678e-05
2.292132558068260550e-05
4.261553287506103516e-03
9.144610885414294899e-06
-7.322665169340325519e-06
2.092692768201231956e-03
-9.755050996318459511e-04
-2.346594919799827039e-05
-9.796111844480037689e-03
1.757852078299038112e-05
2.623821819724980742e-05
3.544881474226713181e-05
-2.417106770735699683e-05
8.524321019649505615e-04
-1.046165998559445143e-04
7.987487151694949716e-06
-2.611299976706504822e-03
1.591892214491963387e-04
1.451636385172605515e-02
-1.677949626355257351e-06
3.647561825346201658e-04
1.438169032335281372e-01
-9.361196425743401051e-04
-3.189468011260032654e-02
-1.638599883335700724e-06
6.044095382094383240e-03
-2.289463882334530354e-04
-6.852316670119762421e-03
-6.613011646550148726e-05
-7.628493767697364092e-05
-9.577537421137094498e-04
-3.539249519235454500e-05
5.556352902203798294e-03
5.612136010313406587e-05
3.928446858481038362e-06
1.090850085020065308e-01
2.132049412466585636e-04
-1.164621710777282715e-01
-1.147136092185974121e-03
-2.046354673802852631e-02
6.138391472632065415e-05
-5.348587408661842346e-03
-2.611518539197277278e-06
8.913763449527323246e-04
7.730311481282114983e-04
-1.229740337294060737e-05
-2.824644148349761963e-01
3.941472095903009176e-05
7.164860726334154606e-04
-3.497487604618072510e-01
-1.190126386063639075e-05
-5.885230348212644458e-05
1.732381526380777359e-03
1.217081444337964058e-04
-1.068586716428399086e-03
-1.837636926211416721e-03
4.517222696449607611e-04
1.217785198241472244e-02
-7.579976692795753479e-03
