-1.500166952610015869e-01
1.512075215578079224e-01
-1.350523233413696289e-01
-1.288448572158813477e-01
1.278053969144821167e-01
-1.350232511758804321e-01
1.132574081420898438e-01
-1.107819229364395142e-01
1.324596405029296875e-01
-1.053832769393920898e-01
1.497752815485000610e-01
1.426203995943069458e-01
1.319414377212524414e-01
1.327626705169677734e-01
-1.204732358455657959e-01
1.050194799900054932e-01
-1.373051106929779053e-01
-1.055512204766273499e-01
1.038808375597000122e-01
-1.282957494258880615e-01
-1.330573111772537231e-01
-1.277708858251571655e-01
1.271431595087051392e-01
1.325408816337585449e-01
-1.092956885695457458e-01
1.213039681315422058e-01
1.286599934101104736e-01
-1.017707213759422302e-01
1.394581496715545654e-01
-1.354081481695175171e-01
1.017509549856185913e-01
-1.265256106853485107e-01
-1.201224550604820251e-01
-1.170098930597305298e-01
-1.530259549617767334e-01
-1.003015190362930298e-01
-7.159817218780517578e-02
7.007791101932525635e-02
-8.510702848434448242e-02
7.944995164871215820e-02
8.309359103441238403e-02
9.213583171367645264e-02
7.766474038362503052e-02
7.762411981821060181e-02
-8.729425072669982910e-02
5.660353228449821472e-02
8.837956190109252930e-02
-6.384364515542984009e-02
-8.444407582283020020e-02
-7.507029920816421509e-02
1.005129441618919373e-01
1.113085001707077026e-01
9.296932816505432129e-02
-7.589884102344512939e-02
9.889210760593414307e-02
-6.146350130438804626e-02
-9.971173107624053955e-02
7.394019514322280884e-02
-6.151416897773742676e-02
-7.800101488828659058e-02
9.349050372838973999e-02
-5.302978307008743286e-02
-8.152593672275543213e-02
4.341324418783187866e-02
8.140242844820022583e-02
6.717979907989501953e-02
-9.159163385629653931e-02
-1.031809449195861816e-01
-9.150395542383193970e-02
-7.134130597114562988e-02
-9.832134097814559937e-02
5.480157583951950073e-02
9.611422568559646606e-02
-6.863772124052047729e-02
-1.156846508383750916e-01
1.305850893259048462e-01
1.043949723243713379e-01
-1.305761188268661499e-01
-1.156917959451675415e-01
-1.092076227068901062e-01
1.346462368965148926e-01
-9.249401837587356567e-02
1.243986189365386963e-01
1.098066642880439758e-01
1.415489315986633301e-01
1.151561737060546875e-01
