-4.493401385843753815e-03
3.565352235455065966e-04
-6.034198403358459473e-02
-5.953309591859579086e-03
7.508622948080301285e-03
-1.322526601143181324e-03
-1.443316340446472168e-01
-4.682178143411874771e-03
1.215019728988409042e-02
1.173944547772407532e-01
-4.034456983208656311e-02
2.008585259318351746e-03
1.430923701263964176e-03
2.201285213232040405e-02
2.697481773793697357e-03
1.896559027954936028e-03
-7.607851148350164294e-05
5.721211433410644531e-03
-4.141532815992832184e-03
1.690355595201253891e-03
7.000602036714553833e-02
6.061072926968336105e-03
-2.005408983677625656e-03
-1.165639143437147141e-02
-1.307280384935438633e-03
1.403182744979858398e-01
2.313954383134841919e-02
-3.135727019980549812e-03
2.407438680529594421e-02
2.003612518310546875e-01
1.192588475532829762e-03
-6.284796446561813354e-02
5.252318084239959717e-02
1.926992647349834442e-02
6.031193956732749939e-02
-3.614530200138688087e-03
-2.149935252964496613e-02
2.284244820475578308e-02
2.382208704948425293e-01
8.127063047140836716e-04
7.516767363995313644e-03
-2.072812318801879883e-01
7.036632299423217773e-02
7.536904886364936829e-04
9.946647100150585175e-03
-1.759435981512069702e-03
-2.033274918794631958e-01
-2.244531176984310150e-03
-5.969992373138666153e-03
1.100374013185501099e-01
-6.586040556430816650e-02
3.394674975425004959e-03
1.181337833404541016e-01
-1.253610663115978241e-02
1.623674994334578514e-03
-2.211833149194717407e-01
-8.973338408395648003e-04
2.468179166316986084e-02
-1.076120533980429173e-03
3.618330135941505432e-02
1.141261160373687744e-01
2.516309265047311783e-03
-5.398652283474802971e-04
2.027070848271250725e-03
-3.403853392228484154e-03
2.162546617910265923e-03
1.441458240151405334e-02
-7.385729998350143433e-02
8.674500510096549988e-03
-4.163491539657115936e-03
-1.204921491444110870e-02
5.744290072470903397e-03
8.328320086002349854e-02
-9.077383438125252724e-04
-1.982961315661668777e-03
8.859711815603077412e-04
3.953888081014156342e-03
-1.279364369111135602e-04
-2.284586196765303612e-03
-3.735212958417832851e-04
9.789936989545822144e-02
1.296589896082878113e-02
-1.799062266945838928e-02
-1.084421644918620586e-03
2.430197596549987793e-02
1.736034750938415527e-01
2.433535642921924591e-03
5.789280985482037067e-04
1.686928910203278065e-03
1.274574100971221924e-01
-5.766714457422494888e-03
3.110301913693547249e-03
3.273621946573257446e-02
-4.830671474337577820e-02
2.108143176883459091e-03
1.096498873084783554e-02
3.474104916676878929e-03
1.348838442936539650e-03
-1.592086106538772583e-01
-1.209566369652748108e-02
-3.866138169541954994e-03
-2.524143457412719727e-01
1.541365520097315311e-03
2.498456524335779250e-06
-3.294761851429939270e-02
-1.122249756008386612e-02
-1.459790319204330444e-01
9.812930598855018616e-03
2.563293324783444405e-03
2.323516382602974772e-04
7.303941249847412109e-02
1.102953217923641205e-02
-1.420018374919891357e-01
6.189016858115792274e-04
3.321445779874920845e-03
2.897403948009014130e-02
3.051003674045205116e-03
-9.406242519617080688e-02
6.101180333644151688e-03
-2.040211260318756104e-01
2.033882737159729004e-01
-1.040155184455215931e-04
-3.118601441383361816e-02
1.145364344120025635e-02
6.808105856180191040e-03
7.528010755777359009e-03
1.745615503750741482e-03
-2.523496979847550392e-03
1.006930470466613770e-01
-2.282873727381229401e-03
-2.251414358615875244e-01
3.592008491978049278e-03
-8.996571600437164307e-02
-1.691795699298381805e-02
1.922593638300895691e-02
1.540331169962882996e-02
-3.380127716809511185e-03
-4.823274444788694382e-03
8.384283864870667458e-04
-2.426155610010027885e-03
2.712435787543654442e-03
1.183361862786114216e-03
2.304742112755775452e-03
-3.720741078723222017e-04
1.707055866718292236e-01
-6.033727549947798252e-04
9.015497751533985138e-03
4.145643208175897598e-03
3.097797161899507046e-04
-2.929035574197769165e-02
1.485910033807158470e-03
-4.097219556570053101e-03
-1.967989839613437653e-02
-1.940843882039189339e-03
7.870224304497241974e-03
-3.736419836059212685e-03
4.291992634534835815e-03
-1.526041794568300247e-02
2.148970961570739746e-03
5.988872796297073364e-02
2.365162828937172890e-03
-2.884578891098499298e-03
8.654067292809486389e-03
-2.436969801783561707e-02
-1.683890819549560547e-01
4.463910125195980072e-03
-9.343275800347328186e-03
-4.139638040214776993e-03
-3.034039773046970367e-02
-2.242275513708591461e-03
-3.028884343802928925e-02
1.675009354948997498e-02
-2.857011975720524788e-03
5.360717698931694031e-02
-2.914102282375097275e-03
-3.992192447185516357e-03
9.543865174055099487e-02
-1.647887052968144417e-03
-4.873210564255714417e-03
3.414453472942113876e-03
-4.138270393013954163e-02
3.749497234821319580e-03
-9.747656993567943573e-03
-3.888229280710220337e-02
-7.312302011996507645e-03
1.307679265737533569e-01
-1.869070082902908325e-01
-1.939164698123931885e-01
-9.060804732143878937e-03
1.120259519666433334e-02
-1.378280669450759888e-01
-7.226364105008542538e-04
3.863414982333779335e-03
8.701665699481964111e-02
-2.884436631575226784e-03
2.595445513725280762e-01
-3.058416396379470825e-02
-2.180201234295964241e-03
-1.029506325721740723e-03
1.018438022583723068e-02
