-1.955097541213035583e-02
7.099120412021875381e-04
1.019119694828987122e-01
-2.010991983115673065e-02
-1.877621049061417580e-03
-1.883262186311185360e-03
7.828630506992340088e-02
3.059118054807186127e-03
2.694414369761943817e-02
-7.802516967058181763e-02
9.570110589265823364e-02
-6.818355759605765343e-04
1.904978882521390915e-03
-9.507056325674057007e-02
5.054115899838507175e-04
2.061025705188512802e-03
-1.574430987238883972e-02
-1.674000959610566497e-04
5.797162302769720554e-04
-1.412574783898890018e-04
-1.099912300705909729e-01
2.782448194921016693e-03
-1.440024789189919829e-04
8.374326676130294800e-02
-8.268650854006409645e-04
-1.928040385246276855e-01
-4.258207231760025024e-02
3.885360900312662125e-03
6.834956258535385132e-02
-1.505388468503952026e-01
-6.528002995764836669e-05
-4.274828732013702393e-02
-8.221683651208877563e-02
-7.043173164129257202e-02
-1.746627986431121826e-01
5.311978980898857117e-02
5.081139970570802689e-03
-2.517868764698505402e-02
-1.533843427896499634e-01
-3.058781148865818977e-04
-3.520542010664939880e-02
4.647240042686462402e-02
-1.488806903362274170e-01
-4.874877777183428407e-05
7.688900083303451538e-02
4.816962464246898890e-04
2.121630460023880005e-01
3.848372772336006165e-02
-6.015678495168685913e-02
-1.859401911497116089e-02
1.779493838548660278e-01
-5.967401375528424978e-05
-1.057832911610603333e-01
-3.915190696716308594e-02
-1.857560127973556519e-02
1.103850156068801880e-01
1.208257395774126053e-03
1.460822857916355133e-02
-9.300908073782920837e-03
3.780107945203781128e-02
-2.308116294443607330e-02
-2.111906942445784807e-04
4.355122800916433334e-04
-5.474326826515607536e-05
4.859511100221425295e-04
-4.390872782096266747e-04
2.940634265542030334e-02
1.337130665779113770e-01
-5.685041472315788269e-02
-6.448930129408836365e-03
-3.388891369104385376e-02
2.008564583957195282e-02
-2.045591026544570923e-01
7.562903920188546181e-04
-3.725667193066328764e-05
-3.516408428549766541e-02
-3.200614359229803085e-03
1.660249941051006317e-02
3.159822081215679646e-04
-8.615863625891506672e-04
-4.751280415803194046e-03
2.309855073690414429e-03
2.550601586699485779e-02
5.209054506849497557e-05
2.989884652197360992e-02
-1.161764487624168396e-01
3.544200211763381958e-02
-1.152120414189994335e-03
-1.442972006771015003e-05
2.553650643676519394e-03
-5.975688993930816650e-02
-1.147007220424711704e-03
-2.296096272766590118e-02
5.192421749234199524e-02
1.292399480007588863e-03
1.239321287721395493e-02
-8.019373053684830666e-04
-3.818054392468184233e-04
1.985140889883041382e-01
-1.653214544057846069e-02
-7.523701060563325882e-04
-3.811492770910263062e-02
-3.675211966037750244e-02
-3.661419032141566277e-04
-6.549620628356933594e-02
1.351229846477508545e-01
5.130123347043991089e-02
3.410527855157852173e-02
-2.509583719074726105e-03
-3.715875372290611267e-02
1.020826026797294617e-02
6.678231060504913330e-02
-2.464184723794460297e-02
-1.373212086036801338e-03
2.042227983474731445e-02
-1.586477756500244141e-01
-1.489869609940797091e-04
1.685054004192352295e-01
4.727811086922883987e-03
2.105726152658462524e-01
-1.565842926502227783e-01
-1.666153839323669672e-04
5.424671247601509094e-02
1.787150651216506958e-02
2.624076558277010918e-03
1.955283433198928833e-02
-3.361397248227149248e-04
5.910819163545966148e-04
-1.830493509769439697e-01
5.570552893914282322e-04
7.065927982330322266e-02
-1.855788286775350571e-04
1.580733954906463623e-01
-3.552211448550224304e-02
4.013150930404663086e-02
4.119378328323364258e-02
5.797605263069272041e-04
-1.824041682993993163e-04
-8.418917655944824219e-02
6.876066327095031738e-04
9.391426574438810349e-04
5.259505123831331730e-04
-1.963662216439843178e-04
-7.827991992235183716e-02
-6.949242204427719116e-02
1.756532676517963409e-02
-8.046523481607437134e-02
3.195988538209348917e-04
1.820537909225095063e-05
-9.484217502176761627e-03
-2.191182971000671387e-02
8.119877893477678299e-04
1.006058789789676666e-02
4.539973815553821623e-05
1.352243009023368359e-03
4.413291026139631867e-05
1.608009636402130127e-02
4.566933214664459229e-02
1.494188909418880939e-04
-1.936822012066841125e-02
-8.949081529863178730e-05
3.508013486862182617e-02
-1.543076187372207642e-01
-2.771251648664474487e-02
1.571947038173675537e-01
-9.132931591011583805e-04
-7.244015485048294067e-02
3.349409962538629770e-04
-1.494612451642751694e-02
6.748332816641777754e-05
2.499258518218994141e-02
-5.550825968384742737e-02
5.537881861528148875e-06
-8.014612644910812378e-02
1.370912883430719376e-03
1.356478664092719555e-03
1.014205664396286011e-01
7.454116712324321270e-05
1.058140248060226440e-01
-8.845526725053787231e-02
-6.255366653203964233e-02
-4.722557787317782640e-05
2.761965990066528320e-02
-1.325054168701171875e-01
4.535564687103033066e-03
-1.271477639675140381e-01
7.666011154651641846e-02
-2.499889023602008820e-02
-3.573141619563102722e-02
-8.472242206335067749e-02
-3.049970567226409912e-01
4.659596306737512350e-04
-9.442213922739028931e-04
-8.628848195075988770e-02
-7.827523222658783197e-05
-1.333762258291244507e-01
2.512338571250438690e-02
-8.552889339625835419e-04
5.195977538824081421e-02
3.120272420346736908e-02
