1.638568490743637085e-01 1.173113062977790833e-01 -9.703502804040908813e-02 4.817002415657043457e-01 -7.924108952283859253e-02 1.750795394182205200e-01 -4.227474629878997803e-01 -1.449573487043380737e-01 3.251875340938568115e-01 2.149710655212402344e-01 1.997668743133544922e-01 1.955230981111526489e-01 1.907939463853836060e-01 6.941740959882736206e-02 2.429039031267166138e-01 2.918262481689453125e-01 -5.260747075080871582e-01 5.766419768333435059e-01 5.144236087799072266e-01 -4.676105380058288574e-01 2.113450765609741211e-01 -1.939339339733123779e-01 3.902682662010192871e-01 6.784659624099731445e-01 -7.995956391096115112e-02 3.197868540883064270e-02 4.473495781421661377e-01 -7.986295968294143677e-02 -6.271160393953323364e-02 3.609028160572052002e-01 1.936207413673400879e-01 2.699981927871704102e-01 1.880657672882080078e-01 6.106795668601989746e-01 2.613320350646972656e-01 9.409830719232559204e-02 1.610346883535385132e-01 -2.316143363714218140e-01 4.819529652595520020e-01 -8.118247240781784058e-02 5.417886376380920410e-01 -1.466824021190404892e-02 2.060535252094268799e-01 4.160827398300170898e-02 7.616931796073913574e-01 3.696073889732360840e-01 -1.127814725041389465e-01 1.535146236419677734e-01 5.734768509864807129e-01 2.989344000816345215e-01 -1.521601676940917969e-01 -8.215584605932235718e-02 -1.810006424784660339e-02 5.265933871269226074e-01 2.342819124460220337e-01 2.645300328731536865e-01 -2.650145590305328369e-01 9.623234719038009644e-02 -1.812816113233566284e-01 5.386349558830261230e-01 -4.585601091384887695e-01 5.588989257812500000e-01 -4.238667190074920654e-01 2.318274825811386108e-01 2.356323748826980591e-01 -5.156013369560241699e-02 1.964677572250366211e-01 2.355095297098159790e-01 -2.188531905412673950e-01 2.931527793407440186e-01 -3.226649016141891479e-03 -2.207823842763900757e-01 -2.016672044992446899e-01 -6.849130988121032715e-02 2.729474902153015137e-01 1.465902328491210938e-01 -2.489312589168548584e-01 5.694923996925354004e-01 -1.587662994861602783e-01 1.119934171438217163e-01 -8.803601562976837158e-02 -7.583553344011306763e-02 3.903061747550964355e-01 -7.915663123130798340e-01 1.218555420637130737e-01 1.341159194707870483e-01 2.396250516176223755e-01 -7.361315190792083740e-02 1.180920824408531189e-01 -4.410994648933410645e-01 1.174926534295082092e-01 1.429713219404220581e-01 -2.373558133840560913e-01 1.906454861164093018e-01 -5.342605710029602051e-02 4.969162642955780029e-01 -1.323793083429336548e-01 5.330709367990493774e-02 1.998134106397628784e-01 -3.643829524517059326e-01 8.654747903347015381e-02 -4.027736932039260864e-02 -2.029503732919692993e-01 2.508558332920074463e-02 -4.961312189698219299e-02 4.988631978631019592e-02 5.573258996009826660e-01 4.332478642463684082e-01 -4.175606742501258850e-02 2.509256601333618164e-01 4.872441589832305908e-01 -7.875266671180725098e-02 6.307446956634521484e-01 -2.739815413951873779e-01 -1.487886160612106323e-01 -8.009503483772277832e-01 -1.692566461861133575e-02 -6.319439411163330078e-01 1.715833544731140137e-01 3.325193524360656738e-01 -4.088392853736877441e-01 -2.864904403686523438e-01 5.109263062477111816e-01 -3.840989470481872559e-01 3.647736608982086182e-01 1.941286474466323853e-01 -2.392400801181793213e-01 -1.876428723335266113e-01
3.424178063869476318e-02 -3.061572909355163574e-01 -4.283907637000083923e-02 -1.866239607334136963e-01 4.366542026400566101e-02 -1.899280995130538940e-01 -4.462132751941680908e-01 -1.575569212436676025e-01 7.920006662607192993e-02 8.678992092609405518e-02 -4.862229228019714355e-01 -5.666808038949966431e-02 1.227601245045661926e-01 1.551004648208618164e-01 1.107814908027648926e-02 4.946741461753845215e-01 5.611835792660713196e-02 7.176222652196884155e-02 2.047735005617141724e-01 3.787786066532135010e-01 -9.279999881982803345e-02 -7.638250477612018585e-03 1.912202984094619751e-01 -1.081630811095237732e-01 -2.361599206924438477e-01 -1.637489348649978638e-01 1.715213805437088013e-02 -2.008996158838272095e-01 -1.518766582012176514e-01 9.361863881349563599e-02 2.357614487409591675e-01 -4.852578043937683105e-02 2.932193875312805176e-01 -1.490906924009323120e-01 1.899049803614616394e-02 -1.659582257270812988e-01 2.781192064285278320e-01 3.346665203571319580e-01 2.719632983207702637e-01 2.458600560203194618e-03 3.892428874969482422e-01 -9.238523989915847778e-02 1.849290877580642700e-01 1.322729289531707764e-01 1.867310255765914917e-01 2.171206474304199219e-01 1.534403115510940552e-02 1.837547272443771362e-01 -1.253380775451660156e-01 -2.748956382274627686e-01 1.964095830917358398e-01 -5.470983684062957764e-03 -2.007597982883453369e-01 -2.249427139759063721e-01 -7.937910966575145721e-03 8.912934362888336182e-02 -2.379903346300125122e-01 -1.986624300479888916e-01 -8.204518258571624756e-02 -2.833362817764282227e-01 -5.001144483685493469e-02 8.680476248264312744e-02 5.811021849513053894e-02 3.179504349827766418e-02 2.087893635034561157e-01 2.557291984558105469e-01 -9.845917671918869019e-02 -3.953506797552108765e-02 -2.108754515647888184e-01 1.650436371564865112e-01 1.235924288630485535e-01 -8.540076762437820435e-02 -1.619353294372558594e-01 -1.567930281162261963e-01 6.013555824756622314e-02 3.138449788093566895e-01 -5.652709677815437317e-02 4.634926840662956238e-02 1.478850841522216797e-01 1.449003349989652634e-02 3.458035886287689209e-01 -9.962703287601470947e-02 -1.051899492740631104e-01 7.246858440339565277e-03 -2.533787786960601807e-01 -8.245588839054107666e-02 5.550374984741210938e-01 -2.155607491731643677e-01 -4.256256669759750366e-02 -6.474661827087402344e-02 -2.504401467740535736e-02 -2.339189499616622925e-02 -1.333152353763580322e-01 5.991584807634353638e-02 4.724067747592926025e-01 -3.750614449381828308e-02 5.281297490000724792e-03 -3.257948905229568481e-02 -4.145662784576416016e-01 -8.599454909563064575e-02 -3.315576016902923584e-01 3.322813510894775391e-01 7.234191149473190308e-02 1.767388731241226196e-01 6.797977536916732788e-02 1.510741114616394043e-01 -2.066396176815032959e-01 -2.214928567409515381e-01 3.913526237010955811e-01 5.091454461216926575e-02 2.937292158603668213e-01 2.864928543567657471e-02 2.013158649206161499e-01 -9.886171817779541016e-01 8.497350662946701050e-02 -5.982761383056640625e-01 -4.521384537220001221e-01 -1.019347012042999268e-01 5.286104977130889893e-03 1.276613324880599976e-01 1.343973577022552490e-01 6.841339915990829468e-02 3.954474627971649170e-01 -2.715926170349121094e-01 2.708987891674041748e-01 1.627975404262542725e-01 -1.179667189717292786e-01 -5.808418150991201401e-03
9.311932325363159180e-02 3.164071962237358093e-02 2.468515187501907349e-01 -1.086720451712608337e-01 1.372899413108825684e-01 -6.379643827676773071e-02 -9.879551827907562256e-02 -6.954426765441894531e-01 -2.904422879219055176e-01 4.708052799105644226e-02 -4.587235674262046814e-02 8.977222256362438202e-03 -1.290483474731445312e-01 1.723447144031524658e-01 1.368561238050460815e-01 9.019539505243301392e-02 -2.928909659385681152e-01 1.530220508575439453e-01 2.545762956142425537e-01 7.597357034683227539e-02 -8.592285960912704468e-02 -1.911210864782333374e-01 2.598482072353363037e-01 -1.893682330846786499e-01 -7.909929752349853516e-02 1.045820116996765137e-01 -1.112864390015602112e-01 9.258161485195159912e-02 2.015722841024398804e-01 4.145940020680427551e-02 -2.276483736932277679e-02 4.254101961851119995e-02 -9.912691265344619751e-02 1.503637731075286865e-01 1.215459853410720825e-01 9.624417871236801147e-02 1.476792097091674805e-01 1.078120172023773193e-01 7.581347823143005371e-01 -3.693354725837707520e-01 -1.279153972864151001e-01 -1.540923565626144409e-01 6.362089514732360840e-02 2.835537493228912354e-01 7.751085609197616577e-02 -4.040632247924804688e-01 8.262226730585098267e-02 -1.105714440345764160e-01 7.196323573589324951e-02 -1.007926091551780701e-01 -2.521687746047973633e-01 -2.342652063816785812e-03 5.201936364173889160e-01 -1.706114783883094788e-02 3.027358092367649078e-02 1.356727331876754761e-01 1.855493932962417603e-01 2.733406722545623779e-01 1.337561607360839844e-01 -1.832328438758850098e-01 -1.150036305189132690e-01 -4.826440215110778809e-01 -2.925094068050384521e-01 -1.396081596612930298e-01 7.331165671348571777e-02 -7.592933177947998047e-01 1.954545676708221436e-01 2.988218329846858978e-02 1.782998442649841309e-01 -7.459825277328491211e-01 -2.658983506262302399e-02 -6.350970827043056488e-03 4.532850533723831177e-02 4.917480051517486572e-01 2.644860148429870605e-01 2.875683307647705078e-01 -3.155301213264465332e-01 1.971965283155441284e-01 -1.028977494570426643e-04 5.307286232709884644e-02 -2.743201851844787598e-01 1.914035975933074951e-01 1.732482910156250000e-01 -5.022294446825981140e-02 -4.188229739665985107e-01 -1.515527665615081787e-01 -1.916243135929107666e-01 4.020360708236694336e-01 2.805315554141998291e-01 -2.399328723549842834e-02 -5.374269187450408936e-02 9.808186441659927368e-02 3.009390532970428467e-01 1.365454643964767456e-01 -3.113367781043052673e-02 6.691174954175949097e-02 2.003100365400314331e-01 -2.671471536159515381e-01 2.355243824422359467e-02 3.426703391596674919e-03 1.160878390073776245e-01 -2.995387315750122070e-01 -3.091764152050018311e-01 -9.725052863359451294e-03 -1.561029702425003052e-01 -6.625817716121673584e-02 1.113435253500938416e-03 -4.932362139225006104e-01 -8.291823863983154297e-01 1.181997507810592651e-01 8.089777082204818726e-02 -5.075183138251304626e-02 -1.280172728002071381e-02 5.777215957641601562e-01 4.654541984200477600e-02 1.663172394037246704e-01 9.038257598876953125e-02 -4.957514405250549316e-01 4.206722080707550049e-01 6.987401843070983887e-01 -2.563311159610748291e-02 4.783313870429992676e-01 9.907406568527221680e-02 -3.230614960193634033e-01 -1.891152113676071167e-01 -7.868194580078125000e-02 -4.098204672336578369e-01 -1.607019156217575073e-01
-1.733996570110321045e-01 -7.506997883319854736e-02 -1.545070670545101166e-02 2.312953174114227295e-01 -1.887872219085693359e-01 -1.292611062526702881e-01 -5.149848461151123047e-01 -3.030784726142883301e-01 1.017071902751922607e-01 1.333141177892684937e-01 -3.084269165992736816e-01 3.125684559345245361e-01 8.690471202135086060e-02 -3.452716767787933350e-01 -3.086399473249912262e-02 -2.314099073410034180e-01 3.652044385671615601e-02 -1.039133369922637939e-01 -2.368009239435195923e-01 7.587537169456481934e-02 -1.371815949678421021e-01 -8.541118353605270386e-02 -3.622299432754516602e-01 6.737064570188522339e-02 -3.932706117630004883e-01 -2.187324464321136475e-01 1.465727090835571289e-01 9.289187146350741386e-04 -4.575347006320953369e-01 8.165770769119262695e-02 -7.100824266672134399e-02 6.372352242469787598e-01 7.398374378681182861e-02 4.083185195922851562e-01 -3.576847612857818604e-01 6.065209507942199707e-01 3.499412536621093750e-01 3.341167867183685303e-01 2.376772016286849976e-01 -2.909749150276184082e-01 -8.720254898071289062e-02 2.669948711991310120e-02 8.955817669630050659e-02 -4.468873888254165649e-02 -9.867367334663867950e-03 -1.386063173413276672e-02 -3.022676110267639160e-01 -3.791408240795135498e-01 -7.533426582813262939e-02 -3.377911448478698730e-01 -1.158763691782951355e-01 -3.563314080238342285e-01 -1.919565722346305847e-02 -1.796860694885253906e-01 -6.731091439723968506e-02 7.627298831939697266e-01 -6.122043132781982422e-01 1.756519675254821777e-01 -5.169998407363891602e-01 -3.143865615129470825e-02 -4.056341201066970825e-02 -2.573554515838623047e-01 -2.083882838487625122e-01 -1.061213314533233643e-01 1.551041901111602783e-01 1.928584575653076172e-01 2.343070879578590393e-02 1.910748928785324097e-01 3.475343585014343262e-01 2.132235765457153320e-01 4.688015207648277283e-02 2.012647688388824463e-01 3.305507600307464600e-01 -2.343407124280929565e-01 1.812130510807037354e-01 -4.724621474742889404e-01 -2.979631125926971436e-01 -4.849105179309844971e-01 -8.249662518501281738e-01 1.545435041189193726e-01 -2.451650500297546387e-01 5.849439650774002075e-02 2.029790729284286499e-01 -2.869531512260437012e-01 1.702315956354141235e-01 1.446354836225509644e-01 -6.100255995988845825e-02 -3.133711516857147217e-01 -1.408098191022872925e-01 -3.598730638623237610e-02 2.474860101938247681e-01 -2.646838724613189697e-01 -3.692139983177185059e-01 3.203739523887634277e-01 -2.367769926786422729e-02 1.854194998741149902e-01 8.575654029846191406e-02 -5.224580764770507812e-01 1.516479104757308960e-01 -2.069910466670989990e-01 2.501243054866790771e-01 4.034923911094665527e-01 2.182016074657440186e-01 -3.338893130421638489e-02 1.205692812800407410e-01 1.264340728521347046e-01 7.591203451156616211e-01 2.231492698192596436e-01 -9.442129731178283691e-01 7.878559082746505737e-02 1.651848107576370239e-01 -1.057560294866561890e-01 2.014365047216415405e-01 -8.538821339607238770e-02 4.318209886550903320e-01 1.972206085920333862e-01 8.174540102481842041e-02 1.064494326710700989e-01 4.943341910839080811e-01 2.109137549996376038e-02 7.703871279954910278e-02 2.614666819572448730e-01 3.220013678073883057e-01 3.026975691318511963e-01 1.682009994983673096e-01 -7.201243638992309570e-01 9.881164133548736572e-02 -3.059632182121276855e-01
-1.193687692284584045e-01 -1.950426846742630005e-01 2.646375894546508789e-01 1.026910245418548584e-01 -7.336453199386596680e-01 7.124466355890035629e-03 1.060709133744239807e-01 3.052934259176254272e-02 -5.084310173988342285e-01 -1.344069372862577438e-02 -4.188888669013977051e-01 -7.857026904821395874e-02 1.621089428663253784e-01 -6.494093686342239380e-02 4.416536167263984680e-02 -2.850838303565979004e-01 -3.860075473785400391e-01 -7.256194949150085449e-02 3.189774155616760254e-01 2.119773924350738525e-01 -3.227396607398986816e-01 -2.840818092226982117e-02 -8.724601566791534424e-02 5.625758171081542969e-01 -1.120285540819168091e-01 -2.166646718978881836e-02 -3.126718103885650635e-02 9.561677277088165283e-02 1.335150152444839478e-01 -3.704608678817749023e-01 1.077324803918600082e-02 -7.942210137844085693e-02 -2.922075428068637848e-02 -2.391063421964645386e-01 -3.493080735206604004e-01 -1.433707624673843384e-01 2.224006354808807373e-01 1.335626542568206787e-01 1.587750464677810669e-01 2.877761125564575195e-01 -2.118095755577087402e-01 -2.191877961158752441e-01 3.498588129878044128e-02 -8.622694760560989380e-02 -2.231378257274627686e-01 -2.574306428432464600e-01 1.738293468952178955e-01 2.413773387670516968e-01 -7.699074689298868179e-03 1.837251931428909302e-01 -3.929313421249389648e-01 4.501377046108245850e-02 -1.033780574798583984e-01 2.471070289611816406e-01 -1.605682820081710815e-01 -1.084149181842803955e-01 1.934388279914855957e-02 -4.968402534723281860e-02 -1.026149392127990723e-01 2.394584417343139648e-01 -1.022558212280273438e-01 2.040705084800720215e-02 -3.452871143817901611e-01 -1.292915493249893188e-01 -4.889490902423858643e-01 3.069578409194946289e-01 -3.914938569068908691e-01 -1.528668701648712158e-01 -4.832385480403900146e-02 -1.454093158245086670e-01 -1.875590346753597260e-02 3.611479401588439941e-01 -5.019269138574600220e-02 8.088340051472187042e-03 2.804715335369110107e-01 5.335040092468261719e-01 -1.054977476596832275e-01 -1.237810254096984863e-01 8.710981346666812897e-03 6.393805146217346191e-03 6.966981291770935059e-02 -4.243637621402740479e-02 1.889343559741973877e-01 1.623531579971313477e-01 -1.379254162311553955e-01 -2.761231660842895508e-01 3.507511019706726074e-01 2.997307479381561279e-01 -2.257127612829208374e-01 1.549259573221206665e-01 5.047461763024330139e-02 -1.510097831487655640e-01 2.606528401374816895e-01 -6.301297992467880249e-02 3.367008641362190247e-02 3.013420104980468750e-01 8.296024054288864136e-02 -1.980783417820930481e-02 -1.476616263389587402e-01 -2.944675683975219727e-01 -1.870303414762020111e-02 -1.778930723667144775e-01 2.055973261594772339e-01 -2.763703763484954834e-01 -1.692719012498855591e-01 -9.072959423065185547e-02 7.576396688818931580e-03 -6.106956303119659424e-02 2.606264054775238037e-01 2.358940802514553070e-02 -2.982278764247894287e-01 -5.221226438879966736e-02 5.984516814351081848e-02 -2.864998579025268555e-01 -3.114389777183532715e-01 4.066551625728607178e-01 -2.336942851543426514e-01 4.670690596103668213e-01 -3.842171430587768555e-01 1.828382462263107300e-01 1.264043599367141724e-01 -3.477600216865539551e-01 -4.717825353145599365e-02 1.690978407859802246e-01 -2.173161357641220093e-01 2.876257151365280151e-02 4.189244657754898071e-02 2.317106872797012329e-01
-4.024227708578109741e-02 1.159903481602668762e-01 1.895518600940704346e-01 -3.189156651496887207e-01 2.078725695610046387e-01 -6.518576741218566895e-01 -1.452512890100479126e-01 4.311310872435569763e-02 2.831235527992248535e-01 4.930000007152557373e-01 9.147824347019195557e-02 1.966586410999298096e-01 -5.061324238777160645e-01 -4.934316128492355347e-02 -3.407773077487945557e-01 -1.327219456434249878e-01 3.932905793190002441e-01 1.745058745145797729e-01 2.029897272586822510e-01 7.548905909061431885e-02 4.256504029035568237e-02 -3.585191210731863976e-03 -3.204934597015380859e-01 4.066124930977821350e-02 -2.828518450260162354e-01 -1.820532679557800293e-01 1.349493265151977539e-01 -7.497643120586872101e-03 2.277604639530181885e-01 8.740693330764770508e-03 -1.172035001218318939e-02 1.337066590785980225e-01 7.259087264537811279e-02 2.404774278402328491e-01 -3.368683904409408569e-02 -8.107374608516693115e-02 -5.939953029155731201e-02 -1.371036618947982788e-01 -1.496235132217407227e-01 -2.113792598247528076e-01 2.634126543998718262e-01 -5.405107513070106506e-02 -2.113319933414459229e-01 6.751956790685653687e-02 -5.156834051012992859e-02 4.705769196152687073e-02 3.480508029460906982e-01 9.649110585451126099e-02 -3.182547912001609802e-02 4.936508089303970337e-02 -1.009722128510475159e-01 1.048842538148164749e-02 1.912059038877487183e-01 2.920970618724822998e-01 1.107566803693771362e-01 -1.095306477509438992e-03 -2.430770546197891235e-01 -1.985567361116409302e-01 -2.168286740779876709e-01 9.340275079011917114e-02 5.901218950748443604e-02 2.583299875259399414e-01 -6.901866942644119263e-02 -1.159838512539863586e-01 3.928451612591743469e-02 -3.677467107772827148e-01 1.618548184633255005e-01 -1.296152733266353607e-02 1.568640172481536865e-01 7.129821181297302246e-02 -1.315415054559707642e-01 3.606016049161553383e-03 -4.187643826007843018e-01 -1.279868483543395996e-01 2.375898696482181549e-02 -3.788920342922210693e-01 1.277229338884353638e-01 3.476536571979522705e-01 4.966654479503631592e-01 -7.781838625669479370e-02 8.667696267366409302e-02 1.913158409297466278e-02 -2.304791063070297241e-01 -8.150158450007438660e-03 4.059183001518249512e-01 1.207602769136428833e-01 -2.505939006805419922e-01 1.691660098731517792e-02 1.754621416330337524e-01 3.818183764815330505e-02 -1.444208920001983643e-01 -3.181055486202239990e-01 -1.684525310993194580e-01 7.185528427362442017e-02 7.075733691453933716e-02 2.801537215709686279e-01 4.345934838056564331e-02 8.325831592082977295e-02 -5.789759755134582520e-02 -2.551582455635070801e-01 3.422611355781555176e-01 4.125541150569915771e-01 3.196299374103546143e-01 -1.029082387685775757e-01 -6.376969069242477417e-02 7.301777601242065430e-02 -8.306051790714263916e-02 5.181783437728881836e-01 -3.815540075302124023e-01 1.065905168652534485e-01 1.298954039812088013e-01 -2.021233588457107544e-01 -3.120773434638977051e-01 -3.746272763237357140e-03 -1.975800096988677979e-02 5.922099947929382324e-01 -2.663520351052284241e-02 -3.616430237889289856e-02 5.080313608050346375e-02 2.277426235377788544e-02 -1.140886470675468445e-01 -2.395795285701751709e-01 6.699034571647644043e-01 6.059228256344795227e-02 -3.881780803203582764e-02 1.398868113756179810e-01 2.372311949729919434e-01 3.938099741935729980e-02
-1.542254686355590820e-01 -1.835460513830184937e-01 1.422183867543935776e-02 -2.479126900434494019e-01 3.894641622900962830e-02 1.023906618356704712e-01 -2.053498923778533936e-01 -9.107737988233566284e-02 2.867262661457061768e-01 1.737205088138580322e-01 1.724097579717636108e-01 2.298409864306449890e-02 -6.742471456527709961e-02 3.145287036895751953e-01 5.435809120535850525e-02 1.274766325950622559e-01 2.275229990482330322e-01 -3.033045530319213867e-01 -1.800291836261749268e-01 9.533216245472431183e-03 -2.096077054738998413e-01 -1.616968512535095215e-01 -2.604863345623016357e-01 2.218853682279586792e-01 -2.358468770980834961e-01 -2.214046567678451538e-01 2.438188940286636353e-01 5.109228938817977905e-02 -2.838661670684814453e-01 -1.300784945487976074e-01 -2.222563028335571289e-01 -2.115321159362792969e-02 -1.397900283336639404e-01 -4.903039080090820789e-04 -6.965954601764678955e-02 1.676186472177505493e-01 -1.976071856915950775e-02 4.473595917224884033e-01 3.285759314894676208e-02 1.391931474208831787e-01 -4.838747680187225342e-01 -6.734315305948257446e-02 -1.559260021895170212e-02 3.666838747449219227e-04 3.139441311359405518e-01 -1.493874639272689819e-01 1.836246252059936523e-01 2.472755461931228638e-01 5.993961915373802185e-02 -2.318644523620605469e-02 1.715531200170516968e-01 -3.997252881526947021e-02 -3.475857898592948914e-02 -5.762975290417671204e-02 -8.323516696691513062e-02 -1.114602312445640564e-01 1.246797516942024231e-01 1.123646497726440430e-01 4.233281314373016357e-01 1.065799370408058167e-01 -1.238641887903213501e-01 1.060345545411109924e-01 2.585123479366302490e-01 3.930362313985824585e-02 -6.501718610525131226e-02 8.694062381982803345e-02 3.749926015734672546e-02 -2.049904782325029373e-03 -1.058262810111045837e-01 1.664739549160003662e-01 -7.203543931245803833e-02 -1.185018420219421387e-01 -1.510199308395385742e-01 -6.426310539245605469e-02 -2.954899370670318604e-01 8.313170820474624634e-02 -1.646220684051513672e-01 -1.336881816387176514e-01 -2.165761888027191162e-01 4.058999940752983093e-02 -1.372533738613128662e-01 1.013211086392402649e-01 -2.012251764535903931e-01 -1.348031405359506607e-02 1.410370171070098877e-01 3.639648854732513428e-01 -2.627089247107505798e-02 -6.083959713578224182e-02 2.738178893923759460e-02 -2.316872775554656982e-02 5.239824578166007996e-02 -2.214270085096359253e-01 1.371826231479644775e-02 -3.838772773742675781e-01 4.531423002481460571e-02 1.924914866685867310e-01 7.095497846603393555e-02 4.181358963251113892e-02 -2.337908297777175903e-01 1.080722436308860779e-01 -1.159670203924179077e-01 -1.938056647777557373e-01 -1.190370321273803711e-01 -6.422751396894454956e-02 -9.793817251920700073e-02 8.678551018238067627e-02 4.207129180431365967e-01 -1.399481575936079025e-02 -2.952065877616405487e-02 -5.106921773403882980e-03 -9.118443727493286133e-02 -7.784824818372726440e-02 -8.326852321624755859e-02 -5.519056320190429688e-02 -6.739081442356109619e-02 -2.996461391448974609e-01 1.002380922436714172e-01 -8.756522089242935181e-02 1.764556616544723511e-01 -1.430505365133285522e-01 1.075050234794616699e-01 7.941702753305435181e-02 2.072697430849075317e-01 -2.062577158212661743e-01 8.458498865365982056e-03 2.149093151092529297e-01 -1.143128424882888794e-01 -2.901682555675506592e-01
-2.444605827331542969e-01 -1.246451362967491150e-01 -2.112718373537063599e-01 -4.502074792981147766e-02 6.586218718439340591e-03 -3.159467279911041260e-01 -2.024797797203063965e-01 3.071553111076354980e-01 -2.596774101257324219e-01 1.233601663261651993e-02 -4.087224900722503662e-01 -3.791349008679389954e-02 1.676228456199169159e-02 -6.230598315596580505e-02 2.638432979583740234e-01 -1.265467610210180283e-02 -1.784173399209976196e-01 7.304176688194274902e-02 -3.927781879901885986e-01 -1.839964091777801514e-01 -4.014808312058448792e-02 -1.542613953351974487e-01 2.542850673198699951e-01 -2.891107928007841110e-03 -4.711875915527343750e-01 4.284189641475677490e-02 -4.572904855012893677e-02 -1.874922960996627808e-01 2.436763197183609009e-01 1.147198528051376343e-01 -8.739489316940307617e-02 1.384369581937789917e-01 -1.113028749823570251e-01 -3.380478620529174805e-01 -6.798236817121505737e-02 2.390919625759124756e-02 -1.553698331117630005e-01 2.496347874402999878e-01 3.313913047313690186e-01 4.274546355009078979e-02 3.470071256160736084e-01 3.007601760327816010e-02 2.939345240592956543e-01 5.348936468362808228e-02 -1.034377515316009521e-01 7.156086564064025879e-01 2.686299681663513184e-01 5.220503211021423340e-01 -1.540684401988983154e-01 -1.183012872934341431e-01 -2.484516799449920654e-01 2.140066586434841156e-02 -2.017272710800170898e-01 -3.728819489479064941e-01 3.606300950050354004e-01 1.506302654743194580e-01 1.950143277645111084e-01 -2.367685586214065552e-01 -7.024317979812622070e-02 -1.492661386728286743e-01 -1.858374923467636108e-01 -7.384729105979204178e-03 -1.258864253759384155e-01 -1.102403625845909119e-01 1.156144514679908752e-01 -4.627268388867378235e-02 -1.104552224278450012e-01 3.696568310260772705e-01 -8.033117651939392090e-02 -1.043610721826553345e-01 -2.032229602336883545e-01 3.611851483583450317e-02 3.700599819421768188e-02 3.616926968097686768e-01 1.716354191303253174e-01 1.573346704244613647e-01 -3.958972692489624023e-01 1.670318096876144409e-01 -1.606561690568923950e-01 -1.507257968187332153e-01 -1.109696626663208008e-01 -1.777642220258712769e-01 2.783181667327880859e-01 -2.195022068917751312e-02 5.402172729372978210e-02 3.920957446098327637e-01 -5.595899224281311035e-01 7.584105711430311203e-03 1.091903671622276306e-01 -4.216910898685455322e-02 1.104704514145851135e-01 2.180338501930236816e-01 -2.120099663734436035e-01 -3.229942871257662773e-03 7.490681111812591553e-02 -4.724952876567840576e-01 1.228820607066154480e-01 1.995335668325424194e-01 -5.408223271369934082e-01 9.157332777976989746e-02 -1.279583871364593506e-01 -5.107907950878143311e-02 -1.725470274686813354e-01 1.079158261418342590e-01 2.243688851594924927e-01 1.904149726033210754e-02 1.976631283760070801e-01 -5.148886889219284058e-02 -2.872000336647033691e-01 3.280103951692581177e-02 -9.237159043550491333e-02 -1.583896130323410034e-01 -3.027374148368835449e-01 -1.804775297641754150e-01 -3.147890567779541016e-01 -3.699198365211486816e-01 -1.257293671369552612e-01 2.593296468257904053e-01 -8.359718322753906250e-02 4.944474399089813232e-01 -2.298096381127834320e-02 -2.906765043735504150e-01 1.397424042224884033e-01 -3.710973858833312988e-01 1.327130496501922607e-01 -1.317662093788385391e-02 -5.042296275496482849e-02 -2.733230888843536377e-01
-5.494232103228569031e-02 8.656819164752960205e-02 1.271650940179824829e-02 -2.754594981670379639e-01 5.507146716117858887e-01 -2.813627123832702637e-01 -5.613521859049797058e-02 1.766638644039630890e-02 4.257737100124359131e-02 1.893891692161560059e-01 2.401125133037567139e-01 4.020197093486785889e-01 -6.954599022865295410e-01 2.504957616329193115e-01 2.150709480047225952e-01 9.894791245460510254e-02 -3.480054140090942383e-01 -2.978015691041946411e-02 -1.007836833596229553e-01 5.584764759987592697e-03 1.018470376729965210e-01 1.705753989517688751e-02 -4.651490226387977600e-02 5.252038240432739258e-01 2.140977382659912109e-01 -2.068896293640136719e-01 -2.677425444126129150e-01 1.892865449190139771e-01 -2.420553565025329590e-01 6.031003966927528381e-02 -2.023701965808868408e-01 -5.321229621767997742e-02 6.747877597808837891e-02 1.199581772089004517e-01 -1.861639469861984253e-01 -1.296647489070892334e-01 1.094778776168823242e-01 -3.107724189758300781e-01 2.315907031297683716e-01 -1.062475815415382385e-01 -2.005744352936744690e-02 1.899773627519607544e-01 3.938562050461769104e-02 2.007179707288742065e-01 2.342108488082885742e-01 -1.054714769124984741e-01 -1.493025571107864380e-01 -2.916469052433967590e-02 1.203147247433662415e-01 1.958720982074737549e-01 -1.926900148391723633e-01 3.415197134017944336e-01 2.557755112648010254e-01 9.547819197177886963e-02 5.064624547958374023e-01 6.747537851333618164e-02 1.539177298545837402e-01 -2.608588039875030518e-01 -1.490620970726013184e-01 -2.032243311405181885e-01 2.063600718975067139e-01 -3.113046288490295410e-01 -1.234495937824249268e-01 6.263343244791030884e-02 1.228896528482437134e-02 5.588201433420181274e-02 2.370557039976119995e-01 2.625858485698699951e-01 -9.775302559137344360e-02 -3.350388705730438232e-01 -2.388025075197219849e-01 1.259966194629669189e-01 -1.679623872041702271e-01 -9.843214601278305054e-02 -2.894898653030395508e-01 -1.903998851776123047e-02 1.062659025192260742e-01 1.103200111538171768e-02 3.141337931156158447e-01 2.581324577331542969e-01 1.778029203414916992e-01 -9.532484412193298340e-02 -2.992908358573913574e-01 -3.082095384597778320e-01 4.339137971401214600e-01 2.668527960777282715e-01 2.184865474700927734e-01 4.073019921779632568e-01 -1.118582580238580704e-02 7.044205069541931152e-02 1.853801012039184570e-01 -1.416216045618057251e-01 -9.719804674386978149e-02 -3.403958976268768311e-01 -1.292390823364257812e-01 -2.465572580695152283e-02 -1.333193928003311157e-01 -1.962198615074157715e-01 -8.538924157619476318e-02 -2.419360280036926270e-01 1.853015273809432983e-02 1.588961184024810791e-01 1.646221280097961426e-01 -1.673692464828491211e-01 -3.110708296298980713e-01 -1.219846978783607483e-01 -4.230133071541786194e-02 -9.729242324829101562e-02 1.133928447961807251e-01 -3.149660527706146240e-01 1.114672981202602386e-02 -1.549745909869670868e-02 2.477341890335083008e-01 -5.851294100284576416e-02 3.384479582309722900e-01 4.979016259312629700e-02 4.397287592291831970e-02 -2.886632680892944336e-01 1.981110870838165283e-01 -2.998421341180801392e-02 -1.670437902212142944e-01 1.023061797022819519e-01 4.597147181630134583e-02 -1.747756153345108032e-01 -1.477571427822113037e-01 4.802569001913070679e-02 -3.463701307773590088e-01 -9.711354039609432220e-03
8.765739947557449341e-02 3.211560845375061035e-02 -9.017925709486007690e-02 -1.374804079532623291e-01 -1.151932701468467712e-01 1.173036545515060425e-02 -3.096663020551204681e-02 -6.915559619665145874e-02 3.704187870025634766e-01 2.535848617553710938e-01 1.568961739540100098e-01 1.906723827123641968e-01 -1.472258269786834717e-01 -4.537129402160644531e-01 -2.706454135477542877e-03 2.385551780462265015e-01 -5.670716054737567902e-03 -3.617658317089080811e-01 -5.164424329996109009e-02 3.880122303962707520e-01 1.285757720470428467e-01 1.736505478620529175e-01 -1.862495243549346924e-01 -3.968224823474884033e-01 3.758309185504913330e-01 -9.677901118993759155e-02 2.388242334127426147e-01 -3.244498968124389648e-01 2.426292151212692261e-01 -2.928946614265441895e-01 1.243966072797775269e-01 -5.304429680109024048e-03 -1.339648962020874023e-01 2.146572470664978027e-01 -1.138178631663322449e-01 -2.171547152101993561e-02 3.832341134548187256e-01 7.117426395416259766e-02 9.106607735157012939e-02 -9.641567617654800415e-02 -4.110099002718925476e-02 -5.571072921156883240e-02 1.788380146026611328e-01 -1.076728254556655884e-01 -2.585914433002471924e-01 -1.363456547260284424e-01 -1.400950551033020020e-02 -2.512538135051727295e-01 -1.569881439208984375e-01 1.580718159675598145e-01 -1.623919159173965454e-01 -1.322686672210693359e-01 5.263467133045196533e-02 1.287579834461212158e-01 -1.307428032159805298e-01 2.181563675403594971e-01 4.152886271476745605e-01 -1.387505233287811279e-01 1.986073516309261322e-02 -1.915675550699234009e-01 -3.509554266929626465e-02 -4.912136122584342957e-02 -2.063264101743698120e-01 -5.454837903380393982e-02 -4.144546091556549072e-01 -2.442906498908996582e-01 -4.563808739185333252e-01 8.631174266338348389e-02 1.241081357002258301e-01 -1.756141632795333862e-01 8.464641124010086060e-02 8.583327382802963257e-02 1.700682342052459717e-01 -1.123957708477973938e-02 1.807864010334014893e-02 -4.117953777313232422e-01 -1.869979649782180786e-01 -2.314512282609939575e-01 -6.453455239534378052e-02 1.330060809850692749e-01 2.990493550896644592e-02 -1.711793616414070129e-02 -4.385067149996757507e-02 -1.466842442750930786e-01 3.246583342552185059e-01 -1.151399537920951843e-01 3.705747425556182861e-01 6.441787630319595337e-02 5.406529828906059265e-02 2.959582768380641937e-02 7.143707573413848877e-02 -7.944022864103317261e-02 -2.362691015005111694e-01 1.011159420013427734e-01 -2.255200222134590149e-02 -2.725729905068874359e-02 -2.602069079875946045e-01 -6.153369694948196411e-02 -2.327267825603485107e-01 9.460668265819549561e-02 -1.049472987651824951e-01 4.076455533504486084e-01 1.954264640808105469e-01 -6.956420093774795532e-02 3.645032271742820740e-02 -8.227285742759704590e-02 -1.396867334842681885e-01 1.242250800132751465e-01 1.418943405151367188e-01 3.015547394752502441e-01 4.402493685483932495e-02 -7.189732789993286133e-02 2.519066333770751953e-01 -1.463674902915954590e-01 1.303142458200454712e-01 -3.372368514537811279e-01 -2.544747889041900635e-01 4.991915449500083923e-02 1.665798388421535492e-02 6.307454109191894531e-01 1.091569215059280396e-01 -7.562074065208435059e-02 1.047491729259490967e-01 -5.915152840316295624e-03 4.200733080506324768e-02 -3.858708590269088745e-02 2.216550558805465698e-01 -1.193695515394210815e-01
-8.561132475733757019e-03 1.391945499926805496e-02 -2.172503769397735596e-01 -1.147110909223556519e-01 2.100548893213272095e-01 -2.936921119689941406e-01 -1.600843854248523712e-02 -2.089095413684844971e-01 4.398866742849349976e-02 3.581977784633636475e-01 -3.681852221488952637e-01 -2.739402232691645622e-03 8.884400874376296997e-02 2.776428163051605225e-01 4.109659790992736816e-02 7.443047594279050827e-03 -7.862177491188049316e-02 1.625916212797164917e-01 1.388486921787261963e-01 -1.163507178425788879e-01 -1.673581451177597046e-01 1.275386661291122437e-01 2.050269544124603271e-01 -4.195688664913177490e-02 -1.398997157812118530e-01 -7.579007744789123535e-02 -2.154214829206466675e-01 1.996210664510726929e-01 -7.611685991287231445e-02 8.411107957363128662e-02 -1.783678680658340454e-01 -2.400217056274414062e-01 -2.520302683115005493e-02 -2.453366816043853760e-01 -2.909971587359905243e-02 -1.550813615322113037e-01 -1.686008647084236145e-02 1.557310074567794800e-01 8.810332417488098145e-02 -3.772648870944976807e-01 -7.383816689252853394e-02 -1.319225430488586426e-01 -1.569147221744060516e-03 -8.182687312364578247e-02 1.995669305324554443e-01 4.980204254388809204e-02 1.116768047213554382e-01 -3.145593032240867615e-02 1.575438082218170166e-01 -7.831298559904098511e-02 1.031877696514129639e-01 2.784824669361114502e-01 2.020300179719924927e-01 -1.061102896928787231e-01 2.635395526885986328e-02 -1.055102273821830750e-01 1.656372845172882080e-01 -6.670491397380828857e-02 -1.385882049798965454e-01 -3.628491982817649841e-02 -1.092205718159675598e-01 1.533513367176055908e-01 -5.026471987366676331e-02 1.315332055091857910e-01 2.303519845008850098e-02 4.444296006113290787e-03 -1.280115395784378052e-01 9.126156568527221680e-02 -4.338894039392471313e-02 -1.044196262955665588e-01 -1.127232164144515991e-01 -5.110327154397964478e-02 -1.003091968595981598e-02 -1.157407462596893311e-01 6.081026419997215271e-02 2.833594679832458496e-01 1.330341249704360962e-01 -3.944761306047439575e-02 -1.274031251668930054e-01 -1.814615130424499512e-01 7.554604858160018921e-02 1.565584726631641388e-02 -6.328848004341125488e-02 3.048771806061267853e-02 -1.590247154235839844e-01 -1.908886432647705078e-01 -9.297052770853042603e-02 3.065705299377441406e-01 -1.551021169871091843e-02 -7.516004890203475952e-02 -6.635044515132904053e-02 1.450265944004058838e-01 -2.264541685581207275e-01 3.013800270855426788e-02 1.498357504606246948e-01 -2.279539033770561218e-02 4.583895206451416016e-02 1.117037143558263779e-02 3.713375329971313477e-02 5.687537789344787598e-02 -1.675268560647964478e-01 9.181748330593109131e-02 -8.942155539989471436e-02 -1.140286549925804138e-01 3.176591098308563232e-01 7.588573545217514038e-02 -1.183298826217651367e-01 1.109750941395759583e-02 -3.328284919261932373e-01 -1.071223914623260498e-01 2.479961514472961426e-01 -1.109234839677810669e-01 -2.970441579818725586e-01 2.164482884109020233e-02 -1.640693247318267822e-01 1.606203913688659668e-01 -1.123302057385444641e-01 9.909697622060775757e-02 3.635979071259498596e-02 -4.458167850971221924e-01 -1.423710286617279053e-01 -1.369103193283081055e-01 -1.402492970228195190e-01 -9.267074347008019686e-05 -6.398376077413558960e-03 9.592425823211669922e-02 5.519427359104156494e-02 -9.585971129126846790e-04
-1.013691648840904236e-01 1.071500256657600403e-01 -1.439856588840484619e-01 -7.415127754211425781e-02 -2.654763162136077881e-01 1.581492125988006592e-01 -5.116548538208007812e-01 6.850948929786682129e-02 9.020707011222839355e-02 1.829138100147247314e-01 1.614326536655426025e-01 -2.150786854326725006e-02 3.886842727661132812e-01 -1.848984807729721069e-01 -2.490076124668121338e-01 2.447013705968856812e-01 1.509461849927902222e-01 -8.613394945859909058e-02 7.689665257930755615e-02 7.691423594951629639e-02 -7.066071033477783203e-02 1.402203291654586792e-01 -1.131868064403533936e-01 7.562721613794565201e-03 -1.558919996023178101e-01 -8.604265004396438599e-02 1.791739165782928467e-01 2.349355220794677734e-01 -2.745489031076431274e-02 -1.651175022125244141e-01 2.622371613979339600e-01 -1.242863908410072327e-01 -1.714741736650466919e-01 1.111475750803947449e-03 -3.901797831058502197e-01 -1.812147200107574463e-01 4.084553569555282593e-02 2.444554716348648071e-01 2.794803678989410400e-01 4.333393573760986328e-01 -1.610603630542755127e-01 -1.138096302747726440e-02 -9.476164728403091431e-02 -1.127072647213935852e-01 4.281742274761199951e-01 1.614418476819992065e-01 2.212694138288497925e-01 -1.094122305512428284e-01 1.336166858673095703e-01 -1.723855547606945038e-02 1.967997550964355469e-01 2.533288002014160156e-01 -4.964070767164230347e-02 4.126177430152893066e-01 -5.779438093304634094e-02 1.274420600384473801e-02 1.160351186990737915e-01 -6.465690582990646362e-02 -1.058906540274620056e-01 8.774042874574661255e-02 -7.237168401479721069e-02 -2.688403241336345673e-02 -5.026913806796073914e-02 -2.604499757289886475e-01 3.910627067089080811e-01 7.554351538419723511e-02 6.769569008611142635e-04 -3.753636404871940613e-02 8.231066167354583740e-02 -2.626539170742034912e-01 3.408104553818702698e-02 2.822722494602203369e-01 3.189529106020927429e-02 -1.521010845899581909e-01 2.689843997359275818e-02 -1.076948195695877075e-01 6.699039787054061890e-02 -2.052065432071685791e-01 7.436067610979080200e-02 6.773244589567184448e-02 -3.103998601436614990e-01 2.948471531271934509e-02 2.476799637079238892e-01 -1.009869575500488281e-01 3.168734014034271240e-01 2.849602401256561279e-01 1.178216040134429932e-01 -5.034586787223815918e-01 2.306300997734069824e-01 -9.117640554904937744e-02 -2.290522865951061249e-02 -1.660206913948059082e-01 -6.997154653072357178e-02 3.663659468293190002e-02 7.186865061521530151e-02 2.690396308898925781e-01 -2.325743138790130615e-01 2.236960530281066895e-01 -1.686934530735015869e-01 -2.203996032476425171e-01 5.865717306733131409e-02 5.766769647598266602e-01 4.688671976327896118e-02 -2.167389243841171265e-01 -8.462506532669067383e-02 -6.547460705041885376e-02 -1.517792642116546631e-01 -5.974481347948312759e-03 3.156543076038360596e-01 1.980446465313434601e-02 6.272546947002410889e-02 -3.756760060787200928e-01 -1.224219352006912231e-01 -2.795708738267421722e-02 -1.201196480542421341e-02 -7.587709277868270874e-02 -1.049046516418457031e-01 -1.113516539335250854e-01 -6.581372022628784180e-02 2.889210879802703857e-01 -1.881252974271774292e-01 -1.895130574703216553e-01 -8.492524921894073486e-02 1.092676818370819092e-02 -5.838345736265182495e-02 -5.616467073559761047e-02 1.513229757547378540e-01 9.840247035026550293e-02
1.299800872802734375e-01 -3.117137849330902100e-01 2.563609182834625244e-01 -1.461434215307235718e-01 6.725058890879154205e-03 -1.433313637971878052e-01 -2.997032999992370605e-01 -3.889943659305572510e-02 -2.204136997461318970e-01 4.032579958438873291e-01 -4.533456563949584961e-01 1.697377562522888184e-01 -2.771541774272918701e-01 -7.772299647331237793e-02 -1.840918064117431641e-01 1.970799416303634644e-01 2.294737547636032104e-01 5.628135204315185547e-01 -1.178405359387397766e-01 1.253427714109420776e-01 -3.008981421589851379e-02 -7.752554863691329956e-02 -4.174325987696647644e-02 3.984159976243972778e-02 -2.333753108978271484e-01 -5.392148345708847046e-02 -4.451256245374679565e-02 -1.053752284497022629e-02 -1.335477232933044434e-01 -3.325737118721008301e-01 1.199942231178283691e-01 1.834969371557235718e-01 2.504881024360656738e-01 2.022205591201782227e-01 -1.997030526399612427e-01 2.335897535085678101e-01 1.935517489910125732e-01 -3.032798320055007935e-02 1.976641565561294556e-01 -2.829944193363189697e-01 3.373460173606872559e-01 -3.050670027732849121e-01 -7.097611576318740845e-02 1.303368508815765381e-01 6.544075440615415573e-03 -2.758974134922027588e-01 1.296944022178649902e-01 -4.375279545783996582e-01 5.878044292330741882e-02 1.489619761705398560e-01 1.369108259677886963e-01 -1.256160587072372437e-01 -2.651580870151519775e-01 2.598063945770263672e-01 -2.530691027641296387e-01 5.182938575744628906e-01 -6.807903200387954712e-02 -3.179855048656463623e-01 -1.702578812837600708e-01 2.603749036788940430e-01 3.830854594707489014e-02 -7.254903763532638550e-02 1.296457946300506592e-01 -4.005324840545654297e-01 3.160430192947387695e-01 -5.969284474849700928e-02 -9.069762192666530609e-03 6.662129610776901245e-02 -4.634021520614624023e-01 -6.686161756515502930e-01 -2.020242214202880859e-01 2.067975699901580811e-01 -2.427510917186737061e-01 8.777544647455215454e-02 5.609678626060485840e-01 2.970261499285697937e-02 -6.492120027542114258e-02 -8.423267006874084473e-01 8.931418508291244507e-02 4.837586730718612671e-02 -6.144426390528678894e-02 3.660837411880493164e-01 6.032593846321105957e-01 -3.299694359302520752e-01 1.039708554744720459e-01 -1.238678209483623505e-02 1.042598411440849304e-01 -7.282076403498649597e-03 5.981966480612754822e-02 1.754343509674072266e-01 -2.560507059097290039e-01 2.385407239198684692e-01 -3.498999774456024170e-01 -3.903871178627014160e-01 -6.003948673605918884e-02 2.349774092435836792e-01 2.349895387887954712e-01 3.470451831817626953e-01 -1.317730732262134552e-02 -4.225989878177642822e-01 1.332497000694274902e-01 9.187732636928558350e-02 9.451185166835784912e-02 8.834559121169149876e-04 1.287750452756881714e-01 5.110980477184057236e-03 2.197461277246475220e-01 8.522102236747741699e-02 -5.385584831237792969e-01 1.554176956415176392e-01 1.392898708581924438e-01 -1.854105144739151001e-01 -3.014201819896697998e-01 -8.049846887588500977e-01 1.087633669376373291e-01 -2.282930910587310791e-01 -1.830977052450180054e-01 -2.417911961674690247e-02 1.922483593225479126e-01 1.076160650700330734e-02 -2.898153960704803467e-01 -1.483716443181037903e-02 2.283457480370998383e-02 2.976935505867004395e-01 -1.789263039827346802e-01 -2.307828515768051147e-01 -2.823021709918975830e-01 -3.551151156425476074e-01
-1.712892502546310425e-01 -8.894641697406768799e-02 3.957605957984924316e-01 -3.821829259395599365e-01 -3.512610793113708496e-01 8.228939026594161987e-02 6.063714027404785156e-01 -1.956706345081329346e-01 2.908331714570522308e-02 3.452256619930267334e-01 -6.573096662759780884e-02 -2.269843369722366333e-01 -4.032997786998748779e-01 4.889310300350189209e-01 -4.632121920585632324e-01 -2.493337690830230713e-01 -2.119808793067932129e-01 -6.722530722618103027e-02 -1.548894792795181274e-01 2.032340914011001587e-01 1.701581776142120361e-01 3.156030178070068359e-01 1.839762777090072632e-01 3.511330485343933105e-01 8.026257902383804321e-02 1.671634167432785034e-01 7.285542786121368408e-02 1.704715490341186523e-01 -6.124922633171081543e-01 -1.943167746067047119e-01 -2.849499881267547607e-01 -1.188793331384658813e-01 4.247804284095764160e-01 3.781513571739196777e-01 -1.744722723960876465e-01 2.438855767250061035e-01 -1.656558811664581299e-01 2.298923283815383911e-01 2.079303264617919922e-01 1.153657436370849609e-01 1.941460520029067993e-01 1.023233607411384583e-01 1.259353458881378174e-01 1.443286240100860596e-02 6.154736503958702087e-03 1.695315688848495483e-01 -1.604119837284088135e-01 1.111680548638105392e-02 4.028706252574920654e-01 4.562894701957702637e-01 -1.358757317066192627e-01 -2.759948000311851501e-02 -8.647204935550689697e-02 2.090494185686111450e-01 -1.413833945989608765e-01 -2.657368183135986328e-01 1.113951653242111206e-01 -2.912103533744812012e-01 -3.917236030101776123e-01 2.411019057035446167e-01 6.229170039296150208e-02 1.288924068212509155e-01 -1.390558779239654541e-01 2.839551493525505066e-02 -5.589799284934997559e-01 9.759572148323059082e-02 2.310935705900192261e-01 2.148912996053695679e-01 9.327401965856552124e-02 -3.968633115291595459e-01 1.407985836267471313e-01 2.632698416709899902e-01 -1.575481742620468140e-01 -1.729534566402435303e-02 -1.630570590496063232e-01 -4.820554852485656738e-01 2.069224566221237183e-01 -1.808701604604721069e-01 3.262339532375335693e-01 -1.129376441240310669e-01 3.951650559902191162e-01 -7.926396280527114868e-02 -4.512374401092529297e-01 1.523666828870773315e-01 4.954381287097930908e-01 2.963469624519348145e-01 -1.502050906419754028e-01 -1.010547399520874023e+00 4.543468356132507324e-02 -3.027687072753906250e-01 -7.151815295219421387e-02 -5.619893670082092285e-01 -4.179946333169937134e-02 -4.420972242951393127e-02 -5.068693161010742188e-01 3.414880335330963135e-01 -7.040406577289104462e-03 2.534354925155639648e-01 -1.468098163604736328e-01 -4.776836559176445007e-02 9.812577068805694580e-02 5.176141262054443359e-01 -2.136433869600296021e-01 -1.276773810386657715e-01 -4.114472866058349609e-01 -1.119818389415740967e-01 -1.932767033576965332e-01 -1.504230350255966187e-01 9.430471807718276978e-02 3.820115923881530762e-01 6.039077788591384888e-02 4.096643030643463135e-01 -1.090790987014770508e+00 2.412263303995132446e-01 1.272595971822738647e-01 -5.697699189186096191e-01 3.715368732810020447e-02 6.440264731645584106e-02 5.623991787433624268e-02 -2.994925379753112793e-01 -1.204569488763809204e-01 -1.595869362354278564e-01 6.010822653770446777e-01 -9.581344574689865112e-02 -2.737658619880676270e-01 -2.231151908636093140e-01 1.549014598131179810e-01 -1.374172717332839966e-01
-1.874361038208007812e-01 -7.935227453708648682e-02 -1.373638212680816650e-01 2.342765592038631439e-02 3.903504014015197754e-01 -1.149581819772720337e-01 -8.439241051673889160e-01 -2.064586132764816284e-01 8.252739161252975464e-02 2.163247913122177124e-01 -2.309408271685242653e-03 2.535980567336082458e-02 -3.042014539241790771e-01 9.112308174371719360e-02 7.553400844335556030e-02 -4.192785173654556274e-02 2.566244602203369141e-01 2.192982472479343414e-02 -9.347662329673767090e-02 4.556653648614883423e-02 -9.751321375370025635e-02 1.681808084249496460e-01 1.065841689705848694e-02 8.174312114715576172e-02 -1.030499860644340515e-01 5.686615779995918274e-02 1.927527636289596558e-01 -8.611562661826610565e-03 1.497687399387359619e-01 1.377696543931961060e-01 -3.833657130599021912e-02 1.936372369527816772e-01 1.065363064408302307e-01 2.955041229724884033e-01 -3.516893088817596436e-01 -1.983853876590728760e-01 8.710169792175292969e-02 2.418387234210968018e-01 -1.967151761054992676e-01 2.553252279758453369e-01 -2.894150018692016602e-01 -2.907703863456845284e-03 1.103161647915840149e-01 -1.125075519084930420e-01 -1.166280806064605713e-01 -2.109096199274063110e-01 -9.299108386039733887e-02 -3.902716562151908875e-02 -2.423499375581741333e-01 -2.427829355001449585e-01 5.283683538436889648e-01 3.618440777063369751e-02 1.924913823604583740e-01 1.141487881541252136e-01 -1.538056880235671997e-02 2.507953047752380371e-01 -3.163019418716430664e-01 -1.977902054786682129e-01 -4.431627318263053894e-02 -9.022440761327743530e-02 -1.724129468202590942e-01 2.358416467905044556e-01 3.480583429336547852e-01 7.409939169883728027e-02 -9.530862793326377869e-03 -2.233313322067260742e-01 5.095668137073516846e-02 -1.430495232343673706e-01 9.275520592927932739e-02 -6.945850700139999390e-02 -2.768356204032897949e-01 1.631354242563247681e-01 -3.661976009607315063e-02 9.011026471853256226e-02 -1.379731744527816772e-01 -8.880743756890296936e-03 -1.795447617769241333e-01 -8.874741196632385254e-02 3.874882757663726807e-01 -2.729440107941627502e-02 1.931760609149932861e-01 -8.792044967412948608e-02 -1.237900033593177795e-01 -2.319948673248291016e-01 -6.967138499021530151e-02 -1.008162200450897217e-01 1.236990168690681458e-01 -1.442889124155044556e-01 -2.999914996325969696e-02 -1.792368441820144653e-01 -7.359119504690170288e-02 -3.011445105075836182e-01 -3.308534324169158936e-01 -1.589232087135314941e-01 -3.097306936979293823e-02 -2.459568232297897339e-01 1.830545216798782349e-01 3.230170011520385742e-01 2.621289342641830444e-02 -9.327946603298187256e-02 1.664142161607742310e-01 -4.072274640202522278e-02 -2.702172696590423584e-01 -3.768245503306388855e-02 -2.721797227859497070e-01 1.984842717647552490e-01 7.021984457969665527e-02 2.972687184810638428e-01 -4.082265496253967285e-01 2.241571247577667236e-01 2.547773718833923340e-01 -9.706122428178787231e-02 -1.430527269840240479e-01 8.367695659399032593e-02 7.924499362707138062e-02 1.936555206775665283e-01 7.368282228708267212e-02 6.235297024250030518e-02 4.223587363958358765e-02 8.719349652528762817e-02 -2.850210964679718018e-01 3.607181832194328308e-02 2.202973812818527222e-01 5.893637537956237793e-01 3.646057546138763428e-01 -3.869053721427917480e-02 1.621094346046447754e-01 1.963152736425399780e-01
-9.531728178262710571e-02 -2.788774371147155762e-01 7.773076742887496948e-02 -1.717108190059661865e-01 -2.008955925703048706e-01 2.053728550672531128e-01 7.179360836744308472e-02 -1.559763997793197632e-01 -2.640968859195709229e-01 1.856966167688369751e-01 3.701231479644775391e-01 3.101050853729248047e-01 -2.980941832065582275e-01 4.109641015529632568e-01 -3.510876372456550598e-02 9.431988000869750977e-02 -1.004630923271179199e+00 -1.063240766525268555e-01 -1.218780726194381714e-01 -3.577309548854827881e-01 -5.633432790637016296e-02 -3.630942702293395996e-01 -1.733454763889312744e-01 6.180920600891113281e-01 -5.156425237655639648e-01 -1.744658127427101135e-02 -1.057419553399085999e-02 1.602710038423538208e-01 3.050262033939361572e-01 1.546640396118164062e-01 -2.308034598827362061e-01 7.093503475189208984e-01 -9.903993457555770874e-02 2.385592758655548096e-01 -1.219455599784851074e-01 -1.085891854017972946e-02 -1.991445422172546387e-01 9.766627848148345947e-02 -2.371640503406524658e-01 2.317156493663787842e-01 -2.446682192385196686e-02 -5.301702022552490234e-02 -1.197240352630615234e-01 2.435120791196823120e-01 -1.092107966542243958e-01 1.791042089462280273e-01 3.963503614068031311e-02 -5.099175870418548584e-02 1.546394079923629761e-01 9.064192324876785278e-02 -1.122163459658622742e-01 -2.441350519657135010e-01 -2.682760059833526611e-01 6.437467038631439209e-02 -5.676559172570705414e-03 9.360829368233680725e-03 3.432048484683036804e-02 -5.203825235366821289e-01 -6.880968809127807617e-01 -2.502876799553632736e-03 1.390681564807891846e-01 -7.223723083734512329e-02 2.997993677854537964e-02 9.024785459041595459e-02 -3.354064524173736572e-01 1.034919545054435730e-01 4.373854994773864746e-01 -3.305508196353912354e-02 3.321960940957069397e-02 4.000138491392135620e-02 -2.898388169705867767e-02 -1.660175770521163940e-01 1.331742969341576099e-03 3.072378933429718018e-01 -2.423122078180313110e-01 -1.284822672605514526e-01 7.751932740211486816e-02 -1.323725581169128418e-01 5.896569415926933289e-02 -4.795321822166442871e-02 8.328057825565338135e-03 -3.686025366187095642e-02 -5.062051489949226379e-02 1.941444724798202515e-02 4.389256536960601807e-01 2.692476287484169006e-02 -5.167052745819091797e-01 2.113121896982192993e-01 1.684368997812271118e-01 1.280049383640289307e-01 -1.339952498674392700e-01 1.211290135979652405e-01 5.115230381488800049e-02 1.265085637569427490e-01 -4.579885303974151611e-01 -3.952128589153289795e-01 2.359936535358428955e-01 -1.008991375565528870e-01 7.626908272504806519e-02 -1.899638324975967407e-01 3.473597392439842224e-02 -1.116120964288711548e-01 -5.432327464222908020e-02 1.288165599107742310e-01 -5.306839942932128906e-01 1.332901716232299805e-01 2.391605973243713379e-01 1.684987246990203857e-01 8.081895112991333008e-01 1.436157226562500000e-01 2.363083325326442719e-02 5.426329746842384338e-02 5.102384686470031738e-01 5.814716219902038574e-02 2.204497903585433960e-01 1.808815896511077881e-01 4.730691015720367432e-01 1.284843683242797852e-01 2.321352809667587280e-01 1.576013565063476562e-01 -3.329962193965911865e-01 1.623966544866561890e-01 -3.336138324812054634e-03 -1.497197151184082031e-01 9.138930588960647583e-02 2.611714899539947510e-01 5.942749977111816406e-02 -5.016873776912689209e-02
1.071675345301628113e-01 2.659408748149871826e-01 4.747653380036354065e-02 -1.306574493646621704e-01 -5.383551120758056641e-03 -1.947054564952850342e-01 2.448766827583312988e-01 1.527793556451797485e-01 4.218412935733795166e-01 3.215074837207794189e-01 1.534618437290191650e-01 1.085007339715957642e-01 -4.710279703140258789e-01 -1.941134035587310791e-01 2.416373938322067261e-01 -1.011835113167762756e-01 3.497758805751800537e-01 2.287445403635501862e-02 -5.689678713679313660e-02 1.089454144239425659e-01 1.588505059480667114e-01 1.399232191033661366e-03 -4.088996723294258118e-02 9.571149945259094238e-02 -3.344052731990814209e-01 2.666952833533287048e-02 5.210653692483901978e-02 -3.645562008023262024e-02 5.641359370201826096e-03 1.865432709455490112e-01 -1.871698200702667236e-01 1.465219110250473022e-01 1.207381561398506165e-01 -2.546647191047668457e-01 -6.653370708227157593e-02 9.126561880111694336e-02 2.480375170707702637e-01 1.904787421226501465e-01 2.752551808953285217e-03 5.981662496924400330e-02 6.436170637607574463e-02 2.714490294456481934e-01 4.733442515134811401e-02 3.481660410761833191e-02 2.184407860040664673e-01 -6.082673557102680206e-03 -2.655668258666992188e-01 -1.136165708303451538e-01 2.653041183948516846e-01 -2.051511257886886597e-01 5.746724829077720642e-02 -2.483490854501724243e-01 2.114861831068992615e-02 3.774290438741445541e-03 1.455675661563873291e-01 1.797230690717697144e-01 3.430709838867187500e-01 -1.434082239866256714e-01 1.192974224686622620e-01 -3.160900771617889404e-01 -1.340345293283462524e-01 -9.564168751239776611e-02 -2.826570868492126465e-01 -1.156665980815887451e-01 -3.480559587478637695e-01 -2.955987118184566498e-02 -3.569549415260553360e-03 -2.149628996849060059e-01 -2.140052616596221924e-01 -1.143859997391700745e-01 1.833080872893333435e-02 1.617483794689178467e-01 1.539870649576187134e-01 1.166154369711875916e-01 -2.688779532909393311e-01 1.654926091432571411e-01 -3.194713965058326721e-02 -7.018001377582550049e-02 -2.981271445751190186e-01 -1.404288411140441895e-01 -4.945124313235282898e-02 -8.827158808708190918e-02 -1.019214242696762085e-01 2.400228083133697510e-01 5.006396397948265076e-02 1.399437487125396729e-01 4.923287779092788696e-02 8.061808347702026367e-02 1.129544898867607117e-01 -2.249304801225662231e-01 7.526515424251556396e-02 -6.791383930249139667e-05 1.387912780046463013e-01 1.638978533446788788e-02 -3.097204566001892090e-01 -1.633329540491104126e-01 5.513934046030044556e-02 1.845588982105255127e-01 8.123356848955154419e-03 -4.292078688740730286e-02 1.887298524379730225e-01 -1.828252077102661133e-01 -8.544619381427764893e-02 -3.428251445293426514e-01 -8.599319308996200562e-02 8.272113651037216187e-02 -3.917979598045349121e-01 -3.852071985602378845e-02 -1.109330952167510986e-01 -1.216695159673690796e-01 4.400251060724258423e-02 3.685379326343536377e-01 -1.992437615990638733e-02 1.054635047912597656e-01 -2.710103522986173630e-03 -5.747514963150024414e-01 2.161632627248764038e-01 -6.997490767389535904e-03 -1.379365287721157074e-02 -2.243970930576324463e-01 3.533245250582695007e-02 1.235420182347297668e-01 1.179946586489677429e-01 -4.443994164466857910e-02 -2.085104957222938538e-02 -2.742007970809936523e-01 2.098611928522586823e-02 -8.448088169097900391e-02
1.908839792013168335e-01 1.190665513277053833e-01 1.208446770906448364e-01 -8.279595524072647095e-03 -1.004601195454597473e-01 -6.506663560867309570e-02 -1.550478190183639526e-01 -6.393986940383911133e-02 5.955681577324867249e-02 -2.538621723651885986e-01 -1.690635383129119873e-01 -1.862502247095108032e-01 -4.994985759258270264e-01 2.290636003017425537e-01 -1.081290766596794128e-01 -1.718448698520660400e-01 -4.468834400177001953e-02 -6.354278419166803360e-03 -3.071512281894683838e-01 1.161682233214378357e-01 1.409431993961334229e-01 -5.492098331451416016e-01 1.781021207571029663e-01 -5.257161855697631836e-01 2.537912726402282715e-01 2.494571544229984283e-02 -3.751116991043090820e-01 -5.587719082832336426e-01 -1.243570670485496521e-01 -2.290945351123809814e-01 -2.326224744319915771e-01 2.964103221893310547e-01 -2.346152365207672119e-01 3.572509586811065674e-01 -1.990825682878494263e-02 -1.731406897306442261e-01 -6.417720764875411987e-02 -7.994027733802795410e-01 -1.310648024082183838e-01 -3.411716967821121216e-02 3.837075829505920410e-01 6.494903564453125000e-02 2.391095012426376343e-01 4.687680602073669434e-01 -1.032482311129570007e-01 -1.789147965610027313e-02 -3.565098345279693604e-02 -1.481408625841140747e-01 -8.686015009880065918e-02 -3.548650443553924561e-01 -7.542912662029266357e-02 4.127642139792442322e-02 -5.247236788272857666e-02 1.875575482845306396e-01 1.466381456702947617e-02 -2.463291957974433899e-02 1.131521761417388916e-01 -1.171355471014976501e-01 5.404686927795410156e-01 2.056155800819396973e-01 -3.860360383987426758e-02 -1.090599820017814636e-01 5.174164101481437683e-02 1.181160658597946167e-02 -1.988955289125442505e-01 -4.502969086170196533e-01 2.556786239147186279e-01 5.775107815861701965e-02 3.346397727727890015e-02 -2.625717222690582275e-01 -1.312365680932998657e-01 -1.300175637006759644e-01 -1.478027999401092529e-01 1.387823969125747681e-01 1.447027474641799927e-01 -2.807620465755462646e-01 2.663696743547916412e-02 2.605016827583312988e-01 2.803819067776203156e-02 1.781783998012542725e-01 5.326781868934631348e-01 5.362157523632049561e-02 3.026358187198638916e-01 1.990962922573089600e-01 1.576297432184219360e-01 4.556377828121185303e-01 -1.338712424039840698e-01 2.847462892532348633e-01 -1.065332591533660889e-01 -2.764751315116882324e-01 1.875160485506057739e-01 -5.463001132011413574e-02 3.960649296641349792e-02 3.841579705476760864e-02 -1.172289848327636719e-01 6.180240511894226074e-01 -3.578432649374008179e-02 -6.271915137767791748e-02 -7.293791323900222778e-02 -3.012396767735481262e-02 2.683781981468200684e-01 1.622659713029861450e-02 -2.240850217640399933e-02 -2.672934830188751221e-01 -4.764364957809448242e-01 -1.238796263933181763e-01 3.452208265662193298e-02 9.397730231285095215e-02 5.374597311019897461e-01 3.939186036586761475e-01 6.533170938491821289e-01 2.459906041622161865e-01 6.630850434303283691e-01 2.195711731910705566e-01 5.018259286880493164e-01 -1.624461710453033447e-01 -5.092675983905792236e-02 1.101014837622642517e-01 3.778260350227355957e-01 -1.514763236045837402e-01 -6.548947095870971680e-02 4.294006228446960449e-01 -5.797960981726646423e-02 -2.437566816806793213e-01 9.689480066299438477e-02 1.144304573535919189e-01 2.550202310085296631e-01 -1.916815191507339478e-01
5.467703938484191895e-01 -1.924081938341259956e-03 2.265394628047943115e-01 -6.498061586171388626e-03 6.554694473743438721e-02 1.206580698490142822e-01 3.967290278524160385e-03 -1.374775320291519165e-01 -3.562791049480438232e-01 -7.829319685697555542e-02 5.342974141240119934e-02 5.841114744544029236e-02 -9.578477591276168823e-02 9.691563993692398071e-02 2.506707906723022461e-01 8.084549009799957275e-02 1.140151843428611755e-01 8.274655789136886597e-02 -1.815730929374694824e-01 -8.694168925285339355e-02 -1.447696536779403687e-01 -2.014624513685703278e-02 2.948558032512664795e-01 -9.057933092117309570e-02 5.024918913841247559e-01 1.709711849689483643e-01 -1.045673899352550507e-02 1.107466146349906921e-01 -1.068491935729980469e-01 1.514745177701115608e-03 -3.785879015922546387e-01 -1.134500727057456970e-01 1.400632113218307495e-01 2.914115600287914276e-02 -9.591836482286453247e-02 -3.199253380298614502e-01 -2.816221415996551514e-01 1.703017055988311768e-01 -3.842706680297851562e-01 -1.225615143775939941e-01 8.241181075572967529e-02 -5.358513444662094116e-03 -2.275582961738109589e-02 2.352027222514152527e-02 3.353721797466278076e-01 4.549975097179412842e-01 -5.668110027909278870e-02 -1.253094524145126343e-01 8.146248757839202881e-02 1.244196086190640926e-03 -5.973712205886840820e-01 1.358383893966674805e-01 2.453484684228897095e-01 2.134915888309478760e-01 -4.453229159116744995e-02 -8.153283596038818359e-02 2.161509543657302856e-01 -1.163887530565261841e-01 2.753456234931945801e-01 -1.159795820713043213e-01 9.952894411981105804e-03 3.741713240742683411e-02 -2.970741093158721924e-01 -5.625071004033088684e-03 9.650000929832458496e-02 -2.279703915119171143e-01 3.601572941988706589e-03 -5.020445957779884338e-02 -4.637696743011474609e-01 -7.234025746583938599e-02 -6.265828013420104980e-02 1.207333356142044067e-01 -2.145364284515380859e-01 1.682094484567642212e-01 2.511002682149410248e-02 2.836187779903411865e-01 -1.444497108459472656e-01 4.432179033756256104e-03 2.817074060440063477e-01 2.234568446874618530e-01 2.003165185451507568e-01 7.001210935413837433e-03 -3.237802386283874512e-01 5.933604016900062561e-02 -3.969099223613739014e-01 -1.008527129888534546e-01 1.806540936231613159e-01 -1.107767783105373383e-02 2.355271428823471069e-01 -6.720551103353500366e-02 -1.457781810313463211e-02 -3.137618899345397949e-01 3.314147517085075378e-02 -8.347162604331970215e-02 9.391061961650848389e-02 -1.286744773387908936e-01 1.253936290740966797e-01 1.314725726842880249e-01 2.252341806888580322e-02 -3.312444388866424561e-01 4.167040884494781494e-01 -2.783327177166938782e-02 1.744321435689926147e-01 -2.354365736246109009e-01 1.806848682463169098e-02 -1.492771804332733154e-01 1.178649440407752991e-02 -1.383779291063547134e-02 -1.913158893585205078e-01 1.816502362489700317e-01 2.684243954718112946e-02 6.495517492294311523e-02 2.181900441646575928e-01 -7.267960160970687866e-02 -2.943922579288482666e-02 -6.927456706762313843e-02 1.268516033887863159e-01 1.526597440242767334e-01 3.799587115645408630e-02 6.244726106524467468e-02 -7.244284264743328094e-03 -3.126833140850067139e-01 -4.391965270042419434e-01 3.145466744899749756e-02 -3.767267763614654541e-01 2.464887648820877075e-01 -3.096645474433898926e-01 1.383649855852127075e-01
-1.538881063461303711e-01 4.026834070682525635e-01 -1.681641675531864166e-02 8.371261954307556152e-01 -1.997026205062866211e-01 -1.346662044525146484e-01 4.425897002220153809e-01 -2.859825789928436279e-01 9.056626260280609131e-02 -3.618666902184486389e-02 -4.122325479984283447e-01 1.448860205709934235e-02 2.043924778699874878e-01 9.267947077751159668e-02 6.049032211303710938e-01 2.612103819847106934e-01 1.345268368721008301e+00 -4.521175622940063477e-01 -3.862299397587776184e-02 1.962307840585708618e-01 -1.246466189622879028e-01 -1.680671125650405884e-01 2.088295668363571167e-01 -2.752993106842041016e-01 -1.543293446302413940e-01 -3.068739771842956543e-01 -6.619288027286529541e-02 -1.840111240744590759e-02 -2.354056686162948608e-01 1.583075523376464844e-01 2.984770238399505615e-01 -2.554605603218078613e-01 5.490722134709358215e-03 -3.613622188568115234e-01 -2.739725634455680847e-02 -1.686420142650604248e-01 4.275106489658355713e-01 1.503240689635276794e-02 1.937520802021026611e-01 4.370946884155273438e-01 -9.030260145664215088e-02 -6.654077768325805664e-02 -2.630252838134765625e-01 2.609140574932098389e-01 -1.957165822386741638e-02 -2.441153824329376221e-01 1.415841132402420044e-01 2.421326339244842529e-01 -1.975449770689010620e-01 2.186190336942672729e-01 1.992548555135726929e-01 -3.809356093406677246e-01 -2.283115088939666748e-01 -4.119892120361328125e-01 3.822245001792907715e-01 1.851608417928218842e-02 -2.200097590684890747e-01 3.474131524562835693e-01 2.972839772701263428e-02 -1.648656576871871948e-01 1.706572771072387695e-01 -5.965876579284667969e-01 1.625664979219436646e-01 1.676764637231826782e-01 -4.530139267444610596e-02 5.240802839398384094e-02 -8.590671420097351074e-02 8.745945990085601807e-02 -2.287676557898521423e-02 -5.138199329376220703e-01 2.683750987052917480e-01 6.442807614803314209e-02 -1.420168578624725342e-01 -3.911136984825134277e-01 -1.364488247781991959e-02 5.175932049751281738e-01 -2.322709709405899048e-01 6.762731820344924927e-02 2.211446166038513184e-01 2.083701044321060181e-01 4.358358085155487061e-01 -9.859056770801544189e-02 3.333242237567901611e-01 7.031264901161193848e-02 -1.052031591534614563e-01 -1.153885945677757263e-01 -6.972847580909729004e-01 -2.530957162380218506e-01 1.672367937862873077e-02 -2.872790396213531494e-02 5.790842697024345398e-02 8.016449213027954102e-02 2.943676896393299103e-02 4.217022955417633057e-01 -5.962600111961364746e-01 8.593078702688217163e-02 1.838438026607036591e-02 1.126466840505599976e-01 4.894796907901763916e-01 -1.169573366641998291e-01 -7.852438837289810181e-02 -1.532821655273437500e-01 -1.063871309161186218e-01 -2.623579204082489014e-01 -1.328072249889373779e-01 -1.633098572492599487e-01 6.967297941446304321e-02 -6.919527798891067505e-02 2.426937073469161987e-01 -1.464516222476959229e-01 2.709359489381313324e-02 6.007567048072814941e-02 -4.635355770587921143e-01 -9.625516086816787720e-02 1.108486354351043701e-01 -7.587370872497558594e-01 3.030527830123901367e-01 -6.649497747421264648e-01 2.628514776006340981e-03 1.845511198043823242e-01 1.604333966970443726e-01 -1.062443107366561890e-01 -4.061836004257202148e-02 -6.822238862514495850e-02 1.298356354236602783e-01 -3.286452293395996094e-01 1.072060465812683105e-01 5.736607313156127930e-02
-2.843927964568138123e-02 -1.985764056444168091e-01 -1.639634668827056885e-01 -9.445017576217651367e-02 6.909587234258651733e-02 3.772727772593498230e-02 -2.978900074958801270e-01 3.127143681049346924e-01 1.533471792936325073e-01 8.560238778591156006e-02 2.780452370643615723e-01 6.379143148660659790e-02 -6.875421106815338135e-02 -2.341989129781723022e-01 -8.567691594362258911e-02 -3.468972742557525635e-01 3.959087431430816650e-01 -5.821016803383827209e-02 1.250777840614318848e-01 -2.375159561634063721e-01 2.192258089780807495e-01 1.542243361473083496e-01 2.324478179216384888e-01 -5.946202203631401062e-02 -4.183846712112426758e-02 -6.083676218986511230e-02 1.047157645225524902e-01 -8.010511100292205811e-02 3.733063638210296631e-01 -7.178090978413820267e-03 -1.420249789953231812e-01 -2.107417955994606018e-02 -2.776910364627838135e-01 -2.166438847780227661e-02 -4.044735431671142578e-02 -2.927013039588928223e-01 -3.384120464324951172e-01 -6.184663996100425720e-02 -4.047023877501487732e-02 2.734479010105133057e-01 -4.404901266098022461e-01 -2.725572884082794189e-01 5.994596704840660095e-02 1.146308556199073792e-01 -1.598237603902816772e-01 -1.568967550992965698e-01 3.277486562728881836e-02 -3.536373972892761230e-01 9.085611999034881592e-02 -1.553256958723068237e-01 -2.042635977268218994e-01 1.274688690900802612e-01 3.013621270656585693e-01 1.397897750139236450e-01 1.202963739633560181e-01 2.260728627443313599e-01 7.778333872556686401e-02 -4.720263183116912842e-02 -3.323621451854705811e-01 -4.783524945378303528e-02 5.713080242276191711e-02 9.761241823434829712e-02 -2.436730116605758667e-01 8.037734031677246094e-02 -1.049091815948486328e-01 1.213268265128135681e-01 1.822509616613388062e-01 -3.978898525238037109e-01 -1.162280663847923279e-01 -3.306188061833381653e-02 -1.239256653934717178e-02 -2.459972910583019257e-02 -8.653999119997024536e-02 1.537162065505981445e-01 1.301067415624856949e-03 -1.392855495214462280e-01 4.480033516883850098e-01 -5.490634441375732422e-01 5.599793791770935059e-01 1.762476861476898193e-01 2.220907248556613922e-03 -7.894907146692276001e-02 -1.847912743687629700e-02 3.728571161627769470e-02 -3.707587718963623047e-01 1.265536993741989136e-01 -3.186956346035003662e-01 -9.980409592390060425e-02 -1.590635180473327637e-01 4.362322092056274414e-01 2.297622859477996826e-01 -3.562049195170402527e-02 -1.426491439342498779e-01 3.461057245731353760e-01 1.261798106133937836e-02 2.760153710842132568e-01 2.861642651259899139e-02 1.047920063138008118e-01 -7.290811836719512939e-02 4.431230574846267700e-02 4.192176274955272675e-03 6.510005891323089600e-02 1.369438916444778442e-01 1.964107453823089600e-01 1.353207230567932129e-01 -8.162906020879745483e-02 -1.337521988898515701e-02 -4.294702783226966858e-02 2.649035751819610596e-01 2.078016251325607300e-01 1.693665236234664917e-01 9.275095164775848389e-02 -1.388337649405002594e-02 -6.186946481466293335e-02 -1.687273979187011719e-01 2.233634702861309052e-02 -1.165843978524208069e-01 1.110378354787826538e-01 -2.137725353240966797e-01 -3.198063969612121582e-01 6.029810756444931030e-03 -2.509083747863769531e-01 -3.022483587265014648e-01 4.529369771480560303e-01 -2.775044739246368408e-01 2.392855659127235413e-02 3.516676425933837891e-01 7.072953134775161743e-02
-4.882280528545379639e-02 -1.930334120988845825e-01 -2.050509117543697357e-02 9.005722403526306152e-02 1.564042270183563232e-01 -3.245491981506347656e-01 1.902133077383041382e-01 -1.124864257872104645e-02 3.038719594478607178e-01 -8.074816316366195679e-02 -3.474054634571075439e-01 6.605794280767440796e-02 -1.307028234004974365e-01 3.242913633584976196e-02 1.001854240894317627e-01 -3.123339712619781494e-01 -5.226353406906127930e-01 -2.082683593034744263e-01 7.940770685672760010e-02 -4.171887338161468506e-01 9.772892296314239502e-02 2.720550596714019775e-01 1.451421082019805908e-01 2.963522076606750488e-01 2.207134813070297241e-01 2.793095633387565613e-02 6.771554797887802124e-02 4.101800620555877686e-01 -1.928002983331680298e-01 1.838188767433166504e-01 1.173528954386711121e-01 -2.174389511346817017e-01 1.054849624633789062e-01 2.896191775798797607e-01 -4.539092257618904114e-02 6.378327310085296631e-02 9.998919069766998291e-02 2.872859835624694824e-01 2.193676382303237915e-01 1.621853858232498169e-01 1.576234698295593262e-01 -1.987193897366523743e-02 2.233265638351440430e-01 -2.178293168544769287e-01 -3.109374642372131348e-02 -1.906817704439163208e-01 1.217065900564193726e-01 -1.496360450983047485e-01 -6.922333687543869019e-02 -1.069435030221939087e-01 -1.004294678568840027e-01 3.256443440914154053e-01 1.225249003618955612e-02 1.421234309673309326e-01 -1.344797164201736450e-01 -2.162092328071594238e-01 -5.801789760589599609e-01 -3.598641455173492432e-01 -2.578840777277946472e-02 -2.369429320096969604e-01 -1.785148233175277710e-01 2.586172223091125488e-01 4.369867593050003052e-02 -1.234772577881813049e-01 -3.895221650600433350e-01 -6.598628312349319458e-02 -6.771252304315567017e-02 9.525286406278610229e-02 -1.761160045862197876e-02 3.923807293176651001e-02 2.613640129566192627e-01 1.272016167640686035e-01 -3.787768632173538208e-02 -1.325286775827407837e-01 -3.173754215240478516e-01 -3.878464400768280029e-01 -3.450713157653808594e-01 -2.184219807386398315e-01 -5.605947226285934448e-02 6.123418733477592468e-02 -3.567658662796020508e-01 -2.232390493154525757e-01 4.911374151706695557e-01 -2.556117251515388489e-02 -2.852824702858924866e-02 -2.156443893909454346e-01 -2.042967528104782104e-01 -4.751805961132049561e-02 -6.860974431037902832e-02 -4.710961878299713135e-02 2.864727750420570374e-02 -3.988016769289970398e-02 -2.485617063939571381e-02 2.205178141593933105e-01 1.085077226161956787e-01 1.927283257246017456e-01 -7.207516580820083618e-02 -7.584781944751739502e-02 -1.762019842863082886e-01 -1.806779801845550537e-01 6.899096071720123291e-03 1.973309814929962158e-01 -6.358671467751264572e-03 -6.054263934493064880e-02 5.849802866578102112e-02 5.471897870302200317e-02 1.159778684377670288e-01 3.475109636783599854e-01 -6.085568293929100037e-02 1.627551615238189697e-01 2.297822982072830200e-01 -8.170098066329956055e-02 -3.870744407176971436e-01 -3.179627954959869385e-01 1.637807935476303101e-01 -6.273956596851348877e-02 7.599239796400070190e-02 1.249388158321380615e-01 -1.880885660648345947e-01 -5.799796804785728455e-02 -2.941000759601593018e-01 1.677659004926681519e-01 1.021452024579048157e-01 -5.154396966099739075e-02 1.244118586182594299e-01 -5.376094207167625427e-02 5.586339905858039856e-02 -1.121369823813438416e-01
-3.496126830577850342e-01 -1.305349469184875488e-01 6.150620058178901672e-02 -3.136106133460998535e-01 1.691679060459136963e-01 -1.303069144487380981e-01 7.350136339664459229e-02 -9.934668242931365967e-02 -4.623219370841979980e-01 6.641407310962677002e-02 -1.426133662462234497e-01 -5.960950255393981934e-02 2.558283209800720215e-01 -1.114495992660522461e-01 -2.685008347034454346e-01 2.309912443161010742e-02 5.781601741909980774e-02 3.829226642847061157e-02 1.908643245697021484e-01 4.811250269412994385e-01 2.401101142168045044e-01 6.466359645128250122e-02 -1.302904188632965088e-01 3.144590556621551514e-01 2.929453551769256592e-01 -9.748766571283340454e-02 2.365128509700298309e-02 -1.752787642180919647e-02 3.093738257884979248e-01 -1.279079020023345947e-01 -1.909555047750473022e-01 -1.788982003927230835e-01 -1.068797856569290161e-01 -1.761318743228912354e-01 1.471045464277267456e-01 5.774930492043495178e-02 -1.070812493562698364e-01 1.705307066440582275e-01 1.403301954269409180e-01 -3.574669659137725830e-01 -1.488145589828491211e-01 -4.888061061501502991e-02 -9.049478918313980103e-02 -7.755486667156219482e-02 5.875902622938156128e-02 6.694352626800537109e-02 1.498488783836364746e-01 -4.942206740379333496e-01 -2.737736701965332031e-01 2.344372719526290894e-01 -8.549651503562927246e-02 1.376373767852783203e-01 -6.115703284740447998e-02 2.323868274688720703e-01 -8.660851977765560150e-03 -1.074521839618682861e-01 -1.661901473999023438e-01 -9.721366316080093384e-02 -2.998081445693969727e-01 -8.196824789047241211e-02 -1.574797779321670532e-01 3.713793158531188965e-01 1.552020907402038574e-01 -6.068340688943862915e-02 -6.382833421230316162e-02 8.505640178918838501e-02 -1.584060043096542358e-01 -2.232435047626495361e-01 -1.178588345646858215e-01 -3.364560008049011230e-01 1.031097024679183960e-01 1.519851237535476685e-01 -1.855232119560241699e-01 1.347698420286178589e-01 -2.318168431520462036e-01 -1.744237244129180908e-01 1.146711222827434540e-02 8.171381801366806030e-02 1.826734478527214378e-05 -1.456366200000047684e-02 -1.021249219775199890e-01 2.515564113855361938e-02 -3.595438599586486816e-02 -4.599214531481266022e-03 -6.697846949100494385e-02 -3.467246294021606445e-01 1.922689974308013916e-01 -1.482676365412771702e-03 -9.567596018314361572e-02 -2.805143408477306366e-02 2.122328281402587891e-01 2.620690464973449707e-01 -4.145257174968719482e-01 -2.027985155582427979e-01 4.236064478754997253e-02 9.619515389204025269e-02 1.962623447179794312e-01 9.514346718788146973e-02 6.042098999023437500e-02 -2.252972424030303955e-01 2.924607694149017334e-01 3.203691216185688972e-03 -1.622911989688873291e-01 2.617065310478210449e-01 7.055270671844482422e-02 1.013451367616653442e-01 1.685256063938140869e-01 -5.494527891278266907e-02 -3.807812333106994629e-01 -9.051015228033065796e-02 -3.072955645620822906e-02 -8.638281375169754028e-02 -4.548643529415130615e-02 1.539686024188995361e-01 4.682445898652076721e-02 3.172221481800079346e-01 -4.607285186648368835e-02 7.504523545503616333e-02 -4.406708478927612305e-02 -4.636833667755126953e-01 5.110008269548416138e-02 3.372097909450531006e-01 1.435914542526006699e-02 -1.060467958450317383e-01 4.849053174257278442e-02 2.186432033777236938e-01 -1.667439937591552734e-01 -2.194210886955261230e-02
-7.083919644355773926e-02 7.280941307544708252e-02 -8.373125456273555756e-03 -3.975189849734306335e-02 -1.307984292507171631e-01 -2.084644436836242676e-01 3.808093070983886719e-01 6.928156316280364990e-02 1.387002021074295044e-01 -1.456869095563888550e-01 -3.185490891337394714e-02 -1.024847254157066345e-01 2.285984009504318237e-01 -4.155270159244537354e-01 -1.279758960008621216e-01 2.534189522266387939e-01 1.668170392513275146e-01 -1.123528406023979187e-01 -1.009563505649566650e-01 2.202017009258270264e-01 1.872288286685943604e-01 1.570501029491424561e-01 -1.805165782570838928e-02 2.202493399381637573e-01 1.588734388351440430e-01 6.634029746055603027e-02 -1.120184641331434250e-02 8.025417476892471313e-02 -4.012857079505920410e-01 -1.017040759325027466e-01 1.170876398682594299e-01 4.955961704254150391e-01 1.343791186809539795e-01 3.387937843799591064e-01 -1.210352778434753418e-01 2.328659594058990479e-01 2.983848564326763153e-02 1.336853951215744019e-01 1.517309993505477905e-02 -1.122997999191284180e-01 -1.408755686134099960e-02 3.941148146986961365e-02 1.120541058480739594e-02 -2.521738111972808838e-01 9.831359237432479858e-02 3.313833177089691162e-01 3.599762320518493652e-01 6.359213590621948242e-02 -1.128380969166755676e-01 -3.345843553543090820e-01 -3.126142323017120361e-01 -9.663601964712142944e-02 -3.841768205165863037e-01 3.611112758517265320e-02 -4.425432160496711731e-02 3.300180137157440186e-01 -1.855461150407791138e-01 -2.315018884837627411e-02 -2.810413837432861328e-01 3.160924613475799561e-01 1.011376976966857910e-01 -1.515834629535675049e-01 2.472085505723953247e-01 -4.631551727652549744e-02 -2.849765717983245850e-01 -3.124817274510860443e-02 2.197465002536773682e-01 7.126086205244064331e-02 2.031238079071044922e-01 -3.005414307117462158e-01 -4.340987280011177063e-02 1.367605775594711304e-01 1.405590176582336426e-01 1.260897028259932995e-03 2.341167535632848740e-03 -1.628291904926300049e-01 -2.714688330888748169e-02 -4.583294093608856201e-01 -2.947343885898590088e-01 1.113243997097015381e-01 2.516703307628631592e-01 -2.154102176427841187e-01 2.631286382675170898e-01 -3.029884584248065948e-02 5.478471517562866211e-02 -3.293369710445404053e-02 4.162676036357879639e-01 -1.523578912019729614e-01 -1.906283348798751831e-01 -5.565726384520530701e-02 -7.989849150180816650e-02 1.898858994245529175e-01 -1.200748905539512634e-01 -3.168406784534454346e-01 1.567580550909042358e-01 -1.047761961817741394e-01 6.299386918544769287e-02 1.641490757465362549e-01 -1.777678728103637695e-01 1.151380240917205811e-01 6.561642885208129883e-02 -2.588322758674621582e-01 1.128519997000694275e-01 -7.365134358406066895e-02 -2.829109132289886475e-02 1.029984746128320694e-02 2.468816936016082764e-01 1.190999299287796021e-01 -8.609929680824279785e-02 5.719859600067138672e-01 -1.465643942356109619e-01 -2.088102400302886963e-01 -1.148308590054512024e-01 -1.582423970103263855e-02 -3.993498161435127258e-03 6.272143125534057617e-01 1.959610283374786377e-01 4.895270243287086487e-02 -3.568325638771057129e-01 2.704673111438751221e-01 2.207763046026229858e-01 2.282792888581752777e-02 -1.366549283266067505e-01 1.539647877216339111e-01 1.276857685297727585e-02 -3.519552201032638550e-02 4.568348173052072525e-03 2.537902593612670898e-01
-4.562301933765411377e-02 -4.433321207761764526e-02 -2.033991925418376923e-02 -2.484225928783416748e-01 -5.238054320216178894e-02 -6.325989961624145508e-02 2.024900019168853760e-01 -4.211649894714355469e-01 3.224122822284698486e-01 4.035910665988922119e-01 3.508027642965316772e-02 1.457570642232894897e-01 -1.945776119828224182e-02 -1.582100540399551392e-01 -2.326779440045356750e-02 2.221857756376266479e-02 3.125787675380706787e-01 -8.066309988498687744e-02 -1.256407350301742554e-01 1.905611753463745117e-01 5.693866312503814697e-02 -1.238415464758872986e-01 4.310141503810882568e-02 3.354908525943756104e-01 2.782286405563354492e-01 -5.929111689329147339e-02 -1.946876198053359985e-01 -2.700433731079101562e-01 -1.406748145818710327e-01 2.647466491907835007e-03 3.298863470554351807e-01 -4.435906186699867249e-02 4.485684931278228760e-01 4.551969096064567566e-02 -2.105736732482910156e-01 -5.471419915556907654e-02 7.133895158767700195e-02 -1.496269553899765015e-01 -7.883074134588241577e-02 2.747734449803829193e-02 -2.489780634641647339e-01 -2.214848250150680542e-01 6.875298172235488892e-02 -1.458848733454942703e-02 6.190202385187149048e-02 4.379110634326934814e-01 6.953136622905731201e-02 -3.185262680053710938e-01 1.101428642868995667e-01 2.758912146091461182e-01 3.014324232935905457e-03 5.173209309577941895e-02 1.796744614839553833e-01 -1.025379821658134460e-01 -7.304541766643524170e-02 1.952554434537887573e-01 7.770487666130065918e-02 -3.310181200504302979e-01 -2.205871939659118652e-01 -2.447484880685806274e-01 -2.960124611854553223e-01 -4.761530756950378418e-01 -2.651918232440948486e-01 -1.551126539707183838e-01 -1.298628300428390503e-01 -5.205881223082542419e-02 -2.431629300117492676e-01 1.634552776813507080e-01 2.031478881835937500e-01 7.870323210954666138e-02 1.108586937189102173e-01 9.070608019828796387e-02 -9.574932605028152466e-02 2.710615284740924835e-02 -2.366044372320175171e-02 -3.192458301782608032e-02 4.547961056232452393e-02 -3.805271983146667480e-01 -2.679192721843719482e-01 -1.144142523407936096e-01 1.230261921882629395e-01 3.752309828996658325e-02 -1.285608410835266113e-01 -1.282125432044267654e-02 1.725973784923553467e-01 -3.583701699972152710e-02 2.279987931251525879e-01 2.837454080581665039e-01 2.149701863527297974e-01 -5.923053622245788574e-02 -5.367996916174888611e-02 -2.344766817986965179e-02 -2.905628457665443420e-02 -2.034836858510971069e-01 4.363549947738647461e-01 3.673287034034729004e-01 -1.726463139057159424e-01 -2.618903517723083496e-01 1.285370346158742905e-02 -1.404703408479690552e-01 4.518091380596160889e-01 -1.107964217662811279e-01 3.221407830715179443e-01 2.061850577592849731e-02 -3.156221285462379456e-02 -1.518293023109436035e-01 8.910381793975830078e-02 1.693015247583389282e-01 5.099458694458007812e-01 -1.271644979715347290e-02 -1.753469556570053101e-01 5.895686335861682892e-03 7.746473886072635651e-03 1.642220169305801392e-01 5.816306918859481812e-02 -1.043780073523521423e-01 1.943685710430145264e-01 7.437563687562942505e-02 2.613895013928413391e-02 -2.501392066478729248e-01 2.321847230195999146e-01 6.378164142370223999e-02 -1.393499132245779037e-02 7.398794591426849365e-02 3.092293143272399902e-01 1.083923280239105225e-01 -1.115070953965187073e-01 2.302635461091995239e-01
-2.239628434181213379e-01 -4.627225548028945923e-02 -2.653032541275024414e-02 -4.425908923149108887e-01 6.193588301539421082e-02 6.740420311689376831e-02 -1.655647754669189453e-01 5.187611654400825500e-02 -8.922464400529861450e-02 3.701219260692596436e-01 -2.133830785751342773e-01 -2.332174405455589294e-02 2.439328134059906006e-01 1.040006279945373535e-01 -1.809008866548538208e-01 -1.530086696147918701e-01 6.949481368064880371e-02 -1.233251094818115234e-01 -1.040661148726940155e-02 -1.494512557983398438e-01 -1.598796397447586060e-01 -8.996630460023880005e-02 1.358012855052947998e-01 1.370802670717239380e-01 6.894562244415283203e-01 2.728057205677032471e-01 -2.704896330833435059e-01 -2.015723586082458496e-01 -2.662991881370544434e-01 1.799535900354385376e-01 1.918454654514789581e-02 2.182061225175857544e-01 -4.275478422641754150e-01 4.232024028897285461e-02 -6.925249695777893066e-01 1.674563623964786530e-02 -1.913554817438125610e-01 1.087038442492485046e-01 9.255262464284896851e-02 -3.549253940582275391e-01 2.831571400165557861e-01 -2.545953392982482910e-01 -7.994873449206352234e-03 -1.941116452217102051e-01 5.720092654228210449e-01 2.478106170892715454e-01 4.393035545945167542e-03 -2.852753698825836182e-01 1.242687627673149109e-01 3.263736367225646973e-01 -1.394865214824676514e-01 6.892971694469451904e-02 -3.121040761470794678e-01 -3.442080318927764893e-01 -3.361901640892028809e-01 -1.674164086580276489e-01 4.895657673478126526e-02 -3.631478846073150635e-01 -6.350883096456527710e-02 -1.833506226539611816e-01 -1.361750438809394836e-02 -2.724932730197906494e-01 2.114613503217697144e-01 1.959694325923919678e-01 2.409815490245819092e-01 -1.459448337554931641e-01 -3.435659706592559814e-01 -1.727847754955291748e-01 4.356896281242370605e-01 2.358766198158264160e-01 -2.263182848691940308e-01 -3.044380061328411102e-02 -2.993859350681304932e-01 1.214078515768051147e-01 2.654278874397277832e-01 -1.198413521051406860e-01 2.019747793674468994e-01 7.542695850133895874e-02 2.647424861788749695e-02 -1.461663991212844849e-01 3.618207573890686035e-02 3.066382184624671936e-02 -1.493653096258640289e-02 -2.631405293941497803e-01 -3.067734539508819580e-01 -4.634562879800796509e-02 1.282667517662048340e-01 -1.502996236085891724e-01 -2.110227495431900024e-01 -1.174936443567276001e-01 3.125493824481964111e-01 1.102638468146324158e-01 1.918877512216567993e-01 2.201184816658496857e-02 1.983806043863296509e-01 2.277525514364242554e-02 -8.846229314804077148e-02 3.907749652862548828e-01 -2.416992932558059692e-02 -3.366193547844886780e-02 -2.959141135215759277e-01 4.064614772796630859e-01 -2.077186554670333862e-01 -1.263149976730346680e-01 -2.051150053739547729e-01 2.157906256616115570e-02 3.327498584985733032e-02 1.020536273717880249e-01 -4.569530487060546875e-01 3.493984788656234741e-02 2.781595885753631592e-01 1.637690812349319458e-01 -7.331784069538116455e-02 4.877560436725616455e-01 3.644824400544166565e-02 2.946492135524749756e-01 -1.000600159168243408e-01 -2.158969268202781677e-02 -2.991974651813507080e-01 -1.258741617202758789e-01 -3.104584813117980957e-01 7.424984127283096313e-02 -2.023894935846328735e-01 -1.695771962404251099e-01 1.314973384141921997e-01 -1.674599051475524902e-01 1.022280454635620117e-01 1.057141348719596863e-01
-4.911062493920326233e-02 1.066941842436790466e-01 -4.528717324137687683e-02 1.715830862522125244e-01 3.315064311027526855e-01 2.526339516043663025e-02 -2.077446728944778442e-01 -4.496055841445922852e-01 -1.408940181136131287e-02 -1.093469783663749695e-01 -3.687893226742744446e-02 -2.376658171415328979e-01 -1.120166927576065063e-01 -9.518619626760482788e-02 -2.796371579170227051e-01 -2.220176905393600464e-01 -1.759784966707229614e-01 3.748056292533874512e-02 3.333430886268615723e-01 3.373275995254516602e-01 -3.745332658290863037e-01 -6.852792203426361084e-02 -5.493346452713012695e-01 -2.806862294673919678e-01 8.210898190736770630e-02 -1.817441582679748535e-01 -2.825892902910709381e-02 -4.606369733810424805e-01 1.132051944732666016e-01 2.395463921129703522e-02 1.342080384492874146e-01 1.930309236049652100e-01 -3.999671339988708496e-01 1.619016528129577637e-01 2.813283503055572510e-01 9.855959564447402954e-02 -1.591615825891494751e-01 -1.587303280830383301e-01 -5.015049828216433525e-04 -1.394330561161041260e-01 1.617490053176879883e-01 3.655149787664413452e-02 -4.304367601871490479e-01 -2.102858424186706543e-01 2.184832394123077393e-01 -2.785880267620086670e-01 1.671750657260417938e-02 -1.145655065774917603e-01 9.269481152296066284e-02 8.986883610486984253e-02 -1.571126468479633331e-02 2.721494138240814209e-01 -1.931426674127578735e-01 -2.440669387578964233e-01 -2.669669454917311668e-03 7.441160827875137329e-02 -5.802179574966430664e-01 1.927808159962296486e-03 -9.068873524665832520e-02 8.874429017305374146e-02 -4.274011850357055664e-01 -1.454612016677856445e-01 2.598218433558940887e-02 -1.067284941673278809e-01 3.997239470481872559e-01 -5.802457686513662338e-03 9.347280859947204590e-02 -3.778170794248580933e-02 -1.888150274753570557e-01 2.093062549829483032e-01 -1.038889735937118530e-01 5.715161189436912537e-02 4.701917618513107300e-02 -1.520535349845886230e-01 1.590728014707565308e-01 6.232705712318420410e-02 2.202189117670059204e-01 -8.891166746616363525e-02 8.595211505889892578e-01 -1.408496946096420288e-01 -1.062780991196632385e-01 -6.220404803752899170e-02 5.674682324752211571e-04 2.673861682415008545e-01 4.246934503316879272e-02 -2.221697568893432617e-01 1.975499652326107025e-02 4.410274326801300049e-01 -2.276927679777145386e-01 -8.912128210067749023e-02 5.469845980405807495e-02 -3.159415125846862793e-01 3.934678435325622559e-02 4.581997916102409363e-02 -2.107672095298767090e-01 1.285341978073120117e-01 3.082889690995216370e-02 -1.409949958324432373e-01 -2.850883081555366516e-02 -2.530642151832580566e-01 2.032666839659214020e-02 -9.927335381507873535e-02 -9.041333198547363281e-02 6.164808571338653564e-02 2.050721049308776855e-01 2.682010233402252197e-01 1.558525711297988892e-01 -2.752743959426879883e-01 2.216874212026596069e-01 -3.287242650985717773e-01 2.809352576732635498e-01 -8.053516596555709839e-02 -1.238584443926811218e-01 -2.725266814231872559e-01 -1.726676225662231445e-01 -4.215762317180633545e-01 -1.916664093732833862e-01 5.411443859338760376e-02 -1.876017898321151733e-01 -2.081118710339069366e-02 -1.974760442972183228e-01 8.339323401451110840e-01 6.382929086685180664e-01 -4.855663478374481201e-01 -7.681496441364288330e-03 9.904282540082931519e-02 -8.120994269847869873e-02 -3.276446759700775146e-01
1.648687124252319336e-01 1.448998302221298218e-01 6.102472171187400818e-02 -5.475142598152160645e-01 2.318264544010162354e-01 -2.375445812940597534e-01 1.457394957542419434e-01 2.488570474088191986e-02 6.845859438180923462e-02 1.253149360418319702e-01 -2.142832875251770020e-01 -2.429921627044677734e-01 -2.686141431331634521e-01 -2.298206388950347900e-01 2.677852809429168701e-01 -1.454491466283798218e-01 5.475446581840515137e-02 2.784815728664398193e-01 1.068738196045160294e-02 4.968275874853134155e-02 3.029889240860939026e-02 1.456490717828273773e-02 -1.939681619405746460e-01 2.174677103757858276e-01 -2.844364643096923828e-01 -1.819840818643569946e-01 -2.825807966291904449e-02 4.263871610164642334e-01 3.156616985797882080e-01 2.315295934677124023e-01 -3.122346401214599609e-01 2.951082959771156311e-02 -6.160388141870498657e-02 2.236783653497695923e-01 -9.964239597320556641e-02 1.120547801256179810e-01 -3.630208075046539307e-01 -1.834066659212112427e-01 -2.543144226074218750e-01 -5.750470329076051712e-03 2.905645072460174561e-01 8.853900432586669922e-02 1.685394793748855591e-01 -2.682037353515625000e-01 -7.959131896495819092e-02 3.714067861437797546e-03 2.709167078137397766e-02 1.837926506996154785e-01 8.899395167827606201e-02 1.050531305372714996e-02 -7.543478906154632568e-02 -2.865321040153503418e-01 1.495447307825088501e-01 1.931105107069015503e-01 -4.091046378016471863e-02 1.092233657836914062e-01 -5.612039566040039062e-02 -1.480116099119186401e-01 3.392974436283111572e-01 -1.104704290628433228e-01 1.152080148458480835e-01 -4.156961739063262939e-01 7.362987846136093140e-02 3.184233233332633972e-02 -1.456205397844314575e-01 -4.964990913867950439e-02 2.887286543846130371e-01 -1.994093805551528931e-01 -4.118230566382408142e-02 -4.318512231111526489e-02 -2.331633679568767548e-02 -1.432780828326940536e-02 -2.597513794898986816e-01 -8.753079175949096680e-02 -1.450599636882543564e-02 -1.977741569280624390e-01 -9.033608436584472656e-02 1.526738703250885010e-01 -1.449085175991058350e-01 -1.319801062345504761e-01 -1.092242449522018433e-01 -1.268077492713928223e-01 -1.507510691881179810e-01 -1.667067408561706543e-01 -9.862233698368072510e-02 -6.265494972467422485e-02 8.606030046939849854e-02 2.641985714435577393e-01 1.312832068651914597e-02 -9.280831366777420044e-02 -1.995413005352020264e-02 1.818261444568634033e-01 6.623239815235137939e-02 -1.253190487623214722e-01 -1.217379271984100342e-01 4.322700202465057373e-01 7.072873413562774658e-02 -3.385198414325714111e-01 -1.750478595495223999e-01 3.999570757150650024e-02 9.014701098203659058e-02 -3.226685822010040283e-01 -7.363301515579223633e-02 1.138343848288059235e-02 1.185415387153625488e-01 -1.068210229277610779e-01 7.564345002174377441e-02 -5.562538653612136841e-02 2.002162039279937744e-01 1.059580687433481216e-02 -7.123551517724990845e-02 9.846466127783060074e-04 2.329135388135910034e-01 2.355677187442779541e-01 -9.767803549766540527e-02 2.523026056587696075e-02 -8.175299316644668579e-02 -3.762407600879669189e-02 -5.939867496490478516e-01 1.331112682819366455e-01 3.556334078311920166e-01 2.284794747829437256e-01 3.115199739113450050e-03 -2.999507486820220947e-01 4.310332238674163818e-02 8.906023204326629639e-02 7.421037554740905762e-02 1.916934177279472351e-02
-1.899163238704204559e-02 -2.066074013710021973e-01 -4.516153782606124878e-02 -6.350887566804885864e-02 2.852936685085296631e-01 4.735687673091888428e-01 -7.674897313117980957e-01 -3.877527266740798950e-02 -1.603376865386962891e-01 4.316560029983520508e-01 -1.565438359975814819e-01 1.538390964269638062e-01 -1.989993005990982056e-01 1.078934073448181152e-01 -1.679259538650512695e-01 1.497708261013031006e-01 1.071623861789703369e-01 8.459013700485229492e-02 6.886801868677139282e-02 1.399016909999772906e-04 -4.016676247119903564e-01 -1.841585636138916016e-01 2.102334648370742798e-01 3.107015490531921387e-01 -6.749312579631805420e-02 2.316346019506454468e-02 -1.808301918208599091e-02 -1.744303256273269653e-01 1.607541888952255249e-01 -1.478102058172225952e-03 -3.263594508171081543e-01 -3.665303289890289307e-01 7.424493879079818726e-02 2.162336707115173340e-01 -3.622526824474334717e-01 -1.720635592937469482e-01 2.332462370395660400e-02 3.959316313266754150e-01 -5.198325216770172119e-02 4.241124093532562256e-01 -7.946711033582687378e-02 -8.749169111251831055e-02 -2.539349794387817383e-01 -2.006151378154754639e-01 1.561161875724792480e-01 -1.360664516687393188e-01 1.157597303390502930e-01 -2.346917390823364258e-01 2.409791052341461182e-01 1.163477674126625061e-01 -6.675826311111450195e-01 5.155800655484199524e-02 1.412631571292877197e-01 -1.413886807858943939e-02 -1.453352123498916626e-01 2.077573537826538086e-01 -6.871219724416732788e-02 -4.990099668502807617e-01 2.264923229813575745e-02 5.445241462439298630e-03 -1.256899069994688034e-02 -1.420411933213472366e-02 -2.075027078390121460e-01 2.751674689352512360e-02 -9.943908452987670898e-02 -3.004020452499389648e-01 3.203721344470977783e-01 -3.289511203765869141e-01 -4.932585358619689941e-02 -2.316679991781711578e-02 -3.249735757708549500e-02 1.209790110588073730e-01 -9.699349850416183472e-02 2.672885172069072723e-02 3.822417855262756348e-01 -8.795269578695297241e-02 -2.327363044023513794e-01 -3.736192360520362854e-02 1.092218831181526184e-01 -1.038186103105545044e-01 1.915477067232131958e-01 -2.635626681149005890e-02 -4.270834028720855713e-01 -2.563899457454681396e-01 -2.400209605693817139e-01 -4.501807689666748047e-01 1.480571478605270386e-01 1.165976673364639282e-01 1.720103621482849121e-01 -1.061787595972418785e-03 2.470538602210581303e-04 -4.066439867019653320e-01 -2.847138345241546631e-01 3.765168832615017891e-03 2.014338672161102295e-01 6.003080010414123535e-01 2.051934301853179932e-01 9.983154386281967163e-02 -1.981137394905090332e-01 1.286902744323015213e-02 2.623779699206352234e-02 -5.132862329483032227e-01 1.288527697324752808e-01 3.407413959503173828e-01 -8.206473290920257568e-02 2.678905129432678223e-01 1.371175497770309448e-01 3.998627066612243652e-01 -4.230374097824096680e-01 5.322085022926330566e-01 2.684672474861145020e-01 2.629268914461135864e-02 1.157799065113067627e-01 3.311650454998016357e-01 8.398432284593582153e-02 5.826880931854248047e-01 1.469099670648574829e-01 5.343660712242126465e-02 7.843716442584991455e-02 -1.325029581785202026e-01 1.147668063640594482e-02 1.047601625323295593e-01 1.732424795627593994e-01 1.776185184717178345e-01 3.348346799612045288e-02 5.473518371582031250e-02 3.248468935489654541e-01 -8.654234558343887329e-02
1.502737682312726974e-02 2.612383477389812469e-02 -1.530650854110717773e-01 -2.272645682096481323e-01 1.610556691884994507e-01 5.040099024772644043e-01 -2.959158718585968018e-01 1.625617593526840210e-01 4.544179514050483704e-02 2.588036954402923584e-01 -5.172343924641609192e-02 -6.031192466616630554e-02 -8.437298238277435303e-02 2.836170196533203125e-01 -1.846129000186920166e-01 -1.405466794967651367e-01 4.111158549785614014e-01 -1.881917417049407959e-01 1.431533787399530411e-02 -9.954287111759185791e-02 -1.313316375017166138e-01 4.804693907499313354e-02 -4.065181687474250793e-02 4.710694551467895508e-01 -2.100413292646408081e-01 -9.022153913974761963e-02 1.196297034621238708e-01 -8.869036287069320679e-02 -4.519628584384918213e-01 2.641097307205200195e-01 3.264490067958831787e-01 3.192434608936309814e-01 -2.629881501197814941e-01 1.176696345210075378e-01 4.159799963235855103e-02 -9.760283678770065308e-02 -3.512053936719894409e-02 5.270445346832275391e-01 2.191839516162872314e-01 -3.336845040321350098e-01 -2.247866541147232056e-01 1.244760751724243164e-01 -3.129395842552185059e-01 -2.448576837778091431e-01 -1.063931286334991455e-01 3.020778596401214600e-01 -5.129925534129142761e-02 4.462808370590209961e-01 -1.143751665949821472e-01 -1.175345107913017273e-01 -9.041945636272430420e-02 -1.806441247463226318e-01 -1.652587205171585083e-01 -3.883437812328338623e-02 1.584297120571136475e-01 -2.470285594463348389e-01 -2.056798785924911499e-01 -2.863395959138870239e-02 -1.015983405523002148e-03 -2.316762804985046387e-01 -3.010655567049980164e-02 3.384436070919036865e-01 -2.194374613463878632e-02 -7.224556989967823029e-03 4.845701158046722412e-02 -2.942931838333606720e-02 -2.569801807403564453e-01 -2.451961040496826172e-01 -2.434031516313552856e-01 1.899219602346420288e-01 1.016502901911735535e-01 -6.226003915071487427e-02 5.343972519040107727e-02 -1.118175089359283447e-01 1.788954734802246094e-01 -2.797000668942928314e-02 -1.421665847301483154e-01 9.126436710357666016e-02 1.600269600749015808e-02 -6.001547351479530334e-02 -9.915825724601745605e-02 1.365857869386672974e-01 7.591006904840469360e-02 -6.395914405584335327e-02 1.841942518949508667e-01 1.650375127792358398e-01 -1.073994487524032593e-01 -3.481632098555564880e-02 5.702905729413032532e-02 -7.939692586660385132e-02 2.104481905698776245e-01 -1.040742248296737671e-01 -1.222087070345878601e-01 -3.022793233394622803e-01 -7.997127622365951538e-02 -1.244730651378631592e-01 -4.397712647914886475e-02 1.415791660547256470e-01 -4.133681058883666992e-01 1.831169873476028442e-01 -2.902546823024749756e-01 -2.729993164539337158e-01 -3.926657438278198242e-01 -2.190946042537689209e-01 -1.518494337797164917e-01 -2.258975058794021606e-01 2.192579209804534912e-01 -8.101604878902435303e-02 9.407055377960205078e-01 -2.326650321483612061e-01 1.670942604541778564e-01 -1.302265971899032593e-01 2.740942835807800293e-01 8.061568737030029297e-01 1.681534796953201294e-01 -2.310912013053894043e-01 8.928910642862319946e-02 -4.841840639710426331e-02 3.976684510707855225e-01 2.232103645801544189e-01 -9.599656611680984497e-02 1.322200447320938110e-01 1.403494626283645630e-01 -1.090385541319847107e-01 1.134374141693115234e-01 -1.060364395380020142e-01 1.046967320144176483e-02 -2.374289631843566895e-01
