2.544468641281127930e-01
-1.835391819477081299e-01
3.447607755661010742e-01
2.525710165500640869e-01
1.201720535755157471e-01
-8.973136544227600098e-02
-1.428854018449783325e-01
8.098297752439975739e-03
7.708820700645446777e-02
1.483736038208007812e-01
-2.624523825943470001e-03
1.283989753574132919e-02
2.595575153827667236e-01
5.294623225927352905e-02
-1.912928223609924316e-01
1.630603671073913574e-01
9.760981053113937378e-02
1.793073862791061401e-01
7.026457786560058594e-02
9.798009879887104034e-03
-1.176183018833398819e-02
3.926541283726692200e-02
-1.979124844074249268e-01
-1.897620856761932373e-01
-2.176859676837921143e-01
-2.166599966585636139e-02
5.792270600795745850e-02
-2.450973689556121826e-01
-6.052326352801173925e-05
1.312809735536575317e-01
-3.379937261343002319e-02
9.353684633970260620e-02
-1.471243500709533691e-01
6.073320284485816956e-02
-7.688160240650177002e-02
4.754107503686100245e-04
-2.835449576377868652e-01
2.867121398448944092e-01
-1.952060614712536335e-03
6.483799964189529419e-02
-2.523320019245147705e-01
-2.448976784944534302e-02
5.285519361495971680e-02
2.510314285755157471e-01
9.305869787931442261e-02
-1.651834994554519653e-01
8.244615048170089722e-02
2.993059344589710236e-02
4.060634411871433258e-03
1.740816533565521240e-01
-1.174019128084182739e-01
1.552028805017471313e-01
1.225348263978958130e-01
3.634400293231010437e-02
1.531005352735519409e-01
1.604596674442291260e-01
-4.597426578402519226e-02
-5.594688281416893005e-02
-2.461024932563304901e-02
9.634307352825999260e-04
2.992654405534267426e-02
4.568151757121086121e-02
1.636779755353927612e-01
-2.142216116189956665e-01
2.088837921619415283e-01
2.942393347620964050e-02
-3.672565799206495285e-03
1.007468998432159424e-01
-1.001198068261146545e-01
7.090061902999877930e-02
5.992931127548217773e-02
-6.561759114265441895e-02
1.373848170042037964e-01
1.143795922398567200e-01
-1.071560829877853394e-01
-1.223468035459518433e-01
1.783514022827148438e-01
-6.089222431182861328e-02
-3.714025020599365234e-02
-2.059808671474456787e-01
7.588277757167816162e-02
2.991074696183204651e-02
-3.533725440502166748e-02
1.674623973667621613e-02
-1.221991479396820068e-01
-1.230507791042327881e-01
2.528928816318511963e-01
2.117083594202995300e-02
1.150335744023323059e-01
-1.934523507952690125e-02
1.178560894913971424e-03
6.480699777603149414e-02
-7.785500586032867432e-02
1.594965346157550812e-02
-1.422594487667083740e-01
3.321449458599090576e-02
3.339144214987754822e-02
1.994493752717971802e-01
1.419204175472259521e-01
6.973867118358612061e-02
-2.376477606594562531e-02
-5.774280428886413574e-02
4.380272235721349716e-03
-5.412867292761802673e-02
3.638456016778945923e-02
-4.005700722336769104e-02
1.365540027618408203e-01
1.746445149183273315e-01
3.508015573024749756e-01
4.760023951530456543e-02
-3.664482012391090393e-02
-1.990918302908539772e-03
-1.790425926446914673e-01
-1.037980541586875916e-01
7.113669067621231079e-02
2.437366545200347900e-01
1.264850497245788574e-01
5.586272105574607849e-02
-3.985375165939331055e-02
7.825026661157608032e-02
-2.298807911574840546e-02
-2.016274631023406982e-01
3.962843716144561768e-01
-1.412425488233566284e-01
-1.278254687786102295e-01
8.082117140293121338e-02
6.995096802711486816e-02
2.422451227903366089e-01
1.519052982330322266e-01
1.179039031267166138e-01
4.028892144560813904e-02
-1.036998629570007324e-01
1.695536524057388306e-01
2.964073121547698975e-01
9.409280121326446533e-02
2.857825756072998047e-01
1.635058969259262085e-01
1.239620819687843323e-01
1.238520368933677673e-01
2.407700940966606140e-02
-5.623485520482063293e-02
1.288320571184158325e-01
-4.956825450062751770e-02
6.964442133903503418e-02
1.534614562988281250e-01
3.713754191994667053e-02
1.803626678884029388e-02
8.235447853803634644e-02
7.661449164152145386e-02
2.443864792585372925e-01
2.875000238418579102e-01
1.648726016283035278e-01
2.676021158695220947e-01
3.257094621658325195e-01
1.967908889055252075e-01
8.129099756479263306e-02
1.373965740203857422e-01
1.491360962390899658e-01
2.314436584711074829e-01
2.678470499813556671e-02
1.822205036878585815e-01
3.023697137832641602e-01
2.229734063148498535e-01
1.433580368757247925e-01
2.709265649318695068e-01
1.603329777717590332e-01
1.186265274882316589e-01
1.989140510559082031e-01
1.105521917343139648e-01
8.503344655036926270e-02
4.537792131304740906e-02
1.972772628068923950e-01
1.796811819076538086e-01
7.094297558069229126e-02
1.946841627359390259e-01
-4.078798368573188782e-02
2.590457797050476074e-01
1.375892013311386108e-01
1.159451529383659363e-01
1.108094584196805954e-03
3.537639603018760681e-02
-3.170427307486534119e-02
2.630976587533950806e-02
8.657871931791305542e-02
-1.458193361759185791e-01
1.071001514792442322e-01
2.413043379783630371e-01
1.729430109262466431e-01
8.150103688240051270e-02
8.878330886363983154e-02
1.350246369838714600e-01
1.637978553771972656e-01
2.837925218045711517e-02
2.092371731996536255e-01
2.316229194402694702e-01
1.495163440704345703e-01
4.626126959919929504e-03
1.285681426525115967e-01
4.310368001461029053e-02
2.547380626201629639e-01
9.968484938144683838e-02
-1.322003453969955444e-01
2.444547414779663086e-01
2.443109005689620972e-01
8.549221605062484741e-02
1.243654415011405945e-01
-4.586544632911682129e-02
3.178449571132659912e-01
2.484342753887176514e-01
2.104923278093338013e-01
9.745600074529647827e-02
2.279260903596878052e-01
1.968379616737365723e-01
-6.678593158721923828e-02
9.502408653497695923e-02
1.905176490545272827e-01
9.544529020786285400e-02
6.512109190225601196e-02
1.488097161054611206e-01
1.286927983164787292e-02
5.930167064070701599e-02
1.558485776185989380e-01
-2.496268600225448608e-02
1.803423017263412476e-01
-3.406715113669633865e-03
-2.324183098971843719e-02
1.282360702753067017e-01
7.180718332529067993e-02
2.576259672641754150e-01
5.740951001644134521e-02
-1.919872872531414032e-02
2.025235593318939209e-01
8.775486797094345093e-02
1.729705482721328735e-01
-2.318618074059486389e-02
-1.924302079714834690e-03
3.829830139875411987e-02
2.937713563442230225e-01
1.195939108729362488e-01
2.603912353515625000e-01
2.875624597072601318e-01
1.110111027956008911e-01
2.847651392221450806e-02
-6.522788107395172119e-02
1.980570703744888306e-01
3.117890655994415283e-02
1.130220219492912292e-01
2.331093698740005493e-01
-1.103635970503091812e-02
5.803309753537178040e-02
3.093206137418746948e-02
7.899544388055801392e-02
1.626667529344558716e-01
2.173382192850112915e-01
-2.197949215769767761e-02
1.741129159927368164e-01
2.441409677267074585e-01
-1.131300106644630432e-01
3.422656357288360596e-01
2.640612423419952393e-01
-1.491161137819290161e-01
1.778617501258850098e-01
-5.323344469070434570e-02
-1.896243393421173096e-01
1.166695281863212585e-01
-9.655972570180892944e-02
-6.560606509447097778e-02
3.705304488539695740e-02
-6.374431401491165161e-02
-1.160467788577079773e-02
-8.978373557329177856e-02
-7.448752969503402710e-02
7.183304056525230408e-03
1.047748625278472900e-01
9.325751662254333496e-02
-7.596629858016967773e-02
-3.319603949785232544e-02
-1.360400170087814331e-01
-3.727306379005312920e-03
7.474897801876068115e-02
1.595667190849781036e-02
8.535513281822204590e-02
1.270353496074676514e-01
-6.138836592435836792e-02
1.148845721036195755e-02
9.836582839488983154e-02
-7.538638263940811157e-02
8.792228065431118011e-03
6.586822867393493652e-02
4.122657701373100281e-02
2.565705589950084686e-02
1.054325848817825317e-01
-4.947676323354244232e-03
1.644972264766693115e-01
-1.240582987666130066e-01
-2.581155113875865936e-02
3.786618635058403015e-02
1.056031417101621628e-02
-1.225062552839517593e-02
4.204822331666946411e-02
-1.514634341001510620e-01
-2.555457688868045807e-02
-6.430288404226303101e-02
1.495948340743780136e-02
-3.309393068775534630e-03
-2.154384106397628784e-01
-3.656188771128654480e-02
-9.367337822914123535e-02
4.857651889324188232e-02
-2.236055955290794373e-02
-4.592167586088180542e-02
1.816998124122619629e-01
4.273433238267898560e-02
-1.449285298585891724e-01
-1.918091922998428345e-01
6.966726481914520264e-02
-5.644557252526283264e-02
-1.844312846660614014e-01
-2.257524132728576660e-01
8.158611133694648743e-03
-1.766751147806644440e-02
-1.891982406377792358e-01
3.713312745094299316e-02
-2.032347768545150757e-01
-2.173707820475101471e-02
-1.598003506660461426e-01
3.045490570366382599e-02
-7.758767460472881794e-04
6.851049512624740601e-02
4.927808791399002075e-02
5.935367941856384277e-02
3.992710262537002563e-02
-2.456951588392257690e-01
4.569722712039947510e-02
-3.853410854935646057e-02
4.622119292616844177e-02
-8.827750571072101593e-03
1.418089866638183594e-01
-2.929464913904666901e-02
-1.991996616125106812e-01
-1.472127251327037811e-02
1.062391102313995361e-01
-1.149232406169176102e-02
-1.335639059543609619e-01
-5.914260074496269226e-02
-6.860052794218063354e-02
-6.301305443048477173e-02
-2.289669960737228394e-01
-5.142231285572052002e-02
6.364281475543975830e-02
-2.533606886863708496e-01
3.518791496753692627e-02
2.241845428943634033e-02
-1.602219045162200928e-01
-9.316936880350112915e-02
9.481890499591827393e-02
1.189452707767486572e-01
4.622840881347656250e-02
9.197926521301269531e-02
-7.999113947153091431e-02
-8.766366541385650635e-02
-7.997422665357589722e-02
1.445948705077171326e-02
-1.210197061300277710e-01
-5.744653195142745972e-02
-4.373736213892698288e-03
3.394398838281631470e-02
4.587578028440475464e-02
-4.392832517623901367e-02
7.521210610866546631e-02
7.178714871406555176e-02
-3.920622169971466064e-02
6.565234065055847168e-02
-6.620688736438751221e-02
4.429428279399871826e-02
7.794264703989028931e-02
1.712012104690074921e-02
-4.627037048339843750e-02
2.832905016839504242e-02
-3.737816214561462402e-02
-1.103018224239349365e-02
-1.449810266494750977e-01
-1.129125505685806274e-01
-1.163919940590858459e-01
2.395573407411575317e-01
1.370577961206436157e-01
2.223917543888092041e-01
3.391297757625579834e-01
1.410481333732604980e-01
1.034259423613548279e-01
-9.792491048574447632e-02
1.923181116580963135e-01
-5.464772693812847137e-04
3.016743622720241547e-02
1.232595145702362061e-01
1.505295336246490479e-01
7.018166035413742065e-02
1.305600851774215698e-01
-2.683648563106544316e-05
1.014873906970024109e-01
3.113294243812561035e-01
1.466227471828460693e-01
9.083910286426544189e-02
3.641729429364204407e-02
1.815089285373687744e-01
2.611410319805145264e-01
1.079353913664817810e-01
2.218552380800247192e-01
1.569333970546722412e-01
2.049393057823181152e-01
-1.546100992709398270e-02
-4.729174077510833740e-02
1.572457104921340942e-01
2.119595557451248169e-01
1.117957849055528641e-02
3.176399469375610352e-01
7.855726033449172974e-02
1.750642061233520508e-01
8.849339932203292847e-02
1.669221743941307068e-02
1.452408730983734131e-01
1.863432824611663818e-01
8.914926648139953613e-02
5.104766041040420532e-02
9.089598059654235840e-02
5.564813315868377686e-02
2.527407184243202209e-02
2.807435393333435059e-01
1.693798452615737915e-01
5.253992974758148193e-02
1.418793350458145142e-01
1.554172188043594360e-01
1.292427182197570801e-01
2.606022059917449951e-01
2.164531797170639038e-01
1.513621211051940918e-01
1.332724690437316895e-01
1.551296263933181763e-01
1.244935914874076843e-01
-7.291676942259073257e-03
3.722162917256355286e-02
1.801085770130157471e-01
2.520284242928028107e-02
7.225020974874496460e-02
5.526429414749145508e-02
1.579654812812805176e-01
1.242358162999153137e-01
2.181932479143142700e-01
3.134633302688598633e-01
5.833144113421440125e-02
4.442837834358215332e-01
1.977682709693908691e-01
2.642178535461425781e-01
1.350736021995544434e-01
-3.829327225685119629e-02
1.203580945730209351e-01
1.141527444124221802e-01
-1.759721040725708008e-01
1.277676820755004883e-01
4.221754148602485657e-02
3.089786469936370850e-01
-1.266464293003082275e-01
-9.445410221815109253e-02
1.440330445766448975e-01
5.567547306418418884e-02
1.531151831150054932e-01
2.188896685838699341e-01
2.325515896081924438e-01
3.818874955177307129e-01
5.259846523404121399e-02
3.142738044261932373e-01
1.062972173094749451e-01
1.593920141458511353e-01
2.030948847532272339e-01
8.590832352638244629e-02
7.595685124397277832e-02
1.037604957818984985e-01
-7.423206698149442673e-03
7.351508364081382751e-03
1.943679600954055786e-01
-1.654609292745590210e-01
9.539820253849029541e-02
3.768767043948173523e-02
2.674385309219360352e-01
2.133124470710754395e-01
2.344610989093780518e-01
8.073725551366806030e-02
1.209192872047424316e-01
9.136475622653961182e-02
3.634352087974548340e-01
7.225531339645385742e-02
2.548439204692840576e-01
2.418686747550964355e-01
2.876185178756713867e-01
3.559318557381629944e-02
1.430616527795791626e-01
2.828189432621002197e-01
1.508635878562927246e-01
4.213986545801162720e-02
5.650208592414855957e-01
2.285949438810348511e-01
-6.535848975181579590e-02
2.858324646949768066e-01
1.197117120027542114e-01
-1.771388924680650234e-03
1.148945763707160950e-01
1.204372122883796692e-01
-4.235078394412994385e-02
2.685553766787052155e-02
2.007490247488021851e-01
3.243571147322654724e-02
5.841555595397949219e-01
