1.230343356728553772e-01
1.036367863416671753e-01
1.208443790674209595e-01
-1.268665939569473267e-01
1.259948015213012695e-01
1.291611343622207642e-01
-1.231418624520301819e-01
-1.205367967486381531e-01
1.170090511441230774e-01
-1.107574105262756348e-01
1.132960692048072815e-01
1.316396892070770264e-01
1.190640553832054138e-01
1.289096623659133911e-01
1.283399611711502075e-01
-1.265472918748855591e-01
1.263837069272994995e-01
-1.319824010133743286e-01
-1.172370016574859619e-01
-1.300776153802871704e-01
-1.223639994859695435e-01
-1.263487339019775391e-01
1.293814331293106079e-01
1.221845522522926331e-01
9.833640605211257935e-02
-1.264880746603012085e-01
-1.296647489070892334e-01
-9.994482994079589844e-02
-1.109587252140045166e-01
-1.182890683412551880e-01
1.234152764081954956e-01
1.225500181317329407e-01
-1.078748852014541626e-01
-1.081327274441719055e-01
-1.284863054752349854e-01
-1.051855832338333130e-01
1.168042346835136414e-01
1.286960095167160034e-01
9.104380011558532715e-02
1.089127138257026672e-01
1.104669496417045593e-01
1.061433851718902588e-01
-1.000491455197334290e-01
1.025911867618560791e-01
1.041893139481544495e-01
1.166429817676544189e-01
1.176519170403480530e-01
1.236941143870353699e-01
1.187120154500007629e-01
1.185384616255760193e-01
1.115855276584625244e-01
1.089978516101837158e-01
-1.108228787779808044e-01
1.247771903872489929e-01
1.087928786873817444e-01
1.204817816615104675e-01
-1.107313856482505798e-01
1.132065057754516602e-01
8.845932781696319580e-02
-1.043933331966400146e-01
1.051291823387145996e-01
9.144587814807891846e-02
1.197606697678565979e-01
-1.224704906344413757e-01
1.162867695093154907e-01
1.221827268600463867e-01
1.190060004591941833e-01
-1.200304105877876282e-01
-1.026321128010749817e-01
-1.023647189140319824e-01
1.059594452381134033e-01
1.167280673980712891e-01
1.040923818945884705e-01
1.194167584180831909e-01
