1.069921612739562988e+00
4.426372647285461426e-01
1.124461293220520020e+00
4.112356603145599365e-01
1.978528499603271484e-01
1.089691162109375000e+00
1.254552245140075684e+00
2.485610485076904297e+00
2.455624198913574219e+01
5.118675827980041504e-01
1.125495433807373047e+00
2.251276779174804688e+01
7.809608429670333862e-02
4.271452724933624268e-01
1.585560202598571777e+00
6.359766721725463867e-01
3.187157630920410156e+00
3.535673856735229492e+00
8.770978450775146484e-01
4.468876719474792480e-01
7.702592372894287109e+00
9.441628456115722656e-01
5.118800997734069824e-01
1.345971465110778809e+00
1.161009818315505981e-01
2.682525105774402618e-02
8.802229166030883789e-01
2.880322694778442383e+00
2.613006353378295898e+00
6.783089041709899902e-01
1.786426305770874023e+00
7.302249431610107422e+00
8.569821715354919434e-01
2.078261822462081909e-01
8.003565788269042969e+00
6.974679231643676758e-01
1.310685253143310547e+01
6.398544788360595703e+00
1.631864547729492188e+01
4.256651401519775391e-01
1.079751610755920410e+00
3.563089370727539062e+00
5.226095199584960938e+00
4.125826358795166016e-01
1.092576622962951660e+00
1.084885954856872559e+00
1.255262374877929688e+00
9.077569246292114258e-01
1.200216889381408691e+00
4.306888580322265625e-01
2.447888106107711792e-01
2.432487106323242188e+01
1.387969851493835449e-01
-7.379933446645736694e-02
8.833821415901184082e-01
7.934149742126464844e+00
2.021327781677246094e+01
1.483179569244384766e+00
2.853693673387169838e-03
5.076987743377685547e-01
1.129006147384643555e+00
5.917731523513793945e-01
2.868658304214477539e-01
4.530344009399414062e+00
9.105718731880187988e-01
1.193363666534423828e+00
6.665022373199462891e-01
1.568176031112670898e+00
1.185984015464782715e+00
2.695442199707031250e+00
1.822009658813476562e+01
-3.827604278922080994e-02
1.618360519409179688e+00
1.439098119735717773e+00
1.513351678848266602e+00
2.295738697052001953e+00
2.686965751647949219e+01
5.554488897323608398e-01
1.277451992034912109e+00
1.027550935745239258e+00
1.360695481300354004e+00
-6.890300512313842773e-01
1.204558610916137695e+00
1.883301258087158203e+00
2.979161262512207031e+01
1.019531846046447754e+00
2.960287666320800781e+01
4.703359305858612061e-01
4.794918894767761230e-01
1.011373758316040039e+00
1.256208181381225586e+00
1.619254946708679199e-01
1.290586113929748535e+00
2.668633162975311279e-01
4.778199195861816406e+00
5.990700721740722656e-01
3.708636164665222168e-01
1.993040800094604492e+00
3.558782339096069336e-01
6.441357731819152832e-01
1.395674467086791992e+00
6.106598377227783203e-01
4.173746585845947266e+00
2.302588462829589844e+01
1.059283828735351562e+01
1.758533269166946411e-01
6.934660673141479492e-01
1.361673712730407715e+00
1.484354400634765625e+01
1.087595224380493164e-01
1.231580376625061035e+00
4.283427894115447998e-01
1.200953960418701172e+00
1.254112601280212402e+00
1.067091846466064453e+01
1.062933087348937988e+00
3.716779351234436035e-01
-4.915283061563968658e-03
2.320425271987915039e+00
2.143122434616088867e+00
1.817976713180541992e+00
-2.718740999698638916e-01
1.201260447502136230e+00
8.100993037223815918e-01
1.132697868347167969e+01
1.828178024291992188e+01
1.760721969604492188e+01
2.072988510131835938e+00
3.783164322376251221e-01
1.894795536994934082e+00
1.048641800880432129e+00
2.301361083984375000e+01
2.226334190368652344e+01
5.369136929512023926e-01
2.940459966659545898e+00
-2.508502602577209473e-01
3.883481621742248535e-01
4.639954268932342529e-01
9.461098313331604004e-01
4.550713598728179932e-01
-2.715085633099079132e-02
5.524351596832275391e-01
1.995322036743164062e+01
-4.667730927467346191e-01
2.976692020893096924e-01
7.861406803131103516e-01
2.229897737503051758e+00
2.950441241264343262e-01
1.263255715370178223e+00
2.845050692558288574e-01
9.026374816894531250e-01
1.725433766841888428e-02
3.337123394012451172e-01
3.556196928024291992e+00
-2.521881461143493652e-01
-2.097705751657485962e-01
1.633145213127136230e-01
8.921025395393371582e-01
3.203240931034088135e-01
6.422646641731262207e-01
4.398729205131530762e-01
1.053562402725219727e+00
1.276388406753540039e+00
1.616755962371826172e+00
-6.527622789144515991e-02
1.580256652832031250e+01
1.449500560760498047e+00
1.971571207046508789e+00
5.792080163955688477e-01
1.071182966232299805e+00
3.544657468795776367e+00
9.682586789131164551e-01
1.904602241516113281e+01
7.509385347366333008e-01
-1.418367121368646622e-02
3.543170690536499023e+00
4.929623126983642578e+00
4.164440333843231201e-01
2.438175773620605469e+01
4.974009096622467041e-01
2.854756638407707214e-02
-3.978355601429939270e-02
3.792152404785156250e-01
9.349555373191833496e-01
1.086429730057716370e-01
8.432323336601257324e-01
1.169386953115463257e-01
6.094487309455871582e-01
1.267112016677856445e+00
9.022160172462463379e-01
7.215185165405273438e-01
8.797707408666610718e-02
1.397090077400207520e+00
1.769141793251037598e+00
9.899073839187622070e-01
2.855237483978271484e+00
9.060163497924804688e-01
4.469879716634750366e-02
1.078822016716003418e+00
1.207503795623779297e+00
1.169924736022949219e+00
-3.710081577301025391e+00
1.939678192138671875e+00
-4.824048519134521484e+00
-2.055183172225952148e+00
1.596826672554016113e+00
1.218010306358337402e+00
1.716443896293640137e+00
5.177208781242370605e-01
-4.939905643463134766e+00
1.578084468841552734e+00
-5.687336444854736328e+00
-8.509104847908020020e-01
1.526857614517211914e+00
1.111408472061157227e+00
1.381016612052917480e+00
1.357874870300292969e+00
1.338270068168640137e+00
1.163090348243713379e+00
4.001457989215850830e-01
-3.353615403175354004e-01
-2.379447698593139648e+00
1.111478209495544434e+00
-2.672123908996582031e+00
-3.891243457794189453e+00
7.141866683959960938e-01
1.733403086662292480e+00
1.609093427658081055e+00
1.320786237716674805e+00
-1.401195168495178223e+00
-3.721304237842559814e-01
1.450296878814697266e+00
1.123610377311706543e+00
-3.320334196090698242e+00
-1.337865066528320312e+01
1.633851408958435059e+00
8.336969614028930664e-01
1.581724524497985840e+00
-2.901221036911010742e+00
1.702192783355712891e+00
-6.222152233123779297e+00
-3.255563080310821533e-01
-1.322955513000488281e+01
1.250987052917480469e+00
1.315541625022888184e+00
1.005972146987915039e+00
1.816442728042602539e+00
-5.598706603050231934e-01
1.329033136367797852e+00
1.159411191940307617e+00
-2.824887037277221680e+00
1.486831068992614746e+00
1.246401548385620117e+00
-2.116440773010253906e+00
1.384140729904174805e+00
1.341345906257629395e+00
-3.235178470611572266e+00
1.533755540847778320e+00
-9.713642597198486328e-01
1.366585373878479004e+00
1.395258188247680664e+00
-2.364638328552246094e+00
-5.965764999389648438e+00
1.482034444808959961e+00
9.703719615936279297e-01
9.505666494369506836e-01
1.603488564491271973e+00
1.410951137542724609e+00
1.600906014442443848e+00
1.094509363174438477e+00
-3.974329233169555664e+00
1.435794830322265625e+00
1.467625856399536133e+00
1.435301899909973145e+00
1.511179804801940918e+00
1.083920955657958984e+00
1.546245455741882324e+00
-2.021951228380203247e-01
1.071707248687744141e+00
-1.962387204170227051e+00
1.390950560569763184e+00
1.310559749603271484e+00
-1.193985104560852051e+00
5.942693352699279785e-01
1.115523934364318848e+00
1.438052773475646973e+00
1.287166476249694824e+00
8.421280384063720703e-01
1.232562422752380371e+00
1.786516547203063965e+00
1.069666385650634766e+00
-1.714154332876205444e-01
1.483571767807006836e+00
1.404882907867431641e+00
1.365880727767944336e+00
1.024265766143798828e+00
9.969537258148193359e-01
9.370061755180358887e-01
-7.266105413436889648e-01
2.002617359161376953e+00
1.597026705741882324e+00
1.458312034606933594e+00
-1.494897556304931641e+01
-1.436181068420410156e-01
1.430913805961608887e+00
-1.576497592031955719e-02
8.781788945198059082e-01
3.483733236789703369e-01
1.120727658271789551e+00
3.619931340217590332e-01
-2.186949014663696289e+00
1.384162545204162598e+00
1.080608129501342773e+00
1.182989716529846191e+00
1.336907744407653809e+00
1.460099942050874233e-03
9.842432737350463867e-01
7.644394040107727051e-01
-3.133980035781860352e+00
1.596949696540832520e+00
1.342797875404357910e+00
-5.333060741424560547e+00
1.471923470497131348e+00
-4.697696864604949951e-01
2.739691734313964844e-01
4.053473100066184998e-02
-2.344174766540527344e+01
1.150136113166809082e+00
8.298344612121582031e-01
-4.239953994750976562e+00
-2.197840958833694458e-01
-5.001531600952148438e+00
1.658654570579528809e+00
1.359836816787719727e+00
1.499236822128295898e+00
9.237402081489562988e-01
-8.299766778945922852e-01
1.112080574035644531e+00
4.467471539974212646e-01
1.443807244300842285e+00
1.132974743843078613e+00
4.603159725666046143e-01
-6.136629581451416016e+00
-3.333687305450439453e+00
1.474609017372131348e+00
-3.611040711402893066e-01
1.504715919494628906e+00
1.394743919372558594e+00
1.531072497367858887e+00
1.446781516075134277e+00
1.504323005676269531e+00
-2.577391862869262695e+00
-1.876078486442565918e+00
1.481235027313232422e+00
-4.736151695251464844e+00
-2.330341815948486328e+00
-1.681066274642944336e+00
1.358105897903442383e+00
2.334439605474472046e-01
1.432801365852355957e+00
-4.076564311981201172e+00
1.132801055908203125e+00
1.337139487266540527e+00
-8.056059479713439941e-01
-5.114711761474609375e+00
-1.497088623046875000e+01
1.287412047386169434e+00
1.649630904197692871e+00
1.070795297622680664e+00
1.203184008598327637e+00
1.355338692665100098e+00
1.429142475128173828e+00
-1.333298563957214355e+00
6.581164598464965820e-01
-2.765856027603149414e+00
4.319796264171600342e-01
1.541989445686340332e+00
-8.987233042716979980e-02
-1.827540397644042969e+00
1.725988745689392090e+00
-1.690211534500122070e+00
8.957431316375732422e-01
8.605317473411560059e-01
-1.485830664634704590e+00
-3.146133661270141602e+00
1.422218561172485352e+00
9.849376678466796875e-01
-1.711946725845336914e+00
1.485798001289367676e+00
6.533213257789611816e-01
1.380646228790283203e+00
5.253672599792480469e-01
1.394245266914367676e+00
-8.558402061462402344e-01
1.223485469818115234e+00
1.307992339134216309e-01
1.226445794105529785e+00
1.196177244186401367e+00
1.654662847518920898e+00
1.619733810424804688e+00
-3.315203189849853516e+00
-2.280319035053253174e-01
-1.982181072235107422e+00
1.563657569885253906e+01
7.626839160919189453e+00
-1.834678053855895996e+00
-3.250582695007324219e+00
6.289107799530029297e-01
-1.066195666790008545e-01
1.228621578216552734e+01
4.402585983276367188e+00
1.388206426054239273e-02
-8.119993209838867188e+00
3.380974531173706055e+00
-9.251279234886169434e-01
-2.187236785888671875e+00
-8.369150161743164062e-01
3.759172439575195312e+00
3.097072362899780273e+00
8.084437370300292969e+00
1.599922180175781250e+00
7.884047508239746094e+00
5.732466220855712891e+00
4.692836761474609375e+00
-1.652485466003417969e+01
6.605358600616455078e+00
-1.892486691474914551e+00
-3.575784862041473389e-01
-5.702882409095764160e-01
2.756036520004272461e+00
3.264996290206909180e+00
1.139637470245361328e+00
-3.054354906082153320e+00
-9.749504089355468750e+00
-1.128250718116760254e+00
-1.933522224426269531e+00
2.603465795516967773e+00
8.854573965072631836e-01
-4.936953186988830566e-01
8.214915275573730469e+00
2.299498558044433594e+00
-2.855854988098144531e+00
-2.917377471923828125e+00
-7.938656330108642578e+00
2.709163904190063477e+00
-5.406584262847900391e+00
1.692500114440917969e+00
3.144295215606689453e+00
-4.725388050079345703e+00
7.089562416076660156e+00
1.094459629058837891e+01
4.282355308532714844e-02
3.061418533325195312e+00
9.046662330627441406e+00
3.181566476821899414e+00
-1.444246321916580200e-01
-2.012533880770206451e-02
2.819002389907836914e+00
-1.004700279235839844e+01
5.743516921997070312e+00
-2.755996465682983398e+00
9.624339103698730469e+00
1.608351898193359375e+01
-1.297881007194519043e+00
4.690922260284423828e+00
2.330459833145141602e+00
-2.556606292724609375e+00
2.014400959014892578e+00
2.692818403244018555e+00
-1.727470397949218750e+00
1.262087076902389526e-01
-3.649762153625488281e+00
-2.278881072998046875e+00
-8.615801334381103516e-01
-1.750689983367919922e+00
9.822897315025329590e-01
7.510561496019363403e-03
-6.662821769714355469e+00
-1.842387437820434570e+00
-7.321658611297607422e+00
-2.753324508666992188e+00
7.488774657249450684e-01
3.367119550704956055e+00
7.277520179748535156e+00
-9.566785767674446106e-03
-2.539331436157226562e+00
3.091745451092720032e-02
6.773836612701416016e+00
3.349792718887329102e+00
-3.660481452941894531e+00
2.966525316238403320e+00
9.415700912475585938e+00
2.353697538375854492e+00
-5.641900062561035156e+00
1.896382927894592285e+00
9.015803337097167969e+00
-5.662496089935302734e+00
1.426869869232177734e+00
-9.090835571289062500e+00
-7.162097454071044922e+00
2.584254980087280273e+00
-7.577680110931396484e+00
1.214176177978515625e+00
6.328981369733810425e-02
-1.796666681766510010e-01
7.580550670623779297e+00
5.539028167724609375e+00
-3.244578361511230469e+00
2.092989087104797363e-01
6.519587039947509766e+00
-7.900364398956298828e+00
9.896256327629089355e-01
-1.978074193000793457e+00
-4.825104713439941406e+00
-1.657593995332717896e-02
-3.331335067749023438e+00
-6.043591022491455078e+00
-7.433075904846191406e+00
-3.250014305114746094e+00
-8.937109112739562988e-01
-1.433233976364135742e+00
-1.951699829101562500e+01
3.143442392349243164e+00
4.429572105407714844e+00
-1.492132544517517090e+00
-1.072743013501167297e-01
7.981024682521820068e-02
4.678555011749267578e+00
-7.934183597564697266e+00
-4.521080017089843750e+00
3.822844505310058594e+00
6.548277568072080612e-03
7.383015751838684082e-02
-5.641635417938232422e+00
4.314565062522888184e-01
1.474625766277313232e-01
5.287369728088378906e+00
-7.464941024780273438e+00
5.602569580078125000e+00
-2.982030630111694336e+00
8.356941223144531250e+00
7.298833370208740234e+00
7.159483153373003006e-03
1.501285910606384277e+00
1.220888793468475342e-01
5.676309585571289062e+00
-5.332369208335876465e-01
-3.431748867034912109e+00
-1.480180978775024414e+00
2.838940620422363281e+00
2.735104799270629883e+00
-1.033690738677978516e+01
-7.925033092498779297e+00
-3.817532658576965332e-01
-1.472730636596679688e+01
-1.534596824645996094e+01
1.227694225311279297e+01
-3.119562625885009766e+00
5.429473876953125000e+00
1.055548548698425293e+00
-1.597280406951904297e+01
2.007578372955322266e+00
2.053479194641113281e+00
-3.733737707138061523e+00
-1.896245956420898438e+01
-1.210191696882247925e-01
-2.631036043167114258e+00
3.093614578247070312e-01
-2.962515592575073242e+00
2.431362152099609375e+00
-4.425580203533172607e-01
3.086236476898193359e+00
2.712426781654357910e-01
3.173152685165405273e+00
-8.489680290222167969e+00
-3.983879685401916504e-01
5.284440517425537109e-01
-4.869846343994140625e+00
5.755459144711494446e-02
-4.701865196228027344e+00
-8.867519378662109375e+00
5.252291202545166016e+00
5.047553062438964844e+00
8.243903160095214844e+00
-1.210684967041015625e+01
2.779695510864257812e+00
-6.771980285644531250e+00
1.449520206451416016e+01
3.022678375244140625e+00
-3.946099758148193359e+00
-5.575300693511962891e+00
-8.731919288635253906e+00
2.341362237930297852e+00
-7.780457735061645508e-01
-3.502976417541503906e+00
9.711527228355407715e-01
-3.652742385864257812e+00
4.537948131561279297e+00
5.453246831893920898e-01
1.738566040992736816e+00
