1.461863610893487930e-02
8.166761137545108795e-03
-1.012365706264972687e-02
1.652558296918869019e-01
1.486858911812305450e-02
-1.441604644060134888e-01
7.658477989025413990e-04
-1.032346114516258240e-02
1.563152074813842773e-01
6.889302283525466919e-02
6.772610545158386230e-02
-2.262153290212154388e-02
2.986824885010719299e-02
8.176916278898715973e-03
3.846508264541625977e-02
-8.348835259675979614e-02
-1.854258626699447632e-01
-9.196943789720535278e-02
1.158205047249794006e-01
6.814582645893096924e-02
5.047032982110977173e-02
7.519818097352981567e-02
-1.174128055572509766e-01
-5.791023746132850647e-02
-9.930540621280670166e-02
-1.766800433397293091e-01
1.083393469452857971e-01
-1.428493950515985489e-02
-1.663299500942230225e-01
-3.483489900827407837e-02
-5.028090998530387878e-02
-1.857916414737701416e-01
1.147254407405853271e-01
-2.044981904327869415e-02
-6.821288168430328369e-02
5.507300421595573425e-02
-4.036031197756528854e-03
-6.282150745391845703e-03
-3.024817258119583130e-02
9.168146550655364990e-02
-5.745131522417068481e-02
9.526052512228488922e-03
3.970612585544586182e-02
4.160538315773010254e-02
-1.154005080461502075e-01
-4.096833243966102600e-02
7.881634682416915894e-02
1.635581552982330322e-01
-2.025705017149448395e-02
7.684663683176040649e-02
2.092972956597805023e-02
8.673657663166522980e-03
1.046765074133872986e-01
-1.130362078547477722e-01
2.135773003101348877e-02
6.879045814275741577e-02
-8.634086698293685913e-02
6.842111051082611084e-02
8.797650039196014404e-02
-9.950865060091018677e-02
3.917884081602096558e-02
-6.035741046071052551e-02
3.194073960185050964e-02
3.505744738504290581e-03
9.686814248561859131e-02
6.847543641924858093e-03
-8.543638139963150024e-02
-5.126315727829933167e-02
1.021764501929283142e-01
1.212431415915489197e-01
-6.696921586990356445e-02
6.226661801338195801e-02
-1.411257777363061905e-02
-4.543275758624076843e-02
9.096583724021911621e-02
6.189651414752006531e-02
-1.780238300561904907e-01
-6.459821760654449463e-02
-6.529401242733001709e-02
1.583426743745803833e-01
-6.128070503473281860e-02
5.160891264677047729e-02
1.429717540740966797e-01
1.003533452749252319e-01
-5.253884475678205490e-03
-1.606016755104064941e-01
3.474096953868865967e-02
-2.689301734790205956e-03
3.107172437012195587e-02
6.189659610390663147e-02
-1.569711789488792419e-02
-2.643763087689876556e-03
-2.704533189535140991e-02
1.097130253911018372e-01
6.653325259685516357e-02
2.450729347765445709e-02
-3.623183444142341614e-02
-4.056868329644203186e-02
6.477005779743194580e-03
-5.674237757921218872e-02
-7.927405834197998047e-02
2.096277475357055664e-01
-7.860013842582702637e-02
2.496686391532421112e-02
2.119195275008678436e-02
1.554325222969055176e-01
3.488041087985038757e-02
5.896162986755371094e-02
1.284137666225433350e-01
-4.673766717314720154e-02
4.169549793004989624e-02
-2.977556362748146057e-02
5.699818208813667297e-02
2.331872880458831787e-01
-4.898067563772201538e-02
-3.134273737668991089e-02
4.708769544959068298e-02
-4.397939518094062805e-02
3.044357150793075562e-02
-9.215606003999710083e-02
6.388776749372482300e-02
3.334312885999679565e-02
-7.055491954088211060e-02
2.060896717011928558e-02
-1.489102840423583984e-01
1.134749129414558411e-01
2.409257553517818451e-02
8.303300291299819946e-02
-6.487059872597455978e-04
5.563838779926300049e-02
-3.297645226120948792e-02
5.775952339172363281e-02
4.708170890808105469e-02
1.295285113155841827e-02
-8.924241364002227783e-02
-7.417903840541839600e-02
7.100579142570495605e-02
3.089815750718116760e-02
-5.337806418538093567e-02
-4.415203258395195007e-02
-2.064141258597373962e-02
-2.689137589186429977e-03
8.810124360024929047e-03
4.396975785493850708e-02
9.176350384950637817e-02
-8.074972778558731079e-03
-1.579828560352325439e-01
7.194882258772850037e-03
-1.296987407840788364e-03
-1.199330985546112061e-01
