3.012126982212066650e-01 3.062231242656707764e-01 -1.018256783485412598e+00 5.773223042488098145e-01 -1.680051684379577637e+00 3.092008531093597412e-01 -4.046301543712615967e-01 -8.092049509286880493e-02 5.524066090583801270e-01 7.460893392562866211e-01 -1.801141500473022461e-01 4.282331764698028564e-01 -6.415087580680847168e-01 3.598969280719757080e-01 7.022903919219970703e+00 2.433031648397445679e-01 -2.171861171722412109e+00 -1.908870190382003784e-01 5.967787742614746094e+00 -7.750390172004699707e-01 4.489423036575317383e-01 -2.605257034301757812e-01 -7.602258920669555664e-01 6.163285374641418457e-01 -1.621159315109252930e+00 3.239614486694335938e+00 -1.363343238830566406e+00 -1.684074550867080688e-01 -1.008753657341003418e+00 -7.561351060867309570e-01 1.306239962577819824e-01 -5.596153736114501953e+00 -2.609302759170532227e+00 5.706143975257873535e-01 -1.971840299665927887e-02 4.913570880889892578e-01 -8.589657396078109741e-02 -4.510511398315429688e+00 -4.231930673122406006e-01 -3.622895002365112305e+00 -1.369272947311401367e+00 -1.779707074165344238e+00 -1.122796535491943359e+01 9.383179664611816406e+00 -2.181845188140869141e+00 -1.756924688816070557e-01 6.030975818634033203e+00 1.045358467102050781e+01 -2.784420177340507507e-02 5.235153436660766602e-01 -3.021203875541687012e-01 2.992101907730102539e-01 -2.024904251098632812e+00 -9.456276893615722656e-01 -4.822844266891479492e-01 -3.226688802242279053e-01 -2.665130794048309326e-01 9.982864856719970703e-01 -4.738216102123260498e-01 4.871644973754882812e+00 -6.986228227615356445e-01 -7.194350361824035645e-01 6.060954928398132324e-01 -2.037224531173706055e+00 5.602632164955139160e-01 1.779494136571884155e-01 1.441782474517822266e+00 -5.210198879241943359e+00 -1.381838083267211914e+00 -1.800826668739318848e+00 -1.256968212127685547e+01 1.497774273157119751e-01 9.312362670898437500e+00 -8.785275220870971680e-01 9.178554534912109375e+00 4.188717901706695557e-01 5.784159898757934570e-01 1.321870923042297363e+00 -1.093634009361267090e+00 -2.934066951274871826e-01 -4.581266269087791443e-02 1.374754667282104492e+00 2.083664417266845703e+00 -9.991676330566406250e+00 2.947768270969390869e-01 3.289797306060791016e+00 7.389894008636474609e+00 -1.986128985881805420e-01 -1.224159002304077148e+00 -1.103750133514404297e+01 -3.040366411209106445e+00 -9.883113861083984375e+00 1.463046193122863770e+00 -6.497497111558914185e-02 -3.397912085056304932e-01 -1.014437973499298096e-01 5.268966197967529297e+00 1.414462327957153320e+00 5.835108757019042969e-01 5.525748729705810547e+00 -2.097778320312500000e-01 3.391389369964599609e+00 -3.004543185234069824e-01 2.677205801010131836e-01 2.047313451766967773e+00 1.501121282577514648e+00 1.659564524888992310e-01 8.254662752151489258e-01 1.980580568313598633e+00 -3.214939117431640625e+00 -6.951420307159423828e-01 -4.744983613491058350e-01 7.416110634803771973e-01 9.611085057258605957e-01 1.332737319171428680e-02 2.308676004409790039e+00 3.609159469604492188e+00 7.815737724304199219e-01 -3.916621208190917969e-01 7.080225944519042969e-01 1.543405771255493164e+00 -6.019356194883584976e-03 -2.824828624725341797e+00 4.601758420467376709e-01 -3.048288583755493164e+00 -1.209623441100120544e-01 -1.578935533761978149e-01 8.628973364830017090e-01 -4.721661806106567383e-01 -3.118316829204559326e-01 5.900534152984619141e+00 3.187643289566040039e-01 6.700557231903076172e+00 5.725972175598144531e+00 -3.465456962585449219e-01 6.354053616523742676e-01 5.139610171318054199e-01 -1.135578346252441406e+01 2.319405227899551392e-01 3.063754737377166748e-01 9.296109676361083984e-01 3.715516328811645508e+00 1.381203979253768921e-01 -4.507370471954345703e+00 -3.579632282257080078e+00 -1.185430169105529785e+00 -9.750084877014160156e+00 4.640583097934722900e-01 -5.757740139961242676e-01 -6.425000667572021484e+00
3.986569643020629883e-01 -4.790380597114562988e-01 1.889114618301391602e+00 7.141510844230651855e-01 -9.524007797241210938e+00 3.647762238979339600e-01 -7.625498622655868530e-02 1.972282648086547852e+00 9.270098060369491577e-02 -1.325113773345947266e+00 9.992560744285583496e-01 8.879721909761428833e-02 7.568904757499694824e-01 3.489449620246887207e-01 7.496483325958251953e-01 -7.080097198486328125e-01 -6.538788795471191406e+00 1.381378918886184692e-01 4.675651550292968750e+00 3.617430686950683594e+00 -4.356267303228378296e-02 -8.820136785507202148e-01 -9.529342651367187500e-01 1.404486656188964844e+00 -1.043635368347167969e+01 -2.415863990783691406e+00 -3.664325475692749023e-01 5.728999972343444824e-01 -3.451545238494873047e+00 -1.114710092544555664e+00 1.626580595970153809e+00 -4.176791191101074219e+00 9.119953155517578125e+00 -8.970260024070739746e-01 -1.870875716209411621e+00 5.373254418373107910e-01 -3.458232581615447998e-01 -7.731198787689208984e+00 3.363867402076721191e-01 -2.782883882522583008e+00 -3.593698441982269287e-01 1.640322566032409668e+00 -1.014077186584472656e+00 -4.520349025726318359e+00 1.115984082221984863e+00 5.088557600975036621e-01 1.116535282135009766e+01 4.648372173309326172e+00 4.464302957057952881e-01 1.952114403247833252e-01 -7.467590570449829102e-01 1.280575156211853027e+00 -4.889549612998962402e-01 -2.637676596641540527e-01 1.211581453680992126e-01 1.382086127996444702e-01 7.611564397811889648e-01 9.500255435705184937e-02 -1.712068915367126465e-01 -2.129215478897094727e+00 7.134969234466552734e-01 3.164852857589721680e+00 -2.747905731201171875e+00 -1.136686086654663086e+00 -2.855557501316070557e-01 2.132103681564331055e+00 -9.062228798866271973e-01 9.769618988037109375e+00 1.081863212585449219e+01 9.935230612754821777e-01 4.585619866847991943e-01 5.951384454965591431e-02 -5.113299369812011719e+00 3.869322836399078369e-01 -1.660941004753112793e+00 5.215073227882385254e-01 -3.698415160179138184e-01 1.161344647407531738e+00 3.749050498008728027e-01 1.454357951879501343e-01 3.980528712272644043e-01 9.082989692687988281e+00 -1.399094462394714355e+00 7.179372787475585938e+00 2.706756591796875000e-01 -7.967988014221191406e+00 3.045620441436767578e+00 -5.054019093513488770e-01 9.782716631889343262e-01 1.471193313598632812e+00 2.308765888214111328e+00 5.440166950225830078e+00 2.858421802520751953e-01 3.314049839973449707e-01 8.840861320495605469e+00 -2.561847865581512451e-01 5.197955131530761719e+00 -2.182708024978637695e+00 1.789726875722408295e-02 7.443835139274597168e-01 7.301042079925537109e-01 7.966903209686279297e+00 -2.169504016637802124e-01 -1.810520648956298828e+00 8.320978879928588867e-01 5.730379819869995117e-01 1.392695903778076172e-01 -6.157273650169372559e-01 1.230387568473815918e+00 -5.571960449218750000e+00 6.236595153808593750e+00 2.212145179510116577e-01 -1.951110363006591797e+00 9.151144981384277344e+00 3.379444777965545654e-01 -2.235986471176147461e+00 -2.510016858577728271e-01 -1.002453923225402832e+00 1.346114397048950195e+00 9.015288352966308594e-01 1.408344864845275879e+00 2.709613740444183350e-01 -1.693387627601623535e+00 2.607712268829345703e+00 -1.565530395507812500e+01 4.785433113574981689e-01 -8.323451131582260132e-02 -2.998654365539550781e+00 -1.576981306076049805e+00 1.739500164985656738e+00 -7.026554584503173828e+00 1.576530635356903076e-01 -3.638175249099731445e+00 -7.315260916948318481e-02 -7.527196407318115234e-01 3.448599874973297119e-01 -2.018873929977416992e+00 -3.671755194664001465e-01 3.985925018787384033e-01 -1.409208476543426514e-01 2.800082921981811523e+00 -1.898772835731506348e+00 -9.927269816398620605e-01 -1.555677413940429688e+00 4.197221755981445312e+00 -1.360837340354919434e+00 -2.366109609603881836e+00 -3.360769748687744141e-01 -2.691341400146484375e+00 -3.142477273941040039e+00
-1.111289262771606445e+00 -2.256928682327270508e+00 -5.005072951316833496e-01 -8.913463354110717773e-01 2.099811315536499023e+00 -2.202291727066040039e+00 9.093334674835205078e-01 -1.234468817710876465e+00 -3.371317088603973389e-01 6.398397088050842285e-01 7.762310504913330078e-01 -1.941222906112670898e+00 1.560408711433410645e+00 -1.234645366668701172e+00 9.925249814987182617e-01 -1.539535641670227051e+00 -2.936594009399414062e+00 -2.688926160335540771e-01 -6.637590408325195312e+00 2.021889984607696533e-01 4.478987157344818115e-01 1.494158148765563965e+00 -6.142832756042480469e+00 2.308356523513793945e+00 6.128307819366455078e+00 -7.114385128021240234e+00 7.753737568855285645e-01 -2.183748245239257812e+00 5.276582837104797363e-01 -4.252346456050872803e-01 -3.366262614727020264e-01 -3.402322053909301758e+00 3.692454338073730469e+00 -1.668662667274475098e+00 -2.512026071548461914e+00 -1.569509029388427734e+00 -5.822922587394714355e-01 2.294237613677978516e+00 1.856041073799133301e+00 -2.147347211837768555e+00 1.335608124732971191e+00 -2.139663934707641602e+00 7.578618526458740234e+00 -4.700243949890136719e+00 4.948257803916931152e-01 1.374772310256958008e+00 -1.212843227386474609e+01 3.655415534973144531e+00 1.697118639945983887e+00 -4.248661547899246216e-02 3.263584613800048828e+00 9.365597963333129883e-01 -2.282324314117431641e+00 9.360643029212951660e-01 -3.937451243400573730e-01 3.890015780925750732e-01 -1.017690598964691162e-01 2.030025005340576172e+00 1.350234150886535645e-01 -1.138457536697387695e+00 -7.939847707748413086e-01 1.903673052787780762e+00 3.682079613208770752e-01 6.151682734489440918e-01 1.199103951454162598e+00 -1.190185770392417908e-01 1.827660322189331055e+00 -4.501505851745605469e+00 8.877421379089355469e+00 1.116336345672607422e+00 -1.113391876220703125e+01 1.677782893180847168e+00 3.392210245132446289e+00 -2.803864002227783203e+00 5.874132156372070312e+00 -8.596787601709365845e-02 1.322579145431518555e+00 8.396831512451171875e+00 9.628536105155944824e-01 2.339445829391479492e+00 -1.834755778312683105e+00 -1.155802726745605469e+00 -1.395607113838195801e+00 1.086933326721191406e+01 2.535286545753479004e-01 -4.047950804233551025e-01 1.413313627243041992e+00 -2.137058734893798828e+00 -3.164779663085937500e+00 3.281963825225830078e+00 3.156613409519195557e-01 2.611928939819335938e+00 5.761162042617797852e-01 -5.187061429023742676e-02 6.464757025241851807e-02 3.334080219268798828e+00 2.144149541854858398e+00 5.965250134468078613e-01 -2.074602603912353516e+00 1.953482031822204590e+00 -1.718297719955444336e+00 -1.225027441978454590e+00 1.158967971801757812e+00 -8.300728201866149902e-01 2.614788532257080078e+00 3.520424842834472656e+00 -5.950922369956970215e-01 2.925935506820678711e+00 9.243044853210449219e+00 3.150117695331573486e-01 6.379075527191162109e+00 -1.150306940078735352e+00 1.458996772766113281e+00 1.754843831062316895e+00 -1.517091035842895508e+00 -8.780587464570999146e-02 1.380682849884033203e+01 1.130787968635559082e+00 4.976719379425048828e+00 -1.802577972412109375e+00 4.493518829345703125e+00 -2.307148694992065430e+00 -2.907402992248535156e+00 7.657698541879653931e-02 4.926900386810302734e+00 4.744685888290405273e-01 1.671264767646789551e+00 -2.188400179147720337e-01 1.128601431846618652e+00 -8.048554509878158569e-02 -1.571144819259643555e+00 1.018268585205078125e+00 -2.643287897109985352e+00 -1.295444965362548828e-01 6.122939586639404297e-01 -1.543275713920593262e+00 -5.912365317344665527e-01 8.326408386230468750e+00 -2.156620770692825317e-01 -1.778078913688659668e+00 -6.095266342163085938e-01 8.785004615783691406e+00 2.476015329360961914e+00 3.078628063201904297e+00 -3.244258165359497070e+00 3.159761190414428711e+00 -1.306305217742919922e+01 1.196020603179931641e+00 -1.969488501548767090e+00 -1.295606851577758789e+00
1.382087826728820801e+00 7.563276290893554688e+00 9.262967109680175781e-01 3.484157919883728027e-01 9.564287066459655762e-01 5.798839092254638672e+00 -3.972498774528503418e-01 2.387025117874145508e+00 -5.539449453353881836e-01 -1.852180004119873047e+00 -2.362902164459228516e+00 1.220017313957214355e+00 -2.472675800323486328e+00 2.409009188413619995e-01 9.838744401931762695e-01 3.220998287200927734e+00 8.098401069641113281e+00 -5.014571920037269592e-02 -1.337530493736267090e+00 -1.465341925621032715e+00 3.924934566020965576e-01 -3.707483053207397461e+00 -2.512042284011840820e+00 1.814357757568359375e+00 -8.197709083557128906e+00 -2.522089242935180664e+00 2.844421751797199249e-02 7.447892189025878906e+00 -2.524181604385375977e+00 3.628829002380371094e+00 7.292962074279785156e-01 1.147316098213195801e+00 -1.044432401657104492e+00 3.427075862884521484e+00 4.928983211517333984e+00 -6.718507409095764160e-01 -7.017451524734497070e-02 2.537802696228027344e+00 -5.543194770812988281e+00 7.191140651702880859e-01 2.686861157417297363e-01 -1.455113053321838379e+00 6.315071582794189453e+00 -1.306450128555297852e+00 7.646879553794860840e-01 -4.090970039367675781e+00 -2.385389566421508789e+00 -1.101590633392333984e+00 -4.685595035552978516e+00 3.052093982696533203e-01 -1.223497867584228516e+01 -4.406564712524414062e+00 6.103668689727783203e+00 7.954724431037902832e-01 1.545664787292480469e+00 -1.439008116722106934e+00 3.810028314590454102e+00 -8.269923210144042969e+00 -3.823619365692138672e+00 7.134223580360412598e-01 -1.013637781143188477e+00 -1.804412126541137695e+00 -1.200195908546447754e+00 -1.380475759506225586e+00 -2.706138372421264648e+00 -1.103275418281555176e+00 -4.465151309967041016e+00 -7.990105748176574707e-01 3.939115762710571289e+00 1.958313584327697754e-01 -7.387162446975708008e-01 -3.604579448699951172e+00 2.572744846343994141e+00 6.767325878143310547e+00 1.676113843917846680e+00 1.197070255875587463e-02 3.682951629161834717e-01 3.581758499145507812e+00 -2.286047220230102539e+00 -7.079119682312011719e+00 4.315265178680419922e+00 -2.856433391571044922e+00 4.299488067626953125e+00 3.334624052047729492e+00 -1.072933435440063477e+00 -1.161968987435102463e-02 1.082307338714599609e+00 1.201187372207641602e+00 2.685690402984619141e+00 7.271878719329833984e-01 -9.388493299484252930e-01 -8.675541877746582031e-01 1.557122349739074707e+00 -7.092356681823730469e-02 -2.214372158050537109e+00 -8.740090370178222656e+00 7.724881172180175781e-01 -3.866791009902954102e+00 4.067911148071289062e+00 8.966406822204589844e+00 4.768105506896972656e+00 -3.723895549774169922e-01 -2.856520652770996094e+00 2.353843927383422852e+00 -2.455140590667724609e+00 -4.075268745422363281e+00 -1.654610782861709595e-01 -2.380755662918090820e+00 1.574740052223205566e+00 -3.830122709274291992e+00 2.480500459671020508e+00 3.167955636978149414e+00 -5.179892063140869141e+00 9.665736556053161621e-01 1.847115159034729004e+00 1.005141019821166992e+00 4.861852169036865234e+00 -1.991182684898376465e+00 -7.554028034210205078e+00 6.633356571197509766e+00 7.648621082305908203e+00 1.328965663909912109e+00 -2.400489330291748047e+00 -8.306997418403625488e-01 4.924345493316650391e+00 -9.346468448638916016e-01 -3.837552309036254883e+00 6.295090913772583008e-01 -3.957636594772338867e+00 -1.756375074386596680e+00 -3.717005491256713867e+00 -5.431499004364013672e+00 -1.410017967224121094e+00 -7.870671749114990234e-01 -2.951751947402954102e-01 4.105278015136718750e+00 -2.454814672470092773e+00 6.523206830024719238e-01 6.113996505737304688e-01 1.634120702743530273e+00 3.123642206192016602e+00 -4.126083254814147949e-01 -2.007546663284301758e+00 1.582896232604980469e+00 -4.176976680755615234e+00 -8.582149505615234375e+00 -6.657028198242187500e+00 2.156175374984741211e+00 3.438044071197509766e+00 7.301163077354431152e-01
1.097467780113220215e+00 6.114483475685119629e-01 1.666941642761230469e+00 7.838653564453125000e+00 2.476581335067749023e+00 -3.842299461364746094e+00 8.246088027954101562e-01 -3.296469748020172119e-01 1.013386058807373047e+01 9.366241693496704102e-01 5.918864011764526367e-01 -2.412460148334503174e-01 -5.330648645758628845e-02 1.697794318199157715e+00 6.164035201072692871e-01 -6.529062986373901367e-01 -8.451077461242675781e+00 -4.633987843990325928e-01 -2.628858089447021484e-01 -5.424131751060485840e-01 5.182973384857177734e+00 5.932415127754211426e-01 -8.747984170913696289e-01 9.372283816337585449e-01 -4.859885215759277344e+00 -5.235226750373840332e-01 1.420688182115554810e-01 -5.974801722913980484e-03 -5.667266845703125000e+00 4.651571214199066162e-01 -1.287839859724044800e-01 -8.809777498245239258e-01 -1.546767592430114746e+00 6.815792560577392578e+00 -1.872952461242675781e+00 1.447133922576904297e+01 5.340765476226806641e+00 -7.219181954860687256e-02 1.681928157806396484e+00 1.339260637760162354e-01 -6.271398067474365234e-01 7.249293327331542969e+00 4.898057460784912109e+00 -7.626695036888122559e-01 -4.211387634277343750e-01 1.445654869079589844e+00 2.308683395385742188e+00 -1.673741936683654785e+00 -6.498340368270874023e-01 7.527264207601547241e-02 2.336849689483642578e+00 -1.745870947837829590e+00 1.281207656860351562e+01 -1.263373470306396484e+01 -1.728250533342361450e-01 3.374406337738037109e+00 -7.807846546173095703e+00 -1.219712376594543457e+00 7.919939994812011719e+00 -6.011716276407241821e-02 2.005422830581665039e+00 5.460861325263977051e-01 -4.857425689697265625e+00 -3.715727329254150391e-01 1.273596167564392090e+00 -2.447795420885086060e-01 8.801378011703491211e-01 -9.872274100780487061e-02 1.327449679374694824e+00 -2.951473891735076904e-01 -1.057118251919746399e-01 7.060020416975021362e-02 5.953785181045532227e-01 -2.056409120559692383e+00 8.567711114883422852e-01 -1.339467018842697144e-01 -8.741390228271484375e+00 6.764152050018310547e-01 -6.005714893341064453e+00 1.046952724456787109e+01 -2.016491889953613281e+00 -7.341861724853515625e+00 8.475224494934082031e+00 -1.257245302200317383e+00 -2.230390310287475586e-01 -2.734174430370330811e-01 -4.996443986892700195e-01 1.335085034370422363e-01 9.093778610229492188e+00 1.377882361412048340e-01 -8.084021806716918945e-01 -1.288104653358459473e+00 -7.711200714111328125e-01 -3.490229845046997070e-01 -2.390380948781967163e-01 -1.076468825340270996e+00 -4.413380324840545654e-01 -4.248602092266082764e-01 5.967899799346923828e+00 -1.884965062141418457e+00 1.021175265312194824e+00 -1.968224793672561646e-01 -6.214221000671386719e+00 3.947125911712646484e+00 -1.737548708915710449e+00 8.268454670906066895e-01 -6.293376088142395020e-01 -7.926490306854248047e-01 1.787263274192810059e+00 1.991200685501098633e+00 7.508696317672729492e-01 -1.034097194671630859e+00 2.677920103073120117e+00 1.298960566520690918e+00 -1.608633995056152344e-01 4.855423867702484131e-01 7.099793553352355957e-01 -4.317032992839813232e-01 1.931853532791137695e+00 -5.492265224456787109e+00 -3.067857980728149414e+00 -2.450836896896362305e+00 3.843899488449096680e+00 1.611861586570739746e-01 3.421687364578247070e+00 5.825936198234558105e-01 -1.065300032496452332e-01 -3.205817043781280518e-01 1.095034003257751465e+00 5.688688755035400391e-01 -5.404225587844848633e-01 3.687977194786071777e-01 3.708531856536865234e-01 -4.447368681430816650e-01 3.168843686580657959e-02 -8.624037504196166992e-01 -3.091937780380249023e+00 -6.256128102540969849e-02 1.362517714500427246e+00 -2.028142690658569336e+00 5.237978100776672363e-01 -2.949836254119873047e-01 8.797463774681091309e-01 2.712261974811553955e-01 -2.769268274307250977e+00 -3.731316089630126953e+00 -3.259170293807983398e+00 1.508197784423828125e-01 -1.474369645118713379e+00 -8.253442645072937012e-01
7.243245244026184082e-01 1.184671521186828613e+00 -7.062842845916748047e+00 3.574627637863159180e-01 -9.134144783020019531e-01 -7.009473323822021484e+00 4.248396456241607666e-01 -8.579289436340332031e+00 4.376389086246490479e-01 1.318902254104614258e+00 4.296729087829589844e+00 -7.997533679008483887e-01 -3.039152622222900391e+00 -1.418346762657165527e+00 9.779441952705383301e-01 7.071977853775024414e-01 2.806113958358764648e+00 -7.358969688415527344e+00 3.487621545791625977e-01 -1.356619238853454590e+00 1.619249135255813599e-01 8.625759124755859375e+00 -8.013829588890075684e-02 3.530069291591644287e-01 4.647482037544250488e-01 -3.221186995506286621e-02 -1.757216602563858032e-01 3.024134039878845215e-01 -1.249128818511962891e+01 5.849358439445495605e-01 -1.067893314361572266e+01 -7.938829064369201660e-01 9.090316891670227051e-01 -6.327179908752441406e+00 2.060407400131225586e+00 7.765725851058959961e-01 2.300764992833137512e-02 -9.506367444992065430e-01 -8.004398345947265625e+00 5.200875282287597656e+00 -9.819498062133789062e-01 5.820459723472595215e-01 -9.999743103981018066e-01 -2.877932488918304443e-01 -4.012922197580337524e-02 -9.172393798828125000e+00 -1.862715631723403931e-01 2.174028158187866211e-01 -7.527028083801269531e+00 4.276281222701072693e-02 -8.450750708580017090e-01 -6.077088356018066406e+00 2.409356594085693359e+00 1.710917204618453979e-01 -2.950928509235382080e-01 5.912209033966064453e+00 -9.631682038307189941e-01 -1.205814722925424576e-02 -2.010166406631469727e+00 1.989438086748123169e-01 -6.894898414611816406e+00 -7.279983758926391602e-01 1.394402742385864258e+00 1.919269800186157227e+00 -2.174065411090850830e-01 1.472230106592178345e-01 -1.247809767723083496e+00 4.445545077323913574e-01 5.713349580764770508e-01 3.926034271717071533e-01 1.507071574451401830e-04 6.283301830291748047e+00 -1.390607595443725586e+00 4.953580379486083984e+00 -1.185388267040252686e-01 8.522665977478027344e+00 -1.302464306354522705e-01 -6.223239004611968994e-02 -4.716061949729919434e-01 1.394719362258911133e+00 -6.818860530853271484e+00 -7.043822109699249268e-02 6.845780014991760254e-01 2.292655944824218750e+00 -3.076116561889648438e+00 -8.820959329605102539e-01 1.756182163953781128e-01 2.937231063842773438e+00 -2.907380580902099609e+00 -1.155597567558288574e-01 -7.288753986358642578e-01 -5.681628584861755371e-01 -1.353524804115295410e+00 1.211369931697845459e-01 7.278006672859191895e-01 1.886406064033508301e+00 9.131060838699340820e-01 1.349482059478759766e+00 -2.050758153200149536e-01 -7.352191925048828125e+00 -8.065625190734863281e+00 4.165043532848358154e-01 2.894471883773803711e-01 1.103465080261230469e+01 -1.442581534385681152e+00 1.228079348802566528e-01 -1.620628088712692261e-01 2.072577953338623047e+00 -2.514567598700523376e-02 -9.082260131835937500e-01 3.998596668243408203e-01 2.392166703939437866e-01 -3.783760368824005127e-01 7.070395350456237793e-01 -2.434979379177093506e-01 -7.643726468086242676e-02 -3.105811595916748047e+00 -1.091899275779724121e+00 7.319023013114929199e-01 2.937273383140563965e-01 7.212911605834960938e+00 7.797425270080566406e+00 -3.366464078426361084e-01 -4.940574765205383301e-01 -2.464576244354248047e+00 3.057301759719848633e+00 2.800428271293640137e-01 -2.813703775405883789e+00 -3.846249341964721680e+00 -7.017040848731994629e-01 -3.346247076988220215e-01 9.896595478057861328e-01 2.476655244827270508e-01 -5.112837627530097961e-02 4.061615467071533203e-01 3.871886432170867920e-01 1.316837882995605469e+01 -3.430184125900268555e-01 -1.638408899307250977e+00 1.845232546329498291e-01 -7.686032772064208984e+00 6.724532693624496460e-02 -4.592148587107658386e-02 -3.998982608318328857e-01 5.117833986878395081e-02 9.060434997081756592e-02 -2.722180128097534180e+00 -1.082705616950988770e+00 1.358292460441589355e+00 -9.483451247215270996e-01
2.597009897232055664e+00 -1.567787379026412964e-01 -1.381594538688659668e+00 1.072780489921569824e+00 -2.459879219532012939e-01 -2.838868200778961182e-01 -1.282995820045471191e+00 1.126962780952453613e+00 2.079732894897460938e+00 -3.767644166946411133e-01 -2.681905746459960938e+00 -4.982847690582275391e+00 -2.012276411056518555e+00 1.370110630989074707e+00 1.931208372116088867e+00 -4.782038211822509766e+00 -8.467931747436523438e-01 -1.302375674247741699e+00 -2.215517520904541016e+00 -2.811989545822143555e+00 3.591105341911315918e-01 -2.041595458984375000e+00 -2.667795717716217041e-01 2.422403097152709961e-01 -1.512656331062316895e+00 1.789066553115844727e+00 -3.475078344345092773e+00 1.678922533988952637e+00 1.955757886171340942e-01 3.744096517562866211e+00 -2.973608255386352539e+00 7.971333980560302734e+00 -1.588794589042663574e-01 1.820530056953430176e+00 -5.148948192596435547e+00 -1.007852911949157715e+00 -2.367099046707153320e+00 -9.133419990539550781e+00 1.646811366081237793e+00 -9.186137914657592773e-01 3.327370166778564453e+00 -2.255218982696533203e+00 -2.675891518592834473e-01 -5.774028778076171875e+00 4.220958709716796875e+00 5.247016549110412598e-01 -3.096166372299194336e+00 -4.493507385253906250e+00 -1.642546057701110840e+00 1.089869141578674316e+00 9.192789196968078613e-01 2.552559040486812592e-02 -3.970906734466552734e+00 1.737629652023315430e+00 -4.692240059375762939e-01 -2.966074466705322266e+00 3.405048131942749023e+00 -4.220971584320068359e+00 -2.589315891265869141e+00 7.856578826904296875e-01 1.368327379226684570e+00 -2.951879978179931641e+00 -6.002404212951660156e+00 1.565646648406982422e+00 -1.478290319442749023e+00 -3.686948120594024658e-01 1.528765201568603516e+00 -2.818359136581420898e+00 -2.306629896163940430e+00 -5.565307140350341797e+00 -6.428658008575439453e+00 -1.287831664085388184e+00 6.584151268005371094e+00 -1.281920671463012695e+00 -1.315807628631591797e+01 -2.016377896070480347e-01 -2.985987901687622070e+00 8.245008468627929688e+00 2.265437126159667969e+00 4.405008256435394287e-01 -1.134439706802368164e+00 -2.403355121612548828e+00 1.281952112913131714e-01 -1.361124396324157715e+00 1.316015839576721191e+00 1.839348435401916504e+00 8.103606224060058594e+00 2.755419015884399414e+00 3.137094020843505859e+00 -1.139119720458984375e+01 5.666237831115722656e+00 1.414175629615783691e+00 -6.512781977653503418e-01 -2.251873254776000977e+00 6.648691892623901367e-01 1.243478655815124512e+00 8.149219512939453125e+00 -1.942083477973937988e+00 3.620987415313720703e+00 -3.122971773147583008e+00 -1.533338427543640137e+00 -3.574052572250366211e+00 -5.115373134613037109e-01 1.921536564826965332e+00 -1.637397289276123047e+00 -4.508560657501220703e+00 4.258145332336425781e+00 -8.849507570266723633e-01 4.667853832244873047e+00 2.265375375747680664e+00 2.232995033264160156e+00 2.733880043029785156e+00 -3.001394271850585938e-01 3.030236363410949707e-01 4.040579319000244141e+00 7.813770294189453125e+00 -8.717998266220092773e-01 1.604207158088684082e+00 4.921036064624786377e-01 2.305598020553588867e+00 -5.078173637390136719e+00 1.078655242919921875e+00 7.089300751686096191e-01 2.906050980091094971e-01 -4.018603324890136719e+00 -2.817215919494628906e-01 -1.102227091789245605e+00 -3.898884773254394531e+00 -8.786443471908569336e-01 2.217871427536010742e+00 3.747160673141479492e+00 2.486616134643554688e+00 -1.026321411132812500e+01 -9.326727390289306641e-01 9.979415684938430786e-02 2.632844209671020508e+00 9.577990174293518066e-01 1.150483369827270508e+00 1.290404677391052246e+00 -2.654787302017211914e-01 -4.412963867187500000e+00 -1.575905799865722656e+00 6.217998266220092773e-01 -5.614880561828613281e+00 2.418712973594665527e-01 2.598614454269409180e+00 8.957434892654418945e-01 -1.447346061468124390e-01 -3.356416463851928711e+00 1.275795173645019531e+01
3.437595367431640625e-01 -4.168384552001953125e+00 1.070814251899719238e+00 -3.478672981262207031e+00 -2.896617174148559570e+00 2.216366291046142578e+00 -1.417838096618652344e+00 -2.461130857467651367e+00 1.154105365276336670e-01 -7.911715507507324219e+00 4.041999816894531250e+00 -5.947345733642578125e+00 1.624810695648193359e+00 -1.300601840019226074e+00 3.342560768127441406e+00 3.544289827346801758e+00 6.613521575927734375e-01 2.439275026321411133e+00 -2.275707244873046875e+00 4.092334270477294922e+00 3.501806855201721191e-01 1.083051204681396484e+00 1.364118456840515137e+00 7.508396148681640625e+00 8.513836264610290527e-01 4.216895103454589844e+00 -5.329994201660156250e+00 -3.802538849413394928e-03 -1.972359418869018555e+00 2.573663234710693359e+00 3.196175813674926758e+00 -1.190607428550720215e+00 2.366065025329589844e+00 -7.246524691581726074e-01 6.073080062866210938e+00 -8.449512533843517303e-03 -2.898195981979370117e+00 4.390735149383544922e+00 2.848513364791870117e+00 -3.167527914047241211e+00 1.488934755325317383e+00 -9.854803681373596191e-01 1.563021779060363770e+00 -3.418070554733276367e+00 6.963327407836914062e+00 1.303121447563171387e+00 3.047638654708862305e+00 -2.221266031265258789e+00 1.140586376190185547e+00 -9.401274681091308594e+00 -1.514055728912353516e+00 -4.750412464141845703e+00 5.035642147064208984e+00 1.263761401176452637e+00 -1.568073034286499023e+00 -4.190356254577636719e+00 -5.745671689510345459e-02 -1.162956237792968750e+00 -5.172317028045654297e-01 1.068580150604248047e+01 -1.677623748779296875e+00 3.264039278030395508e+00 -3.828665912151336670e-01 -5.211629867553710938e+00 2.093608856201171875e+00 8.946529388427734375e+00 6.932236671447753906e+00 -1.451843023300170898e+00 -9.393860697746276855e-01 -4.630670547485351562e+00 4.593665122985839844e+00 -6.765282750129699707e-01 -8.558546304702758789e-01 -8.733527660369873047e-01 3.486196279525756836e+00 4.379700720310211182e-01 2.130548655986785889e-01 4.866937100887298584e-01 1.167570114135742188e+00 -2.210438847541809082e-01 -1.057233572006225586e+00 -2.449115276336669922e+00 -3.718430519104003906e+00 7.579927444458007812e-01 -1.462542414665222168e-01 -9.044896811246871948e-02 -9.608639776706695557e-02 3.469652891159057617e+00 1.930722355842590332e+00 5.701436996459960938e-01 1.645945072174072266e+00 2.323821306228637695e+00 -3.581740379333496094e+00 -5.052446365356445312e+00 7.290432453155517578e+00 -1.024534344673156738e+00 -4.678062915802001953e+00 2.003833055496215820e+00 3.731865167617797852e+00 3.540683686733245850e-01 3.039195299148559570e+00 -5.933557510375976562e+00 3.131583213806152344e+00 1.794377088546752930e+00 2.495964527130126953e+00 4.963275790214538574e-01 1.908329725265502930e+00 -7.752993583679199219e+00 -5.577149391174316406e+00 -2.497598409652709961e+00 6.873493790626525879e-01 -1.044347286224365234e+00 -3.565368652343750000e+00 2.561959266662597656e+00 -4.930647850036621094e+00 4.542295634746551514e-01 2.633454561233520508e+00 8.308174133300781250e+00 6.566148281097412109e+00 1.375338196754455566e+00 -5.526033043861389160e-01 1.031074285507202148e+00 6.657373905181884766e+00 -3.494764864444732666e-01 -2.501572072505950928e-01 -4.581487178802490234e+00 -1.195883870124816895e+00 -5.367831230163574219e+00 6.897432804107666016e-01 -8.716260910034179688e+00 4.115145683288574219e+00 9.951579570770263672e-01 1.099277377128601074e+00 2.607082724571228027e-01 5.069055557250976562e+00 -4.781506955623626709e-01 1.671780586242675781e+00 -3.717004060745239258e+00 3.127084255218505859e+00 1.742693662643432617e+00 -6.065336227416992188e+00 8.843722343444824219e+00 -9.690182209014892578e-01 -2.810679912567138672e+00 -2.761894702911376953e+00 -1.265101432800292969e+00 8.350859582424163818e-02 1.672258734703063965e+00 -9.310109019279479980e-01 -2.150631994009017944e-01
-4.030463695526123047e+00 2.104637861251831055e+00 2.323191881179809570e+00 -5.865579605102539062e+00 -1.026581302285194397e-01 3.673113346099853516e+00 1.522018671035766602e+00 2.058472156524658203e+00 -1.691536068916320801e+00 6.086079120635986328e+00 3.891009330749511719e+00 1.407324218750000000e+01 4.474019527435302734e+00 -5.559696555137634277e-01 9.188741445541381836e-02 2.105741024017333984e+00 3.107835769653320312e+00 -1.763083100318908691e+00 -2.178351879119873047e+00 1.367559790611267090e+00 7.333542685955762863e-03 2.928455829620361328e+00 3.721563816070556641e+00 6.644327640533447266e+00 5.761497974395751953e+00 2.333930253982543945e+00 -5.374053955078125000e+00 4.574168205261230469e+00 -1.074791789054870605e+00 -4.645154476165771484e+00 7.208502292633056641e-02 3.836385011672973633e+00 -2.699810266494750977e+00 5.677605271339416504e-01 -1.184540152549743652e+00 -3.950843334197998047e+00 -1.726623296737670898e+00 -3.153938055038452148e-01 1.526953935623168945e+00 -3.638476848602294922e+00 2.301802873611450195e+00 -1.071222782135009766e+00 1.567130982875823975e-01 -2.137162446975708008e+00 6.213199138641357422e+00 -9.516336917877197266e-01 4.141362190246582031e+00 -1.793101191520690918e+00 -1.638814210891723633e+00 1.347610712051391602e+00 2.467577695846557617e+00 -7.326387166976928711e-01 6.860648155212402344e+00 2.807045459747314453e+00 2.690169095993041992e+00 2.228467941284179688e+00 -3.880450010299682617e+00 -9.482945203781127930e-01 9.957199692726135254e-01 7.291911840438842773e-01 -6.792294979095458984e+00 5.148699283599853516e+00 -6.708281040191650391e+00 -1.930891394615173340e+00 -9.436010122299194336e-01 -4.228626251220703125e+00 3.007647991180419922e+00 5.902959823608398438e+00 -2.921687126159667969e+00 -6.208040237426757812e+00 -2.724971532821655273e+00 -1.446147441864013672e+00 2.679102897644042969e+00 -2.621002435684204102e+00 3.407698273658752441e-01 -1.142115831375122070e+00 -2.560508251190185547e+00 4.207542896270751953e+00 -1.825649619102478027e+00 1.771933197975158691e+00 -2.555692195892333984e+00 2.293831348419189453e+00 -2.065632343292236328e+00 5.466836690902709961e-01 -1.934240102767944336e+00 7.158179759979248047e+00 -4.852980136871337891e+00 -4.059821128845214844e+00 3.072721958160400391e-01 -2.450205564498901367e+00 -2.084486722946166992e+00 1.252688527107238770e+00 5.639655590057373047e-01 -1.357594132423400879e-01 2.106182098388671875e+00 1.576122403144836426e+00 4.621062278747558594e+00 6.596920490264892578e+00 -8.049054443836212158e-02 1.992344141006469727e+00 1.905658960342407227e+00 -1.301007747650146484e+00 -2.082580029964447021e-01 -2.700841426849365234e+00 -4.333102226257324219e+00 -2.943673610687255859e+00 -5.655339956283569336e-01 6.795660018920898438e+00 -3.643905401229858398e+00 4.351793527603149414e-01 2.411663532257080078e+00 -7.094744443893432617e-01 1.946275234222412109e+00 -4.096949696540832520e-01 4.540468692779541016e+00 -3.673459529876708984e+00 -5.103656291961669922e+00 -7.194538116455078125e+00 7.059813499450683594e+00 2.003112077713012695e+00 4.054992198944091797e+00 3.036734342575073242e+00 -2.229603379964828491e-01 -2.897194147109985352e+00 3.264656066894531250e+00 3.187340974807739258e+00 8.719092011451721191e-01 -7.953525543212890625e+00 -1.179066896438598633e-01 1.636103630065917969e+00 1.549535155296325684e+00 -5.188262939453125000e+00 -7.451681137084960938e+00 -2.822702229022979736e-01 2.088057398796081543e-01 5.301556549966335297e-03 -6.682931423187255859e+00 9.891866445541381836e-01 -3.193898439407348633e+00 -2.650869846343994141e+00 1.419722199440002441e+00 -2.179212570190429688e+00 8.553994297981262207e-01 -2.401212692260742188e+00 -3.618463039398193359e+00 9.651163220405578613e-01 -9.549716114997863770e-01 -2.936344861984252930e+00 4.608964622020721436e-01 -8.860913276672363281e+00
2.793116569519042969e+00 1.940734863281250000e+00 -6.439267158508300781e+00 -3.512533605098724365e-01 -2.851966619491577148e+00 -3.140307188034057617e+00 9.135387539863586426e-01 -3.367638111114501953e+00 3.886648118495941162e-01 -4.677749633789062500e+00 -4.970773696899414062e+00 -5.689965486526489258e-01 -1.314969420433044434e+00 -4.228259086608886719e+00 -3.903634786605834961e+00 3.163690805435180664e+00 -1.803723573684692383e+00 -3.159065008163452148e+00 -2.792506694793701172e+00 -4.329724311828613281e+00 -7.347393035888671875e-01 -5.503190159797668457e-01 7.129978537559509277e-01 6.155550003051757812e+00 -6.809834003448486328e+00 4.847649037837982178e-01 -5.695195674896240234e+00 -7.191257953643798828e+00 -1.974011212587356567e-02 4.777878820896148682e-01 3.139899969100952148e+00 3.124313831329345703e+00 7.718638896942138672e+00 -2.378964275121688843e-01 6.549025177955627441e-01 -2.332686901092529297e+00 8.657015800476074219e+00 -1.679661035537719727e+00 -3.766900777816772461e+00 -5.887755870819091797e+00 -8.161547183990478516e-01 6.247735977172851562e+00 2.760887861251831055e+00 1.467413902282714844e-01 3.194902658462524414e+00 3.997316360473632812e-01 -7.345024030655622482e-03 3.428742647171020508e+00 4.061901092529296875e+00 5.993939399719238281e+00 1.868873536586761475e-01 -4.243102967739105225e-01 -2.368529796600341797e+00 8.874047994613647461e-01 2.420098066329956055e+00 2.617039680480957031e+00 -3.815760612487792969e+00 2.689220905303955078e+00 1.962359070777893066e+00 1.841227531433105469e+00 -5.370457172393798828e+00 2.837587594985961914e+00 7.440417766571044922e+00 2.269354104995727539e+00 1.615717649459838867e+00 1.313234329223632812e+00 -4.931631982326507568e-01 6.606408596038818359e+00 2.268603801727294922e+00 -1.725087046623229980e+00 -5.619478702545166016e+00 2.303875446319580078e+00 2.781235456466674805e+00 3.111743211746215820e+00 -4.062724590301513672e+00 -3.516008555889129639e-01 6.978951692581176758e-01 -1.858045101165771484e+00 2.696749448776245117e+00 -1.899541497230529785e+00 2.200189352035522461e+00 -1.920200347900390625e+00 -1.747130453586578369e-01 -2.248484849929809570e+00 -1.395833849906921387e+00 6.643137454986572266e+00 -6.470781564712524414e-01 -1.074656367301940918e+00 1.001841068267822266e+00 -2.588137149810791016e+00 -5.893872976303100586e-01 3.691152811050415039e+00 -6.549147367477416992e-01 5.173174858093261719e+00 -4.890092849731445312e+00 -3.510517358779907227e+00 3.378183364868164062e+00 -6.636680960655212402e-01 8.154422044754028320e-02 6.668016910552978516e-01 -2.871455192565917969e+00 -4.749848365783691406e+00 2.359477043151855469e+00 -4.811568856239318848e-01 5.511449337005615234e+00 1.904375433921813965e+00 -3.328097105026245117e+00 1.179025650024414062e+00 -6.245422840118408203e+00 1.477883815765380859e+00 -9.709084630012512207e-01 -6.019802093505859375e-01 -3.379068374633789062e-01 -9.190570831298828125e+00 3.687108278274536133e+00 2.877058982849121094e+00 -5.593237400054931641e+00 4.572120189666748047e+00 -5.874548912048339844e+00 -1.201423883438110352e+00 3.213967561721801758e+00 -8.477768898010253906e+00 5.211753368377685547e+00 2.815594673156738281e-01 3.930314183235168457e-01 3.017024755477905273e+00 -3.188673257827758789e-01 -3.637580633163452148e+00 2.087575912475585938e+00 -5.743821144104003906e+00 -1.140001654624938965e+00 -2.835838556289672852e+00 3.814006805419921875e+00 9.158077239990234375e-01 3.444746017456054688e+00 3.786976337432861328e+00 -2.064082473516464233e-01 7.281683444976806641e+00 1.025438904762268066e+00 -3.517285346984863281e+00 8.222648620605468750e+00 5.879487037658691406e+00 -1.406005024909973145e+00 -3.334993362426757812e+00 1.917461156845092773e+00 -1.977260470390319824e+00 -1.446829289197921753e-01 -3.924115896224975586e+00 -4.219516277313232422e+00 -3.739958107471466064e-01
-1.131400585174560547e+00 -3.542830705642700195e+00 -1.538601040840148926e+00 -3.191408872604370117e+00 -5.580074787139892578e+00 2.328256130218505859e+00 2.534191131591796875e+00 -3.015592336654663086e+00 -5.572822093963623047e+00 -4.014756977558135986e-01 -8.227280378341674805e-01 -5.879182815551757812e-01 -6.891164779663085938e-01 2.931543350219726562e+00 -8.712392449378967285e-01 2.881317377090454102e+00 -4.909985959529876709e-01 3.667297363281250000e+00 -1.860544323921203613e+00 -5.736965656280517578e+00 7.161328941583633423e-02 -5.553930066525936127e-03 2.542042732238769531e+00 -2.393341779708862305e+00 1.196344017982482910e+00 6.587309360504150391e+00 1.376058697700500488e+00 -2.557363271713256836e+00 1.862073779106140137e+00 1.345586895942687988e+00 5.754964351654052734e-01 2.134605169296264648e+00 -6.411465167999267578e+00 1.062652111053466797e+00 4.623194336891174316e-01 1.307623004913330078e+01 6.915642738342285156e+00 -2.885958433151245117e+00 1.785735011100769043e+00 -4.133590221405029297e+00 5.685521364212036133e-01 5.233901500701904297e+00 -4.515164375305175781e+00 -3.598329722881317139e-01 -1.731581687927246094e+00 1.075800806283950806e-01 -1.358054876327514648e+00 -2.777968883514404297e+00 -3.918136358261108398e+00 -2.783564329147338867e+00 2.644107103347778320e+00 -1.417991757392883301e+00 -4.564773082733154297e+00 -5.781480312347412109e+00 -3.663535833358764648e+00 1.673558473587036133e+00 1.755766153335571289e+00 -8.210453987121582031e-01 -9.945896863937377930e-01 -1.072711586952209473e+00 -1.272802948951721191e-01 7.590357780456542969e+00 -1.737691521644592285e+00 1.142060279846191406e+00 -7.446618080139160156e+00 -2.516776800155639648e+00 3.535918474197387695e+00 6.672971725463867188e+00 7.120657444000244141e+00 -1.349579691886901855e+00 -7.889573574066162109e-01 -4.990898966789245605e-01 -5.701662540435791016e+00 3.424386501312255859e+00 1.716520428657531738e+00 1.038503289222717285e+00 1.400487232208251953e+01 4.719092369079589844e+00 -9.397770166397094727e-01 -2.728471517562866211e+00 -2.424569129943847656e+00 -4.062754809856414795e-01 -3.572878122329711914e+00 -6.850959062576293945e-01 -1.447180062532424927e-01 1.910837769508361816e+00 2.558120787143707275e-01 -8.752668499946594238e-01 -2.352361679077148438e+00 1.905274510383605957e+00 -1.172485709190368652e+00 -1.824695944786071777e+00 4.287662506103515625e+00 -7.141248703002929688e+00 -1.515990972518920898e+00 2.927838325500488281e+00 4.841480255126953125e+00 -7.011577952653169632e-03 -2.584304332733154297e+00 3.533813953399658203e-01 3.172315359115600586e+00 -4.370505809783935547e+00 -1.796356886625289917e-01 4.566432952880859375e+00 -1.364713549613952637e+00 -7.017868995666503906e+00 -7.514113903045654297e+00 -2.246411323547363281e+00 2.073671102523803711e+00 -2.382291406393051147e-01 2.429276466369628906e+00 -1.210135936737060547e+00 -1.493944287300109863e+00 -9.937473297119140625e+00 5.460771322250366211e-01 -2.456548452377319336e+00 4.213896751403808594e+00 -3.020174801349639893e-01 1.227528080344200134e-01 -7.277254462242126465e-01 -1.529337525367736816e+00 -1.258763551712036133e+00 -1.899528980255126953e+00 2.048972845077514648e+00 1.808234095573425293e+00 -6.171895980834960938e+00 1.546659231185913086e+00 -5.307145118713378906e+00 -1.823933482170104980e+00 2.260376453399658203e+00 -6.903478622436523438e+00 1.759561657905578613e+00 2.006040573120117188e+00 4.296530783176422119e-01 9.263153076171875000e-01 2.667832612991333008e+00 -3.853401839733123779e-01 -3.825218200683593750e+00 3.632744789123535156e+00 1.774072408676147461e+00 -2.749077320098876953e+00 -4.319853305816650391e+00 2.086032152175903320e+00 1.671567082405090332e+00 -5.344553947448730469e+00 3.090357780456542969e-01 6.554917693138122559e-01 1.050903201103210449e+00 -1.154121637344360352e+00 1.475093722343444824e+00
-7.839525938034057617e-01 2.743046283721923828e+00 5.286977291107177734e+00 -1.144646763801574707e+00 1.044461846351623535e+00 -2.955362558364868164e+00 -1.459177851676940918e+00 -1.568785071372985840e+00 -1.802722692489624023e+00 -9.360615611076354980e-01 -4.655211925506591797e+00 1.696614742279052734e+00 -1.233311557769775391e+01 -3.406067848205566406e+00 -5.205664634704589844e-01 2.626617431640625000e+00 2.284800052642822266e+00 4.714637279510498047e+00 -3.931645870208740234e+00 3.103557348251342773e+00 1.312058418989181519e-01 -2.416553258895874023e+00 4.581743717193603516e+00 -2.824629247188568115e-01 9.104758501052856445e-01 3.092157602310180664e+00 -4.305920124053955078e+00 1.601130962371826172e+00 7.184759378433227539e-01 -4.460778713226318359e+00 -1.099622631072998047e+01 -1.493656396865844727e+00 1.746482491493225098e+00 -9.115671515464782715e-01 1.386145710945129395e+00 5.636260285973548889e-02 -3.600001096725463867e+00 -7.279729366302490234e+00 -5.154251098632812500e+00 1.188207626342773438e+00 -4.907787144184112549e-01 4.442099094390869141e+00 -1.637152314186096191e+00 -3.018752098083496094e+00 3.064255475997924805e+00 2.373750925064086914e+00 -9.951274394989013672e-01 -2.722672700881958008e+00 7.008799552917480469e+00 -6.522119998931884766e+00 3.467368125915527344e+00 5.572679519653320312e+00 -1.251833438873291016e+00 2.395555019378662109e+00 -2.709671497344970703e+00 5.604263782501220703e+00 -4.116458594799041748e-01 -6.787908673286437988e-01 -3.157179653644561768e-01 2.594324111938476562e+00 1.461899280548095703e-01 -4.082286357879638672e+00 -8.241037368774414062e+00 3.767032384872436523e+00 -2.109034299850463867e+00 -7.914939522743225098e-01 4.437899887561798096e-01 2.137623786926269531e+00 2.047441244125366211e+00 2.108454942703247070e+00 5.917599201202392578e+00 5.759301185607910156e+00 4.043875634670257568e-02 1.117937207221984863e+00 4.630183219909667969e+00 -9.977136850357055664e-01 -2.845794916152954102e+00 2.594331264495849609e+00 8.702565431594848633e-01 3.609008789062500000e+00 5.032112598419189453e+00 7.931972742080688477e-01 -4.248302936553955078e+00 7.784753441810607910e-01 4.915477335453033447e-01 -3.139168739318847656e+00 -2.316760569810867310e-01 -9.328785538673400879e-01 -3.905852735042572021e-01 1.732464432716369629e-01 -4.592019319534301758e-01 -2.779033899307250977e+00 1.087463974952697754e+00 -4.163665771484375000e+00 -1.184641599655151367e+00 2.208630740642547607e-01 3.813746452331542969e+00 3.455393075942993164e+00 1.138493657112121582e+00 -1.222874283790588379e+00 -7.786880493164062500e+00 1.588306069374084473e+00 2.482567548751831055e+00 2.492233037948608398e+00 -1.327939629554748535e+00 -1.115023970603942871e+00 2.469121694564819336e+00 2.378082752227783203e+00 -2.761875391006469727e+00 2.155048847198486328e+00 6.234647035598754883e-01 4.252272605895996094e+00 2.200933933258056641e+00 -3.589120209217071533e-01 -4.880360066890716553e-01 -1.579460352659225464e-01 2.689425230026245117e+00 -1.975274085998535156e+00 -1.577821373939514160e+00 -3.895586133003234863e-01 -3.540294408798217773e+00 8.957506716251373291e-02 5.296928405761718750e+00 7.180892229080200195e-01 2.079486131668090820e+00 -4.461489677429199219e+00 -1.798393487930297852e+00 1.119048023223876953e+01 -8.010659813880920410e-01 2.035394191741943359e+00 -1.444851875305175781e+00 -6.097147464752197266e+00 -1.245300054550170898e+00 3.252571523189544678e-01 8.532644271850585938e+00 -8.423715829849243164e-01 4.311466962099075317e-02 -4.204157352447509766e+00 1.530084133148193359e+00 3.780711412429809570e+00 1.261930656433105469e+01 6.978034496307373047e+00 -1.475107312202453613e+00 6.056624650955200195e-01 -4.576372623443603516e+00 -1.432381510734558105e+00 -2.067714691162109375e+00 -9.361224174499511719e-01 4.410507902503013611e-02 9.922243952751159668e-01
