4.480319842696189880e-02
-2.558753639459609985e-02
-3.941177204251289368e-02
1.256317347288131714e-01
-2.164483442902565002e-02
2.442238666117191315e-02
2.956652827560901642e-02
1.720660924911499023e-02
-2.195485495030879974e-02
1.163730863481760025e-02
9.159965068101882935e-02
-4.824157431721687317e-02
1.717359013855457306e-02
7.266506552696228027e-02
-2.041577361524105072e-02
-3.397293761372566223e-02
-6.757983565330505371e-02
6.303662806749343872e-02
3.654799610376358032e-02
1.340708695352077484e-02
-1.104641705751419067e-02
-5.472677201032638550e-02
3.253224119544029236e-02
3.059178963303565979e-02
-1.645853370428085327e-02
-3.243119269609451294e-02
-2.097521536052227020e-02
-5.923178791999816895e-02
5.422794446349143982e-02
3.659705817699432373e-02
-2.746139653027057648e-02
2.403638213872909546e-01
8.765067160129547119e-02
-4.458876326680183411e-02
-1.352606341242790222e-02
-3.763481974601745605e-02
-4.259977862238883972e-02
-1.436042971909046173e-02
5.287285149097442627e-02
-9.175629913806915283e-02
2.281632646918296814e-02
2.128807082772254944e-02
2.329157292842864990e-02
3.494200110435485840e-02
3.363548591732978821e-02
7.190588861703872681e-02
-2.194875776767730713e-01
1.167182065546512604e-02
-2.352772094309329987e-02
1.726873405277729034e-02
1.916730254888534546e-01
-7.024390995502471924e-02
-2.703327126801013947e-02
2.384222578257322311e-03
-2.241995744407176971e-02
3.679517209529876709e-01
7.019364275038242340e-03
2.224210277199745178e-02
5.172888934612274170e-02
-8.932945202104747295e-04
-3.944605588912963867e-02
-1.750824786722660065e-02
-3.757126629352569580e-02
-6.290653347969055176e-02
1.422404050827026367e-01
-1.943922936916351318e-01
1.146929617971181870e-02
-4.649236053228378296e-02
-9.357802569866180420e-02
1.603987254202365875e-02
-2.916845306754112244e-02
4.813815280795097351e-02
2.276019006967544556e-02
-8.455333858728408813e-02
-4.235626757144927979e-02
-2.924036979675292969e-01
1.364262308925390244e-02
-3.051066212356090546e-02
-2.736035548150539398e-02
1.122468262910842896e-01
4.224425181746482849e-02
-3.356211632490158081e-02
-3.468469530344009399e-02
2.363617718219757080e-02
-2.848391234874725342e-02
2.814243920147418976e-02
-2.697081863880157471e-02
5.241405963897705078e-02
-7.317796349525451660e-02
-1.606332883238792419e-02
2.462479844689369202e-02
-9.040050208568572998e-02
5.175176262855529785e-02
-2.003576233983039856e-02
-7.765676081180572510e-02
2.680437453091144562e-02
-2.548867277801036835e-02
1.947270147502422333e-02
2.457593753933906555e-02
1.144180074334144592e-02
