3.191322982311248779e-01 -7.465130090713500977e-02 -5.811949819326400757e-02 -9.825403243303298950e-02 9.141828119754791260e-02 3.004125952720642090e-01 8.693830966949462891e-01 -2.261306047439575195e+00 7.424131035804748535e-01 2.571888566017150879e-01 -5.120211094617843628e-02 7.109174039214849472e-03 -3.410444259643554688e-01 -6.578862667083740234e-02 4.310614168643951416e-01 -4.607927203178405762e-01 2.219526469707489014e-01 4.413170814514160156e-01 4.513159096240997314e-01 -1.107032597064971924e-02 -6.109882593154907227e-01 -2.656573295593261719e+01 -3.166504204273223877e-01 -3.207294046878814697e-01 -2.398717403411865234e-01 -1.979578137397766113e-01 -2.020734786987304688e+00 6.208709627389907837e-02 -1.669677048921585083e-01 5.456358790397644043e-01 -2.211320251226425171e-01 2.597729861736297607e-01 -5.093258619308471680e-01 4.615784287452697754e-01 4.022572040557861328e-01 1.385849267244338989e-01 -8.872669339179992676e-01 1.662511080503463745e-01 5.726348161697387695e-01 6.258159279823303223e-01 -5.068964511156082153e-02 -2.722347021102905273e+00 -7.446829974651336670e-02 2.419194430112838745e-01 2.565474808216094971e-01 -2.554889023303985596e-01 4.315545782446861267e-02 -2.135016322135925293e-01 -3.721970021724700928e-01 1.230006933212280273e+00 1.448691040277481079e-01 -3.443733602762222290e-02 4.896475076675415039e-01 5.573763698339462280e-02 -4.991605281829833984e-01 -1.517089009284973145e-01 -5.560106947086751461e-04 2.349298894405364990e-01 -6.157428622245788574e-01 -1.863009482622146606e-01 6.982068419456481934e-01 1.668508797883987427e-01 -3.702536523342132568e-01 -3.309464454650878906e-01 -6.045504212379455566e-01 -1.135199591517448425e-01 -1.039965003728866577e-01 3.508194163441658020e-02 5.823346376419067383e-01 1.996065229177474976e-01 -2.403061650693416595e-02 -1.129933714866638184e+00 -2.224257215857505798e-02 -9.784156456589698792e-03 -2.078945785760879517e-01 1.809505075216293335e-01 7.233427762985229492e-01 -3.322884440422058105e-01 2.447902113199234009e-01 1.869905740022659302e-01 2.001257389783859253e-01 -2.621428072452545166e-01 -4.989168643951416016e-01 -1.932797282934188843e-01 -6.928501725196838379e-01 -2.985262274742126465e-01 1.488689333200454712e-01 7.882637381553649902e-01 -5.220100879669189453e-01 1.359990835189819336e-01 -5.462443828582763672e-01 7.475962042808532715e-01 -8.750795722007751465e-01 -2.730030715465545654e-01 3.481234610080718994e-01 5.102685093879699707e-01 3.523897752165794373e-02 -5.062510967254638672e-01 -4.777675271034240723e-01 -9.129396826028823853e-02
-6.513961553573608398e-01 -3.101844191551208496e-01 3.852974176406860352e-01 -1.164685585536062717e-03 -7.369350194931030273e-01 4.050951302051544189e-01 4.450466949492692947e-03 -8.098569512367248535e-01 -4.983639419078826904e-01 -1.796675175428390503e-01 -7.291288673877716064e-02 7.196061015129089355e-01 -1.323835015296936035e+00 -3.354463875293731689e-01 9.006599187850952148e-01 -2.850651144981384277e-01 -6.582695245742797852e-02 3.013900518417358398e-01 3.957780003547668457e-01 1.233346760272979736e-01 -9.756531715393066406e-01 3.014423370361328125e+00 1.634355783462524414e+00 -1.840260624885559082e+00 -5.155408382415771484e-01 1.560359299182891846e-01 -1.547478675842285156e+00 -4.232141673564910889e-01 -9.399747848510742188e-01 1.834238469600677490e-01 -4.544480443000793457e-01 -9.811933040618896484e-01 8.470278978347778320e-01 1.075246572494506836e+00 -7.492164969444274902e-01 9.385684877634048462e-02 7.159535884857177734e-01 -6.958398222923278809e-01 8.262709975242614746e-01 7.127122879028320312e-01 -1.689982414245605469e-01 -1.269717454910278320e+00 4.121843278408050537e-01 1.050637125968933105e+00 7.898646593093872070e-01 -1.360649824142456055e+00 1.277005523443222046e-01 3.081388771533966064e-01 -2.866880893707275391e-01 8.744631409645080566e-01 -2.375618740916252136e-02 6.326930522918701172e-01 1.063454747200012207e+00 -8.872884511947631836e-02 9.722930192947387695e-01 8.748272061347961426e-02 -1.289023309946060181e-01 4.724212288856506348e-01 9.207360148429870605e-01 -1.226796060800552368e-01 -1.201230883598327637e-01 1.024424433708190918e+00 7.724847197532653809e-01 -1.258363127708435059e+00 -7.084840536117553711e-01 1.318992301821708679e-02 6.770622730255126953e-02 -6.771177053451538086e-02 6.878548860549926758e-01 -3.155540823936462402e-01 -1.176567792892456055e+00 1.962287425994873047e+00 2.026891857385635376e-01 1.023089170455932617e+00 -8.056719899177551270e-01 -9.436643868684768677e-02 -7.758653163909912109e-01 6.096131801605224609e-01 -1.178251981735229492e+00 6.023845672607421875e-01 4.147582352161407471e-01 -7.414698600769042969e-01 2.509671747684478760e-01 -4.805568754673004150e-01 -3.177148699760437012e-01 1.599754393100738525e-01 -3.092668950557708740e-01 -2.193680763244628906e+00 1.771076917648315430e-01 4.844573438167572021e-01 2.832105569541454315e-02 2.447688102722167969e+00 -9.596161246299743652e-01 -5.752384662628173828e-01 1.281308054924011230e+00 -5.851603746414184570e-01 -3.207728266716003418e-02 -1.220150738954544067e-01 -1.044933050870895386e-01 3.960926830768585205e-01
3.019311904907226562e+00 -7.048444747924804688e-01 3.180806338787078857e-01 6.615766137838363647e-02 1.110851049423217773e+00 -4.619942665100097656e+00 1.738387227058410645e+00 1.528850078582763672e+00 7.073874585330486298e-03 -1.950603604316711426e+00 1.082187965512275696e-01 8.868366479873657227e-01 -2.659751176834106445e+00 -3.731779336929321289e+00 -5.209762454032897949e-01 -1.345844984054565430e+00 -4.588704705238342285e-01 -3.373469114303588867e+00 -1.698545455932617188e+00 4.356030002236366272e-02 1.549839973449707031e+00 -4.262366771697998047e+00 -2.604242086410522461e+00 5.614037513732910156e-01 1.468669056892395020e+00 -1.838992238044738770e-01 -2.320220470428466797e+00 -4.088682651519775391e+00 -1.621229946613311768e-01 -4.565374374389648438e+00 -8.789581656455993652e-01 -4.712776839733123779e-01 -4.156822204589843750e+00 3.847030162811279297e+00 -1.647162139415740967e-01 -1.653786897659301758e+00 1.673254847526550293e+00 -6.529701352119445801e-01 -3.179425001144409180e-01 -1.702979087829589844e+00 -9.994497895240783691e-02 -1.468775514513254166e-02 -3.228581428527832031e+00 -3.401421546936035156e+00 -2.548367500305175781e+00 4.914291799068450928e-01 4.191077128052711487e-02 6.083513498306274414e-01 -1.509214341640472412e-01 -3.326268672943115234e+00 2.110751569271087646e-01 -8.698714971542358398e-01 4.507942199707031250e+00 1.619092077016830444e-01 -1.694564247131347656e+01 -1.139550134539604187e-01 -1.155798360705375671e-01 -1.486261367797851562e+00 1.775601625442504883e+00 3.279711902141571045e-01 -2.015917539596557617e+00 -6.273388385772705078e+00 -5.374411106109619141e+00 -1.770098686218261719e+01 -5.778436660766601562e-01 -1.766692399978637695e-01 -1.418771743774414062e-01 1.062142029404640198e-01 5.446194410324096680e-01 -4.329191207885742188e+00 -2.281966924667358398e+00 -1.353580653667449951e-01 -3.971059247851371765e-02 -1.616425752639770508e+00 1.557522058486938477e+00 -6.349312514066696167e-02 -6.689224243164062500e-01 1.173802375793457031e+00 -6.482345461845397949e-01 -1.542044043540954590e+00 -1.883470654487609863e+00 -1.768192529678344727e+00 1.332803487777709961e+00 6.596857905387878418e-01 -7.190019130706787109e+00 -2.589644670486450195e+00 -1.605188250541687012e-01 -5.125112056732177734e+00 -2.385378599166870117e+00 -1.696485042572021484e+00 1.352809369564056396e-01 -2.390149980783462524e-01 3.886736154556274414e+00 -6.709384918212890625e+00 -1.056664848327636719e+01 3.417033255100250244e-01 -7.210156321525573730e-02 -2.226101756095886230e-01 -1.785530090332031250e+00 1.769826412200927734e-01
-5.941144376993179321e-02 -4.937671869993209839e-02 1.482223629951477051e+00 -1.035802736878395081e-01 2.348306402564048767e-02 3.219177722930908203e-01 -2.921960949897766113e-01 1.147249434143304825e-02 -2.835389971733093262e-01 -1.681506633758544922e-01 -3.624591231346130371e-01 7.622957825660705566e-01 9.444240331649780273e-01 1.680751562118530273e+00 -7.544794678688049316e-02 -3.641344308853149414e-01 -2.654405832290649414e+00 3.899605989456176758e+00 -1.843701116740703583e-02 -3.410397171974182129e-01 -5.977010726928710938e-01 -1.659572601318359375e+00 5.264016628265380859e+00 3.022186040878295898e+00 2.566348388791084290e-02 2.471153140068054199e-01 -1.466685533523559570e-01 5.569227933883666992e-01 -1.617864727973937988e+00 5.870332941412925720e-02 -9.825739264488220215e-01 -2.448109865188598633e+00 -1.380385398864746094e+00 -6.742590665817260742e-01 1.999477297067642212e-02 -4.119724750518798828e+00 -1.220895171165466309e+00 2.107989072799682617e+00 -1.044867038726806641e+01 -2.286967849731445312e+01 -3.262445703148841858e-02 -1.093787848949432373e-01 -1.924289941787719727e+00 8.466900587081909180e-01 -3.743157625198364258e+00 7.076225280761718750e-01 -1.172248274087905884e-01 3.884863853454589844e-02 -1.971931569278240204e-02 -3.014905452728271484e-01 3.016755916178226471e-02 5.522639155387878418e-01 -1.137959003448486328e+00 -9.953402727842330933e-02 -8.190279006958007812e-01 -6.771402955055236816e-01 -8.681594580411911011e-02 5.349952355027198792e-02 -2.771199345588684082e-01 1.401106864213943481e-01 -5.113814473152160645e-01 -1.664229780435562134e-01 2.590417861938476562e+00 3.898197650909423828e+00 2.557017326354980469e+00 -8.354328572750091553e-03 -1.264337450265884399e-01 -4.123707115650177002e-02 4.606605052947998047e+00 1.768783330917358398e-01 -1.526313573122024536e-01 -3.153772652149200439e-02 -6.726781725883483887e-01 -7.561280727386474609e-01 5.802103132009506226e-02 2.658630013465881348e-01 1.393251214176416397e-02 -1.458644270896911621e-01 -8.247495293617248535e-01 2.188135147094726562e+00 2.770582400262355804e-02 1.787781953811645508e+00 -4.415066242218017578e+00 -2.882458448410034180e+00 3.901838541030883789e+00 -2.595572471618652344e+00 4.102867096662521362e-02 -3.330408811569213867e+00 -3.015368878841400146e-01 3.353848457336425781e-01 -1.759653165936470032e-02 2.082262039184570312e+00 -1.817553937435150146e-01 -5.760817527770996094e-01 -3.291874170303344727e+00 5.554188489913940430e-01 3.800115361809730530e-02 -4.593485593795776367e-02 -1.073673442006111145e-01 1.155364979058504105e-02
-5.082668662071228027e-01 1.394310593605041504e-01 4.176930785179138184e-01 -1.727106869220733643e-01 1.078062355518341064e-01 5.009912848472595215e-01 7.665552198886871338e-02 -2.478083968162536621e-01 1.443107008934020996e+00 -3.883827030658721924e-01 1.073681235313415527e+00 4.305266857147216797e+00 1.020770788192749023e+00 7.576922178268432617e-01 -2.548439502716064453e-01 -2.075297832489013672e+00 7.016731739044189453e+00 2.510264396667480469e+00 9.010739624500274658e-02 6.753316521644592285e-02 1.806691169738769531e+00 -2.466055870056152344e+00 2.693172991275787354e-01 -9.076891541481018066e-01 5.442850589752197266e-01 -9.037476032972335815e-02 4.349516332149505615e-02 -9.414315223693847656e-01 1.113350167870521545e-01 -2.379897981882095337e-02 9.108273386955261230e-01 -2.339036911725997925e-01 2.087703466415405273e+00 -2.905320227146148682e-01 6.354637444019317627e-02 -3.429450273513793945e+00 2.932950735092163086e+00 -3.249480485916137695e+00 2.943256139755249023e+00 -8.887036889791488647e-02 3.509126231074333191e-02 4.766212031245231628e-02 4.017771244049072266e+00 1.116578221321105957e+00 -3.129348993301391602e+00 1.389481544494628906e+01 -6.103253960609436035e-01 1.270717263221740723e+00 1.257373690605163574e-01 -9.677813649177551270e-01 4.816545844078063965e-01 2.179994821548461914e+00 -1.823552608489990234e+00 -1.905217766761779785e-01 -2.792738199234008789e+00 -2.662127315998077393e-01 1.509027332067489624e-01 1.530396044254302979e-01 1.196873068809509277e+00 -5.884473919868469238e-01 -5.138778313994407654e-02 1.316492319107055664e+00 3.140470266342163086e+00 9.160279273986816406e+00 -2.535783648490905762e-01 -6.052263975143432617e-01 -3.945363759994506836e-01 -5.678663253784179688e-01 -6.416148662567138672e+00 1.383390575647354126e-01 9.372415542602539062e-01 7.818344831466674805e-01 -4.039979875087738037e-01 3.221549987792968750e-01 -5.274648666381835938e-01 1.498002260923385620e-01 -2.023591101169586182e-01 -3.000282943248748779e-01 -4.647513389587402344e+00 7.825988531112670898e-01 -1.246869802474975586e+00 -4.627262353897094727e-01 -1.673191428184509277e+00 1.294027566909790039e+00 1.535078167915344238e+00 2.380760908126831055e+00 2.692310325801372528e-02 2.188141822814941406e+00 4.876670837402343750e+00 -1.765708774328231812e-01 3.036085665225982666e-01 3.258741378784179688e+00 1.380734682083129883e+00 -4.904699921607971191e-01 4.401844143867492676e-01 -9.090541005134582520e-01 -9.333223849534988403e-02 -8.626650273799896240e-02 -5.877479910850524902e-02 -1.246455833315849304e-01
-1.163705214858055115e-01 4.090371727943420410e-01 -7.471577823162078857e-02 -2.141505330801010132e-01 4.138270914554595947e-01 -2.276468873023986816e-01 2.240602374076843262e-01 4.308578372001647949e-01 -8.079493641853332520e-01 4.754877090454101562e-01 2.502095222473144531e+00 4.693498313426971436e-01 3.377311527729034424e-01 1.209748312830924988e-01 6.628050655126571655e-02 -1.464770197868347168e+00 1.540116667747497559e+00 -3.260133042931556702e-02 -1.559900403022766113e+00 -1.175682023167610168e-01 -4.689253866672515869e-01 -8.094158172607421875e-01 -4.408515930175781250e+00 -9.356966614723205566e-01 -1.344539225101470947e-01 -7.255705595016479492e-01 -8.528913259506225586e-01 9.610561132431030273e-01 -2.741505391895771027e-02 -8.049669861793518066e-01 3.436947464942932129e-01 1.689099073410034180e-01 3.236125111579895020e-01 -6.212921738624572754e-01 -1.833446323871612549e-01 2.223161160945892334e-01 2.203091830015182495e-01 2.635985910892486572e-01 -3.102034330368041992e-01 3.442821502685546875e-01 -1.311943084001541138e-01 4.142622947692871094e-01 2.900608479976654053e-01 3.927562236785888672e-01 -1.396516561508178711e+00 1.104339718818664551e+00 -2.424567192792892456e-01 -2.155442088842391968e-01 1.098816320300102234e-01 -2.111055850982666016e+00 6.269482523202896118e-02 -2.296031862497329712e-01 -4.350485503673553467e-01 -2.031134963035583496e-01 -9.000098705291748047e-01 -1.013411283493041992e-01 -4.379871487617492676e-01 -7.837739586830139160e-01 -1.059509754180908203e+01 -4.659831896424293518e-02 3.257785737514495850e-01 -1.353021621704101562e+00 -3.893641754984855652e-02 5.442708730697631836e-02 2.696503162384033203e+00 -6.006584689021110535e-02 7.517087459564208984e-02 7.793867588043212891e-02 -1.294042587280273438e+00 3.184967935085296631e-01 -1.770463138818740845e-01 -1.908748984336853027e+00 -2.508684694766998291e-01 -7.623363286256790161e-02 3.218542039394378662e-01 -4.994925111532211304e-03 8.794806152582168579e-02 5.520052909851074219e-01 5.181392431259155273e-01 -2.513465881347656250e-01 1.232617259025573730e+00 8.777720332145690918e-01 4.261972010135650635e-01 8.272308111190795898e-02 1.907587200403213501e-01 -7.194438576698303223e-01 -4.929271712899208069e-02 -1.605657458305358887e+00 -8.982594013214111328e-01 -1.875789463520050049e-01 2.043351233005523682e-01 3.202233076095581055e+00 -1.286071062088012695e+00 -4.895963668823242188e-01 -7.201492786407470703e-01 -2.723875455558300018e-02 -2.433458715677261353e-01 -2.532373927533626556e-02 1.098325252532958984e-01 -4.050320088863372803e-01
6.484487056732177734e-01 4.499967768788337708e-02 -1.864181280136108398e+00 1.043065413832664490e-01 -2.851482033729553223e-01 2.317906171083450317e-01 5.304412245750427246e-01 4.083574563264846802e-02 -6.059231758117675781e-01 -5.817816033959388733e-02 -3.902313470840454102e+00 -2.438022047281265259e-01 -3.287749737501144409e-02 -2.306679010391235352e+00 -1.294623315334320068e-01 -1.384796237945556641e+01 -1.826373487710952759e-01 1.575469613075256348e+00 -7.632114887237548828e-01 1.182709038257598877e-01 1.293028593063354492e-01 -2.538707256317138672e+00 -8.453155517578125000e+00 -3.246282100677490234e+00 -2.875275611877441406e-01 4.251921549439430237e-02 -2.441391050815582275e-01 6.744557023048400879e-01 1.314468979835510254e-01 4.221487045288085938e-01 -4.835376739501953125e-01 3.257369622588157654e-02 -2.775949835777282715e-01 -4.996251165866851807e-01 4.845627844333648682e-01 -1.666308164596557617e+00 -2.262252330780029297e+00 -6.318494796752929688e+00 -3.705585718154907227e+00 -8.696584105491638184e-01 1.327334493398666382e-01 -2.874878942966461182e-01 -6.272095441818237305e-01 -2.596695125102996826e-01 -4.063311517238616943e-01 -5.738286495208740234e+00 7.379683107137680054e-02 -3.207700550556182861e-01 -1.923728734254837036e-01 2.220788747072219849e-01 5.830540060997009277e-01 -2.970474004745483398e+00 -2.236999720335006714e-01 -1.717122197151184082e-01 1.587178230285644531e+00 -1.624776571989059448e-01 4.201355278491973877e-01 3.249576985836029053e-01 -1.396242499351501465e+00 -2.052217163145542145e-02 -5.295055508613586426e-01 -1.221650019288063049e-01 2.947814166545867920e-01 -1.820841670036315918e+00 -2.946608781814575195e+00 -3.464151620864868164e-01 5.453180074691772461e-01 -1.545041352510452271e-01 -5.342197418212890625e+00 -1.636386364698410034e-01 -5.214332342147827148e-01 -1.977758288383483887e+00 -2.835432291030883789e-01 8.649386167526245117e-01 5.756756067276000977e-01 4.516417905688285828e-02 2.920660972595214844e-01 8.381932973861694336e-01 -1.184324860572814941e+00 2.620173215866088867e+00 -5.277114391326904297e+00 1.258440256118774414e+00 -1.447577953338623047e+00 -7.753419280052185059e-01 -8.038980960845947266e-01 -3.803173303604125977e+00 -1.456167399883270264e-01 -1.761248707771301270e+00 -8.753926157951354980e-01 -1.301037222146987915e-01 1.140300557017326355e-01 -2.623046159744262695e+00 2.383464574813842773e-01 2.558606863021850586e-01 -3.059750795364379883e+00 5.247468471527099609e+00 -7.651077955961227417e-02 1.955505907535552979e-01 -3.626078367233276367e-02 1.666136384010314941e-01
8.865171074867248535e-01 -6.598010659217834473e-01 -2.747825346887111664e-02 -5.685521289706230164e-03 -1.229332923889160156e+00 -1.284189462661743164e+00 -6.105505824089050293e-01 2.413916885852813721e-01 -1.085104107856750488e+00 1.019938707351684570e+00 -2.794394254684448242e+00 9.229436516761779785e-01 -1.174516797065734863e+00 -1.812832832336425781e+00 -6.623163819313049316e-01 -4.515853226184844971e-01 1.498668938875198364e-01 -1.273195385932922363e+00 4.822046160697937012e-01 6.220855712890625000e-01 7.590788602828979492e-01 -2.194739282131195068e-01 1.069897860288619995e-01 -3.529089689254760742e-01 -6.141639351844787598e-01 -3.095207512378692627e-01 -1.917314291000366211e+00 8.241099119186401367e-01 5.820585489273071289e-01 -2.697205066680908203e+00 -2.100963354110717773e+00 -3.181411325931549072e-01 -5.756262540817260742e-01 -1.165024191141128540e-01 -1.216091394424438477e+00 1.416612744331359863e+00 -1.193544149398803711e+00 9.174900054931640625e-01 -5.082105994224548340e-01 8.030672073364257812e-01 6.055968254804611206e-02 -1.068545460700988770e+00 -1.158508300781250000e+00 -2.842843532562255859e-01 2.351555347442626953e+00 -7.882536888122558594e+00 -2.478877454996109009e-02 6.786758303642272949e-01 -3.896495327353477478e-02 -5.620035529136657715e-01 -2.115393131971359253e-01 -1.110409498214721680e+00 -1.115630030632019043e+00 -4.549973964691162109e+00 -1.844509243965148926e+00 -4.092985093593597412e-01 -1.678831577301025391e+00 -4.562249481678009033e-01 9.162463545799255371e-01 4.275673329830169678e-01 5.794206857681274414e-01 7.558125257492065430e-01 1.390613198280334473e+00 -2.393797971308231354e-02 -9.121826887130737305e-01 3.600211068987846375e-02 7.821673154830932617e-01 -1.136854290962219238e-01 9.463682770729064941e-01 -7.351713180541992188e-01 -1.123254820704460144e-01 -5.125836730003356934e-01 4.290492534637451172e-01 3.480400145053863525e-01 2.481782913208007812e+00 -7.053285837173461914e-02 -7.462429404258728027e-01 -1.322583436965942383e+00 1.330650091171264648e+00 -6.481186747550964355e-01 -2.551036596298217773e+00 -1.300393104553222656e+00 -1.355350613594055176e+00 -1.108253002166748047e+00 -8.505740761756896973e-02 -1.663331985473632812e+00 5.980386957526206970e-02 4.147201061248779297e+00 -5.266776084899902344e-01 7.279462814331054688e-01 -8.283187448978424072e-02 -3.745764732360839844e+00 -3.141618490219116211e+00 -3.628785312175750732e-01 -1.969773173332214355e+00 -7.059088349342346191e-01 -3.704523444175720215e-01 -6.131917834281921387e-01 7.573182582855224609e-01 -8.244560360908508301e-01
-9.617743641138076782e-02 5.344476103782653809e-01 3.277792036533355713e-01 -1.450991481542587280e-01 4.006014168262481689e-01 -1.670031905174255371e+00 4.872113838791847229e-02 1.505897045135498047e-01 2.410149335861206055e+00 -2.709902226924896240e-01 -1.151218605041503906e+01 -7.095213532447814941e-01 2.069523334503173828e+00 -1.750194191932678223e+00 -1.945756077766418457e-01 -4.235203564167022705e-01 1.853320747613906860e-01 7.792169451713562012e-01 7.204875946044921875e-01 -1.479469239711761475e-01 -3.000352680683135986e-01 -8.310968279838562012e-01 5.829550027847290039e-01 1.521479368209838867e+00 5.051017999649047852e-01 -1.807562708854675293e+00 7.513272166252136230e-01 -8.954802155494689941e-02 -3.884386122226715088e-01 9.278138875961303711e-01 -4.635423421859741211e-02 -2.060425281524658203e+00 -5.133185386657714844e-01 -6.686271727085113525e-02 8.608596026897430420e-02 1.531102061271667480e+00 -1.617724537849426270e+00 8.729956150054931641e-01 1.630552411079406738e+00 1.445135116577148438e+00 -9.318589419126510620e-02 -3.004438877105712891e-01 -5.220587253570556641e+00 1.043665885925292969e+00 -3.845112323760986328e-01 -7.931157946586608887e-01 -4.074992835521697998e-01 -3.217490315437316895e-01 2.176500409841537476e-01 1.737408339977264404e-01 2.002726495265960693e-01 -4.537784755229949951e-01 2.477262973785400391e+00 -9.174969196319580078e-01 1.124152064323425293e+00 -5.974357724189758301e-01 -2.120629698038101196e-02 4.219654500484466553e-01 4.388664960861206055e-01 -4.905118942260742188e-01 1.229761481285095215e+00 -1.470415115356445312e+00 -9.725646972656250000e-01 1.448439955711364746e+00 1.617143034934997559e+00 9.247113019227981567e-02 -7.075771093368530273e-01 1.223174259066581726e-01 2.654851600527763367e-02 -1.039591550827026367e+00 -4.314275383949279785e-01 3.324638307094573975e-01 -1.927014738321304321e-01 5.158892869949340820e-01 5.146512985229492188e-01 1.543370336294174194e-01 -5.127593874931335449e-01 -9.277950525283813477e-01 -9.886726379394531250e+00 8.732997626066207886e-02 2.206781506538391113e-01 6.304538249969482422e-01 -1.009920477867126465e+00 -1.152944207191467285e+00 4.608126282691955566e-01 1.635268688201904297e+00 -9.576516598463058472e-02 2.451864480972290039e+00 1.290544509887695312e+00 1.354570746421813965e+00 1.285842433571815491e-02 1.750132203102111816e+00 2.706340551376342773e+00 -5.556925535202026367e-01 2.678574800491333008e+00 1.031766653060913086e+00 5.765961483120918274e-02 -1.059555038809776306e-01 -1.301798690110445023e-02 2.419939078390598297e-02
-5.517187714576721191e-01 2.071201950311660767e-01 -4.935549199581146240e-01 4.202744737267494202e-02 4.229451715946197510e-01 4.814438223838806152e-01 -5.000826120376586914e-01 -5.173959732055664062e-01 -1.762818455696105957e+00 2.333531156182289124e-02 -3.708743155002593994e-01 3.221640288829803467e-01 -2.451761066913604736e-01 -1.015027314424514771e-01 8.568513989448547363e-01 -8.573235273361206055e-01 2.536136507987976074e-01 4.910098016262054443e-01 1.245389804244041443e-01 1.070643439888954163e-01 -6.425736546516418457e-01 -1.676415920257568359e+00 1.748759508132934570e+00 1.263679385185241699e+00 -3.173353970050811768e-01 -1.885019391775131226e-01 2.934285879135131836e+00 3.499605879187583923e-02 -6.505274772644042969e-01 -9.624390602111816406e-01 1.402389526367187500e+00 -9.381847977638244629e-01 -3.434514105319976807e-01 -1.031614542007446289e+00 -8.242434859275817871e-01 -1.439723819494247437e-01 -1.043263554573059082e+00 7.259823614731431007e-04 -4.913047850131988525e-01 -1.964049458503723145e+00 -2.773411199450492859e-02 8.941323310136795044e-02 -2.078371763229370117e+00 -7.072644829750061035e-01 -2.643429040908813477e-01 -2.683005332946777344e-01 -1.092474609613418579e-01 -3.977520763874053955e-01 7.019609212875366211e-01 -8.417707681655883789e-01 1.925998479127883911e-01 -5.961886644363403320e-01 8.970041871070861816e-01 -5.043480992317199707e-01 5.554338693618774414e-01 -2.435407973825931549e-02 -1.501910109072923660e-02 -6.891701221466064453e-01 3.492776155471801758e-01 7.117956876754760742e-02 4.792350232601165771e-01 2.477669566869735718e-01 -1.321626305580139160e+00 -5.503525137901306152e-01 -6.010578274726867676e-01 1.702216453850269318e-02 8.140832781791687012e-01 -1.625813692808151245e-01 -1.318952798843383789e+00 -3.680134415626525879e-01 -1.012300252914428711e+00 -2.155510663986206055e+00 -5.756536722183227539e-01 -1.415616393089294434e+00 -1.786081314086914062e+00 -1.331376843154430389e-02 -2.041706740856170654e-01 1.647906303405761719e-01 -1.610559076070785522e-01 1.246190190315246582e+00 -3.560954034328460693e-01 5.019457936286926270e-01 5.224367380142211914e-01 4.888279438018798828e-01 -2.951325476169586182e-01 7.196975350379943848e-01 4.618599116802215576e-01 -9.959442019462585449e-01 1.200643926858901978e-01 -2.887600362300872803e-01 7.401989698410034180e-01 -3.938082218170166016e+00 -4.188920930027961731e-02 1.123247370123863220e-01 3.607465028762817383e-01 9.989393353462219238e-01 -2.187733352184295654e-01 2.141684293746948242e-01 6.568462252616882324e-01 9.943879395723342896e-02
-3.927040696144104004e-01 3.945995867252349854e-01 -6.340900659561157227e-01 -6.539515852928161621e-01 6.275947690010070801e-01 -2.466508895158767700e-01 -1.711823701858520508e+00 -2.936180114746093750e+00 -6.618483066558837891e-01 4.226028174161911011e-02 7.686024308204650879e-01 -2.187516212463378906e+00 6.855720281600952148e-01 -6.549585461616516113e-01 1.786347866058349609e+00 -6.927566528320312500e-01 -2.786366343498229980e-01 1.033325195312500000e+00 -1.277341246604919434e+00 -2.351803034543991089e-01 8.627294301986694336e-01 -9.987378716468811035e-01 7.154328376054763794e-02 4.852970838546752930e-01 3.386720418930053711e-01 -8.151543140411376953e-02 7.918337583541870117e-01 -1.062532067298889160e+00 1.433999389410018921e-01 -9.461086273193359375e+00 -1.219567775726318359e+00 -4.329723864793777466e-02 -1.435362994670867920e-01 -1.933116316795349121e+00 -3.204114139080047607e-01 4.414551705121994019e-02 -1.875560522079467773e+00 4.705264698714017868e-03 -1.038531184196472168e+00 -5.362042188644409180e-01 -2.002970278263092041e-01 1.705243945121765137e+00 2.813010811805725098e-01 8.106778860092163086e-01 7.865543663501739502e-02 7.905144095420837402e-01 -3.762487769126892090e-01 -6.298606395721435547e-01 -3.069990277290344238e-01 -1.815908908843994141e+00 8.361666649580001831e-02 -4.705836474895477295e-01 1.418649256229400635e-01 -5.846080183982849121e-01 -2.378305673599243164e+00 -7.644164562225341797e-01 -5.511099696159362793e-01 -1.219816684722900391e+00 -2.900811135768890381e-01 -2.120337784290313721e-01 7.442686706781387329e-02 -1.466174870729446411e-01 -1.785520672798156738e+00 -8.987165242433547974e-02 2.930253505706787109e+00 -4.585388898849487305e-01 6.926496028900146484e-01 1.584069430828094482e-02 -3.834475755691528320e+00 1.990231633186340332e+00 6.743404865264892578e-01 -3.173234462738037109e+00 1.012668311595916748e-01 -1.034435510635375977e+00 3.802607059478759766e-01 4.419527053833007812e-01 -3.235126733779907227e-01 5.173331499099731445e-01 -2.654694318771362305e-01 4.052875041961669922e-01 1.491770982742309570e+00 5.233708024024963379e-01 -5.585573315620422363e-01 -9.257395863533020020e-01 9.755667448043823242e-01 -7.567871809005737305e-01 -2.028719484806060791e-01 -4.867620766162872314e-03 -1.203491449356079102e+00 2.645882964134216309e-01 5.118229240179061890e-02 -3.630517721176147461e+00 8.468710184097290039e-01 6.369414180517196655e-02 -1.276663243770599365e-01 -3.479570746421813965e-01 -5.389215052127838135e-02 -3.341908156871795654e-01 -5.002499818801879883e-01 9.180235862731933594e-01
5.329650044441223145e-01 -1.345723748207092285e+00 -3.624018281698226929e-02 -8.715669512748718262e-01 1.395477771759033203e+00 -9.991755485534667969e-01 -6.688236594200134277e-01 -5.889344215393066406e+00 -1.143059849739074707e+00 2.406915128231048584e-01 2.175320237874984741e-01 4.791703224182128906e-01 3.807897865772247314e-01 6.180490851402282715e-01 1.189447402954101562e+00 -6.635297555476427078e-03 -9.471900761127471924e-02 -4.096652567386627197e-02 -1.479621767997741699e+00 -1.353653967380523682e-01 1.322747021913528442e-02 -1.856421113014221191e+00 3.421193063259124756e-01 1.655233353376388550e-01 -1.723537892103195190e-01 -5.824152752757072449e-02 -1.292297393083572388e-01 -4.939013421535491943e-01 -6.656548500061035156e+00 4.031928777694702148e-01 -7.376876473426818848e-02 -2.585510015487670898e-01 4.627143032848834991e-03 -1.033550780266523361e-02 -2.020661085844039917e-01 3.894045650959014893e-01 1.716542363166809082e+00 -1.303551346063613892e-01 3.194046765565872192e-02 1.510594367980957031e+00 -5.576996132731437683e-02 -7.517180442810058594e+00 1.592668145895004272e-01 6.125173568725585938e-01 -3.263386338949203491e-02 -1.429255902767181396e-01 -3.131596148014068604e-01 -5.847627520561218262e-01 1.387317385524511337e-02 7.515670657157897949e-01 1.205743327736854553e-01 2.996804937720298767e-02 1.931070536375045776e-01 9.338976144790649414e-01 3.585978150367736816e-01 -7.478444576263427734e-01 -1.879747033119201660e+00 -1.092722296714782715e+00 2.586972117424011230e-01 2.680977806448936462e-02 4.641028493642807007e-02 -2.666022181510925293e-01 -1.436868786811828613e+00 3.219366073608398438e-02 -1.157855224609375000e+01 -4.502655472606420517e-03 -6.278164684772491455e-02 -1.459809839725494385e-01 4.534561038017272949e-01 -4.190645515918731689e-01 -1.061120986938476562e+00 -1.447253942489624023e+00 -3.681823909282684326e-01 -1.172972869873046875e+01 -2.242039889097213745e-01 1.696052253246307373e-01 -1.715209148824214935e-02 3.048984706401824951e-01 -2.036225050687789917e-02 9.857609272003173828e-01 -1.118911147117614746e+00 -1.396293193101882935e-01 -4.963381960988044739e-02 7.698329538106918335e-02 -6.308512687683105469e-01 -4.181487560272216797e-01 -3.364180922508239746e-01 -3.198081254959106445e-02 -2.490120410919189453e+00 2.518609166145324707e-01 2.056742906570434570e-01 8.782398700714111328e-02 -2.403019189834594727e+00 -1.796105206012725830e-01 -3.881586790084838867e+00 2.443238794803619385e-01 -2.736755460500717163e-02 -1.504591107368469238e-01 8.401514589786529541e-02 -7.287676930427551270e-01
-8.317448943853378296e-02 -4.327963292598724365e-01 -1.179408952593803406e-01 -1.541506946086883545e-01 8.007084131240844727e-01 3.902397155761718750e-01 1.652755141258239746e+00 6.337956190109252930e-01 -1.070458531379699707e+00 -1.477737426757812500e+00 9.362794876098632812e+00 -8.630613088607788086e-01 -1.222138166427612305e+00 -1.920388340950012207e+00 -1.671547442674636841e-02 -9.861484169960021973e-01 -5.221798896789550781e+00 -9.852553606033325195e-01 -1.202328085899353027e+00 -2.273025512695312500e+00 7.046174407005310059e-01 1.094853758811950684e+00 1.871064066886901855e+00 2.837785184383392334e-01 -1.733846217393875122e-01 -1.641241073608398438e+00 1.228307008743286133e+00 4.070619940757751465e-01 1.969311237335205078e+00 1.249925613403320312e+00 -3.778356552124023438e+00 -9.059471487998962402e-01 -1.346779823303222656e+00 -2.233160495758056641e+00 2.133338212966918945e+00 -2.004079580307006836e+00 7.310362458229064941e-01 1.683836102485656738e+00 -2.802139282226562500e+00 1.350878477096557617e+00 -4.595768079161643982e-02 -4.316326081752777100e-01 -8.005985021591186523e-01 1.202998682856559753e-01 -8.731698989868164062e-01 -3.893183171749114990e-01 -7.463260740041732788e-02 7.175505161285400391e-02 -3.090429604053497314e-01 -6.710655242204666138e-02 2.725935578346252441e-01 2.429713726043701172e+00 -3.416697502136230469e+00 1.175166741013526917e-01 3.040479421615600586e-01 -1.648407578468322754e-01 7.051038146018981934e-01 1.068320795893669128e-01 -1.408656358718872070e+00 -5.307818576693534851e-02 -2.731833457946777344e+00 -1.314628839492797852e+00 2.668140888214111328e+00 -4.361702203750610352e-01 -2.493617773056030273e+00 5.936664938926696777e-01 -7.591219544410705566e-01 -7.200947403907775879e-02 1.444147109985351562e+00 5.694091320037841797e-01 2.392578601837158203e+00 1.625108122825622559e+00 4.356134533882141113e-01 -1.665899604558944702e-01 -1.322684884071350098e-01 -1.837879791855812073e-02 -1.211265087127685547e+00 8.012408614158630371e-01 1.660027742385864258e+00 -2.693989992141723633e+00 -2.923018932342529297e-01 1.856631636619567871e+00 3.147933185100555420e-01 -6.582887172698974609e-01 -2.077728509902954102e+00 2.126722812652587891e+00 -1.649086833000183105e+00 -2.154669523239135742e+00 2.390191555023193359e-01 -2.486675024032592773e+00 3.611593246459960938e-01 7.524530291557312012e-01 2.258886814117431641e+00 5.825817584991455078e-02 -1.867949128150939941e+00 -7.318246960639953613e-01 9.600455313920974731e-02 7.197214961051940918e-01 -8.638570308685302734e-01 1.245964527130126953e+00
-9.838047623634338379e-01 1.996466368436813354e-01 -3.749614953994750977e-01 7.970409840345382690e-02 9.049038589000701904e-02 -1.407488536834716797e+01 -3.024115085601806641e+00 5.083720207214355469e+00 -1.372693347930908203e+01 9.790450930595397949e-01 -3.569521605968475342e-01 3.529365301132202148e+00 -9.315720796585083008e-01 -1.051624107360839844e+01 3.561833620071411133e+00 8.937569260597229004e-01 1.422054767608642578e+00 -1.556185603141784668e+00 -5.996209621429443359e+00 1.149107098579406738e+00 -7.202714085578918457e-01 -6.013864994049072266e+00 7.833489775657653809e-01 3.621996939182281494e-01 8.335751295089721680e-01 -1.101651072502136230e+00 -6.704936623573303223e-01 -9.094244956970214844e+00 -7.892280578613281250e+00 -7.357270240783691406e+00 -4.852484703063964844e+00 -1.081630706787109375e+00 -4.247669219970703125e+00 1.241470575332641602e+00 4.648328125476837158e-01 -8.568253517150878906e-01 -1.455955743789672852e+00 4.328849315643310547e-01 -5.285614132881164551e-01 -5.449351072311401367e-01 9.681951254606246948e-02 -2.800387382507324219e+00 -7.880051136016845703e-01 2.295718908309936523e+00 -1.986155807971954346e-01 -2.389937162399291992e+00 8.307415992021560669e-02 -5.619059205055236816e-01 -3.395022749900817871e-01 5.662623882293701172e+00 3.218060433864593506e-01 5.116150379180908203e-01 3.368915915489196777e-01 -9.379200935363769531e-01 -3.473712921142578125e+01 -2.136048227548599243e-01 2.094429492950439453e+00 5.914754271507263184e-01 -3.968960046768188477e-01 -1.684838235378265381e-01 -2.686243318021297455e-02 -9.239794015884399414e-01 -2.459599733352661133e+00 -3.127637803554534912e-01 -6.692295670509338379e-01 -2.990808188915252686e-01 1.050890088081359863e+00 1.013702154159545898e-01 2.779756784439086914e+00 7.080834507942199707e-01 -3.228879690170288086e+00 -1.356216621398925781e+01 2.101759314537048340e-01 -2.602518320083618164e+00 4.705011844635009766e-02 3.883195221424102783e-01 -6.319361180067062378e-02 4.798738062381744385e-01 1.524861901998519897e-01 -3.732065200805664062e+00 5.299584269523620605e-01 4.846478700637817383e-01 2.039184868335723877e-01 2.456788539886474609e+00 8.394343852996826172e-01 -3.183764219284057617e+00 7.458887994289398193e-02 8.422948718070983887e-01 -2.304054737091064453e+00 -1.068992838263511658e-01 2.200105190277099609e+00 -1.336034297943115234e+00 -7.772136330604553223e-01 1.356493949890136719e+00 6.830935478210449219e-01 8.250216245651245117e-01 4.791786894202232361e-02 -1.581797897815704346e-01 -2.606344938278198242e+00 6.120642423629760742e-01
-1.273183584213256836e+00 1.312975883483886719e+00 1.893331408500671387e-01 1.562375128269195557e-01 -5.379896759986877441e-01 -2.285464286804199219e+00 1.153936028480529785e+00 4.095459729433059692e-02 -1.360570907592773438e+00 -7.792477011680603027e-01 -3.110108375549316406e-01 -1.370342373847961426e+00 -8.132236599922180176e-01 7.218214273452758789e-01 -8.342861175537109375e+00 1.266848206520080566e+00 -5.016052246093750000e+00 -3.694340705871582031e+00 -1.942516118288040161e-01 6.196150183677673340e-01 -6.630402989685535431e-03 -2.032044649124145508e+00 -7.440862655639648438e+00 2.585570573806762695e+00 1.438925564289093018e-01 -4.372757911682128906e+00 -6.472350120544433594e+00 -2.045532464981079102e+00 -1.102989315986633301e+00 1.042697310447692871e+00 3.268041133880615234e+00 -9.964250326156616211e-01 -2.365469694137573242e+00 -3.936496078968048096e-01 -6.885083317756652832e-01 -1.130650329589843750e+01 -2.254935652017593384e-01 -3.615746200084686279e-01 -3.341367006301879883e+00 -9.391660094261169434e-01 -8.206763304769992828e-03 -2.119502067565917969e+00 3.359429538249969482e-01 -4.074798107147216797e+00 1.660355091094970703e+00 5.346854925155639648e-01 2.811859846115112305e-01 -5.089595317840576172e-01 -7.313951253890991211e-01 -7.782252311706542969e+00 -4.872834309935569763e-02 -1.903615146875381470e-01 6.103097796440124512e-01 -2.487072795629501343e-01 -2.993598580360412598e-01 -5.357295647263526917e-02 8.294243216514587402e-01 -2.809845805168151855e-01 -1.368196487426757812e+00 -2.191527187824249268e-02 -1.629823207855224609e+00 2.382882118225097656e+00 -6.544170379638671875e+00 -1.112471675872802734e+01 -7.054625153541564941e-01 1.732229590415954590e-01 -1.828888773918151855e+00 6.362014263868331909e-02 -4.339507222175598145e-01 -8.621215820312500000e+00 -1.073968982696533203e+01 2.920211255550384521e-01 -5.103013515472412109e-01 -1.899768114089965820e+00 -4.303246498107910156e+00 3.988164067268371582e-01 4.154723584651947021e-01 -4.583966732025146484e-01 -4.331865012645721436e-01 -1.161787152290344238e+00 -8.004132509231567383e-01 -2.031136274337768555e+00 -9.973515868186950684e-01 -2.899775743484497070e+00 -3.140502166748046875e+01 -2.723338890075683594e+01 -9.634864330291748047e-02 -1.724078297615051270e+00 -6.994799971580505371e-01 -6.834777444601058960e-02 -1.977197051048278809e+00 -6.068519115447998047e+00 -2.717384338378906250e+00 -8.849561214447021484e-01 -2.996247053146362305e+00 9.017252326011657715e-01 -4.095035791397094727e-02 5.297906994819641113e-01 -9.242161750793457031e+00 9.689559340476989746e-01
-3.825569152832031250e-01 -2.305237203836441040e-01 -1.112848427146673203e-02 2.115919440984725952e-01 1.841856241226196289e-01 -3.905065953731536865e-01 -7.362683415412902832e-01 1.978651620447635651e-02 -2.647559344768524170e-01 -4.792782664299011230e-01 2.327476441860198975e-01 -9.024733304977416992e-02 6.303012967109680176e-01 1.469371616840362549e-01 1.118512302637100220e-01 -2.459276169538497925e-01 -2.065040588378906250e+00 -2.510938882827758789e+00 -3.726226389408111572e-01 -3.195141255855560303e-01 -1.379126459360122681e-01 3.748660564422607422e+00 1.850898146629333496e+00 4.201760888099670410e-01 1.248813271522521973e-01 1.335344195365905762e+00 6.210861802101135254e-01 -4.895995259284973145e-01 -2.369350045919418335e-01 -2.213628292083740234e+00 -8.531867265701293945e-01 -9.938801825046539307e-02 -6.516829729080200195e-01 -3.047482371330261230e-01 -2.555074989795684814e-01 6.083055138587951660e-01 1.741554260253906250e+00 1.567534565925598145e+00 3.222447931766510010e-01 1.604560971260070801e+00 -1.724525094032287598e-01 1.527369674295186996e-02 4.306466877460479736e-01 5.608979463577270508e-01 -2.784672260284423828e+00 4.650596678256988525e-01 -1.684126853942871094e-01 -3.301744759082794189e-01 5.992328748106956482e-02 2.621083259582519531e-01 1.445471346378326416e-01 2.479591608047485352e+00 -1.308431744575500488e+00 -2.413442917168140411e-02 -3.433710932731628418e-01 -1.743032932281494141e-01 -2.195827513933181763e-01 1.601866036653518677e-01 -2.807979106903076172e+00 4.496830403804779053e-01 -2.300559759140014648e+00 -4.013556241989135742e-01 1.370308995246887207e+00 -8.053764700889587402e-01 -6.520057201385498047e+00 4.946590363979339600e-01 6.187803298234939575e-02 -1.987356543540954590e-01 9.377747774124145508e-01 6.208938360214233398e-01 2.808099091053009033e-01 1.625849008560180664e+00 -4.370138347148895264e-01 1.047053933143615723e+00 2.549620568752288818e-01 -3.484498262405395508e-01 -6.857834458351135254e-01 -2.214476317167282104e-01 -1.146956443786621094e+00 4.401367008686065674e-01 2.721491456031799316e-01 -4.204236716032028198e-02 5.266175270080566406e-01 -3.071721196174621582e-01 4.961860775947570801e-01 -5.319367647171020508e-01 2.010888904333114624e-01 9.339661598205566406e-01 2.341997861862182617e+00 1.646344780921936035e+00 -8.348129689693450928e-02 -3.494215011596679688e-01 -1.866209693253040314e-02 1.569508790969848633e+00 4.728701710700988770e-01 -2.063444137573242188e+00 -1.647359132766723633e-01 9.331936016678810120e-03 4.433859288692474365e-01 -3.115200996398925781e-01
1.281196713447570801e+00 2.739819288253784180e+00 -8.876798748970031738e-01 -1.008115410804748535e+00 3.590882539749145508e+00 -3.477897167205810547e+00 -1.841628909111022949e+00 3.764537334442138672e+00 -4.925328731536865234e+00 -9.406607151031494141e-01 -4.487779617309570312e+00 1.612204432487487793e+00 -2.959093570709228516e+00 1.726332306861877441e+00 4.181606292724609375e+00 -9.653244018554687500e-01 -1.004997968673706055e+00 -5.611364264041185379e-03 5.212719440460205078e+00 8.472084999084472656e-01 -1.285074055194854736e-01 1.299182653427124023e+00 -4.171744346618652344e+00 1.969147920608520508e+00 1.429483413696289062e+00 1.224844098091125488e+00 -5.038555145263671875e+00 9.074171185493469238e-01 -1.812178373336791992e+00 -2.372424840927124023e+00 2.003961801528930664e+00 -3.333282947540283203e+00 -8.798348307609558105e-01 -7.629042148590087891e+00 -5.943610668182373047e-01 -5.387292861938476562e+00 -1.135630011558532715e+00 1.057589292526245117e+00 3.204601287841796875e+00 -7.280689477920532227e-01 -4.401327669620513916e-02 3.293682336807250977e+00 4.536830782890319824e-01 5.012860298156738281e-01 -3.600027263164520264e-01 -1.705519258975982666e-01 -7.841989398002624512e-01 2.822679519653320312e+00 -7.729914188385009766e-01 -4.705310821533203125e+00 1.462819874286651611e-01 2.382382601499557495e-01 -2.839172840118408203e+00 -9.109774827957153320e-01 -2.212031930685043335e-01 3.107567727565765381e-01 3.523503303527832031e+00 3.550204932689666748e-01 -1.168585777282714844e+00 3.454740047454833984e-01 -4.897258281707763672e-01 1.503390312194824219e+00 -1.653107643127441406e+00 8.337520360946655273e-01 3.466574549674987793e-01 -2.911047637462615967e-01 2.931668996810913086e+00 -8.690514415502548218e-02 -1.980830132961273193e-01 6.055866479873657227e-01 1.134050846099853516e+00 6.254206895828247070e-01 -2.385024279356002808e-01 -3.474254369735717773e+00 -3.189953267574310303e-01 1.034909263253211975e-01 2.602308511734008789e+00 2.553591728210449219e+00 1.071370959281921387e+00 1.217668294906616211e+00 1.619713306427001953e+00 1.496221780776977539e+00 1.604872703552246094e+00 2.786105632781982422e+00 4.866701662540435791e-01 -2.979277968406677246e-01 6.012232899665832520e-01 -7.750964909791946411e-02 -2.331394195556640625e+00 -2.028202533721923828e+00 1.464435935020446777e+00 4.662328660488128662e-01 3.149211645126342773e+00 2.272203207015991211e+00 -7.966093063354492188e+00 1.743245244026184082e+00 -1.165608167648315430e-01 -4.618088304996490479e-01 3.005589485168457031e+00 -9.765228629112243652e-01
5.356745719909667969e-01 2.095556110143661499e-01 5.894959717988967896e-02 -1.302495151758193970e-01 1.225979551672935486e-01 1.652721047401428223e+00 1.039290308952331543e+00 1.125533103942871094e+00 -6.623572707176208496e-01 -1.675307035446166992e+00 8.717650175094604492e-02 -6.264243125915527344e-01 -2.500680446624755859e+00 1.817592382431030273e-01 -4.838970303535461426e-01 -1.054271221160888672e+01 -1.398500800132751465e+00 -2.233494281768798828e+00 7.631559371948242188e-01 1.764094531536102295e-01 -2.485766649246215820e+00 9.302911907434463501e-02 -8.250928878784179688e+00 9.709461927413940430e-01 -1.156483173370361328e+00 -2.365960836410522461e+00 1.351419568061828613e+00 9.229050636291503906e+00 -2.189251899719238281e+00 3.551501750946044922e+00 3.639618158340454102e-01 -4.771531820297241211e-01 -3.217226028442382812e+00 3.747004508972167969e+00 -2.215504407882690430e+00 -1.574404239654541016e+00 -5.276263356208801270e-01 -1.383944272994995117e+00 -4.259202003479003906e+00 4.771442115306854248e-01 -1.506378948688507080e-01 1.228585481643676758e+00 3.824209928512573242e+00 1.656708121299743652e-01 -3.069489635527133942e-02 -4.157636165618896484e+00 -1.498345434665679932e-01 -2.519606053829193115e-01 -1.113072261214256287e-01 -1.050275802612304688e+00 -2.874807640910148621e-02 -9.250761270523071289e-01 1.291186809539794922e+00 6.692656278610229492e-01 3.748932600021362305e+00 -1.666711121797561646e-01 7.491679489612579346e-02 -1.588773131370544434e+00 1.061697244644165039e+00 -4.958193302154541016e-01 6.159678697586059570e-01 -1.458820462226867676e+00 -7.854859232902526855e-01 -1.660909652709960938e-01 1.675857305526733398e-01 7.643570303916931152e-01 -4.448389708995819092e-01 8.521129377186298370e-03 -1.303383827209472656e+00 -3.766979575157165527e-01 -1.996176481246948242e+00 1.106457591056823730e+00 -1.075319528579711914e+00 -8.287821412086486816e-01 -1.947860121726989746e-01 -4.690910577774047852e-01 -1.008045911788940430e+00 1.113261818885803223e+00 -6.561420559883117676e-01 6.737593412399291992e-01 -1.475932598114013672e+00 -1.474540710449218750e+00 2.762360334396362305e+00 7.611834526062011719e+00 3.465943336486816406e+00 -1.118522763252258301e+00 1.278932094573974609e-01 7.249411940574645996e-02 -2.132733106613159180e+00 -2.870895862579345703e+00 -9.851120710372924805e-01 1.674950003623962402e+00 1.175351738929748535e+00 -3.217055320739746094e+00 -1.081640362739562988e+00 1.780236065387725830e-01 -7.544222171418368816e-04 -7.103802561759948730e-01 1.541742324829101562e+00 1.191905379295349121e+00
7.528840899467468262e-01 -6.064320206642150879e-01 9.323242902755737305e-01 1.258306503295898438e-01 1.262782216072082520e-01 -1.894814848899841309e+00 -1.489649057388305664e+00 -7.740294933319091797e-01 -2.493970870971679688e+00 -6.107351779937744141e-01 6.723042130470275879e-01 -2.924150228500366211e+00 -5.497248172760009766e-01 -1.062602162361145020e+00 9.429479837417602539e-01 -8.423700332641601562e+00 3.650671005249023438e+00 -2.791155338287353516e+00 5.331817865371704102e-01 1.512916237115859985e-01 5.011020898818969727e-01 -1.885359644889831543e+00 -1.741916656494140625e+00 -3.866445541381835938e+00 -4.061402678489685059e-01 6.102732568979263306e-02 -2.764377832412719727e+00 -4.274360179901123047e+00 -1.645433235168457031e+01 -4.551896095275878906e+00 -5.350838661193847656e+00 1.202936284244060516e-02 -6.496742963790893555e-01 -2.310948133468627930e+00 -1.191194176673889160e+00 -9.410651206970214844e+00 -3.576859533786773682e-01 -1.163984298706054688e+00 7.131353616714477539e-01 1.656068921089172363e+00 -1.131365969777107239e-01 1.193015575408935547e+00 2.058462619781494141e+00 2.428330421447753906e+00 -5.892735123634338379e-01 2.746211290359497070e+00 -4.195192828774452209e-02 9.737265706062316895e-01 -3.467368707060813904e-02 5.703232884407043457e-01 3.604547679424285889e-02 -1.103812885284423828e+01 -5.725121021270751953e+00 -1.563488543033599854e-01 3.655596673488616943e-01 -1.956709288060665131e-02 9.565506130456924438e-02 4.503957033157348633e-01 -2.497245788574218750e+00 2.805611491203308105e-01 5.497325658798217773e-01 1.183210536837577820e-01 -2.734600543975830078e+00 -4.044473171234130859e+00 -2.162927627563476562e+00 -2.738514840602874756e-01 9.035319685935974121e-01 1.183762997388839722e-01 -4.447627961635589600e-01 6.193158626556396484e-01 2.394131898880004883e+00 1.641030192375183105e+00 -3.890296816825866699e-02 -1.192779779434204102e+00 -1.662551164627075195e+00 1.553627103567123413e-01 -6.126369237899780273e-01 -1.528355836868286133e+00 -2.737454414367675781e+00 -3.604478597640991211e+00 -3.172016143798828125e+00 9.175208091735839844e+00 -7.730223536491394043e-01 -1.716954112052917480e+00 3.107108116149902344e+00 6.627607345581054688e-01 -2.834588587284088135e-01 -2.826451539993286133e+00 2.333218574523925781e+00 3.446793854236602783e-01 -2.288451045751571655e-01 -4.860433578491210938e+00 -1.486015415191650391e+01 1.357277035713195801e+00 -2.185444235801696777e-01 4.111869812011718750e+00 -7.315193861722946167e-02 -2.500470578670501709e-01 -3.933053016662597656e-01 -8.343209512531757355e-03
-3.431285321712493896e-01 -4.355465471744537354e-01 1.010747671127319336e+00 3.985271602869033813e-02 2.501140832901000977e-01 -1.032399535179138184e+00 2.611936628818511963e-01 1.663016676902770996e-01 6.738533973693847656e-01 -2.607191503047943115e-01 2.119522094726562500e+00 -6.671574115753173828e-01 -2.336334586143493652e-01 2.509951293468475342e-01 3.660972118377685547e-01 -5.194253325462341309e-01 -5.863817691802978516e+00 -2.931742668151855469e-01 -6.456118106842041016e+00 2.393063306808471680e-01 -1.452716350555419922e+00 7.124920487403869629e-01 -7.377561330795288086e-01 -6.725299954414367676e-01 2.637554891407489777e-02 -5.080451369285583496e-01 -2.183882474899291992e+00 -1.139300704002380371e+00 -2.696087956428527832e-01 3.318846225738525391e-02 -1.782591104507446289e+00 -5.737359523773193359e-01 -8.834952354431152344e+00 -1.570285260677337646e-01 -1.191804289817810059e+00 -3.366555273532867432e-01 -4.365283548831939697e-01 7.366670370101928711e-01 -5.012001037597656250e+00 3.695525825023651123e-01 -3.420656919479370117e-02 9.232972264289855957e-01 6.442840099334716797e-01 1.408507376909255981e-01 3.725545406341552734e-01 -2.526234149932861328e+00 -1.094160899519920349e-01 1.025695055723190308e-01 -2.197022736072540283e-01 -3.355339914560317993e-02 1.233327239751815796e-01 5.927273035049438477e-01 4.204225838184356689e-01 -5.680702626705169678e-02 2.014767169952392578e+00 1.104866117238998413e-01 -2.325787246227264404e-01 1.012341141700744629e+00 2.979213237762451172e+00 -4.194374084472656250e-01 1.275780916213989258e+00 -4.082688316702842712e-02 1.318061351776123047e-01 -2.810940980911254883e+00 -3.937715888023376465e-01 7.336910814046859741e-02 -5.429157614707946777e-01 -9.787472337484359741e-02 -1.149018257856369019e-01 1.765740811824798584e-01 1.751341223716735840e+00 -1.953793764114379883e+00 -6.345113515853881836e-01 3.244523108005523682e-01 -6.529904603958129883e-01 -9.090537577867507935e-02 -6.254465579986572266e-01 3.959739506244659424e-01 1.564053297042846680e+00 -9.593859910964965820e-01 -4.573450982570648193e-01 -1.288918614387512207e+00 -1.646090626716613770e+00 -1.726806759834289551e+00 -1.342962384223937988e-01 -3.759928703308105469e+00 3.980003595352172852e-01 5.876435041427612305e-01 -2.659713327884674072e-01 7.809708118438720703e-01 -2.768165431916713715e-02 -2.506524562835693359e+00 -4.996381759643554688e+00 -2.848011016845703125e+00 2.119184434413909912e-01 6.792748570442199707e-01 -4.363288730382919312e-02 -6.980588436126708984e-01 -4.484506696462631226e-02 5.810636281967163086e-02
7.920239865779876709e-02 -1.742512583732604980e-01 4.629974961280822754e-01 -4.407420754432678223e-01 -1.394354999065399170e-01 2.949695885181427002e-01 -4.147322773933410645e-01 -4.263637363910675049e-01 -4.976637661457061768e-02 1.434081196784973145e-01 -4.377985894680023193e-01 -1.129084452986717224e-01 1.366307616233825684e+00 -7.932519316673278809e-01 1.310310214757919312e-01 2.031296253204345703e+00 -4.637766480445861816e-01 -1.224792098999023438e+01 3.934766054153442383e-01 9.102945029735565186e-02 3.742791116237640381e-01 1.084754347801208496e+00 -3.317245721817016602e+00 7.974987030029296875e-01 -3.533156216144561768e-02 1.270873904228210449e+00 4.252738058567047119e-01 4.112726747989654541e-01 1.132978200912475586e+00 -5.708606839179992676e-01 -1.349443316459655762e+00 -2.395353078842163086e+00 -1.753083825111389160e+00 8.756400346755981445e-01 -3.616467714309692383e-01 -2.057739257812500000e+00 1.249489426612854004e+00 2.069240668788552284e-03 1.177188634872436523e+00 -1.503451466560363770e+00 -8.314205706119537354e-02 -3.862543031573295593e-02 -5.840612649917602539e-01 8.846316337585449219e-01 -1.069736242294311523e+00 -1.261158227920532227e+00 4.015120267868041992e-01 1.977806389331817627e-01 -7.998819649219512939e-02 2.103102207183837891e-01 -2.413788251578807831e-02 3.869269490242004395e-01 -1.607843875885009766e+00 1.002475380897521973e+00 -1.496254920959472656e+00 2.885983884334564209e-01 3.428448438644409180e-01 -3.734517097473144531e-01 4.293249547481536865e-01 -2.948071062564849854e-01 5.904424786567687988e-01 6.154251098632812500e-01 -2.318116188049316406e+00 7.301320135593414307e-02 3.562907278537750244e-01 -2.966718971729278564e-01 -4.019328579306602478e-02 -4.387236014008522034e-02 -9.257780909538269043e-01 -3.964485228061676025e-01 -1.321401476860046387e+00 -2.876265048980712891e-01 -1.061676025390625000e+00 -4.633916616439819336e-01 1.036757975816726685e-02 -7.738042157143354416e-03 -1.186704263091087341e-01 -1.494213819503784180e+00 1.647958397865295410e+00 4.773801565170288086e-01 -5.163528919219970703e-01 1.331461519002914429e-01 1.307589888572692871e+00 3.561391234397888184e-01 2.309611082077026367e+00 -1.170966029167175293e-01 -1.115102395415306091e-01 2.157776117324829102e+00 -2.268159389495849609e+00 -6.605865955352783203e-01 5.082292947918176651e-03 -5.893049240112304688e-01 5.202620029449462891e-01 -2.208870887756347656e+00 1.150114417076110840e+00 -7.982925772666931152e-01 -2.104454487562179565e-01 -2.368631064891815186e-01 -9.509252011775970459e-02 -9.367955476045608521e-02
-1.115846514701843262e+00 4.561198651790618896e-01 -2.132099390029907227e+00 2.794225141406059265e-02 -3.001661777496337891e+00 -1.849289417266845703e+00 1.831946492195129395e+00 -8.033148765563964844e+00 -1.136208438873291016e+01 -2.539588809013366699e-01 -5.310500860214233398e-01 -3.366362452507019043e-01 3.149530589580535889e-01 -7.138822078704833984e-01 -2.222778350114822388e-01 -8.541630953550338745e-02 -1.056501507759094238e+00 1.135381340980529785e+00 2.353518962860107422e+00 1.519268453121185303e-01 -1.000774204730987549e-01 -1.635297298431396484e+00 9.550596028566360474e-02 5.562164634466171265e-02 5.219885706901550293e-01 -1.083282977342605591e-01 -1.884235858917236328e+00 5.862103104591369629e-01 7.843361496925354004e-01 -3.085733950138092041e-01 4.422705471515655518e-01 -3.143792450428009033e-01 -1.794276684522628784e-01 -1.459657788276672363e+00 -3.141590058803558350e-01 2.902724444866180420e-01 2.064435929059982300e-01 -1.885942220687866211e-01 -1.156890392303466797e+00 2.931055128574371338e-01 -6.341641768813133240e-03 -4.265084490180015564e-02 -7.014552503824234009e-02 -9.131278842687606812e-02 -1.267564445734024048e-01 1.637790650129318237e-01 -5.720189809799194336e-01 -4.564545631408691406e+00 -3.930145129561424255e-02 -2.006385564804077148e+00 9.595146775245666504e-02 7.983293533325195312e-01 5.319811403751373291e-02 -1.174878716468811035e+00 7.635425329208374023e-01 1.723665297031402588e-01 -5.174374207854270935e-02 -1.926879644393920898e+00 -7.969769239425659180e-01 -1.809009164571762085e-01 9.631347656250000000e-02 -5.056721568107604980e-01 -1.458456754684448242e+00 1.187392950057983398e+00 1.017625808715820312e+00 5.180218443274497986e-02 -2.791481018066406250e-01 -1.812371462583541870e-01 2.028778791427612305e-01 3.170242607593536377e-01 -1.170460820198059082e+00 1.778465747833251953e+00 -9.956751018762588501e-02 2.972693920135498047e+00 -3.080307483673095703e+00 4.785856232047080994e-02 4.751828685402870178e-02 9.541863948106765747e-02 -1.903052330017089844e-01 4.708080589771270752e-01 3.287799060344696045e-01 -2.189458906650543213e-01 -3.261852636933326721e-02 3.612285256385803223e-01 7.738634347915649414e-01 -1.541257947683334351e-01 -1.158230006694793701e-01 7.467648983001708984e-01 2.981548607349395752e-01 -1.800983771681785583e-02 4.001655280590057373e-01 -4.906276166439056396e-01 1.336722493171691895e+00 7.633434981107711792e-02 -9.940230250358581543e-01 -5.234037339687347412e-02 -1.204084530472755432e-01 -2.057264000177383423e-01 -4.799773916602134705e-03 -1.148576974868774414e+00
3.703840255737304688e+00 1.388116478919982910e+00 -5.093185901641845703e-01 7.943913340568542480e-01 1.947116374969482422e+00 2.077018976211547852e+00 -7.580972671508789062e+00 5.895684719085693359e+00 -1.767947435379028320e+00 3.881473064422607422e+00 -1.608230471611022949e+00 6.576068401336669922e-01 -1.379060268402099609e+00 1.200244784355163574e+00 8.494894504547119141e-01 9.603539854288101196e-02 2.481064945459365845e-01 1.328904628753662109e+00 1.190423965454101562e+00 -5.460728406906127930e-01 7.014271020889282227e-01 1.084148406982421875e+00 -2.178747177124023438e+00 7.841584682464599609e-01 5.798425078392028809e-01 1.592378616333007812e-01 -2.987952828407287598e-01 2.762530088424682617e+00 -7.226994633674621582e-02 -3.846231460571289062e+00 -4.150902107357978821e-02 -2.661980867385864258e+00 -6.755467653274536133e-01 -1.068900465965270996e+00 -3.345255851745605469e-01 -1.495815992355346680e+00 4.646083414554595947e-01 4.009273350238800049e-01 1.144297361373901367e+00 2.974683344364166260e-01 -1.219040900468826294e-02 1.923839569091796875e+00 9.367130398750305176e-01 3.726518154144287109e-01 1.109471917152404785e+00 -7.070464134216308594e+00 -1.253550171852111816e+00 2.116969108581542969e+00 -1.301996707916259766e-01 -4.258881092071533203e+00 -1.623148322105407715e-01 3.360735774040222168e-01 -4.508281052112579346e-01 2.016597270965576172e+00 1.409980177879333496e+00 1.373680472373962402e+00 -5.648021101951599121e-01 1.401848316192626953e+00 -1.854292392730712891e+00 -2.519322633743286133e+00 -1.473366260528564453e+00 -1.203696355223655701e-01 -1.942683100700378418e+00 2.395680427551269531e+00 2.162470102310180664e+00 1.134733185172080994e-01 2.669535398483276367e+00 1.170732304453849792e-01 5.720065832138061523e-01 4.250494539737701416e-01 2.431323528289794922e+00 1.052971720695495605e+00 -7.613186538219451904e-02 5.851691961288452148e-01 4.464800834655761719e+00 9.213851392269134521e-02 6.016452312469482422e-01 2.261457443237304688e+00 -9.842006862163543701e-02 1.396983861923217773e+00 2.183058023452758789e+00 2.203943014144897461e+00 1.414164006710052490e-01 8.923428058624267578e-01 9.971982240676879883e-01 -2.235660105943679810e-01 3.502430021762847900e-01 -3.228425979614257812e+00 -1.153753638267517090e+00 1.790740191936492920e-01 9.091362953186035156e-01 -1.118681073188781738e+00 4.973484039306640625e+00 7.698513865470886230e-01 -2.276615649461746216e-01 1.391990542411804199e+00 -2.276145108044147491e-02 4.087872207164764404e-01 9.729043841361999512e-01 -4.293625354766845703e-01
-2.853135466575622559e-01 8.111582398414611816e-01 -2.747586695477366447e-03 -9.105366468429565430e-02 -6.683711409568786621e-01 1.644577741622924805e+00 -4.637606620788574219e+00 -3.454255580902099609e+00 -6.955917179584503174e-02 3.165704250335693359e+00 -2.195065021514892578e-01 -1.088188439607620239e-01 2.809727191925048828e+00 -1.532464325428009033e-01 1.118290543556213379e+00 -2.681946277618408203e+00 -7.195319533348083496e-01 -1.414660739898681641e+01 -3.668178245425224304e-02 -1.390664219856262207e+00 6.063916206359863281e+00 1.052973270416259766e+00 -8.791737556457519531e-01 -5.559776425361633301e-01 5.331375002861022949e-01 -3.751607239246368408e-01 2.247072696685791016e+00 -9.961629509925842285e-01 -4.516883194446563721e-01 -3.562732696533203125e+00 -7.308360189199447632e-02 8.497074991464614868e-02 -1.329262495040893555e+00 -1.358202815055847168e+00 -2.803297996520996094e+00 -1.058169722557067871e+00 -6.437363624572753906e-01 6.099591255187988281e-01 -1.198021054267883301e+00 -1.168652772903442383e+00 6.964549422264099121e-02 -2.039218902587890625e+00 1.406641602516174316e+00 5.218929648399353027e-01 -2.932662487030029297e+00 2.398499250411987305e+00 6.280064582824707031e-02 1.914189934730529785e+00 -2.055885553359985352e+00 3.271667063236236572e-01 5.564153194427490234e-02 -1.982601928710937500e+01 2.351190805435180664e+00 -7.086818665266036987e-02 -1.279201149940490723e+00 -1.522381454706192017e-01 2.596654593944549561e-01 4.673906326293945312e+00 -9.849723577499389648e-01 -1.592562437057495117e+00 -3.316401541233062744e-01 8.743296265602111816e-01 -1.030134558677673340e+00 -1.698468066751956940e-02 -1.253889799118041992e+00 1.776457130908966064e-01 -1.267438173294067383e+00 -6.932017207145690918e-02 -8.062326908111572266e-01 1.823583602905273438e+00 -1.433793663978576660e+00 1.536052972078323364e-01 2.618188858032226562e-01 8.759783953428268433e-02 1.103790640830993652e+00 -1.319592595100402832e-01 1.415149718523025513e-01 -2.989461123943328857e-01 2.101699829101562500e+00 1.432648777961730957e+00 8.659515976905822754e-01 -3.000343084335327148e+00 -3.186855465173721313e-02 -1.640862226486206055e+00 -2.969925999641418457e-01 2.622110545635223389e-01 2.672315359115600586e+00 1.316262364387512207e+00 7.311942577362060547e-01 5.848966836929321289e-01 1.697033762931823730e+00 -2.355611085891723633e+00 -2.589282274246215820e+00 3.285810947418212891e+00 -2.281510382890701294e-01 1.844104409217834473e+00 2.128727883100509644e-01 1.241985797882080078e+00 2.256765067577362061e-01 -3.343494415283203125e+00
-1.803272247314453125e+00 -3.907019793987274170e-01 -1.808735169470310211e-02 4.945604130625724792e-02 7.203470468521118164e-01 -4.137932658195495605e-01 9.962188601493835449e-01 5.537346601486206055e-01 -1.158361196517944336e+00 1.565136760473251343e-01 1.866396188735961914e+00 -1.057235360145568848e+00 6.255876421928405762e-01 4.732618331909179688e-01 -1.022839784622192383e+00 2.582894802093505859e+00 -2.080884277820587158e-01 -7.105290889739990234e-01 -4.278892278671264648e-01 -1.174456357955932617e+00 -1.084072828292846680e+00 3.948174417018890381e-01 -2.398551702499389648e+00 1.405460983514785767e-01 -7.738603651523590088e-02 8.350163102149963379e-01 -1.366505861282348633e+00 -9.409184455871582031e-01 -8.261126875877380371e-01 -6.508495211601257324e-01 -9.976264238357543945e-01 2.063511610031127930e-01 -1.463772892951965332e+00 1.160785675048828125e+00 -6.073780059814453125e-01 1.927047729492187500e+00 1.530669778585433960e-01 -1.808886677026748657e-01 -1.784196853637695312e+00 7.567991614341735840e-01 -3.604841604828834534e-02 -1.865145087242126465e+00 1.660410523414611816e+00 -4.360645711421966553e-01 2.739067971706390381e-01 -1.080314874649047852e+00 -3.833736479282379150e-02 9.770044684410095215e-01 6.843566298484802246e-01 1.515395522117614746e+00 1.341580599546432495e-01 -6.208309438079595566e-03 -3.423655509948730469e+00 -2.093614637851715088e-02 -2.594820261001586914e-01 -5.212134495377540588e-02 -1.525810509920120239e-01 -1.738530516624450684e+00 -9.977433681488037109e-01 -4.145847856998443604e-01 -1.955694109201431274e-01 8.561433553695678711e-01 -9.057734608650207520e-01 -9.197162985801696777e-01 -1.565642952919006348e-01 -4.875478148460388184e-02 -3.926133215427398682e-01 3.687437996268272400e-02 4.114842116832733154e-01 1.952954381704330444e-01 -2.190594561398029327e-02 3.907322287559509277e-01 -2.419437915086746216e-01 -1.148043751716613770e+00 2.298355847597122192e-02 1.322287321090698242e-01 4.135355949401855469e-01 -3.589252531528472900e-01 -7.035538196563720703e+00 -1.129575729370117188e+00 -5.092937871813774109e-02 3.726522922515869141e-01 -7.117561101913452148e-01 3.490291237831115723e-01 2.469465285539627075e-01 4.805456399917602539e-01 -8.763556480407714844e-01 -3.301316022872924805e+00 -3.480754792690277100e-01 -9.618487954139709473e-01 -1.849464178085327148e-01 1.581870555877685547e+00 -2.100241899490356445e+00 -1.204571604728698730e+00 -5.407446622848510742e-01 -1.940932154655456543e+00 -8.153740316629409790e-03 -1.434195041656494141e-01 -1.999110430479049683e-01 -3.467197418212890625e-01
-3.832166194915771484e-01 2.904465913772583008e+00 -4.632839858531951904e-01 1.537342816591262817e-01 2.969533920288085938e+00 -1.873065233230590820e+00 -5.399252772331237793e-01 -1.377191543579101562e+00 -3.119594097137451172e+00 7.323694825172424316e-01 -1.300627112388610840e+00 3.683058619499206543e-01 -2.158176660537719727e+00 1.498858928680419922e+00 -1.880633085966110229e-01 3.126520216464996338e-01 -3.497382998466491699e-01 -1.141157269477844238e+00 1.953230261802673340e+00 3.839383646845817566e-02 4.378947317600250244e-01 2.067001014947891235e-01 -2.513654470443725586e+00 4.025862738490104675e-02 1.693396568298339844e+00 -9.348510764539241791e-03 -4.840408325195312500e+00 1.496054410934448242e+00 -1.258344411849975586e+00 -2.799895286560058594e+00 2.354292869567871094e+00 -2.068197488784790039e+00 2.841646373271942139e-01 -4.850675106048583984e+00 6.205043941736221313e-02 -3.513009309768676758e+00 -7.728571295738220215e-01 1.413569450378417969e+00 1.944014787673950195e+00 -5.116151571273803711e-01 -8.411514759063720703e-02 2.755888223648071289e+00 1.612855792045593262e+00 -5.885744690895080566e-01 3.781115710735321045e-01 -1.948668956756591797e+00 -2.460471838712692261e-01 -4.960649907588958740e-01 -1.307810664176940918e+00 -6.338999271392822266e+00 1.338504403829574585e-01 -4.734245538711547852e-01 -1.538863301277160645e+00 2.467893213033676147e-01 4.431580007076263428e-01 2.116748988628387451e-01 3.065051794052124023e+00 -1.064778327941894531e+00 -8.615990281105041504e-01 -4.566509723663330078e-01 -1.532205790281295776e-01 2.623798549175262451e-01 -1.460839748382568359e+00 3.507644832134246826e-01 7.397587895393371582e-01 1.450851410627365112e-01 1.541578650474548340e+00 -4.961092397570610046e-02 -1.265488624572753906e+00 7.341347932815551758e-01 6.923683881759643555e-01 -5.154077410697937012e-01 -8.560972213745117188e-01 3.488335132598876953e+00 -4.071003437042236328e+00 -9.302629157900810242e-03 1.926295757293701172e+00 -1.244379639625549316e+00 3.868257701396942139e-01 2.613239049911499023e+00 6.855660080909729004e-01 2.105696946382522583e-01 1.062110185623168945e+00 2.798519134521484375e+00 -1.977931499481201172e+00 -6.225628852844238281e-01 -1.058025881648063660e-01 -4.177385568618774414e-01 -2.512216567993164062e-01 -6.532210707664489746e-01 4.022450372576713562e-02 -4.130975246429443359e+00 1.023752927780151367e+00 1.153048992156982422e+00 -6.526915073394775391e+00 2.378404617309570312e+00 -1.966409198939800262e-02 -2.105297446250915527e-01 1.955969810485839844e+00 -3.250610828399658203e+00
3.563994765281677246e-01 1.210472464561462402e+00 -2.104685008525848389e-01 6.804529111832380295e-04 -4.913595199584960938e+00 -2.911354541778564453e+00 -1.536836326122283936e-01 -6.496621608734130859e+00 -6.296212196350097656e+00 -1.397853374481201172e+00 5.863040685653686523e-01 -9.943204373121261597e-02 -1.588930249214172363e+00 -1.720630645751953125e+00 -1.400301098823547363e+00 4.350728690624237061e-01 1.773431897163391113e+00 -2.161192655563354492e+00 -2.307609319686889648e+00 8.202743530273437500e-01 8.343609422445297241e-02 -1.533148407936096191e+00 -8.180833458900451660e-01 -4.576381295919418335e-02 1.921670138835906982e-01 -3.426771759986877441e-01 3.437962532043457031e+00 5.152826905250549316e-01 -1.888925135135650635e-01 -3.904769182205200195e+00 -4.673874676227569580e-01 -2.107013612985610962e-01 -4.463849067687988281e-01 -2.589985132217407227e-01 2.139302015304565430e+00 4.781777262687683105e-01 4.081171751022338867e-01 -9.253265708684921265e-02 5.782953500747680664e-01 -5.060623288154602051e-01 -3.441597521305084229e-02 1.209086403250694275e-01 6.550706624984741211e-01 -2.454819440841674805e+00 5.992109179496765137e-01 -4.043465107679367065e-02 -9.191589057445526123e-02 -1.876985168457031250e+01 4.465537667274475098e-01 -5.219729900360107422e+00 -1.135065034031867981e-01 -9.195888042449951172e-01 -2.949734926223754883e-01 -1.046928882598876953e+00 1.822791248559951782e-01 -3.559312596917152405e-02 3.523614406585693359e+00 5.071267485618591309e-01 -2.109402418136596680e+00 3.185716271400451660e-01 -7.299438714981079102e-01 -1.141842484474182129e+00 2.568501234054565430e-01 1.691227257251739502e-01 -2.004529714584350586e+00 1.260482668876647949e-01 -2.964547157287597656e+00 3.633357584476470947e-02 -1.136894226074218750e+00 -4.890763387084007263e-02 -7.446478009223937988e-01 -1.263184189796447754e+00 -1.857732981443405151e-01 -5.491859316825866699e-01 -9.843659400939941406e+00 -3.207819759845733643e-01 -2.552084207534790039e+00 1.186076551675796509e-01 -9.531288743019104004e-01 2.601674012839794159e-02 6.106005907058715820e-01 8.122687935829162598e-01 -6.758090257644653320e-01 2.013174295425415039e-01 1.721432566642761230e+00 5.884442925453186035e-01 1.817325502634048462e-01 -2.229672968387603760e-01 1.116696834564208984e+00 4.079422354698181152e-01 -8.102949857711791992e-01 -6.114320158958435059e-01 -8.635787963867187500e+00 3.332251682877540588e-02 -1.914813995361328125e+00 -6.039317846298217773e-01 -2.702135145664215088e-01 -1.518500328063964844e+00 1.375654101371765137e+00 -2.308452129364013672e+00
1.510638833045959473e+00 -1.710806936025619507e-01 -1.516301870346069336e+00 -1.007962822914123535e-01 -1.623624205589294434e+00 3.653183698654174805e+00 2.826427936553955078e+00 -1.633671283721923828e+00 -7.404251694679260254e-01 7.683914899826049805e-02 1.681101024150848389e-01 -1.219969987869262695e+00 7.702723145484924316e-01 1.176314949989318848e+00 1.226796984672546387e+00 -1.190043449401855469e+00 1.693678140640258789e+00 6.917616128921508789e-01 -3.243777275085449219e+00 5.704372525215148926e-01 -3.502250015735626221e-01 1.144968420267105103e-01 1.612931489944458008e+00 -1.364243626594543457e-01 -2.761715054512023926e-01 2.702127397060394287e-01 -2.585300445556640625e+00 2.581955671310424805e+00 1.162821292877197266e+00 1.215435743331909180e+00 -5.643503367900848389e-02 5.210512280464172363e-01 5.386178493499755859e-01 1.629559278488159180e+00 6.771347522735595703e-01 -1.039319038391113281e+00 -8.250959217548370361e-03 2.956800162792205811e-01 1.109924674034118652e+00 -1.286752372980117798e-01 1.553868129849433899e-02 -5.667107105255126953e-01 -4.750800132751464844e-01 -2.957704365253448486e-01 -1.516226232051849365e-01 1.272322177886962891e+00 -1.499239355325698853e-01 -6.988825798034667969e-01 -9.597593545913696289e-01 2.095993041992187500e+00 3.840571641921997070e-02 -9.424659013748168945e-01 -5.700098872184753418e-01 -3.796250820159912109e-01 2.324482798576354980e-01 8.960246294736862183e-02 -9.429413080215454102e-01 4.390151977539062500e+00 2.708147168159484863e-01 -4.260442554950714111e-01 -1.496495008468627930e-01 -5.942259430885314941e-01 -1.280126690864562988e+00 2.830483019351959229e-01 6.524676084518432617e-01 2.078720480203628540e-01 -7.988607883453369141e-01 -1.181148290634155273e-01 -1.535744428634643555e+00 9.319298863410949707e-01 8.428792953491210938e-01 2.075813859701156616e-01 -4.204443097114562988e-01 -3.797624588012695312e+00 -1.665934443473815918e+00 -1.731149107217788696e-01 -3.675956428050994873e-01 1.145803704857826233e-01 6.362726092338562012e-01 -2.464912980794906616e-01 4.567815661430358887e-01 -9.275917410850524902e-01 1.037052944302558899e-01 -1.041140556335449219e+00 -1.403898358345031738e+00 -1.457697600126266479e-01 -1.108088344335556030e-01 5.706393122673034668e-01 -1.613723039627075195e+00 1.020264148712158203e+00 -6.498158574104309082e-01 -3.190609693527221680e+00 -5.217308998107910156e-01 5.685197114944458008e-01 2.006001710891723633e+00 -2.863981425762176514e-01 -1.227791905403137207e-01 -2.642518877983093262e-01 -1.720130801200866699e+00 8.967714905738830566e-01
-8.410527110099792480e-01 -1.218081414699554443e-01 -1.769462525844573975e-01 -2.069006487727165222e-02 5.696845054626464844e-02 -6.414580941200256348e-01 -1.096954464912414551e+00 1.279676705598831177e-01 -1.047732383012771606e-01 -3.684804439544677734e-01 -2.905057907104492188e+00 6.158359646797180176e-01 2.048750638961791992e+00 -2.268012762069702148e+00 2.307099401950836182e-01 7.457320094108581543e-01 -2.402074575424194336e+00 -7.634969949722290039e-01 6.118204593658447266e-01 7.342499494552612305e-02 3.635261058807373047e-01 -1.583397835493087769e-01 -1.604516863822937012e+00 8.212561607360839844e-01 3.446572273969650269e-02 2.031321525573730469e+00 1.285194516181945801e+00 -9.310929775238037109e-01 -1.012878894805908203e+00 2.435107678174972534e-01 -1.182045578956604004e+00 -5.219531655311584473e-01 3.301709890365600586e+00 -8.561210036277770996e-01 -8.400109410285949707e-01 -4.281556010246276855e-01 -7.229593992233276367e-01 4.523493349552154541e-01 -1.854720711708068848e+00 1.524977684020996094e-01 1.782247563824057579e-03 2.638747990131378174e-01 -8.326373696327209473e-01 -9.894096851348876953e-01 -3.527976572513580322e-02 2.829121351242065430e+00 -2.235185205936431885e-01 1.904351413249969482e-01 -1.880985498428344727e-01 5.771362781524658203e-01 -4.016909748315811157e-02 -2.243734836578369141e+00 2.760658860206604004e-01 -1.216062307357788086e+00 1.253706812858581543e+00 3.779751956462860107e-01 2.493886202573776245e-01 -3.943794369697570801e-01 -2.343121170997619629e-01 -1.249103620648384094e-01 -6.275563836097717285e-01 3.272493779659271240e-01 2.389706134796142578e+00 1.332727074623107910e+00 -1.300646662712097168e+00 -2.924643754959106445e-01 6.037358939647674561e-02 1.101396828889846802e-01 -1.026535872370004654e-02 -2.978530228137969971e-01 -1.268382310867309570e+00 5.050216317176818848e-01 -3.582681417465209961e-01 -3.037384033203125000e+00 6.634832918643951416e-02 -4.991085827350616455e-02 4.790767729282379150e-01 2.371952384710311890e-01 1.406500458717346191e+00 -3.222726440429687500e+01 -1.264684319496154785e+00 -1.068722248077392578e+00 1.703076839447021484e+00 -3.456127882003784180e+00 -5.600078582763671875e+00 -2.183327674865722656e+00 -1.680658310651779175e-01 -3.296515941619873047e-01 4.639485359191894531e+00 -2.392226271331310272e-02 6.138663273304700851e-03 1.333656787872314453e+00 -2.407988756895065308e-01 1.017742514610290527e+00 -2.289498329162597656e+01 2.746207416057586670e-01 -1.499945968389511108e-01 -4.301834106445312500e-01 2.097259163856506348e-01 -2.964679896831512451e-01
4.357004165649414062e-01 -2.478084713220596313e-01 -1.816499382257461548e-01 6.254834681749343872e-02 3.047763705253601074e-01 -9.245897084474563599e-02 1.674515247344970703e+00 -2.299069911241531372e-01 -3.677040636539459229e-01 2.937117218971252441e-01 -4.045533657073974609e+00 1.709828823804855347e-01 -1.439236164093017578e+00 3.205485343933105469e+00 2.171559035778045654e-01 -3.342146396636962891e+00 1.243378758430480957e+00 -5.160728693008422852e-01 -3.877755701541900635e-01 6.095911860466003418e-01 1.041936159133911133e+00 7.846270501613616943e-02 -3.387546837329864502e-01 -5.545890927314758301e-01 -5.722072347998619080e-02 -4.558075964450836182e-01 5.131607651710510254e-01 -5.246708989143371582e-01 -2.838313102722167969e+00 -5.352637767791748047e-01 -1.164021492004394531e+00 -2.411685138940811157e-01 8.640488982200622559e-01 6.800451874732971191e-01 -9.827146679162979126e-02 -4.811571836471557617e-01 6.820769309997558594e-01 2.582721710205078125e-01 -3.843566775321960449e-01 -1.826758265495300293e+00 -1.666613221168518066e-01 -9.760887920856475830e-02 -1.121514081954956055e+00 1.670516729354858398e+00 -2.576817750930786133e+00 7.455117702484130859e-01 6.978854537010192871e-03 -2.664354443550109863e-01 8.559644222259521484e-02 2.329603135585784912e-01 -1.546319294720888138e-02 8.309196829795837402e-01 -2.131755352020263672e+00 1.913898289203643799e-01 -6.359611749649047852e-01 1.039383113384246826e-01 -3.325112760066986084e-01 2.949468232691287994e-02 9.168708920478820801e-01 -1.109034195542335510e-01 2.299213707447052002e-01 -5.002371072769165039e-01 4.906669557094573975e-01 5.962330102920532227e-01 -2.387262344360351562e+00 -1.134205833077430725e-01 5.604448318481445312e-01 -1.754047572612762451e-01 -1.571112632751464844e+00 2.216317206621170044e-01 -6.357438564300537109e-01 1.136659622192382812e+00 -5.126057267189025879e-01 -3.896494626998901367e+00 -2.204550951719284058e-01 -7.507038861513137817e-02 5.506376028060913086e-01 -7.403161525726318359e-01 -6.405328512191772461e-01 -2.206493854522705078e+00 -4.919789731502532959e-01 9.341265261173248291e-02 -1.686125397682189941e-01 -1.253702998161315918e+00 -7.352703213691711426e-01 -3.799197673797607422e-01 3.258314430713653564e-01 9.024392962455749512e-01 7.977019548416137695e-01 1.368575334548950195e+00 -1.471664905548095703e-01 -4.562774002552032471e-01 -1.899506688117980957e+00 1.290040612220764160e+00 -1.007300019264221191e+00 -6.018102914094924927e-02 3.768554655835032463e-03 -7.025737315416336060e-02 -9.451033174991607666e-02 2.392150759696960449e-01
-5.761836171150207520e-01 -8.904172778129577637e-01 -1.813743472099304199e+00 -3.216336015611886978e-03 9.352490305900573730e-01 2.039944976568222046e-01 2.070808172225952148e+00 -2.930711030960083008e+00 -2.675968933105468750e+01 2.970802783966064453e-02 -1.017478466033935547e+00 -3.245249271392822266e+00 -2.887588441371917725e-01 -1.722567439079284668e+00 -1.548391222953796387e+00 9.159888327121734619e-02 -7.894965648651123047e+00 -1.099936515092849731e-01 -5.094107627868652344e+00 4.110290706157684326e-01 -3.422412276268005371e-01 -9.418295621871948242e-01 9.851045906543731689e-02 -7.437121868133544922e-02 5.271034836769104004e-01 -1.929868757724761963e-01 -3.643821179866790771e-01 -5.739416480064392090e-01 5.940927267074584961e-01 -1.271381020545959473e+00 -3.531008958816528320e-01 -1.111188650131225586e+00 -7.117651104927062988e-01 -4.824671745300292969e+00 1.651807874441146851e-01 -1.900516003370285034e-01 9.138824939727783203e-01 1.586484014987945557e-01 1.852483153343200684e+00 1.520607709884643555e+00 9.039249271154403687e-02 -5.374021530151367188e+00 -4.089236855506896973e-01 -1.910881996154785156e+00 -1.763395220041275024e-01 2.699068747460842133e-02 -2.483564913272857666e-01 -3.413429021835327148e+00 -6.438367813825607300e-02 -8.245007395744323730e-01 1.323995739221572876e-01 -1.598818898200988770e+00 8.234112709760665894e-02 -1.162262633442878723e-01 1.341317296028137207e-01 -8.103258162736892700e-02 1.092089414596557617e+00 8.267139792442321777e-01 -3.156120181083679199e-01 -1.763843595981597900e-01 3.976345434784889221e-02 -8.084752559661865234e-01 -4.064673483371734619e-01 7.628026604652404785e-01 -6.745573043823242188e+00 -2.009177953004837036e-01 7.832434773445129395e-01 -6.456168740987777710e-02 4.220487773418426514e-01 -8.963044285774230957e-01 3.267357051372528076e-01 -1.487820595502853394e-01 -6.815500259399414062e-01 -4.417373239994049072e-01 9.507831931114196777e-02 2.101050168275833130e-01 -1.971099972724914551e-01 -7.546819746494293213e-02 -4.981037080287933350e-01 2.698018789291381836e+00 -8.980749249458312988e-01 -2.350953370332717896e-01 -4.347842559218406677e-02 -1.165665537118911743e-01 -3.993571996688842773e-01 4.808814525604248047e-01 8.946803212165832520e-02 1.493429183959960938e+00 4.248404502868652344e+00 9.767186641693115234e-02 2.625453472137451172e-01 -8.059217333793640137e-01 3.084467053413391113e-01 2.314343601465225220e-01 -1.672535538673400879e+00 2.101022005081176758e-01 -1.945894360542297363e-01 -1.537644416093826294e-01 -8.804247975349426270e-01 7.826212048530578613e-01
4.445672333240509033e-01 6.238441467285156250e-01 4.354410991072654724e-02 -1.816243082284927368e-01 2.282380461692810059e-01 -6.752349734306335449e-01 -3.709477186203002930e-02 1.235279366374015808e-01 -2.001282691955566406e+00 2.579575777053833008e-01 -1.015161156654357910e+00 -1.758811354637145996e+00 -1.690621018409729004e+00 1.074869275093078613e+00 -1.696482114493846893e-02 -1.998292207717895508e+00 1.657190799713134766e+00 -1.192154884338378906e-01 -1.624490737915039062e+00 -8.438090085983276367e-01 2.868710160255432129e-01 9.597290158271789551e-01 6.618788838386535645e-01 3.739336729049682617e-01 -5.610556006431579590e-01 -2.102395519614219666e-02 -3.595272451639175415e-02 4.899714291095733643e-01 -8.224246501922607422e-01 6.261718869209289551e-01 -1.704895615577697754e+00 -2.036898583173751831e-01 1.128324866294860840e+00 -1.729791522026062012e+00 1.644978374242782593e-01 -1.191646337509155273e+00 1.041258215904235840e+00 1.157401442527770996e+00 -1.591175675392150879e+00 -3.158185958862304688e+00 -2.616672404110431671e-02 -6.461663246154785156e-01 -2.463848829269409180e+00 1.190520882606506348e+00 -1.504643917083740234e+00 5.355114936828613281e-01 3.585796058177947998e-02 3.258307650685310364e-02 -2.502759993076324463e-01 -7.483609914779663086e-01 4.141526669263839722e-02 6.655161380767822266e-01 2.527178823947906494e-01 -5.645130276679992676e-01 -1.096009016036987305e+00 -1.417721807956695557e-01 1.165390834212303162e-01 3.511582612991333008e-01 -3.673542261123657227e+00 2.686566114425659180e-01 1.418888926506042480e+00 -6.099486947059631348e-01 -6.290896534919738770e-01 -3.311254262924194336e+00 -1.029746055603027344e+00 3.508012592792510986e-01 3.066418468952178955e-01 4.220082983374595642e-02 -5.325394630432128906e+00 1.595507711172103882e-01 -6.599963307380676270e-01 -1.736889004707336426e+00 -1.603207290172576904e-01 -2.941980957984924316e-02 2.932886779308319092e-01 -4.838588237762451172e-01 -1.737719625234603882e-01 4.575808048248291016e-01 1.137032508850097656e-01 -6.748328208923339844e-01 -1.504309415817260742e+00 1.592174291610717773e+00 -8.105452060699462891e-01 -2.454360574483871460e-01 -8.834706991910934448e-02 1.164120793342590332e+00 -1.714161783456802368e-01 -2.816656589508056641e+00 -3.666372224688529968e-02 -1.025236010551452637e+00 8.442726102657616138e-04 1.557003140449523926e+00 -4.136883839964866638e-02 -3.393994271755218506e-01 -1.189611554145812988e+00 -1.803828716278076172e+00 -6.852480769157409668e-02 -2.042095810174942017e-01 1.328901480883359909e-02 2.631844580173492432e-01
1.564482688903808594e+00 -1.071452617645263672e+00 -7.436996102333068848e-01 5.160476267337799072e-02 2.427011430263519287e-01 8.338580280542373657e-02 -1.487477064132690430e+00 1.977537423372268677e-01 -6.450503468513488770e-01 5.427618622779846191e-01 1.028440892696380615e-01 -1.611469745635986328e+00 -1.513471007347106934e+00 5.205482482910156250e+00 -2.829152345657348633e-01 -3.625560045242309570e+00 -6.418407917022705078e+00 2.755860567092895508e+00 1.496049165725708008e+00 -7.068145871162414551e-01 5.923215746879577637e-01 -2.301956176757812500e+00 1.701026111841201782e-01 -1.276614785194396973e+00 -1.536202877759933472e-01 1.977520585060119629e+00 -3.419284582138061523e+00 -2.293184041976928711e+00 -1.106845617294311523e+00 -1.296879887580871582e+00 8.342732191085815430e-01 -1.026746630668640137e+00 -5.826597809791564941e-01 9.591134786605834961e-01 1.067422151565551758e+00 2.551031827926635742e+00 2.522544622421264648e+00 -1.582932025194168091e-01 -5.496163368225097656e+00 5.761766433715820312e+00 4.200189560651779175e-02 2.929956018924713135e-01 8.185263872146606445e-01 -6.841865777969360352e-01 4.003097534179687500e+00 1.539168834686279297e+00 3.060263581573963165e-02 -1.906553387641906738e+00 -1.490602344274520874e-01 1.037336707115173340e+00 1.804971396923065186e-01 -3.462043702602386475e-01 -7.164902091026306152e-01 -9.707897901535034180e-02 1.241501718759536743e-01 6.076627373695373535e-01 2.804749310016632080e-01 -9.646274447441101074e-01 -8.001498222351074219e+00 -9.685643762350082397e-02 -1.058922052383422852e+00 7.735179066658020020e-01 2.708836793899536133e+00 -2.650141954421997070e+00 -2.314637184143066406e+00 -6.709373593330383301e-01 -2.602167725563049316e-01 -2.005850523710250854e-01 1.572582274675369263e-01 -6.502563506364822388e-02 -4.257201850414276123e-01 1.523030757904052734e+00 -2.938700318336486816e-01 -2.313009023666381836e+00 -2.043353468179702759e-01 2.119770646095275879e-01 -7.024020552635192871e-01 6.766408085823059082e-01 -1.904486656188964844e+00 -6.970248818397521973e-01 1.071663260459899902e+00 2.061866521835327148e+00 -1.105959296226501465e+00 -2.614594459533691406e+00 -2.357255220413208008e+00 6.377341747283935547e-01 5.465184450149536133e-01 -1.859911918640136719e+00 1.286718368530273438e+00 -4.752550125122070312e-01 1.176870539784431458e-01 2.246635198593139648e+00 -5.586120486259460449e-01 2.706976175308227539e+00 -1.457074999809265137e+00 -2.261454820632934570e+00 -5.300945416092872620e-02 8.687031269073486328e-02 -3.779683709144592285e-01 4.999302625656127930e-01
8.310953974723815918e-01 4.595668017864227295e-01 -1.892165184020996094e+00 -3.409542888402938843e-02 7.576318979263305664e-01 -2.181292295455932617e+00 -8.660974502563476562e-01 7.222064137458801270e-01 -1.371978402137756348e+00 4.705511629581451416e-01 -1.110022306442260742e+00 7.239707708358764648e-01 -1.387403249740600586e+00 1.888621091842651367e+00 -2.958744764328002930e-01 2.313940525054931641e+00 5.791554450988769531e+00 1.716945528984069824e+00 -4.698963090777397156e-02 3.390189111232757568e-01 2.248440384864807129e-01 -1.135678887367248535e+00 6.410729289054870605e-01 -3.211727738380432129e-01 5.292357206344604492e-01 -5.073860287666320801e-01 -2.206170082092285156e+00 1.437196254730224609e+00 6.675021052360534668e-01 8.184091448783874512e-01 -1.749015808105468750e+00 7.327695488929748535e-01 3.914764642715454102e+00 1.170112252235412598e+00 1.116874143481254578e-01 3.773792386054992676e-01 2.127330064773559570e+00 8.157629370689392090e-01 -2.632468700408935547e+00 2.142398357391357422e+00 1.314135491847991943e-01 3.798444271087646484e-01 6.196190714836120605e-01 2.786811590194702148e-01 2.047096729278564453e+00 1.086222410202026367e+00 -6.850210428237915039e-01 -3.529349267482757568e-01 1.182011794298887253e-02 2.442475259304046631e-01 1.252824217081069946e-01 -4.083689749240875244e-01 2.632085323333740234e+00 -3.311191499233245850e-01 3.541074991226196289e-01 -1.100948572158813477e+00 3.719059005379676819e-02 -7.367089986801147461e-01 -2.092665582895278931e-01 -3.214964875951409340e-03 2.754905819892883301e-01 -2.773039042949676514e-01 9.303076267242431641e-01 1.817551493644714355e+00 1.773606657981872559e+00 -1.261069327592849731e-01 -3.416515588760375977e-01 4.560761526226997375e-02 1.302322268486022949e+00 6.706131100654602051e-01 5.409760475158691406e-01 -4.761490821838378906e-01 4.618302583694458008e-01 6.333038806915283203e-01 1.259110450744628906e+00 -1.172749027609825134e-01 -3.748868107795715332e-01 7.157040238380432129e-01 1.929483175277709961e+00 1.831668019294738770e+00 -1.603882946074008942e-02 4.401155412197113037e-01 7.693672776222229004e-01 1.089359447360038757e-01 2.447390705347061157e-01 -2.127510786056518555e+00 1.333414465188980103e-01 3.304841816425323486e-01 2.038494825363159180e+00 -6.762406229972839355e-02 4.262338578701019287e-01 1.005610585212707520e+00 -1.886285662651062012e+00 7.665099501609802246e-01 -3.559865951538085938e+00 1.628778129816055298e-01 8.317053318023681641e-02 -3.192068338394165039e-01 -1.749792993068695068e-01 -2.270297408103942871e-01
-1.996755957603454590e+00 -6.821333765983581543e-01 4.635291397571563721e-01 -2.213882058858871460e-01 -8.382523804903030396e-02 -2.519037961959838867e+00 -4.999096691608428955e-01 1.194570809602737427e-01 -9.519564509391784668e-01 -6.944483518600463867e-02 -3.760870993137359619e-01 -1.436145305633544922e+00 1.807492256164550781e+00 1.735580205917358398e+00 3.059183955192565918e-01 2.445213198661804199e-01 1.343363285064697266e+00 1.329308986663818359e+00 -9.902132749557495117e-01 7.773095369338989258e-01 1.386412382125854492e+00 4.163252711296081543e-01 -2.978582620620727539e+00 7.659301161766052246e-01 -2.460893392562866211e-01 1.213255047798156738e+00 2.162194013595581055e+00 -1.583411693572998047e+00 -4.519844532012939453e+00 -5.648894906044006348e-01 -1.618672370910644531e+00 5.044077038764953613e-01 8.754917383193969727e-01 4.845991432666778564e-01 -1.405190110206604004e+00 6.737558841705322266e-01 1.694681286811828613e+00 -2.146423310041427612e-01 1.127665210515260696e-02 -3.431464672088623047e+00 9.702677279710769653e-02 -2.340061664581298828e-01 -7.580684423446655273e-01 -5.055348873138427734e-01 1.172704219818115234e+00 -2.185240507125854492e+00 1.301927417516708374e-01 7.494510412216186523e-01 -2.213010787963867188e-01 -1.856858134269714355e-01 -7.260081917047500610e-02 2.559165842831134796e-02 -2.333256483078002930e+00 -1.618308573961257935e-01 -4.408310055732727051e-01 -4.026680290699005127e-01 6.413943320512771606e-02 -2.840428054332733154e-01 7.563859224319458008e-01 -1.605183333158493042e-01 1.405304074287414551e-01 -1.876766443252563477e+00 -1.414913177490234375e+00 1.967352986335754395e+00 -1.095290541648864746e+00 -4.254728257656097412e-01 4.137806296348571777e-01 8.318735659122467041e-02 -8.060211539268493652e-01 -2.127961874008178711e+00 -1.731702983379364014e-01 -3.917760133743286133e+00 -3.186834156513214111e-01 -2.825486183166503906e+00 -2.285650968551635742e+00 2.638793587684631348e-01 -4.043248593807220459e-01 -1.762467265129089355e+00 -5.680499076843261719e-01 1.366409659385681152e+00 5.134925842285156250e-01 1.534914970397949219e-01 1.502037405967712402e+00 2.554700076580047607e-01 -1.740810155868530273e+00 -5.660516738891601562e+00 -4.584310054779052734e-01 1.075997471809387207e+00 -3.079834282398223877e-01 -1.774689674377441406e+00 -3.716777563095092773e-01 -4.944390356540679932e-01 -3.256382942199707031e+00 -1.002127647399902344e+00 -1.244305968284606934e+00 -2.167119830846786499e-01 -5.193722993135452271e-02 -3.721055984497070312e-01 -3.802780434489250183e-02 -1.138002350926399231e-01
4.009034335613250732e-01 -1.843890398740768433e-01 -1.775490194559097290e-01 -6.477296818047761917e-03 -4.168196022510528564e-02 6.773250699043273926e-01 3.940859138965606689e-01 2.988990768790245056e-02 9.100483059883117676e-01 -4.560212492942810059e-01 -9.573773145675659180e-01 5.271637439727783203e-01 -2.019857406616210938e+00 8.991787433624267578e-01 -8.142561316490173340e-01 -2.459078311920166016e+00 5.683958530426025391e-01 -8.576816320419311523e-01 2.634635269641876221e-01 -4.223448932170867920e-01 -9.970082640647888184e-01 3.221580293029546738e-03 5.965493321418762207e-01 -1.373638629913330078e+00 -1.226416230201721191e+00 4.771118238568305969e-02 1.016526222229003906e+00 -1.021419167518615723e+00 -4.905932247638702393e-01 1.142518401145935059e+00 6.399343609809875488e-01 2.065666764974594116e-01 5.932903885841369629e-01 -2.247707247734069824e-01 -3.642203509807586670e-01 -8.536410927772521973e-01 1.255138039588928223e+00 -6.650283932685852051e-01 -7.781354188919067383e-01 -3.915618360042572021e-01 -3.145558387041091919e-02 1.464500904083251953e+00 -1.375267982482910156e+00 6.845555305480957031e-01 1.914154171943664551e+00 1.471393704414367676e+00 -2.675585448741912842e-02 -3.792500734329223633e+00 8.474010229110717773e-01 2.025461435317993164e+00 3.080756664276123047e-01 1.282852172851562500e+00 -8.892081975936889648e-01 -9.481321275234222412e-02 -1.807474613189697266e+00 -6.043291687965393066e-01 2.259371131658554077e-01 7.446902990341186523e-01 5.272405147552490234e-01 2.194773554801940918e-01 1.349636435508728027e+00 -7.993768900632858276e-02 4.399566054344177246e-01 8.083647489547729492e-02 -1.976598548889160156e+01 -1.199268028140068054e-01 -2.917446196079254150e-01 -1.133905276656150818e-01 4.680586159229278564e-01 3.167255818843841553e-01 3.704401850700378418e-01 2.813704609870910645e-01 3.144907951354980469e-01 -1.563694000244140625e+00 -1.790584087371826172e+00 -2.710268273949623108e-02 -6.985756754875183105e-01 2.187702894210815430e+00 -1.964779138565063477e+00 2.135357260704040527e-01 -3.858113288879394531e-02 1.302733272314071655e-01 -5.902071297168731689e-02 -4.848748147487640381e-01 -6.566244363784790039e-01 6.446672677993774414e-01 1.743109941482543945e+00 7.168609499931335449e-01 -2.686464548110961914e+00 -9.139558076858520508e-01 7.904015779495239258e-01 -6.305843591690063477e-01 -2.596521973609924316e-01 -7.857716679573059082e-01 1.479606032371520996e+00 -1.379226088523864746e+00 -8.358431048691272736e-03 -1.459207653999328613e+00 -6.152759790420532227e-01 -7.253323197364807129e-01
9.581134319305419922e-01 2.274352788925170898e+00 -7.372188568115234375e-01 -2.195020914077758789e-01 9.186661839485168457e-01 -2.595755577087402344e+00 -7.400459051132202148e-01 -5.603881478309631348e-01 -2.918337345123291016e+00 1.323505878448486328e+00 1.151461675763130188e-01 2.718183994293212891e-01 -9.487892985343933105e-01 2.458301186561584473e-01 -8.334011435508728027e-01 -4.103009700775146484e-01 -1.342411279678344727e+00 -1.566381216049194336e+00 -2.296214103698730469e+00 -4.697152078151702881e-01 6.863835453987121582e-01 -1.114412546157836914e+00 -1.346532344818115234e+00 5.140222236514091492e-02 -1.086863949894905090e-01 5.336427129805088043e-03 2.182590246200561523e+00 -4.067639112472534180e-01 -5.925430059432983398e-01 -3.435667514801025391e+00 1.328873276710510254e+00 -7.210701107978820801e-01 -1.972379446029663086e+00 -4.077013492584228516e+00 -2.602252960205078125e-01 -2.486052751541137695e+00 -1.064978122711181641e+00 -7.668072581291198730e-01 -4.866192042827606201e-01 3.572464287281036377e-01 3.321059048175811768e-02 2.628524601459503174e-01 1.655007302761077881e-01 6.847546100616455078e-01 6.812639236450195312e-01 -2.422267436981201172e+00 -4.569188654422760010e-01 -6.419236660003662109e-01 -2.320352010428905487e-03 -4.911033630371093750e+00 -7.705958094447851181e-03 4.494635760784149170e-01 -7.618878483772277832e-01 -3.076904118061065674e-01 8.432185053825378418e-01 6.583784520626068115e-02 2.562632083892822266e+00 8.177483677864074707e-01 -9.283316731452941895e-01 -5.595557689666748047e-01 -3.204153478145599365e-01 8.846281170845031738e-01 -2.987283229827880859e+00 2.688370272517204285e-02 1.467359066009521484e-01 1.938005536794662476e-01 -2.528500743210315704e-02 -4.717227444052696228e-02 1.063365340232849121e+00 2.300201505422592163e-01 1.829942822456359863e+00 -1.591900140047073364e-01 -7.916114926338195801e-01 1.459809064865112305e+00 -1.111232876777648926e+00 -9.122513979673385620e-02 8.516332507133483887e-01 1.219045877456665039e+00 -6.977468729019165039e-02 2.325971871614456177e-01 1.156832337379455566e+00 6.518069505691528320e-01 -3.581439554691314697e-01 1.359704017639160156e+00 4.674612358212471008e-02 6.355935335159301758e-01 1.800413131713867188e-01 9.935583472251892090e-01 -3.405861258506774902e-01 6.923399865627288818e-02 -8.413684368133544922e-02 7.819489836692810059e-01 6.659997701644897461e-01 -1.695478409528732300e-01 -3.386890172958374023e+00 5.789705514907836914e-01 -1.887510120868682861e-01 -1.078849077224731445e+00 1.295105695724487305e+00 -1.058579921722412109e+00
4.917334765195846558e-02 4.201225340366363525e-01 -8.884890079498291016e-01 -2.894122898578643799e-02 1.300882250070571899e-01 -7.135442495346069336e-01 8.955437690019607544e-03 4.223358333110809326e-01 8.123604059219360352e-01 -3.922572433948516846e-01 -2.604305028915405273e+00 1.302420616149902344e+00 5.577754974365234375e-01 -6.048339366912841797e+00 -1.022537276148796082e-01 7.925201058387756348e-01 -1.437446713447570801e+00 9.882350564002990723e-01 1.972447872161865234e+00 -4.259771406650543213e-01 -7.286507487297058105e-01 8.591772317886352539e-01 1.989177465438842773e-01 6.761226654052734375e-01 -1.010477781295776367e+00 -3.353530466556549072e-01 -1.167815849184989929e-01 7.187620401382446289e-01 4.139208495616912842e-01 -1.309699714183807373e-01 8.213961124420166016e-01 2.278650403022766113e-01 -5.367934703826904297e-01 4.246307313442230225e-01 -1.572622299194335938e+00 -8.600904345512390137e-01 7.560253143310546875e-01 5.728777498006820679e-02 -2.018511593341827393e-01 6.872832179069519043e-01 -1.997926533222198486e-01 7.903999686241149902e-01 6.401857733726501465e-01 -8.371542096138000488e-01 2.035415410995483398e+00 2.030350714921951294e-01 3.095494583249092102e-02 -7.102860510349273682e-02 7.547146677970886230e-01 -1.657851487398147583e-01 9.954708628356456757e-03 2.622515916824340820e+00 1.022299408912658691e+00 -6.090477108955383301e-01 4.286726117134094238e-01 -8.627083152532577515e-02 5.403506159782409668e-01 -1.819305717945098877e-01 2.848005592823028564e-01 3.293925821781158447e-01 -9.472146630287170410e-01 7.602880597114562988e-01 5.231168866157531738e-01 -5.973072052001953125e-01 -1.101529955863952637e+00 1.540171504020690918e-01 3.116353750228881836e-01 -8.227554708719253540e-02 -3.169968128204345703e+00 -5.863169580698013306e-02 1.175159662961959839e-01 7.102638483047485352e-01 -3.053328990936279297e-01 -8.701392412185668945e-01 -3.544103205204010010e-01 1.455372422933578491e-01 -8.407789468765258789e-01 6.305086612701416016e-01 9.233922958374023438e-01 -9.811902999877929688e+00 1.412555456161499023e+00 1.565841883420944214e-01 -5.043954402208328247e-02 9.762769937515258789e-01 2.783669233322143555e-01 6.195238232612609863e-01 -2.033880203962326050e-01 2.070432752370834351e-01 -7.927616685628890991e-02 -2.307443767786026001e-01 -3.595063686370849609e-01 2.633049488067626953e-01 6.961367130279541016e-01 -2.345723807811737061e-01 -6.775572896003723145e-01 8.587654680013656616e-02 -2.343945950269699097e-01 3.570065498352050781e-01 5.169780850410461426e-01 -5.527306199073791504e-01
3.784268796443939209e-01 -1.073639035224914551e+00 -6.200473308563232422e-01 1.033433452248573303e-01 -3.534902334213256836e-01 -2.459821224212646484e+00 9.129081368446350098e-01 -1.099434137344360352e+00 2.068757772445678711e+00 1.075170561671257019e-01 4.073008000850677490e-01 2.102756977081298828e+00 1.567517668008804321e-01 -2.120393276214599609e+00 4.346480071544647217e-01 3.619750738143920898e-01 -2.257722139358520508e+00 2.306560039520263672e+00 -6.428595781326293945e-01 6.791850924491882324e-01 -3.598765134811401367e-01 -2.276013344526290894e-01 -1.166202306747436523e+00 1.224949434399604797e-01 2.376011461019515991e-01 -1.257244944572448730e+00 7.158828973770141602e-01 1.543826699256896973e+00 -1.054441332817077637e+00 1.422867178916931152e+00 5.142834186553955078e-01 5.457151308655738831e-02 7.584963738918304443e-02 -1.270596885681152344e+01 7.133966088294982910e-01 1.448352217674255371e+00 -6.265208721160888672e-01 -6.940452009439468384e-02 -8.707720041275024414e-01 -2.021708488464355469e+00 -1.158067137002944946e-01 1.712190210819244385e-01 2.367933243513107300e-01 1.638876497745513916e-01 2.129395306110382080e-01 -7.077620029449462891e-01 -3.105685114860534668e-02 -6.266977310180664062e+00 -3.449004888534545898e-02 -3.505063056945800781e+00 2.850825153291225433e-02 -1.112508058547973633e+00 -8.757632374763488770e-01 3.961341455578804016e-02 4.142936170101165771e-01 -3.796209692955017090e-01 -1.516601800918579102e+00 1.960460782051086426e+00 2.489177465438842773e+00 -7.827100902795791626e-02 -4.804910346865653992e-02 5.247068405151367188e-01 -3.219537973403930664e+00 -5.634809657931327820e-02 -1.908950209617614746e+00 1.682185754179954529e-02 1.226843953132629395e+00 -1.429430302232503891e-02 -1.804310679435729980e+00 1.030935999006032944e-02 1.102436542510986328e+00 -5.614308118820190430e-01 4.864977598190307617e-01 -4.806151688098907471e-01 2.473539352416992188e+00 1.097574010491371155e-01 -1.087563782930374146e-01 -7.774089574813842773e-01 4.636004567146301270e-01 4.628407955169677734e+00 -2.740724980831146240e-01 5.588792264461517334e-02 -1.233262196183204651e-02 -1.915227770805358887e+00 3.215944766998291016e-01 -4.120999872684478760e-01 -3.524517416954040527e-01 5.315793752670288086e-01 2.206616848707199097e-01 -2.550462186336517334e-01 3.643279373645782471e-01 1.705076992511749268e-01 -1.738049149513244629e+00 -1.705227494239807129e-01 -1.529550194740295410e+00 7.808429598808288574e-01 -1.746036559343338013e-01 -9.848828613758087158e-02 -1.408824622631072998e-01 -1.004547882080078125e+01
