2.356357574462890625e-01
-6.348943710327148438e-01
-2.811786830425262451e-01
-6.120964288711547852e-01
-5.822092890739440918e-01
-3.719659522175788879e-02
-3.223521411418914795e-01
-6.446961760520935059e-01
-5.805525779724121094e-01
-4.344027042388916016e-01
-3.510577678680419922e-01
-3.758338093757629395e-02
-1.790806502103805542e-01
-2.720912098884582520e-01
-4.014778435230255127e-01
-2.777650058269500732e-01
3.712406614795327187e-03
-2.306190505623817444e-02
-3.699637576937675476e-02
-7.972241640090942383e-01
-5.933373793959617615e-02
9.101850539445877075e-02
-4.599505662918090820e-01
-6.395268440246582031e-01
-5.482612848281860352e-01
-3.519624173641204834e-01
-2.025396525859832764e-01
-4.571459293365478516e-01
-2.085382044315338135e-01
7.021856904029846191e-01
-2.278500422835350037e-02
-9.932236075401306152e-01
-2.430862784385681152e-01
3.459862992167472839e-02
-4.990612268447875977e-01
-6.344993114471435547e-01
-4.111232161521911621e-01
-4.224520623683929443e-01
-2.778661251068115234e-01
-6.131621599197387695e-01
6.440925598144531250e-02
2.621359750628471375e-02
1.810254007577896118e-01
-7.323559522628784180e-01
-5.181887149810791016e-01
5.697894096374511719e-01
-3.823218345642089844e-01
-2.554889917373657227e-01
-5.206229090690612793e-01
-5.087156295776367188e-01
-1.928926408290863037e-01
-3.145243823528289795e-01
-6.904335319995880127e-02
-4.812500774860382080e-01
-7.534407973289489746e-01
-5.068885535001754761e-02
-2.655897438526153564e-01
-4.350152909755706787e-01
9.046863764524459839e-02
1.309001296758651733e-01
6.819645762443542480e-01
-1.080369800329208374e-01
-5.992433428764343262e-01
-1.250002235174179077e-01
-2.966866791248321533e-01
-4.603329896926879883e-01
-3.759352564811706543e-01
6.722264885902404785e-01
-3.608582615852355957e-01
-1.547411084175109863e-01
-4.250398874282836914e-01
-2.213363945484161377e-01
-4.823978841304779053e-01
4.784732684493064880e-02
-3.911277651786804199e-01
-2.057215422391891479e-01
4.851653575897216797e-01
1.095204055309295654e-01
-3.506253063678741455e-01
-2.030529081821441650e-01
2.731013298034667969e-01
-4.155598580837249756e-01
-6.077858060598373413e-02
6.126281246542930603e-02
-4.861407577991485596e-01
2.232981920242309570e-01
-3.819234669208526611e-01
-5.113956332206726074e-01
-4.087101519107818604e-01
-5.919945240020751953e-01
-4.003276824951171875e-01
-2.808263003826141357e-01
-4.237087368965148926e-01
-4.579192399978637695e-01
-1.485841274261474609e-01
-1.455326676368713379e-01
-4.065958783030509949e-02
-2.727761566638946533e-01
5.910037755966186523e-01
-2.742900550365447998e-01
5.289831012487411499e-02
-2.861270904541015625e-01
-1.266710013151168823e-01
-2.402315288782119751e-01
-1.821983009576797485e-01
-2.280566245317459106e-01
-7.188556194305419922e-01
-3.934135138988494873e-01
4.683475792407989502e-01
-1.077212691307067871e-01
2.022757381200790405e-01
-1.692494153976440430e-01
-4.862467348575592041e-01
-1.894593611359596252e-02
-2.766930460929870605e-01
-6.490531563758850098e-01
-5.729190707206726074e-01
-2.988779246807098389e-01
-7.170503735542297363e-01
-7.388064265251159668e-01
-2.224633991718292236e-01
-1.233098953962326050e-01
-2.636011540889739990e-01
-1.142273545265197754e-01
-1.609391868114471436e-01
-5.787954330444335938e-01
-5.228613018989562988e-01
2.489789724349975586e-01
4.206737577915191650e-01
5.802239179611206055e-01
-2.859492003917694092e-01
2.582145333290100098e-01
5.411450266838073730e-01
-9.135670959949493408e-02
3.856616318225860596e-01
5.734251141548156738e-01
-1.208240091800689697e-01
4.390703141689300537e-01
2.716183289885520935e-02
-1.146769300103187561e-01
2.761496901512145996e-01
2.214271277189254761e-01
1.206316724419593811e-01
-1.871200464665889740e-02
3.820883855223655701e-02
1.654378622770309448e-01
-1.008415743708610535e-01
-5.920487642288208008e-02
-2.439315468072891235e-01
2.531325519084930420e-01
-1.297952141612768173e-02
6.324766278266906738e-01
5.705974102020263672e-01
4.973997473716735840e-01
1.913882941007614136e-01
-3.788598775863647461e-01
2.110169529914855957e-01
-2.650001272559165955e-02
1.201339587569236755e-01
8.724948167800903320e-01
1.271825283765792847e-01
-7.661628723144531250e-01
1.687050163745880127e-01
3.865809440612792969e-01
2.939484827220439911e-02
4.202196002006530762e-01
-1.385197043418884277e-01
3.001288473606109619e-01
1.438748389482498169e-01
-2.412163764238357544e-01
5.946512818336486816e-01
2.485939860343933105e-01
2.715157270431518555e-01
2.908016443252563477e-01
3.562774658203125000e-01
5.094285607337951660e-01
2.491460889577865601e-01
5.918642878532409668e-01
2.525469362735748291e-01
1.313363462686538696e-01
1.164129003882408142e-01
-3.243619501590728760e-01
4.037813544273376465e-01
-1.849384903907775879e-01
2.556010782718658447e-01
1.852914392948150635e-01
1.087188273668289185e-01
-1.469783931970596313e-01
-2.351911365985870361e-01
1.957352012395858765e-01
-4.132599011063575745e-02
1.369831711053848267e-01
2.559329383075237274e-02
4.053446948528289795e-01
9.099928289651870728e-02
-9.123741984367370605e-01
2.690893709659576416e-01
-5.005468055605888367e-02
3.472572267055511475e-01
2.358297556638717651e-01
3.800086975097656250e-01
-4.758317768573760986e-01
4.149309694766998291e-01
2.097260653972625732e-01
-1.448504924774169922e-01
-3.527487814426422119e-01
2.911561131477355957e-01
4.509277045726776123e-01
-1.176069118082523346e-02
4.402553141117095947e-01
1.922405362129211426e-01
3.762276470661163330e-01
4.370471537113189697e-01
-1.726970374584197998e-01
1.962110698223114014e-01
2.046455442905426025e-01
3.224369287490844727e-01
9.924310445785522461e-02
1.043986994773149490e-02
-2.384945750236511230e-01
1.638503819704055786e-01
6.275027990341186523e-01
-1.706390641629695892e-02
3.575127124786376953e-01
-5.521254241466522217e-02
1.468328535556793213e-01
-5.554721951484680176e-01
2.591269910335540771e-01
-9.129367023706436157e-02
5.098717212677001953e-01
1.186114847660064697e-01
3.540132939815521240e-01
3.122570514678955078e-01
8.696937561035156250e-02
5.518320798873901367e-01
-4.204904288053512573e-02
6.186850070953369141e-01
2.941935360431671143e-01
1.193035319447517395e-01
2.417152971029281616e-01
-1.787424087524414062e-01
4.712040722370147705e-01
-1.015838012099266052e-01
4.336646199226379395e-01
5.386709570884704590e-01
1.911723762750625610e-01
4.178299605846405029e-01
8.115273714065551758e-01
2.209004461765289307e-01
3.080472946166992188e-01
-1.832008361816406250e-01
4.501447081565856934e-02
2.586195170879364014e-01
4.539047479629516602e-01
1.563125550746917725e-01
-5.372182726860046387e-01
-1.851596310734748840e-02
-2.499136514961719513e-02
-2.375323027372360229e-01
-7.884135097265243530e-02
4.801759868860244751e-02
2.320677042007446289e-01
1.418596357107162476e-01
-1.361091434955596924e-01
-6.496267020702362061e-02
-4.465580582618713379e-01
-2.132840007543563843e-01
4.455913603305816650e-02
1.045820191502571106e-01
2.230403721332550049e-01
9.620963037014007568e-02
-1.475980728864669800e-01
-3.569160103797912598e-01
-2.591931819915771484e-01
-1.444832682609558105e-01
-1.907671391963958740e-01
-9.802774339914321899e-02
-1.677501052618026733e-01
1.065213903784751892e-01
-2.807195298373699188e-02
-1.315174251794815063e-01
3.020190596580505371e-01
1.657358556985855103e-01
2.284620106220245361e-01
-1.196940988302230835e-01
-3.856591880321502686e-02
-3.420102596282958984e-01
4.944660142064094543e-02
-1.517691463232040405e-01
2.023154869675636292e-02
-2.060320228338241577e-01
6.412430852651596069e-02
1.882646828889846802e-01
-2.195911407470703125e-01
1.174333840608596802e-01
-1.287570744752883911e-01
3.205891698598861694e-02
-2.566968798637390137e-01
-5.825904607772827148e-01
-4.094724729657173157e-02
-8.323659747838973999e-02
3.116581588983535767e-02
-1.915519684553146362e-02
-2.762888073921203613e-01
1.801808178424835205e-01
1.007792875170707703e-01
-1.848107278347015381e-01
-4.528482630848884583e-02
-2.029395848512649536e-01
-2.575188577175140381e-01
3.683982193470001221e-01
9.615939110517501831e-02
5.322782993316650391e-01
6.427098531275987625e-03
1.199742704629898071e-01
3.811582922935485840e-01
2.104676142334938049e-02
-9.474358521401882172e-03
1.172439455986022949e-01
9.101422131061553955e-02
2.079757750034332275e-01
-1.101654395461082458e-01
-1.569574177265167236e-01
1.120982915163040161e-01
1.702559888362884521e-01
-2.039725929498672485e-01
-5.816524103283882141e-02
-3.317421078681945801e-01
-4.340399056673049927e-02
1.482179015874862671e-01
-4.552257061004638672e-01
-1.903878748416900635e-01
-8.987419307231903076e-02
2.048116177320480347e-01
-1.345510631799697876e-01
1.954302489757537842e-01
4.980037212371826172e-01
-7.801089435815811157e-02
2.109785974025726318e-01
4.270368218421936035e-01
4.367024172097444534e-03
-4.760202169418334961e-01
-2.597614228725433350e-01
-2.182924300432205200e-01
-1.196971535682678223e-01
-1.174801662564277649e-01
-1.666162014007568359e-01
1.137821078300476074e-01
-1.359609514474868774e-01
-2.159170657396316528e-01
-2.976723015308380127e-01
-5.657128244638442993e-02
-1.027752384543418884e-01
4.258639812469482422e-01
-2.616626620292663574e-01
2.289206832647323608e-01
1.364191621541976929e-01
-2.845584452152252197e-01
-7.362655550241470337e-02
2.340645045042037964e-01
1.848234087228775024e-01
3.453781008720397949e-01
-1.772142946720123291e-01
-2.507113516330718994e-01
-6.945523619651794434e-01
2.694267332553863525e-01
-4.031655844300985336e-03
4.186915159225463867e-01
-2.069282233715057373e-01
-1.280009597539901733e-01
-3.925161808729171753e-02
2.550078742206096649e-02
3.124315477907657623e-02
-4.933421686291694641e-02
2.438279539346694946e-01
1.365269254893064499e-02
-1.599332876503467560e-02
2.321287244558334351e-01
1.605881154537200928e-01
-1.314303725957870483e-01
4.479173421859741211e-01
-1.013390421867370605e-01
-1.409390270709991455e-01
-5.325939506292343140e-02
-2.152405068045482039e-04
6.075320243835449219e-01
-1.826511621475219727e-01
2.624696791172027588e-01
4.921042621135711670e-01
4.268977046012878418e-01
1.799307912588119507e-01
2.750511467456817627e-01
4.636968672275543213e-01
2.410593628883361816e-01
5.994762852787971497e-02
1.833139955997467041e-01
3.422842025756835938e-01
-2.232821285724639893e-02
2.526709809899330139e-03
2.789719104766845703e-01
1.245610937476158142e-01
5.746635794639587402e-01
3.905882835388183594e-01
1.267629712820053101e-01
3.787416815757751465e-01
-1.088550463318824768e-01
-3.150063455104827881e-01
1.467031091451644897e-01
1.351541131734848022e-01
-9.445215016603469849e-02
7.673183679580688477e-01
5.303893089294433594e-01
8.282367140054702759e-02
1.157215356826782227e+00
2.502275630831718445e-02
8.116301298141479492e-01
3.605440557003021240e-01
6.953429579734802246e-01
2.439417690038681030e-02
2.498116344213485718e-01
2.748852074146270752e-01
7.955650985240936279e-02
6.973324418067932129e-01
3.584018945693969727e-01
6.598063558340072632e-02
4.006965160369873047e-01
2.501655369997024536e-02
5.481678247451782227e-02
6.315017342567443848e-01
-1.779904365539550781e-01
3.065901696681976318e-01
5.819755792617797852e-01
3.213385045528411865e-01
1.322561740875244141e+00
-9.574203193187713623e-02
-1.269688010215759277e-01
2.246790379285812378e-01
-2.479266971349716187e-01
3.373791575431823730e-01
5.239488482475280762e-01
1.608211547136306763e-01
3.163408041000366211e-01
2.930373512208461761e-02
5.604720711708068848e-01
5.467111468315124512e-01
7.827287167310714722e-02
1.732893735170364380e-01
4.103069603443145752e-01
3.908789753913879395e-01
3.084274008870124817e-02
5.651119723916053772e-02
1.028024196624755859e+00
2.967944741249084473e-01
2.706259787082672119e-01
4.875545203685760498e-01
6.838300079107284546e-02
-2.607653141021728516e-01
3.448547050356864929e-02
-2.001102119684219360e-01
-1.725839972496032715e-01
1.043860673904418945e+00
5.507293343544006348e-01
-4.303356632590293884e-02
2.327069640159606934e-02
6.809803098440170288e-02
-4.006900638341903687e-02
6.308564543724060059e-02
-6.192139349877834320e-03
5.686804652214050293e-02
2.909027338027954102e-01
2.695541456341743469e-02
2.144808024168014526e-01
4.871332552284002304e-03
1.972909867763519287e-01
-5.774840340018272400e-02
-4.714232683181762695e-02
2.716548442840576172e-01
2.046639174222946167e-01
5.907365083694458008e-01
-2.185845077037811279e-01
6.032673269510269165e-02
1.604753136634826660e-01
7.317756414413452148e-01
1.529342383146286011e-01
-1.686204522848129272e-01
-7.660085707902908325e-02
6.201502680778503418e-02
2.871080636978149414e-01
-3.601140528917312622e-02
-1.179180108010768890e-02
3.805245459079742432e-01
-4.129729419946670532e-02
2.800281047821044922e-01
7.568684965372085571e-02
1.252308338880538940e-01
1.087187305092811584e-01
1.501934416592121124e-02
-2.393207997083663940e-01
4.814643263816833496e-01
2.791461050510406494e-01
4.369397088885307312e-02
1.034986153244972229e-01
5.523493513464927673e-02
3.449738919734954834e-01
1.052482798695564270e-01
7.913723587989807129e-02
1.634718030691146851e-01
2.187827974557876587e-02
1.577969640493392944e-01
3.491919338703155518e-01
-1.265046447515487671e-01
1.896449327468872070e-01
