-6.455215625464916229e-04 1.412702649831771851e-01 -4.596977308392524719e-02 1.434228499419987202e-03 -1.655555009841918945e+00 -2.340912520885467529e-01 -2.387350201606750488e-01 1.203743293881416321e-01 1.047551184892654419e-01 3.719986677169799805e-01 9.389290213584899902e-02 -2.248635441064834595e-01 1.123726591467857361e-01 -7.594536542892456055e-01 -1.366695463657379150e-01 2.237388491630554199e-01 1.510339826345443726e-01 -2.755459547042846680e-01 2.952629029750823975e-01 -5.273029580712318420e-02 -2.145708203315734863e-01 -2.344218641519546509e-01
-8.664976339787244797e-04 -4.610081762075424194e-02 2.304674312472343445e-02 1.369053381495177746e-03 -3.004857152700424194e-02 1.981157958507537842e-01 2.191989868879318237e-01 6.633601784706115723e-01 5.163608789443969727e-01 -8.595281839370727539e-02 -2.090409956872463226e-02 -1.522911787033081055e-01 1.783857122063636780e-02 -1.410911083221435547e-01 -1.443235129117965698e-01 1.217775464057922363e+00 1.024562358856201172e+00 2.751437723636627197e-01 4.703855216503143311e-01 1.049540191888809204e-01 3.205722868442535400e-01 -6.247100234031677246e-02
1.399096334353089333e-03 -6.642688997089862823e-03 -2.208056896924972534e-01 -7.835739292204380035e-03 7.780683785676956177e-02 -4.165474176406860352e-01 -1.861108094453811646e-01 -2.156940475106239319e-02 -6.290940102189779282e-03 6.271592974662780762e-01 3.196390718221664429e-02 -4.779793694615364075e-02 2.676300704479217529e-02 -3.724032044410705566e-01 -3.562610447406768799e-01 3.320876359939575195e-01 -2.784648723900318146e-02 -1.756651401519775391e-01 1.190397813916206360e-01 -1.162351667881011963e-01 4.204191640019416809e-02 1.616011559963226318e-01
9.050006046891212463e-03 1.740041002631187439e-02 4.657924547791481018e-02 3.703429829329252243e-03 -8.908183127641677856e-02 -1.027292981743812561e-01 2.503327466547489166e-02 1.382113099098205566e-01 6.819821894168853760e-02 5.356262251734733582e-02 1.807547733187675476e-02 1.313192844390869141e-01 -8.874349878169596195e-04 -8.587531745433807373e-02 2.370306402444839478e-01 -1.627731472253799438e-01 9.439916908740997314e-02 1.863654553890228271e-01 1.621274352073669434e-01 -1.091289967298507690e-01 -4.056932777166366577e-02 4.423956945538520813e-02
1.618539681658148766e-04 7.888626307249069214e-02 -7.719273120164871216e-02 5.305369850248098373e-04 -2.112466655671596527e-02 -2.150755375623703003e-01 2.489015161991119385e-01 7.325047161430120468e-03 -4.352162033319473267e-02 1.436648666858673096e-01 -1.123821437358856201e-01 -1.776102930307388306e-02 8.517759852111339569e-03 -7.273641228675842285e-02 -9.094883501529693604e-02 1.117165207862854004e+00 5.167635083198547363e-01 -4.990991353988647461e-01 2.683512680232524872e-02 5.397845059633255005e-02 7.361142337322235107e-02 2.013139985501766205e-02
-5.099149420857429504e-04 6.980955600738525391e-02 -1.019305288791656494e-01 -8.572687511332333088e-05 -4.495825469493865967e-01 -4.356585741043090820e-01 -7.620305567979812622e-02 -7.743983715772628784e-02 -2.180776596069335938e-01 4.435425996780395508e-01 9.679435193538665771e-02 -1.615087240934371948e-01 -3.876440525054931641e-01 -2.336286306381225586e+00 3.806256055831909180e-01 -5.154270678758621216e-02 2.463838607072830200e-01 5.882971882820129395e-01 -4.892030358314514160e-01 -3.278934583067893982e-02 -1.109323129057884216e-01 5.155599489808082581e-02
-1.359902555122971535e-03 2.882049605250358582e-02 1.338256001472473145e-01 9.632254950702190399e-04 9.034193307161331177e-02 -2.026284299790859222e-02 -5.139966960996389389e-03 9.914058446884155273e-02 1.827018558979034424e-01 -9.021646343171596527e-03 -6.318289041519165039e-02 -2.385530248284339905e-02 -1.188370306044816971e-02 -8.029232919216156006e-02 2.537041343748569489e-02 -2.586618065834045410e-01 1.262082252651453018e-02 3.988943397998809814e-01 -1.613066494464874268e-01 1.727984286844730377e-02 6.217531114816665649e-02 -1.021868363022804260e-01
-1.143173407763242722e-02 2.784439325332641602e-01 2.066475898027420044e-01 3.116512671113014221e-02 -2.670617997646331787e-01 1.642700582742691040e-01 -1.211890578269958496e-02 2.667512893676757812e-01 -2.924186289310455322e-01 -7.897556573152542114e-02 1.330238115042448044e-02 6.546550989151000977e-02 1.789590120315551758e-01 -3.576337546110153198e-02 4.351971447467803955e-01 -7.162397503852844238e-01 -4.222381711006164551e-01 1.810485571622848511e-01 -3.394073545932769775e-01 1.210074499249458313e-01 -2.785408198833465576e-01 -4.888780042529106140e-02
2.995116449892520905e-02 -1.442546397447586060e-01 -1.177774816751480103e-01 -2.716785296797752380e-02 -3.683869838714599609e-01 -3.707456588745117188e-02 2.343867868185043335e-01 -4.392517358064651489e-02 -1.752422004938125610e-01 -1.200638711452484131e-01 6.539799273014068604e-02 -1.971285343170166016e-01 2.647563628852367401e-02 5.343803167343139648e-01 1.380959749221801758e-01 -3.678275346755981445e-01 1.215866208076477051e-01 1.538248062133789062e-01 2.212663888931274414e-01 -8.310563117265701294e-02 -2.243347316980361938e-01 2.408628016710281372e-01
2.205850556492805481e-03 4.892694473266601562e+00 2.475050687789916992e+00 7.089572027325630188e-03 -2.908538818359375000e+00 1.559430480003356934e+00 -1.024867534637451172e+00 1.208895921707153320e+00 -2.097150683403015137e-01 -1.990069031715393066e+00 -8.063740730285644531e-01 -9.516236186027526855e-01 -5.156465992331504822e-02 6.156851053237915039e-01 -2.818731069564819336e-01 -1.560885429382324219e+00 -1.098028540611267090e+00 1.557137489318847656e+00 1.215991258621215820e+00 5.949625372886657715e-01 -1.580162882804870605e+00 -1.062548398971557617e+00
-3.261720994487404823e-03 9.143337607383728027e-02 -2.467893064022064209e-01 -2.398081589490175247e-03 9.081783704459667206e-03 1.728555560111999512e-01 9.252915531396865845e-02 1.738383024930953979e-01 -1.274339705705642700e-01 -9.645427018404006958e-02 2.595523931086063385e-02 -9.650303423404693604e-02 -2.232123613357543945e-01 -6.955198645591735840e-01 -3.414341807365417480e-01 -1.223973706364631653e-01 -4.028842747211456299e-01 -2.519247531890869141e-01 -3.174377139657735825e-03 -2.045355439186096191e-01 -1.059868000447750092e-02 -2.145839929580688477e-01
-3.793633732129819691e-05 3.731770068407058716e-02 7.409718632698059082e-02 2.940057078376412392e-03 1.588104516267776489e-01 9.873075783252716064e-02 2.199499607086181641e-01 2.090654522180557251e-01 6.007954105734825134e-02 -1.904138624668121338e-01 -2.651946544647216797e-01 1.392942816019058228e-01 2.449081465601921082e-02 -1.619264334440231323e-01 2.809795439243316650e-01 -8.175910711288452148e-01 4.787549972534179688e-01 -2.716045081615447998e-01 -2.882686555385589600e-01 2.475532516837120056e-02 -6.291869878768920898e-01 1.344656795263290405e-01
-5.152377416379749775e-04 -2.567210420966148376e-02 3.973667025566101074e-01 -1.593894412508234382e-04 -2.420750856399536133e-01 4.168353378772735596e-01 -7.090610861778259277e-01 2.698658108711242676e-01 -2.792460620403289795e-01 -3.145631402730941772e-02 -4.018529951572418213e-01 2.183038182556629181e-02 -2.407125569880008698e-02 2.910513281822204590e-01 5.134456157684326172e-01 1.000391006469726562e+00 5.246145129203796387e-01 -4.174501597881317139e-01 3.470967531204223633e+00 -3.011748380959033966e-02 1.332975775003433228e-01 1.239866390824317932e-01
1.123995170928537846e-03 -4.148011803627014160e-01 6.188238412141799927e-02 5.472982767969369888e-03 -8.217081427574157715e-02 -7.319803833961486816e-01 4.711392223834991455e-01 4.937336966395378113e-02 6.891749054193496704e-02 9.321911931037902832e-01 -2.004483714699745178e-02 -3.992579132318496704e-02 -6.411106884479522705e-02 4.669875800609588623e-01 6.539712548255920410e-01 -4.736423790454864502e-01 5.692887902259826660e-01 -4.784639477729797363e-01 -8.877326846122741699e-01 -3.300387561321258545e-01 -8.709349632263183594e-01 -3.891052007675170898e-01
2.390338486293330789e-04 1.293043345212936401e-01 -2.589708864688873291e-01 2.219652570784091949e-02 1.802858561277389526e-01 -7.907627522945404053e-02 -4.296435415744781494e-02 1.918002218008041382e-01 -1.124081537127494812e-01 7.698632776737213135e-02 8.299396187067031860e-02 1.568396575748920441e-02 1.786921545863151550e-02 -2.048755139112472534e-01 -2.989105582237243652e-01 -7.028738260269165039e-01 -5.301555991172790527e-01 -6.227384880185127258e-02 3.101551830768585205e-01 1.355145126581192017e-01 4.705625399947166443e-02 -5.891183018684387207e-02
2.144459431292489171e-04 -3.442887067794799805e-01 2.977932244539260864e-02 -1.578013785183429718e-02 -1.282826900482177734e+00 4.752210080623626709e-01 1.294189453125000000e+00 -7.534890174865722656e-01 4.405522346496582031e-01 5.058619752526283264e-02 2.106800079345703125e+00 2.164627313613891602e-01 7.226002961397171021e-02 -3.329653143882751465e-01 -1.673260629177093506e-01 -3.853886425495147705e-01 2.244966626167297363e-01 -6.874109506607055664e-01 -3.875892758369445801e-01 5.000253915786743164e-01 5.122190713882446289e-02 3.245183944702148438e+00
-7.486719405278563499e-04 1.414788700640201569e-02 -7.416728883981704712e-02 8.131676586344838142e-04 -4.037135839462280273e-02 -4.498988986015319824e-01 -3.339305892586708069e-02 -2.372097074985504150e-01 -5.247778818011283875e-02 2.466613501310348511e-01 -7.816632837057113647e-02 7.115979492664337158e-02 3.631475614383816719e-03 -1.308186259120702744e-02 -8.506652712821960449e-02 8.219098448753356934e-01 1.564756184816360474e-01 -8.930609226226806641e-01 -5.661663413047790527e-01 -4.809946194291114807e-02 -8.739745616912841797e-02 1.789721399545669556e-01
-5.106725264340639114e-03 -1.345127238892018795e-03 7.854671776294708252e-02 -3.750900505110621452e-03 1.809345036745071411e-01 1.422981079667806625e-02 1.479419469833374023e-01 3.170160651206970215e-01 4.135665297508239746e-01 6.529341936111450195e-01 -7.095113396644592285e-02 -7.420469075441360474e-02 9.472132660448551178e-04 -3.334628641605377197e-01 -4.035574197769165039e-01 -2.361599057912826538e-01 1.528741121292114258e-01 4.942210912704467773e-01 3.054252862930297852e-01 -1.090327724814414978e-01 -4.563620686531066895e-02 2.920339107513427734e-01
1.069734116754261777e-05 -2.246965467929840088e-01 1.166800260543823242e-01 1.708758936729282141e-04 -2.012714296579360962e-01 2.757234573364257812e+00 9.946548938751220703e-01 1.053740501403808594e+00 1.173291325569152832e+00 -2.237763881683349609e+00 2.042744874954223633e+00 4.125858247280120850e-01 1.656294800341129303e-02 2.091885209083557129e-01 -4.476424217224121094e+00 4.664756059646606445e-01 2.601877152919769287e-01 -4.413919746875762939e-01 -8.963878750801086426e-01 -9.030032157897949219e-02 8.503906428813934326e-03 2.571299552917480469e+00
-2.038643322885036469e-02 -3.122183121740818024e-02 1.118440087884664536e-02 -1.911196298897266388e-02 -9.679094702005386353e-02 -6.927421689033508301e-02 -2.223977297544479370e-01 1.189020574092864990e-01 -6.623381972312927246e-01 2.947361469268798828e-01 8.417610079050064087e-03 2.874289453029632568e-02 -3.950912132859230042e-02 -1.729069650173187256e-01 -3.578695654869079590e-01 -8.249507546424865723e-01 -2.415484488010406494e-01 -6.703886389732360840e-01 3.325477242469787598e-01 7.561335712671279907e-02 2.529921829700469971e-01 2.635773122310638428e-01
-1.321931340498849750e-04 -1.661191433668136597e-01 7.511846721172332764e-02 -4.075718298554420471e-02 4.882121458649635315e-02 1.997565776109695435e-01 -2.230472564697265625e-01 7.941992580890655518e-02 -4.660457000136375427e-02 -1.978192776441574097e-01 7.713923696428537369e-03 4.312094300985336304e-02 -3.022225387394428253e-02 2.818384170532226562e-01 1.134025156497955322e-01 1.517684459686279297e-01 9.422186762094497681e-02 1.033498942852020264e-01 -1.074072420597076416e-01 -2.248025266453623772e-03 -1.496744304895401001e-01 -6.693268567323684692e-02
-2.177622402086853981e-03 -1.908640861511230469e-01 -1.165235042572021484e-01 1.408326788805425167e-03 8.456147462129592896e-02 -1.963681876659393311e-01 2.166946977376937866e-01 2.975659668445587158e-01 2.132742702960968018e-01 5.067620053887367249e-02 -1.045308168977499008e-02 -1.793157123029232025e-02 8.047471754252910614e-03 9.126331657171249390e-02 -1.103625372052192688e-01 -2.783783674240112305e-01 -4.605788290500640869e-01 -5.070615410804748535e-01 1.300646066665649414e-01 -4.045323282480239868e-02 1.661998927593231201e-01 1.443762332201004028e-01
-1.300272651860723272e-05 5.725773982703685760e-03 -5.681999027729034424e-02 2.568310592323541641e-04 1.560357511043548584e-01 -9.164195507764816284e-02 -6.562179923057556152e-01 -5.606196522712707520e-01 3.189954757690429688e-01 -8.351287990808486938e-02 -2.638341188430786133e+00 5.664712283760309219e-03 -1.013855412602424622e-01 1.171898603439331055e+00 -2.978582191467285156e+01 -7.971603870391845703e-01 -4.341549873352050781e+00 -2.482252717018127441e-01 4.109942018985748291e-01 2.201132103800773621e-02 -3.654359653592109680e-02 8.246356248855590820e-02
-3.761640051379799843e-03 -1.462333649396896362e-01 -2.806600034236907959e-01 5.258726887404918671e-03 -2.235253155231475830e-02 -3.203580975532531738e-01 -8.293665200471878052e-02 -9.016523510217666626e-02 3.822630643844604492e-01 2.127673923969268799e-01 3.329638391733169556e-02 3.538966178894042969e-02 1.784407645463943481e-01 6.985442042350769043e-01 2.132230997085571289e-01 4.925835132598876953e-01 4.038756191730499268e-01 1.112607344985008240e-01 -2.423194199800491333e-01 1.447801757603883743e-02 1.494788825511932373e-01 -2.506177723407745361e-01
-1.432626449968665838e-04 1.336666196584701538e-01 -6.840168684720993042e-02 2.086021238937973976e-03 1.171095743775367737e-01 -2.012782096862792969e-01 -3.662273883819580078e-01 1.139180511236190796e-01 -1.563839763402938843e-01 1.154974475502967834e-01 3.239228948950767517e-02 -4.299409314990043640e-02 -7.240220904350280762e-03 -1.623887419700622559e-01 -1.541480869054794312e-01 -6.767876744270324707e-01 -1.483143121004104614e-01 6.269895285367965698e-02 -2.777221202850341797e-01 -5.403209105134010315e-02 -3.376791775226593018e-01 -2.050513178110122681e-01
-1.150086708366870880e-02 -1.775884777307510376e-01 1.546254903078079224e-01 -1.018738280981779099e-02 -2.815707400441169739e-02 -2.213648259639739990e-01 -1.153844743967056274e-01 -7.099311053752899170e-02 5.401586368680000305e-02 3.459422886371612549e-01 -8.099154569208621979e-03 2.045102864503860474e-01 -3.535766154527664185e-02 8.846817910671234131e-02 3.994286060333251953e-01 6.248390078544616699e-01 4.751868844032287598e-01 5.542476847767829895e-02 -3.403870165348052979e-01 5.106294900178909302e-02 2.019337713718414307e-01 3.033749759197235107e-01
1.404932700097560883e-04 -1.272061467170715332e-01 7.606019824743270874e-02 -2.269860997330397367e-04 1.989220261573791504e+00 -1.375943899154663086e+00 -1.409551024436950684e+00 1.092280626296997070e+00 1.607156753540039062e+00 2.324542760848999023e+00 -7.804455161094665527e-01 9.122293591499328613e-01 -5.686146393418312073e-02 -3.397841453552246094e+00 -1.936789274215698242e+00 -7.445202350616455078e+00 2.864441275596618652e-01 6.711443901062011719e+00 -1.173361763358116150e-02 -2.929916605353355408e-02 -1.622442454099655151e-01 2.589770257472991943e-01
-5.421301815658807755e-03 -5.734096840023994446e-02 -1.046031340956687927e-01 -1.751985517330467701e-03 -1.685203313827514648e-01 4.424549341201782227e-01 -9.513746947050094604e-02 1.009205877780914307e-01 -9.889528155326843262e-02 -3.021727204322814941e-01 1.282610092312097549e-02 -3.374515846371650696e-02 7.881208509206771851e-02 -1.918278485536575317e-01 4.570815861225128174e-01 -7.337230443954467773e-01 -6.854090690612792969e-01 -1.040870904922485352e+00 -2.302978485822677612e-01 -7.449789345264434814e-02 -1.827276498079299927e-02 2.352194041013717651e-01
-4.754929617047309875e-02 -2.682800590991973877e-01 -3.460873663425445557e-02 -1.857868880033493042e-01 -3.867688477039337158e-01 1.245643422007560730e-01 9.318372011184692383e-01 -2.059389948844909668e-01 -5.483326911926269531e-01 -9.146010875701904297e-02 -9.386933594942092896e-02 -5.045413225889205933e-02 -8.226902782917022705e-02 1.895204782485961914e-01 3.235220313072204590e-01 -2.758732438087463379e-01 -4.961407780647277832e-01 5.577293634414672852e-01 -1.592858433723449707e-01 -1.605620533227920532e-01 2.771942913532257080e-01 1.105109229683876038e-01
-4.318598210811614990e-01 -3.348110437393188477e+00 1.638088375329971313e-01 6.352569907903671265e-02 -5.104559659957885742e-01 -1.039405584335327148e+00 -6.614297628402709961e-02 1.236806139349937439e-01 -2.668860256671905518e-01 1.432643890380859375e+00 1.625815033912658691e+00 2.082988023757934570e-01 8.176640272140502930e-01 6.905287504196166992e-01 1.141795158386230469e+00 -3.072750270366668701e-01 -2.113800644874572754e-01 9.204468131065368652e-01 -7.797344326972961426e-01 -1.373171061277389526e-01 4.410004019737243652e-01 -1.619359701871871948e-01
6.454572081565856934e-03 -3.600476980209350586e-01 3.759371042251586914e-01 -2.545980215072631836e-01 -7.224138081073760986e-02 -5.766713619232177734e-01 -2.307070046663284302e-01 -3.064042925834655762e-01 1.523087453097105026e-02 4.098556637763977051e-01 1.160791218280792236e-01 5.353396013379096985e-02 -7.768993824720382690e-02 -8.284473419189453125e-02 1.344159841537475586e-01 5.004912614822387695e-02 3.335624337196350098e-01 -2.530598640441894531e-01 -1.223163604736328125e-01 -3.272763639688491821e-02 9.427398443222045898e-02 3.323534131050109863e-01
-2.554231695830821991e-02 -1.514191180467605591e-01 -1.829723417758941650e-01 -6.190342828631401062e-02 -4.313423112034797668e-02 -8.515673130750656128e-02 -2.373067289590835571e-01 -1.878568679094314575e-01 6.801160424947738647e-02 1.660168319940567017e-01 4.413605108857154846e-02 -1.170138269662857056e-01 -5.926155671477317810e-02 4.728747010231018066e-01 5.655415058135986328e-01 -4.199739098548889160e-01 -6.115181371569633484e-02 -2.554485201835632324e-01 -7.926303148269653320e-01 8.237941563129425049e-02 -4.011641442775726318e-01 -1.534761190414428711e-01
1.369363511912524700e-03 9.582870602607727051e-01 -1.820312619209289551e+00 -9.812020696699619293e-03 9.549300074577331543e-01 -3.417528390884399414e+00 1.207565307617187500e+00 2.359066754579544067e-01 1.026050806045532227e+00 3.713087558746337891e+00 -2.154588222503662109e+00 -1.498770713806152344e-01 4.431607946753501892e-02 4.657790958881378174e-01 1.029284521937370300e-01 2.959806621074676514e-01 -6.723391413688659668e-01 -6.739068031311035156e-01 -8.643850684165954590e-01 -1.298123359680175781e+00 7.726299166679382324e-01 -4.128786563873291016e+00
-1.706710271537303925e-02 1.997344493865966797e-01 4.313204810023307800e-02 -1.302983053028583527e-02 2.602686285972595215e-01 1.903227865695953369e-01 -2.547132372856140137e-01 7.220137864351272583e-02 5.315486788749694824e-01 -3.418332040309906006e-01 -1.157386600971221924e-01 -4.700466990470886230e-02 3.762476518750190735e-02 -4.259250164031982422e-01 1.964810192584991455e-01 -1.591189354658126831e-01 -1.017497554421424866e-01 -1.453308761119842529e-01 -1.577436327934265137e-01 1.582798063755035400e-01 1.734066605567932129e-01 -8.775755017995834351e-02
-5.187726856092922390e-05 7.248296737670898438e-01 -1.031659841537475586e+00 -5.025049205869436264e-03 4.735587239265441895e-01 -1.369438648223876953e+00 6.459082365036010742e-01 8.245789408683776855e-01 2.263243794441223145e-01 1.556507468223571777e+00 -7.189217805862426758e-01 1.300330907106399536e-01 -1.948713324964046478e-02 2.912504673004150391e-01 1.713871121406555176e+00 -1.114229634404182434e-01 -6.347948312759399414e-01 -6.997688859701156616e-02 -5.553101301193237305e-01 -8.033018112182617188e-01 -1.179135888814926147e-01 -7.584627866744995117e-01
-3.336650552228093147e-04 2.200241833925247192e-01 -6.533706560730934143e-03 1.402985770255327225e-03 5.134875327348709106e-02 3.702269792556762695e-01 -3.410935997962951660e-01 -2.805725932121276855e-01 -6.445437073707580566e-01 -5.547015070915222168e-01 3.027399815618991852e-02 -8.209027349948883057e-02 1.362231001257896423e-02 -1.735935211181640625e-01 8.751776069402694702e-02 -4.498975276947021484e-01 -6.744750738143920898e-01 2.220786809921264648e-01 8.334547877311706543e-01 1.819882094860076904e-01 1.810765862464904785e-01 2.762596607208251953e-01
-5.996026564389467239e-03 2.065743803977966309e-01 -1.144300177693367004e-01 -9.099557995796203613e-03 2.562488801777362823e-02 -8.524075746536254883e-01 2.373345196247100830e-01 1.616349965333938599e-01 1.177307814359664917e-01 1.172534108161926270e+00 1.562631502747535706e-02 1.324433237314224243e-01 -1.648929417133331299e-01 -1.647165298461914062e+00 -8.662880212068557739e-02 8.464370667934417725e-02 3.788234889507293701e-01 4.304586648941040039e-01 -2.321398556232452393e-01 -3.303410112857818604e-02 -2.105565965175628662e-01 -2.727986499667167664e-02
-2.968393964692950249e-03 -1.295994520187377930e-01 -4.093863815069198608e-02 1.541241817176342010e-02 8.583201095461845398e-03 -1.092380508780479431e-01 -1.699672788381576538e-01 -7.649528235197067261e-02 3.797211498022079468e-02 -1.273749321699142456e-01 5.265637766569852829e-03 1.090577021241188049e-01 1.367974430322647095e-01 -9.561966061592102051e-01 5.926095880568027496e-03 -3.547629341483116150e-02 -9.655094146728515625e-02 3.325404226779937744e-01 2.857171297073364258e-01 -3.161514550447463989e-02 2.993451356887817383e-01 -9.673060476779937744e-02
9.823592845350503922e-04 6.352924555540084839e-02 -2.133530750870704651e-02 4.539641086012125015e-04 2.813296951353549957e-02 -3.235804662108421326e-02 1.432568728923797607e-01 2.746025025844573975e-01 5.746763199567794800e-02 1.893115490674972534e-01 2.989939227700233459e-02 2.261972613632678986e-02 4.505543038249015808e-03 -3.915364667773246765e-02 9.635164402425289154e-03 8.240193873643875122e-02 5.562263131141662598e-01 1.494494080543518066e-01 2.245088815689086914e-01 8.771359175443649292e-02 -1.297515481710433960e-01 -4.265685752034187317e-02
-4.492861917242407799e-04 1.283789575099945068e-01 2.723308280110359192e-02 -3.517144650686532259e-04 6.972356885671615601e-02 -7.214668989181518555e-01 -1.612951606512069702e-02 -6.927398499101400375e-03 -2.208238467574119568e-03 8.451327085494995117e-01 3.086037188768386841e-02 1.651285588741302490e-02 1.165206660516560078e-03 -1.309555917978286743e-01 3.436760306358337402e-01 -1.400058269500732422e-01 3.683663010597229004e-01 -5.930540561676025391e-01 9.777271188795566559e-03 1.661417633295059204e-02 1.184167563915252686e-01 4.663404822349548340e-02
2.351728733628988266e-03 -9.032172709703445435e-02 -1.704844981431961060e-01 4.350970033556222916e-03 -2.539767026901245117e-01 1.391548663377761841e-01 2.944742441177368164e-01 -3.790684416890144348e-02 -3.986611962318420410e-01 -9.945496916770935059e-02 1.622783988714218140e-01 -2.064726203680038452e-01 -1.922527886927127838e-02 -5.311800166964530945e-02 -4.745493233203887939e-01 3.454861696809530258e-03 1.963962614536285400e-01 -7.697042822837829590e-01 6.271902918815612793e-01 1.349104046821594238e-01 2.029428035020828247e-01 9.348824620246887207e-02
-4.416305746417492628e-04 -2.175000123679637909e-02 -3.764997422695159912e-02 -3.834533854387700558e-04 1.764344982802867889e-02 -3.841154873371124268e-01 -5.281651765108108521e-02 1.635458506643772125e-02 1.020127385854721069e-01 3.434419035911560059e-01 -5.217016488313674927e-02 -2.174123376607894897e-02 8.034713566303253174e-03 4.696493446826934814e-01 -8.061157166957855225e-02 -5.244458913803100586e-01 -3.556064963340759277e-01 2.600641548633575439e-01 -1.205370500683784485e-01 -4.277316480875015259e-02 1.137100160121917725e-01 -2.052675746381282806e-02
-9.628424304537475109e-04 -3.333841264247894287e-01 5.602091923356056213e-02 -3.050600411370396614e-03 9.282889217138290405e-02 4.709492921829223633e-01 1.387871056795120239e-01 2.261556535959243774e-01 1.904826611280441284e-01 -4.438124597072601318e-01 -5.078718811273574829e-02 1.024900376796722412e-02 3.783335909247398376e-02 -1.886201463639736176e-02 1.019213557243347168e+00 1.069670677185058594e+00 4.052322506904602051e-01 -3.386381268501281738e-01 4.704954028129577637e-01 -2.885281443595886230e-01 2.139697819948196411e-01 -4.102963209152221680e-01
5.211411553318612278e-05 5.951325297355651855e-01 -2.319632321596145630e-01 7.293196860700845718e-03 -1.368437986820936203e-02 -1.512184739112854004e-01 -2.176134735345840454e-01 -5.690500512719154358e-02 2.777360081672668457e-01 2.238966226577758789e-01 -6.948471069335937500e-02 6.458444893360137939e-02 3.347550705075263977e-02 -3.710184991359710693e-01 6.502557992935180664e-01 3.320870399475097656e-01 6.279422044754028320e-01 4.772777110338211060e-02 1.197767734527587891e+00 -2.988185584545135498e-01 -2.979782521724700928e-01 -2.351587712764739990e-01
-6.251195445656776428e-04 1.461148262023925781e+00 -2.035354375839233398e+00 -1.537798717617988586e-02 8.261768221855163574e-01 -3.065380752086639404e-01 2.165652811527252197e-02 -3.840934038162231445e-01 -2.651045918464660645e-01 3.692284226417541504e-01 -4.623375236988067627e-01 -3.755198419094085693e-02 6.427422910928726196e-02 -1.344938516616821289e+00 3.849142193794250488e-01 7.408976554870605469e-02 8.198665380477905273e-01 1.911054551601409912e-01 -1.239505484700202942e-01 -6.283854842185974121e-01 -1.877434492111206055e+00 1.125632882118225098e+00
1.538425916805863380e-03 -3.260772526264190674e-01 -1.885240674018859863e-01 8.080427651293575764e-04 -9.761296212673187256e-03 6.665123999118804932e-02 4.142740666866302490e-01 3.604042828083038330e-01 1.645081043243408203e-01 -9.242506325244903564e-02 5.724217370152473450e-02 -5.221844837069511414e-02 1.590960659086704254e-02 -1.040732022374868393e-02 -3.349848687648773193e-01 -4.957512021064758301e-01 -1.116432666778564453e+00 -1.898570684716105461e-03 -2.427586615085601807e-01 -1.460842043161392212e-01 1.837490946054458618e-01 5.053230747580528259e-02
-3.592301607131958008e-01 -4.358849525451660156e-01 8.186290264129638672e-01 3.772579431533813477e-01 1.521082973480224609e+01 4.238489627838134766e+00 -1.678253889083862305e+00 -2.467328786849975586e+00 1.680368423461914062e+00 -4.237286567687988281e+00 2.079438269138336182e-01 -2.323355674743652344e+00 -3.192434012889862061e-01 6.899018883705139160e-01 -2.002092361450195312e+00 -2.356574535369873047e+00 2.198256492614746094e+00 -1.915632843971252441e+00 1.442075848579406738e+00 5.375852584838867188e-01 7.134646177291870117e-01 1.517260313034057617e+00
-1.840743352659046650e-03 -1.993153989315032959e-01 -1.600976288318634033e-01 -5.042473785579204559e-03 7.416798919439315796e-02 8.354336023330688477e-02 -1.109198257327079773e-01 -1.777932196855545044e-01 -6.619292497634887695e-02 -1.580570489168167114e-01 1.841317862272262573e-01 -9.024298191070556641e-02 -2.500240877270698547e-02 -1.080576851963996887e-01 -4.215915873646736145e-02 -8.230362087488174438e-02 9.963586926460266113e-02 -6.059430912137031555e-02 -7.778382301330566406e-02 -2.770237624645233154e-01 -1.308693438768386841e-01 6.857217103242874146e-02
4.429002292454242706e-03 1.232797726988792419e-01 3.936815857887268066e-01 1.126634888350963593e-02 2.775093019008636475e-01 -2.319178730249404907e-01 3.310762345790863037e-02 7.260302454233169556e-02 3.888680785894393921e-02 1.415129899978637695e-01 8.918542414903640747e-03 7.904265820980072021e-02 1.619341038167476654e-02 6.623385101556777954e-02 -9.399893879890441895e-02 9.361913055181503296e-02 7.627230137586593628e-02 6.705810129642486572e-02 3.450230360031127930e-01 2.856657505035400391e-01 -1.710870563983917236e-01 5.409266352653503418e-01
-2.213038736954331398e-03 -7.512618899345397949e-01 -8.240016698837280273e-01 -4.417926538735628128e-03 -6.259748339653015137e-01 6.189040541648864746e-01 -1.648486256599426270e+00 -5.553758144378662109e-01 6.919637322425842285e-01 -5.481413602828979492e-01 2.607970833778381348e-01 3.781641125679016113e-01 1.205297932028770447e-01 -1.723763942718505859e+00 1.747813344001770020e+00 7.424816489219665527e-01 1.386810302734375000e+00 -5.293988436460494995e-02 2.444352388381958008e+00 -1.124228954315185547e+00 -1.040642037987709045e-01 -1.673740148544311523e-01
-4.348713904619216919e-02 -1.218472123146057129e-01 3.866838663816452026e-02 -5.724866874516010284e-03 -2.747227549552917480e-01 3.473035693168640137e-01 5.570359155535697937e-02 2.950601279735565186e-01 1.030013412237167358e-01 -1.508764475584030151e-01 -9.264158084988594055e-03 7.133568823337554932e-02 5.778968334197998047e-02 3.604158759117126465e-01 -1.574042737483978271e-01 4.322355687618255615e-01 1.315836096182465553e-03 -2.446760833263397217e-01 -6.908827275037765503e-02 -2.091851532459259033e-01 -4.047748073935508728e-02 -2.944845557212829590e-01
-9.532416239380836487e-03 2.846722364425659180e+00 1.933317184448242188e+00 -1.392101943492889404e-01 1.669905781745910645e+00 -3.902414321899414062e+00 -1.006194591522216797e+00 7.181063890457153320e-01 -1.074747323989868164e+00 4.368424415588378906e+00 7.688441872596740723e-01 -1.926141381263732910e-01 2.874075472354888916e-01 -2.965247631072998047e+00 1.136386632919311523e+00 9.563874453306198120e-02 1.448406457901000977e+00 2.465290874242782593e-01 2.381677627563476562e+00 9.489619135856628418e-01 4.135288000106811523e-01 2.064589977264404297e+00
-3.551961854100227356e-02 6.484837830066680908e-02 4.583746194839477539e-02 -2.433813549578189850e-02 6.777720153331756592e-02 -6.003117561340332031e-01 2.658939920365810394e-02 5.471798777580261230e-02 -4.397041723132133484e-02 4.489214718341827393e-01 -1.065440699458122253e-01 1.003933772444725037e-01 2.506596595048904419e-02 1.294198352843523026e-02 1.320981327444314957e-02 -2.538273334503173828e-01 -3.326850235462188721e-01 2.569134831428527832e-01 9.497062116861343384e-02 -8.317565172910690308e-02 2.277088314294815063e-01 -1.167310401797294617e-02
-1.400350709445774555e-03 5.081821680068969727e-01 -9.917945265769958496e-01 -1.203984860330820084e-02 -1.804715543985366821e-01 4.331785812973976135e-02 -9.581539779901504517e-02 -2.836063504219055176e-01 3.265491724014282227e-01 5.651995912194252014e-02 2.397382557392120361e-01 -5.566387772560119629e-01 2.514916285872459412e-02 -4.187512770295143127e-02 -6.650624871253967285e-01 -5.336665362119674683e-02 -1.570271700620651245e-01 -6.779770255088806152e-01 3.201147913932800293e-02 -8.733596205711364746e-01 -1.717121005058288574e+00 6.075963377952575684e-01
-6.469070911407470703e-03 2.022511214017868042e-01 -7.494531273841857910e-01 -1.054445281624794006e-02 -7.516688853502273560e-02 5.698143839836120605e-01 -1.663640886545181274e-01 2.131130546331405640e-01 1.691776067018508911e-01 -3.029653131961822510e-01 1.279236674308776855e-01 -1.503704339265823364e-01 2.917862683534622192e-02 -9.715168178081512451e-02 1.068469047546386719e+00 -2.191952168941497803e-01 -3.233948647975921631e-01 4.193904697895050049e-01 -5.436649918556213379e-01 -6.240143775939941406e-01 -3.910427093505859375e-01 -1.161285042762756348e+00
1.446971436962485313e-03 8.366647958755493164e-01 -3.106543794274330139e-02 8.630248485133051872e-04 -3.045209646224975586e-01 8.287009000778198242e-01 -6.115539371967315674e-02 -5.121508240699768066e-01 8.059242367744445801e-01 -7.236599922180175781e-01 -3.850143849849700928e-01 -3.703055679798126221e-01 3.625487163662910461e-02 -3.546408712863922119e-01 1.070932626724243164e+00 1.032003641128540039e+00 4.038997292518615723e-01 -6.676056385040283203e-01 -6.121630668640136719e-01 1.605894118547439575e-01 -8.985914587974548340e-01 8.753717541694641113e-01
-2.454605419188737869e-04 -5.576905608177185059e-01 -1.993920207023620605e-01 -1.402578316628932953e-03 -1.803211867809295654e-01 -9.081413745880126953e-01 -2.514646053314208984e-01 -1.424653381109237671e-01 -1.013490334153175354e-01 7.626615762710571289e-01 -2.775649130344390869e-01 1.236078441143035889e-01 1.917490176856517792e-02 -4.361139535903930664e-01 2.012812137603759766e+00 9.407147020101547241e-02 4.205632507801055908e-01 1.041480660438537598e+00 -9.878709912300109863e-01 1.507059391587972641e-02 1.555230766534805298e-01 -3.570510149002075195e-01
-4.742668941617012024e-03 -2.240930125117301941e-02 9.012874960899353027e-02 8.724278304725885391e-04 3.773131407797336578e-03 -3.368650674819946289e-01 8.733668923377990723e-02 3.172173202037811279e-01 1.460763216018676758e-01 3.247566223144531250e-01 -2.382197603583335876e-02 1.235572546720504761e-01 1.728859357535839081e-02 -4.634144902229309082e-02 4.836855828762054443e-02 3.689883649349212646e-01 5.648941397666931152e-01 3.763979077339172363e-01 -2.726708650588989258e-01 2.712866663932800293e-02 -3.608592599630355835e-02 -2.425100803375244141e-01
-5.899500683881342411e-04 -1.138175874948501587e-01 -2.040712386369705200e-01 8.631413220427930355e-04 1.020935475826263428e-01 -4.863290488719940186e-01 -4.293297827243804932e-01 -3.579156100749969482e-01 -1.718547493219375610e-01 2.883785963058471680e-01 6.527913361787796021e-02 7.238323241472244263e-02 1.723946072161197662e-02 2.976371943950653076e-01 -1.149976134300231934e+00 -5.261469483375549316e-01 -2.688142061233520508e-01 -1.161949560046195984e-01 1.065712809562683105e+00 -7.708945870399475098e-02 5.143370032310485840e-01 -9.252302348613739014e-02
5.759633131674490869e-05 -4.285424947738647461e-02 3.974685966968536377e-01 -5.391790764406323433e-04 1.261437311768531799e-02 -1.090005636215209961e+00 -4.569538235664367676e-01 -6.057580113410949707e-01 -1.306777745485305786e-01 9.718575477600097656e-01 6.007406488060951233e-02 2.431889437139034271e-02 -6.161145400255918503e-03 3.423960879445075989e-03 2.543284595012664795e-01 7.752401232719421387e-01 -3.739029765129089355e-01 2.304291278123855591e-01 -2.308168262243270874e-01 2.565475925803184509e-02 -1.131304129958152771e-01 2.495249733328819275e-02
-1.305717858485877514e-03 7.492332905530929565e-02 -1.000057086348533630e-01 -2.670031099114567041e-04 -5.995571613311767578e-02 -2.235744446516036987e-01 -9.575056284666061401e-02 -1.868510693311691284e-01 -4.194341972470283508e-02 1.265888214111328125e-01 9.849206358194351196e-02 1.638927310705184937e-01 9.409552812576293945e-02 -4.057678859680891037e-03 -3.347428441047668457e-01 2.499822825193405151e-01 2.062162458896636963e-01 1.726194769144058228e-01 4.646049439907073975e-01 -3.882014378905296326e-02 -1.441515423357486725e-02 -1.818255484104156494e-01
-2.670534304343163967e-04 2.143827438354492188e+00 5.821228027343750000e-01 -2.363503444939851761e-03 8.169008493423461914e-01 -3.281316518783569336e+00 -1.123380303382873535e+00 -1.183357000350952148e+00 -2.479948550462722778e-01 3.769224166870117188e+00 -1.814838767051696777e+00 -8.669429272413253784e-02 4.512700438499450684e-02 -1.396024703979492188e+00 2.434636116027832031e+00 5.915137529373168945e-01 1.767997741699218750e+00 3.966996073722839355e-01 1.615100860595703125e+00 9.371922016143798828e-01 -9.947359561920166016e-01 -6.457239985466003418e-01
-1.253870432265102863e-03 2.627511918544769287e-01 1.123761981725692749e-01 7.639281102456152439e-04 3.062814474105834961e-02 -1.572265028953552246e-01 -7.863649725914001465e-02 5.421384051442146301e-02 2.014803141355514526e-02 7.508916407823562622e-02 5.558818578720092773e-02 -2.640625089406967163e-02 2.179424278438091278e-02 -2.387227676808834076e-02 9.535460472106933594e-01 3.939450543839484453e-04 -8.976387325674295425e-04 -3.281345367431640625e-01 -1.749570667743682861e-01 3.082439862191677094e-02 7.749037467874586582e-04 3.176007792353630066e-02
3.738319792319089174e-04 -7.245492935180664062e-01 -1.369761582463979721e-02 -2.759662689641118050e-03 -3.500092029571533203e-01 1.491528898477554321e-01 2.847580015659332275e-01 3.034120500087738037e-01 -4.588891267776489258e-01 -8.233724534511566162e-02 -1.109678223729133606e-01 3.440526872873306274e-02 -3.922380134463310242e-02 -2.453072667121887207e-01 8.697495460510253906e-01 -3.019105672836303711e+00 6.709043979644775391e+00 -4.586479663848876953e+00 -1.741413474082946777e+00 -1.510998159646987915e-01 -7.546824216842651367e-02 1.417670249938964844e-01
1.261919271200895309e-03 4.416013062000274658e-01 -2.449601143598556519e-01 -3.493376309052109718e-03 -6.471974253654479980e-01 7.427800893783569336e-01 -2.094754390418529510e-02 2.079767175018787384e-02 -2.718563377857208252e-01 -8.816516995429992676e-01 1.662373840808868408e-01 3.894347697496414185e-02 -7.020371407270431519e-02 -5.819041132926940918e-01 -5.169945359230041504e-01 3.432532548904418945e-01 9.978308528661727905e-02 5.472547188401222229e-02 5.996395945549011230e-01 -2.060193419456481934e-01 -1.861274838447570801e-01 3.830544054508209229e-01
-1.363195478916168213e-03 -5.577108636498451233e-02 -4.450909793376922607e-02 3.164482041029259562e-05 6.481912732124328613e-02 -1.752876788377761841e-01 6.646503806114196777e-01 6.944157481193542480e-01 6.320295333862304688e-01 3.112697303295135498e-01 -2.506773546338081360e-02 3.065635263919830322e-02 2.272270619869232178e-03 1.529958681203424931e-03 9.589706361293792725e-02 8.199953436851501465e-01 1.038862824440002441e+00 3.921009898185729980e-01 -9.904847294092178345e-02 7.287468016147613525e-02 -1.540613733232021332e-02 -5.217336490750312805e-02
2.548290230333805084e-02 9.230098128318786621e-02 9.216062724590301514e-03 -1.430238969624042511e-02 -2.509594261646270752e-01 1.299370378255844116e-01 1.218782514333724976e-01 -1.460418105125427246e-01 -1.085889339447021484e-01 -2.281746119260787964e-01 4.809049889445304871e-02 1.006087288260459900e-02 3.551250323653221130e-02 4.236463904380798340e-01 -6.304039806127548218e-02 -4.704252779483795166e-01 -9.584503173828125000e-01 1.186366081237792969e-01 9.681625664234161377e-02 2.349762246012687683e-03 -4.576590955257415771e-01 -6.713669002056121826e-02
-6.461575627326965332e-03 -1.121616587042808533e-01 6.504976004362106323e-02 -1.683573797345161438e-02 2.334259822964668274e-02 3.350765407085418701e-01 1.380975395441055298e-01 9.940803796052932739e-02 -5.589075759053230286e-02 -4.218341410160064697e-01 -1.098243817687034607e-01 -1.169002577662467957e-01 -3.075682930648326874e-02 7.365042567253112793e-01 3.809267580509185791e-01 3.223099112510681152e-01 1.281741354614496231e-02 -7.827575504779815674e-02 -4.899757504463195801e-01 6.884880363941192627e-02 1.591599881649017334e-01 -6.466323137283325195e-02
3.201072831870988011e-05 -7.700827717781066895e-02 -6.840278208255767822e-02 -1.879841729532927275e-04 2.766078338027000427e-02 9.629955887794494629e-02 -5.398626625537872314e-02 6.054729223251342773e-02 2.363586053252220154e-02 -3.392866551876068115e-01 8.448950946331024170e-03 2.604061737656593323e-02 -1.609935425221920013e-03 5.712878331542015076e-02 -7.959759980440139771e-02 2.207271195948123932e-02 2.768301665782928467e-01 2.319300025701522827e-01 -4.644395038485527039e-02 -1.221175193786621094e-01 -8.004677295684814453e-02 -4.683542996644973755e-02
5.823704996146261692e-04 -5.782552361488342285e-01 5.371561646461486816e-02 -9.936444694176316261e-04 4.171885251998901367e-01 -1.434468477964401245e-01 5.210270285606384277e-01 -3.061541020870208740e-01 1.843972504138946533e-02 4.143719673156738281e-01 1.318602412939071655e-01 5.727284401655197144e-02 -2.252845093607902527e-03 -5.501540899276733398e-01 1.126615628600120544e-01 -3.451898694038391113e-01 2.656352519989013672e-01 4.727037549018859863e-01 3.250058591365814209e-01 -3.301659226417541504e-02 1.713301688432693481e-01 -1.353004365228116512e-03
1.061069662682712078e-03 7.842443883419036865e-02 2.041788026690483093e-02 -1.042047399096190929e-03 -6.369787454605102539e-02 -8.324910700321197510e-02 5.037242546677589417e-02 2.548593655228614807e-02 -1.297962963581085205e-01 4.367011785507202148e-02 -3.305729478597640991e-02 -5.276470445096492767e-03 1.785268657840788364e-03 1.748691312968730927e-02 1.057156473398208618e-01 -3.688744008541107178e-01 -7.089675068855285645e-01 -9.507657028734683990e-03 -1.789353936910629272e-01 1.616962067782878876e-02 -9.588753432035446167e-02 5.665750429034233093e-02
3.361786156892776489e-02 5.305242165923118591e-02 -2.284388095140457153e-01 -1.403927709907293320e-02 -6.480356305837631226e-02 1.836964637041091919e-01 1.167839467525482178e-01 8.270771801471710205e-02 1.355393081903457642e-01 -3.929580152034759521e-01 4.919840022921562195e-02 -1.959234476089477539e-02 -7.261744141578674316e-02 1.049585789442062378e-01 -2.473367936909198761e-02 1.405515819787979126e-01 -6.311275362968444824e-01 -2.889626324176788330e-01 1.612624824047088623e-01 -1.184642016887664795e-01 -3.585315346717834473e-01 6.370393186807632446e-02
1.384340506047010422e-02 4.665739089250564575e-02 -1.717923283576965332e-01 3.296156600117683411e-02 2.839851081371307373e-01 -1.926805227994918823e-01 -2.083314955234527588e-01 -1.279394179582595825e-01 -6.288063712418079376e-03 2.776737213134765625e-01 -1.425628811120986938e-01 1.237650439143180847e-01 1.749484613537788391e-02 -3.432157263159751892e-02 2.813006341457366943e-01 -6.476872414350509644e-02 -1.291597783565521240e-01 6.053289026021957397e-02 5.099450051784515381e-02 -7.783862203359603882e-02 -1.691394746303558350e-01 -3.322376906871795654e-01
-4.055857658386230469e-03 -9.744165837764739990e-02 3.604238629341125488e-01 -6.508147343993186951e-04 -3.927685320377349854e-02 2.500004172325134277e-01 1.494154483079910278e-01 -5.582610145211219788e-02 -1.939518563449382782e-02 -5.563949942588806152e-01 3.344019055366516113e-01 5.818373560905456543e-01 -3.716239705681800842e-02 1.245889812707901001e-01 3.118399381637573242e-01 -6.914410591125488281e-01 2.072713822126388550e-01 -3.961439728736877441e-01 -3.209230601787567139e-01 6.010571718215942383e-01 -3.798159062862396240e-01 1.326727271080017090e-01
2.874639350920915604e-03 -2.236680686473846436e-01 -1.406401097774505615e-01 -1.562324631959199905e-02 4.346532374620437622e-02 -2.093284158036112785e-03 2.488305568695068359e-01 -3.395122885704040527e-01 8.320250511169433594e-01 1.717206239700317383e-01 -6.781373918056488037e-02 -1.298211961984634399e-01 -9.741163998842239380e-02 3.673505410552024841e-02 -7.349588721990585327e-02 -6.648121476173400879e-01 3.767476379871368408e-01 -1.699146926403045654e-01 2.139844745397567749e-01 -1.064163371920585632e-01 -1.946316361427307129e-01 -1.086963862180709839e-01
2.602288441266864538e-04 -4.787504673004150391e-01 3.317688032984733582e-02 -9.489897638559341431e-04 -9.130268543958663940e-02 -5.012003332376480103e-02 -2.292195409536361694e-01 -3.703588619828224182e-02 2.007065266370773315e-01 -9.111593663692474365e-02 4.702230170369148254e-02 -6.633041054010391235e-02 -1.996002532541751862e-02 6.015427783131599426e-02 -2.412553131580352783e-01 3.329060673713684082e-01 -1.071821898221969604e-01 -1.068716496229171753e-01 -3.373732566833496094e-01 4.115190729498863220e-02 8.090005517005920410e-01 -1.554847657680511475e-01
8.949921466410160065e-04 -1.215997710824012756e-01 2.012818902730941772e-01 -6.698398501612246037e-04 -4.020431544631719589e-03 4.659273922443389893e-01 4.588906094431877136e-02 -2.522492706775665283e-01 6.753399223089218140e-02 -4.763410687446594238e-01 -2.016256749629974365e-02 -4.585377499461174011e-02 -1.229571411386132240e-03 1.022855192422866821e-01 2.763588130474090576e-01 6.554118394851684570e-01 5.788212418556213379e-01 1.664002239704132080e-01 -4.025060832500457764e-01 1.981248259544372559e-01 -9.010112285614013672e-02 7.706047594547271729e-02
-1.733625540509819984e-03 7.705265283584594727e-01 -4.380278289318084717e-01 -4.060561209917068481e-02 1.331406235694885254e-01 -1.487676352262496948e-01 5.473155155777931213e-02 3.556876182556152344e-01 -7.349126785993576050e-02 3.209536671638488770e-01 -5.093714222311973572e-02 -1.034848541021347046e-01 6.668706983327865601e-02 -3.261319696903228760e-01 -4.742764830589294434e-01 3.533227145671844482e-01 7.121795415878295898e-02 4.377980530261993408e-01 7.024466395378112793e-01 1.412310302257537842e-01 5.291102528572082520e-01 -1.335010528564453125e-01
2.509765559807419777e-03 1.693970710039138794e-01 1.654053628444671631e-01 -1.294404920190572739e-02 3.845394030213356018e-02 1.682304590940475464e-01 -1.358021050691604614e-01 -1.759971529245376587e-01 -2.525870129466056824e-02 -9.738539159297943115e-02 2.859704568982124329e-02 2.660262398421764374e-03 3.159139677882194519e-02 2.633140422403812408e-02 5.505232140421867371e-02 -2.495997101068496704e-01 -1.550080440938472748e-02 -1.011242866516113281e-01 -5.306939780712127686e-02 3.346638381481170654e-01 -8.712758123874664307e-02 -5.007572099566459656e-02
1.194377546198666096e-03 -1.679653674364089966e-01 -7.545505464076995850e-02 -6.077995523810386658e-03 1.101493909955024719e-01 -3.118624389171600342e-01 2.839424312114715576e-01 4.766420423984527588e-01 5.725289508700370789e-02 1.013093590736389160e+00 9.340613335371017456e-02 4.221256822347640991e-02 -5.997847765684127808e-02 -4.072490707039833069e-02 -2.049460411071777344e-01 -4.333269968628883362e-02 6.025139614939689636e-02 -4.959698617458343506e-01 4.568762481212615967e-01 -2.896629571914672852e-01 -5.951520800590515137e-02 -1.993416100740432739e-01
2.227478893473744392e-03 2.167066559195518494e-03 -5.583886802196502686e-02 -1.279802178032696247e-03 -3.982586041092872620e-02 -3.327501714229583740e-01 -1.074961051344871521e-01 -1.967554353177547455e-02 -2.095089256763458252e-01 3.065890669822692871e-01 1.617193073034286499e-01 -4.294992610812187195e-02 -1.990202441811561584e-02 1.229909285902976990e-01 -5.389246940612792969e-01 -3.096203505992889404e-02 -7.794904708862304688e-02 -6.450163573026657104e-02 2.765536308288574219e-01 -3.908629994839429855e-03 1.069643273949623108e-01 -1.272601038217544556e-01
4.278123006224632263e-02 1.887495629489421844e-02 -1.759447604417800903e-01 1.396902836859226227e-02 -1.243018954992294312e-01 3.795600235462188721e-01 3.915778994560241699e-01 1.669993698596954346e-01 1.981176882982254028e-01 -1.790637150406837463e-02 1.658322848379611969e-02 1.317014079540967941e-02 -1.457584556192159653e-02 -4.405150562524795532e-02 4.877984523773193359e-01 1.350191980600357056e-01 3.119370937347412109e-01 1.152546890079975128e-02 -1.891813874244689941e-01 -1.603852510452270508e-01 1.064135059714317322e-01 -3.404670059680938721e-01
5.394304753281176090e-04 2.163418084383010864e-01 -9.841315150260925293e-01 -9.068919345736503601e-03 7.210604548454284668e-01 -8.855511546134948730e-01 8.457585573196411133e-01 8.814921975135803223e-01 3.890188038349151611e-01 1.483076810836791992e+00 -1.656519472599029541e-01 -1.339959502220153809e-01 2.488826029002666473e-02 -5.468801856040954590e-01 -6.647150218486785889e-02 5.283043980598449707e-01 1.600124686956405640e-01 3.590063452720642090e-01 -9.675731062889099121e-01 -6.360225677490234375e-01 -1.280065476894378662e-01 -4.108391404151916504e-01
3.938737139105796814e-02 -5.495016276836395264e-02 9.202305227518081665e-03 -5.397459957748651505e-03 -7.329437136650085449e-02 -4.428195655345916748e-01 -6.268003582954406738e-02 -2.163326144218444824e-01 4.246965795755386353e-02 5.249517560005187988e-01 2.191672101616859436e-02 -4.664906486868858337e-02 -2.179966541007161140e-03 1.219129115343093872e-01 -2.480665035545825958e-02 -4.442414045333862305e-01 -5.568480491638183594e-01 -4.081250429153442383e-01 -2.036312371492385864e-01 -8.044685423374176025e-02 1.741507053375244141e-01 -3.817418217658996582e-01
1.754272915422916412e-02 2.735365927219390869e-01 1.861564815044403076e-01 -4.628689959645271301e-03 -2.516188323497772217e-01 -2.588672563433647156e-02 8.305363357067108154e-02 -4.466682672500610352e-01 2.867775224149227142e-02 -1.749383658170700073e-02 -7.810934633016586304e-02 5.820069834589958191e-02 8.305151946842670441e-03 -3.325265645980834961e-01 -2.122356444597244263e-01 2.131310105323791504e-01 2.753823697566986084e-01 -2.399534732103347778e-01 -9.898222237825393677e-02 2.908870764076709747e-02 -3.975594937801361084e-01 1.813692450523376465e-01
1.106171053834259510e-03 1.556929796934127808e-01 8.776303380727767944e-02 -8.196584880352020264e-03 -1.578772664070129395e-01 -7.591424137353897095e-02 4.198529720306396484e-01 3.585464954376220703e-01 1.988490670919418335e-01 1.937018334865570068e-01 4.537066072225570679e-02 2.568632923066616058e-02 -2.895863726735115051e-02 2.010725885629653931e-01 1.740526556968688965e-01 -1.064843177795410156e+00 -5.559384822845458984e-01 -1.512777060270309448e-01 6.077045574784278870e-02 1.005314216017723083e-01 -1.426242589950561523e-01 3.101601637899875641e-02
1.134245656430721283e-03 1.945448853075504303e-02 1.256657269550487399e-04 2.881580985558684915e-05 -3.068633377552032471e-02 1.076765283942222595e-01 1.151347905397415161e-02 8.408639580011367798e-02 -5.903035402297973633e-02 1.463687568902969360e-01 4.684998095035552979e-02 -1.241672690957784653e-02 9.083460085093975067e-03 1.206598058342933655e-02 2.190445512533187866e-01 -1.888898015022277832e-01 -6.211933493614196777e-02 -1.748263388872146606e-01 5.913863182067871094e-01 1.882132142782211304e-03 1.936506479978561401e-02 -2.264194563031196594e-02
1.509531750343739986e-03 -3.755390048027038574e-01 4.016110002994537354e-01 -1.035641692578792572e-02 6.169366240501403809e-01 -1.487546563148498535e-01 4.035282731056213379e-01 1.512556895613670349e-02 -2.422153204679489136e-01 3.292284905910491943e-01 -3.094804584980010986e-01 -5.880764871835708618e-02 -7.595421671867370605e-01 -1.753411442041397095e-01 6.894764304161071777e-01 -1.301009058952331543e-01 7.703268527984619141e-01 5.853522419929504395e-01 -4.019954502582550049e-01 -1.116378158330917358e-01 -2.474432736635208130e-01 8.208069205284118652e-02
-7.599537493661046028e-04 -7.087504118680953979e-02 -9.769697487354278564e-02 -9.228243143297731876e-04 -1.620003581047058105e-01 1.135291010141372681e-01 -2.255499958992004395e-01 -4.166950583457946777e-01 1.753023117780685425e-01 -5.627247691154479980e-02 -7.984572090208530426e-03 3.607910126447677612e-02 -4.446037113666534424e-03 -1.874955296516418457e-01 -2.205951660871505737e-01 -5.887330174446105957e-01 -3.707884550094604492e-01 2.740831971168518066e-01 -2.256285250186920166e-01 -1.905912458896636963e-01 1.446157991886138916e-01 3.906723558902740479e-01
1.096633821725845337e-02 -9.110222011804580688e-02 -4.040368795394897461e-01 1.951702125370502472e-02 -1.043333560228347778e-01 4.596630632877349854e-01 -6.000756844878196716e-02 -1.301325559616088867e-01 1.484151482582092285e-01 -3.925589919090270996e-01 -6.642465293407440186e-02 -1.165783032774925232e-01 1.752918772399425507e-02 -4.156267642974853516e-02 3.281960487365722656e-01 -1.302712261676788330e-01 5.907400846481323242e-01 7.764796018600463867e-01 -4.475176334381103516e-01 -1.687360554933547974e-01 -2.506599724292755127e-01 -5.309164524078369141e-01
4.125224659219384193e-04 -1.535497188568115234e+00 1.715632081031799316e+00 -8.890924509614706039e-04 8.257656097412109375e-01 -1.371366500854492188e+00 -1.358262419700622559e+00 4.264917075634002686e-01 1.201040267944335938e+00 1.586420297622680664e+00 -1.310433626174926758e+00 6.617413163185119629e-01 -1.379305422306060791e-01 8.781063556671142578e-01 -1.068861603736877441e+00 -4.697546005249023438e+00 1.530618667602539062e-01 3.525169134140014648e+00 8.014239668846130371e-01 4.791341722011566162e-01 8.185511454939842224e-03 -1.288473904132843018e-01
1.625692844390869141e-02 -1.176693663001060486e-01 -1.910461671650409698e-02 -4.925710149109363556e-03 2.540277838706970215e-01 -1.237511709332466125e-01 -3.164488077163696289e-02 6.513303611427545547e-03 -6.860748678445816040e-02 1.460819989442825317e-01 -4.540904238820075989e-02 1.416384428739547729e-01 -3.650762885808944702e-02 8.813910186290740967e-03 4.897477570921182632e-03 -5.179226994514465332e-01 -1.045427560806274414e+00 1.809401214122772217e-01 4.625238850712776184e-02 7.431549020111560822e-03 -9.278303384780883789e-02 -3.386043310165405273e-01
2.907597227022051811e-03 1.242248490452766418e-01 -1.159440577030181885e-01 4.366690758615732193e-03 3.557936474680900574e-02 -6.856251507997512817e-02 -7.672869414091110229e-02 1.185626387596130371e-01 -1.392802572809159756e-03 -7.615862041711807251e-02 -5.814638733863830566e-02 -2.532044984400272369e-02 1.744280904531478882e-01 -5.178486704826354980e-01 3.321215510368347168e-01 -2.741169929504394531e-01 -1.116645187139511108e-01 -9.793593734502792358e-02 -2.746594548225402832e-01 -4.744792729616165161e-02 1.540042273700237274e-02 7.318902760744094849e-02
2.487772405147552490e-01 3.158699572086334229e-01 7.184398919343948364e-02 9.068295359611511230e-02 -8.261188119649887085e-02 2.883338630199432373e-01 5.067551732063293457e-01 -2.743871808052062988e-01 -7.944535464048385620e-02 7.956033572554588318e-03 -2.959764376282691956e-02 -9.846309572458267212e-02 -1.218490749597549438e-01 -3.804514110088348389e-01 -1.693777799606323242e+00 2.302093744277954102e+00 -2.236663103103637695e+00 -4.410700798034667969e-01 1.488489151000976562e+00 4.304409325122833252e-01 3.627408444881439209e-01 -9.111303091049194336e-02
-4.767585173249244690e-02 1.061968281865119934e-01 -5.768455862998962402e-01 4.062313437461853027e-01 2.969705164432525635e-01 -2.091877395287156105e-03 -1.967079490423202515e-01 -2.721386849880218506e-01 -7.073449343442916870e-02 -2.698921561241149902e-01 -9.597548842430114746e-02 -3.981767594814300537e-02 1.379503030329942703e-02 3.112268149852752686e-01 6.363126039505004883e-01 1.784272342920303345e-01 -4.658525884151458740e-01 6.462252885103225708e-02 -9.808470606803894043e-01 -3.526097536087036133e-01 3.826557993888854980e-01 -5.693639516830444336e-01
4.385427746456116438e-04 -1.280938684940338135e-01 2.054142206907272339e-01 5.994569882750511169e-02 4.968995600938796997e-02 -3.880177140235900879e-01 -1.028315648436546326e-01 -1.583871394395828247e-01 9.378215670585632324e-02 4.933999180793762207e-01 -9.905930608510971069e-02 6.711902469396591187e-02 4.307710379362106323e-02 -7.064076513051986694e-02 1.671204110607504845e-03 -1.321940571069717407e-01 -4.499985277652740479e-01 -1.147729903459548950e-01 -1.494457572698593140e-01 -4.013436287641525269e-02 5.582422614097595215e-01 -9.538972750306129456e-03
7.471195608377456665e-02 4.822631366550922394e-03 7.794149219989776611e-02 7.667942345142364502e-02 -3.971656784415245056e-02 -2.337599173188209534e-02 1.869489401578903198e-01 4.191233515739440918e-01 -2.615771442651748657e-02 2.069586962461471558e-01 1.055432185530662537e-01 6.878900527954101562e-02 -1.501122023910284042e-02 -3.055374883115291595e-02 -5.838571190834045410e-01 1.862253844738006592e-01 -3.715799450874328613e-01 -2.871871590614318848e-01 2.128082364797592163e-01 3.369022905826568604e-02 -4.442725777626037598e-01 2.662852406501770020e-01
3.546312917023897171e-03 -2.292966544628143311e-01 -2.197746932506561279e-01 -2.676950581371784210e-02 -1.282104998826980591e-01 -2.731423079967498779e-01 5.431499481201171875e-01 1.768395602703094482e-01 -2.930370271205902100e-01 2.016532234847545624e-02 1.593585871160030365e-02 -7.156918942928314209e-02 -6.699258927255868912e-03 -3.392222896218299866e-02 -1.534461858682334423e-03 6.887637972831726074e-01 1.879881322383880615e-01 -4.857398569583892822e-01 1.339607522822916508e-03 -9.551018476486206055e-02 -3.411466479301452637e-01 -2.208739519119262695e-01
1.366037782281637192e-02 -1.590712666511535645e-01 1.440002173185348511e-01 -7.845228537917137146e-03 -4.686888679862022400e-02 -1.551519334316253662e-01 1.179367825388908386e-01 2.751629948616027832e-01 -2.746674120426177979e-01 2.279917448759078979e-01 -7.196683436632156372e-02 1.554460972547531128e-01 -1.750544458627700806e-02 -3.500230014324188232e-01 2.028273344039916992e-01 4.967287927865982056e-02 6.871785223484039307e-02 1.881855279207229614e-01 -1.165186613798141479e-01 1.010513398796319962e-03 -2.328512817621231079e-01 -1.134939864277839661e-01
1.036509172990918159e-03 -1.079204306006431580e-01 -7.363017648458480835e-02 2.907434245571494102e-03 -9.329440444707870483e-02 2.804530262947082520e-01 3.100335225462913513e-02 -1.449689120054244995e-01 8.077491819858551025e-02 -1.492368429899215698e-01 -5.959870666265487671e-02 7.455561310052871704e-02 -5.046383012086153030e-03 1.764544695615768433e-01 2.033046782016754150e-01 -3.256958723068237305e-01 -1.844455599784851074e-01 -2.128337770700454712e-01 -1.854132264852523804e-01 -3.289617970585823059e-02 -1.636935025453567505e-01 -1.731495261192321777e-01
-7.306812331080436707e-03 -1.015534251928329468e-01 -4.781012237071990967e-02 -5.109235644340515137e-04 -4.106887616217136383e-03 1.371702402830123901e-01 1.771052032709121704e-01 4.866990447044372559e-01 7.008054852485656738e-02 1.479998137801885605e-02 6.609246134757995605e-02 -4.918653517961502075e-02 1.233095973730087280e-01 -5.304268598556518555e-01 -5.833720564842224121e-01 -1.365950610488653183e-02 1.655513048171997070e-01 1.047410666942596436e-01 3.226257860660552979e-01 -4.058079794049263000e-02 2.441174834966659546e-01 -1.871508210897445679e-01
6.868264079093933105e-02 4.945724606513977051e-01 6.402016431093215942e-02 -8.843638002872467041e-02 2.095561288297176361e-02 -6.554498672485351562e-01 1.008888855576515198e-01 -2.080285400152206421e-01 -2.546769976615905762e-01 7.503884434700012207e-01 -4.088692367076873779e-02 2.604661323130130768e-02 -5.689483508467674255e-02 -3.093515932559967041e-01 2.540346607565879822e-02 -1.031916216015815735e-02 -1.256022602319717407e-01 -3.436788320541381836e-01 1.589807271957397461e-01 -5.708355829119682312e-02 -5.032125711441040039e-01 1.001920402050018311e-01
2.583965193480253220e-03 -6.491722073405981064e-03 1.153599396347999573e-01 9.813224896788597107e-04 1.984963193535804749e-02 1.955300122499465942e-01 -1.523489039391279221e-02 -2.326394617557525635e-02 3.926136717200279236e-02 -7.083357125520706177e-02 -5.215676501393318176e-02 -2.233919128775596619e-02 -1.895756646990776062e-02 -1.207940513268113136e-04 3.221027255058288574e-01 4.717264175415039062e-01 6.062775850296020508e-01 7.566186040639877319e-02 -1.951709738932549953e-03 -1.924812793731689453e-02 1.075808033347129822e-01 2.083102473989129066e-03
3.728469164343550801e-05 2.631171643733978271e-01 9.573850780725479126e-02 -6.910670199431478977e-04 2.246591597795486450e-01 -2.090812921524047852e+00 -2.931212484836578369e-01 5.595248937606811523e-01 -5.230488777160644531e-01 2.274367570877075195e+00 -9.469536691904067993e-02 1.672325432300567627e-01 2.630133926868438721e-02 1.963416934013366699e-01 -1.323452949523925781e+00 -9.252502918243408203e-01 1.198246598243713379e+00 -2.200845241546630859e+00 1.274768829345703125e+00 -1.248011272400617599e-02 -9.529262781143188477e-02 -3.621924817562103271e-01
-6.722483038902282715e-02 -1.982200518250465393e-02 3.692081198096275330e-02 2.647948265075683594e-02 1.228080689907073975e-01 -2.486236095428466797e-01 -5.378343462944030762e-01 1.086479946970939636e-01 3.262560963630676270e-01 4.640207439661026001e-02 3.412101790308952332e-02 -1.192613393068313599e-01 -9.985078126192092896e-02 1.212665960192680359e-01 2.404891252517700195e-01 2.317999303340911865e-01 -6.321637630462646484e-01 3.284459710121154785e-01 -1.267987191677093506e-01 -2.222148887813091278e-02 -1.987216472625732422e-01 -1.947342604398727417e-02
2.510168997105211020e-04 -3.093022406101226807e-01 -4.466734826564788818e-02 8.776297909207642078e-04 -3.603173494338989258e-01 -5.883265137672424316e-01 5.243408679962158203e-01 -5.052719712257385254e-01 6.997299790382385254e-01 5.850924253463745117e-01 3.814094662666320801e-01 -5.626451969146728516e-02 6.570774316787719727e-02 4.833866953849792480e-01 4.285142719745635986e-01 -1.315537571907043457e+00 3.845013678073883057e-01 -7.531765699386596680e-01 -2.741328775882720947e-01 1.548488885164260864e-01 -3.926312625408172607e-01 7.221549749374389648e-04
8.112543728202581406e-04 4.498750343918800354e-02 -2.371780395507812500e+00 5.461677443236112595e-03 -7.936849594116210938e-01 -1.281512856483459473e+00 7.744969725608825684e-01 1.553846150636672974e-01 2.774134278297424316e-01 1.412382960319519043e+00 -2.498728752136230469e+00 -6.408699154853820801e-01 5.750707536935806274e-02 -6.769402623176574707e-01 -1.171698793768882751e-01 7.222092151641845703e-01 -7.834211923182010651e-03 3.127003908157348633e-01 1.895662665367126465e+00 -6.044158935546875000e-01 5.807285308837890625e-01 1.812363386154174805e+00
1.089517027139663696e-03 8.685088157653808594e-01 1.664067655801773071e-01 5.615971516817808151e-03 1.591408997774124146e-01 -9.160577058792114258e-01 3.961760178208351135e-02 -8.440990447998046875e-01 2.485225945711135864e-01 9.488756656646728516e-01 -1.632452756166458130e-01 3.269315883517265320e-02 -9.550692141056060791e-02 3.430836200714111328e-01 8.440941572189331055e-02 8.640602827072143555e-01 2.392693236470222473e-02 9.182169437408447266e-01 2.910565733909606934e-01 9.819077327847480774e-03 -8.297152519226074219e-01 -1.035240218043327332e-01
4.116946086287498474e-02 -5.374645814299583435e-02 6.180842518806457520e-01 -7.047878950834274292e-02 -4.337289333343505859e-01 -1.006739661097526550e-01 1.625176370143890381e-01 -1.116184741258621216e-01 -1.335195899009704590e-01 -1.376724243164062500e-01 -3.277799114584922791e-02 6.399146318435668945e-01 -3.984903171658515930e-02 1.789072155952453613e-02 -1.758790016174316406e-01 -1.096742376685142517e-01 7.492469549179077148e-01 3.507166802883148193e-01 7.297848165035247803e-02 3.446178138256072998e-01 -1.286560446023941040e-01 1.643156707286834717e-01
2.048891037702560425e-03 1.226498633623123169e-01 3.412521481513977051e-01 -2.661437029018998146e-03 2.976303361356258392e-02 7.726518064737319946e-02 2.049487382173538208e-01 1.806765198707580566e-01 5.422094836831092834e-02 -1.588671952486038208e-01 -1.375912129878997803e-02 1.563196778297424316e-01 5.853924900293350220e-03 -4.957973212003707886e-02 6.015660166740417480e-01 -5.704932212829589844e-01 -5.989038348197937012e-01 -3.426079452037811279e-01 -5.745502710342407227e-01 2.282528728246688843e-01 3.737926483154296875e-03 4.049542844295501709e-01
-5.882940813899040222e-02 -1.187785565853118896e-01 1.073481813073158264e-01 -8.331334590911865234e-02 -3.312162458896636963e-01 1.078328847885131836e+00 1.315950881689786911e-02 -1.765060126781463623e-01 -1.622674614191055298e-01 -1.215633869171142578e+00 1.001603081822395325e-01 1.713089197874069214e-01 -1.606283187866210938e-01 6.760427951812744141e-01 -1.620828658342361450e-01 3.723057508468627930e-01 -2.740647643804550171e-02 4.339905828237533569e-02 -3.515517115592956543e-01 1.700635584711562842e-05 -2.185902558267116547e-02 1.275337785482406616e-01
2.227486297488212585e-02 1.912752240896224976e-01 1.196081489324569702e-01 7.428898010402917862e-03 -1.162979230284690857e-01 2.471930384635925293e-01 9.613786637783050537e-02 -2.148246765136718750e-01 -3.929313421249389648e-01 -2.488924115896224976e-01 -1.095955818891525269e-01 -5.860083550214767456e-02 3.519375994801521301e-02 2.503195405006408691e-01 2.269775271415710449e-01 -1.939550936222076416e-01 -6.949327588081359863e-01 -1.624645851552486420e-02 -3.369029164314270020e-01 2.325187623500823975e-01 -5.741104856133460999e-02 1.431152224540710449e-01
1.859288103878498077e-02 3.374796733260154724e-02 -1.137588545680046082e-01 -8.150543435476720333e-04 -7.043010741472244263e-02 4.525210335850715637e-02 2.154990583658218384e-01 -9.826065599918365479e-02 1.793956160545349121e-01 -9.157973527908325195e-02 -7.912462204694747925e-02 9.453326463699340820e-03 -3.942650929093360901e-02 2.489193975925445557e-01 -1.918352767825126648e-02 -9.495862573385238647e-02 2.961319684982299805e-01 1.082610040903091431e-01 7.744207233190536499e-02 -3.340796381235122681e-02 -1.990494579076766968e-01 -3.669747114181518555e-01
1.377989910542964935e-02 -3.305314481258392334e-01 -1.521235257387161255e-01 8.904675021767616272e-03 9.671352803707122803e-02 -3.705190718173980713e-01 -5.170059800148010254e-01 -6.221365332603454590e-01 3.155991733074188232e-01 2.578271329402923584e-01 -1.529043912887573242e-02 -1.200809553265571594e-01 1.025722827762365341e-02 2.268488854169845581e-01 -2.085134088993072510e-01 -2.364448904991149902e-01 9.120658636093139648e-01 8.958804607391357422e-01 -1.252581030130386353e-01 -1.243518292903900146e-01 1.901742629706859589e-02 3.108695149421691895e-01
5.081909894943237305e-02 -3.134928643703460693e-02 6.229337304830551147e-02 1.553697977215051651e-03 -1.981711089611053467e-01 6.531653553247451782e-02 5.876046046614646912e-02 1.510021984577178955e-01 1.525860130786895752e-01 -9.077050536870956421e-02 1.323603689670562744e-01 7.164965849369764328e-03 -9.905266761779785156e-02 1.484610233455896378e-02 -2.141671031713485718e-01 -7.170736789703369141e-02 1.356499344110488892e-01 3.942941725254058838e-01 5.809331312775611877e-02 2.694604396820068359e-01 4.218220710754394531e-01 6.044692918658256531e-02
2.767290687188506126e-03 -1.024996191263198853e-01 -1.913701556622982025e-02 -1.149553805589675903e-03 -2.958325482904911041e-02 -4.041435122489929199e-01 -9.994103014469146729e-02 -1.188796851783990860e-02 1.138113886117935181e-01 -2.294063381850719452e-02 -5.526442080736160278e-02 8.084720373153686523e-02 -1.053122337907552719e-02 -2.206781357526779175e-01 5.211318731307983398e-01 -3.347025513648986816e-01 -1.793652176856994629e-01 -3.532148003578186035e-01 3.424931466579437256e-01 -7.691071182489395142e-02 -1.531252712011337280e-01 2.042380273342132568e-01
1.398807764053344727e-02 -1.095105707645416260e-01 -2.729538977146148682e-01 -2.281571971252560616e-03 1.496102362871170044e-01 -1.506425291299819946e-01 -4.740807041525840759e-02 -1.459934860467910767e-01 -1.946645416319370270e-02 -1.080984249711036682e-01 3.196228295564651489e-03 -5.239545553922653198e-02 -1.470021158456802368e-02 -4.540561735630035400e-01 -5.865903571248054504e-02 -3.182313218712806702e-02 8.729790151119232178e-02 -5.011473223567008972e-02 -1.246941164135932922e-01 -8.697400242090225220e-02 -2.248093485832214355e-02 4.235722869634628296e-02
2.664517983794212341e-02 2.896935120224952698e-02 -1.074559986591339111e-02 -4.908047989010810852e-02 -9.074585512280464172e-03 1.939046531915664673e-01 -3.199899569153785706e-02 -8.852194994688034058e-02 -1.434734314680099487e-01 -1.714109256863594055e-02 -2.037697471678256989e-02 2.211063541471958160e-02 1.169245573692023754e-03 -6.220863759517669678e-02 -2.369188517332077026e-02 -3.300673365592956543e-01 -5.411348938941955566e-01 -3.630761504173278809e-01 5.240159109234809875e-02 1.809413135051727295e-01 4.533197730779647827e-03 -4.097641259431838989e-02
-2.281235996633768082e-03 -9.504599869251251221e-02 1.068619079887866974e-02 3.157909959554672241e-03 -1.403063982725143433e-01 -2.584477066993713379e-01 5.619758367538452148e-02 3.298421949148178101e-02 1.777625679969787598e-01 2.563487589359283447e-01 -2.497702687978744507e-01 1.078738570213317871e-01 -3.287133574485778809e-02 -2.514992374926805496e-03 -1.373706161975860596e-01 -1.686662435531616211e-01 1.888690888881683350e-01 2.063558697700500488e-01 4.143009185791015625e-01 5.961152911186218262e-02 7.210023999214172363e-01 9.818462729454040527e-01
1.012193933129310608e-01 -6.016061902046203613e-01 -4.740891754627227783e-01 -1.013987418264150620e-02 1.161269005388021469e-02 9.720407426357269287e-02 1.759620010852813721e-01 2.398124784231185913e-01 6.423665583133697510e-02 -1.237436309456825256e-01 1.469724327325820923e-01 2.380563877522945404e-02 -5.866311863064765930e-02 2.006668150424957275e-01 -4.075458273291587830e-02 -6.381155252456665039e-01 -8.519162535667419434e-01 -3.006847500801086426e-01 1.874660328030586243e-02 -1.168718039989471436e-01 2.232199758291244507e-01 -4.417062699794769287e-01
5.443729087710380554e-02 -2.549985349178314209e-01 3.211059793829917908e-02 -8.642832748591899872e-03 3.760320320725440979e-02 5.647498965263366699e-01 3.780835494399070740e-02 -9.055270999670028687e-02 1.142748221755027771e-01 -5.107297897338867188e-01 -4.273750260472297668e-02 6.871473789215087891e-02 2.153685130178928375e-02 -2.635440416634082794e-02 -5.109907314181327820e-02 -1.006662473082542419e-01 -6.156274117529392242e-03 9.224343299865722656e-02 6.802734732627868652e-02 1.547606661915779114e-03 9.376942366361618042e-02 1.914338022470474243e-01
1.431288546882569790e-03 2.968546003103256226e-02 3.964185342192649841e-02 1.583116390975192189e-04 -3.381790593266487122e-02 1.979121118783950806e-01 1.609417498111724854e-01 3.134365081787109375e-01 1.031533032655715942e-01 -1.516060084104537964e-01 3.471704944968223572e-02 -2.102208510041236877e-02 -7.644103374332189560e-03 1.505676060914993286e-01 -2.001602351665496826e-01 3.807397186756134033e-01 6.045951247215270996e-01 4.741333723068237305e-01 -1.025801226496696472e-01 4.965529963374137878e-02 5.497076734900474548e-02 1.103766337037086487e-01
9.879553690552711487e-04 -2.393534034490585327e-01 -2.822672426700592041e-01 3.236618824303150177e-03 -1.326275318861007690e-01 5.887731313705444336e-01 -1.197632104158401489e-01 -3.055640161037445068e-01 -1.493110060691833496e-01 -5.915605425834655762e-01 6.258048117160797119e-02 -1.039575785398483276e-01 2.398595958948135376e-02 -5.430717952549457550e-03 1.549471169710159302e-01 -5.095614790916442871e-01 -4.995457828044891357e-01 -3.559237122535705566e-01 -3.285690844058990479e-01 -2.481957674026489258e-01 1.892237961292266846e-01 -3.749985396862030029e-01
5.482046399265527725e-04 5.064962804317474365e-02 -4.206940829753875732e-01 -5.920830881223082542e-04 1.575897783041000366e-01 -4.566833376884460449e-01 2.195305526256561279e-01 -6.041547656059265137e-01 3.911135494709014893e-01 3.805091679096221924e-01 -1.852432340383529663e-01 -8.680393546819686890e-02 5.273303017020225525e-03 1.136039793491363525e-01 -4.855900406837463379e-01 3.281915187835693359e-01 -3.037696480751037598e-01 2.403101176023483276e-01 9.603983163833618164e-01 -2.235029190778732300e-01 5.776100326329469681e-03 1.535498816519975662e-02
1.229351502843201160e-03 -9.986212104558944702e-02 -1.269370615482330322e-01 -1.336876593995839357e-04 5.266120284795761108e-02 2.160935997962951660e-01 -5.443920195102691650e-02 -1.470730360597372055e-02 -1.516693085432052612e-01 -2.063476145267486572e-01 -3.759156167507171631e-02 -2.471223997417837381e-04 -1.063450723886489868e-01 1.523339599370956421e-01 9.394171833992004395e-02 3.047996461391448975e-01 5.244803428649902344e-01 -7.909548282623291016e-02 6.817506998777389526e-02 -9.387311339378356934e-02 1.102182865142822266e-01 -1.165576651692390442e-01
8.611679077148437500e-04 7.531097531318664551e-01 1.955085873603820801e+00 -1.633538119494915009e-02 -3.570424795150756836e+00 -5.456583499908447266e-01 -3.493820782750844955e-03 -9.646391868591308594e-01 1.497721791267395020e+00 4.605832397937774658e-01 7.489354610443115234e-01 -7.144372463226318359e-01 -2.044023573398590088e-01 -2.582456767559051514e-01 -2.307530879974365234e+00 -2.728475928306579590e-01 -6.320662051439285278e-02 3.141839802265167236e-01 2.123030900955200195e+00 1.958246946334838867e+00 -1.133183836936950684e+00 1.277122020721435547e+00
-6.864396273158490658e-04 -4.647857248783111572e-01 -3.296090662479400635e-02 -1.417947467416524887e-03 -1.455121338367462158e-01 8.989749848842620850e-02 4.693472385406494141e-02 -5.297679081559181213e-02 2.672321628779172897e-03 -3.091526627540588379e-01 -1.567317247390747070e-01 2.844488807022571564e-02 -2.508937846869230270e-03 7.579378038644790649e-02 9.998173117637634277e-01 5.978019908070564270e-02 -1.284823715686798096e-01 8.947233855724334717e-02 -1.519684672355651855e+00 5.314651411026716232e-03 3.895463645458221436e-01 1.189036220312118530e-01
1.569499969482421875e-01 1.926715075969696045e-01 -1.929578781127929688e-01 4.886908456683158875e-02 3.660519048571586609e-02 2.693696916103363037e-01 3.830353319644927979e-01 -4.237762093544006348e-01 4.460681676864624023e-01 -3.184554576873779297e-01 -3.157581388950347900e-02 -3.685980662703514099e-02 9.203783422708511353e-02 3.158333152532577515e-02 -3.853501081466674805e-01 6.588901281356811523e-01 -2.134252071380615234e+00 1.760018110275268555e+00 1.322215050458908081e-01 6.303582340478897095e-02 -1.660580784082412720e-01 -4.017054438591003418e-01
-3.555990406312048435e-04 2.936425618827342987e-02 -1.822480186820030212e-02 1.699949643807485700e-04 1.610971260070800781e+01 5.534970387816429138e-02 -5.160769820213317871e-02 -1.323974318802356720e-02 1.037768796086311340e-01 -9.436132758855819702e-02 1.538613904267549515e-02 -3.074894472956657410e-02 -3.095518797636032104e-02 -1.597232627868652344e+01 -1.828746497631072998e-01 -7.409032434225082397e-02 -1.964138150215148926e-01 -7.231705635786056519e-02 1.176987662911415100e-01 -3.943584486842155457e-02 -8.440900593996047974e-03 2.365065924823284149e-02
1.277455710805952549e-03 -1.052502822130918503e-02 -3.598682209849357605e-02 -1.038631191477179527e-03 -2.184206619858741760e-03 -4.041306078433990479e-01 -6.614273786544799805e-01 -7.380825281143188477e-01 -7.164095044136047363e-01 2.307384163141250610e-01 -1.037111878395080566e-02 7.668876787647604942e-05 -3.743923502042889595e-03 7.553271204233169556e-02 -7.338041067123413086e-02 -8.073948025703430176e-01 -8.691142797470092773e-01 -3.858067095279693604e-01 -5.730709433555603027e-02 -1.758628152310848236e-02 2.187311835587024689e-02 1.130697131156921387e-02
8.319424465298652649e-03 -3.541097044944763184e-02 -1.548048388212919235e-02 -5.524391774088144302e-03 -2.728698216378688812e-02 -1.309625357389450073e-01 -2.757157385349273682e-01 -3.035295903682708740e-01 -1.813474893569946289e-01 -1.526501178741455078e-01 -7.245170883834362030e-03 1.049816608428955078e-03 -7.498161401599645615e-03 1.140661314129829407e-01 2.052357643842697144e-01 -8.165265321731567383e-01 -1.467455863952636719e+00 -5.995206832885742188e-01 -2.048703134059906006e-01 -1.640874776057898998e-03 -1.365233063697814941e-01 -2.787945978343486786e-02
-1.671055331826210022e-02 8.963494561612606049e-03 -2.891452284529805183e-03 2.526067895814776421e-03 -1.899366527795791626e-01 4.968663305044174194e-02 -1.218925714492797852e-01 -4.184718057513237000e-02 -2.111165225505828857e-02 -7.016515731811523438e-02 1.289775501936674118e-02 2.728065103292465210e-02 -1.086600776761770248e-02 6.217155838012695312e+01 -1.037994474172592163e-01 1.279806196689605713e-01 1.775752454996109009e-01 2.032052725553512573e-02 2.501828074455261230e-01 1.274165231734514236e-03 6.382790952920913696e-02 -4.390982445329427719e-03
-1.304944395087659359e-03 1.449599862098693848e-01 2.657735645771026611e-01 1.483140396885573864e-03 4.946173354983329773e-02 -9.463517665863037109e-01 -2.856888473033905029e-01 -1.291746497154235840e-01 -9.495828151702880859e-01 7.294548749923706055e-01 1.373054236173629761e-01 7.556158304214477539e-02 6.470405496656894684e-03 -1.525868624448776245e-01 -7.064633071422576904e-02 -2.677190542221069336e+00 -5.673383712768554688e+00 6.196641159057617188e+01 6.381506323814392090e-01 3.228885680437088013e-02 -4.377701506018638611e-02 3.516989350318908691e-01
4.963433369994163513e-03 1.542543875984847546e-03 4.467157647013664246e-03 9.632444125600159168e-04 2.682538935914635658e-03 -2.291334867477416992e-01 8.637584745883941650e-02 1.203243136405944824e-01 7.512778043746948242e-02 -2.053002417087554932e-01 7.137651089578866959e-03 5.112418439239263535e-03 5.226150620728731155e-03 1.665566414594650269e-01 -1.162842363119125366e-01 -1.454448420554399490e-02 7.628635503351688385e-03 3.525572828948497772e-03 -8.377177268266677856e-02 1.238506403751671314e-03 -1.693114079535007477e-02 -2.160216448828577995e-03
-3.006593942700419575e-05 -5.163342505693435669e-02 -1.636506617069244385e-01 -3.897086935467086732e-05 -3.471664711833000183e-02 1.989772319793701172e-01 3.457206189632415771e-01 3.830031752586364746e-01 2.732819020748138428e-01 -8.510138094425201416e-02 -2.797657623887062073e-02 3.480158746242523193e-02 -1.010315213352441788e-02 1.368589997291564941e-01 1.118633151054382324e-01 2.039968729019165039e+00 3.456133604049682617e+00 -6.217503738403320312e+01 -4.474989771842956543e-01 -2.717198245227336884e-02 7.595193386077880859e-02 -1.127915643155574799e-02
-3.129713935777544975e-03 -7.665321975946426392e-02 1.563496887683868408e-02 2.072778530418872833e-03 4.583660513162612915e-02 2.392369955778121948e-01 -6.560444235801696777e-01 -6.437697410583496094e-01 -7.252395153045654297e-01 -1.177552193403244019e-01 -1.763653382658958435e-02 1.348885521292686462e-02 7.138180080801248550e-05 -2.324434667825698853e-01 -8.162444829940795898e-02 -3.467510640621185303e-01 -2.889142334461212158e-01 -6.425709724426269531e-01 -7.795688509941101074e-02 4.069429263472557068e-02 1.580767035484313965e-01 2.828711271286010742e-02
3.831062465906143188e-03 3.744275122880935669e-02 1.606355160474777222e-01 -3.956578206270933151e-03 -3.045169822871685028e-02 -2.164605110883712769e-01 8.325760811567306519e-02 1.066555175930261612e-02 -2.353564463555812836e-02 2.733699083328247070e-01 -4.934566468000411987e-02 -4.801505059003829956e-02 2.943197963759303093e-03 1.863562613725662231e-01 2.101444900035858154e-01 1.182051301002502441e-01 5.131090879440307617e-01 1.704164892435073853e-01 -4.768518209457397461e-01 7.135226577520370483e-02 -7.519803196191787720e-02 1.526943743228912354e-01
-1.667167758569121361e-03 1.676463633775711060e-01 6.448895484209060669e-02 2.329333685338497162e-03 -8.668874949216842651e-02 1.698780357837677002e-01 5.265780910849571228e-02 -5.258123949170112610e-02 -1.735384017229080200e-01 -4.556945860385894775e-01 2.692879438400268555e-01 -6.302361935377120972e-02 -1.760838180780410767e-02 -1.250523775815963745e-01 1.036726593971252441e+00 8.832461386919021606e-02 -1.175419911742210388e-01 -1.505359709262847900e-01 -7.858174443244934082e-01 2.870523631572723389e-01 2.240355312824249268e-01 5.641013011336326599e-02
-2.079228870570659637e-03 1.537315174937248230e-02 1.799638122320175171e-01 1.998451305553317070e-03 5.775426700711250305e-02 7.834933400154113770e-01 2.301735617220401764e-02 9.032254666090011597e-02 3.030358254909515381e-02 3.736485838890075684e-01 -3.997529670596122742e-02 8.659293502569198608e-02 -6.512013822793960571e-02 1.299666464328765869e-01 2.195197343826293945e-01 -3.799243364483118057e-03 4.613331854343414307e-01 1.734092533588409424e-01 -1.138105168938636780e-01 1.674783378839492798e-01 8.172252774238586426e-02 1.260181367397308350e-01
7.909858686616644263e-05 3.006004393100738525e-01 5.782275646924972534e-02 1.824672333896160126e-03 8.669250458478927612e-02 7.381043583154678345e-02 -6.234179064631462097e-02 -1.289593428373336792e-01 5.808376520872116089e-02 -2.701148986816406250e-01 3.295978605747222900e-01 1.254459768533706665e-01 -8.002335205674171448e-03 -8.242242038249969482e-03 4.718793869018554688e+01 -1.868453323841094971e-01 6.645454168319702148e-01 -5.499617755413055420e-02 -1.804047393798828125e+01 1.695609465241432190e-02 -8.532265424728393555e-01 -4.879112541675567627e-02
2.736826427280902863e-04 -1.108205616474151611e-01 -3.907604888081550598e-02 -2.218998735770583153e-03 -3.136578202247619629e-02 2.096695154905319214e-01 3.832599818706512451e-01 -8.501060605049133301e-01 5.473887920379638672e-01 -1.919993609189987183e-01 -3.056124411523342133e-02 9.632673859596252441e-02 2.264973707497119904e-03 -5.012502074241638184e-01 -3.388469219207763672e-01 -4.143673896789550781e+00 7.909745025634765625e+01 -2.964968442916870117e+00 4.547264575958251953e-01 2.235742099583148956e-02 1.672690361738204956e-01 -2.958681583404541016e-01
1.342463679611682892e-02 3.042069375514984131e-01 1.345720514655113220e-02 -3.333492204546928406e-02 -9.144866466522216797e-02 1.833183765411376953e-01 2.344721406698226929e-01 -4.540320858359336853e-02 1.314630061388015747e-01 9.510126709938049316e-02 3.571701794862747192e-02 2.181925065815448761e-02 1.112105138599872589e-02 3.445420041680335999e-02 -1.796383976936340332e+00 -1.436965167522430420e-01 -1.387470245361328125e+00 2.570445537567138672e-01 3.787226438522338867e+00 -6.475228350609540939e-03 -1.194802597165107727e-01 6.930045317858457565e-03
1.043560542166233063e-02 -1.030051987618207932e-02 1.204437203705310822e-02 -1.626352593302726746e-02 -1.344265341758728027e-01 9.445912390947341919e-02 -1.794935613870620728e-01 -6.779946088790893555e-01 -6.273933649063110352e-01 4.339414089918136597e-02 1.770651154220104218e-02 1.258179694414138794e-01 2.300048479810357094e-03 1.862208843231201172e-01 -2.168125212192535400e-01 5.899356842041015625e+00 -6.932593584060668945e-01 -7.234199643135070801e-01 1.444733589887619019e-01 2.480567097663879395e-01 -6.868540495634078979e-02 -6.945631653070449829e-02
-1.097162370570003986e-03 -4.103478044271469116e-02 1.960428059101104736e-01 -4.316765349358320236e-03 -8.294874429702758789e-02 4.736785963177680969e-02 -3.915590345859527588e-01 -3.275679349899291992e-01 -5.118359327316284180e-01 -1.658799171447753906e+00 -6.264414638280868530e-02 4.925545677542686462e-02 -1.812948496080935001e-03 -2.551361918449401855e-02 1.358227729797363281e-01 -2.966094017028808594e-01 -9.966243524104356766e-04 -1.258908808231353760e-01 -2.071397900581359863e-01 1.826177537441253662e-01 -6.875329464673995972e-02 2.826586365699768066e-01
-4.710541106760501862e-03 -6.121383514255285263e-03 1.341019105166196823e-02 1.153603545390069485e-03 -9.929123334586620331e-03 5.802023224532604218e-03 -2.587246000766754150e-01 -3.847481012344360352e-01 -2.072939574718475342e-01 -5.895017832517623901e-02 -3.730408381670713425e-03 -2.405229257419705391e-03 -5.567226908169686794e-04 4.171378538012504578e-02 -4.474750161170959473e-02 1.827550977468490601e-01 -9.707759134471416473e-03 -2.479883730411529541e-01 -6.308181583881378174e-02 -3.008389286696910858e-02 -1.512902881950139999e-02 -2.972280234098434448e-02
2.451111376285552979e-02 -4.879767447710037231e-02 1.223591528832912445e-02 6.086776964366436005e-03 -7.974535226821899414e-02 2.224095463752746582e-01 2.882479131221771240e-01 1.572969853878021240e-01 3.183131515979766846e-01 -6.311602890491485596e-02 -1.083130203187465668e-02 -8.061784319579601288e-03 1.329698716290295124e-03 2.446350902318954468e-01 6.125646084547042847e-02 3.604256510734558105e-01 1.217275261878967285e+00 3.494336307048797607e-01 -7.278187572956085205e-02 1.407928671687841415e-02 2.858120389282703400e-02 -7.900873571634292603e-02
-2.552251098677515984e-04 1.362637430429458618e-02 1.449092011898756027e-02 -1.137482686317525804e-04 4.620549269020557404e-03 1.189430989325046539e-02 4.078474342823028564e-01 6.066486239433288574e-01 3.318527340888977051e-01 -4.150952026247978210e-02 1.037731952965259552e-02 5.265002138912677765e-03 1.286563812755048275e-03 8.742976002395153046e-03 -3.088710904121398926e-01 7.602095603942871094e-02 1.332909334450960159e-02 -4.354326426982879639e-02 -3.160545229911804199e-01 -1.424415153451263905e-03 -4.745267331600189209e-03 -5.790240596979856491e-03
-2.395389601588249207e-02 -1.364477127790451050e-01 -1.771669536828994751e-01 7.960218936204910278e-03 5.800310522317886353e-02 -4.478141069412231445e-01 1.838554739952087402e-01 3.386984765529632568e-01 1.791833937168121338e-01 1.802154332399368286e-01 -6.887129694223403931e-02 -2.479876019060611725e-02 -2.401808509603142738e-03 1.882264465093612671e-01 8.023040294647216797e-01 -4.812877476215362549e-01 5.021352767944335938e-01 -5.888876914978027344e-01 -9.480328559875488281e-01 -6.321497261524200439e-02 -2.082643657922744751e-01 -1.315584778785705566e-01
2.713297260925173759e-03 -1.462120413780212402e-01 1.167146787047386169e-01 -2.019383460283279419e-01 -1.280295997858047485e-01 1.377213466912508011e-02 4.042915627360343933e-02 -6.358253955841064453e-02 6.576850265264511108e-02 -1.172363981604576111e-01 3.235521493479609489e-03 5.721129477024078369e-02 1.589083671569824219e-02 4.223351776599884033e-01 -3.217263892292976379e-02 -8.813994936645030975e-03 1.465960144996643066e-01 -7.303640246391296387e-02 2.438136637210845947e-01 2.268614470958709717e-01 2.065378986299037933e-02 -1.926868967711925507e-02
-1.534693315625190735e-02 -8.195922523736953735e-02 7.759584486484527588e-02 1.888490631245076656e-03 -1.017127372324466705e-02 3.038225173950195312e-01 -1.170730710029602051e+00 -5.723635554313659668e-01 -1.108678460121154785e+00 -1.414309889078140259e-01 1.260660868138074875e-02 -1.655582711100578308e-02 2.229124074801802635e-03 -9.798487648367881775e-03 1.885108202695846558e-01 -1.467637270689010620e-01 -1.923650652170181274e-01 -2.882100641727447510e-01 -1.358069479465484619e-01 1.627775467932224274e-02 1.026316434144973755e-01 -1.354047376662492752e-02
-9.432119550183415413e-04 3.635426983237266541e-02 -1.379377953708171844e-02 -7.285966421477496624e-04 -3.782984614372253418e-02 2.511854469776153564e-01 3.337486833333969116e-02 1.066821515560150146e-01 8.824647963047027588e-02 1.124429777264595032e-01 1.403132360428571701e-02 1.792112924158573151e-02 3.476793062873184681e-05 7.274081930518150330e-03 -8.797113895416259766e-01 -9.209014475345611572e-02 -2.180982232093811035e-01 -2.714134566485881805e-02 5.504422783851623535e-01 7.262331782840192318e-04 1.167481020092964172e-02 -3.207647474482655525e-03
-6.861158460378646851e-02 2.654163539409637451e-01 5.070661306381225586e-01 -1.080190856009721756e-02 1.554187178611755371e+00 6.971603631973266602e-01 -1.164317965507507324e+00 -2.731538414955139160e-01 1.223958730697631836e+00 1.150406748056411743e-01 -2.410669773817062378e-01 9.660733491182327271e-02 -3.908553421497344971e-01 -5.763531923294067383e-01 -5.769027471542358398e-01 1.839764714241027832e+00 1.590945601463317871e+00 -7.756143212318420410e-01 6.199889779090881348e-01 4.346996545791625977e-02 -1.264004111289978027e-01 1.612143404781818390e-02
1.407724339514970779e-02 -7.606498152017593384e-02 5.885156802833080292e-03 -7.354485336691141129e-03 2.406793273985385895e-02 3.094904124736785889e-01 2.838732600212097168e-01 1.905213296413421631e-01 2.172425389289855957e-01 5.084500312805175781e-01 2.119995094835758209e-02 2.405278012156486511e-02 1.907849870622158051e-02 -2.716991305351257324e-01 -2.424495518207550049e-01 3.481456339359283447e-01 3.876425921916961670e-01 -1.965108811855316162e-01 5.837752223014831543e-01 -2.698915638029575348e-02 1.667284518480300903e-01 9.157992899417877197e-02
3.535490110516548157e-02 1.784035712480545044e-01 1.038696914911270142e-01 2.882478199899196625e-02 2.528352141380310059e-01 -4.939992427825927734e-01 -3.022392466664314270e-02 -2.590634524822235107e-01 -9.575722366571426392e-02 -7.685446143150329590e-01 -1.586535423994064331e-01 1.512120664119720459e-01 2.851436845958232880e-02 -1.718637645244598389e-01 9.168837666511535645e-01 -5.840721130371093750e-01 -3.132701218128204346e-01 -5.445835590362548828e-01 -6.655355691909790039e-01 5.344146490097045898e-02 -8.931667208671569824e-01 3.219920694828033447e-01
7.525846594944596291e-04 5.298320320434868336e-04 2.526748925447463989e-03 1.332687970716506243e-04 -9.737459011375904083e-03 -2.736380696296691895e-01 -1.588965058326721191e-01 -2.809269428253173828e-01 -1.649831831455230713e-01 -2.165012657642364502e-01 -6.099394056946039200e-03 6.699961610138416290e-03 1.525037572719156742e-03 1.861157454550266266e-02 3.568648174405097961e-02 1.744764894247055054e-01 9.808685630559921265e-02 -4.224731400609016418e-02 2.730783075094223022e-02 6.114033050835132599e-03 -6.679673679172992706e-03 -1.643881550990045071e-03
2.010730467736721039e-02 1.641610637307167053e-02 1.273540034890174866e-02 4.006152972579002380e-03 4.259273037314414978e-02 -6.402897834777832031e-02 -4.931584894657135010e-01 -6.501128077507019043e-01 -3.689118325710296631e-01 1.544523835182189941e-01 -6.172138825058937073e-02 6.337223201990127563e-02 -4.142840951681137085e-02 -1.284188777208328247e-02 2.475325018167495728e-01 1.509330719709396362e-01 4.706268385052680969e-02 -2.551317512989044189e-01 -5.732950568199157715e-02 -6.779054552316665649e-02 -1.000880822539329529e-01 3.716710954904556274e-02
-4.888974362984299660e-04 -2.080613281577825546e-03 -5.178068205714225769e-02 4.748551547527313232e-02 -1.504381448030471802e-01 -1.642380505800247192e-01 9.324219077825546265e-02 7.386743277311325073e-02 1.191645488142967224e-01 1.206775754690170288e-01 6.275326758623123169e-02 -4.285557195544242859e-02 5.706068500876426697e-02 4.089078605175018311e-01 -2.734129726886749268e-01 -1.465859860181808472e-01 -3.850025236606597900e-01 -1.684755235910415649e-01 3.317170441150665283e-01 2.352383686229586601e-03 4.539212957024574280e-02 3.907735645771026611e-02
2.582790330052375793e-02 -1.003370285034179688e-01 -1.789242327213287354e-01 -1.051540076732635498e-01 -1.945487572811543941e-03 3.233938515186309814e-01 4.666528403759002686e-01 -1.109810918569564819e-01 3.231267631053924561e-01 -4.080712795257568359e-02 -1.178684011101722717e-01 6.077821180224418640e-02 7.061830908060073853e-02 4.062763601541519165e-02 1.200480908155441284e-01 -2.326255589723587036e-01 -5.719878077507019043e-01 -2.101094573736190796e-01 1.043864488601684570e+00 -1.123254466801881790e-02 1.935233026742935181e-01 -1.897307485342025757e-02
1.474765501916408539e-02 3.849582076072692871e-01 -5.049262940883636475e-02 -1.266689784824848175e-02 -1.029687374830245972e-02 5.909010767936706543e-01 3.051738813519477844e-02 -1.595461517572402954e-01 5.518794432282447815e-02 -1.532087773084640503e-01 2.087529152631759644e-01 2.667421475052833557e-03 -5.853200331330299377e-02 2.722647413611412048e-02 -1.302067518234252930e+00 -1.945626735687255859e-01 -9.233608096837997437e-02 -9.207185357809066772e-03 2.693967819213867188e+00 6.687624007463455200e-02 4.404940828680992126e-02 2.326074093580245972e-01
-1.142958737909793854e-02 -8.882769942283630371e-02 -7.593952864408493042e-02 1.314395666122436523e-02 -1.005520895123481750e-01 1.017551030963659286e-02 4.990217462182044983e-02 -5.777385458350181580e-02 6.689430028200149536e-02 9.729737788438796997e-02 -1.481294333934783936e-01 1.312080323696136475e-01 -2.102968841791152954e-02 4.996911883354187012e-01 -4.152429476380348206e-02 -3.226756751537322998e-01 -8.094155043363571167e-02 1.344787031412124634e-01 -3.641871511936187744e-01 1.561234518885612488e-02 9.072025865316390991e-02 -1.176197268068790436e-02
3.084132913500070572e-03 -2.982265502214431763e-02 -5.751356016844511032e-03 1.815273542888462543e-03 -1.543928496539592743e-02 1.591736823320388794e-01 -2.721141576766967773e-01 -3.491065204143524170e-01 -3.497895598411560059e-01 -3.265520632266998291e-01 2.137653902173042297e-02 1.427858695387840271e-02 -9.044990874826908112e-03 -3.659588051959872246e-03 1.321545839309692383e-01 2.234143950045108795e-02 1.213981583714485168e-01 -6.106541678309440613e-02 9.534518420696258545e-02 -5.570760462433099747e-03 -8.920025080442428589e-03 3.184182941913604736e-02
-8.456497639417648315e-02 -4.700512811541557312e-02 -2.174374014139175415e-01 -4.872816428542137146e-02 -2.268264591693878174e-01 -1.159459352493286133e+00 -1.728721708059310913e-01 -4.672581851482391357e-01 -7.535665631294250488e-01 4.896286129951477051e-01 1.433592010289430618e-02 3.894716501235961914e-02 -7.538347691297531128e-02 6.295005977153778076e-02 -1.045376807451248169e-01 -1.360321044921875000e+00 -2.905068099498748779e-01 6.186717152595520020e-01 9.561739116907119751e-02 2.123104780912399292e-02 -1.356529444456100464e-01 -4.333133995532989502e-02
3.120249137282371521e-03 -7.047829031944274902e-02 2.213709522038698196e-03 -1.717562437988817692e-03 3.471144661307334900e-02 -5.900244694203138351e-03 2.204492688179016113e-01 4.152805805206298828e-01 3.071402311325073242e-01 -9.652166068553924561e-02 9.466010145843029022e-03 -1.517642755061388016e-02 -5.368009209632873535e-02 -6.108625605702400208e-02 -6.025125458836555481e-02 7.719045877456665039e-01 1.212589144706726074e+00 4.466723799705505371e-01 -1.270526051521301270e-01 -1.064861193299293518e-02 -2.524907758925110102e-04 3.284639213234186172e-03
-9.947867511073127389e-05 9.812591969966888428e-02 3.747767508029937744e-01 5.318984622135758400e-04 2.315713167190551758e-01 -8.062658905982971191e-01 -1.807676076889038086e+00 -3.234679996967315674e-01 -1.100697666406631470e-01 8.372080922126770020e-01 -1.880527008324861526e-03 7.555859535932540894e-02 -4.550436045974493027e-03 1.849133707582950592e-02 -6.063289474695920944e-03 6.845678710937500000e+01 -6.278169631958007812e+00 -3.249891281127929688e+00 4.368474241346120834e-03 2.123728841543197632e-01 -5.554397404193878174e-02 2.572364211082458496e-01
-9.458319284021854401e-03 -7.376514375209808350e-02 -2.561213215813040733e-03 -9.395545930601656437e-04 2.836234867572784424e-02 1.757751256227493286e-01 -3.651612699031829834e-01 -6.363881826400756836e-01 -3.009554147720336914e-01 -2.824290990829467773e-01 8.711667731404304504e-03 -4.188554733991622925e-02 -2.745146676898002625e-02 2.060776352882385254e-01 1.716155260801315308e-01 -2.835741937160491943e-01 -3.946354687213897705e-01 -1.108456477522850037e-01 5.065462365746498108e-02 2.398245269432663918e-03 4.209780693054199219e-02 -1.367021072655916214e-02
-6.139547098428010941e-03 -7.960117608308792114e-02 2.597973495721817017e-02 -8.062961511313915253e-03 4.002923488616943359e+00 -8.454304188489913940e-03 -1.410265266895294189e-01 -9.570433758199214935e-03 5.603396892547607422e-02 -1.004189252853393555e-01 -5.120208114385604858e-02 -1.949799992144107819e-02 5.355303175747394562e-03 -9.393517494201660156e+00 3.244146108627319336e-01 7.337730377912521362e-02 8.306737989187240601e-02 8.116420358419418335e-02 -2.827642560005187988e-01 3.745288029313087463e-02 1.000556051731109619e-01 -2.557656913995742798e-02
1.866194652393460274e-04 -1.655448600649833679e-02 -1.430639438331127167e-02 5.513558862730860710e-04 3.210867196321487427e-02 -2.424181066453456879e-02 -5.741336569190025330e-02 -1.272515803575515747e-01 -7.011281698942184448e-02 -5.300062894821166992e-02 1.121738646179437637e-02 -6.853584200143814087e-04 -2.668861532583832741e-03 7.579819764941930771e-03 1.304195374250411987e-01 -3.514831662178039551e-01 -8.734198808670043945e-01 -2.265866100788116455e-01 -1.592623740434646606e-01 1.519659068435430527e-02 -3.121304092928767204e-03 9.977010078728199005e-03
1.101371948607265949e-03 7.527831941843032837e-03 -8.112248033285140991e-03 -6.440283323172479868e-05 2.176140260417014360e-04 -1.539883464574813843e-01 -1.156320124864578247e-01 -3.134695589542388916e-01 -9.502275288105010986e-02 7.379274815320968628e-02 4.993597976863384247e-03 -3.166024340316653252e-03 7.341885939240455627e-04 3.752948483452200890e-03 -2.116863727569580078e-01 -1.450311243534088135e-01 -2.567050755023956299e-01 4.766690731048583984e-02 -1.758316010236740112e-01 -4.520360380411148071e-03 8.467002771794795990e-03 -3.156851232051849365e-02
-4.773033410310745239e-02 1.016852259635925293e-02 3.742350265383720398e-02 -1.009154319763183594e-02 6.844811886548995972e-02 1.276795864105224609e-01 -1.375852972269058228e-01 -3.741236627101898193e-01 -2.703622579574584961e-01 -2.376740425825119019e-01 1.684456504881381989e-02 -2.412455901503562927e-02 -1.117455773055553436e-02 2.861031591892242432e-01 -4.643568024039268494e-02 2.346934825181961060e-01 -4.979209005832672119e-01 1.476084068417549133e-02 -2.019636780023574829e-01 5.581322684884071350e-02 2.743784189224243164e-01 9.933482855558395386e-02
1.498931925743818283e-02 -2.618377283215522766e-02 1.275342106819152832e-01 -1.658399269217625260e-04 -2.721528895199298859e-02 -6.011916324496269226e-03 -3.265300095081329346e-01 -6.469088196754455566e-01 -4.104776382446289062e-01 1.959864348173141479e-01 1.602830179035663605e-02 4.803068935871124268e-02 -7.378915790468454361e-03 -3.358864411711692810e-02 1.773973926901817322e-02 -4.252254366874694824e-01 -1.043308019638061523e+00 -7.967144250869750977e-01 -8.645722270011901855e-02 8.325043320655822754e-02 1.634310930967330933e-02 -1.542308460921049118e-02
4.752139095216989517e-03 -2.458994686603546143e-01 7.295515537261962891e-01 -4.501074925065040588e-02 -2.024631202220916748e-01 -1.571737051010131836e+00 -8.140380978584289551e-01 -2.278164625167846680e-01 1.318957328796386719e+00 2.031146287918090820e+00 -1.463445276021957397e-01 1.593582034111022949e+00 5.271583795547485352e-01 -9.302244782447814941e-01 7.570971548557281494e-02 6.968066406250000000e+01 -9.587677001953125000e+00 -3.001968622207641602e+00 1.218445420265197754e+00 3.070507049560546875e-01 -5.994651317596435547e-01 2.303193062543869019e-01
-4.257130902260541916e-03 2.439969778060913086e-02 -3.434469923377037048e-02 4.271520301699638367e-03 -2.684195712208747864e-02 -1.309819370508193970e-01 -3.218090832233428955e-01 -3.154628872871398926e-01 -1.735020726919174194e-01 9.757128357887268066e-02 2.864482626318931580e-02 -1.572195254266262054e-02 -8.777454495429992676e-03 2.627401426434516907e-02 -1.292742341756820679e-01 3.367539942264556885e-01 8.046945333480834961e-01 5.048234462738037109e-01 -3.269580006599426270e-02 4.737467505037784576e-03 1.200453005731105804e-02 -7.178471237421035767e-02
-5.354279652237892151e-03 -1.690754443407058716e-01 -5.401474982500076294e-02 -5.481468047946691513e-03 -1.068833172321319580e-01 1.769270539283752441e+00 -1.787651628255844116e-01 1.773338615894317627e-01 -2.867695093154907227e-01 -3.862265944480895996e-01 -4.930175840854644775e-02 2.580439485609531403e-02 -5.181328859180212021e-03 -1.445391923189163208e-01 -1.576572842895984650e-02 1.896215826272964478e-01 5.818244218826293945e-01 2.778848409652709961e-01 5.309704542160034180e-01 -3.605167195200920105e-02 -2.156158164143562317e-02 -1.148664727807044983e-01
-1.793814823031425476e-02 1.261295378208160400e-01 8.952219784259796143e-02 2.100144326686859131e-02 -9.968023002147674561e-02 2.276391834020614624e-01 -5.114515498280525208e-02 5.917451903223991394e-02 5.851213634014129639e-02 8.405046910047531128e-02 1.516983378678560257e-02 2.194916643202304840e-02 6.219496950507164001e-02 -2.965367585420608521e-02 -3.833642005920410156e-01 -3.683893978595733643e-01 -8.202875852584838867e-01 -2.529363632202148438e-01 -7.393820285797119141e-01 -4.111400805413722992e-03 5.048072338104248047e-02 -3.587999939918518066e-02
-7.959574460983276367e-03 -6.790758110582828522e-03 8.431793749332427979e-02 2.418428892269730568e-03 -5.494328215718269348e-02 -9.251885116100311279e-03 -1.632207632064819336e-01 -1.437032222747802734e-01 2.438625693321228027e-02 2.500190027058124542e-02 2.988326363265514374e-02 2.280477248132228851e-02 -2.715941984206438065e-03 3.946562483906745911e-02 -3.261107206344604492e-02 -1.360933780670166016e-01 -3.483137190341949463e-01 -3.674289286136627197e-01 -3.406439721584320068e-02 1.030139252543449402e-02 5.505140125751495361e-02 3.402031585574150085e-02
8.614841848611831665e-03 2.844088897109031677e-02 1.647932827472686768e-02 -2.819126006215810776e-03 -7.762045413255691528e-02 -2.238692468381486833e-05 -8.356404304504394531e-02 2.097645029425621033e-02 -1.323009729385375977e-01 -1.076716408133506775e-01 -4.052106291055679321e-02 4.467801377177238464e-02 2.808754146099090576e-02 -6.853285431861877441e-02 3.990756869316101074e-01 3.861451148986816406e-02 -4.720189869403839111e-01 -8.986282162368297577e-03 -4.068306386470794678e-01 7.598956674337387085e-02 -1.389907896518707275e-01 1.094501614570617676e-01
-3.289681393653154373e-03 -1.685778498649597168e-01 -1.319604367017745972e-01 -1.024098787456750870e-02 2.760626934468746185e-02 1.078097820281982422e+00 -1.324460953474044800e-01 -1.454968899488449097e-01 -4.011867567896842957e-02 -1.188495516777038574e+00 -6.456906348466873169e-02 -5.610003694891929626e-02 8.023261325433850288e-04 4.432460665702819824e-02 5.762967467308044434e-01 -2.779291570186614990e-01 -1.884956806898117065e-01 1.517718434333801270e-01 -5.659330487251281738e-01 -1.218591406941413879e-01 1.369080096483230591e-01 -2.996469438076019287e-01
2.430419262964278460e-04 -2.817448042333126068e-02 -4.166374728083610535e-02 5.200725281611084938e-04 -3.470055758953094482e-02 2.104904204607009888e-01 -5.893629789352416992e-01 -8.738873600959777832e-01 -4.533914327621459961e-01 1.151507487520575523e-03 3.688457980751991272e-02 -4.835730418562889099e-02 -2.293433062732219696e-03 8.737538754940032959e-02 -3.865147531032562256e-01 1.606715917587280273e-01 4.870789945125579834e-01 3.115912973880767822e-01 -4.529311954975128174e-01 1.985423825681209564e-02 -1.000171899795532227e-02 -1.713175675831735134e-03
