1.063543837517499924e-02 -1.863516122102737427e-02 1.151646301150321960e-02 2.058383449912071228e-02 1.167997624725103378e-02 -5.061073228716850281e-02 -5.661466121673583984e-01 -3.405199646949768066e-01 2.649727463722229004e-01 -1.862259656190872192e-01 -6.706192344427108765e-02 4.654043167829513550e-02 2.661370113492012024e-02 6.046651303768157959e-02 -2.527407705783843994e-01 2.062378227710723877e-01 3.222194015979766846e-01 1.483767777681350708e-01 -1.355499774217605591e-02 -4.550543427467346191e-02 -8.736585080623626709e-02 1.202946994453668594e-02 2.989863790571689606e-02 1.507857255637645721e-02 -1.861254312098026276e-02 8.795960806310176849e-03 6.913474760949611664e-03 8.992003276944160461e-03
-1.304949074983596802e-02 4.806928627658635378e-04 7.286220788955688477e-03 -9.378825314342975616e-03 1.141482591629028320e-02 7.241760939359664917e-02 7.109135389328002930e-02 3.388523682951927185e-02 -3.015560470521450043e-02 -3.511816635727882385e-02 3.615767136216163635e-02 2.332212030887603760e-02 4.323338158428668976e-03 2.235744614154100418e-03 -2.321330271661281586e-02 2.252247370779514313e-02 5.631927400827407837e-02 -3.515227138996124268e-02 3.079883754253387451e-02 2.916474826633930206e-02 1.772760064341127872e-03 9.187911637127399445e-03 1.231161728501319885e-01 -1.308295596390962601e-02 3.099010139703750610e-02 5.989307072013616562e-03 1.177660375833511353e-02 -1.314943190664052963e-02
-5.178815498948097229e-02 -9.190054982900619507e-02 1.044851914048194885e-01 -2.147709764540195465e-02 -1.080173403024673462e-01 8.917338401079177856e-02 -2.794581055641174316e-01 -5.051604285836219788e-02 1.831210106611251831e-01 -8.232976496219635010e-02 1.826802454888820648e-02 3.214343488216400146e-01 6.895381957292556763e-02 -4.660573601722717285e-01 1.782274618744850159e-02 2.631832361221313477e-01 -2.643520236015319824e-01 -5.598004162311553955e-02 -3.945496082305908203e-01 -6.786377727985382080e-02 2.880227267742156982e-01 -4.852512851357460022e-02 4.141993820667266846e-01 -1.273274570703506470e-01 7.988254725933074951e-02 8.526325225830078125e-02 -9.016469120979309082e-02 -3.737575933337211609e-02
3.389191031455993652e-01 1.439594756811857224e-02 -1.197794824838638306e-01 4.305247366428375244e-01 1.253722235560417175e-03 1.356126815080642700e-01 4.933187961578369141e-01 -2.792510390281677246e-01 -5.936701223254203796e-02 -6.198421586304903030e-03 3.527035117149353027e-01 -1.243627443909645081e-01 -1.676014810800552368e-01 -3.466225787997245789e-02 -2.620442025363445282e-02 -3.226101994514465332e-01 -1.010054349899291992e-01 -1.735651306807994843e-02 1.487213745713233948e-02 7.724305987358093262e-02 5.093561857938766479e-02 1.227593570947647095e-01 -2.538802623748779297e-01 1.301966048777103424e-02 3.211061656475067139e-01 4.523042440414428711e-01 -8.823721110820770264e-02 -7.167595624923706055e-02
1.497005298733711243e-02 -3.944465890526771545e-02 -1.389021575450897217e-01 1.209486648440361023e-01 1.004893183708190918e-01 1.745037883520126343e-01 -1.037423908710479736e-01 -1.852478273212909698e-02 1.997549682855606079e-01 -1.645027101039886475e-01 1.090714707970619202e-01 2.011152207851409912e-01 -7.002663612365722656e-02 -3.413747251033782959e-02 2.595499455928802490e-01 4.863073229789733887e-01 -2.472232282161712646e-01 -2.263378798961639404e-01 -1.664547771215438843e-01 1.383861154317855835e-02 4.373988136649131775e-02 2.646327205002307892e-02 -1.135037690401077271e-01 -2.769669890403747559e-01 3.440320491790771484e-02 6.769290566444396973e-02 1.004937104880809784e-03 1.815527826547622681e-01
-5.351157188415527344e-01 -1.647295653820037842e-01 -1.808501407504081726e-02 3.177787661552429199e-01 -5.718825459480285645e-01 1.842898577451705933e-01 4.740797355771064758e-02 -1.184635702520608902e-02 -1.101636588573455811e-01 -2.719511464238166809e-02 4.147268235683441162e-01 6.478676199913024902e-02 1.416476368904113770e-01 -5.212252140045166016e-01 -5.182429775595664978e-02 2.698684334754943848e-01 2.087085694074630737e-01 4.681100547313690186e-01 1.933069527149200439e-01 4.095686972141265869e-01 -3.717785477638244629e-01 -2.815314531326293945e-01 -9.728259593248367310e-02 -5.960315465927124023e-01 4.331590607762336731e-02 -2.222459763288497925e-01 -6.779003739356994629e-01 4.184924066066741943e-01
-3.365565240383148193e-01 4.408218339085578918e-02 5.785213317722082138e-03 -4.883346855640411377e-01 1.635368913412094116e-02 -2.114923298358917236e-01 3.579066321253776550e-02 -1.072998791933059692e-01 1.856861561536788940e-01 -1.175312325358390808e-01 1.803667992353439331e-01 -2.239899523556232452e-02 -2.302243709564208984e-01 3.309402614831924438e-02 8.967761695384979248e-02 4.326536655426025391e-01 -6.024866700172424316e-01 -1.475477707572281361e-03 -2.195598632097244263e-01 7.248063385486602783e-02 -4.221098423004150391e-01 -1.635978184640407562e-02 1.236558556556701660e-01 -7.598851323127746582e-01 -6.819285452365875244e-02 3.142203688621520996e-01 1.593354344367980957e-01 -4.933354258537292480e-02
4.784224927425384521e-01 8.365619927644729614e-02 9.937198460102081299e-02 -6.812363862991333008e-02 -4.339710175991058350e-01 8.219404518604278564e-02 -2.526982724666595459e-01 3.497591018676757812e-01 -2.186462879180908203e-01 -4.646391794085502625e-02 1.324390321969985962e-01 -4.617832005023956299e-01 -8.004736304283142090e-01 -5.220668911933898926e-01 8.667675256729125977e-01 -2.444793134927749634e-01 -8.206839859485626221e-02 -1.135428324341773987e-01 -5.369279161095619202e-02 4.566545784473419189e-02 -1.140733286738395691e-01 -2.509959936141967773e-01 -3.135171234607696533e-01 -3.487711548805236816e-01 -4.363780319690704346e-01 -1.564700752496719360e-01 -1.375307142734527588e-01 -3.009826242923736572e-01
9.869449585676193237e-02 2.930112779140472412e-01 -1.469993293285369873e-01 3.993990272283554077e-02 -3.760702013969421387e-01 5.127885341644287109e-01 2.210220694541931152e-01 -1.875283271074295044e-01 -2.245541289448738098e-02 3.571884632110595703e-01 -4.383588209748268127e-02 -5.396342370659112930e-03 3.355960249900817871e-01 -1.665656119585037231e-01 2.946598827838897705e-01 2.685460448265075684e-01 1.220572143793106079e-01 5.182155966758728027e-01 2.003596536815166473e-02 -1.019768565893173218e-01 1.393274217844009399e-01 1.033484637737274170e-01 -4.430498778820037842e-01 1.275021582841873169e-01 6.752962470054626465e-01 -6.737326830625534058e-02 -5.370378494262695312e-02 -2.470448054373264313e-02
2.178925871849060059e-01 5.644074678421020508e-01 -2.899983152747154236e-02 7.879883646965026855e-01 2.630385011434555054e-02 -2.046021670103073120e-01 -1.460313200950622559e-01 1.010213196277618408e-01 -1.672081798315048218e-01 5.075324773788452148e-01 -6.676887273788452148e-01 1.308265980333089828e-02 -2.190210074186325073e-01 -1.426226496696472168e+00 1.224078387022018433e-01 -8.603313937783241272e-03 -9.763527661561965942e-02 -5.803899466991424561e-02 -5.844107866287231445e-01 -4.655232727527618408e-01 1.715324968099594116e-01 -1.972314342856407166e-02 3.683703839778900146e-01 2.281801849603652954e-01 4.629442691802978516e-01 -1.848450750112533569e-01 -5.643673241138458252e-02 9.607957303524017334e-02
3.900075796991586685e-03 1.387657374143600464e-01 -4.645727202296257019e-02 1.386244129389524460e-02 9.979980438947677612e-02 -1.456633508205413818e-01 2.058581113815307617e-01 -3.799766600131988525e-01 4.757976233959197998e-01 1.770497113466262817e-01 1.387696713209152222e-01 1.034546270966529846e-01 8.670338429510593414e-03 -1.196823120117187500e-01 -2.164077907800674438e-01 -3.967306911945343018e-01 3.205094933509826660e-01 -9.598208963871002197e-02 3.434045016765594482e-01 1.459726877510547638e-02 2.813742682337760925e-02 1.002839878201484680e-01 -3.695056959986686707e-02 2.508974671363830566e-01 -2.012302875518798828e-01 8.716377615928649902e-02 2.262129634618759155e-02 -1.315513812005519867e-02
1.182486265897750854e-01 -7.511517405509948730e-02 1.730545982718467712e-02 1.490471661090850830e-01 -7.033593207597732544e-02 -6.707093119621276855e-02 -7.562312483787536621e-02 -2.372168749570846558e-02 1.237718835473060608e-01 -9.104505181312561035e-02 -1.291034370660781860e-02 2.872939407825469971e-02 -1.092828288674354553e-01 -1.271794829517602921e-02 4.095161557197570801e-01 1.290175467729568481e-01 -5.220619961619377136e-02 -8.698020130395889282e-02 -1.075313519686460495e-02 -9.168525040149688721e-02 8.420880883932113647e-03 1.815463751554489136e-01 -1.687003523111343384e-01 -2.658260986208915710e-02 4.780931398272514343e-02 -3.341458365321159363e-02 5.956221744418144226e-02 -4.453394934535026550e-02
4.585088696330785751e-03 3.258124925196170807e-03 -1.174943638034164906e-03 -1.064137183129787445e-02 1.658269017934799194e-02 -5.291373282670974731e-02 1.206350773572921753e-01 7.013002783060073853e-02 4.945345222949981689e-02 -2.005619555711746216e-01 1.349053159356117249e-02 1.335711404681205750e-02 7.869610562920570374e-03 -2.382509969174861908e-02 6.475268304347991943e-02 -1.906303502619266510e-02 1.775764115154743195e-02 5.310548096895217896e-02 7.957142591476440430e-02 5.531635601073503494e-03 -5.538692232221364975e-03 -3.680503694340586662e-03 1.634836196899414062e-02 5.343207344412803650e-02 8.102087303996086121e-03 -3.987556789070367813e-03 3.963545896112918854e-03 1.226786873303353786e-03
5.776420608162879944e-02 5.784130841493606567e-02 -1.348868161439895630e-01 8.369407057762145996e-02 3.009141655638813972e-04 -1.846123933792114258e-01 -2.476934939622879028e-01 1.766480058431625366e-01 -1.522636264562606812e-01 1.174864545464515686e-01 -2.975879311561584473e-01 -1.308640986680984497e-01 7.002240419387817383e-02 -6.622028350830078125e-02 -3.412145748734474182e-02 1.987378448247909546e-01 -5.168673396110534668e-01 1.588237583637237549e-01 -9.141638875007629395e-02 -8.603862673044204712e-02 1.039583534002304077e-01 -2.320718318223953247e-01 -2.133374661207199097e-01 -6.081952154636383057e-02 -3.919824957847595215e-01 -7.239877432584762573e-02 -8.297041058540344238e-03 -1.356747373938560486e-02
1.136747375130653381e-01 -6.212806701660156250e-01 3.822309151291847229e-02 1.709965467453002930e-01 4.179955646395683289e-02 1.767289638519287109e-01 -3.622752130031585693e-01 6.267927885055541992e-01 -4.589635133743286133e-01 -5.126002058386802673e-02 4.997510462999343872e-03 2.270659431815147400e-02 -1.684916466474533081e-01 1.452546566724777222e-01 1.210158541798591614e-01 2.440001666545867920e-01 -7.557905279099941254e-03 1.053587533533573151e-02 3.314461708068847656e-01 -9.750619530677795410e-02 1.190366670489311218e-01 -1.194951683282852173e-01 1.374513506889343262e-01 -1.476144492626190186e-01 -8.895993977785110474e-02 5.299050360918045044e-03 -9.422947652637958527e-03 -8.577406406402587891e-03
2.709380388259887695e-01 3.410483598709106445e-01 3.069329261779785156e-01 3.625349998474121094e-01 2.773083746433258057e-01 -1.997711062431335449e-01 -8.145507425069808960e-02 2.405605837702751160e-02 5.149351060390472412e-02 4.245206117630004883e-01 4.346725717186927795e-02 2.914685197174549103e-02 2.646172940731048584e-01 -1.088065654039382935e-01 -9.735697507858276367e-02 3.574106395244598389e-01 3.450303673744201660e-01 -6.600487828254699707e-01 -1.782170087099075317e-01 6.457883119583129883e-02 1.107429862022399902e-01 1.596790105104446411e-01 -1.353318542242050171e-01 -6.997028589248657227e-01 -2.078356295824050903e-01 1.515166461467742920e-01 -3.022414166480302811e-03 -6.637309491634368896e-02
1.652736961841583252e-01 8.931484818458557129e-02 -1.067075431346893311e-01 1.263565421104431152e-01 1.796209067106246948e-02 -9.752538800239562988e-02 1.152743324637413025e-01 -1.456163227558135986e-01 -1.543517261743545532e-01 -3.406474590301513672e-01 1.281157135963439941e-01 1.254618633538484573e-03 3.460724651813507080e-02 -5.650391057133674622e-02 3.622746467590332031e-01 3.830925002694129944e-02 -2.960440889000892639e-02 2.717095613479614258e-01 -2.274570465087890625e-01 -2.580816857516765594e-02 2.890617251396179199e-01 -3.651750460267066956e-02 -1.781380474567413330e-01 3.787361830472946167e-02 -1.750381439924240112e-01 3.448623046278953552e-02 -2.921878919005393982e-02 3.610691288486123085e-03
-1.261307597160339355e-01 1.997261196374893188e-01 -2.142717689275741577e-01 6.539886444807052612e-02 5.835356563329696655e-02 -4.408585429191589355e-01 7.187895178794860840e-01 -1.389048099517822266e-01 -2.311500757932662964e-01 -7.624135911464691162e-02 -1.881235390901565552e-01 5.774886533617973328e-02 9.537743031978607178e-02 -3.973772749304771423e-02 -5.354977026581764221e-02 -2.203410267829895020e-01 -2.870120108127593994e-01 -1.659327000379562378e-01 2.703211903572082520e-01 1.951927691698074341e-02 2.706058919429779053e-01 7.499678432941436768e-02 2.436286807060241699e-01 2.174554616212844849e-01 -5.628038197755813599e-03 -6.723931431770324707e-02 1.386162787675857544e-01 3.135251253843307495e-02
8.350068703293800354e-03 -1.080251298844814301e-02 2.806642150972038507e-04 -1.236991229234263301e-04 2.571205422282218933e-02 -1.934809982776641846e-02 1.438996661454439163e-02 6.853847205638885498e-02 5.183151736855506897e-02 -6.324943155050277710e-03 -6.033592391759157181e-03 -5.018841940909624100e-03 4.262491688132286072e-02 3.542280569672584534e-02 3.394221886992454529e-02 -1.327899843454360962e-02 6.598860770463943481e-02 8.730429410934448242e-02 -3.975760564208030701e-02 1.240205368958413601e-03 9.847302734851837158e-02 -6.491483654826879501e-03 2.426472492516040802e-03 3.330691903829574585e-02 3.011774038895964622e-03 -8.579677902162075043e-03 -3.068867139518260956e-03 -5.074291038908995688e-05
3.298524394631385803e-02 5.378123745322227478e-02 3.499297425150871277e-02 1.550142746418714523e-02 6.088985130190849304e-02 5.141346529126167297e-02 1.128541007637977600e-01 -3.439463973045349121e-01 1.457827165722846985e-02 2.148189581930637360e-03 -2.742475271224975586e-02 -4.451952874660491943e-02 -4.750137217342853546e-03 1.136392056941986084e-01 6.108906269073486328e-01 1.319195926189422607e-01 8.995065838098526001e-02 -1.578983478248119354e-02 8.937177062034606934e-02 4.465878009796142578e-02 6.121337413787841797e-01 4.403981193900108337e-02 1.191368177533149719e-01 -5.577777326107025146e-02 -7.007586956024169922e-02 -4.651323892176151276e-03 4.346661642193794250e-02 3.674811869859695435e-02
1.327987462282180786e-01 4.527461528778076172e-01 2.707318216562271118e-02 2.304666303098201752e-02 7.669486403465270996e-01 2.986994944512844086e-02 -1.377962976694107056e-01 -3.925947472453117371e-02 1.613572984933853149e-01 -2.049349844455718994e-01 1.344357877969741821e-01 2.600456178188323975e-01 -2.971634864807128906e-01 2.750923633575439453e-01 1.105020865797996521e-01 -7.508476078510284424e-02 5.970332622528076172e-01 -3.401093184947967529e-01 4.244149103760719299e-02 -3.913169503211975098e-01 3.422373533248901367e-01 1.851823627948760986e-01 -1.362681686878204346e-01 5.182764530181884766e-01 -7.855870127677917480e-01 -1.894046813249588013e-01 -1.797668337821960449e-01 -5.548526048660278320e-01
4.123619794845581055e-01 5.801419261842966080e-03 3.833879530429840088e-01 -3.775718808174133301e-01 1.349036842584609985e-01 -5.464785695075988770e-01 5.146950855851173401e-02 -1.348735690116882324e-01 1.050340980291366577e-01 3.005793988704681396e-01 6.044536083936691284e-02 6.961803883314132690e-02 8.870623260736465454e-02 2.115051746368408203e-01 -7.683291286230087280e-02 -2.801844179630279541e-01 3.338500559329986572e-01 -1.064658612012863159e-01 -2.358450293540954590e-01 3.252578433603048325e-03 -2.965621948242187500e-01 -1.211229115724563599e-01 -2.051025032997131348e-01 -5.823279619216918945e-01 -2.466968744993209839e-01 4.054117202758789062e-01 -2.147353589534759521e-01 2.619225978851318359e-01
4.649146646261215210e-02 1.264987140893936157e-02 8.702663704752922058e-03 2.867813408374786377e-02 2.750887069851160049e-03 3.134742081165313721e-01 1.937696635723114014e-01 1.671964973211288452e-01 -1.931988745927810669e-01 -4.005012288689613342e-02 -1.147751063108444214e-01 5.901701515540480614e-04 -2.597915939986705780e-02 -2.674892172217369080e-02 -3.921663761138916016e-01 -1.839460730552673340e-01 -1.648760586977005005e-01 -4.967572167515754700e-02 -1.598071157932281494e-01 3.307038918137550354e-02 6.259598582983016968e-02 1.236070785671472549e-02 -8.115948736667633057e-02 9.891327936202287674e-04 1.474713068455457687e-02 8.353873156011104584e-03 1.497067045420408249e-02 1.112780184485018253e-03
2.641699742525815964e-03 -2.175612375140190125e-02 1.082433387637138367e-02 4.163840785622596741e-02 -7.590655982494354248e-02 1.144327372312545776e-01 3.913288563489913940e-02 2.516717649996280670e-02 -2.587198838591575623e-02 -4.123824834823608398e-02 2.617618255317211151e-02 7.302458584308624268e-02 8.393055759370326996e-05 1.390655618160963058e-02 -2.202657237648963928e-02 8.558680117130279541e-02 5.017771199345588684e-02 -8.261250704526901245e-02 7.620432227849960327e-02 -7.620456814765930176e-02 9.323881566524505615e-02 7.340050488710403442e-02 3.491685912013053894e-02 -4.176932871341705322e-01 -5.908088013529777527e-02 4.175193980336189270e-02 3.302124887704849243e-02 -1.885133981704711914e-02
1.101797446608543396e-02 4.156258702278137207e-02 2.269780784845352173e-01 -3.449397683143615723e-01 1.718046367168426514e-01 -1.608464121818542480e-01 3.326985239982604980e-02 6.786729395389556885e-02 -8.603484928607940674e-02 3.563972190022468567e-02 -1.918324977159500122e-01 -6.139395236968994141e-01 3.446131050586700439e-01 7.191135883331298828e-01 -2.224205285310745239e-01 4.188694059848785400e-01 -5.077243447303771973e-01 2.547203004360198975e-01 -1.494995355606079102e-01 1.185525581240653992e-01 -2.835190594196319580e-01 -1.286628544330596924e-01 -6.142527461051940918e-01 3.602461516857147217e-01 -2.183675616979598999e-01 -2.776460647583007812e-01 -2.188015878200531006e-01 -6.031823158264160156e-01
-4.852223396301269531e-02 8.476929366588592529e-02 -4.394455999135971069e-02 4.724501445889472961e-02 4.172108322381973267e-02 2.790379803627729416e-03 4.092690050601959229e-01 -7.633060216903686523e-02 9.146539866924285889e-02 -6.145658344030380249e-02 -1.604919731616973877e-01 3.093758225440979004e-02 2.210059575736522675e-02 1.203179284930229187e-01 -8.443741500377655029e-02 -1.178148388862609863e-01 5.522338300943374634e-02 1.480241864919662476e-01 -1.420421339571475983e-02 8.585439622402191162e-02 -2.720396779477596283e-02 1.979483962059020996e-01 9.305586107075214386e-03 -8.578100055456161499e-02 3.161476254463195801e-01 7.034139335155487061e-02 -4.130926355719566345e-02 3.271980211138725281e-02
1.231667771935462952e-01 1.785123497247695923e-01 2.264793217182159424e-02 -5.070774350315332413e-03 2.288957983255386353e-01 4.606687277555465698e-02 4.485169053077697754e-01 -9.179602563381195068e-02 -4.696410000324249268e-01 5.949914082884788513e-02 1.010067835450172424e-01 1.902994513511657715e-01 2.004498802125453949e-02 5.832919105887413025e-02 2.465022504329681396e-01 -2.297003567218780518e-01 -2.179388254880905151e-01 8.881385438144207001e-03 -1.936058104038238525e-01 6.605794280767440796e-02 2.257122695446014404e-01 -3.517279922962188721e-01 4.460228979587554932e-01 -7.470992952585220337e-02 -2.845341525971889496e-02 -2.228126116096973419e-02 -1.309034042060375214e-02 -7.232840172946453094e-03
1.323280204087495804e-02 1.625045761466026306e-02 3.289388865232467651e-02 -1.236454816535115242e-03 -3.957348689436912537e-02 2.388845086097717285e-01 1.265557408332824707e+00 4.603808224201202393e-01 -8.139171004295349121e-01 -1.925307065248489380e-01 -3.722786009311676025e-01 1.254502236843109131e-01 -3.196498453617095947e-01 -1.914856135845184326e-01 -7.704858779907226562e-01 1.553209125995635986e-01 1.528486758470535278e-01 -5.667534098029136658e-02 -3.309363126754760742e-01 -1.710786484181880951e-02 4.545597732067108154e-02 -4.616726562380790710e-02 7.748433202505111694e-02 -3.295642510056495667e-02 -8.414188772439956665e-02 -2.549012424424290657e-03 5.703388713300228119e-03 -2.203073119744658470e-03
-2.850049734115600586e-01 -1.357470005750656128e-01 -1.685820370912551880e-01 5.149321258068084717e-02 -4.591679945588111877e-02 2.219555228948593140e-01 1.666826754808425903e-01 -7.083038240671157837e-02 -3.060113079845905304e-02 -1.160615384578704834e-01 -2.584713883697986603e-02 2.665063552558422089e-02 -1.043884873390197754e+00 -2.060469537973403931e-01 2.946810796856880188e-02 5.785013735294342041e-02 -1.022254005074501038e-01 6.365616321563720703e-01 -1.126138120889663696e-01 -1.040921136736869812e-01 5.900545716285705566e-01 -9.630759060382843018e-02 1.034527495503425598e-01 3.964083790779113770e-01 -2.237308919429779053e-01 -2.967248670756816864e-02 1.282045152038335800e-02 7.823809236288070679e-02
-5.296907201409339905e-02 6.944066844880580902e-03 1.986998133361339569e-03 -8.316583186388015747e-02 -4.296928644180297852e-02 3.050406873226165771e-01 2.572950124740600586e-01 9.920265525579452515e-02 1.014237175695598125e-03 2.656598985195159912e-01 -1.688783429563045502e-02 -1.264990493655204773e-02 3.329297527670860291e-02 1.022978220134973526e-02 -5.355738685466349125e-04 6.332045886665582657e-03 -3.505469299852848053e-03 4.208216071128845215e-02 -1.378007698804140091e-02 -1.878115907311439514e-02 -4.028655588626861572e-02 1.208203006535768509e-02 2.255696430802345276e-02 1.077394746243953705e-02 7.998373359441757202e-02 -1.349687576293945312e-03 -6.457588635385036469e-03 1.435285783372819424e-03
1.829724013805389404e-01 -5.762713551521301270e-01 3.710668087005615234e-01 -8.510190248489379883e-02 -9.002456665039062500e-01 -2.748029232025146484e-01 2.992406301200389862e-02 -1.020790264010429382e-01 -7.233183085918426514e-02 2.274991720914840698e-01 -6.471297740936279297e-01 6.380956619977951050e-02 2.432405948638916016e-01 1.238939762115478516e+00 -3.166566789150238037e-01 -6.132511887699365616e-03 -1.541599780321121216e-01 -2.399160563945770264e-01 -1.700259596109390259e-01 6.633120775222778320e-01 5.890865623950958252e-02 -2.480630278587341309e-01 9.981779754161834717e-02 -3.221618011593818665e-02 -3.681410253047943115e-01 3.646246343851089478e-02 4.212841093540191650e-01 -3.503866493701934814e-01
2.621516585350036621e-03 -2.534431964159011841e-02 -2.125419490039348602e-02 7.210714742541313171e-03 -7.370111346244812012e-02 2.601301074028015137e-01 -1.438071429729461670e-01 4.609078541398048401e-02 2.195660024881362915e-01 5.071638226509094238e-01 -5.871370434761047363e-03 1.184599590487778187e-03 -4.566531628370285034e-02 -5.586723610758781433e-02 -1.729355193674564362e-02 -3.062462434172630310e-02 -7.385478913784027100e-02 -7.977432012557983398e-02 -6.454395502805709839e-02 -1.023762375116348267e-01 2.120853215456008911e-01 -4.012259468436241150e-02 -2.482127957046031952e-02 2.758804243057966232e-03 -5.923221260309219360e-02 5.231769755482673645e-03 9.763231500983238220e-03 8.738950826227664948e-03
2.383890934288501740e-02 3.278778120875358582e-02 -1.922363415360450745e-02 8.731860725674778223e-05 1.906635588966310024e-03 -7.057517021894454956e-02 7.065191864967346191e-02 2.151482366025447845e-02 8.376392722129821777e-02 -6.822589039802551270e-02 -1.502033136785030365e-02 3.417688980698585510e-02 9.036594070494174957e-03 -1.763724908232688904e-02 1.437127124518156052e-02 2.538235113024711609e-02 1.066356375813484192e-01 1.193709746003150940e-01 -1.555314380675554276e-02 1.226816792041063309e-02 -2.148629352450370789e-02 2.806651405990123749e-03 -1.210370585322380066e-01 3.730883076786994934e-02 2.791709899902343750e-01 3.594530047848820686e-03 3.163201967254281044e-03 -2.069712616503238678e-03
-6.524173915386199951e-02 -3.256907165050506592e-01 -4.167489707469940186e-02 -2.054045647382736206e-01 3.751401230692863464e-02 2.837525010108947754e-01 9.818528592586517334e-02 -9.525693207979202271e-02 -1.445422321557998657e-01 -1.584970653057098389e-01 -3.908398151397705078e-01 -2.269015014171600342e-01 8.657335489988327026e-02 -1.342619862407445908e-02 -7.642411440610885620e-02 1.272836029529571533e-01 -9.116345643997192383e-02 3.117720782756805420e-01 -1.512874811887741089e-01 1.504909526556730270e-02 -3.826642408967018127e-02 -2.398834675550460815e-01 1.777125597000122070e-01 4.478715360164642334e-02 -8.471773564815521240e-02 -1.021737679839134216e-01 4.968520998954772949e-02 4.960650950670242310e-02
1.199386641383171082e-01 1.153362765908241272e-01 -1.044856235384941101e-01 2.568474113941192627e-01 3.936257958412170410e-01 1.625364413484930992e-03 2.030457258224487305e-01 8.482427150011062622e-02 -4.270518720149993896e-01 2.070397324860095978e-02 1.412577182054519653e-01 -1.045770570635795593e-01 2.105307392776012421e-02 -3.092754632234573364e-02 1.878306865692138672e-01 -7.038660347461700439e-02 -1.264690160751342773e-01 2.054765075445175171e-01 1.896079182624816895e-01 -1.581891030073165894e-01 1.812911033630371094e-01 -2.642865106463432312e-02 8.135558106005191803e-03 -6.709534674882888794e-02 -2.809947431087493896e-01 -7.779840379953384399e-02 1.558342278003692627e-01 -2.567880600690841675e-02
-1.633937098085880280e-02 1.218109205365180969e-02 7.760769128799438477e-02 2.396019920706748962e-02 -5.222007259726524353e-02 -1.223852857947349548e-01 2.785294353961944580e-01 -8.621876128017902374e-03 1.870435923337936401e-01 -9.382920712232589722e-02 -1.736321300268173218e-02 2.322873659431934357e-02 -1.422289907932281494e-01 3.699805587530136108e-02 -2.932857349514961243e-02 7.878641784191131592e-02 3.523099422454833984e-01 2.991521060466766357e-01 7.394977658987045288e-02 -1.930741369724273682e-01 -3.122175931930541992e-01 -4.900424182415008545e-02 1.976011544466018677e-01 -9.491983056068420410e-02 8.227512985467910767e-02 2.208412811160087585e-02 4.818201065063476562e-03 -4.865599796175956726e-03
2.536548078060150146e-01 -1.843493580818176270e-01 3.014599680900573730e-01 4.663788974285125732e-01 1.059332415461540222e-01 3.218465149402618408e-01 -1.790558248758316040e-01 -2.142858803272247314e-01 2.162485867738723755e-01 -5.368277430534362793e-02 -3.398039638996124268e-01 -7.170297205448150635e-02 7.240295410156250000e-02 -2.898433886002749205e-04 2.817631661891937256e-01 2.155124396085739136e-01 -3.001851439476013184e-01 1.417813897132873535e-01 1.307167857885360718e-01 2.909171022474765778e-02 5.945525690913200378e-02 -1.324189156293869019e-01 2.934026718139648438e-01 4.070085659623146057e-02 -2.501196265220642090e-01 -5.711825564503669739e-02 7.855732738971710205e-02 7.908116281032562256e-02
1.609428226947784424e-01 -1.380991190671920776e-01 6.124002858996391296e-02 2.235894650220870972e-01 -1.537273228168487549e-01 -2.099093049764633179e-01 3.173337504267692566e-02 -2.859246730804443359e-01 2.322140187025070190e-01 -6.611917912960052490e-02 -1.448323428630828857e-01 -1.088649928569793701e-01 -1.889279186725616455e-01 4.360245466232299805e-01 -4.038051366806030273e-01 -5.175157785415649414e-01 6.765247583389282227e-01 3.520321547985076904e-01 1.567013114690780640e-01 -7.313188910484313965e-01 -3.230379819869995117e-01 -3.790912628173828125e-01 -2.926932834088802338e-02 -4.590289294719696045e-02 2.275619953870773315e-01 -4.889988154172897339e-02 -2.084168642759323120e-01 -4.945773258805274963e-02
-4.363065958023071289e-01 7.834779620170593262e-01 2.772740647196769714e-02 -2.518394887447357178e-01 2.467970997095108032e-01 3.849666714668273926e-01 2.379888854920864105e-02 -9.288022667169570923e-02 7.476542145013809204e-02 -2.394698262214660645e-01 6.311389803886413574e-02 4.010535478591918945e-01 -2.957675457000732422e-01 1.164700761437416077e-01 -4.259788990020751953e-02 3.045604526996612549e-01 -3.533779084682464600e-01 -1.459036618471145630e-01 4.050358235836029053e-01 -2.100668847560882568e-01 6.019290909171104431e-02 -5.249388217926025391e-01 3.471671938896179199e-01 1.850760355591773987e-02 2.940503358840942383e-01 -1.761471778154373169e-01 -2.327493391931056976e-02 -1.937259882688522339e-01
-1.270760409533977509e-02 4.617632925510406494e-01 4.620144516229629517e-02 -2.103241235017776489e-01 2.725380361080169678e-01 3.576063364744186401e-02 2.415327429771423340e-01 -2.276621758937835693e-01 2.297800183296203613e-01 -2.102351188659667969e-02 2.791078090667724609e-01 -3.609324693679809570e-01 2.813288569450378418e-02 4.129291474819183350e-01 1.670050807297229767e-02 -5.034090280532836914e-01 -5.677268505096435547e-01 6.214689016342163086e-01 1.023599505424499512e-01 -4.556017518043518066e-01 2.457704544067382812e-01 -3.491188883781433105e-01 3.592576384544372559e-01 2.819784879684448242e-01 -4.883042275905609131e-01 2.004008144140243530e-01 1.602133810520172119e-01 -2.883620560169219971e-02
3.169270604848861694e-02 6.552075594663619995e-02 4.446923360228538513e-02 -3.339408934116363525e-01 5.052728652954101562e-01 8.822491019964218140e-02 -2.173938453197479248e-01 -4.173875227570533752e-02 2.448985278606414795e-01 3.836769983172416687e-02 -8.656466752290725708e-02 -1.469621360301971436e-01 7.986021041870117188e-02 2.148516029119491577e-01 -5.810019373893737793e-01 -4.249467328190803528e-02 3.866906464099884033e-01 -1.304068863391876221e-01 9.969269037246704102e-01 -1.848605871200561523e-01 -4.233254790306091309e-01 -4.117594659328460693e-01 -4.872955679893493652e-01 -2.076470255851745605e-01 -3.637749552726745605e-01 8.372925966978073120e-02 1.132199838757514954e-01 8.465769290924072266e-01
-1.036346424371004105e-02 1.330984570086002350e-02 1.118384152650833130e-01 1.249166503548622131e-01 -1.068904176354408264e-01 2.466216087341308594e-01 1.576538681983947754e-01 2.388917375355958939e-03 -1.415826827287673950e-01 -1.690665483474731445e-01 3.383935987949371338e-01 1.313327345997095108e-02 -2.394764423370361328e-01 1.212450623512268066e+00 -1.802872717380523682e-01 6.051208451390266418e-02 -1.891423314809799194e-01 5.002600327134132385e-02 -4.407475516200065613e-02 1.954603642225265503e-01 6.730008721351623535e-01 2.872998453676700592e-02 -6.423138082027435303e-02 -7.525935024023056030e-02 1.935063116252422333e-02 -1.514279246330261230e-01 2.484443830326199532e-03 -2.434879541397094727e-01
2.872087247669696808e-02 -3.838804066181182861e-01 -1.063528209924697876e-01 -1.816583424806594849e-01 -4.933961853384971619e-02 -1.040991917252540588e-01 1.422196179628372192e-01 -7.574909925460815430e-02 3.566553294658660889e-01 -7.757844775915145874e-02 1.730098873376846313e-01 5.723908916115760803e-02 -1.277698129415512085e-01 -3.645021319389343262e-01 -1.942387372255325317e-01 -7.415145635604858398e-02 4.629051089286804199e-01 -2.401032298803329468e-02 1.960192620754241943e-01 -7.150682806968688965e-02 5.736877322196960449e-01 -9.432400465011596680e-01 -3.118107616901397705e-01 2.560736536979675293e-01 1.036122813820838928e-01 9.953025728464126587e-02 6.678731739521026611e-02 4.028511643409729004e-01
-3.535186946392059326e-01 -3.035036921501159668e-01 1.587770283222198486e-01 -1.249643862247467041e-01 -5.173379778861999512e-01 2.284217029809951782e-01 -3.100530803203582764e-02 -3.408489525318145752e-01 2.486603111028671265e-01 -4.824962019920349121e-01 -1.575431823730468750e-01 1.533469557762145996e-01 2.881675399839878082e-02 5.608375072479248047e-01 5.549807474017143250e-02 9.485848993062973022e-02 1.276758164167404175e-01 -5.648910626769065857e-02 -4.225486889481544495e-02 6.019797921180725098e-02 1.963103264570236206e-01 5.826530456542968750e-01 -3.470254540443420410e-01 6.492317318916320801e-01 2.605257034301757812e-01 -2.233954221010208130e-01 -2.363156527280807495e-01 -4.123570024967193604e-01
8.666982501745223999e-02 -5.279656499624252319e-02 -3.586548939347267151e-02 -9.556755423545837402e-03 -5.770967900753021240e-02 -1.702543497085571289e-01 3.667604625225067139e-01 -2.005989253520965576e-01 1.678181737661361694e-01 -2.635198533535003662e-01 6.504687946289777756e-03 2.016191603615880013e-03 -5.189350619912147522e-02 -1.116281896829605103e-01 1.092110481113195419e-02 -1.938663274049758911e-01 1.152762547135353088e-01 1.747654080390930176e-01 2.201079875230789185e-01 2.937906235456466675e-02 3.476465120911598206e-02 -9.843207150697708130e-02 -1.545696109533309937e-01 -1.461611539125442505e-01 -6.220860406756401062e-02 -2.515189535915851593e-02 -9.882457554340362549e-03 -2.670465270057320595e-03
3.974558115005493164e-01 1.720312237739562988e-01 -7.133968174457550049e-02 4.178031384944915771e-01 2.496334910392761230e-01 -1.696707755327224731e-01 2.837748732417821884e-03 -2.097843736410140991e-01 4.280189573764801025e-01 -2.513571381568908691e-01 1.120012775063514709e-01 1.799366176128387451e-01 -1.098215281963348389e-01 1.913221180438995361e-01 1.680959463119506836e-01 2.323148958384990692e-02 -2.063467353582382202e-01 -2.060037404298782349e-01 -4.062856137752532959e-01 -1.088331118226051331e-01 3.551502823829650879e-01 3.361127898097038269e-02 -3.032376468181610107e-01 1.835691183805465698e-01 -2.680817544460296631e-01 2.530389428138732910e-01 -3.726634681224822998e-01 1.174782961606979370e-01
-1.669154129922389984e-02 1.262790989130735397e-03 -7.745427079498767853e-03 8.649996481835842133e-03 6.468303035944700241e-03 -4.513862356543540955e-02 4.297784715890884399e-02 1.042560953646898270e-02 3.998211026191711426e-02 -4.053131863474845886e-02 -1.192376133985817432e-03 1.214701775461435318e-02 6.179042626172304153e-03 6.756137125194072723e-03 7.440600078552961349e-03 -3.765708580613136292e-02 -1.006625294685363770e-01 -1.213209889829158783e-02 1.506766676902770996e-02 3.137622727081179619e-03 -2.739739976823329926e-02 -2.657985500991344452e-02 4.309385083615779877e-03 1.820014044642448425e-02 -1.308843772858381271e-02 3.133001038804650307e-03 -8.134224452078342438e-03 3.285943064838647842e-03
2.712772190570831299e-01 -3.231004476547241211e-01 3.379665911197662354e-01 1.220393329858779907e-01 4.292497877031564713e-03 -3.168666064739227295e-01 -1.107532083988189697e-01 3.284235671162605286e-02 8.321762830018997192e-02 5.470230802893638611e-02 -1.960945427417755127e-01 1.402208507061004639e-01 4.224842190742492676e-01 5.790414661169052124e-02 3.316822052001953125e-01 -6.235924735665321350e-02 5.166459679603576660e-01 -2.384979873895645142e-01 2.043976187705993652e-01 -1.011841967701911926e-01 -8.892866969108581543e-01 -2.397795468568801880e-01 1.933347731828689575e-01 -2.545102685689926147e-02 4.596217870712280273e-01 4.335490521043539047e-03 -7.289825379848480225e-02 -1.426881253719329834e-01
-6.100315228104591370e-02 1.445997878909111023e-02 -5.688051134347915649e-02 2.549463696777820587e-02 -6.090400740504264832e-02 7.566217184066772461e-01 -4.314468204975128174e-01 2.797213941812515259e-02 3.603570461273193359e-01 3.659012168645858765e-02 -7.447259873151779175e-02 -2.022867463529109955e-02 -4.872445389628410339e-02 9.702377021312713623e-02 -8.415065705776214600e-02 1.712213084101676941e-02 -5.350485444068908691e-02 -7.163816690444946289e-02 2.552855573594570160e-02 -8.885043859481811523e-02 -3.533919528126716614e-02 -7.489252090454101562e-02 -2.786329686641693115e-01 -2.553110569715499878e-02 -2.892309427261352539e-02 1.426618732511997223e-02 6.552155595272779465e-03 -5.377795547246932983e-03
1.326499432325363159e-01 5.679759979248046875e-01 9.900672733783721924e-02 1.867721080780029297e-01 -1.010150909423828125e+00 1.318171322345733643e-01 -1.773355752229690552e-01 1.564289033412933350e-01 -1.395923495292663574e-01 -2.775576710700988770e-01 3.428309261798858643e-01 -8.799131214618682861e-02 5.860186815261840820e-01 2.110664129257202148e+00 -7.515540122985839844e-01 2.106190025806427002e-01 -2.594528496265411377e-01 -7.645849883556365967e-02 8.389554023742675781e-01 -2.364805899560451508e-02 7.855065912008285522e-02 9.323585033416748047e-01 2.125184237957000732e-01 -2.445729672908782959e-01 5.317843556404113770e-01 -5.737644433975219727e-01 -4.357874691486358643e-01 -6.310649514198303223e-01
6.672231853008270264e-02 1.498826295137405396e-01 8.055419474840164185e-02 2.970459125936031342e-02 2.052447646856307983e-01 2.354416251182556152e-01 1.068789791315793991e-02 -8.265515789389610291e-03 1.470828652381896973e-01 3.396327048540115356e-02 3.727492690086364746e-01 -2.023927569389343262e-01 4.318638443946838379e-01 -4.625545442104339600e-01 8.266158103942871094e-01 3.381981253623962402e-01 7.112361788749694824e-01 -5.240425467491149902e-01 -2.552717626094818115e-01 9.059541672468185425e-02 3.653341829776763916e-01 -1.829600781202316284e-01 -2.157146483659744263e-02 3.566438257694244385e-01 -8.160790801048278809e-02 1.188673302531242371e-01 5.171664059162139893e-02 2.414227090775966644e-02
-4.161789640784263611e-02 -2.097431719303131104e-01 2.215989530086517334e-01 5.000254139304161072e-02 6.669221818447113037e-02 -4.810606241226196289e-01 -4.387683793902397156e-02 -1.708430647850036621e-01 2.812041044235229492e-01 2.098352164030075073e-01 7.849996536970138550e-02 4.920922685414552689e-03 1.722693145275115967e-01 2.965770289301872253e-02 -1.416597962379455566e-01 -1.684659123420715332e-01 3.437584340572357178e-01 4.815623536705970764e-02 2.451908029615879059e-02 1.529667293652892113e-03 -3.682427853345870972e-02 -6.100442260503768921e-03 1.723670363426208496e-01 -3.446733206510543823e-02 5.838179588317871094e-01 1.194382235407829285e-01 -4.583305120468139648e-02 -1.387742627412080765e-02
1.473410725593566895e-01 4.107966553419828415e-03 4.675005096942186356e-03 3.461028635501861572e-02 -4.168540611863136292e-02 -2.601026594638824463e-01 -1.800053119659423828e-01 1.666413098573684692e-01 -1.033685132861137390e-01 3.842900972813367844e-03 2.327550575137138367e-02 -4.828450083732604980e-02 2.679781056940555573e-02 -1.618235372006893158e-02 2.447542697191238403e-01 -1.955471932888031006e-01 -2.852851748466491699e-01 6.629975978285074234e-03 -4.310125112533569336e-02 8.630446158349514008e-03 -2.241367250680923462e-01 -2.011470310389995575e-02 -1.663540452718734741e-01 -1.338855177164077759e-01 -9.982185810804367065e-02 -8.573137223720550537e-03 -3.068229742348194122e-02 -1.312546338886022568e-02
-1.015879735350608826e-01 -2.067581713199615479e-01 1.334622502326965332e-01 2.469503320753574371e-02 6.894517689943313599e-02 -1.706266701221466064e-01 1.599596440792083740e-01 -1.801822334527969360e-01 1.388354450464248657e-01 5.744074285030364990e-02 -4.422824457287788391e-02 -2.034009248018264771e-02 -8.921147137880325317e-02 1.987590491771697998e-01 2.846901118755340576e-02 4.812802374362945557e-01 4.799986183643341064e-01 -6.040431261062622070e-01 1.551968306303024292e-01 -1.257839500904083252e-01 -2.448083460330963135e-01 -1.069976091384887695e-01 2.909332215785980225e-01 2.805884778499603271e-01 3.050708770751953125e-01 1.416194587945938110e-01 -2.338404953479766846e-01 5.907296761870384216e-02
3.433145210146903992e-02 -1.639448553323745728e-01 -1.455688774585723877e-01 3.023877367377281189e-02 -8.338191360235214233e-02 -2.005390077829360962e-01 5.630716308951377869e-02 -1.098609939217567444e-01 -2.453855052590370178e-02 -2.075438499450683594e-01 5.466228350996971130e-03 -4.089445620775222778e-02 5.855397507548332214e-02 1.637905649840831757e-02 -1.587815582752227783e-01 4.924250766634941101e-02 1.075041517615318298e-01 3.180463016033172607e-01 1.826949268579483032e-01 3.549814224243164062e-02 -3.920065760612487793e-01 -1.548097431659698486e-01 2.644442208111286163e-02 -1.943778544664382935e-01 4.454964697360992432e-01 2.834243141114711761e-02 8.862877264618873596e-03 1.069437526166439056e-02
-6.409566849470138550e-02 3.415111685171723366e-03 -8.422309905290603638e-02 8.597360923886299133e-03 1.255334615707397461e-01 -5.081032589077949524e-02 -4.294705390930175781e-01 1.423586532473564148e-02 4.017097651958465576e-01 1.382841765880584717e-01 1.450110524892807007e-01 -9.539102762937545776e-02 6.788892298936843872e-02 -4.450746998190879822e-02 1.133360490202903748e-01 -1.423883885145187378e-01 1.141246333718299866e-01 2.894532978534698486e-01 1.941029578447341919e-01 8.818489313125610352e-02 4.721279442310333252e-01 -1.330413371324539185e-01 1.490611135959625244e-01 2.255757302045822144e-01 1.847386509180068970e-01 -3.357900679111480713e-02 1.781699247658252716e-02 -4.907880350947380066e-02
5.824533104896545410e-02 1.477627158164978027e-01 4.230028092861175537e-01 9.452554397284984589e-03 -8.297996968030929565e-02 -5.548599958419799805e-01 1.104555726051330566e-01 4.012665152549743652e-02 1.063199415802955627e-01 3.104282617568969727e-01 -8.369065821170806885e-03 3.316732347011566162e-01 3.260220587253570557e-01 6.850491166114807129e-01 -2.548529803752899170e-01 -6.873770151287317276e-03 -3.325461447238922119e-01 1.608464717864990234e-01 2.009584158658981323e-01 -1.699812114238739014e-01 5.518051385879516602e-01 9.150969237089157104e-02 3.892890363931655884e-02 -2.211162000894546509e-01 2.771383523941040039e-01 -1.611448973417282104e-01 -4.980596527457237244e-02 4.232602417469024658e-01
-3.643234074115753174e-01 4.235677123069763184e-01 3.822588175535202026e-02 7.807308435440063477e-02 -4.818626344203948975e-01 -8.463849872350692749e-02 -3.787464797496795654e-01 2.209608107805252075e-01 1.169539913535118103e-01 -2.078666090965270996e-01 -1.097721010446548462e-01 -3.449773192405700684e-01 -4.162487089633941650e-01 5.458023026585578918e-02 -1.940996646881103516e-01 5.495499074459075928e-02 2.852671146392822266e-01 -4.221854805946350098e-01 2.035506255924701691e-02 4.375351667404174805e-01 1.542877703905105591e-01 8.127964287996292114e-02 1.597221344709396362e-01 6.318680197000503540e-02 -3.354480490088462830e-02 -3.022855892777442932e-02 -7.030283808708190918e-01 -2.091457992792129517e-01
-1.464706100523471832e-02 2.522496879100799561e-02 1.307389289140701294e-01 2.899620532989501953e-01 -9.341039508581161499e-02 2.535752020776271820e-02 -2.029000818729400635e-01 2.321396172046661377e-01 -4.133021831512451172e-02 -2.053241282701492310e-01 -7.086466997861862183e-02 -2.225016355514526367e-01 2.573401033878326416e-01 -4.363010078668594360e-02 -1.778499037027359009e-01 -1.271468997001647949e-01 4.837941825389862061e-01 -2.730598673224449158e-02 -1.737945228815078735e-01 -7.383826375007629395e-02 1.761707961559295654e-01 7.928657345473766327e-03 1.909738630056381226e-01 4.924336820840835571e-02 1.405198276042938232e-01 9.344376623630523682e-02 4.928964376449584961e-02 -2.311601676046848297e-02
2.204743623733520508e-01 -9.979633241891860962e-02 -2.729810774326324463e-01 -2.618111968040466309e-01 2.193842679262161255e-01 -4.481272995471954346e-01 7.112368196249008179e-02 2.153885066509246826e-01 -4.756234288215637207e-01 1.556664705276489258e-01 7.997483760118484497e-02 2.279929667711257935e-01 1.289809197187423706e-01 -6.172204762697219849e-02 -6.191673502326011658e-02 2.842588424682617188e-01 -4.317080080509185791e-01 1.638823300600051880e-01 8.024910348467528820e-04 3.174636960029602051e-01 -4.203588962554931641e-01 -4.105622768402099609e-01 1.208873391151428223e-01 7.175436615943908691e-02 -4.364643990993499756e-01 -3.641442209482192993e-02 -1.290765702724456787e-01 -4.682139493525028229e-03
1.572883278131484985e-01 7.559818029403686523e-02 -1.204466968774795532e-01 -6.060195714235305786e-02 2.104015052318572998e-01 1.595505177974700928e-01 1.715978048741817474e-02 3.566972166299819946e-02 3.705266118049621582e-02 8.749467879533767700e-02 9.709537029266357422e-03 -7.353813946247100830e-02 -3.588047251105308533e-02 -1.187795698642730713e-01 -1.093348562717437744e-01 5.622065067291259766e-01 -3.501031994819641113e-01 -2.657846361398696899e-02 1.070026308298110962e-01 -2.757196687161922455e-02 2.875441908836364746e-01 3.238138854503631592e-01 -3.188262283802032471e-01 -1.197066344320774078e-02 -2.319568842649459839e-01 -1.096424646675586700e-02 1.540479063987731934e-01 4.915491119027137756e-02
-5.998746678233146667e-02 8.619228750467300415e-02 5.311249755322933197e-03 4.047560319304466248e-02 -6.179279088973999023e-02 -1.733008772134780884e-01 8.483238518238067627e-02 5.361645482480525970e-03 -2.866375073790550232e-02 -1.242874115705490112e-01 2.154241129755973816e-02 -3.300268203020095825e-03 -6.208251789212226868e-02 -1.672544144093990326e-02 7.575131021440029144e-03 8.638494461774826050e-02 -1.880989521741867065e-01 -3.525269627571105957e-01 -3.205027058720588684e-02 5.917128175497055054e-02 6.268589198589324951e-02 8.305493742227554321e-02 1.705693639814853668e-02 -2.630133926868438721e-01 -4.016990587115287781e-02 3.623685613274574280e-02 1.482162717729806900e-02 2.089742338284850121e-03
-3.950086236000061035e-02 -3.749095648527145386e-02 3.044719435274600983e-02 -9.537603706121444702e-02 -1.634108275175094604e-02 3.921937346458435059e-01 2.803815007209777832e-01 3.229994475841522217e-01 -2.239632755517959595e-01 3.509608563035726547e-03 1.022130250930786133e-01 -5.240311101078987122e-02 5.507418885827064514e-02 1.030908245593309402e-02 1.243345625698566437e-02 -9.915548376739025116e-03 -2.811023592948913574e-02 -1.661908924579620361e-01 -3.655399195849895477e-03 -6.086074281483888626e-03 4.966003075242042542e-02 1.208448968827724457e-02 1.540063023567199707e-01 6.273191422224044800e-02 -2.652461268007755280e-02 -1.650292612612247467e-02 -1.197167020291090012e-02 -3.215733170509338379e-02
-6.534729897975921631e-02 9.915068745613098145e-03 1.090449397452175617e-03 -3.345562517642974854e-02 7.892883382737636566e-03 -5.300058051943778992e-02 -3.858578577637672424e-02 -1.761295497417449951e-01 6.769140064716339111e-02 -1.645868718624114990e-01 -6.664509885013103485e-03 -6.421430408954620361e-02 -4.311822354793548584e-02 2.960732206702232361e-02 -1.265501230955123901e-01 3.135797334834933281e-03 -4.564656689763069153e-02 -6.560842692852020264e-02 -1.487664785236120224e-02 -1.540819462388753891e-02 -6.649922579526901245e-02 -1.952680759131908417e-02 3.939474374055862427e-02 2.562441304326057434e-02 4.785794764757156372e-03 -2.005164697766304016e-02 4.076437652111053467e-02 -5.791471339762210846e-03
-3.109251335263252258e-02 -1.535297483205795288e-01 1.375791728496551514e-01 7.400385290384292603e-02 1.492311060428619385e-01 1.894396245479583740e-01 -1.264457404613494873e-01 -7.233600318431854248e-02 -9.758109599351882935e-02 -1.765662729740142822e-01 -6.012341007590293884e-02 4.079023599624633789e-01 1.789573132991790771e-01 -2.221501432359218597e-02 -3.918932974338531494e-01 5.107231736183166504e-01 2.927304804325103760e-01 3.530827164649963379e-01 -7.634877413511276245e-02 2.417532950639724731e-01 -3.080955147743225098e-01 -1.501915603876113892e-01 -9.414833784103393555e-02 -2.976772189140319824e-01 -6.399815678596496582e-01 -7.553137838840484619e-02 -1.284341812133789062e-01 -2.287496477365493774e-01
4.234645981341600418e-03 -7.493885606527328491e-02 1.730427518486976624e-02 -1.557690054178237915e-01 -1.880902945995330811e-01 3.037080764770507812e-01 3.372316956520080566e-01 -2.006729543209075928e-01 4.600779116153717041e-01 -1.766509860754013062e-01 -1.029749289155006409e-01 2.264244714751839638e-03 -6.267292797565460205e-02 2.414768487215042114e-01 -4.344580769538879395e-01 -3.517441451549530029e-01 1.671367436647415161e-01 2.966643273830413818e-01 1.600050777196884155e-01 -2.389148809015750885e-02 -1.230225488543510437e-01 8.382906764745712280e-02 -1.773243546485900879e-01 -2.911923527717590332e-01 -5.461582913994789124e-02 -9.727276116609573364e-02 1.275049299001693726e-01 -5.499244481325149536e-02
5.342963617295026779e-03 4.804160073399543762e-02 -1.023575812578201294e-01 1.756446994841098785e-02 -5.948743782937526703e-03 2.108227312564849854e-01 -4.313567280769348145e-01 1.544794589281082153e-01 8.311422169208526611e-02 -1.583971083164215088e-01 4.377099126577377319e-02 2.131013870239257812e-01 -4.796167612075805664e-01 4.625118672847747803e-01 -2.536105178296566010e-02 4.424486756324768066e-01 -5.882185697555541992e-01 -5.111606121063232422e-01 1.649148911237716675e-01 1.851986162364482880e-02 -4.343665018677711487e-02 1.578748971223831177e-02 -1.752101480960845947e-01 3.620067983865737915e-02 -1.188563406467437744e-01 8.523415774106979370e-03 7.975833117961883545e-02 1.699996925890445709e-02
1.263841707259416580e-02 -2.136649787425994873e-01 1.645092815160751343e-01 3.833734691143035889e-01 1.527191698551177979e-01 -4.570057988166809082e-01 -3.245679438114166260e-01 -2.988544106483459473e-02 3.164915442466735840e-01 5.516155436635017395e-02 2.246912121772766113e-01 1.917436420917510986e-01 2.789121568202972412e-01 2.874982357025146484e-01 -6.275372505187988281e-01 7.028272151947021484e-01 -7.479363679885864258e-02 -6.036635488271713257e-02 5.063316822052001953e-01 4.610569775104522705e-02 5.705674290657043457e-01 -1.574269682168960571e-01 4.714766517281532288e-02 2.192962914705276489e-02 1.639571338891983032e-01 -1.487426906824111938e-01 3.278686702251434326e-01 -1.776080280542373657e-01
6.167636439204216003e-02 3.933611512184143066e-02 -1.445574406534433365e-02 3.055670484900474548e-02 4.185197874903678894e-02 -1.980874128639698029e-02 2.878480032086372375e-02 -1.118342503905296326e-01 1.131897140294313431e-02 -2.688232660293579102e-01 -7.630552351474761963e-02 3.134377300739288330e-02 2.761284075677394867e-02 -2.705562626942992210e-03 6.658295169472694397e-03 -8.389666676521301270e-02 -1.250936239957809448e-01 -1.428187936544418335e-01 -3.578065708279609680e-02 9.793339669704437256e-02 3.026920258998870850e-01 -1.426085531711578369e-01 2.231229394674301147e-01 -1.821072101593017578e-01 -1.572693288326263428e-01 -1.582420431077480316e-02 2.311232872307300568e-02 3.189689666032791138e-02
1.272591054439544678e-01 -1.454829573631286621e-01 -4.750104546546936035e-01 2.296822220087051392e-01 1.460852175951004028e-01 1.851012259721755981e-01 -3.066031038761138916e-01 9.620697796344757080e-02 -3.858408033847808838e-01 -3.961538374423980713e-01 4.426363855600357056e-02 -1.233007609844207764e-01 3.444668054580688477e-01 -4.939021170139312744e-01 -6.303458809852600098e-01 -2.921312488615512848e-02 -9.459224343299865723e-01 -5.256559252738952637e-01 -2.438186258077621460e-01 -2.368283830583095551e-02 -5.113850533962249756e-02 4.488638415932655334e-02 -6.526515632867813110e-02 9.970327466726303101e-02 -1.949307322502136230e-01 3.642438724637031555e-02 4.329714179039001465e-02 -2.901200391352176666e-02
9.516428411006927490e-02 -9.402401745319366455e-02 2.398962825536727905e-01 -2.772517502307891846e-01 1.145306468009948730e+00 4.083708673715591431e-02 -1.876747608184814453e-02 -6.431547552347183228e-02 2.387393452227115631e-02 6.965426355600357056e-02 -2.712800800800323486e-01 1.713077421300113201e-03 -5.168078839778900146e-02 9.548027068376541138e-02 2.704184353351593018e-01 -2.988046705722808838e-01 3.393017649650573730e-01 9.958458691835403442e-02 -2.265540957450866699e-01 1.041538044810295105e-01 3.392518162727355957e-01 -8.963682688772678375e-03 -2.893786728382110596e-01 -3.224155902862548828e-01 4.187969863414764404e-01 -5.169169902801513672e-01 1.226226612925529480e-02 6.301247328519821167e-02
-1.249900367110967636e-02 2.473802305757999420e-04 7.491512224078178406e-03 1.718674972653388977e-02 6.260523945093154907e-02 4.282013326883316040e-02 4.326696321368217468e-02 7.192425429821014404e-02 1.141475737094879150e-01 2.906632050871849060e-02 3.596897795796394348e-02 3.582803532481193542e-02 4.354964196681976318e-02 3.435261175036430359e-02 7.253254298120737076e-03 4.392565414309501648e-02 9.216287732124328613e-02 4.286577925086021423e-02 -4.728337225969880819e-04 -1.273124385625123978e-02 6.701330840587615967e-02 -1.201689708977937698e-02 -6.700962036848068237e-02 8.922818116843700409e-03 -2.385061932727694511e-03 -4.778326023370027542e-03 3.684356808662414551e-03 -8.647073060274124146e-03
-6.311021745204925537e-02 -1.004297509789466858e-01 3.414728492498397827e-02 5.472138151526451111e-02 -1.821870952844619751e-01 7.189252227544784546e-02 1.895509809255599976e-01 -1.788857281208038330e-01 -1.164316460490226746e-01 -2.394563406705856323e-01 -6.759333610534667969e-02 8.361265063285827637e-03 3.704074025154113770e-02 -2.811872400343418121e-02 -5.312674865126609802e-02 8.171781152486801147e-02 -1.998855471611022949e-01 1.702698320150375366e-01 4.021524637937545776e-02 5.628165975213050842e-02 1.380585134029388428e-01 2.621113322675228119e-02 -3.420580625534057617e-01 -1.353051811456680298e-01 -2.555103041231632233e-02 2.120121568441390991e-02 4.888118430972099304e-02 7.709469646215438843e-02
-1.122169345617294312e-01 2.012839466333389282e-01 1.093738079071044922e-01 -1.096571236848831177e-02 -1.626787707209587097e-02 -1.632252335548400879e-01 3.262442946434020996e-01 -3.221232891082763672e-01 1.087128221988677979e-01 -5.314050987362861633e-02 -1.257609128952026367e-01 -8.833865076303482056e-02 -1.529318243265151978e-01 -1.867898404598236084e-01 -2.730803489685058594e-01 -8.258019387722015381e-02 1.760197579860687256e-01 -1.406502425670623779e-01 -1.831710189580917358e-01 2.228191643953323364e-01 -7.443218827247619629e-01 3.428778648376464844e-01 -7.355749607086181641e-02 -8.686633110046386719e-01 5.177057385444641113e-01 -1.037418544292449951e-01 -4.947608802467584610e-03 -1.455529928207397461e-01
-6.698860973119735718e-02 1.845786161720752716e-02 -1.148264203220605850e-02 -1.086240336298942566e-01 3.391579259186983109e-03 1.207328811287879944e-01 -6.608569063246250153e-03 -2.487145550549030304e-02 -6.411441718228161335e-04 3.186854720115661621e-01 9.397442638874053955e-02 2.556644007563591003e-02 -2.752183005213737488e-02 -1.337301917374134064e-02 3.335798382759094238e-01 1.128612458705902100e-01 -3.467021137475967407e-02 -5.212115496397018433e-02 4.827598035335540771e-01 -2.712045051157474518e-02 -5.396930500864982605e-02 -1.350737642496824265e-02 2.137035597115755081e-03 2.086546830832958221e-02 -9.222941100597381592e-02 1.406326517462730408e-02 -4.641052335500717163e-03 2.993734367191791534e-02
7.296727271750569344e-04 1.291407197713851929e-01 7.085005193948745728e-02 1.336511969566345215e-01 -1.300370395183563232e-01 -1.925026923418045044e-01 2.812570631504058838e-01 -1.917097419500350952e-01 9.150499850511550903e-02 -1.050129905343055725e-02 6.339379400014877319e-02 2.086451649665832520e-01 5.334975942969322205e-02 1.673067212104797363e-01 -5.661392933689057827e-04 -6.662084721028804779e-03 3.183929622173309326e-01 -8.780425786972045898e-02 1.693311030976474285e-03 3.728757053613662720e-02 1.164321154356002808e-01 -1.983813494443893433e-01 -1.817523092031478882e-01 -1.385879069566726685e-01 1.044534966349601746e-01 -9.852348268032073975e-02 -1.066936459392309189e-02 -1.964595168828964233e-02
-1.995685324072837830e-02 -2.908579446375370026e-02 -2.849235385656356812e-02 -2.060679718852043152e-02 2.513536252081394196e-02 2.591146528720855713e-01 -1.498316135257482529e-02 -3.332010507583618164e-01 -3.083451278507709503e-02 7.498707622289657593e-02 -5.159287899732589722e-02 -1.139980778098106384e-01 -8.184568583965301514e-02 -3.536194935441017151e-02 -7.898569107055664062e-02 -3.636384606361389160e-01 -3.116794228553771973e-01 5.547477304935455322e-02 -7.628678530454635620e-02 -3.703187033534049988e-02 -1.512300819158554077e-01 -3.757309913635253906e-02 -1.881957501173019409e-01 -1.424086932092905045e-02 3.145854175090789795e-02 -1.966821262612938881e-03 -6.212669890373945236e-03 -2.238490805029869080e-02
-1.706811636686325073e-01 2.014053314924240112e-01 6.248199380934238434e-03 2.040220499038696289e-01 -2.238894104957580566e-01 1.053365990519523621e-01 -3.085166215896606445e-01 3.363930583000183105e-01 -2.862594723701477051e-01 -1.718778610229492188e-01 2.353020906448364258e-01 3.014305792748928070e-02 3.746462240815162659e-02 -1.832416653633117676e-01 4.480124637484550476e-02 2.182548046112060547e-01 3.751943707466125488e-01 -5.341874957084655762e-01 -4.588417336344718933e-02 2.728005647659301758e-01 -1.233073770999908447e-01 3.033543191850185394e-02 5.102243646979331970e-02 -3.328269422054290771e-01 1.353807896375656128e-01 5.106495320796966553e-02 -6.356592639349400997e-04 -1.020302399992942810e-01
-1.986164413392543793e-02 -9.438526816666126251e-03 -3.645678982138633728e-02 -7.444942742586135864e-02 -1.130380704998970032e-01 6.003616452217102051e-01 2.809511125087738037e-01 -1.883823871612548828e-01 -1.137966215610504150e-01 3.620956838130950928e-02 -1.226144190877676010e-02 -1.408480703830718994e-01 1.392639824189245701e-03 -3.409641096368432045e-03 -1.083301194012165070e-02 -6.402286235243082047e-03 -1.090058833360671997e-01 -9.303978644311428070e-03 -1.404970586299896240e-01 -1.553539484739303589e-01 3.923019170761108398e-01 -1.822705417871475220e-01 -2.185701131820678711e-01 1.415988057851791382e-01 1.628148108720779419e-01 -1.303482148796319962e-02 1.458365377038717270e-02 -2.252700179815292358e-02
8.905249089002609253e-02 7.254382967948913574e-02 -2.381191253662109375e-01 -2.893358096480369568e-02 -2.356605827808380127e-01 -6.429932266473770142e-02 -2.421456426382064819e-01 1.405459642410278320e-01 -1.049314662814140320e-01 4.384542405605316162e-01 -2.708748877048492432e-01 -8.795364946126937866e-02 -4.047923721373081207e-03 -4.620600491762161255e-02 9.886115789413452148e-02 1.015839725732803345e-01 -3.242504000663757324e-01 1.876532137393951416e-01 -1.645863056182861328e-01 -7.351201027631759644e-02 -2.874489426612854004e-01 -4.142932966351509094e-02 3.967385590076446533e-01 2.232230007648468018e-01 -1.584149301052093506e-01 4.645382612943649292e-02 7.784823887050151825e-03 8.832803368568420410e-02
7.118828594684600830e-02 1.125855837017297745e-02 -3.342129290103912354e-02 -1.190899536013603210e-01 -1.010038144886493683e-02 -9.101904183626174927e-02 3.026805222034454346e-01 -1.854340732097625732e-01 7.395409792661666870e-02 -1.860076785087585449e-01 1.296875774860382080e-01 -1.130149737000465393e-01 2.005295455455780029e-02 -2.441214211285114288e-02 1.585030108690261841e-01 -2.359303534030914307e-01 -8.602934330701828003e-02 1.100220456719398499e-01 6.328044086694717407e-02 1.386529300361871719e-02 7.923507690429687500e-02 5.715413484722375870e-03 -2.562221586704254150e-01 -2.315122932195663452e-01 9.339022636413574219e-02 1.069631651043891907e-01 7.759697735309600830e-02 -1.212239041924476624e-01
1.786822685971856117e-03 -3.259598510339856148e-03 -1.413666736334562302e-02 1.054271310567855835e-02 -3.212431818246841431e-02 -1.443814635276794434e-01 -1.116322446614503860e-02 -6.226968392729759216e-02 5.270088836550712585e-02 -1.301724165678024292e-01 -3.281527757644653320e-02 -1.330604124814271927e-02 -2.604374103248119354e-02 -3.322877734899520874e-02 -1.075661927461624146e-01 7.796220481395721436e-02 7.467240095138549805e-02 1.460654311813414097e-03 8.305316418409347534e-02 -1.757870055735111237e-02 3.828179463744163513e-02 1.611320115625858307e-02 -8.111834526062011719e-02 5.826471839100122452e-03 9.879794716835021973e-02 -3.303372301161289215e-03 8.900196291506290436e-03 5.241457838565111160e-03
9.641513973474502563e-02 2.747023245319724083e-03 -9.786377847194671631e-02 4.483073949813842773e-02 2.325155586004257202e-02 -3.216543495655059814e-01 2.864783257246017456e-02 -3.143335878849029541e-01 1.987954974174499512e-01 -2.188109755516052246e-01 1.388320773839950562e-01 3.515291213989257812e-01 2.415070831775665283e-01 1.290127635002136230e-02 -3.391795456409454346e-01 -1.326418202370405197e-02 -4.604867398738861084e-01 9.181998670101165771e-03 -1.548336744308471680e-01 8.175580948591232300e-02 4.426527917385101318e-01 -6.117854639887809753e-02 5.909679532051086426e-01 -1.429262310266494751e-01 -3.971690312027931213e-02 -6.458720564842224121e-02 -4.765715077519416809e-02 -2.190049923956394196e-02
-3.845092654228210449e-01 -1.125930249691009521e-01 -4.683228433132171631e-01 -3.584486991167068481e-02 -1.311442971229553223e+00 2.072696983814239502e-01 -3.802367150783538818e-01 4.745745956897735596e-01 -4.720419943332672119e-01 -1.079790890216827393e-01 8.233519792556762695e-01 -4.261659979820251465e-01 3.494421392679214478e-02 -1.401011466979980469e+00 -4.059086740016937256e-01 3.529897034168243408e-01 3.488880693912506104e-01 -6.223356127738952637e-01 -8.695871382951736450e-02 1.929707229137420654e-01 -9.337591528892517090e-01 -2.100495249032974243e-01 3.898142576217651367e-01 6.397753208875656128e-02 1.421542763710021973e-01 -3.192789619788527489e-03 -1.641943305730819702e-01 -7.252188026905059814e-02
6.631228141486644745e-03 -1.239910051226615906e-01 -3.227486507967114449e-03 -8.345387130975723267e-02 -8.081926964223384857e-03 1.098959445953369141e-01 1.950518339872360229e-01 -2.912298589944839478e-02 8.982773125171661377e-02 5.695369467139244080e-02 2.773151360452175140e-02 7.520937174558639526e-02 -1.316982507705688477e-01 3.766753673553466797e-01 7.673284411430358887e-02 8.057999610900878906e-02 -7.447782158851623535e-02 1.674708537757396698e-02 -2.289374768733978271e-01 -1.144224554300308228e-01 5.749989151954650879e-01 6.907984614372253418e-02 -9.525082260370254517e-02 -6.420848518610000610e-02 2.869907915592193604e-01 -7.973368465900421143e-02 1.657391339540481567e-01 1.221632510423660278e-01
-2.285379357635974884e-02 -3.317610919475555420e-02 -2.336975038051605225e-01 -7.374352216720581055e-02 -9.278202056884765625e-02 1.460959911346435547e-01 -1.227114815264940262e-02 -1.578307002782821655e-01 1.781174987554550171e-01 5.920698866248130798e-02 8.234218694269657135e-03 1.002996787428855896e-02 9.379666298627853394e-02 -2.605079114437103271e-01 4.104113206267356873e-02 1.652074307203292847e-01 -1.087087392807006836e-01 3.108196854591369629e-01 -1.179227232933044434e-01 3.825499489903450012e-02 1.559238880872726440e-01 2.881560660898685455e-02 -1.301358640193939209e-01 -1.672079786658287048e-02 -4.536489397287368774e-02 -2.073226496577262878e-03 2.332843467593193054e-02 1.212113350629806519e-02
-1.394080836325883865e-02 1.185231283307075500e-02 -6.297128275036811829e-03 -1.013558451086282730e-02 -5.343257635831832886e-02 -1.261293739080429077e-01 5.133264660835266113e-01 -4.581090994179248810e-03 -2.321239262819290161e-01 2.017903029918670654e-01 2.796214446425437927e-02 1.587766036391258240e-02 4.309809580445289612e-02 -5.882019549608230591e-02 1.337634325027465820e-01 -5.731523782014846802e-02 -2.836851030588150024e-02 -5.530479922890663147e-02 1.513048857450485229e-01 1.129982545971870422e-01 -2.331650704145431519e-01 -7.412278652191162109e-02 7.707162201404571533e-02 -3.703629970550537109e-02 1.199459806084632874e-01 5.010198336094617844e-03 2.716501010581851006e-03 1.142378803342580795e-02
-6.396179646253585815e-02 2.753007709980010986e-01 -3.442715108394622803e-01 -4.056501686573028564e-01 -1.661732643842697144e-01 3.206761181354522705e-01 -1.584889441728591919e-01 -1.300747692584991455e-01 -2.178984321653842926e-02 -3.641023337841033936e-01 2.085095793008804321e-01 3.887087404727935791e-01 1.338188499212265015e-01 -8.788665384054183960e-02 7.902760058641433716e-03 2.030703574419021606e-01 -1.200651824474334717e-01 1.829996891319751740e-02 3.688867688179016113e-01 8.244971185922622681e-02 3.575578331947326660e-01 1.583708524703979492e-01 2.030095085501670837e-02 -4.030140042304992676e-01 9.410826861858367920e-02 -2.687039077281951904e-01 5.605110526084899902e-02 3.746989741921424866e-02
1.151001229882240295e-01 2.963639497756958008e-01 1.966750174760818481e-01 2.312074303627014160e-01 1.788276731967926025e-01 -1.227376684546470642e-01 -9.049473702907562256e-02 7.378768175840377808e-02 -1.628696918487548828e-01 1.888039559125900269e-01 -5.049917101860046387e-02 1.103908643126487732e-01 4.158593341708183289e-02 3.499098420143127441e-01 1.292310059070587158e-01 2.663272023200988770e-01 8.594513684511184692e-02 -1.402235925197601318e-01 1.938787549734115601e-01 -1.986511945724487305e-01 -1.183221191167831421e-01 -3.586118668317794800e-02 -2.371813356876373291e-01 -2.441782653331756592e-01 -1.033129394054412842e-01 1.480174511671066284e-01 -6.886404007673263550e-02 4.173136502504348755e-02
-1.339359395205974579e-02 -6.381156295537948608e-02 3.208508249372243881e-03 5.717874318361282349e-02 2.663287147879600525e-02 -2.666066866368055344e-03 3.708910942077636719e-02 -2.040243297815322876e-01 2.236554920673370361e-01 5.241614952683448792e-02 -2.265212824568152428e-03 1.388598978519439697e-01 1.082362513989210129e-02 -5.924691632390022278e-02 -1.867715269327163696e-02 1.001302450895309448e-01 2.635027468204498291e-01 1.291135400533676147e-01 9.430688619613647461e-02 5.998200923204421997e-02 -9.458766132593154907e-02 9.886886179447174072e-02 -1.355861425399780273e-01 6.777394562959671021e-02 1.053498033434152603e-02 -9.399390779435634613e-03 -3.304549679160118103e-02 -5.198806058615446091e-03
8.263601921498775482e-03 3.150879405438899994e-03 1.185540668666362762e-02 -3.899803385138511658e-03 6.673922762274742126e-04 -1.078057512640953064e-01 -1.985450275242328644e-02 -1.761377602815628052e-01 -1.011939644813537598e-01 -6.459534168243408203e-02 8.113058283925056458e-03 -1.585005596280097961e-02 -1.979047991335391998e-02 -2.481744997203350067e-02 3.356565162539482117e-02 -3.948440402746200562e-02 4.987033084034919739e-02 6.340420991182327271e-02 1.953395083546638489e-02 -2.727859839797019958e-02 -1.356669235974550247e-03 -6.674776523141190410e-05 1.212749071419239044e-02 1.608923263847827911e-02 -6.359408609569072723e-03 -2.515835687518119812e-03 -5.924222525209188461e-03 -4.296008497476577759e-03
-5.570683479309082031e-01 -1.979003995656967163e-01 2.027407847344875336e-02 -2.549280524253845215e-01 6.348989009857177734e-01 -3.325577676296234131e-01 2.712220847606658936e-01 -3.445526212453842163e-02 -4.435837268829345703e-02 2.249185740947723389e-01 -9.513122588396072388e-02 5.560514926910400391e-01 2.256707400083541870e-01 1.412722915410995483e-01 5.231025815010070801e-01 3.269116580486297607e-01 -1.805667132139205933e-01 9.936158359050750732e-02 -9.340174496173858643e-03 -5.615568161010742188e-02 -1.578780859708786011e-01 -1.026967763900756836e-01 1.548165455460548401e-02 3.135297298431396484e-01 1.254563629627227783e-01 -2.711824476718902588e-01 -3.011994063854217529e-01 -6.853715330362319946e-02
-9.078191220760345459e-02 3.314349800348281860e-02 -2.782026827335357666e-01 1.595256328582763672e-01 3.302217423915863037e-01 2.614918351173400879e-01 -2.960336208343505859e-01 3.927238658070564270e-02 7.078747451305389404e-02 -3.477471768856048584e-01 3.033237755298614502e-01 8.616907149553298950e-02 -9.482631832361221313e-02 -3.032812774181365967e-01 -1.840789914131164551e-01 2.841750085353851318e-01 2.801118195056915283e-01 -5.929927527904510498e-02 6.800858974456787109e-01 1.487552523612976074e-01 -9.857411682605743408e-02 1.334436833858489990e-01 -3.559011518955230713e-01 2.349880039691925049e-01 -3.543769121170043945e-01 -1.795200407505035400e-01 -7.403249293565750122e-02 -1.047279834747314453e-01
5.569586157798767090e-02 4.236402511596679688e-01 4.378671646118164062e-01 -2.464100718498229980e-02 8.330397307872772217e-02 5.667103454470634460e-02 3.782830238342285156e-01 -3.931814730167388916e-01 2.219800204038619995e-01 -5.997517332434654236e-02 7.849425822496414185e-02 5.681973695755004883e-01 6.870064139366149902e-02 2.762481272220611572e-01 -1.012240815907716751e-02 9.284146428108215332e-01 9.340920299291610718e-02 5.830234661698341370e-02 1.552526652812957764e-01 -8.523179590702056885e-02 1.799187213182449341e-01 -2.007996663451194763e-02 -7.174380123615264893e-02 -3.594702109694480896e-02 6.753866374492645264e-02 1.360293328762054443e-01 -3.405872732400894165e-02 4.379567131400108337e-02
5.615780875086784363e-02 -1.467558648437261581e-02 4.900529235601425171e-02 4.981892928481101990e-02 -3.592110052704811096e-02 -5.461332574486732483e-02 6.453980505466461182e-02 3.259145468473434448e-02 3.941041603684425354e-02 -5.051831156015396118e-02 9.122269228100776672e-03 -6.014213338494300842e-02 -3.121036477386951447e-02 -1.953222788870334625e-02 3.209267556667327881e-02 5.426710122264921665e-04 1.572295874357223511e-01 1.281743496656417847e-01 6.113898381590843201e-02 2.216573059558868408e-02 -4.060558602213859558e-02 1.046776771545410156e-02 -6.731567531824111938e-02 -4.079281911253929138e-02 -7.060319930315017700e-02 1.355991140007972717e-02 -1.502145081758499146e-02 -9.257041849195957184e-03
-3.748162090778350830e-02 -2.026676572859287262e-02 3.474635630846023560e-02 5.405616830103099346e-04 -6.624927371740341187e-02 8.020155876874923706e-02 -1.462203916162252426e-02 -1.727427393198013306e-01 3.799821138381958008e-01 1.985786296427249908e-02 1.121140122413635254e-01 -2.628827234730124474e-03 2.279409207403659821e-02 2.835487015545368195e-03 8.374543488025665283e-02 1.417856067419052124e-01 5.901811122894287109e-01 2.929442226886749268e-01 -7.328531239181756973e-03 3.209824208170175552e-03 1.274896562099456787e-01 8.016477525234222412e-02 9.368773549795150757e-02 4.011318832635879517e-02 4.553648084402084351e-02 2.978637814521789551e-02 4.604555200785398483e-03 7.252920884639024734e-03
-2.615611255168914795e-01 -2.972939610481262207e-01 -4.327874183654785156e-01 4.798156619071960449e-01 -8.258726447820663452e-03 3.986677154898643494e-02 -2.319594658911228180e-02 -1.464997380971908569e-01 7.228195667266845703e-02 -7.800161093473434448e-02 -2.611590623855590820e-01 -4.338736087083816528e-02 6.579238921403884888e-02 -4.437909722328186035e-01 4.125137031078338623e-01 6.581403315067291260e-02 6.127811074256896973e-01 -1.890017390251159668e-01 3.456139564514160156e-01 3.700932562351226807e-01 -2.520372271537780762e-01 -7.842688262462615967e-02 -1.639634370803833008e-01 -5.064416211098432541e-03 3.925302922725677490e-01 1.267564594745635986e-01 -2.354099899530410767e-01 2.012351304292678833e-01
-4.445500373840332031e-01 -2.211756110191345215e-01 -1.293284446001052856e-01 -5.918983221054077148e-01 2.474343031644821167e-02 4.760714173316955566e-01 -2.737642526626586914e-01 -1.138057559728622437e-01 3.756931126117706299e-01 -2.723159790039062500e-01 -1.922930963337421417e-02 9.899955242872238159e-02 1.306937038898468018e-01 -3.376715183258056641e-01 4.521152079105377197e-01 -4.040024280548095703e-01 -4.397968649864196777e-01 -3.739893669262528419e-03 -1.672991514205932617e-01 1.008052900433540344e-01 -1.951759159564971924e-01 -2.267874330282211304e-01 4.257102310657501221e-02 -1.372343778610229492e+00 -1.735237836837768555e-01 1.492931693792343140e-01 -2.467136234045028687e-01 1.667002290487289429e-01
-3.011689484119415283e-01 -4.483810663223266602e-01 1.196006834506988525e-01 2.203814983367919922e-01 2.369697690010070801e-01 -1.695999801158905029e-01 -1.871928870677947998e-01 -4.388959333300590515e-02 3.050518035888671875e-01 -1.931588947772979736e-01 5.573621764779090881e-02 -8.566403388977050781e-02 4.781502112746238708e-02 9.438541531562805176e-02 4.033112227916717529e-01 1.588390618562698364e-01 -2.080742418766021729e-01 2.909201383590698242e-01 3.461157381534576416e-01 1.010333299636840820e-01 2.629117108881473541e-02 1.027303561568260193e-01 -3.957116901874542236e-01 -5.269980430603027344e-02 -4.731515794992446899e-02 1.513747721910476685e-01 -9.037136286497116089e-02 5.451228097081184387e-02
1.335586309432983398e-01 3.781910538673400879e-01 -1.244484633207321167e-01 -1.355034261941909790e-01 -1.890031248331069946e-02 -3.661936521530151367e-01 -1.375736594200134277e-01 -3.052579052746295929e-02 1.728545427322387695e-01 4.909626767039299011e-02 6.298771500587463379e-02 -9.245474636554718018e-02 -1.092717573046684265e-01 -7.552763819694519043e-02 -4.139944911003112793e-01 2.584291100502014160e-01 2.201077900826931000e-02 -2.068601548671722412e-03 -1.248405501246452332e-01 -1.195832490921020508e-01 4.307358562946319580e-01 -1.685404777526855469e-01 2.213045358657836914e-01 -7.047802209854125977e-02 -4.617719054222106934e-01 -2.232697606086730957e-02 -8.385686576366424561e-02 4.642941802740097046e-02
1.545770615339279175e-01 -1.819309033453464508e-02 -7.701355963945388794e-02 -1.774730384349822998e-01 -1.731294766068458557e-02 2.665678858757019043e-01 -1.181066185235977173e-01 3.305104076862335205e-01 -3.607956767082214355e-01 4.535901173949241638e-02 -7.201839238405227661e-02 -2.762700244784355164e-02 -1.142789125442504883e-01 1.280668675899505615e-01 6.830614060163497925e-02 -3.897821763530373573e-03 3.043027222156524658e-01 -2.829073071479797363e-01 -3.775464370846748352e-02 -6.579213589429855347e-02 1.196471508592367172e-02 4.257343336939811707e-02 1.190702766180038452e-01 5.925741791725158691e-02 7.920362055301666260e-03 -2.061632461845874786e-02 7.524226326495409012e-03 -2.824454335495829582e-03
5.024027824401855469e-02 -5.299941077828407288e-02 -4.069906473159790039e-01 -3.782411217689514160e-01 -2.708563506603240967e-01 -1.159634962677955627e-01 -2.081983089447021484e-01 6.165216118097305298e-02 -1.096123456954956055e-02 2.553275227546691895e-01 1.700168997049331665e-01 1.060195416212081909e-01 1.128158420324325562e-01 -5.426728166639804840e-03 -4.246363043785095215e-02 6.089281756430864334e-03 3.198041915893554688e-01 1.923834085464477539e-01 -2.255747094750404358e-02 1.479266732931137085e-01 -2.573431432247161865e-01 -8.676938712596893311e-02 3.386023044586181641e-01 -3.075184226036071777e-01 -2.656287550926208496e-01 -6.171352788805961609e-02 -1.612071990966796875e-01 4.573051631450653076e-02
-4.248107671737670898e-01 -1.127662435173988342e-01 1.430111378431320190e-01 -5.014281868934631348e-01 -1.436687409877777100e-01 -7.971840351819992065e-02 -2.386375665664672852e-01 1.182464361190795898e-01 -2.228602953255176544e-02 2.473017014563083649e-02 -2.767074853181838989e-02 1.355073451995849609e-01 -1.507934629917144775e-01 -1.178680881857872009e-01 -4.044358134269714355e-01 -8.454850316047668457e-01 2.932863235473632812e-01 -5.646468997001647949e-01 2.182437181472778320e-01 -1.756603419780731201e-01 -1.099114641547203064e-01 -1.516136229038238525e-01 -1.240620389580726624e-01 9.959037601947784424e-02 4.216096401214599609e-01 2.116764038801193237e-01 3.594983369112014771e-02 -7.973612844944000244e-02
4.262768328189849854e-01 1.601763665676116943e-01 -3.954237699508666992e-02 -9.124276041984558105e-02 -5.819047242403030396e-02 3.260605335235595703e-01 -5.070432275533676147e-02 -1.199413985013961792e-01 1.350714117288589478e-01 2.388635277748107910e-01 4.849945753812789917e-02 -2.075213789939880371e-01 -2.026550471782684326e-01 9.703027456998825073e-02 3.626653179526329041e-02 3.836826086044311523e-01 2.526232004165649414e-01 -4.374880194664001465e-01 -1.490857005119323730e-01 1.676589846611022949e-01 5.576473474502563477e-02 -2.061572223901748657e-01 9.554870426654815674e-02 1.984097659587860107e-01 -8.924911171197891235e-02 -1.375557482242584229e-01 -1.377050876617431641e-01 2.684886101633310318e-03
-1.223551258444786072e-01 -5.798889324069023132e-02 -5.469192564487457275e-02 1.289113610982894897e-01 1.565187722444534302e-01 6.029743552207946777e-01 -1.556230485439300537e-01 2.386623919010162354e-01 1.595132239162921906e-02 -4.478457868099212646e-01 9.312998503446578979e-02 -1.458014398813247681e-01 -1.319843232631683350e-01 2.304586768150329590e-01 5.542117357254028320e-02 -2.616698145866394043e-01 -2.910953462123870850e-01 -9.440803527832031250e-02 2.705280855298042297e-02 -1.612166874110698700e-02 1.812060624361038208e-01 -1.860173791646957397e-01 7.963771373033523560e-02 -2.308641327545046806e-03 -5.570937693119049072e-02 3.529490903019905090e-02 -1.841132529079914093e-02 -1.007834821939468384e-02
-4.781365767121315002e-02 1.852802373468875885e-02 3.821727633476257324e-01 -9.061349555850028992e-03 9.243528544902801514e-02 -1.483992785215377808e-01 -7.872824370861053467e-02 -1.674221754074096680e-01 -1.812714487314224243e-01 -2.219451069831848145e-01 -2.040281891822814941e-03 -1.482189744710922241e-01 -8.092228323221206665e-02 9.237059950828552246e-02 1.892189085483551025e-01 -2.347556799650192261e-01 -6.402333974838256836e-01 -2.844288647174835205e-01 2.175454944372177124e-01 2.239839173853397369e-02 4.831642284989356995e-02 4.311776533722877502e-02 5.636593699455261230e-02 -3.407360315322875977e-01 -4.811619967222213745e-02 -1.395655982196331024e-02 -7.218625396490097046e-03 -2.017519669607281685e-03
4.282834380865097046e-02 -3.667091019451618195e-03 1.308696065098047256e-02 1.609357446432113647e-02 1.277865841984748840e-02 -1.219636872410774231e-01 -7.153964042663574219e-02 1.631066203117370605e-02 -1.153645515441894531e-01 -1.061301007866859436e-01 -8.834990113973617554e-02 9.916828013956546783e-03 5.157070606946945190e-02 -8.937653899192810059e-02 -1.259502917528152466e-01 -1.668719500303268433e-01 1.895386725664138794e-01 1.697819083929061890e-01 -4.494906216859817505e-02 -8.571784943342208862e-02 1.554903984069824219e-01 -1.883904822170734406e-02 -4.705511033535003662e-01 -2.565852105617523193e-01 -1.431499272584915161e-01 -1.998320966958999634e-02 -3.940853103995323181e-02 -4.531807824969291687e-02
-1.300277281552553177e-02 3.279574513435363770e-01 3.143088892102241516e-02 6.900629401206970215e-02 3.883618116378784180e-01 -1.422126591205596924e-01 3.200021088123321533e-01 -1.137855947017669678e-01 1.630406640470027924e-02 -2.827756404876708984e-01 2.891478836536407471e-01 4.688667133450508118e-03 2.742488086223602295e-01 3.105898201465606689e-01 1.949627846479415894e-01 1.066996976733207703e-01 -1.478393226861953735e-01 -5.874780565500259399e-02 7.832498848438262939e-02 9.031601250171661377e-02 -1.155195981264114380e-01 -9.242352098226547241e-03 3.178132474422454834e-01 -7.343804836273193359e-02 2.328191399574279785e-01 6.924723833799362183e-02 4.261750727891921997e-02 -6.703327596187591553e-02
-1.293625384569168091e-01 3.896130323410034180e-01 -4.105510711669921875e-01 9.118296951055526733e-02 -1.648733913898468018e-01 -4.097071886062622070e-01 1.815914660692214966e-01 -4.440576210618019104e-02 1.114665865898132324e-01 -2.033896371722221375e-02 1.738894283771514893e-01 1.880975253880023956e-02 -2.846234738826751709e-01 -1.245546564459800720e-01 1.102258190512657166e-01 -5.840200185775756836e-02 -8.202458173036575317e-02 2.818629443645477295e-01 -4.632278904318809509e-02 2.513806819915771484e-01 -4.411599338054656982e-01 1.719113290309906006e-01 7.050517946481704712e-02 7.426377385854721069e-02 -1.590320318937301636e-01 1.256112754344940186e-01 5.235532522201538086e-01 1.109008342027664185e-01
2.588450163602828979e-02 -8.829253166913986206e-02 -8.967041224241256714e-02 -1.351246535778045654e-01 1.173105016350746155e-01 4.343235865235328674e-02 5.237653106451034546e-02 -9.845539927482604980e-02 9.629794396460056305e-03 1.974251419305801392e-01 5.366579815745353699e-02 -9.890653192996978760e-02 -1.079985033720731735e-02 -1.679399609565734863e-01 -2.345746941864490509e-02 6.371562182903289795e-02 -6.379769742488861084e-02 2.828722633421421051e-02 2.369238249957561493e-02 -8.734566718339920044e-02 -7.656727451831102371e-03 -1.178470551967620850e-01 2.235188186168670654e-01 2.977382838726043701e-01 1.226913630962371826e-01 -1.265416443347930908e-01 9.827880188822746277e-03 -8.007645606994628906e-02
-3.310790285468101501e-02 2.711484208703041077e-03 1.811793260276317596e-02 -1.202303171157836914e-02 1.868800260126590729e-02 6.656961888074874878e-02 9.819131344556808472e-02 2.973503246903419495e-02 -3.412595018744468689e-02 3.509374335408210754e-02 -1.532998401671648026e-02 -6.164502352476119995e-03 1.814196584746241570e-03 -3.060624003410339355e-02 6.402528285980224609e-02 -1.565504223108291626e-01 -2.806361317634582520e-01 -1.205774471163749695e-01 -1.068510580807924271e-02 -2.603397145867347717e-02 1.917219487950205803e-03 3.019981272518634796e-02 1.316479966044425964e-02 -3.590833023190498352e-02 2.366305515170097351e-02 4.175568930804729462e-03 -4.620560444891452789e-03 9.856454096734523773e-03
-2.405969053506851196e-01 1.524078100919723511e-01 -9.369747340679168701e-02 -5.391199514269828796e-02 5.256903916597366333e-02 -2.231829054653644562e-02 3.371606171131134033e-01 -1.373930871486663818e-01 -1.838598549365997314e-01 -5.424128770828247070e-01 -1.559117734432220459e-01 -1.818200647830963135e-01 1.549043208360671997e-01 -2.850674092769622803e-01 -1.235846057534217834e-01 2.315844781696796417e-02 3.374544382095336914e-01 -5.148003995418548584e-02 -7.955113053321838379e-02 5.134619399905204773e-02 2.897853255271911621e-01 1.811421811580657959e-01 5.756615996360778809e-01 -1.802705824375152588e-01 -4.331985712051391602e-01 3.289058059453964233e-02 4.374253749847412109e-02 -3.303318517282605171e-03
-3.333248943090438843e-02 -8.520077913999557495e-02 -1.441430002450942993e-01 -5.523920431733131409e-02 -1.442264914512634277e-01 -3.652191534638404846e-02 -1.549329012632369995e-01 1.633646786212921143e-01 -3.217808436602354050e-03 9.368167817592620850e-02 3.793145716190338135e-02 2.918104231357574463e-01 -1.072190143167972565e-02 -1.166561841964721680e-01 -2.794761061668395996e-01 5.039915069937705994e-02 2.901586890220642090e-01 1.686021983623504639e-01 2.456447482109069824e-01 -2.633663453161716461e-02 -2.693478763103485107e-01 -3.432012721896171570e-02 3.460490331053733826e-02 -8.432504534721374512e-02 -1.809966713190078735e-01 8.875706233084201813e-03 1.645029783248901367e-01 -8.799655362963676453e-03
-1.330473423004150391e-01 -6.524301320314407349e-02 -1.035169661045074463e-01 -1.171684078872203827e-02 -1.007666885852813721e-01 2.929125726222991943e-01 4.088088572025299072e-01 -4.021126925945281982e-01 2.678470313549041748e-01 9.967750310897827148e-02 -1.144672650843858719e-02 -5.830558016896247864e-03 1.833402551710605621e-02 -1.258676201105117798e-01 3.572067022323608398e-01 -2.088147774338722229e-02 3.980717360973358154e-01 5.019697546958923340e-01 -2.790226638317108154e-01 5.983649939298629761e-02 -5.571852326393127441e-01 3.947278484702110291e-03 -1.150312647223472595e-01 -1.506472006440162659e-02 1.316762119531631470e-01 -1.688233576714992523e-02 5.596092902123928070e-03 -3.995474055409431458e-02
1.775590889155864716e-02 -1.727652922272682190e-02 3.466387093067169189e-02 1.438908558338880539e-02 9.139974415302276611e-02 2.476240694522857666e-01 -1.879395395517349243e-01 8.482002466917037964e-02 3.660768270492553711e-02 1.573683321475982666e-01 -1.960658282041549683e-02 1.767185633070766926e-03 -2.986619062721729279e-02 3.530617058277130127e-02 -2.719489336013793945e-01 -1.459751874208450317e-01 -2.207218110561370850e-01 -7.346092909574508667e-02 -6.568246334791183472e-02 -1.521001011133193970e-02 4.107693210244178772e-02 1.076817885041236877e-02 6.969610601663589478e-02 1.342188417911529541e-01 3.148623108863830566e-01 5.400399677455425262e-04 1.345418393611907959e-02 -5.451002623885869980e-03
5.422291532158851624e-02 1.287613660097122192e-01 3.496808558702468872e-02 4.376512020826339722e-02 -9.894620627164840698e-03 -7.532334327697753906e-02 -1.780389994382858276e-01 -1.007820367813110352e-01 3.419740200042724609e-01 -2.373631596565246582e-01 2.876122593879699707e-01 -1.107928827404975891e-01 1.018988341093063354e-01 3.925387561321258545e-02 1.744661778211593628e-01 8.982302248477935791e-02 -9.221218526363372803e-02 -7.610793411731719971e-02 -1.514705717563629150e-01 -7.091122120618820190e-02 1.059814095497131348e-01 -1.110909804701805115e-01 -1.728534400463104248e-01 -5.813282355666160583e-02 -1.089052204042673111e-02 -7.027609739452600479e-03 8.664483577013015747e-02 -5.659128655679523945e-04
-4.126675426959991455e-01 2.040491998195648193e-01 -1.565971784293651581e-02 -1.414499580860137939e-01 -2.300097346305847168e-01 4.126406610012054443e-01 7.217714190483093262e-02 5.121976137161254883e-02 3.215471282601356506e-02 -4.405522048473358154e-01 2.010590732097625732e-01 1.464156508445739746e-01 -1.101880706846714020e-02 -2.418276518583297729e-01 -1.063757613301277161e-01 3.631954640150070190e-02 2.190398275852203369e-01 -3.486555516719818115e-01 1.288169175386428833e-01 1.346010863780975342e-01 3.465391695499420166e-01 1.060578450560569763e-01 -8.231856673955917358e-02 -5.532711148262023926e-01 -3.929003477096557617e-01 -1.446004211902618408e-01 6.943388283252716064e-02 -5.361410975456237793e-02
-4.006316512823104858e-02 -7.191020995378494263e-02 1.157796382904052734e-02 -2.191284671425819397e-02 -1.694161444902420044e-01 2.135447412729263306e-01 -2.966182827949523926e-01 2.371378093957901001e-01 4.909803345799446106e-02 -6.877158302813768387e-04 5.111566558480262756e-02 4.789391905069351196e-02 -4.548107832670211792e-02 -1.693748123943805695e-02 1.673184484243392944e-01 5.347288399934768677e-02 -2.126922011375427246e-01 -1.330344676971435547e-01 4.504339769482612610e-02 1.448050048202276230e-02 1.855149716138839722e-01 -6.801169365644454956e-02 1.982753723859786987e-01 2.101945690810680389e-02 -1.598759181797504425e-02 -1.902376674115657806e-02 4.067704826593399048e-02 -1.860679872334003448e-02
-5.598659440875053406e-02 -4.588869810104370117e-01 4.874987602233886719e-01 1.501097530126571655e-01 -2.647124528884887695e-01 2.458369135856628418e-01 -1.242660209536552429e-01 2.908733859658241272e-02 -7.000191509723663330e-02 -2.536990940570831299e-01 -2.769554257392883301e-01 1.569903194904327393e-01 -1.060073524713516235e-01 7.925643585622310638e-03 2.742036059498786926e-02 6.691359877586364746e-01 -1.026424542069435120e-01 -4.815414249897003174e-01 5.961630940437316895e-01 2.183137536048889160e-01 3.618377447128295898e-01 3.388292789459228516e-01 -1.953548640012741089e-01 -5.622138381004333496e-01 -8.663035184144973755e-02 -1.240394040942192078e-01 -3.398583829402923584e-01 -5.775030329823493958e-02
5.185524746775627136e-02 3.235416859388351440e-02 -1.227510496973991394e-01 9.471704810857772827e-02 -1.951292604207992554e-01 8.335527032613754272e-02 -1.730077564716339111e-01 -1.624945364892482758e-02 1.257097423076629639e-01 -2.655588276684284210e-02 -7.256560027599334717e-02 -8.669313788414001465e-02 -5.261083692312240601e-02 -2.193226516246795654e-01 8.710105717182159424e-02 8.957415120676159859e-04 -2.403691858053207397e-01 1.258611232042312622e-01 2.770734019577503204e-02 4.981903359293937683e-02 -1.142046153545379639e-01 -3.467924520373344421e-02 1.872875392436981201e-01 -2.167830802500247955e-02 -2.194616794586181641e-01 2.571581117808818817e-02 -1.284244004637002945e-03 -2.313139662146568298e-02
-3.960944712162017822e-01 -6.707565486431121826e-02 -1.063967868685722351e-01 -1.784301549196243286e-01 1.440192162990570068e-01 2.419421374797821045e-01 -2.087733708322048187e-02 -1.615765318274497986e-02 6.197636947035789490e-02 -3.218134641647338867e-01 6.139439940452575684e-01 1.097534075379371643e-01 -2.205751687288284302e-01 2.365297675132751465e-01 1.054923608899116516e-01 5.624622106552124023e-01 -3.778912425041198730e-01 3.471907079219818115e-01 1.939458101987838745e-01 2.817884087562561035e-02 6.473511457443237305e-02 6.840079426765441895e-01 -8.512882143259048462e-02 1.374233514070510864e-01 4.584333300590515137e-01 -2.607820630073547363e-01 -1.288725435733795166e-02 1.411108020693063736e-02
-1.906612962484359741e-01 -4.225906431674957275e-01 8.406069874763488770e-02 -1.396575719118118286e-01 1.354513019323348999e-01 1.591979712247848511e-01 1.391448974609375000e-01 1.230315864086151123e-01 -2.250485271215438843e-01 1.148261576890945435e-01 -2.849082648754119873e-02 3.348313644528388977e-02 -3.935547918081283569e-02 -2.568391561508178711e-01 1.333521753549575806e-01 3.373549086973071098e-03 -2.756199836730957031e-01 -8.819588273763656616e-02 -1.987786293029785156e-01 2.684239447116851807e-01 6.857211142778396606e-02 -3.605247735977172852e-01 -6.772588491439819336e-01 3.996903300285339355e-01 2.585442066192626953e-01 -1.636059954762458801e-02 -1.073892191052436829e-01 -1.624877750873565674e-01
-2.163789719343185425e-01 -8.659003674983978271e-02 -1.271193921566009521e-01 1.078400239348411560e-01 -1.669736653566360474e-01 2.334010973572731018e-02 -2.104773372411727905e-01 1.173179745674133301e-01 9.114611893892288208e-02 -1.018138676881790161e-01 -2.426658570766448975e-01 1.312942653894424438e-01 2.226421087980270386e-01 -2.065258026123046875e-01 1.377412825822830200e-01 4.134079515933990479e-01 -4.553632438182830811e-01 1.258103996515274048e-01 -2.186186164617538452e-01 2.570382058620452881e-01 2.349661141633987427e-01 -4.188203811645507812e-02 3.150437027215957642e-02 4.322177171707153320e-01 -4.137347936630249023e-01 1.277389191091060638e-02 -1.548788249492645264e-01 8.160440623760223389e-02
-3.263015151023864746e-01 3.644802868366241455e-01 2.433550804853439331e-01 -7.691376656293869019e-02 -1.837513446807861328e-01 -3.728195428848266602e-01 -4.453269243240356445e-01 3.242552876472473145e-01 -1.497013717889785767e-01 2.165409773588180542e-01 -2.461523115634918213e-01 2.842600643634796143e-01 4.375841915607452393e-01 -7.746864110231399536e-02 6.757329404354095459e-02 1.946855038404464722e-01 -7.669611573219299316e-01 5.498233437538146973e-01 2.884733676910400391e-01 2.306995093822479248e-01 -3.027967214584350586e-01 -1.038939714431762695e+00 2.314084023237228394e-01 9.365735203027725220e-02 -3.274441361427307129e-01 4.057121872901916504e-01 2.257899791002273560e-01 -2.999379336833953857e-01
-6.269444227218627930e-01 4.283964261412620544e-02 -8.900486677885055542e-02 -1.071701105684041977e-02 -7.202100157737731934e-01 2.008833289146423340e-01 8.305935561656951904e-02 -7.808331400156021118e-02 9.899502247571945190e-02 -2.093944549560546875e-01 -5.444748327136039734e-02 -1.403293013572692871e-01 -2.975527644157409668e-01 -4.851948320865631104e-01 -2.244119197130203247e-01 5.219174176454544067e-02 6.047707796096801758e-02 -6.753503344953060150e-03 4.570224508643150330e-02 1.207513213157653809e-01 5.441119670867919922e-01 -7.622351646423339844e-01 -1.202497929334640503e-01 8.121816813945770264e-02 -4.849919676780700684e-01 -9.580954909324645996e-02 1.754443943500518799e-01 1.056552529335021973e-01
-1.279252618551254272e-01 -1.882546767592430115e-02 4.029837250709533691e-02 -2.130168490111827850e-02 -1.976341195404529572e-02 1.994540989398956299e-01 1.495832670480012894e-02 5.566498264670372009e-02 -8.869174867868423462e-02 1.555772274732589722e-01 1.205730736255645752e-01 -1.415829062461853027e-01 -6.191948056221008301e-02 -5.539079662412405014e-03 -2.221786184236407280e-03 1.286432296037673950e-01 6.823430955410003662e-02 1.094252616167068481e-01 -5.876200795173645020e-01 -1.752789132297039032e-02 -1.777558177709579468e-01 5.549275130033493042e-02 -5.738129839301109314e-02 2.107723988592624664e-02 -9.209419488906860352e-01 8.206094615161418915e-03 2.093187347054481506e-02 4.594084993004798889e-02
-3.563507646322250366e-02 -1.160473972558975220e-01 -2.274778112769126892e-02 -2.317542582750320435e-02 -1.230664923787117004e-01 3.176432102918624878e-02 5.820024609565734863e-01 -3.117550909519195557e-01 7.145071774721145630e-02 1.867516338825225830e-01 1.671656072139739990e-01 -4.134361166507005692e-03 1.246513798832893372e-01 2.640518732368946075e-02 9.109589457511901855e-02 2.048063725233078003e-01 3.849443495273590088e-01 2.806928157806396484e-01 -1.042221412062644958e-01 -4.900103807449340820e-02 8.898420259356498718e-03 -8.360719308257102966e-03 1.692941039800643921e-01 3.038471639156341553e-01 2.661148831248283386e-02 -4.429313167929649353e-02 -3.341386094689369202e-02 -1.007622852921485901e-01
1.395209226757287979e-02 1.267185900360345840e-02 4.844262264668941498e-03 7.084541767835617065e-02 -7.460997998714447021e-02 3.021131157875061035e-01 -5.869060158729553223e-01 -1.387043893337249756e-01 5.830497145652770996e-01 4.994503036141395569e-02 -5.212465673685073853e-02 5.027577280998229980e-02 -3.599188104271888733e-02 -8.239911496639251709e-02 -3.139049932360649109e-02 8.844159543514251709e-02 1.563859358429908752e-02 -3.834187984466552734e-02 -5.998191609978675842e-02 -1.203482449054718018e-01 2.299225452588871121e-04 -1.991928927600383759e-02 1.627818793058395386e-01 -1.208385173231363297e-02 -4.236561432480812073e-02 -5.189147591590881348e-02 1.825251244008541107e-02 -3.586225584149360657e-02
-2.796925976872444153e-02 3.215247765183448792e-02 -3.677063807845115662e-02 -2.613810356706380844e-03 6.952579319477081299e-02 -2.018671035766601562e-01 6.355275511741638184e-01 1.415967494249343872e-01 -4.593648016452789307e-01 2.189893834292888641e-02 1.628287434577941895e-01 2.235597521066665649e-01 1.087434440851211548e-01 -1.884114928543567657e-02 3.949290812015533447e-01 8.071616291999816895e-01 7.542827725410461426e-01 1.776043921709060669e-01 2.476096525788307190e-02 -5.003200843930244446e-02 1.935537755489349365e-01 1.293726544827222824e-02 5.050898343324661255e-02 2.301768213510513306e-02 4.733610525727272034e-02 3.557324782013893127e-02 7.115081418305635452e-03 -4.030047915875911713e-03
-2.188930660486221313e-02 8.185742050409317017e-02 8.845977485179901123e-02 -3.971625992562621832e-04 4.078483581542968750e-02 -1.417245119810104370e-01 -3.509409129619598389e-01 -5.619681440293788910e-03 2.757268957793712616e-02 1.010601297020912170e-01 -2.974607609212398529e-02 -5.702149122953414917e-02 -1.435563433915376663e-02 -6.331908702850341797e-02 -9.703840315341949463e-02 4.919691756367683411e-02 1.163613498210906982e-01 2.298342585563659668e-01 1.413633674383163452e-01 2.265773899853229523e-02 -1.405767649412155151e-01 4.141413047909736633e-02 -1.294499635696411133e-01 1.510601639747619629e-01 6.762786954641342163e-02 -3.864160552620887756e-02 1.034328714013099670e-02 1.061918865889310837e-02
-1.787486523389816284e-01 -2.663650214672088623e-01 2.468670159578323364e-01 1.525579988956451416e-01 -5.827462673187255859e-02 -3.828234970569610596e-01 1.754102259874343872e-01 3.951722756028175354e-03 -7.920765876770019531e-02 2.294047325849533081e-01 -2.089377045631408691e-01 -2.156621515750885010e-01 7.440316840074956417e-04 -1.567421257495880127e-01 -1.260926723480224609e-01 -2.707585096359252930e-01 -4.566049575805664062e-01 3.649679422378540039e-01 1.080213338136672974e-01 -2.384413965046405792e-02 -2.210448086261749268e-01 -2.726044356822967529e-01 2.988609969615936279e-01 -2.927915751934051514e-01 2.167092263698577881e-01 1.275991089642047882e-02 -3.494936600327491760e-02 -9.127088822424411774e-03
-8.293849416077136993e-03 -2.630837634205818176e-02 -1.868207752704620361e-02 9.317273646593093872e-02 1.475691348314285278e-01 -1.132661029696464539e-01 9.047717601060867310e-02 -5.996113643050193787e-02 3.624008223414421082e-02 2.606867849826812744e-01 -2.401738017797470093e-01 9.469749033451080322e-02 1.410456150770187378e-01 -5.559519678354263306e-02 -3.085598051548004150e-01 -2.906231284141540527e-01 -2.182513922452926636e-01 -3.296507894992828369e-02 -9.973594546318054199e-02 5.347423255443572998e-02 -7.488775998353958130e-02 2.383285462856292725e-01 -1.241089552640914917e-01 1.265127956867218018e-01 -2.713972330093383789e-01 1.150804832577705383e-01 -9.404204785823822021e-02 -4.675440490245819092e-02
-1.557787358760833740e-01 2.472220063209533691e-01 6.652700155973434448e-02 -4.948701560497283936e-01 2.086548805236816406e-01 -4.548146426677703857e-01 -4.521748125553131104e-01 1.023464351892471313e-01 1.760689169168472290e-01 7.371633052825927734e-01 -1.040662601590156555e-01 -2.880229651927947998e-01 -4.245884716510772705e-02 -1.999502927064895630e-01 4.985787570476531982e-01 -2.409552335739135742e-01 4.079754352569580078e-01 3.032558411359786987e-02 -1.403708904981613159e-01 2.217248640954494476e-02 4.563537240028381348e-01 2.180016636848449707e-01 1.770078204572200775e-02 7.767485082149505615e-02 -1.293868422508239746e-01 -3.067973069846630096e-02 -3.759860694408416748e-01 -2.135979086160659790e-01
-3.343544006347656250e-01 -1.791590154170989990e-01 1.648107469081878662e-01 1.325063556432723999e-01 -1.423515915870666504e+00 6.337407231330871582e-01 -5.728569030761718750e-01 1.173622012138366699e-01 -2.407017350196838379e-01 -3.290735483169555664e-01 6.776980310678482056e-02 -1.718072593212127686e-01 -3.923360109329223633e-01 -4.228391647338867188e-01 -2.842851877212524414e-01 6.005854606628417969e-01 1.933017373085021973e-01 -5.357304215431213379e-01 -1.183165833353996277e-01 2.045815289020538330e-01 -6.264084577560424805e-01 -1.534668207168579102e-01 1.132345795631408691e-01 -5.074101686477661133e-01 -1.264585647732019424e-02 -2.262916117906570435e-01 -5.131232738494873047e-01 1.429515779018402100e-01
3.709468990564346313e-02 -8.256027847528457642e-02 1.858976632356643677e-01 1.440917998552322388e-01 -3.816681504249572754e-01 -2.533501684665679932e-01 -3.389880061149597168e-01 8.159368485212326050e-02 -2.252364456653594971e-01 2.219332009553909302e-01 1.546471863985061646e-01 -1.006199941039085388e-01 -2.119308859109878540e-01 -2.122869789600372314e-01 4.710354804992675781e-01 -9.761498868465423584e-02 2.082754522562026978e-01 -1.473511606454849243e-01 6.366813089698553085e-03 -1.497113406658172607e-01 2.471204847097396851e-01 6.510089635848999023e-01 -9.480598568916320801e-02 -2.472060322761535645e-01 4.255202412605285645e-02 1.300208419561386108e-01 4.760224819183349609e-01 4.118320643901824951e-01
-2.802897989749908447e-01 -2.713210582733154297e-01 3.448561429977416992e-01 -8.808287233114242554e-02 -6.157159339636564255e-03 2.268689870834350586e-01 -2.627195417881011963e-02 2.379627823829650879e-01 -2.487086057662963867e-01 -4.377511739730834961e-01 -3.191038668155670166e-01 3.230594992637634277e-01 -2.001508623361587524e-01 -5.404762029647827148e-01 6.206212639808654785e-01 -1.541470140218734741e-01 -1.729281395673751831e-01 8.327738195657730103e-02 1.516941487789154053e-01 1.744861900806427002e-01 8.260849714279174805e-01 -6.133426725864410400e-02 -3.496961891651153564e-01 -1.608062721788883209e-02 1.352740377187728882e-01 -4.883640408515930176e-01 -3.864456117153167725e-01 1.317630261182785034e-01
5.890159308910369873e-02 -1.769279316067695618e-02 -3.685928285121917725e-01 1.034504994750022888e-01 3.235296010971069336e-01 3.426146507263183594e-01 1.962737739086151123e-02 -2.019470334053039551e-01 4.065593481063842773e-01 3.295613825321197510e-02 7.877773046493530273e-02 5.684616789221763611e-02 1.169358044862747192e-01 4.772533476352691650e-01 -3.590778261423110962e-02 3.805011510848999023e-01 3.078954108059406281e-02 4.462730288505554199e-01 2.913019061088562012e-01 2.445694357156753540e-01 5.500560998916625977e-01 -1.267913132905960083e-01 -5.364080071449279785e-01 -3.543768823146820068e-01 -1.029952615499496460e-01 -1.354576498270034790e-01 3.782555758953094482e-01 1.629842072725296021e-02
-1.844812929630279541e-01 4.797070622444152832e-01 -3.318830579519271851e-02 4.716600775718688965e-01 -2.577957153320312500e+00 -6.254296898841857910e-01 -2.161871455609798431e-02 7.515373826026916504e-02 1.202925946563482285e-02 6.797816157341003418e-01 -6.646351218223571777e-01 2.433462068438529968e-02 -1.117245256900787354e-01 -5.346636176109313965e-01 -5.222354531288146973e-01 3.740173876285552979e-01 -6.150902062654495239e-02 -5.098590850830078125e-01 -6.343815922737121582e-01 1.918069720268249512e-01 -2.585819959640502930e-01 -2.937700450420379639e-01 2.418130934238433838e-01 1.756047010421752930e-01 1.616105288267135620e-01 1.386220753192901611e-01 7.754432410001754761e-02 6.218505501747131348e-01
1.316498816013336182e-01 5.976252630352973938e-02 7.548055797815322876e-02 -9.764561802148818970e-02 6.573912501335144043e-02 -3.750956431031227112e-02 -1.981166899204254150e-01 1.126389876008033752e-01 6.550155580043792725e-02 2.092249244451522827e-01 3.792328014969825745e-02 1.753823012113571167e-01 -6.546568125486373901e-02 -7.503728568553924561e-02 -8.370702713727951050e-02 3.588701784610748291e-01 -2.228831797838211060e-01 -8.382317423820495605e-02 -7.299534976482391357e-02 4.432085528969764709e-02 2.819144427776336670e-01 -1.574693769216537476e-01 8.406001329421997070e-02 3.120732605457305908e-01 -3.266915977001190186e-01 -7.553714513778686523e-02 6.855597253888845444e-03 8.109849691390991211e-02
-1.791862547397613525e-01 1.991860121488571167e-01 -2.169276028871536255e-01 -1.637856289744377136e-02 2.899964749813079834e-01 2.440809011459350586e-01 -5.233385562896728516e-01 1.310497820377349854e-01 -1.980597823858261108e-01 -2.525551021099090576e-01 1.794236153364181519e-01 -1.446533668786287308e-02 -6.344838999211788177e-03 2.188804000616073608e-01 5.594867095351219177e-02 -1.019939035177230835e-01 -2.921317815780639648e-01 -1.361164301633834839e-01 5.259874090552330017e-02 1.056323945522308350e-01 1.944415718317031860e-01 9.591623395681381226e-02 -1.499058585613965988e-02 2.261719703674316406e-01 -7.225666940212249756e-02 2.364425733685493469e-02 -5.050977319478988647e-02 7.566878944635391235e-02
