-2.518295347690582275e-01
1.646611571311950684e+00
4.680749475955963135e-01
1.275451779365539551e+00
1.082658648490905762e+00
1.136989712715148926e+00
-5.181705951690673828e-01
6.652692556381225586e-01
-3.660969063639640808e-02
9.359567761421203613e-01
4.087330818176269531e+00
3.934290707111358643e-01
1.451092362403869629e+00
2.200667142868041992e+00
2.482505083084106445e+00
1.019381880760192871e+00
1.824398756027221680e+00
1.448996305465698242e+00
2.696457505226135254e-01
4.744784355163574219e+00
1.118590474128723145e+00
9.987632632255554199e-01
5.668711662292480469e-01
1.508477091789245605e+00
1.143941655755043030e-01
7.140092253684997559e-01
1.154538154602050781e+00
2.211851119995117188e+00
2.746305084228515625e+01
6.877051591873168945e-01
1.176072716712951660e+00
7.202568054199218750e-01
-1.422269493341445923e-01
2.065447121858596802e-01
1.832617163658142090e+00
2.534037828445434570e+00
5.596444010734558105e-02
-5.555129796266555786e-02
-7.558134198188781738e-02
7.407405376434326172e-01
2.094894647598266602e+00
9.650801420211791992e-01
1.851028561592102051e+00
8.124237060546875000e-01
-2.379854172468185425e-01
1.173249006271362305e+00
8.469696640968322754e-01
2.130403995513916016e+00
1.423340439796447754e+00
2.809742927551269531e+00
4.565421044826507568e-01
1.749571800231933594e+01
1.491535425186157227e+00
1.345442533493041992e+00
2.135765790939331055e+00
2.277041196823120117e+00
2.867827892303466797e+00
2.058969306945800781e+01
1.986720848083496094e+01
6.598293185234069824e-01
5.015365481376647949e-01
2.368274211883544922e+00
1.221286416053771973e+00
1.128421187400817871e+00
-2.927968204021453857e-01
4.790510516613721848e-03
1.626396417617797852e+00
1.029555439949035645e+00
2.654849290847778320e+00
1.531929373741149902e+00
1.099495768547058105e+00
2.502889633178710938e-01
1.291666746139526367e+00
1.006117761135101318e-01
2.679228782653808594e+01
1.164154410362243652e+00
-2.832634747028350830e-01
8.744242787361145020e-01
7.747477293014526367e-01
7.773970961570739746e-01
1.378688812255859375e+00
2.048184585571289062e+01
2.836736142635345459e-01
2.246704101562500000e+00
5.783222198486328125e+00
1.320251584053039551e+00
1.178334355354309082e+00
-4.193043708801269531e-02
1.224287390708923340e+00
1.356632590293884277e+00
7.567994296550750732e-02
1.082481741905212402e+00
1.738264799118041992e+00
3.106575965881347656e+00
1.340158939361572266e+00
2.069468259811401367e+00
1.180372834205627441e+00
1.390195846557617188e+00
1.368587493896484375e+00
1.386277079582214355e+00
1.549114227294921875e+00
4.242212295532226562e+00
1.491908192634582520e+00
2.874029636383056641e+00
2.762526750564575195e+00
2.533703804016113281e+01
-5.609202980995178223e-01
8.287352323532104492e-01
3.988534212112426758e+00
2.779320478439331055e+00
1.442095279693603516e+00
1.277650475502014160e+00
2.361542701721191406e+00
-1.604933440685272217e-01
1.163874387741088867e+00
5.788639783859252930e-01
6.162204220890998840e-02
1.342512965202331543e+00
1.588911414146423340e+00
-3.571352362632751465e-01
4.082075595855712891e+00
1.069484114646911621e+00
2.160802125930786133e+00
9.599890112876892090e-01
1.803890019655227661e-01
1.386955976486206055e+00
-3.174452111124992371e-02
1.800656127929687500e+01
2.078387975692749023e+00
1.090197801589965820e+00
3.253489017486572266e+00
1.260463476181030273e+00
1.493499398231506348e+00
1.153715848922729492e+00
-1.476963888853788376e-02
-5.674964785575866699e-01
1.141852021217346191e+00
2.991404533386230469e+00
1.701441287994384766e+00
2.655369341373443604e-01
2.081276321411132812e+01
5.394383668899536133e-01
1.521824955940246582e+00
-1.261341571807861328e-01
6.887192726135253906e-01
7.233314514160156250e-01
-8.476825058460235596e-02
2.456280589103698730e-01
5.484453439712524414e-01
2.087397336959838867e+00
-2.026585578918457031e+01
1.189089536666870117e+00
3.541581332683563232e-01
1.239242315292358398e+00
1.340798139572143555e+00
-1.885300254821777344e+01
1.229841828346252441e+00
1.293332099914550781e+00
-3.963786602020263672e+00
1.154899597167968750e+00
6.957379579544067383e-01
2.847749739885330200e-02
1.383977413177490234e+00
-9.700949668884277344e+00
1.077045321464538574e+00
8.925930857658386230e-01
1.251032590866088867e+00
4.952765703201293945e-01
-1.034087181091308594e+01
2.483870275318622589e-02
9.565215110778808594e-01
-1.006034374237060547e+01
1.050507903099060059e+00
-1.874487757682800293e+00
1.192207932472229004e+00
8.903175592422485352e-01
1.520802855491638184e+00
1.120122909545898438e+00
-1.005859661102294922e+01
-1.918206453323364258e+00
1.319948911666870117e+00
-1.149453926086425781e+01
-5.130957603454589844e+00
-4.279873967170715332e-01
1.042401552200317383e+00
1.452783584594726562e+00
-1.320180702209472656e+01
-8.767581939697265625e+00
-2.431044006347656250e+01
1.284455776214599609e+00
-1.041737461090087891e+01
1.163628220558166504e+00
1.189470529556274414e+00
1.211367011070251465e+00
-3.073548793792724609e+00
1.284992575645446777e+00
-9.041372537612915039e-01
-1.396928691864013672e+01
1.185160160064697266e+00
1.224486351013183594e+00
9.652505815029144287e-02
1.357195258140563965e+00
1.289937376976013184e+00
1.043809771537780762e+00
1.216036558151245117e+00
-2.562014961242675781e+01
-1.562433052062988281e+01
-2.103701233863830566e-01
-8.095935821533203125e+00
-1.682307052612304688e+01
-1.510013937950134277e+00
1.029731392860412598e+00
1.174566864967346191e+00
6.526441574096679688e-01
-2.750384092330932617e+00
-2.932430982589721680e+00
-1.755375480651855469e+01
1.232297539710998535e+00
1.249209046363830566e+00
-9.842551231384277344e+00
1.346698880195617676e+00
-3.245871305465698242e+00
1.092008829116821289e+00
4.519394338130950928e-01
-2.031891822814941406e+01
-2.065070420503616333e-01
-1.257357954978942871e+00
1.216151714324951172e+00
5.992555022239685059e-01
1.451579928398132324e+00
-1.680821609497070312e+01
-9.470604896545410156e+00
-3.717963397502899170e-02
1.206213116645812988e+00
1.271169304847717285e+00
-1.606794929504394531e+01
8.250264525413513184e-01
-2.303908109664916992e+00
3.019134700298309326e-01
8.290558457374572754e-01
-4.752292335033416748e-01
-8.036106109619140625e+00
1.433238267898559570e+00
6.217661499977111816e-01
8.453452587127685547e-01
1.398220777511596680e+00
5.613721609115600586e-01
1.327973961830139160e+00
3.238749131560325623e-02
5.296968817710876465e-01
-1.662197411060333252e-01
-9.756235122680664062e+00
4.933659136295318604e-01
-9.753166198730468750e+00
-9.510153770446777344e+00
-1.758017539978027344e+01
6.940376013517379761e-02
1.004938364028930664e+00
-2.302073860168457031e+01
1.199402451515197754e+00
8.292604088783264160e-01
8.187115788459777832e-01
1.153290271759033203e+00
-2.040944695472717285e-01
-2.212676286697387695e+00
-1.550001859664916992e+00
-3.581336736679077148e+00
1.361875653266906738e+00
-2.008595168590545654e-01
7.594376802444458008e-01
-1.050830078125000000e+01
4.247526228427886963e-01
-9.821773529052734375e+00
5.359071493148803711e-01
-5.101185441017150879e-01
-1.168615531921386719e+01
-2.418529701232910156e+01
-4.160367846488952637e-01
-2.204656791687011719e+01
3.125970438122749329e-02
9.026941061019897461e-01
1.344246149063110352e+00
9.528649449348449707e-01
1.386444211006164551e+00
-1.785276830196380615e-01
1.445039868354797363e+00
1.261224150657653809e+00
1.004559397697448730e+00
9.453830718994140625e-01
-6.082030534744262695e-01
-1.213773250579833984e+01
1.157296061515808105e+00
1.213247656822204590e+00
4.988677203655242920e-01
-6.986227512359619141e+00
-2.279365921020507812e+01
9.957264065742492676e-01
-1.131206870079040527e+00
-5.503127574920654297e-01
-2.564757108688354492e+00
3.161109542846679688e+01
-2.329578161239624023e+00
-1.179766464233398438e+01
-1.585145950317382812e+00
-1.192146658897399902e+00
7.752007961273193359e+00
6.411801338195800781e+00
4.178066253662109375e-01
2.629230690002441406e+01
-2.822886705398559570e-01
2.896526828408241272e-02
-3.825671195983886719e+00
-2.145071506500244141e+00
1.987791180610656738e+00
-1.335696816444396973e+00
4.497992515563964844e+00
2.050312042236328125e+00
2.787910938262939453e+00
-8.957392692565917969e+00
-4.652117490768432617e-01
1.982195973396301270e+00
1.606296658515930176e+00
1.371118426322937012e+00
-4.158128738403320312e+00
1.910564899444580078e+00
7.712738990783691406e+00
-2.184263229370117188e+00
-1.462531924247741699e+00
1.548552662134170532e-01
-1.117245292663574219e+01
2.006707429885864258e+00
6.602631211280822754e-01
-2.485107231140136719e+01
-4.277066707611083984e+00
3.575823783874511719e+00
-1.187642455101013184e+00
2.031688499450683594e+01
2.882581329345703125e+01
-2.560859870910644531e+01
2.048585414886474609e+00
1.635817885398864746e+00
-4.188316822052001953e+00
1.346696972846984863e+00
-2.460827112197875977e+00
2.150448226928710938e+01
1.549481153488159180e+00
-4.854928970336914062e+00
-1.772414565086364746e+00
-1.066218242049217224e-01
-4.960861504077911377e-01
1.503757858276367188e+01
-1.236719936132431030e-01
-3.302579641342163086e+00
7.623167037963867188e-01
-2.337880373001098633e+00
2.891454935073852539e+00
-2.574558734893798828e+00
-2.215416878461837769e-01
2.605873392894864082e-03
-1.865988922119140625e+01
1.483424758911132812e+01
-1.508758902549743652e+00
3.037154912948608398e+00
2.819380044937133789e+00
-2.819938659667968750e+01
-2.778845596313476562e+01
-1.701407909393310547e+00
3.999680519104003906e+00
-1.399337768554687500e+00
1.680660605430603027e+00
1.720721483230590820e+00
-1.444253730773925781e+01
1.916444063186645508e+00
-1.656496047973632812e+01
-5.422507226467132568e-02
-3.160584926605224609e+00
3.754954147338867188e+01
-2.515821695327758789e+00
6.364931464195251465e-01
-2.832293987274169922e+00
1.838119149208068848e+00
2.485129833221435547e-01
1.055005168914794922e+01
-8.470943570137023926e-01
-7.023128271102905273e-01
-4.280598163604736328e+00
-4.406351566314697266e+00
2.243252754211425781e+01
1.267138957977294922e+00
2.591183185577392578e+00
1.829946327209472656e+01
-9.347732543945312500e+00
6.523317098617553711e-01
-1.494596242904663086e+00
2.672679901123046875e+00
1.712679743766784668e+00
-2.137506484985351562e+00
1.712719082832336426e+00
1.441104221343994141e+01
2.256038904190063477e+00
7.420723915100097656e+00
-2.615999937057495117e+00
-2.383092403411865234e+00
-1.958948373794555664e+00
-2.873390436172485352e+00
-3.944867476820945740e-02
-1.454357337951660156e+01
5.342185020446777344e+00
2.064934015274047852e+00
-7.952078580856323242e-01
7.120846509933471680e-01
1.291857123374938965e+00
4.001278877258300781e-01
1.775037956237792969e+01
-7.239053726196289062e+00
-8.283283233642578125e+00
1.463292026519775391e+01
-1.444303274154663086e+00
7.084905505180358887e-01
-1.328268527984619141e+01
7.234177589416503906e-01
2.515556097030639648e+00
1.775360852479934692e-01
9.862211227416992188e+00
1.289172172546386719e+01
-4.678694248199462891e+00
1.652442932128906250e+01
2.695491351187229156e-02
7.125034928321838379e-01
7.234769344329833984e+00
-7.524843811988830566e-01
-3.169064760208129883e+00
2.438311576843261719e+00
2.209905862808227539e+00
1.949139022827148438e+01
1.289741992950439453e+01
-2.148952245712280273e+00
5.819721817970275879e-01
-2.606941461563110352e-01
7.614976882934570312e+00
4.174933433532714844e-01
2.110062837600708008e+00
1.682109475135803223e+00
-2.150630569458007812e+01
-8.834807395935058594e+00
1.119631290435791016e+01
5.677507400512695312e+00
-1.438149642944335938e+01
1.053486919403076172e+01
-1.395226955413818359e+00
