-7.843963056802749634e-02
-2.876160666346549988e-02
3.993032500147819519e-02
-3.053102269768714905e-02
-5.323888763086870313e-05
-6.130569055676460266e-02
5.288348346948623657e-02
-3.359594941139221191e-02
-3.073020139709115028e-03
2.786744199693202972e-02
1.902489364147186279e-02
3.281728364527225494e-03
-2.118470706045627594e-02
2.422780357301235199e-02
6.750944256782531738e-02
1.077536400407552719e-02
-2.183060534298419952e-02
7.418482005596160889e-02
-2.628187276422977448e-02
3.443741239607334137e-03
3.282411769032478333e-02
2.557297050952911377e-02
-1.897737756371498108e-02
-5.454246699810028076e-02
-1.841716282069683075e-02
2.705525839701294899e-03
-2.599915117025375366e-02
7.356177666224539280e-04
2.471989682817365974e-05
-5.212410166859626770e-02
-8.517407812178134918e-03
2.603861689567565918e-02
-5.181526392698287964e-02
4.561955854296684265e-02
-2.840343303978443146e-02
2.124265953898429871e-02
2.386821061372756958e-02
1.601759716868400574e-02
-5.438939854502677917e-02
1.017043460160493851e-02
4.489554837346076965e-02
-9.369143098592758179e-02
-1.746464148163795471e-02
1.649959571659564972e-02
-3.561869636178016663e-02
-9.150652214884757996e-03
8.179124444723129272e-02
9.220903739333152771e-03
8.749697590246796608e-04
5.063985474407672882e-03
6.845782976597547531e-03
-4.899569103145040572e-05
-1.370082888752222061e-02
1.688486896455287933e-02
2.700643800199031830e-02
-2.659707143902778625e-02
-5.543747544288635254e-02
3.153910074615851045e-05
-1.530006738903466612e-05
7.124485075473785400e-02
1.708900928497314453e-01
-1.699382090009748936e-03
2.933989046141505241e-03
3.923466056585311890e-02
-5.779844149947166443e-02
1.982104033231735229e-02
2.401626110076904297e-02
-5.187448486685752869e-02
4.330329131335020065e-03
1.240824535489082336e-02
1.784784835763275623e-03
-5.202327668666839600e-02
-3.777364268898963928e-02
-5.434719845652580261e-03
3.748460585484281182e-05
-5.656192451715469360e-02
4.653951898217201233e-02
3.632409963756799698e-03
2.482886426150798798e-03
-3.859975561499595642e-02
-2.044587209820747375e-02
3.494591146591119468e-05
5.405209213495254517e-02
1.921622641384601593e-02
-5.186884663999080658e-03
1.279218960553407669e-02
-4.462100192904472351e-02
-6.075396388769149780e-02
-2.676694467663764954e-02
-5.721471831202507019e-02
-2.566387318074703217e-02
3.129214420914649963e-02
-1.149168331176042557e-02
-8.071348071098327637e-03
2.038451284170150757e-02
-9.224005043506622314e-03
-9.875356405973434448e-02
4.676325991749763489e-02
-2.247717045247554779e-02
-3.111905045807361603e-02
-5.966708809137344360e-02
1.799361431039869785e-03
7.490210235118865967e-02
5.857438314706087112e-03
-1.812150701880455017e-02
1.846279337769374251e-05
4.228632897138595581e-03
-3.583917394280433655e-02
-9.597109747119247913e-04
-2.716437727212905884e-02
-1.658818498253822327e-02
-2.112664654850959778e-02
-1.157129090279340744e-02
3.349968791007995605e-02
1.419099047780036926e-03
-8.123584091663360596e-02
-8.784350752830505371e-02
-9.971688501536846161e-03
-1.824690401554107666e-02
-4.243675246834754944e-02
-2.773685613647103310e-03
2.967001684010028839e-02
-1.839061826467514038e-02
7.475775480270385742e-02
-5.516369640827178955e-02
-3.792309015989303589e-02
-1.027182340621948242e-01
-6.269494770094752312e-05
-8.072068914771080017e-03
-2.483520843088626862e-02
5.568655906245112419e-04
-6.455440074205398560e-02
6.719395518302917480e-02
-2.971247211098670959e-02
2.998752333223819733e-02
-5.331247299909591675e-02
-3.040486015379428864e-02
-2.487338706851005554e-02
-4.296773113310337067e-03
-1.655526906251907349e-01
4.598922168952412903e-05
-3.115339763462543488e-02
1.626482792198657990e-02
-1.000601276755332947e-01
3.112210892140865326e-02
-6.339663267135620117e-02
-6.806257367134094238e-02
1.549742370843887329e-02
-1.013426184654235840e-01
-1.579012535512447357e-02
4.191206608084030449e-05
5.308730155229568481e-02
7.048835046589374542e-03
3.344144299626350403e-02
-4.367927031125873327e-04
-4.833698403672315180e-05
8.383526653051376343e-02
-3.028362058103084564e-02
1.084515359252691269e-02
5.578544363379478455e-02
-3.727074339985847473e-02
1.344518270343542099e-02
-1.922555151395499706e-03
-6.302307610894786194e-06
1.623590290546417236e-02
4.563660826534032822e-03
-2.852812409400939941e-02
-5.109883472323417664e-02
2.503146788512822241e-05
-4.842138849198818207e-03
1.231316290795803070e-02
-5.710577534046024084e-05
2.891176007688045502e-02
-1.449929270893335342e-02
4.004466906189918518e-02
2.846100367605686188e-02
2.728187851607799530e-02
5.153233930468559265e-02
-8.773125045991037041e-06
3.417065367102622986e-03
1.357786729931831360e-02
-2.448917621222790331e-05
1.681656017899513245e-02
3.032832778990268707e-02
-4.046768695116043091e-02
9.680425748229026794e-03
-1.834434369811788201e-04
-7.849113171687349677e-05
-5.032933131587924436e-06
5.147450789809226990e-02
4.219324182486161590e-05
-2.704166807234287262e-02
-1.750518195331096649e-02
1.266951579600572586e-02
-2.925721462815999985e-03
6.329321116209030151e-02
4.609624855220317841e-03
1.583669109095353633e-05
-2.087364159524440765e-02
3.902048617601394653e-02
1.635094406083226204e-03
5.091898888349533081e-02
-1.343259122222661972e-02
4.934503883123397827e-02
4.458072409033775330e-02
-3.273984839324839413e-05
-7.309899956453591585e-05
-4.122064448893070221e-03
2.585665788501501083e-04
3.862597804982215166e-05
5.006898660212755203e-03
1.141684968024492264e-02
8.825586177408695221e-03
-8.516415022313594818e-03
1.745039038360118866e-02
-8.045393624342978001e-04
3.998806641902774572e-05
-2.262861840426921844e-02
6.739396601915359497e-03
-9.563973435433581471e-06
5.404899269342422485e-02
7.920512929558753967e-03
-9.794106008484959602e-04
-8.351814746856689453e-02
1.042065850924700499e-04
5.609390791505575180e-03
2.240719087421894073e-02
2.987356297671794891e-02
-1.439317781478166580e-02
3.449920192360877991e-02
1.060532304109074175e-05
-6.252835009945556521e-05
-1.385279092937707901e-02
3.990308195352554321e-02
-4.274210706353187561e-02
-4.529928628471679986e-05
-2.881351672112941742e-02
-9.272363036870956421e-03
9.094819426536560059e-03
3.944147378206253052e-02
2.324719913303852081e-02
9.813385986490175128e-05
4.753737151622772217e-02
1.018018741160631180e-02
2.155035967007279396e-03
-7.360412180423736572e-02
3.176567703485488892e-02
-1.052619963884353638e-01
-1.865231059491634369e-02
5.762232840061187744e-02
4.240306559950113297e-03
-2.890018913603853434e-05
-1.981799490749835968e-02
1.299398281844332814e-04
6.874911377963144332e-07
-3.284520789748057723e-05
-3.639229014515876770e-02
1.326860301196575165e-02
3.981636109529063106e-05
2.290095761418342590e-02
-3.306420892477035522e-02
-2.247559372335672379e-03
1.726547442376613617e-02
-4.912065342068672180e-03
-1.234411355108022690e-02
-2.698688767850399017e-03
3.790561575442552567e-03
-2.707156725227832794e-02
-3.302745753899216652e-03
-2.097532525658607483e-02
3.803339859587140381e-05
9.266160428524017334e-03
-2.787217636068817228e-05
4.179350286722183228e-02
-7.087219040840864182e-03
4.630339681170880795e-04
9.028094791574403644e-05
-2.080119960010051727e-02
5.697663436876609921e-05
4.063853994011878967e-02
5.349155049771070480e-03
2.172319963574409485e-02
7.105863839387893677e-02
3.409798070788383484e-02
1.061492227017879486e-02
3.044194541871547699e-02
-4.083497077226638794e-02
-6.282050162553787231e-03
-4.462517797946929932e-03
-3.853389248251914978e-02
-2.001752873184159398e-04
2.169353514909744263e-02
4.906238988041877747e-03
-1.459134928882122040e-02
1.036016503348946571e-03
2.623079853947274387e-05
3.009783849120140076e-02
5.639905575662851334e-03
-1.145266648381948471e-02
5.644034594297409058e-03
-8.487312123179435730e-03
5.657341331243515015e-02
-1.903241500258445740e-02
4.275652766227722168e-02
-9.749492630362510681e-03
-4.629282653331756592e-02
2.909533679485321045e-03
5.118437856435775757e-02
1.749819703400135040e-02
3.029847517609596252e-03
-5.204256251454353333e-02
-5.825443193316459656e-02
-8.055154234170913696e-03
7.244887761771678925e-03
5.436436831951141357e-02
9.023479185998439789e-03
6.785571575164794922e-02
-1.619167029857635498e-01
-5.550515651702880859e-02
-9.373646229505538940e-02
3.197284415364265442e-02
-8.337662369012832642e-02
5.883795209228992462e-03
1.116578727960586548e-01
-1.339209377765655518e-01
2.090864628553390503e-02
3.892288729548454285e-02
1.313502788543701172e-01
4.056039080023765564e-02
4.167862981557846069e-02
4.183424264192581177e-02
6.905900686979293823e-02
-1.297457981854677200e-02
-8.017759025096893311e-02
6.203383952379226685e-02
7.031095027923583984e-02
4.852223210036754608e-03
4.856559913605451584e-03
-1.607525534927845001e-02
4.019113630056381226e-02
3.784208372235298157e-02
-4.839523881673812866e-02
-2.841390669345855713e-02
5.370361614041030407e-04
4.590764176100492477e-03
-6.856495141983032227e-02
-7.117541879415512085e-02
-1.307180225849151611e-01
1.287529021501541138e-01
-2.468094415962696075e-02
-3.016899898648262024e-02
-7.736422121524810791e-02
-1.072549819946289062e-02
9.108097106218338013e-02
4.286919161677360535e-02
-1.294006854295730591e-01
-7.458992302417755127e-02
4.060262069106101990e-02
2.335629798471927643e-02
-1.524085644632577896e-02
-7.136861234903335571e-02
8.175818622112274170e-02
8.801118284463882446e-02
3.236186457797884941e-03
1.960741588845849037e-03
-1.596497930586338043e-02
-4.700846597552299500e-02
-1.341765373945236206e-02
2.015297859907150269e-02
-4.864147678017616272e-02
3.560496121644973755e-02
-2.852891385555267334e-02
-8.515545725822448730e-02
-1.831218972802162170e-02
-3.279779478907585144e-02
8.711880445480346680e-02
3.748034685850143433e-02
-5.354272946715354919e-02
2.882176078855991364e-02
-5.688486993312835693e-02
1.438358612358570099e-02
-1.085177063941955566e-03
1.606985554099082947e-02
2.249542810022830963e-02
-1.244398672133684158e-02
3.343096002936363220e-02
1.928698085248470306e-02
-1.155672036111354828e-02
2.105155587196350098e-02
-1.269010454416275024e-01
1.927392673678696156e-03
9.628591127693653107e-03
-2.343191765248775482e-02
1.480592694133520126e-02
3.219708427786827087e-02
-3.188372030854225159e-02
4.460186883807182312e-02
-6.812082976102828979e-02
-6.766262650489807129e-02
-8.055560290813446045e-02
-1.755166240036487579e-02
-1.285955458879470825e-01
3.967399534303694963e-04
-3.047238290309906006e-01
6.588659435510635376e-02
1.256597228348255157e-02
6.372972391545772552e-03
-2.481622248888015747e-02
-1.165691018104553223e-02
-3.843419998884201050e-02
-7.418455928564071655e-02
5.413265526294708252e-02
-5.388432648032903671e-03
4.739454016089439392e-03
-3.523875027894973755e-03
3.234670311212539673e-02
-9.372969157993793488e-03
-1.213097013533115387e-02
6.364294141530990601e-02
5.135297030210494995e-02
7.948347181081771851e-02
7.088019698858261108e-02
-1.267889589071273804e-01
-3.523872047662734985e-02
-3.741521853953599930e-03
1.289019882678985596e-01
1.152516435831785202e-02
-6.615288555622100830e-02
5.935929343104362488e-02
-5.179421976208686829e-02
-1.470391754992306232e-03
-4.557904228568077087e-02
1.288934201002120972e-01
7.092992216348648071e-02
5.977863911539316177e-03
-8.211805485188961029e-03
5.662391707301139832e-02
-8.138604462146759033e-02
-1.172218099236488342e-02
-8.506717276759445667e-04
-1.441359221935272217e-01
4.506386071443557739e-02
4.381435737013816833e-02
-1.352427806705236435e-02
-5.446519702672958374e-02
-8.206222206354141235e-02
-4.419339075684547424e-02
-8.495446294546127319e-02
-7.411033660173416138e-02
-4.997211042791604996e-03
