8.944333195686340332e-01 1.163155734539031982e-01 2.679602801799774170e-02 1.463368833065032959e-01 3.915588259696960449e-01 7.460561394691467285e-02 -3.456949293613433838e-01 5.403009429574012756e-02 -1.353724449872970581e-01 -2.302897572517395020e-01 -4.579845815896987915e-03 3.452080767601728439e-03 5.110492706298828125e-01 -1.626637764275074005e-02 5.193090438842773438e-01 -1.441498696804046631e-01 1.852893270552158356e-02 9.256814955733716488e-04 1.625425927340984344e-02 2.765221055597066879e-03 -2.988100796937942505e-02 1.763683110475540161e-01 8.265735954046249390e-02 -5.980107001960277557e-03 1.244840770959854126e-02 -2.643855102360248566e-02 -1.543845683336257935e-01 1.206796020269393921e-01 -2.998783811926841736e-02 6.739055365324020386e-02 -2.223209589719772339e-01 -6.120821833610534668e-02 3.807880580425262451e-01 -1.707302406430244446e-02 7.096596807241439819e-02 1.914059370756149292e-01 -7.003489136695861816e-02 4.241895675659179688e-02 -5.136115476489067078e-02 2.795331776142120361e-01 1.116224937140941620e-02 3.044495126232504845e-03 -8.282309174537658691e-01 2.346203662455081940e-02 5.648057442158460617e-03 1.186428189277648926e+00 -5.858480334281921387e-01 -1.311526633799076080e-02 3.836632966995239258e-01 -2.699397271499037743e-03 1.486344262957572937e-02 -1.306524965912103653e-02 3.630083426833152771e-02 2.179432287812232971e-02 2.532694488763809204e-02 2.005266398191452026e-02 -6.011332385241985321e-03 -1.020031422376632690e-01 1.454218626022338867e-01 1.288299560546875000e+00 2.196598052978515625e-01 1.241368651390075684e+00 1.770681410562247038e-04 1.793939828872680664e+00
5.180801823735237122e-02 2.399172633886337280e-02 4.859621450304985046e-02 -3.031234815716743469e-02 -1.400626748800277710e-01 7.485004141926765442e-03 5.010028183460235596e-02 9.107453376054763794e-02 2.034653127193450928e-01 4.990192875266075134e-02 -2.862046658992767334e-02 8.769384585320949554e-03 3.347933292388916016e-02 -6.291454434394836426e-01 1.581430248916149139e-02 7.887788414955139160e-01 6.473317276686429977e-03 -5.432335287332534790e-02 -4.329380691051483154e-01 6.679943203926086426e-02 -3.686444833874702454e-02 2.078661508858203888e-02 6.627447437494993210e-03 -1.274656690657138824e-02 1.614117622375488281e-02 2.733490429818630219e-02 1.431594509631395340e-02 8.852792531251907349e-02 1.127838157117366791e-02 1.967393010854721069e-01 6.552036106586456299e-02 2.321070879697799683e-01 7.224750518798828125e-02 2.141126990318298340e-02 5.433878302574157715e-02 1.363968849182128906e-01 1.806261134333908558e-03 -7.501289248466491699e-03 -4.279744252562522888e-02 -1.257500611245632172e-02 4.535887762904167175e-02 3.898194432258605957e-01 -5.834470316767692566e-02 2.213490894064307213e-03 1.054714694619178772e-01 -1.606743969023227692e-02 -2.347258105874061584e-02 -4.369995556771755219e-03 -1.461962759494781494e-01 -1.490115225315093994e-01 3.994954228401184082e-01 -2.105926275253295898e-01 3.986829146742820740e-02 -9.588557295501232147e-03 4.595872014760971069e-03 -3.587022721767425537e-01 1.034016627818346024e-02 -4.829810261726379395e-01 9.032540768384933472e-02 -4.912204667925834656e-02 5.846775695681571960e-02 -3.086622655391693115e-01 -2.561994455754756927e-02 7.277011126279830933e-02
-3.656134903430938721e-01 -4.063072428107261658e-02 -3.984042443335056305e-03 -9.933666139841079712e-02 1.393197059631347656e+00 6.600760668516159058e-02 5.097592249512672424e-02 -4.623308405280113220e-02 -9.350076317787170410e-01 -2.185031399130821228e-02 -1.042087674140930176e-01 -2.813692204654216766e-02 -2.825958654284477234e-02 -8.027888089418411255e-02 1.110731959342956543e+00 5.844106078147888184e-01 5.683226585388183594e-01 -1.989571750164031982e-02 2.511241473257541656e-02 -1.521354764699935913e-01 -1.305147707462310791e-01 1.698426494840532541e-04 4.900797829031944275e-02 1.870474778115749359e-02 5.554347764700651169e-03 -1.291121691465377808e-01 9.766198694705963135e-03 1.846191734075546265e-01 3.731581149622797966e-03 -3.861349448561668396e-02 1.064123287796974182e-01 -3.759166002273559570e-01 4.730648100376129150e-01 5.273145437240600586e-02 -1.540164798498153687e-01 9.233537316322326660e-02 1.567626371979713440e-02 3.219920396804809570e-02 7.164370268583297729e-02 3.299263864755630493e-02 -8.064146339893341064e-02 -4.230672419071197510e-01 4.555208384990692139e-01 -1.468691080808639526e-01 4.972098767757415771e-02 7.022265344858169556e-02 8.855918794870376587e-02 -5.268749967217445374e-02 1.783473193645477295e-01 3.571298122406005859e-01 5.187302082777023315e-02 2.196005135774612427e-01 1.015546619892120361e-01 2.149399183690547943e-02 8.553215861320495605e-02 2.020328283309936523e+00 -2.308268845081329346e-02 1.491836309432983398e-01 -8.844316005706787109e-01 1.987783610820770264e-01 -1.267840266227722168e+00 -1.288925290107727051e+00 2.838390506803989410e-02 -5.064705014228820801e-02
-9.171823412179946899e-02 -2.658626250922679901e-02 2.095736004412174225e-02 1.133549660444259644e-01 4.283345639705657959e-01 1.729949004948139191e-02 7.737052440643310547e-02 -7.948421686887741089e-02 -2.887018322944641113e-01 2.139040455222129822e-02 5.647293757647275925e-03 4.718509018421173096e-01 -1.182987093925476074e-01 3.200577339157462120e-03 1.862045191228389740e-02 5.217306315898895264e-02 5.655924789607524872e-03 -5.277029052376747131e-02 -5.008797720074653625e-02 -5.160341411828994751e-02 -4.274944961071014404e-02 3.030125517398118973e-03 4.006703943014144897e-02 -1.033417731523513794e-01 5.987130105495452881e-03 -4.954943060874938965e-02 2.146672457456588745e-02 -2.157627195119857788e-01 -3.011986147612333298e-03 3.026110827922821045e-01 7.899449206888675690e-03 6.100219488143920898e-01 8.462879657745361328e-01 2.248014882206916809e-02 5.421898141503334045e-02 -2.456042729318141937e-02 -1.944934134371578693e-03 1.833790214732289314e-03 2.705642022192478180e-02 9.686650591902434826e-04 7.175655663013458252e-02 3.987546265125274658e-01 5.716798454523086548e-02 -6.384781002998352051e-02 1.459589004516601562e-01 6.572799291461706161e-03 3.942167386412620544e-02 6.730487942695617676e-02 -2.464352250099182129e-01 -3.209581375122070312e-01 2.305357158184051514e-02 -2.690599262714385986e-01 -1.011319160461425781e-01 -1.230464652180671692e-01 2.628155238926410675e-02 -1.581423640251159668e+00 5.204244051128625870e-03 6.504929810762405396e-02 1.068117976188659668e+00 3.986988216638565063e-03 1.948464751243591309e+00 -2.361296117305755615e-02 9.773339331150054932e-02 5.895829573273658752e-02
1.500002443790435791e-01 2.843007817864418030e-02 -6.860090419650077820e-03 7.713802903890609741e-02 1.411142572760581970e-02 -1.139655150473117828e-02 4.384401440620422363e-02 4.372346773743629456e-02 -5.867492780089378357e-02 -5.233299359679222107e-02 -5.154588259756565094e-03 4.869601689279079437e-03 -3.172947838902473450e-02 -1.721188239753246307e-02 -3.416594564914703369e-01 3.175915032625198364e-02 -1.189019437879323959e-02 9.263486601412296295e-03 -1.890228390693664551e-01 -3.987376019358634949e-02 1.311525329947471619e-02 1.617432758212089539e-02 1.307006645947694778e-02 1.418655216693878174e-01 2.058386243879795074e-02 -6.808442994952201843e-03 -1.388623379170894623e-03 1.947737932205200195e-01 -1.830049906857311726e-03 -1.035437703132629395e+00 -4.374094679951667786e-02 -4.391929507255554199e-01 2.307803779840469360e-01 1.366612128913402557e-02 -4.182996228337287903e-02 1.763295978307723999e-01 -5.202527623623609543e-03 -3.502382896840572357e-03 -6.286042928695678711e-02 -1.342588365077972412e-01 -2.082468383014202118e-02 -1.497481167316436768e-01 -2.402553409337997437e-01 -2.198348566889762878e-02 -1.091240644454956055e+00 -1.498197950422763824e-02 -5.743307992815971375e-03 -7.253491319715976715e-03 -2.205119654536247253e-02 9.486642666161060333e-03 2.487572608515620232e-03 1.396202594041824341e-01 7.630492001771926880e-02 8.898194879293441772e-02 -8.792171627283096313e-02 1.384423375129699707e-01 8.393340110778808594e-01 -6.699564307928085327e-02 -6.537179946899414062e-01 4.281290248036384583e-02 -2.955002486705780029e-01 -2.633249945938587189e-02 -3.556136414408683777e-02 1.332058161497116089e-01
-4.871856793761253357e-02 -5.003883037716150284e-03 1.164308376610279083e-02 -4.553869739174842834e-02 -1.043337117880582809e-02 1.513727102428674698e-02 -2.204310707747936249e-02 4.256237298250198364e-03 2.944220323115587234e-03 9.449978359043598175e-03 7.087519625201821327e-04 2.588505391031503677e-03 2.106536738574504852e-02 3.018001839518547058e-02 3.493064641952514648e-02 1.069943532347679138e-01 -2.304781926795840263e-03 1.785978302359580994e-02 -2.796085476875305176e-01 -3.771812771447002888e-05 3.553187707439064980e-03 -3.757461206987500191e-03 -2.751010470092296600e-03 1.465529017150402069e-02 7.417123764753341675e-03 2.556025981903076172e-03 1.757762394845485687e-03 1.172516378574073315e-03 2.896605059504508972e-03 -7.986199855804443359e-02 1.331314072012901306e-02 -3.528818190097808838e-01 6.688977591693401337e-03 1.025368366390466690e-02 1.846748590469360352e-02 8.095392584800720215e-02 1.545245322631672025e-04 -2.079031802713871002e-02 -5.742792040109634399e-02 2.372039249166846275e-03 2.551270299591124058e-04 -8.312976956367492676e-01 3.078980930149555206e-02 -6.896273232996463776e-03 -3.564422205090522766e-02 1.381413079798221588e-02 1.071902737021446228e-02 -7.079870104789733887e-01 7.129655033349990845e-02 1.148604378104209900e-01 -1.147322952747344971e-01 3.809168562293052673e-02 2.070496045053005219e-02 5.633370019495487213e-03 1.097992248833179474e-02 9.891408681869506836e-02 4.757643211632966995e-03 5.354039669036865234e-01 -1.461409926414489746e-01 1.523781847208738327e-02 7.389508932828903198e-02 -1.005579829216003418e-01 -3.654296509921550751e-03 -3.382251039147377014e-02
