-5.044231191277503967e-03
2.959576668217778206e-03
3.137463354505598545e-04
2.150301355868577957e-03
7.816381403245031834e-04
-1.651395810768008232e-03
8.273808285593986511e-03
-7.316818227991461754e-04
5.953504238277673721e-03
3.614607732743024826e-03
4.157671704888343811e-03
-1.582938130013644695e-03
2.130029257386922836e-03
-2.351635135710239410e-03
3.602128941565752029e-03
-1.353369443677365780e-03
1.975404564291238785e-03
3.541564510669559240e-04
1.370339421555399895e-03
-4.982936196029186249e-03
6.693362374790012836e-04
3.777254140004515648e-03
-1.153115499619161710e-05
4.024004098027944565e-03
4.244185052812099457e-03
3.641391871497035027e-03
-3.866252256557345390e-03
6.386475637555122375e-03
-7.492920849472284317e-03
5.422570975497364998e-04
3.190016141161322594e-03
-3.003830555826425552e-03
-4.030280979350209236e-04
-4.009256139397621155e-03
7.833380950614809990e-04
2.429911866784095764e-03
-7.766795810312032700e-03
5.214723758399486542e-03
3.535971511155366898e-03
-2.454931382089853287e-03
3.389457939192652702e-03
-1.883172808447852731e-04
-1.424721442162990570e-03
4.033812321722507477e-03
5.053135100752115250e-03
3.404480637982487679e-03
-5.318104755133390427e-03
7.007070351392030716e-03
3.036610549315810204e-03
-1.927649602293968201e-03
5.177185870707035065e-03
2.344426698982715607e-03
-1.401885645464062691e-03
-3.410098375752568245e-03
-4.732255823910236359e-03
-3.086182114202529192e-04
5.959207555861212313e-05
8.788691833615303040e-03
6.970645627006888390e-04
-9.568327805027365685e-04
-4.791617393493652344e-03
7.458903361111879349e-03
5.851251771673560143e-04
6.579798180609941483e-03
2.800689835567027330e-04
-7.546013221144676208e-04
7.786165806464850903e-04
1.054891734384000301e-03
3.383080242201685905e-03
-2.380844438448548317e-03
1.419151201844215393e-03
3.740918182302266359e-04
-7.196248974651098251e-03
2.091714879497885704e-03
-1.260049066331703216e-05
9.812895208597183228e-03
-2.483542775735259056e-03
-1.738980412483215332e-03
2.690920839086174965e-03
-6.712996400892734528e-03
5.812140181660652161e-03
2.417329931631684303e-03
3.975418861955404282e-03
-1.161653315648436546e-03
-5.081746261566877365e-03
2.477184403687715530e-03
4.778683651238679886e-03
2.487789606675505638e-03
1.026225509122014046e-03
5.310923792421817780e-03
1.246935455128550529e-03
1.546156709082424641e-03
3.359590657055377960e-03
3.356623463332653046e-03
-5.573342088609933853e-03
3.604348981752991676e-03
3.399243869353085756e-04
-1.542456797324120998e-03
7.829006062820553780e-04
-7.634931243956089020e-04
-9.593572031008079648e-05
-2.382899634540081024e-03
1.175380311906337738e-04
-4.063196945935487747e-03
1.227610278874635696e-03
-5.692603532224893570e-03
5.148309748619794846e-03
5.191316362470388412e-03
3.185951150953769684e-03
-1.356130698695778847e-03
2.560123102739453316e-03
2.426768420264124870e-03
2.318082377314567566e-03
4.226958844810724258e-03
3.384814364835619926e-03
3.119281260296702385e-03
-5.010060034692287445e-03
3.847766667604446411e-03
4.093030467629432678e-03
-1.530094741610810161e-04
2.503833035007119179e-03
8.466329891234636307e-04
-1.564317382872104645e-03
-2.004086971282958984e-03
2.404985716566443443e-03
-2.674856514204293489e-04
3.225509310141205788e-03
3.928521648049354553e-03
4.592664539813995361e-03
-4.182288888841867447e-03
-2.100868849083781242e-03
7.101299241185188293e-03
2.422803314402699471e-03
-5.148617085069417953e-03
-7.025332190096378326e-03
5.889033855055458844e-05
-6.841233698651194572e-04
2.895325422286987305e-03
6.444607395678758621e-03
3.803541418164968491e-03
-5.923443939536809921e-03
-2.455890411511063576e-03
1.962913433089852333e-03
6.164883263409137726e-03
1.785985776223242283e-03
-7.166152354329824448e-04
6.420982070267200470e-03
3.329931991174817085e-03
1.018677488900721073e-03
-1.549773267470300198e-03
-6.344646215438842773e-03
-3.917806781828403473e-03
1.086232601664960384e-03
1.721045351587235928e-03
5.584961734712123871e-03
-9.972030529752373695e-04
-5.894372239708900452e-03
-8.622113615274429321e-03
9.201901964843273163e-03
3.905460471287369728e-04
-1.361071714200079441e-03
-1.515074050985276699e-03
1.252247719094157219e-03
-5.641209892928600311e-03
2.543569076806306839e-03
3.066741628572344780e-03
6.778576876968145370e-03
-1.279306132346391678e-03
1.348551013506948948e-03
3.990821540355682373e-03
2.216946333646774292e-03
-1.994216116145253181e-03
8.850883692502975464e-03
6.664106622338294983e-04
2.743464196100831032e-03
6.264976691454648972e-03
2.013625809922814369e-03
-1.307510654442012310e-03
2.642235194798558950e-04
4.743567667901515961e-03
-1.410385710187256336e-03
6.938306149095296860e-03
-1.707068877294659615e-04
-1.686633215285837650e-03
7.355555891990661621e-03
-1.468274509534239769e-03
-5.112107377499341965e-03
2.211893210187554359e-03
1.030959421768784523e-03
7.766703492961823940e-04
6.544078234583139420e-03
5.134594161063432693e-03
-5.147896707057952881e-03
-5.526754539459943771e-03
-4.177594091743230820e-03
8.029129239730536938e-04
-5.705116782337427139e-03
8.257494191639125347e-04
-2.236827043816447258e-03
-4.132669884711503983e-03
-9.976660367101430893e-04
-4.015764221549034119e-03
-6.033194251358509064e-03
4.442689940333366394e-03
4.000002052634954453e-03
1.314337481744587421e-03
3.429665928706526756e-03
1.900851610116660595e-03
-3.370726481080055237e-03
2.420950680971145630e-03
1.477353740483522415e-03
5.107525503262877464e-04
6.535103544592857361e-03
5.218669306486845016e-03
4.953730967827141285e-04
-2.072811359539628029e-03
1.478785183280706406e-03
1.373331062495708466e-03
2.478230977430939674e-03
3.792539238929748535e-03
1.433013967471197248e-04
-9.282914921641349792e-03
-2.281071851029992104e-03
-3.848994616419076920e-03
7.812857627868652344e-03
4.450825508683919907e-03
-2.599912229925394058e-03
-3.982322290539741516e-03
-2.375024836510419846e-03
-6.315318401902914047e-03
2.403992926701903343e-03
2.777792746201157570e-03
-3.223548643290996552e-03
-1.505755702964961529e-03
-3.729265881702303886e-03
1.681147841736674309e-03
-2.684956183657050133e-03
7.399418391287326813e-03
-2.201594877988100052e-03
4.253280058037489653e-04
-2.337209647521376610e-03
-1.894607557915151119e-03
-2.764970296993851662e-03
-1.295495894737541676e-03
-1.908343285322189331e-03
1.158463070169091225e-03
1.035950495861470699e-03
-5.906305741518735886e-03
7.201079279184341431e-04
1.866257051005959511e-03
4.129920853301882744e-04
-1.870359992608428001e-03
-7.269659545272588730e-05
2.083628205582499504e-03
-3.404012881219387054e-03
-3.939301706850528717e-03
