-4.810635000467300415e-03
7.716940715909004211e-03
-8.544508367776870728e-03
-1.863659708760678768e-03
1.965587260201573372e-03
5.100300535559654236e-03
-3.208543930668383837e-04
-3.797437821049243212e-04
-1.835276256315410137e-03
-1.295696129091084003e-03
-6.363913882523775101e-03
3.507742891088128090e-03
-9.521770407445728779e-04
9.655001922510564327e-04
1.114024315029382706e-03
6.526381475850939751e-04
-4.185728728771209717e-03
-2.710209810175001621e-04
1.156859914772212505e-03
3.437730811128858477e-06
-5.815514829009771347e-03
-2.323311928194016218e-04
4.385673440992832184e-03
-8.698005229234695435e-03
1.090688281692564487e-03
-3.202238818630576134e-03
-2.469958970323204994e-03
6.451443769037723541e-03
-2.655071439221501350e-03
-7.668231613934040070e-03
-3.870051819831132889e-03
1.289415056817233562e-03
-2.664015162736177444e-03
2.956762327812612057e-04
5.521162529475986958e-04
-1.660603331401944160e-03
1.996623585000634193e-03
1.292800530791282654e-03
-2.312371041625738144e-03
-1.121781533583998680e-03
-5.482779815793037415e-03
-5.248287692666053772e-03
-5.014460999518632889e-03
-1.706358394585549831e-03
4.044555593281984329e-03
-3.026678226888179779e-03
-6.051899399608373642e-04
-2.499705180525779724e-03
-1.087810145691037178e-03
-3.696343163028359413e-03
2.847613301128149033e-03
6.151287234388291836e-04
1.610394567251205444e-03
-1.508238259702920914e-03
-3.581128083169460297e-03
-5.513918586075305939e-03
5.310969427227973938e-04
-7.385589415207505226e-04
2.186854835599660873e-03
1.368068624287843704e-03
-5.037963856011629105e-03
7.111894083209335804e-04
-5.341095966286957264e-04
-6.114843301475048065e-03
4.329951945692300797e-03
-7.551117450930178165e-04
4.883827641606330872e-03
-1.718473737128078938e-03
-4.930158145725727081e-03
1.141863525845110416e-03
-3.007767489179968834e-03
-3.473587101325392723e-03
2.681905170902609825e-03
-2.406054409220814705e-03
5.518568214029073715e-04
2.310092968400567770e-04
7.479575462639331818e-03
-4.680258687585592270e-03
6.221256917342543602e-04
-1.649868674576282501e-03
1.173389377072453499e-03
2.850815886631608009e-03
-2.082413993775844574e-03
2.210801321780309081e-04
-4.023097455501556396e-03
-4.871134180575609207e-03
4.129504668526351452e-05
-1.825812272727489471e-03
1.106455456465482712e-03
-4.635003861039876938e-04
4.369484959170222282e-04
-5.576074472628533840e-04
9.526140638627111912e-04
-5.553695838898420334e-03
-3.516637720167636871e-03
-4.322087392210960388e-03
-1.219362835399806499e-03
-3.059145063161849976e-03
-2.343422500416636467e-03
-1.595547772012650967e-03
-3.864445956423878670e-03
-2.875325968489050865e-03
1.725805108435451984e-03
1.134710837504826486e-04
-1.520588994026184082e-03
-3.460007486864924431e-03
7.930452702566981316e-04
-4.882215987890958786e-03
-1.419764244928956032e-03
-4.838353488594293594e-03
5.995834362693130970e-05
-5.366240162402391434e-03
7.371415384113788605e-03
-2.937841694802045822e-03
-4.204309079796075821e-03
6.332424818538129330e-04
4.460470285266637802e-03
-9.825943037867546082e-03
-1.178605234599672258e-04
-4.631420131772756577e-03
2.340115141123533249e-03
8.154285140335559845e-03
6.746308412402868271e-03
-1.216407632455229759e-03
-2.333238953724503517e-03
2.723203739151358604e-03
-5.544715095311403275e-03
1.698906184174120426e-03
-2.692134818062186241e-03
2.170870546251535416e-03
4.801177710760384798e-04
-6.413061055354773998e-05
5.527017638087272644e-03
-2.314802492037415504e-03
6.152022629976272583e-03
7.652860367670655251e-04
-2.937969751656055450e-03
1.422479166649281979e-03
6.584252114407718182e-04
-1.112310402095317841e-02
6.584718939848244190e-04
-6.091070827096700668e-03
-1.371791469864547253e-03
-4.406133666634559631e-03
-2.725555561482906342e-03
-3.573359223082661629e-03
1.613012049347162247e-03
-1.062217354774475098e-02
-2.763759810477495193e-03
-2.721351105719804764e-03
-4.327879752963781357e-03
1.033536507748067379e-03
-1.447226619347929955e-03
-4.315637517720460892e-03
-1.487416884629055858e-04
-3.870363871101289988e-04
1.940038753673434258e-03
-5.133496131747961044e-03
-5.478880833834409714e-03
-2.238876913907006383e-04
-3.048798535019159317e-03
-5.632055457681417465e-03
7.406588993035256863e-04
-2.318482380360364914e-03
1.324956392636522651e-04
-4.403980914503335953e-03
-2.142908750101923943e-03
-6.913021672517061234e-03
-2.450054744258522987e-03
-1.080237561836838722e-03
4.410893656313419342e-03
-2.549523254856467247e-03
3.860306751448661089e-04
-2.981283469125628471e-03
-4.379677586257457733e-03
-9.532086551189422607e-03
2.877166029065847397e-03
4.134213551878929138e-03
-1.633022329770028591e-03
-2.091663656756281853e-03
-2.547330223023891449e-03
-2.341706538572907448e-03
1.400266657583415508e-03
-5.133851896971464157e-03
-4.657242447137832642e-03
4.374198615550994873e-03
4.477670881897211075e-03
3.010332584381103516e-03
-2.920573577284812927e-03
4.132269416004419327e-03
-2.924374304711818695e-03
-2.707237843424081802e-03
7.167040603235363960e-04
-4.922151565551757812e-04
-3.555391682311892509e-03
-2.234447514638304710e-03
-2.626431407406926155e-03
-2.170246094465255737e-03
-1.238278346136212349e-03
-2.705229213461279869e-03
-4.022566601634025574e-03
7.561301346868276596e-03
9.913834510371088982e-04
6.801169365644454956e-03
-1.567137660458683968e-03
6.298280204646289349e-04
-1.781083061359822750e-03
-1.274809124879539013e-03
-7.194947917014360428e-03
3.769401926547288895e-03
2.223156159743666649e-03
-5.251252558082342148e-03
-3.478633239865303040e-03
-2.300701336935162544e-03
-1.963932067155838013e-03
-1.555456430651247501e-03
-1.573745277710258961e-03
8.424934349022805691e-04
-2.232805825769901276e-03
-2.450579311698675156e-03
6.287815514951944351e-03
1.685632276348769665e-03
6.327879149466753006e-03
3.224463667720556259e-03
6.641651270911097527e-04
-3.167040413245558739e-03
-3.916702698916196823e-03
-2.132611814886331558e-03
-6.115570664405822754e-03
-3.080876078456640244e-03
1.867980696260929108e-03
-1.063930802047252655e-03
-1.252677175216376781e-03
-6.717312615364789963e-03
-5.817247088998556137e-03
8.705325308255851269e-04
1.067843171767890453e-03
-9.108435362577438354e-03
3.897508606314659119e-03
-4.079786885995417833e-04
-4.904682282358407974e-03
-1.369261881336569786e-03
-3.186193294823169708e-03
-4.750289022922515869e-03
-9.594365023076534271e-03
-1.926123863086104393e-03
3.011341905221343040e-03
-4.704511724412441254e-03
-1.268862833967432380e-04
-6.733560934662818909e-03
3.072238294407725334e-03
-6.827261764556169510e-03
-8.135118405334651470e-04
2.099388511851429939e-03
-4.909330746158957481e-04
-1.039537251926958561e-03
