-1.194576965644955635e-03
-9.354033973067998886e-04
-1.070820842869579792e-03
6.349481409415602684e-04
1.571264692756813020e-05
-2.327444235561415553e-04
6.649140734225511551e-03
6.116717122495174408e-04
4.999039229005575180e-03
2.225171308964490891e-03
-2.655018586665391922e-03
4.163195844739675522e-03
1.506889821030199528e-03
5.615013651549816132e-03
1.178594422526657581e-03
3.116759704425930977e-03
2.098112890962511301e-04
-3.359303576871752739e-03
6.860833615064620972e-03
3.520200727507472038e-03
-9.825528832152485847e-04
3.574223257601261139e-03
2.179443603381514549e-03
-4.897605162113904953e-03
4.807353834621608257e-04
4.430393222719430923e-03
-8.147822809405624866e-04
7.749572396278381348e-03
-3.359301248565316200e-03
2.942847553640604019e-03
-6.934747565537691116e-03
4.181366413831710815e-03
-6.899763684486970305e-05
-2.818027278408408165e-03
-5.904029239900410175e-04
-6.468595005571842194e-03
9.772222256287932396e-04
1.941455295309424400e-03
4.312239587306976318e-03
-3.613824723288416862e-03
2.546198200434446335e-03
4.813881590962409973e-03
2.177601127186790109e-04
-6.878946442157030106e-04
6.755088455975055695e-03
1.044675940647721291e-03
1.333383959718048573e-03
7.141977548599243164e-03
-2.035225508734583855e-03
3.598507959395647049e-03
-5.857727956026792526e-05
-1.456046127714216709e-03
-4.146289080381393433e-03
5.437285290099680424e-04
7.827925495803356171e-03
-4.627161193639039993e-03
6.080810911953449249e-03
-6.181016098707914352e-03
-1.383944209010223858e-06
2.635977696627378464e-03
9.697103872895240784e-03
-5.054026376456022263e-03
1.603703945875167847e-03
2.406758721917867661e-03
2.389908768236637115e-03
-5.941701121628284454e-03
2.869300544261932373e-03
1.463640830479562283e-03
-1.935373176820576191e-03
2.378305420279502869e-03
-8.109146729111671448e-04
6.737615331076085567e-04
-4.074583295732736588e-03
-2.074836753308773041e-03
-6.006260518915951252e-04
-9.227213449776172638e-04
3.901450196281075478e-03
1.878193113952875137e-03
1.383354538120329380e-03
1.607854850590229034e-03
-2.745140576735138893e-03
-2.937595418188720942e-04
4.248425830155611038e-03
-1.293517998419702053e-04
5.137133877724409103e-03
-5.337924230843782425e-03
6.139428354799747467e-03
4.712256777565926313e-04
3.024273319169878960e-03
1.435339218005537987e-03
3.814131487160921097e-03
-4.642260260879993439e-03
3.337085945531725883e-03
4.543563351035118103e-03
3.288367530331015587e-03
-6.281854002736508846e-04
2.016667509451508522e-03
-1.393003505654633045e-03
5.796067416667938232e-04
7.564936298877000809e-03
3.866464365273714066e-03
1.675981795415282249e-03
-4.469305742532014847e-03
2.429974032565951347e-03
5.489967763423919678e-03
-2.343683736398816109e-04
2.200831659138202667e-03
8.590691140852868557e-04
-2.136519906343892217e-04
1.135973958298563957e-03
3.420680528506636620e-03
-1.420415937900543213e-03
2.068468835204839706e-03
1.051941327750682831e-02
1.515088602900505066e-03
-2.456249669194221497e-03
4.318148130550980568e-04
3.455072874203324318e-04
1.270243781618773937e-03
2.131563844159245491e-03
-1.384182134643197060e-03
5.388128105551004410e-03
3.311367938295006752e-03
-2.655395772308111191e-03
6.679222860839217901e-05
-4.490643623284995556e-04
4.322353051975369453e-04
-8.946419111452996731e-04
5.091327475383877754e-04
-2.462235745042562485e-03
1.227971282787621021e-03
4.342369269579648972e-03
2.624793210998177528e-03
3.284148639068007469e-03
-2.471656072884798050e-03
-3.498648293316364288e-03
4.763620905578136444e-03
2.197594149038195610e-04
2.714225556701421738e-03
-3.301294287666678429e-03
1.288877218030393124e-03
2.959927369374781847e-04
4.128181375563144684e-03
-5.958183668553829193e-03
-2.310307318111881614e-04
2.541722496971487999e-03
-2.653468400239944458e-03
8.642402244731783867e-04
-2.478422538843005896e-04
-1.433678437024354935e-03
-6.388160400092601776e-04
2.342885360121726990e-03
-1.451119198463857174e-03
3.153325815219432116e-04
-5.317892879247665405e-03
3.932633902877569199e-03
2.190993400290608406e-03
-5.250746035017073154e-04
4.576994571834802628e-03
1.639245543628931046e-03
1.636481320019811392e-04
-1.251428388059139252e-03
6.257275235839188099e-04
1.152645912952721119e-03
-4.840054083615541458e-03
2.861821092665195465e-03
1.856589224189519882e-03
2.700476441532373428e-03
-4.453792236745357513e-03
1.807846594601869583e-03
8.171413210220634937e-04
-9.062091703526675701e-04
-1.351318205706775188e-03
2.883666427806019783e-03
4.438086878508329391e-03
2.797511406242847443e-03
3.697849810123443604e-03
4.076031036674976349e-03
-8.541721035726368427e-04
-8.225478813983500004e-04
3.366668242961168289e-04
9.794626384973526001e-04
2.442687517032027245e-03
-2.305516740307211876e-03
6.624365691095590591e-03
6.182874087244272232e-03
9.783608838915824890e-04
4.818049092136789113e-06
3.992759156972169876e-03
-1.070545637048780918e-03
-6.003133952617645264e-03
2.261332847410812974e-04
5.688271485269069672e-03
-7.569621317088603973e-03
-3.194394521415233612e-03
3.726678900420665741e-03
7.449312834069132805e-04
3.111783182248473167e-03
8.480810211040079594e-04
2.014176454395055771e-03
4.255506210029125214e-03
3.872555913403630257e-03
3.352862084284424782e-03
-5.398728535510599613e-04
-7.638232782483100891e-04
-3.832000773400068283e-03
1.779849524609744549e-03
-3.136025741696357727e-03
4.565663170069456100e-03
-2.542861504480242729e-03
2.184091135859489441e-03
6.097043398767709732e-03
2.987384563311934471e-03
4.020744469016790390e-03
6.393462419509887695e-03
3.747996874153614044e-03
3.455203957855701447e-03
1.797336037270724773e-03
2.360354876145720482e-03
2.483336487784981728e-03
4.905056557618081570e-04
3.677538130432367325e-03
-8.770652930252254009e-04
-3.813254414126276970e-03
-2.829871140420436859e-03
1.028347760438919067e-03
1.631414634175598621e-03
2.728418214246630669e-03
2.286540111526846886e-03
6.367567460983991623e-03
2.346864202991127968e-03
4.506232682615518570e-03
-1.875101821497082710e-03
2.816165331751108170e-03
2.752176951617002487e-03
4.131995141506195068e-03
8.288212120532989502e-03
-1.248985208803787827e-04
4.134249873459339142e-03
1.021963311359286308e-03
1.941375958267599344e-04
-2.704650629311800003e-03
5.558890406973659992e-04
4.677577409893274307e-03
8.042228408157825470e-03
8.471658802591264248e-04
-6.284980918280780315e-04
-2.519101835787296295e-03
2.441398566588759422e-03
6.692487746477127075e-03
2.438274212181568146e-03
1.226581516675651073e-03
1.219757366925477982e-03
1.943758106790482998e-03
8.344909292645752430e-04
3.341389354318380356e-03
