1.250769972801208496e+00
-1.480244845151901245e-02
9.284245371818542480e-01
1.164650058746337891e+01
2.592581510543823242e+00
1.023695826530456543e+00
4.030779004096984863e-01
2.257278680801391602e+00
1.320463275909423828e+01
1.179935264587402344e+01
1.135399532318115234e+01
8.490853309631347656e+00
1.278853321075439453e+01
8.320483207702636719e+00
2.052287101745605469e+00
1.578591823577880859e+00
1.231711864471435547e+00
1.357272624969482422e+00
4.001750469207763672e+00
6.899885833263397217e-02
2.660809755325317383e+00
-8.694034069776535034e-02
1.011137247085571289e+00
1.247592830657958984e+01
7.568050026893615723e-01
1.341129398345947266e+01
4.951235771179199219e+00
8.020458742976188660e-03
-2.211591750383377075e-01
1.027212142944335938e+01
-9.389789402484893799e-02
3.360759019851684570e-01
1.039279937744140625e+00
1.102395415306091309e+00
1.267477869987487793e+00
2.917326211929321289e+00
3.522785663604736328e+00
8.329501152038574219e+00
1.032218265533447266e+01
2.835796594619750977e+00
1.505003809928894043e+00
1.698855400085449219e+00
4.988046169281005859e+00
1.185404658317565918e+00
1.100115108489990234e+01
1.176778411865234375e+01
3.116402149200439453e+00
1.319971799850463867e+00
1.175584220886230469e+01
1.327704787254333496e+00
1.181224441528320312e+01
3.161335945129394531e+00
1.140315246582031250e+01
8.536022186279296875e+00
2.770828723907470703e+00
1.265149784088134766e+01
8.339159488677978516e-01
5.592052936553955078e-01
2.027649283409118652e-01
1.171819114685058594e+01
1.060661602020263672e+01
8.310917854309082031e+00
2.015078544616699219e+00
2.146038055419921875e+00
1.353125953674316406e+01
3.556935310363769531e+00
9.090963602066040039e-01
1.149413394927978516e+01
8.500332832336425781e+00
1.122953701019287109e+01
1.519783377647399902e+00
8.175514340400695801e-01
8.672086715698242188e+00
1.197313308715820312e+01
1.055768871307373047e+01
4.764783680438995361e-01
8.015250563621520996e-01
8.759785652160644531e+00
8.529939651489257812e+00
7.720393538475036621e-01
1.983843892812728882e-01
1.287654638290405273e+00
1.138538551330566406e+01
8.797619938850402832e-01
2.183234095573425293e-01
2.127415657043457031e+00
1.077983140945434570e+00
4.819025397300720215e-01
1.087347888946533203e+01
1.477705240249633789e+00
1.266073608398437500e+01
3.214477539062500000e+00
3.486774265766143799e-01
4.478167057037353516e+00
1.045218706130981445e+00
2.277106523513793945e+00
2.462581634521484375e+00
1.357548952102661133e+00
1.142957878112792969e+01
1.167699813842773438e+00
2.021957874298095703e+00
3.939787149429321289e+00
9.869988441467285156e+00
1.147785544395446777e+00
2.100720405578613281e+00
7.814499735832214355e-01
1.303058052062988281e+01
7.930177450180053711e-02
1.387881875038146973e+00
2.364934831857681274e-01
2.251639366149902344e+00
8.559527993202209473e-01
9.823854565620422363e-01
9.525595307350158691e-01
1.662788867950439453e+00
1.002364063262939453e+01
1.365927696228027344e+00
1.074745416641235352e+00
1.520379424095153809e+00
1.054395866394042969e+01
3.657903671264648438e+00
4.467738151550292969e+00
3.890265822410583496e-01
1.352305889129638672e+00
1.675478100776672363e+00
2.234539270401000977e+00
1.209044075012207031e+01
1.440925478935241699e+00
1.246115922927856445e+00
1.043095684051513672e+01
6.577607989311218262e-01
1.863361597061157227e+00
1.663212537765502930e+00
9.866363525390625000e+00
1.351833343505859375e+00
1.740821123123168945e+00
1.044929504394531250e+01
5.795857310295104980e-01
7.625052332878112793e-01
2.399102449417114258e+00
1.630839705467224121e+00
1.051080465316772461e+00
5.176877379417419434e-01
1.220736789703369141e+01
-2.142594009637832642e-01
7.608008980751037598e-01
3.382769823074340820e+00
1.551129579544067383e+00
1.458815336227416992e+00
-2.286798804998397827e-01
2.061103105545043945e+00
1.014064979553222656e+01
1.250028133392333984e+01
1.191716194152832031e+00
9.334012985229492188e+00
1.561978459358215332e+00
1.326024150848388672e+01
2.664482831954956055e+00
1.269840121269226074e+00
4.991411417722702026e-02
8.305502891540527344e+00
1.185284709930419922e+01
1.015559768676757812e+01
8.680346488952636719e+00
7.768331527709960938e+00
1.139298081398010254e+00
6.068770408630371094e+00
8.579148292541503906e+00
1.610992670059204102e+00
1.670789957046508789e+00
1.110884571075439453e+01
-1.401741355657577515e-01
1.302423000335693359e+00
1.002992343902587891e+01
1.346353769302368164e+00
1.039289283752441406e+01
2.803553938865661621e-01
2.305408477783203125e+00
2.664005756378173828e+00
1.315379047393798828e+01
2.148396015167236328e+00
1.941627264022827148e+00
2.713127732276916504e-01
1.290606021881103516e+00
1.233810043334960938e+01
9.984696507453918457e-01
9.561420679092407227e-01
2.504084825515747070e+00
1.330357074737548828e+00
2.058049440383911133e+00
1.780696272850036621e+00
1.115743923187255859e+01
1.036256217956542969e+01
1.205621910095214844e+01
9.516132354736328125e+00
8.443957328796386719e+00
1.471233963966369629e+00
3.314443349838256836e+00
6.330775618553161621e-01
2.285685539245605469e+00
1.126584649085998535e+00
1.140067815780639648e+00
-1.685415059328079224e-01
-1.223713517189025879e+00
1.054174065589904785e+00
-9.881745278835296631e-02
1.130374073982238770e+00
1.130561113357543945e+00
-2.746030330657958984e+00
-8.807118535041809082e-01
-9.493737220764160156e+00
1.327757954597473145e+00
-9.291639328002929688e+00
1.063024163246154785e+00
-7.755439281463623047e-01
1.138484120368957520e+00
1.088446974754333496e+00
8.656327724456787109e-01
1.005569338798522949e+00
-1.256063133478164673e-01
1.080893754959106445e+00
7.426319718360900879e-01
-9.460233151912689209e-02
1.235351085662841797e+00
1.350455164909362793e+00
-3.357055038213729858e-02
1.141565084457397461e+00
-8.591971397399902344e+00
-1.017210769653320312e+01
6.551883816719055176e-01
-1.023419570922851562e+01
1.120179414749145508e+00
1.725257396697998047e+00
1.130905985832214355e+00
9.853909015655517578e-01
1.174613609910011292e-01
6.598676443099975586e-01
1.109928250312805176e+00
1.062689304351806641e+00
1.179428815841674805e+00
1.191560149192810059e+00
1.604450106620788574e+00
1.035336971282958984e+00
9.686341285705566406e-01
8.206368684768676758e-01
1.067207932472229004e+00
-9.618373870849609375e+00
1.035753130912780762e+00
1.224595785140991211e+00
2.957575917243957520e-01
-2.872991263866424561e-01
1.371121644973754883e+00
7.749488353729248047e-01
8.626192808151245117e-01
1.171133875846862793e+00
-9.253537058830261230e-01
1.150764822959899902e+00
-1.568063735961914062e+00
9.259501844644546509e-02
1.229546904563903809e+00
-1.977317333221435547e+00
1.184785127639770508e+00
1.336122155189514160e+00
1.398141980171203613e+00
-2.348345518112182617e+00
1.403125047683715820e+00
-2.102582931518554688e+00
-1.526223421096801758e+00
6.400734782218933105e-01
1.293868064880371094e+00
6.878415346145629883e-01
-9.249836921691894531e+00
-3.461056947708129883e+00
-1.619260430335998535e+00
-4.106522560119628906e+00
1.081836223602294922e+00
-9.001050591468811035e-01
1.175933837890625000e+00
1.242827177047729492e+00
1.227621436119079590e+00
-8.927394866943359375e+00
1.194965720176696777e+00
-1.935051441192626953e+00
-6.789492368698120117e-01
1.252450704574584961e+00
1.503614306449890137e+00
-9.205047607421875000e+00
1.128326058387756348e+00
7.869044542312622070e-01
1.095379948616027832e+00
1.215738728642463684e-01
1.156789541244506836e+00
1.120701313018798828e+00
1.234092831611633301e+00
-1.394437253475189209e-01
1.149298429489135742e+00
5.165556073188781738e-01
1.426213145256042480e+00
-9.481298327445983887e-01
8.344201445579528809e-01
1.377336144447326660e+00
-9.444951057434082031e+00
1.385777473449707031e+00
-9.338662147521972656e+00
-9.096201896667480469e+00
4.411745369434356689e-01
-4.454893171787261963e-01
-5.864654779434204102e-01
-9.553428649902343750e+00
-5.365725994110107422e+00
1.240710735321044922e+00
1.277691245079040527e+00
1.409807205200195312e+00
-2.717906713485717773e+00
1.265837073326110840e+00
1.574139833450317383e+00
2.257607132196426392e-02
8.322585821151733398e-01
7.858151197433471680e-01
-8.262631893157958984e-01
1.166012406349182129e+00
-1.714133262634277344e+00
-9.743922233581542969e+00
1.230469822883605957e+00
-9.851533770561218262e-01
1.765946269035339355e+00
1.176659464836120605e+00
1.319676876068115234e+00
-2.339460611343383789e+00
1.002582192420959473e+00
1.040508151054382324e+00
1.340705633163452148e+00
1.335568547248840332e+00
1.261237978935241699e+00
-2.430069684982299805e+00
-6.643690168857574463e-02
1.143182992935180664e+00
-8.966823577880859375e+00
1.169087171554565430e+00
9.967598915100097656e-01
8.475782871246337891e-01
1.156918644905090332e+00
1.173655986785888672e+00
3.329168558120727539e-01
-2.831087827682495117e+00
1.328653335571289062e+00
1.081496477127075195e+00
-3.911780357360839844e+00
9.529352188110351562e-01
-1.011094760894775391e+01
1.998370289802551270e+00
1.244489312171936035e+00
-1.818613648414611816e+00
-1.515857934951782227e+00
7.113804221153259277e-01
8.817620873451232910e-01
-2.129802942276000977e+00
8.626332879066467285e-01
-2.979640066623687744e-01
-9.606874465942382812e+00
7.849814295768737793e-01
1.074581503868103027e+00
1.445031523704528809e+00
-5.101916193962097168e-01
9.898542165756225586e-01
4.913786649703979492e-01
1.614138484001159668e+00
1.207721352577209473e+00
1.067495107650756836e+00
7.647379636764526367e-01
-7.370527982711791992e-01
-9.894107818603515625e+00
1.117534637451171875e+00
1.384512901306152344e+00
1.022022366523742676e+00
1.078643798828125000e+00
8.304883241653442383e-01
8.968390226364135742e-01
5.385866761207580566e-01
1.225792050361633301e+00
-7.821710705757141113e-01
1.806902527809143066e+00
-9.002201080322265625e+00
-9.512866020202636719e+00
6.516504287719726562e-01
-9.455901145935058594e+00
-1.320831298828125000e+00
6.714062094688415527e-01
1.050824284553527832e+00
1.400771975517272949e+00
9.543327093124389648e-01
4.941401183605194092e-01
1.106479406356811523e+00
-6.679196953773498535e-01
1.084732413291931152e+00
1.236374497413635254e+00
1.630310654640197754e+00
1.198593497276306152e+00
1.056385755538940430e+00
1.063807010650634766e+00
-2.043371200561523438e+00
2.680177450180053711e+00
5.476150512695312500e+00
7.513722032308578491e-02
-3.698097229003906250e+00
-2.284388303756713867e+00
-5.254549503326416016e+00
1.727026700973510742e+00
-8.513377606868743896e-02
8.460552245378494263e-02
1.908158808946609497e-01
-9.361869841814041138e-02
-8.116794750094413757e-03
2.045413255691528320e-01
4.708326816558837891e+00
3.174334287643432617e+00
2.931856632232666016e+00
2.808451175689697266e+00
2.480986118316650391e-01
6.417777061462402344e+00
-1.425699830055236816e+00
3.237678766250610352e+00
4.836706638336181641e+00
1.778733357787132263e-02
-5.402217388153076172e+00
1.253471821546554565e-01
-1.168951988220214844e-01
2.122408866882324219e+00
-1.296565628051757812e+01
1.284898519515991211e-01
1.707596969604492188e+01
6.645913600921630859e+00
2.623067200183868408e-01
-2.921033620834350586e+00
2.645447254180908203e+00
-1.658184647560119629e+00
-1.862599402666091919e-01
4.423521459102630615e-02
-3.716009259223937988e-01
7.384307980537414551e-01
-1.868901133537292480e+00
1.131794095039367676e+00
-3.613447248935699463e-01
3.262321949005126953e+00
-2.242406643927097321e-02
-1.731683760881423950e-01
9.658693075180053711e-01
-2.455963373184204102e+00
4.419723525643348694e-02
2.627452611923217773e+00
-1.618778146803379059e-02
1.596135854721069336e+00
-4.700215999037027359e-03
8.173518814146518707e-03
1.203829288482666016e+00
1.060418114066123962e-01
-4.744698047637939453e+00
-5.390830993652343750e+00
3.696463346481323242e+00
-1.514593213796615601e-01
4.553553089499473572e-02
2.047189921140670776e-01
-1.186454966664314270e-01
9.788956046104431152e-01
-1.809906959533691406e-02
9.604218602180480957e-01
1.226912140846252441e+00
7.759969681501388550e-02
-2.780385687947273254e-02
6.168526038527488708e-02
3.396648883819580078e+00
2.710428953170776367e+00
-1.011976227164268494e-01
-4.863497614860534668e-02
1.346376687288284302e-01
2.671150445938110352e+00
4.579530715942382812e+00
8.478230237960815430e-02
-4.023559857159852982e-03
-3.253305196762084961e+00
-3.592320680618286133e+00
2.106312513351440430e+00
-5.759247392416000366e-02
5.920055389404296875e+00
3.957118511199951172e+00
-1.996043682098388672e+00
-4.659022808074951172e+00
-5.420889377593994141e+00
1.959376968443393707e-02
4.044987201690673828e+00
-5.579774081707000732e-02
-2.355468988418579102e+00
-2.148063421249389648e+00
-3.623300790786743164e-01
6.919239997863769531e+00
-2.921905517578125000e+00
-2.532891035079956055e+00
-2.699083566665649414e+00
5.659671872854232788e-02
2.664700508117675781e+00
-4.283065319061279297e+00
1.718143701553344727e+00
2.877018153667449951e-01
-4.390492439270019531e+00
-7.242129325866699219e+00
-4.587896823883056641e+00
1.641377508640289307e-01
-3.460134744644165039e+00
-6.426143646240234375e+00
-1.523742198944091797e+01
-6.534855365753173828e-01
-1.569695591926574707e+00
-2.937114953994750977e+00
-6.070474624633789062e+00
1.424680948257446289e+00
-2.678995132446289062e-01
-5.105111598968505859e+00
-4.411925792694091797e+00
-2.813294649124145508e+00
6.828472018241882324e-02
2.547567129135131836e+00
1.122378468513488770e+00
-1.335671234130859375e+01
2.173036813735961914e+00
-1.541855216026306152e+00
-1.270120024681091309e+00
3.890129551291465759e-02
4.687794208526611328e+00
3.897144079208374023e+00
3.943277057260274887e-03
5.063073635101318359e+00
-2.216981887817382812e+00
-2.227961301803588867e+00
4.355813935399055481e-02
5.502070903778076172e+00
-2.954719305038452148e+00
-7.813236117362976074e-02
-7.455713748931884766e+00
3.224205970764160156e+00
1.227211594581604004e+00
2.862029790878295898e+00
3.152658939361572266e+00
2.354640483856201172e+00
1.833357810974121094e-01
-1.669109535217285156e+01
2.828704357147216797e+00
-1.208432838320732117e-01
-1.515797019004821777e+00
4.240563392639160156e+00
-1.680147552490234375e+01
1.430913686752319336e+00
-8.684664219617843628e-02
-1.990939676761627197e-02
-3.181187510490417480e-01
8.108311891555786133e-02
1.741365671157836914e+00
-9.765267372131347656e-02
9.696181863546371460e-02
4.666318416595458984e+00
1.164681720733642578e+01
2.786071598529815674e-02
-9.336887300014495850e-02
1.339995712041854858e-01
5.931986868381500244e-02
5.041020363569259644e-02
-4.692296504974365234e+00
1.658234745264053345e-02
5.183778330683708191e-02
1.843939185142517090e+00
5.448728561401367188e+00
2.788920141756534576e-02
-1.404104232788085938e+01
2.255179882049560547e+00
-3.481240943074226379e-02
-4.089707374572753906e+00
1.864860206842422485e-01
6.034470558166503906e+00
6.132468223571777344e+00
-4.241579771041870117e-01
-7.743609696626663208e-02
-8.430214524269104004e-01
2.125438928604125977e+00
4.034715652465820312e+00
5.237850189208984375e+00
-3.891151025891304016e-02
6.792591571807861328e+00
-7.232722759246826172e+00
2.016274690628051758e+00
1.796583652496337891e+00
1.573328018188476562e+00
-3.386171102523803711e+00
1.848749369382858276e-01
-2.234129756689071655e-01
1.320491880178451538e-01
1.469333004206418991e-02
-3.284825980663299561e-01
-1.032298207283020020e+00
1.528830528259277344e+00
4.884794235229492188e+00
2.858431577682495117e+00
