1.790407299995422363e-02
-4.590531066060066223e-02
3.152706194669008255e-03
-1.060411930084228516e-01
4.044881835579872131e-02
1.153964269906282425e-02
-2.673694863915443420e-03
-4.404379427433013916e-02
1.039162948727607727e-01
9.010443091392517090e-02
-8.654160797595977783e-02
1.164414356935594697e-06
9.785308688879013062e-02
1.013013795018196106e-01
3.298048675060272217e-02
-1.346525829285383224e-02
1.050937920808792114e-02
4.417232237756252289e-03
8.853517472743988037e-02
-1.127998926676809788e-03
4.040982946753501892e-02
-7.706783711910247803e-03
-4.876379389315843582e-03
-1.027354747056961060e-01
3.617839654907584190e-03
1.082522347569465637e-01
1.036647409200668335e-01
-5.065455567091703415e-03
1.081873197108507156e-03
1.047403588891029358e-01
-9.827278699958696961e-05
-1.210436574183404446e-03
-5.007284134626388550e-02
-7.692130282521247864e-03
1.499997731298208237e-02
-3.010228462517261505e-02
-9.675777703523635864e-02
1.293373543376219459e-06
-1.029916405677795410e-01
1.354350615292787552e-02
-3.063956275582313538e-02
-3.352252393960952759e-02
-9.937115013599395752e-02
-2.391163632273674011e-02
-9.374214708805084229e-02
9.542553871870040894e-02
-2.279280684888362885e-02
-1.375040737912058830e-03
1.075558513402938843e-01
-8.789899758994579315e-03
-1.044120565056800842e-01
5.024817585945129395e-02
-1.027613505721092224e-01
-1.579805598339589778e-06
-7.560136914253234863e-02
9.675699472427368164e-02
-2.144660614430904388e-02
-6.470749620348215103e-03
9.018520824611186981e-03
8.784481137990951538e-02
-1.061242595314979553e-01
1.944633822859032080e-06
2.555018523707985878e-03
1.937154866755008698e-02
1.102160960435867310e-01
3.769248025491833687e-03
-5.145062878727912903e-02
-1.106524690985679626e-01
2.758928303592256270e-06
9.873241186141967773e-02
3.204584063496440649e-04
-2.922364138066768646e-02
-3.343517107623483753e-07
-1.057142391800880432e-01
9.499397128820419312e-02
-1.715877652168273926e-02
1.110670063644647598e-02
3.305542350062751211e-06
-5.031593445892212912e-06
-1.318134088069200516e-02
1.135973352938890457e-02
-7.093896623700857162e-03
-9.764946997165679932e-02
-1.083958428353071213e-02
-2.747382596135139465e-02
-3.905782103538513184e-02
-1.892552711069583893e-02
3.949409816414117813e-03
-1.026076301932334900e-01
9.126442484557628632e-03
-1.120203733444213867e-01
-3.771005570888519287e-02
-9.408002719283103943e-03
-1.056097373366355896e-01
1.622314378619194031e-02
5.964012350887060165e-03
2.409737557172775269e-02
1.562192849814891815e-02
-1.055390015244483948e-01
-1.635126397013664246e-02
2.306434884667396545e-02
-3.174791485071182251e-02
-9.356009960174560547e-02
1.395079772919416428e-02
1.094722747802734375e-02
-6.374186370521783829e-03
1.096438392996788025e-01
-1.866381615400314331e-02
-1.505360938608646393e-02
-4.809331614524126053e-03
3.796776756644248962e-02
2.487641759216785431e-02
-3.098475933074951172e-02
4.149214830249547958e-03
-3.621951618697494268e-04
-9.671968966722488403e-02
1.028378773480653763e-02
4.335528239607810974e-03
2.080428227782249451e-02
-8.846062421798706055e-02
-5.614725127816200256e-02
2.147963829338550568e-02
-4.930579569190740585e-03
6.205253303050994873e-03
-4.307236522436141968e-02
-2.531984820961952209e-02
9.196139872074127197e-02
1.215913146734237671e-02
-6.682399660348892212e-03
-9.701186418533325195e-02
-3.632342442870140076e-02
9.987103752791881561e-03
-6.503092497587203979e-02
-1.030930504202842712e-01
-4.215064272284507751e-02
-1.503400225192308426e-02
-9.908148646354675293e-02
-4.201123490929603577e-03
-1.391109544783830643e-02
3.062830306589603424e-02
-1.708791404962539673e-02
9.824437089264392853e-03
-8.499354124069213867e-03
1.028208062052726746e-01
-3.708995645865797997e-03
-2.236294373869895935e-02
8.282352238893508911e-02
-7.455550134181976318e-03
1.744457706809043884e-02
3.420107823330909014e-04
-1.983941905200481415e-02
-8.457885682582855225e-02
9.726365655660629272e-02
2.732722647488117218e-02
-9.227979928255081177e-02
2.654423005878925323e-02
1.103722900152206421e-01
-4.919703304767608643e-02
1.191897201351821423e-03
-3.203344065696001053e-03
-5.548320132220396772e-07
1.078898012638092041e-01
9.071996062994003296e-02
3.791177505263476633e-07
-1.033803150057792664e-01
-5.263401195406913757e-03
1.011280566453933716e-01
-2.229848860224592499e-06
-1.072117500007152557e-02
9.753734804689884186e-03
-1.058838441967964172e-01
1.863079727627336979e-03
1.622343994677066803e-02
-8.353918045759201050e-02
1.188385649584233761e-03
-9.936519712209701538e-02
-1.134401187300682068e-02
2.208021283149719238e-02
-4.293882846832275391e-02
1.144399270415306091e-01
6.278989464044570923e-02
-9.842082858085632324e-03
5.911671556532382965e-03
-1.826663035899400711e-03
9.240067750215530396e-02
-6.862987065687775612e-04
2.553291153162717819e-03
7.721207570284605026e-03
-2.581893093883991241e-02
1.063107792288064957e-02
-4.467350989580154419e-02
-1.105932891368865967e-01
-1.002146676182746887e-01
1.026064604520797729e-01
-7.849042117595672607e-02
2.914804554166039452e-06
-3.004942648112773895e-02
-8.591102063655853271e-02
1.698941178619861603e-02
-5.106074362993240356e-02
-7.607563020428642631e-05
-1.148477289825677872e-02
-9.541819803416728973e-03
1.777944620698690414e-03
4.910912364721298218e-03
-3.302889317274093628e-02
8.648476563394069672e-03
1.733551616780459881e-03
-4.325057938694953918e-02
-1.393434405326843262e-02
-7.408838769151770975e-07
-6.749920547008514404e-03
-3.926777480955934152e-07
-5.304094403982162476e-03
-3.101856075227260590e-02
-2.532171085476875305e-03
-7.613954599946737289e-03
-3.634132735896855593e-04
-5.054967477917671204e-04
1.329313777387142181e-02
-5.343919619917869568e-04
9.083563461899757385e-03
1.363091170787811279e-03
1.315833796979859471e-04
-1.731865666806697845e-02
4.701601341366767883e-03
2.260603214381262660e-04
-1.721654143693740480e-06
-2.145158532584900968e-06
2.314344234764575958e-02
-4.229075784678570926e-06
-1.824531517922878265e-02
2.334737591445446014e-02
1.365863066166639328e-02
-4.266503266990184784e-03
-2.494503976777195930e-03
1.757431309670209885e-03
-5.738052539527416229e-03
1.626482582651078701e-03
3.825778840109705925e-04
9.078165516257286072e-03
-6.192556116729974747e-03
-1.277446560561656952e-02
6.067915819585323334e-03
2.074390649795532227e-03
8.323350921273231506e-03
1.832097041187807918e-06
4.380984231829643250e-03
-3.594592679291963577e-03
1.805419847369194031e-02
-7.165943738073110580e-03
-2.408387139439582825e-03
-2.509846352040767670e-03
1.268722489476203918e-02
-1.843286096118390560e-03
2.408920414745807648e-02
-7.500652689486742020e-03
-5.351798236370086670e-02
1.450728811323642731e-02
-1.610449049621820450e-03
1.525114756077528000e-02
-1.709368638694286346e-02
6.789505481719970703e-03
-3.316713869571685791e-02
3.822053968906402588e-02
-1.157008460722863674e-03
-6.566796451807022095e-02
-2.948524663224816322e-03
2.030834183096885681e-02
-1.311888173222541809e-02
5.257045384496450424e-03
5.030127567806630395e-07
6.404200941324234009e-02
2.675140649080276489e-02
9.238103777170181274e-02
-6.929992814548313618e-04
1.380214467644691467e-02
1.875504385679960251e-03
1.767461886629462242e-03
-5.114000290632247925e-02
-1.906423676700796932e-06
9.358520619571208954e-03
3.100322373211383820e-02
1.439578551799058914e-02
5.475018639117479324e-03
5.365998484194278717e-03
-4.375452249405498151e-07
2.307206206023693085e-02
-4.990882705897092819e-03
1.949740690179169178e-03
1.905551180243492126e-03
2.256596693769097328e-03
1.529107242822647095e-02
1.132625271566212177e-03
9.026783518493175507e-03
-9.335808455944061279e-03
-1.400675438344478607e-02
4.757158749271184206e-04
1.189059671014547348e-02
-2.469039289280772209e-03
6.785725709050893784e-03
3.679687665680830833e-07
-7.215300574898719788e-03
-1.469781381047141622e-07
-1.324190293416904751e-06
-1.751035451889038086e-02
2.639275509864091873e-03
6.921164225786924362e-03
4.255718408785469364e-07
-6.879319995641708374e-02
-1.628820225596427917e-02
-6.710399407893419266e-03
9.802680462598800659e-03
-6.667147576808929443e-02
3.952602128265425563e-05
3.802320733666419983e-02
2.290517324581742287e-03
-1.988018630072474480e-03
-8.055579382926225662e-04
6.110798101872205734e-03
-1.050053164362907410e-03
2.685988135635852814e-02
5.060813350610260386e-07
-7.612487301230430603e-03
1.870336383581161499e-02
8.855635300278663635e-03
-3.607308724895119667e-03
-7.368241436779499054e-03
4.401612281799316406e-02
-8.069039322435855865e-03
-2.429178915917873383e-02
-7.548219058662652969e-03
3.164250403642654419e-02
-8.261243812739849091e-03
-8.700839430093765259e-02
1.508459215983748436e-03
-5.970432888716459274e-03
-1.873133669505477883e-06
1.063102949410676956e-02
1.689863740466535091e-03
-3.411152167245745659e-03
1.360241556540131569e-03
-3.139170818030834198e-03
-2.512320503592491150e-02
3.749471157789230347e-02
8.239923976361751556e-03
-9.060254320502281189e-03
-5.659490451216697693e-02
-6.892513018101453781e-03
2.241521315227146260e-06
3.578509204089641571e-03
6.315374281257390976e-03
-1.701140962541103363e-02
-2.391628222540020943e-03
3.972062375396490097e-03
1.895812689326703548e-03
1.455526426434516907e-02
2.426823135465383530e-03
2.061273669824004173e-03
1.635288754187058657e-06
1.051573548465967178e-02
-5.825162399560213089e-03
-1.459027081727981567e-02
1.464776881039142609e-02
4.343250475358217955e-04
-4.557745996862649918e-04
3.725829534232616425e-03
1.701915287412703037e-03
4.866313654929399490e-03
9.254201315343379974e-03
5.505032837390899658e-03
2.581853095762198791e-06
4.512472078204154968e-03
5.918481852859258652e-03
8.757814764976501465e-03
4.330262076109647751e-03
-1.671714335680007935e-02
4.099428653717041016e-03
2.291777869686484337e-03
-1.088074222207069397e-02
-1.143102943897247314e-01
-2.496146224439144135e-02
4.912095050713105593e-07
1.720162345009157434e-06
-2.570987853687256575e-04
2.155365336875547655e-06
4.052080214023590088e-02
6.118796765804290771e-02
1.261057518422603607e-02
-8.122854866087436676e-03
7.318937219679355621e-03
-2.327146939933300018e-02
6.540170870721340179e-03
-6.266717333346605301e-03
-9.710507467389106750e-03
7.512207375839352608e-04
8.615774102509021759e-03
-1.974576152861118317e-03
-3.295314265415072441e-03
4.492583393584936857e-04
-6.148385815322399139e-03
-2.905700169503688812e-02
-7.875277660787105560e-03
-3.169158298987895250e-04
-6.136240903288125992e-03
-1.345068495720624924e-02
2.292502857744693756e-02
-5.536344833672046661e-03
-1.907699508592486382e-03
2.165528247132897377e-03
5.083251744508743286e-03
-1.999807544052600861e-03
-6.111080874688923359e-04
-7.010465487837791443e-04
1.819662377238273621e-02
-1.734274788759648800e-03
-1.921641291119158268e-03
3.328939666971564293e-03
-3.561517223715782166e-04
-6.543875206261873245e-03
3.116396721452474594e-03
-1.099707745015621185e-02
-7.522365776821970940e-04
5.899490206502377987e-04
-9.717673063278198242e-03
-4.096800461411476135e-03
7.666624151170253754e-04
1.514832675457000732e-02
1.775869354605674744e-02
2.503003180027008057e-02
-2.096690237522125244e-03
5.803298205137252808e-03
4.217024426907300949e-03
6.282390095293521881e-03
9.800297208130359650e-03
-6.000304128974676132e-03
-4.783735610544681549e-03
1.285218745470046997e-01
1.427300856448709965e-03
5.942851421423256397e-04
-1.425353111699223518e-03
-1.343829371035099030e-02
-1.425860077142715454e-02
-4.233739804476499557e-03
-3.649749793112277985e-03
-5.225172266364097595e-03
-2.073132898658514023e-03
1.941447146236896515e-03
-8.194972760975360870e-03
4.373618867248296738e-03
-3.738757688552141190e-03
-2.250021680083591491e-05
-1.453806762583553791e-03
1.451741755008697510e-01
1.230161730200052261e-02
8.550987695343792439e-04
2.002958208322525024e-03
5.297556519508361816e-03
-5.495498888194561005e-03
-2.037086756899952888e-03
-4.174359608441591263e-03
4.879788961261510849e-03
6.199500057846307755e-03
1.432343386113643646e-02
-1.171397976577281952e-03
3.176857251673936844e-03
1.037256494164466858e-01
6.225943216122686863e-04
1.552986502647399902e-01
1.204865146428346634e-02
-5.983806215226650238e-03
-1.100425515323877335e-02
1.150453696027398109e-03
4.150602966547012329e-03
2.132722875103354454e-03
-9.884911589324474335e-03
6.436653900891542435e-03
2.312414144398644567e-04
8.045490831136703491e-03
-1.039084512740373611e-02
2.903484553098678589e-02
-5.176411475986242294e-03
-4.481396172195672989e-03
-1.184238865971565247e-02
-5.823450628668069839e-03
4.946633242070674896e-03
2.100144140422344208e-02
7.149417418986558914e-03
-1.214347686618566513e-02
-1.016927650198340416e-03
-7.863045320846140385e-04
-5.625997204333543777e-03
1.112820859998464584e-02
-1.301984884776175022e-03
1.035164389759302139e-02
-6.596614606678485870e-03
-1.123684737831354141e-02
-4.776606336236000061e-03
-7.344976998865604401e-03
-1.319200964644551277e-03
6.135937292128801346e-04
-3.802454739343374968e-04
9.296926669776439667e-03
-2.342430409044027328e-03
-7.160200766520574689e-05
2.419598633423447609e-03
-1.643552910536527634e-03
1.217426615767180920e-03
8.538813330233097076e-03
-4.370568494778126478e-04
-6.799627095460891724e-03
-3.160038322675973177e-04
3.116170410066843033e-03
1.518268254585564137e-03
-8.693515323102474213e-03
-2.744941972196102142e-02
5.597778130322694778e-03
8.950826013460755348e-04
-1.888206694275140762e-03
9.074786794371902943e-04
1.545710023492574692e-03
-4.956435412168502808e-03
1.713210344314575195e-02
5.864392500370740891e-03
2.738192863762378693e-02
1.896312460303306580e-02
-1.073035644367337227e-03
4.950079135596752167e-03
-5.211358657106757164e-04
-2.249354496598243713e-03
-1.454718690365552902e-02
-5.611659493297338486e-03
3.122230246663093567e-02
4.624787252396345139e-04
-1.409302745014429092e-02
-4.757426795549690723e-04
5.406634416431188583e-03
7.777865976095199585e-03
-2.281749062240123749e-02
-2.012618584558367729e-03
1.508819521404802799e-03
1.923222281038761139e-02
-2.043532440438866615e-03
-9.122013580054044724e-04
1.057607494294643402e-02
-3.350234357640147209e-03
-4.698704578913748264e-04
-3.551409579813480377e-03
5.357908084988594055e-03
-2.786485711112618446e-04
4.826074931770563126e-03
4.825602285563945770e-03
6.564796203747391701e-04
1.089518610388040543e-02
1.877475380897521973e-01
1.027805637568235397e-02
2.870312891900539398e-04
1.703242014627903700e-04
-1.578938798047602177e-03
-7.963621988892555237e-03
-1.176700890064239502e-01
-1.569300517439842224e-02
3.313578665256500244e-03
1.607889425940811634e-04
2.759363269433379173e-03
-2.285146620124578476e-03
-1.039732364006340504e-03
1.556543633341789246e-03
-1.274781971005722880e-04
-4.284556489437818527e-03
-5.393011495471000671e-03
2.364028431475162506e-02
4.642777144908905029e-03
2.886205911636352539e-03
1.446144189685583115e-03
-6.194941233843564987e-03
-8.777944371104240417e-03
3.435899037867784500e-03
2.418352989479899406e-03
-4.267721669748425484e-04
1.818071007728576660e-01
3.116169944405555725e-02
-1.358055323362350464e-02
1.460502506233751774e-03
2.658224431797862053e-03
-2.124164020642638206e-03
4.125845152884721756e-03
-4.335227608680725098e-02
-3.200647654011845589e-03
-1.214693207293748856e-02
1.722150668501853943e-02
1.957147568464279175e-02
1.682617887854576111e-02
-2.317733913660049438e-01
-1.041694954037666321e-01
-3.612810396589338779e-04
-3.571405308321118355e-03
-6.294950842857360840e-03
1.025911699980497360e-02
-1.621272228658199310e-02
