3.037825413048267365e-02
2.594115771353244781e-02
-8.533392101526260376e-03
3.891147571266628802e-05
1.413489878177642822e-02
1.210390037158504128e-04
-4.464203026145696640e-03
2.774064196273684502e-03
1.097515905712498352e-05
9.479364962317049503e-06
9.994731954066082835e-06
1.706510010990314186e-05
-1.065104424924356863e-05
-1.247737091034650803e-04
-1.025273557752370834e-02
-1.542486529797315598e-02
-4.357430152595043182e-03
-1.835606992244720459e-02
7.058757357299327850e-03
2.211056463420391083e-02
1.233933214098215103e-02
-2.148533612489700317e-02
-8.606511168181896210e-03
-1.405539569532265887e-05
-3.162691742181777954e-02
-2.668630486368783750e-06
-2.087864850182086229e-04
-2.329571172595024109e-02
-1.480589359998703003e-01
-2.031668554991483688e-05
-5.942044034600257874e-02
-3.217291086912155151e-02
-1.844917051494121552e-02
7.419912144541740417e-03
-3.035624697804450989e-02
3.202346712350845337e-02
3.579169278964400291e-03
7.919292329461313784e-06
8.236116627813316882e-06
-2.235862798988819122e-02
6.678637117147445679e-03
-1.361815520795062184e-04
-1.653007302593323402e-06
3.412618860602378845e-02
1.569341475260443985e-05
-7.060456937324488536e-06
1.144117675721645355e-02
-8.687156252562999725e-03
6.919104635016992688e-06
-2.571186795830726624e-02
1.324485492659732699e-05
1.010248903185129166e-02
-1.902461372083052993e-05
2.591942757135257125e-05
1.258755940943956375e-02
-2.166927879443392158e-05
4.341500252485275269e-02
-1.688700914382934570e-02
-2.119664102792739868e-02
-8.039848580665420741e-06
-1.021817388391355053e-05
3.039273542526643723e-05
6.333860103040933609e-03
2.665464580059051514e-02
2.254086939501576126e-05
-2.591906348243355751e-03
-2.649657428264617920e-02
-1.179688933916622773e-05
3.781737632380099967e-06
1.622429772396571934e-05
-5.333947017788887024e-03
-5.353629123419523239e-03
2.279538421134930104e-05
9.251252208741789218e-07
1.045160752255469561e-05
-2.285115793347358704e-02
-2.101356163620948792e-02
2.250362194899935275e-05
-4.280288067093351856e-06
1.574837043881416321e-02
3.573501110076904297e-02
2.565629594027996063e-02
5.576340754487318918e-06
-1.442914549261331558e-02
-7.294910401105880737e-02
1.050232630223035812e-02
-6.618005037307739258e-02
7.250383496284484863e-02
-1.072878785635111853e-05
-1.702925562858581543e-02
4.873804755334276706e-06
-8.459574542939662933e-03
4.433519765734672546e-02
-6.725312559865415096e-04
-5.328245833516120911e-02
3.758107486646622419e-04
4.337561316788196564e-03
-4.061938077211380005e-02
-3.579523036023601890e-05
4.653711803257465363e-03
1.412822306156158447e-02
-1.227738801389932632e-02
-2.458974267938174307e-05
-1.938092708587646484e-02
7.090609520673751831e-02
-5.638052150607109070e-02
-1.285927282879129052e-04
-4.174841940402984619e-02
3.498658910393714905e-02
1.142620220780372620e-01
9.877968579530715942e-03
-1.705082692205905914e-02
6.453494075685739517e-03
2.964049391448497772e-02
2.748932689428329468e-03
-2.073992982332129031e-05
-7.617107778787612915e-02
-4.500688239932060242e-02
-1.477028854424133897e-04
8.172589332389179617e-06
7.484531030058860779e-03
-8.496812544763088226e-03
-5.517195910215377808e-02
2.083306759595870972e-02
-4.337935242801904678e-03
3.622648539021611214e-03
-1.273493126063840464e-05
1.913863420486450195e-02
3.073744289577007294e-02
-1.542476456961594522e-05
-1.393069420009851456e-02
4.229094088077545166e-02
-4.946016240864992142e-03
1.965119281521765515e-06
1.607531122863292694e-02
-2.144971489906311035e-02
-2.253315142297651619e-05
8.119475841522216797e-02
5.114531517028808594e-02
1.146671711467206478e-03
-3.588358685374259949e-02
3.582401899620890617e-03
6.614466011524200439e-02
-4.718024865724146366e-05
1.205155923962593079e-01
2.653182309586554766e-04
-4.441092256456613541e-03
-3.820040076971054077e-02
8.089175820350646973e-02
6.871775537729263306e-02
-1.275047939270734787e-02
8.864077244652435184e-06
4.472007276490330696e-05
-1.880446821451187134e-02
5.587145096797030419e-06
2.818929031491279602e-02
9.189715456159319729e-06
2.118954434990882874e-03
-3.663710132241249084e-02
8.118955790996551514e-02
-1.223725485033355653e-05
1.410848381055984646e-05
-1.066233608071343042e-06
2.059942926280200481e-05
-1.304208853980526328e-04
-5.069591104984283447e-02
3.556965093594044447e-04
-1.448160492145689204e-05
-1.738068647682666779e-02
1.962067559361457825e-02
-1.239820448972750455e-05
-1.022312864661216736e-01
-2.572705224156379700e-02
-1.310382776864571497e-05
-6.652545183897018433e-02
-1.266709841729607433e-05
-3.189639747142791748e-02
4.445882141590118408e-02
-2.094668708741664886e-02
3.223965450160903856e-06
1.068509183824062347e-02
-1.265297550708055496e-02
4.512843117117881775e-02
1.081290841102600098e-02
-8.724106010049581528e-06
5.368270725011825562e-02
2.712995745241641998e-02
1.502390019595623016e-02
-1.449569128453731537e-02
2.116271108388900757e-02
-4.084891080856323242e-02
2.111751746269874275e-05
4.673718194680986926e-06
4.903456101601477712e-06
3.678729262901470065e-05
1.729514224280137569e-05
7.816077210009098053e-03
-1.499935798346996307e-02
-2.655959315598011017e-02
3.162192879244685173e-04
-8.953775395639240742e-04
-3.926895186305046082e-02
2.367666736245155334e-02
2.077599428594112396e-02
-1.428518444299697876e-02
3.420412167906761169e-02
-2.508313767611980438e-02
-3.843956440687179565e-02
-4.877196159213781357e-03
1.757915318012237549e-02
2.310347372258547693e-05
1.302828919142484665e-02
-3.763946779145044275e-06
-1.843117363750934601e-02
-2.380343619734048843e-03
-3.723793476819992065e-02
-1.727397181093692780e-02
-2.680692076683044434e-02
4.920778330415487289e-03
-1.425143051892518997e-02
-1.027179695665836334e-02
-2.790427068248391151e-03
-2.199306711554527283e-02
-2.348302118480205536e-02
-1.478997990489006042e-03
1.146096177399158478e-02
-4.224418848752975464e-02
1.438050549040781334e-05
2.084391235257498920e-05
-2.726729726418852806e-03
-1.284208337892778218e-05
1.820686645805835724e-02
-2.009999379515647888e-02
1.369290612637996674e-02
2.441499195992946625e-02
-2.565965987741947174e-02
2.446408942341804504e-02
8.884171023964881897e-03
-1.217673812061548233e-02
-5.443405359983444214e-03
-2.326776646077632904e-02
-1.262087933719158173e-02
2.781596407294273376e-02
-6.924809515476226807e-02
7.905716076493263245e-03
-7.666077930480241776e-03
-1.129744578065583482e-05
-5.978349596261978149e-02
-1.921077445149421692e-02
1.412589382380247116e-02
-2.919584745541214943e-03
-1.771524921059608459e-02
1.673712977208197117e-04
2.691398002207279205e-02
7.598946685902774334e-04
9.119381196796894073e-03
9.469254873692989349e-03
2.082045748829841614e-02
-5.150618962943553925e-03
2.981936000287532806e-02
1.062015187926590443e-03
2.696218341588973999e-02
-2.812298387289047241e-02
-1.511869952082633972e-02
-1.298354845494031906e-02
1.253965869545936584e-02
-2.663578139618039131e-03
-4.012784920632839203e-03
6.234677042812108994e-03
-3.475797548890113831e-02
6.749951094388961792e-02
5.960509952274151146e-06
-7.726371404714882374e-04
-8.396983146667480469e-03
-8.095770142972469330e-03
-1.390173938125371933e-02
-2.485613571479916573e-03
2.556990087032318115e-02
2.860165014863014221e-02
-3.469740971922874451e-02
7.045671736705116928e-06
5.761564243584871292e-03
7.988024502992630005e-03
-1.231664698570966721e-02
3.298532217741012573e-03
-1.747021824121475220e-02
-5.371623956307303160e-06
4.792996868491172791e-02
-8.442409307463094592e-05
2.539462968707084656e-02
1.382803823798894882e-02
-1.925378106534481049e-02
-1.104687526822090149e-02
-3.433235362172126770e-02
2.038641646504402161e-02
-4.498383402824401855e-02
1.039618067443370819e-02
2.933532744646072388e-02
1.365168918709969148e-05
3.153823548927903175e-03
-7.910150103271007538e-03
-4.468026588710927172e-07
-1.964138261973857880e-02
1.018482544168364257e-05
-3.027047387149650604e-05
-3.405739739537239075e-02
2.624340122565627098e-03
5.512862480827607214e-05
2.822761052811983973e-05
-3.907362406607717276e-05
6.864808965474367142e-03
5.948969163000583649e-03
-3.363662865012884140e-03
2.034070342779159546e-02
2.706656977534294128e-02
-9.792879223823547363e-03
2.339856466278433800e-03
-5.729386582970619202e-03
-3.212577104568481445e-02
8.426445536315441132e-03
1.362247299402952194e-02
-1.652175001800060272e-02
3.211568764527328312e-05
4.930632188916206360e-03
1.377902459353208542e-02
7.546966429799795151e-03
3.599039092659950256e-02
4.197086766362190247e-02
-2.184349671006202698e-02
-3.150423616170883179e-02
3.687653690576553345e-03
-4.012705385684967041e-02
-2.523097954690456390e-02
-1.219074707478284836e-02
-4.589262884110212326e-03
-1.665644347667694092e-02
1.715800142847001553e-03
-3.237125838495558128e-06
3.416921244934201241e-03
-5.283349752426147461e-02
1.894355192780494690e-02
-1.636255905032157898e-02
-6.609722040593624115e-03
-2.033708058297634125e-02
-2.668532542884349823e-03
-4.402266349643468857e-03
1.886453665792942047e-02
-3.134858328849077225e-03
3.779580816626548767e-02
2.995462455146480352e-05
-5.428626015782356262e-02
-1.342685706913471222e-02
6.118328776210546494e-03
1.859887037426233292e-03
3.625506535172462463e-02
-1.734855031827464700e-04
4.778466187417507172e-03
-3.492977097630500793e-02
1.061123609542846680e-02
1.881356001831591129e-05
-2.715221373364329338e-03
-2.090587280690670013e-02
-8.389964699745178223e-03
2.791603468358516693e-02
-3.230334818363189697e-02
7.146643009036779404e-03
-8.322092704474925995e-03
1.880667405202984810e-03
-1.232165936380624771e-02
1.557225361466407776e-02
-6.622243206948041916e-03
3.794252188527025282e-05
-2.202508226037025452e-02
3.014983795583248138e-02
7.424790412187576294e-03
-1.444849930703639984e-02
-3.677034005522727966e-02
3.368647024035453796e-02
2.280663140118122101e-02
1.862966455519199371e-02
-4.009446129202842712e-02
3.186493366956710815e-02
-2.398566539341118187e-05
-3.055500656046206132e-06
3.195194527506828308e-02
2.282791865582112223e-05
-3.195766359567642212e-02
5.093445256352424622e-02
-2.401609439402818680e-03
4.825461283326148987e-02
-3.257810324430465698e-02
-3.370954096317291260e-02
3.620420396327972412e-02
-1.244976371526718140e-02
-3.544893814250826836e-03
-4.173859581351280212e-02
-2.189074642956256866e-02
-6.613386794924736023e-03
2.154349908232688904e-02
3.682629019021987915e-02
-1.960854418575763702e-02
2.774773724377155304e-02
-2.500789612531661987e-02
-1.594166010618209839e-01
-2.606653841212391853e-03
1.381643768399953842e-02
-3.742135688662528992e-02
-6.145660579204559326e-02
-6.987445056438446045e-02
-1.981081906706094742e-03
-3.808704391121864319e-02
2.191139198839664459e-02
1.150734946131706238e-01
-8.676243014633655548e-03
-1.276618987321853638e-01
1.150178816169500351e-02
-5.137328803539276123e-02
-3.053624927997589111e-02
6.068828701972961426e-02
1.226460561156272888e-03
5.301583185791969299e-02
7.243024883791804314e-04
2.485852874815464020e-02
-1.373642534017562866e-01
-3.375801816582679749e-02
4.307086393237113953e-02
4.321834072470664978e-02
7.478079292923212051e-03
-1.237861998379230499e-02
-4.479014314711093903e-03
1.743334718048572540e-02
2.633822336792945862e-02
-1.978237926959991455e-02
-1.316964160650968552e-02
4.134720936417579651e-02
1.683686859905719757e-02
4.785909317433834076e-03
-1.474604606628417969e-01
2.380968816578388214e-02
2.892935834825038910e-02
4.669986665248870850e-02
-6.870851386338472366e-03
3.815046697854995728e-02
-9.602648206055164337e-03
3.575973957777023315e-02
-1.825988478958606720e-02
4.186747223138809204e-02
1.403863169252872467e-02
6.075805798172950745e-02
-6.615152582526206970e-03
1.326038734987378120e-03
-4.276305064558982849e-02
-7.052057236433029175e-02
-1.756905615329742432e-01
-1.104812510311603546e-02
8.057731389999389648e-02
4.606221243739128113e-02
9.586259839124977589e-04
5.096661299467086792e-02
-3.069101832807064056e-02
-1.822693049907684326e-01
-3.173195582348853350e-04
4.132854752242565155e-03
3.034886904060840607e-02
-5.469706654548645020e-02
2.401139587163925171e-03
5.328938364982604980e-02
-1.055072620511054993e-01
-1.363888010382652283e-02
1.552473194897174835e-02
3.575253859162330627e-02
-3.316507488489151001e-02
1.964951902627944946e-01
1.133552193641662598e-01
4.637944698333740234e-02
-6.320759654045104980e-02
5.624254234135150909e-03
3.828581422567367554e-02
-8.547507226467132568e-03
1.397430617362260818e-02
2.298206277191638947e-02
2.117408625781536102e-02
8.405847102403640747e-02
-2.231671102344989777e-02
-1.947262696921825409e-02
-8.708073757588863373e-03
-3.428487107157707214e-02
5.857626348733901978e-02
7.778725773096084595e-02
2.087824977934360504e-02
-3.902877122163772583e-02
-4.476020857691764832e-02
6.456008553504943848e-02
-1.526139210909605026e-02
3.062798059545457363e-04
-1.052120886743068695e-02
8.609453216195106506e-03
-7.509638089686632156e-03
5.076612904667854309e-02
-4.904075711965560913e-02
-2.956803329288959503e-02
-8.443120121955871582e-02
-3.746330365538597107e-02
-7.779764384031295776e-02
2.377340570092201233e-02
-4.558083042502403259e-02
-6.294282618910074234e-03
-3.951298817992210388e-02
-2.361827343702316284e-02
5.351855978369712830e-02
-8.169398456811904907e-02
1.122853625565767288e-02
-3.694883780553936958e-03
-4.658342152833938599e-02
1.207032613456249237e-02
2.215965464711189270e-02
-6.894537713378667831e-03
-3.777460381388664246e-02
9.821625798940658569e-02
7.862783223390579224e-02
-3.930417075753211975e-02
4.436659812927246094e-02
-1.390010118484497070e-02
-4.208063706755638123e-02
-2.227808116003870964e-03
5.478759855031967163e-02
-1.076649222522974014e-02
-1.479446422308683395e-02
-3.943868353962898254e-02
2.043867111206054688e-02
4.007880017161369324e-02
2.028064057230949402e-02
-8.503590524196624756e-02
-2.678631432354450226e-02
-5.134623497724533081e-02
-2.571423724293708801e-02
1.581306606531143188e-01
-1.129583921283483505e-02
-2.321584522724151611e-02
-4.017121344804763794e-02
6.272345781326293945e-02
6.883393041789531708e-03
-1.020955666899681091e-02
-2.246086671948432922e-02
8.346065878868103027e-03
2.842496149241924286e-02
-3.773465007543563843e-02
5.702310800552368164e-02
-2.176206931471824646e-02
-1.661861315369606018e-02
-1.801557093858718872e-02
2.711870521306991577e-02
-6.891545653343200684e-02
-8.139365911483764648e-02
1.231093257665634155e-01
4.162803292274475098e-02
-1.163815148174762726e-02
-5.791422352194786072e-02
-2.339139766991138458e-02
-3.222950175404548645e-02
2.132871001958847046e-01
3.416926786303520203e-02
2.907307259738445282e-02
2.438173815608024597e-02
-6.831572949886322021e-02
-3.311238810420036316e-02
-5.080419406294822693e-02
-5.169995129108428955e-02
3.101599961519241333e-02
-7.308079302310943604e-02
4.124347865581512451e-02
-1.787398010492324829e-02
5.902512371540069580e-02
-2.930699102580547333e-02
7.251109927892684937e-03
7.449139375239610672e-03
3.978338558226823807e-03
1.528046466410160065e-02
1.018328741192817688e-01
4.935862496495246887e-03
7.319305092096328735e-02
2.022451348602771759e-02
-2.025398239493370056e-02
8.474147319793701172e-02
2.258824743330478668e-02
4.135182127356529236e-02
-3.506658971309661865e-02
-7.723460346460342407e-02
1.967288367450237274e-02
-5.316422320902347565e-03
-1.343374848365783691e-01
3.251921012997627258e-02
5.541964620351791382e-02
2.740519940853118896e-01
1.290081888437271118e-01
-6.822533160448074341e-02
-1.003266684710979462e-02
-5.308903288096189499e-03
1.917001605033874512e-02
-4.145293310284614563e-02
