7.818119525909423828e-01 8.733698725700378418e-01 -1.762933850288391113e+00 -8.758056163787841797e-01 1.542755007743835449e+00 -4.963343143463134766e-01 -2.070854455232620239e-01 2.515592575073242188e+00 6.212433338165283203e+00 8.205160140991210938e+00 -5.487091541290283203e+00 -2.090531349182128906e+00 5.381249904632568359e+00 -4.443441629409790039e-01 -6.183248385787010193e-02 4.273939132690429688e-01 -1.294984817504882812e+00 1.625406742095947266e-01 -4.423488378524780273e-01 -2.187097072601318359e+00 3.053463399410247803e-01 -1.288239806890487671e-01 1.041787624359130859e+00 3.530436456203460693e-01 4.619672596454620361e-01 -2.516450166702270508e+00 -7.656999826431274414e-01 6.309823393821716309e-01 -1.704605102539062500e+01 8.120255470275878906e-01 -1.826411437988281250e+01 1.135156393051147461e+00 2.948834896087646484e-01 1.271333694458007812e+00 2.536134481430053711e+00 1.294149875640869141e+00 -1.460573822259902954e-01 4.133431911468505859e-01 -1.614246249198913574e+00 8.460863828659057617e-01 8.956971764564514160e-01 1.976520866155624390e-01 -1.693402171134948730e+00 6.187356710433959961e-01 -3.886010646820068359e-01 -8.852265477180480957e-01 -7.877686619758605957e-02 -1.464868903160095215e+00 -1.917789459228515625e+00 -8.325409293174743652e-01 1.006672382354736328e+01 3.657049536705017090e-01 2.098160237073898315e-01 7.267021656036376953e+00 3.120830655097961426e-01 8.429252624511718750e+00 -5.922278165817260742e-01 2.828907668590545654e-01 -5.037760257720947266e+00 -1.008145928382873535e+00 5.169462203979492188e+00 -1.557736158370971680e+00 -5.054402723908424377e-02 1.632544398307800293e-01 1.016755008697509766e+01 -5.505632162094116211e-01 4.785634875297546387e-01 6.433286666870117188e+00 4.493418216705322266e+00 7.969389110803604126e-02 -3.135986328125000000e+00 6.126493930816650391e+00 -6.111056804656982422e+00 -9.243084907531738281e+00 -4.939361095428466797e+00 4.293463658541440964e-03 1.866497635841369629e+00 -1.459785819053649902e+00 -6.293045282363891602e-01 1.026963591575622559e+00 5.510020852088928223e-01 5.038293004035949707e-01 -7.428164005279541016e+00 4.050966739654541016e+00 9.139559268951416016e-01 -1.063517928123474121e+00 7.957803010940551758e-01 1.006092190742492676e+00 -2.222666740417480469e+00 -8.991340994834899902e-01 3.359703779220581055e+00 -1.454678893089294434e+00 -2.685372531414031982e-01 -1.565491914749145508e+00 9.950053691864013672e-01 -2.507989883422851562e+00 -2.925993204116821289e+00 -1.036432862281799316e+00 -6.045860290527343750e+00 4.865862131118774414e-01 1.836082935333251953e-01 4.461930751800537109e+00 1.943999648094177246e+00 5.365223407745361328e+00 4.749453961849212646e-01 1.910827398300170898e+00 7.614921569824218750e+00 4.473526477813720703e-01 -8.368977546691894531e+00 -1.502362823486328125e+01 -4.722377359867095947e-01 4.167732000350952148e-01 5.550044178962707520e-01 -8.507826924324035645e-01 -9.661313295364379883e-01 8.869622945785522461e-01 1.603569984436035156e+00 -4.360898956656455994e-02 -2.730577588081359863e-01 1.097082424163818359e+01 3.948997557163238525e-01 -6.673686027526855469e+00 -3.648567914962768555e+00 6.429895758628845215e-01 3.666407108306884766e+00 -3.071572780609130859e-01 2.260016947984695435e-01 2.269488014280796051e-02 -3.407052755355834961e+00 1.184581875801086426e+00 -3.582115471363067627e-01 -2.490757405757904053e-01 -1.005666032433509827e-01 1.557765603065490723e+00 -1.670711874961853027e+00 -2.783014178276062012e-01 -5.614867210388183594e-01 2.947137117385864258e+00 3.437668979167938232e-01 -2.859755158424377441e-01 -6.620212197303771973e-01 -1.121128082275390625e+00 1.284360885620117188e+00 7.759345173835754395e-01 -7.701896190643310547e+00 -6.378901004791259766e-01 2.465241700410842896e-01 5.521536350250244141e+00 1.055080294609069824e+00 1.360202217102050781e+01 1.923747360706329346e-01 -2.057326316833496094e+00 6.537586688995361328e+00 4.369448184967041016e+00 -1.320199817419052124e-01 -3.404628038406372070e-01 -1.124602603912353516e+01 4.238630533218383789e-01 2.517496109008789062e+00 1.090488147735595703e+01 -1.082280278205871582e+00 -3.133430957794189453e+00 -7.375164628028869629e-01 2.960764884948730469e+00 1.016290783882141113e+00 -7.981650829315185547e-01 1.956567764282226562e-01 1.604645103216171265e-01 -7.657440900802612305e-01 3.097196817398071289e-01 7.350514411926269531e+00 -1.636521935462951660e+00 -1.724656939506530762e+00 1.266674280166625977e+00 -1.226011037826538086e+00 -1.233664035797119141e+00 7.310788631439208984e-01 -4.443104192614555359e-02 -1.060994744300842285e+00 2.591200768947601318e-01 -2.312795817852020264e-01 -7.829651832580566406e-01 -1.379021406173706055e+00 -3.479656219482421875e+00 -1.046389993280172348e-02 8.633549213409423828e-01 5.273180484771728516e+00 4.369553551077842712e-02 -4.691599309444427490e-01 4.401006400585174561e-01 2.797178745269775391e+00 -3.350951373577117920e-01 6.038163900375366211e-01 -6.494555473327636719e+00 -7.259421825408935547e+00 1.640479326248168945e+00 -3.376918733119964600e-01 -1.934692621231079102e+00 -1.118878364562988281e+00 -8.706284165382385254e-01
1.330069661140441895e+00 3.874081134796142578e+00 -2.290801763534545898e+00 -1.500877857208251953e+00 -2.479298353195190430e+00 2.493832111358642578e+00 -6.248977780342102051e-01 -9.576106667518615723e-01 -9.259909629821777344e+00 -8.073985099792480469e+00 -4.999021053314208984e+00 -1.452406346797943115e-01 -3.961956262588500977e+00 -3.890355527400970459e-01 -4.837045073509216309e-01 -8.463566303253173828e-01 2.423988580703735352e+00 1.308389902114868164e-01 1.852684736251831055e+00 6.240367889404296875e+00 6.461258530616760254e-01 1.361823916435241699e+00 -2.303425312042236328e+00 1.490700960159301758e+00 1.719297885894775391e+00 -5.450508117675781250e+00 -1.574120372533798218e-01 -6.396778106689453125e+00 -1.571755599975585938e+01 -1.944639325141906738e+00 -2.402596712112426758e+00 2.258549451828002930e+00 -5.456930398941040039e-01 8.972919732332229614e-02 5.499857664108276367e-01 1.869362831115722656e+00 7.535961270332336426e-01 -6.769289970397949219e+00 -3.214599192142486572e-01 6.395099759101867676e-01 1.864938810467720032e-02 -1.048996392637491226e-02 2.298570156097412109e+00 1.850027680397033691e+00 -2.582893967628479004e-01 -1.031620383262634277e+00 -4.240135252475738525e-01 -2.453861981630325317e-01 1.026599526405334473e+00 1.960163474082946777e+00 3.781673669815063477e+00 9.313675761222839355e-01 6.519633531570434570e-01 -3.143737912178039551e-01 3.724902123212814331e-02 -4.182375907897949219e+00 1.733808517456054688e+00 -2.612411260604858398e+00 -1.121148943901062012e+00 -6.595114469528198242e-01 9.449046134948730469e+00 -4.980963170528411865e-01 2.060555666685104370e-01 1.560611277818679810e-01 4.088663101196289062e+00 4.988763034343719482e-01 -7.380894660949707031e+00 8.174719810485839844e+00 -2.400157600641250610e-01 -2.723057568073272705e-01 3.529343903064727783e-01 8.856089115142822266e-01 -1.010552787780761719e+01 -4.512607574462890625e+00 -5.842005729675292969e+00 2.320862293243408203e+00 -2.276254892349243164e+00 1.536774784326553345e-01 1.920234918594360352e+00 3.826790452003479004e-01 -1.628483414649963379e+00 -6.751632690429687500e-01 7.835369586944580078e+00 -1.447231650352478027e+00 -1.046431064605712891e-01 -4.429877400398254395e-01 -7.656126499176025391e+00 -8.208727836608886719e-01 2.876686155796051025e-01 -1.583829373121261597e-01 -3.050615549087524414e+00 4.962241053581237793e-01 -3.541487693786621094e+00 8.599552512168884277e-01 -6.226016283035278320e-01 -7.698610424995422363e-02 -1.242176651954650879e+00 -1.597533464431762695e+00 7.458587646484375000e+00 1.244514137506484985e-01 -1.183909058570861816e+00 -7.614428520202636719e+00 1.311342120170593262e+00 -3.720755577087402344e-01 -6.971192836761474609e+00 1.398329615592956543e+00 5.676822185516357422e+00 1.204213052988052368e-01 1.918225288391113281e+00 1.686435508728027344e+01 1.740432262420654297e+00 2.398415327072143555e+00 -1.259894251823425293e+00 2.917692899703979492e+00 5.725360661745071411e-02 -6.580212712287902832e-01 -2.997813224792480469e-01 -9.967619776725769043e-01 -5.039743781089782715e-01 -3.616429090499877930e+00 -7.452354431152343750e-01 6.623090744018554688e+00 4.744368553161621094e+00 1.397616982460021973e+00 -2.659454822540283203e+00 -4.519663333892822266e+00 -1.804265081882476807e-01 6.373236775398254395e-01 -2.276905298233032227e+00 1.292971819639205933e-01 -1.243263840675354004e+00 -2.527573108673095703e-01 -2.613918483257293701e-01 -4.975075423717498779e-01 -5.442641258239746094e+00 -4.912208557128906250e+00 -1.404307961463928223e+00 9.713766098022460938e+00 7.056044042110443115e-02 3.374454259872436523e+00 5.773345828056335449e-01 2.625250518321990967e-01 -6.528756618499755859e-01 -2.025518894195556641e+00 1.345529460906982422e+01 9.438622742891311646e-03 2.848286867141723633e+00 5.605184555053710938e+00 5.907121300697326660e-01 1.558338284492492676e+00 -1.890658736228942871e-01 -1.047006249427795410e+00 -9.266749382019042969e+00 -1.686233282089233398e+00 -6.928137689828872681e-02 1.619328379631042480e+00 -6.627327442169189453e+00 -3.623303771018981934e-02 6.677374362945556641e+00 2.994098961353302002e-01 4.651532173156738281e+00 -2.129902362823486328e+00 1.428729146718978882e-01 8.372949600219726562e+00 -1.717586964368820190e-01 -1.003231287002563477e+00 8.378567695617675781e-01 -9.244329929351806641e-01 1.414560198783874512e+00 1.512428224086761475e-01 -4.368148803710937500e+00 -2.090337562561035156e+01 1.566797018051147461e+00 -1.189934387803077698e-01 -3.379895210266113281e+00 -8.308348655700683594e-01 -2.362565994262695312e+00 5.235257625579833984e+00 2.041978240013122559e-01 3.581180423498153687e-02 -3.674371913075447083e-02 -1.215474128723144531e+00 3.095309972763061523e+00 -6.158993020653724670e-02 -2.918590307235717773e-01 1.400211453437805176e+00 -1.297763943672180176e+00 6.390923261642456055e-01 1.124875545501708984e+00 1.882528811693191528e-01 -6.757216900587081909e-02 -2.008431255817413330e-01 -7.105070948600769043e-01 1.253585517406463623e-01 1.467639207839965820e-01 -7.407553791999816895e-01 -1.407104849815368652e+00 -2.053162574768066406e+00 4.618721604347229004e-01 3.588037729263305664e+00
8.758903145790100098e-01 -7.433695197105407715e-01 -1.468934863805770874e-01 1.056960391998291016e+01 9.122614264488220215e-01 8.101307749748229980e-01 -3.561334908008575439e-01 5.088877081871032715e-01 5.917926311492919922e+00 -3.710919141769409180e+00 6.920644760131835938e+00 -3.948001861572265625e-01 -1.034597873687744141e+01 1.100101828575134277e+00 -2.539629340171813965e-01 -7.780888676643371582e-01 1.493805795907974243e-01 -1.693670392036437988e+00 2.229708284139633179e-01 4.084648132324218750e+00 -1.972087472677230835e-01 4.521585106849670410e-01 4.749153554439544678e-02 1.245982274413108826e-01 -2.669917941093444824e-01 -5.658491611480712891e+00 -1.184071779251098633e+00 9.311018586158752441e-01 2.579915285110473633e+00 -9.850359559059143066e-01 -1.621939468383789062e+01 -4.972653687000274658e-01 -2.317404896020889282e-01 2.682335376739501953e-01 -6.498920321464538574e-01 -7.550141811370849609e-01 -6.858986616134643555e-01 -6.715945601463317871e-01 -2.644656002521514893e-01 -5.543590188026428223e-01 -6.184032559394836426e-01 -3.865840435028076172e-01 1.272008419036865234e+00 -5.809630751609802246e-01 1.604636311531066895e+00 6.728376150131225586e-01 -9.607446670532226562e+00 -5.075781941413879395e-01 -3.556491732597351074e-01 1.745185017585754395e+00 -5.446177005767822266e+00 -2.189470678567886353e-01 8.531460762023925781e-01 1.763570308685302734e-02 -3.087189674377441406e+00 -6.128929615020751953e+00 3.552846238017082214e-02 7.828697562217712402e-02 -1.615211833268404007e-03 -4.385888874530792236e-01 1.015516376495361328e+01 2.630350291728973389e-01 3.107721805572509766e-01 -1.710189223289489746e+00 4.526120185852050781e+00 -2.462206184864044189e-01 6.105764955282211304e-02 7.524059295654296875e+00 1.933857053518295288e-01 -9.172312617301940918e-01 -2.142304182052612305e-01 -1.107998490333557129e+00 -9.162665367126464844e+00 -5.814899444580078125e+00 -7.227780818939208984e+00 4.741864204406738281e-01 -3.808128356933593750e+00 7.319321390241384506e-03 -7.557120323181152344e-01 6.785748004913330078e-01 -1.678708076477050781e+00 -9.956828355789184570e-01 -8.084127426147460938e+00 -1.515848755836486816e+00 -8.051854968070983887e-01 -1.796327829360961914e-01 2.623219966888427734e+00 -3.846721887588500977e+00 -1.459656953811645508e-01 4.081090390682220459e-01 4.541362285614013672e+00 2.298130750656127930e+00 -5.433192104101181030e-02 1.532376766204833984e+00 -6.165539264678955078e+00 -9.085622429847717285e-02 7.756870388984680176e-01 9.643853902816772461e-01 -7.700714111328125000e+00 1.289188027381896973e+00 -1.632180362939834595e-01 6.087566375732421875e+00 -2.138868331909179688e+00 2.526981115341186523e+00 -1.068619847297668457e+00 1.489688903093338013e-01 -2.721480369567871094e+00 4.278026580810546875e+00 3.297539234161376953e+00 9.371852874755859375e+00 2.270926952362060547e+00 5.456523299217224121e-01 4.916658625006675720e-02 -1.280426502227783203e+00 -3.262220621109008789e-01 5.785959959030151367e-01 -2.001238167285919189e-01 5.540700554847717285e-01 1.737551689147949219e-01 -8.828150749206542969e+00 1.316336989402770996e+00 -3.592869520187377930e+00 1.724140357971191406e+01 2.903749644756317139e-01 -1.361298918724060059e+00 -3.273670971393585205e-01 -3.905241787433624268e-01 3.726166188716888428e-01 3.068581819534301758e+00 4.407550990581512451e-01 -2.752791643142700195e+00 1.299291491508483887e+00 -2.749614238739013672e+00 2.191015005111694336e+00 1.665275931358337402e+00 -1.902677416801452637e-01 -1.531627535820007324e+00 -3.557803392410278320e+00 1.579873204231262207e+00 -3.535327017307281494e-01 -4.435051977634429932e-01 -2.442414999008178711e+00 -6.652306020259857178e-02 -2.392631471157073975e-01 -1.301585483551025391e+01 7.226484417915344238e-01 2.654884159564971924e-01 -4.443750381469726562e+00 -8.039653897285461426e-01 -1.769816780090332031e+01 5.384887009859085083e-02 -6.419873237609863281e-01 7.402004241943359375e+00 1.837139487266540527e+00 -4.017251968383789062e+00 -1.679454594850540161e-01 8.211444854736328125e+00 1.196858406066894531e+00 -5.631572604179382324e-01 1.267108058929443359e+01 1.461745798587799072e-01 6.320775952190160751e-03 4.045681059360504150e-01 -7.995493888854980469e+00 -7.736967206001281738e-01 -3.256410956382751465e-01 -3.795571625232696533e-01 -3.836011886596679688e-01 2.805066406726837158e-01 4.984044432640075684e-01 -6.979133129119873047e+00 9.408301115036010742e-01 9.705783128738403320e-01 -1.121187329292297363e+00 -4.771209061145782471e-01 -4.613492190837860107e-01 -1.140449047088623047e-01 3.305493295192718506e-02 -1.802462041378021240e-01 1.821052312850952148e+00 -6.924750328063964844e+00 -6.573296189308166504e-01 1.039881348609924316e+00 -6.971366405487060547e+00 1.847343444824218750e+00 3.280776977539062500e+00 -1.494449853897094727e+00 2.242378711700439453e+00 4.528714716434478760e-01 5.216831564903259277e-01 -2.792335450649261475e-01 -3.188184261322021484e+00 -3.703181505203247070e+00 -1.407294273376464844e-01 -5.187564492225646973e-01 -8.274904452264308929e-03 -3.452393710613250732e-01 8.469153642654418945e-01 5.661521553993225098e-01 -6.214595437049865723e-01
-4.190414905548095703e+00 -3.930227994918823242e+00 2.768638372421264648e+00 -6.683522224426269531e+00 5.350129127502441406e+00 3.844675302505493164e+00 -1.088762378692626953e+01 -3.140985667705535889e-01 -2.627721309661865234e+00 -9.737123847007751465e-01 -5.309384346008300781e+00 -4.678639411926269531e+00 2.427755355834960938e+00 -2.098149538040161133e+00 -1.799846440553665161e-01 -3.074011087417602539e+00 5.312523365020751953e+00 -6.954031586647033691e-01 4.501954615116119385e-01 8.266658782958984375e+00 -1.433019042015075684e-01 2.539568185806274414e+00 -5.512851238250732422e+00 -9.344421625137329102e-01 -2.359999895095825195e+00 -9.500694870948791504e-01 -4.263368129730224609e+00 5.143381953239440918e-01 -8.176112771034240723e-01 -4.698621749877929688e+00 2.794837713241577148e+00 8.257176399230957031e+00 -4.276731967926025391e+00 7.017608880996704102e-01 -7.537286281585693359e-01 -3.510726988315582275e-02 -3.067774057388305664e+00 -7.041374206542968750e+00 1.284318923950195312e+00 -2.512544870376586914e+00 -1.567585825920104980e+00 2.784304087981581688e-03 2.053004741668701172e+00 1.907385110855102539e+00 -3.976210355758666992e+00 3.273355662822723389e-01 -3.786353111267089844e+00 -7.838909626007080078e+00 3.998004674911499023e+00 1.669420897960662842e-01 6.468988656997680664e-01 3.097759246826171875e+00 -1.938739538192749023e+00 -8.629750251770019531e+00 3.114001512527465820e+00 9.810101509094238281e+00 1.263251066207885742e+00 9.941647052764892578e-01 2.175292253494262695e+00 -4.984962940216064453e+00 -2.296793222427368164e+00 2.920791625976562500e+00 1.698983430862426758e+00 -2.800687789916992188e+00 -9.088647842407226562e+00 2.861006557941436768e-01 1.282820582389831543e+00 5.149827003479003906e+00 -3.740246772766113281e+00 2.470102071762084961e+00 7.160264492034912109e+00 -7.878387570381164551e-01 1.402630448341369629e+00 -9.211840629577636719e+00 4.399771094322204590e-01 2.217608690261840820e+00 5.468423843383789062e+00 -7.241178750991821289e-01 -2.837023019790649414e+00 -2.347948551177978516e+00 -6.962944269180297852e-01 7.654400825500488281e+00 -1.178011059761047363e+00 3.467190742492675781e+00 -5.201534628868103027e-01 3.294924020767211914e+00 -2.748842716217041016e+00 2.799303531646728516e+00 -4.089795589447021484e+00 1.291877555847167969e+01 -3.712545707821846008e-02 1.352253198623657227e+00 3.536203861236572266e+00 -2.217639446258544922e+00 4.347045898437500000e+00 2.213258743286132812e+00 -6.053687572479248047e+00 1.552078604698181152e+00 3.334194898605346680e+00 6.071865558624267578e+00 -4.512248039245605469e+00 6.894494056701660156e+00 -4.036283969879150391e+00 -1.426232695579528809e+00 1.634791254997253418e+00 -1.989103257656097412e-01 -1.830935716629028320e+00 -1.338929176330566406e+00 -7.635916471481323242e-01 -2.137973606586456299e-01 -1.044602751731872559e+00 -2.434731245040893555e+00 -5.321272850036621094e+00 -4.496019840240478516e+00 -4.250812053680419922e+00 -1.854040265083312988e+00 9.461008310317993164e-01 -4.450844764709472656e+00 -4.288558848202228546e-03 -1.549935698509216309e+00 1.241203069686889648e+00 3.053637266159057617e+00 -1.977205038070678711e+00 -2.921744585037231445e+00 -7.887588143348693848e-01 1.083624839782714844e+00 -7.660689949989318848e-01 -5.165071964263916016e+00 -1.337787508964538574e-01 3.457983016967773438e+00 3.981368541717529297e+00 -3.037406802177429199e-01 1.728136658668518066e+00 2.791450738906860352e+00 -1.518252015113830566e+00 6.442539215087890625e+00 6.618970870971679688e+00 7.712106704711914062e-01 3.933464586734771729e-01 2.743268907070159912e-01 -2.336594820022583008e+00 -2.257087230682373047e+00 9.356362342834472656e+00 -3.851665258407592773e+00 4.473095893859863281e+00 -3.350288152694702148e+00 1.524647951126098633e+00 -3.908303081989288330e-01 -3.716737985610961914e+00 -1.802629351615905762e+00 -3.512171983718872070e+00 -1.023425221443176270e+00 -3.565363585948944092e-01 -8.778302371501922607e-02 1.239752411842346191e+00 2.571361064910888672e+00 2.538226127624511719e+00 7.122160434722900391e+00 -1.662945508956909180e+00 9.367377281188964844e+00 -7.551485538482666016e+00 8.615941405296325684e-01 2.069375038146972656e+00 -3.504683732986450195e+00 9.939604997634887695e-01 2.246959924697875977e+00 4.182582721114158630e-02 -6.947875618934631348e-01 -1.611596584320068359e+00 -3.432836294174194336e+00 -5.078388214111328125e+00 1.823466420173645020e+00 -3.141137599945068359e+00 1.323888421058654785e+00 1.695442676544189453e+00 4.663484394550323486e-01 6.893978595733642578e+00 -1.977783203125000000e+00 1.500038266181945801e+00 -6.936856508255004883e-01 -1.440737694501876831e-01 -2.363891452550888062e-01 1.282895207405090332e+00 -4.411629199981689453e+00 3.484282732009887695e+00 2.526494979858398438e+00 -5.353235244750976562e+00 9.086953401565551758e-01 -3.228705406188964844e+00 1.538943409919738770e+00 -1.730568885803222656e+00 -7.229242801666259766e+00 6.992742538452148438e+00 -4.413313567638397217e-01 -1.184344577789306641e+01 -3.146873950958251953e+00 -1.040452420711517334e-01 -1.064542174339294434e+00 1.084186935424804688e+01 9.432652592658996582e-01
-1.727756671607494354e-02 2.333186864852905273e+00 2.295450210571289062e+00 2.030700206756591797e+00 -5.088936090469360352e-01 -3.560806065797805786e-02 -1.725951910018920898e+00 2.485416412353515625e+00 -4.399326324462890625e+00 5.612689971923828125e+00 1.969801336526870728e-01 2.878626346588134766e+00 1.362153530120849609e+00 -7.292488813400268555e-01 -1.339837610721588135e-01 3.709782361984252930e-01 -5.130536556243896484e+00 4.089986905455589294e-02 -2.137346744537353516e+00 1.312237930297851562e+01 -1.067022681236267090e-01 9.798056602478027344e+00 3.251621723175048828e+00 2.296642512083053589e-01 -1.221568393707275391e+01 3.254902839660644531e+00 1.623360991477966309e+00 8.780073523521423340e-01 -4.235046207904815674e-01 -5.207641124725341797e+00 -1.471634864807128906e+00 3.852010488510131836e+00 -9.713144302368164062e-01 -1.715519070625305176e+00 -2.661126852035522461e+00 8.729671686887741089e-02 4.667858779430389404e-01 1.670637512207031250e+01 -1.492869734764099121e+00 1.707357645034790039e+00 -2.497095823287963867e+00 4.852998733520507812e+00 2.186431288719177246e-01 -6.514777183532714844e+00 -1.668462276458740234e+00 1.917548298835754395e+00 -5.427284717559814453e+00 1.775546222925186157e-01 -1.456575512886047363e+00 -1.197990417480468750e+00 -6.662011742591857910e-01 -1.008902955800294876e-02 4.069058418273925781e+00 2.871606588363647461e+00 -7.064176201820373535e-01 -5.524953007698059082e-01 -5.463700771331787109e+00 -2.468717336654663086e+00 6.182690262794494629e-01 4.540644168853759766e+00 -4.292839050292968750e+00 -8.951717615127563477e-01 1.282391190528869629e+00 -4.769287586212158203e+00 -1.835091471672058105e+00 1.078284025192260742e+00 1.325172334909439087e-01 3.452322483062744141e+00 8.297683000564575195e-01 1.396359682083129883e+00 -8.773753046989440918e-01 -1.103644490242004395e+00 -2.886015363037586212e-02 4.433063864707946777e-01 -9.344466924667358398e-01 1.146121311187744141e+01 2.528772115707397461e+00 -1.421438455581665039e+00 2.516564913094043732e-03 -8.329554796218872070e-01 2.745990455150604248e-02 7.949057817459106445e-01 -1.208767771720886230e+00 -5.353600978851318359e-01 4.338621616363525391e+00 -2.647528648376464844e+00 1.926680326461791992e+00 7.318941950798034668e-01 2.614474773406982422e+00 5.141171216964721680e-01 1.067872881889343262e+00 -2.605078458786010742e+00 -9.199512481689453125e+00 2.723829269409179688e+00 -2.976580381393432617e+00 -2.527466535568237305e+00 -3.232432365417480469e+00 1.088346242904663086e+00 -1.706113964319229126e-01 -2.320939064025878906e+00 -1.558888339996337891e+01 7.183468818664550781e+00 -2.870027065277099609e+00 -3.173037469387054443e-01 -2.129903793334960938e+00 -1.408122181892395020e+00 -4.068835735321044922e+00 -1.599810272455215454e-01 -3.699726760387420654e-01 -2.295412063598632812e+00 -3.221845388412475586e+00 9.126716852188110352e-01 2.718222856521606445e+00 2.413461685180664062e+00 4.483899593353271484e+00 -1.333145737648010254e+00 -1.202145218849182129e+00 -7.170027256011962891e+00 -1.524954795837402344e+00 1.108771204948425293e+00 2.153475999832153320e+00 2.636005401611328125e+00 -5.578680038452148438e-01 -1.922037839889526367e+00 3.192910552024841309e-01 -2.343695402145385742e+00 -7.995983362197875977e-01 1.063935852050781250e+01 -2.090011239051818848e-01 -1.159345865249633789e+00 6.059806346893310547e+00 3.191729784011840820e+00 -8.087638616561889648e-01 -2.525587320327758789e+00 -1.905359029769897461e+00 -9.620649337768554688e+00 -2.028272390365600586e+00 -8.511298894882202148e-01 4.415649414062500000e+00 -6.083852767944335938e+00 -3.969827890396118164e-01 4.234310150146484375e+00 7.710562348365783691e-01 -1.990753889083862305e+00 5.766263008117675781e+00 5.220254138112068176e-02 1.611866235733032227e+00 -8.319686055183410645e-01 2.911634206771850586e+00 4.215299189090728760e-01 7.385922670364379883e-01 -6.534152477979660034e-02 -2.385944366455078125e+00 1.037103086709976196e-01 2.041819334030151367e+00 1.427552103996276855e+00 2.114059925079345703e-01 -3.080691576004028320e+00 -3.831675291061401367e+00 3.361575365066528320e+00 1.849951171875000000e+01 -1.595603942871093750e+00 1.484542489051818848e+00 2.661294698715209961e+00 -1.238470315933227539e+00 -1.322106480598449707e+00 -6.102957725524902344e+00 2.556514024734497070e+00 3.450445652008056641e+00 1.617155313491821289e+00 2.302718639373779297e+00 4.226626396179199219e+00 7.201607227325439453e-01 3.877610921859741211e+00 7.092738151550292969e-01 -2.667621135711669922e+00 5.383931636810302734e+00 3.518758535385131836e+00 3.771788179874420166e-01 3.160051584243774414e+00 5.674345493316650391e-01 -2.177288770675659180e+00 -3.578144013881683350e-01 -2.159409523010253906e+00 2.594947814941406250e-02 -3.650172233581542969e+00 -2.941963672637939453e-01 -2.044004946947097778e-01 2.458893060684204102e+00 4.738767147064208984e+00 9.725936651229858398e-01 -9.233842849731445312e+00 5.613114833831787109e+00 4.553720057010650635e-01 3.767988920211791992e+00 9.058972001075744629e-01 4.454472541809082031e+00 3.868293046951293945e+00 1.358790516853332520e+00 4.910339832305908203e+00
-4.104076027870178223e-01 1.549648404121398926e+00 -1.366019725799560547e+00 1.263847732543945312e+01 -8.359757065773010254e-02 -2.159404754638671875e+00 -3.850892305374145508e+00 2.359017431735992432e-01 -2.741029739379882812e+00 -1.465167760848999023e+00 -5.459565162658691406e+00 5.419664859771728516e+00 -6.530938148498535156e-01 2.029844760894775391e+00 7.613186836242675781e-01 1.193273067474365234e+00 3.617490291595458984e+00 1.325500011444091797e+00 9.117803573608398438e-01 4.995472908020019531e+00 -1.203302979469299316e+00 2.283478260040283203e+00 1.763750016689300537e-01 4.462552070617675781e-01 -9.178197860717773438e+00 7.441468834877014160e-01 2.886814594268798828e+00 -6.170930266380310059e-01 -6.369937658309936523e-01 -4.902867794036865234e+00 1.655282020568847656e+00 4.886271953582763672e+00 5.651074051856994629e-01 -1.497530579566955566e+00 3.114771366119384766e+00 -1.098045587539672852e+00 1.171297058463096619e-01 -6.104823589324951172e+00 -2.257592916488647461e+00 5.818707346916198730e-01 -4.692145287990570068e-01 -3.726263642311096191e-01 1.722857117652893066e+00 2.870107889175415039e+00 -5.035856723785400391e+00 -1.222558990120887756e-01 1.559715366363525391e+01 2.885952234268188477e+00 -1.175920248031616211e+00 1.614171624183654785e+00 -1.245659351348876953e+00 -3.648267030715942383e+00 7.364723086357116699e-01 3.878293514251708984e+00 -3.369913578033447266e+00 4.731436252593994141e+00 4.307395815849304199e-01 2.327218770980834961e+00 -2.266546487808227539e+00 -4.637111723423004150e-01 -2.345394372940063477e+00 -2.247363328933715820e+00 1.663882255554199219e+00 8.878022193908691406e+00 -3.748479127883911133e+00 1.686370372772216797e+00 5.586469769477844238e-01 3.708988189697265625e+00 1.085760712623596191e+00 -3.494242906570434570e+00 -3.999642133712768555e+00 2.702311277389526367e+00 -7.694050073623657227e-01 -3.196001768112182617e+00 -1.956284642219543457e+00 -2.637042045593261719e+00 1.619081258773803711e+00 1.735997349023818970e-01 1.119936347007751465e+00 -5.190105915069580078e+00 3.910256624221801758e-01 -3.994870662689208984e+00 -3.728288888931274414e+00 -1.557389974594116211e+00 -1.371327042579650879e+00 -2.082209587097167969e+00 1.120015025138854980e+00 -1.178557395935058594e+01 2.040633440017700195e+00 -5.733096599578857422e+00 -1.507616996765136719e+00 -1.404488444328308105e+00 1.856105566024780273e+00 1.891163229942321777e+00 1.175127863883972168e+00 3.365274906158447266e+00 1.410470724105834961e+00 -1.406862974166870117e+00 -4.301974773406982422e+00 -3.570791244506835938e+00 -5.023970127105712891e+00 2.135586738586425781e+00 4.856008529663085938e+00 -4.496204376220703125e+00 1.686534404754638672e+00 1.719459772109985352e+00 -1.506758093833923340e+00 -3.265115737915039062e+00 -3.459495306015014648e+00 -2.886627435684204102e+00 -6.103389263153076172e+00 -2.231937408447265625e+00 -1.057035326957702637e-01 -5.050093173980712891e+00 -9.650095701217651367e-01 8.541317939758300781e+00 -1.350312113761901855e+00 -3.456577062606811523e+00 -8.245190382003784180e-01 -4.303251266479492188e+00 -2.333894520998001099e-01 3.373550415039062500e+00 -4.774207115173339844e+00 4.403464794158935547e+00 -4.910454452037811279e-01 1.001249074935913086e+00 1.859679341316223145e+00 8.557720184326171875e-01 2.358964920043945312e+00 -4.914047718048095703e+00 8.464443206787109375e+00 -5.179410934448242188e+00 -1.380877971649169922e+01 -2.347596645355224609e+00 1.982479929924011230e+00 5.153937339782714844e-01 -3.260050773620605469e+00 -1.636453986167907715e+00 6.341230392456054688e+00 6.637234091758728027e-01 -1.069187045097351074e+00 -6.830528974533081055e-01 -2.442325115203857422e+00 1.793977260589599609e+00 7.253313064575195312e+00 5.364070415496826172e+00 -1.451364636421203613e+00 5.034871578216552734e+00 3.537861347198486328e+00 -4.138533115386962891e+00 -7.169042825698852539e-01 1.090655326843261719e+00 -3.824075460433959961e+00 -1.088572025299072266e+00 -6.141830444335937500e+00 -1.585846900939941406e+00 -1.635617375373840332e+00 5.661501884460449219e+00 4.517486572265625000e+00 9.627115249633789062e+00 -6.991868972778320312e+00 -4.883464276790618896e-01 -1.065550327301025391e+00 -1.051352918148040771e-02 5.689942240715026855e-01 2.017386436462402344e+00 -1.454082131385803223e+00 -1.339663267135620117e+00 -1.175462841987609863e+00 2.085222244262695312e+00 -6.107345104217529297e+00 5.803022384643554688e+00 -1.889331489801406860e-01 -2.441559076309204102e+00 -1.201538681983947754e+00 8.278272747993469238e-01 1.071327972412109375e+01 -1.156004786491394043e+00 -2.088665008544921875e+00 5.027181506156921387e-01 2.922968626022338867e+00 5.030426502227783203e+00 3.659018576145172119e-01 5.037702083587646484e+00 -3.027463674545288086e+00 3.604718923568725586e+00 3.661760985851287842e-01 9.836047172546386719e+00 1.531577587127685547e+00 1.065764904022216797e+00 -1.028864860534667969e+00 1.162956333160400391e+01 -6.904672145843505859e+00 -7.090993970632553101e-02 4.739246845245361328e+00 2.763355731964111328e+00 -4.504913687705993652e-01 -9.550486803054809570e-01 2.902598857879638672e+00 -3.215524435043334961e+00
