8.447966575622558594e+00
8.512118339538574219e+00
8.508282661437988281e+00
8.521671295166015625e+00
8.461311340332031250e+00
8.559584617614746094e+00
8.495393753051757812e+00
8.466199874877929688e+00
8.372067451477050781e+00
8.458821296691894531e+00
8.434745788574218750e+00
8.489150047302246094e+00
8.479192733764648438e+00
8.545020103454589844e+00
8.538248062133789062e+00
8.464135169982910156e+00
8.469899177551269531e+00
8.522979736328125000e+00
8.473851203918457031e+00
8.483962059020996094e+00
8.523963928222656250e+00
8.526576042175292969e+00
8.497157096862792969e+00
8.472976684570312500e+00
8.429465293884277344e+00
8.517223358154296875e+00
8.519344329833984375e+00
8.501724243164062500e+00
8.519677162170410156e+00
8.438554763793945312e+00
8.451503753662109375e+00
8.529080390930175781e+00
8.577585220336914062e+00
8.534158706665039062e+00
8.540503501892089844e+00
8.460879325866699219e+00
8.511116981506347656e+00
8.461224555969238281e+00
8.543018341064453125e+00
8.489262580871582031e+00
8.505589485168457031e+00
8.424940109252929688e+00
8.563760757446289062e+00
8.436904907226562500e+00
8.465963363647460938e+00
8.561847686767578125e+00
8.536813735961914062e+00
8.525767326354980469e+00
8.523947715759277344e+00
8.448540687561035156e+00
8.500619888305664062e+00
8.545890808105468750e+00
8.586670875549316406e+00
8.406864166259765625e+00
8.428963661193847656e+00
8.437538146972656250e+00
8.482273101806640625e+00
8.492942810058593750e+00
8.451025962829589844e+00
8.527572631835937500e+00
8.515330314636230469e+00
8.519079208374023438e+00
8.522758483886718750e+00
8.440342903137207031e+00
8.519927024841308594e+00
8.582063674926757812e+00
8.555830955505371094e+00
8.446941375732421875e+00
8.425323486328125000e+00
8.505746841430664062e+00
8.486540794372558594e+00
8.470096588134765625e+00
8.449535369873046875e+00
8.501000404357910156e+00
8.546955108642578125e+00
8.489992141723632812e+00
8.474374771118164062e+00
8.494154930114746094e+00
8.435559272766113281e+00
8.550028800964355469e+00
8.461798667907714844e+00
8.432438850402832031e+00
8.543919563293457031e+00
8.461122512817382812e+00
8.463556289672851562e+00
8.561860084533691406e+00
8.469773292541503906e+00
8.558620452880859375e+00
8.416442871093750000e+00
8.492712020874023438e+00
8.448605537414550781e+00
8.552992820739746094e+00
8.437899589538574219e+00
8.489180564880371094e+00
8.545145988464355469e+00
8.564835548400878906e+00
8.443235397338867188e+00
8.534587860107421875e+00
8.555478096008300781e+00
8.521577835083007812e+00
8.474568367004394531e+00
8.547843933105468750e+00
8.568167686462402344e+00
8.472055435180664062e+00
8.495553970336914062e+00
8.539866447448730469e+00
8.504555702209472656e+00
8.497210502624511719e+00
8.482295989990234375e+00
8.508086204528808594e+00
8.531877517700195312e+00
8.537983894348144531e+00
8.533056259155273438e+00
8.485398292541503906e+00
8.576053619384765625e+00
8.514675140380859375e+00
8.515617370605468750e+00
8.545103073120117188e+00
8.506703376770019531e+00
8.519308090209960938e+00
8.513477325439453125e+00
8.368317604064941406e+00
8.372476577758789062e+00
8.520799636840820312e+00
8.547555923461914062e+00
8.450445175170898438e+00
8.510916709899902344e+00
8.536889076232910156e+00
8.470469474792480469e+00
8.555152893066406250e+00
8.502864837646484375e+00
8.454207420349121094e+00
8.600005149841308594e+00
8.535672187805175781e+00
8.545024871826171875e+00
8.505351066589355469e+00
8.514038085937500000e+00
8.536102294921875000e+00
8.458887100219726562e+00
8.468152046203613281e+00
8.542003631591796875e+00
8.479799270629882812e+00
8.488936424255371094e+00
8.483793258666992188e+00
8.555568695068359375e+00
8.569967269897460938e+00
8.490995407104492188e+00
8.514776229858398438e+00
8.561345100402832031e+00
8.582970619201660156e+00
-1.011254692077636719e+01
-9.943012237548828125e+00
-9.942187309265136719e+00
9.724678993225097656e-01
-1.026402187347412109e+01
-1.048400115966796875e+01
-1.051105022430419922e+01
1.055721044540405273e+00
3.014339506626129150e-01
-1.043482685089111328e+01
-9.616375923156738281e+00
-9.774012565612792969e+00
4.520004391670227051e-01
-1.028114318847656250e+01
-1.097329044342041016e+01
9.298232197761535645e-01
-1.015216159820556641e+01
-1.063342571258544922e+01
1.289421677589416504e+00
1.263709187507629395e+00
-1.032879638671875000e+01
-1.074924850463867188e+01
8.604194521903991699e-01
1.411033630371093750e+00
-1.049370479583740234e+01
-1.091303730010986328e+01
1.143079400062561035e+00
7.298982888460159302e-02
8.894779682159423828e-01
1.188690423965454102e+00
4.460465312004089355e-01
-1.050490760803222656e+01
1.214936017990112305e+00
6.663354635238647461e-01
4.481244683265686035e-01
-1.072346496582031250e+01
-1.033590888977050781e+01
9.508102536201477051e-01
6.162537336349487305e-01
5.802041888236999512e-01
1.232132792472839355e+00
-9.711509704589843750e+00
-1.011753082275390625e+01
-1.042570114135742188e+01
1.358527779579162598e+00
-1.050452995300292969e+01
8.392847180366516113e-01
-9.958786964416503906e+00
-9.945279121398925781e+00
-1.005323410034179688e+01
2.864636778831481934e-01
-1.090052986145019531e+01
-1.053442382812500000e+01
1.302047133445739746e+00
8.882423043251037598e-01
8.247125744819641113e-01
9.339708685874938965e-01
-1.098813533782958984e+01
1.212985992431640625e+00
-9.927156448364257812e+00
8.370516896247863770e-01
4.092071354389190674e-01
1.257208228111267090e+00
1.258388757705688477e+00
-1.078359413146972656e+01
-1.077112197875976562e+01
-9.737019538879394531e+00
-9.488826751708984375e+00
1.224727034568786621e+00
-1.010454940795898438e+01
-1.058312416076660156e+01
-1.089796638488769531e+01
-1.085244464874267578e+01
9.638313055038452148e-01
-1.089299583435058594e+01
-1.086200237274169922e+01
1.234833478927612305e+00
-9.906928062438964844e+00
-5.581714510917663574e-01
5.109484195709228516e-01
-9.829212188720703125e+00
1.445073723793029785e+00
-1.086744976043701172e+01
-1.012834072113037109e+01
7.295230627059936523e-01
1.201599955558776855e+00
-9.490093231201171875e+00
6.321104764938354492e-01
-9.512742042541503906e+00
-9.854155540466308594e+00
9.556648731231689453e-01
-1.104261684417724609e+01
1.195100784301757812e+00
-1.077920532226562500e+01
-9.995843887329101562e+00
-1.034576416015625000e+01
1.146510720252990723e+00
-1.092820358276367188e+01
-9.791583061218261719e+00
8.820429444313049316e-01
-1.050149440765380859e+01
9.017050266265869141e-01
6.415303349494934082e-01
1.102202653884887695e+00
1.165749073028564453e+00
1.128419756889343262e+00
-1.014866161346435547e+01
-1.032557773590087891e+01
1.386880159378051758e+00
1.502452939748764038e-01
-1.028576183319091797e+01
8.346102833747863770e-01
-1.025565147399902344e+01
-1.016488456726074219e+01
-1.061627960205078125e+01
7.173674702644348145e-01
-1.045836925506591797e+01
-1.061208534240722656e+01
-9.959865570068359375e+00
8.779971599578857422e-01
1.190940737724304199e+00
7.675515413284301758e-01
1.109518408775329590e+00
-1.013899898529052734e+01
-1.069356632232666016e+01
-9.793160438537597656e+00
7.331070303916931152e-01
-9.839627265930175781e+00
-1.044287586212158203e+01
7.882995605468750000e-01
-1.086798763275146484e+01
8.554981350898742676e-01
-1.044361877441406250e+01
-1.021327877044677734e+01
-1.053348636627197266e+01
8.928121328353881836e-01
1.218672752380371094e+00
1.278305292129516602e+00
-9.998810768127441406e+00
-1.068995952606201172e+01
7.963299155235290527e-01
-1.071486854553222656e+01
1.246469616889953613e+00
1.395158469676971436e-01
-1.046990299224853516e+01
-9.642944335937500000e+00
-1.044721984863281250e+01
-1.006320095062255859e+01
6.328958868980407715e-01
-4.296947002410888672e+00
-1.339928507804870605e-01
1.177628934383392334e-01
1.159756034612655640e-01
-5.331396684050559998e-02
6.352493539452552795e-03
-8.197499811649322510e-02
-4.264818876981735229e-02
-3.276099264621734619e-01
-1.086183171719312668e-02
-4.341420903801918030e-02
1.532606184482574463e-01
7.845685817301273346e-03
-9.492363780736923218e-02
3.822930157184600830e-02
-4.787670075893402100e-02
-3.129398683086037636e-04
-1.101496443152427673e-01
8.143075555562973022e-02
1.857235096395015717e-02
1.954615861177444458e-01
-3.609834238886833191e-03
-2.212414331734180450e-02
-9.191925823688507080e-02
4.115890562534332275e-01
-6.673209369182586670e-02
1.678697206079959869e-02
2.450689077377319336e-01
-1.588762402534484863e-01
-9.978787600994110107e-02
-2.026686966419219971e-01
-1.544428467750549316e-01
7.318721711635589600e-02
1.779883950948715210e-01
-2.063950523734092712e-02
2.448926679790019989e-02
1.541782468557357788e-01
6.672304868698120117e-02
7.693532109260559082e-02
2.978963218629360199e-02
-7.845605909824371338e-02
4.950574040412902832e-02
-1.054990366101264954e-01
-3.969222307205200195e-02
-1.981507986783981323e-01
-1.395334303379058838e-01
-2.455468103289604187e-02
1.248368769884109497e-01
-1.668825373053550720e-02
3.031035326421260834e-02
1.429819464683532715e-01
-2.280972339212894440e-02
1.737016066908836365e-02
-3.794594481587409973e-02
5.137662217020988464e-02
-3.679773807525634766e-01
-8.929115720093250275e-03
-9.086499921977519989e-03
-1.896595396101474762e-02
2.229456007480621338e-01
2.287782961502671242e-03
-9.089664556086063385e-03
1.418985519558191299e-02
3.213131800293922424e-02
-1.729836612939834595e-01
-5.039156600832939148e-02
-5.847560986876487732e-02
3.478429466485977173e-02
-2.792907655239105225e-01
-2.682974338531494141e-01
5.638546496629714966e-02
-1.512925922870635986e-01
-6.890215445309877396e-04
1.853662729263305664e-02
2.422111853957176208e-02
3.749578073620796204e-02
6.611514091491699219e-02
2.048340290784835815e-01
2.526853978633880615e-01
-7.361676078289747238e-03
1.383920107036828995e-02
-3.317236006259918213e-01
-3.385455310344696045e-01
-2.458659000694751740e-02
3.601017640903592110e-03
3.249962581321597099e-03
-4.539771005511283875e-02
-5.939959362149238586e-02
-5.849235504865646362e-02
-2.432585507631301880e-01
-5.261414498090744019e-02
1.254809349775314331e-01
-6.884659174829721451e-03
-1.818387061357498169e-01
-7.283734530210494995e-02
-7.461264729499816895e-02
8.330543339252471924e-02
2.029932737350463867e-01
-1.467371359467506409e-02
-2.959599345922470093e-02
-6.070785596966743469e-02
-1.136705130338668823e-01
7.244687527418136597e-02
6.356140132993459702e-03
-7.062719762325286865e-02
2.972144782543182373e-01
9.667765349149703979e-02
5.874238535761833191e-02
-7.219641469419002533e-03
2.774348258972167969e-01
3.886461630463600159e-02
-9.549856185913085938e-02
1.197045594453811646e-01
-4.131083488464355469e-01
1.510655283927917480e-01
5.301720649003982544e-02
3.287139907479286194e-02
2.379740774631500244e-02
5.711552128195762634e-02
-3.537026792764663696e-02
-5.207538232207298279e-02
1.109358444809913635e-01
1.495132446289062500e-01
-2.318213582038879395e-01
-2.603926695883274078e-02
-9.570866823196411133e-02
-1.339728683233261108e-01
-5.159661546349525452e-02
-1.828176230192184448e-01
2.575735095888376236e-03
-4.158157855272293091e-02
4.364000633358955383e-02
5.899230390787124634e-02
-5.777404643595218658e-03
-5.348008126020431519e-02
7.786008063703775406e-03
-4.849366471171379089e-02
9.323977679014205933e-02
1.276852637529373169e-01
2.170127928256988525e-01
5.523795261979103088e-02
1.277368068695068359e-01
-2.138341031968593597e-02
5.230201408267021179e-02
-1.587946414947509766e-01
-9.434165060520172119e-02
-1.995360106229782104e-02
-2.921983785927295685e-02
-9.829166531562805176e-02
-1.029072608798742294e-02
2.409513853490352631e-02
