-1.728838205337524414e+00 -2.277827978134155273e+00 2.907840013504028320e+00 2.674357891082763672e+00 -3.721481263637542725e-01 1.331852793693542480e+00 1.256115531921386719e+01 2.047275006771087646e-01 -4.478598237037658691e-01 -1.219075083732604980e+00 7.329804897308349609e-01 -1.682223701477050781e+01 1.939241766929626465e+00 -3.793574571609497070e+00 3.821566343307495117e+00 1.741674542427062988e+00 6.864976137876510620e-02 -5.952427864074707031e+00 8.522394895553588867e-01 -3.024310767650604248e-01 -9.106202125549316406e+00 7.625648021697998047e+00 -3.822592973709106445e+00 2.389446049928665161e-01 -3.628693103790283203e+00 -7.545610904693603516e+00 -9.861889295279979706e-03 2.223921775817871094e+00 -2.526839017868041992e+00 -4.269804954528808594e+00 -1.410493850708007812e-01 -1.835601627826690674e-01 3.554291427135467529e-01 1.703209686279296875e+01 -3.221095800399780273e+00 3.477210521697998047e+00 -2.377430677413940430e+00 6.425079822540283203e+00 3.233860015869140625e+00 1.172165679931640625e+01 -8.442727088928222656e+00 -2.791184782981872559e-01 -1.547114849090576172e+00 -1.848200416564941406e+01 1.347114741802215576e-01 -9.975172996520996094e+00 -4.575430452823638916e-01 2.233170700073242188e+01 -8.410596847534179688e+00 -2.071850746870040894e-01 3.919489383697509766e+00 1.313479185104370117e+00 -1.663842916488647461e+00 -2.955155372619628906e-01 3.570338785648345947e-01 3.751155436038970947e-01 -4.577951431274414062e+00 -1.009422969818115234e+01 4.226464748382568359e+00 -4.593048572540283203e+00 -3.645482540130615234e+00 8.618692398071289062e+00 4.205764830112457275e-02 1.729765683412551880e-01 -3.612254381179809570e+00 5.585253715515136719e+00 1.314191341400146484e+00 -1.802567839622497559e-01 2.636967420578002930e+00 1.131443977355957031e+00 5.003281116485595703e+00 -2.280152559280395508e+00 -2.292355298995971680e+00 3.033721446990966797e+00 5.475639820098876953e+00 -6.215951442718505859e+00 9.780691266059875488e-01 1.619483375549316406e+01 -1.549239444732666016e+01 -1.753778266906738281e+01 1.373719596862792969e+01 1.168925046920776367e+00 6.893369674682617188e+00 -1.187523677945137024e-01 1.502662420272827148e+00 -7.645360469818115234e+00 -9.005466103553771973e-01 8.469554901123046875e+00 3.968288898468017578e+00 -4.536400794982910156e+00 1.196374773979187012e+00 9.949523806571960449e-01 -1.656247854232788086e+00 -5.383470654487609863e-01 8.171754837036132812e+00 -1.383713722229003906e+01 1.933824062347412109e+00 -3.330120086669921875e+00 3.098557949066162109e+00 1.726919651031494141e+00 3.072905063629150391e+00 -1.517211198806762695e+00 -1.195641636848449707e+00 6.230404376983642578e-01 1.580511212348937988e+00 8.923745155334472656e-01 -2.353110313415527344e+00 -7.953347682952880859e+00 3.534690290689468384e-02 -2.215923547744750977e+00 5.673440456390380859e+00 1.965074300765991211e+00 -1.595476818084716797e+01 -1.592615795135498047e+01 8.632555007934570312e+00 -1.209095358848571777e+00 -1.291404724121093750e+01 7.080571174621582031e+00 -1.114133071899414062e+01 1.212407469749450684e+00 1.437099695205688477e+00 -2.250607758760452271e-01 5.400382280349731445e-01 -5.121578693389892578e+00 -8.626462936401367188e+00 -3.830374479293823242e+00 1.535774767398834229e-01 7.954983234405517578e+00 -1.031202030181884766e+01 -3.408870458602905273e+00 9.664140701293945312e+00 1.029057860374450684e+00 -5.341728687286376953e+00 2.071149587631225586e+00 -1.190381908416748047e+01 -4.901019573211669922e+00 -1.401799201965332031e+00 -5.265188813209533691e-01 -1.416580677032470703e+01 -1.370131015777587891e+01 -4.663141250610351562e+00 1.031463146209716797e+01 -6.080625057220458984e-01 -2.304485142230987549e-01 -7.047985553741455078e+00 -6.657617568969726562e+00 -1.719693565368652344e+01 1.056376266479492188e+01 3.247878313064575195e+00 -4.908849298954010010e-01
5.775891542434692383e-01 -4.510722160339355469e+00 -1.114358305931091309e+00 -6.502248287200927734e+00 3.511802911758422852e+00 -7.431280136108398438e+00 -8.408551216125488281e+00 1.764793753623962402e+00 1.582018971443176270e+00 -2.307671010494232178e-01 7.470919132232666016e+00 1.287358999252319336e+00 -1.633942842483520508e+00 -1.323519134521484375e+01 -3.111024379730224609e+00 -1.322861313819885254e+00 2.467633962631225586e+00 -2.044803810119628906e+01 -1.774599850177764893e-01 2.769909501075744629e-01 1.073952293395996094e+01 1.777256202697753906e+01 4.012359142303466797e+00 -3.989527821540832520e-01 1.235660743713378906e+01 1.496319293975830078e+00 -2.636411786079406738e-01 -2.412917315959930420e-01 5.833810329437255859e+00 1.729725241661071777e+00 1.030890464782714844e+00 1.313804912567138672e+01 2.726418256759643555e+00 -1.747421383857727051e+00 3.880100548267364502e-01 3.094192981719970703e+00 -1.140134334564208984e+00 -1.067446172237396240e-01 5.475920200347900391e+00 -3.112591207027435303e-01 1.522447705268859863e+00 -1.252691030502319336e+00 1.842017650604248047e+00 -1.033374309539794922e+01 1.008729338645935059e+00 1.530665874481201172e+01 -7.890311241149902344e+00 3.463245555758476257e-02 5.007376149296760559e-02 -9.776192307472229004e-01 -2.218984961509704590e-01 -3.980819940567016602e+00 3.095271885395050049e-01 1.460823416709899902e+00 2.131124258041381836e+00 -1.965725898742675781e+00 3.087165832519531250e+00 4.924164116382598877e-01 1.237845301628112793e+00 -8.529205322265625000e+00 4.224594593048095703e+00 1.595798879861831665e-01 3.577317595481872559e-01 1.788331419229507446e-01 1.820965003967285156e+01 -1.101094818115234375e+01 5.592665076255798340e-01 -4.915305078029632568e-01 4.262033700942993164e-01 1.541531085968017578e+00 2.407874822616577148e+00 6.705050468444824219e+00 -5.585297584533691406e+00 6.227208614349365234e+00 1.496741485595703125e+01 8.545908927917480469e+00 -5.905070304870605469e-01 -7.223180294036865234e+00 5.831202864646911621e-01 -2.260460376739501953e+00 5.430724143981933594e+00 1.453456759452819824e+00 4.208396911621093750e+00 9.229885935783386230e-01 4.594224452972412109e+00 -8.195049762725830078e-01 -7.586994171142578125e+00 -1.549073696136474609e+00 -2.941606044769287109e+00 5.477710366249084473e-01 1.350879192352294922e+00 -1.295019626617431641e+00 -3.070571422576904297e-01 1.553557872772216797e+01 5.973564147949218750e+00 -3.889331221580505371e-01 -1.101605653762817383e+00 1.456925272941589355e+00 1.875789403915405273e+00 5.900133132934570312e+00 -9.557130932807922363e-01 5.219530582427978516e+00 7.420923709869384766e-01 -1.047843933105468750e+00 2.558000326156616211e+00 6.467168927192687988e-01 8.263358473777770996e-01 -9.992723464965820312e+00 -8.533681631088256836e-01 8.278927206993103027e-01 -2.022830843925476074e-01 4.986844062805175781e+00 -4.692708492279052734e+00 6.633239388465881348e-01 -1.704830741882324219e+01 -3.113732099533081055e+00 1.501513957977294922e+01 1.545090293884277344e+01 4.516316413879394531e+00 -3.139309167861938477e+00 -8.833189606666564941e-01 1.278950333595275879e+00 3.104531288146972656e+00 1.198726272583007812e+01 -2.106153678894042969e+01 4.536881446838378906e+00 1.014281749725341797e+00 -5.504284381866455078e+00 -1.086456584930419922e+01 4.823531210422515869e-01 1.705293059349060059e+00 6.861041069030761719e+00 -1.401495170593261719e+01 1.095105457305908203e+01 6.099639892578125000e+00 -2.411846399307250977e+00 9.262755513191223145e-01 1.329166650772094727e+00 7.535861492156982422e+00 -1.955807685852050781e+01 -2.692485809326171875e+00 -1.857739448547363281e+01 -3.330788910388946533e-01 8.182265162467956543e-01 -1.632638359069824219e+01 -1.559693932533264160e+00 9.599548339843750000e+00 -1.008919596672058105e+00 -1.873930215835571289e+00 5.667821764945983887e-01
2.186229944229125977e+00 3.005827188491821289e+00 -1.903151154518127441e+00 -9.162927865982055664e-01 -2.177674770355224609e-01 -3.463953256607055664e+00 -1.149158763885498047e+01 -1.253498792648315430e+00 7.317048311233520508e-01 1.080092668533325195e+00 -2.369255870580673218e-01 7.632454037666320801e-01 -6.208532810211181641e+00 -3.448017835617065430e+00 -1.206363773345947266e+01 1.343347549438476562e+00 3.877724707126617432e-01 1.303734588623046875e+01 -1.342196583747863770e+00 5.890802145004272461e-01 -1.172347927093505859e+01 4.284212112426757812e+00 2.050193071365356445e+00 -6.349273920059204102e-01 8.113425254821777344e+00 7.487435340881347656e+00 -3.601531982421875000e+00 -9.606597423553466797e-01 1.327210664749145508e+00 -3.257228851318359375e+00 7.480504512786865234e+00 -1.017911529541015625e+01 -2.896302461624145508e+00 -3.152554929256439209e-01 -2.633617162704467773e+00 1.553872776031494141e+01 5.797723293304443359e+00 3.055832624435424805e+00 -4.638491630554199219e+00 -9.241323471069335938e+00 1.554262161254882812e+00 6.092036724090576172e+00 -6.171769499778747559e-01 5.674607276916503906e+00 -1.871371388435363770e+00 4.383622646331787109e+00 -1.236735939979553223e+00 3.404540538787841797e+00 -5.123059272766113281e+00 -1.490994930267333984e+00 9.021923065185546875e+00 1.892660140991210938e+01 4.032568931579589844e+00 2.265961170196533203e+00 -1.456686496734619141e+00 -4.601103782653808594e+00 -1.641520410776138306e-01 -2.144599151611328125e+01 3.438478410243988037e-01 -3.606824159622192383e+00 3.662639379501342773e+00 7.149783611297607422e+00 -2.477931022644042969e+00 -2.423506677150726318e-01 -1.001244831085205078e+01 6.273920536041259766e+00 -1.139235854148864746e+00 -5.377683162689208984e+00 -6.199892520904541016e+00 -6.161956310272216797e+00 1.300680446624755859e+01 -2.116874313354492188e+01 1.981699752807617188e+01 -5.860345363616943359e-01 -3.283977031707763672e+00 1.384691047668457031e+01 1.186234593391418457e+00 1.745147705078125000e+00 8.958109617233276367e-01 -1.141976475715637207e+00 1.085566520690917969e+00 4.148838520050048828e+00 1.612980842590332031e+01 1.519827097654342651e-01 -8.175605535507202148e-01 5.575126171112060547e+00 4.575628757476806641e+00 3.883027315139770508e+00 -3.773182630538940430e+00 5.699433326721191406e+00 -9.121341109275817871e-01 -1.508225536346435547e+01 -5.882772445678710938e+00 1.182345628738403320e+00 1.248192310333251953e+01 5.035563945770263672e+00 -1.003688454627990723e+00 1.019442272186279297e+01 3.749355792999267578e+00 1.751113891601562500e+00 8.014570236206054688e+00 -2.253511428833007812e+00 1.643824338912963867e+00 8.396213054656982422e-01 -8.179454803466796875e-01 1.439190864562988281e+00 -6.221870422363281250e+00 -3.753409147262573242e+00 -5.966108441352844238e-01 7.899044036865234375e+00 -3.531015872955322266e+00 2.619988657534122467e-02 -9.013587951660156250e+00 -1.989795863628387451e-01 -9.063055992126464844e+00 -1.613603591918945312e+00 1.828818321228027344e+01 -2.853844404220581055e+00 7.483766555786132812e+00 -2.299757480621337891e+00 -4.474470913410186768e-01 -4.431018829345703125e+00 -2.854963839054107666e-01 -1.631646513938903809e+00 1.386131668090820312e+01 2.718537569046020508e+00 -6.079329013824462891e+00 1.735929250717163086e-01 -1.490347266197204590e+00 -1.698117852210998535e+00 2.185023117065429688e+01 -1.861701130867004395e+00 -1.920157074928283691e+00 9.912665367126464844e+00 2.054556131362915039e+00 -2.845277309417724609e+00 -2.490979433059692383e+00 5.270676687359809875e-02 -5.585056781768798828e+00 1.574462771415710449e+00 -1.330998325347900391e+01 -3.654064655303955078e+00 2.648709058761596680e+00 5.130814552307128906e+00 5.975360393524169922e+00 -6.553397178649902344e+00 3.868947505950927734e+00 -1.500524997711181641e+00 6.091505289077758789e-01 -7.390683889389038086e-02
2.796272635459899902e-01 -9.054974555969238281e+00 5.622760772705078125e+00 -9.219158887863159180e-01 3.966611027717590332e-01 1.175975561141967773e+00 -2.942582607269287109e+00 2.902080774307250977e+00 -1.651532411575317383e+00 8.913525938987731934e-01 2.663467884063720703e+00 2.234196424484252930e+00 8.204279899597167969e+00 4.791984081268310547e+00 -1.462482738494873047e+01 -2.154272079467773438e+00 -1.692217230796813965e+00 -1.029159450531005859e+01 7.947559356689453125e-01 2.122455358505249023e+00 1.508148384094238281e+01 -1.162168884277343750e+01 -3.335498332977294922e+00 4.516460895538330078e+00 2.817690849304199219e+00 1.428204345703125000e+01 3.062866926193237305e+00 -3.622974395751953125e+00 1.571306586265563965e+00 4.654298305511474609e+00 -2.391927003860473633e+00 -6.940255641937255859e+00 4.933692932128906250e+00 6.156095027923583984e+00 4.163807868957519531e+00 8.873879432678222656e+00 -5.880378246307373047e+00 -5.964381217956542969e+00 5.956879615783691406e+00 5.955210685729980469e+00 -4.186332970857620239e-02 -9.770237922668457031e+00 4.499722123146057129e-01 7.582648396492004395e-01 1.560528278350830078e+00 -6.343173980712890625e+00 4.361423492431640625e+00 -1.449638962745666504e+00 -1.399040937423706055e+00 5.373774051666259766e+00 -1.013786983489990234e+01 1.302789974212646484e+01 -1.133163166046142578e+01 -1.714029788970947266e+00 1.119172334671020508e+00 6.048213958740234375e+00 2.407439947128295898e+00 -1.145215892791748047e+01 1.059378981590270996e+00 1.312174916267395020e+00 -7.311621189117431641e+00 -1.036024761199951172e+01 2.304782152175903320e+00 1.738581299781799316e+00 9.996167182922363281e+00 -5.461078643798828125e+00 -1.531043410301208496e+00 1.322076892852783203e+01 4.529669761657714844e+00 1.415318584442138672e+01 6.037221431732177734e+00 -1.104584598541259766e+01 1.380286693572998047e+01 5.131478309631347656e-01 -1.317271709442138672e+01 1.349675559997558594e+01 -2.396732807159423828e+00 1.643369197845458984e+00 2.558094821870326996e-02 -2.562377452850341797e+00 1.809635519981384277e+00 -7.767903804779052734e+00 1.156800270080566406e+01 -1.826938152313232422e+00 6.723443984985351562e+00 -4.094727516174316406e+00 -8.492738723754882812e+00 6.230430603027343750e+00 5.348760604858398438e+00 -1.066918277740478516e+01 3.801296472549438477e+00 -1.580626583099365234e+01 3.462155342102050781e+00 1.177199554443359375e+01 -3.835395336151123047e+00 -8.859357237815856934e-02 3.079918384552001953e+00 1.265666007995605469e+01 1.010676383972167969e+00 -6.912613391876220703e+00 -7.616766691207885742e-01 3.922643661499023438e+00 -6.753255128860473633e-01 2.821672439575195312e+00 4.366720199584960938e+00 1.352954983711242676e+00 9.981800079345703125e+00 9.154774665832519531e+00 3.097965940833091736e-02 -9.965900421142578125e+00 6.699870586395263672e+00 8.700193166732788086e-01 4.886091351509094238e-01 3.133670568466186523e+00 9.263467788696289062e+00 5.215438604354858398e-01 -1.097047138214111328e+01 -4.595474720001220703e+00 -1.040228939056396484e+01 2.807536125183105469e+00 1.763879060745239258e+00 5.307736396789550781e+00 3.073864221572875977e+00 3.137271881103515625e+00 -8.951143264770507812e+00 -6.002171993255615234e+00 1.007573509216308594e+01 4.283949375152587891e+00 4.913939952850341797e+00 -9.747694015502929688e+00 1.170814704895019531e+01 4.718834877014160156e+00 6.898747920989990234e+00 -1.086170673370361328e+01 6.258554935455322266e+00 1.070781612396240234e+01 -3.241922557353973389e-01 7.971457391977310181e-02 -2.618248224258422852e+00 5.408172011375427246e-01 7.314757823944091797e+00 -1.055648040771484375e+01 -6.284774303436279297e+00 -5.950766086578369141e+00 -1.658555388450622559e+00 5.835336685180664062e+00 5.355736255645751953e+00 9.385892748832702637e-01 1.162710762023925781e+01 2.388478517532348633e+00
-1.388343429565429688e+01 -2.760543346405029297e+00 4.800616204738616943e-01 -2.833979129791259766e+00 9.821868538856506348e-01 2.142329597473144531e+01 1.076943206787109375e+01 2.744217157363891602e+00 -3.265739679336547852e-01 -1.281775379180908203e+01 -3.984074592590332031e-01 -3.542897224426269531e+00 -4.039830207824707031e+00 -1.281224370002746582e+00 -1.259448528289794922e+01 -1.323726058006286621e+00 1.418175029754638672e+01 7.293520450592041016e+00 -4.365610599517822266e+00 2.545878171920776367e+00 -8.392821311950683594e+00 -3.354163169860839844e+00 -2.324999570846557617e-01 5.646328926086425781e+00 -2.240059226751327515e-01 1.528312110900878906e+01 1.423772871494293213e-01 1.025728130340576172e+01 -8.541031479835510254e-01 -1.618887901306152344e+00 4.029887676239013672e+00 -1.172299146652221680e+00 -6.468184947967529297e+00 2.706968784332275391e-01 1.048184013366699219e+01 3.401698827743530273e+00 -1.701550865173339844e+01 1.869897365570068359e+00 -2.073044776916503906e+00 3.214589953422546387e-01 1.218443155288696289e+00 1.152393722534179688e+01 -1.358441352844238281e+01 1.632773995399475098e+00 -2.361243724822998047e+00 -2.331575155258178711e+00 -8.294998407363891602e-01 -2.304082632064819336e+00 1.028401756286621094e+01 7.249550819396972656e+00 1.286704421043395996e+00 -8.680297851562500000e+00 1.960257148742675781e+01 -7.349011301994323730e-01 1.558244347572326660e+00 -8.448675274848937988e-01 -8.390452384948730469e+00 -8.023355484008789062e+00 -2.121772050857543945e+00 -7.992949485778808594e-01 -3.047885417938232422e+00 -5.653488636016845703e+00 1.167354956269264221e-01 7.506017088890075684e-01 1.294777584075927734e+01 -1.692962646484375000e+01 1.551223850250244141e+01 -1.798391461372375488e+00 -9.505793452262878418e-01 -9.509367942810058594e+00 4.316619396209716797e+00 1.123456287384033203e+01 -1.154432296752929688e+01 -2.271115541458129883e+00 -1.059431266784667969e+01 -6.625939369201660156e+00 -1.556714057922363281e+00 1.756464242935180664e+00 -2.321922332048416138e-01 -1.598205208778381348e+00 1.723493635654449463e-01 1.742757916450500488e+00 7.900896072387695312e+00 4.064758419990539551e-01 -1.340294778347015381e-01 1.575309872627258301e+00 2.416517019271850586e+00 -2.654492139816284180e+00 -1.447708964347839355e+00 1.220514202117919922e+01 9.753540754318237305e-01 -5.158117294311523438e+00 -6.810831427574157715e-01 8.546135902404785156e+00 -6.179317831993103027e-01 -7.236651420593261719e+00 -5.071917772293090820e-01 1.257943248748779297e+01 -6.454761505126953125e+00 -2.843170166015625000e-01 -1.824865150451660156e+01 -1.427872061729431152e+00 3.129001557826995850e-01 2.350545406341552734e+00 5.180139064788818359e+00 4.284784317016601562e+00 -3.748025894165039062e+00 4.599462985992431641e+00 1.108106896281242371e-01 7.010717391967773438e+00 1.159430694580078125e+01 -1.730436384677886963e-01 -7.115018963813781738e-01 2.048081874847412109e+00 1.408596420288085938e+01 -1.427508354187011719e+00 8.428750634193420410e-01 -9.145550727844238281e+00 -2.547186315059661865e-01 -5.145217418670654297e+00 5.194523811340332031e+00 -6.144082546234130859e-01 -1.420500993728637695e+00 -2.262736320495605469e+00 -5.145816326141357422e+00 1.109842014312744141e+01 -5.647772789001464844e+00 1.154965519905090332e+00 4.677432060241699219e+00 -1.871261358261108398e+00 -1.324516057968139648e+00 -3.715208053588867188e+00 -1.090947914123535156e+01 9.336128234863281250e+00 1.316787528991699219e+01 -4.100578308105468750e+00 5.149684429168701172e+00 8.772464990615844727e-01 -6.126309037208557129e-01 -7.738587856292724609e-01 -5.304097652435302734e+00 4.118553176522254944e-02 1.060524806380271912e-01 2.631883621215820312e-01 1.770415753126144409e-01 -1.685231804847717285e+00 -2.421434402465820312e+00 3.082730531692504883e+00 -6.832801103591918945e-01 -3.149891138076782227e+00
2.029605358839035034e-01 1.710520744323730469e+00 -1.343066596984863281e+01 4.936680793762207031e+00 -2.109183311462402344e+01 -7.890920162200927734e+00 -2.967378616333007812e+00 -2.937972843647003174e-01 5.528031349182128906e+00 -1.845686584711074829e-01 -8.857558250427246094e+00 -5.269060611724853516e+00 1.198775291442871094e+01 -8.270797729492187500e-01 1.136565494537353516e+01 -1.067894840240478516e+01 -8.518394470214843750e+00 -4.647950172424316406e+00 -1.709201216697692871e+00 1.715100288391113281e+00 -1.557113456726074219e+01 8.884860038757324219e+00 -2.424409866333007812e+00 -3.931477963924407959e-01 1.564654946327209473e+00 -1.267806434631347656e+01 9.224035263061523438e+00 3.993087410926818848e-01 -2.545647382736206055e+00 1.100723505020141602e+00 7.028097510337829590e-01 -3.900681495666503906e+00 4.298514366149902344e+00 2.937436342239379883e+00 4.374364852905273438e+00 -6.147546172142028809e-01 -3.111017942428588867e-01 -2.686391472816467285e-01 -7.393005371093750000e+00 -3.193152904510498047e+00 5.271393060684204102e-02 -1.028650045394897461e+00 -5.594918727874755859e+00 1.971095085144042969e+00 7.800640463829040527e-01 7.082265377044677734e+00 1.762022972106933594e+00 -3.339156150817871094e+00 -1.637190937995910645e+00 9.264833450317382812e+00 1.753909707069396973e+00 -1.288505077362060547e+01 1.614676356315612793e+00 1.792190372943878174e-01 7.754295825958251953e+00 -1.053457355499267578e+01 4.928478240966796875e+00 -1.258565139770507812e+01 -2.199502885341644287e-01 3.599426150321960449e-01 -6.502750515937805176e-01 7.586630344390869141e+00 6.574866771697998047e-01 7.648223876953125000e+00 -4.480803310871124268e-01 -1.309295177459716797e+01 3.855300843715667725e-01 -5.125790238380432129e-01 2.268051058053970337e-01 1.413609862327575684e+00 7.514150738716125488e-01 1.007945728302001953e+01 1.151315784454345703e+01 -1.775572150945663452e-01 -1.313271617889404297e+01 1.192191410064697266e+01 -1.252613663673400879e+00 1.717434674501419067e-01 2.264405786991119385e-01 3.890884220600128174e-01 -1.022249817848205566e+00 1.645304560661315918e+00 -1.331769371032714844e+01 -1.273069667816162109e+01 3.838946342468261719e+00 6.959480047225952148e-01 9.192767143249511719e+00 -2.654239177703857422e+00 -3.122083902359008789e+00 7.930370807647705078e+00 9.876047372817993164e-01 1.366589260101318359e+01 -2.087160199880599976e-01 1.901087045669555664e+00 -3.149986028671264648e+00 -9.948280334472656250e+00 -4.304407238960266113e-01 1.678456306457519531e+01 -9.970771670341491699e-01 -2.395236968994140625e+00 -6.290428638458251953e-01 3.700491905212402344e+00 -1.373843765258789062e+01 -6.655785441398620605e-01 -2.117249488830566406e+00 3.317148447036743164e+00 1.476513385772705078e+01 -8.202425956726074219e+00 -8.164505362510681152e-01 -9.528394699096679688e+00 1.510764479637145996e+00 -3.396534681320190430e+00 -9.904715418815612793e-01 -6.273415088653564453e-01 2.645014047622680664e+00 9.887033462524414062e+00 -2.317904084920883179e-01 -1.565006971359252930e+00 -9.481863975524902344e+00 -7.786664485931396484e+00 -6.110724449157714844e+00 -1.223229408264160156e+01 7.545971870422363281e-01 7.902440428733825684e-01 -5.730521678924560547e-01 2.026413381099700928e-01 -9.708309173583984375e+00 2.986043930053710938e+00 -5.121687889099121094e+00 6.610475540161132812e+00 1.067000293731689453e+01 1.744939327239990234e+00 2.653323650360107422e+00 -1.096052169799804688e+00 3.564048290252685547e+00 -3.855891227722167969e-01 -2.970061540603637695e+00 1.127390623092651367e+00 1.780892133712768555e+00 2.678483247756958008e+00 2.709976673126220703e+00 -4.896157741546630859e+00 2.163288116455078125e+00 -1.240520668029785156e+01 -8.803811073303222656e-01 4.368926048278808594e+00 -1.430482324212789536e-02 -1.264850997924804688e+01 7.833709716796875000e+00 2.138681793212890625e+01
-2.203142166137695312e+00 -1.378342914581298828e+01 3.496889352798461914e+00 -2.716459274291992188e+00 1.764898896217346191e+00 -4.327813625335693359e+00 -2.216446876525878906e+00 -2.300178766250610352e+00 -5.741855144500732422e+00 1.545160412788391113e+00 -2.529979944229125977e+00 -2.384581756591796875e+01 -7.420201897621154785e-01 1.976358532905578613e+00 1.557443439960479736e-01 6.325996875762939453e+00 -7.777884602546691895e-01 -1.248565673828125000e+00 -6.424672126770019531e+00 -5.447513237595558167e-02 -1.385316371917724609e+00 3.223546981811523438e+00 2.626434087753295898e+00 1.267084360122680664e+00 7.875116467475891113e-01 -1.261580228805541992e+00 7.666734457015991211e-01 4.731753826141357422e+00 5.969574928283691406e+00 9.979757308959960938e+00 8.418512344360351562e+00 3.782351493835449219e+00 -7.973368167877197266e+00 1.729725122451782227e+00 -1.481027901172637939e-01 6.349120140075683594e+00 3.651378154754638672e-01 1.088158512115478516e+01 8.314666748046875000e+00 3.236786425113677979e-01 -2.424349403381347656e+01 -8.109242439270019531e+00 -6.556772708892822266e+00 1.549150276184082031e+01 2.611293792724609375e-01 -7.398842811584472656e+00 2.206865549087524414e+00 -5.768651962280273438e+00 1.582434558868408203e+01 -1.140961289405822754e+00 3.726253271102905273e+00 -1.835571527481079102e+00 -1.796353936195373535e+00 -6.744942188262939453e+00 -1.821214914321899414e+00 1.709474921226501465e+00 1.057840943336486816e+00 -2.925696611404418945e+00 -3.324227094650268555e+00 1.881168931722640991e-01 8.071634292602539062e+00 -4.051588535308837891e+00 4.269098758697509766e+00 -4.616577148437500000e+00 -2.112026453018188477e+00 4.785518348217010498e-01 3.039243698120117188e+00 -3.259759664535522461e+00 6.234145164489746094e+00 4.718167781829833984e+00 -2.094037830829620361e-01 2.563131093978881836e+00 -2.315517187118530273e+00 4.819087505340576172e+00 -4.606840312480926514e-01 9.021609425544738770e-01 -1.503704547882080078e+00 -1.499445343017578125e+01 -3.434938192367553711e-01 -3.424545288085937500e+00 1.777834320068359375e+01 -5.039501190185546875e+00 6.429035961627960205e-02 8.560290336608886719e-01 5.457637906074523926e-01 1.716448211669921875e+01 1.584704279899597168e+00 5.068242549896240234e-01 1.742961883544921875e+00 4.977478027343750000e+00 4.874344348907470703e+00 1.074674844741821289e+00 8.808670043945312500e+00 -1.303885430097579956e-01 -2.114696979522705078e+00 1.834906196594238281e+01 2.306388854980468750e+00 5.069808959960937500e-01 1.977690339088439941e+00 -6.331951618194580078e+00 1.831091046333312988e+00 2.556769609451293945e+00 -1.252795696258544922e+00 -3.192729234695434570e+00 3.832869529724121094e-01 3.400697231292724609e+00 6.600347042083740234e+00 -5.390660285949707031e+00 -2.573934936523437500e+01 1.983590841293334961e+00 -3.044233322143554688e+00 5.324986457824707031e+00 9.247365951538085938e+00 -3.334757566452026367e+00 9.081534743309020996e-01 6.767631053924560547e+00 4.497130870819091797e+00 3.493789672851562500e+00 1.311797618865966797e+00 -2.999361753463745117e+00 1.436761260032653809e+00 2.895735800266265869e-01 -5.257894515991210938e+00 8.154549598693847656e+00 6.537280082702636719e-01 -6.201976537704467773e-01 -4.690969586372375488e-01 -1.231932353973388672e+01 9.609608650207519531e+00 7.213761806488037109e-01 1.526748418807983398e+00 -6.254878640174865723e-01 9.036870002746582031e+00 -5.693812847137451172e+00 -2.333579957485198975e-01 -4.138061046600341797e+00 -1.781508803367614746e+00 -4.242805957794189453e+00 -1.061161327362060547e+01 -2.393667936325073242e+00 8.348896980285644531e+00 3.210671246051788330e-01 6.066560268402099609e+00 3.297762870788574219e-01 -1.941892862319946289e+00 -2.196467399597167969e+01 -1.441907405853271484e+01 -7.634133338928222656e+00 3.596501797437667847e-02 -9.689782261848449707e-01
-4.812933444976806641e+00 -8.928937911987304688e+00 -1.623575973510742188e+01 -5.459415912628173828e+00 -1.554489254951477051e+00 6.661373138427734375e+00 -6.067259788513183594e+00 5.845120429992675781e+00 1.226060032844543457e+00 6.352379322052001953e-01 -2.613813638687133789e+00 -3.067550420761108398e+00 -3.792979001998901367e+00 8.617344856262207031e+00 1.958511710166931152e+00 1.988792896270751953e+00 7.167902469635009766e+00 -3.138388633728027344e+00 1.040530776977539062e+01 -3.577320277690887451e-01 -4.520620107650756836e-01 -8.868269920349121094e+00 2.773227882385253906e+01 2.975059986114501953e+00 -3.802096366882324219e+00 -3.319290399551391602e+00 -1.212597012519836426e+00 -7.245811939239501953e+00 -1.376888847351074219e+01 1.405931282043457031e+01 2.543721675872802734e+00 2.839375019073486328e+00 1.049572849273681641e+01 3.407229661941528320e+00 1.100375652313232422e+01 -4.413919925689697266e+00 7.856115818023681641e+00 -6.045018672943115234e+00 2.634216070175170898e+00 3.078291416168212891e-01 8.523894309997558594e+00 -4.783563613891601562e+00 -2.974442720413208008e+00 5.033719062805175781e+00 -3.023479938507080078e+00 -7.870191574096679688e+00 -1.567159056663513184e+00 4.287800312042236328e+00 1.305854797363281250e+01 -3.415368199348449707e-01 -4.098724842071533203e+00 1.250653624534606934e+00 -1.002563238143920898e+00 -9.643806457519531250e+00 5.161674499511718750e+00 2.357271194458007812e+00 -3.527706623077392578e+00 3.385870695114135742e+00 1.182876586914062500e+00 9.301306009292602539e-01 4.574991703033447266e+00 2.734732627868652344e+00 -2.919817924499511719e+00 -1.529034018516540527e+00 2.131299495697021484e+00 8.833805322647094727e-01 -8.799066543579101562e+00 1.095883101224899292e-01 -6.966996192932128906e+00 1.340957045555114746e+00 4.377360820770263672e+00 -4.358839988708496094e+00 5.984691977500915527e-01 1.349981594085693359e+01 -3.574973940849304199e-01 1.172163724899291992e+00 5.455574393272399902e-01 3.834599971771240234e+00 3.206935167312622070e+00 -8.511389732360839844e+00 -8.005540847778320312e+00 -5.834076404571533203e+00 7.907777786254882812e+00 4.223007678985595703e+00 -1.741552162170410156e+01 -6.910073280334472656e+00 1.072760295867919922e+01 5.419058322906494141e+00 1.708922982215881348e+00 7.960922241210937500e+00 4.624963760375976562e+00 3.035080909729003906e+00 -5.050354480743408203e+00 2.461347341537475586e+00 -3.967365503311157227e+00 -1.628980636596679688e+00 -1.379894542694091797e+01 -1.587134003639221191e+00 7.265097141265869141e+00 -8.552656173706054688e+00 6.124928951263427734e+00 6.959160327911376953e+00 2.776601076126098633e+00 -2.749218702316284180e+00 1.751098871231079102e+00 -8.834969520568847656e+00 -6.343024730682373047e+00 -2.753694355487823486e-01 7.716992378234863281e+00 3.529200077056884766e+00 -6.851295471191406250e+00 -2.238909721374511719e+01 -4.072097778320312500e+00 3.921054124832153320e+00 -2.229095399379730225e-01 -4.221877098083496094e+00 4.626832008361816406e+00 1.117791056632995605e+00 -9.476847648620605469e+00 -9.569653272628784180e-01 -3.533987998962402344e+00 6.709364891052246094e+00 1.793814277648925781e+01 6.622692108154296875e+00 -2.608571052551269531e+00 -6.858962774276733398e-01 -6.264680862426757812e+00 1.495887279510498047e+00 2.201639652252197266e+00 2.341238260269165039e+00 -2.316119432449340820e+00 -9.273708343505859375e+00 -1.078259754180908203e+01 -3.438514947891235352e+00 1.378090262413024902e+00 5.217897891998291016e+00 3.563634395599365234e+00 1.616004347801208496e+00 -5.044048786163330078e+00 -1.079344367980957031e+01 3.004730343818664551e-01 1.784554481506347656e+00 6.355899572372436523e-01 -8.707990646362304688e+00 1.038751959800720215e+00 -1.241159820556640625e+01 -5.185534954071044922e+00 -8.904687881469726562e+00 -5.824398994445800781e+00 4.630784988403320312e+00
-9.546684026718139648e-01 -7.378403186798095703e+00 7.399050712585449219e+00 9.278998374938964844e+00 -5.674455642700195312e+00 -6.545419096946716309e-01 -1.383250999450683594e+01 2.306309127807617188e+01 -6.083939671516418457e-01 8.606231808662414551e-01 -8.340149521827697754e-01 8.134934425354003906e+00 -5.378522396087646484e+00 1.065166378021240234e+01 2.442980766296386719e+00 -7.132627964019775391e+00 -2.588877677917480469e+00 -2.527201890945434570e+00 -5.203872323036193848e-01 7.265358924865722656e+00 6.536196708679199219e+00 3.861907482147216797e+00 -5.914603233337402344e+00 7.449988842010498047e+00 7.625969409942626953e+00 -8.370267152786254883e-01 -2.974036693572998047e+00 3.336780786514282227e+00 1.351447105407714844e+01 -1.501955699920654297e+01 2.769562005996704102e+00 -2.132386016845703125e+01 -3.553724050521850586e+00 -2.388875722885131836e+00 1.225773215293884277e+00 -1.386074352264404297e+01 -5.230471611022949219e+00 4.037405967712402344e+00 2.845933139324188232e-01 4.780024051666259766e+00 -7.943002134561538696e-02 1.013243675231933594e+01 1.243088364601135254e+00 -2.078038215637207031e+00 7.177555084228515625e+00 -1.090385150909423828e+01 3.563112020492553711e+00 9.923509597778320312e+00 3.722442150115966797e+00 -2.796726942062377930e+00 6.270977497100830078e+00 4.099190235137939453e+00 -4.298624992370605469e+00 -1.096746158599853516e+01 -2.245989322662353516e+00 -7.346229553222656250e+00 1.050420570373535156e+01 6.448685526847839355e-01 -3.271914482116699219e+00 -9.771631240844726562e+00 1.226341366767883301e+00 -8.077775955200195312e+00 -3.196344614028930664e+00 -3.148554861545562744e-01 5.336198329925537109e+00 -3.190663337707519531e+00 2.184241771697998047e+00 -4.506110191345214844e+00 1.314960837364196777e+00 1.827869415283203125e+00 9.449579238891601562e+00 -5.103644371032714844e+00 3.155125856399536133e+00 -4.255711078643798828e+00 1.617644786834716797e+00 -8.253909111022949219e+00 4.129391670227050781e+00 -2.993407249450683594e+00 2.739026308059692383e+00 3.500000238418579102e-01 -4.866632938385009766e+00 -5.638630867004394531e+00 -5.629609107971191406e+00 -7.315992355346679688e+00 -7.178319454193115234e+00 -2.546409845352172852e+00 -1.990669816732406616e-01 -6.170805543661117554e-02 -7.532727718353271484e+00 8.193725585937500000e+00 1.787324714660644531e+01 2.181167840957641602e+00 1.651923942565917969e+01 -7.924805641174316406e+00 5.233620166778564453e+00 7.256999969482421875e+00 -1.272573471069335938e+01 -5.106937885284423828e-01 1.904508471488952637e+00 9.933371543884277344e+00 -5.761662006378173828e+00 -6.107302665710449219e+00 -2.824490547180175781e+00 6.805407047271728516e+00 -3.182277202606201172e+00 1.009826183319091797e+00 -6.706751346588134766e+00 -9.372053146362304688e+00 8.881298065185546875e+00 5.913679122924804688e+00 -1.449721145629882812e+01 -7.903303503990173340e-01 -6.328528881072998047e+00 4.270523190498352051e-01 8.461008071899414062e+00 7.109983563423156738e-01 4.433493614196777344e+00 -1.790148138999938965e+00 6.454522013664245605e-01 -1.608281016349792480e+00 -2.298415184020996094e+00 9.462366700172424316e-01 -2.128694772720336914e+00 -6.756523132324218750e+00 -6.380345821380615234e+00 4.827503681182861328e+00 3.277774572372436523e+00 -5.265657305717468262e-01 -5.428485393524169922e+00 -2.992841958999633789e+00 -2.592489242553710938e+00 5.226255416870117188e+00 -2.010276556015014648e+00 -1.392348766326904297e+01 1.668721795082092285e+00 3.962786674499511719e+00 2.422449111938476562e+00 -4.872235298156738281e+00 7.336453437805175781e+00 1.873587608337402344e+00 1.524869054555892944e-01 5.439522743225097656e+00 -3.661964416503906250e+00 2.513296008110046387e-01 -1.547077178955078125e+01 -7.963668823242187500e+00 -5.375275135040283203e+00 -7.716689586639404297e+00 6.562790870666503906e+00 2.407172173261642456e-01
1.918864607810974121e+00 3.478440999984741211e+00 -6.292391777038574219e+00 -4.340522885322570801e-01 -4.478084087371826172e+00 3.196690082550048828e+00 -2.881428480148315430e+00 1.121240806579589844e+01 -1.336663961410522461e-01 -2.117796897888183594e+00 1.102714061737060547e+01 -1.129008007049560547e+01 1.088164901733398438e+01 2.270666122436523438e+01 -2.233881473541259766e+00 -5.399065494537353516e+00 -7.651119232177734375e+00 -8.863903880119323730e-01 -7.656695842742919922e+00 3.911541700363159180e+00 -1.397657990455627441e+00 -3.512177467346191406e+00 4.202593803405761719e+00 -1.208280181884765625e+01 1.064988493919372559e+00 3.504375696182250977e+00 -1.893757700920104980e+00 8.931595683097839355e-01 -1.488841915130615234e+01 7.429748535156250000e+00 1.781730771064758301e+00 -2.098650693893432617e+00 3.007762908935546875e+00 2.004445314407348633e+00 -1.963531017303466797e+00 -1.241245388984680176e+00 -1.957606315612792969e+00 5.388699531555175781e+00 6.116251647472381592e-02 -2.562499761581420898e+00 -6.278401374816894531e+00 8.172647476196289062e+00 9.831783294677734375e+00 -5.888660430908203125e+00 -1.171900844573974609e+01 -4.271456226706504822e-02 -9.651614427566528320e-01 1.199499517679214478e-01 -1.320326995849609375e+01 -5.280530929565429688e+00 -7.725766658782958984e+00 -1.593870073556900024e-01 4.053006172180175781e+00 -3.043209314346313477e+00 1.179391741752624512e+00 1.122860240936279297e+01 -1.793792009353637695e+00 3.531918764114379883e+00 -7.784242630004882812e+00 -1.204600524902343750e+01 -2.161778360605239868e-01 7.211335897445678711e-01 -5.959658145904541016e+00 -1.031037688255310059e+00 -5.094807147979736328e-01 1.987816452980041504e+00 -7.553870201110839844e+00 1.474677753448486328e+01 1.810679054260253906e+01 -1.789547204971313477e+00 1.239795804023742676e+00 -1.510775327682495117e+00 -1.602512359619140625e+00 -6.574622392654418945e-01 -2.194832086563110352e+00 9.588187336921691895e-01 3.211760044097900391e+00 -6.000159740447998047e+00 -1.116066217422485352e+00 2.767408609390258789e+00 3.929936170578002930e+00 2.246623992919921875e+01 8.566414117813110352e-01 -6.151202321052551270e-01 3.363929986953735352e+00 7.152144908905029297e+00 6.406070232391357422e+00 -5.362046957015991211e-01 9.946576118469238281e+00 -3.208287477493286133e+00 -3.656763553619384766e+00 -1.180702567100524902e+00 5.260174274444580078e+00 3.754874467849731445e+00 4.460478305816650391e+00 8.152503013610839844e+00 -1.877263784408569336e+00 1.602623462677001953e+00 4.046906471252441406e+00 -1.813981533050537109e+00 -6.245971679687500000e+00 3.818684577941894531e+00 5.240032672882080078e+00 9.391382217407226562e+00 -9.627509713172912598e-01 -1.054949665069580078e+01 -5.890347003936767578e+00 3.671084165573120117e+00 -2.719802618026733398e+00 2.110802650451660156e+00 4.879407882690429688e+00 8.456004142761230469e+00 -1.638187527656555176e+00 5.932897567749023438e+00 -1.406786590814590454e-01 -5.889078140258789062e+00 -1.574191808700561523e+00 1.089577198028564453e+01 -4.233274459838867188e+00 1.202018141746520996e+00 5.408408164978027344e+00 -1.118534851074218750e+01 1.027906036376953125e+01 -1.168030834197998047e+01 -1.795593500137329102e+00 6.282192707061767578e+00 2.889991521835327148e+00 -7.676231861114501953e+00 2.330449819564819336e+00 5.105590820312500000e+00 -3.314234256744384766e+00 -3.574051380157470703e+00 -9.995936393737792969e+00 5.047826290130615234e+00 -5.899262428283691406e+00 -3.607518911361694336e+00 9.199905395507812500e+00 1.505531883239746094e+01 1.792589187622070312e+00 1.697174072265625000e+01 -3.276453733444213867e+00 -1.082011580467224121e+00 4.932913303375244141e+00 1.088359546661376953e+01 -1.254882621765136719e+01 2.903948307037353516e+00 -1.256833195686340332e+00 -1.324317741394042969e+01 2.990589618682861328e+00 8.324325561523437500e+00
2.153503799438476562e+01 -3.573710918426513672e+00 -3.791473150253295898e+00 -9.229383468627929688e+00 -1.144578233361244202e-01 6.719812154769897461e-01 5.801346302032470703e+00 -1.960639357566833496e+00 2.438444852828979492e+00 2.605426907539367676e-01 1.854600787162780762e+00 3.287303447723388672e+00 -2.066543579101562500e+00 -6.625054836273193359e+00 -1.008973121643066406e+00 -2.635106086730957031e+00 1.230474948883056641e+01 -3.826648712158203125e+00 -1.516017818450927734e+01 -1.643342399597167969e+01 4.521024703979492188e+00 -1.132310509681701660e+00 -9.295083045959472656e+00 -8.159305572509765625e+00 -6.415616512298583984e+00 5.681099891662597656e-01 8.149180412292480469e+00 5.114375591278076172e+00 1.804883718490600586e+00 6.528522968292236328e+00 -2.129791498184204102e+00 5.611653327941894531e-01 -1.833955287933349609e+00 6.196451783180236816e-01 -5.811188220977783203e+00 3.611087322235107422e+00 -5.276972770690917969e+00 6.249956607818603516e+00 -7.308887958526611328e+00 -3.084780454635620117e+00 1.823099732398986816e+00 -1.476240348815917969e+01 -9.498558998107910156e+00 -3.292289495468139648e+00 1.520331144332885742e+00 5.579721331596374512e-01 4.409629702568054199e-01 6.936046481132507324e-01 3.364420890808105469e+00 -4.867076873779296875e+00 7.731194972991943359e+00 3.649103641510009766e-01 2.280182361602783203e+00 -5.101418972015380859e+00 -2.111253976821899414e+00 -5.224345684051513672e+00 -2.910320997238159180e+00 -2.449536561965942383e+00 -1.479041385650634766e+01 -1.586431503295898438e+01 -2.250353574752807617e+00 4.327286243438720703e+00 5.684894919395446777e-01 4.757057666778564453e+00 2.776277542114257812e+00 -1.134477496147155762e+00 -1.702488303184509277e+00 -3.373213768005371094e+00 2.522751092910766602e+00 2.109355479478836060e-01 3.197549343109130859e+00 1.728116989135742188e+00 3.939972639083862305e+00 -5.132464885711669922e+00 -1.159049868583679199e+00 -1.903407275676727295e-01 -1.629564094543457031e+01 4.867366313934326172e+00 -2.469384670257568359e+00 8.335743904113769531e+00 4.678576469421386719e+00 -1.515073060989379883e+00 2.741743564605712891e+00 1.399792790412902832e+00 -6.196104049682617188e+00 -4.623403251171112061e-01 -1.272081136703491211e+00 -1.841737151145935059e+00 -1.219254210591316223e-01 7.686924934387207031e+00 -1.027620983123779297e+01 -3.035768508911132812e+00 1.730896115303039551e+00 -1.059169292449951172e+01 -2.450391197204589844e+01 3.030704498291015625e+00 -1.035701465606689453e+01 5.220023170113563538e-02 4.345160961151123047e+00 2.434225320816040039e+00 1.198485088348388672e+01 3.373534440994262695e+00 2.471677780151367188e+00 2.176753282546997070e+00 8.497221469879150391e-01 2.297258615493774414e+00 1.008386015892028809e+00 -2.534010887145996094e+00 1.356092357635498047e+01 1.927551150321960449e+00 -2.896168947219848633e+00 -2.849174261093139648e+00 1.115294098854064941e+00 -8.333485603332519531e+00 -1.105724200606346130e-01 -2.479812383651733398e+00 -9.791713714599609375e+00 7.545876502990722656e+00 -6.734001159667968750e+00 1.514120936393737793e+00 1.208967876434326172e+01 9.637532234191894531e+00 1.202356666326522827e-01 -2.362472915649414062e+01 2.906229197978973389e-01 8.177894592285156250e+00 3.513058662414550781e+00 -1.395456886291503906e+01 -5.948598384857177734e-01 4.684498310089111328e+00 6.176514625549316406e+00 -5.575860023498535156e+00 -4.313474178314208984e+00 -9.953614234924316406e+00 5.443730831146240234e+00 1.123431205749511719e+00 -1.060407543182373047e+01 2.505443096160888672e+00 2.925406217575073242e+00 3.902410030364990234e+00 -5.728816509246826172e+00 -5.499691009521484375e+00 1.911774992942810059e+00 -8.115660667419433594e+00 -4.315039157867431641e+00 -9.321994781494140625e+00 1.050766181945800781e+01 -4.107064604759216309e-01 -6.932234764099121094e+00 -1.286328077316284180e+00
-2.693340778350830078e+00 -6.062253952026367188e+00 1.977463245391845703e+00 1.980904102325439453e+00 2.124384880065917969e+00 1.806899666786193848e+00 -6.097628593444824219e+00 2.802536010742187500e+00 2.081936359405517578e+00 1.397779345512390137e+00 -1.435733222961425781e+01 3.107429265975952148e+00 1.361509895324707031e+01 -4.054212093353271484e+00 -2.887895584106445312e+00 9.438577294349670410e-01 1.510251522064208984e+01 6.490214347839355469e+00 8.107138276100158691e-01 1.042013931274414062e+01 -7.433986186981201172e+00 5.935368061065673828e+00 1.464776515960693359e+00 6.860506534576416016e-01 6.411508560180664062e+00 3.779464960098266602e+00 -1.846625518798828125e+01 -3.115299701690673828e+00 -7.992280960083007812e+00 1.612991809844970703e+00 -7.660545349121093750e+00 -3.324784517288208008e+00 9.231488108634948730e-01 -2.889860391616821289e+00 -5.036935329437255859e+00 2.264612317085266113e-01 2.517005205154418945e+00 -2.286859512329101562e+00 3.691076755523681641e+00 3.757776021957397461e+00 -6.616800427436828613e-01 4.009656906127929688e+00 -1.956825256347656250e+01 -3.471155881881713867e+00 1.075020313262939453e+01 5.791989326477050781e+00 -1.505957484245300293e+00 1.287352561950683594e+00 1.038785934448242188e+01 -3.668354988098144531e+00 -6.914743423461914062e+00 2.491320967674255371e-01 -1.021490335464477539e+00 -8.956152200698852539e-01 1.168224334716796875e+01 8.274652481079101562e+00 6.256634712219238281e+00 -1.399544358253479004e+00 1.503936290740966797e+00 -4.439355373382568359e+00 1.905834794044494629e+00 -1.641631841659545898e+00 9.867046356201171875e+00 1.266350650787353516e+01 -3.454253911972045898e+00 5.766132473945617676e-01 -6.360379695892333984e+00 -1.174830436706542969e+00 -3.389719009399414062e+00 1.099190831184387207e+00 -3.234200716018676758e+00 -1.942007243633270264e-01 -4.989114284515380859e+00 2.367011785507202148e+00 1.768084764480590820e+00 -4.074869155883789062e+00 -6.792353630065917969e+00 1.349379658699035645e+00 -8.947674930095672607e-02 -7.367879390716552734e+00 -9.260094165802001953e-01 -5.896411463618278503e-02 -6.378289222717285156e+00 -2.212707519531250000e+00 5.273798465728759766e+00 -2.767236232757568359e+00 2.197910070419311523e+00 -6.726384758949279785e-01 1.820765304565429688e+01 -5.646456718444824219e+00 -1.028318786621093750e+01 -2.847453117370605469e+00 8.736011505126953125e+00 5.868075370788574219e+00 -9.102293014526367188e+00 -1.817583322525024414e+00 2.097671270370483398e+00 1.272967606782913208e-01 1.183416271209716797e+01 -5.483372688293457031e+00 6.942827224731445312e+00 4.965699672698974609e+00 -6.072654247283935547e+00 4.856751441955566406e+00 -6.796277523040771484e+00 7.481705546379089355e-01 -2.342163801193237305e+00 3.068671703338623047e+00 1.391703510284423828e+01 6.017699241638183594e+00 -1.177952098846435547e+01 -1.807905793190002441e+00 8.632614135742187500e+00 8.280683755874633789e-01 9.716950058937072754e-01 2.025727462768554688e+01 8.423094749450683594e+00 -4.168206691741943359e+00 -8.338630676269531250e+00 -5.922181606292724609e+00 4.700401782989501953e+00 -2.036091041564941406e+01 2.106894493103027344e+00 -2.667805910110473633e+00 1.201752901077270508e+00 3.481698274612426758e+00 1.190995979309082031e+01 -1.032209396362304688e+01 -2.841726779937744141e+00 -1.093057274818420410e+00 -6.566466689109802246e-01 1.060673236846923828e+01 -2.985092401504516602e+00 3.383332014083862305e+00 -8.038324356079101562e+00 -5.165606498718261719e+00 -6.952720165252685547e+00 -6.914403915405273438e+00 -6.301421165466308594e+00 8.079196214675903320e-01 4.393398761749267578e+00 -2.372086793184280396e-01 -3.563847780227661133e+00 2.056137847900390625e+01 7.223843336105346680e-01 1.509939074516296387e+00 3.954055786132812500e+00 9.207346916198730469e+00 4.461850166320800781e+00 -5.528466224670410156e+00
