2.101034158840775490e-03
1.244963891804218292e-02
-1.339232325553894043e-01
-1.580751538276672363e-01
1.178273260593414307e-01
-6.246281415224075317e-02
6.760225445032119751e-02
-1.009594723582267761e-01
-8.638869971036911011e-02
3.713125362992286682e-02
-1.971708424389362335e-02
1.010104790329933167e-01
1.499256342649459839e-01
9.892399609088897705e-02
1.087428480386734009e-01
-7.424828410148620605e-02
4.098029807209968567e-02
7.121783494949340820e-02
-3.283977136015892029e-02
9.275209158658981323e-02
-3.066045939922332764e-01
2.331214770674705505e-02
8.951014280319213867e-02
1.430629938840866089e-01
-6.968664377927780151e-02
-2.250254526734352112e-02
-2.533023618161678314e-02
4.493096098303794861e-02
5.317854811437427998e-04
-2.601742744445800781e-02
6.804535165429115295e-03
9.458900988101959229e-02
-5.565742403268814087e-02
-4.329399019479751587e-02
-9.547532536089420319e-03
-1.414950285106897354e-02
3.403601422905921936e-02
1.928007975220680237e-02
7.181333750486373901e-02
-5.176086910068988800e-03
1.901913434267044067e-02
2.976873423904180527e-03
1.078282669186592102e-01
-2.581131458282470703e-02
4.765595123171806335e-02
-6.837118417024612427e-02
7.858444750308990479e-02
1.953151542693376541e-03
5.150204524397850037e-02
4.569723084568977356e-02
2.397211082279682159e-02
-1.087206415832042694e-02
5.184651911258697510e-02
1.827980391681194305e-02
4.992894828319549561e-02
4.675864800810813904e-02
-1.441319435834884644e-01
8.267875760793685913e-02
-7.049684971570968628e-02
1.356813404709100723e-02
-6.141571328043937683e-02
1.110955849289894104e-01
5.752969160676002502e-02
1.112441495060920715e-01
-8.215796947479248047e-02
-7.649336755275726318e-02
2.310246601700782776e-02
-6.050134822726249695e-02
-6.268781423568725586e-02
-7.285902276635169983e-03
-1.246462762355804443e-01
2.796656824648380280e-02
-7.042853534221649170e-02
-3.467016294598579407e-02
7.055799663066864014e-02
-2.380453422665596008e-02
8.658107370138168335e-03
-4.451843351125717163e-02
-9.510421007871627808e-02
-2.344855107367038727e-03
-9.643433243036270142e-02
1.042108051478862762e-02
-2.606458030641078949e-02
-2.582237310707569122e-02
1.205340549349784851e-01
-1.292470656335353851e-02
-1.182468980550765991e-02
-5.034321174025535583e-02
-5.171747505664825439e-02
1.259422153234481812e-01
4.595497250556945801e-02
4.343141987919807434e-02
-5.514485016465187073e-02
5.088130384683609009e-02
1.678927093744277954e-01
1.100035035051405430e-03
-1.948181353509426117e-02
1.536495517939329147e-02
7.333008199930191040e-02
1.595517061650753021e-02
-4.587346315383911133e-02
-2.107587875798344612e-03
-1.715413928031921387e-01
-3.277114778757095337e-02
3.851263551041483879e-03
-1.640187203884124756e-02
8.289458602666854858e-02
-6.877993047237396240e-02
2.639446966350078583e-02
2.673707436770200729e-03
-4.857464879751205444e-02
-1.955430954694747925e-02
9.494642168283462524e-02
1.334413141012191772e-01
6.435574614442884922e-04
7.583539187908172607e-02
1.669498719274997711e-02
-3.399793803691864014e-02
2.301252447068691254e-02
-3.228552639484405518e-02
-6.131688598543405533e-03
-2.660562470555305481e-02
-9.408380836248397827e-02
-3.717128653079271317e-03
7.281700521707534790e-02
-2.052827924489974976e-01
1.387580647133290768e-03
-1.866983436048030853e-02
-3.922457993030548096e-02
-2.971800044178962708e-02
-1.148832496255636215e-02
2.730295434594154358e-02
8.685654401779174805e-02
-6.625594943761825562e-02
3.509840695187449455e-03
1.242649089545011520e-02
-5.239313095808029175e-02
-1.080329269170761108e-01
-3.814716264605522156e-02
6.712744385004043579e-02
6.904040277004241943e-02
-6.611275672912597656e-02
7.195832580327987671e-02
5.163924023509025574e-02
-5.508422851562500000e-02
1.062750518321990967e-01
-4.486764222383499146e-02
-1.143792867660522461e-01
-1.665370538830757141e-02
4.678073897957801819e-02
-1.405656989663839340e-02
-7.981229573488235474e-02
8.032522350549697876e-02
-8.867794275283813477e-02
3.574323654174804688e-02
-1.226935628801584244e-02
7.811530027538537979e-03
-9.872199594974517822e-02
-6.111763790249824524e-02
1.075493078678846359e-02
-2.757662162184715271e-02
9.182773530483245850e-03
-6.467214971780776978e-02
5.289551243185997009e-02
-6.473705172538757324e-02
3.648154065012931824e-02
-3.780027478933334351e-02
1.220210045576095581e-01
-3.856238350272178650e-02
-8.126237988471984863e-02
-5.953066796064376831e-02
-1.186477299779653549e-02
-2.373776026070117950e-02
1.208463609218597412e-01
8.140920102596282959e-02
2.625119127333164215e-02
-6.436191499233245850e-02
-7.530613243579864502e-02
7.506273686885833740e-02
-3.457172960042953491e-02
5.204007029533386230e-02
2.886542933993041515e-04
-4.751485586166381836e-02
3.847196698188781738e-02
-5.264546349644660950e-02
2.923570573329925537e-02
5.173159018158912659e-02
-3.533348068594932556e-02
1.851163804531097412e-02
2.477138862013816833e-02
3.363143280148506165e-02
8.292790502309799194e-02
-6.272336002439260483e-03
-5.398381873965263367e-02
1.360186636447906494e-01
5.599888786673545837e-02
-2.012740522623062134e-01
-1.260977610945701599e-02
-1.531941071152687073e-02
-3.886335715651512146e-02
