3.340362012386322021e-02
5.677728913724422455e-03
9.048960357904434204e-02
3.316350746899843216e-03
1.881755515933036804e-02
5.665295757353305817e-04
4.977356642484664917e-02
-5.705131962895393372e-02
1.339478604495525360e-02
-3.902196511626243591e-02
1.822929456830024719e-02
4.755982756614685059e-02
3.848623856902122498e-02
6.292914040386676788e-03
8.019098639488220215e-02
-7.077088113874197006e-03
-3.267453517764806747e-03
-1.384767703711986542e-02
2.418668195605278015e-02
5.825044959783554077e-02
5.674539133906364441e-03
2.749621123075485229e-02
-5.820271326228976250e-04
-1.370819509029388428e-01
-5.797234177589416504e-02
6.673860829323530197e-03
3.563390113413333893e-03
5.113979056477546692e-02
3.504510596394538879e-02
-1.223985757678747177e-02
1.935182139277458191e-02
-1.900326460599899292e-02
1.434562355279922485e-02
3.639075905084609985e-02
2.790463529527187347e-02
2.438662052154541016e-01
-1.097687426954507828e-02
-8.198238909244537354e-03
5.199855193495750427e-02
1.748560927808284760e-02
-8.522351086139678955e-02
-2.445899508893489838e-02
2.482795156538486481e-03
3.113318607211112976e-02
3.283199295401573181e-02
-1.112629566341638565e-02
1.878862094599753618e-04
6.045519839972257614e-03
-7.234590128064155579e-03
1.555549912154674530e-03
-8.354356396012008190e-05
2.126817591488361359e-02
3.867907449603080750e-02
-7.428545970469713211e-03
7.419536262750625610e-02
2.551175095140933990e-02
6.633648183196783066e-03
3.021870926022529602e-02
3.423472517170011997e-04
1.577696017920970917e-02
6.546622607856988907e-03
6.014800630509853363e-03
1.262369286268949509e-02
-7.888034731149673462e-02
-1.604660786688327789e-02
3.454411029815673828e-02
-1.290279626846313477e-02
2.616880461573600769e-02
3.408212959766387939e-02
-2.887570858001708984e-02
4.624352604150772095e-02
-1.550335809588432312e-02
-1.202582195401191711e-02
-2.595347352325916290e-02
5.643327254801988602e-03
1.823740638792514801e-02
-1.964249415323138237e-03
-2.122309058904647827e-03
-5.172390490770339966e-02
-1.052411831915378571e-02
-1.421320810914039612e-02
-6.282755173742771149e-03
-8.786646649241447449e-03
3.830424323678016663e-02
-6.716100126504898071e-02
-1.345198234048439190e-05
2.573166973888874054e-02
-7.117607747204601765e-04
-2.394920028746128082e-02
2.476022578775882721e-03
4.014267772436141968e-02
2.562353573739528656e-02
-1.067313947714865208e-03
-1.379765104502439499e-03
3.591856220737099648e-03
-2.924170158803462982e-02
-2.796610584482550621e-03
-2.804743871092796326e-02
3.570546954870223999e-02
2.385049359872937202e-03
3.689459338784217834e-02
-3.279583528637886047e-02
-2.646708674728870392e-02
1.141610462218523026e-02
1.568387635052204132e-02
5.206616595387458801e-02
2.077737264335155487e-02
-8.107761293649673462e-02
8.890539407730102539e-02
-3.628949820995330811e-02
-6.779194809496402740e-03
1.723451353609561920e-02
5.802153609693050385e-03
2.629821421578526497e-03
4.040606319904327393e-02
-9.897014126181602478e-03
-3.301777178421616554e-04
1.895142719149589539e-02
2.897232538089156151e-03
-6.121965125203132629e-02
-5.568853393197059631e-02
5.229139933362603188e-04
1.001430302858352661e-02
-3.861739241983741522e-04
2.900097984820604324e-03
-3.371575474739074707e-02
-1.783366873860359192e-02
3.385768085718154907e-02
2.002022974193096161e-02
-3.460576059296727180e-03
6.311250035651028156e-04
1.209495496004819870e-02
8.479910902678966522e-03
1.838717237114906311e-02
2.546208724379539490e-02
5.974526703357696533e-02
1.078638480976223946e-03
-6.540732923895120621e-03
1.692840829491615295e-03
-1.216365257278084755e-03
4.013600200414657593e-02
1.277141831815242767e-02
8.171690627932548523e-03
-1.794975623488426208e-02
-1.698816008865833282e-02
2.139698900282382965e-02
-4.298221692442893982e-02
-1.390396244823932648e-02
-5.905629135668277740e-03
-6.140554323792457581e-02
1.777347177267074585e-02
-3.949042875319719315e-04
-1.722444035112857819e-02
-1.295903697609901428e-02
-1.808726415038108826e-02
1.455890201032161713e-02
-1.461052522063255310e-02
2.784121898002922535e-04
-1.517427444923669100e-04
-5.186774302273988724e-03
-8.799386210739612579e-03
2.120594307780265808e-02
3.269569203257560730e-02
-2.721502911299467087e-03
1.268750173039734364e-03
-5.212487280368804932e-02
4.370703175663948059e-02
-1.899736933410167694e-03
3.918454796075820923e-02
3.906422294676303864e-03
-5.324466526508331299e-02
2.988820895552635193e-02
1.086701266467571259e-02
2.102909376844763756e-03
-3.163997549563646317e-03
-1.986467279493808746e-02
-1.869080704636871815e-03
-4.138648509979248047e-02
1.244951970875263214e-03
-1.827513426542282104e-02
9.522711479803547263e-05
1.750097982585430145e-02
-6.169283296912908554e-03
-1.904784888029098511e-02
1.998344203457236290e-03
-1.483605476096272469e-03
5.520129707292653620e-05
-2.502432465553283691e-02
1.393096405081450939e-03
-2.043505944311618805e-02
7.748354971408843994e-02
-1.338196825236082077e-02
7.522937655448913574e-02
-3.472950309514999390e-02
-8.739998936653137207e-02
-6.771425716578960419e-03
4.932795092463493347e-02
5.749148502945899963e-02
9.176280349493026733e-03
-1.806520298123359680e-02
-3.353096172213554382e-02
8.701503276824951172e-03
-7.198178768157958984e-02
-9.675306268036365509e-03
1.912433840334415436e-02
-2.463804557919502258e-02
-3.544474765658378601e-02
-5.869385204277932644e-04
-4.032129421830177307e-02
8.183695026673376560e-04
2.701864391565322876e-02
2.866038121283054352e-03
-1.898165501188486814e-04
1.228464301675558090e-03
-1.191099174320697784e-03
-6.142857018858194351e-03
-1.899124436022248119e-05
1.330117415636777878e-02
4.266906064003705978e-03
-4.513033491093665361e-05
-1.348060090094804764e-02
1.158635318279266357e-02
1.617351174354553223e-02
-1.462077721953392029e-03
-7.496853359043598175e-04
-1.125411689281463623e-02
1.842405088245868683e-02
-3.049165941774845123e-02
2.952445298433303833e-03
-1.016915217041969299e-02
-1.095828693360090256e-02
1.479713246226310730e-02
-1.281307917088270187e-02
-4.975238698534667492e-04
-2.709743753075599670e-02
-2.319165691733360291e-02
4.489544034004211426e-02
-2.673813141882419586e-04
-6.559205241501331329e-03
-2.635861746966838837e-02
-7.076407223939895630e-02
-3.403911739587783813e-02
-1.309587387368083000e-04
-4.898007959127426147e-02
-1.599067449569702148e-02
-4.390374291688203812e-03
1.094847358763217926e-02
-1.059999704011715949e-04
2.066492848098278046e-02
-3.156934399157762527e-03
3.744272689800709486e-04
1.220327219925820827e-03
2.249327674508094788e-02
-1.231626886874437332e-02
4.650372546166181564e-03
3.316644206643104553e-02
3.410715609788894653e-02
2.851287834346294403e-02
2.120489807566627860e-04
-7.515771314501762390e-03
-4.958073841407895088e-04
1.246224623173475266e-03
4.435523413121700287e-03
-2.189986966550350189e-02
-8.009195880731567740e-05
-1.492892485111951828e-02
1.365742832422256470e-02
-4.751804471015930176e-02
-5.474693328142166138e-02
-2.809924818575382233e-02
-7.990104705095291138e-02
1.326568331569433212e-02
-5.110845342278480530e-02
-1.690402999520301819e-02
8.814393728971481323e-02
-7.642931304872035980e-03
-5.124374479055404663e-02
3.911770880222320557e-02
1.398257259279489517e-02
9.954044595360755920e-03
3.586551174521446228e-02
2.356401272118091583e-02
8.450339373666793108e-05
2.707856148481369019e-02
-3.050735220313072205e-02
-2.198323927586898208e-04
-9.417039691470563412e-04
1.674966071732342243e-03
-5.267845466732978821e-03
-1.325490977615118027e-02
5.496409535408020020e-02
2.982725761830806732e-02
3.749513626098632812e-02
7.213667966425418854e-03
-9.585148654878139496e-03
-1.101493183523416519e-02
3.022828884422779083e-02
-5.897378921508789062e-02
-1.040389295667409897e-02
5.428025126457214355e-02
1.432395912706851959e-02
-1.670031435787677765e-02
-3.050533123314380646e-02
-2.255556732416152954e-02
6.724556908011436462e-03
6.419534236192703247e-02
-5.054403096437454224e-02
-9.649210609495639801e-03
-1.032564323395490646e-03
-7.993049174547195435e-02
8.283161558210849762e-03
2.447976730763912201e-03
6.763467565178871155e-03
7.212992641143500805e-04
-6.602683663368225098e-02
1.636599749326705933e-02
-3.443214669823646545e-02
3.085303679108619690e-02
-8.452428877353668213e-02
4.366821143776178360e-03
-3.246095776557922363e-02
-3.869961947202682495e-02
-2.395609579980373383e-02
-2.497155801393091679e-04
-1.416722033172845840e-02
8.587695658206939697e-03
-1.750923134386539459e-02
1.964927278459072113e-02
4.218013212084770203e-02
6.012906879186630249e-02
5.081416107714176178e-03
-2.258392982184886932e-02
2.970391139388084412e-02
-4.941097274422645569e-02
4.429585766047239304e-03
1.109691243618726730e-02
-7.420700043439865112e-02
1.618931442499160767e-02
-9.344248101115226746e-03
4.823710396885871887e-02
5.155198276042938232e-03
1.787095703184604645e-02
-1.530253235250711441e-02
2.511138468980789185e-02
1.655731350183486938e-02
-4.728735424578189850e-03
-2.347357757389545441e-02
2.048719034064561129e-05
5.431190505623817444e-02
-6.751541793346405029e-02
4.522643983364105225e-02
-6.448209285736083984e-03
-3.694479539990425110e-02
2.103557065129280090e-02
5.718878004699945450e-03
1.070646345615386963e-01
-1.969853974878787994e-02
-1.483418396674096584e-03
-2.647553337737917900e-03
-1.926995441317558289e-02
3.613115474581718445e-02
-2.746826410293579102e-02
5.154054611921310425e-03
9.415850974619388580e-03
4.549313962343148887e-05
-2.466894872486591339e-02
-5.107935518026351929e-03
8.946190588176250458e-03
7.226890418678522110e-03
6.518642767332494259e-04
-1.791228540241718292e-02
4.419401288032531738e-02
-4.567699041217565536e-03
2.944038063287734985e-02
4.170314967632293701e-02
3.855630755424499512e-03
-1.250711828470230103e-02
2.220845036208629608e-02
6.696144118905067444e-03
5.840629804879426956e-03
-1.375688938423991203e-03
4.400318861007690430e-02
-6.171793490648269653e-02
1.011264417320489883e-02
-4.644189961254596710e-03
-1.781184226274490356e-02
7.271440234035253525e-03
-2.781498013064265251e-03
1.118993759155273438e-02
4.993370175361633301e-02
1.951895887032151222e-03
-3.290443914011120796e-03
3.032039094250649214e-04
9.298636578023433685e-03
-1.384918345138430595e-03
1.156900357455015182e-02
-2.783227537292987108e-04
7.706474512815475464e-03
1.350235397694632411e-04
5.116581916809082031e-02
1.678106933832168579e-02
-1.047124993056058884e-02
5.829872097820043564e-03
6.001434754580259323e-03
9.420659393072128296e-03
8.527786121703684330e-04
5.129824578762054443e-02
-1.096820831298828125e-02
-5.414785072207450867e-02
8.725496381521224976e-02
-8.490209467709064484e-03
4.224674776196479797e-03
8.503757417201995850e-02
6.379202753305435181e-02
-3.115134546533226967e-03
5.578875076025724411e-03
-1.201360393315553665e-02
1.253052894026041031e-02
2.132174372673034668e-02
-5.795685946941375732e-02
-2.668589055538177490e-01
1.757698692381381989e-02
1.012900918722152710e-01
1.577979326248168945e-02
-2.449782751500606537e-02
-4.825220257043838501e-02
-3.316776454448699951e-02
-7.064250763505697250e-03
-1.243287045508623123e-02
2.395175397396087646e-02
-7.092265412211418152e-03
-1.865551993250846863e-02
-1.549159083515405655e-02
-9.266628883779048920e-03
7.405672967433929443e-02
-6.216112896800041199e-02
-6.482014898210763931e-03
-3.404676681384444237e-03
1.136413589119911194e-01
-1.348278112709522247e-02
5.998828448355197906e-03
-2.701817080378532410e-02
1.005989238619804382e-01
-1.305817160755395889e-03
-1.380285434424877167e-02
-3.883513808250427246e-02
2.712246589362621307e-02
3.651076927781105042e-02
7.064194977283477783e-02
2.299576066434383392e-03
-6.752152740955352783e-02
-2.510095946490764618e-02
5.035655945539474487e-02
-1.507057994604110718e-02
-4.299429431557655334e-02
-6.673547625541687012e-02
-1.672246679663658142e-02
-1.366058923304080963e-02
-6.450223922729492188e-02
8.866112679243087769e-03
-1.056466624140739441e-02
4.376461729407310486e-03
9.348436258733272552e-03
3.839516267180442810e-02
5.038470774888992310e-02
-1.187751069664955139e-01
2.964804880321025848e-02
-2.503251889720559120e-03
3.086883947253227234e-02
-1.352695189416408539e-02
3.098294325172901154e-02
-8.619026280939579010e-03
-8.923594839870929718e-03
-3.504941414576023817e-04
1.142002418637275696e-01
-3.997642174363136292e-02
-8.690275251865386963e-02
-3.845945000648498535e-02
3.204557672142982483e-02
1.653861068189144135e-02
-5.834866687655448914e-02
4.299191012978553772e-02
-3.662680834531784058e-02
2.441659010946750641e-02
5.883528664708137512e-02
6.272330135107040405e-02
4.560234025120735168e-02
-7.041045278310775757e-02
-3.796798363327980042e-02
7.954286783933639526e-02
3.095398191362619400e-03
1.968175172805786133e-02
-4.535983875393867493e-02
1.149846538901329041e-01
-9.854380972683429718e-03
-2.465732954442501068e-02
3.856384195387363434e-03
-4.397385753691196442e-03
6.002463400363922119e-03
9.197398321703076363e-04
7.601598650217056274e-02
2.571920864284038544e-02
1.595900580286979675e-02
1.741650886833667755e-02
-2.498416975140571594e-02
-2.325429581105709076e-02
-1.542107015848159790e-02
-2.975680679082870483e-02
-3.384978696703910828e-02
-1.022086013108491898e-03
5.423869565129280090e-02
-1.799225807189941406e-02
5.348329991102218628e-02
5.424744635820388794e-02
4.507665988057851791e-03
-1.457510236650705338e-02
8.295000344514846802e-02
-3.029253147542476654e-02
8.022404275834560394e-03
-3.483075881376862526e-03
6.825543195009231567e-02
3.237802907824516296e-02
-1.440396159887313843e-02
1.038802508264780045e-02
5.717638880014419556e-02
-1.925598084926605225e-01
-3.536196658387780190e-03
-5.793123319745063782e-02
6.059722509235143661e-03
-5.432756617665290833e-02
-5.462642014026641846e-02
-5.608352366834878922e-03
4.792389646172523499e-02
-1.005759909749031067e-01
8.517851820215582848e-04
1.877733506262302399e-02
4.430595040321350098e-02
-6.548472493886947632e-02
2.487898571416735649e-03
7.014289498329162598e-02
3.155947662889957428e-03
-9.306139498949050903e-02
2.444672957062721252e-02
-2.821731008589267731e-02
-1.548892632126808167e-02
2.618118189275264740e-02
-3.198263421654701233e-02
-1.400063633918762207e-01
3.284942591562867165e-03
2.019118703901767731e-02
2.729977481067180634e-02
-2.107800357043743134e-02
3.158646076917648315e-02
2.234833227703347802e-04
2.425171621143817902e-02
6.006718147546052933e-03
2.767398580908775330e-02
-1.667100638151168823e-01
-7.301443070173263550e-02
-1.495547872036695480e-02
1.698597893118858337e-02
-1.683099754154682159e-02
-4.063071683049201965e-02
1.936378702521324158e-02
-1.629862636327743530e-01
-7.729794085025787354e-02
-2.100409008562564850e-02
5.843594670295715332e-02
6.082342937588691711e-03
-5.489737540483474731e-02
-2.482429146766662598e-02
-3.504598140716552734e-02
-7.943863049149513245e-03
8.806035667657852173e-02
1.436120364814996719e-02
7.024872303009033203e-02
3.433644399046897888e-02
-8.887390047311782837e-02
7.290709763765335083e-02
-1.121924743056297302e-01
3.477122262120246887e-02
2.615852467715740204e-02
4.918197542428970337e-02
7.096134126186370850e-02
2.635610103607177734e-02
4.323384538292884827e-02
6.039096787571907043e-02
-1.411083899438381195e-02
-5.708376318216323853e-02
1.378692500293254852e-02
-2.389048784971237183e-02
6.180087104439735413e-02
-3.707516193389892578e-02
2.706420794129371643e-02
1.045150682330131531e-02
1.149248424917459488e-02
4.993974789977073669e-02
9.585879743099212646e-03
1.613877341151237488e-02
-2.255855686962604523e-02
