-1.585530787706375122e-01
-6.951269507408142090e-02
-1.063612774014472961e-01
-5.991573929786682129e-01
-2.945267260074615479e-01
-3.596844375133514404e-01
-3.208205401897430420e-01
-3.240019679069519043e-01
-2.990512251853942871e-01
-4.701458215713500977e-01
-1.532970517873764038e-01
-7.181006669998168945e-01
-4.922821819782257080e-01
-5.613246187567710876e-02
-3.193801641464233398e-02
1.403979118913412094e-02
-1.396014988422393799e-01
-2.874037325382232666e-01
-2.229738533496856689e-01
-7.341960445046424866e-03
-1.881150156259536743e-02
-3.179287016391754150e-01
-3.244896829128265381e-01
-4.617844820022583008e-01
-4.785585999488830566e-01
-3.159307241439819336e-01
-3.297665119171142578e-01
-3.144334256649017334e-01
1.975912302732467651e-01
-6.255601048469543457e-01
-3.395467102527618408e-01
-4.489319026470184326e-01
-2.264081239700317383e-01
5.344943329691886902e-02
-2.814444601535797119e-01
-3.737303614616394043e-01
-7.530186325311660767e-02
-3.354326188564300537e-01
-4.136979281902313232e-01
-5.041885972023010254e-01
-2.298185527324676514e-01
-4.772172495722770691e-02
-2.981011867523193359e-01
-1.033757105469703674e-01
-2.136009978130459785e-03
2.569749653339385986e-01
1.619218885898590088e-01
-3.990298807621002197e-01
4.035984873771667480e-01
-2.542232573032379150e-01
-2.657930850982666016e-01
-4.844533503055572510e-01
-1.251421123743057251e-01
-1.062829196453094482e-01
-4.294863343238830566e-01
-6.261984109878540039e-01
-1.410705130547285080e-02
-6.454047560691833496e-02
-1.226415857672691345e-01
-6.705476045608520508e-01
-4.112294018268585205e-01
2.469844557344913483e-02
-3.459714651107788086e-01
-3.043932020664215088e-01
-2.948547899723052979e-01
-7.314563542604446411e-02
-3.859163820743560791e-01
-2.427428811788558960e-01
1.173147484660148621e-01
1.414295285940170288e-01
3.022635281085968018e-01
-2.849486470222473145e-01
8.139802515506744385e-02
-4.613537192344665527e-01
-3.137553930282592773e-01
-3.435955196619033813e-02
-4.114758968353271484e-02
-3.886913955211639404e-01
-4.693940877914428711e-01
4.721305966377258301e-01
-2.204588204622268677e-01
-2.992706596851348877e-01
1.482804715633392334e-01
1.436327993869781494e-01
8.062984049320220947e-02
-4.123672842979431152e-01
-9.888021647930145264e-02
-3.619183003902435303e-01
-4.070466756820678711e-02
-3.678385615348815918e-01
-9.005611389875411987e-02
-3.998237475752830505e-02
-2.023231238126754761e-01
-3.553786277770996094e-01
-9.455640800297260284e-03
-4.308338463306427002e-01
-5.508288741111755371e-01
-1.661185771226882935e-01
-3.369962573051452637e-01
9.659195542335510254e-01
-3.047836124897003174e-01
-6.342155337333679199e-01
-7.874749600887298584e-02
3.983611762523651123e-01
7.213476300239562988e-01
-1.771837472915649414e-01
-5.155333876609802246e-01
-3.133188784122467041e-01
1.592117547988891602e-01
-5.641902685165405273e-01
-8.926964551210403442e-02
-3.669964075088500977e-01
-1.586023718118667603e-01
-4.260803461074829102e-01
-3.339645266532897949e-01
-3.126106858253479004e-01
-6.182011961936950684e-01
2.955731749534606934e-01
-1.827492564916610718e-01
5.038083717226982117e-02
7.134309411048889160e-02
-1.824873536825180054e-01
-2.287506824359297752e-03
-1.893384754657745361e-01
-2.042549252510070801e-01
-5.614423155784606934e-01
-5.215171352028846741e-02
-2.875986397266387939e-01
2.348213195800781250e-01
9.888972342014312744e-02
-4.371830448508262634e-02
-1.586008071899414062e-01
-3.109404742717742920e-01
-1.920983493328094482e-01
2.020722925662994385e-01
1.649124175310134888e-01
-5.644191801548004150e-02
2.252236567437648773e-02
2.251258194446563721e-01
2.662876807153224945e-02
5.979021191596984863e-01
6.861128211021423340e-01
1.786780953407287598e-01
1.524535417556762695e-01
6.144191697239875793e-02
2.428553402423858643e-01
-4.643215611577033997e-02
-1.769589185714721680e-01
1.517041623592376709e-01
9.519375860691070557e-02
2.280879318714141846e-01
2.366115897893905640e-01
-2.692272663116455078e-01
2.435706853866577148e-01
4.641508683562278748e-02
2.985601723194122314e-01
-3.436273336410522461e-01
-2.078650295734405518e-01
2.710152268409729004e-01
-8.229526132345199585e-02
1.881121546030044556e-01
6.188806518912315369e-02
2.827492654323577881e-01
3.681360483169555664e-01
3.049174249172210693e-01
1.368561387062072754e-01
1.692225486040115356e-01
5.229562520980834961e-01
1.031767055392265320e-01
4.005363881587982178e-01
7.519174367189407349e-02
1.480623930692672729e-01
3.000983297824859619e-01
2.776415348052978516e-01
1.680035740137100220e-01
-8.736490854062139988e-04
-1.160270944237709045e-01
-3.910484164953231812e-02
4.376130178570747375e-02
1.793478578329086304e-01
4.276807978749275208e-02
-1.197626143693923950e-01
-1.459075510501861572e-01
5.307136476039886475e-02
1.443093419075012207e-01
6.692421436309814453e-02
1.779115200042724609e-01
-2.363552339375019073e-03
3.009855747222900391e-01
1.670289784669876099e-01
3.778293430805206299e-01
-1.110289692878723145e-01
1.427132487297058105e-01
3.178851604461669922e-01
2.464545071125030518e-01
-2.633610069751739502e-01
-8.477757871150970459e-02
2.060797214508056641e-01
1.307031661272048950e-01
4.653725773096084595e-02
2.658015675842761993e-02
7.200635224580764771e-02
3.049388825893402100e-01
3.710008561611175537e-01
2.917610704898834229e-01
2.982938587665557861e-01
6.070652231574058533e-02
3.418669402599334717e-01
4.494398236274719238e-01
3.140299767255783081e-02
3.081008493900299072e-01
3.753256797790527344e-01
2.667301893234252930e-01
1.374070197343826294e-01
4.870186746120452881e-01
3.161566555500030518e-01
2.636310085654258728e-02
1.541714072227478027e-01
4.795558378100395203e-02
3.310725465416908264e-02
3.914650380611419678e-01
4.304217100143432617e-01
4.974667727947235107e-02
1.793760061264038086e-01
1.581366509199142456e-01
6.791180372238159180e-02
-2.828596830368041992e-01
-1.904053688049316406e-01
-1.265594959259033203e-01
1.349640786647796631e-01
-1.055721193552017212e-01
9.790597110986709595e-02
1.144261732697486877e-01
2.154057323932647705e-01
1.330322325229644775e-01
1.538722217082977295e-01
8.530268818140029907e-02
1.349786669015884399e-01
2.850004434585571289e-01
6.885986030101776123e-02
-2.443263679742813110e-01
1.016639918088912964e-01
-3.439269587397575378e-02
-9.706129878759384155e-02
1.356603801250457764e-01
2.800584435462951660e-01
6.259260326623916626e-02
5.830518901348114014e-02
1.585755050182342529e-01
3.291012644767761230e-01
-7.789092510938644409e-02
-1.687078326940536499e-01
1.566799134016036987e-01
-2.915766239166259766e-01
1.605597585439682007e-01
2.343927174806594849e-01
3.947971016168594360e-02
2.835411727428436279e-01
2.838624268770217896e-02
-1.206200495362281799e-01
1.051458939909934998e-01
-9.995383769273757935e-02
2.315397933125495911e-02
2.039972990751266479e-01
-2.734154760837554932e-01
7.304251194000244141e-02
2.595206797122955322e-01
-2.530233263969421387e-01
1.204818263649940491e-01
-2.899983525276184082e-01
-7.835667580366134644e-02
1.330641955137252808e-01
1.940187662839889526e-01
-1.008749157190322876e-01
-1.945354044437408447e-01
2.188386321067810059e-01
-4.509177505970001221e-01
1.805319450795650482e-02
2.164339572191238403e-01
-1.136188879609107971e-01
2.982136607170104980e-02
-2.602874636650085449e-01
-5.138315260410308838e-02
2.111324854195117950e-02
5.407104734331369400e-03
-7.503912597894668579e-02
-1.768186986446380615e-01
1.249784603714942932e-02
2.024888843297958374e-01
-1.739683300256729126e-01
-1.950580030679702759e-01
1.084635928273200989e-01
6.329379230737686157e-02
-7.470263540744781494e-02
-1.001249551773071289e-01
-8.775380998849868774e-02
2.292656898498535156e-01
8.617313951253890991e-02
2.852518856525421143e-01
7.028665393590927124e-02
1.819117963314056396e-01
-1.134959906339645386e-01
1.038474291563034058e-01
-1.158167645335197449e-01
2.660307288169860840e-01
3.864419460296630859e-01
3.107363879680633545e-01
7.450369000434875488e-02
2.566607296466827393e-01
2.087255567312240601e-02
-3.392549976706504822e-02
2.279425859451293945e-01
3.595477044582366943e-01
2.034128457307815552e-01
-3.113918937742710114e-02
-3.909398987889289856e-02
9.194525331258773804e-02
2.212036699056625366e-01
-1.172157749533653259e-01
1.676933839917182922e-02
5.833834782242774963e-02
-2.811881005764007568e-01
1.370454952120780945e-02
1.756200492382049561e-01
-9.012366831302642822e-02
2.313536703586578369e-01
-3.292432129383087158e-01
1.037822663784027100e-01
3.876990377902984619e-01
-3.784859776496887207e-01
2.633218467235565186e-01
2.423930913209915161e-01
2.032959163188934326e-01
2.175717204809188843e-01
-2.210613191127777100e-01
-6.675082445144653320e-01
-3.029638342559337616e-02
1.094860285520553589e-01
-1.451457291841506958e-01
8.175029605627059937e-02
5.066605284810066223e-02
1.238679885864257812e-02
-2.218406200408935547e-01
3.647980690002441406e-01
-1.914460808038711548e-01
1.706965714693069458e-01
-1.785238832235336304e-02
-2.341084331274032593e-01
5.865076091140508652e-03
3.448713570833206177e-02
-1.739151179790496826e-01
-7.163784652948379517e-02
1.318299919366836548e-01
3.031891956925392151e-02
-1.158212423324584961e-01
-3.900008201599121094e-01
3.554697707295417786e-02
1.938924193382263184e-01
-1.414873003959655762e-01
6.627681851387023926e-02
3.310382962226867676e-01
2.181284427642822266e-01
1.955638676881790161e-01
4.361128807067871094e-02
-2.145766764879226685e-01
7.972887903451919556e-02
2.523445785045623779e-01
-1.043869629502296448e-01
5.849882960319519043e-02
-1.036011278629302979e-01
-1.900010108947753906e-01
2.284845337271690369e-02
-2.709146738052368164e-01
-3.881737589836120605e-01
-7.929372042417526245e-02
-3.043413460254669189e-01
-2.969842031598091125e-02
-7.224261760711669922e-02
1.116139739751815796e-01
-7.961980998516082764e-02
8.146870881319046021e-02
4.151646047830581665e-02
8.234255015850067139e-02
3.661185204982757568e-01
-8.579405397176742554e-02
-1.962368488311767578e-01
4.933180287480354309e-02
-5.033054351806640625e-01
5.280737876892089844e-01
-3.369002789258956909e-02
2.629585564136505127e-01
5.408495292067527771e-02
3.648594319820404053e-01
-1.150954589247703552e-01
-1.729181781411170959e-02
-7.913976162672042847e-02
-1.175677254796028137e-01
4.780036807060241699e-01
-1.980151534080505371e-01
-4.839254170656204224e-02
-2.961698919534683228e-02
6.425386071205139160e-01
1.645383052527904510e-02
-1.476763039827346802e-01
3.404837101697921753e-02
1.846405267715454102e-01
-8.594088256359100342e-02
4.835098981857299805e-02
-2.166288346052169800e-02
4.215992391109466553e-01
6.565344333648681641e-01
1.296727359294891357e-01
7.147689461708068848e-01
1.560832653194665909e-02
6.625634431838989258e-01
1.191604435443878174e-01
2.427374571561813354e-01
4.515030980110168457e-01
2.238158881664276123e-02
-7.118417322635650635e-02
-1.175241693854331970e-01
2.912336885929107666e-01
-2.223540991544723511e-01
2.217967659235000610e-01
1.084200367331504822e-01
-4.986152797937393188e-02
1.614456772804260254e-01
1.786720603704452515e-01
1.031103581190109253e-01
1.078922525048255920e-01
2.973689138889312744e-01
-2.387259155511856079e-01
4.572958126664161682e-02
-1.227269396185874939e-01
4.655877947807312012e-01
-1.328546553850173950e-01
-5.464886501431465149e-02
2.843532264232635498e-01
3.354090750217437744e-01
-4.777829945087432861e-01
6.077123880386352539e-01
1.839249134063720703e-01
3.342086374759674072e-01
2.289882451295852661e-01
-2.276499420404434204e-01
2.210266292095184326e-01
2.831867337226867676e-01
6.743297725915908813e-02
-1.082777529954910278e-01
2.142756879329681396e-01
4.901729524135589600e-01
-2.094567269086837769e-01
2.639174759387969971e-01
5.655689239501953125e-01
-1.063580736517906189e-01
1.058192402124404907e-01
5.195275545120239258e-01
1.682281047105789185e-01
-6.320453435182571411e-02
1.023318693041801453e-01
-9.858502447605133057e-02
1.621830612421035767e-01
2.083070948719978333e-02
8.562502264976501465e-02
-3.350742757320404053e-01
2.239973843097686768e-01
1.119056269526481628e-01
2.645327150821685791e-01
3.270379006862640381e-01
9.769558310508728027e-01
1.345763057470321655e-01
3.688637316226959229e-01
1.505854427814483643e-01
2.454047799110412598e-01
3.853460848331451416e-01
1.663322448730468750e-01
1.492558866739273071e-01
8.427472412586212158e-02
1.132079586386680603e-01
-1.944970637559890747e-01
2.074716836214065552e-01
6.017535179853439331e-02
7.291065156459808350e-02
2.269526869058609009e-01
-1.574189588427543640e-02
-1.483016610145568848e-01
2.516643404960632324e-01
5.126866698265075684e-01
-1.176216378808021545e-01
8.089697957038879395e-01
-1.454878449440002441e-01
4.246601089835166931e-02
4.504189789295196533e-01
-1.886241436004638672e-01
3.176142275333404541e-01
-4.168983176350593567e-02
1.000927016139030457e-01
3.553509013727307320e-04
2.491628378629684448e-01
-2.301845550537109375e-01
-4.386667609214782715e-01
5.210441946983337402e-01
2.741736769676208496e-01
1.848181486129760742e-01
1.074820756912231445e-01
-6.893878430128097534e-02
6.263910979032516479e-02
-6.758552789688110352e-02
1.217837929725646973e-01
1.521964371204376221e-01
3.574255704879760742e-01
-4.490504413843154907e-02
