-1.723837089538574219e+01
-1.281502485275268555e+00
-3.298637866973876953e+00
-3.288899993896484375e+01
2.662548065185546875e+00
6.391006708145141602e-01
-5.743022561073303223e-01
-4.310721588134765625e+01
-3.845042037963867188e+01
-2.398436355590820312e+01
-1.020158454775810242e-02
-2.907309341430664062e+01
-2.486911773681640625e+01
1.240251898765563965e+00
-4.130505561828613281e+00
6.153599619865417480e-01
-2.174029541015625000e+01
-1.921734046936035156e+01
-3.874099349975585938e+01
-3.277480363845825195e+00
-2.683916568756103516e+00
-4.080447006225585938e+01
3.269719183444976807e-01
-1.441688156127929688e+01
-2.297033500671386719e+01
8.891254425048828125e+00
-1.372863411903381348e+00
1.069664716720581055e+00
3.352321386337280273e-01
-5.745132064819335938e+01
-2.075454902648925781e+01
-2.518439590930938721e-01
-1.282949686050415039e+00
-3.681186437606811523e+00
1.528658390045166016e+00
-1.791588902473449707e+00
-6.595012664794921875e+00
-3.785494327545166016e+00
-1.168444633483886719e+01
-1.441944956779479980e+00
-2.298850536346435547e+00
-5.292786598205566406e+00
-1.187858295440673828e+01
-4.750164031982421875e+01
-1.894786453247070312e+01
-2.788260078430175781e+01
-4.559637069702148438e+01
-1.904702758789062500e+01
-7.696861624717712402e-01
-2.787075996398925781e+01
-7.962415814399719238e-01
-1.407460784912109375e+01
-2.575836944580078125e+01
-2.942113161087036133e+00
3.142866849899291992e+00
-4.066546916961669922e+00
6.353428840637207031e+00
1.818737268447875977e+00
-2.345567512512207031e+01
1.639615297317504883e-01
-3.104711341857910156e+01
-7.724342823028564453e+00
-3.882815122604370117e+00
1.467861235141754150e-01
-8.623571395874023438e+00
-3.599361419677734375e+01
3.116833269596099854e-01
-9.383425712585449219e+00
-1.568004512786865234e+01
-1.952829837799072266e+00
-3.380004501342773438e+01
5.885597705841064453e+00
-4.270478439331054688e+01
-1.666635990142822266e+00
-1.197173539549112320e-02
-8.728432655334472656e+00
-6.903360843658447266e+00
-1.072210788726806641e+01
-4.510901260375976562e+01
-4.765993499755859375e+01
-1.702476692199707031e+01
-3.051844215393066406e+01
3.025877773761749268e-01
-4.036704599857330322e-01
-3.411824035644531250e+01
-8.850499153137207031e+00
-3.171079874038696289e+00
-2.969476699829101562e+01
3.226923942565917969e-02
-4.942913532257080078e+00
-1.513377285003662109e+01
-1.786775350570678711e+00
-9.749496459960937500e+00
-9.807796478271484375e+00
-2.479291725158691406e+01
7.298334687948226929e-02
-3.659662008285522461e-01
3.945165872573852539e+00
3.941497802734375000e+00
2.763090729713439941e-01
