5.139923095703125000e-01
-5.953923240303993225e-02
1.104101300239562988e+00
1.802118271589279175e-01
7.286092042922973633e-01
1.456810474395751953e+00
6.286646127700805664e-01
1.203311011195182800e-01
1.070153951644897461e+00
4.399777054786682129e-01
1.243984580039978027e+00
1.022960066795349121e+00
-3.236062228679656982e-01
4.881989955902099609e-01
4.598125934600830078e+00
-2.181021869182586670e-02
4.261202812194824219e-01
1.987958335876464844e+01
5.096414089202880859e-01
1.092290401458740234e+00
1.294800186157226562e+01
1.263411939144134521e-01
1.968223571777343750e+00
3.264184713363647461e+00
6.798220276832580566e-01
3.199741363525390625e+00
3.513019084930419922e-01
1.215279817581176758e+00
4.137915372848510742e-01
6.929664611816406250e-01
3.020353317260742188e-01
9.993497729301452637e-01
2.237380266189575195e+00
1.470874786376953125e+00
1.182553887367248535e+00
1.177791309356689453e+01
5.373187541961669922e+00
3.196218490600585938e+00
-3.553212583065032959e-01
1.659488081932067871e-01
1.418812394142150879e+00
1.236618906259536743e-01
1.292183208465576172e+01
7.532893419265747070e-01
2.334518432617187500e+00
5.464401721954345703e+00
1.147688180208206177e-01
-1.090074852108955383e-01
4.093220233917236328e+00
6.796172261238098145e-02
4.402567446231842041e-01
1.164760947227478027e+00
1.125756621360778809e+00
9.957020282745361328e-01
2.473984062671661377e-01
1.101569890975952148e+00
9.549912452697753906e+00
1.000480771064758301e+00
1.791582465171813965e+00
2.778096675872802734e+00
2.271095752716064453e+00
-5.198672413825988770e-01
2.027088880538940430e+00
9.615465998649597168e-01
7.388319969177246094e-01
-2.227095514535903931e-01
1.173991203308105469e+00
3.777452707290649414e+00
1.295505881309509277e+00
1.270552396774291992e+00
1.126507997512817383e+00
3.456932306289672852e+00
1.313505649566650391e+00
9.561620950698852539e-01
1.689895033836364746e+00
1.334998488426208496e+00
9.279188513755798340e-01
6.596518307924270630e-02
-4.343663752079010010e-01
1.201204180717468262e+00
-1.950640082359313965e-01
7.359530329704284668e-01
2.270584344863891602e+00
2.463843584060668945e+00
7.136404514312744141e+00
6.169167518615722656e+00
1.874670237302780151e-01
3.094848394393920898e-01
2.437031030654907227e+00
7.354206442832946777e-01
-1.212875694036483765e-01
7.800620794296264648e-01
8.315674066543579102e-01
5.057926177978515625e-01
-6.832118630409240723e-01
-4.207208454608917236e-01
9.462325572967529297e-01
3.832823038101196289e+00
1.240711092948913574e+00
1.555797457695007324e-01
-2.183404564857482910e-01
1.108991503715515137e+00
6.436740756034851074e-01
8.554761409759521484e-01
3.187550544738769531e+00
8.850790560245513916e-02
1.107511281967163086e+00
1.495401382446289062e+00
2.041401624679565430e+00
2.785338878631591797e+00
1.514572739601135254e+00
6.659085750579833984e-01
3.975150883197784424e-01
1.324091076850891113e+00
3.335608720779418945e+00
1.000118494033813477e+00
4.894361793994903564e-01
1.437522530555725098e+00
1.756632924079895020e-01
1.029363274574279785e+00
1.376316785812377930e+00
8.479680061340332031e+00
5.086470246315002441e-01
4.152467846870422363e-01
5.147180557250976562e-01
4.479672610759735107e-01
-7.474218495190143585e-03
4.482799053192138672e+00
-5.428108572959899902e-01
1.789459037780761719e+01
9.824593663215637207e-01
3.027802407741546631e-01
8.298071026802062988e-01
4.996760487556457520e-01
1.591041326522827148e+00
1.537836343050003052e-01
1.988126873970031738e+00
2.343645244836807251e-01
7.990278601646423340e-01
3.043387174606323242e+00
3.712185621261596680e+00
-3.663248568773269653e-02
2.168085575103759766e+00
5.672625303268432617e-01
7.572922110557556152e-01
4.128856956958770752e-01
1.222855210304260254e+00
7.495443820953369141e-01
2.207587718963623047e+00
1.893107533454895020e+00
1.203025722503662109e+01
-1.603506952524185181e-01
1.124687910079956055e+00
2.301011562347412109e+00
2.257851362228393555e+00
1.359288811683654785e+00
1.128824710845947266e+00
9.957337379455566406e-02
6.377682089805603027e-01
4.638480246067047119e-01
1.299946784973144531e+00
1.403061747550964355e-01
6.723592430353164673e-02
3.128583669662475586e+00
3.633333444595336914e-01
1.616128802299499512e+00
1.051090240478515625e+00
2.136391162872314453e+00
2.181758165359497070e+00
-3.917282223701477051e-01
-9.318117797374725342e-02
1.102373409271240234e+01
9.635071754455566406e-01
2.340116977691650391e+00
-3.146200180053710938e-01
1.797091841697692871e+00
3.934345960617065430e+00
3.125540018081665039e-01
9.232738018035888672e-01
-6.933905482292175293e-01
-5.635698884725570679e-02
1.010657310485839844e+00
5.011923909187316895e-01
-3.622940480709075928e-01
-3.455601036548614502e-01
-1.940365880727767944e-01
8.323669433593750000e-01
2.293123006820678711e-01
9.831725955009460449e-01
9.345101118087768555e-01
1.379800796508789062e+00
-4.895360171794891357e-01
1.682374328374862671e-01
2.910217046737670898e-01
1.459819316864013672e+00
1.450186610221862793e+00
3.656427383422851562e+00
8.922662734985351562e-01
3.297652676701545715e-02
5.641722679138183594e-02
2.078942060470581055e-01
8.654199838638305664e-01
-3.611828088760375977e+00
3.173007071018218994e-01
-7.732192516326904297e+00
4.413828551769256592e-01
1.193584084510803223e+00
2.218013852834701538e-01
5.893139839172363281e-01
1.007291913032531738e+00
1.249489784240722656e+00
8.600324392318725586e-01
-1.518887615203857422e+01
8.567141890525817871e-01
1.117392182350158691e+00
-2.259042501449584961e+00
7.367636561393737793e-01
-1.186759662628173828e+01
-3.955561161041259766e+00
1.113682746887207031e+00
-1.526261997222900391e+01
7.689561843872070312e-01
1.463101387023925781e+00
5.347442030906677246e-01
-7.727128267288208008e-02
1.429084897041320801e+00
6.289924979209899902e-01
1.477145671844482422e+00
1.058432340621948242e+00
-6.709334254264831543e-02
-1.019960880279541016e+00
1.426034271717071533e-01
-4.029186815023422241e-02
-3.997417926788330078e+00
9.603672027587890625e-01
1.400353312492370605e+00
1.241518020629882812e+00
1.200029969215393066e+00
-2.753926277160644531e+00
8.547230958938598633e-01
-5.050294399261474609e-01
-2.051058292388916016e+00
8.079530596733093262e-01
6.743432879447937012e-01
-4.843616962432861328e+00
1.219811081886291504e+00
3.039035797119140625e-01
4.439208805561065674e-01
1.155687212944030762e+00
-1.091565012931823730e+00
3.925111517310142517e-02
3.662067353725433350e-01
4.205949902534484863e-01
1.147258043289184570e+00
9.487059116363525391e-01
-3.541108846664428711e+00
-1.852111434936523438e+01
4.064169228076934814e-01
7.810954451560974121e-01
6.491373181343078613e-01
-1.014054107666015625e+01
-1.014401912689208984e+00
1.136444330215454102e+00
6.441899538040161133e-01
-3.777004480361938477e-01
-1.914315795898437500e+01
9.770436882972717285e-01
-3.467733383178710938e+00
-1.752313017845153809e+00
5.486400127410888672e-01
-1.030376315116882324e+00
5.177019238471984863e-01
8.592508435249328613e-01
1.014930844306945801e+00
9.532881085760891438e-05
2.848027944564819336e-01
-8.056741714477539062e+00
6.746470332145690918e-01
-1.226797962188720703e+01
1.047359347343444824e+00
-1.386780589818954468e-01
1.231888294219970703e+00
8.111693263053894043e-01
-2.749144554138183594e+00
1.059440612792968750e+00
8.772329092025756836e-01
-3.516191005706787109e+00
-5.798305988311767578e+00
5.384332537651062012e-01
-5.200698971748352051e-01
-6.924844384193420410e-01
-4.129651188850402832e-01
6.113467216491699219e-01
4.650383442640304565e-02
-7.431795597076416016e-01
-5.197993755340576172e+00
5.461854934692382812e-01
1.297616958618164062e+00
-3.788698613643646240e-01
-1.263151931762695312e+01
-2.639625072479248047e+00
9.682388901710510254e-01
-1.775513267517089844e+01
1.630225181579589844e+00
8.474757075309753418e-01
-7.217303276062011719e+00
-9.455851912498474121e-01
-1.636002922058105469e+01
7.437957525253295898e-01
9.406208395957946777e-01
8.909565210342407227e-01
-1.550923660397529602e-02
9.520892500877380371e-01
5.793941617012023926e-01
-2.735502243041992188e+00
1.360078692436218262e+00
4.572492837905883789e-01
9.507166743278503418e-01
-1.806154102087020874e-01
9.139115810394287109e-01
1.433460116386413574e+00
8.310669064521789551e-01
-1.886741816997528076e-01
9.021159410476684570e-01
9.204187989234924316e-01
-1.604978752136230469e+01
8.560690879821777344e-01
-1.121778130531311035e+00
-1.606748199462890625e+01
8.965908288955688477e-01
-3.518771231174468994e-01
9.430921673774719238e-01
8.499114513397216797e-01
3.313070237636566162e-01
-8.039834976196289062e+00
-2.249817848205566406e+00
8.341444134712219238e-01
1.167099356651306152e+00
4.883989319205284119e-02
8.260887116193771362e-03
6.717687845230102539e-01
4.953589141368865967e-01
6.057405471801757812e-01
-1.150834369659423828e+01
1.371650934219360352e+00
1.323428630828857422e+00
1.362486243247985840e+00
7.565727233886718750e-01
1.109138846397399902e+00
9.780359268188476562e-01
-1.283334016799926758e+00
4.612360894680023193e-01
-1.179618000984191895e+00
9.487679600715637207e-01
1.998494863510131836e-01
1.185292959213256836e+00
-1.370415806770324707e+00
9.892350435256958008e-01
-1.049338436126708984e+01
2.047376185655593872e-01
9.637513756752014160e-01
-2.526442408561706543e-01
7.318996191024780273e-01
8.942666649818420410e-01
5.912821888923645020e-01
1.214969277381896973e+00
-4.600621759891510010e-01
1.021676301956176758e+00
8.336406350135803223e-01
-5.626061916351318359e+00
1.025406002998352051e+00
-2.871069908142089844e-01
-1.289031147956848145e+00
-2.743732742965221405e-02
-1.120161056518554688e+01
1.344002604484558105e+00
1.338739991188049316e+00
8.639513254165649414e-01
-3.566684722900390625e+00
1.527404785156250000e+00
-3.124058246612548828e+00
-1.845325851440429688e+01
-1.797549277544021606e-01
-7.190775871276855469e-01
8.484892249107360840e-01
-7.718451499938964844e+00
2.951534986495971680e-01
1.474196553230285645e+00
1.109534859657287598e+00
1.039360880851745605e+00
-5.349763035774230957e-01
-1.274823379516601562e+01
6.487271785736083984e-01
9.490822553634643555e-01
6.797679662704467773e-01
1.186583638191223145e+00
1.340699076652526855e+00
5.360534787178039551e-01
4.338254034519195557e-01
6.151043176651000977e-01
9.018548011779785156e+00
-8.029729843139648438e+00
-7.784178733825683594e+00
1.335123252868652344e+01
1.048910331726074219e+01
5.052654743194580078e+00
4.985751628875732422e+00
1.616416168212890625e+01
-1.399725151062011719e+01
-1.010956573486328125e+01
3.370789527893066406e+00
4.866560935974121094e+00
-2.925424003601074219e+01
-1.069934558868408203e+01
-5.367553234100341797e-01
2.594146156311035156e+01
1.120640659332275391e+01
1.662124097347259521e-01
-1.014845466613769531e+01
4.602607250213623047e+00
-9.841280430555343628e-02
-9.854473114013671875e+00
-7.800245285034179688e+00
4.821729362010955811e-01
8.095476150512695312e+00
4.700323045253753662e-01
1.222308063507080078e+01
-1.723177337646484375e+01
-1.245617866516113281e+01
-1.688507461547851562e+01
-2.460714340209960938e+01
7.934058189392089844e+00
3.286566257476806641e+00
-1.502940750122070312e+01
3.718818426132202148e+00
-1.264724284410476685e-01
-7.618518471717834473e-01
-3.033952236175537109e+00
3.071005249023437500e+01
1.462209510803222656e+01
-1.362594318389892578e+01
-1.308777046203613281e+01
-3.314555215183645487e-04
8.863947868347167969e+00
2.162103652954101562e+00
-7.282026857137680054e-02
-9.920445442199707031e+00
1.600234985351562500e+01
6.923370957374572754e-01
1.885065078735351562e+01
8.469728469848632812e+00
-2.725853681564331055e+00
-7.724471092224121094e+00
-5.818096637725830078e+00
1.264279747009277344e+01
4.011878490447998047e+00
8.524005115032196045e-02
-7.082027912139892578e+00
2.575819253921508789e+00
3.846213221549987793e-01
4.577474594116210938e+00
2.150739479064941406e+01
-8.432769775390625000e+00
-7.247542381286621094e+00
-1.528643894195556641e+01
3.349139404296875000e+01
-3.175771713256835938e+00
-2.673466920852661133e+00
-5.422061443328857422e+00
-2.152704715728759766e+00
6.923674583435058594e+00
-4.287807270884513855e-02
-4.535424232482910156e+00
-6.301187515258789062e+00
1.564153575897216797e+01
1.248669052124023438e+01
8.973368644714355469e+00
1.393178367614746094e+01
-5.550185775756835938e+01
-2.566301584243774414e+00
1.551758670806884766e+01
-1.025103187561035156e+01
1.774722218513488770e+00
-2.436257839202880859e+00
8.517909795045852661e-02
1.248725533485412598e+00
1.694931793212890625e+01
-1.864858436584472656e+01
-1.284832119941711426e+00
-9.572546958923339844e+00
-2.135161972045898438e+01
-6.917533397674560547e+00
-8.411160469055175781e+00
8.884846687316894531e+00
-2.246299743652343750e+01
5.395483016967773438e+01
-2.271629571914672852e+00
9.495990872383117676e-01
-1.325232887268066406e+01
-2.236147689819335938e+01
2.318985939025878906e+01
-2.249563694000244141e+00
4.670697689056396484e+00
-1.459632015228271484e+01
3.355466127395629883e-01
-1.705222892761230469e+01
7.107801914215087891e+00
-4.427558422088623047e+00
5.639870762825012207e-01
-3.244358897209167480e-01
-1.756591200828552246e+00
-8.165959358215332031e+00
-1.122183227539062500e+01
-1.962375402450561523e+00
-1.714592613279819489e-02
2.113145589828491211e+00
1.067041587829589844e+01
3.969884395599365234e+00
1.959497451782226562e+01
-2.543431520462036133e+00
1.548116397857666016e+01
-1.779471784830093384e-01
-9.417331695556640625e+00
6.234236240386962891e+00
8.555278778076171875e+00
2.263364028930664062e+01
-1.842624092102050781e+01
3.390422165393829346e-01
7.566404724121093750e+01
-2.767697721719741821e-02
-7.160919666290283203e+00
1.172139358520507812e+01
6.732640266418457031e+00
-1.125834178924560547e+01
-4.264480590820312500e+00
-1.750304031372070312e+01
-2.412836790084838867e+00
1.139002323150634766e+01
2.145449447631835938e+01
7.706019878387451172e+00
1.324254572391510010e-01
-1.508821392059326172e+01
6.035516411066055298e-02
-1.677623558044433594e+01
-1.534222888946533203e+01
-8.688339233398437500e+00
2.753969430923461914e+00
-3.956068038940429688e+00
6.227939128875732422e-01
-3.329974412918090820e+00
2.240739576518535614e-02
-7.108058929443359375e+00
1.648775291442871094e+01
2.247454881668090820e+00
7.441852569580078125e+00
-1.346955776214599609e+01
-3.115896463394165039e+00
-1.124857425689697266e+01
1.404109764099121094e+01
1.054168033599853516e+01
-4.257022380828857422e+00
-1.762114715576171875e+01
-1.763220977783203125e+01
1.614706993103027344e+00
-1.950480842590332031e+01
1.097537159919738770e+00
3.027404546737670898e+00
2.372085094451904297e+00
2.158674716949462891e+00
4.123212814331054688e+01
-9.397480964660644531e+00
-1.502730976790189743e-02
1.043253898620605469e+01
-8.267599105834960938e+00
-2.753010749816894531e+01
3.044330835342407227e+00
-1.419584602117538452e-01
1.167333126068115234e+01
-3.696578741073608398e+00
-1.785269927978515625e+01
-2.683911514282226562e+01
-6.762816905975341797e+00
-1.166974925994873047e+01
-5.049605846405029297e+00
-2.360235214233398438e+01
-4.223811721801757812e+01
4.739736557006835938e+00
1.418513202667236328e+01
-6.335535049438476562e+00
1.711016058921813965e+00
2.395447731018066406e+00
-5.734962463378906250e+01
1.012264633178710938e+01
1.312371444702148438e+01
2.566215753555297852e+00
-1.679704546928405762e+00
-4.400360286235809326e-01
-4.640318393707275391e+00
1.679400444030761719e+01
-1.535358047485351562e+01
