8.457247734069824219e+00
8.518994331359863281e+00
8.389490127563476562e+00
8.452842712402343750e+00
8.499202728271484375e+00
8.517835617065429688e+00
8.543055534362792969e+00
8.511552810668945312e+00
8.514436721801757812e+00
8.520539283752441406e+00
8.576146125793457031e+00
8.460858345031738281e+00
8.485088348388671875e+00
8.504985809326171875e+00
8.517990112304687500e+00
8.555737495422363281e+00
8.514635086059570312e+00
8.518729209899902344e+00
8.587084770202636719e+00
8.499304771423339844e+00
8.574663162231445312e+00
8.532424926757812500e+00
8.491481781005859375e+00
8.528035163879394531e+00
8.520424842834472656e+00
8.535682678222656250e+00
8.430231094360351562e+00
8.526688575744628906e+00
8.559844970703125000e+00
8.566051483154296875e+00
8.528219223022460938e+00
8.482764244079589844e+00
8.510676383972167969e+00
8.500755310058593750e+00
8.403683662414550781e+00
8.477471351623535156e+00
8.350544929504394531e+00
8.512995719909667969e+00
8.434906005859375000e+00
8.555659294128417969e+00
8.491658210754394531e+00
8.521033287048339844e+00
8.503515243530273438e+00
8.517785072326660156e+00
8.494488716125488281e+00
8.504767417907714844e+00
8.420265197753906250e+00
8.463585853576660156e+00
8.492237091064453125e+00
8.469037055969238281e+00
8.445017814636230469e+00
8.477184295654296875e+00
8.513846397399902344e+00
8.485923767089843750e+00
8.515360832214355469e+00
8.576250076293945312e+00
8.574451446533203125e+00
8.472722053527832031e+00
8.516890525817871094e+00
8.516606330871582031e+00
8.475422859191894531e+00
8.468888282775878906e+00
8.551516532897949219e+00
8.513138771057128906e+00
8.474875450134277344e+00
8.546239852905273438e+00
8.506296157836914062e+00
8.491018295288085938e+00
8.480734825134277344e+00
8.446797370910644531e+00
8.535550117492675781e+00
8.522981643676757812e+00
8.538993835449218750e+00
8.471693992614746094e+00
8.532255172729492188e+00
8.375701904296875000e+00
8.517792701721191406e+00
8.581023216247558594e+00
8.496774673461914062e+00
8.474455833435058594e+00
8.520487785339355469e+00
8.560791969299316406e+00
8.491701126098632812e+00
8.486426353454589844e+00
8.549957275390625000e+00
8.461393356323242188e+00
8.507042884826660156e+00
8.525557518005371094e+00
8.519750595092773438e+00
8.457927703857421875e+00
8.534918785095214844e+00
8.536564826965332031e+00
8.484932899475097656e+00
8.610068321228027344e+00
8.469417572021484375e+00
8.527962684631347656e+00
8.474280357360839844e+00
8.527683258056640625e+00
8.484848976135253906e+00
8.593952178955078125e+00
8.522182464599609375e+00
8.564165115356445312e+00
8.535546302795410156e+00
8.495694160461425781e+00
8.509342193603515625e+00
8.466636657714843750e+00
8.445116996765136719e+00
8.441594123840332031e+00
8.525649070739746094e+00
8.495153427124023438e+00
8.469215393066406250e+00
8.508070945739746094e+00
8.485340118408203125e+00
8.486554145812988281e+00
8.454980850219726562e+00
8.388023376464843750e+00
8.502157211303710938e+00
8.495880126953125000e+00
8.482436180114746094e+00
8.450625419616699219e+00
8.530387878417968750e+00
8.483392715454101562e+00
8.477044105529785156e+00
8.470126152038574219e+00
8.509500503540039062e+00
8.460164070129394531e+00
8.538602828979492188e+00
8.523095130920410156e+00
8.521404266357421875e+00
8.575401306152343750e+00
8.526353836059570312e+00
8.467081069946289062e+00
8.512344360351562500e+00
8.561110496520996094e+00
8.510226249694824219e+00
8.532954216003417969e+00
8.466868400573730469e+00
8.574063301086425781e+00
8.551338195800781250e+00
8.495952606201171875e+00
8.514883995056152344e+00
8.584351539611816406e+00
8.490290641784667969e+00
8.479237556457519531e+00
8.459721565246582031e+00
8.454451560974121094e+00
8.505505561828613281e+00
8.498244285583496094e+00
8.560744285583496094e+00
8.535851478576660156e+00
1.429503798484802246e+00
9.448838233947753906e-01
1.272751092910766602e+00
-9.714691162109375000e+00
1.117693305015563965e+00
7.196313142776489258e-01
-1.046089076995849609e+01
8.322344422340393066e-01
1.217604994773864746e+00
1.358643412590026855e+00
-1.062023639678955078e+01
1.213150262832641602e+00
1.149531841278076172e+00
1.018032670021057129e+00
9.546157121658325195e-01
-1.014354801177978516e+01
-9.731733322143554688e+00
1.190389633178710938e+00
9.945179820060729980e-01
1.287829875946044922e+00
-1.070802402496337891e+01
1.247381567955017090e+00
-1.018034839630126953e+01
1.143522024154663086e+00
1.094796180725097656e+00
-1.037027359008789062e+01
1.203207492828369141e+00
-1.032959365844726562e+01
-1.049215030670166016e+01
1.133454203605651855e+00
1.264516353607177734e+00
-1.005588054656982422e+01
-1.032047939300537109e+01
1.064249396324157715e+00
1.335466027259826660e+00
-1.055054569244384766e+01
1.318633079528808594e+00
-1.024272632598876953e+01
-9.443971633911132812e+00
-9.665283203125000000e+00
9.610645771026611328e-01
-9.917190551757812500e+00
1.136231303215026855e+00
-1.055086708068847656e+01
-1.032618904113769531e+01
-1.035104465484619141e+01
-1.029658699035644531e+01
1.316963195800781250e+00
6.031969189643859863e-01
-5.707364082336425781e-01
1.156587719917297363e+00
1.064301133155822754e+00
-1.022258281707763672e+01
-9.897255897521972656e+00
-1.061095046997070312e+01
-2.587214112281799316e-02
-9.957683563232421875e+00
-9.387992858886718750e+00
-1.024042510986328125e+01
-1.059411430358886719e+01
1.036656737327575684e+00
1.078814864158630371e+00
1.068167328834533691e+00
-9.986502647399902344e+00
1.199909210205078125e+00
1.219031095504760742e+00
1.218060851097106934e+00
9.492021203041076660e-01
-9.304840087890625000e+00
1.279453158378601074e+00
1.159392118453979492e+00
1.191975235939025879e+00
-1.055031394958496094e+01
-9.975878715515136719e+00
1.108464002609252930e+00
-1.035992050170898438e+01
-9.881734848022460938e+00
-1.041560268402099609e+01
-1.030278682708740234e+01
1.191751360893249512e+00
-9.811667442321777344e+00
9.767792224884033203e-01
-1.054271507263183594e+01
1.301229476928710938e+00
1.201610207557678223e+00
1.078560471534729004e+00
1.198841452598571777e+00
-9.428647994995117188e+00
-9.976773262023925781e+00
-9.178605079650878906e+00
9.730158448219299316e-01
1.258474469184875488e+00
-9.792428970336914062e+00
-1.035262298583984375e+01
9.656926393508911133e-01
1.028540015220642090e+00
-1.062019538879394531e+01
-1.052649211883544922e+01
-9.837122917175292969e+00
1.270228743553161621e+00
2.804296314716339111e-01
-1.039687252044677734e+01
-9.971397399902343750e+00
-1.002618026733398438e+01
1.222846388816833496e+00
1.247673392295837402e+00
1.348770856857299805e+00
9.106951355934143066e-01
1.164743304252624512e+00
7.336643338203430176e-01
-1.033912944793701172e+01
-9.993216514587402344e+00
1.137150287628173828e+00
-1.046375846862792969e+01
9.183574914932250977e-01
1.328250765800476074e+00
-9.863874435424804688e+00
-9.841632843017578125e+00
1.076184511184692383e+00
1.099694252014160156e+00
-1.031099510192871094e+01
1.095170140266418457e+00
-1.023485851287841797e+01
-1.029119491577148438e+01
-9.758378028869628906e+00
1.099929809570312500e+00
9.788253307342529297e-01
1.008631944656372070e+00
1.317020654678344727e+00
9.048656821250915527e-01
1.127958416938781738e+00
-1.048064041137695312e+01
-9.972130775451660156e+00
1.138376712799072266e+00
-1.025390434265136719e+01
-9.842149734497070312e+00
1.255199790000915527e+00
-1.048569107055664062e+01
-1.032587528228759766e+01
-1.021784210205078125e+01
1.173746228218078613e+00
-9.887331962585449219e+00
-9.097235679626464844e+00
-9.650307655334472656e+00
1.087255239486694336e+00
1.302073478698730469e+00
1.049267888069152832e+00
9.018974900245666504e-01
1.024562239646911621e+00
-1.037681388854980469e+01
-7.794272154569625854e-03
-1.877780258655548096e-02
1.043628230690956116e-01
2.264134883880615234e-01
1.582745276391506195e-02
8.312143385410308838e-02
-3.970124945044517517e-02
1.452087238430976868e-02
-1.063189283013343811e-01
-2.254494652152061462e-02
3.888696804642677307e-02
4.357088506221771240e-01
-2.632928267121315002e-02
8.361871354281902313e-03
-9.164896607398986816e-02
2.219887226819992065e-01
5.870300903916358948e-02
-2.319184988737106323e-01
-3.943840786814689636e-02
-4.752808064222335815e-02
-4.325539618730545044e-02
3.215941190719604492e-01
-1.088623236864805222e-02
-7.595132291316986084e-02
5.406314041465520859e-03
5.333293601870536804e-02
1.494854390621185303e-01
2.703825011849403381e-03
1.271560136228799820e-02
-1.202816516160964966e-01
-3.234606385231018066e-01
3.361215442419052124e-02
-3.570252060890197754e-01
1.715381741523742676e-01
-2.103911042213439941e-01
4.216174408793449402e-02
2.785229384899139404e-01
7.125981152057647705e-02
4.019371271133422852e-01
-4.179608523845672607e-01
8.945331722497940063e-02
-4.943901672959327698e-02
1.789747923612594604e-01
1.846084371209144592e-02
-2.297318875789642334e-01
7.037468999624252319e-02
2.035688236355781555e-02
4.356742501258850098e-01
1.865466386079788208e-01
1.794956326484680176e-01
-9.889951348304748535e-02
-1.362529695034027100e-01
3.379144519567489624e-02
-1.630554497241973877e-01
-1.563189923763275146e-02
1.307946071028709412e-02
2.301681935787200928e-01
3.609891533851623535e-01
-9.117382019758224487e-02
3.687399253249168396e-02
4.086524546146392822e-01
-8.070606738328933716e-02
-1.110421940684318542e-01
6.142874062061309814e-02
-1.008967831730842590e-01
9.255782514810562134e-02
4.203241690993309021e-02
-1.582272350788116455e-01
-1.170293986797332764e-01
5.627634376287460327e-02
-9.350598603487014771e-02
8.604860305786132812e-02
4.667994379997253418e-02
5.491821095347404480e-02
8.598161488771438599e-02
8.058075606822967529e-02
-2.065652050077915192e-02
8.248995244503021240e-02
-1.212223544716835022e-01
2.468679100275039673e-01
5.626506730914115906e-02
-2.889706380665302277e-02
3.871736675500869751e-02
-2.367307990789413452e-01
-5.009458586573600769e-02
-1.571115665137767792e-02
-1.034836098551750183e-01
1.756820678710937500e-01
-4.293609037995338440e-02
9.174894541501998901e-02
9.319093823432922363e-02
3.586311936378479004e-01
-6.536828726530075073e-02
-1.006946340203285217e-02
1.674864441156387329e-01
1.544482074677944183e-02
7.208460569381713867e-02
-2.694025635719299316e-01
-1.988468132913112640e-02
-7.361049950122833252e-02
-1.890483945608139038e-01
-1.710680499672889709e-02
2.003535442054271698e-02
-1.809035986661911011e-01
-2.731825038790702820e-02
-1.043263599276542664e-01
2.096354961395263672e-02
-2.257646918296813965e-01
-5.151670798659324646e-02
-2.667684666812419891e-02
-1.066151354461908340e-02
1.626749932765960693e-01
-2.776490896940231323e-02
-2.090384513139724731e-01
6.751100718975067139e-02
3.374480009078979492e-01
2.969405949115753174e-01
-1.175631433725357056e-01
-7.606125622987747192e-02
5.149462074041366577e-02
1.297822147607803345e-01
1.313463668338954449e-03
2.753656804561614990e-01
-6.103647500276565552e-02
-1.126825362443923950e-01
3.051865473389625549e-02
2.411950938403606415e-02
9.138507395982742310e-02
1.105468496680259705e-01
2.693454548716545105e-02
4.273208789527416229e-03
-1.745951548218727112e-02
2.688447199761867523e-02
3.590219840407371521e-02
7.200572639703750610e-03
-1.787998229265213013e-01
-3.005394041538238525e-01
-2.223090268671512604e-02
-1.143977940082550049e-01
5.276346206665039062e-02
-4.497738927602767944e-02
-2.995864152908325195e-01
6.241728663444519043e-01
-2.208976596593856812e-01
-3.687137365341186523e-02
1.907477825880050659e-01
-2.205848507583141327e-02
-3.874108567833900452e-02
-1.143756136298179626e-01
4.575856775045394897e-02
