-1.356031745672225952e-01
5.905418992042541504e-01
-9.054775834083557129e-01
1.269837617874145508e-01
3.470363467931747437e-02
-4.956934973597526550e-02
-7.179447263479232788e-02
2.009772956371307373e-01
2.530196905136108398e-01
-2.987009584903717041e-01
1.453369140625000000e+00
-2.224713563919067383e-01
1.391028404235839844e+00
1.891989409923553467e-01
-1.672384738922119141e-01
3.804168999195098877e-01
2.413384020328521729e-01
3.564154505729675293e-01
3.982435166835784912e-01
2.098722159862518311e-01
3.625627756118774414e-01
3.306699395179748535e-01
6.459262371063232422e-01
-2.009852230548858643e-01
4.336426556110382080e-01
1.798722743988037109e-01
4.324419796466827393e-02
-5.360571667551994324e-02
1.523364149034023285e-02
4.146017730236053467e-01
3.810834884643554688e-01
-5.715263485908508301e-01
-5.059996247291564941e-01
8.033715188503265381e-02
7.319275289773941040e-02
2.508873939514160156e-01
4.196501374244689941e-01
6.852472573518753052e-02
1.011938899755477905e-01
-8.166706562042236328e-02
1.757305413484573364e-01
8.803179860115051270e-02
3.693363070487976074e-01
5.101088881492614746e-01
3.393140733242034912e-01
-7.542538642883300781e-02
8.071250319480895996e-01
3.800084590911865234e-01
4.402742981910705566e-01
1.741413325071334839e-01
-1.783385574817657471e-01
2.698366343975067139e-01
3.333982527256011963e-01
-1.075257301330566406e+00
-6.204653978347778320e-01
1.291472762823104858e-01
-2.620192766189575195e-01
-7.078374177217483521e-02
2.735783457756042480e-01
1.447870135307312012e-01
-7.707796096801757812e-01
2.268609106540679932e-01
5.501186847686767578e-01
-1.862456053495407104e-01
-1.307851970195770264e-01
-7.258984446525573730e-02
-1.231326088309288025e-01
3.674185276031494141e-01
-4.110056161880493164e-02
-2.750309407711029053e-01
-2.332637310028076172e-01
4.030301049351692200e-02
3.208402693271636963e-01
-1.119276061654090881e-01
1.650451123714447021e-01
-3.124111592769622803e-01
-1.045873388648033142e-01
4.338117539882659912e-01
1.503044366836547852e-01
3.075291216373443604e-01
-8.482809178531169891e-03
2.695933282375335693e-01
2.958101928234100342e-01
1.528031229972839355e-01
-1.677873730659484863e-01
6.374837160110473633e-01
8.824244141578674316e-02
2.596970796585083008e-01
1.944919228553771973e-01
2.300226688385009766e-01
-2.056288346648216248e-02
-2.119249552488327026e-01
-2.655812203884124756e-01
5.139691755175590515e-02
5.174831151962280273e-01
-4.379225671291351318e-01
-1.651864647865295410e-01
3.795568048954010010e-01
3.500227630138397217e-01
1.618388742208480835e-01
1.966881603002548218e-01
6.758292019367218018e-02
1.474254578351974487e-01
-2.961890399456024170e-02
-1.506099253892898560e-01
-7.792379707098007202e-02
1.184329986572265625e-01
1.786097437143325806e-01
1.667411476373672485e-01
2.012233287096023560e-01
6.115162968635559082e-01
1.724786162376403809e-01
6.197505071759223938e-02
2.299649715423583984e-01
3.164860010147094727e-01
6.343149393796920776e-02
1.337734311819076538e-01
4.480139911174774170e-01
-2.049067616462707520e-01
3.491733670234680176e-01
-3.310677036643028259e-02
3.207073509693145752e-01
3.797700405120849609e-01
-2.501605451107025146e-01
4.867203533649444580e-01
-1.009531244635581970e-01
2.306330502033233643e-01
-4.984873533248901367e-01
-1.474434882402420044e-01
-7.323307543992996216e-02
6.149957701563835144e-02
1.552268564701080322e-01
-6.872980296611785889e-02
5.252259597182273865e-02
4.455515369772911072e-02
-4.262542352080345154e-03
-6.132887676358222961e-02
-1.715530753135681152e-01
5.364560708403587341e-02
-1.290211379528045654e-01
-2.769696898758411407e-02
-2.469809949398040771e-01
1.864182204008102417e-02
-7.141631841659545898e-02
-8.204188942909240723e-02
5.021875351667404175e-02
-1.374295502901077271e-01
-2.061316184699535370e-02
-1.545307342894375324e-03
1.861945353448390961e-02
-1.295423805713653564e-01
-4.430971145629882812e-01
-2.373101115226745605e-01
1.294739842414855957e-01
1.259396672248840332e-01
-7.454900443553924561e-02
7.840642333030700684e-02
-2.895379066467285156e-02
7.012536376714706421e-02
3.386133164167404175e-02
1.914900541305541992e-01
-2.919456362724304199e-02
-1.580402553081512451e-01
-5.251539871096611023e-02
3.806386142969131470e-02
6.946476548910140991e-02
-3.717217594385147095e-02
5.693259462714195251e-02
-5.036492273211479187e-02
8.010933548212051392e-02
1.038650646805763245e-01
8.863630145788192749e-02
-1.479603499174118042e-01
3.624845668673515320e-02
1.657088100910186768e-01
-4.289716016501188278e-03
-9.380973130464553833e-02
1.744123846292495728e-01
2.883683191612362862e-03
-1.361588388681411743e-01
8.458244055509567261e-02
-1.135927513241767883e-01
-1.073145493865013123e-02
-9.213203936815261841e-02
3.250710666179656982e-01
-2.616694867610931396e-01
-5.855512991547584534e-02
2.962129190564155579e-02
2.332486771047115326e-02
2.984594926238059998e-02
2.517026476562023163e-02
5.019361851736903191e-04
9.385222196578979492e-01
-6.982752680778503418e-01
1.436902284622192383e-01
1.897917538881301880e-01
5.858018398284912109e-01
4.304323792457580566e-01
8.096985220909118652e-01
1.001471400260925293e+00
2.675575315952301025e-01
-1.872977763414382935e-01
1.925141334533691406e+00
-1.591352522373199463e-01
1.052227497100830078e+00
2.967344522476196289e-01
1.441107988357543945e+00
6.002524867653846741e-02
-6.308200955390930176e-01
3.493673801422119141e-01
-1.945548802614212036e-01
1.161838024854660034e-01
1.932995319366455078e+00
1.148608177900314331e-01
6.800036430358886719e-01
-4.631112515926361084e-01
-3.479276299476623535e-01
3.940823674201965332e-01
5.425601601600646973e-01
8.274132013320922852e-02
5.150643177330493927e-03
3.254911899566650391e-01
1.221508085727691650e-01
-5.141884088516235352e-01
-6.555126905441284180e-01
2.038325816392898560e-01
-1.251210719347000122e-01
-1.156753115355968475e-02
5.290361121296882629e-02
6.819040179252624512e-01
5.655042454600334167e-02
-1.475511938333511353e-01
1.679216474294662476e-01
3.885197937488555908e-01
6.576635837554931641e-01
5.527187585830688477e-01
2.637199759483337402e-01
7.263452410697937012e-01
-6.004628166556358337e-02
2.260037213563919067e-01
1.523557305335998535e-01
1.958887577056884766e+00
-7.211038377135992050e-03
1.217936649918556213e-01
3.832290470600128174e-01
1.536934375762939453e-01
-4.081578850746154785e-01
1.927075237035751343e-01
3.921785354614257812e-01
7.917118072509765625e-02
2.204754501581192017e-01
2.536125779151916504e-01
7.566391229629516602e-01
6.344354152679443359e-01
6.064306497573852539e-01
5.554236769676208496e-01
