-4.081274569034576416e-01
6.207621470093727112e-02
1.961394399404525757e-02
-1.766761094331741333e-01
-3.192259371280670166e-01
-1.985126733779907227e-01
-1.560040265321731567e-01
-2.940362393856048584e-01
-4.372662603855133057e-01
-2.061138749122619629e-01
-2.071414440870285034e-01
8.505280129611492157e-03
-5.323259830474853516e-01
-2.346051633358001709e-01
-2.020017504692077637e-01
-4.293412566184997559e-01
1.151578575372695923e-01
1.007682010531425476e-01
-4.648084193468093872e-02
-1.134185567498207092e-01
5.658991262316703796e-02
-5.793348327279090881e-02
-6.419214606285095215e-02
-5.546920932829380035e-03
1.423320621252059937e-01
-2.139938473701477051e-01
-1.458805501461029053e-01
-1.743488609790802002e-01
-7.537792325019836426e-01
-1.236100718379020691e-01
-1.313850283622741699e-01
-1.474774479866027832e-01
-3.152486383914947510e-01
-1.881807744503021240e-01
7.350732386112213135e-02
-4.935980439186096191e-01
-1.137120127677917480e-01
-3.545463085174560547e-01
-4.318115487694740295e-02
-2.400288432836532593e-01
-1.067267060279846191e-01
-3.716328442096710205e-01
-8.651651442050933838e-02
7.681850343942642212e-02
-2.495027333498001099e-01
7.508467137813568115e-02
1.112143173813819885e-01
-5.333668589591979980e-01
9.477904438972473145e-02
-5.948111414909362793e-02
-4.188928604125976562e-01
-3.538737893104553223e-01
-3.185328245162963867e-01
-6.093543022871017456e-02
-1.537795662879943848e-01
6.992571800947189331e-02
2.913526892662048340e-01
-1.973053067922592163e-02
-5.581023097038269043e-01
-1.563161313533782959e-01
-1.800959557294845581e-01
-5.587499737739562988e-01
-4.830296337604522705e-01
-5.379289984703063965e-01
2.424501180648803711e-01
-5.208426713943481445e-01
2.202431261539459229e-01
-3.082041740417480469e-01
-6.940548866987228394e-02
-4.985224604606628418e-01
-1.195686310529708862e-01
-2.385421395301818848e-01
-4.325339198112487793e-02
-2.731857299804687500e-01
1.710635609924793243e-02
-2.502543330192565918e-01
-3.313735872507095337e-02
-2.036974430084228516e-01
-1.928253769874572754e-01
-3.955749571323394775e-01
-6.408494114875793457e-01
4.399289935827255249e-02
-4.190173447132110596e-01
-1.800616085529327393e-01
-2.283181250095367432e-01
-1.012746468186378479e-01
-4.066874086856842041e-01
1.147053912281990051e-01
3.169912472367286682e-02
-5.412915721535682678e-02
-5.887577533721923828e-01
-1.283011734485626221e-01
-1.861909180879592896e-01
-1.591993123292922974e-01
-3.197608888149261475e-01
-3.949149549007415771e-01
-7.476069033145904541e-02
-3.437738716602325439e-01
-4.727281257510185242e-02
-2.590016722679138184e-01
-1.696673966944217682e-02
-2.967330515384674072e-01
1.973977237939834595e-01
1.432336717844009399e-01
9.253694117069244385e-02
-1.324611753225326538e-01
-2.694579064846038818e-01
-1.601507812738418579e-01
-2.885927855968475342e-01
5.774598941206932068e-02
-2.825555503368377686e-01
-2.411466240882873535e-01
-1.568977534770965576e-01
-1.847620606422424316e-01
-1.507422029972076416e-01
1.388682425022125244e-01
-1.209980398416519165e-01
1.163870245218276978e-01
-4.653598070144653320e-01
-2.376818358898162842e-01
-2.561459541320800781e-01
-3.703753650188446045e-01
-1.637870967388153076e-01
2.338689267635345459e-01
-1.911535561084747314e-01
-1.840064674615859985e-01
-3.408141732215881348e-01
-3.466009348630905151e-02
3.156516551971435547e-01
2.170348465442657471e-01
3.161805570125579834e-01
1.439097672700881958e-01
2.277603894472122192e-01
-4.198402166366577148e-02
-6.359139084815979004e-02
3.382560610771179199e-01
7.272422909736633301e-01
5.286766588687896729e-02
2.719259858131408691e-01
-5.795242190361022949e-01
2.800479829311370850e-01
1.763708591461181641e-01
4.124971926212310791e-01
4.196424484252929688e-01
1.705344021320343018e-01
-1.916829729452729225e-03
1.950068958103656769e-02
1.493299659341573715e-02
-1.128148064017295837e-01
1.217177957296371460e-01
4.398165643215179443e-02
5.225256085395812988e-02
3.315639123320579529e-02
-3.631175756454467773e-01
1.732254326343536377e-01
-4.425952136516571045e-01
9.136758446693420410e-01
1.618183255195617676e-01
5.541470646858215332e-02
2.027603238821029663e-01
1.027497500181198120e-01
1.866853535175323486e-01
1.519000679254531860e-01
5.355873107910156250e-01
2.760819792747497559e-01
3.244127035140991211e-01
6.592483818531036377e-02
1.908025592565536499e-01
-1.231282204389572144e-01
4.256256818771362305e-01
2.615816593170166016e-01
1.233446523547172546e-01
4.853613674640655518e-03
-4.967510104179382324e-01
1.686195284128189087e-01
2.722574174404144287e-01
4.328236356377601624e-02
1.570929139852523804e-01
5.346229672431945801e-01
2.454261630773544312e-01
-1.153623387217521667e-01
1.201829779893159866e-02
-1.138907149434089661e-01
1.993393152952194214e-01
-5.066145956516265869e-02
1.489312648773193359e-01
1.367173343896865845e-01
1.143230274319648743e-01
1.833712905645370483e-01
4.874059557914733887e-01
2.966489493846893311e-01
4.087113142013549805e-01
-3.172664940357208252e-01
4.019642472267150879e-01
-3.020988106727600098e-01
1.901288032531738281e-01
3.075950741767883301e-01
2.319201231002807617e-01
2.581734359264373779e-01
9.504298865795135498e-02
-7.915591821074485779e-03
6.508695334196090698e-02
1.050381660461425781e-01
1.578268259763717651e-01
2.686445713043212891e-01
2.268260270357131958e-01
-3.028068244457244873e-01
1.455343216657638550e-01
4.883453547954559326e-01
-3.325720131397247314e-01
2.699589729309082031e-01
2.136363834142684937e-01
3.710876703262329102e-01
-1.185602601617574692e-02
1.559059917926788330e-01
-1.248149797320365906e-01
1.591195464134216309e-01
2.712179124355316162e-01
3.717346489429473877e-01
2.657397985458374023e-01
8.259700983762741089e-02
3.262098729610443115e-01
3.114946000277996063e-02
2.113858461380004883e-01
1.452736705541610718e-01
2.615728378295898438e-01
3.486076891422271729e-01
1.818711757659912109e-01
3.532610237598419189e-01
3.683392703533172607e-01
-1.648402959108352661e-01
3.063484132289886475e-01
2.228708267211914062e-01
-1.206908840686082840e-02
2.650757730007171631e-01
1.105952933430671692e-01
-4.243110120296478271e-02
8.562149107456207275e-02
2.402968108654022217e-01
2.702127099037170410e-01
2.598537206649780273e-01
2.098756432533264160e-01
4.915298819541931152e-01
1.738767623901367188e-01
4.064566791057586670e-01
2.748581767082214355e-01
2.871602773666381836e-01
1.224310249090194702e-01
5.315361917018890381e-02
2.549659907817840576e-01
1.839627325534820557e-01
-2.921655178070068359e-01
3.422654569149017334e-01
8.160079270601272583e-02
1.415866017341613770e-01
1.949937194585800171e-01
-1.959562534466385841e-03
-2.539971768856048584e-01
-2.119692713022232056e-01
3.544737398624420166e-02
3.382572159171104431e-02
-9.977467358112335205e-02
-9.531081467866897583e-02
1.597236096858978271e-01
-6.116655841469764709e-02
2.000157833099365234e-01
2.549124658107757568e-01
-2.056651115417480469e-01
3.080990351736545563e-02
2.603998966515064240e-02
-2.115905731916427612e-01
1.648991852998733521e-01
1.447168588638305664e-01
-1.804623603820800781e-01
2.322286814451217651e-01
-1.455976665019989014e-01
-1.851430535316467285e-01
-2.088518440723419189e-01
1.414050459861755371e-01
1.327024102210998535e-01
-7.244829833507537842e-02
1.065535023808479309e-01
3.500289842486381531e-02
-2.127991318702697754e-01
7.831549737602472305e-04
-1.659638583660125732e-01
1.433381736278533936e-01
-8.562510460615158081e-02
1.814999133348464966e-01
2.579779922962188721e-01
1.061153970658779144e-02
1.857646405696868896e-01
-3.985189795494079590e-01
1.598378568887710571e-01
1.184698492288589478e-01
7.202765345573425293e-02
-5.011942610144615173e-02
-1.195355784147977829e-02
-1.991215199232101440e-01
-1.454969793558120728e-01
-1.588503122329711914e-01
-2.826847136020660400e-01
-3.800474107265472412e-02
1.384508460760116577e-01
-1.143245100975036621e-01
-3.062101602554321289e-01
-1.747479736804962158e-01
1.803665310144424438e-01
8.993121236562728882e-02
8.065587282180786133e-02
1.453194171190261841e-01
1.646939963102340698e-01
1.785943508148193359e-01
-1.415248364210128784e-01
2.611505053937435150e-02
-2.303086817264556885e-01
-1.263447478413581848e-02
1.658926159143447876e-01
6.597691029310226440e-02
-1.407295018434524536e-01
1.465513855218887329e-01
1.006598770618438721e-01
-2.907207310199737549e-01
-1.478756219148635864e-01
-2.227115482091903687e-01
-2.550571039319038391e-02
-5.651302635669708252e-02
1.505067385733127594e-02
3.984039649367332458e-02
1.488555073738098145e-01
-1.197753548622131348e-01
-1.601637452840805054e-01
-1.245453283190727234e-01
5.761737748980522156e-02
-4.757412523031234741e-02
1.534163802862167358e-01
7.384509779512882233e-03
-4.407525807619094849e-02
-2.348809689283370972e-02
1.223423928022384644e-01
-6.857634335756301880e-02
-2.644676268100738525e-01
2.337989658117294312e-01
-4.853802174329757690e-02
4.295344650745391846e-02
-1.471555531024932861e-01
3.308578953146934509e-02
-2.185089141130447388e-01
-1.065932810306549072e-01
2.210876196622848511e-01
-6.312555819749832153e-02
-2.019046396017074585e-01
-1.111366450786590576e-01
-2.734507322311401367e-01
1.438500732183456421e-01
-2.668678760528564453e-01
-3.697766065597534180e-01
8.431024849414825439e-03
-1.360049843788146973e-01
-5.517579317092895508e-01
4.702365100383758545e-01
-5.361251160502433777e-02
2.895644865930080414e-02
6.101643666625022888e-02
7.396934181451797485e-02
-1.288548707962036133e-01
-9.649164276197552681e-04
8.989433944225311279e-02
-1.308368295431137085e-01
1.351470947265625000e-01
3.601971864700317383e-01
3.179237842559814453e-01
-8.325476199388504028e-02
-2.184749245643615723e-01
1.887489482760429382e-02
4.650107398629188538e-02
3.431436046957969666e-02
-2.037883363664150238e-02
1.021204814314842224e-01
-1.074465811252593994e-01
1.148696392774581909e-01
-8.167588710784912109e-02
-3.713374733924865723e-01
-8.207838982343673706e-02
1.032171770930290222e-01
2.209535986185073853e-01
1.088897883892059326e-01
3.177241981029510498e-01
1.309421807527542114e-01
6.436966359615325928e-02
1.170048862695693970e-01
4.763488471508026123e-01
6.318949460983276367e-01
2.537908256053924561e-01
8.184376358985900879e-02
6.206929087638854980e-01
2.742682099342346191e-01
1.359572261571884155e-01
2.041916847229003906e-01
2.582059502601623535e-01
2.736193537712097168e-01
2.231565676629543304e-02
5.135892629623413086e-01
3.132622241973876953e-01
-3.176864469423890114e-03
1.953229494392871857e-02
1.413268744945526123e-01
1.622627228498458862e-01
6.204157322645187378e-02
1.698175668716430664e-01
1.042111963033676147e-01
4.748647809028625488e-01
4.470852017402648926e-01
2.023619711399078369e-01
3.674205243587493896e-01
1.495251357555389404e-01
1.397037655115127563e-01
1.815766543149948120e-01
1.952719092369079590e-01
2.962380945682525635e-01
1.719383597373962402e-01
1.774869412183761597e-01
5.064772441983222961e-02
1.194385066628456116e-01
1.341983526945114136e-01
1.571252793073654175e-01
1.315832603722810745e-02
-8.076709508895874023e-02
1.645844578742980957e-01
7.015433907508850098e-01
1.670561432838439941e-01
2.704370915889739990e-01
-1.111011132597923279e-01
1.203993260860443115e-01
5.462136864662170410e-01
4.421401917934417725e-01
3.371460735797882080e-01
1.681074798107147217e-01
1.037792265415191650e-01
3.845719099044799805e-01
8.130991458892822266e-02
1.169847417622804642e-02
1.347377598285675049e-01
-1.170017495751380920e-01
3.470249176025390625e-01
4.099899232387542725e-01
1.891450583934783936e-01
7.648443430662155151e-02
5.772306919097900391e-01
3.659092783927917480e-01
5.139256715774536133e-01
3.623546659946441650e-01
4.047827422618865967e-01
-2.913555130362510681e-02
1.492786705493927002e-01
5.655544251203536987e-02
8.682385087013244629e-03
1.240727826952934265e-01
3.405852941796183586e-03
1.278666555881500244e-01
2.929473221302032471e-01
1.475888341665267944e-01
6.980154514312744141e-01
-1.640207916498184204e-01
1.624619066715240479e-01
1.358425617218017578e-01
5.627537965774536133e-01
-1.107443347573280334e-01
1.546778976917266846e-01
4.382272660732269287e-01
1.911644041538238525e-01
5.162047594785690308e-02
5.200564265251159668e-01
-7.552836835384368896e-02
2.136103957891464233e-01
4.608457088470458984e-01
1.480060517787933350e-01
4.071676731109619141e-01
-6.847170740365982056e-02
8.471314609050750732e-02
-2.098907530307769775e-02
3.384212553501129150e-01
1.788721829652786255e-01
1.645094901323318481e-01
1.782980263233184814e-01
1.106891781091690063e-01
3.446557521820068359e-01
1.412353366613388062e-01
6.071401834487915039e-01
-1.470369752496480942e-02
6.917702965438365936e-03
1.304243355989456177e-01
-2.461440712213516235e-01
5.588919520378112793e-01
5.104377120733261108e-02
2.744905352592468262e-01
-1.015751883387565613e-01
-6.615489721298217773e-02
2.805728316307067871e-01
3.386172950267791748e-01
3.140602409839630127e-01
5.950597524642944336e-01
-2.788773551583290100e-02
1.260372400283813477e-01
2.406997978687286377e-01
1.777787208557128906e-01
3.934523265343159437e-04
7.250140309333801270e-01
2.444781810045242310e-01
-7.626048475503921509e-02
1.647951304912567139e-01
4.823534488677978516e-01
