-1.372899264097213745e-01
-1.294920891523361206e-01
1.335679292678833008e-01
-2.696291208267211914e-01
1.380222886800765991e-01
-1.415419280529022217e-01
-1.325113922357559204e-01
-1.594586223363876343e-01
-1.516438275575637817e-01
-1.558518409729003906e-01
1.413777321577072144e-01
1.306755244731903076e-01
-1.539918035268783569e-01
1.358289867639541626e-01
1.426908969879150391e-01
-1.229189783334732056e-01
-1.297758519649505615e-01
-1.379528641700744629e-01
1.423551142215728760e-01
-1.398751139640808105e-01
-1.330614686012268066e-01
1.337597817182540894e-01
1.504401266574859619e-01
-1.629817485809326172e-01
1.681217104196548462e-01
1.458976864814758301e-01
1.401495635509490967e-01
-1.492282748222351074e-01
1.359448581933975220e-01
-9.427798539400100708e-02
1.393506526947021484e-01
1.219136118888854980e-01
-1.390545666217803955e-01
-1.410539150238037109e-01
1.452507972717285156e-01
-1.406649202108383179e-01
1.255609840154647827e-01
1.317534595727920532e-01
-1.443050354719161987e-01
1.349041312932968140e-01
-1.337962001562118530e-01
-1.353355646133422852e-01
-1.439908444881439209e-01
1.139964014291763306e-01
-1.243419125676155090e-01
1.265304386615753174e-01
-1.188894808292388916e-01
-1.318399459123611450e-01
1.214295998215675354e-01
1.274355649948120117e-01
