-5.028926372528076172e+00 -2.061393976211547852e+00 -4.243022203445434570e-01 3.022077322006225586e+00 4.481065273284912109e+00 1.123988819122314453e+01 3.696658313274383545e-01 -2.540423154830932617e+00 -6.092578768730163574e-01 6.568854808807373047e+00 1.686535716056823730e+00 -8.529544472694396973e-01 -1.170132875442504883e+00 -2.173853397369384766e+00 8.274909108877182007e-02 -1.624056816101074219e+00 -1.918099522590637207e+00 2.228594541549682617e+00 -1.262416267395019531e+01 1.176301836967468262e+00 1.549373626708984375e+00 -8.062133789062500000e+00 3.375298261642456055e+00 1.678067564964294434e+00 -1.440569162368774414e+00 1.077648997306823730e+00 -2.819415092468261719e+00 1.484664559364318848e+00 -1.253548622131347656e+00 -6.922472119331359863e-01 -8.168811202049255371e-01 7.078585028648376465e-01 -6.739960610866546631e-02 -9.422003030776977539e-01 -1.349965214729309082e+00 2.895171880722045898e+00 -3.516735136508941650e-01 2.046107292175292969e+00 -2.057758522033691406e+01 -1.290203690528869629e+00 7.664324641227722168e-01 -1.630542159080505371e+00 -1.129618048667907715e+00 -6.820549964904785156e-01 -1.882443428039550781e-01 -5.968002676963806152e-01 -9.615480303764343262e-01 -5.301913738250732422e+00 1.423597782850265503e-01 3.481146574020385742e+00 6.440968513488769531e-01 1.666421055793762207e+00 -4.338065385818481445e-01 7.127419114112854004e-01 -2.230952024459838867e+00 2.495420455932617188e+00 -1.105928122997283936e-01 4.510971605777740479e-01 2.249603748321533203e+00 1.056754231452941895e+00 -4.141448020935058594e+00 -1.539788007736206055e+00 6.486246734857559204e-02 -9.577188640832901001e-02 9.865616798400878906e+00 1.530211716890335083e-01 -5.959259867668151855e-01 -7.515676319599151611e-02 -2.482550621032714844e+00 1.414445638656616211e-01 1.137177944183349609e+00 -1.590276002883911133e+00 2.766136646270751953e+00 -1.712516069412231445e+00 -3.711420536041259766e+00 -1.159505486488342285e+00 5.786084532737731934e-01 2.027825117111206055e+00 2.713870525360107422e+00 2.387996435165405273e+00 4.178282618522644043e-01 7.511610984802246094e-01 4.739517271518707275e-01 4.822505712509155273e-01 1.000950187444686890e-01 1.190372228622436523e+00 -2.314472198486328125e+00 7.659515142440795898e-01 1.946591854095458984e+00 1.783100485801696777e+00 1.763035655021667480e-01 -1.244989275932312012e+00 -1.105838537216186523e+00 1.947917342185974121e+00 9.063448905944824219e+00 1.099830245971679688e+01 1.248146370053291321e-01 6.916824340820312500e+00 -1.823306083679199219e+00 -8.388746529817581177e-03 -3.859739065170288086e+00 -3.902333974838256836e+00 2.214721202850341797e+00 1.980688720941543579e-01 -2.557186841964721680e+00 -1.643756747245788574e+00 3.638520479202270508e+00 2.700766175985336304e-02 6.814343333244323730e-01 1.193538761138916016e+01 1.961304396390914917e-01 1.735124945640563965e+00 5.007510185241699219e-01 -1.046512365341186523e+00 -1.290406823158264160e+00 3.708571434020996094e+00 1.433098196983337402e+00 1.149067163467407227e+00 2.844693362712860107e-01 1.553891897201538086e+00 3.506407976150512695e+00 -2.267346717417240143e-03 -2.252224534749984741e-01 -1.540579795837402344e+00 -1.167364692687988281e+01 2.159340620040893555e+00 8.955087661743164062e-01 8.867347240447998047e-01 -2.375936508178710938e+00 7.867565751075744629e-01 -1.197301864624023438e+00 3.626885890960693359e+00 1.561174631118774414e+00 -1.528547406196594238e+00 2.060323143005371094e+01 8.151989579200744629e-01 -4.843511581420898438e-01 -1.237020850181579590e+00 9.762913703918457031e+00 -8.038312196731567383e-01 -2.219665765762329102e+00 -9.516608119010925293e-01 -1.675997972488403320e-01 -1.276744127273559570e+00 1.691435426473617554e-01 2.933084726333618164e+00 1.479673236608505249e-01 3.344956040382385254e-01 1.858196496963500977e+00 8.437629699707031250e+00 1.609895229339599609e+00 8.260542750358581543e-01 -1.799939200282096863e-02 1.709689378738403320e+00 9.600812792778015137e-01 -4.400439858436584473e-01 -2.285359621047973633e+00 5.030157566070556641e+00 6.704854965209960938e-01 -2.112988710403442383e+00 5.020279884338378906e-01 3.093923807144165039e+00 -7.685509920120239258e-01 -1.422248363494873047e+00 -7.303570508956909180e-01 1.064552441239356995e-01 -3.907831609249114990e-01 1.286644554138183594e+01 -5.042725056409835815e-02 4.832228124141693115e-01 1.208563327789306641e+00 1.101933836936950684e+00 -5.217602849006652832e-01 1.087567925453186035e+00 8.247157335281372070e-01 -5.662635326385498047e+00 -1.670099496841430664e+00 8.525191545486450195e-01 1.876926898956298828e+00 1.070797324180603027e+00 2.775712311267852783e-01 -2.542060375213623047e+00 -9.883335828781127930e-01 -2.968725264072418213e-01 9.712346792221069336e-01 2.906858921051025391e+00 1.031962871551513672e+00 -4.442447185516357422e+00 -6.609489675611257553e-03 -1.829099416732788086e+00 -3.234412193298339844e+00 -5.384790420532226562e+00 2.885039806365966797e+00 1.756982088088989258e+00 1.579904079437255859e+00 -4.110630750656127930e-01 -8.888558745384216309e-01 6.115819215774536133e-01 4.602869451045989990e-01 2.188041955232620239e-01
7.575925588607788086e-01 1.946156740188598633e+00 -1.455454081296920776e-01 5.322962760925292969e+00 2.204556018114089966e-01 2.833883047103881836e+00 7.333746910095214844e+00 -2.959566712379455566e-01 -2.271795511245727539e+00 8.567538261413574219e+00 -3.807310760021209717e-01 -1.414094328880310059e+00 -1.739611268043518066e+00 -3.037765979766845703e+00 -1.956359148025512695e-01 2.767504453659057617e-01 3.034206628799438477e-01 -1.180686131119728088e-01 5.540904998779296875e+00 2.701620459556579590e-01 1.170425266027450562e-01 -1.635493755340576172e+00 7.794277191162109375e+00 -2.758229374885559082e-01 2.108995802700519562e-02 7.953487634658813477e-01 -3.521814942359924316e-01 -1.796221286058425903e-01 -3.010565340518951416e-01 -2.625840306282043457e-01 -4.219818413257598877e-01 4.733756482601165771e-01 1.741267085075378418e+00 -1.510831713676452637e-01 -1.046829670667648315e-01 5.049761533737182617e-01 -9.387062191963195801e-01 -1.087423896789550781e+01 -6.877677917480468750e+00 5.371325016021728516e-01 -3.995974063873291016e-01 4.759809374809265137e-02 -3.088019192218780518e-01 -8.508515357971191406e-02 1.721173286437988281e+00 1.507900357246398926e+00 6.273325681686401367e-01 -4.721164226531982422e+00 -5.861849784851074219e-01 -2.045382410287857056e-01 -6.894872188568115234e-01 -1.129212230443954468e-01 1.590000391006469727e+00 -4.342772960662841797e-01 -1.612587571144104004e-01 4.685713052749633789e-01 1.482051968574523926e+00 -2.364670991897583008e+00 8.712220191955566406e+00 -2.886587083339691162e-01 -6.162270903587341309e-01 3.503955304622650146e-01 6.286089774221181870e-03 -1.503103733062744141e+00 -6.435721874237060547e+00 1.099355936050415039e+00 4.533325731754302979e-01 3.522789776325225830e-01 2.242562103271484375e+01 1.652978062629699707e+00 -3.966165542602539062e+00 1.923776626586914062e+00 9.956626296043395996e-01 9.182528257369995117e-01 8.163243293762207031e+00 5.045888200402259827e-02 -9.209866076707839966e-02 -7.607507705688476562e-01 -4.835623875260353088e-02 -3.164777994155883789e+00 4.105021245777606964e-03 8.530011177062988281e-01 -1.254546195268630981e-01 -1.807448148727416992e+00 9.065855741500854492e-01 1.020757913589477539e+00 1.972731053829193115e-01 1.800366044044494629e+00 4.179017841815948486e-01 4.840643331408500671e-02 -3.733422607183456421e-02 5.706838369369506836e-01 -2.990475893020629883e-01 7.647983729839324951e-02 -4.364682137966156006e-01 1.826175332069396973e+00 -3.332595825195312500e-01 -6.973485350608825684e-01 -6.339806914329528809e-01 -6.351975202560424805e-01 -1.640207290649414062e+00 1.025870990753173828e+01 1.708775945007801056e-02 -1.884219765663146973e+00 -9.065317511558532715e-01 -9.436703920364379883e-01 -5.846190452575683594e+00 -1.705154180526733398e+00 -1.495381072163581848e-02 -9.215685129165649414e-01 3.945325314998626709e-02 4.148634672164916992e-01 -8.863977789878845215e-01 3.962557315826416016e-01 -2.215007841587066650e-01 -5.961232185363769531e+00 -2.459696121513843536e-02 1.711016654968261719e+00 4.278449714183807373e-01 2.877461314201354980e-01 -1.301126927137374878e-01 -5.128635168075561523e-01 -1.601795077323913574e+00 1.778517532348632812e+01 3.362515449523925781e+00 -3.088833689689636230e-01 -1.779228746891021729e-01 -4.479701220989227295e-01 -7.913941860198974609e+00 -3.278264284133911133e+00 -8.370053023099899292e-02 -7.990739822387695312e+00 8.912723064422607422e-01 3.955183029174804688e-01 6.115108013153076172e+00 1.429708838462829590e+00 -3.281546831130981445e-01 4.843460023403167725e-01 -5.225185871124267578e+00 1.051380753517150879e+00 -8.462454676628112793e-01 2.384527325630187988e-01 -3.197548687458038330e-01 -7.657581329345703125e+00 -5.476708889007568359e+00 -1.158455908298492432e-01 6.283295750617980957e-01 -1.980480253696441650e-01 9.770112484693527222e-02 5.198785781860351562e+00 -4.433850049972534180e-01 1.068322882056236267e-01 3.048596084117889404e-01 9.019524455070495605e-01 -1.352129817008972168e+00 -2.428231984376907349e-01 -4.297976791858673096e-01 2.116161108016967773e+00 8.137148618698120117e-01 5.591329336166381836e-01 -2.778153657913208008e+00 -1.279038041830062866e-01 1.034030079841613770e+00 4.161616563796997070e-01 3.132909536361694336e-01 -2.306929975748062134e-01 2.751878976821899414e+00 -1.384777069091796875e+01 -8.250334858894348145e-01 4.817016124725341797e-01 -4.017736017704010010e-01 -1.030034542083740234e+00 -1.108285784721374512e-01 -5.299225807189941406e+00 -4.053872823715209961e-01 3.031884133815765381e-01 6.378145217895507812e+00 -5.119609832763671875e-01 4.538061916828155518e-01 9.634897857904434204e-02 -2.355699092149734497e-01 3.699792921543121338e-01 -8.411329239606857300e-02 5.993860363960266113e-01 9.832283854484558105e-01 -4.471177756786346436e-01 -5.947041511535644531e-01 -9.454238891601562500e+00 -2.625337243080139160e-01 2.116663455963134766e+00 2.792212963104248047e+00 -1.624695014953613281e+01 6.776163727045059204e-02 1.047929954528808594e+01 -1.117215037345886230e+00 -6.715142726898193359e-01 2.664307355880737305e+00 1.312509894371032715e+00 -7.356401681900024414e-01 -8.118870854377746582e-02
3.288865804672241211e+00 -2.978635728359222412e-01 3.920982182025909424e-01 -1.017349720001220703e+00 -1.059646487236022949e+00 -2.033521175384521484e+00 -6.671934723854064941e-01 -2.117625474929809570e+00 7.869001626968383789e-01 -1.592239886522293091e-01 5.583624839782714844e-01 7.916194200515747070e-01 9.518988132476806641e-01 7.733713388442993164e-01 -1.216558814048767090e+00 2.235265076160430908e-01 4.375917315483093262e-01 -2.238845378160476685e-01 5.851018428802490234e+00 -3.158843517303466797e-01 2.653250992298126221e-01 -7.803706169128417969e+00 -8.514536857604980469e+00 -6.213964819908142090e-01 -1.701838225126266479e-01 -3.137001395225524902e-02 2.935338318347930908e-01 -9.487875103950500488e-01 1.483643651008605957e+00 -2.359974384307861328e-01 3.989569544792175293e-01 -1.719148159027099609e+00 -2.343896478414535522e-01 -7.801498174667358398e-01 -8.574519753456115723e-01 -6.909084320068359375e-01 -1.288278222084045410e+00 -4.102455973625183105e-01 5.324201107025146484e+00 -2.622332274913787842e-01 -6.272955536842346191e-01 1.257015347480773926e+00 -2.499986141920089722e-01 4.812118411064147949e-01 3.832597732543945312e-01 -5.683919787406921387e-01 -2.077764749526977539e+00 7.641709327697753906e+00 1.246125847101211548e-01 -7.916689515113830566e-01 -5.389756560325622559e-01 -1.049739643931388855e-01 -8.525254726409912109e-01 -9.603528380393981934e-01 3.711710572242736816e-01 2.854935228824615479e-01 -2.082228660583496094e-02 9.423424303531646729e-02 8.254411697387695312e+00 -7.635818719863891602e-01 5.448147773742675781e+00 2.974232435226440430e-01 -1.221133947372436523e+00 5.533180832862854004e-01 7.486841201782226562e+00 -3.450929373502731323e-02 -1.951986670494079590e+00 -1.019205927848815918e+00 -1.006675338745117188e+01 -6.587558388710021973e-01 1.044259643554687500e+01 -2.158648818731307983e-01 -7.162835597991943359e-01 -1.019928073883056641e+01 8.232129096984863281e+00 1.809314191341400146e-01 3.509002685546875000e+00 -1.247085571289062500e+00 -6.850163340568542480e-01 -1.077356624603271484e+01 -9.295234680175781250e-01 -1.514463543891906738e+00 8.799870610237121582e-01 -3.770846724510192871e-01 -8.541508674621582031e+00 -1.247229218482971191e+00 8.474910259246826172e-01 -1.788738220930099487e-01 -1.161385979503393173e-02 2.170443683862686157e-01 -1.406980305910110474e-01 7.747872471809387207e-01 1.831071376800537109e+00 -5.918901562690734863e-01 7.287438869476318359e+00 4.928856372833251953e+00 9.607605636119842529e-02 -9.107596278190612793e-01 1.759898304939270020e+00 -3.209426701068878174e-01 7.770102024078369141e-01 7.948677062988281250e+00 -5.957759022712707520e-01 5.916717648506164551e-01 2.868311405181884766e-01 4.184842109680175781e-01 1.816496467590332031e+01 -8.890280127525329590e-01 -2.018471479415893555e+00 2.076884031295776367e+00 1.139539599418640137e+00 7.088601589202880859e-03 4.819214344024658203e-02 6.188479438424110413e-02 -5.882170796394348145e-01 3.019764184951782227e+00 -5.499330163002014160e-01 1.483183741569519043e+00 1.560817480087280273e+00 -3.853685259819030762e-01 -6.732016205787658691e-01 3.172809183597564697e-01 5.523156374692916870e-02 -5.374699592590332031e+00 3.717554569244384766e+00 -2.159379720687866211e-01 -9.998309612274169922e-01 -1.036719679832458496e+00 5.908130645751953125e+00 9.030698984861373901e-02 5.993255376815795898e-01 3.724472522735595703e+00 1.441374570131301880e-01 2.859317362308502197e-01 1.620876121520996094e+01 -1.527705937623977661e-01 -2.552330791950225830e-01 -1.788107305765151978e-01 -2.411343002319335938e+01 1.499407738447189331e-01 -8.165709674358367920e-02 9.762529283761978149e-02 -1.413029909133911133e+00 1.823293417692184448e-01 2.160813808441162109e+00 -1.687990427017211914e-01 1.089295372366905212e-01 8.510535955429077148e-02 -5.222269296646118164e-01 -8.882051467895507812e+00 -2.811232805252075195e-01 -1.868129730224609375e+00 6.446231603622436523e-01 -5.745578929781913757e-02 -1.677974462509155273e+00 -5.463945865631103516e-01 2.257148981094360352e+00 5.823356628417968750e+00 -2.761383652687072754e-01 2.762564122676849365e-01 3.042045235633850098e-01 -6.075828671455383301e-01 3.915804326534271240e-01 1.850451231002807617e-01 -2.996709644794464111e-01 -7.429153323173522949e-01 8.502627722918987274e-03 -4.808718681335449219e+00 -1.998763442039489746e+00 3.932893276214599609e-01 -4.210756123065948486e-01 -2.556100785732269287e-01 -2.498625993728637695e+00 -2.642618715763092041e-01 -1.206424117088317871e+00 7.043431401252746582e-01 -2.920557737350463867e+00 4.638692736625671387e-01 -7.760452106595039368e-03 -3.068903982639312744e-01 1.672739624977111816e+00 -4.345109760761260986e-01 -1.054486274719238281e+00 -6.723180413246154785e-02 1.377793431282043457e+00 -2.450298815965652466e-01 -1.129688024520874023e+00 -6.190049171447753906e+00 4.030802845954895020e-01 -3.687485456466674805e-01 2.048225164413452148e+00 -1.102753067016601562e+01 -3.174225986003875732e-01 -4.440530389547348022e-02 -7.521809935569763184e-01 -5.550960898399353027e-01 7.772678136825561523e-01 -2.822261452674865723e-01 5.414567589759826660e-01 2.822236120700836182e-01
-4.418097019195556641e+00 -3.439755201339721680e+00 9.984160065650939941e-01 -5.408328533172607422e+00 -4.714009284973144531e+00 -1.747571587562561035e+00 -1.522949218750000000e+00 4.069004654884338379e-01 -4.828182756900787354e-01 -1.286662578582763672e+00 -4.074978351593017578e+00 -4.353194236755371094e+00 -2.822886466979980469e+00 1.359122693538665771e-01 4.201691150665283203e-01 2.536851167678833008e+00 -9.224170446395874023e-01 6.236178398132324219e+00 -3.349733650684356689e-01 4.267445504665374756e-01 -5.267936229705810547e+00 9.526987671852111816e-01 -5.333993434906005859e+00 -1.680727958679199219e+00 4.268297195434570312e+00 4.036634922027587891e+00 -5.611449241638183594e+00 8.583961486816406250e+00 -4.618128776550292969e+00 1.931408941745758057e-01 -6.417351722717285156e+00 -3.444422721862792969e+00 5.011688232421875000e+00 3.756676912307739258e+00 -3.390712499618530273e+00 -1.589796423912048340e+00 5.987143039703369141e+00 6.292413234710693359e+00 1.370538026094436646e-01 4.411020278930664062e+00 1.166011095046997070e+00 3.799908161163330078e+00 3.003219842910766602e+00 5.045907497406005859e-01 -2.898505449295043945e+00 2.708562850952148438e+00 8.419923782348632812e+00 -5.279088497161865234e+00 -5.533818721771240234e+00 -1.877827882766723633e+00 -4.336492538452148438e+00 4.226396083831787109e+00 -2.904753446578979492e+00 4.357412338256835938e+00 -8.949962258338928223e-02 -1.918703615665435791e-01 -3.082344770431518555e+00 -9.708985686302185059e-01 4.178090095520019531e+00 -8.589677214622497559e-01 2.070876359939575195e+00 3.477898120880126953e+00 -5.648193508386611938e-02 4.349552154541015625e+00 -1.061066985130310059e+00 -1.387845396995544434e+00 -3.085160732269287109e+00 -4.572926044464111328e+00 -1.070113897323608398e+00 -5.007045269012451172e+00 4.751657485961914062e+00 2.993235826492309570e+00 7.679837942123413086e-02 -3.989272713661193848e-01 4.707185268402099609e+00 8.373745918273925781e+00 -3.814300522208213806e-02 2.101906538009643555e+00 7.726219177246093750e+00 5.018180847167968750e+00 -2.171147346496582031e+00 -5.191082954406738281e+00 2.123157024383544922e+00 -1.855290293693542480e+00 1.894787430763244629e+00 -9.671550393104553223e-01 5.705028533935546875e+00 4.241384983062744141e+00 -8.687176108360290527e-01 -3.189335823059082031e+00 1.225108742713928223e+00 -4.167353153228759766e+00 -3.262182950973510742e+00 -1.234959125518798828e+00 -8.273311257362365723e-01 2.692436456680297852e+00 -3.782208681106567383e+00 -1.732885837554931641e-01 -1.092565894126892090e+00 6.139547348022460938e+00 -7.223160743713378906e+00 3.970058441162109375e+00 -3.901842236518859863e-01 4.779463291168212891e+00 -3.785063028335571289e-01 -1.901289820671081543e+00 -4.295031428337097168e-01 2.468196868896484375e+00 5.403087615966796875e+00 -3.305379867553710938e+00 -1.803568601608276367e+00 -7.079805850982666016e+00 -1.217637777328491211e+00 6.075391769409179688e+00 -1.701170206069946289e-01 6.978211998939514160e-01 -3.121839165687561035e-01 9.960233420133590698e-02 -2.660724639892578125e+00 6.483162403106689453e+00 -2.209747552871704102e+00 3.208629131317138672e+00 -6.748211860656738281e+00 5.937458992004394531e+00 -7.849307537078857422e+00 -1.893317103385925293e-01 -1.697810173034667969e+00 -5.986741065979003906e+00 -9.485446929931640625e+00 -3.241424560546875000e+00 1.324632406234741211e+00 -2.078898906707763672e+00 -2.998559236526489258e+00 -7.476495265960693359e+00 8.443857431411743164e-01 6.099742054939270020e-01 -2.324782609939575195e+00 -2.051698446273803711e+00 -3.402302742004394531e+00 -6.191630363464355469e+00 4.276163578033447266e+00 -4.324797153472900391e+00 -2.598723173141479492e+00 -4.314391136169433594e+00 8.095114707946777344e+00 1.623971104621887207e+00 -3.126179933547973633e+00 3.889564275741577148e+00 -6.736228466033935547e+00 -2.974528670310974121e-01 4.451008319854736328e+00 3.766795992851257324e-01 4.551654815673828125e+00 -2.135370254516601562e+00 -4.619084671139717102e-02 4.850848197937011719e+00 2.233458518981933594e+00 1.189761757850646973e+00 3.949896574020385742e+00 -3.599137544631958008e+00 2.991282939910888672e+00 2.170278310775756836e+00 4.725174903869628906e+00 -2.212551593780517578e+00 -1.033204793930053711e+00 -3.885930776596069336e+00 -4.281375408172607422e+00 2.035387516021728516e+00 1.655551195144653320e+00 -4.078715324401855469e+00 -3.970381021499633789e+00 3.340325832366943359e+00 -7.854860275983810425e-03 1.287673354148864746e+00 4.479681491851806641e+00 3.890495300292968750e+00 3.692447662353515625e+00 -3.162430524826049805e+00 6.445530056953430176e-01 2.872910737991333008e+00 -3.296195745468139648e+00 3.910786509513854980e-01 -5.616389274597167969e+00 -5.340097427368164062e+00 -2.891579866409301758e+00 -2.030531018972396851e-01 -3.061542034149169922e+00 5.416742563247680664e-01 -2.497309446334838867e+00 1.283949851989746094e+00 3.920874118804931641e+00 2.611198186874389648e+00 -3.900495290756225586e+00 -4.210224628448486328e+00 -8.127967834472656250e+00 3.128618955612182617e+00 -4.606226444244384766e+00 2.838052988052368164e+00 2.581978082656860352e+00 -7.582501769065856934e-01
3.022206306457519531e+00 1.458808034658432007e-01 3.796238422393798828e+00 -1.817259341478347778e-01 2.377496480941772461e+00 -1.117469146847724915e-01 4.528401494026184082e-01 -1.132135242223739624e-01 -4.165889263153076172e+00 -3.328511953353881836e+00 2.187550783157348633e+00 -3.024242877960205078e+00 1.351417183876037598e+00 -1.202824234962463379e+00 1.811825752258300781e+00 -6.145378947257995605e-01 1.334326863288879395e+00 -5.283927917480468750e-01 -2.828415632247924805e+00 7.376232743263244629e-01 -2.390338182449340820e+00 -1.026410818099975586e+00 2.414051532745361328e+00 2.742024421691894531e+00 -2.217054843902587891e+00 8.358536958694458008e-01 -2.320080518722534180e+00 3.891218900680541992e+00 1.133645892143249512e+00 1.627854347229003906e+00 3.737724065780639648e+00 8.875406980514526367e-01 -7.941366195678710938e+00 2.836193442344665527e-01 -2.403444796800613403e-01 -3.164133429527282715e-01 3.894252479076385498e-01 1.724317073822021484e-01 4.990256950259208679e-02 2.986178874969482422e+00 7.644519209861755371e-02 -5.588569164276123047e+00 -1.836884856224060059e+00 -4.430200576782226562e+00 3.171525239944458008e+00 -6.119950294494628906e+00 1.610207080841064453e+00 -1.702597379684448242e+00 -7.920285224914550781e+00 -2.068131208419799805e+00 1.358234286308288574e+00 -5.089818835258483887e-01 -4.105111122131347656e+00 -4.151898860931396484e+00 -3.058842182159423828e+00 1.535921096801757812e+00 2.086595535278320312e+00 -1.498639106750488281e+00 -1.156021833419799805e+00 3.450272083282470703e-01 -2.877202272415161133e+00 -9.843083024024963379e-01 -1.693058729171752930e+00 -5.512914657592773438e+00 7.855333685874938965e-01 -2.983531951904296875e+00 3.735172748565673828e+00 -1.108511209487915039e+00 -7.414988040924072266e+00 -1.696992039680480957e+00 -1.318017125129699707e+00 -1.081577658653259277e+00 4.657902941107749939e-02 2.514442205429077148e+00 3.365486383438110352e+00 -2.825407505035400391e+00 -7.370498776435852051e-02 8.306995630264282227e-01 -3.860114812850952148e+00 -7.289148330688476562e+00 1.905608654022216797e+00 1.506470441818237305e-01 -2.614008331298828125e+01 6.359728336334228516e+00 1.280995607376098633e-01 2.170911431312561035e-01 -1.720818996429443359e+00 -2.344169855117797852e+00 9.372522830963134766e-01 1.459415674209594727e+00 -6.475327014923095703e-01 -3.589146614074707031e+00 -3.627163887023925781e+00 1.573503255844116211e+00 4.481949508190155029e-01 -3.694765329360961914e+00 -3.942582368850708008e+00 -3.322409689426422119e-01 1.514294743537902832e+00 1.254731655120849609e+00 3.004683017730712891e+00 -8.039650321006774902e-01 -1.618188381195068359e+00 -7.246080636978149414e-01 -4.742286726832389832e-02 -2.079097032546997070e+00 1.660572409629821777e+00 -3.422456741333007812e+00 2.265848875045776367e+00 -5.023823976516723633e-01 -2.816736221313476562e+00 -3.050300180912017822e-01 -7.241263866424560547e+00 -1.047623276710510254e+00 -3.694226026535034180e+00 1.414441585540771484e+00 3.827583074569702148e+00 -1.966912865638732910e+00 -1.330878973007202148e+00 -1.288864493370056152e+00 -2.872363567352294922e+00 2.848331451416015625e+00 9.797511249780654907e-02 1.678929328918457031e+01 5.636126995086669922e+00 -3.651810288429260254e-01 -8.647704124450683594e-01 -3.988665580749511719e+00 -4.530478954315185547e+00 1.312136363983154297e+01 7.966514825820922852e-01 5.828417778015136719e+00 6.369245052337646484e-01 -2.316182613372802734e+00 1.603196620941162109e+00 3.625799655914306641e+00 -2.161173820495605469e-01 3.009529590606689453e+00 -4.445014894008636475e-01 -4.797939062118530273e-01 -9.494735002517700195e-01 -1.275471329689025879e+00 -7.913832068443298340e-01 -4.045188426971435547e+00 6.157301425933837891e+00 6.081558465957641602e-01 2.118791818618774414e+00 -1.144086360931396484e+00 1.552450180053710938e+00 2.641975283622741699e-01 -2.375319480895996094e+00 -7.929915189743041992e-01 1.896169304847717285e+00 -3.131315708160400391e+00 -2.035576403141021729e-01 1.124817430973052979e-01 4.991918504238128662e-01 1.006902933120727539e+00 -4.374638080596923828e+00 -1.306925654411315918e+00 -1.542659664154052734e+01 2.004182040691375732e-01 3.229261934757232666e-01 4.440175890922546387e-01 -9.847705364227294922e-01 -7.899907112121582031e+00 1.269470095634460449e+00 3.637095928192138672e+00 -3.345790386199951172e+00 -5.352655053138732910e-01 -2.361391305923461914e+00 2.442981243133544922e+00 1.886550426483154297e+00 -1.421716809272766113e+00 3.603579044342041016e+00 -5.175349116325378418e-02 -3.027773380279541016e+00 -1.964612007141113281e+00 -1.827270984649658203e+00 4.272166192531585693e-01 1.102137923240661621e+00 -3.428367674350738525e-01 -1.528110355138778687e-01 -1.586059451103210449e+00 3.309344947338104248e-01 -1.161575794219970703e+00 -1.782744765281677246e+00 -2.977698110044002533e-02 3.962347984313964844e+00 2.535344600677490234e+00 2.617233097553253174e-01 2.750063180923461914e+00 3.490468263626098633e-01 -6.012345790863037109e+00 -2.304162979125976562e+00 7.600577831268310547e+00 2.709525346755981445e+00 -1.173799872398376465e+00 -1.252658218145370483e-01 -2.108832120895385742e+00
-1.389679312705993652e+00 2.865158021450042725e-01 -2.311387777328491211e+00 1.152311682701110840e+00 -4.366432428359985352e-01 3.350950002670288086e+00 1.248922109603881836e+00 -4.929644763469696045e-01 -1.452215313911437988e+00 -4.981861710548400879e-01 -1.095516920089721680e+00 3.302062749862670898e-01 3.857415437698364258e+00 1.469557166099548340e+00 4.686505496501922607e-01 -1.322698950767517090e+00 3.525999307632446289e+00 -5.766779899597167969e+00 -5.120256423950195312e+00 -5.774679660797119141e+00 -4.891638755798339844e+00 2.662058591842651367e+00 2.740472078323364258e+00 -2.990652322769165039e+00 -2.387297630310058594e+00 -2.179939270019531250e+00 3.023226976394653320e+00 2.618210315704345703e+00 -2.441331386566162109e+00 3.685855865478515625e+00 -3.522106885910034180e+00 -1.004817724227905273e+00 -2.166790723800659180e+00 2.422935217618942261e-01 -1.614721119403839111e-01 -2.982715606689453125e+00 -3.355448007583618164e+00 1.220147460699081421e-01 1.080251455307006836e+00 -4.222176671028137207e-01 2.643770217895507812e+00 7.308682441711425781e+00 -8.118371367454528809e-01 6.937524318695068359e+00 -3.254224061965942383e-01 7.303775101900100708e-02 1.333476543426513672e+01 -5.629436492919921875e+00 -8.942117691040039062e-01 4.237546920776367188e+00 1.827742904424667358e-02 -2.292500495910644531e+00 -4.558999538421630859e+00 -1.152704596519470215e+00 3.157400369644165039e+00 -1.511470675468444824e+00 6.688977032899856567e-02 7.578343152999877930e-01 6.392958164215087891e-01 -5.558524131774902344e-01 6.766967296600341797e+00 -4.097002744674682617e-01 -5.587446212768554688e+00 4.057621061801910400e-01 -4.266617298126220703e+00 -4.324891090393066406e+00 -1.801930926740169525e-02 4.433891296386718750e+00 1.244771122932434082e+00 2.628461122512817383e+00 1.112915802001953125e+01 -1.289242506027221680e+00 1.192154288291931152e+00 -3.638344526290893555e+00 6.578625679016113281e+00 -1.664461970329284668e+00 -9.590603709220886230e-01 -3.517827510833740234e+00 -1.586421608924865723e+00 1.363144683837890625e+01 -5.694903135299682617e-01 7.139723896980285645e-01 3.562070369720458984e+00 1.197062507271766663e-01 -9.279085993766784668e-01 1.389620661735534668e+00 -1.560479044914245605e+00 4.568798542022705078e-01 -1.346774458885192871e+00 3.975162208080291748e-01 -4.333202362060546875e+00 -1.094277858734130859e+00 3.189483165740966797e+00 1.489346623420715332e+00 -8.847038269042968750e+00 1.006032848358154297e+01 -4.042940616607666016e+00 5.245077237486839294e-02 -5.800537467002868652e-01 4.782582446932792664e-02 -1.672551155090332031e+00 4.252999424934387207e-01 7.485792040824890137e-01 -1.407100796699523926e+00 -8.976720571517944336e-01 2.408262252807617188e+00 5.749135017395019531e-01 1.971029877662658691e+00 -1.054787755012512207e+00 -3.354019403457641602e+00 -2.714235067367553711e+00 1.999388337135314941e+00 -9.856957435607910156e+00 -5.110703945159912109e+00 -9.177056312561035156e+00 -1.624671936035156250e+00 -2.841802120208740234e+00 6.021223068237304688e+00 2.924372196197509766e+00 -1.984848022460937500e+00 2.061542987823486328e+00 -2.699418544769287109e+00 4.136774063110351562e+00 1.382498979568481445e+00 8.974513053894042969e+00 -2.233344912528991699e-01 1.128134369850158691e+00 1.441800117492675781e+00 1.569986939430236816e+00 3.578743457794189453e+00 -2.269392490386962891e+00 -1.068942070007324219e+00 2.118531942367553711e+00 3.308139324188232422e+00 2.059802293777465820e+00 -3.364040136337280273e+00 -2.112400531768798828e-02 2.502694427967071533e-01 -1.040168285369873047e+00 2.608652353286743164e+00 -4.303291320800781250e+00 5.123428821563720703e+00 -1.332486915588378906e+01 2.119955301284790039e+00 7.406109809875488281e+00 -3.299713373184204102e+00 8.303587436676025391e-01 -4.368476867675781250e+00 2.982800483703613281e+00 -1.171949744224548340e+00 6.080994606018066406e+00 1.035345911979675293e+00 -5.047840118408203125e+00 2.776416301727294922e+00 1.379118561744689941e-01 2.047647237777709961e+00 -2.563404083251953125e+00 2.002057313919067383e+00 1.175089478492736816e+00 -1.172647848725318909e-01 -5.254338264465332031e+00 -1.713025212287902832e+00 -6.435369491577148438e+00 -1.690333008766174316e+00 -5.176635265350341797e+00 2.092623949050903320e+00 1.130003690719604492e+00 3.130823373794555664e+00 8.192239999771118164e-01 -1.381530284881591797e+00 1.354497551918029785e+00 -5.928779244422912598e-01 4.050466060638427734e+00 8.421256542205810547e-01 -2.946804761886596680e+00 -1.923272728919982910e+00 -1.548215389251708984e+00 3.708743095397949219e+00 1.418767403811216354e-02 -2.070069313049316406e+00 -1.371757698059082031e+01 8.211941123008728027e-01 3.388756811618804932e-01 1.254571557044982910e+00 -3.818432092666625977e+00 5.142443180084228516e-01 7.488541603088378906e+00 -4.292317390441894531e+00 -1.916097998619079590e+00 -1.851045846939086914e+00 -2.983678102493286133e+00 3.248621225357055664e+00 9.229258298873901367e-01 -1.644195199012756348e+00 -2.760911919176578522e-02 4.618565559387207031e+00 1.568462371826171875e+00 -1.230907067656517029e-01 -4.917359352111816406e-01 3.832125425338745117e+00
