8.558099746704101562e+00
8.553676605224609375e+00
8.492456436157226562e+00
8.439568519592285156e+00
8.467205047607421875e+00
8.567764282226562500e+00
8.570454597473144531e+00
8.499035835266113281e+00
8.571129798889160156e+00
8.519228935241699219e+00
8.460447311401367188e+00
8.517257690429687500e+00
8.497668266296386719e+00
8.456233978271484375e+00
8.380711555480957031e+00
8.603425979614257812e+00
8.502223968505859375e+00
8.431322097778320312e+00
8.528427124023437500e+00
8.609989166259765625e+00
8.500190734863281250e+00
8.493788719177246094e+00
8.396949768066406250e+00
8.516573905944824219e+00
8.527909278869628906e+00
8.539919853210449219e+00
8.508904457092285156e+00
8.484655380249023438e+00
8.436877250671386719e+00
8.461326599121093750e+00
8.535845756530761719e+00
8.545969009399414062e+00
8.495774269104003906e+00
8.427134513854980469e+00
8.599103927612304688e+00
8.554586410522460938e+00
8.506224632263183594e+00
8.500477790832519531e+00
8.466921806335449219e+00
8.581086158752441406e+00
8.525087356567382812e+00
8.541778564453125000e+00
8.496373176574707031e+00
8.518904685974121094e+00
8.461451530456542969e+00
8.470319747924804688e+00
8.458633422851562500e+00
8.571482658386230469e+00
8.557059288024902344e+00
8.354639053344726562e+00
8.532358169555664062e+00
8.432009696960449219e+00
8.563873291015625000e+00
8.550861358642578125e+00
8.508236885070800781e+00
8.564276695251464844e+00
8.504390716552734375e+00
8.551511764526367188e+00
8.500026702880859375e+00
8.498341560363769531e+00
8.470849990844726562e+00
8.515966415405273438e+00
8.525917053222656250e+00
8.532438278198242188e+00
8.536073684692382812e+00
8.514004707336425781e+00
8.491514205932617188e+00
8.615038871765136719e+00
8.493694305419921875e+00
8.494797706604003906e+00
8.518420219421386719e+00
8.465259552001953125e+00
8.564842224121093750e+00
8.445801734924316406e+00
8.489467620849609375e+00
8.441694259643554688e+00
8.497676849365234375e+00
8.501361846923828125e+00
8.599464416503906250e+00
8.508085250854492188e+00
8.534211158752441406e+00
8.492933273315429688e+00
8.531438827514648438e+00
8.299139976501464844e+00
8.535603523254394531e+00
8.587296485900878906e+00
8.444079399108886719e+00
8.585281372070312500e+00
8.478336334228515625e+00
8.461742401123046875e+00
8.536378860473632812e+00
8.365103721618652344e+00
8.467148780822753906e+00
8.507657051086425781e+00
8.609417915344238281e+00
8.519944190979003906e+00
8.497660636901855469e+00
8.549674034118652344e+00
8.535097122192382812e+00
8.578676223754882812e+00
8.554692268371582031e+00
8.577756881713867188e+00
8.401960372924804688e+00
8.429553985595703125e+00
8.356990814208984375e+00
8.506866455078125000e+00
8.521833419799804688e+00
8.519876480102539062e+00
8.565263748168945312e+00
8.565677642822265625e+00
8.518620491027832031e+00
8.565101623535156250e+00
8.539463996887207031e+00
8.586122512817382812e+00
8.541025161743164062e+00
8.398239135742187500e+00
8.568559646606445312e+00
8.448417663574218750e+00
8.525584220886230469e+00
-1.600901931524276733e-01
8.517790794372558594e+00
8.474525451660156250e+00
8.577640533447265625e+00
8.488686561584472656e+00
8.519068717956542969e+00
8.475872993469238281e+00
8.547911643981933594e+00
8.535220146179199219e+00
8.546580314636230469e+00
8.475114822387695312e+00
8.517452239990234375e+00
8.529812812805175781e+00
8.510177612304687500e+00
8.481955528259277344e+00
8.471241950988769531e+00
8.586919784545898438e+00
8.597049713134765625e+00
8.526600837707519531e+00
8.487659454345703125e+00
8.506254196166992188e+00
8.494537353515625000e+00
8.501381874084472656e+00
8.526536941528320312e+00
8.506100654602050781e+00
8.518847465515136719e+00
8.468333244323730469e+00
8.535551071166992188e+00
8.506984710693359375e+00
8.566049575805664062e+00
8.531008720397949219e+00
-1.051385784149169922e+01
-1.043147468566894531e+01
1.165185332298278809e+00
6.940655708312988281e-01
-9.544875144958496094e+00
-1.095951080322265625e+01
-1.090431594848632812e+01
-1.073870277404785156e+01
-1.100428009033203125e+01
1.335813164710998535e+00
-9.749648094177246094e+00
-1.004309368133544922e+01
1.038816690444946289e+00
-1.016163730621337891e+01
3.024853765964508057e-01
-1.065132904052734375e+01
1.297670364379882812e+00
-1.018250942230224609e+01
-9.941285252571105957e-01
-1.090531539916992188e+01
-1.076396560668945312e+01
-1.075635242462158203e+01
1.057005524635314941e+00
-1.017921257019042969e+01
-1.014060974121093750e+01
9.296075105667114258e-01
-1.082226562500000000e+01
1.187394976615905762e+00
5.625821352005004883e-01
-1.061693286895751953e+01
-1.015195941925048828e+01
8.680033087730407715e-01
-1.073265171051025391e+01
1.204231023788452148e+00
-1.025173568725585938e+01
6.914364695549011230e-01
5.619832277297973633e-01
7.290536761283874512e-01
-1.078878498077392578e+01
-1.088124561309814453e+01
-1.074653434753417969e+01
-1.027767848968505859e+01
-1.041342926025390625e+01
-1.085449409484863281e+01
-1.026493740081787109e+01
-1.092405891418457031e+01
-1.048596382141113281e+01
-1.034447574615478516e+01
-1.034671401977539062e+01
1.272116541862487793e+00
1.158135294914245605e+00
1.385294079780578613e+00
1.361077666282653809e+00
-1.085996818542480469e+01
6.436972618103027344e-01
4.111476540565490723e-01
1.266752243041992188e+00
7.997128963470458984e-01
1.301159739494323730e+00
-1.041146183013916016e+01
-1.015328693389892578e+01
-1.024670696258544922e+01
-1.040573501586914062e+01
-1.092650890350341797e+01
-1.024209022521972656e+01
-1.079347896575927734e+01
-1.099517440795898438e+01
-1.044708251953125000e+01
-1.090021705627441406e+01
-1.071675682067871094e+01
1.175102233886718750e+00
1.181427836418151855e+00
-1.030940914154052734e+01
-1.056337356567382812e+01
-1.029642009735107422e+01
-1.048248195648193359e+01
-1.082431888580322266e+01
1.238513588905334473e+00
-8.441731333732604980e-02
-1.087636661529541016e+01
7.856703996658325195e-01
-1.102074241638183594e+01
7.272632122039794922e-01
9.808465838432312012e-01
9.673337936401367188e-01
-1.081964302062988281e+01
-1.005351448059082031e+01
1.223587036132812500e+00
2.369441241025924683e-01
1.298131942749023438e+00
-1.088325119018554688e+01
1.023172140121459961e+00
8.720576167106628418e-01
-1.033902835845947266e+01
8.556765913963317871e-01
-9.844350814819335938e+00
9.701377153396606445e-01
3.594004511833190918e-01
1.143801689147949219e+00
-1.067352867126464844e+01
-1.091265487670898438e+01
-1.065669536590576172e+01
8.006011843681335449e-01
1.133935928344726562e+00
9.904497861862182617e-01
9.560305476188659668e-01
9.587225317955017090e-01
1.132227659225463867e+00
-1.084948825836181641e+01
7.402684092521667480e-01
-1.090805339813232422e+01
-1.098594379425048828e+01
9.725313186645507812e-01
4.635567963123321533e-01
-1.034595203399658203e+01
1.225133776664733887e+00
6.634558439254760742e-01
2.787232398986816406e-01
-1.098571109771728516e+01
-1.211155033111572266e+01
-1.060538101196289062e+01
-1.050617218017578125e+01
1.257950544357299805e+00
9.781207442283630371e-01
-1.066612911224365234e+01
-1.070860862731933594e+01
-1.013974189758300781e+01
-1.046317005157470703e+01
-1.072023582458496094e+01
-1.053946018218994141e+01
-1.076249504089355469e+01
9.513369202613830566e-01
-1.080598258972167969e+01
-1.089285182952880859e+01
-9.719390869140625000e+00
-1.104929924011230469e+01
-1.074213409423828125e+01
1.391059637069702148e+00
1.294933438301086426e+00
-1.041634368896484375e+01
-1.078518295288085938e+01
-1.008913803100585938e+01
9.459582567214965820e-01
-1.079567050933837891e+01
-1.005781745910644531e+01
-1.057665061950683594e+01
-1.096089267730712891e+01
-1.098202800750732422e+01
-1.077026653289794922e+01
1.208173513412475586e+00
1.196861192584037781e-01
6.911166757345199585e-02
-3.465119898319244385e-01
-1.367102414369583130e-01
-3.741590976715087891e-01
-1.540628448128700256e-02
-2.712284214794635773e-02
1.342249568551778793e-02
-7.319276686757802963e-03
-9.049354493618011475e-02
-2.356739789247512817e-01
1.413850337266921997e-01
-5.919612478464841843e-03
-2.787098586559295654e-01
2.182823270559310913e-01
-6.398044526576995850e-02
2.149493992328643799e-01
-1.032059341669082642e-01
1.764872670173645020e-01
5.858083814382553101e-02
3.092049062252044678e-02
-4.184431955218315125e-02
2.811565697193145752e-01
-1.940115392208099365e-01
1.863251924514770508e-01
4.044389352202415466e-02
2.638037875294685364e-02
-2.153303176164627075e-01
1.438308656215667725e-01
-1.392407575622200966e-03
-7.137306779623031616e-02
5.763262137770652771e-02
-7.961801439523696899e-02
3.058156669139862061e-01
4.770577326416969299e-02
-8.768650889396667480e-02
1.783479936420917511e-02
4.750866442918777466e-02
5.655202642083168030e-02
-8.470261842012405396e-02
-4.322536289691925049e-02
-2.573082782328128815e-02
-4.843806326389312744e-01
9.386267513036727905e-03
2.597586214542388916e-01
9.291265159845352173e-03
-1.905062347650527954e-01
-3.473212569952011108e-02
-7.751062512397766113e-02
-4.010174274444580078e-01
3.344151005148887634e-02
-5.778205767273902893e-02
-1.874145716428756714e-01
4.871888551861047745e-03
-8.111063390970230103e-02
1.788859665393829346e-01
2.196180075407028198e-01
-3.180288523435592651e-02
9.421293437480926514e-02
-4.866298288106918335e-02
3.797525167465209961e-02
2.596970200538635254e-01
5.967976897954940796e-02
5.846658721566200256e-03
-9.483547508716583252e-02
-3.661477938294410706e-03
-6.290771812200546265e-02
9.619265049695968628e-02
1.033124234527349472e-02
4.187427088618278503e-02
-1.247678883373737335e-02
-1.041646078228950500e-01
3.341903910040855408e-02
1.281327158212661743e-01
-2.746536629274487495e-03
-1.536085363477468491e-02
2.575030028820037842e-01
9.215538203716278076e-02
3.802308440208435059e-02
1.557561848312616348e-02
-1.119461208581924438e-01
3.840086609125137329e-02
-6.373318284749984741e-02
3.226176202297210693e-01
-2.929115109145641327e-02
-3.755308315157890320e-02
-1.546778380870819092e-01
7.313220947980880737e-02
-9.956234693527221680e-02
-5.083791539072990417e-02
4.641753807663917542e-02
-4.414734542369842529e-01
2.128257155418395996e-01
-4.778002798557281494e-01
-3.645662590861320496e-02
-8.594025671482086182e-02
-2.481918781995773315e-02
8.940657600760459900e-03
1.629462987184524536e-01
-3.858613967895507812e-02
2.812691219151020050e-02
6.938218325376510620e-02
1.819913275539875031e-02
3.197073563933372498e-02
9.640084207057952881e-02
-4.162266105413436890e-02
6.930962204933166504e-02
3.658203035593032837e-02
-1.390021760016679764e-02
-3.924701735377311707e-02
1.396384276449680328e-02
-2.437141723930835724e-02
-2.450874000787734985e-01
4.302264750003814697e-02
-1.371366530656814575e-02
-7.706381380558013916e-02
9.321519173681735992e-03
-1.345618814229965210e-01
-5.104316025972366333e-02
-4.405386734008789062e+01
-2.757064402103424072e-01
-9.761347621679306030e-02
-2.345641888678073883e-02
5.406061932444572449e-02
-4.065303504467010498e-02
-1.644005067646503448e-02
1.553932875394821167e-01
9.480989724397659302e-02
-1.409033089876174927e-01
1.812081485986709595e-01
2.514895750209689140e-03
2.521101385354995728e-02
-9.755969792604446411e-02
-8.471709489822387695e-02
-3.335046470165252686e-01
-2.626173011958599091e-02
-3.607921674847602844e-02
3.057746887207031250e-01
-6.573276966810226440e-02
-4.523866996169090271e-02
-7.989011704921722412e-02
-1.347593963146209717e-01
-8.117043762467801571e-04
-8.160080015659332275e-02
2.293390482664108276e-01
-3.594243824481964111e-01
-9.037842042744159698e-03
-2.273525856435298920e-02
-7.336080074310302734e-02
-2.415035367012023926e-01
