1.902007013559341431e-01 -1.099508285522460938e+00 2.762032747268676758e-01 -1.088797748088836670e-01 1.019147038459777832e+00 -5.568616390228271484e-01 -5.426321625709533691e-01 5.712614655494689941e-01 9.905992150306701660e-01 5.004795268177986145e-02 6.406117677688598633e-01 -4.380469322204589844e-01 2.453212976455688477e+00 -6.444877982139587402e-01 -1.956315755844116211e+00 -1.380408108234405518e-01 -6.509590148925781250e-01 -9.706566482782363892e-02 -5.850481390953063965e-01 1.131233096122741699e+00 -4.823511600494384766e+00 -9.986875653266906738e-01 -5.590050220489501953e-01 1.405864357948303223e+00 -9.899604916572570801e-01 1.280827164649963379e+00 1.139493286609649658e-01 -4.960382878780364990e-01 -1.607235789299011230e+00 -8.869122862815856934e-01
-1.292068839073181152e+00 -4.937884509563446045e-01 -4.783532023429870605e-01 1.106392443180084229e-01 4.110134840011596680e-01 8.179108053445816040e-02 2.101571410894393921e-01 -1.268367767333984375e-01 -9.264054298400878906e-01 2.399640977382659912e-01 -2.432726472616195679e-01 2.674964368343353271e-01 -1.242145895957946777e+00 -4.353255033493041992e-01 1.606491088867187500e+00 3.119009733200073242e-01 3.103322684764862061e-01 -6.257776916027069092e-02 -5.984857678413391113e-01 5.770124197006225586e-01 3.830671310424804688e+00 -5.893946886062622070e-01 -5.663360357284545898e-01 4.642467796802520752e-01 3.474460169672966003e-02 -8.047501444816589355e-01 -6.672277301549911499e-02 1.125383496284484863e+00 8.718134164810180664e-01 -3.075668811798095703e-01
-3.069639682769775391e+00 -5.813549757003784180e-01 3.195521831512451172e-01 7.405387759208679199e-01 2.588776946067810059e-01 -8.217252045869827271e-02 2.545740008354187012e-01 4.557247757911682129e-01 -3.001485168933868408e-01 -7.671921253204345703e-01 -8.434318751096725464e-02 5.048745870590209961e-02 -1.761983871459960938e+00 -4.128326773643493652e-01 -1.055219769477844238e+00 -3.784767687320709229e-01 4.599672257900238037e-01 2.386715859174728394e-01 -4.219508171081542969e-01 2.320327907800674438e-01 -1.049493312835693359e+00 -2.815960347652435303e-01 -4.244159162044525146e-01 7.789028882980346680e-01 6.544169783592224121e-01 7.672522664070129395e-01 1.788656711578369141e-01 -1.064957141876220703e+00 2.962005883455276489e-02 1.280021667480468750e+00
9.069921374320983887e-01 4.347762092947959900e-02 -1.083392947912216187e-01 -1.464957296848297119e-01 -7.576794624328613281e-01 -2.476541101932525635e-01 2.168058007955551147e-01 5.260383244603872299e-03 -3.371525406837463379e-01 -9.903757274150848389e-02 2.538931369781494141e-01 -2.986409664154052734e-01 1.437257289886474609e+00 6.807065010070800781e-01 4.606566429138183594e-01 -3.303532004356384277e-01 -1.381800770759582520e-01 6.341264247894287109e-01 6.470966935157775879e-01 4.423055797815322876e-02 -2.225470066070556641e+00 -3.349909093230962753e-03 6.426289677619934082e-01 -1.477288842201232910e+00 2.074193060398101807e-01 2.319749891757965088e-01 1.351531147956848145e-01 -7.477058768272399902e-01 4.061240851879119873e-01 5.785114765167236328e-01
1.011961221694946289e+00 5.430842638015747070e-01 -6.550991535186767578e-01 -1.221024990081787109e-01 -7.392112016677856445e-01 1.391986608505249023e+00 -8.808889389038085938e-01 5.778430774807929993e-02 3.609814941883087158e-01 3.961162567138671875e-01 1.291916221380233765e-01 -6.589066982269287109e-02 -3.191620349884033203e+00 5.929638743400573730e-01 1.077089905738830566e+00 1.403209269046783447e-01 2.198751419782638550e-01 -1.045261323451995850e-02 -2.816870510578155518e-01 -7.170192599296569824e-01 7.432760000228881836e-01 7.364068627357482910e-01 -2.931168079376220703e-01 -9.861302375793457031e-01 1.787063956260681152e+00 -6.564128994941711426e-01 8.061986565589904785e-01 4.266964793205261230e-01 1.166073083877563477e+00 -6.829064488410949707e-01
9.351984262466430664e-01 -1.819817721843719482e-01 2.877669036388397217e-01 -1.268046945333480835e-01 -4.475775957107543945e-01 -6.599566936492919922e-01 2.892775535583496094e-01 3.362567722797393799e-02 -5.770464539527893066e-01 -9.063248336315155029e-02 -3.326364234089851379e-02 -1.106418296694755554e-01 -5.541335344314575195e-01 5.497192591428756714e-02 6.071069240570068359e-01 -2.605969607830047607e-01 9.227330088615417480e-01 2.795701026916503906e-01 -4.934784173965454102e-01 2.793361246585845947e-01 1.525862455368041992e+00 -2.982107698917388916e-01 -4.995562434196472168e-01 1.161395703093148768e-04 1.277627497911453247e-01 -1.656141728162765503e-01 -3.538029789924621582e-01 -2.083600610494613647e-01 6.047228723764419556e-02 1.534855723381042480e+00
-4.215703010559082031e+00 -1.570406407117843628e-01 2.066484540700912476e-01 5.799622535705566406e-01 -8.544545769691467285e-01 3.530005812644958496e-01 -2.588188648223876953e-01 4.087980091571807861e-01 -3.004868030548095703e-01 -4.194361865520477295e-01 -2.773927152156829834e-01 -1.852553039789199829e-01 2.989031076431274414e+00 -7.073843479156494141e-01 2.148321866989135742e-01 -4.203546345233917236e-01 1.667186468839645386e-01 8.845217525959014893e-02 -3.222055435180664062e-01 2.547254323959350586e+00 1.618841886520385742e+00 -2.531262636184692383e+00 -3.333921432495117188e-01 9.110575914382934570e-01 2.565491795539855957e-01 5.174955725669860840e-01 1.254644542932510376e-01 -1.404245972633361816e+00 2.082159966230392456e-01 6.459493041038513184e-01
6.470208764076232910e-01 -1.181061491370201111e-01 5.710172653198242188e-01 2.424228340387344360e-01 5.043162703514099121e-01 -4.915635585784912109e-01 -3.781218528747558594e-01 -5.579597502946853638e-02 2.431652322411537170e-02 -1.755645573139190674e-01 -8.355581760406494141e-02 -6.424842774868011475e-02 -1.132762670516967773e+00 -8.693154901266098022e-02 -4.560491740703582764e-01 -1.700656563043594360e-01 3.581880629062652588e-01 4.614106416702270508e-01 -2.482984960079193115e-01 -1.564204692840576172e+00 1.404095411300659180e+00 1.578631758689880371e+00 -2.382084727287292480e-01 1.994590759277343750e+00 4.103163778781890869e-01 -5.555010214447975159e-02 -2.993126213550567627e-01 -6.530993580818176270e-01 5.972635149955749512e-01 2.029693603515625000e+00
1.669601440429687500e+00 -2.401712834835052490e-01 1.884001195430755615e-01 -8.531703352928161621e-01 4.031255841255187988e-01 -1.247822418808937073e-01 1.683023452758789062e+00 1.109721511602401733e-02 4.923058450222015381e-01 -4.380224943161010742e-01 -3.380149304866790771e-01 7.792641222476959229e-02 -1.370601296424865723e+00 -2.532719075679779053e-01 -1.319077849388122559e+00 -1.809769421815872192e-01 -3.392940759658813477e-01 -1.495533157140016556e-02 2.778897881507873535e-01 1.239526987075805664e+00 -3.167310476303100586e+00 -1.258220791816711426e+00 2.727074623107910156e-01 1.921862602233886719e+00 1.119858995079994202e-01 8.134316802024841309e-01 -2.179445177316665649e-01 -1.138683080673217773e+00 -6.854946017265319824e-01 2.404293775558471680e+00
-2.016852617263793945e+00 7.697509229183197021e-02 -3.858831226825714111e-01 -1.329879611730575562e-01 -5.971661806106567383e-01 1.237516403198242188e+00 7.855190038681030273e-01 2.366259694099426270e-01 -3.961032927036285400e-01 -1.996882259845733643e-01 -2.823749184608459473e-01 5.800809860229492188e-01 1.697996616363525391e+00 3.657627403736114502e-01 8.714041709899902344e-01 -5.888606309890747070e-01 4.237050712108612061e-01 -3.225931152701377869e-02 1.737813949584960938e-01 1.769134402275085449e+00 1.664331674575805664e+00 -1.812110543251037598e+00 1.845771223306655884e-01 -4.160954952239990234e-01 6.191043853759765625e-01 1.894563138484954834e-01 -4.520500302314758301e-01 -3.930115997791290283e-01 5.176465511322021484e-01 6.219192743301391602e-01
2.679961681365966797e+00 -4.017639160156250000e-01 -1.625706814229488373e-02 1.555365920066833496e-01 -6.629588603973388672e-01 -2.223903983831405640e-01 -4.238882958889007568e-01 3.373190462589263916e-01 7.681294083595275879e-01 -4.462633728981018066e-01 -3.117344677448272705e-01 -2.501675114035606384e-02 1.380759716033935547e+00 -9.860514104366302490e-02 -4.940816462039947510e-01 5.102262273430824280e-02 -6.002800166606903076e-02 2.803162336349487305e-01 -5.079253017902374268e-02 -5.393165349960327148e-01 7.092882394790649414e-01 5.594917535781860352e-01 -4.612978175282478333e-02 2.868253707885742188e+00 1.676871329545974731e-01 2.025346010923385620e-01 6.587895750999450684e-02 -1.166228413581848145e+00 4.250903129577636719e-01 -6.711368560791015625e-01
1.996033638715744019e-02 1.591879844665527344e+00 3.532300472259521484e+00 5.456031322479248047e+00 6.637118458747863770e-01 4.603133678436279297e+00 -1.343728661537170410e+00 -8.198845386505126953e-01 -4.329434204101562500e+01 -4.261845779418945312e+01 1.247624829411506653e-01 8.290563225746154785e-01 -4.479173943400382996e-02 -4.260446727275848389e-01 9.795511364936828613e-01 8.672343492507934570e-01 -4.338531289249658585e-03 9.678367525339126587e-03 1.941120326519012451e-01 1.049158349633216858e-01 9.434037804603576660e-01 -8.365408331155776978e-02 2.748388051986694336e-01 -2.397320568561553955e-01 -4.207882881164550781e-01 -4.624835252761840820e-01 4.094113409519195557e-01 -3.138656616210937500e-01 -1.179421043395996094e+01 -4.249653339385986328e+00
2.857120037078857422e-01 -3.427540957927703857e-01 4.784897267818450928e-01 -9.773565828800201416e-02 1.601547747850418091e-01 1.185113862156867981e-01 3.246028125286102295e-01 6.705867052078247070e-01 -2.550790011882781982e-01 -4.328447580337524414e-01 1.261904537677764893e-01 4.551604092121124268e-01 9.754383563995361328e-01 -6.972594857215881348e-01 -1.569975495338439941e+00 -2.083838284015655518e-01 -1.569712013006210327e-01 -5.980743840336799622e-02 -1.381810307502746582e-01 2.341554403305053711e+00 5.316028594970703125e-01 -2.324956893920898438e+00 -1.770709902048110962e-01 4.711330890655517578e+00 -2.686252444982528687e-02 6.638206839561462402e-01 -9.077553749084472656e-01 -1.563280701637268066e+00 -5.137136578559875488e-01 2.268595695495605469e+00
-2.408066987991333008e+00 -6.342663615942001343e-02 5.238135457038879395e-01 -3.289468958973884583e-02 1.224459409713745117e+00 2.490712851285934448e-01 -4.820573925971984863e-01 4.727852642536163330e-01 -2.977674901485443115e-01 1.144066546112298965e-02 9.605825878679752350e-03 1.277750581502914429e-01 3.345865964889526367e+00 -2.116195112466812134e-02 -8.841695189476013184e-01 -3.784413039684295654e-01 2.397341430187225342e-01 -8.648674935102462769e-02 4.250002205371856689e-01 1.797244191169738770e+00 3.923675119876861572e-01 -1.819231271743774414e+00 4.311850965023040771e-01 2.875124454498291016e+00 -1.330134868621826172e-01 2.557062804698944092e-01 -3.369133174419403076e-01 -1.354776620864868164e+00 1.555441617965698242e-01 3.959673270583152771e-02
1.322602033615112305e+00 -3.826176002621650696e-02 2.850567400455474854e-01 1.704168878495693207e-02 9.439212083816528320e-01 -2.094041258096694946e-01 -1.665290892124176025e-01 5.658367872238159180e-01 3.813398256897926331e-02 3.330136835575103760e-01 2.739914953708648682e-01 6.595208495855331421e-02 3.327775895595550537e-01 -2.977932691574096680e-01 -1.064216613769531250e+00 2.597642242908477783e-01 -6.332417130470275879e-01 -4.239065647125244141e-01 1.712757349014282227e-01 -6.758799552917480469e-01 9.251057505607604980e-01 6.989190578460693359e-01 2.153908163309097290e-01 1.044347047805786133e+00 -1.150448098778724670e-01 -1.434395760297775269e-01 2.194726467132568359e-01 -1.796253025531768799e-01 3.094608187675476074e-01 -1.362162828445434570e+00
-7.596396803855895996e-01 -9.231575727462768555e-01 -5.395281314849853516e-01 6.024778485298156738e-01 -1.506319165229797363e+00 9.396027922630310059e-01 -7.181946635246276855e-01 -2.678613960742950439e-01 -7.884202152490615845e-02 -3.353608846664428711e-01 -4.175403714179992676e-01 2.305300533771514893e-01 -1.684560894966125488e+00 2.332455962896347046e-01 8.139412403106689453e-01 6.621696352958679199e-01 6.391619443893432617e-01 3.563371486961841583e-03 1.048221230506896973e+00 -2.025792598724365234e+00 2.830907344818115234e+00 1.977995634078979492e+00 1.019161343574523926e+00 -1.578076601028442383e+00 1.361939311027526855e+00 -4.636194407939910889e-01 -1.643205285072326660e-01 -2.486347705125808716e-01 1.390012145042419434e+00 -3.111075758934020996e-01
-1.195469617843627930e+00 6.660906076431274414e-01 -5.147137045860290527e-01 -4.680842757225036621e-01 -3.091842681169509888e-02 -3.214497864246368408e-01 1.065581202507019043e+00 -4.202264249324798584e-01 -5.072017908096313477e-01 3.943153023719787598e-01 -1.056895926594734192e-01 -7.075300067663192749e-02 2.173565775156021118e-01 8.039274811744689941e-01 1.465334415435791016e+00 -4.048536121845245361e-01 -1.451537311077117920e-01 -1.285661756992340088e-01 4.002722799777984619e-01 1.739753127098083496e+00 2.086868882179260254e-01 -1.688981652259826660e+00 4.204719662666320801e-01 -2.461834669113159180e+00 -4.021685719490051270e-01 1.752086798660457134e-03 -3.333571255207061768e-01 8.683565855026245117e-01 -4.413042366504669189e-01 2.640138864517211914e-01
9.487114548683166504e-01 -3.005677461624145508e-01 -7.092178463935852051e-01 -6.625086814165115356e-02 2.964785099029541016e-01 -3.432209193706512451e-01 1.428507685661315918e+00 2.807348072528839111e-01 -1.111130043864250183e-01 -1.130020469427108765e-01 1.851147972047328949e-02 4.990384578704833984e-01 -1.583539724349975586e+00 1.124718189239501953e-01 -7.105826735496520996e-01 4.374399185180664062e-01 -9.307792037725448608e-02 -9.254457801580429077e-02 2.163158953189849854e-01 3.673918247222900391e-01 -6.082586571574211121e-02 -4.329524934291839600e-01 2.132133245468139648e-01 6.191110014915466309e-01 3.239732384681701660e-01 8.037062734365463257e-02 7.970742136240005493e-02 2.171847671270370483e-01 3.725149855017662048e-02 2.676974534988403320e+00
-1.433623671531677246e+00 8.494185209274291992e-01 1.257116943597793579e-01 8.605200648307800293e-01 -4.115330874919891357e-01 2.349079102277755737e-01 1.744230240583419800e-01 1.880176067352294922e-01 -7.946134209632873535e-01 -2.376936525106430054e-01 -1.276642233133316040e-01 2.428788393735885620e-01 1.408170461654663086e+00 3.673093020915985107e-01 6.484014987945556641e-01 -3.876354396343231201e-01 2.865035533905029297e-01 3.297222256660461426e-01 -4.728039801120758057e-01 2.629929780960083008e+00 9.065567255020141602e-01 -2.641701221466064453e+00 -4.344296455383300781e-01 -1.612019181251525879e+00 3.190976381301879883e-01 7.956061363220214844e-01 2.382266968488693237e-01 -9.019268751144409180e-01 2.942353188991546631e-01 7.128654122352600098e-01
-3.828127145767211914e+00 -8.238843083381652832e-02 4.112069308757781982e-01 4.638285636901855469e-01 2.856910824775695801e-01 -1.858457028865814209e-01 -4.499406516551971436e-01 -1.675644516944885254e-01 -3.501569330692291260e-01 1.281524002552032471e-01 1.273129880428314209e-01 -1.222065985202789307e-01 8.622341752052307129e-01 -3.454032838344573975e-01 -8.661918640136718750e-01 -4.544283151626586914e-01 1.674759685993194580e-01 1.070065796375274658e-01 -1.774454593658447266e+00 -1.190721511840820312e+00 1.017303228378295898e+00 1.215729117393493652e+00 -1.774221658706665039e+00 2.666839122772216797e+00 9.369774162769317627e-02 6.813030242919921875e-01 -3.259048163890838623e-01 -1.273500919342041016e-01 -1.121711730957031250e+00 2.000876426696777344e+00
-1.765708327293395996e+00 -3.290420174598693848e-01 1.902585476636886597e-02 5.488083232194185257e-03 -6.060768961906433105e-01 -3.539434373378753662e-01 2.735858857631683350e-01 5.545444488525390625e-01 -1.006244346499443054e-01 -3.880247473716735840e-01 -6.831170618534088135e-02 2.002206146717071533e-01 2.700989007949829102e+00 -2.034396827220916748e-01 -4.314652457833290100e-02 -1.146477758884429932e-01 8.924116939306259155e-02 3.621934950351715088e-01 1.049124836921691895e+00 1.549010396003723145e+00 7.195909023284912109e-01 -1.550322413444519043e+00 1.037501692771911621e+00 2.246569871902465820e+00 -3.513296842575073242e-01 4.311491847038269043e-01 4.152926057577133179e-02 -1.018861085176467896e-01 4.074662923812866211e-01 -1.188053727149963379e+00
-2.563925266265869141e+00 -1.388456463813781738e+00 3.209342360496520996e-01 -2.168300598859786987e-01 7.654867172241210938e-01 -5.272904038429260254e-01 6.216834187507629395e-01 3.242508471012115479e-01 5.541902184486389160e-01 -2.894152998924255371e-01 -1.529013812541961670e-01 -9.627129137516021729e-02 -2.690977156162261963e-01 -8.503376245498657227e-01 -9.471903443336486816e-01 1.036268249154090881e-01 1.696320325136184692e-01 3.437575697898864746e-01 4.320299923419952393e-01 -9.011233597993850708e-02 1.303365707397460938e+00 8.477074652910232544e-02 4.273646771907806396e-01 2.009465456008911133e+00 -2.801642417907714844e-01 1.124860718846321106e-01 2.053949236869812012e-01 -5.313594341278076172e-01 8.485278487205505371e-02 1.145526885986328125e+00
1.214719057083129883e+00 -9.874940663576126099e-02 2.493620067834854126e-01 -3.267803192138671875e-01 -4.914370775222778320e-01 1.733798682689666748e-01 5.500803887844085693e-02 5.499982833862304688e-01 9.151178598403930664e-01 1.170436106622219086e-02 -9.095464833080768585e-03 -4.274119436740875244e-01 1.857233047485351562e+00 -2.259685248136520386e-01 4.709594845771789551e-01 -5.158992409706115723e-01 7.063174992799758911e-02 -1.489119827747344971e-01 -1.276297688484191895e+00 -9.295571446418762207e-01 -3.248465806245803833e-02 1.017879366874694824e+00 -1.252735972404479980e+00 4.496803879737854004e-01 -2.433055937290191650e-01 -4.513846039772033691e-01 2.968559563159942627e-01 8.507698774337768555e-03 3.341221511363983154e-01 -1.552523970603942871e+00
2.139943838119506836e+00 -5.233497023582458496e-01 2.894590497016906738e-01 -5.922877788543701172e-01 3.305005282163619995e-02 -7.453076839447021484e-01 -6.798477768898010254e-01 4.847705960273742676e-01 7.546653747558593750e-01 -5.599148273468017578e-01 1.362804174423217773e-01 -6.872592121362686157e-02 1.668631315231323242e+00 -7.692571878433227539e-01 -1.213916897773742676e+00 -1.498024761676788330e-01 -8.448337316513061523e-01 -1.609721481800079346e-01 -1.925217151641845703e+00 1.478921771049499512e+00 -3.543522834777832031e+00 -1.514023661613464355e+00 -1.942486405372619629e+00 3.177949666976928711e+00 -5.748571753501892090e-01 1.015670895576477051e+00 -2.894473075866699219e-01 -1.542869091033935547e+00 -4.799610376358032227e-01 3.299665451049804688e-02
3.876641750335693359e+00 3.976927399635314941e-01 1.351653784513473511e-01 -2.213751897215843201e-03 -2.261279821395874023e-01 -2.307926118373870850e-02 -1.307860165834426880e-01 -2.282537072896957397e-01 -5.124756097793579102e-01 5.687214136123657227e-01 2.499596029520034790e-01 -2.638700902462005615e-01 1.249631881713867188e+00 7.830640673637390137e-01 6.465074419975280762e-02 -2.033540755510330200e-01 2.852380871772766113e-01 3.588328957557678223e-01 -1.476547360420227051e+00 -5.030955076217651367e-01 1.961775064468383789e+00 4.611743986606597900e-01 -1.451217651367187500e+00 -1.171445727348327637e+00 2.850751206278800964e-02 -6.886444687843322754e-01 -1.025427207350730896e-01 -3.367645144462585449e-01 6.573596596717834473e-01 1.074544668197631836e+00
-3.036140918731689453e+00 9.288434870541095734e-03 1.075629238039255142e-02 -4.684453904628753662e-01 5.437072515487670898e-01 -4.644935205578804016e-02 1.669555306434631348e-01 3.395550847053527832e-01 -3.959005773067474365e-01 -4.490172863006591797e-02 2.239487022161483765e-01 1.486721038818359375e-01 1.525335162878036499e-01 -2.464299090206623077e-02 -8.402705788612365723e-01 3.664678931236267090e-01 -3.135010898113250732e-01 -4.456829130649566650e-01 1.972508057951927185e-02 -1.180976033210754395e+00 -8.627235293388366699e-01 1.132696628570556641e+00 4.471001029014587402e-02 -2.276372760534286499e-01 -3.074658513069152832e-01 4.092171788215637207e-01 1.364491432905197144e-01 -2.696580886840820312e-01 -5.436627194285392761e-02 -6.827678084373474121e-01
-2.103229761123657227e+00 -3.325409293174743652e-01 1.057147979736328125e-01 1.581237763166427612e-01 9.153406023979187012e-01 -4.170397222042083740e-01 -2.343943864107131958e-01 -3.578913509845733643e-01 3.376950621604919434e-01 -6.105548143386840820e-01 -8.977001160383224487e-02 4.032339751720428467e-01 -2.942597270011901855e-01 -6.419074721634387970e-03 -4.899648018181324005e-03 1.143916603177785873e-02 4.101334810256958008e-01 1.093398109078407288e-01 1.348242998123168945e+00 -2.401605367660522461e+00 -2.363254308700561523e+00 2.351769924163818359e+00 1.385048866271972656e+00 4.558156728744506836e-01 -9.293104410171508789e-01 2.460423111915588379e-01 -3.489999175071716309e-01 6.354321241378784180e-01 -1.733231663703918457e+00 -1.365396261215209961e+00
2.665420770645141602e+00 2.332721464335918427e-02 6.522379517555236816e-01 -4.207168892025947571e-02 -1.125020861625671387e+00 -4.922914505004882812e-02 1.980092227458953857e-01 -2.018086314201354980e-01 -4.295181035995483398e-01 1.160861030220985413e-01 -1.325979828834533691e-01 -4.068668484687805176e-01 2.343890666961669922e+00 -1.108268462121486664e-02 1.272458910942077637e+00 -1.403826773166656494e-01 1.164615452289581299e-01 3.220575749874114990e-01 1.963427662849426270e-01 4.225151240825653076e-01 2.850672960281372070e+00 -3.520234525203704834e-01 1.910368502140045166e-01 -2.118615388870239258e+00 3.509189486503601074e-01 -3.563799262046813965e-01 -5.323082804679870605e-01 -7.095811367034912109e-01 1.099927306175231934e+00 6.552248597145080566e-01
-1.659585833549499512e+00 5.073519349098205566e-01 -1.874834001064300537e-01 2.566432356834411621e-01 7.652078270912170410e-01 -1.168005824089050293e+00 -4.897533357143402100e-01 -3.827431201934814453e-01 -1.947056353092193604e-01 3.724767565727233887e-01 4.761007130146026611e-01 9.381773322820663452e-02 -3.045506238937377930e+00 5.472065210342407227e-01 5.984778404235839844e-01 -1.412381082773208618e-01 -1.258973777294158936e-01 5.748395621776580811e-02 7.575863599777221680e-01 -1.183985471725463867e+00 2.833045721054077148e-01 1.215710401535034180e+00 7.374591827392578125e-01 -3.007791280746459961e+00 -1.410724073648452759e-01 -9.108239412307739258e-01 3.127710819244384766e-01 9.750416278839111328e-01 -1.477184593677520752e-01 2.138864517211914062e+00
1.747974038124084473e+00 1.950897425413131714e-01 5.007229447364807129e-01 7.554531693458557129e-01 -5.266878604888916016e-01 -7.043148875236511230e-01 6.444955617189407349e-02 -6.239120364189147949e-01 5.870801210403442383e-01 -1.450928449630737305e-01 -1.728524565696716309e-01 -1.799628436565399170e-01 -1.644205093383789062e+00 3.052201867103576660e-01 8.872078061103820801e-01 -2.238432168960571289e-01 1.354746967554092407e-01 5.041328072547912598e-01 -5.409272313117980957e-01 9.356449246406555176e-01 -8.350208997726440430e-01 -9.718500375747680664e-01 -5.713192820549011230e-01 -1.118209600448608398e+00 2.456457465887069702e-01 -3.746277391910552979e-01 8.739524334669113159e-02 5.341703295707702637e-01 -4.374603629112243652e-01 7.526372075080871582e-01
-2.021143913269042969e+00 9.978921711444854736e-02 8.351233601570129395e-01 2.700475156307220459e-01 3.734126985073089600e-01 3.845488280057907104e-02 -7.641364336013793945e-01 2.715716958045959473e-01 -5.180838704109191895e-01 1.338012516498565674e-01 3.906164765357971191e-01 -2.047362923622131348e-01 2.162182092666625977e+00 3.024573624134063721e-01 7.903210818767547607e-02 -5.154382586479187012e-01 -1.107167601585388184e-01 2.273772805929183960e-01 -1.519124865531921387e+00 -1.825937390327453613e+00 -1.716576099395751953e+00 1.893210053443908691e+00 -1.478731274604797363e+00 -6.633393764495849609e-01 -3.102211654186248779e-01 9.730118326842784882e-03 -3.250667825341224670e-02 -8.076812624931335449e-01 2.657125890254974365e-01 -1.583042979240417480e+00
2.760091125965118408e-01 2.265780121088027954e-01 -2.738067507743835449e-01 -3.664489486254751682e-05 -1.692041516304016113e+00 7.198892533779144287e-02 5.062592029571533203e-01 2.614052295684814453e-01 -6.458256840705871582e-01 1.033331677317619324e-01 -6.778224557638168335e-02 1.169841662049293518e-01 1.432247281074523926e+00 1.008121848106384277e+00 1.407233715057373047e+00 -6.606688350439071655e-02 -4.058895707130432129e-01 -1.301120370626449585e-01 1.442776679992675781e+00 1.292877942323684692e-01 9.864346981048583984e-01 -9.467993676662445068e-02 1.443930983543395996e+00 -1.933001279830932617e+00 9.801461100578308105e-01 -3.510662913322448730e-01 6.826865673065185547e-02 -1.080197572708129883e+00 1.610964536666870117e+00 3.233542144298553467e-01
1.339793801307678223e+00 2.912083268165588379e-01 2.604041062295436859e-02 8.851507306098937988e-01 -2.721249461174011230e-01 -3.574421405792236328e-01 -6.233798805624246597e-03 -3.624533116817474365e-01 -9.313544631004333496e-01 2.589689791202545166e-01 1.819303333759307861e-01 -3.189553618431091309e-01 2.220094680786132812e+00 2.058497667312622070e-01 6.355136632919311523e-01 -8.480219244956970215e-01 -4.009533524513244629e-01 2.668928802013397217e-01 -1.087939977645874023e+00 1.145383119583129883e+00 -1.884632110595703125e+00 -1.105270028114318848e+00 -1.059399247169494629e+00 -2.713539838790893555e+00 -3.119949400424957275e-01 2.136039733886718750e-01 1.904545165598392487e-02 -1.090630069375038147e-01 -4.031371474266052246e-01 4.105476737022399902e-01
1.345230460166931152e+00 2.132414095103740692e-02 -7.341306209564208984e-01 -6.561167836189270020e-01 -1.208492040634155273e+00 2.920562326908111572e-01 -2.713734209537506104e-01 -5.261133313179016113e-01 4.202792942523956299e-01 8.340269327163696289e-02 -7.212899625301361084e-02 -1.127674151211977005e-02 -1.185260534286499023e+00 8.174110054969787598e-01 2.152403354644775391e+00 4.792413413524627686e-01 3.516545593738555908e-01 1.299097388982772827e-01 -5.988162159919738770e-01 -1.186349272727966309e+00 2.846330165863037109e+00 1.131695985794067383e+00 -5.959064960479736328e-01 -2.047337770462036133e+00 8.511203527450561523e-02 -1.222673773765563965e+00 -5.127807259559631348e-01 1.201411247253417969e+00 9.870466589927673340e-01 -4.170664250850677490e-01
8.960195183753967285e-01 -4.740624725818634033e-01 2.750084698200225830e-01 5.149251818656921387e-01 -5.623183250427246094e-01 -7.124805450439453125e-01 4.520530700683593750e-01 3.801476061344146729e-01 1.007329225540161133e+00 -4.300339818000793457e-01 -2.071237377822399139e-02 -2.316043101018294692e-04 1.627444028854370117e+00 -8.157216012477874756e-02 -1.820683002471923828e+00 1.774231642484664917e-01 -3.910495042800903320e-01 2.699713967740535736e-02 3.577208220958709717e-01 2.354933977127075195e+00 -3.974725246429443359e+00 -2.401247501373291016e+00 3.802226185798645020e-01 3.085196495056152344e+00 -5.086991190910339355e-01 5.601843595504760742e-01 -2.836720645427703857e-01 -1.460121870040893555e+00 -1.058425426483154297e+00 2.412904262542724609e+00
1.138285040855407715e+00 5.054312199354171753e-02 1.434819400310516357e-01 -3.652244210243225098e-01 -4.760296940803527832e-01 2.978583872318267822e-01 -2.571913599967956543e-01 3.839290738105773926e-01 3.739453107118606567e-02 -2.676960825920104980e-01 -1.507878750562667847e-01 1.907506436109542847e-01 2.790029048919677734e+00 2.885882854461669922e-01 -4.108254313468933105e-01 -5.381951332092285156e-01 2.570505142211914062e-01 1.145995035767555237e-02 1.162482023239135742e+00 -5.112838745117187500e-01 9.152168035507202148e-01 4.042347669601440430e-01 1.161992311477661133e+00 2.799300670623779297e+00 -4.465065896511077881e-01 2.918165922164916992e-01 -1.539003252983093262e-01 -8.860584497451782227e-01 5.093695521354675293e-01 -1.459196329116821289e+00
2.488917350769042969e+00 6.863981485366821289e-01 4.528735280036926270e-01 3.268714249134063721e-01 7.121688723564147949e-01 3.153832256793975830e-01 -6.229710578918457031e-01 4.583517611026763916e-01 -8.741617202758789062e-01 2.732203006744384766e-01 7.266496121883392334e-02 2.766043245792388916e-01 3.455340385437011719e+00 -9.082657098770141602e-02 -2.323418855667114258e-01 -6.509689688682556152e-01 4.991678297519683838e-01 1.998820155858993530e-02 -6.870344877243041992e-01 4.456250071525573730e-01 2.449403524398803711e+00 -4.904265105724334717e-01 -6.688488125801086426e-01 1.965245485305786133e+00 -6.539201736450195312e-02 6.724978089332580566e-01 -1.852099150419235229e-01 -6.330908536911010742e-01 1.474596410989761353e-01 -6.128488779067993164e-01
2.697600603103637695e+00 4.174567293375730515e-03 7.293488383293151855e-01 7.758636027574539185e-02 7.840312123298645020e-01 1.696265935897827148e-01 -1.198923826217651367e+00 -3.198354691267013550e-02 -4.561797976493835449e-01 3.625522255897521973e-01 4.325810074806213379e-01 -1.629536300897598267e-01 -2.363756597042083740e-01 -2.092905528843402863e-02 3.023603260517120361e-01 -5.768530368804931641e-01 3.933397680521011353e-02 3.422317802906036377e-01 4.986469149589538574e-01 1.019853234291076660e+00 1.105754613876342773e+00 -1.053312063217163086e+00 5.312677621841430664e-01 -5.628188252449035645e-01 -3.772132098674774170e-01 -3.275874257087707520e-01 -1.269581466913223267e-01 -1.111154481768608093e-01 9.473484158515930176e-01 -1.178501963615417480e+00
2.463818073272705078e+00 -4.070196151733398438e-01 -1.772285997867584229e-01 -2.364196181297302246e-01 -7.966302633285522461e-01 -1.837649345397949219e-01 9.960433095693588257e-02 2.957890629768371582e-01 4.603700935840606689e-01 -7.218124866485595703e-01 -1.466480940580368042e-01 4.301794469356536865e-01 2.373071387410163879e-02 4.233327135443687439e-02 -3.672185838222503662e-01 -3.373209536075592041e-01 1.872328110039234161e-02 -4.760209843516349792e-02 -1.519858390092849731e-01 -1.257980227470397949e+00 -3.245173215866088867e+00 1.207749724388122559e+00 -1.379784941673278809e-01 -8.263205289840698242e-01 3.913512825965881348e-01 -2.098718285560607910e-01 4.487272500991821289e-01 -9.515061974525451660e-01 1.978006958961486816e-01 -2.840601503849029541e-01
-1.430725812911987305e+00 -3.574324026703834534e-02 -2.907929420471191406e-01 8.929296731948852539e-01 -5.898467898368835449e-01 -2.905102670192718506e-01 3.014235496520996094e-01 2.944743037223815918e-01 -9.570575952529907227e-01 -7.032511383295059204e-02 1.104822307825088501e-01 -4.108793139457702637e-01 2.957159996032714844e+00 1.231109499931335449e-01 5.616499185562133789e-01 -6.338589191436767578e-01 1.706449389457702637e-01 2.517015933990478516e-01 -3.977205753326416016e-01 -6.032347679138183594e-01 -1.924695014953613281e+00 6.222382187843322754e-01 -3.735558390617370605e-01 -4.126142978668212891e+00 2.204791605472564697e-01 1.191172897815704346e-01 2.375492453575134277e-01 -5.092950463294982910e-01 2.973692715167999268e-01 3.837240934371948242e-01
-1.556012034416198730e+00 4.157141745090484619e-01 -2.718134224414825439e-01 -3.807850182056427002e-01 8.588938713073730469e-01 -7.349850535392761230e-01 -4.302162230014801025e-01 -3.958590626716613770e-01 9.148981571197509766e-01 -2.485757023096084595e-01 -7.721598446369171143e-02 -1.124308444559574127e-03 -2.529553413391113281e+00 -1.860772520303726196e-01 6.272640824317932129e-01 4.581865668296813965e-02 -4.889657795429229736e-01 9.286901913583278656e-03 -2.141624987125396729e-01 -3.163100957870483398e+00 2.052316904067993164e+00 3.114660024642944336e+00 -1.927690058946609497e-01 1.482340216636657715e+00 -5.786709189414978027e-01 -7.609204053878784180e-01 -6.044932641088962555e-03 6.231659054756164551e-01 -2.843492329120635986e-01 1.445591926574707031e+00
-8.009489178657531738e-01 6.835854649543762207e-01 2.597479522228240967e-01 -2.282248586416244507e-01 1.027302503585815430e+00 -8.180664777755737305e-01 1.067217364907264709e-01 -2.889361977577209473e-01 1.399610489606857300e-01 -2.788532972335815430e-01 -2.062311172485351562e-01 1.855590343475341797e-01 -2.188056945800781250e+00 -4.274116754531860352e-01 1.122781634330749512e+00 -4.843592047691345215e-01 -3.181542158126831055e-01 5.755079910159111023e-02 8.236590623855590820e-01 7.787907123565673828e-02 -8.326134681701660156e-01 -1.429003030061721802e-01 8.238579034805297852e-01 -3.933796584606170654e-01 -1.586796641349792480e+00 -1.798151880502700806e-01 3.607469797134399414e-02 1.116871118545532227e+00 -5.245625972747802734e-01 -1.739399075508117676e+00
2.099457979202270508e+00 -6.013212800025939941e-01 -2.543941736221313477e-01 7.027748823165893555e-01 -5.015920996665954590e-01 -7.751201391220092773e-01 4.107218384742736816e-01 -1.055777352303266525e-02 1.670662909746170044e-01 3.231104835867881775e-02 2.412038147449493408e-01 9.443199634552001953e-02 7.271611094474792480e-01 6.046724319458007812e-01 -1.029593586921691895e+00 1.786478906869888306e-01 -2.015177011489868164e-01 3.353646695613861084e-01 2.114194154739379883e+00 -1.166178107261657715e+00 -3.856766700744628906e+00 1.139527320861816406e+00 2.122807502746582031e+00 -1.022761464118957520e+00 -1.186797469854354858e-01 5.647661089897155762e-01 -1.420935988426208496e-01 2.010839581489562988e-01 -2.358974218368530273e-01 9.144546985626220703e-01
1.257589161396026611e-01 -6.249543279409408569e-02 -3.101645708084106445e-01 -4.007184132933616638e-02 -1.301878213882446289e+00 6.394720673561096191e-01 -7.990235686302185059e-01 -7.252284288406372070e-01 -3.880565762519836426e-01 4.426952302455902100e-01 -7.853653281927108765e-02 -1.795689016580581665e-02 -2.794756889343261719e+00 3.408713340759277344e-01 1.516901373863220215e+00 3.725995123386383057e-01 4.702893197536468506e-01 2.701991796493530273e-01 -7.571553587913513184e-01 1.391846299171447754e+00 1.788478612899780273e+00 -1.468933820724487305e+00 -7.191855311393737793e-01 -3.204248189926147461e+00 6.751736998558044434e-01 -1.019454002380371094e+00 -2.244364470243453979e-01 2.797576189041137695e-01 1.156922936439514160e+00 1.267125248908996582e+00
1.182761073112487793e+00 1.738497465848922729e-01 8.324433863162994385e-02 -2.417839467525482178e-01 -2.939741872251033783e-02 6.988006085157394409e-02 -1.163726896047592163e-01 -6.160910129547119141e-01 -1.731152832508087158e-01 7.415828108787536621e-01 2.206412404775619507e-01 2.515189349651336670e-01 3.163323402404785156e-01 1.068151235580444336e+00 5.027748346328735352e-01 1.949116140604019165e-01 -1.604483425617218018e-01 -2.957702428102493286e-02 1.845954775810241699e+00 -1.325152039527893066e+00 1.585541486740112305e+00 1.379656553268432617e+00 1.859404444694519043e+00 1.108465790748596191e+00 7.216766476631164551e-02 -8.379895687103271484e-01 -3.575947582721710205e-01 6.722832322120666504e-01 1.183484494686126709e-01 6.552531719207763672e-01
2.471844673156738281e+00 1.222104072570800781e+00 -1.053476184606552124e-01 1.152310967445373535e-01 3.968923389911651611e-01 1.199677437543869019e-01 -6.095454096794128418e-01 -9.070919826626777649e-03 -1.681022197008132935e-01 4.119690656661987305e-01 3.813455700874328613e-01 1.455458626151084900e-02 -2.747993230819702148e+00 1.165597662329673767e-01 2.912244498729705811e-01 1.324862334877252579e-02 -2.289783656597137451e-01 2.282127179205417633e-02 -1.595924258232116699e+00 7.769598960876464844e-01 -5.621747374534606934e-01 -8.751947879791259766e-01 -1.649803757667541504e+00 -1.153656482696533203e+00 5.568341016769409180e-01 -6.469815224409103394e-02 1.162837967276573181e-01 1.221384167671203613e+00 -5.156768113374710083e-02 -9.343287944793701172e-01
3.800819218158721924e-01 -4.973746240139007568e-01 -6.009019911289215088e-02 4.036914110183715820e-01 4.011616483330726624e-02 -1.544308960437774658e-01 -5.823225378990173340e-01 1.025236770510673523e-01 -7.736509293317794800e-02 5.204242467880249023e-02 -4.447470232844352722e-02 -2.717332243919372559e-01 -6.341218352317810059e-01 -5.095856785774230957e-01 4.028701782226562500e-01 2.626002132892608643e-01 -8.989606052637100220e-02 -1.122598126530647278e-01 -3.633398711681365967e-01 1.435372471809387207e+00 1.071160674095153809e+00 -1.430484890937805176e+00 -3.475898504257202148e-01 -1.567935585975646973e+00 -6.078655123710632324e-01 -4.024004340171813965e-01 -1.465966999530792236e-01 6.216513514518737793e-01 7.273746132850646973e-01 -2.560303449630737305e+00
-1.292616724967956543e+00 -7.127264738082885742e-01 -4.842239618301391602e-01 -4.055510461330413818e-01 -1.379087287932634354e-02 -4.780016839504241943e-01 8.863114714622497559e-01 3.780652284622192383e-01 3.927470743656158447e-01 3.917319178581237793e-01 1.123570203781127930e-01 -3.880499303340911865e-01 2.980781197547912598e-01 -3.133246898651123047e-01 -8.504712581634521484e-01 4.483456611633300781e-01 -2.453744858503341675e-01 -3.341935202479362488e-02 7.528558373451232910e-01 1.248229622840881348e+00 -1.011559844017028809e+00 -1.260689854621887207e+00 7.947624921798706055e-01 -4.255935922265052795e-02 1.292524635791778564e-01 4.913146495819091797e-01 6.552915275096893311e-02 -3.983482718467712402e-01 -3.417172133922576904e-01 2.572575569152832031e+00
4.391974583268165588e-02 -1.252237707376480103e-01 3.866828680038452148e-01 -2.716239392757415771e-01 8.602961897850036621e-02 2.020484656095504761e-01 8.757793307304382324e-01 3.252923488616943359e-01 -7.568606734275817871e-02 -3.212396800518035889e-01 -1.086710393428802490e-01 8.674766123294830322e-02 3.303119421005249023e+00 -8.169815689325332642e-02 -1.109441518783569336e+00 -4.030216634273529053e-01 -2.377987094223499298e-02 1.170856803655624390e-01 -4.119169116020202637e-01 2.659078538417816162e-01 -3.439164400100708008e+00 -2.131208330392837524e-01 -4.082570075988769531e-01 1.674422502517700195e+00 6.518840044736862183e-02 9.274760484695434570e-01 -3.596898615360260010e-01 -9.713234305381774902e-01 -6.925851702690124512e-01 -1.627360284328460693e-01
-6.732825636863708496e-01 -5.610543489456176758e-01 4.796611964702606201e-01 6.485326588153839111e-02 -9.298150241374969482e-02 -7.134036421775817871e-01 -6.643741577863693237e-02 9.850492700934410095e-03 1.307193636894226074e-01 -2.491712570190429688e-01 -5.910172592848539352e-03 2.364309504628181458e-02 4.470397531986236572e-01 1.329349428415298462e-01 -3.102873824536800385e-02 3.518303036689758301e-01 6.399936676025390625e-01 1.957855671644210815e-01 -3.129597187042236328e+00 3.019336760044097900e-01 -4.603736698627471924e-01 -3.020805418491363525e-01 -3.111261844635009766e+00 1.205928921699523926e+00 -4.999555647373199463e-01 -4.457833711057901382e-03 3.449269831180572510e-01 6.049459576606750488e-01 -3.426409512758255005e-02 -1.752942204475402832e+00
2.051617860794067383e+00 -2.739057242870330811e-01 -7.079486250877380371e-01 -2.681171000003814697e-01 -6.984551548957824707e-01 9.147518277168273926e-01 4.573226869106292725e-01 -2.489738762378692627e-01 4.034732878208160400e-01 -6.383883953094482422e-01 -5.069625377655029297e-01 2.342676222324371338e-01 -7.851645946502685547e-01 -6.738540530204772949e-02 8.720064759254455566e-01 3.200400173664093018e-01 -1.161854788661003113e-01 -2.941974997520446777e-01 -1.359419971704483032e-01 -7.244617342948913574e-01 1.064718365669250488e+00 6.905393600463867188e-01 -1.233255341649055481e-01 -1.427463144063949585e-01 3.741489648818969727e-01 -8.348197340965270996e-01 1.019597277045249939e-01 1.514213085174560547e-01 4.357227683067321777e-01 -1.432562470436096191e+00
2.226194739341735840e-01 9.821825623512268066e-01 9.896852821111679077e-02 -3.816767036914825439e-01 -5.397213101387023926e-01 3.281209170818328857e-01 2.966645956039428711e-01 -6.730142515152692795e-03 -2.081249505281448364e-01 2.857054471969604492e-01 7.565520703792572021e-02 -3.922100067138671875e-01 2.064583152532577515e-01 2.834770381450653076e-01 1.296745657920837402e+00 -2.296881824731826782e-01 -3.207798302173614502e-01 9.111988544464111328e-02 -3.183186426758766174e-02 1.831624269485473633e+00 -3.977158665657043457e-01 -1.730430960655212402e+00 -1.447109319269657135e-02 -9.337906837463378906e-01 4.779728949069976807e-01 -3.414090871810913086e-01 3.589080646634101868e-02 4.952230453491210938e-01 9.466767311096191406e-01 -3.496437966823577881e-01
1.659751534461975098e+00 -7.044020295143127441e-02 2.715855538845062256e-01 7.611008286476135254e-01 -1.140405535697937012e-01 8.559740185737609863e-01 -8.403694033622741699e-01 3.733789622783660889e-01 -6.113936901092529297e-01 -4.623382538557052612e-02 1.410182267427444458e-01 -1.393806934356689453e-01 1.792170047760009766e+00 -3.238210380077362061e-01 -1.273082494735717773e+00 -4.172453284263610840e-01 1.556790918111801147e-01 1.250724643468856812e-01 6.112592220306396484e-01 -2.091379404067993164e+00 -5.370661020278930664e-01 2.049207210540771484e+00 6.323572993278503418e-01 8.611702919006347656e-01 3.352587223052978516e-01 9.951955676078796387e-01 3.999515473842620850e-01 -6.660636067390441895e-01 1.575835347175598145e-01 -2.407007455825805664e+00
2.690083682537078857e-01 4.250621795654296875e-01 -6.133379936218261719e-01 1.425002366304397583e-01 1.686537824571132660e-02 -3.744143843650817871e-01 -1.079300165176391602e+00 4.810784161090850830e-01 6.506728380918502808e-02 -8.809920400381088257e-02 -1.608511656522750854e-01 1.441898345947265625e-01 2.108760595321655273e+00 -5.522478837519884109e-03 8.961446881294250488e-01 -1.006628200411796570e-01 -7.812575250864028931e-02 -2.091649174690246582e-01 -7.025729864835739136e-02 -1.398516654968261719e+00 2.922782659530639648e+00 1.370418548583984375e+00 -2.830171585083007812e-02 -3.764910697937011719e-01 2.450036704540252686e-01 -5.206649899482727051e-01 1.747366040945053101e-01 -5.447562336921691895e-01 2.408731579780578613e-01 -2.067379474639892578e+00
-1.153670191764831543e+00 7.350429892539978027e-01 1.082809120416641235e-01 2.646819353103637695e-01 -5.718007087707519531e-01 -3.534424602985382080e-01 -2.441415786743164062e-01 -4.071987569332122803e-01 -7.462994456291198730e-01 -4.935815185308456421e-02 2.439748942852020264e-01 -2.222740501165390015e-01 1.225184082984924316e+00 -7.611101120710372925e-02 1.495141148567199707e+00 -4.498409628868103027e-01 -3.550724685192108154e-01 3.087332546710968018e-01 -4.116193056106567383e-01 2.553154945373535156e+00 7.849973440170288086e-01 -2.588501214981079102e+00 -4.116601645946502686e-01 -3.367604255676269531e+00 -6.517565846443176270e-01 4.766722396016120911e-02 -3.595013320446014404e-01 2.652676105499267578e-01 1.688074618577957153e-01 1.202704906463623047e+00
6.229721903800964355e-01 -5.823827162384986877e-02 4.541717767715454102e-01 -1.088088974356651306e-01 1.110600709915161133e+00 -1.399263292551040649e-01 -1.567020118236541748e-01 4.853783249855041504e-01 -2.769326269626617432e-01 -1.384427398443222046e-01 1.766854375600814819e-01 4.149437546730041504e-01 4.203820228576660156e+00 -4.048954248428344727e-01 -1.006717085838317871e+00 -3.826899230480194092e-01 -1.638276129961013794e-01 -8.998958766460418701e-02 1.462029218673706055e-01 -1.057884693145751953e+00 -5.454886555671691895e-01 1.029674291610717773e+00 1.577153652906417847e-01 2.102287769317626953e+00 -5.556622743606567383e-01 5.969889760017395020e-01 -3.194773495197296143e-01 -1.577014178037643433e-01 -1.350379347801208496e+00 -3.343089103698730469e+00
1.953928470611572266e-01 6.899533271789550781e-01 7.476559281349182129e-02 8.248037695884704590e-01 7.886427044868469238e-01 -4.983962178230285645e-01 2.276487350463867188e-01 -6.580473184585571289e-01 6.159416437149047852e-01 1.308500021696090698e-01 2.424854636192321777e-01 -9.404159337282180786e-02 -1.155790090560913086e+00 1.308181732892990112e-01 2.781740427017211914e-01 -6.531746983528137207e-01 -2.791878879070281982e-01 6.385949254035949707e-01 -1.061843514442443848e+00 1.462983250617980957e+00 -2.969732284545898438e+00 -1.498738169670104980e+00 -1.096295237541198730e+00 -1.269705653190612793e+00 -1.572647094726562500e+00 3.515826463699340820e-01 7.280957698822021484e-02 9.668220281600952148e-01 -2.196839570999145508e+00 1.729965686798095703e+00
2.687499761581420898e+00 1.928638070821762085e-01 6.190078258514404297e-01 4.798822402954101562e-01 9.552860260009765625e-01 -4.748881757259368896e-01 1.531798094511032104e-01 3.993425071239471436e-01 -7.185246050357818604e-02 -9.904053807258605957e-02 2.611858844757080078e-01 -2.882569730281829834e-01 -9.727752804756164551e-01 1.009956225752830505e-01 -7.017927765846252441e-01 -4.736305773258209229e-01 -3.501068651676177979e-01 1.333416402339935303e-01 -9.913662672042846680e-01 3.705667734146118164e+00 -3.041460752487182617e+00 -3.739040613174438477e+00 -1.004968523979187012e+00 9.818875789642333984e-01 2.588235735893249512e-01 2.673374116420745850e-01 -4.022714793682098389e-01 -1.239398241043090820e+00 3.117856755852699280e-02 1.759677052497863770e+00
-1.883104741573333740e-01 9.075456857681274414e-01 -4.859271049499511719e-01 8.641515858471393585e-03 -1.025294899940490723e+00 4.708210378885269165e-02 3.278070315718650818e-02 -4.581137299537658691e-01 -1.400861382484436035e+00 4.192851185798645020e-01 -3.940150141716003418e-01 6.333820521831512451e-02 1.191702842712402344e+00 2.823695540428161621e-01 1.678553223609924316e+00 -3.443448245525360107e-01 1.416264772415161133e-01 6.095627322793006897e-02 -5.572705268859863281e-01 1.965471029281616211e+00 1.818591117858886719e+00 -1.967391014099121094e+00 -5.356574058532714844e-01 -3.673265218734741211e+00 6.545065641403198242e-01 2.682192325592041016e-01 3.356726169586181641e-01 3.205727934837341309e-01 1.264530658721923828e+00 -5.625741183757781982e-02
-3.017632007598876953e+00 -3.762912452220916748e-01 -3.008814454078674316e-01 3.534960746765136719e-02 -5.037566274404525757e-02 -8.845299482345581055e-01 -6.687343120574951172e-01 -6.417200565338134766e-01 5.793814063072204590e-01 -5.678548663854598999e-02 -9.916491061449050903e-02 -3.523262441158294678e-01 -1.953205227851867676e+00 -2.331549115478992462e-02 1.297958970069885254e+00 -1.864702254533767700e-02 -4.722496271133422852e-01 1.437089145183563232e-01 1.594080209732055664e+00 -1.461907029151916504e+00 -2.121936321258544922e+00 1.432981133460998535e+00 1.573808908462524414e+00 -2.458401679992675781e+00 -8.172479867935180664e-01 -7.881600856781005859e-01 1.507536023855209351e-01 1.248461604118347168e+00 -5.147655606269836426e-01 -2.361829519271850586e+00
-1.207877755165100098e+00 6.655395030975341797e-01 1.737085729837417603e-01 -2.455526031553745270e-03 1.581727117300033569e-01 -5.294215083122253418e-01 1.411416381597518921e-01 -5.052745342254638672e-01 -2.389833480119705200e-01 4.564486443996429443e-01 1.514284461736679077e-01 -1.404407173395156860e-01 1.013574600219726562e+00 1.312900304794311523e+00 1.033217549324035645e+00 -2.429666072130203247e-01 -4.149296879768371582e-01 -1.988445222377777100e-01 -1.246956944465637207e+00 -1.156102776527404785e+00 -2.908949851989746094e+00 1.243655800819396973e+00 -1.219742894172668457e+00 -3.090216398239135742e+00 5.068521499633789062e-01 -6.195477247238159180e-01 -4.764229655265808105e-01 1.210272908210754395e+00 -2.287959754467010498e-01 -2.023952007293701172e+00
-3.364633798599243164e+00 3.237734138965606689e-01 -8.644449710845947266e-01 -1.943313628435134888e-01 6.699547171592712402e-01 4.734448194503784180e-01 3.625168502330780029e-01 -4.882534146308898926e-01 -2.737903594970703125e-01 1.502436697483062744e-01 4.293898120522499084e-02 -5.130561534315347672e-03 -2.297321557998657227e+00 9.600260257720947266e-01 1.527647018432617188e+00 3.157865703105926514e-01 -7.153330743312835693e-02 -1.341867297887802124e-01 8.064087033271789551e-01 -5.137606263160705566e-01 2.148327529430389404e-01 4.988959729671478271e-01 8.123509287834167480e-01 -3.750391960144042969e+00 -3.432311713695526123e-01 -1.098772525787353516e+00 7.463203370571136475e-02 1.081732749938964844e+00 1.348848920315504074e-02 -1.297730922698974609e+00
-2.790501356124877930e+00 8.682440519332885742e-01 1.972496509552001953e-01 4.146780967712402344e-01 -6.172173619270324707e-01 4.089804887771606445e-01 -2.995981872081756592e-01 -5.170359015464782715e-01 -4.298958480358123779e-01 1.515603959560394287e-01 9.387677535414695740e-03 -2.952192127704620361e-01 -7.075470089912414551e-01 6.071351766586303711e-01 1.139068007469177246e+00 -4.440218508243560791e-01 3.638083636760711670e-01 4.382328093051910400e-01 -8.595480918884277344e-01 3.368079960346221924e-01 1.049363732337951660e+00 -3.639469444751739502e-01 -8.169529438018798828e-01 -2.713336467742919922e+00 -3.646813631057739258e-01 -1.511717587709426880e-01 2.845461070537567139e-01 -1.453224569559097290e-01 1.033884361386299133e-01 8.279044032096862793e-01
2.625004291534423828e+00 3.410729765892028809e-01 -3.227637410163879395e-01 3.649362027645111084e-01 -1.265355587005615234e+00 2.089901566505432129e-01 2.280161157250404358e-02 2.306216955184936523e-02 -5.783624053001403809e-01 -2.249088734388351440e-01 -2.353795021772384644e-01 1.678066700696945190e-01 4.105170369148254395e-01 2.290432006120681763e-01 3.141556382179260254e-01 -7.310522198677062988e-01 1.141985654830932617e-01 1.871929913759231567e-01 -8.256708979606628418e-01 2.498985052108764648e+00 4.604323208332061768e-01 -2.503904581069946289e+00 -8.827167749404907227e-01 -6.114500761032104492e-01 1.586732149124145508e+00 3.729096353054046631e-01 -5.831279233098030090e-02 -7.457128167152404785e-01 8.706408143043518066e-01 1.463931679725646973e+00
-1.399316340684890747e-01 -1.937819272279739380e-01 -6.748484075069427490e-02 -4.332946240901947021e-01 1.416659951210021973e+00 -3.061059713363647461e-01 9.056724309921264648e-01 1.928981840610504150e-01 -4.443463683128356934e-01 4.359708726406097412e-01 9.602852165699005127e-02 3.437684476375579834e-01 5.061205029487609863e-01 3.678701817989349365e-01 -7.969775199890136719e-01 5.771017670631408691e-01 3.826530575752258301e-01 -2.125676572322845459e-01 4.965957701206207275e-01 -1.203327536582946777e+00 5.233828425407409668e-01 1.171190977096557617e+00 4.937281608581542969e-01 -3.996544480323791504e-01 7.833891510963439941e-01 -3.265976607799530029e-01 -2.315370589494705200e-01 -1.215698048472404480e-01 4.198561012744903564e-01 2.716323137283325195e+00
-8.276820778846740723e-01 5.038504600524902344e-01 4.671311974525451660e-01 -3.974339663982391357e-01 1.061804890632629395e+00 4.785406589508056641e-02 -1.665588766336441040e-01 6.559135317802429199e-01 -2.216760814189910889e-01 -5.072460975497961044e-03 3.169451951980590820e-01 2.007336355745792389e-02 2.576244592666625977e+00 -2.248767018318176270e-01 -1.671794414520263672e+00 -1.348618865013122559e-01 -5.946269035339355469e-01 -4.743517041206359863e-01 7.722716331481933594e-01 -9.999833106994628906e-01 -2.149731159210205078e+00 9.790721535682678223e-01 7.818607091903686523e-01 2.922227382659912109e+00 5.825187563896179199e-01 5.885643362998962402e-01 -7.366008311510086060e-02 -5.469245314598083496e-01 -3.130426406860351562e-01 -1.341566920280456543e+00
3.613928556442260742e+00 2.044771313667297363e-01 5.945144891738891602e-01 2.291788309812545776e-01 7.074404358863830566e-01 -8.137766718864440918e-01 -1.188538670539855957e-01 3.350804448127746582e-01 9.027852118015289307e-02 4.536673426628112793e-01 2.846055924892425537e-01 3.570986911654472351e-02 1.298993974924087524e-01 6.978189945220947266e-01 -7.009837627410888672e-01 -4.488529860973358154e-01 -5.572822690010070801e-01 -1.933997571468353271e-01 1.320383667945861816e+00 2.881474971771240234e+00 -3.034133911132812500e+00 -2.878443956375122070e+00 1.354541182518005371e+00 4.496777653694152832e-01 4.492945075035095215e-01 5.725389719009399414e-01 -5.369375944137573242e-01 -1.007773876190185547e+00 2.110973559319972992e-02 9.604763388633728027e-01
4.099453985691070557e-01 -2.502588033676147461e-01 4.605527222156524658e-01 5.837939307093620300e-02 1.347707808017730713e-01 -4.819440245628356934e-01 1.088050901889801025e-01 1.304087936878204346e-01 6.068563461303710938e-01 -2.766100168228149414e-01 -1.503067612648010254e-01 -4.592320024967193604e-01 2.751402258872985840e-01 -4.622342586517333984e-01 -1.016604185104370117e+00 -1.207950934767723083e-01 -1.701136231422424316e-01 1.609406918287277222e-01 1.868817806243896484e-01 9.279553294181823730e-01 -1.428364753723144531e+00 -9.589025974273681641e-01 2.264521569013595581e-01 2.600733041763305664e+00 -2.471729218959808350e-01 -1.467495318502187729e-02 -2.795784175395965576e-01 -1.062196850776672363e+00 -1.875699013471603394e-01 1.695357322692871094e+00
1.422225117683410645e+00 4.049058854579925537e-01 3.412822186946868896e-01 -2.655422985553741455e-01 1.647357106208801270e+00 -1.108089208602905273e+00 1.036327362060546875e+00 -4.801933467388153076e-01 -8.863828331232070923e-02 1.383793652057647705e-01 5.329335927963256836e-01 -5.226277709007263184e-01 4.270197749137878418e-01 -8.276021480560302734e-02 -2.044721603393554688e+00 -5.814037099480628967e-02 -4.853788018226623535e-01 8.985271677374839783e-03 1.962386250495910645e+00 -1.661431491374969482e-01 -4.818060398101806641e+00 2.126399576663970947e-01 1.994215011596679688e+00 -1.369646549224853516e+00 -1.102053523063659668e+00 3.936538696289062500e-01 -1.701502054929733276e-01 4.251153171062469482e-01 -1.759771943092346191e+00 2.889460802078247070e+00
5.889418125152587891e-01 -2.552106976509094238e-01 2.351058274507522583e-02 6.450776010751724243e-02 -1.705768853425979614e-01 -1.265129148960113525e-01 9.585870429873466492e-03 -2.078111916780471802e-01 -3.836178481578826904e-01 3.439486920833587646e-01 3.154794871807098389e-01 -1.152012497186660767e-01 -1.146076679229736328e+00 -4.115211963653564453e-02 -7.418836355209350586e-01 4.136886000633239746e-01 6.925331056118011475e-02 1.771895587444305420e-02 -1.514395177364349365e-01 -1.331433057785034180e+00 1.233618780970573425e-01 1.280131697654724121e+00 -1.326666176319122314e-01 -6.187649369239807129e-01 8.759913034737110138e-03 1.423131227493286133e-01 -2.437827289104461670e-01 6.540952324867248535e-01 -3.295255899429321289e-01 6.918495893478393555e-01
-3.217169284820556641e+00 -5.301453471183776855e-01 2.352071180939674377e-02 2.607649266719818115e-01 -5.717099308967590332e-01 -2.128557711839675903e-01 -2.542364597320556641e-01 5.093498229980468750e-01 9.541921615600585938e-01 8.112806826829910278e-03 3.171162307262420654e-01 6.892915070056915283e-02 -5.135005116462707520e-01 8.315236121416091919e-02 -8.614727258682250977e-01 1.796149462461471558e-01 -4.267767667770385742e-01 -2.937808334827423096e-01 1.284524083137512207e+00 5.695804357528686523e-01 -2.488712549209594727e+00 -5.822495818138122559e-01 1.270635604858398438e+00 2.362946987152099609e+00 3.115917146205902100e-01 2.909402847290039062e-01 4.038926661014556885e-01 -2.967920340597629547e-02 -7.674423456192016602e-01 -8.205334097146987915e-02
1.400457143783569336e+00 -1.977496147155761719e-01 -6.225998997688293457e-01 -2.390320748090744019e-01 -1.984321922063827515e-01 -3.240831494331359863e-01 5.310915112495422363e-01 -4.384620487689971924e-01 -1.722123473882675171e-02 -1.288229078054428101e-01 -5.144068598747253418e-01 2.983921766281127930e-01 1.795550435781478882e-01 2.524134218692779541e-01 5.277664661407470703e-01 4.648731052875518799e-01 1.573491096496582031e-01 -3.391217887401580811e-01 -5.413519144058227539e-01 9.300142526626586914e-01 2.570184469223022461e+00 -9.128177762031555176e-01 -5.164682269096374512e-01 -1.125111579895019531e+00 6.729633212089538574e-01 -2.240172177553176880e-01 -4.823972582817077637e-01 -8.474386995658278465e-04 4.395278543233871460e-02 1.245661854743957520e+00
-6.913611888885498047e-01 9.033773839473724365e-02 -2.605463862419128418e-01 -1.166446059942245483e-01 7.431407570838928223e-01 -2.796797454357147217e-01 1.522453576326370239e-01 -1.183796450495719910e-01 2.289640307426452637e-01 -8.603195846080780029e-02 -8.154346048831939697e-02 3.159073591232299805e-01 -2.066112518310546875e+00 -2.925344109535217285e-01 -5.418885350227355957e-01 3.667465746402740479e-01 -2.063599824905395508e-01 -1.736566573381423950e-01 1.438803911209106445e+00 -3.034360885620117188e+00 -2.609887123107910156e+00 3.052647352218627930e+00 1.444221973419189453e+00 1.915809810161590576e-01 -2.576636523008346558e-02 3.190277516841888428e-01 2.637941241264343262e-01 1.009836912155151367e+00 -5.883296132087707520e-01 -7.507641911506652832e-01
-2.210547178983688354e-01 1.556157022714614868e-01 -5.754237771034240723e-01 -3.357934951782226562e-01 -7.411620616912841797e-01 1.189371719956398010e-01 5.116450786590576172e-01 -3.941183984279632568e-01 5.785459280014038086e-01 1.285776346921920776e-01 -2.431557029485702515e-01 -3.602548837661743164e-01 -7.207657098770141602e-01 4.919092357158660889e-01 9.800290465354919434e-01 3.313154578208923340e-01 2.182464152574539185e-01 6.852229684591293335e-02 -1.169149160385131836e+00 2.174762785434722900e-01 -1.554102003574371338e-01 -1.932836025953292847e-01 -1.169435262680053711e+00 -3.240813732147216797e+00 6.446096301078796387e-01 -9.560193419456481934e-01 5.070372819900512695e-01 7.034001350402832031e-01 5.042392611503601074e-01 1.798740178346633911e-01
-3.959599018096923828e+00 -7.442797422409057617e-01 4.639558494091033936e-01 -1.125729456543922424e-01 -5.357117652893066406e-01 6.763908863067626953e-01 -5.190560221672058105e-01 4.517573118209838867e-01 6.357458233833312988e-02 2.695677569136023521e-03 1.257352232933044434e-01 -1.673591285943984985e-01 -1.372892618179321289e+00 -1.181425452232360840e+00 -9.431954622268676758e-01 -1.393949687480926514e-01 2.101833969354629517e-01 -1.767204143106937408e-02 -6.533915996551513672e-01 3.556570708751678467e-01 -1.685983538627624512e-01 -3.751692175865173340e-01 -6.632540225982666016e-01 2.339450359344482422e+00 8.163197040557861328e-01 5.509952306747436523e-01 -2.664653360843658447e-01 -2.708165347576141357e-01 -1.520997583866119385e-01 5.624564886093139648e-01
-7.724277377128601074e-01 3.124443590641021729e-01 3.112820684909820557e-01 2.377874702215194702e-01 6.124740242958068848e-01 -4.806177020072937012e-01 -4.515357613563537598e-01 -3.246366679668426514e-01 -8.211709260940551758e-01 5.290776491165161133e-01 8.878579735755920410e-02 -2.586185038089752197e-01 6.431027054786682129e-01 -1.045224219560623169e-01 -5.021302103996276855e-01 -8.300290107727050781e-01 -7.063495516777038574e-01 -1.559641808271408081e-01 3.093600273132324219e-01 6.796414256095886230e-01 -3.124512672424316406e+00 -6.483374238014221191e-01 2.984177470207214355e-01 -1.358129978179931641e+00 -5.143936872482299805e-01 6.226454973220825195e-01 -2.139123342931270599e-02 -3.134893178939819336e-01 -5.691167712211608887e-01 -5.787505507469177246e-01
-3.392794847488403320e+00 8.416351079940795898e-01 6.602070927619934082e-01 -5.538578033447265625e-01 2.415652513504028320e+00 -1.045581221580505371e+00 4.849677979946136475e-01 -3.960355818271636963e-01 4.654168188571929932e-01 4.390319287776947021e-01 1.765092909336090088e-01 1.643635034561157227e-01 -7.310621738433837891e-01 -9.161634370684623718e-03 1.847701370716094971e-01 1.998919695615768433e-01 -6.049715280532836914e-01 -3.874334394931793213e-01 -9.933137893676757812e-01 5.872925519943237305e-01 -4.284000992774963379e-01 -6.037849783897399902e-01 -1.012183070182800293e+00 -1.129473447799682617e+00 -8.017545938491821289e-01 -7.577620744705200195e-01 -2.557794451713562012e-01 1.187533020973205566e+00 -7.260957360267639160e-01 1.523187875747680664e+00
-7.315800189971923828e-01 -7.789917588233947754e-01 -1.865986920893192291e-02 -4.138416945934295654e-01 1.335353255271911621e-01 5.976732075214385986e-02 -1.242911934852600098e+00 -5.960072949528694153e-02 7.397085428237915039e-01 -1.005510985851287842e-01 4.433166086673736572e-01 -2.775344252586364746e-01 -1.749676227569580078e+00 1.564569175243377686e-01 -4.053262472152709961e-01 3.623428940773010254e-01 -2.981691062450408936e-01 -1.100941449403762817e-01 1.429496556520462036e-01 1.874778628349304199e+00 -4.332276344299316406e+00 -1.939447522163391113e+00 1.039126366376876831e-01 -2.185289859771728516e+00 2.885324656963348389e-01 -3.991454243659973145e-01 4.785907641053199768e-02 7.001991271972656250e-01 -4.773959219455718994e-01 -4.405321121215820312e+00
5.548893213272094727e-01 -8.605414032936096191e-01 -1.776268482208251953e-01 -5.815570354461669922e-01 3.118842244148254395e-01 -7.579711079597473145e-01 1.315296441316604614e-01 3.141582012176513672e-01 -8.835353255271911621e-01 9.382413327693939209e-02 2.307132072746753693e-02 4.360906481742858887e-01 9.525501728057861328e-01 -4.368497058749198914e-02 -7.272062897682189941e-01 4.827732145786285400e-01 4.181854724884033203e-01 2.829829230904579163e-02 -1.393253564834594727e+00 1.178451061248779297e+00 4.753742516040802002e-01 -1.160640478134155273e+00 -1.382313370704650879e+00 1.180405244231224060e-01 9.182498455047607422e-01 1.162412390112876892e-01 9.392853826284408569e-03 -9.705473184585571289e-01 6.297069191932678223e-01 1.451320409774780273e+00
2.091908693313598633e+00 6.145530939102172852e-01 5.439242124557495117e-01 5.289793610572814941e-01 -2.394980490207672119e-01 -3.998658806085586548e-02 -4.336156547069549561e-01 -1.861365139484405518e-01 -4.488896131515502930e-01 3.539486825466156006e-01 3.326210975646972656e-01 -1.644448488950729370e-01 2.493412494659423828e+00 1.781048476696014404e-01 -8.822586387395858765e-03 -7.048844099044799805e-01 -2.581793367862701416e-01 6.451162695884704590e-02 1.125290036201477051e+00 -9.777244925498962402e-02 -2.864505052566528320e-01 1.228851005434989929e-01 1.152613997459411621e+00 6.246766448020935059e-01 -3.412994444370269775e-01 4.802662134170532227e-01 -2.035204321146011353e-01 1.207280009984970093e-01 -3.998138606548309326e-01 2.846142649650573730e-01
7.848929166793823242e-01 6.649658828973770142e-02 -1.302801221609115601e-01 3.284266293048858643e-01 3.558085113763809204e-02 -7.839361429214477539e-01 3.528924584388732910e-01 4.633880257606506348e-01 -3.159244656562805176e-01 9.592660516500473022e-02 -2.802751213312149048e-02 1.862279176712036133e-01 1.221415638923645020e+00 4.970007762312889099e-02 -2.957543134689331055e-01 2.872547209262847900e-01 4.289542436599731445e-01 -2.354566752910614014e-02 -5.084686875343322754e-01 1.185669228434562683e-01 4.529375553131103516e+00 -1.124837398529052734e-01 -4.734497070312500000e-01 7.770105600357055664e-01 4.432789981365203857e-02 -4.175193980336189270e-02 -4.185701906681060791e-02 -9.278114438056945801e-01 -1.278048753738403320e-02 2.610522508621215820e+00
6.161219477653503418e-01 4.478779733180999756e-01 3.572571873664855957e-01 -4.352656602859497070e-01 4.871465265750885010e-01 -4.989328086376190186e-01 -8.682989478111267090e-01 -2.353974245488643646e-02 8.524780869483947754e-01 -7.540128380060195923e-02 1.125975772738456726e-01 -2.402088940143585205e-01 -6.102459430694580078e-01 -4.736421108245849609e-01 -6.810318827629089355e-01 -1.008271872997283936e-01 -7.146199941635131836e-01 -4.367431998252868652e-01 1.896500140428543091e-01 1.386135935783386230e+00 -4.352687001228332520e-01 -1.363362312316894531e+00 1.927598565816879272e-01 1.411069989204406738e+00 -5.240430831909179688e-01 -3.689198493957519531e-01 1.594413071870803833e-01 -3.421609699726104736e-01 -5.024573206901550293e-01 -3.150606751441955566e-01
2.407320261001586914e+00 5.984603166580200195e-01 7.974870800971984863e-01 -5.519924759864807129e-01 -6.669257283210754395e-01 -3.882382512092590332e-01 -2.348011136054992676e-01 -1.077045453712344170e-03 4.276747405529022217e-01 3.453231453895568848e-01 9.952440857887268066e-02 -7.337011396884918213e-02 4.520458877086639404e-01 9.392942488193511963e-02 -2.454830855131149292e-01 -2.241444587707519531e-01 -3.141788244247436523e-01 -1.025228500366210938e-01 -1.111929774284362793e+00 1.252069950103759766e+00 -7.901811599731445312e-01 -1.223886609077453613e+00 -1.113307833671569824e+00 2.209928750991821289e+00 1.427534781396389008e-02 3.553819060325622559e-01 -4.061143398284912109e-01 -2.751472890377044678e-01 -2.624087929725646973e-01 5.147433280944824219e-01
-2.842830896377563477e+00 1.436138749122619629e-01 1.163018420338630676e-01 -4.742467105388641357e-01 1.705313920974731445e+00 1.596342325210571289e-01 1.014099866151809692e-01 2.172392904758453369e-01 -3.429809510707855225e-01 2.865265607833862305e-01 6.848637759685516357e-02 1.929280757904052734e-01 -1.772205591201782227e+00 -8.769598603248596191e-01 -1.305630803108215332e+00 1.092673093080520630e-02 2.436289563775062561e-02 -1.977210640907287598e-01 -1.513670384883880615e-01 2.131933420896530151e-01 1.781682483851909637e-02 -1.763674318790435791e-01 -1.721593439579010010e-01 1.884481549263000488e+00 1.226430609822273254e-01 5.792092680931091309e-01 3.624764978885650635e-01 5.789213776588439941e-01 -3.599847555160522461e-01 1.493785530328750610e-01
-1.206575334072113037e-01 5.537216067314147949e-01 4.580961465835571289e-01 2.777796685695648193e-01 4.171181321144104004e-01 -7.975838184356689453e-01 3.531587421894073486e-01 -5.166918039321899414e-01 5.818711519241333008e-01 -1.790213584899902344e-01 3.868289887905120850e-01 -4.759306013584136963e-01 -8.298180252313613892e-02 3.825679719448089600e-01 -2.423202246427536011e-01 -5.437760055065155029e-02 -6.332135796546936035e-01 2.177383601665496826e-01 6.589003205299377441e-01 6.661193072795867920e-02 -3.801942110061645508e+00 -8.014588616788387299e-03 6.732000708580017090e-01 -2.595266819000244141e+00 -2.071775197982788086e+00 -5.695039033889770508e-02 -3.772181570529937744e-01 7.491379380226135254e-01 -1.195324897766113281e+00 -2.305258996784687042e-02
1.258202940225601196e-01 3.057414591312408447e-01 4.380581676959991455e-01 -2.011387646198272705e-01 -2.565007507801055908e-01 -1.401457488536834717e-01 1.192788958549499512e+00 -3.023672699928283691e-01 -6.841626763343811035e-01 2.380212843418121338e-01 -5.100115388631820679e-02 -2.144383937120437622e-01 -9.221721887588500977e-01 2.480641305446624756e-01 5.845470428466796875e-01 -5.706184506416320801e-01 -9.639994800090789795e-02 3.764623105525970459e-01 1.027526736259460449e+00 1.706479310989379883e+00 -2.346148729324340820e+00 -1.730710506439208984e+00 1.017426013946533203e+00 -1.061212539672851562e+00 5.622417926788330078e-01 3.799428343772888184e-01 -2.113228738307952881e-01 -3.782451748847961426e-01 1.835950165987014771e-01 2.679104089736938477e+00
-1.201502323150634766e+00 -9.720938801765441895e-01 3.369798362255096436e-01 -1.547440290451049805e-01 9.397099018096923828e-01 -2.876918017864227295e-01 -5.416727662086486816e-01 9.677118062973022461e-01 5.725447535514831543e-01 -2.367171049118041992e-01 4.252320230007171631e-01 3.140001296997070312e-01 6.832869052886962891e-01 -1.003310322761535645e+00 -1.935843348503112793e+00 9.029741287231445312e-01 -3.020648360252380371e-01 -3.098324239253997803e-01 1.346925020217895508e+00 2.831470251083374023e+00 2.811903357505798340e-01 -2.848773717880249023e+00 1.323302268981933594e+00 4.017042160034179688e+00 -6.042081713676452637e-01 8.090973496437072754e-01 8.028776198625564575e-02 -4.723253846168518066e-01 -5.721728801727294922e-01 -1.314671993255615234e+00
4.823153093457221985e-02 -5.195518136024475098e-01 1.511483173817396164e-02 -6.980329751968383789e-01 -4.901283085346221924e-01 3.276938199996948242e-01 6.364073753356933594e-01 7.127727568149566650e-02 4.967485368251800537e-01 -5.229009389877319336e-01 -9.175734221935272217e-02 -2.389812469482421875e-01 -4.808501899242401123e-01 -5.546379089355468750e-01 -2.889814376831054688e-01 -1.574665866792201996e-02 -9.284187108278274536e-02 7.839272171258926392e-02 3.163915574550628662e-01 -4.413005411624908447e-01 -1.725777149200439453e+00 3.727608323097229004e-01 3.070560991764068604e-01 1.802696466445922852e+00 -2.704714424908161163e-02 6.115401387214660645e-01 1.974321901798248291e-01 2.492840588092803955e-01 -2.985228002071380615e-01 -9.760243296623229980e-01
7.468010187149047852e-01 -3.882054984569549561e-01 -5.462043881416320801e-01 -1.032959669828414917e-01 -5.671206116676330566e-01 -1.244001183658838272e-02 4.152977168560028076e-01 -5.911460518836975098e-01 1.306781917810440063e-01 9.568008780479431152e-02 -4.185766354203224182e-02 -4.381964206695556641e-01 -1.071214437484741211e+00 1.044107824563980103e-01 4.922684133052825928e-01 6.127932071685791016e-01 1.436130106449127197e-01 1.909657865762710571e-01 4.774034023284912109e-01 5.240048766136169434e-01 1.693680644035339355e+00 -5.837695002555847168e-01 4.497341215610504150e-01 -2.253393888473510742e+00 2.278002351522445679e-02 -5.841761827468872070e-01 -2.529690600931644440e-02 1.007619142532348633e+00 3.766662180423736572e-01 8.579505085945129395e-01
6.896225214004516602e-01 -5.359496474266052246e-01 -2.434069812297821045e-01 2.014850676059722900e-01 -3.677420318126678467e-02 4.754295051097869873e-01 1.896529644727706909e-01 3.674191236495971680e-01 8.115516602993011475e-02 -1.696573346853256226e-01 -2.857948839664459229e-01 4.624160379171371460e-02 5.574077367782592773e-01 -6.376575231552124023e-01 -4.740429520606994629e-01 -3.477895259857177734e-01 -1.698360890150070190e-01 6.320023536682128906e-02 -2.522821724414825439e-01 1.593936324119567871e+00 3.905882239341735840e-01 -1.588397264480590820e+00 -2.386575043201446533e-01 3.730498790740966797e+00 6.914563179016113281e-01 5.942461490631103516e-01 1.384228765964508057e-01 -4.461654424667358398e-01 3.580147624015808105e-01 2.089954018592834473e-01
-6.516763567924499512e-01 1.121056437492370605e+00 1.946617066860198975e-01 3.361290097236633301e-01 6.374140381813049316e-01 -5.434297919273376465e-01 -3.711621165275573730e-01 -7.122238278388977051e-01 -1.236080452799797058e-01 2.768980264663696289e-01 3.922291398048400879e-01 -5.215867608785629272e-02 -1.187181949615478516e+00 5.031149387359619141e-01 -1.879381574690341949e-02 -1.012087106704711914e+00 -2.677362263202667236e-01 2.405036538839340210e-01 4.011770188808441162e-01 -1.430600881576538086e-01 -2.999752759933471680e+00 9.048139303922653198e-02 3.537895083427429199e-01 7.234854251146316528e-02 -1.027674674987792969e+00 -1.969006508588790894e-01 -3.632743656635284424e-01 1.333704829216003418e+00 -1.885575532913208008e+00 3.969394564628601074e-01
-2.231533527374267578e+00 2.972195446491241455e-01 -7.558322548866271973e-01 -3.437531888484954834e-01 1.157748177647590637e-01 1.178954362869262695e+00 -3.044449687004089355e-01 -6.926535815000534058e-02 -1.306230902671813965e+00 6.478118896484375000e-01 -7.596821337938308716e-02 3.044037818908691406e-01 1.800560355186462402e-01 5.205397605895996094e-01 1.323100686073303223e+00 1.083284765481948853e-01 6.242479085922241211e-01 -3.869669437408447266e-01 -9.277938008308410645e-01 -2.031435489654541016e+00 4.554112434387207031e+00 2.068615198135375977e+00 -9.146785140037536621e-01 -3.200337171554565430e+00 4.170448184013366699e-01 -6.001837253570556641e-01 4.515064060688018799e-01 8.783566355705261230e-01 1.541070818901062012e+00 -2.089580297470092773e+00
9.395173788070678711e-01 4.919312894344329834e-01 1.199319288134574890e-01 -5.243728309869766235e-02 1.216514110565185547e+00 -5.300291776657104492e-01 9.091747403144836426e-01 -3.843679428100585938e-01 -8.717281222343444824e-01 -1.820859163999557495e-01 -1.885124742984771729e-01 1.853368133306503296e-01 -4.079696238040924072e-01 -9.364184807054698467e-04 2.159976363182067871e-01 -3.038276731967926025e-01 -7.556424289941787720e-02 2.856298983097076416e-01 2.297555208206176758e+00 -1.395044326782226562e+00 -5.046015977859497070e-01 1.382971525192260742e+00 2.331219434738159180e+00 -3.499214053153991699e-01 3.654384985566139221e-02 5.104925632476806641e-01 3.845065832138061523e-02 -1.120358780026435852e-01 -1.902712881565093994e-01 1.527604222297668457e+00
1.227848052978515625e+00 4.272176325321197510e-01 9.247750043869018555e-02 2.416263073682785034e-01 -1.440789848566055298e-01 2.278879731893539429e-01 4.305132627487182617e-01 -1.362060457468032837e-01 -1.456737637519836426e+00 8.342657238245010376e-02 2.429403513669967651e-01 -1.058952044695615768e-02 -2.814071476459503174e-01 7.792224884033203125e-01 6.402207612991333008e-01 -3.491615355014801025e-01 1.550115048885345459e-01 3.497787564992904663e-02 -7.082039862871170044e-02 1.301433205604553223e+00 1.139439225196838379e+00 -1.331903815269470215e+00 -9.146132320165634155e-02 -1.203984737396240234e+00 4.300783872604370117e-01 -1.846059858798980713e-01 -3.774945139884948730e-01 -6.362117528915405273e-01 1.180813789367675781e+00 2.661915302276611328e+00
-6.883849501609802246e-01 1.204667568206787109e+00 2.221605479717254639e-01 -4.017718732357025146e-01 1.184933543205261230e+00 -3.223243951797485352e-01 6.415189802646636963e-02 -3.732850030064582825e-02 -3.250243067741394043e-01 -5.513458163477480412e-04 -6.545926630496978760e-02 -4.371492937207221985e-02 3.044587671756744385e-01 -9.378261864185333252e-02 1.361356019973754883e+00 -5.064942240715026855e-01 -2.952226400375366211e-01 -1.791204810142517090e-01 5.543480515480041504e-01 -1.404681086540222168e+00 5.129856467247009277e-01 1.435078144073486328e+00 5.632873177528381348e-01 -1.659387588500976562e+00 -2.330062389373779297e-01 -2.117562890052795410e-01 1.091755703091621399e-01 4.886840581893920898e-01 -1.609598398208618164e-01 -1.658781647682189941e+00
-1.526685833930969238e+00 -6.340642571449279785e-01 1.820267736911773682e-01 5.901768803596496582e-03 5.729695558547973633e-01 -2.280332893133163452e-01 2.603693865239620209e-02 6.590567827224731445e-01 1.275834083557128906e+00 -2.500537633895874023e-01 -1.140422746539115906e-01 3.468777835369110107e-01 5.279424190521240234e-01 -8.466212749481201172e-01 -1.304987668991088867e+00 -5.394428968429565430e-01 -3.866454958915710449e-01 -1.856169402599334717e-01 -7.977327108383178711e-01 1.812394261360168457e+00 -3.050112724304199219e+00 -1.768157601356506348e+00 -7.761100530624389648e-01 4.475228309631347656e+00 -2.742699682712554932e-01 2.617426514625549316e-01 3.460279703140258789e-01 7.645512372255325317e-02 -1.116503596305847168e+00 -1.296811342239379883e+00
8.027551770210266113e-01 -9.040273725986480713e-03 7.266100496053695679e-02 -8.741464465856552124e-02 -2.467739880084991455e-01 -1.962067335844039917e-01 5.151427984237670898e-01 -6.597264111042022705e-02 4.693740010261535645e-01 9.851432591676712036e-02 4.268759787082672119e-01 3.567571043968200684e-01 -1.308565378189086914e+00 1.541486978530883789e-01 -7.204639911651611328e-01 -3.939293622970581055e-01 -5.594135522842407227e-01 1.729610413312911987e-01 8.969868533313274384e-03 1.258253693580627441e+00 -3.403486967086791992e+00 -1.257387518882751465e+00 1.423227693885564804e-02 2.571389436721801758e+00 -8.607411384582519531e-01 1.461346447467803955e-01 -3.625817894935607910e-01 2.767045199871063232e-01 -1.712014198303222656e+00 1.869766473770141602e+00
-5.466078519821166992e-01 -8.762083202600479126e-02 4.915136396884918213e-01 6.969456076622009277e-01 -2.345319539308547974e-01 1.092021353542804718e-02 -1.642783880233764648e+00 -1.648046076297760010e-02 -5.812179669737815857e-02 -6.043333560228347778e-02 2.880536615848541260e-01 -9.938360750675201416e-02 -1.321735382080078125e-01 -2.265940308570861816e-01 1.649984419345855713e-01 -5.735016465187072754e-01 -2.676205635070800781e-01 1.308710277080535889e-01 2.176358222961425781e+00 -4.182820320129394531e-01 -2.288998126983642578e+00 4.189566969871520996e-01 2.203687906265258789e+00 -5.513340234756469727e-02 -6.980621814727783203e-01 2.115532159805297852e-01 -1.039344072341918945e-01 -1.878507137298583984e-01 -5.290499925613403320e-01 -2.520050048828125000e+00
2.373225927352905273e+00 1.137241274118423462e-01 -9.341791272163391113e-02 3.406680226325988770e-01 -1.094878435134887695e+00 -2.526459395885467529e-01 -7.752876281738281250e-01 2.091354429721832275e-01 -2.266860157251358032e-01 -1.631108522415161133e-01 -5.413736402988433838e-02 -1.026132106781005859e-01 -1.132498234510421753e-01 -1.168121621012687683e-01 2.338915467262268066e-01 -3.238602876663208008e-01 1.289948225021362305e-01 3.921712636947631836e-01 1.321794748306274414e+00 -6.839173436164855957e-01 7.018591761589050293e-01 6.438763141632080078e-01 1.275779843330383301e+00 1.925159692764282227e+00 9.003422409296035767e-02 8.435826897621154785e-01 -7.631164044141769409e-02 -1.048189282417297363e+00 -1.417424380779266357e-01 2.869560420513153076e-01
8.677768111228942871e-01 8.328254818916320801e-01 -8.376010507345199585e-02 8.126770257949829102e-01 3.859170973300933838e-01 3.283100724220275879e-01 -1.008029460906982422e+00 -4.818593561649322510e-01 -4.492869973182678223e-01 2.822730243206024170e-01 2.489576935768127441e-01 -7.801081240177154541e-02 -1.706662535667419434e+00 4.192289113998413086e-01 -6.247417926788330078e-01 -5.526565313339233398e-01 -1.984115988016128540e-01 2.653650343418121338e-01 -1.022815227508544922e+00 1.458865523338317871e+00 -3.095716953277587891e+00 -1.431943774223327637e+00 -1.053736925125122070e+00 -1.952888011932373047e+00 1.737166643142700195e-01 9.461930394172668457e-01 1.988624334335327148e-01 2.020050734281539917e-01 -7.492985725402832031e-01 -5.223543643951416016e-01
5.187214016914367676e-01 -1.672492027282714844e-01 -1.130029633641242981e-01 -9.997031092643737793e-02 -1.033006429672241211e+00 -8.428534865379333496e-01 1.265368819236755371e+00 5.496149063110351562e-01 -8.613528013229370117e-01 3.645030260086059570e-01 -1.190535500645637512e-01 -9.112551808357238770e-02 3.992955684661865234e+00 6.497638821601867676e-01 8.977468609809875488e-01 -2.788764238357543945e-01 -2.069866284728050232e-02 2.231287211179733276e-01 1.471940279006958008e+00 -1.418608188629150391e+00 2.470112800598144531e+00 1.490082621574401855e+00 1.472641468048095703e+00 7.015984654426574707e-01 3.766701221466064453e-01 4.623136222362518311e-01 -5.117517709732055664e-01 -6.033121943473815918e-01 1.187069773674011230e+00 1.185968995094299316e+00
-7.181682437658309937e-02 -5.297186374664306641e-01 1.670968085527420044e-01 8.043953776359558105e-01 -1.185567378997802734e+00 7.584574073553085327e-02 -6.222583353519439697e-03 -2.272890806198120117e-01 -2.128420174121856689e-01 -4.379612207412719727e-02 -2.668514847755432129e-01 -3.554986091330647469e-03 1.717875599861145020e+00 3.401533663272857666e-01 4.321874976158142090e-01 1.021481007337570190e-01 9.483843445777893066e-01 2.521789371967315674e-01 -1.718415260314941406e+00 -8.034539222717285156e-01 5.500216484069824219e-01 7.866964340209960938e-01 -1.736806631088256836e+00 -1.791672587394714355e+00 1.043379656039178371e-03 -3.012296259403228760e-01 -4.023491144180297852e-01 3.750167787075042725e-01 9.918512403964996338e-02 -8.675913214683532715e-01
-1.816048979759216309e+00 -6.059192419052124023e-01 3.047897219657897949e-01 3.935522139072418213e-01 -1.571224033832550049e-01 7.985185086727142334e-02 5.192385911941528320e-01 8.496046662330627441e-01 -4.930077493190765381e-01 -4.400225877761840820e-01 1.788888312876224518e-02 1.334575712680816650e-01 7.893671393394470215e-01 -7.016806602478027344e-01 -1.165934562683105469e+00 -1.221797317266464233e-01 -1.995207518339157104e-01 4.554267972707748413e-02 5.812416076660156250e-01 1.472748279571533203e+00 -8.495852351188659668e-01 -1.397716522216796875e+00 5.858531594276428223e-01 2.804625034332275391e+00 6.380413770675659180e-01 7.538838386535644531e-01 -1.382733583450317383e-01 -1.222141265869140625e+00 7.314993739128112793e-01 1.432135581970214844e+00
1.644011139869689941e+00 5.889945030212402344e-01 1.580877751111984253e-01 1.419698894023895264e-01 -1.627177000045776367e-01 -8.109625577926635742e-01 1.155446767807006836e+00 -5.560438632965087891e-01 -3.211238086223602295e-01 1.367588490247726440e-01 1.138906925916671753e-01 1.254941523075103760e-01 1.784663796424865723e+00 1.273807525634765625e+00 3.149309456348419189e-01 -1.563134342432022095e-01 -3.399633467197418213e-01 -5.934309586882591248e-02 -1.418706655502319336e+00 5.365695953369140625e-01 -3.054137706756591797e+00 -5.553841590881347656e-01 -1.384010314941406250e+00 -1.938754558563232422e+00 2.326408177614212036e-01 -2.886651456356048584e-01 -1.503241062164306641e-01 -1.283475160598754883e-01 -5.631757974624633789e-01 2.568165063858032227e+00
3.723945021629333496e-01 -4.408155977725982666e-01 -4.933164715766906738e-01 -1.914879381656646729e-01 -1.544317483901977539e+00 6.812223792076110840e-01 2.185768932104110718e-01 -3.274730220437049866e-02 2.945131659507751465e-01 -4.271417558193206787e-01 -3.818143606185913086e-01 -4.182869940996170044e-02 -1.558059304952621460e-01 2.515656948089599609e-01 -4.738339483737945557e-01 3.973972201347351074e-01 8.470493555068969727e-01 6.862308830022811890e-02 1.713919490575790405e-01 8.147420883178710938e-01 6.366388797760009766e-01 -7.589855194091796875e-01 1.353941559791564941e-01 1.107905134558677673e-01 1.506947040557861328e+00 5.303679704666137695e-01 5.636321902275085449e-01 -7.293946146965026855e-01 6.631609797477722168e-01 1.366828560829162598e+00
8.400744795799255371e-01 -9.611061215400695801e-01 1.933438032865524292e-01 3.412451148033142090e-01 1.122768640518188477e+00 -4.549775272607803345e-02 7.775484919548034668e-01 3.550966978073120117e-01 2.358312159776687622e-01 -4.041090309619903564e-01 -2.237222641706466675e-01 6.566698849201202393e-02 -2.223387241363525391e+00 -1.111667275428771973e+00 -2.572325706481933594e+00 -1.951039396226406097e-02 3.083208799362182617e-01 9.224471449851989746e-02 -5.994058847427368164e-01 -9.609528183937072754e-01 -1.124156832695007324e+00 9.453122019767761230e-01 -6.145713329315185547e-01 4.865392208099365234e+00 5.144216418266296387e-01 1.008870124816894531e+00 7.594812661409378052e-02 -3.140575587749481201e-01 -7.048181891441345215e-01 1.955835938453674316e+00
6.130141615867614746e-01 2.734350264072418213e-01 -3.107345402240753174e-01 -6.392019242048263550e-02 -1.790830641984939575e-01 -4.507542848587036133e-01 7.831617444753646851e-02 -4.192642495036125183e-02 -7.239758968353271484e-02 2.574216723442077637e-01 -3.727301210165023804e-02 -1.328637301921844482e-01 -2.535205185413360596e-01 4.551859200000762939e-02 -2.313439846038818359e-01 -6.793154478073120117e-01 -1.432940065860748291e-01 2.561962306499481201e-01 -2.384134531021118164e+00 2.538486480712890625e+00 -2.014349699020385742e+00 -2.585870742797851562e+00 -2.405700683593750000e+00 6.796541213989257812e-01 3.928497135639190674e-01 6.015697717666625977e-01 -5.078624933958053589e-02 4.102500081062316895e-01 -1.273438036441802979e-01 8.266489505767822266e-01
9.287999272346496582e-01 9.369672536849975586e-01 2.222783863544464111e-01 -7.884936034679412842e-02 1.135456919670104980e+00 4.308167845010757446e-02 1.886067390441894531e-01 -2.068078219890594482e-01 -6.224793791770935059e-01 4.515614807605743408e-01 1.459363251924514771e-01 2.258160561323165894e-01 -8.520437031984329224e-02 2.000640928745269775e-01 -9.857400506734848022e-02 -1.293772906064987183e-01 5.018412601202726364e-03 -4.902632236480712891e-01 6.857569217681884766e-01 6.222550272941589355e-01 6.275048851966857910e-01 -5.990175008773803711e-01 6.701698303222656250e-01 -2.373505115509033203e+00 -3.717569112777709961e-01 -2.089663296937942505e-01 1.140272915363311768e-01 1.711755394935607910e-01 -2.310046553611755371e-01 8.820483088493347168e-01
-4.996757984161376953e+00 4.364040791988372803e-01 5.614153146743774414e-01 6.474360823631286621e-02 4.633691608905792236e-01 -5.096092224121093750e-01 -1.225217580795288086e-01 -6.528090219944715500e-03 7.958459258079528809e-01 -2.306744009256362915e-01 5.774269998073577881e-02 -5.301229357719421387e-01 -4.111608862876892090e-02 -4.340550303459167480e-01 -1.113321661949157715e+00 -2.074051052331924438e-01 -4.815140366554260254e-01 3.149104118347167969e-02 2.773054540157318115e-01 -8.462520688772201538e-02 -2.276946783065795898e+00 1.244849264621734619e-01 2.543245553970336914e-01 1.560829997062683105e+00 -7.128608226776123047e-01 8.205266594886779785e-01 3.442471027374267578e-01 -2.897892594337463379e-01 -7.638058662414550781e-01 1.342640757560729980e+00
-1.909369945526123047e+00 -3.809547722339630127e-01 2.632822655141353607e-02 -1.097696200013160706e-01 6.846971511840820312e-01 5.785436630249023438e-01 9.919919371604919434e-01 5.581369996070861816e-01 4.570858776569366455e-01 6.032363697886466980e-02 -1.171994134783744812e-01 2.219452857971191406e-01 2.503998041152954102e+00 -1.206102743744850159e-01 -1.485996246337890625e+00 2.068333625793457031e-01 -4.261381924152374268e-02 -2.560518085956573486e-01 -2.649156332015991211e+00 3.582461476325988770e-01 -1.196438908576965332e+00 -2.876902222633361816e-01 -2.625755310058593750e+00 7.680505514144897461e-01 2.949381172657012939e-01 2.498708069324493408e-01 2.477794885635375977e-01 -7.048752307891845703e-01 -5.878606438636779785e-01 -1.712086796760559082e-01
-5.330664515495300293e-01 1.583332717418670654e-01 7.257136702537536621e-01 -4.862957298755645752e-01 1.282182335853576660e-01 1.695478260517120361e-01 -1.486360073089599609e+00 8.638360351324081421e-02 1.114156842231750488e+00 -1.405143290758132935e-01 1.655288189649581909e-01 -1.025297716259956360e-01 3.397909998893737793e-01 -2.267120480537414551e-01 -3.630762696266174316e-01 -3.605457544326782227e-01 -3.416054248809814453e-01 -4.319319874048233032e-02 1.912550926208496094e-01 6.130267977714538574e-01 -4.933663606643676758e-01 -6.606684327125549316e-01 2.035552561283111572e-01 3.121284961700439453e+00 -8.747584223747253418e-01 3.759805560111999512e-01 -2.143003195524215698e-01 -4.119772315025329590e-01 -6.718379259109497070e-01 -2.350950479507446289e+00
-1.473689079284667969e+00 -2.577072381973266602e-01 -3.036857247352600098e-01 8.164607733488082886e-02 -9.058946967124938965e-01 5.052599310874938965e-01 -5.199406743049621582e-01 1.803964376449584961e-02 -2.145214825868606567e-01 -1.363521218299865723e-01 -1.113021224737167358e-01 1.780347824096679688e-01 2.394604682922363281e+00 1.586516797542572021e-01 8.143635988235473633e-01 -5.333324670791625977e-01 1.010210067033767700e-01 5.255821719765663147e-02 -2.248409032821655273e+00 -1.854128092527389526e-01 -8.993643522262573242e-01 2.552508115768432617e-01 -2.233525753021240234e+00 -8.704757690429687500e-01 3.649857640266418457e-02 -1.225266233086585999e-01 2.000273019075393677e-01 8.406508564949035645e-01 3.896260559558868408e-01 -3.947150230407714844e+00
5.067700147628784180e-02 2.079242467880249023e-01 -2.094576060771942139e-01 -3.620217740535736084e-01 -6.031293869018554688e-01 7.718200087547302246e-01 7.944192886352539062e-01 2.692326605319976807e-01 -2.625384032726287842e-01 3.502130806446075439e-01 -2.001134864985942841e-02 -2.964899241924285889e-01 -1.755316257476806641e+00 -3.811703920364379883e-01 1.016611218452453613e+00 -1.570091843605041504e-01 1.231271475553512573e-01 3.278275728225708008e-01 1.469506859779357910e+00 -7.268536090850830078e-01 3.327695369720458984e+00 7.259303331375122070e-01 1.502585887908935547e+00 -7.965852618217468262e-01 1.408789873123168945e+00 1.248023286461830139e-01 6.160020828247070312e-01 6.687974929809570312e-02 1.635418295860290527e+00 2.551001548767089844e+00
-1.436411142349243164e+00 6.586882518604397774e-04 1.365313649177551270e+00 1.903011053800582886e-01 1.412575125694274902e+00 -6.380865573883056641e-01 -8.642428368330001831e-02 3.198955953121185303e-01 1.019271016120910645e+00 -3.477744758129119873e-01 2.682218551635742188e-01 -2.878574654459953308e-02 -1.248462080955505371e+00 -7.636649012565612793e-01 -2.066152095794677734e+00 -3.253675699234008789e-01 -7.236591577529907227e-01 1.553430706262588501e-01 1.435081362724304199e+00 1.000276803970336914e+00 -2.859038352966308594e+00 -9.767263531684875488e-01 1.451211333274841309e+00 3.548026084899902344e+00 -1.508655399084091187e-01 7.367917299270629883e-01 -5.951089262962341309e-01 -1.152509570121765137e+00 -1.599078297615051270e+00 1.744214177131652832e+00
-1.832438468933105469e+00 -6.545563340187072754e-01 1.348973512649536133e-01 2.472922950983047485e-01 4.379518628120422363e-01 -5.925178527832031250e-01 9.066409617662429810e-02 7.355032563209533691e-01 -2.784923017024993896e-01 9.767431020736694336e-02 1.083323210477828979e-01 3.729947507381439209e-01 -5.282958745956420898e-01 -3.211378157138824463e-01 -6.119073033332824707e-01 -4.297906458377838135e-01 -2.358039170503616333e-01 -7.843913137912750244e-02 -6.315167546272277832e-01 -2.235608339309692383e+00 2.568314783275127411e-02 2.236208200454711914e+00 -6.189573407173156738e-01 2.485312700271606445e+00 4.185819625854492188e-01 5.315943956375122070e-01 -5.919104814529418945e-01 -1.814119666814804077e-01 3.463892340660095215e-01 7.863684892654418945e-01
-1.508628010749816895e+00 -2.779724299907684326e-01 1.564978808164596558e-01 4.220643341541290283e-01 -9.554651379585266113e-01 -1.092831045389175415e-01 4.983529075980186462e-02 6.925538182258605957e-01 -7.743778824806213379e-02 -5.286383628845214844e-01 9.518814831972122192e-02 1.552927196025848389e-01 1.642373800277709961e+00 -1.637858748435974121e-01 -2.181666791439056396e-01 -5.299305319786071777e-01 -2.243433296680450439e-01 3.298719227313995361e-01 -1.074055731296539307e-01 -1.487228393554687500e+00 -9.001885056495666504e-01 1.568304538726806641e+00 -1.066612601280212402e-01 9.890364408493041992e-01 -2.491831928491592407e-01 3.798533678054809570e-01 1.463283151388168335e-01 -3.971764147281646729e-01 4.616807103157043457e-01 -1.673133254051208496e+00
-1.284114360809326172e+00 3.304035067558288574e-01 -5.493653565645217896e-02 -1.253110468387603760e-01 2.185843698680400848e-02 4.211365580558776855e-01 6.128284931182861328e-01 1.400071680545806885e-01 -7.731532454490661621e-01 -4.873324036598205566e-01 -2.120355814695358276e-01 2.518838346004486084e-01 -9.664020538330078125e-01 1.483526825904846191e-01 5.064469575881958008e-01 -5.424425601959228516e-01 8.977922797203063965e-02 -1.357125639915466309e-01 -1.880646944046020508e-01 3.847935050725936890e-02 1.427156329154968262e+00 -2.751501463353633881e-02 -1.882071942090988159e-01 8.599442243576049805e-01 1.283344030380249023e+00 5.769341066479682922e-02 -2.352877706289291382e-01 -8.977653384208679199e-01 6.757692694664001465e-01 1.864704012870788574e+00
-1.017769455909729004e+00 2.904520928859710693e-01 -5.332236289978027344e-01 -7.879324257373809814e-03 -8.677411079406738281e-01 6.960719823837280273e-01 -1.480795443058013916e-01 -4.287199378013610840e-01 -2.936216294765472412e-01 5.225568413734436035e-01 -1.710257977247238159e-01 1.141775771975517273e-01 -8.410720825195312500e-01 1.756594926118850708e-01 1.730489492416381836e+00 7.898676991462707520e-01 1.848379969596862793e-01 9.983263164758682251e-02 -8.183575272560119629e-01 -4.408949613571166992e-01 3.522238969802856445e+00 5.192441940307617188e-01 -8.325067162513732910e-01 -4.137964248657226562e+00 8.326713740825653076e-02 -5.069690942764282227e-01 5.079911947250366211e-01 7.860003709793090820e-01 6.978215575218200684e-01 -1.060829162597656250e+00
-2.917047262191772461e+00 -2.690714597702026367e-01 -1.546759009361267090e-01 -2.460962682962417603e-01 -1.161137893795967102e-01 5.280306339263916016e-01 1.508438289165496826e-01 1.234485134482383728e-01 4.587870836257934570e-01 -4.905395209789276123e-02 3.434102283790707588e-03 3.501397073268890381e-01 5.714115500450134277e-01 -1.450069993734359741e-01 -3.354589343070983887e-01 -2.404464334249496460e-01 -2.903048694133758545e-01 -4.464814066886901855e-01 -9.178905934095382690e-02 2.107794135808944702e-01 -1.743084311485290527e+00 -2.266276627779006958e-01 -6.094937026500701904e-02 -2.024007439613342285e-01 3.950999975204467773e-01 -3.264356553554534912e-01 5.841861367225646973e-01 3.964764475822448730e-01 -5.084814429283142090e-01 -1.336221814155578613e+00
-1.778390645980834961e+00 2.598869502544403076e-01 3.532507717609405518e-01 -5.907221436500549316e-01 -5.973737835884094238e-01 -2.301083058118820190e-01 1.232303380966186523e+00 -5.250354409217834473e-01 -2.102349102497100830e-01 -2.313968241214752197e-01 -4.556956887245178223e-02 -2.172973752021789551e-01 -3.567390739917755127e-01 -4.579687714576721191e-01 1.193539261817932129e+00 6.415038704872131348e-01 1.777150779962539673e-01 3.352161347866058350e-01 2.052478641271591187e-01 -5.661198869347572327e-02 1.508617758750915527e+00 8.201181143522262573e-02 1.771284043788909912e-01 -3.812790811061859131e-01 -5.243795514106750488e-01 -1.516891717910766602e-01 4.604322612285614014e-01 1.008221983909606934e+00 -3.509934246540069580e-01 1.131924748420715332e+00
-2.468569278717041016e+00 3.118080198764801025e-01 1.691921502351760864e-01 -9.752242565155029297e-01 -4.572463408112525940e-02 6.912907212972640991e-02 1.025958061218261719e+00 3.906819224357604980e-01 -5.568684339523315430e-01 -1.975800096988677979e-01 -4.942209646105766296e-02 -1.940450221300125122e-01 5.095702648162841797e+00 -1.396627724170684814e-01 -1.759165227413177490e-01 -3.618750572204589844e-01 -1.895622760057449341e-01 -1.872391700744628906e-01 3.698652684688568115e-01 1.405824661254882812e+00 -1.717260122299194336e+00 -1.457798361778259277e+00 3.458070158958435059e-01 1.238541007041931152e-01 -1.459417194128036499e-01 9.846304059028625488e-01 -1.756411045789718628e-02 -8.229463100433349609e-01 -2.612830102443695068e-01 -6.572021842002868652e-01
1.246021509170532227e+00 -5.252860784530639648e-01 -5.589336752891540527e-01 2.988326828926801682e-03 -7.032123208045959473e-01 1.329237222671508789e-01 1.119768843054771423e-01 1.938970088958740234e-01 2.432282418012619019e-01 -2.214175462722778320e-01 -5.733901858329772949e-01 -4.473587125539779663e-02 -2.114761024713516235e-01 3.129389584064483643e-01 -1.053334474563598633e-01 4.108976125717163086e-01 4.431545138359069824e-01 -3.493894934654235840e-01 8.946890234947204590e-01 -2.627855062484741211e+00 -1.272721439599990845e-01 2.678291320800781250e+00 8.934064507484436035e-01 -4.487185776233673096e-01 9.127793312072753906e-01 -9.724946320056915283e-02 6.381541490554809570e-01 -9.237579703330993652e-01 8.759214878082275391e-01 -8.734992146492004395e-01
-1.584015727043151855e+00 -2.459525465965270996e-01 -5.037574172019958496e-01 1.422922220081090927e-02 -2.011912167072296143e-01 1.499664783477783203e-01 -5.216469168663024902e-01 4.900100231170654297e-01 -1.136368066072463989e-01 1.683553755283355713e-01 1.258268952369689941e-01 -1.564057469367980957e-01 -8.499170541763305664e-01 -7.425872087478637695e-01 -1.227606296539306641e+00 -2.950293123722076416e-01 -2.128228545188903809e-01 -2.495261728763580322e-01 1.229654550552368164e+00 -6.975324153900146484e-01 -2.931201219558715820e+00 7.035430073738098145e-01 1.216068744659423828e+00 -1.063002705574035645e+00 5.954809784889221191e-01 7.176721096038818359e-01 3.061506748199462891e-01 -5.305680632591247559e-01 -3.927403688430786133e-01 2.200393974781036377e-01
-2.573090314865112305e+00 1.338426351547241211e+00 5.066897273063659668e-01 -7.960740476846694946e-03 4.435970187187194824e-01 -2.853667736053466797e-01 8.017044663429260254e-01 -2.246512919664382935e-01 -4.040854275226593018e-01 3.392334878444671631e-01 1.076213195919990540e-01 -2.607400119304656982e-01 -7.872347831726074219e-01 3.476238846778869629e-01 6.180179715156555176e-01 -5.076082944869995117e-01 -4.085877537727355957e-01 2.951580099761486053e-02 -1.264045357704162598e+00 2.073487043380737305e+00 -1.560422062873840332e+00 -2.077625274658203125e+00 -1.235455036163330078e+00 -9.995928406715393066e-01 -6.547331213951110840e-01 -7.915953546762466431e-02 -1.211828514933586121e-01 6.703631281852722168e-01 -3.904915153980255127e-01 5.681280493736267090e-01
5.234128236770629883e-02 -6.504325866699218750e-01 4.881853610277175903e-02 1.634134352207183838e-01 7.356976866722106934e-01 8.760693669319152832e-02 3.331021070480346680e-01 8.425872325897216797e-01 -2.633841633796691895e-01 -1.625681370496749878e-01 -1.024788394570350647e-01 5.222046375274658203e-01 5.255621671676635742e-01 -5.770017504692077637e-01 -7.603312134742736816e-01 -2.483677119016647339e-01 -2.383932471275329590e-02 -9.805732965469360352e-02 -1.896043419837951660e+00 1.431910634040832520e+00 -3.778167068958282471e-01 -1.525090932846069336e+00 -1.939175724983215332e+00 2.846955776214599609e+00 8.670547008514404297e-01 7.145897746086120605e-01 -1.011922508478164673e-01 -4.979542791843414307e-01 6.293761730194091797e-01 -1.338213216513395309e-02
3.126263618469238281e+00 -4.201237559318542480e-01 4.054774641990661621e-01 1.508994847536087036e-01 4.855102300643920898e-01 -2.659754157066345215e-01 -2.961938381195068359e-01 5.326558947563171387e-01 -1.125035047531127930e+00 3.639062345027923584e-01 -8.514375984668731689e-02 1.523033995181322098e-02 1.298381328582763672e+00 -8.569604158401489258e-01 -1.070482134819030762e+00 -3.711338043212890625e-01 6.785631179809570312e-02 -4.361307621002197266e-02 -6.320190429687500000e-01 -3.057879507541656494e-01 3.527783155441284180e+00 2.816219329833984375e-01 -6.722431778907775879e-01 4.009247779846191406e+00 2.145461365580558777e-02 8.967093825340270996e-01 -1.242815479636192322e-01 -1.242480039596557617e+00 6.781113147735595703e-01 5.829430222511291504e-01
-5.497236847877502441e-01 9.128699451684951782e-02 1.815419048070907593e-01 -5.907890200614929199e-02 -1.244922354817390442e-01 -8.982973694801330566e-01 -5.676481500267982483e-02 2.347705066204071045e-01 -1.295547336339950562e-01 1.836528629064559937e-01 -7.426205277442932129e-02 -2.097975611686706543e-01 1.240620613098144531e+00 2.771961390972137451e-01 -3.881150856614112854e-02 -3.261595964431762695e-01 -5.161708220839500427e-02 -5.239151418209075928e-02 2.902049422264099121e-01 4.670478999614715576e-01 9.719554185867309570e-01 -4.098815917968750000e-01 2.760961055755615234e-01 2.618061304092407227e+00 1.053421199321746826e-02 4.973200261592864990e-01 -4.755925536155700684e-01 -5.078081786632537842e-02 6.922964006662368774e-02 -2.603177428245544434e-01
2.765453577041625977e+00 -8.578159213066101074e-01 -7.414466142654418945e-01 -5.498706102371215820e-01 -1.126757025718688965e+00 6.079387068748474121e-01 -3.489116132259368896e-01 9.484868496656417847e-02 5.688303709030151367e-01 1.122504994273185730e-01 -2.358909994363784790e-01 -2.791738808155059814e-01 -2.713879337534308434e-03 -3.209112584590911865e-01 5.545358657836914062e-01 6.801207661628723145e-01 4.283488988876342773e-01 9.742677211761474609e-02 3.667956888675689697e-01 1.572523713111877441e+00 2.752900838851928711e+00 -1.571949839591979980e+00 3.595916032791137695e-01 -1.086052060127258301e+00 -9.521555900573730469e-02 -1.797051876783370972e-01 1.979317069053649902e-01 2.406653612852096558e-01 1.142788052558898926e+00 -1.711312532424926758e+00
8.878320455551147461e-01 5.305067300796508789e-01 -3.990173041820526123e-01 4.323318898677825928e-01 -2.981113793794065714e-04 -1.057015508413314819e-01 -5.149611830711364746e-01 -5.028262138366699219e-01 -6.936546880751848221e-03 3.336938917636871338e-01 1.153986230492591858e-01 2.045755535364151001e-01 4.060623943805694580e-01 5.466215014457702637e-01 -8.749070763587951660e-02 -1.160150840878486633e-01 3.748525977134704590e-01 4.081931114196777344e-01 -1.093506693840026855e+00 1.088094353675842285e+00 2.122791051864624023e+00 -1.091464638710021973e+00 -1.079758286476135254e+00 -1.009996891021728516e+00 -1.138214111328125000e+00 -3.278454542160034180e-01 3.922439515590667725e-01 7.711766958236694336e-01 -7.862226963043212891e-01 -2.140991091728210449e-01
-2.193963241577148438e+01 -1.730331659317016602e+00 -1.162071704864501953e+01 6.001082897186279297e+00 -2.927285003662109375e+01 8.863058090209960938e+00 4.634877204895019531e+00 -3.204412937164306641e+00 8.780103325843811035e-01 3.301688671112060547e+00 -1.644229412078857422e+00 1.752447962760925293e+00 2.427534013986587524e-02 -6.065272688865661621e-01 -4.294920444488525391e+00 -7.771175861358642578e+00 -8.036017417907714844e-01 -2.065659761428833008e+00 -1.382981538772583008e-01 -1.195469975471496582e+00 -2.219923782348632812e+01 1.163256883621215820e+00 -4.778387397527694702e-02 -2.143598365783691406e+01 -2.193290138244628906e+01 1.047970485687255859e+01 -1.343878388404846191e+00 2.296406745910644531e+00 -1.803291702270507812e+01 1.222540760040283203e+01
