-1.201458076138806064e-06
1.678183991771220462e-07
1.112350744847390160e-07
1.166320799939057906e-07
-3.594688280372793088e-08
-9.476569289290637244e-07
-1.333911967549283872e-07
5.887846441510191653e-07
3.360344464908848749e-07
8.744849537833943032e-07
-2.356502051270581433e-07
5.725652272303705104e-07
-8.805637108366681787e-09
-1.243015077534437296e-07
-8.358253467122267466e-08
-1.822482715851947432e-07
-4.665851349727745401e-07
-1.917924521421809914e-07
-1.007251242413076397e-07
-6.402549956874281634e-08
2.079266465671025799e-07
2.497392301847867202e-07
-6.939409900041937362e-07
-3.427949195611290634e-07
3.588154982026026119e-07
6.331536610559851397e-07
-1.542406735666190798e-08
-8.896533643110160483e-08
1.439295544969354523e-07
2.830586076640884130e-08
-1.852024240633909358e-07
4.221592746489477577e-07
3.704048623376365867e-08
-2.323551839822357579e-08
1.510592824160994496e-07
1.415719168562645791e-07
-1.959964279762971273e-08
3.331939169015640800e-08
-6.607068314679054311e-08
2.676061399142781738e-07
6.608346438952139579e-07
-1.223131334882054944e-06
3.918579238870734116e-07
2.843936499630217440e-07
-1.469405077614283073e-07
1.272556549025694039e-08
-5.326273821992799640e-07
-5.363201012187346350e-07
-3.214909440885094227e-07
-1.114481165132019669e-07
4.270165732123132329e-07
-3.176278369210194796e-07
4.465309899615022005e-08
1.857705314023405663e-07
-1.156094882048819272e-07
-6.503104827970673796e-07
-3.317736627650447190e-07
-3.565430688468040898e-07
7.596992190883611329e-07
-2.158659242468274897e-07
-7.254708123127784347e-08
-2.793659348299115663e-07
-4.793106995748530608e-07
-3.663144809706864180e-07
-1.972178580444960971e-07
-3.498394391954207094e-07
-1.526641710825060727e-07
2.449671399062935961e-07
1.213473552752475371e-07
-1.993056457649799995e-07
-4.741977477351611014e-07
2.807577743624278810e-07
1.819926325197229744e-07
8.473863317703944631e-07
9.907761722161012585e-08
7.526830927417904604e-07
-7.338788350352842826e-07
4.481216819840483367e-07
-1.278237533597348374e-07
5.476537978665874107e-08
-1.436171004343123059e-07
5.321444973560573999e-07
1.027703007139280089e-07
-5.090226196102776157e-08
-4.300559339753817767e-07
-1.738971207032591337e-07
-1.050313585437834263e-06
-1.326526586353793391e-07
-9.004473611184948822e-08
-1.048722921836997557e-07
-3.894932092407543678e-07
6.117360840107721742e-07
7.468884177797008306e-07
-2.954149147527118657e-09
6.067367763762376853e-08
-2.917790311585122254e-07
-7.953478431410587746e-10
4.602791534580319421e-07
-1.362317192388218245e-07
3.028144988093117718e-07
-4.068204191298718797e-07
-1.577061112811861676e-07
-2.147439204236434307e-08
-1.027134928222039889e-07
2.691400311505276477e-07
4.639434223463467788e-07
4.730615330572618404e-07
6.096909146435791627e-07
-3.710297562520281645e-07
-5.201006842980859801e-07
-3.021185648321988992e-07
1.149419617263447435e-07
4.078998188106197631e-07
-1.506047908605978591e-07
2.104263074897971819e-07
1.795497723833250348e-07
1.253240924370402354e-07
7.726236539440378692e-09
-5.775645490757597145e-07
7.149685174226760864e-02
-3.719955543601827230e-07
3.722512076365092071e-08
1.206656321528498665e-07
1.188405889251953340e-07
2.533750986799532257e-08
7.714874072917154990e-08
-1.687841688635671744e-07
-8.288660779953715974e-08
5.634471449411648791e-07
-3.326826458760478999e-07
-1.106385667526410543e-07
-6.867260253784479573e-07
2.508754448626859812e-07
2.779172518785344437e-07
4.013666057289810851e-07
-1.981268269446445629e-07
8.044375476856657770e-08
-2.353093435658593080e-07
-4.874345904681831598e-08
7.459226480932557024e-08
-7.436217970280267764e-07
-2.473531708346854430e-07
-8.978908994095036178e-08
3.929586398498940980e-07
4.351688787096463784e-08
-2.121306295066460734e-07
3.035104256809972867e-08
-4.531210322511469712e-07
1.225517394232156221e-06
-4.377253617349197157e-07
3.542706394910055678e-07
-2.124430835692692199e-07
1.965025439858436584e-02
-1.352997124195098877e-02
3.421700114358827705e-07
-7.891839004514622502e-07
-2.234927478639292531e-07
2.316237583954716683e-07
4.925759640173055232e-07
2.208321169018745422e-02
2.732587844889167172e-08
-4.581771690936875530e-07
9.080878458917140961e-03
-2.525229376715287799e-07
-3.336462657898664474e-03
4.698233269095908327e-08
-2.653789147734642029e-02
3.447832739311706973e-07
-9.712478495202958584e-04
2.810063222113967640e-07
-7.198465823421429377e-07
6.697965204693900887e-08
9.843808598816394806e-03
1.293008295988329337e-07
-2.292306078288675053e-07
9.918565861880779266e-03
-5.241910230324720033e-07
-1.279407273977994919e-02
2.081012912094593048e-02
-1.652619232572760666e-07
-9.498725717094202992e-08
-1.125868968665599823e-02
3.362900997672113590e-07
4.023894295096397400e-02
-1.887246838805367588e-07
1.074529346078634262e-02
-1.105652004480361938e-02
5.798274651169776917e-02
-6.987698952798382379e-08
1.135074967351101805e-07
-9.424871905139298178e-07
-3.074019332416355610e-07
-4.249429821356898174e-07
3.594972213250002824e-07
-4.927748022964806296e-07
-4.219320146603422472e-07
-3.306942630842968356e-07
2.959830283089104341e-07
-2.064495703280044836e-07
-8.118563145399093628e-02
-5.204593762755393982e-03
-5.716085433959960938e-03
-6.473335903137922287e-03
6.135043122412753291e-07
-1.813595369458198547e-02
-1.727391849271953106e-03
7.542950566858053207e-03
7.874526083469390869e-03
-2.280123904347419739e-02
-4.540868019375920994e-07
7.209259678120361059e-08
3.587870764931722078e-07
1.993482499074161751e-07
-1.138483582963090157e-07
-8.897030738808098249e-07
5.695684421880287118e-07
-2.570677963831258239e-07
-3.476238248367735650e-07
9.657794919348816620e-08
1.347262355011480395e-07
-3.947973717004060745e-03
-2.894112095236778259e-02
-2.432344103908690158e-07
-1.933831441647271276e-07
-2.650212707067112206e-07
3.538729629326553550e-07
1.913663680852550897e-07
-6.248396821320056915e-03
1.406126772053539753e-03
2.791102815535850823e-07
1.946559920907020569e-02
-1.272556602316399221e-07
-4.357619676738977432e-03
1.701598167419433594e-01
4.938673228025436401e-02
8.135272366871504346e-08
1.194441949792235391e-07
-1.393447257578372955e-02
-2.045796811580657959e-02
3.769579110667109489e-03
5.875064061910961755e-07
-8.398778736591339111e-03
-1.800870709121227264e-02
3.351822996933151444e-08
-1.523205079138278961e-02
4.080134488049225183e-07
-1.629851572215557098e-02
-2.449749782681465149e-02
-5.035771988332271576e-03
1.744084165977710654e-08
-8.067099344089001534e-08
-4.976604941475670785e-07
3.363218158483505249e-02
-2.217673957347869873e-01
-3.403409849852323532e-03
-1.760513335466384888e-02
-2.493679523468017578e-02
-1.693924423307180405e-03
-1.702328376040895819e-07
5.154511891305446625e-03
1.090762751232432493e-07
2.201977338245342253e-07
-1.162588782608509064e-02
-3.342992439866065979e-02
2.731451616000413196e-07
-1.989337801933288574e-02
-2.244918607175350189e-02
2.659112215042114258e-03
-2.043475859636600944e-07
-4.974332341589615680e-07
2.141758059792664426e-08
-6.662742180196801201e-07
-8.467115461826324463e-03
4.762819781899452209e-02
3.934699464025470661e-07
1.482755607185026747e-07
-7.316347705454973038e-07
2.359910666882569785e-07
2.857571246295265155e-07
-3.164916222431202186e-07
1.906562374642817304e-07
7.683774456381797791e-03
5.135674641110199445e-08
-1.271988452344885445e-07
-3.737566771633282769e-07
2.538579906286031473e-07
1.552064503584915656e-07
1.699036569334566593e-03
9.957847185432910919e-03
7.885021773290645797e-07
-2.096025610853757826e-07
1.964509124263713602e-07
-1.258763484656810760e-02
-2.085373580484883860e-07
-4.851621611123846378e-07
-9.398596745313625433e-08
4.749362858547101496e-07
-7.667152885915129445e-07
2.848481415185233345e-07
1.178045421838760376e-01
-7.310822606086730957e-02
-2.671440877020359039e-02
-1.410229802131652832e-01
1.062896847724914551e-02
-4.726099967956542969e-02
-1.534459181129932404e-02
3.978720307350158691e-02
-4.151598364114761353e-02
1.651094853878021240e-02
-2.365131489932537079e-02
8.461436629295349121e-02
8.288029581308364868e-03
6.831624358892440796e-02
5.758580937981605530e-02
-3.022720664739608765e-02
1.256843954324722290e-01
-9.387901425361633301e-02
2.186148799955844879e-02
8.173836022615432739e-02
2.847317792475223541e-02
-7.132827490568161011e-02
-4.069288726896047592e-03
-3.617663308978080750e-02
-5.972321704030036926e-02
1.639855355024337769e-01
-2.011200785636901855e-02
-1.900474727153778076e-02
-1.121662706136703491e-01
-2.028956077992916107e-02
1.427161041647195816e-02
-1.350068207830190659e-02
1.550531759858131409e-02
1.001069545745849609e-01
3.969845362007617950e-03
-7.408553361892700195e-02
7.424109149724245071e-03
5.679703503847122192e-02
1.948199421167373657e-02
-1.967043578624725342e-01
-2.945688553154468536e-02
-5.582653731107711792e-02
4.755504056811332703e-02
4.147488623857498169e-02
-2.372321784496307373e-01
1.169402971863746643e-01
3.414450839045457542e-05
-4.160861950367689133e-03
-7.154840277507901192e-04
2.834702655673027039e-02
8.549303561449050903e-02
-5.207615345716476440e-02
6.369496881961822510e-02
1.493788212537765503e-01
-1.618507653474807739e-01
-4.489765688776969910e-02
5.228701978921890259e-02
5.047199502587318420e-02
8.955840952694416046e-03
2.644082345068454742e-02
3.372939303517341614e-02
7.057972997426986694e-02
1.087686419486999512e-02
1.116919964551925659e-01
1.295992285013198853e-01
-8.719685673713684082e-02
7.028937339782714844e-02
-1.398849040269851685e-01
-4.123007506132125854e-02
2.105402993038296700e-03
9.362039156258106232e-03
1.143659725785255432e-01
1.233707517385482788e-01
-8.487042039632797241e-02
2.587085589766502380e-02
-1.898087188601493835e-02
-1.007394865155220032e-01
4.934410750865936279e-02
1.138789430260658264e-01
-8.181665092706680298e-02
2.260206453502178192e-02
2.964917570352554321e-02
1.310851424932479858e-02
4.330215975642204285e-03
1.459324359893798828e-01
-5.387057363986968994e-02
-1.104245986789464951e-02
1.287876279093325138e-03
-9.712023288011550903e-02
-2.698733471333980560e-02
1.227982565760612488e-01
-4.245747625827789307e-02
-4.518059268593788147e-02
-7.477629184722900391e-02
8.071057498455047607e-02
-1.657896116375923157e-02
-1.342845242470502853e-02
1.737266592681407928e-02
4.586256295442581177e-02
7.141377031803131104e-02
4.477404523640871048e-03
-9.956398606300354004e-02
-6.220357492566108704e-02
4.567920789122581482e-02
-1.852024197578430176e-01
-4.884554073214530945e-02
-2.956913225352764130e-02
1.259351074695587158e-01
-7.365408539772033691e-02
1.124114394187927246e-01
2.887595212087035179e-03
-2.584094181656837463e-02
-3.794569522142410278e-02
-5.862071178853511810e-03
5.063623934984207153e-02
-1.226213648915290833e-01
1.617638207972049713e-02
1.849669963121414185e-03
2.529348991811275482e-02
8.266527205705642700e-02
8.023208938539028168e-03
8.947160094976425171e-02
-1.296312808990478516e-01
-5.837886407971382141e-02
-1.237331889569759369e-02
7.268422096967697144e-02
-1.248069927096366882e-01
3.206190653145313263e-03
1.171741485595703125e-01
-9.589345008134841919e-02
-1.100909486413002014e-01
1.016749739646911621e-01
6.663879752159118652e-02
-4.172635078430175781e-02
3.125958144664764404e-02
1.338795423507690430e-01
-1.391945034265518188e-01
2.196230739355087280e-02
3.736661374568939209e-02
-8.540158718824386597e-02
-9.032961726188659668e-02
3.712217509746551514e-02
-1.604825817048549652e-02
2.666913159191608429e-02
-1.094243973493576050e-01
-4.223985970020294189e-02
-3.656751662492752075e-02
-1.541353017091751099e-01
-2.031674236059188843e-02
5.106598883867263794e-02
-7.555028796195983887e-02
